9
41
5
39
-17
49
-4
-17
10
-20
28
19
-3
7
-14
-27
-12
-30
-49
77
-17
-28
-2
14
42
17
-32
-17
-19
17
2
21
-23
-46
-40
14
12
16
3
6
-12
-10
-32
-17
27
26
33
10
-22
8
3
17
-17
-16
7
28
-38
-16
13
25
2
-13
-8
2
-23
-4
-15
-36
-35
-13
-33
-22
-5
27
24
-9
5
-18
75
-28
-2
7
-5
3
-6
127
14
-1
-29
-9
1
6
-14
24
43
43
-9
-10
-4
12
5
-45
22
15
-64
35
20
-15
-19
17
1
-14
-24
45
23
-20
21
15
32
-17
-14
10
2
-5
-9
-21
-16
17
-16
52
18
20
-7
16
8
34
-1
33
-16
-8
12
-17
-23
23
47
-65
-8
12
25
35
21
-59
-5
-28
-4
21
-7
0
19
31
14
19
-31
66
13
-31
2
18
2
19
72
8
-29
17
-34
-12
29
44
-15
12
36
35
-4
32
22
-24
21
-25
7
-32
3
22
-16
40
-10
15
-74
9
-28
32
12
0
18
-6
-20
13
-34
20
-2
-46
-11
-38
-22
-5
-35
42
-11
12
-12
-10
-4
-41
-24
42
17
-18
19
10
-24
-12
-6
-37
-9
21
5
-28
2
18
-16
26
-2
-90
4
3
5
-6
0
63
-4
36
-14
-6
-19
-32
-10
-37
-16
-42
25
-22
-25
-5
-65
8
-52
-16
-31
3
-23
-25
9
30
4
16
14
12
-43
23
17
53
-26
-14
-12
-8
89
11
-11
-18
2
67
32
32
101
17
-43
-11
23
-4
-11
59
0
22
5
51
-9
38
0
0
21
-25
-43
-4
-8
-42
20
-30
45
-25
2
0
-4
23
-16
2
-26
-20
19
7
-7
4
-19
10
-22
-23
-5
26
11
27
-44
-16
14
-36
-70
5
36
-11
-5
32
50
18
60
21
15
-7
0
-16
-12
62
29
-20
-22
67
-16
-6
-9
24
-34
42
-30
25
-43
-23
28
9
-5
-19
-18
59
-27
-25
-34
25
58
-20
26
3
4
24
60
0
2
16
10
2
-27
-12
1
16
1
3
2
12
-18
-36
-24
27
-38
-14
82
-19
7
4
23
-9
-6
7
-48
-22
-18
14
35
3
-23
8
49
4
-13
-22
22
13
-27
20
1
4
-11
-41
67
10
-21
4
-19
51
24
-28
-45
-9
-8
16
-16
23
64
-16
2
16
9
38
6
13
17
45
-10
3
41
-26
32
-14
-53
-4
-7
6
-42
-38
18
40
2
31
-10
-9
57
30
30
-7
-27
-3
12
18
-24
-34
-24
-41
-6
-66
-34
-18
0
-2
-37
-7
28
39
19
31
24
-33
-29
-14
-38
78
8
-9
-5
22
1
3
-21
7
30
8
-27
-32
-34
-12
0
-50
7
7
-4
-7
-19
9
9
28
47
-10
1
-3
-14
1
25
15
16
34
4
13
12
24
2
-2
34
-15
-37
-3
-26
18
-12
20
-20
13
7
-38
-13
7
17
44
13
15
2
-4
-11
13
21
35
50
15
-16
-2
10
-35
-28
15
54
-64
-14
-12
0
-8
-10
-54
10
10
18
17
26
-1
-17
-5
25
20
-4
14
1
-6
-13
7
8
5
13
-13
8
4
23
9
11
-41
-71
-25
10
-22
51
-55
-29
22
-23
-2
-45
-12
15
-37
-52
-25
63
-6
-13
9
46
3
47
-2
-31
25
17
-10
29
8
45
29
-12
33
-5
-28
43
10
-38
77
7
-15
26
56
-32
-25
-28
38
-19
-2
-49
-10
-25
1
3
17
-5
2
13
-15
-5
-6
37
61
-16
30
-31
-11
57
-38
-61
-32
11
-16
-14
-11
25
-11
-10
4
-42
40
4
46
8
65
43
10
46
44
-44
11
16
-4
15
21
17
18
10
-25
57
-11
-42
-49
36
36
-28
-17
-7
17
-13
36
-23
50
-15
2
-25
-44
28
28
15
9
15
-45
-11
-6
59
21
13
-33
-16
23
-26
4
-2
-51
31
-33
26
1
-21
8
26
4
4
-30
-1
34
-29
-22
23
-7
7
-27
-7
-34
-25
26
-15
21
-15
-2
-7
58
22
-8
-9
13
30
15
7
41
4
-48
21
0
14
22
-22
38
-15
-16
33
23
1
12
25
-32
-15
0
-59
2
21
25
2
-32
23
-15
18
4
-41
-6
13
0
-6
-6
-18
-2
39
-61
-17
42
-29
-45
-23
10
-5
-28
-6
-8
-18
13
24
18
-5
-3
-31
14
42
-43
12
76
29
24
-18
-12
18
-2
32
59
14
21
-36
14
-35
41
-1
-28
-19
20
30
-43
-1
9
-24
45
-20
26
12
-17
-15
-15
19
11
-19
13
1
7
-2
-14
29
20
37
-32
36
13
-20
25
50
26
23
47
-40
-2
-13
21
28
12
19
-6
-7
-17
8
-3
7
16
2
3
-12
-2
-13
-11
34
-16
33
-23
43
10
-4
-29
35
-11
33
31
15
-33
11
-34
14
14
1
-9
47
6
-25
-3
-36
-19
-9
-21
-20
40
12
26
25
0
-16
-18
-7
1
20
17
-2
36
1
-35
0
5
20
20
56
-37
16
-35
6
-2
16
7
-22
-41
-7
-1
-51
2
-2
17
11
21
-17
-20
-53
15
-39
12
-29
-17
26
-11
-50
-25
16
-38
-82
1
14
29
-19
14
-29
10
23
16
-9
-26
27
-55
21
-2
7
42
1
42
36
3
32
-1
22
-8
37
-30
-18
-9
33
4
-33
11
-7
41
46
8
41
29
-11
10
-44
-27
-37
-17
12
-8
-6
32
48
-22
55
-4
-33
28
12
-18
10
-11
-56
32
-25
28
-16
4
-20
-5
-24
17
-19
24
-24
35
37
7
12
25
12
-2
9
-9
32
50
16
62
-3
9
2
36
-46
24
-21
16
2
6
-49
-2
-12
16
30
-3
13
-1
-45
-1
54
-8
-6
2
4
25
32
-7
-47
53
-35
11
14
-1
31
-15
-11
16
-4
-48
27
17
0
-19
11
-32
35
-2
14
21
-27
-8
-7
39
14
16
4
-30
31
21
-60
-9
29
11
31
-24
7
-35
36
10
10
-10
-28
-13
-25
-56
-7
-8
-1
-20
12
23
-32
-7
-18
-8
-25
-3
14
-5
-75
-30
5
71
27
13
-60
22
-22
-12
-1
3
43
73
3
24
29
-10
-12
-14
-34
16
27
-37
-14
-13
-6
-26
-28
-11
-8
11
-34
-20
-57
52
-47
-26
52
6
1
77
5
-7
-36
9
-17
8
-41
41
-31
-14
40
-29
23
48
28
-54
-40
14
-14
53
-12
22
19
-2
-38
5
-1
-22
8
2
0
3
54
-5
6
32
-37
-1
-34
-47
-13
26
27
-34
6
45
9
-8
-81
22
-13
14
-15
-15
-74
7
37
7
2
-3
19
14
-11
5
-36
3
-23
-2
60
38
-10
-16
13
-3
18
1
40
11
-16
17
-32
-4
-8
-35
27
-11
-18
21
28
-46
4
17
-34
74
24
2
-53
21
15
-20
15
-42
-59
29
-1
-6
-7
8
8
-35
-7
7
6
-4
-7
-39
2
-17
4
-10
-69
-13
29
-8
-19
14
-10
-28
18
-19
-14
25
56
-40
26
29
0
10
-18
-13
29
49
3
-81
-13
11
-28
-9
-25
-13
-12
-12
-10
-7
-3
-9
-5
4
-55
-17
9
-14
-8
4
-4
-31
-22
10
-27
-54
-3
-2
-37
23
17
-23
-25
-94
-4
-15
38
-17
11
-23
-32
-25
4
-62
15
9
46
-19
-28
-22
-11
12
-16
-21
-17
-39
23
-27
-34
32
0
5
33
-43
39
-15
91
-41
61
41
69
-23
11
-7
-36
-36
12
1
-28
42
16
67
-20
-34
67
14
-33
-26
107
9
6
15
29
-1
-67
17
2
13
22
-2
-1
31
41
-4
1
-7
-5
-36
65
-9
-37
69
-4
-41
-3
0
-33
-12
-16
1
-26
27
-10
-1
-15
-14
-18
-1
-24
20
-3
21
-12
6
3
7
-37
21
-9
-4
2
-16
-43
-22
113
13
8
-17
-15
51
-20
2
25
2
-9
27
-17
-58
-23
-28
13
-33
-32
-6
19
-12
1
-51
-13
-50
7
33
-32
-22
-23
-5
64
-29
-6
-14
12
-2
0
-30
-38
39
-2
36
-17
-47
15
-9
12
3
22
45
10
-7
-58
-13
127
1
11
-11
-22
-19
-25
7
-10
1
-3
-25
4
56
57
-25
-17
16
-51
49
-29
-19
2
36
-12
-8
-12
-10
12
-53
32
-21
13
8
17
-13
-14
15
14
6
26
22
-32
-17
15
13
8
-25
-2
-21
7
26
7
-8
-11
-35
9
28
47
69
-18
-18
1
-27
-34
24
25
-17
17
-6
15
-18
-30
-51
-23
25
31
-16
-59
65
30
17
-7
-25
49
-35
-4
10
2
12
36
-18
2
29
35
47
-14
2
-16
3
28
35
78
10
-4
-2
10
13
-26
5
-5
12
-28
-1
-1
14
65
-24
32
-33
14
-8
-4
36
-11
-6
-3
3
18
-14
-34
38
-12
19
6
-32
-9
-33
7
0
-21
-11
3
9
-9
35
3
-4
-37
-33
2
0
20
-25
-12
-3
45
5
0
-46
-25
-21
-22
-48
5
-25
37
5
9
-14
-5
-17
4
-10
-11
-23
-5
-18
18
13
-12
-28
19
65
20
-3
-46
-49
-29
-3
15
-4
29
-30
41
15
-12
15
-1
-10
12
-10
1
-8
6
11
-18
-46
-66
16
-20
-3
-8
0
-9
-25
-65
-7
37
-19
0
-45
-71
67
26
-6
-5
36
0
-9
-37
-27
15
-13
40
48
41
-39
12
32
8
3
-4
-42
-9
8
-6
33
5
21
10
4
-9
-4
-24
58
-41
4
85
-23
38
13
-13
27
23
-6
-58
-5
29
18
-17
-32
-43
-4
9
12
12
33
13
29
13
-20
7
-34
-13
6
-54
-46
-75
0
-19
1
-7
7
16
-41
35
-7
-19
-39
-7
65
-18
-22
-1
-29
2
4
46
25
10
-41
44
41
-37
17
0
22
2
24
-35
-10
9
-40
12
-14
-32
-33
-21
19
45
-17
-17
-12
22
-7
-14
-17
-7
17
-32
21
1
43
-41
3
-23
24
-5
-4
-60
-37
25
47
8
20
-18
-25
-14
1
-18
-6
14
-24
-18
-9
30
-8
31
-31
-10
43
-65
33
28
55
-28
-23
-22
-45
14
-17
-10
-16
24
34
-17
2
4
27
-7
2
-22
12
-12
19
-4
4
-6
25
17
-20
54
-18
-10
47
-1
-26
-22
8
-93
-7
-13
7
-39
17
2
93
-52
10
-12
-41
62
10
-14
41
-70
86
-7
0
-4
26
12
-58
8
-28
21
-47
-23
-52
9
32
-30
51
3
56
-20
31
8
7
3
-11
-50
-54
-3
40
-24
21
-40
16
50
-34
-21
-5
54
7
12
5
16
13
-10
59
13
28
10
1
-39
-16
-26
-9
-21
-19
-26
40
-8
25
13
-8
28
13
-32
-31
-12
27
7
-19
-16
4
-26
4
42
-30
-16
56
-3
9
-5
-28
-4
-6
-2
-8
2
3
24
33
25
-12
11
-27
-8
30
-8
-8
-15
-19
-27
-22
-6
44
-10
10
9
-34
-21
-1
9
-32
-8
17
3
-20
29
-11
-6
11
36
-9
31
-16
43
-37
7
-20
2
2
-18
9
-66
-5
27
2
-3
-18
7
-47
-18
-38
1
102
-47
13
20
-64
13
-18
-13
-21
15
1
-14
-22
-33
-1
14
-1
75
7
59
4
-5
6
19
54
-28
-34
-27
-11
-3
-5
-1
5
-9
-9
-3
53
-4
3
26
36
3
22
7
14
-12
-22
17
12
-14
-15
-76
10
14
37
-26
-43
-8
-44
-18
-9
15
-4
-7
14
9
6
2
30
7
10
34
-41
-30
-7
5
-15
41
34
-33
-8
18
-12
57
-50
-23
-12
32
-18
1
-50
-7
-4
-12
11
32
17
11
21
-29
43
18
-28
50
17
-26
27
5
-40
24
47
23
57
8
5
-45
51
48
-41
-9
-57
1
-28
2
-14
34
-16
-36
17
49
8
-2
37
-1
-56
-16
-16
-35
-4
3
-21
15
-41
27
-15
19
-6
-10
22
-1
43
-14
-5
-30
3
-5
9
-66
6
-52
-52
18
-14
0
-11
-14
11
-47
-9
-6
16
27
24
-6
-34
8
22
-3
1
-71
44
35
67
7
44
-6
23
21
25
-2
-25
-29
-13
-31
-60
16
-5
-27
15
-25
29
-4
-9
22
-16
-28
2
7
3
9
-72
27
37
28
29
46
-10
-30
-6
50
-2
14
-52
5
25
36
-29
6
6
-3
19
43
25
14
12
-6
20
16
-38
-16
-19
5
-42
-35
-14
25
34
-13
8
-13
-37
-56
7
-32
-29
-6
48
-11
-4
15
46
-17
-41
-15
11
-14
16
1
-13
-15
34
-29
13
-43
16
-33
-23
21
-32
-30
69
21
4
2
-15
62
5
32
28
-37
19
-1
32
-63
6
3
-14
2
15
23
-35
12
-25
26
15
24
18
-6
56
30
-59
-2
-5
-4
-16
10
6
-11
10
-27
57
-21
-48
5
6
53
-10
-13
28
26
19
-11
-38
6
-14
-34
-8
17
-7
48
22
-15
-28
2
-8
15
8
-25
14
-9
-20
-18
-1
14
-22
-71
-48
16
20
14
28
10
4
-34
26
-52
-5
-15
-16
2
83
-28
44
6
-34
19
-13
20
-44
-3
49
-26
-6
20
2
1
1
-22
8
33
-33
6
85
33
21
-25
0
8
-2
84
-26
10
1
11
-13
-17
2
11
-31
-4
-23
22
-13
3
21
-24
-40
-2
-61
7
3
-8
26
-44
3
-72
16
20
57
-27
19
12
-18
59
19
31
-4
-23
-25
38
-6
-10
22
-32
-8
27
-19
19
-20
17
22
31
-35
-21
33
26
-5
16
26
-8
-55
11
-11
12
-14
7
-8
12
60
-39
26
-14
-31
21
-4
40
59
-2
38
16
-11
13
29
-17
21
-11
-40
31
-10
2
1
-18
28
18
30
-14
-40
27
-20
16
18
-47
9
14
51
-13
-14
49
20
13
5
-12
57
-5
31
-4
-22
-6
33
-30
24
-6
-27
4
-6
-13
44
-14
-11
-22
36
-33
-32
-43
-102
14
11
55
15
-25
24
45
10
71
37
50
-21
10
10
115
-40
-2
-11
-3
14
11
-29
47
-30
39
37
5
-39
9
23
43
-4
-2
-7
16
52
31
-22
8
-2
23
-5
45
-3
64
-1
9
23
-15
-13
-35
85
-12
3
35
1
-7
12
9
-51
47
21
-29
51
1
-1
9
-25
33
-15
4
-3
5
-23
-15
13
17
-15
-7
7
-29
-75
-17
14
24
27
-23
-21
-24
-32
-11
29
25
21
-17
28
7
-24
-29
6
-28
12
-48
-22
-41
-18
4
-33
-17
12
9
-39
-15
-20
-36
23
-6
-30
23
-33
-19
5
-14
19
58
-1
-4
-13
-8
-15
-36
4
-1
1
-5
28
9
-5
49
2
2
-42
17
-2
20
-3
5
-19
3
-12
-23
-21
-42
-6
27
18
81
3
-5
-12
-16
59
-12
51
32
19
-1
-21
-36
13
18
-9
-20
-26
-22
31
2
-35
-4
35
22
-29
-36
15
10
-49
-51
-7
9
85
-23
-40
22
-15
52
-6
49
-12
-5
16
-35
-9
-21
1
-38
33
-34
30
-38
-2
11
-32
-13
24
-16
-55
1
-15
-36
32
118
17
39
15
-6
-5
-13
-2
-24
25
-5
-31
-39
25
-4
-17
-12
9
-21
-36
-11
-3
42
5
1
-19
-10
46
24
4
1
-2
7
-6
-4
-10
-22
26
81
13
10
-11
-97
-2
-14
-13
-8
-20
-31
39
36
-6
30
-12
-11
-12
76
51
30
24
-42
48
47
-3
-1
6
-5
-13
-22
39
-20
30
-15
14
-14
-29
2
-27
18
-32
-26
-7
27
-8
0
-11
61
12
-21
7
75
-4
25
0
19
5
27
-34
-63
44
-24
-28
-2
-42
25
30
-33
91
-12
-11
-22
25
-12
14
-35
21
54
19
-23
11
-28
13
-47
-33
-16
-14
40
-26
6
-47
24
3
35
-12
-12
-39
127
12
7
-22
-28
-28
-37
-3
22
13
-15
20
15
-18
39
53
-13
-48
-4
-59
42
14
26
-28
-17
17
-2
-26
36
15
-76
22
12
-16
1
-8
20
-10
-29
62
20
13
-11
-1
23
-15
-11
30
-45
-7
-34
63
63
-15
2
-28
11
21
-36
21
-10
-15
-9
13
36
-42
-32
6
-98
3
55
-43
31
-54
-4
-22
6
-20
-27
26
-14
19
-35
27
40
24
26
-4
-2
17
-45
16
-3
-23
5
-19
-21
-26
-22
20
-25
24
-6
23
-23
7
21
52
22
1
-16
-23
2
-30
-37
-30
57
-13
-55
-11
3
16
-3
7
48
8
44
25
54
-88
-27
20
-50
-50
7
-12
58
-20
41
18
5
4
-14
22
-5
-32
28
38
-40
-4
-15
-36
29
2
4
-7
-50
-4
14
1
39
-28
-25
5
16
0
37
-50
1
-1
-47
8
-4
-39
-37
-10
3
2
6
-7
2
2
8
-1
-24
-16
-8
-17
-20
-11
0
-35
-2
-7
15
-45
-14
29
23
14
32
21
15
45
42
7
56
-16
22
-8
13
-19
14
21
-27
47
-12
-42
7
39
0
21
38
24
19
-31
13
-57
-27
0
68
-3
-26
20
11
0
15
39
6
-8
8
-26
8
29
-47
12
-49
0
-32
43
57
-9
15
-46
-35
-42
-26
8
-31
1
-6
-13
30
42
3
1
6
10
-6
-71
-33
47
-2
27
52
1
14
-20
43
-17
2
62
-2
-12
6
-42
7
-8
-23
4
-12
51
42
8
9
-8
-43
3
66
-10
-43
0
15
26
46
25
-17
-4
-2
9
8
40
-14
20
15
10
30
-3
-18
-32
31
-11
5
38
18
-24
13
22
-2
34
11
14
-27
-9
-36
46
-36
-11
-7
1
18
18
-28
-45
-40
-41
-36
7
-8
37
-28
-24
-15
-33
-66
-77
-17
-13
19
48
89
29
-12
-26
-13
-1
-5
51
24
-1
82
-18
1
29
7
-18
-27
9
-13
-12
0
-32
-28
41
-16
-4
-21
-2
12
-17
4
-44
1
-6
-22
-24
-13
34
-17
-61
17
-13
34
-46
21
-11
34
-3
-6
40
32
-19
-24
80
21
-36
-2
37
39
15
-11
25
59
50
2
-46
-5
34
-9
0
-21
-32
14
19
22
64
20
-27
4
12
-31
-18
47
-2
10
-18
-26
-8
-12
52
3
9
2
-9
2
-17
-11
-3
-6
62
7
-55
-5
10
-29
-28
29
68
-16
3
33
-3
-13
-31
9
-6
9
-15
22
9
-23
-5
-2
-14
3
24
-22
-12
-33
15
14
6
60
-62
10
2
20
-5
20
-10
-11
3
-23
31
-21
1
-19
-28
14
13
-7
-16
31
28
-11
4
7
-24
-7
-17
-32
4
71
7
-18
-4
-7
-19
2
34
-27
-22
4
6
18
-18
1
-8
13
-3
-26
4
126
14
58
-39
-17
7
-21
29
-3
0
-42
-5
8
-6
28
-31
33
28
1
-15
4
42
-10
21
-12
16
-53
-13
-8
9
-28
-30
0
20
-5
-38
-6
7
-51
-10
26
43
3
16
5
15
-7
-8
11
-17
-16
-4
-21
-10
6
-2
0
-11
-3
-17
-21
6
5
34
9
-5
-33
-17
-10
-18
45
0
41
-28
8
34
-7
18
3
-19
30
-4
-11
10
21
-4
-12
-4
36
2
24
-14
1
-2
5
-4
-27
-34
-16
-18
6
-17
-32
6
-1
5
70
34
-16
-22
17
-13
25
9
-10
17
-2
-19
-18
-31
-11
-1
1
-6
-4
2
4
-48
-4
22
62
-15
-3
35
-22
24
-21
40
-6
9
17
71
6
0
-17
9
3
12
-12
36
-12
-8
-26
25
-7
-3
-10
5
15
-26
36
10
-61
-6
-31
-35
0
-40
25
-36
-17
-5
-17
8
4
11
1
23
58
-23
6
-11
-13
-29
-13
23
-4
40
-15
-8
-17
10
53
2
-3
5
-25
-14
-31
-32
18
-17
-16
-33
4
-51
-29
-34
24
-20
-53
1
9
5
-26
-11
-15
-19
-19
-11
-1
-31
-32
4
2
7
20
6
-1
-23
-44
27
-9
-26
86
13
21
8
68
-13
-12
40
-8
-26
66
10
-27
2
-16
1
8
6
7
-24
-4
-12
-7
-43
-15
13
-5
7
1
-27
-9
-19
-16
21
-2
39
-21
-41
16
36
50
7
5
-25
11
-26
14
-7
-1
35
-82
27
83
-45
-2
15
-8
21
2
10
-14
-5
-10
-21
-10
-7
-2
21
54
-14
-67
12
-36
-38
-9
-15
27
4
33
-15
-47
23
-15
-15
-15
-14
19
-18
11
-24
-41
2
-28
4
8
36
4
11
-15
-16
-11
-3
5
10
-2
11
11
-11
-16
32
-22
-2
23
-26
-9
-30
-19
-7
1
-8
7
-12
-11
22
-2
-7
-43
11
-2
2
-13
53
26
-24
15
-23
15
20
-15
-1
-42
47
-10
-12
-35
3
-39
24
3
5
-7
-12
-3
-17
-8
-6
-19
-29
-4
41
-59
-8
-18
3
-13
-6
-24
-21
-33
-7
-20
4
-17
4
26
-5
32
10
-14
-13
20
10
-11
14
-5
30
4
-4
-5
24
6
79
15
-15
-20
-23
-46
-6
-25
-10
-11
-26
-8
-11
-5
-20
7
-3
3
-2
30
-6
-4
39
6
-26
21
-15
3
-29
-19
-37
9
23
20
-19
-13
5
10
-20
-18
-18
-1
21
1
-11
5
5
-8
10
-13
4
31
-7
-31
-35
-3
37
15
-25
7
14
4
-2
9
-9
2
13
10
-11
10
7
-14
0
-10
-19
11
-30
-5
-17
-2
-20
15
-5
-18
-26
11
-40
-9
40
-36
1
3
-3
-20
-15
-3
-15
40
-13
26
9
10
-27
6
37
-5
26
-51
29
21
14
12
-10
6
0
0
3
24
-41
8
-1
-17
-19
4
22
-18
-22
-14
-21
-27
5
-5
-43
-32
-16
10
-17
-56
25
33
7
18
-24
47
37
-25
-15
-1
7
-10
4
62
44
32
8
31
-15
-19
-1
-36
29
7
29
-5
-3
-19
-1
-8
-9
-13
-3
-1
-31
-24
-3
36
34
-31
13
6
-3
-21
-11
7
6
11
8
-24
-47
30
-9
0
-76
28
-20
-32
-15
-9
-2
-32
-30
-44
-21
15
2
-13
11
5
-14
3
-8
-116
-32
-12
45
8
-7
-7
4
-4
59
109
36
-16
9
23
-14
-1
33
1
73
-5
-10
6
1
-10
-5
-24
-32
4
47
-17
10
-1
5
-20
76
-5
-31
-39
5
33
20
12
-34
7
-10
1
20
7
14
-36
21
-1
37
18
-30
-27
18
21
-9
-37
18
27
2
-15
28
11
-29
11
-22
43
-21
-5
-1
-4
5
-42
25
-5
-4
87
12
29
-40
-2
17
-23
-18
-10
-11
-6
-16
-10
-45
11
19
11
1
2
-39
54
-3
-15
-62
-14
0
-12
16
19
35
-14
-5
20
-2
-3
15
-5
19
78
23
11
-12
-1
-17
4
7
1
5
-28
20
-25
15
10
-4
-3
2
-19
38
-3
0
5
0
-8
-4
-12
-8
-20
12
17
44
-40
6
-24
12
2
85
27
-15
5
39
7
16
-4
-10
-22
-12
-19
-14
-17
127
13
46
8
-23
-27
-28
2
11
-9
2
-12
7
-23
27
-3
26
-33
4
-34
-7
5
-22
-4
-8
20
-4
10
-2
30
-25
-12
-25
18
-14
23
-33
-21
-55
-34
7
5
-43
44
8
-34
-6
27
-38
-39
-22
-23
-5
20
-29
30
32
-37
25
0
22
-17
48
1
0
-32
0
-18
21
-7
-1
-45
12
-21
1
19
-13
18
-45
-29
-6
20
-7
21
-19
-4
-50
-11
-9
-34
1
0
-10
41
0
1
-26
8
-4
-13
-17
-12
-3
4
-5
10
44
-31
-3
27
14
-15
-12
-22
6
4
13
-6
-19
13
16
-26
41
-7
-39
10
3
15
-27
-14
6
23
-3
14
5
-7
14
-38
13
36
-25
-25
63
17
17
-11
24
4
-41
-16
59
-31
-26
11
15
-8
19
-47
-6
-20
-36
6
-21
-23
-30
-67
23
-14
27
-31
-38
16
-13
-21
-4
12
14
-18
-59
-13
-12
35
10
-13
-25
-37
3
-7
-26
18
-3
4
-41
9
1
16
8
19
-37
16
-28
-46
-1
52
23
-23
7
-32
57
24
46
3
-2
17
14
2
0
34
26
17
-5
0
-18
-47
87
-13
-26
-12
6
14
-9
4
14
-35
23
-12
1
-8
26
-6
-4
-32
-18
2
9
5
33
16
32
-2
4
12
-21
-38
-54
-13
-18
2
0
-30
0
-11
16
-13
-14
-31
35
5
80
-17
-25
6
-37
-39
10
-36
92
-19
-44
56
16
-69
11
-30
23
-19
-23
-15
-56
4
15
17
5
-12
10
-11
21
-5
72
-34
72
-38
-16
22
-2
23
0
-31
7
-9
-26
-8
46
52
29
26
71
-15
-64
-23
21
-35
21
2
-21
18
21
13
-17
12
43
67
-16
2
17
-20
29
-25
-28
19
-29
-33
23
95
-1
0
-34
16
-4
32
43
-12
-26
2
-15
41
6
-38
-12
-38
59
3
5
-32
-2
-28
-11
18
28
25
7
13
3
6
13
-43
29
-19
23
18
22
-2
-43
-21
40
-9
-19
-40
40
-18
1
-44
-26
2
13
-22
-12
4
2
34
17
-40
7
0
54
12
-55
31
-6
29
-70
-18
44
-3
34
-46
14
-8
-33
27
-56
39
53
31
0
21
108
11
-33
-50
27
43
32
22
-22
-23
-28
-26
-42
61
-28
1
17
-37
-20
-26
19
-18
-74
-17
-36
-18
34
7
8
86
-40
18
30
-45
30
-14
4
24
25
32
6
4
-23
-16
11
18
43
3
-37
-21
50
28
-23
-7
-23
11
0
-32
-12
9
1
17
-51
-18
-66
3
13
-10
16
10
56
1
-27
-37
4
0
-82
-35
-78
-43
-7
-22
-7
24
-9
24
-6
-15
-11
-40
9
-52
-25
-63
17
12
7
43
-67
-68
18
6
19
-9
16
22
-20
-41
33
16
93
-37
-32
59
-22
-7
14
-64
-31
15
11
-16
-46
-9
23
0
4
-32
7
-25
-34
-6
-43
18
-30
-15
-3
-33
3
-30
21
-2
-20
21
41
-1
-60
99
-33
-21
-4
19
-28
16
29
6
46
15
-35
93
27
9
-18
-21
-10
-34
-19
10
-23
-6
42
-12
24
19
-19
-6
-25
9
-1
29
-27
11
-1
9
-29
-65
-31
10
-35
47
34
-37
-28
-8
17
16
-29
-37
4
-17
-38
13
6
-12
19
-1
-5
-12
7
8
-2
-28
-32
-37
17
-13
14
15
-49
6
-13
-28
-11
36
40
40
-20
39
-43
-21
-4
62
-7
27
-16
61
48
13
-9
-17
-5
104
51
-5
1
-10
-13
-26
-2
23
-3
-67
12
-16
12
35
57
-4
21
33
5
-61
43
1
-23
74
-19
29
22
-49
-28
8
-17
4
-2
-60
17
3
-12
-49
-21
10
10
-12
2
-18
22
-38
37
19
19
50
18
-34
-8
27
-25
-5
-20
6
4
10
-58
47
-9
10
-11
10
6
14
21
-35
1
53
-1
-53
5
37
-6
11
1
-62
24
-11
-8
-65
-45
66
12
103
-12
19
14
-21
2
0
45
-15
-25
-43
-47
32
9
42
-23
-79
20
14
-41
7
18
-45
-6
-41
-39
2
-9
-55
-40
10
-49
-13
-6
-1
16
6
5
-12
5
5
-19
-27
5
-53
-26
26
-18
4
-17
0
-5
-21
-15
-41
66
-20
-27
-30
-17
9
-34
54
20
-36
-12
57
-44
-12
-9
45
52
15
-30
52
-15
17
-38
-19
-8
-20
-6
19
-18
-3
5
-19
49
-11
-8
14
7
12
-19
-20
-7
-15
-14
-1
-42
-11
-14
-53
45
-3
-8
7
-11
70
-54
-80
-2
10
4
-17
34
-23
20
1
-9
-3
-9
-43
-2
-19
-33
0
-27
3
-10
22
-16
35
73
-5
-18
-27
-28
-26
48
-23
17
6
-18
25
12
4
-1
58
13
-34
-25
71
-24
-27
-33
29
-5
-11
-13
-83
21
-4
7
-54
44
-52
33
-2
-23
11
-1
48
-21
8
-5
34
28
-22
25
-41
-11
11
-20
-36
-41
-26
-7
6
25
-11
50
-31
-4
72
23
62
18
-63
32
-15
-30
68
15
62
54
-8
15
46
1
-29
23
-4
24
2
8
2
-1
17
57
-3
-62
-16
-20
9
-20
-22
-56
4
-8
-17
25
-66
11
-34
49
0
-44
6
-22
0
-46
-13
-1
0
27
-29
-1
60
-34
72
-42
13
-8
-38
14
18
-25
28
66
43
43
25
18
-15
-56
-35
33
39
-17
28
-20
9
-36
-19
-30
-11
-2
0
-7
2
-2
10
-14
-34
-37
-46
-20
-26
-3
-36
5
-22
8
29
54
34
-10
-103
26
22
-24
-54
-33
14
-30
-6
-18
12
11
36
-29
-38
-40
6
33
-25
1
61
23
3
21
16
-56
-53
-13
-33
31
81
21
-2
-27
19
86
-48
33
20
64
-33
-49
3
17
-14
-10
-16
2
25
-61
-5
30
87
-3
-20
-38
6
-6
-58
-55
62
21
44
-6
-25
-20
-7
61
-18
39
-52
-24
2
12
91
-6
-22
22
-40
-66
55
21
-46
-4
-39
-9
-11
-16
22
0
3
4
5
-4
-13
19
44
2
-19
-25
13
-57
11
-8
29
-16
2
-19
0
-15
-34
1
-43
37
16
-17
11
-8
2
-32
-9
-80
-29
44
69
19
-7
-16
-8
46
-4
55
-25
49
4
-5
121
-52
27
-19
-20
-18
-35
2
36
17
5
-26
127
-22
29
-10
-20
10
81
90
-64
-4
45
-11
-55
-41
-18
90
-2
-11
-39
47
-14
0
1
-11
36
-65
-23
3
43
27
3
9
19
14
-56
-23
-13
-11
65
101
6
-4
10
22
-25
13
-2
66
57
-16
4
-36
39
-27
12
-3
-13
-30
8
42
-14
40
-18
-22
12
13
-7
-53
-63
7
0
14
67
29
-10
-28
-27
-20
31
35
-59
-16
50
40
-20
21
25
-25
-40
-17
13
22
-1
16
-54
-41
26
102
-15
-57
8
10
44
-21
0
8
-13
99
27
-73
-51
-26
-17
-2
0
13
100
47
-29
-19
29
-30
-49
-21
1
-22
-36
6
45
-4
-7
-23
-37
-18
-40
4
-3
-88
-9
-39
4
-7
-5
47
2
-7
-7
-41
2
-28
-45
13
88
-9
-56
-7
28
71
-52
49
-7
-69
-37
4
-34
-12
-26
42
-5
35
10
13
20
-25
-28
11
-83
-13
-49
-53
-14
-51
-53
-28
68
12
-34
-3
-41
64
7
26
26
-45
7
13
-5
7
-8
-2
-3
-29
0
24
10
-5
8
13
5
-13
19
-22
17
-13
51
-23
12
-45
-1
-11
24
35
1
18
1
34
4
9
-6
-1
8
33
-24
-10
6
-14
1
-17
2
49
13
31
6
12
8
3
26
-3
-31
-20
-2
14
-46
-14
24
7
-1
-12
31
2
-32
5
62
15
-4
5
-8
-3
0
53
18
3
23
-25
2
-14
16
33
-23
4
33
-10
1
17
16
13
2
-3
-14
16
26
-23
-9
11
-8
12
4
28
-26
-15
8
-19
20
-2
-22
-3
-23
-4
25
-27
25
26
48
-3
-11
0
25
17
-7
23
1
27
1
-3
19
-10
-2
-16
32
28
-12
-19
-29
18
30
-16
60
14
-21
-6
-12
-5
-19
-2
-1
-28
-24
-10
7
-27
15
0
11
-17
-5
4
-16
-11
6
11
-10
34
-34
8
-17
7
-12
48
38
-6
-7
-7
-4
17
-14
23
33
-1
16
10
3
-37
3
-8
7
8
-27
-38
-33
-17
8
6
21
13
20
18
-7
-69
37
-72
6
23
6
-3
-13
-7
10
-35
16
-4
1
-16
7
-29
-39
4
10
39
-19
18
-27
43
-15
55
9
79
-9
22
-9
-14
-5
-13
2
-22
-35
-1
-29
-17
-33
-16
-42
35
-75
21
29
-3
-2
38
9
3
-4
-20
1
0
47
6
8
-10
13
-6
12
8
6
-4
-13
-12
-15
19
-4
12
58
-3
11
22
-11
17
44
33
-17
10
9
-6
-2
12
-6
-49
-58
-1
28
11
2
-50
-60
-15
-4
18
-10
13
-36
-20
-21
-3
13
0
12
-43
10
-13
21
0
-19
12
9
-22
25
-32
-8
-7
-3
28
-38
14
-14
17
14
-9
-5
21
2
88
-7
43
-63
-21
-25
23
-21
5
4
14
17
-5
-22
-10
-51
-10
12
26
-21
0
2
-1
2
-9
-9
21
11
-7
-8
5
2
2
-37
-5
13
-15
-8
17
-3
18
21
30
-1
11
-6
46
-5
-54
-21
-9
5
-4
3
-2
-45
28
41
21
-6
-16
12
-5
-14
-7
5
-19
11
-24
-18
5
7
-17
-46
-30
-3
2
-18
43
-23
4
-33
-1
-9
-30
8
-1
-19
3
-21
-18
-1
-15
8
-5
2
11
35
33
-12
3
-31
-15
-7
15
12
-1
4
-20
4
-11
-13
1
-15
-9
-8
21
-16
7
10
-8
-13
0
-30
33
-36
8
-33
-36
-12
-50
11
14
23
47
-18
-7
-19
5
28
15
4
7
-27
3
16
26
-12
12
-27
45
15
-22
-20
8
15
-7
3
-6
2
26
-18
20
-84
-21
18
-7
18
-15
0
14
32
-28
-8
4
-2
-6
6
2
-1
-20
43
15
-7
44
-34
-4
18
-14
2
11
2
-11
0
19
-33
-19
30
83
-2
-16
-22
31
3
-4
-24
-2
-3
10
-2
11
4
8
-50
4
-13
-1
7
1
13
-24
6
-5
-6
5
-14
44
46
27
-9
12
-1
-1
25
-40
-10
8
-17
3
-12
-8
-61
2
26
-9
9
-26
-2
-12
-24
6
-9
-2
-26
-8
44
1
-3
-7
-12
16
-10
6
28
10
-22
12
6
9
39
-13
0
-13
0
15
14
44
10
12
38
-3
-26
33
-5
9
0
36
-30
1
-6
-23
0
-7
32
-28
-12
2
16
10
-26
37
-11
46
-6
-8
19
13
-1
31
-17
-1
7
-26
-6
12
-14
2
-11
-22
19
4
29
40
-7
-10
-20
5
7
-1
-16
28
-17
37
0
3
-22
26
17
-30
8
1
-18
30
-20
-5
-40
-12
18
-4
18
-24
-3
-18
47
-30
2
-11
1
14
2
12
-3
32
18
3
13
13
-3
-2
126
12
-12
6
7
24
23
-24
11
14
19
16
16
-18
1
11
-5
-18
7
-2
-21
-1
-7
7
34
23
7
-40
-25
70
19
32
13
-4
-6
12
-5
4
-33
11
3
-18
-6
7
-1
2
-15
8
-8
-8
0
26
2
-25
-9
12
14
-11
-25
-31
-25
-5
29
-19
-13
10
19
10
18
6
19
-16
-9
-8
-34
15
1
-12
3
-12
5
12
4
47
-17
20
6
5
-3
-2
14
6
-3
-5
-8
17
27
11
11
13
-24
25
-18
30
-8
20
-6
15
-24
1
-20
5
-34
-60
13
5
-76
-22
10
29
-4
5
-13
30
22
21
1
-22
-21
-6
20
-11
3
-26
8
34
-15
-7
5
-16
3
48
24
-5
19
32
36
-3
20
-23
-16
-10
4
7
-4
-14
-15
-11
14
3
3
-7
13
79
-26
33
18
2
-8
-21
19
-3
1
-3
21
2
2
-12
34
-32
-16
-17
11
13
-13
45
-14
-102
7
-4
-5
0
-36
-15
-22
7
-18
-1
7
-14
30
5
-21
-11
-4
1
-22
22
-19
29
22
-1
-11
-4
-10
-16
-40
25
22
7
1
-33
18
32
-11
17
4
0
-11
-37
-4
25
6
-6
34
-10
-18
17
3
17
20
-6
-15
25
-13
12
7
-13
4
33
-23
-4
-13
-9
35
43
-3
9
-33
11
-23
3
15
11
-25
24
12
15
-26
-15
23
12
-44
16
2
14
4
28
-23
-7
-22
18
-34
13
18
-26
-28
-1
1
22
21
-14
15
-3
5
11
-53
-14
20
-13
22
-33
8
12
-1
-69
0
13
5
35
-12
-127
9
-19
-45
-21
14
-6
5
0
-12
-15
-25
-16
2
-18
-17
4
6
-15
-6
15
-10
13
21
16
23
14
1
8
4
3
-16
4
8
1
11
-2
51
12
-15
15
22
44
10
30
18
-19
-17
11
13
-13
85
-14
4
-5
-17
-11
-5
16
-41
-16
8
32
-43
-20
7
19
-7
12
-1
3
3
16
3
37
-12
1
0
38
5
2
-24
-38
21
-1
34
18
7
-6
10
20
-12
1
32
-26
114
-43
11
17
16
10
13
-1
-6
6
79
0
16
12
-9
30
-46
-6
-48
-11
-7
17
22
-16
-26
3
16
5
-7
3
-39
-14
-57
-1
-15
-7
0
-33
15
-3
-9
-12
5
-2
-41
15
30
12
-13
5
13
2
2
12
4
3
-1
-2
22
-13
4
37
-2
-31
-26
35
49
26
-12
-33
-13
-12
4
12
-10
65
-9
41
5
-16
0
-26
-36
-32
-26
22
15
-42
-16
-27
1
-18
34
-10
14
15
-33
16
-5
-10
-3
7
22
14
0
9
-17
11
-9
-15
2
-54
-9
14
-14
71
-26
72
-3
-33
28
10
15
18
-20
-36
36
-17
6
-15
-4
7
-13
37
20
20
-62
7
-7
49
34
27
8
-26
-4
-1
45
-9
-36
31
-21
11
10
3
-19
10
-5
-13
11
-19
32
8
-14
-20
-22
11
16
29
-20
-3
0
35
18
19
-35
0
-51
-35
-3
8
-5
14
38
12
-39
-23
-30
-22
-45
30
15
-3
-3
3
35
-22
5
-16
14
31
15
-6
-4
20
-20
-37
106
113
7
32
-27
-26
-18
-12
-1
20
-24
-59
-42
-21
22
16
-28
-35
-41
38
-29
-15
14
-31
-1
21
4
-3
7
-17
-16
-1
14
0
5
25
13
-26
-27
1
12
5
-12
9
17
3
53
-14
16
18
0
21
-17
-16
2
2
-46
-58
14
23
-25
-11
-4
-16
17
-5
42
-22
-24
17
-5
-9
-28
-10
-21
-34
-26
44
4
23
-1
-32
-4
12
16
52
12
17
-20
-42
24
1
-21
5
-8
10
-11
-27
26
6
9
23
-40
0
3
-10
-59
-16
-27
-3
-11
-9
25
3
54
4
-31
-23
17
0
11
-13
-25
19
-14
-3
-37
51
33
-9
-1
-16
-14
-1
-27
-13
-34
11
16
4
26
28
50
18
-11
28
41
31
23
-11
22
-45
-3
-4
12
8
-4
-9
-20
-7
-12
-1
4
-19
0
11
-22
6
11
25
-12
-21
-8
21
1
-34
-21
-6
-11
18
30
-6
-14
16
-26
1
-12
5
7
8
20
6
10
48
-15
14
61
-45
-65
-29
7
38
11
10
5
-67
-3
-7
-15
5
8
-16
-14
10
2
10
31
-4
-3
-13
-28
2
25
-11
-68
27
-45
-17
-38
47
2
0
-24
-24
51
9
6
52
0
6
18
6
-52
-6
65
-24
38
41
-2
26
26
14
-13
-19
28
19
-59
-7
-12
-12
-31
36
-13
23
-4
1
-9
-2
-6
-21
-34
-4
-21
-34
24
-21
25
-1
-33
-13
6
-12
-12
-15
-2
4
12
-9
-4
2
-14
2
1
35
20
14
12
-21
-31
8
34
25
-18
-18
11
25
-2
16
-35
56
7
-6
-1
6
-14
0
-31
5
12
-15
-28
-1
-28
14
-19
6
38
-19
0
-19
9
-11
8
1
30
17
-22
35
-6
-18
-13
10
-1
-31
47
-4
-1
5
23
-15
-28
-14
-27
21
-1
46
-46
6
4
41
29
24
1
1
-4
-9
15
-9
12
14
2
4
21
16
-1
-5
43
11
3
-15
45
-4
11
-21
7
-52
15
-40
3
-6
40
57
3
-25
13
5
36
8
-15
-18
-9
-2
18
-16
5
29
-7
-30
24
13
27
-2
27
26
-8
6
42
-8
0
10
-1
-18
6
12
20
-3
-4
16
-21
12
-18
9
-33
35
-9
11
22
13
11
30
13
-33
-15
3
-6
-53
1
63
-4
13
-20
18
55
0
16
12
1
47
12
68
33
26
-8
-4
29
49
22
8
-31
16
-40
-1
-30
-17
-20
-34
-27
35
4
13
24
3
5
10
13
16
-15
43
50
-13
8
25
48
4
19
-8
-4
-19
-13
21
-45
-38
-12
4
16
-25
19
20
26
15
-8
3
6
6
-15
19
40
-13
-31
27
7
127
37
-10
-40
7
-17
1
-7
10
-32
3
-18
-16
-21
-11
28
-8
17
11
6
-4
-53
-19
1
-5
85
65
-4
28
41
-30
-28
-6
-44
-13
-9
-37
29
0
-20
12
-10
4
38
-2
-16
11
12
-6
-33
-7
15
-57
35
6
-22
58
-3
-29
33
10
0
-27
103
31
37
11
-8
20
3
-1
-56
-21
-5
-4
3
-20
-35
-19
12
27
24
46
1
-3
-24
43
-13
-12
-26
5
7
14
1
-21
-14
-7
-19
-3
-19
-16
24
18
-20
-3
16
-15
32
3
27
22
25
-12
17
-10
9
15
31
-19
-3
17
-27
1
3
-25
-38
-14
12
-2
-26
-12
45
-20
23
7
43
-32
-24
-5
-59
20
-46
-21
8
-19
-41
-17
-34
-12
-3
-34
4
33
-10
8
-15
-3
-18
-37
-19
-33
16
-11
8
-13
-26
-23
16
2
5
-28
-24
13
22
4
4
85
33
-19
-4
-4
10
44
14
0
15
49
-10
-14
-10
4
21
-18
-11
20
-18
-23
21
-28
27
5
14
-1
-10
32
0
16
2
19
-41
38
-3
-15
4
-24
-10
7
7
14
-9
21
-10
-13
-12
-37
-7
-25
2
91
23
-37
5
61
35
43
-50
-24
31
13
-8
-23
-14
24
81
8
-16
5
-23
-21
-25
-11
9
-10
16
8
-5
8
6
-11
-25
32
-2
31
40
-42
4
49
-23
5
36
46
26
5
-22
0
-29
12
37
-43
25
-27
-23
23
-8
-17
-9
-43
-7
-37
-14
1
-24
-32
-12
-2
33
29
-31
-11
-30
7
-18
-15
19
13
13
6
-27
-17
-12
7
-22
20
0
-11
-27
-22
27
-9
0
61
2
4
-1
8
-42
29
-53
-29
-9
17
0
12
34
34
-22
-19
62
-5
-4
-4
-22
8
-17
-8
2
-16
-17
-31
-29
-13
13
2
2
22
-20
14
-15
15
17
0
-10
-19
-10
1
23
-16
-10
11
16
-25
11
-25
46
-18
-51
4
7
25
-8
-10
20
43
24
-10
-5
9
-10
-4
-19
17
5
17
-19
-34
16
-17
-23
-54
1
-5
-3
-37
2
-18
91
-22
64
30
-17
-17
-5
-13
14
14
15
-9
1
28
24
6
0
27
37
8
-24
5
-26
37
3
-2
22
-33
52
-7
-24
29
34
-16
-24
-39
-24
-29
-2
2
-2
16
-1
-25
-49
-21
-10
-7
-1
-4
9
7
-52
-5
-27
-4
34
16
24
15
27
16
9
15
37
40
33
-22
-13
13
-5
3
-2
0
-14
-5
12
0
-11
3
-16
-11
-4
-18
-11
-16
-2
-15
15
-22
-3
-9
17
16
52
14
1
9
-9
46
-21
19
-34
-14
22
-11
21
-10
4
19
-6
15
24
14
58
12
-56
-5
15
20
-11
12
-25
-16
10
-9
12
-13
-18
15
0
17
11
1
33
9
-20
17
-31
35
1
-21
-9
-19
-27
-55
4
33
28
9
3
17
-1
-11
-16
-20
6
11
-16
5
23
-13
20
-3
-17
-2
-20
-13
-12
-6
-10
16
11
15
9
2
-1
-16
52
-3
26
-2
-1
21
-9
-14
-7
21
10
-8
26
7
4
-19
-8
-20
10
-5
-37
7
-13
-26
-16
-1
8
-29
25
34
-12
0
8
-9
8
94
-26
-20
-13
-2
19
-2
-7
11
4
9
-22
29
-32
12
-6
-41
25
-20
26
-9
-23
-20
15
13
-15
-2
20
31
-3
3
-5
8
-9
-7
35
-82
-23
10
-10
-4
26
-17
61
-19
-10
-17
-9
-8
7
1
-7
3
-2
-5
4
33
-20
5
-6
4
-19
14
-7
-1
17
24
22
-11
12
-4
127
8
-15
20
14
-5
-17
7
0
-8
16
9
-8
-7
9
27
-35
-22
10
3
-1
-6
43
-2
39
11
12
-30
-10
-31
-7
-2
7
-6
-3
15
-34
-6
-8
-16
25
-5
13
-11
-17
-41
-8
11
-6
31
22
-18
-17
-10
29
-12
-23
-3
-7
-32
5
-12
15
8
-18
-32
-22
23
-6
-12
-25
-43
4
-8
16
-2
-14
-36
-35
-41
-18
12
6
9
-6
13
3
-3
7
-3
-40
30
-13
6
-17
-39
-10
47
-3
-7
13
-11
-6
-3
-31
-37
18
-1
-30
-8
7
-17
5
-17
19
-13
3
-30
-26
-6
12
-12
22
72
1
-12
-22
-9
-5
-19
-2
-10
-11
-13
7
-32
13
22
-12
0
-52
58
-21
2
-1
-23
13
90
-27
0
-12
0
16
-9
0
9
5
-21
20
19
10
9
-23
-7
21
-19
-36
11
-4
-12
1
-30
-3
18
22
-9
66
1
-22
-5
-10
33
-6
-8
-42
-5
-24
-13
24
6
-7
5
0
1
1
-9
-27
53
-11
-9
-32
0
-20
-31
-22
-13
-14
13
-2
29
29
3
-29
19
-14
-2
1
-17
43
5
19
-39
19
-13
-21
-32
-16
27
17
-15
-22
-6
17
-17
27
-11
-16
23
13
14
11
10
6
14
5
-7
1
-3
9
11
22
3
17
16
12
-5
17
64
17
-3
-11
-1
-35
42
11
-16
61
17
8
17
-8
-2
-18
18
6
-6
-5
1
-24
27
-19
13
12
17
6
-36
-9
28
-5
-11
12
-17
45
9
30
-14
-21
7
-18
-24
24
38
-2
-4
-9
5
12
12
5
-9
20
-14
-10
-3
6
-28
20
6
6
10
14
74
-3
-9
0
14
1
60
2
10
-9
-19
-18
10
5
-5
-9
-2
-19
-18
0
-19
37
-6
12
-18
-30
-7
-7
20
-4
7
5
-1
0
-4
4
12
1
-29
20
-6
48
-4
9
-1
18
17
-19
-1
-34
34
-11
2
2
1
14
-23
12
-9
-14
10
19
-21
-2
-12
-9
-36
24
5
-27
0
-14
-5
38
-24
16
-23
25
-24
-27
15
5
-9
-15
27
5
-9
23
4
-32
-9
-60
8
27
19
-16
-3
-35
-9
-6
0
10
2
-18
-4
26
3
33
-6
35
37
-14
-24
-30
11
3
4
17
-19
-27
8
15
-26
-31
-2
5
35
-27
-6
-6
10
-9
-28
2
33
11
18
-13
-71
21
-7
19
19
3
-3
-14
-19
-7
-4
40
-17
-23
1
8
-29
35
-2
-10
3
3
-8
18
39
-14
4
7
8
-29
-1
-9
-7
0
32
-7
18
-34
-30
-11
-45
-24
-10
-3
-10
15
12
-27
-3
20
-30
1
20
4
-7
-52
-13
-22
-1
-2
-19
4
-6
19
-29
5
-19
2
3
49
-17
19
-18
-39
7
-6
7
-9
-30
-27
15
8
-12
7
40
27
-4
5
16
13
-12
-11
6
2
-45
-3
27
-48
7
-10
-13
-36
-8
14
55
-8
10
13
17
-7
0
4
12
-7
-20
-18
-10
5
17
23
2
5
-26
-32
-13
15
5
18
-8
53
38
-5
-9
16
8
41
-17
30
-4
27
3
18
6
-8
4
9
-12
-29
3
-36
17
15
-12
-23
-2
13
-34
10
14
32
-15
-19
-34
-4
5
50
16
-1
6
-4
-1
0
-25
-1
-23
-8
-2
10
20
-5
5
28
24
-33
-5
-11
1
8
-19
18
6
4
13
-10
19
-10
45
-12
-3
5
16
-29
-15
0
-14
-8
-44
53
-19
21
8
43
-16
45
-18
13
-4
0
21
-7
5
-20
14
-43
-21
16
-1
-3
5
6
23
-13
23
-12
-25
-7
10
-34
-7
8
-22
-31
11
-22
8
-16
-10
-16
1
-1
-34
-12
-9
4
17
36
3
-28
24
-13
45
-9
-33
-14
5
24
-17
9
-5
14
-11
37
-30
-1
-14
32
-13
-31
2
17
2
11
-8
-11
-7
-10
-21
4
4
3
22
4
32
-28
-21
0
-57
6
41
36
-9
12
-38
0
-23
11
-11
-34
10
0
-4
6
-47
-14
15
-30
3
-34
-3
-10
53
22
19
-5
16
-28
19
3
50
-16
-21
-30
-13
53
27
4
4
-21
-16
14
8
25
0
25
3
65
9
-25
-2
-12
10
-14
34
-12
-2
-33
-11
20
-19
13
21
27
-5
-23
22
-10
-29
50
3
-3
7
-9
21
-9
-32
0
19
-17
6
-23
8
0
-20
35
-5
-23
11
36
9
-3
3
-6
2
-20
-5
-10
4
-37
-22
1
27
-5
12
-23
11
-14
71
11
15
-6
-22
-20
63
15
49
29
9
17
6
-7
-22
3
15
-13
15
2
14
-6
-51
37
-16
-32
37
-6
-20
0
-22
13
-14
-4
3
8
13
6
-6
0
-15
5
-56
-18
-4
-47
-55
-16
-12
37
-4
31
-21
8
8
26
4
-9
-26
-5
-2
8
9
-23
40
-10
8
33
9
2
0
10
5
22
-12
10
-18
26
-4
-1
0
-8
12
1
6
-24
21
7
14
-10
-6
5
9
4
-8
9
-5
-3
-14
3
-10
-11
-12
-8
1
8
-9
-24
3
-6
13
-4
0
-1
-4
6
5
-2
12
2
-3
4
0
-9
6
13
-7
4
6
-17
9
7
7
-6
10
11
-13
-2
-8
1
10
8
45
-16
15
1
9
-11
9
0
-2
-1
2
-12
-2
-1
2
1
9
-21
-4
6
12
0
2
-10
7
10
1
22
-1
-9
39
-7
5
3
7
-16
-6
-16
-8
0
8
-29
7
2
5
6
4
-9
-1
-6
-11
8
-4
1
12
-8
13
19
-23
45
-7
-10
-2
-1
-10
8
12
-9
-15
-10
4
4
8
-7
8
-2
-13
1
-9
-11
6
14
6
-5
-9
1
-18
17
7
16
-7
4
3
-2
9
-2
-4
4
6
33
-9
-30
-5
16
-5
-11
-8
-22
0
-16
19
17
-14
1
1
-12
-9
6
-8
-14
16
-5
-8
2
-9
-3
-22
-2
-13
16
6
-17
-12
-3
22
4
4
1
-14
-4
9
-13
10
0
6
25
7
2
5
3
-3
-5
-5
-2
28
13
-8
-14
-6
-13
7
-1
-16
-5
-15
5
-3
-3
-10
-29
0
12
-14
-15
1
6
-20
-4
-1
13
14
0
-11
16
-4
-18
20
-6
18
41
1
0
-10
20
3
0
2
-1
5
27
16
10
-11
2
-10
-7
-10
7
3
10
12
5
16
3
7
-6
13
-6
-7
2
-1
0
17
18
-1
3
12
9
4
9
-9
8
2
-4
-7
12
1
4
-16
21
11
8
17
25
-8
1
2
-9
57
-8
-16
4
4
14
1
-1
8
-22
17
-7
12
-2
2
4
13
-7
16
8
-4
10
11
-6
5
-12
2
4
4
10
-5
-4
3
-2
10
-5
-15
-7
6
-26
-4
16
3
-4
-3
-11
-8
-14
6
-2
-16
-11
-6
-10
9
5
-10
-26
-5
6
-3
-9
-8
5
4
-16
6
-6
9
3
-33
-4
-18
-19
-1
-2
16
-23
-10
-8
1
-12
6
-15
4
2
11
-1
-11
2
1
-16
6
10
-18
15
-3
5
4
3
3
-16
-11
20
5
2
-9
-17
-6
1
15
15
-9
-5
-10
-5
5
-5
-2
-17
-20
-9
-6
-2
-8
13
-5
-2
-13
-4
18
0
-1
-7
19
2
6
4
15
1
11
32
0
-7
0
-13
-1
0
0
10
19
-12
-3
5
-26
-6
-7
-1
-3
30
-16
-14
-2
5
9
6
-12
-7
8
-2
5
6
-14
2
14
-11
-3
-4
-4
-6
-9
16
-5
1
3
-11
-5
18
29
4
-1
8
-9
-15
37
-11
4
-12
-22
-3
-8
14
-2
35
-14
3
-20
-14
-12
-4
-7
4
19
-12
33
-4
0
-3
-10
-2
-10
0
-9
-18
11
7
15
-20
-7
-6
-8
-3
-2
0
-11
-8
7
11
10
10
3
-16
2
3
-18
2
1
6
-3
-11
1
0
5
14
-14
-9
27
10
6
-3
5
13
2
-9
5
-13
10
-9
8
-31
-1
-6
-3
-7
16
-1
-9
0
-11
-2
10
1
1
10
-12
4
1
3
1
-5
18
-10
1
-25
-11
-15
0
13
-14
-16
-7
-8
-13
6
-4
24
-8
-16
-6
4
9
16
-10
11
3
-13
0
-9
25
10
-8
1
17
8
-11
1
-5
4
25
-1
-1
-2
10
1
-4
1
3
4
11
-17
5
21
4
10
3
-10
-8
-7
-8
-5
5
13
5
-12
7
25
127
-13
-8
3
-13
6
-1
-10
7
2
8
20
-3
4
-3
-9
4
-11
-10
-5
-16
-1
18
6
-16
22
3
13
2
12
-12
-6
-4
15
-19
3
-1
2
-5
6
-6
7
16
-9
-7
4
0
-26
-11
1
3
-14
-22
19
13
-15
-4
16
-5
-3
7
12
-5
-6
-10
-17
-13
16
-15
-20
-16
-5
-1
-7
0
-4
-9
7
-9
-2
0
0
-9
-3
10
4
1
-2
1
-5
-5
13
7
-7
16
-6
3
18
11
-5
-1
31
-8
8
16
6
-4
-10
-3
-10
-12
16
-12
8
-6
11
5
17
-10
-17
5
1
-7
-14
-13
-1
-4
-9
8
-8
-8
6
0
-4
-9
17
-5
-12
-8
-4
10
14
10
-3
-12
4
4
19
4
8
-8
19
-15
10
5
-3
16
-15
18
16
-5
0
20
-15
14
-13
-19
0
-5
5
66
2
-15
6
-5
4
-9
-12
14
-10
-7
6
12
-1
-6
1
8
-14
13
4
-18
-7
-4
15
-6
12
-14
8
8
-7
4
7
-3
21
-1
-29
-12
-10
-17
6
2
-17
-2
18
-15
-5
-9
-22
-3
6
8
9
2
-13
2
-13
-7
-10
-15
8
6
4
9
-23
-13
9
-7
-3
0
-17
-9
-5
4
5
20
8
-22
-3
-9
-6
-17
2
3
5
-4
1
18
-3
-19
-5
-7
-5
-6
2
-19
3
22
2
-19
-1
-12
9
5
-6
0
11
25
-10
-9
-12
-4
-20
-9
9
7
-8
3
23
-14
-12
7
9
6
11
-5
5
3
3
-15
-7
1
-3
-2
-5
-8
-4
-11
8
6
3
-1
6
-5
9
-2
5
18
-1
-5
-22
-14
-12
-10
-25
-10
-13
12
0
-4
-9
-15
-2
-2
14
-10
8
4
13
-15
-8
10
1
-3
13
-2
23
36
7
-18
-3
-6
-8
7
7
4
4
-4
1
-17
18
2
-5
-30
-15
0
4
-22
4
14
-6
-3
2
1
8
-3
-2
-17
-14
-19
19
-2
-2
-13
-9
9
-2
-1
50
-12
-6
-1
3
-4
22
15
8
2
-15
-17
-5
21
6
9
-13
11
5
-11
0
9
7
15
7
-7
-3
10
17
4
16
10
-15
17
14
-8
10
-15
-11
11
5
-14
-5
13
-26
18
15
3
12
3
5
-17
7
2
3
3
-6
-9
-20
-9
-12
-15
-1
19
-36
-2
-8
8
3
2
-1
5
7
25
9
17
0
-6
4
15
-12
-11
-7
-20
-19
-22
-33
-20
44
19
2
-43
14
-3
-12
29
-1
1
-2
-23
2
-3
-1
-5
-59
15
33
-1
-39
29
-32
19
43
31
-18
36
19
-20
1
29
20
2
-5
-10
-5
-8
21
-26
4
-1
4
20
-36
-26
25
13
36
-14
-7
-55
-20
-26
-32
-3
2
-18
-11
-3
39
21
2
33
2
-3
3
-33
-12
-25
1
16
-6
-29
15
3
-8
-7
52
-75
-22
17
-5
-27
-13
-18
-7
26
-17
-21
-30
-10
-2
-28
-59
14
21
-55
25
10
-42
14
-6
13
-28
-3
58
-53
2
20
-4
6
70
16
-31
-17
0
-22
-24
17
15
13
10
-15
-18
-20
-51
0
-15
-17
29
29
-16
15
17
-93
-40
-9
-13
7
101
11
12
30
-5
38
-11
0
-29
28
12
90
25
-22
-23
-33
33
27
127
1
95
127
-2
-4
-2
1
33
-10
5
21
30
-22
-2
7
64
-24
16
28
-23
-10
41
-30
-21
58
11
-39
-12
9
-14
6
48
31
26
12
20
26
-23
8
60
-48
19
-35
-23
6
-83
7
-24
-27
34
-2
4
-13
1
-46
4
25
-14
36
56
1
18
10
-24
15
-23
3
14
-35
-7
-6
-45
4
50
-11
-23
60
-16
-40
23
27
13
8
-17
-29
57
6
4
8
3
-9
14
25
59
-17
18
87
-26
2
-2
62
-19
7
-60
-16
-25
54
-64
-26
21
-5
-2
10
74
12
2
-39
7
-36
72
-14
49
14
-7
-31
8
41
-40
-19
84
-18
26
-67
26
31
-9
-37
-27
47
-4
-24
15
-25
33
-5
5
-13
-25
-9
-95
-20
15
-11
12
43
-6
-1
-16
26
31
41
37
-23
-1
13
-18
49
-18
3
2
7
-6
-33
1
-20
-38
-33
2
-25
40
-9
26
-37
-3
43
-8
-4
14
-19
20
7
19
-15
-25
-37
-25
-9
-36
19
38
-14
3
-17
15
2
-45
-8
-1
17
11
-27
24
-25
-15
-45
21
13
-7
0
-38
-40
18
-5
-16
-13
-26
3
90
13
-10
19
11
14
-3
-21
-6
-1
-10
-58
45
3
-26
-37
-24
34
101
32
-4
22
-6
-48
-23
31
-6
-29
25
-2
-61
-16
-12
62
54
-21
-33
-9
16
24
4
16
-19
-44
-10
4
28
-46
8
-56
-26
23
6
-3
-35
-55
9
-19
-26
72
-14
-20
-9
-28
8
18
12
-2
32
-1
18
39
24
-15
27
34
-82
-47
15
-48
-25
22
10
-16
-13
41
-30
-35
1
75
8
38
-49
2
-40
-56
-14
45
-25
10
-4
18
16
29
-1
3
21
18
65
29
-10
20
-14
15
-14
45
-54
98
-38
-6
-23
-4
-23
16
-5
36
-25
-2
-18
3
86
-1
-71
-2
-8
-14
-3
-41
34
-7
37
-31
-38
28
2
-14
11
-45
-28
18
-31
21
-34
-16
53
-2
-17
-35
1
34
-5
13
52
-14
-5
15
-6
-15
-61
-69
31
0
5
-17
15
12
24
-22
-26
-24
-14
-63
13
31
-22
-11
22
-32
5
-10
-12
-8
38
22
10
-22
-5
18
-7
29
12
-25
-34
-42
10
-1
13
23
19
2
47
1
-12
12
41
68
-16
-18
6
-15
25
-24
-15
10
9
-22
18
-7
-20
-16
-2
6
-18
0
10
-9
12
-21
0
-2
-20
-18
17
69
-7
-30
-31
-21
47
-33
-13
9
6
-30
25
10
8
0
-45
29
-46
-12
-22
37
-16
26
58
-67
3
37
27
20
-13
25
-24
-32
34
-14
3
10
43
-24
51
-42
38
-5
-18
-44
39
9
-35
18
11
4
17
3
23
-4
-26
17
3
4
-13
34
-9
8
7
46
59
36
-28
-42
26
-1
23
7
-27
-7
-37
-16
-26
8
-27
-18
7
-50
-14
-12
-3
-21
-6
-84
-14
12
17
12
-9
-29
1
-6
-9
-12
-11
52
-36
4
29
20
55
21
-41
21
22
7
-24
19
-13
-19
17
19
38
-23
-13
40
4
-11
2
5
-38
-6
25
5
12
97
11
-37
-1
-19
6
-17
-5
-18
0
-10
0
8
7
-33
24
-22
-52
-14
63
15
9
-16
-7
-30
-9
-20
-24
-22
29
-2
-19
6
68
-21
28
-6
5
10
22
23
-40
36
5
-34
-21
-17
-20
-40
-16
-11
25
-47
-15
12
-58
39
74
19
23
46
59
8
13
-8
42
-5
-29
8
2
-32
0
-16
42
-46
-12
-54
-43
-10
-33
-44
51
-59
-8
-11
-7
-53
5
51
13
50
-16
-14
-46
-40
-8
-7
-21
17
-17
-58
20
-3
12
8
-19
-8
2
-5
9
-8
-5
-11
-7
45
-35
1
8
-12
4
-47
-26
10
40
-6
24
70
28
56
21
17
-64
-10
-10
-6
13
86
12
69
16
-36
21
5
-32
-3
2
-18
-29
-18
-24
34
83
11
20
-27
-6
-10
-10
1
-38
-3
-10
-35
18
-8
49
13
-16
65
-32
39
-3
26
-34
-4
62
-17
-36
-62
-26
40
-30
-16
10
13
-12
-30
-10
13
-55
4
-4
14
-10
12
-49
-37
36
-9
6
-68
-11
11
-51
-28
10
-2
19
35
-5
12
-7
-56
0
-74
13
-7
16
9
-19
-29
21
19
-28
-39
0
14
24
-25
68
89
-5
-53
-88
-28
-17
0
75
5
-21
-3
-25
-6
-6
-47
17
71
2
9
58
23
-22
21
13
1
9
-10
-45
-11
-12
14
30
32
3
16
42
24
49
-7
-27
-15
-29
-5
15
-21
-5
3
-7
9
5
32
-22
-7
-13
2
87
-23
-5
44
15
-33
-13
32
-4
-37
0
31
17
17
-5
-18
-22
8
-14
-20
-111
-14
14
10
-32
3
62
14
12
21
108
-11
-13
22
4
35
17
-34
-7
102
16
-8
-13
39
65
-60
-12
-31
6
18
-13
22
13
1
41
-11
-16
-10
-27
-3
-39
-22
-72
22
29
12
-3
-13
14
-2
5
56
-24
-28
31
33
-36
-46
1
5
5
17
-6
-17
3
-5
-98
4
-32
27
-22
-12
29
-12
36
-15
-4
0
-2
-26
3
-46
4
-22
13
11
13
32
7
-11
22
-37
-5
-8
28
-11
-7
-4
-16
7
3
82
-13
10
28
10
-42
-5
17
18
-10
-29
-24
-7
-13
-13
-9
-28
0
37
11
-14
-52
-14
29
-10
-8
-44
15
-3
-8
-3
12
-2
-31
0
31
24
18
7
-4
36
2
6
-17
5
-28
12
21
1
-13
56
-56
8
19
37
21
-1
-22
0
-12
13
-25
11
35
-4
-20
-44
26
1
35
5
10
-32
18
-36
12
22
-41
0
1
28
127
-23
-15
9
-18
-46
-2
6
43
-20
-14
-5
-31
23
-51
-15
50
-8
19
3
-18
15
-15
26
-8
-11
77
-16
5
-2
-18
-10
18
-14
4
50
1
-40
-31
-2
-19
-14
5
-1
-21
-6
59
7
-16
-11
33
21
-25
5
44
-29
-17
-13
-27
-14
15
22
15
-11
-3
6
-8
-41
12
23
7
12
4
16
26
-5
-8
-32
-20
13
-28
-6
5
-5
-5
-7
32
-14
-7
101
-11
30
24
-7
-11
0
28
12
-38
-2
37
12
20
-27
38
32
-20
-5
-23
-44
-1
-18
-19
-5
17
-29
-5
-25
8
0
-14
14
2
-15
33
3
-36
-7
0
3
-6
-15
21
41
-19
27
-19
-23
-26
10
-26
31
20
34
-7
-2
-24
-25
-41
-32
-49
3
-12
34
23
13
42
-17
11
-25
27
7
35
-45
7
21
-53
-2
-50
-9
2
25
-33
-31
-26
1
10
-24
24
-26
-7
14
15
-29
-33
-7
-21
-7
31
2
10
-4
27
0
-14
31
0
-2
-7
10
16
18
44
18
19
5
6
-11
-15
-20
4
17
-31
-7
-15
17
-31
23
-21
22
2
66
-12
-24
-9
42
22
72
-11
-29
7
-13
-13
-18
23
-3
7
9
10
-8
86
8
13
-37
3
-29
-21
-27
13
-14
28
11
-12
-2
32
-16
11
-35
-5
77
-25
-9
14
49
16
-42
-16
15
-44
-39
4
30
-23
-10
9
61
-31
29
-2
9
-23
-15
14
-25
-27
69
-15
27
6
-16
-33
31
-13
7
-30
28
-13
7
10
30
24
13
-10
8
-18
6
-14
39
-16
11
-48
25
3
57
27
-26
6
-11
18
48
-51
-20
-11
24
-16
-5
-7
7
24
1
5
-10
11
-35
6
31
-9
-9
-10
0
25
-15
-32
20
11
-17
17
13
-27
-31
24
20
-9
-26
-10
-21
-3
-18
-8
6
19
1
-15
2
12
-44
-4
15
31
-1
48
-13
1
-2
-3
-15
2
-4
-16
8
-1
-11
-8
-1
-24
21
-9
31
19
8
-40
1
17
-10
3
34
-3
-28
-27
52
23
-32
1
-46
3
-22
-31
33
4
18
-9
3
-30
2
6
-34
-50
-10
-43
6
28
-40
4
-37
64
6
12
-32
-10
-6
-27
16
16
-8
-14
13
16
-23
-8
-21
-8
-33
6
0
15
-38
35
0
23
33
-5
-14
12
-12
15
15
3
-26
-6
33
-3
47
-20
-16
-38
-33
-22
8
-6
-22
-20
-18
16
21
-33
-8
-9
4
0
-9
-31
17
28
12
31
7
-29
18
-4
-31
-24
-3
33
-14
-14
-41
-23
-7
-22
-31
-34
-29
41
-11
11
8
-42
-15
2
11
10
4
22
-24
-17
0
9
14
-16
1
-17
15
5
18
-18
6
32
-29
-7
-3
-29
-23
-35
9
-13
-17
7
-9
-7
-16
26
88
1
9
-19
-25
-47
-17
18
-2
25
8
14
3
-14
70
6
-13
2
-23
31
1
-43
24
-9
-2
-2
14
-20
-29
10
18
28
44
-2
42
9
-7
-16
41
-15
-5
-12
-40
13
-36
48
-41
15
-4
-30
2
-17
-18
60
-20
-31
8
11
36
11
-5
10
1
21
-47
-5
-5
-28
11
52
0
47
-36
20
24
-15
14
32
-6
18
-16
-14
2
-5
31
23
46
50
-26
52
-20
-6
26
4
2
-12
24
-5
22
-11
2
61
4
15
-1
-8
5
29
-32
9
-17
2
-10
-41
-13
-3
-22
-34
-22
-4
13
-13
43
-9
-2
7
-12
15
-5
-2
-26
-5
32
9
35
-10
-41
8
-17
4
24
-16
66
-19
16
-13
71
-27
-29
-9
-1
35
63
-29
-15
-13
9
5
-29
21
-13
17
-12
-10
-4
1
4
16
-19
11
18
41
-8
8
41
25
10
-36
-15
-11
-19
38
54
-21
11
84
3
-11
-32
21
19
2
-16
7
-6
-28
48
23
-12
3
44
16
-4
-21
44
-14
-19
-5
5
-15
-36
18
-20
16
49
-9
-30
4
23
13
-6
30
-19
3
40
15
-10
36
-5
0
19
-44
1
-6
-2
-49
4
-6
-37
2
11
-25
9
9
37
-12
31
30
27
-33
-44
-31
4
-23
-34
-16
-14
6
10
-3
-14
42
-27
29
6
42
57
-3
-18
-8
-52
-4
-32
9
-6
3
11
-3
-19
1
9
9
-13
-25
17
-20
7
-5
26
-6
20
15
-52
8
-14
22
-7
48
-51
-21
10
-12
-19
15
-41
16
3
-4
-18
-25
32
1
-12
-35
5
2
-10
5
-7
-17
10
7
-3
2
-13
-13
15
1
-1
41
-4
-18
14
29
-5
-10
-10
29
31
0
46
-14
4
-14
-18
17
8
6
25
0
40
-23
30
-34
2
43
5
50
25
-40
30
103
13
7
-13
-51
-37
19
-7
0
4
-25
42
-22
52
-72
-14
-1
-12
17
24
-17
-28
42
-7
22
-15
62
-13
4
11
-8
-13
-23
-21
5
-11
19
30
-10
-26
14
3
-31
-10
11
-28
-13
3
-24
3
14
12
-6
2
-10
-53
12
-23
-6
-13
27
-1
32
-16
30
45
-22
-18
-4
-8
13
-4
10
0
28
13
-1
-4
-36
24
11
-20
-14
6
18
11
-5
34
24
-22
-25
-42
4
49
-2
46
-12
-1
34
-8
13
-5
-15
2
-5
-22
-6
-18
-16
32
24
-3
7
4
-20
5
-7
-20
-14
24
-23
52
16
15
2
17
9
30
12
-19
-1
-8
60
-57
-11
-17
44
35
28
33
-21
0
5
-18
5
-6
27
-35
-18
13
9
-1
10
36
10
18
49
-12
24
21
32
-7
-14
-15
36
-3
-1
-32
-13
-25
-14
-9
-12
-26
1
-9
7
6
-2
8
1
26
8
3
-2
32
-7
49
16
17
3
-19
-13
-11
21
4
35
-19
7
16
-34
14
20
2
-30
1
-32
23
3
0
20
11
22
20
-11
-24
8
-11
-17
35
34
-13
-13
-28
-2
-9
-21
3
1
-15
19
-1
2
2
0
13
-5
9
50
1
-4
21
-4
18
-16
16
74
22
34
43
9
-5
3
-8
-10
-1
-12
20
26
34
14
13
-14
55
-11
37
4
-10
1
-14
19
7
-23
14
-14
-25
-12
35
-20
7
0
-33
-8
-33
1
18
36
105
-17
-11
-15
35
-9
1
7
-1
21
11
2
22
59
-21
-13
26
-4
23
-10
13
7
9
9
13
-30
-33
9
42
-18
-15
1
-32
-11
-26
-17
-8
6
1
-11
53
-18
-13
-76
-1
-1
0
-6
13
-29
5
-29
-25
-26
-12
-4
15
-33
20
-33
9
14
-1
-26
6
0
-18
-13
17
-21
33
1
-19
10
-14
-6
-45
-5
34
-20
10
-6
-3
7
-15
-10
-25
-20
-6
-5
11
-22
8
28
14
-35
-13
9
-23
44
-36
-19
3
2
50
11
26
45
9
28
6
9
9
-3
30
12
-4
-36
21
12
-19
-31
-21
-21
-1
-6
35
11
-30
-20
-33
-26
-23
-44
8
64
-18
-1
17
17
-1
13
-3
10
0
-34
31
-13
-16
15
7
-10
13
-24
12
-4
-3
-23
-12
26
5
0
50
13
6
-56
27
-4
8
42
-4
-7
45
-28
3
14
27
-6
7
-14
58
11
15
11
0
-18
-6
-18
53
0
8
15
-27
21
-28
-31
-29
19
8
-15
-35
-18
-8
26
4
-38
-22
-51
15
-37
27
1
-28
10
-2
27
-2
-22
5
-28
-16
-30
-15
-23
40
-6
14
23
-15
-3
-31
88
24
2
26
-13
-12
-6
-11
-11
19
-24
7
11
-4
10
10
-3
1
5
-18
-13
-29
-11
-8
49
18
-9
-1
-19
-4
-12
1
8
-5
-4
40
-23
-3
1
6
8
9
-8
-6
-6
10
4
21
-6
-13
-19
-8
12
-28
-34
1
-7
-8
-4
-22
10
-25
-28
-14
-13
-10
-20
-21
-5
1
-23
-2
-1
25
24
-10
23
10
-11
-16
19
-21
-40
31
-6
-22
1
7
-15
0
5
-14
4
-19
-21
-30
9
-16
0
-11
-50
-2
-15
-8
24
22
13
7
24
-52
-29
-1
18
56
-21
3
-27
-2
-20
9
-21
-14
6
1
-56
-4
-20
-4
-25
28
15
30
-9
-15
-1
43
-2
-22
-8
22
4
-18
-11
-12
-5
-15
-19
6
5
-23
14
-48
-3
-22
-10
18
-23
-7
47
-11
1
13
-2
18
-25
-16
40
2
-10
18
44
1
8
1
10
16
21
-6
8
-8
18
2
15
16
10
5
6
-5
30
6
23
-6
-21
11
35
-8
1
-20
-12
13
-4
16
-9
19
12
8
-15
0
-4
-20
0
48
-11
-2
-4
-31
1
12
38
18
3
-11
-16
-4
20
11
10
12
62
-29
-13
2
-9
-13
-4
9
-1
9
15
-58
-5
8
27
13
-7
-14
10
-4
21
8
16
-12
-5
-22
4
-4
-24
-1
13
-10
13
-1
16
-20
-7
-16
-3
-26
7
0
45
-15
8
-14
-4
-105
10
-29
-51
-3
-13
48
-40
7
9
25
23
30
1
2
46
12
8
-24
3
-30
3
-14
5
-11
8
-18
-54
12
-49
21
-9
-33
0
-25
-24
31
-8
-53
40
40
39
4
-39
5
-47
10
-6
2
2
-7
25
20
-15
-44
-14
-29
14
-26
-18
-16
1
-6
-59
15
2
-19
36
-16
5
-33
-46
-11
77
-4
2
-8
-8
5
-9
14
6
-1
3
6
-8
-1
78
-26
-5
5
-6
19
23
16
4
-27
6
2
33
7
-10
38
13
14
11
-20
37
-2
-8
-7
-34
-2
5
4
11
-17
-4
-22
-11
25
-20
7
12
-29
10
-7
4
-11
2
1
-13
6
19
-10
-5
22
5
2
20
-30
8
-12
-24
0
23
-11
-6
25
13
-3
-5
12
3
-4
-29
1
15
31
9
37
-11
54
13
-29
5
-19
-1
-48
0
-18
3
-14
10
-12
-3
-27
18
1
15
28
-5
-23
28
-10
35
21
-2
-31
-9
-13
36
-5
3
-14
-12
-9
0
28
-41
-20
-15
33
-5
-38
6
18
-15
-3
-16
43
12
-20
-13
5
17
-3
-12
18
1
-25
8
-15
3
-2
-26
-20
34
8
16
-11
-22
8
5
21
-7
-64
12
-26
29
-16
10
20
-33
11
14
-18
-1
-12
-2
-10
-9
-2
-28
-12
5
15
14
4
-12
5
-5
7
16
-18
11
4
0
9
-30
-21
-8
-1
25
-7
-21
-28
-13
-21
-127
-8
-11
-15
-9
-2
-4
-17
-16
-17
38
7
-4
-2
-17
-19
36
-17
-4
52
6
-8
6
-5
-4
10
-14
12
-5
-32
-9
-15
11
23
5
-21
0
6
30
-6
2
8
-11
11
-32
-18
6
-6
7
-11
-16
-16
-1
-25
-17
-1
-14
-1
5
0
7
-35
-31
27
3
15
-31
-10
-7
-31
2
6
-8
-17
7
7
-23
-40
38
9
19
-17
-11
28
0
36
-10
8
11
-46
5
-4
-7
11
-10
57
10
1
24
-4
5
-4
-44
-12
-2
-8
29
-19
7
-8
-3
-21
-10
4
15
-3
-5
-24
-18
25
7
79
1
-23
13
-19
7
31
-9
10
36
51
-16
25
-15
13
59
-60
16
43
7
23
-5
20
18
0
-13
-12
45
-2
0
-38
32
25
-61
22
4
22
27
36
-21
-6
-15
-6
10
12
-4
2
-11
20
37
-2
-27
36
48
-14
-18
5
-6
1
20
21
-44
12
8
11
27
-8
-41
30
-45
60
-18
-7
12
5
36
38
6
-3
-2
16
-14
-1
27
33
9
-34
34
16
-3
-26
13
-8
-7
-18
-23
-24
-38
-8
6
2
24
2
4
-1
-12
24
21
29
10
6
-2
-12
-18
-30
15
-3
10
-15
-16
-10
-12
-45
15
-10
-18
-7
7
-10
-8
22
-15
9
-15
27
18
10
-26
-30
12
-4
-7
34
-8
-7
-18
3
35
3
-17
7
-9
4
5
-14
1
10
-3
10
-7
9
15
2
-8
-9
-11
16
-27
17
9
-8
-1
2
-20
8
-39
-12
-10
-8
-2
4
-7
-12
-21
17
10
-32
-5
-7
-4
7
-5
-14
5
-51
3
-2
17
12
23
-14
0
3
-7
-13
-10
0
-11
-21
-13
-3
8
-1
-25
-5
-24
32
13
-13
-27
-2
-39
-3
2
-6
3
5
-4
-4
-16
31
15
-4
1
26
-3
20
-2
-29
8
14
-10
-24
-15
-1
-12
-5
-13
3
22
1
20
11
-24
9
-18
-13
17
-2
5
14
-20
2
42
25
11
-19
10
15
3
30
-17
-12
9
-23
-26
-35
-7
-26
-7
25
2
1
-12
-10
8
49
-10
-18
53
9
-7
-7
7
13
-2
-6
11
24
-12
-9
-2
11
23
-15
10
-37
-19
11
-6
25
-13
33
4
4
69
-18
-19
17
-2
-15
-13
12
18
-1
1
-3
-35
0
-2
6
-5
-2
13
8
-7
11
-7
-3
8
-12
6
1
7
-13
8
11
-6
-16
-4
8
-19
3
4
-22
-10
11
-8
6
13
29
-4
-3
7
17
20
0
-23
11
2
-12
-11
-24
-11
-10
-14
-19
6
-11
-8
0
8
-16
-11
53
25
-16
2
-1
24
-9
-21
-11
1
-8
10
21
5
-18
-8
-4
4
1
7
-8
3
6
7
24
16
-22
-7
-2
-6
21
6
-1
-25
-30
-3
33
50
-7
-7
-18
1
-20
0
-6
-19
-7
-14
13
-12
-7
-1
-22
0
2
17
-2
0
-16
-19
-12
-4
8
6
15
-1
-18
4
-11
-25
-15
23
-10
9
9
22
-3
-5
4
-6
-2
0
8
-14
14
-5
24
3
2
-9
80
43
37
21
12
-12
-1
-8
-30
-21
1
-4
4
3
3
-5
-27
12
-10
10
-28
-3
11
-17
9
-14
11
-20
-11
-6
-20
-2
-28
-9
-3
-15
-1
2
-23
16
1
-2
-12
20
-15
7
-26
-6
-12
-9
-8
22
7
-5
47
-29
-22
-29
18
-3
6
-8
-18
-18
0
18
-3
-2
-7
14
-4
-11
-6
1
1
0
-11
-30
-5
2
3
15
-11
1
3
5
-11
-6
2
-5
3
11
-5
-1
1
-2
14
-14
-1
9
-5
8
-22
1
50
-22
8
-1
18
-10
4
-5
-31
-15
-1
39
0
3
13
-11
-8
-15
-43
24
6
-30
9
7
-3
10
-13
-6
-22
-4
-1
-35
28
-30
0
13
1
-23
-3
-12
-2
0
-6
35
-2
1
10
6
10
-13
0
18
-17
1
-10
-32
-4
8
-6
-6
11
-13
12
1
14
-36
5
-9
-19
5
17
-6
-15
0
-11
-2
-19
25
9
-7
39
9
-21
2
-9
1
0
-18
8
-6
-5
7
1
4
14
-10
15
32
-11
-6
-17
10
16
-1
54
-5
16
-12
5
-20
-2
18
-7
-19
-21
4
-4
-2
-25
-3
14
-9
3
6
-3
-6
-9
-26
-4
-9
5
-3
-4
27
-4
-3
-19
2
14
-2
8
-16
-5
0
11
-9
-13
-2
7
-24
2
32
17
2
30
-13
-7
11
76
-5
-12
5
5
-4
-6
-28
-16
55
7
5
9
4
42
3
-33
40
-9
19
-23
-5
-4
4
46
39
19
10
4
4
8
-2
4
-7
-9
4
-15
-17
25
7
-25
-1
-2
-5
7
21
14
7
0
63
6
11
-8
29
1
-3
-30
17
-15
4
-5
8
-3
2
-14
-6
-7
-26
-1
19
6
-10
21
2
-19
-12
-22
17
-2
-3
-12
17
17
-7
-5
-31
2
-7
-7
-1
12
17
51
37
3
7
-10
9
-21
-1
-24
-19
12
-6
-18
16
-12
19
-18
3
26
-2
-13
-3
-27
7
-8
-5
-7
23
2
17
6
-1
-15
13
1
-8
36
-11
3
-2
29
-13
13
-14
-19
-18
22
0
-15
-3
19
-4
-8
-28
-32
8
-5
-13
2
-4
-3
-25
-4
8
-28
53
-12
-11
-33
20
0
-5
12
-15
-15
5
-3
-18
-9
11
6
25
-5
-5
-2
-4
6
10
-11
23
-10
8
46
9
-11
7
-2
-26
9
-5
6
4
7
-29
13
1
-6
-2
4
-41
-12
-31
1
17
-37
-16
-13
-3
-6
12
-5
-18
21
-24
-8
-1
18
6
30
2
-7
19
0
-12
-4
9
17
-1
17
-18
-2
4
-37
38
12
-15
1
0
-17
-5
-9
8
12
-10
-2
1
-7
-11
13
1
-19
18
2
-6
-14
-22
-7
-1
0
0
78
32
-14
-21
-1
-9
-2
6
-10
-10
-4
-21
48
-3
43
-11
-26
-12
3
0
5
-2
9
-29
-21
-11
15
-45
13
-14
-10
-1
1
0
5
27
-15
1
7
-21
-16
3
8
-20
-13
-7
12
14
-13
-5
-11
-20
99
-13
-53
8
10
24
30
1
-11
12
-4
10
-1
-3
10
-14
-12
9
15
-5
-7
-7
-4
-1
-15
8
-1
-14
-16
1
8
17
-1
11
-5
10
-3
-5
-1
-3
-31
-15
-14
-20
-13
9
-21
-3
-8
24
-5
-20
-10
3
-15
-4
127
-17
-16
-6
-32
0
48
4
-2
1
2
-5
-12
17
2
-17
-4
16
11
-16
5
-12
-7
13
2
23
-22
-5
5
2
1
-34
45
30
-1
14
-16
7
20
-1
-7
5
9
43
31
-9
1
1
-24
-1
35
20
13
-7
7
16
-14
-21
-10
0
14
-31
-35
-7
18
1
-1
-10
-7
50
-8
9
-20
-44
-5
-1
-4
14
18
6
-13
10
-3
31
-23
43
-10
-19
-6
4
18
29
25
-4
-8
-17
4
-9
4
-9
37
8
-3
-14
-4
-17
17
-22
-10
-14
2
16
-14
-1
10
6
5
31
-10
10
1
-21
-12
-10
-17
5
-12
-15
5
14
-23
6
-8
-3
-62
-3
15
-41
-21
-24
-13
-16
13
-15
-5
-19
-7
-13
-8
-24
9
1
-22
-2
0
0
-7
-14
-4
-7
-7
-11
-1
8
-10
30
15
-1
35
6
19
18
2
-18
-21
-12
-3
17
-39
12
39
10
-16
39
-11
-55
-16
36
-5
-26
-38
4
8
-7
-1
1
11
-13
0
34
37
-27
0
-3
-13
15
11
36
-10
-17
-4
-14
9
0
1
12
17
-20
15
-9
-13
-45
23
-5
15
-8
-12
6
-36
-38
-2
6
-17
-14
-27
26
-22
-29
-11
-15
2
-32
-7
-7
-27
1
10
-14
11
-11
-6
-4
-14
-11
-19
-22
5
-22
-10
-15
-35
21
0
14
5
-5
-27
18
-28
-24
24
-21
-28
-4
42
23
-45
-34
0
1
-25
33
-13
-6
14
9
21
-8
-40
30
-6
-19
-17
-61
5
-13
0
7
4
-19
18
7
-10
-56
21
5
6
-20
-31
74
1
-6
-1
27
-22
-45
120
-15
14
11
-9
62
17
91
-8
17
-15
-84
15
-17
-22
72
-2
0
0
32
59
-13
4
0
3
-16
-30
8
-45
-20
-13
2
53
20
-17
-23
70
24
8
-9
33
-27
73
-10
33
1
-23
-9
-11
-50
-4
-21
-3
23
-5
10
-15
-26
3
-29
1
-9
-4
-52
-44
-17
7
-8
-18
31
18
-13
23
19
24
-13
43
-18
-12
-23
-3
-6
-60
-5
-30
-31
-43
50
-8
13
7
12
-23
-4
-3
-20
-2
-26
-5
-29
-4
27
-13
-10
109
1
-7
-13
-14
4
5
-4
53
8
1
-46
24
-1
14
-19
-25
-27
-4
-1
17
19
-38
34
-34
8
15
-11
-6
-47
-51
-16
-36
-7
-18
-23
-7
59
21
-28
-16
8
-13
-21
-29
-12
2
31
-17
-8
15
16
11
-12
29
56
-35
19
9
-29
-14
-9
-46
17
18
1
3
-32
-4
-29
10
2
22
7
-23
1
21
-36
-14
23
-39
-1
-12
46
13
-11
-9
5
31
7
8
36
-19
-21
-14
-8
-10
27
-28
-12
-11
21
-15
-7
-17
-5
31
8
1
1
-13
20
16
8
-36
-28
-21
-3
-45
-10
45
32
18
30
17
22
-9
-20
2
1
-52
-8
-15
-27
-24
4
-12
-23
11
5
-31
-15
-14
-21
2
-1
0
70
-6
2
-23
-18
-3
-22
8
0
-5
-8
-32
14
50
-43
-20
10
1
23
13
-33
-12
3
-35
-15
-11
-6
-37
29
-23
-37
-7
36
17
11
-26
-25
-1
-26
8
-21
12
-16
-4
-12
1
9
5
-13
32
53
3
1
-10
-12
13
-10
13
-26
7
-17
9
9
-3
1
7
-46
9
9
40
52
-31
-21
-51
-6
-39
-33
-23
20
-8
22
7
-1
17
9
9
21
-15
25
-8
22
31
-32
-31
-4
33
12
-38
9
6
-36
2
-5
-11
-6
12
46
-9
-2
7
-22
-42
-52
5
-28
17
-13
6
31
-6
24
-17
-51
-1
4
-22
-32
-22
-10
-37
2
-27
8
-30
38
20
-9
-2
16
-16
3
-29
14
-10
15
-5
-19
-14
-3
-15
42
-11
22
-13
67
-23
-2
-3
-13
-22
5
-36
-18
26
-7
25
-1
-12
-22
-30
-13
20
48
24
47
-17
-26
34
-3
-21
21
2
6
-28
-33
6
12
22
-15
-43
2
-1
-3
13
16
-9
-12
20
-12
0
7
-10
7
26
16
57
26
-3
42
-16
-11
-2
-68
-10
63
7
-20
-24
-27
-17
-50
5
13
12
-22
6
16
6
-53
-14
47
-53
-15
67
8
13
56
-24
10
21
16
1
-7
7
-15
10
29
19
3
-31
-19
21
4
56
-42
2
17
12
-23
-3
1
32
-23
1
15
-10
-42
20
36
-12
-32
-53
-22
6
14
42
-9
25
-8
-24
22
-32
-8
18
-62
2
47
-18
39
1
-11
-13
-23
48
-8
-20
-2
-66
-45
-8
15
-10
27
8
-4
31
-30
-42
7
-19
-16
9
-21
28
-25
-2
-9
-15
6
-16
67
-34
-22
-30
-5
-8
30
41
46
-7
-29
-31
14
18
0
-77
10
-4
-13
-1
-64
-36
-8
12
24
-23
-28
14
-16
16
-10
-47
17
-19
-10
61
-8
-3
-2
-13
30
7
3
14
6
-23
-19
-15
-18
9
-28
-65
20
12
-24
7
-42
-11
4
15
9
-12
11
-2
-33
4
12
-20
74
-7
3
8
-8
15
3
-31
-9
-4
-19
32
33
7
-15
-2
-15
7
-5
24
-10
-38
23
-23
-15
-38
-27
9
12
-16
-24
-7
-1
43
-33
4
2
-19
-9
-19
21
60
-127
-11
26
62
19
18
19
-10
-20
-3
3
8
13
-3
1
29
12
5
-28
93
-19
-44
19
-1
-6
6
1
-36
26
4
-39
-12
-10
-9
10
25
17
-33
-21
0
2
13
-7
-8
19
-10
-1
12
-12
-18
4
13
29
-4
-1
-25
-19
7
27
-49
24
0
9
-16
10
-20
4
15
1
28
28
24
-19
-15
15
-7
39
67
9
-37
-64
-15
-6
1
8
-7
10
9
-26
6
-7
4
-54
-61
-37
18
-22
16
24
-47
-8
102
20
11
-6
-6
-20
-11
-3
15
-10
5
-12
-3
46
-15
-3
-12
-9
19
-13
11
26
-49
-25
-25
-36
9
-9
-16
12
33
-8
-44
1
-13
28
-18
-16
-21
-8
5
-41
-17
-15
-8
-39
-74
13
9
17
31
0
-11
6
22
-37
0
-40
-4
-11
-28
3
5
-36
100
-10
-24
4
48
18
-8
-15
-28
24
-20
6
-1
-7
11
0
-11
21
-16
-3
-22
13
-33
-16
-9
8
-9
-5
-17
-27
-32
-37
7
-6
-8
-7
2
-6
-30
-13
-13
-34
4
6
-18
-15
-63
-31
-6
-20
-5
-41
-24
5
-7
7
-12
2
-14
89
64
7
-30
-123
22
15
-21
0
0
-1
8
-14
-13
3
-7
-3
-9
1
-45
32
-40
6
-36
-6
12
6
0
52
-18
11
9
2
-30
-2
-1
-11
-15
-16
-23
-8
-7
-8
15
15
2
10
-14
38
-6
-9
-22
-37
34
-27
-15
-27
17
24
-22
-51
4
-20
25
-28
79
3
-12
-38
-7
26
-35
0
15
-27
-1
-6
-18
46
-17
6
-9
-12
2
40
-15
0
-16
3
-16
-32
-45
-1
-1
4
36
-8
10
27
4
-28
-7
24
19
46
-2
-3
-14
-14
-22
-4
-12
12
-5
-4
14
47
-10
-2
-12
-14
22
7
-9
-12
-14
-5
-8
-2
1
3
-2
-37
-3
-1
-4
-40
15
15
-5
1
-1
-11
1
-6
-15
-12
-8
-6
-13
-5
-2
0
31
25
-23
11
-25
-22
13
6
18
-24
4
-18
-22
37
-2
-14
1
1
12
0
-11
35
30
50
-8
-2
13
2
-9
-22
-9
45
19
-20
-9
31
-5
-3
-7
14
-10
11
-14
16
-12
-4
-24
-22
-9
-2
-2
25
3
16
8
4
-21
-13
-10
26
12
9
43
-17
-36
36
-10
37
4
10
22
2
-7
9
-12
-2
-1
17
4
61
-14
9
15
3
15
-3
-32
-52
-1
-3
-5
10
-5
19
-32
-6
17
-2
22
-35
-27
-11
-14
21
-8
-15
-23
23
24
9
2
-15
-11
-1
-16
-5
3
6
-6
-4
-13
-13
-71
27
-41
-16
33
-10
-42
-2
11
115
25
11
-16
3
-14
14
32
23
30
-27
-23
13
14
2
31
-12
-9
-14
11
-30
-9
24
10
23
-13
-21
9
21
2
-5
-20
-39
-8
18
-21
-9
-8
-43
13
8
0
7
24
5
10
12
-9
17
-18
-33
12
-28
-8
9
-15
-47
-55
3
3
25
-8
-1
-6
11
-13
0
-24
8
-12
17
-12
17
9
7
-4
-1
11
-19
-6
-8
1
-2
11
12
63
-18
-7
43
3
-9
19
-10
31
-26
3
32
4
-12
-4
11
49
13
-48
-5
14
-4
-16
5
31
-6
14
4
-9
-31
0
-29
-12
-12
40
-22
-12
-4
2
-9
-19
-7
-7
-25
-21
-4
-17
-7
-13
-37
12
14
31
-9
-29
-11
13
-13
-30
5
0
10
0
-7
44
-13
10
3
2
-36
7
11
18
-2
7
-16
-22
3
-5
5
57
-23
-2
25
6
17
127
36
-17
41
-1
-1
2
-24
-1
-9
14
10
3
-8
-16
-1
101
-12
-8
-29
17
-72
1
13
3
-10
-11
1
-16
32
-13
14
1
1
-2
-2
42
4
5
-25
-20
-28
0
2
60
1
-17
-6
6
18
-3
-1
-7
9
4
10
21
-24
-3
20
6
2
12
-21
-11
34
-1
3
-5
5
9
10
-9
-4
-26
31
2
-5
-9
26
-18
14
21
20
-9
-19
9
13
20
-13
16
-4
6
-1
22
-3
14
-2
-23
0
1
-11
15
34
-7
5
-14
-3
2
-2
24
5
-84
43
-15
5
-11
-14
24
9
-15
3
6
15
29
7
5
8
14
-15
-10
0
9
13
-8
6
2
10
-5
-17
22
8
-8
-23
-14
4
18
-10
-5
-14
-16
-15
11
-15
35
65
-11
20
6
-20
19
0
-37
22
-23
7
-6
-3
-12
18
6
19
-18
0
11
11
24
-9
-3
-6
-3
-1
-16
13
-16
2
18
12
30
-5
-10
8
27
15
-14
-30
4
32
29
-11
-22
7
0
-3
11
0
-26
5
20
7
-13
-32
6
-3
30
10
21
-10
2
-10
18
12
-35
8
13
-15
-56
18
-7
16
-5
16
5
-19
-5
5
13
-6
5
-5
14
-28
19
-1
-19
-18
-4
34
-16
10
-16
-25
18
4
5
-12
-6
30
29
-8
26
-17
42
-24
5
9
-5
-60
25
16
2
-1
-34
-2
-30
-30
-27
-8
-1
20
5
0
1
-21
29
11
-11
-13
-3
-1
19
14
8
-4
20
21
-8
21
-6
-14
16
15
-31
-3
33
-2
23
-17
-22
19
13
16
-5
-17
-39
18
12
-20
-33
19
5
11
0
9
-16
-21
-45
-24
42
3
14
2
-12
-1
-13
-16
-13
18
-15
66
-19
-9
-4
-26
-15
-20
-10
-41
-16
-1
-8
-22
11
15
44
2
-5
6
2
-3
-3
27
7
-6
13
-14
11
4
-18
9
-3
8
17
-1
-13
5
15
15
-19
5
5
10
2
-18
-21
15
-16
-8
14
3
-15
-14
29
16
15
-12
-1
6
11
-4
-17
-6
1
8
-14
3
-13
-1
17
-4
-15
-4
-11
24
-7
-28
14
43
-43
-8
22
29
19
16
-17
-6
-22
-7
6
-13
-17
-27
-21
22
30
-4
6
-34
-3
-1
7
33
-33
37
37
1
-2
-1
-21
6
20
-13
6
0
16
2
-30
15
30
4
-5
14
8
55
-29
1
5
-1
3
-1
-9
18
-41
25
18
-38
-21
-8
-8
-39
15
2
-5
5
12
-4
-14
-18
27
-11
-5
1
-6
7
-2
-6
-21
-24
-9
-7
-11
29
19
0
0
-8
4
-5
-12
-4
14
-8
12
30
-27
1
12
-9
8
-1
-18
-13
-6
24
21
38
8
47
-23
-17
22
1
0
11
9
3
-6
0
-8
-14
-34
4
-27
1
43
16
-26
41
24
-7
5
-11
-3
-37
11
57
7
-5
25
2
2
11
16
-3
14
4
-13
3
-14
13
-13
-22
30
24
1
29
20
-14
-13
-20
-5
-1
-9
12
11
-16
19
-33
17
20
-14
-32
7
-15
-3
9
-23
-1
-13
34
-4
-3
5
-3
16
10
-21
-4
-15
5
11
-7
29
18
-16
45
12
-6
-22
10
2
14
2
-9
-28
2
-12
-10
-28
-20
2
-2
23
24
19
-13
-11
14
-15
-4
-10
18
5
28
16
-4
-1
-13
-3
-30
-2
-12
32
2
-1
-29
52
13
7
93
-14
23
-4
17
33
1
4
-10
-25
-5
6
-25
11
-6
12
-20
17
-2
-3
7
32
116
-6
-13
6
7
6
-11
-29
-17
-9
-16
-13
-10
1
9
-9
-7
-9
-21
-1
25
-10
1
22
-15
1
7
-19
13
19
16
13
-19
-1
19
1
21
-7
-2
-22
13
16
-11
-10
15
-32
-21
3
6
-2
19
6
-14
-15
5
11
-34
46
6
-16
9
-99
39
15
24
-14
-3
7
2
24
21
67
-21
0
38
13
-4
-11
-8
-6
1
-39
1
-11
-20
-29
4
-30
-28
-2
15
-7
44
-11
-55
14
0
8
19
4
-6
5
15
-22
-6
-2
86
44
0
2
-2
-10
-8
-7
-3
-8
23
-9
-31
2
2
0
-9
1
-24
35
-24
-23
11
-11
-13
-27
34
4
-9
26
-13
-9
-6
-34
31
-1
0
-21
-20
5
0
18
-12
0
7
11
28
-8
17
3
-20
-13
11
10
-15
-20
37
-35
6
-22
-2
3
-8
12
-2
-30
-2
15
-25
-15
-7
19
18
-9
25
-9
-13
11
-7
-16
14
1
16
-13
21
18
-19
24
-2
20
5
40
-12
-4
4
4
-5
-6
17
-24
-15
-9
-9
-14
2
11
9
-6
-18
-30
-3
5
-18
24
-52
29
5
-12
-5
16
-26
27
-26
38
12
7
3
16
9
-20
-27
22
23
-9
8
5
31
35
9
0
12
40
-13
3
-20
12
-39
-36
10
-8
-36
-11
-9
-17
1
-7
-20
-53
22
-9
-4
24
-10
-5
-8
-46
-7
-10
-21
-2
-11
4
2
10
6
23
11
-3
21
3
34
13
-15
-1
5
-18
2
43
3
4
1
32
-17
17
2
40
-11
16
36
-19
13
-29
-29
-51
3
-11
-19
19
13
-2
6
-12
-7
4
-10
10
-3
-2
16
9
-26
10
32
-2
9
18
12
19
-12
-46
27
37
-17
-2
-11
-2
3
-20
-7
-12
-1
-6
15
-21
-1
0
8
-1
13
31
-15
9
-28
10
-20
-1
-17
20
20
-8
-3
-18
-3
-12
-22
6
-11
-5
-13
15
-6
8
47
-4
-34
-13
-11
-6
-7
-14
1
-8
21
1
15
-6
6
20
-7
15
5
23
4
-16
16
17
1
34
-32
-20
-1
5
-6
21
-1
13
-11
-20
35
-3
-51
-2
5
-29
-30
-4
5
2
-14
-6
25
-24
47
-1
12
29
7
2
-38
-3
-5
-16
-32
-21
0
3
-6
-26
12
-26
20
-1
13
2
-23
-7
-4
-10
16
-37
-8
12
-27
4
-16
-26
-3
10
-2
18
-11
-3
42
14
17
-28
-1
-30
41
1
30
13
-21
-13
-12
26
1
-4
27
21
33
-4
-8
-20
3
12
14
17
-11
24
-2
-15
-4
-31
-35
11
-25
7
-2
5
34
-7
-4
9
-22
0
-1
7
22
48
0
4
-5
4
6
10
-29
10
-16
2
-10
-19
14
26
-23
-5
4
12
-4
2
-4
6
11
11
-13
24
-29
-15
-32
19
-1
13
3
41
16
-15
1
-26
26
-35
-3
-16
4
2
1
-5
60
5
-18
-2
-16
21
-12
3
5
10
-12
-8
-13
4
7
-12
42
-13
-23
-7
4
-18
-20
-10
2
-1
-5
-30
14
15
-2
6
4
-24
2
-11
7
18
5
0
-46
14
-4
-15
1
-3
-18
-23
13
-7
-1
2
-22
1
-15
1
-16
10
7
12
10
2
-7
50
-29
-20
16
-36
4
13
2
22
-3
14
17
-4
13
-50
-21
-2
11
-9
9
-6
11
14
-56
1
0
-2
-10
-1
14
-30
-9
6
12
8
29
2
-1
-23
17
4
1
4
19
7
-10
15
18
2
2
-14
23
-13
1
7
8
-25
19
-16
-11
-1
-4
-22
6
0
-7
3
-15
-19
-15
-9
-19
-20
-12
0
-16
3
10
-3
32
-5
-1
-12
51
22
-13
-6
16
-8
7
19
19
19
-13
-17
22
-12
5
-14
-19
7
-26
12
0
-13
-6
-13
23
11
-13
-10
-21
14
-1
1
-3
-2
-19
-10
-37
7
7
-34
-32
-14
-7
35
-2
32
17
2
-16
18
7
-16
-6
4
-5
1
-2
39
-24
5
-3
-32
6
-4
4
-32
-10
-16
51
2
-14
3
2
-1
8
5
-13
13
27
-6
13
6
4
-9
-13
-3
-16
-18
33
11
19
-3
-13
38
24
9
10
9
-20
20
13
-18
-1
-10
-12
-5
-12
10
-8
37
30
22
22
-8
-2
3
-13
24
-3
-3
-18
-38
4
12
-35
-7
-50
-22
-13
48
-27
-19
-13
8
-15
-7
-13
-8
-2
6
3
7
24
34
7
-22
-1
-47
-8
-26
4
1
-13
-25
-14
-19
-31
2
-17
4
18
-2
-8
-7
6
-7
0
32
20
-5
-14
-8
-2
-14
-10
-24
32
-16
-19
11
-19
-9
-22
11
27
0
9
44
-44
-21
3
-9
-17
9
-3
13
-12
10
-1
4
-24
-15
18
10
-22
46
8
4
-3
-1
-22
-8
-22
-1
-16
-5
-19
-8
12
23
-22
2
6
-21
-8
18
-40
31
9
15
3
11
6
-4
-3
32
-8
-19
-26
125
-8
-11
19
5
-7
-23
45
-13
-6
-30
-8
-6
18
-13
9
-9
26
7
-15
-2
6
0
26
17
0
-15
4
15
28
-30
-8
-39
-2
18
-5
7
10
-8
53
-38
16
-22
-31
25
-11
31
16
12
-9
-15
29
-12
-14
-2
2
40
-17
15
-22
9
-3
3
-6
-17
-4
-44
5
1
16
29
-24
0
-15
-28
21
4
-5
-2
3
8
26
-30
7
0
14
7
32
-19
-6
12
-16
6
27
-16
24
6
-7
127
-4
8
-14
23
14
-3
16
-19
-22
2
-11
3
-11
-15
8
6
-25
1
16
-14
-10
12
5
-33
5
0
-22
32
-16
-32
1
60
-7
18
5
36
-16
-27
-5
-9
18
14
-13
1
-2
-2
10
-6
-8
18
-11
-3
-14
25
14
-50
11
-20
-39
35
25
-18
26
-9
-2
-17
-6
26
27
-11
39
-4
25
3
-10
-1
5
16
55
-54
1
15
-2
-10
1
54
12
-20
20
31
49
21
28
-10
1
19
-35
3
19
-7
-20
-4
12
-3
-34
-34
11
0
-13
31
34
-18
0
10
-11
-47
-1
45
-21
11
-13
-16
-15
-45
-5
6
31
-61
-12
-35
10
6
7
-9
-11
-7
-12
-14
-17
2
-8
6
2
-22
-10
12
-7
-2
-41
-6
-5
2
18
-28
-25
-9
-1
-8
21
16
-1
2
25
10
-2
-23
-19
3
-2
20
-30
-14
24
19
-10
-8
12
96
9
4
-12
10
1
-8
-4
-15
-22
60
-13
-18
11
-10
-73
-9
-10
-6
-10
11
-4
4
-38
19
-18
19
-2
-21
-8
8
-12
33
0
-8
16
20
26
-3
23
41
12
-13
2
-22
-33
24
27
-42
41
11
1
12
-23
-12
28
25
-4
-7
7
-2
2
10
9
27
20
44
15
27
3
7
-5
6
15
24
22
38
10
18
3
30
63
-13
6
-7
-29
28
2
-10
4
6
-19
24
-3
-9
3
0
-14
10
35
-24
-24
-14
7
14
-21
49
25
-15
-33
14
9
34
-8
25
2
7
-17
9
-6
-17
-35
15
6
31
14
-20
44
19
-16
9
29
8
-12
-11
43
5
33
1
11
-30
-10
12
20
7
0
-26
-15
-15
-2
1
-4
30
-2
22
5
34
3
-10
32
24
-4
30
-8
12
22
26
-58
-22
-18
-3
25
-25
-1
8
-21
14
7
-6
12
-29
12
6
11
15
0
17
-10
-23
13
-3
-21
4
24
-6
-2
-2
5
17
9
8
-9
19
-11
-15
25
-4
-16
27
5
24
9
-13
8
34
20
28
-12
55
18
0
6
12
3
26
27
0
15
41
-26
9
11
10
29
-10
-4
9
-23
-67
4
6
-17
43
12
-31
5
-6
-27
19
1
-2
33
2
7
34
-5
6
9
0
23
-8
-7
5
-3
-4
15
-15
-11
-6
-3
11
-30
5
-7
-7
-16
-8
22
25
47
9
-8
16
23
9
-1
13
16
-4
-10
31
35
9
-20
-4
30
23
-8
-8
27
16
-4
-7
-3
-50
19
4
16
-17
9
16
-37
-8
19
9
2
6
-4
15
0
10
-2
23
4
6
3
3
-6
-16
-9
17
18
6
12
27
24
20
-17
-26
-17
27
-7
4
14
32
8
7
9
44
-17
-27
-1
-4
6
14
9
14
11
-4
4
-8
-3
-8
-20
2
-4
-24
-9
22
-2
10
29
16
15
-16
-22
10
-1
-10
5
25
2
-13
-10
-11
6
-14
-8
15
-33
16
-16
9
21
0
14
33
3
25
7
28
37
-25
8
21
-17
15
2
6
15
-16
12
-5
20
57
0
-31
-10
-17
7
-10
-4
-22
2
-13
4
-6
16
11
18
1
-12
-3
20
0
25
28
-28
7
13
30
-21
13
30
8
-27
-7
-4
21
23
11
26
2
13
-16
16
2
-16
6
46
29
5
7
14
23
-5
-10
1
2
-9
-9
13
45
17
-12
-3
-16
23
11
-17
7
127
3
6
-19
-6
-3
11
-27
-23
11
5
9
4
-6
-16
13
1
24
8
7
11
15
29
1
-10
-27
17
13
21
21
-22
-19
32
66
-5
10
0
-8
-16
10
57
1
-5
31
-13
-2
-2
24
10
67
40
7
17
16
-17
7
4
16
9
-5
43
-4
2
-7
25
42
1
-24
12
24
25
-26
13
-29
19
10
-42
34
-10
3
18
3
4
29
12
2
10
-7
2
1
-6
1
13
9
-11
2
59
-3
8
10
3
4
-4
-25
21
1
15
13
22
5
-3
18
-5
-4
12
-2
23
-15
-4
9
1
8
6
40
-24
-8
10
-6
-7
23
-16
7
13
-38
25
-2
46
7
46
20
11
-32
-9
1
10
14
4
12
-11
24
-7
-14
19
-2
7
1
1
9
21
10
17
10
48
8
35
34
34
24
-9
3
-2
3
18
14
40
-15
-4
33
4
7
-2
-12
-28
-8
28
-12
-7
21
16
2
-8
2
10
38
3
-12
-5
3
18
47
-2
17
23
62
18
11
-3
15
22
-2
33
14
-8
-30
24
30
35
-2
2
-5
1
7
41
22
9
-11
-5
2
20
-1
-3
7
9
-6
30
7
18
23
17
7
-19
1
19
-8
24
-12
-22
34
-28
23
22
4
9
31
-5
-16
42
14
-12
-6
35
-5
-1
2
9
20
30
17
-14
-10
24
0
13
3
6
30
-11
-8
26
2
41
1
5
13
2
24
-14
-9
-15
-10
10
-20
-20
26
7
29
45
11
-9
17
-4
24
58
-36
23
25
6
10
11
4
-15
-6
7
-8
2
24
24
-21
1
1
-7
-6
18
-23
-14
10
-21
-8
6
-18
20
-8
-10
3
-17
11
-26
-4
44
-5
45
31
-4
27
32
9
-14
14
12
-2
26
33
1
-13
35
-14
-4
31
-10
22
9
7
2
13
25
1
12
14
-18
1
12
-4
-20
24
37
14
1
14
-9
-2
36
-23
-33
-15
15
-16
16
-10
3
-9
16
-5
-26
15
24
14
40
58
11
-41
0
13
2
-11
-11
20
-1
9
-12
6
10
-46
-19
27
37
7
-6
4
0
1
0
-2
3
21
-8
3
22
-20
-22
-27
19
-15
22
-18
-33
-5
32
10
11
20
-7
-6
-6
4
-5
-1
12
-14
39
19
-5
-19
11
27
13
30
27
0
12
-3
23
-15
3
8
11
12
23
-9
3
27
7
-4
116
-16
21
14
8
27
5
17
-12
35
13
14
12
16
-24
2
13
-12
12
28
12
-3
13
-6
-17
10
15
14
4
5
7
22
22
7
-8
-6
8
-9
34
4
-20
-2
7
28
21
-3
45
18
-13
7
5
20
4
3
1
30
3
31
35
5
34
-12
15
53
10
7
-5
18
-5
-9
3
-2
18
5
9
-27
18
3
-11
16
10
-3
44
20
12
-18
14
33
-3
-24
-25
-1
-1
2
16
26
40
11
-8
-11
10
-4
-15
16
33
39
14
-5
40
10
-10
-8
15
-20
10
-15
-11
22
-3
17
43
23
21
-1
6
13
-9
3
-22
-7
-36
22
-9
-10
-2
-44
-7
38
1
28
4
10
0
20
-14
41
26
39
-27
-20
-18
-1
32
16
41
-34
39
18
10
-10
1
-6
29
7
6
-21
4
33
-13
11
-31
6
-11
-16
7
61
-13
40
2
20
4
-35
-6
-14
49
-3
11
-13
-19
16
35
-1
7
16
25
-37
15
22
27
-9
-13
-5
-44
1
19
31
5
-21
-2
9
17
-13
33
63
47
-8
26
-1
23
16
30
23
94
19
14
21
29
-9
11
7
-11
12
-3
-4
-29
-10
14
-21
7
-6
-7
-9
0
2
27
4
-3
4
2
0
-6
-6
-14
1
-1
-9
0
-11
-10
-12
-11
21
-14
-11
8
2
-15
4
18
2
-11
4
-13
-13
-14
-22
-10
1
2
23
11
-3
8
-3
-4
9
2
3
-6
-9
6
-2
-22
5
12
10
-12
13
5
10
-6
22
9
0
-11
-16
9
48
5
4
14
-10
-5
6
42
20
11
3
7
7
-8
-3
-4
-16
3
-10
0
-5
10
11
-10
-13
-2
2
17
-9
-6
1
-17
-6
1
-1
-28
7
2
7
3
1
8
-17
-15
-12
2
8
-2
4
-10
-2
-13
-2
2
16
-2
-1
-4
9
2
-3
9
-7
9
-8
-5
2
10
-16
-18
-8
3
6
0
30
2
-12
35
-8
2
-3
-20
16
-18
-12
-12
-22
6
-8
-9
-20
-2
-8
3
-7
112
4
-18
-8
-10
20
-12
-6
20
-12
4
20
-12
-1
7
-10
16
6
-4
-7
-6
8
6
-6
5
127
-1
-6
13
5
0
-6
-5
-13
-5
-23
-5
-1
-16
-7
0
-18
-3
14
-10
2
-12
-14
-5
9
-15
-3
3
-6
0
-2
1
10
-6
-11
1
-28
-2
-5
-11
-9
3
-2
-3
9
1
-3
12
51
4
-23
10
4
5
-2
-8
28
7
-4
3
13
-29
17
2
3
-10
10
-13
-15
0
-6
-3
9
-12
-1
-8
25
18
3
-18
13
-13
0
69
2
4
1
-10
-14
2
-4
8
-2
-5
-18
-5
14
-12
1
2
35
-2
3
-17
-22
-17
-6
-1
13
-5
11
-2
-3
-7
-10
-27
9
7
-14
-8
-10
19
-12
1
4
-8
6
0
-9
10
3
-11
1
19
-5
-5
-9
-9
-5
-1
10
4
8
1
-13
-16
-12
-13
-4
4
-7
-7
3
-13
-4
2
86
2
-8
14
32
6
-3
0
-19
2
-7
9
-4
-7
-9
-25
-17
8
-2
0
-7
-5
1
0
-15
9
11
5
4
-7
14
-8
-13
15
-1
-5
-8
12
-2
-4
-1
15
-12
4
8
7
1
-8
6
-2
-4
1
-2
22
-9
9
-6
-10
-6
6
-8
-8
15
5
1
0
1
-15
-28
30
-1
-5
-6
-21
-1
-8
7
-17
0
-3
-7
-13
-9
4
5
-8
-8
7
4
25
-1
-13
2
13
-13
-8
10
-22
-1
14
59
-7
6
2
-2
-8
-11
3
-4
-11
18
-5
4
6
10
14
-12
-7
-12
-10
6
2
-2
-11
-3
44
5
-16
-8
-4
-18
3
0
-13
-11
-10
19
6
-17
7
-6
-1
1
-1
1
-9
-18
-26
15
-4
0
-4
-1
4
-15
14
6
-10
-7
-5
2
-6
-3
-8
-6
19
-2
-13
25
-3
-1
-24
0
-9
10
-5
6
-14
-8
-15
15
-3
-4
1
-20
16
4
0
-11
-16
9
-10
16
-13
-7
-2
18
8
-8
3
-9
-18
-6
-15
15
-7
-11
13
-3
-11
4
-13
3
9
24
8
17
-25
28
3
12
-7
-20
6
-3
-2
-14
9
3
-8
3
4
-27
1
-8
-2
5
11
5
11
-3
5
1
67
-7
-7
8
5
-24
-2
0
2
-17
-16
-14
0
2
3
15
-7
5
-18
1
-4
-3
-3
22
1
-16
-5
1
-10
6
-2
-7
-1
3
35
-13
0
-3
-1
-6
3
-16
4
6
5
-5
-1
0
1
-5
4
10
-9
8
10
33
-30
-21
-3
15
-6
42
1
-4
5
6
-6
-29
-8
-7
10
25
5
-3
24
12
5
-15
-12
-17
8
11
0
-10
15
8
32
16
1
2
-10
-3
-2
-6
15
-19
3
-1
-17
7
-33
-15
9
-17
2
32
-5
19
12
56
-2
10
-14
5
-3
-14
-2
17
-8
21
1
-18
8
-1
22
-1
-21
34
-5
9
-7
-6
-2
16
-14
-10
34
-3
14
-11
-3
-4
-2
8
-17
3
15
-5
2
-6
-17
-11
9
12
-1
-2
-13
-6
-18
-11
10
0
-3
1
-1
-18
-12
-16
-4
14
16
-14
10
2
-1
-1
-3
7
11
0
-7
32
-7
13
-7
-10
-8
8
-3
-9
27
-10
-11
7
-7
-14
-4
-4
-8
9
-8
0
-9
13
-11
-5
1
2
-3
5
-7
0
-19
-18
-15
-12
-12
0
3
1
-7
-15
-19
10
-6
-1
-22
10
-6
12
11
-12
-3
-12
1
-9
-1
6
-16
0
-9
16
5
3
-8
-1
-26
-2
3
-38
-14
-10
-10
-24
-1
-12
-4
5
1
-8
9
6
30
3
-1
-3
-21
-1
-6
-8
-6
0
-10
-4
-43
-8
0
-16
-11
0
-27
-16
5
-15
7
3
-6
-3
-3
12
2
6
-5
95
43
-3
-17
5
-2
-14
5
-4
15
31
-8
10
6
6
-1
22
-2
-2
4
-8
4
9
14
2
-7
9
-2
-11
-2
-6
-23
7
27
5
-16
0
-5
-13
-15
5
0
1
-6
-1
-8
0
-4
3
0
2
7
-21
8
-1
13
-1
7
-1
7
-21
-3
10
-1
-4
39
30
-4
-12
-10
1
4
-8
0
-4
-7
-15
1
-31
-7
-13
-17
-12
9
-33
11
-14
13
-17
-10
28
2
-40
-18
-10
1
29
26
-8
-10
3
-1
8
3
-10
-11
-3
-19
-16
18
-24
8
-21
-3
-4
-3
-5
25
-10
-7
-9
-4
4
4
-5
-1
-21
-12
-24
-10
9
-15
-11
-3
10
-17
-18
-18
0
-25
-2
0
26
-4
-10
9
3
3
-4
18
-9
20
12
5
-11
-10
-15
-7
5
-5
24
-5
-1
-19
-7
-1
3
-13
-5
-23
-16
8
-12
-16
-12
2
-15
-3
-23
-6
33
66
3
-13
12
15
-9
-17
-4
-8
1
-11
-27
1
19
-14
-6
-7
-10
-6
-15
2
5
-32
-17
-25
-19
-2
-21
3
-8
-7
5
23
22
0
-4
10
0
-6
-10
-18
-2
-20
4
14
-1
4
-11
-8
-7
-9
-7
4
-16
-6
19
11
23
-12
13
9
1
2
4
-15
-2
-17
1
-6
17
-8
-19
-8
1
-21
-22
3
4
-9
11
11
-16
-21
-11
1
16
-22
-41
-10
1
-19
-26
-30
14
14
-15
1
-28
-47
5
-7
74
42
13
-71
-37
-16
-32
-2
-13
-6
-6
-9
1
3
2
12
34
6
-23
10
2
1
3
6
24
7
31
15
12
-13
-26
3
6
7
5
-2
-19
47
-2
25
-6
-5
-15
8
1
5
-11
12
-2
13
-18
-36
-15
-30
-11
18
-35
-22
-15
-25
-15
17
-13
-27
-6
-19
-49
-7
-21
26
-2
13
-16
10
14
-25
-20
-7
26
70
-18
17
-2
2
0
4
-9
-7
-33
-10
-15
10
-2
24
27
-3
10
-32
-6
-9
-7
26
-9
-18
-14
-6
-11
-13
-8
-32
-2
-25
-14
7
-14
-14
6
7
-1
73
12
2
2
30
3
-46
29
13
-18
25
-31
13
-17
-13
-7
-26
1
-4
-23
-14
2
5
-3
4
-31
-19
-20
5
-10
2
49
-18
6
-25
-10
-17
0
10
-22
-13
9
3
-10
13
-22
2
-3
41
-16
14
13
1
-16
-11
-11
-32
-24
-4
38
11
-16
-6
-12
-8
82
17
25
-23
-61
28
4
29
0
3
-3
2
42
-14
-8
22
-4
2
12
-41
-35
-7
-6
21
-22
11
27
10
-16
2
-28
-25
-12
127
-23
101
-3
4
-31
7
33
5
29
-10
-4
33
-29
-9
-6
98
-21
32
9
-33
25
-36
-9
-28
-16
18
7
73
-9
7
19
-17
-29
-5
33
-6
10
-30
11
9
29
-25
6
-22
16
-8
2
38
29
14
-19
-57
11
6
-25
-19
4
-20
-17
-44
-59
30
-5
-6
-46
-30
-22
-26
-29
-4
18
15
3
9
-28
21
1
-54
-42
-27
-12
-32
-17
10
7
-17
2
-19
21
3
72
66
-33
31
-2
-69
23
-12
14
-32
-13
-32
5
19
-19
-4
2
-3
11
-14
-1
-2
8
11
1
-35
22
7
-25
-14
19
-15
-15
1
-6
28
10
3
24
-7
-30
-29
3
-18
15
20
-17
-17
28
12
2
1
18
29
-9
14
-4
-1
15
2
-26
-21
-27
-19
-6
-24
-38
-14
25
-14
15
-15
-5
18
11
23
40
25
-25
26
-9
5
-14
28
11
-15
19
-4
70
5
3
4
-24
-36
-4
26
-8
-4
-57
-2
-13
31
20
-23
9
-39
-27
12
-25
-29
-12
-25
1
6
-8
9
18
2
31
34
-1
13
4
-40
72
-1
-3
-9
-10
-23
-24
2
-24
-36
-27
-23
15
10
44
-9
0
-6
-3
-21
8
1
-10
-7
-22
-30
-2
18
0
41
8
-10
-18
10
-3
62
-57
39
-22
3
-40
-15
-33
-25
20
25
-2
-11
-6
-13
-39
12
28
-21
8
-23
-13
109
2
23
-4
-25
23
-9
-21
-22
-23
9
0
-23
10
30
12
10
15
9
-1
11
-3
63
-5
46
17
-37
-22
-18
-12
-43
1
-22
-32
-17
33
24
-6
2
-2
-10
8
-14
0
-7
-6
6
8
7
3
-15
44
21
-59
4
-20
12
-17
2
-37
-8
-41
95
10
-17
5
-38
6
10
30
3
12
-1
-7
9
35
-26
-2
42
1
3
2
-13
-20
-26
-13
11
-23
-10
-10
-19
11
-23
-11
18
12
-11
22
11
-9
-2
-32
28
6
-11
41
-46
1
-16
-11
11
50
-8
15
-16
-32
-20
-8
15
-34
7
-26
58
-25
4
-15
2
23
-44
76
-3
-4
-22
-23
-37
60
-10
8
61
9
8
-4
-12
-20
-28
11
25
29
-4
17
29
-41
-9
6
-11
-10
-14
-5
-6
-35
27
35
-3
22
-33
-26
-10
-38
21
-18
17
9
-12
37
-1
10
-3
-6
-1
-40
26
-13
28
-8
-20
3
18
12
21
15
-18
-50
20
-35
6
29
-16
19
2
-41
-3
-34
9
22
-31
-9
12
-10
-57
6
-18
10
10
19
-7
-17
-27
21
23
-19
89
28
11
-14
-17
-3
-30
-1
-40
-26
16
15
-16
23
29
-64
-31
-34
-12
3
-38
21
-6
34
-34
14
-51
-37
13
0
-3
-21
18
-28
-17
42
-19
-2
-21
-18
16
-23
12
10
-17
-36
8
-18
-41
-29
39
0
-68
16
46
5
-23
21
-46
22
19
27
11
11
-44
54
-8
-4
-6
64
-17
-27
29
-21
-14
0
21
13
-46
8
-5
28
27
16
25
16
25
-11
29
-22
-34
-4
-1
1
45
31
-23
-36
18
11
-27
-18
14
-14
-15
53
74
51
-8
-27
-9
-24
-26
-17
16
-36
47
-45
16
35
-48
-40
-11
23
4
-37
10
-37
-8
-6
-27
8
28
35
-10
-18
-10
27
-22
-37
38
0
-23
18
15
-6
-10
-7
-18
-57
-8
6
-12
21
-24
6
-22
-35
3
2
29
-13
20
-9
52
3
-7
19
-18
-23
18
-19
0
-1
-17
-9
-17
14
10
-11
28
21
-6
-3
7
-30
-13
44
22
-10
-12
-22
1
-6
28
43
1
-2
-6
8
17
60
22
38
30
-9
9
35
-43
0
-10
5
-33
-39
8
-13
4
-39
-20
12
-10
-1
8
-31
6
21
-2
15
5
-4
-6
0
-11
70
-22
-15
-55
41
-71
-6
-24
11
78
-21
2
34
11
-3
109
1
10
-66
1
-18
47
-31
32
7
-29
-20
-20
51
-37
12
-2
3
-27
21
18
-20
-28
5
26
14
-6
-17
3
5
53
-23
-9
-2
-9
4
4
-17
-7
58
3
-13
-32
-1
-17
-1
15
-21
34
-24
-2
-23
-18
-16
8
-44
21
-26
-10
65
7
7
27
24
-38
-6
38
0
-1
-5
-16
-5
-60
-19
-20
5
-27
-38
-14
-35
-30
17
13
-42
18
25
4
13
42
33
-15
23
-16
12
-41
3
-16
-36
-10
-4
-21
3
3
2
-32
50
14
-11
-12
-32
-9
-5
-30
30
2
-8
-41
-5
-5
28
7
-35
-25
-42
4
-10
47
6
41
-17
-32
10
-20
6
1
29
-15
5
5
-7
31
40
10
6
60
-3
9
35
-10
-29
-24
15
-12
-39
24
8
-1
-3
-8
-64
-54
47
-10
-28
22
-36
40
-3
11
-38
-3
-13
-12
-34
-23
-40
-43
-9
5
-22
-21
-13
-2
0
2
-10
-8
-11
-10
1
-14
6
-7
15
10
-27
-6
11
-6
-1
6
-11
-2
-6
-14
8
17
10
-6
20
-3
1
5
7
-12
-14
23
11
19
-6
-15
3
10
-13
9
1
-6
-15
-18
15
5
0
-17
-23
4
4
-22
1
-1
6
-4
-13
-6
-10
9
-15
27
27
-8
0
8
37
4
23
1
1
-4
-5
-6
-13
-25
19
12
-12
7
-5
-27
-7
3
-1
3
-1
-5
3
-18
45
-9
-14
-1
-8
-12
-7
-9
-15
-7
-21
-16
-3
-12
-19
7
-12
16
1
9
-6
101
-1
1
-5
-2
-20
-4
9
-2
9
3
-2
15
-9
-7
-8
61
41
41
5
24
5
-4
-4
-14
2
5
3
-5
-13
13
-19
11
0
-21
-11
9
-1
-14
-22
-4
-5
-4
17
-5
-15
-10
-4
-19
-6
10
-5
-7
-2
5
8
-1
-5
-14
-6
11
5
3
-6
17
-11
6
-6
-1
14
13
-6
8
3
5
-1
14
-2
3
28
4
-4
3
-17
9
2
8
0
8
-1
-10
15
14
-16
-8
21
-26
7
-3
-22
10
13
-16
14
24
-6
0
-8
2
-2
-2
-4
-2
-9
0
24
-2
-15
2
-15
50
9
-17
6
11
1
25
23
-2
29
-13
2
-4
1
-1
0
6
-1
-20
5
2
41
8
-8
1
5
2
-19
-22
2
2
3
11
0
-2
6
-5
7
-2
-11
9
-1
13
15
-12
1
5
5
-19
-16
2
-3
21
-38
12
-16
12
0
31
25
9
-15
-2
-6
-10
17
14
-1
-15
41
8
-6
7
57
27
-18
10
-11
-26
-18
-13
15
12
-1
13
19
7
-26
18
-16
7
3
22
13
-5
3
2
-6
1
-20
9
-2
-14
18
9
-3
-19
6
-8
5
-2
11
41
5
6
18
-2
-2
2
-19
-19
-10
-11
-4
8
-13
-24
-21
1
-11
18
3
9
-21
3
-33
-11
-19
-6
1
-14
3
4
-16
-13
-8
-2
-10
6
-8
-42
-15
-2
4
-15
11
-4
10
-2
11
-26
9
-13
4
-5
20
19
4
-14
-10
-5
18
2
-11
-4
10
-4
1
-3
-14
-7
0
-3
-7
-8
1
1
2
-24
24
-12
3
5
-1
9
6
-1
2
-4
10
-9
-11
-4
-1
12
8
-11
-4
14
-12
-38
127
10
-5
8
-6
3
0
12
14
-2
-5
11
3
-17
-8
10
0
25
-9
11
-1
-1
-3
-11
-10
-1
-5
4
1
10
10
4
0
0
7
-22
25
-12
-13
22
8
5
-6
3
10
50
8
-2
3
19
6
-7
22
-12
6
-4
2
6
10
15
5
-2
11
10
-8
27
3
-11
-2
18
-1
13
1
-2
-7
2
0
-4
28
-5
6
-1
2
-4
19
-6
8
1
-18
-14
-20
-7
6
-9
-4
-8
-6
-5
5
6
-6
3
4
7
27
-12
-10
-6
-15
-2
-7
16
13
-17
-26
-5
-1
-1
2
19
12
2
2
-4
-13
10
0
-37
10
-16
5
12
-1
-19
-7
7
-4
12
12
16
9
6
6
-2
6
-1
2
-7
6
28
-2
-19
-2
11
8
31
-7
-17
-15
20
-11
10
-31
-15
19
-9
-6
-4
-19
-3
-15
-18
-13
2
-15
12
-13
1
18
-3
-10
-2
-1
-7
6
-9
10
1
2
-23
6
3
42
-6
-5
-16
10
5
4
-15
-5
-13
4
-2
-26
3
-4
9
-19
-2
1
-18
59
6
-4
-12
1
-2
9
7
9
-8
5
12
24
-1
-6
23
5
3
4
-7
-57
-14
-4
12
-5
1
-3
16
-16
0
-16
-13
-10
23
1
-1
-9
5
-4
37
-24
-6
3
22
-6
-4
-6
-15
1
4
-20
-12
-18
-25
-10
-14
3
-35
0
4
9
42
-10
9
-5
41
-10
-1
9
4
-16
10
27
6
-11
-8
10
-7
-1
-6
-3
-10
3
-17
30
0
-1
11
-3
38
-2
39
11
6
-13
2
-11
3
7
14
53
-5
5
-11
-5
15
-19
-9
-3
-4
0
7
-7
-16
-8
5
3
6
-7
-9
-7
-8
13
-1
-16
0
32
-15
-13
-6
10
-11
-8
-14
39
18
-7
5
9
-1
2
1
-13
2
1
1
-7
-3
7
23
12
-2
-2
30
-10
-3
6
-8
12
22
-10
16
43
19
-9
-13
-13
10
-5
-2
-15
65
8
5
-2
19
20
35
-44
20
14
-14
-17
9
-1
-10
-17
-7
-12
6
17
-2
-15
19
21
-11
11
23
-17
-3
-6
14
-28
13
-13
-2
-14
-5
-13
5
1
-26
-6
-15
28
7
31
5
-5
2
-11
9
-19
-13
18
-2
0
-5
18
2
18
8
6
4
-17
1
3
3
-9
-5
-7
-10
-15
-10
-10
-6
-13
14
17
-1
1
2
-11
-1
-15
3
-6
-18
6
10
-1
4
9
-17
-8
21
-17
-5
13
-10
22
2
30
-22
-13
16
-2
-8
-26
-12
10
-18
7
-9
-10
17
-11
-14
-3
10
-9
5
0
-2
-6
-4
3
-11
1
-13
-1
-15
1
-5
11
24
-34
45
5
14
0
-4
-10
43
26
19
12
-15
-5
31
-24
27
-9
2
0
13
-1
2
3
-7
-4
3
-19
18
-17
-32
-3
12
-11
30
17
6
5
14
-11
-11
-5
0
-5
1
32
3
27
16
-1
-6
0
2
7
-10
9
-1
5
-11
10
-13
-8
-13
-12
-6
4
-15
27
-2
-9
3
11
-14
-9
-2
-12
-18
7
-13
-6
-15
4
5
-10
-11
5
-12
-10
-3
3
2
-30
-2
-15
-24
-3
1
3
5
-6
9
-3
27
2
7
-8
-1
3
-24
-3
-13
-3
14
-24
-7
3
5
19
-5
-19
-12
-5
14
-7
-15
-6
-5
-28
2
-4
-4
-10
-3
2
-9
0
-4
-4
-20
-4
2
2
10
1
0
-5
-8
-4
-12
-9
-33
-14
4
6
-11
5
-7
-14
4
-6
1
2
-3
-4
1
2
15
12
-10
9
12
-15
-17
3
-4
0
-9
10
-11
-5
-15
6
1
-7
-12
-6
6
-13
12
-1
18
5
-13
-6
0
-17
-3
20
6
-9
17
-13
-2
8
-4
16
-22
13
-2
-28
-4
-10
8
-5
-6
-11
23
-27
-9
-23
5
-31
15
12
-9
-5
-1
-9
-23
6
-1
-10
4
8
13
-26
-12
-6
8
6
-13
-13
-4
-5
-7
8
-7
11
-21
-17
-11
12
6
3
-12
9
7
10
3
-30
19
12
-5
-4
24
20
-23
-20
-6
-14
-1
6
-5
-5
-3
-13
-4
20
-6
-22
-17
-2
14
0
-11
5
1
-5
2
-11
1
28
-6
0
-12
-10
5
-17
-26
18
-13
-5
-12
-2
8
5
28
-2
5
23
-11
6
-2
16
-22
10
-1
-13
22
-7
-2
6
-10
-4
-22
-9
13
9
5
20
-6
15
19
-1
11
2
0
6
-1
45
-13
-9
23
-5
0
-6
-11
-5
-9
-1
-12
21
5
-6
-18
5
-12
-3
0
32
4
-28
-16
13
-13
3
9
21
-4
3
-4
-10
27
-19
2
-3
-19
11
-8
-10
1
-24
9
-13
5
6
-9
-25
9
-2
60
3
37
0
5
-10
-13
10
-11
2
-12
-3
9
8
-11
6
15
-4
5
-6
1
6
-5
19
-18
8
-29
14
12
-1
10
22
-2
8
23
-3
15
1
-4
-3
31
21
15
12
-4
-25
-16
14
21
-13
6
1
44
-4
-4
-1
-16
4
-3
2
3
4
69
5
-8
-1
-19
-8
-25
-14
-15
-11
-8
25
0
-15
5
0
16
-5
9
-20
-13
68
9
19
-14
-13
13
10
-29
-6
9
-8
-11
5
103
29
1
-6
13
9
0
1
-7
-14
-15
16
-11
1
-5
19
-21
8
-7
9
-1
-4
11
4
-20
0
11
-15
1
-3
33
-1
6
-14
17
-22
-3
-3
-30
7
11
-18
9
-13
-3
8
9
5
18
-2
-8
1
22
-6
1
-11
-6
-12
-28
5
17
-25
-6
-8
-7
-2
-1
-6
-13
4
22
-3
2
25
-4
-5
26
-10
-18
-12
14
1
-22
-5
9
0
-10
5
-29
-16
11
-18
-14
33
-21
6
6
-13
3
-3
0
10
-5
-5
-4
28
-1
2
4
-10
-6
-12
-1
-7
19
2
19
-1
14
9
0
-8
17
-1
14
-5
17
9
-14
16
-5
-9
-1
-2
13
-16
-32
-4
26
-16
1
16
5
4
-21
7
-16
-1
-17
17
15
-15
-6
1
10
-2
0
-1
2
5
15
0
20
19
-13
5
16
17
26
-16
22
14
10
12
-16
-4
-2
-13
-11
4
6
0
1
-30
1
-13
-17
-8
22
-5
-4
15
22
8
-1
-13
-5
-19
8
-5
-2
7
12
20
-3
-11
-7
-18
-3
-21
-7
4
9
-27
7
-4
-13
-7
8
4
2
22
17
10
3
-9
8
-16
-16
4
-2
-30
9
-11
8
-3
3
10
8
22
-24
0
23
5
-19
11
-19
-2
25
1
8
-2
21
-1
-14
-1
-4
18
-1
-34
21
-10
-18
0
11
5
-17
-9
-17
-8
14
2
36
3
5
1
33
10
-11
-12
-24
18
-2
8
2
-11
-8
-34
-1
-8
-1
-9
3
-21
-18
18
-8
-3
-17
-3
23
25
-3
8
5
-19
-9
17
7
13
-23
-21
2
1
-11
-8
12
2
10
-13
-9
5
4
-11
4
-8
18
7
8
-25
2
4
11
4
-20
-11
11
6
-11
5
-5
-17
-5
-17
4
-10
-15
-24
-6
-28
-17
0
-6
7
-14
-1
14
-18
13
5
11
-2
5
16
-24
33
8
9
-8
9
11
-6
30
-29
-26
1
13
9
2
18
2
-11
31
-13
-21
-18
6
15
9
-14
39
5
14
-4
-22
-9
-1
2
-2
15
0
11
-27
-7
-2
23
-10
0
8
-2
-12
35
-1
-3
-12
8
-28
-27
4
-3
48
-2
4
-23
-5
-6
11
-10
15
-9
9
4
5
-15
22
-21
6
-3
19
-8
-12
-24
-27
-3
5
14
-11
5
14
-23
-5
8
-20
-10
-25
2
2
-5
-3
-15
12
-1
-3
-43
1
14
3
1
-4
20
-7
0
1
21
-1
38
-1
-2
32
6
-19
-34
-1
-13
-8
25
9
20
6
-3
7
-2
8
-5
21
-5
11
6
6
-17
-11
14
2
3
6
-8
10
5
-16
-13
-21
2
3
-15
24
-20
14
55
7
4
-5
-15
18
-23
-15
-19
-11
38
11
-1
-2
14
-6
30
17
6
8
28
-15
13
-25
-4
-15
18
-7
-12
-12
11
-5
-5
31
1
-5
-21
8
-9
5
14
-22
-27
-5
-23
-2
3
-9
26
-7
41
-8
-14
49
17
-2
4
11
-14
15
-7
4
12
-4
-5
0
10
-16
11
1
10
0
-13
0
-1
13
-8
6
6
1
15
24
-17
-9
-5
16
-4
20
16
12
4
7
-37
26
-2
1
-10
-8
-14
2
4
-8
-13
-7
-11
-15
18
-17
14
-6
3
4
-19
-5
7
24
-17
4
22
-18
4
-11
11
24
35
8
-3
0
127
11
-34
-4
13
5
8
-21
11
-14
-11
17
-19
16
6
12
3
-3
-3
-10
2
-20
4
8
-22
-15
7
22
11
-22
-2
-22
26
23
4
-17
22
31
-22
-9
-11
6
3
8
-1
-4
19
55
1
0
0
22
-2
7
14
21
-18
36
15
-13
-9
-6
-10
0
-13
-22
4
-8
0
11
4
-31
-2
-16
-1
-15
-12
24
10
28
-9
16
7
-21
-3
1
-8
3
-2
0
20
-5
-17
-25
33
-7
-13
-20
2
-2
-3
-14
5
-9
7
1
-26
-7
-1
-5
-9
-19
-17
-7
43
14
-12
4
3
-8
-2
-9
6
-11
-19
20
17
24
20
24
20
-17
-3
-6
-5
-12
23
-17
6
-1
39
-2
-17
14
-15
27
18
-1
25
-10
18
6
0
6
5
17
11
-23
-3
-23
-4
-12
17
66
3
-18
15
-5
-2
-1
9
-3
-1
-26
-12
3
-5
2
1
-19
-6
-2
-26
-7
-30
-21
2
14
-2
-18
8
-6
-6
22
2
-21
4
17
11
-11
-8
15
-16
38
-12
-8
-1
-29
63
44
8
77
7
4
7
36
-8
-26
-44
40
6
41
26
1
12
8
23
8
-3
23
35
62
4
-7
17
32
-4
-11
-2
33
-46
-11
-5
2
19
31
83
40
-14
29
