-16
9
1
-8
-74
-17
-14
-16
13
-25
-1
32
-33
3
-2
11
9
35
3
8
-7
6
24
-8
18
-83
-24
26
-15
19
-12
-5
-5
-11
-4
-31
10
1
10
25
-6
-7
13
10
53
-3
6
1
-11
-8
-7
3
-5
33
-2
-6
-21
-39
4
-13
-16
0
4
13
-22
19
-13
-3
-22
-20
-11
1
6
23
-24
5
17
-18
48
-2
-32
9
3
-19
38
1
-22
-11
-6
16
8
-42
-23
-23
0
21
16
-16
-6
-14
-1
-1
7
-13
30
-5
-19
-30
-7
5
8
-21
4
19
5
14
3
11
-8
17
-1
2
10
-8
-16
-12
17
3
-13
-12
-4
23
-15
15
-19
27
3
0
-16
23
-21
5
-3
-21
-38
-10
9
-6
-17
9
-10
26
-21
32
-17
1
-21
-14
-7
-11
10
-30
-13
-16
3
-24
29
-11
-21
3
10
22
22
-1
-8
-11
5
38
14
6
-7
-33
11
-18
-18
-14
2
12
-39
-4
-30
5
-9
-10
16
13
-20
-3
15
3
-7
-22
-2
-13
-5
-9
-31
10
18
29
2
4
-1
-13
11
-13
-6
29
-42
-16
25
0
14
-1
4
21
0
-3
-13
2
-8
17
-22
-7
-8
-9
-29
7
-18
17
61
1
0
4
-18
-1
16
21
-16
-3
-16
-8
-14
-27
8
7
20
30
-4
-20
-5
42
12
-7
-9
3
-34
-11
10
49
60
-21
-14
5
-20
3
-31
-26
-49
-11
20
9
-22
-26
-28
-13
10
-7
-17
-23
-1
-27
-21
6
20
8
14
-4
18
14
-5
-2
-24
-38
14
-4
-14
3
-8
-15
14
-19
-16
-10
-9
9
-31
20
-19
40
20
22
-46
-8
-12
-2
-8
7
-4
-38
12
5
10
-7
-15
1
-44
108
11
-12
15
-22
37
-43
-22
33
43
7
-23
4
16
11
6
-30
-29
-25
5
7
1
-17
-14
11
-10
4
3
-30
5
17
21
31
-2
27
-23
-5
-22
64
-14
-18
8
32
7
21
13
0
21
-10
-7
-16
12
0
2
22
27
-1
22
-15
-16
17
9
-42
9
28
-2
5
-14
15
-28
25
-11
25
8
28
-13
-22
9
3
-41
-12
-32
11
-12
3
-4
22
-22
-1
2
-6
11
-20
-5
-9
127
13
-6
-8
47
-23
-4
15
18
21
-7
-10
15
0
42
18
27
27
15
-4
8
-20
-2
14
15
-15
19
4
10
-30
-20
-12
-20
-23
-11
58
-25
-22
3
-6
17
-4
-8
-23
-18
9
10
8
-3
4
69
10
-31
-2
-50
-33
-13
-11
0
15
31
29
-49
-12
-27
-8
2
-1
28
-9
41
4
4
14
0
0
21
23
25
-41
-21
33
-8
21
-11
-9
-5
-16
-5
-31
-2
10
4
-22
-7
15
-3
-3
-5
18
2
-17
9
26
-16
-45
18
-20
-17
-9
-8
41
-63
-1
-11
-24
-3
-1
-8
-14
-34
18
-2
13
17
12
-29
-12
-32
6
-19
-20
-6
8
20
-8
-4
14
1
1
-34
-10
19
36
12
-17
-10
-6
26
-7
-25
-6
0
35
13
-3
17
29
2
-10
6
-40
-19
-26
-3
-10
10
33
12
27
2
-4
-13
22
12
-5
-2
6
-7
32
-14
-10
6
-19
-17
-2
-9
-21
-20
-13
-12
-17
-2
-23
1
5
-15
47
-14
9
0
-13
8
-10
-23
3
-9
15
-27
-24
0
6
29
-66
-16
-12
-23
3
14
-16
-38
-40
-21
2
7
7
0
-10
38
27
-2
-34
15
16
-11
-2
18
-20
-18
1
-11
-18
18
30
14
27
-6
24
-20
12
34
-3
9
27
8
-15
-5
-18
18
-26
10
-22
10
33
33
-16
-13
-26
-20
20
0
-20
33
17
32
-7
0
-12
-5
-5
3
2
9
-22
0
3
-39
26
14
11
13
17
38
1
3
3
24
-9
-7
1
11
-15
-3
-2
-2
-41
-27
-31
7
18
-8
-1
3
-10
14
-1
12
19
14
-7
12
-12
-41
32
1
-7
17
-23
-16
-18
-1
3
-1
-19
4
35
-9
7
-13
-4
-13
24
-8
1
-17
11
9
44
4
39
4
-33
1
19
-11
0
0
-9
31
16
7
-5
-3
29
4
-13
7
11
-31
-13
0
38
-20
-5
1
14
14
-6
-34
18
-15
-3
-3
24
-7
-19
-18
-50
17
35
14
14
80
-5
8
-10
14
14
25
-20
-23
5
-17
24
9
-3
6
29
0
2
2
-15
6
23
-23
-1
5
-9
18
-5
-15
-26
-6
-1
-25
-7
-13
-7
-2
-11
4
6
-9
-13
11
-36
10
-23
28
5
-10
4
6
15
-7
22
16
-7
-31
-3
7
3
0
-4
-16
-12
13
-9
-27
20
-4
-2
14
42
8
-17
18
21
0
-3
0
-9
0
10
-23
48
17
4
-1
28
17
25
87
-11
14
22
-27
13
-1
12
-22
24
23
-13
-2
19
-27
0
-1
-39
-35
-4
-4
2
26
-8
4
17
21
-7
33
-10
-25
1
13
-25
23
5
5
31
2
7
-17
1
9
-7
-2
-30
4
-23
20
29
-13
-9
-13
9
23
19
15
12
-43
13
-13
-35
-11
11
0
-12
-4
30
14
3
-27
-14
14
21
-9
22
-5
-32
30
-15
12
-10
-25
-3
12
2
0
-7
-9
-3
-6
20
18
-8
0
60
-16
9
-2
-9
8
-2
-37
-3
8
-2
-18
17
-27
10
-3
16
-10
9
-1
22
-13
26
4
0
-8
-3
19
-3
15
-11
9
29
-3
12
-30
1
0
-6
5
27
14
-11
-31
14
1
12
2
-15
-17
-26
-1
-16
54
15
77
8
6
-34
-40
21
-25
-18
-18
12
-1
22
-13
-24
-4
-49
-13
-10
14
19
11
-16
-1
29
12
1
3
-11
61
8
-12
-37
12
5
-23
17
20
16
-10
-7
2
9
24
16
27
6
-33
10
-6
11
-4
-32
15
0
18
3
-7
6
-11
-18
-19
18
22
7
-16
5
-7
-13
-4
-21
10
-28
3
9
15
-17
-31
-15
7
-8
-8
-14
12
34
-17
-6
13
-4
122
13
0
3
-26
12
22
-37
19
38
26
-22
-66
-15
6
64
12
67
-25
-7
-29
79
6
24
37
1
44
-27
-25
40
-11
36
27
-9
28
40
35
17
-55
-61
18
11
1
13
-30
0
7
77
56
5
22
-7
-38
24
27
24
34
63
0
33
52
3
23
3
-15
10
12
23
33
24
-92
3
9
-30
1
-6
-45
37
41
-49
-15
31
-15
-36
7
-9
-43
-4
64
-24
29
21
6
-35
10
-21
24
34
37
-64
26
14
-5
16
-6
-74
13
-17
-39
-17
11
-75
46
-25
7
15
43
-49
-57
18
-32
13
32
-14
-15
21
-23
-26
20
19
56
29
-17
-48
3
18
-52
41
66
-41
-37
-6
-56
-5
96
-45
-80
22
21
-6
39
-20
26
-35
28
-11
-34
4
64
-46
56
6
48
-30
74
-4
-11
3
-36
36
-2
17
7
-39
-65
83
25
12
-13
7
-28
3
35
26
-4
8
61
28
-79
-16
17
-8
6
-16
-35
13
37
65
-32
13
16
2
-32
43
-37
-31
-20
-41
34
38
52
79
-21
46
91
-60
-40
-6
-43
-37
18
-94
43
-37
26
-26
-14
36
-7
-26
41
-46
-16
-29
-26
56
14
-12
-35
58
22
45
17
29
-34
14
-79
15
-28
49
124
-4
-62
-10
-41
27
-16
-45
4
95
-21
41
10
29
3
-30
-27
46
57
7
-21
-9
-30
-39
45
23
33
7
42
25
6
44
-1
17
41
-36
49
0
-14
67
-35
-13
-29
-35
-24
-23
6
27
49
17
40
-20
3
-51
-21
50
-43
35
23
-24
9
53
37
-12
32
-57
49
-43
-1
-28
-61
-2
-4
105
8
-8
-1
39
20
39
42
-15
32
-22
52
-44
49
-45
20
-74
-43
-33
44
34
23
-18
46
22
-53
15
21
14
-12
75
-28
-47
0
-21
-22
-8
-5
14
74
-95
-77
-20
-30
2
7
-49
4
-45
-13
-49
55
2
19
-6
0
-82
33
108
-11
-27
7
23
-39
-43
8
-41
-5
34
-19
-27
-39
-101
40
-3
-5
14
16
-45
52
-20
-17
8
-5
8
-2
33
-34
26
30
21
51
22
-24
45
2
-15
-14
1
-7
40
23
-22
57
-30
-13
-8
18
8
-10
14
14
-48
-10
-20
17
-42
30
44
29
-41
-1
18
-10
-31
85
-28
-7
-6
27
39
-2
-43
37
-14
30
106
-14
-36
17
31
-61
17
8
-43
-24
12
-75
-24
23
15
53
18
-32
35
-8
20
42
-46
106
8
43
109
19
2
-54
-26
-102
10
58
-8
41
26
-13
-62
-15
-12
-44
-41
9
16
-101
-12
32
13
-58
12
69
18
-15
-3
-31
-17
-7
97
-63
-51
17
-3
-118
-35
11
-39
-38
13
28
-23
-15
-2
-31
-32
48
16
14
88
-20
5
3
-13
34
70
-61
-34
-24
68
46
53
-66
-7
22
-15
-28
2
14
-30
-54
35
39
13
-9
32
-34
26
-4
50
20
26
-43
58
-17
-33
-34
-33
3
-49
19
-28
54
20
-26
41
23
-26
-57
-30
-19
-19
35
12
73
22
58
-63
-57
-2
1
-64
-44
2
-54
1
45
-26
-11
-10
8
-3
19
31
-24
50
-99
5
1
1
21
-75
4
-3
24
0
70
-65
-13
5
8
65
3
29
-21
-26
41
-11
-32
-16
-19
22
-44
-55
-47
77
-27
-16
-1
5
72
63
32
-3
-12
50
-72
51
15
30
51
-12
-17
31
13
-21
73
30
1
-26
-38
7
-9
4
-27
22
-21
1
-38
35
-43
-39
-16
22
-13
-27
-23
-2
33
9
-41
32
30
8
41
45
-22
-25
25
-1
-35
-23
-4
-37
2
2
78
-8
20
-37
-63
5
-72
24
-43
16
2
25
-13
26
49
35
24
-3
-34
-1
-34
18
2
12
-20
45
62
-22
-33
12
69
19
-15
-19
95
-7
74
51
21
7
-56
0
-12
22
-47
-28
4
37
-3
-25
118
-1
42
-4
25
-12
22
36
-19
16
90
-31
32
60
17
6
13
-3
5
-22
20
-71
-10
32
37
-102
-16
44
-40
10
-34
23
42
-13
-8
-6
-9
46
28
30
30
10
1
11
35
57
11
16
-22
-20
-27
-39
50
-31
27
-1
-16
13
5
-6
-66
3
-1
-32
9
3
5
45
14
13
-64
-72
46
-23
22
6
7
13
-24
-4
-57
13
13
5
-35
5
-3
-17
40
43
2
-49
20
-29
-14
-59
-27
-1
-30
38
-24
-17
12
33
4
-12
-37
92
16
0
11
71
21
-8
30
50
-6
8
14
-66
5
46
5
5
-59
-10
119
26
3
-90
6
-73
-32
17
37
41
-49
-24
22
-4
4
3
-13
-45
32
54
-31
-15
-42
-5
15
32
12
-33
80
-50
12
-10
30
7
13
-100
-21
9
-26
51
15
33
92
0
10
32
-22
1
14
38
18
-70
-39
-98
1
-15
2
-8
-4
-40
-34
32
34
-76
-26
11
8
33
68
53
4
-25
-51
-9
22
55
15
57
37
5
-23
18
6
-29
-47
-27
-56
19
6
44
4
-42
-19
-52
-4
-28
24
-54
-30
-43
34
-47
3
8
-2
-11
-39
23
-48
35
18
-51
-87
32
-56
-1
23
-40
46
-61
15
25
-5
32
-48
6
35
-4
-7
-11
0
-26
5
15
-3
-81
-32
32
-15
-40
-1
38
15
-27
3
-41
-41
-19
55
19
-48
47
72
5
-2
-6
-23
32
-69
29
83
-32
-23
1
30
36
30
-58
30
19
39
-5
-44
-54
-20
-13
20
-58
43
0
55
39
0
10
18
-20
-28
-57
21
-10
43
-8
60
42
8
19
10
-22
11
-21
40
-18
57
-4
-13
-15
-26
34
-10
-127
-24
-19
27
-7
-8
52
-46
-14
-1
-16
28
12
40
2
-50
-27
15
17
-47
-51
-40
18
2
12
-45
-7
51
2
-14
9
35
119
-10
-5
-19
-51
-18
58
-17
61
25
-4
29
-27
97
-15
13
57
-70
2
-3
22
54
47
-1
34
-43
-18
60
69
39
23
-19
-47
-9
7
7
37
18
7
-22
30
11
-17
-6
15
1
-20
8
-24
-8
-56
-2
-38
34
-9
-14
-22
-5
-9
41
-11
-38
7
5
-29
-2
-13
-1
20
27
48
-2
-11
10
-11
-13
-25
32
-11
30
-30
-23
-3
-18
-10
76
-3
-21
51
-15
8
23
22
-20
-15
12
-8
-12
-13
39
16
-28
38
46
-23
-2
9
-3
7
-6
-26
-6
-1
-4
22
-20
-2
-28
-20
-19
-5
-17
4
7
-2
-62
-10
6
-32
48
-18
-31
-4
8
68
5
-7
25
32
-11
1
-18
6
4
0
4
-2
-5
-3
-16
7
60
-7
-19
26
-22
26
20
9
-42
41
-3
-20
-7
-29
9
72
-24
30
26
-21
-36
8
4
18
-25
-16
-15
5
11
4
-9
-25
-4
-40
6
12
0
-4
-10
0
-18
-6
-21
-20
-6
-20
18
20
-9
0
14
11
-44
-10
-29
-9
-16
-31
10
1
12
-18
-8
-65
-16
-5
20
-15
-46
11
13
-4
-16
-5
-25
-27
35
56
-20
4
38
39
24
9
3
-10
20
2
-5
10
-5
-33
5
-4
27
-27
-21
-30
-14
0
-21
-17
17
-16
6
27
-16
24
-33
0
30
-25
-1
-10
-20
24
17
-9
-1
-16
15
-19
23
29
-1
-15
-11
-29
19
-16
28
-26
-18
-2
-35
-20
-1
-3
-5
-11
-32
-20
34
-12
13
-17
14
21
18
-17
19
-2
-28
-14
35
-17
7
4
13
-16
3
-7
-10
12
-11
54
-24
5
12
15
35
-6
-2
22
-3
2
12
30
36
20
-12
24
9
-13
39
37
20
38
-35
2
-3
8
-17
13
-2
2
-11
-1
14
7
-34
30
-5
16
2
8
22
-55
-7
-45
-8
-11
-40
-30
-20
-20
14
-23
5
6
-18
22
-16
13
-20
30
5
-34
2
-36
-4
10
-1
-17
47
-10
7
12
-43
-20
-11
-8
33
-47
-3
-39
-23
12
58
4
-22
0
-34
-5
38
21
12
-20
5
-42
10
3
9
1
-7
-12
-28
-4
-21
-15
-15
-9
-6
-17
-41
-24
-27
-19
10
-9
21
-45
-1
-8
-12
5
-18
1
16
-10
-17
-20
-24
-28
21
21
37
48
14
-15
13
9
-26
11
-44
37
14
13
-22
-5
-13
-29
-5
-20
4
-10
-71
8
18
17
-20
-6
11
-14
48
2
-13
8
-2
-31
-22
-2
-7
4
0
-25
22
-5
12
-21
-13
16
19
-11
6
-4
15
-9
-21
11
13
-7
15
-17
-48
31
23
-5
32
5
7
4
-8
-23
-31
17
37
-1
-24
14
-13
8
4
-30
-41
28
-14
73
15
19
-21
-8
5
-19
-26
-1
-1
16
-5
13
-9
-17
33
-12
1
-32
-6
-2
-23
127
22
-6
37
-26
33
15
37
-33
-8
3
3
22
28
63
-2
10
-3
-21
7
11
-13
-20
40
-4
-36
12
2
-19
9
-26
-1
10
-60
-19
-36
21
21
-43
26
-17
6
-10
-3
62
-5
6
-4
10
-14
-13
-4
44
0
-29
-1
-24
-22
-17
10
2
-5
17
26
-5
-2
-25
-11
0
-14
-28
-6
-35
-67
32
-23
-36
-9
19
25
5
5
-25
-7
-1
38
-8
-3
16
5
-28
-8
8
27
1
8
-16
68
-12
35
-15
-26
-12
5
16
1
-13
-19
13
-17
36
6
-34
5
-12
-1
-8
6
4
10
12
-1
-11
7
29
-3
-19
-8
-10
15
23
-8
-20
-38
-29
21
13
-10
-30
44
-23
-17
3
9
-4
-23
-54
-2
19
-8
-62
17
-15
20
-11
12
-11
-9
-31
-6
-26
-20
-8
11
-28
-10
-24
19
-1
5
14
-16
0
25
-33
-26
-26
-14
-4
-42
-17
-7
11
0
35
-28
-9
4
1
-16
-16
-7
-52
24
-20
-23
-20
3
-27
36
-12
12
-17
32
-12
-41
-47
-24
-12
12
0
-8
4
-7
-23
23
23
-15
-48
-5
34
-9
-12
-2
5
6
18
13
-3
-29
-7
20
-41
31
-19
53
26
23
-47
-31
-16
6
8
-4
-37
-11
2
-14
30
21
-6
-4
-21
25
-4
21
-3
4
-1
24
34
0
66
-11
10
-13
-31
3
14
-33
19
6
43
-31
-3
11
-12
-4
-13
-23
-30
-47
-1
15
-5
48
14
1
6
26
1
19
46
35
-4
45
-5
2
-12
-9
-16
0
21
-14
61
-8
-15
69
-14
29
9
23
-4
10
22
39
-26
-9
-60
-28
17
13
-5
24
-7
-20
-6
-53
5
4
8
10
-12
14
4
7
-40
-1
-23
-6
10
-30
-2
5
12
-1
-32
7
-10
44
2
16
0
-4
7
17
-29
23
-29
-35
5
-44
-26
25
25
17
-23
0
-22
-4
-15
-18
10
11
-33
-12
9
3
-4
-13
-20
-34
-8
-21
-12
24
-22
19
-32
-4
-19
14
12
7
32
-1
-44
15
-17
18
-45
14
-6
20
-18
-7
-15
-26
-5
80
32
-16
-18
-7
33
9
3
22
-56
0
-15
13
33
-21
-41
-20
-24
-20
-17
-31
-1
-22
-20
-17
4
13
2
12
33
-11
-25
4
17
8
-23
-10
-34
15
2
-19
-12
-5
21
8
-16
-11
7
13
13
-37
-1
18
-3
-50
-38
-25
29
39
-29
-8
6
-9
6
56
7
-2
4
8
-3
18
-12
35
-11
28
-16
-11
-12
-23
15
-16
-28
-21
67
4
-1
-5
-1
35
42
-5
-8
-6
19
12
-20
24
-17
-12
7
8
-40
-5
26
-12
-12
15
6
-33
-28
-20
-3
-19
-21
17
-18
13
-31
-56
11
-17
-56
34
24
-30
-5
-21
11
10
-34
26
34
-11
10
-38
20
28
9
41
113
59
-18
4
-10
-13
13
13
3
-34
32
30
18
10
-32
-18
-27
-42
-17
-18
-14
-13
2
-13
-37
-41
-16
-12
-3
-8
15
31
-8
3
-14
16
-1
-6
-5
38
16
14
-4
-25
3
13
-4
-11
8
-18
53
6
5
-15
-20
8
40
-10
10
-6
12
-14
-56
5
-26
-1
-3
-12
2
22
5
7
-14
-8
-38
-43
1
-11
-6
33
-3
-3
0
-23
10
-18
8
-12
3
-3
-8
-13
-20
2
-11
-10
9
-1
-20
-13
20
-12
41
-20
3
-7
21
-9
-4
11
-5
-8
2
4
-10
7
-4
3
-30
32
-22
1
-27
14
20
-12
9
6
11
-7
9
20
4
-3
-6
-22
7
5
-25
6
2
-25
2
-13
-4
4
6
-11
7
5
14
-15
-5
-13
9
10
16
13
3
4
-4
86
30
-13
4
-6
2
-13
-33
-1
-24
-14
-4
-8
-22
-1
-14
4
13
16
-9
-1
-3
7
-5
-20
-4
7
-17
15
-28
12
-21
-23
4
-22
-15
-12
-19
6
-4
8
-7
13
-16
27
16
18
6
-5
-11
46
4
-5
-7
-10
-11
1
1
5
-16
18
7
-15
-15
15
-2
0
-1
2
28
26
-14
-12
-11
-15
0
-10
-10
-1
-9
-11
24
7
-10
1
-12
2
0
-19
7
4
0
-14
6
8
3
-7
-23
2
28
-16
-4
-14
5
8
-14
-2
-18
-7
21
15
-5
11
-7
-7
-9
-10
32
14
-44
31
-4
0
-9
-4
8
-7
-2
5
-4
-25
-8
-10
-4
-24
-5
-9
-2
-9
7
1
-4
22
-22
14
38
-20
9
2
-15
-1
-17
33
11
-21
-16
-16
-9
-14
7
-1
-13
-20
68
14
-3
10
7
-11
25
2
-20
-17
-18
-2
-3
6
24
6
0
-20
3
-20
-5
3
37
27
-4
-3
3
-14
-11
4
8
-1
-4
-57
36
-9
8
3
-24
-10
2
-3
16
-7
5
10
2
3
-4
-13
-8
-8
13
2
-7
1
1
-8
3
-18
-16
18
-2
6
-2
-2
-10
-14
-9
-3
31
2
-11
-18
-17
1
-14
4
-26
-7
-14
3
35
-10
-2
11
-2
-8
17
37
-5
-14
12
-31
11
-26
-6
-11
2
0
-13
25
-24
14
-2
-3
18
-2
-8
-4
9
-13
-15
6
19
2
-7
2
22
10
-4
-14
1
-23
-35
3
-17
-13
-24
-20
10
4
-4
-28
-14
-3
-12
2
14
22
-21
-18
13
8
3
-9
15
9
-17
-3
11
-10
-5
17
-20
-35
-18
14
-3
32
-3
-7
0
0
2
28
-8
9
13
-6
7
-5
10
-16
38
-4
-16
5
-13
-7
-27
9
-4
8
3
-3
-20
-32
-13
-18
62
-13
-11
16
-7
-8
-5
6
11
2
12
8
-4
0
1
-10
-11
2
0
-1
24
-11
13
-13
-10
-2
3
8
-24
4
111
14
15
-3
7
12
8
-13
-13
-6
-5
-7
5
6
-12
-22
-17
5
-11
-3
9
-6
17
-10
-10
0
12
22
-7
28
4
-22
-18
4
24
-3
0
-1
11
6
-5
2
-1
-1
8
12
-3
6
16
9
-5
16
-12
-17
6
13
8
-6
2
12
-24
-22
0
0
-18
-8
21
-1
-9
-11
-2
-16
-29
3
-22
16
-18
0
-12
-6
1
-8
13
-15
-8
24
-25
-12
0
8
-22
1
4
-8
31
3
-15
-11
1
-3
-10
-12
-18
15
2
-20
18
22
-15
4
-10
6
-18
12
-5
-12
-14
-12
3
-8
18
-5
-7
21
-18
-1
14
11
9
20
5
-17
-10
2
10
-21
-8
-10
-3
18
-13
17
27
-16
46
-26
-4
15
0
-3
-5
-9
6
-6
-14
14
-3
-17
-10
-1
-26
-16
-24
-7
-21
2
-10
0
-7
7
-11
1
-1
2
11
0
-1
-12
9
13
-1
5
-6
-19
14
7
36
3
45
20
-17
16
0
1
-10
-18
24
18
-13
-12
24
-14
-24
-1
22
3
22
24
-27
-8
9
7
-12
-3
-10
58
-23
11
1
15
-17
-9
9
-39
-8
-2
0
34
3
-3
0
-16
3
-7
-24
-2
24
2
-25
-11
44
19
-21
-13
-9
-3
14
20
12
-12
8
-6
4
-12
-6
-7
29
4
2
-12
21
11
-4
-11
-8
-23
5
11
13
-3
-3
3
-12
-21
4
-6
-14
6
-14
10
-3
-5
-14
-5
-11
18
6
-11
-4
2
-15
2
4
-3
24
-43
-31
11
-5
-4
9
5
9
-1
-23
-24
-17
11
-7
-7
1
8
35
4
-9
-17
14
-18
10
12
17
-15
-15
5
-8
7
-3
-28
12
5
32
-21
17
-2
2
15
0
-8
6
-16
5
19
-9
6
8
5
-11
29
11
-14
-20
33
-14
-15
13
-7
7
9
27
0
-11
4
-16
7
-28
-2
1
5
-19
-25
-11
-31
4
7
5
-25
-21
13
35
-4
-8
0
7
-6
-13
-17
-22
2
11
-9
127
3
-5
6
4
28
-5
-3
-3
-16
-20
7
13
-18
13
-15
-3
-8
11
-22
7
-19
-1
7
-12
2
1
5
-2
14
16
-11
4
74
12
-20
-29
-11
-4
4
-4
-20
-1
-15
18
-25
4
-11
20
3
7
-15
-2
-13
30
-36
9
10
27
2
-17
1
13
-4
0
-11
-6
3
31
12
-4
17
-1
-21
-5
-24
-10
-7
-15
-14
-13
-7
-8
11
73
-10
-2
-45
9
-2
0
-30
-8
31
-8
8
-3
4
-12
-11
-3
3
15
-16
7
18
-15
4
-2
-15
-13
-20
10
30
-3
31
9
14
-14
-17
47
-7
7
-8
8
15
-1
15
-14
-1
1
-10
-9
21
11
0
22
-5
29
-46
2
-17
4
-9
-16
-16
-3
-34
-8
-7
-16
-17
-10
-13
3
47
-10
11
12
9
-22
18
-1
-20
-6
-17
3
23
6
-9
-4
-8
9
10
14
-10
4
35
-8
-17
18
22
3
12
-1
17
-7
23
-13
15
-3
-33
-15
1
-13
12
-10
-2
-8
-8
33
3
9
12
10
0
-29
39
-24
-7
10
15
-10
-25
-6
-2
-11
-9
20
8
-13
-20
39
26
3
21
-8
6
20
6
-17
-15
-5
11
32
22
27
-15
-20
6
34
0
-24
15
-13
-3
9
12
-13
-6
1
-3
-13
-6
-1
-17
8
-10
-19
21
-9
-10
1
-10
10
1
-2
-12
-21
16
-15
-12
-5
23
-1
-18
-15
6
31
-12
-28
15
7
-33
21
-23
6
-1
3
-17
25
-4
-9
3
-11
19
-1
-14
16
-10
-3
-34
0
-71
22
0
-13
15
12
45
-16
-10
-9
-31
-22
9
-8
10
21
21
7
-43
61
2
-32
11
6
9
-16
-20
21
3
1
21
-19
-5
-2
36
26
-12
-11
10
-9
-21
3
-3
20
-6
-17
1
4
8
38
38
-15
11
2
-12
29
23
-37
26
-1
7
-20
21
26
-4
-4
-3
3
23
-26
0
-4
-8
-53
-17
-18
7
25
-57
-15
4
19
8
4
10
10
-39
6
-6
25
-29
12
-16
11
-13
46
-11
3
20
6
13
11
21
2
7
44
-24
93
14
-29
13
-33
6
58
-22
-6
-18
3
14
-19
-11
-3
10
-4
-6
-2
-20
2
-21
-52
19
-6
27
-21
-22
1
11
-2
9
26
8
39
-18
-4
13
-8
16
8
16
-9
6
-10
48
-32
28
14
8
10
2
24
-17
26
23
11
7
14
6
42
2
2
22
-9
38
24
13
-11
-20
8
-5
-2
-27
-14
12
-5
-46
-15
-4
3
-13
-9
0
29
-7
34
-10
11
5
25
31
-6
19
28
22
3
-25
26
9
9
12
8
20
-17
14
-17
-24
72
-25
14
-9
-28
-7
16
-7
24
1
11
26
18
-9
-15
8
-19
18
26
-6
-2
-33
-4
10
-3
16
-32
7
-4
-1
-6
18
57
-24
-23
-32
-6
-5
18
-10
-12
-25
3
-14
-16
-36
15
-2
17
26
34
-10
39
5
2
-10
81
23
-38
-6
9
-22
23
-4
24
1
16
35
37
18
28
-10
35
21
9
-18
4
13
2
24
-9
-12
1
18
45
-22
-6
-9
4
4
2
18
0
15
8
-27
21
-33
-10
-18
1
-25
-5
15
-18
-5
-17
13
40
-4
9
22
-7
-12
-3
-2
0
7
-8
17
27
-52
-18
3
8
41
-12
24
-6
-19
-14
-29
2
35
50
14
13
0
18
3
-2
22
25
6
-9
15
-20
-2
8
-11
-15
-23
7
-11
-11
-19
19
-19
-48
-7
-6
6
-9
-23
-3
-12
-14
-6
-29
2
-14
-15
-11
18
-3
16
28
9
-6
-20
3
-8
26
0
-2
-4
-29
-27
-3
-9
-15
10
-3
2
45
-8
10
-8
12
0
9
38
13
8
-13
-2
-12
-1
-37
-33
-9
-3
5
38
52
-27
-2
-4
19
4
-30
16
-23
-8
-72
14
-5
22
-52
-14
-13
1
-4
7
18
-25
22
24
-17
1
-1
7
5
-16
20
32
-3
-10
6
10
-41
10
-7
33
-11
-21
-5
13
1
4
9
21
8
-10
-7
-3
24
10
19
3
4
11
-33
26
24
5
-16
-18
-11
-35
18
1
-14
6
-20
-21
-6
2
3
6
19
7
3
20
-6
-3
0
-15
-3
-13
17
28
-1
27
100
-34
7
-14
4
-19
-9
-6
-36
24
-10
-32
-12
4
47
21
20
22
-9
32
-8
-10
24
-11
-38
11
-21
43
-16
-3
109
3
-8
60
-13
40
-18
-21
-17
21
-3
-53
2
11
4
-14
9
8
-40
3
25
17
-7
20
-38
-18
33
56
-6
19
14
29
18
29
10
-19
-18
-21
4
11
11
8
-5
22
-7
11
-23
29
-8
4
-64
15
4
19
14
-19
12
27
6
20
19
7
-34
27
-21
-4
6
30
13
1
-14
11
-34
-22
1
-7
-2
1
-6
37
-26
19
11
-10
11
8
-6
11
19
-1
-39
19
2
17
1
-22
55
-19
12
33
7
12
4
-8
16
-5
2
25
6
-13
-2
41
5
2
-5
9
1
-4
-8
-2
18
-19
25
11
-2
22
6
-20
-21
-18
-13
-8
21
-38
127
-11
-8
12
30
14
28
1
0
-10
-10
-4
11
4
-32
26
-20
24
24
13
8
45
-4
3
23
8
-12
57
124
60
3
-24
-5
-3
52
16
10
-21
5
-2
-1
1
-19
-3
4
8
-5
-1
32
-6
-23
15
-8
-2
8
-23
8
-3
12
-15
7
5
-16
6
-25
-17
4
-3
1
4
-18
9
-32
2
40
11
-17
10
4
-28
32
10
23
13
-10
8
7
8
4
22
-20
8
1
9
11
-27
20
35
13
-12
-27
13
18
-3
25
31
-29
14
22
-20
8
0
-16
8
25
12
-18
10
25
22
-11
8
28
-7
11
5
13
15
9
-20
25
-24
24
-8
-48
-22
0
9
8
8
1
9
46
-29
20
17
-12
-9
31
13
-27
20
-32
3
-11
34
35
20
-32
8
-13
-28
14
37
10
42
7
18
13
22
0
-10
14
9
12
3
12
-11
-5
11
-1
-1
30
41
-14
-3
20
-12
-9
-11
-9
-9
-1
-18
36
-4
37
32
-5
5
-5
-15
7
-4
-19
23
-7
3
32
-10
17
12
13
12
7
-10
-28
19
25
-7
3
-1
-25
20
9
14
36
4
-17
-11
13
3
-3
-12
7
35
-4
37
4
-4
-11
28
20
10
-19
38
15
18
12
7
9
-12
-29
47
11
-8
-15
43
-10
16
23
-4
-24
-20
-2
18
-33
20
7
11
6
16
9
-22
-1
28
-9
21
35
22
30
-8
5
15
30
7
3
33
16
2
3
-16
6
12
0
19
12
-13
-44
-13
33
40
-8
15
-12
1
5
1
35
-16
-24
2
-11
18
-29
14
-17
10
-7
-18
38
31
-28
-33
40
-12
3
28
17
12
-20
11
-5
-5
3
8
26
10
-2
-33
11
2
9
27
3
18
11
2
1
20
-9
17
41
21
10
20
-24
15
3
-7
26
26
-2
-6
-3
-10
17
19
18
-10
-12
33
47
-5
-40
-7
28
1
-5
-25
13
-36
28
-6
61
11
36
4
24
10
25
-10
13
-12
4
7
42
10
-35
10
66
-4
7
38
6
4
14
18
14
7
19
-6
13
-44
22
26
2
-11
20
21
11
33
-22
-13
-17
-25
12
16
-24
-46
-13
19
25
-29
29
12
-1
-2
-10
21
-3
-24
2
28
-16
-43
-5
6
21
14
1
12
-11
25
17
26
-14
24
-6
18
-6
17
-8
-18
-3
25
15
7
11
-13
-23
16
12
-43
8
19
-1
-34
-34
-23
-43
8
-16
101
12
33
25
7
-14
1
0
-46
42
-45
-4
-31
-17
-55
-65
-2
18
-22
-7
-17
-49
-4
-10
-5
20
16
-3
-24
-7
15
3
-38
19
-16
10
10
-15
-12
22
-26
-28
17
-5
34
6
-43
4
-20
-33
23
6
-5
-20
-22
4
-6
-16
19
-19
-5
-5
4
17
-2
-21
-45
13
15
-1
57
27
-12
-12
16
11
10
16
-7
-40
2
-42
-3
-4
-20
-32
19
24
23
-10
-6
-12
20
-72
11
-14
-44
-35
-27
-9
-6
21
-24
31
-9
-24
-17
-2
17
44
-46
31
11
2
103
-12
3
0
-38
-27
0
-26
21
-38
11
21
15
-13
9
4
-14
9
-8
19
17
10
-3
-3
-23
60
-25
9
44
-18
-32
15
24
-15
25
16
30
43
6
20
11
30
43
31
-27
7
9
14
-26
-4
-1
19
-44
20
-19
31
-30
11
-6
71
22
-14
-21
-14
-37
27
51
-38
-83
19
-5
2
99
9
8
-38
-60
17
-24
24
-28
-38
5
6
-35
-22
-40
-33
-41
-3
-24
21
14
-3
48
-16
-6
10
43
58
21
-18
14
4
22
-38
75
-1
-33
-29
26
-32
-32
-24
-5
5
3
18
-15
-16
-8
2
-3
-10
11
-32
-3
25
-23
-33
-20
-4
-14
-17
-16
10
7
-11
-1
-14
-9
-56
-40
6
-62
19
34
-18
-8
23
16
7
9
-1
-6
11
38
-17
1
-16
11
13
39
-21
8
-1
-5
-25
6
-8
-36
2
30
39
4
71
47
30
-3
-1
-9
-17
-20
12
-14
-8
14
10
-39
7
-27
-12
-13
24
-50
44
-25
-43
-23
-29
2
31
-60
18
-20
15
55
-1
-67
-32
-5
-29
-4
-25
-31
-7
30
-2
13
-30
-2
4
62
19
-8
80
13
-22
-18
65
8
-27
26
0
-22
-34
18
-9
31
27
-30
-11
-14
-41
-28
-47
-25
30
8
-75
-9
-43
-7
-15
6
12
-29
-33
40
89
-10
24
6
-29
-23
10
-17
-37
-41
6
54
72
16
0
-55
-8
0
33
-2
31
-18
3
-18
2
-19
-22
21
-17
9
3
-20
-29
-16
-7
1
-8
-23
27
6
-32
6
54
-11
-29
-20
19
-16
62
-4
3
-2
46
-7
35
16
-21
47
26
-19
4
-28
-86
-34
-37
29
-31
34
4
30
-2
23
-44
-1
16
-16
-31
39
-58
-40
-67
49
7
-9
-20
15
-14
45
71
24
8
5
13
-22
17
-19
65
2
-24
7
-22
-44
31
-33
0
-7
41
-22
13
-4
27
59
43
-7
21
-42
11
-28
2
14
-27
33
8
-42
9
22
36
9
-4
-29
26
-38
-39
-5
-17
-9
-5
14
21
2
-7
3
-34
-55
-30
4
-17
-23
29
7
-3
-5
-15
18
3
-7
-15
-81
81
43
-9
21
-36
-26
-55
10
18
8
-34
-15
5
-39
2
5
21
35
-2
25
14
-7
16
-29
26
5
33
0
13
-25
17
0
-18
-1
7
-17
9
26
38
14
-16
4
2
4
26
36
31
26
-50
-12
17
-31
-23
-30
-23
56
-16
28
49
35
-26
-23
-23
24
25
14
-5
-6
-27
-8
31
-40
-8
15
-4
-3
-21
-3
-14
-16
23
71
-20
-28
2
-34
-63
-4
-7
24
4
31
32
29
-15
9
-6
7
23
-20
-9
-9
15
-9
8
22
51
9
2
1
-2
-10
10
4
5
24
-32
-2
5
-25
3
-27
-26
-17
3
-11
-28
-28
53
-20
49
-19
66
46
-20
-43
16
20
-14
-16
39
20
-6
17
27
11
8
-8
-26
22
-44
25
-5
-25
30
-1
-55
3
-46
127
26
-22
2
31
-65
-34
7
-2
27
-13
22
43
15
15
4
26
-18
-23
40
-50
-40
4
10
-18
1
8
12
-1
-17
22
-1
27
-12
-1
59
-40
-11
-32
-8
-10
81
-5
-11
-12
-3
3
-28
-2
-14
-14
-26
-16
-5
21
3
-3
-51
-20
40
-8
5
8
33
30
24
-32
14
-12
5
34
20
24
2
-2
-27
-21
17
10
-26
1
3
-16
6
6
-12
0
-9
-19
12
16
-40
4
3
3
-16
-28
-5
-26
11
0
-58
3
32
-53
-14
9
-47
-27
-47
48
-1
-42
5
6
-3
6
13
-11
22
40
-24
-19
-8
-3
-2
-7
27
-5
-17
2
-35
11
-42
57
38
-39
4
13
1
-32
-2
-32
-54
29
-12
-4
-32
-8
23
-12
-75
-20
-12
1
-4
25
-1
22
3
22
-34
46
-8
-11
38
-5
8
7
-14
32
6
-29
10
-5
-16
-25
10
3
1
-25
39
-32
3
50
-19
-17
34
-33
-31
-14
16
-7
9
7
-35
1
-9
-13
3
16
-8
-25
-17
10
-33
-9
-25
-11
53
25
-33
3
-7
-11
-32
-37
-23
69
-38
-12
-20
56
21
-9
0
-18
-37
12
30
36
-33
-89
-34
18
-23
5
-26
51
9
-15
18
-27
-27
13
-16
9
-18
47
19
20
24
-38
22
24
-32
22
-14
10
-30
18
-5
-16
-5
9
1
-13
60
8
-7
-19
-3
-6
27
-1
4
10
-26
-28
-26
1
36
42
-21
-60
-23
-11
8
40
-8
1
32
5
-11
2
1
39
5
-8
-44
26
-2
-20
-11
10
20
-51
6
2
-20
-1
7
0
0
-10
-23
-12
-1
4
1
-21
4
-48
-12
-15
-2
13
-1
3
1
-36
-21
37
16
-27
-10
-36
-28
-14
-15
1
-49
-27
11
2
108
0
34
-29
-4
33
3
73
-12
27
-5
-24
-20
17
-25
24
55
27
-32
3
68
4
-9
-31
-20
14
74
7
37
-25
15
8
12
-41
-30
1
10
-21
-61
0
4
27
-39
-2
46
1
-24
15
2
37
21
-6
38
67
36
20
51
-38
-21
-20
3
-5
-18
24
-19
-6
-15
-17
6
12
-22
25
-13
7
-27
0
-42
-20
-12
-36
-39
-14
18
23
-18
-11
-3
37
-17
-28
19
17
13
-46
-43
-13
23
47
-2
-25
47
39
-24
-28
-19
8
-16
25
-37
25
-27
85
-6
14
-15
-25
12
-5
-15
-40
-35
-17
112
-10
-44
50
-52
-51
19
13
-50
20
-30
52
32
-24
-5
-55
-65
-69
-6
-40
-15
42
5
-6
-12
35
-45
-10
-21
-39
-26
41
0
-31
0
18
-28
64
-41
-41
44
-32
-13
-24
-12
22
-5
-3
-9
10
-12
-27
-22
-19
-1
-24
-29
-48
-9
-45
-41
-31
0
17
-8
-58
-13
-14
3
-71
19
6
7
2
-15
-11
9
8
2
15
49
5
-7
26
60
7
-6
-7
0
0
-29
-11
67
30
-7
-46
63
-29
2
-10
42
81
-9
88
27
7
-19
-31
-7
-7
-19
6
17
-41
23
3
-50
1
-7
-36
-74
-42
-36
-19
20
-23
8
-53
-20
1
-33
36
10
8
-26
-19
68
40
-31
55
-25
15
5
-1
19
17
33
88
-1
-19
-9
16
55
53
17
61
17
-26
57
30
16
-3
-14
-29
46
7
-12
24
-4
-25
-50
6
26
-18
-4
-12
-62
34
18
27
-32
30
-69
-16
-20
-62
20
7
-12
36
-73
-36
7
35
-51
-8
-32
-92
-3
-18
-8
-48
33
-15
-35
-19
-37
-21
54
-19
3
-24
-1
19
-1
-52
65
-39
0
-12
-5
8
34
21
-1
2
-47
-7
-23
-59
37
-39
-33
46
48
-22
-45
-25
-15
12
-27
41
-47
22
29
20
11
-19
19
-24
34
-69
8
-27
-13
-16
-1
27
46
20
22
-42
-7
18
66
37
-37
17
-42
-10
-37
13
-57
43
-13
-6
60
-17
7
57
25
33
-41
6
-58
-19
0
-5
18
-4
0
-18
-15
-18
5
18
0
10
33
-17
-32
-76
14
55
6
-8
-19
9
-63
-49
-50
82
26
24
1
-52
11
-63
18
3
39
65
85
-12
11
-50
-40
13
-60
-43
43
48
-28
-1
-23
14
-43
22
-19
-26
33
-35
-35
94
69
4
-4
-24
-12
-15
-58
-24
127
-44
-25
22
-12
-11
-33
10
-71
-48
-4
49
-40
-27
19
-14
28
-5
-23
3
-1
-28
-9
-42
9
-30
-6
-1
-67
-70
-11
35
-21
-33
10
59
-25
-51
2
-12
-37
-40
7
17
16
11
8
-9
57
65
4
-33
-53
44
-39
9
12
-17
-41
-24
6
-39
-29
-27
-11
58
-55
16
45
-42
5
-8
-19
8
-7
12
-40
16
1
-29
10
3
39
20
0
-31
-15
55
44
-1
10
-15
-11
-25
30
13
23
39
1
-9
-42
25
21
-23
-37
7
-7
41
-46
80
2
-65
9
-27
-18
-13
-20
-13
76
-56
14
4
-57
-42
-12
30
-30
-28
-46
-21
-4
-4
11
6
3
-11
26
-36
-29
9
78
-31
-22
7
-5
-28
12
-40
-49
2
-35
-20
64
16
44
-35
3
39
39
-35
-57
10
-13
-26
8
-13
33
-20
15
-7
-39
-8
-5
-37
10
-18
34
38
-13
45
42
-7
69
-86
-33
4
19
-66
-7
-33
-29
12
-4
-19
-24
-2
-9
-15
-27
-31
12
-13
-29
-6
-37
10
8
-18
8
2
37
6
-23
1
-26
77
-6
-1
-2
5
23
-32
-21
-67
-10
-34
-30
-42
-18
76
4
-52
-31
-6
-30
-8
15
-35
-24
29
39
-21
-13
6
-34
58
-8
-3
-49
-34
-14
-42
-17
1
58
-20
19
1
32
3
-43
67
-5
60
1
66
-30
-22
-70
3
-18
52
-9
24
-57
33
-49
-39
13
-50
-42
32
-7
-6
-47
-28
-45
39
-16
31
22
-14
-66
-14
-9
2
45
-15
-13
1
-33
61
19
-22
8
-23
60
2
-36
23
-41
-41
-81
22
-31
23
18
-30
-23
12
56
0
37
-44
-34
-32
14
-4
-11
40
12
7
-2
67
31
6
49
-20
74
59
-15
-17
-15
20
-7
34
1
-24
95
-55
72
59
-25
-30
36
2
4
-61
-22
2
-39
27
-34
-29
7
-2
16
-41
25
28
-11
-28
-46
-35
114
-61
-25
4
-7
0
93
19
0
-46
-21
-20
26
26
7
11
6
45
75
-15
31
4
25
-34
-17
8
-50
11
48
33
-11
0
27
-7
48
-12
68
41
-42
16
12
4
8
40
37
52
-14
-53
1
-42
38
9
-2
11
22
-41
-52
-1
87
47
59
13
22
-41
0
-20
58
-16
-7
17
-20
-2
-27
-22
-24
8
7
-30
1
12
-27
1
-42
-17
0
24
-33
-19
-70
40
50
11
-11
-51
4
-3
-19
16
13
38
15
-28
-17
-4
-64
-35
-5
19
-49
14
9
-16
34
46
-31
-33
-24
-63
17
-1
-46
-32
4
-22
0
-30
40
-7
-22
16
14
-52
-37
-2
-38
-103
-42
-82
-37
-1
16
-26
-19
28
-20
32
-28
-20
36
-6
0
-41
-9
-9
7
-11
-40
-30
-18
-37
39
37
34
-8
46
-58
-8
-1
-74
-14
105
17
78
3
-74
18
-24
14
-9
77
-57
-4
-69
44
10
43
5
40
-68
4
-26
-70
-39
-39
-28
32
-53
-22
33
-20
33
-15
-31
17
-5
26
-12
23
13
-35
-17
39
-42
-18
-24
-3
-37
-17
-15
-15
-16
44
-13
8
25
-34
-17
-2
-13
-27
-48
-40
26
-24
49
15
-69
1
-49
-18
48
-33
-47
38
47
-24
22
-12
13
-6
-16
41
-7
29
-27
14
5
-20
-46
-12
-20
8
56
-9
23
62
-21
6
-27
38
-11
-49
-32
-14
-45
49
-38
5
-17
6
-24
-27
27
35
61
-40
9
-15
25
-33
-14
-37
43
-22
14
35
1
31
60
-31
14
2
4
-9
-54
37
21
71
4
55
-7
4
-42
-9
29
22
4
14
-20
-7
-10
10
-114
16
-11
-47
-14
-18
78
3
13
42
-15
-2
54
16
20
5
-16
-8
38
79
-13
-31
-17
23
-13
31
45
-24
18
-32
4
-14
-26
-14
24
8
-1
13
32
85
-45
37
13
7
29
6
59
2
-43
7
46
82
2
-6
8
5
-44
-45
11
-44
-8
45
12
-22
-24
34
45
-8
-33
-127
1
-29
11
1
2
-33
-2
18
36
25
-8
-35
-23
-24
-12
-25
-59
-58
47
-20
12
8
22
-16
14
31
-81
14
-53
39
-18
37
-27
-22
38
36
-41
24
20
-3
13
41
-13
23
-26
0
-23
47
-17
37
49
19
-3
47
-42
-39
52
5
5
-27
-50
-7
23
-15
35
19
-8
-7
41
-24
10
-18
-89
0
-15
-38
-19
-17
-29
17
-29
5
13
76
-8
-18
21
22
1
-4
-22
-24
13
8
12
-26
-5
8
36
-34
0
-20
29
36
-35
-24
-21
7
16
21
-41
10
-10
-32
8
-38
10
46
31
-32
-4
-17
-38
-18
28
-23
-4
6
-4
-29
17
-43
19
-43
-13
5
5
-31
-3
70
-30
-29
20
-55
31
-15
-29
18
-33
-9
19
-22
14
53
-27
-15
9
-47
8
-20
4
26
30
23
-64
-28
5
35
-28
53
-28
14
-45
-3
4
17
47
-4
-27
1
22
6
-27
-11
-21
33
27
-3
39
-39
13
28
-18
-11
10
5
9
-19
-18
-58
18
14
-22
-10
22
37
23
32
-7
5
-6
6
26
-40
10
11
27
21
6
68
-10
-24
-13
-44
-2
-4
-25
7
-33
-10
15
32
-6
0
19
5
-38
-14
17
16
8
0
55
22
-49
64
-27
-7
-17
31
19
-4
4
49
-31
-2
-9
4
7
6
-39
-18
-50
13
2
53
40
-28
-24
28
-16
2
10
20
-17
17
-20
-32
36
-18
-20
127
-2
-40
-14
92
-50
8
37
-24
-42
-42
-21
-61
-6
-6
37
58
0
20
70
-26
-17
34
-42
7
-29
31
8
-12
38
17
-28
-3
14
39
-26
-47
29
-48
-1
3
0
-33
-35
-10
36
-1
32
-17
3
-32
-26
-11
-56
-19
-1
32
16
1
-44
-1
0
-29
-21
-21
-3
38
26
-6
-29
-1
-59
48
4
-3
-20
25
-18
-7
-76
-51
-46
47
-30
74
44
-16
15
24
-9
1
-10
1
4
1
49
11
31
-19
-24
5
27
73
-42
-9
17
-36
-62
29
-27
27
-20
6
26
5
10
27
-9
3
100
0
4
-41
34
-21
20
-28
15
-28
2
13
-13
-5
61
15
-12
-22
23
-19
-5
-34
4
-34
-20
-19
-25
6
-16
89
45
-16
-56
12
-48
-7
40
-3
37
54
-12
-17
17
-34
-13
22
-41
-77
19
-23
-1
95
35
62
9
-10
25
-26
-17
4
16
102
36
57
-38
-13
15
20
53
-24
-19
25
5
-30
-35
3
24
14
-36
9
-25
-59
62
69
-7
-22
-14
8
-15
-69
5
-2
-1
20
-15
37
-6
58
-34
-6
-47
-32
59
22
-85
-26
-10
-17
4
4
88
12
-20
-22
11
-48
1
-43
-61
-34
17
-22
-7
-39
31
22
33
7
-9
-26
9
37
-19
-9
-16
3
20
2
-40
17
-15
5
-8
-21
-43
27
-45
13
20
7
41
17
-49
-11
-17
24
-7
-49
4
-16
10
-4
-45
18
-17
9
-32
9
26
-45
8
69
-39
-3
-31
13
-32
8
30
-30
-3
-4
-9
26
13
10
-80
4
1
41
-7
-14
-3
115
1
-9
-3
-13
-29
-1
-33
-57
25
-6
2
46
38
10
12
15
-1
-41
-19
18
-68
-25
56
-10
8
28
65
59
-12
23
-15
-21
15
-7
-60
-48
-32
-38
-13
34
48
-6
26
41
-25
-6
-37
-32
26
35
-24
3
7
24
-9
-34
2
8
-7
-3
-33
9
-7
11
-6
-2
-15
-38
-18
36
25
8
-3
-14
26
98
11
9
-60
-21
-53
15
-28
-23
-45
17
-16
23
20
-26
78
-46
25
45
-43
-21
-39
-11
-19
-62
-15
-1
-32
9
5
16
27
10
23
-3
32
29
69
-6
-43
16
-13
-72
-5
-35
47
-13
-25
30
79
-34
-48
2
36
-13
-14
-2
11
2
-32
-42
49
-21
66
-2
43
-6
60
-9
-2
117
20
-23
14
20
33
93
35
10
-31
11
12
-40
-17
27
-4
3
4
35
48
0
-65
-20
-42
-3
-51
-23
30
3
9
-4
13
-14
24
-12
5
34
6
22
25
-16
30
-24
-47
8
-31
27
41
-54
-29
-16
-5
-13
-49
18
-29
-3
-12
-19
62
16
-16
-26
-26
25
-61
11
-18
17
-38
-60
27
59
15
2
-4
-13
-4
-20
11
11
33
-36
1
-23
-14
9
37
-38
-32
14
10
31
11
-42
3
8
-33
18
5
-14
6
-13
1
-41
2
-19
-9
-24
74
-34
53
35
-97
-16
-46
36
-1
50
9
0
-3
-26
-29
-7
-13
-12
-33
4
15
-51
-22
-1
-37
-4
39
-4
-23
71
10
59
37
-19
3
-39
85
-26
-9
9
9
31
47
-35
-15
-39
32
-5
18
-27
-32
-16
15
45
20
7
-33
19
16
-18
38
-38
34
-18
-19
-15
-34
-31
-17
7
-14
50
29
3
10
-10
-13
35
26
-33
-18
44
-59
6
7
104
15
-3
-13
31
18
-5
-18
1
-27
-53
29
-5
56
-36
-40
-10
-17
-2
-41
0
-56
-24
-35
3
39
38
-28
67
27
31
46
0
15
26
9
0
-20
-19
-8
-12
13
-36
35
-17
-34
-52
-9
-22
-15
37
29
-17
38
100
12
5
23
-11
-75
6
-5
-4
-90
-32
-5
74
4
-61
-37
-18
-30
-41
29
-5
-38
-24
50
11
14
-44
-8
-48
-2
11
-34
5
31
-37
-16
-28
73
30
10
-24
-45
-39
-56
71
-25
-12
0
24
30
2
32
8
-17
-67
29
34
-12
6
56
-17
-1
-3
-8
-10
-23
40
11
-40
-31
-26
-16
10
-8
-32
45
19
-47
1
-55
-87
-9
36
-13
-19
29
23
-26
17
-15
45
15
7
13
-19
-33
5
-55
-4
0
-16
-12
11
9
20
12
21
-6
-4
-60
-11
-38
-23
-25
-5
36
-44
28
27
-26
-14
20
31
3
38
-46
3
62
-21
9
-29
-32
3
-24
14
-36
-33
12
65
26
-9
-19
-8
-21
-10
-12
0
50
-11
59
-28
26
51
-15
-36
-11
27
-27
75
-24
-36
12
-18
-36
-20
16
-17
-96
-26
-26
-15
50
34
-1
7
-24
16
64
13
-30
20
25
19
-3
4
14
-35
-28
-21
-12
20
27
-9
-28
-50
11
7
18
61
-22
12
10
18
-30
-48
-29
24
-34
-48
7
-11
-10
17
22
21
12
35
31
-22
15
49
37
5
21
-13
-48
-6
-34
-41
-22
-33
-1
-27
12
30
52
58
-36
-40
5
0
-39
3
22
14
-27
-8
-29
-5
-14
-30
-24
5
-4
-42
-35
3
-9
18
-32
-46
-17
-1
-55
-33
8
19
4
-13
-1
-16
20
21
10
10
-31
11
8
39
1
25
-22
-12
-17
-7
30
15
18
-20
-26
28
26
25
15
-16
-26
-13
6
-5
31
-11
-3
-11
-35
2
20
10
-6
6
6
6
-1
19
10
16
-27
-15
-11
-2
-31
-31
-36
7
-5
-22
-21
21
-9
61
-48
-32
-7
-29
-40
-22
-3
22
9
3
27
6
22
-4
-23
5
-45
37
-30
8
-63
14
0
2
-33
-29
5
41
-6
-25
3
-10
-19
2
-12
16
-12
20
-26
26
-4
5
-13
-27
8
-7
-3
-25
-40
40
14
-12
-20
19
8
-3
-17
39
-31
-33
-17
-42
9
35
-20
-31
-59
-58
-25
-45
22
-18
9
-11
2
-7
3
-3
-34
29
-11
-46
-69
1
10
-32
37
-42
-14
-2
29
41
-17
-30
0
0
-43
113
18
2
20
127
-43
22
2
-1
5
10
4
-12
98
13
-17
-50
-68
8
-37
-8
-37
11
-19
-46
-56
38
19
19
59
-17
-47
1
3
27
-13
25
56
8
-30
-9
-56
73
-15
-7
0
3
-11
-7
-14
52
12
9
-29
-16
-5
-19
5
-22
7
14
-31
-10
-45
-7
-10
46
5
-3
7
-23
-8
21
-10
-18
-5
-36
-19
-9
-10
40
52
-19
91
19
-18
25
-51
-44
-21
-18
-15
-14
-6
17
4
-14
0
-30
-4
-4
66
1
9
-17
-18
-2
-41
62
0
-9
-20
-43
16
18
-26
8
58
8
-21
-3
-31
-26
3
3
8
20
-3
-22
-2
8
13
23
-36
-9
17
32
1
5
13
-8
-62
-40
47
-10
22
-49
-27
45
43
-37
-40
-8
-16
4
-20
-6
3
-21
13
26
-3
-5
29
5
-4
45
14
-45
-18
25
3
7
-15
-6
13
-27
-4
44
16
42
17
-28
15
3
54
0
4
-19
-13
2
-44
4
-3
-20
6
45
-1
-21
0
-5
-24
-10
78
1
-34
-22
14
-24
10
-46
-5
12
17
20
-33
-3
-31
-29
-22
-29
41
-19
-5
-18
51
26
8
20
21
19
-28
21
17
9
-29
-6
-42
49
28
-19
-40
4
-11
0
35
-1
-12
-23
33
11
-9
2
-4
9
-1
-33
53
4
33
-29
35
13
46
29
11
37
31
22
-39
-44
-7
4
-1
-6
-8
1
-19
1
-12
-2
68
-6
9
-20
-33
-4
-30
-15
-25
33
5
-38
23
-7
43
-2
11
15
-37
46
-4
22
69
-20
-29
-27
9
-47
-28
74
0
-1
-27
74
37
-28
-3
2
22
25
14
-8
-7
-29
16
2
24
-21
-3
-49
-1
19
1
-11
27
-24
30
-45
-11
18
13
7
-6
-4
4
-36
-12
-20
-22
-18
12
28
22
-21
-1
69
-3
-24
21
-34
-49
-20
16
-19
-35
-6
-14
2
15
-2
7
-41
26
13
27
9
15
-18
-1
6
-34
-63
-3
-15
40
13
-17
5
-12
-19
-4
3
-12
71
-65
53
31
15
-37
-13
-29
4
7
10
-9
-49
7
51
5
2
22
22
-32
-14
-18
32
-22
-62
56
-19
4
-38
6
11
-4
3
29
-13
-28
-23
-1
-5
-24
1
4
6
-46
55
34
38
11
14
40
18
-25
-16
47
30
2
-23
43
20
17
-55
-13
6
20
-11
13
3
-23
-6
-15
36
-70
40
-19
-15
-30
-12
-3
5
-28
-4
8
7
-12
-34
-39
-17
-4
-10
11
19
-23
28
-10
-43
21
25
-20
-3
5
19
17
-42
-19
24
-41
-70
-26
-27
-9
7
-9
14
8
-35
24
-24
2
-5
-15
28
-23
28
2
5
12
9
12
-10
37
-19
7
43
-7
-14
39
-2
8
21
0
11
5
-30
69
-8
-13
-40
-26
-19
26
-17
30
5
9
24
-19
-7
2
3
16
-56
-17
-16
5
1
-40
-24
26
13
12
-34
-22
-44
21
14
-18
-31
-19
34
16
25
48
0
36
-10
6
11
-50
-18
-32
-18
-42
23
11
-18
1
-21
40
-30
-22
-11
76
-1
-3
-12
37
-40
-43
-32
2
-9
-13
-39
18
-51
-6
22
9
-10
2
13
-4
-28
19
21
-28
-2
3
20
49
20
-15
-41
29
20
-40
-11
37
-2
1
16
50
-1
-32
34
2
-32
-5
8
8
-27
0
7
-25
-18
1
1
19
-11
-5
39
-13
-34
-26
-50
-30
-21
-12
-14
6
-16
67
40
16
1
2
1
-6
-33
-7
30
27
-5
-14
-15
-4
-2
6
4
-35
-17
-11
8
-4
-20
1
46
46
-37
-13
11
-19
0
-6
-7
23
-34
13
-63
-69
-9
56
-28
6
52
-47
-24
35
-44
41
-45
15
-10
-27
-3
1
-6
9
9
36
0
-40
26
-6
35
-18
-6
-23
-42
52
12
3
10
-2
37
0
-28
27
-9
59
25
16
6
-18
2
9
-22
49
-19
-13
-17
16
40
-41
3
52
55
-42
15
-6
-6
-12
-2
-14
-17
-27
9
-10
27
10
-35
-27
21
68
-13
25
-5
7
48
-9
7
-17
-42
52
9
-28
-6
4
46
43
14
-1
-39
-7
-6
7
-26
27
-6
45
-5
5
-13
6
-21
34
-18
-75
-24
23
-22
-5
-7
-11
-33
35
-25
-34
-16
-12
18
1
-3
-51
9
0
-5
14
-40
13
-24
15
-53
13
34
14
-32
51
-2
49
26
-33
52
-6
-9
-13
9
14
14
17
82
19
-17
-3
-16
-11
-24
-14
8
3
27
2
-24
30
28
4
-7
-35
-35
23
-31
26
69
-1
26
-23
31
-5
-9
-5
3
48
-22
-12
10
58
7
0
43
41
-21
12
-1
-19
19
-27
-14
36
-6
17
-14
6
56
-33
-4
42
-19
12
20
-7
-14
1
11
-12
-8
29
-3
6
8
20
7
15
-20
-10
-9
-8
4
-3
-10
-18
14
4
14
1
-9
20
-16
-17
26
-37
12
6
-1
20
5
1
26
3
1
6
-9
-25
-5
-6
5
16
3
7
3
-4
25
7
2
13
18
11
8
-2
1
0
-2
2
9
-12
-9
28
34
4
1
16
39
-7
44
17
11
23
13
-1
-12
-4
6
-27
-8
17
-7
-1
8
60
21
3
-1
10
4
9
-2
-20
19
14
19
5
17
7
-1
-5
2
-11
33
-1
-5
21
-13
4
9
-2
9
20
5
-7
-22
21
-8
-11
-5
6
-4
8
17
45
3
32
3
-5
-15
12
-15
6
-10
-4
29
12
29
0
-4
-4
13
-17
-4
-15
-20
3
-15
14
2
1
12
2
15
-12
15
3
3
2
13
8
-3
12
24
-12
3
7
-16
-4
-2
-2
0
6
33
23
16
-16
15
34
-1
-1
2
1
-5
26
-17
-4
-11
1
0
0
0
9
19
11
5
8
-15
-36
8
12
7
-9
1
24
20
11
-9
11
9
9
17
5
4
-6
11
0
9
-2
1
-22
-15
12
18
19
14
12
6
12
-9
-12
-18
16
14
16
-14
5
2
-23
14
4
3
0
20
34
10
-3
17
10
-13
-5
-10
7
-2
7
22
20
-22
-10
-14
-12
19
-1
8
-18
-15
-9
-7
-11
28
4
1
12
-7
-15
-18
11
19
44
20
19
17
12
3
14
12
-25
0
-4
-2
-3
0
-2
-13
4
12
-30
16
-25
32
-14
0
27
-16
15
39
17
3
-1
-6
-5
11
-23
2
5
-3
31
56
10
-11
7
1
-6
-14
-18
40
-2
-20
13
-1
-21
-1
20
5
-3
11
15
-11
16
-13
-11
1
-6
15
-19
12
3
-7
13
-23
15
-5
10
19
14
31
-5
-5
-7
-3
6
-46
10
-13
-38
-3
17
13
2
7
-17
22
-6
-28
9
4
8
5
39
7
4
-2
-12
18
18
25
21
7
2
5
6
1
-4
-3
-10
11
3
7
-5
-12
-8
36
-3
-2
4
-14
-1
1
-9
12
15
12
14
49
4
-16
6
-21
-1
12
-16
-9
3
3
-7
4
28
-12
-47
14
5
-10
11
1
-1
-11
-13
-14
-3
-12
8
-2
-6
7
-4
23
10
-11
5
0
-13
2
-2
-27
127
9
-13
18
6
7
49
8
26
-8
16
4
12
-18
-4
15
7
-3
-14
-3
13
-6
7
-14
14
4
-5
-22
-14
-16
12
-4
13
7
11
7
14
15
-4
-30
10
11
-11
-8
8
9
-26
-23
-4
16
-3
-1
-16
41
3
10
4
-4
-7
8
26
-21
-9
-17
2
-15
-14
-2
30
-10
-5
0
-9
24
-1
2
6
-11
7
9
-32
-40
10
9
-6
30
12
-1
1
20
-14
7
-7
8
-8
24
14
-19
21
7
-12
-5
-34
5
0
13
3
46
-17
2
-2
-16
-13
-4
5
-1
-12
11
-11
-15
-22
-24
-1
3
-2
-13
21
-10
-14
6
7
15
4
-10
0
34
8
22
7
6
-17
11
13
-4
7
12
1
11
3
35
-33
-2
19
-16
14
37
-8
19
-20
16
-1
8
1
5
15
16
-1
-10
-15
3
-9
-6
1
6
-22
8
8
29
11
7
14
-10
-20
23
-10
0
7
7
-4
-16
-5
29
11
-11
-13
9
-1
16
-8
1
8
-8
8
0
-5
23
-3
38
0
-6
3
-21
-7
10
-10
-8
-1
-25
34
31
18
-35
-1
-15
6
-1
4
-5
8
-4
6
-4
-6
28
-2
-2
-41
18
-1
27
10
50
17
-27
8
17
19
-8
15
26
3
-5
-6
9
-7
-8
-9
-11
-22
-6
-6
52
-5
-3
-3
3
19
13
-5
8
6
16
2
4
21
-7
3
14
-4
-12
8
83
6
17
7
15
-23
-19
24
-3
6
7
26
7
27
20
5
13
11
-16
27
13
17
19
-10
-1
14
1
6
-1
-10
-13
-10
5
12
16
3
12
-4
0
8
20
5
21
-15
69
4
-15
-5
-2
12
-5
8
5
24
4
30
3
-6
-7
22
8
-3
-1
-8
-20
8
9
1
-6
11
-1
9
-2
16
4
11
17
0
5
4
12
6
6
25
-10
-28
-21
10
6
9
7
-4
2
-6
0
16
15
-7
-10
15
65
1
10
29
4
-5
-6
-12
-10
-29
13
-12
6
-11
-2
-23
27
1
-7
16
-18
17
18
-9
-21
3
6
20
-32
15
-1
-19
2
25
18
-11
-23
-26
19
-24
-4
2
0
-12
-9
-3
37
-11
-9
-11
24
6
7
0
7
24
-3
-2
68
17
-4
-11
-14
-14
23
-4
7
-10
14
18
-7
-8
4
7
-20
7
-3
26
-17
-2
-11
38
17
-11
2
7
18
16
19
8
-19
30
-9
-8
1
8
4
7
15
-3
7
-15
-9
-32
8
11
6
-4
-19
12
-19
4
24
10
12
0
-3
19
28
-12
-15
-15
11
14
1
51
-11
-13
14
-3
-22
7
8
5
-4
1
2
31
-11
-27
10
-10
15
21
18
-4
-11
-2
17
17
-7
-3
4
-2
4
0
3
18
5
-15
-10
-16
-6
18
-2
-15
7
6
9
-1
-6
7
6
3
7
16
-18
7
0
-16
15
-6
5
12
3
-7
28
41
13
28
-7
-17
4
9
-18
15
1
-14
7
-5
28
1
-1
-4
18
-6
0
29
1
-1
-31
-14
15
-19
10
25
-3
3
43
13
-3
-30
-22
12
-15
-10
-2
15
8
14
13
-11
2
-12
-6
24
1
-25
11
-19
30
24
85
11
-9
-7
-12
0
8
3
30
28
-9
13
-13
-8
5
-6
12
11
4
-13
28
16
4
-17
-15
1
-14
-2
33
-18
-16
15
13
14
0
5
30
2
16
13
30
6
5
10
-2
4
-17
-23
-16
8
2
-23
15
-15
17
-16
2
15
12
38
-1
-9
13
23
-9
-27
-28
1
-20
6
25
29
-47
39
-28
-26
-37
-19
57
4
4
7
-23
9
25
-42
25
9
-13
-38
-13
-25
14
13
-23
-14
-6
41
-24
11
-42
8
39
-17
-12
9
-25
6
-4
69
-27
5
-14
-24
-17
22
-20
1
15
21
-22
-32
38
-6
39
-12
11
22
-11
-11
-2
-6
11
-8
7
67
-34
13
-29
-32
-27
-22
-56
-16
34
1
-7
-1
19
-4
-57
7
-27
-35
-22
5
-10
16
-3
-47
-43
-14
-5
-29
-22
-4
11
5
-31
-36
-2
-96
25
12
33
-3
-6
24
-4
19
-13
-15
-3
49
-25
-3
74
-8
-13
-1
-16
-9
-14
51
-16
-21
-31
-18
14
-14
5
18
-1
-15
-23
32
-24
-40
3
22
11
-15
-22
16
3
-22
-9
-41
32
-18
-24
9
-19
-25
24
-24
-25
52
-30
-28
26
8
3
-16
-33
21
-23
1
5
20
14
-19
2
13
-24
19
15
36
0
-31
-23
-3
-12
10
-3
-20
-28
-16
9
-22
37
15
-5
12
-22
6
5
-8
2
49
15
13
1
-10
-10
-23
-5
-16
-16
-11
-17
-32
-2
-23
0
-43
-34
4
-7
17
-25
-18
-27
20
-17
9
-7
46
-19
-10
-2
0
29
-28
-16
-17
-5
-21
8
-41
51
-22
35
-8
-7
-28
-31
1
6
13
-1
-5
20
-55
-7
-45
-36
54
42
-4
-22
25
-34
70
38
-1
-14
-15
-18
-11
-60
7
-11
-4
43
-9
-7
7
-3
50
-29
75
-20
-30
39
-20
-19
-26
-13
-36
-7
16
-3
-29
-14
28
8
24
35
-21
39
-7
19
-59
2
-1
62
-24
5
-23
9
-6
-4
-3
-17
12
21
-62
20
-24
-1
-14
17
-12
-8
30
36
-35
-7
0
-19
-35
9
-19
45
17
56
-17
30
34
30
-27
25
-11
-14
39
-10
11
-12
-11
17
35
-30
23
19
-35
0
-49
-8
11
-32
37
-40
-20
6
-15
-20
-45
0
-31
-28
-24
-14
39
20
-4
-36
27
-12
-22
16
28
21
14
-3
-21
-20
17
37
37
0
72
38
-23
8
50
-26
-27
14
-24
-20
-17
0
-13
-25
20
25
-4
-10
83
-6
32
-8
20
16
-36
-36
-34
4
-6
28
7
-36
-18
-64
-8
-41
16
-5
-11
35
54
32
74
-14
48
-3
6
-55
13
-57
47
-34
-32
4
-42
13
-23
-14
-35
16
6
-12
-27
-10
-30
5
2
10
-22
-19
-58
32
-9
-15
-30
7
19
30
-8
-26
-30
13
20
13
-9
1
-42
-7
-3
40
-7
-40
1
5
12
-21
-40
56
-37
21
-43
17
1
-13
-48
38
6
-39
1
-13
-8
12
-4
-36
-14
63
3
-3
-40
15
-3
-8
-29
-7
32
-8
-14
-2
3
-44
29
-35
-26
2
32
11
-18
-1
8
-18
-33
16
-8
24
-22
-1
4
-29
-60
-15
-12
19
-18
37
-10
67
8
-16
-42
-8
-29
54
15
-21
-1
13
-5
16
-44
-3
-30
16
-16
14
15
-35
-31
-38
6
1
19
0
27
3
-17
4
19
-16
6
-13
-9
2
8
4
48
9
5
-34
-3
-24
37
2
-16
10
-54
-6
-14
-41
-17
-54
-24
-36
-5
26
47
-7
28
-34
-6
-48
-6
-40
-30
0
-26
-27
-21
-7
32
-13
-36
10
54
-9
-48
-29
-32
-3
-34
-28
-4
-38
-36
1
-19
-9
-3
-2
-35
15
-54
-9
30
-13
8
-39
22
-14
10
27
9
58
-6
41
-56
-35
-16
2
-50
0
35
53
68
-26
14
-39
-44
-4
-21
-22
34
26
-2
-26
-9
-33
1
-12
19
35
-26
34
0
4
-1
-18
-44
-6
-39
-45
-28
-35
-26
22
-19
-7
93
-39
25
-23
3
-18
14
-27
1
-19
20
11
-35
-43
54
-49
-52
6
1
5
11
-36
6
-37
-21
4
3
-6
-32
-3
-36
14
31
-11
-25
-19
-15
-21
5
-18
-2
17
7
61
4
-25
-33
-16
-17
40
7
-27
-14
-23
-12
-2
13
-22
24
-18
-14
-24
20
3
-35
-16
2
-18
24
-13
26
-12
-12
7
-18
-6
-2
-23
49
4
-38
-32
-15
-16
-10
74
-14
-32
-60
25
-11
-18
-9
-5
7
8
-22
36
-13
3
-3
4
-4
10
26
-34
-33
6
87
-5
-26
-35
1
2
12
-11
-31
8
-6
-27
12
-2
-28
17
-2
39
-26
-11
14
43
14
-10
-8
-1
-32
-6
-3
-13
-20
13
-4
5
-27
7
14
-2
-12
2
-12
5
-8
-34
1
-22
4
-8
-18
1
-36
15
25
-11
-13
5
8
4
-14
-6
3
-26
65
17
0
-12
-39
8
16
25
-22
4
-17
-9
-9
9
-6
-19
95
17
-7
-4
36
-18
9
-18
-7
-3
-1
-15
-10
-7
27
-56
4
33
-16
-25
23
-20
-23
18
-5
-5
-5
-12
18
127
-5
-12
-38
-31
-19
-22
-12
-24
-10
24
36
-13
3
-2
-36
21
-21
-44
43
3
-45
53
37
-25
33
-8
16
-4
4
17
-35
38
4
-49
-15
-28
-37
11
-10
-12
-7
66
-26
-35
25
-2
-17
8
-3
-15
13
-22
-12
-12
10
17
3
9
8
0
-20
-19
-35
-20
1
-42
-40
-78
-33
12
-10
7
-22
2
40
15
11
-27
-14
0
2
-19
-20
-7
73
-33
-31
-28
-15
-35
-24
26
7
-4
11
-27
39
-58
-3
-2
-6
17
16
-11
-20
-43
-10
-27
-59
27
68
-4
3
26
25
6
-34
3
12
-8
12
-11
31
-18
-28
30
-34
81
-48
-10
-48
-13
29
45
-5
-19
4
22
-41
20
2
-7
-2
-13
83
-31
-36
-18
63
-2
-9
-31
-27
17
-27
26
-24
-19
-20
-10
-23
-17
7
18
22
-21
-62
31
-40
7
7
-1
20
-45
3
4
-31
-19
4
19
7
-10
-9
18
-10
29
2
21
-40
-34
-21
-11
-6
8
22
-7
-34
-24
-15
-9
-29
-23
-15
3
40
12
-8
-3
5
21
-13
-26
-26
5
-19
-12
1
-53
-3
-20
-4
-16
16
-10
-13
-4
-24
-39
35
19
17
-34
-24
17
3
-8
17
31
17
5
-40
33
19
3
38
-2
11
5
5
36
-14
8
-23
17
49
-6
4
-1
20
-21
13
54
-24
15
4
1
6
-19
70
70
16
13
9
14
-1
-18
-16
8
34
13
7
6
17
36
-26
24
27
11
35
-12
28
16
-3
-12
-4
11
-4
7
-20
41
15
-5
2
37
-6
0
29
-1
-34
-3
-16
39
22
3
-8
-28
4
21
17
-6
37
17
46
-9
5
-13
-3
26
24
11
30
-9
8
12
-2
36
21
13
-6
51
11
8
56
-12
15
12
-4
-7
26
6
5
2
5
-33
5
4
-1
-1
22
43
-8
7
-56
11
9
7
-5
-6
28
6
-21
32
61
5
-10
50
9
-15
-10
-48
-3
2
-1
-12
-10
26
7
-3
24
-1
-8
32
-11
-8
-35
-22
3
-44
-12
15
22
22
-6
-25
41
-36
-2
3
4
9
24
-24
-7
-5
12
66
-8
20
2
51
-1
35
-4
-10
-10
14
14
6
74
94
-44
-9
-19
7
14
80
-22
32
-23
42
3
34
22
13
3
21
31
-14
40
-18
13
-18
-7
-25
2
16
-3
3
-5
-1
25
41
27
9
15
12
37
6
-19
11
3
-12
27
-31
-36
53
5
-35
14
-6
16
-2
45
-5
13
-6
0
-10
15
7
28
17
15
-35
4
-7
-6
9
13
8
-19
-28
7
-1
-47
32
14
7
31
3
2
-16
33
-68
7
-7
42
-8
-1
-6
-6
-38
-7
-26
-22
-14
1
-10
-4
17
-21
21
-12
12
-60
-24
33
-51
37
-11
-28
-10
-9
-12
30
-4
-1
-9
11
-17
25
-9
-41
23
-17
0
23
-13
18
-18
17
29
8
-10
-3
-12
14
-31
18
-5
-6
10
8
22
1
-2
-5
-38
-6
5
33
-5
-11
22
-10
-1
-23
5
12
-16
-2
17
-46
4
24
6
-18
21
-14
-12
-42
6
-8
6
20
13
-25
-31
52
-13
15
-19
36
13
-12
37
11
-17
-14
-15
11
5
-4
-10
20
-14
23
-29
-9
-28
-21
-21
-13
0
2
-7
24
-5
-8
-11
15
5
11
-2
-22
-22
-6
-15
-73
-16
27
-6
-10
-8
-12
-4
-1
4
7
10
0
9
-52
4
-7
-23
3
-21
2
2
70
1
-85
-21
0
-5
26
14
7
18
-40
-14
-21
24
-16
-32
79
-9
-2
6
5
7
-11
34
17
11
-4
19
-10
-34
-58
-10
7
29
3
34
-13
5
31
-9
-19
-35
41
-18
-26
-11
-31
15
-8
-2
4
18
22
-1
-20
-22
1
-8
-27
40
-1
-41
-10
-9
-29
6
-3
30
-10
18
25
63
-13
-16
21
-30
9
-2
-3
-14
15
2
2
-13
3
24
19
18
6
2
13
10
-25
-6
-36
-29
-20
-38
-33
-27
6
-17
-3
-21
-8
63
-45
-50
1
3
1
0
31
23
-10
-9
-12
40
-2
5
-15
-3
13
-13
3
-16
9
10
-2
-1
9
-52
-6
-41
-3
-28
24
-14
-5
38
11
21
10
24
-30
11
36
26
32
52
-8
-20
-9
-26
-5
127
29
-8
-18
-30
-13
-11
14
4
-15
-31
-1
-4
-8
-10
-8
-27
-25
15
-33
-13
35
55
19
-5
9
-4
36
29
8
30
14
-10
-16
-26
12
-3
34
-12
21
-35
-26
-4
6
-15
-41
7
25
7
2
11
-24
20
-16
1
-3
-9
15
-23
10
29
15
-36
-23
-17
5
-9
-29
2
-3
14
-3
-19
15
20
37
31
28
13
4
30
23
9
31
-20
27
69
26
8
0
-21
81
-10
-19
-48
14
-6
-14
39
-3
-4
-25
1
5
12
8
-41
25
-28
-6
-7
6
-15
24
9
-20
3
12
3
24
-24
7
1
13
-6
4
-7
-13
4
-1
-4
20
18
-27
38
11
1
9
20
-42
36
-11
-7
31
-11
-17
35
38
-18
58
5
32
-72
-37
26
-34
22
21
-1
-6
-13
2
-24
-14
27
1
35
11
6
49
18
28
-1
-7
-29
-13
-6
-2
-29
-24
-8
-31
-52
6
8
-8
-15
-21
8
17
7
1
12
39
1
45
-17
33
8
-15
-31
-31
4
-16
28
21
16
-15
-21
-12
-6
36
-39
26
8
20
-18
4
13
23
42
35
0
-5
-9
11
-22
-4
16
18
11
-24
-8
26
30
-41
8
6
-4
-11
-7
5
10
-7
29
-43
-6
-15
39
-15
49
17
-14
13
42
2
-3
-5
-2
7
-9
85
13
0
-13
-15
12
34
-30
12
12
10
-9
-14
-39
-3
-27
-6
9
-9
30
24
-8
8
-4
-5
8
26
58
-13
-1
39
-4
34
-7
-15
4
0
13
28
56
-6
30
3
0
6
-9
18
-6
9
9
-10
53
9
-25
32
-3
12
-24
-10
-30
10
-4
-11
-24
45
5
-21
-30
15
95
-26
3
8
-6
-13
5
11
2
-25
27
52
15
-3
55
6
11
52
-1
-11
1
10
64
-1
-13
-18
-14
3
16
57
15
-21
-20
2
-18
20
0
-14
-24
1
-33
16
-19
2
-5
33
24
-9
32
21
17
17
7
-42
-3
37
26
9
10
34
31
22
10
11
29
0
-4
0
-25
43
-3
-5
9
-15
7
28
22
18
-22
13
10
-17
-16
3
-12
19
-25
22
47
17
-27
28
-20
-2
58
-2
1
31
19
22
101
31
-20
15
-24
-10
25
8
-17
-8
8
23
17
-8
-1
-1
-6
-13
3
-5
-8
3
16
6
11
5
37
-38
44
17
29
33
4
21
-69
-4
14
-1
11
-5
23
8
-96
47
-12
49
19
-3
5
10
-14
10
-5
-7
-6
-6
18
-30
-23
-10
-40
37
-5
-4
-5
-27
56
41
-9
26
-20
0
-6
-9
51
-11
12
4
-4
15
-16
-28
-21
11
1
24
-6
-15
-16
15
-1
1
-31
20
-13
-22
6
11
10
-1
25
11
21
19
34
-6
-12
57
-18
-2
9
7
21
22
-8
37
15
-9
8
-33
-14
-3
10
5
3
-18
36
-37
-20
-1
37
-14
-5
-19
-13
-36
-30
-12
-5
-28
-16
-22
30
-6
4
33
-22
4
-11
-19
-1
-50
-16
-21
-23
20
-16
-37
19
0
8
-21
-8
-22
31
71
-12
-9
-5
-5
-8
42
56
14
9
-34
3
36
-17
-18
-12
-11
-14
-19
-11
20
-19
-6
-19
-3
5
-17
-25
-14
2
-11
-17
6
19
-15
13
-31
4
28
-1
-11
9
-21
-20
16
8
0
-17
-17
9
-6
11
-22
-43
47
-23
27
-21
29
4
-8
-18
39
-1
-21
-6
27
-5
-7
-15
-1
-4
64
-10
-2
53
28
4
-6
-22
6
-13
14
-13
-18
14
2
-13
-7
10
8
-27
-3
-9
76
-27
-3
-29
-19
-38
-28
-25
-6
1
16
-28
-45
4
-33
-11
4
5
-8
-4
18
1
6
-8
-17
3
-14
10
-33
26
35
17
-38
20
1
8
5
22
40
-10
7
19
1
18
-28
25
-6
10
-22
-18
19
10
2
-24
11
-9
-19
-15
-19
4
-31
20
2
7
-5
25
-7
-29
-26
10
-17
11
-17
-45
-9
-15
-14
18
-9
20
-2
0
-37
-17
-21
14
-2
-12
4
-9
9
8
-19
-25
-2
12
-4
4
23
-13
-24
5
-54
17
-5
19
8
33
-1
-16
-1
-7
-28
-11
-37
2
11
5
-40
-31
-2
11
28
15
-4
7
-20
-29
-43
13
-42
4
-43
0
-33
-12
25
-21
29
-7
-22
-17
13
-18
0
18
17
-25
42
27
-4
24
1
20
-69
-13
-25
-30
108
27
-5
-6
-10
-25
2
-26
-30
-9
2
-24
5
-24
-1
-10
50
36
-22
-18
-10
18
14
0
1
-29
-9
12
1
-20
-20
3
7
-31
17
14
-16
-2
23
4
-4
-9
-34
32
-9
25
-15
-10
-4
-40
-24
-18
5
-2
-32
42
61
-3
-23
-30
2
-13
8
-18
-9
-9
-49
0
-4
-40
10
-7
-26
-15
-6
8
-10
2
29
-17
-17
40
-8
-17
-18
-21
13
-22
30
19
-32
-30
29
23
-40
7
22
-3
-5
-13
-5
-41
15
26
-4
9
-44
-4
-30
-19
65
8
16
-8
-36
-17
-2
38
-15
13
36
-40
26
-35
-19
-2
8
31
-27
-2
-40
-9
-39
-26
-4
34
-14
-8
4
-8
-23
-9
-10
-18
0
13
1
13
-20
-36
93
82
39
11
-16
11
30
-10
-16
19
-29
-20
39
3
10
-24
-6
-4
-39
-15
-3
6
-10
-33
-21
-30
-32
30
-26
29
29
-11
-22
25
-1
12
-31
58
16
-36
-29
19
1
-45
-7
-8
-38
-17
22
15
-3
-34
19
-6
-4
-7
-41
-16
22
-13
-14
15
-33
0
-15
-34
-18
-10
7
-14
-10
-15
-15
18
7
32
-17
-12
-24
11
-21
-10
14
-12
-5
-1
-28
-14
-5
-18
42
0
-41
-9
-59
-14
-13
-15
17
12
12
72
-5
19
-30
-16
-32
-18
-46
11
-8
2
11
17
-4
11
21
74
-21
22
7
-17
12
-3
-17
-7
-17
-7
-13
17
-13
23
0
8
2
-29
-22
-21
76
-8
28
25
-1
28
26
13
-18
-4
17
1
14
-6
9
-3
33
17
23
-21
1
0
-4
-5
0
-23
-21
9
-8
-10
15
58
6
13
-17
31
-40
3
45
-17
33
24
-23
-25
7
-17
-20
-19
-25
-16
62
38
-40
-5
8
-2
-27
-20
8
-13
9
11
12
48
-34
-4
11
-24
-25
16
-27
-15
-4
-10
15
13
-9
-2
4
39
23
16
63
-8
-24
25
-32
-22
18
-14
2
-17
8
-1
27
-31
-13
-30
-17
-8
2
-57
-3
21
27
-1
-17
3
-19
12
11
84
9
12
-6
-22
54
10
-22
1
-49
-39
-9
-33
17
13
-25
-21
-73
29
37
-38
0
-16
-24
-19
117
2
-6
-49
-3
-1
38
-31
-10
17
37
3
-6
-16
6
-27
-20
-21
28
-26
-39
-26
3
-41
24
6
32
33
-19
-78
-2
-31
20
15
16
73
-13
16
-8
13
20
-17
-8
-27
-51
1
7
-9
39
28
-21
-15
47
-5
52
-4
-13
-25
-14
30
-9
-41
-16
-8
2
-17
43
-12
16
35
-72
-17
-15
-3
-21
-21
-25
-26
-11
-3
-34
-33
-5
17
13
25
6
-18
13
127
-17
37
-10
-6
-1
12
17
-17
-27
-9
5
23
7
3
15
-5
23
-11
-8
19
-1
-2
7
-48
5
9
-4
11
11
-39
-16
6
-10
-15
-31
-1
0
-10
5
-21
-13
3
12
9
-6
-10
-22
33
-3
-3
-20
10
7
-14
12
17
47
0
13
13
15
57
2
6
-18
-12
-26
16
-18
2
4
6
-22
6
-27
-28
12
8
-9
25
52
7
-27
-9
-6
11
20
20
-15
15
47
-48
-1
-7
2
13
57
-23
-10
-14
-13
41
34
-2
81
-16
8
11
37
21
-47
-51
-46
8
-21
14
-4
-14
95
-44
2
27
-64
5
-2
1
9
4
1
22
-31
41
-18
-1
13
-20
-49
-8
-12
28
-3
9
0
35
-33
20
3
-22
-19
-17
32
-17
7
11
-13
-22
4
20
-32
-22
-7
-1
-11
-2
-7
23
-26
15
-15
-22
25
19
4
-13
-7
-13
12
-6
-10
-14
10
53
-1
-2
-13
-15
-9
-1
-1
27
11
-18
4
18
6
-2
8
-19
47
-44
74
12
-13
5
-4
-28
-3
-21
-12
-39
-7
-12
-23
-33
-22
13
-49
-7
-24
17
-24
-13
19
-17
-32
8
8
-15
-32
-6
-1
8
7
-24
3
-16
-16
-2
-24
-20
-18
-12
-8
-8
-27
2
34
11
19
-3
-5
80
-3
-18
17
-4
-45
-11
2
-1
-18
21
6
-24
-36
4
-67
-15
-24
-7
6
-12
7
16
28
41
4
-24
4
1
-18
38
-40
-71
-22
-17
-20
-23
-12
-22
-12
5
-1
-1
-43
4
-32
9
-2
-12
-1
-7
10
-21
-17
-13
-10
21
-2
5
20
-27
1
12
2
-10
-23
35
-2
7
-8
15
-27
-18
-33
9
1
-22
66
25
-5
6
-47
-35
-18
19
5
-17
-48
-27
-7
15
-19
5
-31
16
9
-19
5
6
-29
30
22
4
-13
31
46
-11
-25
13
-27
-23
-38
-6
-25
-6
41
-32
-26
-12
-9
23
2
24
-5
-50
6
-24
-31
-22
0
44
-51
5
-17
-16
19
-19
-34
-17
-37
-39
-25
7
12
1
50
33
-46
-5
9
-15
-12
9
-16
-22
8
-40
-17
32
36
26
-16
8
20
-22
7
17
11
10
-2
-18
-22
7
-8
-11
-7
-34
-31
34
6
53
-23
-2
-29
60
-7
29
-9
21
-7
-28
31
-27
-7
52
-26
-9
6
17
14
-44
11
5
2
40
-5
-24
-59
-11
1
-31
55
-21
-16
20
-16
17
8
-25
-11
-61
3
-13
-6
50
6
17
-34
-14
6
8
-13
-15
-11
-6
-24
-12
-12
-2
-34
37
-6
-26
-4
-18
77
7
16
-9
27
84
-5
-23
-5
-4
5
-38
8
100
-26
31
-8
-27
-8
41
-44
-32
-11
26
19
15
-7
-5
5
18
24
22
6
28
30
-10
-6
4
-49
3
-45
41
-3
-22
-15
-23
-3
9
-30
-21
2
-37
-23
-3
-25
4
35
-2
-6
-12
-9
55
13
-29
-40
18
3
31
-9
20
-26
3
-34
48
-25
-3
22
4
-13
-10
-31
-9
2
-11
37
4
98
-24
34
-9
6
15
10
-10
27
30
54
-14
-32
47
5
9
6
-21
-7
-58
-17
54
-11
-5
17
4
9
-10
4
-32
50
-14
23
-29
8
17
11
16
-7
-37
-24
-48
3
-13
19
-5
35
-8
40
1
-54
5
-33
25
-38
-26
14
30
-29
5
6
-7
10
-7
-35
-6
-2
-2
-4
14
6
34
5
-33
54
25
-6
-9
-29
5
-33
10
-33
10
28
-27
8
-14
8
28
-8
-3
18
-2
-11
8
-7
36
-48
-34
-6
-7
-38
18
7
-44
-21
-2
1
-6
124
-28
49
21
-11
-16
-62
-5
3
-26
1
9
-27
5
11
-21
9
-33
-20
-16
3
77
7
22
0
15
35
-33
-25
24
6
-7
68
-8
-3
-30
11
20
-17
8
-8
-7
-6
-45
-6
-10
-11
24
-6
-39
11
38
-2
-22
-12
-33
-22
-30
-2
-11
23
-11
-9
56
24
-27
-15
8
-5
9
32
0
-10
-12
-31
-13
-39
-28
-24
15
8
-17
14
-53
19
-42
-37
-24
10
-24
52
-46
0
-7
-39
-4
-11
-11
29
-39
-34
-30
-11
26
9
-89
38
16
1
26
19
33
-8
12
11
29
18
10
-22
56
74
-19
-24
7
50
-19
-18
-12
-3
44
-10
14
19
77
-1
-7
-31
9
57
-12
-39
-4
38
40
-19
22
62
-4
73
17
18
-42
26
26
-22
-16
-9
-26
-11
16
-43
7
-6
-11
-8
-25
17
22
-19
24
19
-41
2
-11
-11
-12
-33
-14
-26
14
10
47
52
41
-8
-20
-51
-16
-36
13
-3
-45
-14
-4
-58
3
-4
-9
-1
5
31
99
-26
27
-37
-12
-31
-3
12
-43
-14
-10
69
-57
-58
7
22
-35
-21
34
27
27
-5
22
12
-4
-5
1
-21
9
-42
-10
13
5
16
18
23
-33
-17
-17
5
27
7
-52
-18
-74
14
0
-1
-16
-10
-17
50
-39
-19
6
34
-22
5
-12
-37
33
-11
-7
9
-10
-16
-16
-19
-23
29
6
-12
45
-22
-28
-54
-22
-8
29
23
-11
27
-27
-31
-15
-1
-9
-39
29
0
46
13
-21
13
-51
-7
1
-3
-9
-4
110
-17
29
127
5
6
30
66
4
29
-9
7
-31
2
25
-15
-8
15
59
-14
21
-61
33
31
-17
-9
14
-52
-24
29
34
-23
-44
-27
-51
-28
45
-15
23
-1
68
-16
-28
-21
-20
-1
-27
-12
3
25
-16
0
29
-24
-3
18
68
-20
-15
-33
-13
46
-9
-21
7
31
6
32
5
-15
38
-38
11
-68
1
-8
-27
7
40
-14
33
1
-63
27
1
-17
7
-15
23
-1
36
11
-23
-10
2
8
3
20
12
-55
36
-23
-6
25
-2
1
21
1
-3
-31
16
3
-16
-20
17
-11
11
-37
0
3
-22
47
27
5
23
0
-8
28
31
-35
34
-21
26
-6
4
70
-18
-43
-9
-20
-24
-37
25
-59
12
-15
-26
23
-16
44
4
-28
19
-4
-15
21
3
-15
-19
-28
-29
-4
-46
-9
-5
-13
-8
23
35
-52
21
-34
-5
-37
-6
-8
-21
-5
13
-13
7
-41
-10
-34
-31
33
6
-1
-21
-7
56
20
0
-20
-24
-55
-4
13
-28
-9
-16
11
43
22
-32
-20
-8
-22
-30
-18
10
13
-33
119
-24
5
-6
-36
23
-24
34
-9
-21
-53
24
30
-12
-14
35
-5
-44
-48
21
-42
15
-13
-2
-42
-31
-8
-13
-18
-5
20
33
40
-10
-21
-41
6
8
-59
0
32
14
-25
-20
-42
-30
19
-43
0
27
29
9
-1
4
96
-2
24
65
44
3
14
-14
15
-55
12
-32
-25
6
-6
52
-41
-42
-20
-31
-20
-11
-16
-15
-24
20
-17
-70
-9
8
1
1
-34
1
-6
-6
-3
-91
1
-42
15
-23
11
-15
-14
-45
-34
-14
23
1
15
-14
-24
2
42
-50
0
37
6
95
6
13
-17
-19
17
-5
-8
-30
-4
19
16
9
-3
-45
-45
-10
-33
9
7
52
-30
27
-20
-30
-52
30
-17
14
-38
35
-18
-15
-4
-2
-1
39
8
32
-8
8
-48
-2
7
-27
15
5
-36
-11
-23
5
-23
-11
-10
-46
-5
8
-24
10
27
-23
-18
-17
-10
20
-4
-22
14
3
3
-7
3
-51
26
10
-17
0
8
27
26
-8
50
5
-5
-27
3
30
-23
-9
7
-6
-13
35
44
4
-17
34
-18
-16
-9
20
16
23
66
2
7
-10
-1
-27
29
25
43
12
34
10
7
12
-22
48
27
-37
35
-17
-14
-14
4
26
-5
-25
10
-17
-8
21
23
36
-11
-11
30
5
-2
-57
15
-12
-11
-5
-16
-1
-21
-34
42
-23
-6
-31
6
-18
10
-13
-9
4
-33
-15
-6
1
64
-11
-4
20
-1
32
16
-24
-1
0
-5
0
27
-5
-1
-18
-54
-12
-38
-23
5
12
-38
-5
1
31
23
-17
55
0
-20
-3
-57
64
-12
-10
-3
-32
-1
-55
-35
42
33
10
9
39
6
32
-27
56
1
29
-53
28
37
47
-29
104
15
-17
-14
30
19
29
-33
-11
13
4
6
-13
32
23
5
28
4
59
55
-7
-21
-17
25
-36
29
14
11
-23
17
59
10
47
-14
77
14
-12
-24
33
37
51
43
-14
-34
-17
3
-1
8
-23
24
-23
11
-33
7
3
-26
19
-10
57
-17
-4
-11
-20
-8
78
-39
-10
34
-19
-33
-29
12
-14
60
5
-8
-10
-7
2
4
-6
-53
31
34
14
-1
-23
-5
50
-3
-77
4
9
5
-31
-8
19
-5
-10
7
-8
-57
-47
-35
2
5
12
7
64
-94
-32
26
-14
-23
-37
-15
7
-42
4
-10
18
22
-54
32
20
19
-35
15
6
-5
55
-8
-16
3
-27
14
-8
-15
-30
-7
-24
-30
3
-7
14
-14
9
9
-11
-34
7
34
2
-33
-22
-36
19
1
5
-19
36
-9
-5
-50
-24
-11
-19
13
12
21
20
13
-26
59
1
37
-1
28
30
34
-26
0
5
21
2
13
58
14
-25
-14
-19
-14
-2
-15
9
88
-19
14
-18
28
-46
38
-29
54
28
31
10
-31
-33
23
2
-5
-28
-24
-53
28
23
-37
12
0
-29
33
-31
21
26
-8
-21
26
13
-5
6
28
-23
23
-28
56
59
-12
8
-7
1
1
8
0
-33
-1
-10
74
56
-40
24
16
30
-16
19
8
-26
-8
-11
-1
14
-26
-13
-6
19
-14
8
6
76
7
7
40
14
9
17
2
-48
-12
-29
-20
12
-43
20
-14
-9
-47
-4
-27
6
-1
6
-2
-17
-26
22
-1
-18
32
59
-6
51
17
-20
-14
40
-3
-4
-37
11
-5
-36
-25
-31
-19
-20
-13
19
17
6
-3
-16
13
-23
17
-20
-45
-5
36
-27
4
73
46
-24
-39
-5
-5
-4
18
8
7
-17
-31
11
15
15
-26
-7
-9
-17
-2
24
33
-14
19
-33
7
35
85
34
-26
44
20
29
17
18
-12
-2
7
-12
48
-9
-22
70
36
-13
10
33
25
-26
-78
2
29
37
30
-31
19
37
36
-19
4
-20
-1
44
23
-27
-28
14
-34
13
21
5
24
-12
-108
26
-7
-46
39
15
2
1
18
27
-3
10
6
-22
18
56
33
64
-22
2
51
-24
39
-2
-21
30
37
-12
9
5
19
7
-20
24
-39
-30
-7
-28
12
22
13
-18
-7
6
3
2
31
-30
-6
15
-4
15
19
-47
21
-5
-28
-37
15
-40
19
19
56
50
-22
75
-22
-27
-17
5
19
-2
51
-50
-16
-27
-1
32
-13
17
3
-28
1
26
-3
-21
3
15
3
7
5
-2
23
13
6
29
23
-6
63
15
-23
8
17
-51
21
56
-3
-9
-10
-7
-10
-20
21
-4
-24
82
-21
-2
28
-16
6
30
-13
-19
-39
43
36
1
67
4
22
-34
-59
-8
1
9
-16
-13
-13
-43
-25
22
2
10
5
46
-6
36
16
-11
23
-7
31
-69
14
3
43
10
-3
4
39
27
-25
-25
-4
10
2
29
1
44
-33
-25
38
-23
-18
-30
21
-89
11
19
-2
-19
2
-30
-37
-7
-33
-23
-24
-27
-43
32
29
4
-10
-13
1
3
-52
52
-21
-5
14
5
-13
-36
-19
-5
-19
29
31
-18
25
19
2
-3
17
14
-3
-15
16
19
69
-4
-59
10
3
-9
10
2
20
-24
-31
-15
-20
5
-13
-7
-13
-38
33
35
-18
127
44
-3
-38
11
-7
5
-27
45
-14
19
1
4
-10
-16
9
-10
-12
17
63
10
22
39
-20
-20
5
-44
-18
-9
57
44
-25
38
-9
-39
30
-32
17
44
-9
3
-54
-43
-31
2
-6
-14
24
-14
-4
30
-22
-15
31
-12
-41
27
-22
35
42
43
19
-79
-6
67
-17
-15
-1
15
-5
-18
41
-19
40
-30
-16
27
-24
-7
12
-8
30
29
-1
2
36
-6
-16
-20
-38
4
36
26
7
-14
4
14
13
-31
-36
52
-9
-10
1
2
64
-16
3
-10
8
21
32
11
15
-13
33
43
12
36
-4
45
50
39
-5
-27
18
-18
-1
-20
22
-5
-3
-5
-48
-1
-26
19
1
15
-14
-28
11
-13
29
-11
-22
26
5
21
-1
-9
-4
10
3
-30
-8
8
26
-23
11
5
-32
-14
0
41
-10
6
1
-2
-38
-22
3
-1
-6
7
12
3
-4
-61
0
7
-7
-34
37
-6
-20
-17
-4
0
6
-2
-21
-27
-4
25
-8
-13
28
-21
24
-31
31
-13
-24
-10
27
-5
10
10
29
13
-27
68
20
29
28
-53
-24
-9
-2
-38
27
-35
-6
8
-4
-4
10
15
3
34
18
36
53
1
60
37
4
-1
-19
-47
21
48
-28
-19
58
10
-20
-14
32
-9
35
-47
-33
-38
-29
23
-11
-12
-4
3
-6
5
-6
-27
22
-4
-31
22
-25
-16
1
-30
28
58
-6
-13
-8
45
5
-60
-13
-9
1
12
7
5
-23
-7
3
-24
-25
2
-32
-11
23
14
-11
17
75
-25
-9
10
35
7
0
18
-5
-2
-36
25
-7
-1
11
15
-11
-3
15
-8
19
-46
16
-34
-2
8
-15
-22
4
-26
3
2
-19
-7
-25
10
-4
-9
70
-2
19
-71
-12
13
23
21
-21
0
-2
-38
10
-14
-8
-19
-25
11
12
8
22
24
42
-2
35
-15
10
-22
10
23
-30
29
-28
-30
-20
-3
-13
-53
22
-10
-16
-18
-8
-25
3
114
-1
25
25
-4
25
38
-5
-25
26
-57
17
5
5
-16
13
28
14
0
10
-36
33
-55
15
-30
-9
-19
-29
8
19
-26
-15
13
62
43
-12
-2
-24
29
9
-16
-10
15
20
29
17
4
14
13
22
-6
-19
-36
27
15
26
30
3
-24
-4
1
30
42
13
38
19
0
-39
-39
52
22
74
31
29
8
21
-13
-9
13
-45
-60
-6
16
-21
1
-25
-15
-31
1
8
-18
-10
-39
-21
0
-7
0
23
13
10
-8
-4
-16
-5
2
2
27
24
3
12
4
-31
-6
20
-10
11
5
-3
-20
-11
-15
14
27
-9
29
-38
-18
5
27
-10
26
5
-17
32
15
0
16
25
-1
-2
11
-35
41
16
-37
-21
-34
-25
4
-12
-3
-5
-8
4
-12
-25
-22
11
-17
-27
7
2
5
14
2
4
34
-24
8
-8
9
-2
3
-14
-22
-12
-43
-2
-16
-15
-29
-3
-16
35
41
12
-2
-11
3
-12
-6
6
1
34
-22
-14
15
-3
-24
-5
-12
-9
16
-8
-16
9
15
15
42
1
9
1
9
16
25
-19
-15
61
4
6
-16
-24
3
-38
3
9
21
-9
-3
10
27
6
-18
39
-9
44
-10
-5
9
18
-3
18
-10
-2
36
-13
2
42
-19
30
-8
-11
-30
-20
18
-21
-2
-18
0
12
-2
6
33
2
6
2
-2
7
23
9
5
0
33
-32
-7
-24
5
-8
-4
5
3
-8
-8
41
-15
21
-11
-7
-5
-9
-43
-25
-29
3
4
19
32
-30
-9
-3
-3
22
2
14
-5
-7
31
-8
16
34
-1
21
-9
-20
14
-33
-4
23
4
27
11
13
-22
16
3
1
6
-13
39
5
-2
-33
3
-13
1
0
-3
-2
-14
-6
-19
-10
-21
11
-14
3
18
16
9
-6
37
-3
-15
-41
-7
-6
41
-5
16
-1
-35
-8
-22
-4
5
2
2
-13
-10
9
12
13
3
-21
-11
-10
5
-3
29
-2
21
3
30
14
-7
14
-12
11
-3
-16
-20
8
-3
9
-7
12
-33
-27
-19
-3
-2
9
-3
-13
22
6
5
20
10
-7
20
-38
-3
-31
-2
6
-32
4
33
-14
-5
4
21
19
-23
32
-3
-14
8
19
31
3
-20
11
6
-40
-18
-19
-14
-7
20
-2
-39
-6
-8
11
-17
17
16
15
1
9
9
42
25
11
-8
33
12
-10
-19
-13
-2
-3
-3
-9
-4
18
18
-16
22
-3
-4
-8
27
11
14
-3
2
-18
-28
-4
78
127
-26
10
6
-18
-9
-8
10
18
-7
12
-23
7
11
-12
-19
13
-30
-9
12
2
-9
23
-9
28
-19
6
17
14
-9
32
0
0
-21
-12
-10
8
16
-3
6
0
0
-39
-9
-18
5
37
-5
-12
4
0
-9
56
13
-1
12
8
-14
13
-29
-4
2
-6
5
-23
-15
-21
-18
-24
-15
31
6
-14
-16
4
3
0
8
16
23
-4
2
11
-7
-7
19
-24
-5
29
-3
-3
-1
39
10
2
28
-9
-30
-16
30
10
15
-8
6
-18
-4
66
6
-5
-1
5
-8
6
1
0
-27
6
-24
6
32
-26
3
-4
-5
6
26
-8
24
28
-1
-15
-7
3
-14
4
12
33
-3
8
14
26
5
-19
-8
9
30
-8
-9
33
-18
1
-1
5
-10
-13
-4
5
-4
8
4
-13
21
-2
-15
-7
-17
-3
-11
-17
-17
7
-12
-20
8
-3
40
-28
14
24
-9
26
-18
-15
-9
16
1
7
-37
-35
-10
18
54
3
-15
14
15
-19
99
-24
-3
-14
-16
-5
3
-37
-20
4
-11
-1
-2
20
-16
28
6
-2
-14
-1
3
-24
-20
-16
-2
-4
-10
-7
-6
-15
-12
-2
-27
13
-9
1
29
-20
1
10
-28
28
30
1
-11
-1
-20
-29
3
8
8
-8
-19
-14
9
7
-27
-28
19
-6
-24
11
41
0
2
51
-10
-3
9
-33
-18
12
-13
-51
24
36
30
6
42
16
-34
-26
-15
18
20
-6
6
-29
9
-11
5
0
-3
-1
-12
3
10
8
21
0
-7
1
9
-14
-15
12
-7
-4
34
3
-12
21
16
7
4
0
25
-1
11
2
16
-12
-3
4
-3
-2
23
6
45
13
9
1
7
9
11
-22
0
28
11
4
-9
-4
19
22
-4
0
29
6
-13
1
22
-4
-13
-2
-1
7
2
-33
5
21
9
37
-3
-20
17
4
20
2
3
-3
5
14
33
20
-24
-9
-17
4
3
-14
23
24
6
-23
8
32
15
29
21
0
17
-9
-14
5
-12
4
17
1
-16
9
11
8
30
-6
-9
-12
-1
-2
12
-7
0
-25
5
11
-19
18
3
8
6
24
-29
-4
-4
4
8
6
4
11
4
-18
27
39
9
33
1
-9
3
12
16
-18
22
21
-18
-14
-12
4
2
-39
19
27
-16
-18
-16
22
21
0
22
-21
-17
37
13
-38
-3
-5
1
18
8
-13
-4
34
-9
19
-17
15
17
-31
-14
-19
15
12
-21
-41
-27
7
-28
-2
-11
9
51
2
-4
0
-3
-6
4
-13
9
-5
-3
-27
32
22
24
-26
-1
2
14
4
-30
19
-10
-6
19
17
14
-15
15
15
-13
7
-24
-28
-3
-5
5
3
5
4
7
16
7
32
7
6
1
-5
11
21
15
19
-12
23
-12
32
-20
35
5
-2
-2
-7
-27
-11
-7
-3
-8
27
6
-15
-16
15
-19
-3
7
2
48
-1
18
9
-13
-9
27
-15
-2
-3
-17
-15
-4
23
12
-20
-2
1
45
17
-2
27
5
43
-6
9
-8
23
21
-2
27
-3
-10
18
9
-12
-17
32
35
13
-3
-14
-2
5
20
-14
-54
-18
4
-31
-2
-28
7
11
8
-29
-4
0
2
-2
-9
7
16
-6
4
-14
-2
3
26
-5
17
30
3
-7
13
34
-27
-8
5
-36
1
-7
5
-8
-11
-10
-7
-4
-18
4
12
18
4
27
-6
-21
-20
-10
-1
22
25
-18
-11
34
-19
-4
-2
-36
-28
4
7
17
14
-11
24
-43
2
23
-9
-5
23
-25
-10
6
-13
30
-9
-23
-8
-50
-15
-30
21
-2
-20
18
-3
-10
-10
-12
-14
-10
-15
3
-9
24
-9
16
12
-2
-2
-7
-3
-16
-12
4
-4
-1
18
7
-9
15
0
20
-7
-21
-9
42
-37
-3
-5
-12
-22
2
1
-14
17
13
12
1
37
3
-10
-13
-19
40
38
7
-18
-47
-7
-47
12
29
7
-27
11
14
-4
-18
14
2
3
11
-20
19
-20
0
-7
-16
-4
-5
2
-41
-35
-15
-11
-18
16
-31
8
29
-1
-5
-11
-6
-3
-23
10
-18
20
-9
-17
-32
-28
-11
1
-17
-23
8
-9
-29
11
-45
20
30
-5
3
3
-17
-20
-5
4
-1
-5
5
8
-9
-5
8
-2
12
-2
4
-1
-22
-11
-12
-31
-15
18
4
35
-28
35
2
-12
-17
7
0
-14
-8
-26
11
-24
3
-37
13
24
-5
-3
21
-14
4
-4
8
-2
-39
-15
-3
43
-32
-15
-17
4
-16
10
-25
13
-7
6
-4
-4
8
23
5
-7
-3
14
-23
-3
34
-13
-4
-7
-23
-5
0
-15
-20
-11
32
4
-23
-4
-45
19
-13
48
-12
-6
20
13
7
-21
-26
-18
-18
6
31
1
-13
-19
10
19
24
1
-22
7
-20
3
25
23
-7
-51
-4
-40
-19
-17
8
8
-24
-17
16
-3
20
-28
-8
-36
0
-8
-24
-8
8
-2
-9
7
-10
-12
-13
-11
3
50
-2
7
-2
34
-18
5
4
-27
6
10
-7
19
-4
-1
-19
-11
11
-10
-9
10
-14
21
-5
29
-18
-30
-2
10
19
-13
-2
8
-19
-3
19
4
9
-32
6
-23
-6
12
31
-4
-6
-11
4
0
-3
-13
-6
-27
39
-7
3
1
14
-20
0
34
7
2
13
-8
-22
-12
-21
16
-6
-10
5
-3
-21
-22
-20
42
21
-8
-29
19
-17
10
20
26
7
-16
-9
-13
18
4
9
3
12
-14
-5
-25
4
0
-20
4
2
-20
8
-21
-14
-14
20
-15
-47
-12
-21
-2
13
10
-4
14
4
31
-14
60
-5
-7
-27
11
0
-9
15
7
-30
6
-5
-13
116
-46
1
-9
3
-8
48
2
-4
5
4
-11
19
-12
26
-46
-24
-14
15
8
-22
3
2
-6
4
-2
-15
-3
-13
-1
20
-7
-2
-18
0
-5
-9
17
-30
7
-30
-6
2
3
2
12
1
18
13
-9
-7
1
10
43
7
5
-9
26
-17
-3
-27
16
-4
-20
-44
-3
-14
-6
-25
23
7
3
9
-10
-6
-7
-28
-2
-13
19
-9
-2
18
-30
-3
5
-49
-23
-11
0
-10
1
-3
2
-19
-9
4
-17
0
35
-1
-25
-2
-12
-5
-8
-8
0
-19
-20
22
-7
7
6
3
-9
-5
7
35
-44
5
1
-6
-1
-5
23
27
-2
-8
3
-32
-16
-12
15
-29
7
-12
5
-11
-7
-16
4
1
8
-25
-6
-17
7
2
12
10
-13
15
-16
19
19
22
31
-20
-5
-14
28
-9
3
-2
74
14
0
-27
22
-1
5
-28
-20
16
5
14
3
-1
-12
-6
-22
-11
-24
-2
3
-8
-9
2
-6
-24
-15
-2
2
-42
0
-3
-5
6
9
-38
36
4
-7
-14
39
-9
-32
-7
-4
-2
1
15
-4
54
47
-12
-5
26
-28
13
-12
12
-15
26
-8
-7
-29
-29
26
-3
10
2
17
-25
0
25
12
-1
-3
11
4
28
19
-10
14
-16
-11
16
-30
-18
-24
-16
9
-4
-3
24
65
5
12
-20
-5
-5
19
-6
-14
38
19
-1
-8
26
19
-11
-4
-4
23
23
-36
17
-7
0
-16
-5
-17
2
17
-27
-4
-13
-25
8
-8
28
-3
0
8
-22
-10
-10
-19
4
23
22
-2
-12
-7
1
16
29
-8
-1
18
6
-36
-7
14
26
-10
-8
-28
-11
18
-20
-47
-4
7
-14
2
-9
-2
-14
-14
21
10
16
15
2
2
-2
3
-10
-8
6
-13
-6
3
-24
-3
0
-4
-10
21
7
20
-29
-19
36
-14
23
-4
-11
-22
2
26
2
1
26
28
2
-9
-6
-4
9
27
12
-14
-3
14
16
-31
2
-9
-20
-9
9
17
4
26
-20
28
-21
-6
0
-2
17
-29
23
-1
-22
1
33
-19
-8
7
-10
-6
-3
-14
2
-15
-14
-27
4
11
-7
8
0
-16
-16
19
2
-5
1
21
27
17
-13
-8
-5
9
-12
18
-7
20
-12
9
-7
19
-5
8
6
-14
-1
-19
8
15
-3
-9
20
2
-13
-21
-32
-41
16
-15
-17
-10
15
-9
-1
-2
3
32
-9
-2
-6
-20
-9
10
27
0
-11
5
-16
20
-29
7
5
0
-7
-5
-19
-7
3
-26
11
-10
-13
24
-8
12
15
-19
-1
-49
-24
-19
-4
1
-18
10
-23
-6
-5
-19
-13
-20
-11
24
-1
6
6
18
3
1
0
-30
18
-6
3
-13
4
30
-17
6
1
-11
-11
-3
-8
-12
-18
-3
-3
2
-18
-2
-3
8
-6
-2
4
17
-6
14
-28
-21
27
18
11
-3
8
14
-9
-28
-25
5
15
-24
-9
-13
-12
-4
0
5
-16
-13
7
8
4
-18
1
-27
-22
29
-30
16
-8
35
3
-9
-4
13
5
-20
48
0
-11
-35
1
6
-20
-8
-14
-2
31
-7
13
-17
2
26
-12
127
-6
-18
5
21
-1
47
47
-10
-7
31
-1
-18
-18
-8
23
27
-9
-7
-13
6
6
-16
-4
-13
-13
5
21
3
-20
17
-16
8
15
37
-2
-3
31
-6
-18
-5
-18
-5
-4
9
-14
4
-16
-1
4
16
-3
-7
13
14
19
17
-10
-20
-1
-23
-18
0
20
20
-7
20
7
3
4
13
18
-5
-1
5
-9
-28
-31
-6
10
-15
-1
11
-6
-15
11
16
-4
-10
13
12
-15
14
-14
9
-5
-12
0
18
-11
-32
-18
1
14
19
9
14
13
-8
3
0
9
25
-8
-15
-18
-6
37
12
12
-29
-30
-3
-8
17
-19
-26
-2
3
-30
-20
-12
25
5
6
13
-8
1
-38
5
17
-5
-7
-25
15
10
-5
0
20
-1
-17
-41
10
4
13
-7
16
-24
3
1
5
3
6
1
5
8
5
-1
5
-7
32
0
1
7
0
-4
-27
-15
9
3
-6
4
22
-20
-16
-20
-12
34
-11
-12
4
0
-7
10
-5
4
9
-10
-12
-5
7
0
41
37
10
-10
45
10
-23
-8
34
3
26
23
-6
28
3
-1
7
6
-39
1
-24
10
28
10
-22
30
-16
-33
-8
-31
-5
27
-7
-17
4
-52
-23
-19
2
31
36
9
-49
3
-38
73
7
-43
82
-16
-39
-35
-18
-32
1
56
66
1
70
7
-21
19
31
-22
-20
-86
-13
13
-76
15
-3
9
23
53
-24
-62
-40
-30
15
13
14
-39
-4
-22
4
46
-36
-73
-35
25
33
37
-22
-8
-11
-28
-64
21
-55
18
25
-40
50
-1
-69
46
-3
1
23
-32
-16
14
-21
-38
-46
-17
28
6
-7
-45
-22
-13
8
-4
-32
-21
34
-17
-19
17
-9
54
44
42
-42
5
5
37
-19
-10
-38
15
-55
-3
-66
9
-24
63
46
6
46
-26
-16
22
2
59
50
35
58
15
-26
45
-70
-47
-11
-28
-27
26
-30
-20
11
88
-34
29
-20
50
-21
-46
3
66
15
-25
49
-34
18
22
-56
-57
25
8
-54
0
-38
-27
-29
30
3
-4
2
-64
34
16
-45
-36
-41
-12
48
9
-49
42
12
-29
-74
-19
-34
-51
33
15
5
43
-2
-15
-16
23
-3
-46
51
-18
-6
-11
20
-28
-20
-47
38
65
26
37
-26
-16
11
2
41
-14
12
-25
3
-45
-20
-20
-12
23
-21
25
6
76
-21
4
-34
-23
60
-65
-7
-15
-16
-13
-6
-10
-9
-10
-57
21
-22
-92
-56
38
-7
7
-9
-51
-41
-75
45
17
-21
42
1
-24
7
-5
13
-17
57
9
27
-26
105
12
-36
-19
29
26
-2
-5
0
19
21
10
8
53
37
-20
40
-39
-37
-29
-39
5
43
18
-31
34
-19
45
19
32
21
-8
1
41
30
-7
14
23
-50
6
18
30
-9
-19
-38
38
19
-1
21
-34
-38
-69
-45
-9
-52
-9
34
-16
-3
37
42
-21
-12
-11
-11
28
-81
-9
30
-39
14
18
28
-26
9
-67
-17
16
31
-11
49
4
2
-55
-35
-47
19
-30
7
40
52
-47
13
-90
61
-14
14
8
-4
66
68
-4
-30
-21
-13
45
21
10
-18
18
65
19
-3
-15
2
-12
-36
43
-44
-45
69
50
-20
-11
-27
-21
81
35
12
13
-25
-33
-10
-92
55
12
20
43
7
48
14
-11
-57
7
-9
-64
20
26
-3
-23
-21
4
14
-44
-20
14
75
-18
-8
-31
21
65
-13
9
1
-35
-36
-2
-55
3
-8
24
16
16
36
-22
37
19
-45
-12
10
39
2
-26
-55
-54
52
-11
-2
69
-36
-12
-12
41
5
-21
-40
14
5
54
32
35
-13
85
-57
-43
-65
7
-9
-33
1
31
-11
-41
67
-37
12
-59
89
-3
-25
-61
-14
-38
-3
15
-88
2
3
31
-22
20
15
65
7
-40
-30
7
-23
57
-33
-17
3
-57
27
-52
-40
9
18
-35
24
-126
46
-21
44
71
-4
39
10
59
-5
13
5
-49
-27
-44
127
-7
-1
-32
-7
65
-14
-66
58
-51
-4
58
69
-22
-113
-24
-9
12
-51
-10
-31
27
11
42
-8
-27
22
32
-32
-16
-13
15
-1
-36
50
14
44
9
-34
13
-5
23
6
-1
12
-11
6
-14
4
-7
24
-44
74
-19
-36
-32
72
-14
15
17
16
24
-16
-19
-30
25
-54
12
24
-44
3
-21
45
-20
86
-1
44
-15
-14
-26
-28
-102
-4
49
-55
-16
88
-17
-3
-15
-46
-28
24
-16
-7
-47
16
-52
-26
18
-7
18
5
10
1
66
26
-35
-27
28
-2
11
-41
-21
15
-62
5
-15
4
-24
28
-8
15
49
33
-77
16
-38
-40
-1
91
34
-35
0
29
100
7
12
-2
-39
26
-85
47
-5
30
8
-14
-49
24
10
7
-21
15
8
-39
-25
-17
-41
-2
21
49
-13
21
56
31
-3
-37
-42
2
28
17
-14
6
-42
3
-22
9
-18
-20
21
-90
13
-18
28
30
-106
-19
-12
-11
-40
10
4
-13
-17
-30
-18
21
93
-3
-10
-17
55
1
3
23
-32
-5
0
-1
-28
22
-36
38
-29
-1
-34
-19
23
45
-3
-61
-22
-12
-17
-12
4
-52
-30
-41
19
6
-19
1
-67
26
-5
-47
-23
42
15
7
42
1
-21
-35
-14
20
-3
-18
21
23
4
-20
10
3
9
0
23
-23
67
-62
-48
-8
63
-22
-19
-18
-36
-7
9
35
16
22
37
-18
1
5
30
23
53
25
-16
-43
-31
17
-2
15
14
-33
58
29
0
33
-8
45
3
-17
-12
-12
-7
19
-9
-25
-86
44
-60
24
41
-19
-19
55
37
-58
-18
-15
40
-20
-3
33
11
-5
18
-9
-36
-71
6
-13
35
0
-1
18
15
19
79
33
-4
-1
0
-73
-64
7
3
20
33
15
-6
-11
-38
-16
11
37
-45
16
-14
-16
77
26
6
-58
-31
-26
16
-14
-38
-29
-72
-1
-22
-7
-99
16
37
-16
7
6
-60
-23
-11
69
68
-14
39
22
-20
20
8
-22
35
-34
-41
-46
-19
51
50
-5
11
-14
-8
-38
39
-19
1
-25
-65
-51
9
-55
29
-18
4
-24
17
-17
-13
-10
0
8
-28
-34
-8
-21
-3
-30
-27
45
-4
4
2
6
9
46
-26
-29
38
-22
-11
41
-28
-24
-3
-3
-58
19
18
91
25
28
18
23
-14
-8
19
53
28
-5
34
1
-4
-38
27
-9
-6
-5
23
-7
16
-11
13
-40
-28
46
23
-36
-7
1
-24
-46
10
-27
-60
66
48
-29
-52
-23
21
7
-53
32
22
-24
-35
-9
76
-37
37
-23
36
36
-13
27
72
-34
-35
25
12
30
-28
-15
-60
11
-54
-12
-27
22
-49
38
-10
3
20
-17
-32
91
-14
36
-20
-28
-16
3
7
-47
-42
1
-26
-11
1
15
5
-6
108
-59
-17
-8
48
-50
-61
32
7
4
-14
-11
-21
-26
-25
-8
25
-75
66
-38
-17
46
4
49
-55
11
-39
8
-8
7
-26
-7
14
-39
-63
-24
9
-24
-60
-20
2
62
27
-18
45
24
10
-64
29
16
-65
19
32
-12
7
-26
-15
-6
-14
-34
6
-24
-81
-21
3
18
64
32
-31
5
-15
-21
-9
-9
10
-7
21
91
-38
-20
-43
25
-17
-7
21
-2
-36
-5
-62
15
8
9
6
-41
-3
-47
13
-9
11
-35
-49
-17
79
32
-27
-30
-46
-21
29
5
2
-22
11
-10
21
18
-31
-11
29
45
12
18
-27
-41
-26
10
96
4
21
10
-36
28
-7
20
-17
0
-21
-21
40
-28
-40
36
8
-32
8
5
15
-38
-58
25
-35
-19
-7
11
54
-54
-17
-19
24
9
-2
6
-12
-14
-90
47
24
0
-19
-15
-59
-59
-7
18
-11
3
-32
60
-45
-29
-4
8
-37
-28
-63
0
55
-23
25
23
10
11
-7
-71
-2
-50
-38
42
-37
7
-28
-23
35
31
-17
-33
-1
11
-56
34
6
-20
18
-51
3
30
-51
-7
44
-13
27
17
-36
-86
23
13
31
-13
-6
-20
48
6
-11
15
-6
-11
-23
16
-10
-66
13
82
-1
-16
-35
15
-8
10
6
-4
33
13
37
112
20
38
-9
-3
-42
-4
-4
-4
-10
9
-104
90
21
27
20
-26
-5
48
47
-52
31
-4
16
27
0
1
12
20
-13
5
-69
-90
-35
-22
10
-7
16
-64
-7
13
2
-23
55
-49
-64
1
1
9
-17
-46
41
-26
12
15
-41
5
-28
76
-55
-29
32
-52
-59
23
-27
-18
-21
-72
-48
17
-55
-43
28
-1
127
-2
-14
-52
-32
53
-7
24
-46
-30
-2
-29
-49
-14
11
109
-7
-8
-39
24
-28
-7
-30
-5
-59
-24
0
7
-6
40
-34
-1
-40
-27
-17
-12
70
-39
-11
-3
-27
7
11
-23
-18
71
78
31
32
-2
27
-33
5
22
-8
-5
-52
40
50
-17
-5
39
-30
63
-24
11
77
19
-36
-22
-23
26
6
-56
1
-19
-9
-29
-25
7
42
40
-88
11
-50
-47
-18
-14
45
-69
13
-34
-2
26
-46
-25
-25
-47
-13
-45
-67
37
-11
-3
-6
37
-8
35
23
15
14
-22
32
-58
-6
9
-24
2
-49
-52
0
-40
-24
-28
8
25
0
18
-28
-37
-14
37
21
3
-28
-42
0
0
-9
-37
-44
-15
-18
19
-12
12
50
-38
4
-16
-14
-3
-14
88
7
-10
64
23
41
5
10
1
-5
-32
-34
-26
62
-33
13
3
-31
9
-21
-27
-19
-47
33
-48
-37
-27
17
48
-28
35
24
88
42
11
67
-40
-41
15
-72
56
-45
3
-7
-24
-5
-24
38
-24
44
-21
-7
-2
-81
-43
-54
-33
4
-9
60
3
4
14
88
-105
11
15
-21
-27
-38
-36
-2
-23
83
37
1
45
-31
-25
-26
-40
-65
-32
-17
-8
16
-4
-22
-8
68
5
21
73
16
-26
9
19
15
37
-19
-18
-8
-24
-6
19
-40
6
-79
-34
-28
8
-36
24
-30
34
-68
33
-5
32
-44
10
36
50
23
-28
35
-12
6
27
28
-16
-61
92
-27
-47
-10
-29
-11
-26
-23
5
8
-7
34
39
-20
64
-1
-35
11
-55
11
-2
40
-4
-18
3
35
4
56
-53
38
-25
9
56
-44
42
32
-7
-19
25
-30
-1
-3
-39
33
36
-16
11
1
-8
47
26
5
79
-15
-51
-25
-64
-43
17
-4
14
37
28
64
74
24
-46
-12
-23
15
20
-11
-54
13
12
-52
31
-34
-16
48
-5
75
8
59
56
-41
-41
-11
22
3
-43
30
-21
1
-13
-30
-27
33
32
-3
-6
-53
-34
-13
7
1
23
14
-74
-48
-18
-44
-29
-1
-13
46
-8
-27
-2
-6
-15
-35
29
-20
20
-8
-38
50
-1
60
-5
-38
-31
30
39
-47
52
27
6
-92
-6
32
-44
3
18
-10
36
46
-46
-50
-35
41
14
-18
-62
-22
-28
2
6
-54
28
-28
-50
21
11
-20
-28
-10
109
-36
-39
13
7
-70
-76
32
18
-26
8
1
-37
-9
-52
-6
18
20
-5
6
43
-31
-18
-13
26
65
-12
-13
-71
-7
-28
31
14
46
-17
-24
-34
-49
13
22
-18
-6
102
-29
-18
-4
-13
-3
13
8
30
-102
-80
6
-49
1
-26
-7
-34
26
-15
49
9
-9
0
-9
-24
19
-1
5
15
9
69
106
26
10
-11
49
19
-22
-62
12
17
-10
-27
15
27
-22
-12
-45
32
26
25
-6
-25
3
3
-55
-34
7
-34
56
14
2
-18
32
-21
-18
14
18
-41
-6
-82
-1
-40
-4
-19
34
-21
33
16
-28
-6
-21
-33
-22
-25
-51
-49
-40
-1
-41
45
-22
-53
-3
-11
20
33
42
-14
30
22
94
6
-1
11
49
24
-11
-23
10
24
2
-22
-22
-40
-50
-19
-10
4
49
12
-11
59
-7
-3
41
-46
5
69
0
-27
30
-26
61
-40
-33
-13
-10
-41
-29
-23
0
-27
17
2
40
17
18
-20
-17
10
-31
-28
2
-22
6
-20
15
-16
-37
-42
-10
9
-46
-37
-54
-57
-46
15
15
-66
-5
29
-14
-13
-46
1
-26
13
-1
-18
20
19
9
-17
-24
-5
-30
-31
40
-32
10
11
-8
24
-16
-38
-51
-5
4
-1
18
-16
-1
-39
-12
67
29
-19
-35
-40
8
69
14
-5
-29
-27
-40
2
-18
2
-8
33
4
3
-16
25
-13
-66
0
9
23
89
-19
-10
-21
25
55
12
-57
5
53
-36
17
28
-7
-81
1
-7
-61
-27
-5
1
13
-8
6
53
18
76
-19
25
-7
-35
-13
-39
-28
12
-34
-25
-11
-69
-7
-36
-63
25
-10
-32
9
1
-25
-10
18
-49
-32
-5
29
9
2
-2
-23
0
23
-23
-6
-41
47
-33
7
-19
-15
15
-20
-9
-19
17
-35
-22
21
-30
-4
-8
47
-51
-67
-46
-74
-31
-28
-34
4
65
34
0
-9
2
-46
38
22
-16
-2
-50
-16
76
101
-7
7
-42
-16
-77
-21
21
-21
-36
-26
-2
-36
0
-41
-1
-29
2
46
56
-27
49
-39
-24
-22
5
19
19
19
-28
-12
-1
-58
-2
-36
15
-36
-55
43
-43
25
-38
6
-3
-3
36
41
-25
73
39
19
-2
1
-18
-27
-57
-10
6
-10
-15
-16
-8
-85
-26
26
82
39
-30
12
-26
23
20
8
-32
-15
-1
-9
28
1
-12
-5
-32
-43
3
11
10
23
7
43
-64
-45
-14
10
10
16
-35
34
-6
-48
-19
-6
17
-14
-21
3
-11
-57
-10
7
28
-9
19
-21
-9
-1
8
9
-36
-55
-25
4
3
46
-1
-15
20
4
-24
-19
10
36
1
18
-30
10
-15
-24
19
-34
-15
8
-29
21
-13
-20
-4
-8
19
13
-25
-1
38
-37
-56
-13
-18
8
10
2
-34
-73
15
-53
-19
-7
-49
20
13
19
-29
-16
1
-54
17
11
-3
17
-3
1
3
0
11
-4
-25
-18
2
10
4
23
-19
-27
-22
1
-57
-7
-3
-43
-56
8
-5
48
11
-13
-5
12
-16
-5
12
-18
-19
-12
13
44
-21
25
-22
8
-7
8
30
-22
-57
-37
33
-5
3
38
-15
-7
30
7
-13
16
-34
-4
39
2
10
-47
23
-22
-19
27
3
7
-8
6
-3
12
14
-15
30
-58
2
-29
-20
1
-10
-26
7
-7
-65
9
34
-22
-23
-66
-35
21
17
-24
24
38
48
-42
-51
-11
-9
-17
8
-10
25
8
-16
12
-19
7
-22
-16
18
28
23
-37
25
31
12
-6
-41
-17
-27
-14
35
-42
-26
-36
-32
4
-5
-23
-2
8
-5
-16
-27
23
55
-15
37
-41
14
13
29
40
47
-47
33
60
-12
-10
19
0
37
-12
33
-14
-2
-56
-56
-27
9
-3
-16
-7
26
5
-26
5
5
-16
-34
57
-10
-4
-44
50
-19
-32
-5
-41
42
6
23
-1
-5
-17
28
32
-4
19
-28
-36
-22
11
3
2
-13
28
-3
12
19
18
-24
17
-22
-44
49
33
-6
90
11
5
-20
41
23
25
7
21
35
-19
27
-28
-47
34
8
-37
-26
16
-21
25
9
10
33
-37
-33
1
63
1
13
19
33
-39
-3
7
3
-24
18
-17
2
29
-41
18
-13
-1
-18
27
-38
84
95
-14
-15
-18
65
1
-9
7
-11
-11
-26
14
-12
-43
24
-21
-39
-13
21
23
-41
3
-56
-46
19
20
-10
-7
-49
16
-39
-19
-21
29
-12
-29
-5
12
1
7
-20
26
-44
-44
14
-13
29
13
-15
13
-38
-15
15
-4
-12
-39
-49
-8
4
28
-14
-9
-3
2
-31
27
41
27
12
35
19
17
-51
36
3
-12
-32
-42
6
7
50
50
-24
-31
0
-15
25
6
-6
38
19
46
-8
-31
-8
-75
1
14
-70
-17
12
-24
-51
-16
31
21
12
-34
23
18
53
10
-30
34
69
-6
23
-12
21
22
42
22
-61
-18
26
-9
15
-4
26
14
-23
-7
6
-5
6
-24
-3
0
34
-61
29
-14
-55
19
5
-17
-26
-82
-15
-14
36
-31
4
23
39
38
1
-9
5
-32
-35
-27
3
-39
-10
-14
23
-2
68
-3
-30
-52
8
-31
-27
-6
-17
26
-16
14
-22
24
14
15
-16
-17
19
19
-27
-2
-26
-3
-27
21
26
-5
-5
-19
-12
40
7
6
16
-5
-4
24
13
12
21
-10
-7
31
30
-8
29
-17
-2
-5
7
8
-22
-33
23
48
-11
-36
-18
-19
-30
61
27
39
-6
-36
19
22
76
9
-19
-11
16
-45
0
-11
-19
16
61
19
13
4
2
-17
-18
0
26
28
2
49
25
-54
-8
-5
33
3
26
29
1
8
17
15
-21
-18
-1
27
15
6
14
-17
-30
-39
74
-1
17
13
9
-26
22
-7
-26
-9
-23
-17
29
31
16
21
18
32
12
20
20
-22
44
-27
-22
18
-15
-22
-6
11
8
0
3
0
17
-45
-25
4
-5
3
-3
-21
-3
6
-8
10
31
22
-20
-26
-31
-12
-25
9
-2
-2
-13
26
35
-52
40
1
-29
-23
5
-62
-36
21
49
-14
34
23
12
-12
-20
51
-15
9
-4
-22
-2
46
15
22
4
26
-35
33
-21
-4
0
22
11
-27
7
34
-31
1
-35
31
-27
2
-27
98
-23
-68
-4
41
29
-14
9
-35
-33
-1
-66
-12
-3
14
-29
-4
-39
-34
-12
-32
-12
14
19
11
62
-20
1
1
-3
36
-13
-5
-2
-18
-21
-18
-33
-5
19
32
-12
19
30
-17
11
8
24
4
-12
-14
0
7
-18
12
-33
9
-8
-30
23
2
39
54
27
3
7
-15
0
16
-35
-32
127
-9
-12
-25
-23
9
-46
-17
-8
-22
-11
34
1
20
10
-67
8
26
15
-5
-53
-1
6
54
11
51
15
63
-47
32
-39
11
-4
1
-14
16
18
0
21
14
25
-16
-5
-33
18
13
-10
-23
-15
13
37
-10
-55
9
-7
-38
47
-26
32
22
-22
9
-18
3
38
-17
8
-6
-36
-23
11
8
-6
21
-15
8
31
-8
-13
-23
-6
2
2
13
26
-9
-11
-7
5
25
-21
6
-18
32
-2
8
34
-18
-54
-41
24
-23
-30
13
-25
-20
20
52
36
-27
43
12
-11
-4
2
26
-7
-57
-40
36
-31
28
110
30
-20
-15
66
-2
6
-14
-10
-21
34
-25
33
-36
-4
-73
38
2
0
36
12
-11
-19
-37
-23
4
18
69
14
3
23
17
-16
32
-36
7
38
-13
25
-26
24
-21
-3
43
-12
-12
-14
-1
1
-17
9
-26
27
-24
18
-12
-39
0
-10
52
23
-6
-22
6
-6
15
-8
-41
-20
28
-12
-30
15
-1
20
-58
2
-11
2
-42
16
26
-1
20
-11
6
-6
2
23
19
-30
11
-48
13
43
-9
33
27
-4
-9
-7
-13
15
-10
-8
-9
3
37
53
26
2
-6
18
3
-79
53
3
5
-33
-45
-51
5
-24
-41
-17
-24
-38
-39
-41
3
-11
31
-31
-11
28
45
4
-10
-32
-47
-21
-31
-13
-23
-20
-9
-17
25
21
-9
-35
-48
1
21
1
33
-11
45
-14
-33
-15
16
9
-12
51
-18
-3
-6
10
42
13
-10
-20
-17
-4
-7
7
-34
-28
-36
-3
-23
49
30
-1
3
22
-26
-26
-6
-34
14
28
-10
1
21
-25
16
-28
-39
-20
-25
-9
-30
3
-18
51
20
3
-38
-4
40
10
33
6
-14
9
23
16
-9
29
29
33
-55
4
-30
13
15
5
-26
59
-19
-31
-14
0
55
30
-1
-8
85
10
-23
-19
9
-51
7
12
28
26
15
4
-22
-12
-19
37
-18
6
6
-25
7
-44
-2
-9
0
30
-24
4
-9
14
20
-42
0
8
4
28
10
-13
-1
-24
-42
-3
-5
19
9
41
16
12
-6
-3
18
13
-41
-23
7
-6
-10
-3
-13
5
-22
-9
-11
-37
-19
-5
32
-10
1
-16
29
-21
67
-15
11
-1
35
20
-6
12
-13
13
-24
-5
-44
23
-1
20
29
44
-27
14
-8
-31
-30
-12
-36
30
5
-10
13
-11
-26
-23
35
-10
-24
-20
-13
16
-30
-14
-22
21
5
62
24
-22
67
10
10
-41
-28
12
31
13
-32
18
-10
-56
-24
-22
33
-68
17
17
16
10
33
-3
-12
-2
38
11
13
65
7
4
15
13
1
-7
-38
-36
0
-58
-25
-9
22
55
31
-23
27
44
-32
40
-11
-26
15
28
7
49
-25
6
-11
-18
-5
-6
44
2
9
-10
21
42
-10
33
29
35
-10
-10
-18
17
54
12
-3
-18
-51
28
-5
-22
-27
24
25
5
-29
-17
5
-28
15
26
25
-19
-58
-44
-23
35
-32
9
-15
-19
48
-18
9
-30
-16
-39
-4
-34
-9
-5
-18
22
-29
-6
-24
-1
1
27
24
-4
-47
17
22
13
21
-13
40
23
-32
1
-41
-3
9
-20
-10
-20
-24
-17
-27
-46
-22
12
9
-1
-13
40
-10
21
-24
10
-12
3
-20
-20
-3
-10
-26
2
4
-13
-3
-36
-19
-10
54
-5
7
-15
-16
15
-8
-16
-12
32
-3
3
13
-23
-34
-26
-9
-50
41
-33
-6
29
-22
22
26
127
50
-15
8
-29
-23
-21
4
-16
21
-1
0
8
-37
18
10
4
24
-24
-29
-27
8
55
-25
-7
-44
29
-18
-34
-13
-38
59
-24
2
-14
-2
11
15
-30
8
-21
12
-4
44
-21
9
-18
-18
-20
28
35
-20
-35
-50
-13
-11
-12
30
-42
56
-31
-18
47
-15
-47
20
-34
23
-32
20
15
-53
-1
-50
-4
84
1
15
-31
96
-49
-5
34
-18
33
-8
50
12
26
12
1
10
-61
2
4
-14
4
26
-14
19
-72
-11
-3
17
27
-4
2
36
-30
24
-24
-7
0
13
12
-33
-30
26
26
37
-13
102
-6
48
-44
0
31
6
21
1
-63
-38
78
-12
1
-4
4
19
-23
-13
3
10
-23
4
20
32
-9
7
-13
9
59
-26
-24
-24
14
-16
27
-22
30
-9
-65
11
-2
8
-15
-17
-19
0
-43
-28
-1
24
23
-6
-7
17
8
6
0
-7
-29
-12
1
-4
10
10
8
-9
-7
19
-20
53
17
-25
3
-2
15
-25
-4
-27
-20
-13
-20
4
-34
6
6
-13
-60
46
10
1
-20
-7
-18
29
40
44
-13
-12
11
0
13
-15
0
-8
2
-58
-1
-25
8
23
-28
-20
-8
25
-12
13
-2
-3
0
-30
32
9
12
59
38
0
19
8
2
-2
-12
4
8
-2
-3
6
6
-15
-2
27
15
-32
-2
2
19
-12
-18
33
4
-17
27
-7
-56
8
-3
32
-26
-14
-27
71
-11
31
37
-8
18
-22
48
36
-13
15
5
13
38
-13
-50
-2
-29
-28
5
70
0
-14
-35
-1
5
-7
82
-2
40
26
-31
10
-69
-19
7
-25
5
13
-18
8
-6
11
-16
7
-7
11
7
62
-53
21
43
34
2
12
8
-4
-36
-8
-25
46
7
-29
29
11
13
-11
-24
-6
-23
15
70
59
-19
3
-3
-52
10
-11
70
-4
4
-22
-43
22
11
58
-7
14
22
6
0
20
16
-6
-15
4
33
5
-23
-24
30
-10
1
21
-2
36
26
23
-14
-1
3
-10
60
5
34
-4
19
4
2
-9
-5
4
-2
14
-26
-16
-2
-29
-18
67
10
-33
-34
-22
33
-35
28
-11
-19
-26
25
7
10
8
45
42
21
9
48
-18
1
15
-1
-27
-2
-52
-5
26
26
-44
-32
-3
-2
20
33
-4
-7
-3
20
2
-6
-6
-3
-5
11
78
-24
36
-16
-44
18
-3
28
-17
-4
-25
36
-6
20
15
27
-12
-12
-21
13
-1
-7
5
-63
8
-57
-27
-16
-17
-39
48
6
-22
11
6
11
31
-2
84
-3
-12
-7
-3
-12
-9
-15
10
-20
-8
16
6
7
-62
-21
3
29
19
-11
-16
-7
5
-7
10
11
-31
-30
29
-18
7
-38
10
9
-17
9
15
-21
0
-15
-4
26
16
-36
26
-36
-4
2
-57
43
5
37
18
-5
-48
-40
16
-34
8
7
8
31
21
0
-9
37
-17
1
-7
0
-33
-3
-33
-18
13
-20
93
16
23
-34
-38
-31
11
-27
-31
29
-25
-26
38
7
18
0
24
28
-22
-5
-24
-3
-9
-17
16
27
41
12
-37
31
-5
1
7
-21
23
-16
-7
-15
11
9
-1
32
-35
-11
69
37
-10
-13
-9
20
-6
-57
-10
-15
8
-2
-1
-5
-47
-11
-5
-6
43
-29
-6
6
-3
17
26
-6
-5
24
8
1
30
-24
9
-37
-30
-22
-7
7
-8
-2
28
12
35
29
32
-53
0
33
-24
-2
-42
5
-38
15
-64
-35
21
-55
-35
-4
24
-42
14
-25
1
13
-41
17
11
40
-10
32
-16
1
-2
0
20
-19
-14
23
-3
25
-10
-19
-2
-4
13
-9
-10
-2
14
9
10
-17
7
29
-9
14
-14
9
17
44
-7
-8
21
29
1
55
-27
27
-5
-27
-12
-22
21
15
0
57
-12
-10
36
-31
-2
2
5
-30
-25
32
-11
-5
37
-35
-22
70
12
-28
0
-31
4
-14
-22
21
-10
-17
38
21
-11
-35
-24
-9
-14
14
-8
1
-15
39
24
32
-3
-30
18
3
-26
-5
4
-21
28
5
8
40
16
26
-8
-29
-4
-18
13
-33
10
-24
-37
37
-18
10
12
14
-35
-10
-11
-5
-7
29
37
7
-22
47
-3
-3
5
-1
3
-4
-3
-5
5
-19
20
12
-1
-4
-49
-1
-11
-6
-1
-10
-24
20
21
-4
-13
8
5
-3
-10
-12
15
7
3
-2
-8
-6
20
-3
19
-17
15
-5
16
23
0
13
-20
-1
34
0
-9
14
2
-7
1
-2
1
20
-9
6
4
1
1
2
14
-2
14
17
1
6
-15
5
2
-8
17
-5
-14
6
-4
-20
-9
-9
-23
-20
28
13
-19
9
-25
11
-3
1
2
-15
20
-24
18
8
-18
31
-17
-12
3
10
-39
19
-10
15
23
18
15
-24
-6
15
-22
17
-4
4
0
-11
20
3
-3
-1
-15
-2
24
6
-8
24
6
19
3
-1
6
13
34
-4
-32
27
2
14
4
10
4
-23
25
-7
18
12
18
26
-24
-4
30
1
-17
7
-20
-12
-4
2
2
29
0
-26
0
16
3
-21
-15
21
-11
32
-8
16
16
56
-2
20
-21
-21
3
-21
13
3
-6
8
-4
-8
-4
-12
9
-11
4
15
38
-13
16
-2
3
18
-2
-5
5
-14
-15
28
-10
6
10
33
-23
-13
-14
12
22
6
14
-19
-9
-12
-13
-2
-10
16
-10
12
12
0
28
-10
6
32
-3
-12
-10
-21
8
-16
-6
13
14
72
39
27
7
-25
-3
13
-23
-13
-10
-2
23
14
4
17
-31
3
-24
16
1
7
-16
-19
-13
-11
10
8
3
-17
25
-18
-3
-16
-18
31
-8
-24
-19
-11
-5
5
4
-15
17
-6
-4
-29
0
2
-29
-2
0
-7
-31
0
17
11
11
2
-11
16
29
-16
-31
-7
0
-18
-6
0
-6
-9
15
-7
-13
-13
11
0
15
7
-16
6
-4
5
-27
0
-21
-7
-21
36
9
9
-38
-40
16
-2
-7
11
-28
-5
-16
-1
-25
-25
0
-16
13
3
8
19
2
1
-6
-1
3
10
-5
-7
-11
-17
26
-1
-4
-3
36
5
2
21
-10
20
-6
6
9
9
3
-17
0
-13
4
45
15
-9
-9
10
-17
-9
0
-5
3
-5
7
-1
-22
-2
-29
25
-4
50
-1
-2
13
-14
6
6
-22
-6
30
-6
9
-9
-4
32
-4
-5
-2
4
8
0
3
5
10
-6
-8
11
-3
10
-6
-26
-13
11
32
13
39
-16
-17
13
-14
21
6
49
-8
-5
-13
77
-29
50
17
-3
12
-7
-2
-13
-14
-17
-8
-23
9
16
11
4
21
4
6
16
-4
-17
-12
16
1
-19
9
-12
20
-5
-3
-6
-30
5
-29
16
-11
-4
4
-18
-13
11
6
-5
-25
-10
45
18
6
-4
8
33
20
1
4
7
12
6
-8
-2
5
-11
127
-20
-12
20
-9
-4
-12
12
77
-17
11
2
-23
2
14
-8
-13
1
50
2
28
8
-17
10
-10
12
-15
-23
17
2
4
-18
8
-14
-23
-35
-15
-10
-2
0
-10
-5
3
12
-14
-27
-11
6
-2
24
6
22
-3
0
-24
6
-18
-4
-17
-4
-23
-2
8
-7
-35
39
29
12
3
-3
-4
-20
1
-11
99
-20
11
7
-7
1
-8
-4
-8
-6
2
4
9
-19
-11
15
-14
-29
-13
-29
30
32
15
4
2
7
37
3
20
0
-7
43
-21
-29
-6
-2
1
-18
22
-11
16
-18
3
-25
23
-12
-8
-9
9
1
-6
11
-1
-14
-29
-15
28
-18
-2
-21
-9
-4
10
13
-19
-8
-8
-7
14
-18
21
-3
-8
-2
29
-11
17
-19
29
21
48
-13
21
3
-4
-25
-12
-32
-17
-18
5
-5
12
-5
-21
12
11
-5
8
-29
-2
3
10
-7
1
18
13
2
-7
-8
-6
-13
9
-26
-3
-31
35
-21
-2
-18
21
-9
6
-3
6
-3
-26
5
24
-4
4
-19
-20
-18
-8
-18
-30
11
24
-13
-5
-4
21
-10
0
-25
21
7
2
-2
-5
13
-1
-10
-8
16
13
-1
18
13
1
-14
4
-17
0
-11
-10
-4
3
3
5
4
15
7
13
-9
12
-7
4
9
-16
-2
-12
8
9
0
2
-7
-7
-1
8
-18
-20
-5
-9
-9
-11
-14
-7
21
38
-26
3
-26
-3
14
-21
-16
1
0
-1
-15
-5
-3
9
17
-6
21
10
10
-16
0
5
2
-12
4
4
12
-19
26
17
24
16
3
7
10
5
7
16
15
-3
11
27
0
-9
23
12
0
-13
32
-12
14
9
6
6
25
4
19
-18
-36
-5
0
6
-2
1
-7
-18
-14
-24
13
-17
-10
-4
-1
-8
-4
32
-17
2
18
-26
-14
9
-13
14
32
4
-24
-15
-11
1
11
-33
20
-13
27
18
-20
-8
-6
24
-5
-3
9
1
-5
-7
10
0
-4
-4
26
19
8
3
3
2
-4
5
18
8
1
-12
2
-9
31
-31
0
11
-7
-27
-2
-3
30
-29
-10
-3
7
-42
-14
10
-1
5
4
3
0
2
1
4
3
23
37
36
-2
8
10
13
-36
22
21
-4
-22
-19
7
9
2
12
-7
12
35
-30
-6
-29
-29
-8
-8
8
18
-4
-10
-5
26
-21
19
-9
1
5
-5
-8
-5
-1
-8
-15
19
12
-2
3
14
3
-2
-4
-23
-13
24
16
-22
7
-5
-5
-17
7
3
-8
-16
1
16
14
-16
8
-15
0
8
-26
0
-21
-9
4
20
5
28
3
15
-7
4
11
2
15
24
-19
-30
-16
1
-10
-16
6
-13
9
-4
7
7
30
-14
6
16
-3
-20
20
29
-24
-10
3
-3
-17
12
1
4
7
69
-19
-2
3
13
-12
3
-24
-25
9
-8
9
24
28
-7
-15
5
-14
15
-9
-27
-8
-3
6
-26
11
8
7
-17
1
-6
-5
13
3
-5
5
-10
-19
-11
-5
-4
5
5
-11
-13
-15
1
-29
11
23
18
-15
-3
14
-8
28
2
-24
-10
-8
-12
8
9
-13
-6
7
18
-15
2
-21
-23
-9
-29
-1
39
29
1
15
1
1
-7
12
-7
-3
9
3
1
-5
7
-10
-3
0
-3
13
2
-9
14
-16
14
8
-61
1
42
23
-45
65
-34
-27
-8
21
-13
-9
16
-29
35
-32
27
-71
-32
11
13
-60
-18
-4
-29
48
21
-11
-53
16
16
-54
9
10
1
-11
-49
40
-5
6
-17
62
-18
22
12
-28
-37
8
-3
-4
2
10
16
-41
4
-2
10
-5
-28
24
-47
52
14
4
1
18
0
26
-21
7
-1
-10
-6
3
61
26
26
2
127
44
-12
-27
22
4
24
-7
24
-20
6
-38
58
40
-3
11
20
15
-22
8
-55
-9
-18
-15
-53
-9
36
-2
-19
58
24
5
19
12
-25
-5
-17
-7
-8
8
-17
-12
-3
4
-71
-18
20
-10
-2
-24
-7
32
-29
44
-39
-42
-2
83
-5
-28
-19
-16
-41
-7
-6
5
7
75
9
-11
-9
-28
65
-14
-9
21
-37
14
19
-23
19
-20
8
-52
-12
-28
-2
-1
-13
13
48
18
20
2
-35
-14
-6
9
19
9
-7
1
16
2
-12
-44
-31
34
39
73
5
-11
-21
-9
47
21
89
8
47
-27
-37
-36
9
-18
-8
-29
26
12
54
26
35
30
-3
-12
36
-18
1
-14
5
8
48
-24
24
-21
-2
32
-7
-4
-36
37
-53
3
62
66
30
22
-39
-28
40
9
-54
-40
3
59
2
-32
30
48
-3
-23
38
22
18
-17
-21
3
-11
-21
17
-27
6
-33
67
23
-16
-8
-27
-3
34
69
31
47
20
-39
-37
32
0
21
28
4
17
-13
16
-27
18
-29
-36
35
30
-10
-37
-9
-52
8
-22
-44
15
-32
-16
-2
29
-15
7
21
-40
-29
52
-45
10
-15
-41
-15
18
45
30
-9
24
-47
-68
4
-33
-25
74
0
-50
-22
-2
-21
-41
1
-23
7
-11
-30
-47
0
-63
-23
24
-38
-24
-23
9
-27
-27
18
-18
-1
17
29
-53
36
11
-8
18
88
35
-9
-29
-20
-1
-27
44
46
-2
-2
-13
-30
-27
36
43
-12
35
-43
-43
-19
40
-40
-6
-3
-2
-88
1
-9
-14
32
-4
-37
12
112
-48
-37
11
12
-7
-16
-14
-23
29
-57
37
1
45
1
-1
-35
-15
-25
12
-28
44
22
-33
0
-21
4
-40
-62
12
-59
54
-2
-24
-9
26
102
41
-2
-31
-23
-16
6
5
-28
-29
-23
26
2
7
-23
78
9
13
6
14
-3
13
-5
105
-18
20
-22
5
-68
8
21
14
30
-1
-24
20
-10
26
-24
18
-32
-15
-15
-25
-3
36
29
-35
-2
7
-1
-6
-37
-34
-24
6
-24
-18
3
-5
13
-28
-32
24
22
-13
45
20
-26
39
19
1
-68
-56
-10
30
57
54
-4
9
-40
-33
-2
-12
-48
8
-18
-19
66
2
-1
-45
2
-2
-1
-57
1
26
-26
-49
18
-18
-26
30
-10
2
47
-31
-48
-22
-20
23
6
-27
-4
48
10
42
11
-48
11
29
16
-51
24
-29
-44
1
9
-6
31
-50
49
-8
20
-18
-30
-8
20
-21
45
21
65
32
-21
38
-1
0
-18
2
8
3
-32
-17
-5
2
25
-3
2
1
21
-12
0
-48
6
7
6
-6
-38
22
51
24
-45
-30
31
-1
15
-25
-11
24
4
-22
17
-5
-9
25
1
17
19
-11
-9
-3
-68
14
-3
13
-20
29
-15
27
-32
-29
18
-5
-38
-27
0
-42
-13
-2
-12
-10
-3
2
33
13
34
-1
19
12
0
20
-42
2
17
-7
-15
22
1
-30
-38
-43
35
38
16
47
23
-34
-4
23
-27
25
-23
27
51
-1
-18
-3
5
9
103
17
-3
2
-59
-3
-6
-31
9
32
-13
6
-12
41
15
82
4
25
-51
-6
-40
-34
36
27
-23
11
-3
-72
-2
0
-23
-26
-14
-17
-29
7
-4
-40
-57
-10
16
1
20
18
7
-19
47
77
-31
-20
-17
27
28
-11
43
-22
46
16
2
-61
-38
16
-10
20
-28
-83
-6
-26
46
0
6
20
13
87
-29
26
2
42
18
-12
8
-1
-1
5
24
38
-27
31
-46
-41
-18
-25
14
25
9
5
24
28
-25
-8
3
-1
52
-39
-20
8
48
-77
22
12
16
4
0
-10
-2
0
24
-54
-7
54
6
-8
-23
-40
-24
49
-38
-26
7
-26
5
-11
36
-7
-27
-12
78
-4
-21
34
41
7
-18
-8
-16
1
-30
13
-15
37
-4
-45
-43
79
37
29
-87
24
3
-9
11
-47
3
22
33
9
15
-34
-1
15
-2
24
-7
18
14
-45
-8
54
28
17
-6
14
67
-7
19
17
10
27
-10
2
15
36
-41
2
9
-1
-27
-1
17
-22
-24
4
7
1
2
-31
63
15
0
21
36
-45
5
10
17
15
0
-2
-44
-49
3
-10
-16
11
13
-36
1
-40
47
-42
10
65
-16
-29
-9
-63
27
30
16
85
-49
-8
18
-3
-49
-68
5
6
-17
-5
10
9
-17
28
2
-39
-22
-37
25
38
-53
-17
11
34
6
0
-10
9
-8
-2
-29
27
-33
6
20
-16
-20
-41
5
-13
-13
-25
4
-10
-19
-40
-21
-5
42
-21
15
2
-15
1
53
-24
22
17
-49
26
44
-4
46
30
-7
21
-38
-45
3
-34
35
-3
0
23
-26
-11
7
1
4
13
-8
12
19
-4
44
-17
23
23
19
-12
-19
29
-35
-40
-26
63
-51
-31
-2
-26
17
-40
-9
8
57
12
-31
-2
27
4
-77
-42
-2
-18
-6
-34
-12
11
19
51
-30
-31
47
-45
-3
-50
-31
-3
8
-26
26
23
26
-80
-48
5
44
10
-17
24
-27
-7
-25
10
40
-18
-11
-51
-17
-4
-27
-42
-5
-17
17
-30
47
-17
24
-6
-20
42
26
7
-35
5
-48
-55
-27
-10
54
1
16
52
-33
4
28
-20
-5
-17
0
9
-14
28
-58
-2
-15
10
11
39
0
37
-22
2
-17
2
-50
63
8
-5
19
-8
25
0
-29
-34
-34
-22
21
-54
9
19
-26
36
36
23
-6
-27
-34
-33
12
-38
2
-24
8
-18
-35
1
15
26
7
4
-55
-41
16
30
-1
-7
12
-7
3
-26
-10
34
3
17
12
20
-4
-33
60
-9
-8
6
3
21
35
19
19
-29
-25
-29
43
-26
17
-21
-3
11
-32
-5
42
-21
-28
-13
14
15
-62
-33
22
-92
-31
50
9
34
9
7
4
20
-27
30
-11
6
-1
-21
10
-35
27
-21
26
-23
22
10
-44
17
8
-43
0
-9
20
-33
42
16
13
-54
-43
-15
-25
-25
-44
64
-40
-21
23
-15
-4
-13
8
-10
-31
9
-25
-14
-15
-23
11
14
40
2
28
-19
-5
-37
-18
17
31
25
-13
-17
-2
-6
-25
-31
-43
15
6
37
-38
-34
-40
-13
4
-78
24
7
-56
-3
-15
35
2
0
18
-23
17
5
26
-5
4
41
12
-23
-38
-58
23
61
-4
53
10
31
-47
-7
5
4
-38
16
-15
-71
-83
4
-4
20
30
-6
34
24
-18
-26
-31
39
20
-21
-8
-1
61
-23
16
-22
-38
5
1
-30
60
-20
-1
19
23
-15
-27
-20
41
-44
11
47
-27
-39
-14
-29
1
-29
-25
-27
80
23
32
-41
-10
1
-5
-63
19
16
17
48
-24
-44
-12
-26
-35
-19
-2
-6
1
15
-15
15
-17
-23
-21
-28
12
11
-3
28
-3
23
-28
23
-26
4
-29
-24
-3
9
-30
20
-9
-18
61
-16
-4
-18
-15
25
-22
-42
-22
3
-31
-9
18
5
27
-14
0
-19
8
1
-21
-40
26
-13
26
37
-8
47
-32
-36
26
-29
23
38
-9
50
-10
-21
-7
7
10
-14
37
5
-38
6
14
28
47
-21
-16
-35
9
-27
38
45
-6
38
39
-9
-15
-16
53
-32
34
32
9
18
0
4
-28
-26
-18
-61
33
-12
84
7
8
-11
11
-36
25
-22
-15
49
46
34
29
-73
-25
-13
-27
-63
-40
-10
-8
-9
-8
94
-48
23
22
21
8
69
-49
-59
-4
18
-35
-11
-7
-70
17
3
-9
39
30
44
12
124
11
37
50
86
35
-18
-1
-24
10
-11
0
-3
12
2
10
1
-21
-25
18
8
25
-4
11
30
32
-9
-47
50
53
-4
35
31
-14
44
-27
-17
-27
36
34
-54
79
8
-34
-15
14
-62
1
-6
9
44
-16
-20
34
-22
-72
-33
-24
-38
-30
-1
1
-29
12
63
23
12
-33
-63
29
29
-1
0
-38
-45
5
-59
0
2
-21
-4
-22
-74
-39
-43
21
14
-10
-5
1
7
-34
13
42
2
16
57
32
14
51
26
35
43
-6
18
3
-31
0
-43
-18
17
53
-27
-34
-15
-53
-34
-6
7
-15
10
42
-50
-11
5
-50
-26
-8
1
-48
19
-47
-8
28
-17
7
-7
-2
10
-2
27
-13
23
24
20
46
-48
3
-25
2
-32
-25
9
21
-28
25
29
-28
3
-2
-17
34
-21
-19
14
66
-65
-61
11
44
-34
10
-34
-3
16
8
29
-11
34
-35
0
54
19
-5
53
-36
28
28
-52
-3
-3
-16
-47
0
-6
65
-12
7
30
-21
12
-25
63
76
-9
-22
-14
-31
27
12
15
-25
-45
-17
-6
-44
-21
-45
-20
1
-1
14
13
-8
37
7
-22
43
25
-25
64
-2
21
-16
51
4
66
14
29
-20
-19
46
-43
9
11
-9
-3
57
-14
1
12
54
-19
-22
-31
74
37
10
-55
-17
-3
-62
15
-43
6
-3
20
8
-3
4
5
55
-16
5
16
-16
-2
-3
-19
30
19
5
7
-8
-41
-3
13
5
2
36
-1
75
-27
71
46
-16
31
60
-27
-17
8
5
-19
-11
25
34
88
-4
-16
-16
4
90
45
-8
56
-7
-11
30
33
72
-18
2
-5
22
18
-37
30
33
-21
-44
9
12
7
-44
3
-75
11
49
-34
-15
36
30
30
-52
-31
-22
48
56
-14
2
29
-30
34
18
-16
-3
112
-3
47
28
16
-23
-37
3
29
-87
-14
10
6
-36
-59
-1
-19
-11
8
-23
-2
-14
-34
16
-13
8
-9
20
-1
-52
-33
71
57
-30
10
17
-19
7
79
-10
2
6
-30
9
51
-20
-22
-26
-23
76
1
-18
-57
7
40
-8
-2
-8
-23
-18
-2
-42
-23
24
-21
47
-14
23
21
2
25
-14
-26
-5
-41
-41
24
-13
-67
-67
44
22
3
-31
-31
-7
29
16
28
-33
-19
12
60
1
11
82
8
-20
-28
5
-46
10
-8
0
0
3
67
74
-41
-55
-46
42
1
-37
-5
6
9
43
17
-13
74
51
-26
58
-19
-39
-14
-33
-14
2
45
-27
28
-19
-7
3
6
16
10
17
-31
-9
20
14
-47
6
19
0
24
-11
-5
-22
5
-40
-23
-6
20
-22
-32
-14
48
-14
29
-32
16
-3
13
-21
17
15
-22
24
13
-46
-12
-11
5
-29
-4
-7
-10
9
4
-22
-50
3
-42
9
17
-3
-46
-14
-1
11
33
28
20
31
-21
38
38
19
-19
61
-12
-8
-38
-18
3
47
9
-35
-94
-4
6
4
29
-38
15
-10
32
-38
11
-25
-21
-3
25
16
-47
10
92
-15
-44
-1
-36
-13
37
-17
-4
-11
-11
46
7
-32
50
10
1
34
-28
13
-38
-47
-32
6
-11
10
-15
-2
42
17
31
4
127
3
4
-38
50
-2
-60
-22
-36
44
19
49
-16
50
89
-5
-4
11
47
11
-18
24
29
-74
-4
-20
-37
0
27
18
62
18
10
-17
-20
-10
-26
-43
-19
102
2
38
24
-33
-5
-22
13
-1
-35
31
23
-25
-16
8
47
-17
-8
50
21
44
-16
-23
24
-27
54
-70
22
-11
11
-24
8
-27
3
30
6
-27
-21
30
-3
-8
-7
100
-13
13
-52
27
35
-14
50
-31
-15
-3
35
-21
-22
-31
-53
2
94
3
-20
-14
-34
-38
-34
44
39
12
-3
11
19
2
-35
-15
33
20
4
-12
0
16
-49
8
-19
-33
39
11
18
-13
1
-12
41
-27
14
19
-1
-28
13
6
17
6
24
-24
50
47
22
-4
-23
-16
-10
-27
-69
9
57
47
-19
11
9
-17
7
32
3
-22
-14
0
-28
16
-14
-5
-11
24
-17
-21
-8
32
-29
1
-28
-18
7
12
-38
2
9
-29
-9
-20
-32
-4
4
2
23
-5
20
-12
6
-2
10
1
-10
-8
-26
-8
18
50
-11
-24
28
-6
-28
36
14
7
-20
-16
-13
52
-13
15
21
10
13
-27
17
-37
13
-11
-3
59
-28
-42
24
-13
17
-5
16
-25
22
-15
-22
14
-10
-22
-6
30
-6
10
11
-17
4
43
-29
-10
-32
31
40
35
-2
-9
18
12
13
-58
-8
9
-8
-14
-30
-6
9
9
0
-38
-10
30
-25
-11
-6
-25
-12
-1
8
7
10
-14
-18
-7
9
12
-43
-4
-6
-38
84
-38
-8
1
-16
3
17
3
-12
-19
25
17
-18
32
-9
5
1
23
30
36
6
14
-24
-16
-20
-12
-16
-6
39
-11
0
39
-3
-12
6
11
7
-20
-29
-26
-44
32
13
6
-26
11
17
23
-4
30
-28
-6
3
5
-3
30
9
-2
16
-2
24
3
12
-19
15
-19
-7
18
24
-11
-16
-25
-23
24
-18
30
-5
10
12
-9
6
1
-2
34
15
22
-29
-6
-13
1
41
-4
29
42
15
-16
13
-5
22
-7
-1
6
4
0
21
-27
22
-2
15
25
5
1
0
29
12
2
-32
6
1
-15
-13
25
16
-10
-32
-13
-24
-19
-7
127
-14
-27
-22
-35
0
35
-16
43
-11
-17
4
28
20
2
-7
-18
66
-27
-12
31
1
-18
-20
13
-4
1
-17
-34
-13
-8
-3
-6
-18
4
-16
-4
8
32
-26
16
-34
-19
5
-17
9
29
16
4
-39
-16
10
-13
-8
6
2
-11
13
26
11
3
100
-14
5
-16
-39
11
-21
28
-16
36
4
11
-14
7
20
1
-24
-9
-7
11
-11
-40
2
-13
-8
-26
-18
-10
-1
14
6
14
3
4
14
15
3
26
-40
-16
-17
-2
17
5
17
9
-33
-10
-29
9
33
-5
16
13
-15
-20
7
13
42
-20
5
-31
-13
-15
8
1
-29
2
-4
3
-3
-3
-15
-29
16
-26
-12
-28
3
22
15
-1
11
15
-36
0
26
39
-15
-1
-23
-17
7
12
17
-1
10
5
36
-10
-18
-14
-3
-8
-19
-24
13
-34
11
-18
-44
6
22
61
43
-9
19
25
21
-6
-26
10
61
13
14
9
-11
-1
-12
-1
-26
-6
-25
-3
-21
-15
-6
-15
-9
-9
10
-44
9
-39
-15
5
1
18
0
15
12
18
0
-21
-6
-19
14
11
3
-13
-3
17
19
17
-26
-12
-28
13
-18
-7
9
-29
16
13
11
-8
21
31
0
-19
3
26
-23
8
-2
-12
5
26
-22
9
11
4
-30
3
4
48
-14
14
-6
-11
28
-9
-38
-2
-20
22
-22
10
-5
5
1
-1
9
-7
1
4
-24
15
3
-14
-5
-29
-22
-1
12
-12
-16
-25
4
20
-6
6
-5
27
13
-11
22
26
23
-6
5
-25
-21
21
30
-6
12
26
-9
-7
-5
-10
2
22
22
-21
24
-3
-19
-23
-13
-3
-1
-2
-8
9
7
-12
-24
20
-20
9
9
-29
-26
-21
-7
15
-15
3
47
12
-2
-33
2
-27
16
-9
0
30
19
3
-19
-12
-27
-17
1
29
23
-31
8
4
2
15
-23
-14
15
-13
2
0
19
-19
-9
11
-14
-12
6
-14
-8
18
-21
-20
29
-23
2
-6
-12
0
14
-40
8
6
-47
-9
-11
19
53
44
15
18
-10
0
35
8
16
-8
-24
12
-42
15
-10
-2
0
-20
-3
-16
26
31
16
5
-34
-33
6
-38
-23
1
-19
-6
14
-2
-5
-3
-9
-1
-3
9
1
29
-11
8
1
-9
31
7
15
-18
-5
-19
-23
22
12
-28
9
-21
7
-33
-10
-18
-12
-21
3
11
-17
-4
18
22
-7
-27
-14
10
-10
18
0
16
-13
-23
7
-16
4
26
0
-18
18
12
16
12
-26
-12
10
-16
28
24
23
0
-15
-7
4
18
-2
5
13
-24
-16
9
-15
-14
-7
-11
-35
-1
42
45
-7
32
14
21
-26
4
-14
-10
23
40
11
25
-13
-55
-10
26
-8
-10
-33
-11
-18
-8
-37
-1
3
-6
-14
3
13
20
-5
-2
-14
-12
23
-40
-2
8
-20
-27
5
11
-12
-1
5
-12
0
4
15
-25
24
11
8
-21
3
-3
23
-33
-13
31
-16
-4
1
-15
4
29
5
14
20
7
-1
-31
5
-23
8
6
1
8
-19
56
-15
-18
-1
34
7
-6
-21
-29
-5
-13
-18
-10
9
1
-28
-5
-4
-14
1
-3
-1
20
-3
-10
-14
-19
14
-18
-10
0
-20
5
9
-16
21
8
3
12
-20
-10
40
-18
3
28
25
-12
19
-13
-28
7
-20
-12
15
9
21
-18
-7
-16
15
4
76
-3
2
-9
-27
-15
-30
31
-2
-7
-32
35
-8
13
13
-10
2
18
-21
-9
-14
-37
46
-48
-13
-41
-26
-29
-22
-24
23
-33
-23
6
41
-38
14
19
13
21
-10
-2
-13
-2
-12
7
-5
58
-32
12
19
-33
7
-12
-13
-23
58
-8
-18
14
14
1
22
-25
26
1
-8
24
-3
8
-11
-28
10
-12
15
-13
15
8
-1
-34
-24
-1
0
8
19
24
42
-4
9
18
-3
-7
-3
14
41
29
2
9
-23
-12
2
-4
2
-12
-12
19
-5
1
16
11
27
-30
10
8
-3
1
47
39
32
17
-26
-13
-2
11
-24
-1
1
35
19
-10
3
32
32
4
12
30
5
-9
-9
-17
-8
-16
1
-12
-41
-43
-9
-49
35
28
-4
-10
23
-45
-24
5
-32
9
-14
-25
1
5
67
34
20
41
8
1
-22
-13
-9
22
-11
8
0
28
19
0
-3
-4
22
-18
-22
19
-19
-21
11
8
-40
-12
-27
-5
2
-4
19
-10
-6
20
37
-10
1
-10
23
3
-20
-12
11
-10
-7
36
-11
3
2
21
30
20
-5
29
-15
-24
-1
-9
38
25
7
-31
-9
0
-20
7
-27
-1
17
-5
-2
-19
-19
-19
-15
37
-5
28
7
-5
-8
42
-33
-9
-34
-9
-36
-35
-36
-30
-11
-17
-68
5
13
27
-20
62
-59
-7
2
47
-10
-29
51
7
10
-2
-10
-8
-31
-34
50
17
-35
-70
-14
-13
-34
9
-10
-23
-30
17
-1
28
-23
-28
3
-5
3
21
-18
-8
-9
35
40
15
36
32
-38
-25
-5
-40
-16
25
38
-11
-36
-1
-12
4
-19
-7
-19
-4
-43
-21
-55
9
12
-14
10
-20
-14
8
-4
9
-30
6
-20
-12
-23
-16
7
-29
13
-17
52
10
5
-33
-47
-23
47
-6
1
-1
-10
-70
-28
37
28
-4
-21
-77
60
12
-78
20
-10
16
-44
8
2
-28
-16
26
76
42
21
-30
27
-56
-1
10
-25
-24
11
-57
31
38
10
-25
41
10
3
-21
-2
-40
44
-36
-28
-13
-3
-1
49
51
38
33
32
55
14
-8
16
-11
33
9
-33
-18
12
12
20
4
-37
20
-40
0
13
8
40
-39
31
-44
33
-69
48
-16
5
72
-20
-19
-33
-10
-19
-54
-45
-20
17
6
52
-70
7
8
-41
18
18
21
34
1
-7
-32
-6
-3
-21
30
-5
-39
-2
37
62
-23
-11
-1
23
44
34
53
0
-31
-17
-20
68
-9
41
-43
12
-13
2
24
17
-4
-15
-28
1
5
-49
-39
3
-2
-55
-40
36
29
-7
50
22
-22
-13
-14
-6
17
21
25
18
-36
4
-1
-8
-31
13
-35
-7
17
-22
-28
-42
30
-93
-30
-44
-41
-2
-58
19
63
22
-30
40
31
-17
-41
9
-33
14
62
20
-13
-7
-36
-26
-2
-6
7
-4
-5
-27
3
3
1
39
-21
-2
-3
19
-18
-50
-8
-30
24
127
15
-20
7
18
-8
-33
-3
-12
-3
-8
35
16
6
-6
14
-28
-21
10
26
17
-18
-34
-45
57
-40
-9
-2
-18
-56
-57
8
-36
-6
-40
6
22
-5
39
-33
29
-30
4
41
7
-28
-19
15
-22
92
-6
-17
8
18
-18
30
15
-26
-37
-45
-19
-43
10
8
24
5
12
-35
24
-1
24
-26
-44
-11
-2
-64
-36
-13
10
-48
6
-16
73
-15
-23
-8
50
25
-39
-63
-25
14
-45
-28
1
-38
-10
-1
-17
13
8
-19
4
-34
0
22
-14
7
33
-37
-30
3
-24
-12
-35
33
-5
-19
-23
43
-14
17
66
3
-35
1
21
20
-34
113
5
92
36
-30
-15
76
-7
69
-20
-105
16
22
-20
46
1
31
-16
0
18
-4
-29
31
12
-53
8
-37
-47
-10
12
26
22
10
11
-9
-2
18
-46
-17
5
18
-11
-11
-9
14
66
-45
-14
-38
-10
22
-10
-20
13
7
-3
25
14
-3
25
-25
-3
7
21
-3
-2
12
0
-26
-15
-18
-13
-13
18
-36
0
13
10
-19
-40
-45
-3
85
-42
-29
-25
-4
-2
0
-42
23
-12
22
-28
108
48
24
-11
9
-27
-26
-34
-27
-73
3
-13
23
-4
-30
-43
-44
4
37
-22
-17
-35
34
11
11
24
28
3
48
-48
49
-11
-19
31
-18
-13
30
-14
-38
-21
12
15
89
-5
-12
5
-15
14
-26
-10
-12
-4
-29
-45
-28
-1
-34
-39
38
0
-6
19
-49
-32
-12
24
22
15
40
-43
-20
-5
14
10
-13
-1
17
-60
38
-12
28
13
-24
-60
4
18
5
-25
41
-11
-15
-19
-9
14
-2
-16
9
-12
56
-2
-1
-10
-3
16
31
-73
-73
-3
7
41
1
-8
-16
-31
27
5
51
58
29
30
15
-12
0
-1
-10
43
-29
4
19
9
-10
35
-12
-33
2
5
81
-15
34
-35
-68
18
-18
-29
-20
-9
17
-11
-38
6
-12
-49
9
-24
-28
63
-7
-17
-3
14
-19
-32
-18
-12
-20
8
16
10
-60
-67
18
41
-5
24
4
64
29
-31
7
38
-9
-68
-15
3
-3
10
7
12
-43
-7
-21
8
-15
50
55
-71
10
65
-18
-21
-30
19
25
-62
-7
4
12
9
-21
-35
-8
-59
-11
-3
-24
18
0
-3
3
-12
19
-19
-9
43
-14
-15
7
10
-4
28
19
78
-5
37
7
12
31
-2
-57
-11
-27
-27
-18
54
-27
3
-7
18
-9
-59
-3
50
-36
3
-34
31
-44
-9
2
-27
41
32
1
-14
16
18
43
16
-17
-40
2
-7
20
4
5
-2
-38
9
16
26
-4
44
-9
-18
-46
0
-33
30
4
-13
20
9
16
30
8
-4
-3
13
-21
9
2
-57
39
-16
13
-10
-68
49
-14
-6
26
-26
-33
80
4
-7
-8
7
56
-8
11
-10
-6
-22
-13
-8
4
2
11
6
74
-7
-39
-40
40
-25
-60
0
-47
5
87
51
-47
19
62
-2
-33
-16
40
-10
-42
-37
-33
-36
14
-3
44
-8
-22
-53
59
19
0
15
-2
-18
-53
-50
-69
-21
-1
41
30
30
-18
-1
-20
26
-2
8
-43
-76
2
2
1
29
12
24
-60
-59
-18
14
-19
74
-54
28
3
-8
-31
-26
5
-70
-42
40
99
-40
-16
-7
49
-40
-8
-27
23
21
-12
26
0
-8
-6
-18
0
38
3
20
55
-44
-1
-21
49
-14
-1
0
-15
-17
24
-9
21
6
-15
-66
-25
-1
-7
-58
-3
37
-10
-43
1
-30
60
-30
-2
1
-24
5
-7
52
27
-24
54
-5
-1
15
22
3
-28
10
9
-29
58
-36
0
-10
-11
38
-20
-14
-17
-41
-33
33
21
51
-47
1
-6
59
-19
-2
-13
2
-5
-34
-4
-38
-16
-4
-24
1
56
22
-80
34
-6
16
92
-11
22
-47
43
-16
-44
47
-49
-34
-14
-31
-34
41
-17
-14
24
9
-26
13
-8
-3
-28
-19
-46
-12
-6
48
8
20
-13
40
-2
-39
77
-58
-20
-27
-27
18
-36
20
-9
87
-14
-18
29
-1
-4
14
-2
-20
-4
5
-4
-17
44
-46
-13
-17
-24
7
-42
-47
0
11
-4
62
-48
-27
-1
-48
-24
-17
-5
26
24
-6
-32
-23
23
14
3
7
40
-4
8
-29
52
-25
-13
19
-14
12
-15
-17
-17
11
-29
-27
-62
-52
-6
-16
0
4
-16
11
-4
-37
-11
-11
22
6
7
3
-8
-4
5
-33
-19
-4
-31
-4
-38
4
44
-11
15
-48
15
-20
-27
-5
13
42
9
-4
5
-63
46
-37
18
27
10
-23
11
-6
-42
11
-8
12
-13
-4
23
6
-11
-21
-23
20
37
6
-33
-31
15
26
-14
25
6
-5
-9
-12
-10
-12
-35
9
-14
12
12
32
-11
20
-23
-22
-10
-7
-17
-56
22
43
-5
43
16
12
-15
-2
-50
-6
5
-12
-34
20
-6
7
1
-16
13
-27
5
-31
-35
-11
-11
11
4
42
-14
19
-31
-17
5
-17
1
-15
1
9
-19
-20
-8
14
32
-46
-7
7
41
-34
68
-11
42
-9
-32
6
20
-9
-26
-10
24
-17
-15
26
-10
-38
15
2
4
0
67
-8
41
-23
-10
25
-31
-13
-16
-21
-3
-19
19
-1
-29
-18
12
-21
-2
30
6
-15
-23
-12
51
-3
11
-15
10
-1
-8
23
-18
6
-48
3
1
34
-27
-12
11
-3
35
-17
22
21
4
11
-12
19
-27
1
17
3
12
-37
-3
13
-39
-42
-31
-6
-9
-44
-32
-20
6
-28
23
-6
-9
-5
-4
17
-24
8
10
-10
-26
-17
-19
-27
22
-15
-26
-28
20
10
29
-26
30
-2
-8
-2
16
-2
-29
-2
29
7
-17
-22
8
96
16
-16
-38
49
-16
-1
56
38
11
-19
-22
-14
1
-25
18
20
-1
13
-15
-4
-22
14
0
8
-29
10
-16
14
-6
8
-20
-27
-25
-30
-19
-10
-10
-6
-32
-10
-14
-9
13
7
-6
0
-35
4
36
-18
-29
17
4
-6
-3
-27
3
-7
-10
30
25
3
40
-30
15
-5
-19
2
15
26
-21
36
-41
-28
20
-3
53
84
-23
47
-7
-22
29
-9
4
-20
-10
-44
7
-34
-27
-6
20
-7
2
30
-25
-16
-5
8
-24
4
20
-12
19
10
11
-4
12
-33
-17
-10
-22
35
-23
26
19
21
10
14
-27
-6
31
-3
-6
-5
7
55
28
-8
38
-41
-14
1
13
-17
-37
10
-44
-27
-22
-18
28
-6
-12
-36
-17
-7
-28
-2
36
-1
-8
7
4
-3
8
24
-27
-19
41
-6
12
13
46
-8
72
27
-7
-14
-12
-3
42
-18
11
-29
17
-11
13
42
-9
-46
-5
-9
-18
19
-23
65
-8
-43
0
38
101
26
-16
0
16
31
-29
35
-29
26
-16
33
61
-23
32
-3
1
-5
-10
24
-15
32
-5
15
16
39
9
-24
9
19
-30
-14
-7
5
-9
0
13
-3
-4
-14
20
12
3
-21
-9
14
15
-7
10
-3
-3
-16
11
-3
7
-21
19
-8
-2
-30
-33
53
17
13
4
-16
29
-1
21
-44
-7
25
14
54
-6
7
-8
17
11
7
-7
-7
5
-3
-20
-10
-11
-8
-6
-12
16
-3
-17
29
-42
-18
10
-2
3
-20
34
-24
29
-3
-9
7
0
59
0
-12
-5
6
-8
50
-14
-16
12
10
0
1
18
18
30
-23
-11
11
-33
60
-23
12
18
31
39
-2
-24
-30
-2
5
22
15
-11
-4
-7
27
-5
-22
50
-15
-5
5
39
66
-25
37
33
-2
-28
-44
52
-25
-11
5
-7
33
-7
7
6
23
-23
-51
-18
-23
-16
-16
15
47
-23
-5
14
-28
-26
1
36
27
-22
21
16
-1
3
-31
-33
12
-1
-46
51
-7
12
-23
2
-29
36
-12
8
-60
20
-32
-24
-31
-4
-32
-41
-32
-23
-18
-32
42
19
9
-55
-29
-31
116
29
14
-20
14
-23
34
2
-2
-24
16
10
-34
-28
11
79
-45
7
-54
-12
-12
18
22
-13
-65
11
-10
23
24
-14
3
-46
20
-18
-7
-13
15
-30
-34
-7
-19
-46
20
-6
-50
2
-34
-28
-7
72
-52
-1
27
9
3
17
-32
19
23
11
25
16
11
66
-3
2
2
-51
10
-21
-2
-2
-19
19
14
-30
-75
13
-19
-22
13
4
7
1
-3
23
45
6
17
-12
-2
-5
-38
-13
25
-2
-4
-4
-24
20
73
-3
29
44
9
-9
-2
-18
13
-25
-6
-33
1
-29
-1
-49
-52
26
-35
8
-29
3
3
3
15
-28
-8
-25
-11
2
-6
-66
10
12
12
34
-11
19
34
-35
-18
-19
10
-4
10
-10
1
12
-15
32
11
20
-3
12
10
-1
127
-5
-19
-10
20
-16
-20
0
-12
-23
-8
-1
3
5
16
37
8
-9
62
31
-35
-5
13
10
28
-6
-24
13
-7
-21
-12
-22
-11
-4
3
57
-12
8
-25
-15
4
4
-1
18
45
-2
4
11
4
13
31
-12
19
-13
12
-19
49
-11
10
-17
-51
-39
6
10
4
10
10
-2
-13
-12
-3
-30
1
-17
-6
-27
19
-7
79
-14
-27
-7
17
-13
-23
-15
-12
13
-35
-8
-7
-23
-15
-3
28
1
2
2
-20
-2
2
-14
9
-24
-1
-1
-8
8
33
33
-30
-26
-2
21
-28
-19
-9
-23
-43
17
-17
-22
-22
9
12
8
16
1
-24
31
-39
10
-36
32
-39
7
-3
-31
24
8
14
-12
23
5
9
-36
-27
39
-18
-16
-25
16
-14
-5
-10
14
4
-20
-16
17
27
18
-25
5
5
-14
23
-3
4
5
5
12
-16
-38
-20
-38
-20
-46
-6
-32
29
26
-22
7
-37
-13
28
19
29
-4
22
56
5
42
-18
15
-48
-6
36
-12
-14
9
-8
45
-22
-24
33
8
-17
8
16
-8
17
-20
15
-17
-7
26
13
66
2
-1
-17
7
-7
-16
-27
11
8
-44
-32
-8
-5
-22
5
-6
-8
-10
49
5
0
-47
5
20
39
-9
6
29
8
32
27
25
-14
-22
-27
-18
-21
-3
12
-2
13
5
47
23
36
-30
-14
-20
-12
0
-8
56
-15
12
-36
14
-24
1
-1
2
10
43
-12
19
-19
30
-7
-25
4
48
-35
-17
26
1
1
53
-2
-6
61
17
3
21
100
-4
-46
-14
-12
-13
-23
-13
-33
-5
7
65
5
-34
-9
1
-41
20
-16
15
27
-22
-10
21
13
-15
-59
0
-47
0
18
35
-20
-14
-24
93
-13
33
7
-1
-16
83
1
8
44
4
-4
27
-5
36
-36
38
70
-1
-12
-12
-3
54
-86
-21
65
-26
-47
-33
90
-33
16
6
-7
-23
-20
10
12
-83
3
-30
-21
46
-9
8
-4
-78
83
15
-9
-20
-3
-12
28
2
6
-4
-59
-23
-52
-16
0
-27
4
-19
-19
24
-72
-24
26
-18
40
50
35
14
16
-38
100
-6
24
-48
-6
26
-23
-45
-3
27
-9
-30
18
-5
50
43
10
-16
-9
-50
-25
31
17
64
-17
-50
-21
22
-21
-1
-49
-4
-38
5
-15
-23
-33
-24
-42
-8
-21
37
-30
49
-22
-36
-19
-50
-5
16
12
20
44
-22
-56
37
53
12
1
35
-4
-5
43
-7
-13
7
14
59
27
-5
-12
-57
2
16
5
-26
48
-19
11
24
40
17
7
108
32
13
45
27
-20
-10
17
22
-49
65
-34
-7
-4
90
-10
1
12
11
-68
-3
-21
-10
65
42
-26
-4
-39
-54
-31
-13
-32
