-2
0
-26
-7
34
-2
-5
-15
3
5
3
5
-6
30
36
-7
-4
1
-24
2
0
13
-4
-9
47
55
-6
-12
-14
7
6
5
66
7
-5
19
2
7
-21
-2
-5
4
3
5
4
5
7
1
42
1
-22
19
6
5
4
-80
2
6
4
8
-20
15
6
15
1
-14
5
-8
22
-4
5
-3
-21
-26
-3
-7
2
-23
-15
-6
5
11
-13
1
4
0
-5
-52
-23
-7
2
-2
-3
13
-11
6
-2
-5
-30
-6
40
15
-28
13
5
10
-1
4
6
-18
5
47
-26
-7
42
-19
23
-7
-10
-6
-1
2
-32
-28
89
-32
-2
69
-26
-24
-4
19
1
2
28
6
-5
0
13
28
6
5
-2
23
-2
2
-22
-9
-5
-4
35
1
-6
0
-18
0
95
-3
-1
8
20
8
-6
-9
-1
0
-15
25
-45
-33
12
4
-5
-16
-6
24
-17
-29
-22
4
1
9
-14
7
1
-5
9
26
0
-4
6
3
-3
-46
-14
20
-6
-2
-2
-127
-22
-7
-4
12
6
-14
-29
51
41
28
2
-7
2
-6
15
4
2
-23
0
-13
-23
-20
-3
-8
-1
3
-17
-8
1
14
-4
28
4
-5
13
2
0
-60
16
6
6
9
-7
8
-31
-4
-23
0
7
-17
69
18
-4
11
13
-15
4
-2
15
4
10
3
0
2
-10
-11
-3
5
-1
1
-4
2
5
18
-27
8
-17
8
-5
-49
-15
0
8
-2
16
11
18
36
-8
-12
-16
-3
-4
-36
36
37
12
-18
-24
-19
2
15
0
0
-2
19
6
-1
-2
-19
9
2
-8
-15
-3
7
11
18
-10
4
4
32
-5
8
8
26
4
-3
6
70
-14
1
9
-5
7
-17
-10
3
-4
-10
-11
8
-12
1
-13
5
-4
4
-8
1
-51
-4
10
42
103
1
30
-1
1
28
3
0
-12
0
-6
-4
-1
2
-9
24
3
5
31
27
-15
-2
-7
-9
-5
2
12
-9
8
12
-1
-1
-5
17
4
-4
-28
1
-5
-3
-13
-3
-5
7
-21
-4
5
3
-13
120
-10
0
117
-35
-13
0
6
3
-5
-25
5
-3
8
-2
2
12
-4
1
-5
-3
7
6
7
3
-4
1
6
-2
9
22
-29
4
-6
-2
-15
-10
-9
-15
-7
2
3
8
24
40
2
8
-18
-66
-9
12
32
-14
7
4
1
8
-2
6
-1
2
-4
-70
-2
7
12
2
2
17
-12
-6
-2
5
4
-7
-12
-29
1
4
37
1
6
26
-2
0
-2
20
-4
-6
-8
-21
-3
-7
-9
-5
24
18
-21
-12
-57
11
7
-1
20
11
14
15
-15
-9
7
14
4
-10
5
5
-2
12
8
3
0
-7
-1
3
-3
7
1
10
8
-24
-4
-13
0
-13
9
-2
5
-6
3
-8
0
-1
9
-2
0
4
1
-3
-20
12
30
5
2
1
16
-8
8
3
3
32
-23
-1
-6
-35
-5
2
-8
18
-6
-11
8
8
24
-2
2
11
-25
-4
-3
-4
1
-1
5
-3
8
-127
9
-4
3
-3
1
-10
4
-1
3
-3
13
-4
3
-47
-6
11
6
4
4
1
0
2
12
4
9
-7
-2
-14
0
-7
-11
-7
49
-7
13
9
15
2
6
-6
-32
-3
5
2
-7
20
1
-11
2
18
-33
3
-13
-7
12
8
-6
31
1
-10
17
-12
-4
-5
-3
-4
-12
-1
-1
3
-5
9
3
-4
14
28
-8
-1
-6
0
-25
-8
-27
-20
-18
-3
-9
6
-51
7
11
-6
-9
-2
12
7
2
-29
28
-1
1
-3
4
4
-2
4
-6
0
3
-1
9
1
5
-24
-1
-1
3
7
-1
-17
15
6
5
14
-1
13
1
1
-18
3
2
2
15
-2
-30
-2
27
-2
-8
-3
0
3
5
-1
1
-7
-24
-31
17
-12
-7
-2
-1
8
3
2
-5
-2
6
-7
3
0
-2
0
19
9
-4
-7
-1
7
0
1
13
96
-2
-7
-6
-11
-2
-29
-24
4
14
22
-3
-8
-18
38
-6
-7
-48
1
-14
6
16
30
-17
5
37
69
-70
57
57
-28
-10
-53
58
15
-7
-30
52
-23
-42
-59
22
-12
-3
-22
56
-27
-10
7
23
-14
8
-67
-7
27
14
67
44
-37
-45
48
-22
24
30
30
12
-37
0
33
-11
8
13
2
21
47
32
-38
-40
22
-52
49
10
-13
4
3
-60
3
-24
36
5
4
26
-21
-23
12
38
-8
14
-4
22
-4
-38
4
8
5
-28
31
-12
13
-7
42
5
-2
-34
4
35
2
-13
16
-83
-15
9
-3
39
1
-21
39
5
-5
18
-14
11
-13
-9
-22
12
37
14
-30
19
-5
24
-90
-46
4
-24
-18
32
-6
-34
-3
-1
-31
6
56
4
-17
-12
2
80
2
28
53
-26
62
-9
24
-2
-1
1
44
-35
12
-6
38
-4
13
2
11
67
15
-11
23
86
16
51
-7
-55
11
0
23
-21
41
-72
36
-10
-29
-75
-19
-2
-46
13
-12
-36
-20
-20
7
27
41
-1
13
16
-1
50
-70
37
77
-25
-1
38
17
-7
6
4
-11
-25
2
106
5
-9
3
-17
-40
-23
-6
-8
8
1
11
-8
-13
23
-20
-32
-26
-27
-24
-31
44
127
16
31
-56
-20
-26
-12
-104
15
-21
-18
14
38
11
41
5
-28
-26
24
-66
4
-7
21
12
-4
15
-9
-12
3
70
38
16
-20
13
-25
-8
14
19
17
-15
24
-6
-20
-26
12
50
-112
12
-19
-24
14
58
60
-30
-10
-21
38
12
4
-12
42
-14
9
43
-49
-19
-20
39
21
5
27
-10
26
-71
24
-50
28
-8
8
31
7
-30
-9
9
-7
41
56
-37
-26
0
-16
-9
-49
-3
-104
4
29
-16
-10
21
-12
-9
49
9
-19
-5
8
23
11
-40
40
3
-28
-1
21
4
26
-44
-12
-3
-12
-13
66
7
-10
3
-53
70
2
40
12
-3
20
-2
9
-37
33
-23
-19
27
7
15
-6
-2
-7
-21
-25
-2
-7
-2
4
3
-13
1
-4
-5
25
24
-7
5
35
-48
-9
27
-4
-35
-19
9
52
11
-43
9
25
-26
-24
36
1
-15
-3
9
7
-9
-2
-4
3
3
-1
31
9
1
-20
-21
4
-6
-9
20
-5
-8
-2
-24
2
0
-8
-36
9
-24
2
-30
1
24
22
-15
-6
-5
11
10
1
22
-4
25
25
-2
6
-13
4
7
12
1
7
-33
-21
-1
-2
-4
-6
11
-4
-18
-2
2
-5
11
-29
-42
-7
-20
-3
10
-6
13
2
16
14
18
48
4
-27
-14
11
19
116
-37
0
-4
24
0
-2
-23
15
18
-8
25
1
10
-7
3
21
13
-7
4
-7
44
-5
-5
0
6
2
-17
6
28
-2
-32
-4
18
-8
-6
1
-2
12
22
0
-26
-4
0
-3
46
6
9
-2
15
-22
14
3
6
-9
-8
-24
18
-12
19
-22
2
29
-13
18
1
20
36
10
-18
-15
2
-19
2
-5
-19
21
3
4
-10
-6
-14
-30
-29
-11
14
-8
-2
50
3
-1
2
-9
-5
10
11
12
9
-1
0
-4
-6
-10
-21
0
0
-3
11
-9
-23
-14
-14
-8
-23
-9
20
2
-6
-69
-4
7
-1
-12
18
34
-1
-7
-23
16
5
14
50
-15
-3
-4
-7
-7
-5
-6
-4
15
127
16
-1
1
2
-2
12
-24
17
-3
0
40
32
14
-2
-15
5
-8
-4
-11
-18
-9
-1
-2
-3
0
-20
-1
-82
25
2
-25
2
25
-5
-4
-50
-29
-3
12
-3
-2
16
-18
0
-11
8
-20
-1
18
-23
-1
-5
-1
27
0
-20
8
5
3
-2
-8
-10
-9
-30
2
-26
-15
2
10
-1
-2
0
12
22
-30
0
41
-5
-14
-8
4
0
0
9
-21
-3
-6
-4
-2
-12
11
-2
-16
0
19
-6
16
1
32
-15
-9
-3
-13
-7
4
2
-9
-6
19
5
-1
-6
-7
5
14
4
-6
5
4
0
0
23
7
3
-2
-3
5
-93
-14
3
11
-6
1
2
-60
31
16
-29
5
9
-1
0
57
26
12
-21
-37
54
-2
14
-35
7
-10
23
29
-59
6
-16
-2
30
8
14
-27
12
-5
-12
5
-2
3
42
-14
-9
24
29
4
67
7
-7
38
3
8
-30
5
3
0
8
-61
-5
-3
18
28
30
40
14
-9
82
-16
-8
4
22
15
0
-15
-4
4
-48
-4
-28
-37
-5
-8
37
17
-1
0
10
-4
-36
14
-32
-1
-2
2
-26
17
10
46
-9
0
0
11
-20
-119
-20
36
-7
-2
-5
73
19
21
8
14
36
2
5
-80
7
19
-101
-9
22
-55
-49
3
13
9
112
-33
-16
21
6
-31
5
4
8
5
-24
0
25
-55
-106
5
-78
-34
6
-12
5
1
14
-54
-23
1
-22
-19
8
7
-39
-10
39
-59
-5
18
2
1
7
-11
-10
20
-80
-25
-41
49
-3
36
-11
-51
5
-24
-16
42
14
15
18
61
-1
0
0
-13
-13
2
13
9
45
-14
20
-95
7
10
-9
71
-4
75
-35
5
11
-14
1
-43
1
3
12
10
15
-59
-13
1
5
9
-11
38
-37
4
33
-5
-15
8
-7
-12
-2
88
-2
31
1
39
-28
18
28
-31
6
-19
-7
-7
-70
29
-27
0
17
8
18
4
-1
42
-22
-4
12
-4
40
-13
47
10
-14
6
2
28
-38
-24
16
12
-7
-62
9
21
-24
7
4
0
1
54
-6
3
77
7
64
11
-4
10
-10
-10
-32
0
-6
-8
-10
6
3
-2
-1
-3
-5
-27
3
-28
-3
18
4
-6
-56
-6
49
1
9
5
5
5
-59
-12
-39
-2
79
18
-11
-6
20
81
3
14
78
108
6
9
14
127
-16
12
7
14
5
-55
-4
3
2
3
-19
-3
7
-33
24
-1
6
43
5
-20
41
15
3
-29
-1
15
6
1
13
-77
93
13
-6
13
16
10
3
55
-78
-9
27
14
8
-4
-92
5
1
2
-9
2
-2
-4
-6
0
-1
22
20
11
-9
8
-6
3
-10
-11
4
1
2
-74
-9
8
2
9
1
-1
-42
7
-11
10
12
0
2
-1
1
-4
-1
3
-4
1
2
-1
-15
6
5
-4
-21
-14
-52
3
-1
-7
9
-5
0
1
3
5
-9
-13
-24
-1
-12
3
-127
-16
6
53
-10
-20
2
1
-7
0
21
26
0
-1
-34
5
2
-9
0
-2
9
-8
-2
-1
6
7
-6
1
7
-2
0
21
-3
-9
11
-2
-4
2
1
0
6
-17
-2
4
4
62
2
11
8
-13
5
-59
4
1
0
-12
3
11
-11
-11
-10
-12
16
0
2
1
10
-15
-18
8
0
-9
-19
-4
-1
6
3
1
19
-9
-18
-2
-7
-40
-8
-5
-1
6
4
2
-13
1
0
4
3
-1
7
3
3
-19
-14
9
-4
-3
0
-38
7
-5
19
-2
14
-6
0
7
-4
-15
-1
-6
-14
77
3
-3
4
4
4
0
-20
-20
-2
2
3
8
21
-27
-7
8
-42
-3
5
-2
24
-12
-10
-1
-1
2
9
32
-1
0
-7
-1
4
-24
1
2
-2
1
2
-10
-13
-7
-9
2
20
2
8
-15
-3
-17
4
-4
1
-6
-5
-4
-6
-4
9
-16
1
-4
-28
1
-6
3
4
41
11
-9
5
10
-29
-12
26
-1
-3
6
-3
11
4
-2
-2
4
-11
-2
2
2
-17
20
0
12
5
6
1
1
-1
-37
2
-1
33
24
-3
7
2
-5
-6
-12
-21
-14
-1
-32
5
-1
-1
14
-2
4
0
1
1
0
22
0
1
2
-17
7
7
0
-28
-1
0
0
-5
2
-11
2
-10
-6
1
-15
-19
2
1
-2
11
8
-4
1
-1
-9
5
-16
0
7
-1
3
6
0
0
-1
-3
-3
-14
-6
-96
-7
1
9
1
15
17
1
-1
0
8
-7
0
0
0
33
-10
-1
-13
0
3
4
0
3
-5
-6
11
-1
-36
-1
-8
4
3
8
-5
25
2
2
-3
0
3
3
-14
14
12
-29
6
-3
-8
12
25
4
1
29
-4
24
32
-2
11
-5
4
20
-2
-42
11
4
-13
0
18
-6
1
-2
1
5
-6
-2
-1
-1
6
-29
0
-6
11
-6
0
8
49
-7
3
2
-7
0
-7
-8
11
-11
1
1
-8
10
-6
-17
18
-31
7
3
-88
2
-28
72
7
-1
6
2
-6
6
9
-2
10
-7
8
0
-16
0
-13
4
-24
2
0
-17
5
-10
-14
28
12
-1
2
2
-3
47
6
-8
-20
-11
4
-1
16
-11
5
-20
-3
1
0
-27
-29
-4
7
-25
-40
-50
-10
7
28
10
8
-12
-3
-20
8
40
-5
-2
-2
-20
1
2
23
-2
13
3
-14
4
-13
15
-1
-1
33
-6
-13
0
3
0
0
2
3
7
-9
18
-2
39
27
-4
4
10
-41
11
-3
8
21
-8
2
6
6
49
10
-7
-8
-43
-12
3
-9
-3
-1
3
-67
-12
-20
0
8
-4
43
8
25
-8
18
-5
10
1
-8
26
5
-5
0
12
2
27
2
-8
-3
1
-6
19
-14
-4
1
-3
4
-3
56
3
-8
-4
-4
2
127
-16
-9
-22
-29
-3
-9
1
3
-1
-19
-6
7
-10
-3
-11
-9
29
7
-1
1
24
4
8
6
4
-15
-28
5
1
2
-10
-16
8
0
-3
-3
31
-25
13
1
4
-9
-45
4
-1
35
-2
-3
3
1
2
40
29
20
7
9
10
-4
-3
12
-22
47
-4
33
-11
3
-2
2
-15
3
-1
-10
16
-4
-1
1
2
3
2
-2
-3
-20
6
23
8
0
-1
21
-2
14
1
14
1
5
16
-34
13
1
-11
13
8
6
2
1
-19
22
-18
2
-39
-4
17
5
3
3
-3
-2
-20
-16
15
22
-17
7
-1
1
-5
18
8
-1
4
-3
-8
-2
6
-2
-27
15
1
1
3
-12
4
-2
-12
-13
-2
-6
-12
-53
3
23
1
-2
-15
46
-65
8
8
-10
-3
0
74
4
8
36
-25
-20
-8
13
-40
-23
7
-17
57
14
45
-62
-33
5
23
43
-8
-31
54
-6
0
-47
-1
-4
-113
6
-7
29
15
-9
4
-9
-10
2
-38
22
50
29
-8
1
6
60
12
13
-4
16
-23
15
22
-9
-39
-46
-37
17
24
2
-5
-127
-6
-11
2
-7
13
-33
27
-1
-2
-19
19
-28
-3
-20
-1
62
-9
-4
5
5
-15
53
40
-92
1
-6
20
-18
55
8
4
50
-16
7
6
-7
50
-46
-14
-43
-22
-4
119
-46
-23
-1
2
-19
4
5
58
-43
37
47
33
-18
-43
71
11
-82
3
-89
-7
8
-2
0
11
-70
-5
7
30
35
2
69
33
-55
21
77
15
-6
-4
1
-15
1
-87
-1
-2
-27
-24
8
2
-29
-10
-28
107
-20
24
9
1
6
-4
-29
28
36
28
102
-27
-19
-26
7
-72
-7
-21
-22
13
8
-18
10
-4
-20
0
-65
21
-50
-7
6
2
91
83
-52
16
-26
10
-18
-122
96
-66
22
0
9
-12
-1
28
2
-4
49
10
11
22
-16
-4
-2
-2
-12
56
34
-2
-12
-21
35
7
-67
9
3
95
65
23
-9
-12
-22
-68
-33
58
12
-26
-12
3
4
-21
-7
-4
-39
25
17
-13
-7
-14
4
-80
-7
9
-16
13
69
-53
-6
8
-1
46
-2
-30
2
34
-23
48
7
17
34
8
-2
5
-4
92
-59
5
25
-81
-16
-60
-11
27
23
-82
-38
44
-21
-68
14
1
9
0
0
-3
-7
20
-11
-49
62
14
6
-16
-44
-21
66
8
-51
-2
6
10
-30
-19
21
-9
-50
18
28
-18
10
-53
2
-1
1
-67
10
-64
24
3
-12
0
6
-28
-9
34
0
-2
2
-5
-4
29
-8
26
19
51
-11
-38
-1
6
78
6
5
-44
-6
-1
-3
0
13
49
-25
11
22
66
9
7
-7
-28
-43
0
39
35
33
-6
-70
14
3
0
-4
-58
3
-24
8
3
1
-14
32
-27
7
1
-12
-4
19
6
-9
-10
-4
13
14
5
-52
0
-15
26
34
18
-31
15
-61
1
17
-3
53
24
-5
1
-6
5
0
-7
-9
0
-4
-43
21
-66
95
-3
17
-11
1
-6
20
-18
0
32
8
14
-25
1
-10
-13
9
19
-19
-8
-17
9
-2
7
-24
3
-34
27
3
5
-2
6
1
-36
-16
-3
27
5
8
-5
0
6
-24
15
-36
1
-2
-2
-14
-24
-20
1
-10
-7
6
-17
10
-32
19
17
-81
-66
3
3
-19
3
2
-40
-18
4
2
21
26
21
-3
12
-2
27
-2
4
19
10
14
5
0
30
11
-7
6
0
-1
-40
6
1
-21
-13
-6
0
15
0
-25
-18
-11
-22
7
31
-11
1
-12
-11
7
4
-8
9
14
43
37
-1
-23
4
7
7
-27
-28
16
17
-43
11
8
-13
-13
62
23
3
47
-16
-10
-6
17
-19
2
1
127
16
0
-4
-5
-7
-59
18
74
7
-6
0
1
9
118
-23
-22
1
-1
4
-12
109
-2
2
-9
-5
2
-7
-11
-11
-1
5
-4
32
-26
18
-18
-5
4
-3
9
5
-12
-11
36
10
-3
13
-12
-17
2
-36
-1
-34
0
17
-5
-33
-4
4
-14
5
3
9
-5
6
-23
83
-44
0
-3
10
16
11
0
4
-8
-29
22
8
28
1
-33
-6
3
18
-66
-7
0
6
-7
2
-9
-18
18
-13
-4
-9
-2
-5
15
76
-64
-5
-12
25
-4
-6
43
7
3
5
10
-4
0
-50
-4
39
8
-10
58
-2
-86
16
-13
2
0
2
10
-18
-10
13
-27
4
6
42
-8
-20
6
2
12
-40
-25
-40
12
18
11
17
7
3
0
9
9
10
1
-8
-6
54
6
-12
5
95
3
26
7
7
3
17
-1
27
-12
11
-6
3
6
-9
11
-1
11
42
1
-1
7
-4
4
9
8
-9
77
15
27
3
-5
-5
5
-9
-2
2
-6
-2
1
11
10
12
-6
2
7
-6
1
-69
-3
-2
-2
12
3
-14
-16
-1
1
-11
16
5
6
5
-1
-3
8
-3
4
-8
4
-6
13
5
-5
-2
3
-1
3
9
10
5
2
6
5
7
19
-5
-6
-2
0
1
6
9
8
-2
-14
5
7
10
2
10
15
7
1
1
13
3
-14
-8
-7
0
-13
-7
3
5
11
-5
-1
-10
-4
-1
-6
-4
-1
12
-17
-5
-5
-7
-11
-33
3
16
-3
-5
16
3
2
-9
13
-3
-1
1
-1
27
-3
7
9
29
-12
3
-4
-15
3
-9
5
-2
8
-7
-127
-2
-11
-1
-44
11
-1
12
1
-9
-45
3
1
17
-1
2
2
-12
-14
11
-5
11
8
-8
2
-4
10
0
1
-5
3
3
3
0
-1
-5
12
-12
12
-6
9
7
1
4
-1
8
0
-1
5
1
-9
-20
3
-11
-5
12
-2
-5
3
-2
-17
19
-2
-3
14
-26
5
-4
3
-2
7
-21
18
6
2
-9
4
-8
20
6
10
0
1
-2
-11
-6
3
-3
-14
-1
-6
-1
1
-3
-5
-2
-7
0
11
1
4
-10
-7
0
4
3
1
23
-2
-42
-5
8
-5
-10
-4
11
-2
8
-7
10
-20
9
22
-5
-7
-3
1
12
-2
38
19
-9
-44
4
4
6
-3
16
1
0
0
8
-14
-2
12
3
-4
0
1
1
14
7
-1
9
-4
4
1
11
16
15
-1
-2
-6
-4
8
2
7
-1
-3
-2
-12
0
-26
-9
1
-1
6
11
-6
9
0
4
-1
-9
8
-2
19
7
6
-3
0
0
-26
-10
5
-8
15
1
16
-12
-1
4
2
10
-10
-2
2
13
4
9
-5
-9
0
0
2
7
1
-6
-3
-3
0
-19
-15
4
6
5
-3
-1
3
3
10
4
-1
-9
5
8
-4
-7
4
-15
9
4
3
-10
3
12
-3
-5
-28
-7
3
-3
-2
-7
5
7
-4
16
10
-23
0
26
12
1
0
22
-17
0
7
2
-3
-9
4
-12
-76
16
-18
-19
12
-6
9
-28
1
2
-5
9
-6
53
-32
-1
-7
8
-3
12
8
-6
12
0
-3
2
-17
-14
-13
16
21
50
-16
19
-10
21
0
10
-2
-12
4
-4
32
2
31
-5
-9
-53
22
21
9
-51
20
25
-7
2
-3
7
-3
29
-4
0
9
9
-28
4
-5
-2
33
10
4
-4
1
-1
-7
43
-43
-1
-1
6
-7
-25
25
17
12
15
6
16
-2
-32
-29
-1
-6
-93
-4
1
-27
-3
-2
-62
8
0
6
25
10
39
21
2
46
21
-5
-4
-25
0
19
2
33
27
2
15
21
-2
10
-8
-4
0
20
11
-3
6
8
-21
0
-7
6
5
5
7
5
-1
-14
-17
-4
9
-32
-3
12
0
-14
-4
-9
-1
-2
-5
13
3
-20
-28
-11
13
-5
33
25
4
-3
-9
-9
-127
6
2
4
15
7
-1
21
-21
-5
4
11
-1
33
52
-13
10
-10
-30
0
14
-2
-36
22
19
7
-5
-8
37
-5
-1
10
5
-2
-10
26
-3
5
1
5
-9
-15
27
1
-13
-20
9
-17
28
-2
43
-16
27
-7
-3
-9
-47
2
43
31
7
-4
1
27
-7
-7
-2
-12
-63
8
7
1
26
-18
12
5
4
5
-17
-11
-2
-8
10
7
1
19
-4
3
0
2
-6
5
-8
6
9
3
-17
1
44
14
11
44
-10
3
8
-4
14
24
43
-16
25
13
7
-5
-1
-5
-5
1
-6
-19
26
-2
4
-14
-8
-1
-4
-13
-9
-7
1
22
6
0
6
0
-11
15
-11
14
8
-11
-4
15
13
1
-9
35
14
-6
2
4
7
3
-24
8
23
8
-29
-13
0
3
7
0
0
38
-15
36
-7
6
-14
1
-26
12
-10
4
11
-13
12
7
1
3
13
-9
4
7
-8
11
2
6
10
-67
5
3
-1
31
1
-7
-4
3
-6
13
83
6
2
-1
0
-2
-11
23
4
-30
-21
6
-5
4
30
-24
-5
-13
2
-17
7
7
-10
-6
-11
8
9
-28
-90
4
1
-5
5
-12
28
-1
6
-3
4
4
0
-8
0
-5
19
8
3
4
8
3
5
4
5
27
-2
2
18
14
-7
-2
9
27
13
14
-9
7
-2
-4
-127
-6
-1
18
7
-1
-32
3
-1
2
4
-2
-23
14
4
14
-17
6
0
20
5
0
8
-11
-2
5
-9
-12
-11
7
13
-3
8
-12
0
-7
-22
26
-12
13
-12
0
-10
-38
25
8
14
-5
-1
4
-49
11
-7
20
9
-33
74
11
-2
52
-3
2
25
3
-15
12
36
5
3
7
-10
-2
-1
11
36
2
14
15
6
9
15
1
1
-10
15
-26
3
8
6
7
5
-9
-6
-11
13
25
-21
88
16
-2
25
-28
-6
12
-11
-23
-16
17
0
24
8
0
-2
10
-12
-10
-10
-4
-3
14
3
-5
11
7
0
10
9
21
-1
-17
-21
-5
36
1
-19
-12
45
41
27
1
-1
-4
2
5
8
13
5
-14
27
4
2
2
7
-1
45
47
2
-5
-3
-6
0
-15
27
2
35
93
-21
6
29
-2
2
4
-8
4
15
-4
25
-8
34
-8
4
-23
15
-9
1
-4
2
17
29
39
-5
-12
80
6
-1
1
10
5
-16
60
5
1
8
-19
-19
1
19
-16
-3
12
6
-4
19
41
-62
5
33
2
34
-3
6
1
23
74
14
9
26
-21
5
34
-28
2
9
4
19
-3
2
-14
11
8
-4
44
-16
4
9
14
-11
5
-2
-18
-9
-3
-2
-8
12
-17
-1
-4
-5
-1
-6
-14
-6
-41
-11
3
27
7
0
11
4
-7
55
2
1
3
1
5
-30
-9
-8
-59
-3
0
5
0
6
-14
-1
1
8
-3
-8
-1
8
3
-44
22
7
-7
-15
-13
-7
0
-7
-35
-2
-3
-3
84
1
-6
-6
-3
-9
-4
-32
-2
4
1
-2
0
-39
1
8
25
-15
11
2
2
52
-3
4
-2
-13
3
-41
5
-9
2
8
-2
-13
7
15
9
-2
-12
-3
-9
11
6
4
13
-1
-3
-5
0
18
4
-19
-10
-9
-21
12
-1
5
-1
8
13
-1
2
0
-11
-5
-22
-13
6
67
11
-5
24
8
-27
11
-8
0
12
-3
2
-47
1
1
7
-3
25
7
2
9
22
24
12
-1
5
-3
-2
7
127
-5
-6
-38
0
5
-6
15
13
1
5
14
2
28
-31
21
-15
12
14
6
12
-12
8
16
0
4
-4
19
-4
8
-16
18
0
13
6
-4
21
-4
-18
-15
-47
-15
-15
25
-45
-3
-2
0
-10
2
-2
8
16
7
25
9
9
-8
-1
-2
15
12
0
-1
13
-13
-10
0
-2
2
-1
13
4
-12
-6
4
-5
3
3
11
-21
66
-3
-20
-2
24
-6
-10
-4
10
-9
17
3
-21
4
-24
9
-3
-3
-1
9
13
3
7
-17
0
1
-85
26
52
-1
-57
17
-22
-18
10
-3
-1
-13
18
3
3
-17
6
9
36
10
-5
-2
7
5
5
-27
3
-7
-2
-4
4
-1
5
-2
-12
-17
-82
5
4
-9
77
23
1
8
18
3
24
-58
-12
3
4
8
13
-1
15
-4
-10
-4
6
87
7
-30
-7
22
25
2
0
5
15
-19
8
1
3
4
-26
-2
-16
15
1
4
-3
-5
-22
4
-3
-13
70
2
13
3
-13
0
2
-19
-22
-19
86
-6
-7
-1
-3
3
3
-22
-12
3
15
-16
-16
3
-7
3
10
12
1
18
-5
2
0
32
0
34
6
15
6
0
-10
-19
-6
-1
1
-10
3
3
-3
-2
22
-1
19
1
2
2
15
-3
7
-4
-4
-3
23
-9
2
52
15
-4
-9
7
10
-10
-5
2
-8
6
-21
-4
-1
0
-52
29
0
5
-4
16
9
-1
2
11
-6
-14
-2
43
-4
22
-7
-4
2
20
15
4
0
1
-6
-5
30
53
23
32
26
-2
-6
-6
6
-14
8
8
14
-11
-24
97
-21
2
37
30
-37
7
-14
10
-2
-21
0
18
-23
9
-5
9
-2
-5
1
-19
-18
7
127
15
-18
17
-6
-4
16
-44
6
32
2
6
24
19
-24
-11
23
-15
14
4
-4
2
20
-14
-67
-1
1
52
10
-8
23
-2
-1
-17
-3
-20
30
-9
-6
56
-26
5
1
-6
5
20
15
4
1
-5
16
-13
40
11
-12
-47
4
23
6
2
-31
-27
28
26
-23
1
43
52
22
16
38
-9
5
-1
-19
56
33
-3
33
31
17
32
6
25
-11
-44
-27
14
-11
1
-42
-6
1
2
9
19
-2
0
42
-54
6
22
11
3
-29
3
-7
12
-13
15
-3
-17
-44
9
6
-11
-12
-10
45
-52
-9
17
7
1
5
20
8
10
20
3
-25
-7
-4
-3
88
-2
-11
31
4
20
-18
0
16
-7
-2
61
2
-34
-2
11
5
35
33
32
-10
33
26
8
-30
-64
-10
22
4
7
1
-6
-39
6
-7
-8
4
-2
-11
59
-5
1
-1
-9
-110
-3
13
-11
-1
37
7
25
9
5
55
-93
13
-8
-5
-9
-10
-3
-18
8
3
-7
-14
7
18
14
1
-6
8
-4
-16
-9
0
7
54
-2
-8
-24
-96
49
9
2
1
3
-48
-8
-9
10
8
12
-10
1
34
2
15
-2
8
-1
34
-6
-29
14
-6
-14
26
-8
49
15
-29
16
49
9
-20
-4
1
13
22
-5
6
17
6
-5
-54
-8
5
5
-12
5
-12
40
3
-6
5
-1
4
-21
3
16
-12
-33
28
7
-2
10
-21
-1
-2
17
-21
1
-1
9
22
-10
-3
11
52
-2
51
16
-1
3
3
-4
-47
6
6
37
-21
-6
2
2
-3
-46
-1
0
-22
1
-5
3
-2
6
-10
21
8
21
-12
7
-23
1
10
-29
12
20
-12
-10
-7
-34
-17
0
0
11
14
7
-16
14
6
4
-7
-37
-9
23
-36
18
7
10
-21
-15
-14
12
6
8
-9
80
-3
0
-5
35
4
-14
32
-20
6
13
-5
48
36
2
4
5
6
4
-10
30
5
-5
45
1
-54
104
-1
22
19
-61
-3
15
-3
7
-7
22
1
-4
2
14
9
-1
9
-20
-22
3
127
-16
12
24
3
-4
8
1
-8
12
-5
-2
-50
0
1
34
-7
15
-2
-9
5
-10
-8
27
0
0
-3
11
24
-7
-1
33
-1
3
11
-6
15
-4
0
84
-53
-6
-2
44
-11
1
-33
-31
5
-1
16
-27
14
-13
-14
-8
-36
-66
9
62
11
19
11
1
18
2
9
-14
1
-7
-31
33
-6
8
-6
25
-10
18
-5
-6
-5
-2
7
-60
-82
20
0
33
4
-6
-6
2
-11
2
13
-13
4
-64
10
6
14
43
-3
-22
8
-74
1
2
40
-43
16
16
-3
37
-9
-52
10
-16
20
-1
5
-8
-2
62
-8
5
-6
32
13
-83
12
15
-7
17
0
-92
2
14
-10
-3
-12
2
-38
5
8
-28
4
5
-5
18
-2
2
3
-5
-36
-38
19
2
14
5
-5
9
1
-4
9
85
13
7
3
5
20
-4
-61
4
-35
-3
8
7
-50
-23
0
5
0
-3
-3
-1
26
-30
27
-45
0
-8
107
5
8
-4
-1
-1
36
16
32
24
31
2
-10
2
-12
-32
-14
-1
-8
4
10
-85
53
31
-36
0
20
-2
-18
12
-23
-53
-52
-20
28
2
11
57
50
-1
-3
10
3
12
-20
-3
85
10
1
-42
-14
-51
22
3
5
2
1
24
9
31
14
-34
-2
3
33
-32
34
2
-47
-11
-2
21
-31
6
19
-16
17
8
4
-6
-49
-3
8
-1
-9
-11
8
-12
39
79
-46
4
20
5
10
-3
11
-1
22
-7
23
2
1
1
-16
20
1
19
-2
17
-9
3
41
30
15
3
-5
-3
11
30
9
-1
14
-9
28
-7
4
-16
-2
-3
22
15
18
-15
-25
30
-3
7
-52
-65
-3
19
33
0
13
-5
31
5
-5
-22
49
34
-13
41
3
26
-4
-4
47
-7
5
-1
-3
3
-1
30
1
-8
5
-35
-6
12
-17
11
-33
-22
5
19
6
3
3
-31
-36
-6
14
18
8
26
4
-41
-49
57
-24
10
1
-21
-10
9
55
-3
-4
45
-18
15
-8
12
4
-76
-47
22
1
-28
3
3
12
36
7
1
8
-6
-37
-14
2
18
-9
-7
2
-3
12
10
-23
-14
44
-4
-78
48
19
3
-48
21
-3
-9
21
23
-3
-45
-25
-23
21
35
-3
55
0
0
-29
17
-6
4
-10
27
-4
-7
-2
9
0
16
-71
127
-17
8
-39
-35
3
0
11
-3
-7
-19
-4
1
0
-7
0
52
6
-23
-62
-2
-15
-39
2
-6
9
19
-5
18
11
-51
6
7
11
10
-13
-5
0
1
-75
-8
-8
-14
-25
-2
-5
-14
-92
37
0
-9
6
-32
14
52
-11
3
-58
6
52
40
-30
-11
-18
-7
12
8
2
-1
-5
57
-3
-16
24
-2
1
-3
-4
6
36
68
-22
12
-1
-28
-13
-49
-28
-2
-76
73
89
0
-40
22
-105
22
-4
-32
0
3
-1
-33
8
66
-3
4
-8
-21
-23
1
67
-20
6
-20
-8
-8
-1
-31
22
0
-14
-7
-90
26
-47
3
8
13
75
-12
-67
-21
-17
7
-7
2
20
9
-14
-32
110
1
25
5
1
-8
-9
12
-16
-16
-86
3
-10
17
-10
-3
-1
4
-32
4
25
11
12
-10
13
-5
0
-11
4
118
3
-7
2
11
-2
12
0
1
-20
-27
5
-33
1
-2
7
8
-27
-5
109
-14
-23
5
25
-6
-24
-9
14
14
5
-12
-6
-1
38
102
29
-50
20
-1
-3
-5
-2
-30
12
-3
-3
1
-19
-11
-6
-14
-68
43
-7
-16
4
-11
-7
1
-4
70
-19
-17
1
-33
8
29
25
-1
1
7
56
3
19
-13
-1
0
-34
-1
16
-16
2
-9
-11
6
7
6
20
-15
27
-6
37
-5
-18
-14
14
22
12
26
9
-1
0
-1
6
-20
-15
3
1
17
6
3
3
-49
-5
-16
18
34
45
-42
3
5
6
-5
-11
-7
3
17
-1
23
21
-5
-7
5
42
23
-10
-3
43
13
65
2
-2
18
4
-16
13
0
4
5
23
-12
5
23
-8
1
6
6
-4
4
-21
-16
-23
41
-9
3
-24
-13
-2
9
21
-22
-1
0
-4
-4
45
3
-22
12
-14
-8
9
-9
11
-6
73
26
-4
3
-39
9
-38
12
-2
-12
22
62
-1
-25
-7
-30
13
-25
-7
8
-26
95
-12
7
20
-8
-2
-55
1
-4
0
-19
29
-5
-9
1
-16
22
2
-54
0
16
18
14
0
-12
4
16
2
27
-12
-57
14
2
-5
13
14
7
2
-18
-7
7
-43
4
-35
-4
4
21
1
-43
-2
-58
-20
-1
2
26
2
-26
6
6
4
9
-5
74
44
17
66
27
45
33
67
-48
4
1
-11
5
-26
3
-7
-6
8
0
10
17
2
6
8
7
-47
37
1
18
-14
14
3
-23
-24
6
45
31
17
2
9
-19
127
-17
-5
4
-57
0
12
-74
34
13
0
-2
-16
5
1
2
-28
9
-25
-92
0
5
18
13
15
-8
8
5
10
-26
1
-4
1
-33
15
8
-30
9
1
0
-8
5
-18
7
43
8
-110
-17
11
-4
-7
14
-11
75
13
26
-22
8
3
-42
-25
-4
-12
-19
24
-1
-1
9
8
3
-27
18
-13
79
8
6
-15
3
3
-5
-12
19
-19
37
14
-26
-9
4
-37
4
39
-41
-9
13
-64
3
2
12
-34
4
26
10
13
2
0
5
6
-16
84
-74
5
41
15
-18
2
-4
-10
39
6
4
17
-3
-25
14
4
1
-26
7
3
-1
10
11
-2
1
-4
-56
-2
24
24
-34
-3
-19
-13
0
15
-5
24
-1
-14
-6
-6
-7
27
-21
-27
-10
2
-27
9
-11
79
45
-2
17
-72
40
32
6
24
7
5
-28
10
29
-9
42
3
10
-4
4
43
-12
-3
-10
3
3
0
27
6
6
-19
-26
0
-21
15
6
10
-27
-8
-87
11
-14
8
-21
22
16
4
5
-57
-1
47
9
76
30
9
6
1
-3
-6
9
-65
-1
8
42
-1
4
13
-2
1
-19
-6
-24
3
1
9
-40
-30
-60
-8
0
52
1
-9
-39
-21
0
-11
-1
-20
16
-79
79
7
-2
29
5
-72
-22
-61
32
-60
-45
3
-6
-19
7
-7
4
-58
-29
-17
6
1
19
25
16
19
42
6
10
-3
-34
8
-13
-16
-11
6
25
23
18
0
-5
-13
-13
5
-6
4
-21
-1
-1
1
-7
-23
7
-2
27
12
17
3
-12
37
19
1
1
-21
17
-10
2
-61
-49
62
4
38
-16
14
1
5
1
47
20
5
14
-16
3
3
5
-6
7
3
-10
-9
-37
-71
-26
103
-33
-17
0
86
-12
64
-16
-14
-6
7
0
-3
-2
-3
77
-9
-1
-69
-2
6
-7
-6
5
13
22
5
-4
15
-30
3
56
1
-4
-59
18
-62
4
0
-6
9
-16
21
3
-4
8
-5
127
8
-23
3
55
-116
17
-4
8
10
-6
15
60
-4
5
6
-39
-27
11
-5
-11
8
-8
116
2
-16
12
35
-5
16
6
6
-15
11
-6
33
-4
3
-25
-66
9
-1
4
-23
-20
2
-18
2
28
-5
9
0
18
21
0
8
-17
3
-4
16
-15
3
5
2
43
6
-30
-1
-34
0
-9
-5
-28
9
-80
13
-7
-12
-12
18
-2
11
5
-16
4
65
-11
34
4
-43
18
19
-4
-38
-5
-23
3
-12
0
-5
0
0
29
-20
-24
6
7
21
5
11
-29
-6
-5
-6
8
-11
-10
0
-4
99
-69
-9
-24
0
-9
-2
3
-8
60
-18
-5
5
-9
-1
12
7
5
31
-21
-73
17
62
-35
3
-13
29
50
25
2
-16
10
-33
34
-9
9
45
-8
83
4
23
-41
-10
8
31
11
-6
-33
72
-35
9
67
12
40
-53
7
0
-2
0
-22
17
-14
-23
3
0
-12
90
-18
3
15
17
-16
22
0
-9
5
-42
10
-6
9
43
-1
-32
8
44
-36
-25
58
-33
12
14
-37
1
63
55
-2
-14
2
-14
18
-8
-13
-22
60
22
-13
14
-24
-9
97
8
-83
12
-3
-27
10
-34
1
-28
19
42
21
-20
22
-11
37
77
-4
-56
5
-57
-31
30
-74
11
58
-23
-3
62
-29
47
23
21
-23
10
-13
-11
-18
-31
24
-24
-3
-9
-11
-9
31
32
-4
127
78
10
8
-19
11
21
-10
29
12
15
3
-22
-7
-20
-18
13
-5
-31
22
-1
-7
-6
1
24
-28
-7
76
6
-9
11
3
65
-60
-30
-95
-53
-3
2
-28
1
-19
20
-22
11
-20
4
10
-30
-29
-2
37
-7
3
12
4
-14
69
45
-47
-63
42
-24
47
92
36
-64
39
-22
0
-3
-10
21
4
-39
20
4
-31
84
9
-2
-9
-7
-7
-5
110
-57
9
1
-15
1
36
35
13
57
23
34
-20
-16
-23
4
1
69
18
-26
-19
43
-34
-2
15
-25
-17
23
-21
25
9
-1
2
21
-103
0
0
-15
3
29
-9
-1
-15
-33
28
52
-25
-13
36
-42
-4
-9
48
9
2
-4
9
-24
-7
16
74
-10
9
-24
-28
58
-49
79
-77
0
-40
45
38
10
73
33
-28
-19
1
-12
-31
66
3
-79
-17
-2
-72
-22
74
3
6
-5
7
22
3
18
12
-58
20
3
12
-9
8
57
8
-3
-17
26
-20
-69
0
-21
-19
29
5
44
-12
17
26
-12
-12
-4
10
-35
-4
1
30
4
-4
-25
-30
-1
71
10
20
30
8
2
0
3
-5
54
92
5
-20
-57
1
4
-16
33
18
40
12
-14
84
9
41
-7
0
-4
18
-9
1
-6
-3
0
2
1
-4
-5
11
-16
10
4
-8
-12
-6
-1
2
-27
-7
-10
-9
3
4
27
-16
-1
4
-16
8
0
-2
-2
3
13
1
1
6
2
0
2
34
1
4
-5
-7
-6
-10
5
3
-4
-12
-2
-9
-4
-6
-1
-30
-2
7
3
-1
-8
9
2
-3
-14
4
-17
-3
1
-3
0
-18
-41
1
0
35
0
0
3
-1
-7
6
-2
-5
1
2
-2
2
0
7
-1
-1
0
-3
-9
0
-7
-8
0
11
-7
0
-3
17
-5
4
77
-1
7
12
6
12
-29
-7
1
1
0
-1
5
4
5
-17
2
-127
1
14
2
-22
-4
-5
2
-1
5
-17
-1
0
-4
0
1
11
-12
-3
2
14
-1
0
-4
1
-3
-3
0
1
1
1
6
1
0
-1
-4
-3
20
5
-12
1
4
1
-11
0
3
-5
36
-18
0
2
-17
-27
-8
-1
1
-14
70
-10
8
-21
19
-2
1
-14
-13
9
-5
0
0
-6
-43
16
16
14
-14
0
-9
-15
-13
-18
-7
0
-6
-1
-1
2
3
1
0
1
-1
-13
2
-1
-1
-6
8
-22
-3
-1
1
19
-1
-10
-8
5
-4
-10
-6
1
2
-4
-5
-11
-23
5
3
2
7
-12
-5
27
2
10
-87
-10
0
-3
-13
7
-4
-29
0
11
1
3
-5
-1
0
-1
-4
-11
25
2
2
-22
-10
1
-5
-2
3
0
6
-1
10
-3
-3
-37
3
-6
8
2
-10
-9
3
-1
-16
-10
2
-6
4
13
-7
2
-2
-10
0
2
-4
0
12
2
-3
-18
-3
-1
1
-25
-1
1
1
12
0
7
1
-10
-1
-7
-6
-8
0
1
12
-26
-20
-3
18
3
6
-7
6
1
-7
0
5
-4
-3
1
-1
-3
-43
-1
8
4
-5
-1
-3
1
6
-4
3
0
-1
0
-1
-1
0
2
-16
-2
1
14
7
-2
-6
0
-2
-37
-11
1
-5
13
-2
0
4
-4
-17
17
23
2
12
20
3
-2
-4
-10
7
-2
6
11
-7
4
-74
-67
6
1
0
44
-12
5
-6
-2
2
12
-14
-29
-27
12
0
-18
-3
9
6
4
4
16
6
2
-1
-53
4
-5
1
5
-1
54
-27
7
-12
3
4
13
15
0
3
-6
-9
-24
4
11
64
56
-2
14
-2
-12
29
-5
1
-5
0
-2
33
1
1
4
-8
22
24
21
11
-6
12
6
-1
0
2
-25
-13
24
-1
2
97
-3
4
-7
16
-10
-23
-2
9
-1
-12
25
-3
-11
10
3
13
-27
20
12
8
-12
6
1
-17
-9
-14
-1
21
13
-38
-26
3
-18
-1
1
33
-32
-4
-1
27
37
-13
1
0
-52
1
-37
36
60
-2
7
-1
11
-4
-1
-5
-3
-3
27
-1
46
-14
-8
-3
-1
6
28
36
11
-7
15
1
-1
20
6
-1
-27
-19
46
22
-5
-41
5
14
3
16
-4
20
16
10
-29
-1
9
-1
24
33
14
-6
5
-4
-25
2
-34
75
-6
27
3
27
12
35
-14
3
-1
-6
-2
-9
4
3
-41
0
10
-64
-1
1
0
6
2
-24
-69
7
4
-6
11
-4
0
-17
-4
-32
-2
25
2
0
5
71
-15
-1
2
7
-4
14
-1
-3
-34
0
-2
20
-3
21
-3
-6
17
-4
-98
-2
36
-30
41
7
-1
-3
6
0
12
-28
10
3
-4
-15
-4
-21
3
-1
-1
-6
2
-63
1
-58
-21
-75
30
-17
0
15
-12
-26
61
-16
20
124
-22
4
12
-30
13
-1
27
1
2
13
-7
0
1
1
1
-4
-9
6
-26
1
-2
-2
-13
1
0
3
1
-8
6
-8
-4
1
3
5
-29
-8
-8
4
-9
53
3
23
-2
0
1
28
7
11
-2
1
5
15
127
-1
-31
13
-9
19
9
19
2
0
2
7
-3
-18
-3
-8
-1
38
-46
1
3
-3
-4
16
-1
-8
-9
1
-12
13
-3
-5
12
6
-4
10
-3
-26
1
5
-5
1
-4
3
-13
5
-8
32
-9
0
-2
28
-19
4
-7
9
2
-44
-66
-25
0
-7
7
-23
28
-31
9
-3
-6
4
23
-57
6
-5
-2
6
-3
9
7
-8
2
-56
15
-41
43
-11
4
0
-49
2
-1
6
1
16
13
11
9
-10
98
-9
12
-10
3
-40
-26
-5
-18
-1
27
12
-15
-22
-4
5
2
11
-20
-8
26
-3
18
4
0
2
-2
10
10
7
7
0
0
8
-11
30
-7
4
53
-16
1
5
-3
-29
-11
22
-4
-37
3
57
17
-1
-16
8
32
2
-3
-8
0
-102
19
18
22
2
36
1
-30
-6
-18
4
7
-15
7
-24
-38
13
3
15
4
2
8
-11
6
-3
20
52
2
-10
7
-7
19
127
-10
1
-19
-25
3
1
-24
-8
-5
21
-14
-4
9
-11
-1
7
-27
3
10
-12
21
0
-9
-12
-35
-20
1
-10
33
19
43
13
9
14
-3
-4
6
0
10
0
6
0
-6
-2
60
12
9
28
-1
-37
-95
-13
-18
1
6
0
10
-33
0
-7
10
4
3
-16
-32
-2
-6
3
-16
-24
59
-1
19
-6
8
0
36
-13
-3
59
35
4
-4
3
-22
-20
-4
-58
7
18
-7
-20
-5
-56
16
2
-5
30
14
1
-5
4
-4
46
59
1
3
95
21
-7
5
4
-2
-1
-18
-12
23
-3
-9
2
3
-13
-35
9
-4
2
-1
29
39
-26
32
-20
28
-17
-4
9
-15
-8
23
31
-18
-16
-5
1
-9
-23
-3
7
-1
-12
1
-22
-4
7
3
-2
-50
-1
50
2
-4
-1
1
-2
19
-4
12
-4
7
17
8
-7
88
-36
1
22
-12
23
27
-15
9
13
-26
-8
8
32
-2
0
18
1
2
2
7
-8
88
10
2
7
0
-1
3
0
45
9
3
-12
3
-4
-1
-5
9
14
6
6
0
-33
8
-6
0
-11
-22
-8
10
1
-54
2
11
-4
0
-2
3
1
2
1
-3
1
0
21
2
4
8
0
-10
-2
-4
-6
-15
5
-5
-50
-14
1
-3
1
2
9
-6
-2
-3
3
1
1
12
-2
6
-14
3
2
3
3
0
2
3
0
1
8
2
-4
-8
-1
2
-4
0
3
-1
4
1
-2
5
8
3
-4
-3
-13
-127
-24
5
-12
-19
11
-2
2
9
2
10
2
1
0
-9
-5
11
8
6
-2
21
0
-2
2
-1
-1
5
-4
-5
1
-1
8
-2
10
2
4
-2
-13
7
0
3
5
-3
6
4
-2
1
21
-2
15
7
7
5
3
1
-2
5
22
4
9
2
0
13
4
-5
2
6
-7
7
0
3
8
-3
-1
0
9
-8
2
-7
-1
6
0
7
-9
4
-7
2
9
0
-4
4
1
13
-2
1
-2
-1
-4
3
5
-1
-2
18
-3
0
2
3
4
17
9
-3
-19
-2
9
-6
7
-3
3
-7
8
3
3
-12
1
2
0
11
9
-2
-2
2
-1
6
14
-8
7
-64
1
0
-5
6
-13
-6
-4
3
-3
-1
-4
1
-1
-27
1
4
-7
-3
1
-3
3
-3
-3
-6
-11
3
-3
5
1
1
-1
5
6
-1
-10
-1
-4
-7
4
-7
-12
-2
-6
-2
-2
0
-4
-11
2
2
-3
9
0
0
-10
-12
-9
6
1
7
1
6
9
0
-1
-1
6
8
0
3
0
1
-6
1
10
11
6
-2
1
3
-20
-11
-12
9
-11
3
-3
0
3
0
-11
-5
-4
5
4
0
4
4
-4
3
1
5
-4
-2
2
10
-4
1
-1
2
-1
2
1
-3
1
2
1
3
1
3
-1
1
-3
14
-13
-4
-2
1
-3
-5
6
4
-10
1
-2
-1
-8
1
2
-4
2
5
2
0
-2
4
0
16
1
-15
2
-7
-1
3
2
12
3
1
-3
4
3
-2
-1
3
16
-5
3
-5
-3
3
10
-1
4
-9
-3
4
-1
-13
-2
18
-7
-1
8
4
-1
2
-2
1
0
-3
-9
-2
-5
-35
2
7
-3
-11
-9
-21
15
-2
5
3
-12
-49
3
5
11
104
5
-6
22
51
-2
-12
-2
-60
-19
3
0
9
3
3
0
-13
0
-9
-27
10
-125
0
3
0
5
0
2
-2
6
0
-8
-23
-3
8
-1
6
17
15
1
-1
-3
8
4
-7
-1
-24
5
1
-27
2
0
-69
-7
1
50
-5
5
9
0
0
1
2
-13
19
2
11
2
5
10
1
-5
-18
12
-17
6
0
4
5
-2
13
-8
98
-19
3
0
-6
-7
1
-4
9
-1
1
-18
-29
-7
5
0
13
7
16
0
-31
2
19
12
-5
-15
3
-101
8
2
0
10
2
3
-8
-15
-2
-5
-5
3
-1
-27
-1
-4
50
11
-1
2
0
-33
7
1
0
-2
9
-5
5
1
32
4
-2
-4
6
-7
7
1
-6
5
-2
-2
4
-25
0
0
4
-20
1
-2
0
-4
4
-1
-127
-1
33
-3
1
0
27
5
-23
0
-4
-4
-6
19
-53
-16
7
3
-1
5
0
3
1
0
3
3
1
-9
-37
2
-1
1
2
-10
5
-5
74
-9
-1
1
-94
5
10
10
-39
5
1
-9
1
-12
-1
98
-5
-9
-6
16
8
30
-5
1
5
-24
0
1
-6
-3
-7
-17
17
-4
-8
-14
15
-15
-2
2
-5
-1
14
-2
-23
-30
-2
1
-2
-1
38
8
6
-8
0
1
5
36
-84
8
-10
-13
-6
-3
-18
-2
37
10
-12
-3
-7
-1
1
-1
3
-6
0
-3
-2
72
5
-50
0
-1
-20
-17
-5
-1
19
4
3
8
-10
-4
4
-3
27
3
-4
2
-7
18
1
10
3
3
-21
4
4
-5
-5
8
7
-9
-6
-1
-15
2
1
2
-21
-22
-2
-11
-36
-17
-10
-9
0
-14
4
2
3
12
-22
-3
-4
-3
6
-1
-2
3
5
-9
2
10
1
0
3
4
-4
4
-11
0
-2
