12591
8047
14076
4524
-511
-2732
-1772
-5144
2807
-1836
-4667
11096
-5793
10475
16408
-9635
6832
-19065
8353
1355
-9201
-24851
6188
-1259
4732
7895
-2704
1274
632
5073
5452
-19299
5324
-15460
-7097
503
-6926
3840
-6296
-2949
-14069
-2851
1888
17461
12252
-751
-2990
11486
14780
-7163
909
-11889
-23026
6978
-5508
8110
563
-567
-5434
-3326
3247
-3154
-8957
-2241
12018
11401
6831
-4623
-6218
22122
-5980
7610
15990
4001
-3930
9
-6349
-2236
-2710
1598
-5817
17321
4061
13797
-3627
-23152
-12986
-3885
11461
6569
5150
-3104
7814
7599
-11708
-7790
-3284
2042
-5992
1692
-346
13332
-8652
-10994
-20393
12817
13870
-5850
-7729
8055
-11199
-2114
8877
5831
1838
9622
-4135
-213
-10720
-4110
-399
14499
12590
12335
-4936
11312
-16884
7340
12935
-15211
-7475
11413
2900
4754
-5227
-16456
-2912
2366
-23109
-16120
13132
8315
-13657
8119
-2257
-4126
3348
23942
-6767
3814
815
22461
1400
19948
10675
-8622
-5968
9202
20018
11762
-5020
-9473
-11
202
-11415
2978
10877
5114
-796
11982
-19039
-10721
-765
4540
14748
6805
26531
558
-90
-2355
-8778
-818
-8043
-671
-1715
5216
3916
1474
-6396
-5661
10807
-12962
