28108
-34080
-16064
-69632
62605
-43425
15145
-75272
-52490
-19437
-6640
-87782
-57550
2232
-22137
28637
-26666
-28316
7719
-31931
-54905
100867
-13341
-52533
-8898
-8988
-9191
-16124
-20010
-14575
-35219
-19793
-81169
-93365
28869
29543
-13193
-22623
3170
-9128
-91065
46080
-48603
19210
64018
-18645
29934
-26954
-88923
-33634
-60830
-67204
-36155
-91680
-1882
-37419
-103825
38209
-24924
-40902
-65705
8166
-28525
-23695
-56036
50184
-82104
-42056
-8712
-26343
-90691
-19940
-21956
-3858
-42654
191749
-83943
-5350
34740
-60483
-16534
-34779
130675
-56688
-54261
-4604
67043
-34298
-151477
-47687
-24256
-19837
-1523
-76417
-60007
19232
16063
15292
-25869
39540
-49345
-38996
-127745
-46459
-68620
13524
-26119
-66776
2236
60154
-71502
43907
36480
5242
4079
42966
-10562
-12465
-12405
-42091
-24978
6838
-81513
-65460
-17986
-44786
52126
-29014
-71011
66095
-20759
14569
-82582
-24405
43931
-54650
-57222
-31633
64597
51942
-26482
-4915
-86777
-59865
-24127
-49990
-39561
-31746
-35070
-77502
-461
-77671
46026
59648
-12755
138560
15879
-33329
-111474
-5065
-9146
-44803
20812
-18896
-9341
-10867
-80352
-76608
-71178
-11754
113966
-78269
-10033
-49187
-76520
-52780
17772
-69092
-62598
-14399
20003
-1231
-40340
25570
-107452
-16172
19224
34659
-23692
-62298
-50218
8479
-52137
-41624
-69786
-10127
25814
-45267
-85629
-30709
-36435
7527
-32855
-21267
-5662
14691
5615
-28882
-5055
-65187
-111324
-133729
-15012
-62366
-12628
2226
-78204
-1962
-2734
-33490
-41976
-95918
30829
-16690
-12623
-15353
-42782
-17627
-86786
88016
-97856
5948
-3220
-25720
-68721
68716
-46036
-54784
-79246
-4768
-36322
-51774
46029
-88266
-66492
-19505
-4847
-55921
47755
-31735
-30994
51913
-26873
28722
-20745
3251
-115963
1930
-31326
-123321
24403
-35746
-44271
-36861
-64465
-47025
-107242
-36906
59412
-79070
-11593
2292
113934
-14337
-86099
-74918
14387
-14606
-78306
-86892
-33164
-93940
-75628
-18907
-75811
-67805
62256
1650
-71502
-84861
-44700
-68360
87014
11552
68500
-49201
-13437
9376
-35668
-71009
-39829
-26308
-51963
-44810
-7707
-30413
-63631
11267
-38958
-24043
-50017
-83523
-49629
-21646
-49836
-9124
-1508
-24635
-60493
6023
-12236
-7939
-32881
-10098
-18476
544
-16010
-40689
-33317
-6118
3966
-81187
-42125
-49195
-106862
-5777
-38332
-40639
50092
-24799
10563
-15409
-26978
-1062
2075
-11825
-27345
-44354
-26003
-31366
-118993
-30803
-15734
-29924
1014
-25608
14773
-23160
44476
3361
-55413
-74436
-20552
3600
-64558
18540
-46917
-40878
-17057
34049
-58162
-9720
-34247
-59385
-53884
13189
-21446
-68289
-37134
-44740
-61041
-20092
-11759
27303
75322
13472
-43493
-6405
-13000
-64810
-47154
-30503
97044
-18178
-43946
-111950
-31155
-77496
-3384
40276
30093
34780
-20003
-55641
-3215
113284
11099
-83678
16136
21048
135746
-93238
33001
-25895
-55540
-17127
10861
-43198
-37418
-47333
-40588
-78360
-7636
-4773
-49667
-10981
-78481
-34000
-75409
-56416
-18105
-17433
-70641
20287
-62445
-2800
100002
23226
-992
-48496
-38292
-62100
-17109
-50439
-15069
-53679
-59808
1153
22611
-154928
-21534
24483
-83969
-35611
-15536
-39652
-2071
-33665
10659
-96999
-15920
-55022
9183
-99772
-103296
-23722
-111440
-98381
-65730
-45783
-64496
-87048
-1188
-24287
-23018
-32379
-70436
14653
-13219
-93002
-31955
-129648
-27649
-71726
-49152
-1067
37525
-83475
12619
-85218
-74670
-87458
-28045
-52639
-28321
-28250
-18315
-7150
-30113
-12038
-55024
-69714
-31570
-7496
-81555
-80950
-93789
-51744
21288
-34155
19626
-43578
-67859
-15904
-146052
-6102
-53471
-82516
-33433
-54509
-56261
-53490
-26725
-58493
-65317
-40392
-5007
-6032
-47811
-20565
17691
-83948
24481
-84891
-29684
-43419
4813
-49476
-49291
-16843
-61514
6296
33192
-52308
-13184
2382
-19602
-5309
-43274
-50130
-98765
-60430
-2761
6489
63645
-14719
-3
-39349
-76458
-34784
7368
49121
-42066
934
-48007
8739
-55170
-22321
10106
-57449
-65837
-46706
-34314
6412
-67085
-26647
46640
-10187
5897
8422
-44890
-64041
39009
-17677
6644
19479
-62359
39461
-36792
-46139
-48804
-4331
-25658
-31314
-56750
-67400
-5210
-26572
-89568
-20257
9997
-26224
52990
17351
-78421
-12471
-64084
20302
135566
-34326
-17910
-59406
-31022
64519
-42110
-118275
-5758
-58946
950
-30594
-54669
-45335
-42641
-53823
-54584
-43446
-91584
50285
-66617
-41624
-11590
-115350
43346
-97137
-52212
39448
23844
-35542
-15355
-73350
-110789
9328
14719
-69251
42977
112124
-134715
-15694
-17072
-32121
-14281
-13758
-68751
49515
21213
48714
-17449
-6882
-81646
26120
123161
-42839
-74643
-51998
-115686
-24046
-27905
-38257
36331
33450
12641
-10422
-11949
-20558
-14016
-67772
63077
-11372
-109017
-59287
-55449
-77836
-28370
-67305
148828
-89367
-38253
-100119
-119949
-25803
-30916
6256
-5154
-27977
26587
-17938
-4918
-3434
-79669
-42427
-13088
-44180
-44500
61010
-64109
-16715
-30791
-59546
19718
-51302
-32739
2067
-20077
-23493
-3658
9126
-39684
1997
-44278
-27902
30569
-29766
-9218
-58968
-114931
12144
58169
-47461
-72662
-80191
-85762
-42235
-59535
77695
-67707
-63250
-18168
-28243
-37349
-72001
-34737
-88970
-28834
70816
-82174
-63483
168660
15355
-39092
3602
-56610
-108637
-25074
-48103
-5353
-45490
-14621
-26805
99179
81749
-8157
-119420
41068
-117129
-5134
78446
-3319
-7292
10364
-45948
46512
-16940
-72757
40429
-103174
-15422
-36736
-51740
-57685
-6964
-22076
-82017
-66329
-17456
10128
-107883
-81107
-25069
3708
8724
-96571
93120
127124
-18889
28794
-78343
-1566
-12703
-55947
-19848
25105
6810
-17645
-43420
-9594
-7928
-53888
20435
-9049
20670
134248
-7894
-60882
-36836
-35049
-53034
-29759
-16298
-87130
-34591
-61196
-65101
-34819
57986
34000
-85922
12809
-35469
-54743
-22389
-26940
-47174
-32029
798
-52673
-47475
-22766
-4054
-61279
-46457
-61345
60740
8763
-102340
-98828
8268
-25598
-43041
-73825
-20321
-11669
-52234
-45242
-24439
-36823
58947
-3439
-23964
-47434
-19957
-19712
-68720
19456
-71780
-57549
8978
-38994
-52126
62697
39295
76729
-11667
-30737
-51931
-45708
-7136
-46365
-52014
5413
-22999
-63056
16572
-102319
-40441
-58992
-116775
-54371
41681
-60387
-28465
37747
-599
-33564
24178
59574
35894
68818
-42370
-43439
-89450
-92677
-12519
-12232
100597
-46567
-79504
-59314
-46156
10800
7041
67943
-31970
29126
-54103
-42027
-34827
-81450
-108002
97170
50814
2167
-56224
-12325
-20933
32729
-38923
-32264
-65080
-67673
-28417
-51005
972
-47359
-48058
-77708
-64536
-79185
-74762
-52072
6509
-1679
-31138
-8231
-707
34468
-47619
-71689
-36873
-143406
-55116
7379
-58863
-44997
-6373
-7705
154219
-4124
-68995
49695
-85641
23942
-7272
21887
15180
-36946
-21500
-48203
-60208
13945
-10674
14398
-41959
-37281
-62296
-26024
-63970
-96796
105210
55271
37843
6492
2446
893
-8819
-15764
-38100
-81333
48348
-35658
-23599
-40018
72964
-58997
-40489
-9136
45253
-8368
-2099
27582
-53328
-998
-43715
-21912
-68364
-7218
-76887
-30432
-23366
-10642
5193
-14566
-57641
14451
407
19502
-39455
-90585
19945
53019
-83209
-47960
-109508
-30511
-11068
-18444
-69033
-27276
-101995
-16048
45648
-16800
-34497
-19986
-79969
-66280
-96159
3171
-3677
-58208
-70941
-11777
-52753
108
-124409
92195
-47485
44074
10255
-55018
-77292
-24296
-105860
22764
24368
-61395
15456
-26704
-39745
-106081
-64298
-18589
-21646
-141341
-83175
26369
-23861
58000
-89001
-1126
26232
-75412
994
-79160
-8826
-6578
-80811
14279
-87451
26568
-10175
-67603
-4821
-8174
-94025
-38592
-34806
-25832
-10313
-50351
-61129
-7842
-76720
-35810
71576
-3199
-10724
-44781
-69449
-35019
-19693
31903
21771
-120265
178034
-21376
-31827
-19206
-9701
-20668
-28828
-24721
-40123
-30481
6160
81352
-65958
-13628
33665
-19356
-10960
-23545
-40515
-12144
-55228
2659
12679
-70371
-65059
-34930
-50245
-28220
-52426
-30235
-6821
4267
-59068
-8396
-21333
34954
73437
-57852
7600
-65069
-53188
-135558
25720
-37859
-52017
-14354
-34181
56419
-57364
