17
90
41
-64
-2
59
2
32
-2
65
-102
27
-77
-39
-21
-105
25
6
27
-4
-23
-35
-18
116
39
-10
-5
-61
-69
13
53
13
70
30
127
-62
-10
-59
37
-59
24
44
39
-26
-121
23
-60
-52
-65
62
-35
-25
-55
-6
85
-31
-19
-81
77
-120
-42
-46
127
-66
-74
-3
-47
0
-55
-39
6
-29
-4
-17
78
20
25
-4
-35
74
-9
-70
-7
-43
-25
-5
2
-92
88
-41
4
-23
-18
-30
1
5
10
-76
-33
-91
81
50
-9
-33
11
25
-15
12
72
-56
-127
-18
-99
32
36
-46
-28
48
16
-83
-83
65
16
-47
-111
70
60
-91
-81
63
-77
-15
-54
-42
32
-88
-14
15
-70
48
64
-36
28
2
-43
-127
-41
-54
-37
-12
13
4
31
-29
-73
-59
-21
-74
-93
18
1
46
-56
-65
-64
27
75
-54
-26
30
-16
-27
-49
-32
21
-45
-58
-30
-104
-54
26
23
44
-4
11
5
-32
63
22
-24
59
41
0
35
-76
61
-19
-63
59
80
59
45
-2
-3
-32
-30
-6
-22
24
-42
127
-57
-91
-5
-44
27
-21
-24
74
48
26
0
-25
6
-19
72
-68
33
4
3
-71
-10
35
-10
37
48
-3
11
-78
-8
-41
-103
-32
-28
-37
-51
13
7
88
23
81
49
11
-50
-44
-49
-42
-32
-14
5
-45
-37
-104
-29
-5
-49
51
-27
-32
71
6
-16
19
-60
-12
24
37
7
-66
-58
32
-63
-44
11
47
-25
127
-93
69
27
100
35
10
127
-38
-2
-68
-38
-99
-38
-64
18
-48
-111
-22
-83
-16
-97
46
-4
10
8
4
16
-80
1
-56
49
72
91
-12
-46
41
34
16
4
-9
-5
43
38
59
-55
-14
-57
-38
19
-33
-23
-8
-66
-50
11
4
-64
-24
9
-36
-47
-13
33
-11
-27
-33
-12
-38
-4
-39
-6
10
-62
-2
-10
85
-82
28
-33
64
-40
12
-127
-8
10
-32
121
-47
51
-35
-95
-15
8
4
18
-90
-94
-94
14
-73
-29
-23
-29
16
36
-26
-28
-2
32
-25
-29
-27
-14
37
-52
-48
-14
-26
27
-32
-63
-53
-53
2
-29
12
-25
-41
12
2
6
-54
127
-24
12
-6
-40
28
10
-18
21
24
-21
-33
-27
33
-17
25
-27
-70
-52
36
-34
-52
35
-87
-9
-38
37
-50
-24
-78
-82
21
-17
-29
-25
21
-55
-3
1
-20
-14
47
-40
-23
41
42
-28
62
-23
-14
34
-63
-75
-7
-74
-2
-4
13
43
127
56
90
-5
-2
22
30
-5
-26
11
15
-19
-41
48
-71
-81
2
-9
-56
-11
14
7
0
53
39
-104
-34
-25
-34
-35
31
-16
67
-6
-74
47
34
42
-92
70
-39
-17
45
9
2
-24
-127
-33
53
-115
-36
44
-28
-38
-81
92
9
-28
63
-101
-12
-47
-32
-114
-92
80
-78
-116
-53
-32
0
-8
-49
-61
-20
-73
16
0
127
-59
55
42
-56
28
-60
-11
-72
-55
-21
21
2
19
-43
-73
15
-34
50
-48
19
-46
-7
-51
-65
-5
-18
-1
-37
-7
0
42
2
-27
-5
-19
23
-33
-27
-14
-18
3
-33
-55
-39
-52
-17
-49
-57
-1
-44
-51
-40
63
-26
-37
-47
-9
-1
-17
34
-38
-10
127
64
-4
-12
-6
-16
-32
16
80
38
-69
44
-37
-61
-74
-15
18
-69
43
24
-56
-7
9
-21
49
-66
-13
50
11
-19
-66
-88
-101
57
6
9
73
-98
41
18
30
-36
16
-38
-68
-1
40
21
-41
-38
-15
127
3
-4
10
-25
0
12
-5
-49
-13
6
-31
20
3
25
43
-30
-23
-40
2
27
-19
28
-127
-18
-8
-33
20
-23
-18
8
-16
-8
48
-22
27
4
11
-44
-60
22
-15
3
-25
-2
-37
-7
46
8
-13
-89
7
10
-24
58
10
-46
-76
28
3
-4
22
41
-92
26
-16
-112
-62
53
39
62
-17
21
6
-48
-51
-23
-50
-21
41
-40
19
36
15
50
31
-31
8
-16
16
-35
-127
15
99
18
100
-21
29
32
6
19
55
5
1
-18
-8
19
-97
-27
55
-26
20
-57
-101
-11
-99
36
-63
-16
-70
-127
-49
-23
4
-4
-1
35
17
74
27
41
-29
26
27
15
40
-49
34
-22
43
-17
-96
-14
-28
-88
-14
-15
4
-31
-45
68
61
18
23
30
-18
-17
26
-56
127
12
-54
-23
-30
34
25
-12
33
39
-66
-101
-18
7
-123
108
38
4
22
-96
-15
-61
-50
-109
43
-50
-62
-127
0
35
7
-74
30
-52
-57
-38
-19
5
64
15
-83
20
-12
-64
45
9
35
-86
1
1
-32
-53
-13
-10
-21
31
-23
-61
-8
-39
8
25
-89
18
16
36
127
-41
2
88
-3
-51
4
-35
-41
52
22
43
4
-92
-35
-28
2
-29
24
-26
38
1
-58
-52
-41
47
-56
-10
2
19
-21
20
29
32
26
-9
-26
10
-6
73
-24
-22
17
-15
-9
-4
68
-55
-63
-78
-33
-24
25
33
-41
-127
1
-71
-22
-25
-54
36
44
23
28
-27
-54
-34
-58
-54
-127
-105
-74
-48
-74
-11
-44
-28
80
85
-79
63
-33
-10
50
2
14
44
-94
-42
-41
-46
-80
47
-41
-104
-47
15
-22
-51
25
-64
30
-78
-47
101
40
-56
108
48
-16
38
-8
127
-50
23
-40
37
-30
-48
21
-104
-88
23
47
4
-31
99
62
5
11
31
6
23
18
-35
-58
-64
-24
41
75
-16
47
17
38
25
92
16
-59
-67
14
49
-35
-20
53
-32
28
50
10
18
104
-5
1
10
7
-18
6
-12
10
20
77
6
-65
28
-2
-1
3
23
17
-21
-17
-51
-26
18
-29
-28
-35
4
-21
7
-9
-78
54
0
-1
63
-11
-33
31
-23
-116
17
42
-127
-4
12
72
20
-23
-65
2
-55
43
-28
12
-46
-62
-63
-74
-24
43
-124
-81
-48
38
-62
-61
34
-27
27
-78
127
39
-71
-43
78
15
14
-80
11
69
-110
5
-11
-29
-57
2
4
-22
67
-56
-93
6
52
36
-36
8
42
-44
-25
-50
-87
-30
-31
94
-92
53
75
-83
-19
9
-12
53
10
62
-24
-16
-48
47
1
-69
127
-66
-1
-15
-49
67
-84
-42
-49
-69
-34
-37
-109
10
-17
69
10
-52
43
49
13
99
7
29
-54
71
-2
25
-48
53
-46
12
-33
-127
6
76
-48
20
13
-46
-37
24
-22
32
-10
-4
-77
-41
-6
48
-23
-30
5
31
-71
-3
27
-2
19
41
-58
37
30
-78
88
-39
-26
-72
-63
-61
9
2
30
-15
33
-31
-45
19
33
4
-22
-64
-10
9
42
21
18
-38
11
15
70
7
6
-35
-27
-2
-60
-87
-15
-99
-127
24
47
80
-26
30
-16
-17
-20
39
10
-16
4
-38
-34
16
-45
-20
14
-7
-4
34
-92
-59
-89
15
82
12
-1
-15
5
-42
-85
36
41
-35
127
-92
-5
41
-27
-5
22
3
-79
-66
119
-11
22
-43
8
-12
-122
23
-33
26
-43
21
-47
-51
-13
-63
-3
47
-15
33
11
-92
-11
54
46
-66
10
-85
-20
-28
32
-14
0
-9
-119
-45
15
20
40
41
-105
35
30
-40
20
18
-9
-29
-66
-64
6
1
-43
27
-127
-12
73
6
43
55
-39
15
-28
2
-84
-45
124
-4
-84
19
9
27
94
-10
44
-12
-31
16
93
21
-35
-92
4
-77
0
-45
-10
24
-97
102
5
-85
-37
-41
5
-43
37
15
1
-4
-61
-87
-10
-42
62
-42
-127
-76
-85
25
125
27
-2
-24
17
1
82
-5
-11
-12
13
33
-19
83
19
-48
35
4
-37
0
-50
3
-47
-7
-71
-56
78
-22
63
-17
-7
-44
-109
13
-38
-14
-75
-44
-17
21
-7
69
60
44
-38
34
-53
7
5
-8
-50
-41
-46
7
-127
-90
-23
7
-62
-95
0
68
-19
-17
19
-3
7
-19
-76
-9
-61
19
-44
-56
60
-37
0
-35
48
-30
-14
-8
-10
-26
29
127
-18
16
-29
-1
42
31
12
-55
-19
2
-24
0
19
-5
-1
1
-58
-47
-65
-11
15
-59
-30
24
-67
-20
0
-36
127
10
-79
-22
-2
-55
-82
-82
-53
-78
24
-45
18
-71
-78
-38
6
11
-18
-86
4
-9
49
-8
17
63
-43
51
24
-8
-60
-31
-29
-27
-5
45
-73
-43
-61
-44
17
-91
-2
42
-32
-59
-58
-49
-66
-42
-48
-58
-19
-38
-29
-69
116
-21
-29
-24
12
55
34
-34
-79
30
-36
-30
-50
-35
6
-24
-75
14
7
127
-32
53
-106
-10
51
-113
-19
-62
-76
-1
-3
41
-9
9
48
-13
-35
-28
-37
-28
-1
-21
-37
58
-56
43
-8
40
66
58
26
-71
82
-83
-114
-5
41
-35
54
47
-32
127
-11
4
39
54
-40
-7
-76
-5
-2
-28
15
-18
-13
-50
-62
-78
-105
3
0
-55
-3
127
-1
15
9
-66
39
25
-1
-5
20
-69
6
-53
-44
-23
-19
-45
11
30
44
-9
-16
-27
21
-13
19
-53
-63
25
77
80
-28
-7
7
-30
-18
13
-9
19
36
33
-3
94
-15
5
31
-10
30
-11
29
-42
-38
-96
24
-55
1
-87
24
-91
-21
-54
32
-30
-21
-63
18
112
-53
-24
4
-103
-103
47
21
34
127
56
76
-14
-33
-52
31
-26
17
-5
37
-57
-98
60
-14
-25
-58
-3
-17
-37
-33
56
-38
-56
-47
30
35
-14
20
19
-4
-42
-31
-5
32
-15
-12
-18
-10
65
-15
21
-78
-95
-127
-41
-32
27
21
14
37
3
-38
-59
-11
4
17
35
86
-50
-29
27
4
-18
-14
42
18
-54
52
-54
59
-65
-64
6
6
-26
1
-3
-8
-66
-22
-7
40
50
-13
-26
17
-2
6
-17
-2
-113
-127
-25
5
68
93
60
46
1
-47
-4
46
-14
-6
-52
20
-53
-71
31
-67
-73
-7
-27
-6
37
-7
-127
23
-31
68
8
14
-8
-15
9
4
-66
-13
26
15
-36
-28
3
-4
-7
-32
-2
19
-45
25
-5
-9
31
32
-76
9
-16
24
1
-13
-3
8
-3
-10
-5
-49
14
13
11
17
-24
-87
-87
-62
-31
-27
-72
3
-30
-108
47
27
8
30
62
32
-51
-41
-72
38
-30
-76
-53
-27
-15
-91
-25
98
-74
-54
-41
81
-53
5
82
-58
-127
-38
11
-24
-20
0
-14
29
-90
-10
83
86
-69
18
-25
-6
73
-57
-65
59
-48
-7
49
30
-36
-56
3
-50
-102
51
44
26
5
27
-86
-42
13
60
-97
-73
-19
20
127
-51
66
56
47
1
-12
112
-27
-24
-11
-24
-35
-38
-23
-26
-43
40
-48
42
9
-7
26
-58
-71
-105
-58
-29
-8
-117
-17
13
-38
29
-47
-47
-6
-62
-83
-8
23
-57
-91
-23
-66
89
-1
7
108
-56
32
-42
14
-51
-35
-19
-2
28
73
-17
71
-127
4
-46
26
-26
7
44
-22
96
46
-18
12
-43
-26
-22
-50
-63
127
26
-50
-85
40
29
-31
-57
-110
12
14
38
56
-14
-24
-5
-10
10
-40
83
-1
93
-59
-43
-84
57
-37
126
-75
42
-75
26
-32
-92
-38
10
23
48
68
-16
-74
-7
-38
-112
30
17
41
-115
-3
-48
29
80
41
-11
-105
-61
37
2
127
84
-54
54
54
17
22
82
-15
-11
-17
2
49
-111
-18
28
7
-35
11
46
36
75
9
-2
-101
8
5
22
-40
-47
11
-60
53
80
-25
45
35
-78
-15
13
10
-64
49
-72
-92
-63
127
56
-105
-5
-55
85
52
-65
30
17
-64
-6
-70
-93
98
-74
-38
-116
-13
-37
56
21
-20
-29
58
-48
-37
-57
-23
37
-77
8
17
-50
60
-2
0
-23
21
1
40
8
-55
-45
-6
30
29
-40
-26
50
2
-49
23
27
-127
-63
58
66
69
32
13
7
-3
-25
-8
-42
-26
-24
-35
11
43
-15
31
16
-63
-37
-61
29
10
-23
1
-127
18
-67
26
-18
29
-123
23
-28
-28
-49
0
24
-74
51
-49
-44
-31
-74
-56
34
-126
36
-38
21
94
-32
-11
115
-20
-74
66
-43
28
70
-16
70
-54
-61
-23
45
6
-37
54
-71
-59
55
-22
-112
-20
-53
93
-45
-61
30
127
1
-35
-7
31
113
-40
-50
-51
-56
-47
-29
-48
-16
-124
11
-51
-9
-9
0
10
-29
-32
-50
-52
-64
-23
-41
9
-53
2
68
-27
-13
-96
36
15
75
-25
-10
11
-47
-39
-12
-29
-53
-18
-29
-32
127
-87
-30
42
-49
-2
-32
39
55
-109
-39
42
14
-24
28
-3
37
-13
-6
-14
36
-19
-112
-115
6
-40
-11
-26
-13
-8
46
7
-19
-18
3
-18
-8
-19
-18
1
-15
-38
-36
-49
-19
-50
86
25
-52
-22
-28
-35
-12
-9
-9
-80
-6
-33
-68
-63
-43
-15
23
8
23
-16
-34
-10
-26
-41
-6
-13
0
43
-20
-68
-2
-3
-26
75
-43
127
-106
-78
-113
33
-38
20
89
71
-41
-9
-49
39
-15
-12
-57
-6
50
-36
-17
-1
-82
-8
-49
-39
-56
-58
-24
-22
38
-45
-6
-72
18
-7
-20
-50
-10
32
-19
47
83
-79
-8
127
-77
-75
-43
1
-93
0
8
-98
31
8
5
17
-26
3
8
-72
-94
26
-5
-38
2
9
-53
-45
-31
-43
50
-75
-29
-46
42
-35
64
54
1
70
-88
35
4
127
-9
26
-31
9
-9
-33
4
-52
-83
-48
-56
-76
15
-90
-93
-110
-37
-63
-119
-88
-10
46
-114
94
43
29
43
-63
-60
-39
84
-17
92
77
-99
127
-37
-78
-81
-84
-38
-60
-11
-9
-31
-33
8
16
55
-111
29
0
20
-17
-63
19
-5
-80
-71
17
6
-51
-7
40
-26
-4
19
-19
-53
-127
-50
-27
-97
-32
24
-36
-1
-18
68
43
-29
-10
-33
61
11
20
55
-74
48
60
20
126
-106
13
20
-12
19
-38
45
-4
3
37
-43
-51
3
-25
56
-27
-13
16
-45
-1
31
-27
-37
26
-14
4
-17
-1
5
-19
-127
-19
15
-50
-30
26
-13
47
8
-21
38
-17
-1
-24
-22
21
-18
18
-1
-26
-3
-3
-52
28
-53
4
8
-21
-28
-26
1
-79
-20
56
-62
-38
-63
-45
8
-47
-127
16
-24
-42
-19
-37
-40
-85
81
59
68
-50
-78
35
7
-75
-57
-58
-64
-69
-54
-37
-99
-73
-28
53
-18
-28
-26
41
-29
-94
11
-55
-85
124
74
-32
37
65
-36
38
-53
-31
3
-10
-27
16
-51
13
-35
58
53
6
50
-4
-3
37
1
-72
70
-37
-1
-4
25
-127
-78
32
-25
-85
-92
33
-12
104
-37
24
-16
23
40
-15
-9
37
18
38
-56
-43
-19
-30
15
-7
14
-26
39
-61
-127
-46
-20
-29
-80
-19
-15
110
43
-98
-24
-80
-20
19
17
-19
69
46
127
2
-37
-37
9
-46
-60
-10
21
-58
-43
-51
30
-11
-45
39
-25
20
22
-35
-15
24
-22
-22
69
-33
-57
11
-8
-29
-8
14
7
-64
1
30
-45
12
45
-66
36
46
127
-30
-53
-89
-23
-17
-35
-25
-10
-15
-18
39
-14
-53
-15
-86
-24
11
-28
-9
-9
-22
-15
-50
-4
13
8
-25
46
32
-42
6
117
-91
-65
26
-27
-53
68
-43
-26
-56
44
21
-18
-72
-122
51
-60
-10
-78
-73
21
32
-1
-38
27
-36
48
-31
-83
-60
-20
-29
59
-73
-89
59
-70
16
-25
-81
-39
-36
-60
66
24
-117
6
127
-123
44
70
78
-41
7
23
73
7
3
105
-17
-37
-71
-104
45
17
-29
92
-50
37
-22
-92
-23
-127
-2
37
-3
-23
54
-23
-5
47
-23
12
-68
81
55
2
-53
47
59
-33
-18
-98
-80
-112
10
-18
18
-16
-20
0
-2
5
11
8
1
12
4
13
-2
-15
-1
-9
-15
-2
-81
16
-127
19
-5
-21
43
-30
-3
8
7
-20
10
15
-4
4
-11
0
-25
-65
-8
-21
-1
-15
-13
15
18
3
-17
-4
3
-2
3
-1
-6
-8
1
-8
-20
-22
-7
15
-5
-6
6
31
-11
-40
12
-43
5
17
-19
-43
-6
-26
-1
-10
4
22
15
-17
-23
-42
17
-11
24
-127
1
1
14
19
-51
21
23
32
-13
-32
-127
-4
-16
-29
72
-36
-34
-57
77
33
113
-90
65
-55
-41
42
-56
-6
19
-52
9
22
51
17
7
-39
9
-18
-13
-80
-3
0
-73
69
-26
47
-56
-47
-32
-6
14
-69
22
-30
-93
-44
-57
0
14
68
-47
15
23
-68
79
-7
-92
25
-34
-22
-29
-7
-77
-26
-53
127
-15
-11
15
14
-54
-29
60
34
-9
-111
-20
-7
2
-52
101
-12
62
-101
80
-108
14
112
-2
-17
-8
23
27
17
-25
-47
16
-16
-68
-17
-51
-89
-58
-41
-34
-25
68
-34
-26
15
-95
85
-68
9
57
-21
2
-10
-73
-127
-14
-18
-19
-25
9
-40
-14
-12
13
30
28
2
-48
-28
25
16
-3
-17
-35
17
17
-36
-43
-96
-52
-76
-24
-24
68
-13
-17
-37
-14
48
21
-62
-46
54
-25
-26
-34
-25
44
-6
-33
-18
-26
-89
-67
-6
-41
-5
-29
-63
-38
-49
59
-3
21
-79
4
-87
-30
127
-33
-18
66
58
-48
19
90
-45
28
20
27
-80
31
-20
6
-37
35
49
-50
47
43
-20
-34
-58
-4
-10
47
-9
-103
37
89
8
43
50
-12
-34
-12
4
-52
-69
-23
74
-39
-24
-29
2
-60
68
2
73
-67
-74
-23
-97
-127
-60
38
63
-58
86
32
-7
-4
37
19
12
11
-72
-47
47
-31
3
66
24
-35
-31
-22
-34
-43
17
-35
127
-37
-13
-3
-57
-50
-60
-23
-60
-1
-21
-46
5
-45
9
26
-45
-15
-11
-93
-8
-75
-51
27
-26
-13
-62
-108
41
57
-45
-31
9
14
-51
-39
33
22
2
-127
-57
-47
6
-13
21
-103
-109
-48
-75
41
-32
-88
-33
-4
-70
-35
-58
0
-3
-69
-52
-23
4
-50
-16
86
67
27
-68
27
-63
9
31
-36
20
-3
-14
-18
17
-61
88
-79
-3
-4
25
-21
78
-24
-51
-11
8
-2
18
21
-8
21
-1
23
33
-1
-18
40
10
-7
-24
19
8
-25
-32
-120
-17
-127
53
-47
-24
-24
10
-12
59
34
26
76
-69
-22
-21
31
16
-41
-36
-60
-2
-79
9
-25
-55
-45
14
-20
-61
-18
-22
-89
16
-57
89
91
42
-33
-127
-105
26
11
-26
80
-88
-51
18
-5
12
-7
-54
-1
-11
39
32
8
-18
-15
13
-4
-10
52
-19
-45
-41
-53
-49
5
18
-54
-20
27
-61
-2
-16
23
-12
-15
13
37
-30
34
-19
-127
-92
2
37
30
6
-5
81
-4
-63
75
12
-52
-3
-10
69
15
-65
30
-22
9
-29
-55
-113
75
46
53
44
11
-15
24
-15
68
-26
-37
-62
-17
-2
-6
123
68
-34
-28
-127
-88
34
-11
-56
-34
-18
1
6
-31
-79
-19
42
-37
-46
36
-88
2
-65
-73
26
-80
-78
6
3
-24
42
-68
-59
-12
10
21
53
21
-80
27
-41
61
77
14
-11
24
-8
19
-93
41
-28
-12
62
68
26
15
127
-51
21
-86
35
59
94
28
45
-7
38
-2
-1
40
7
77
108
33
22
26
27
8
-28
102
27
-4
78
-38
-99
-3
27
-41
41
-33
-39
-93
-80
-27
-12
8
114
-31
84
66
-106
-66
-5
-20
-20
-35
-30
18
-9
-5
-80
-24
-49
-52
-24
-113
-12
32
-127
4
-28
-58
-62
-23
-33
-27
29
-19
-52
4
-8
-127
66
-18
-28
0
13
9
-51
36
49
-12
34
16
-39
-29
-35
-26
-26
-25
11
-54
-3
44
23
101
-17
13
14
-12
-5
-18
-32
-58
-65
38
24
16
-42
89
-9
-44
-72
-19
-83
-6
127
-9
67
29
3
-28
28
37
15
-5
-94
61
-40
-13
-42
-22
44
12
21
50
-23
10
7
54
-47
-101
-17
-50
109
123
18
75
-28
-42
50
1
-36
9
-24
11
14
-34
-124
-50
-17
-51
-8
-64
-41
-23
24
-18
-58
33
38
-54
-127
2
-22
0
-2
-27
19
-64
-12
7
29
0
22
77
-59
-1
-10
4
19
-16
27
-45
-16
-42
-56
-12
-66
-20
30
-17
-123
25
-32
27
-50
51
-73
-29
30
-4
109
63
-29
2
-58
-44
126
122
28
-61
-89
-117
-87
6
-23
7
-33
-40
-50
22
64
0
-124
10
59
-127
-109
-29
38
-49
-13
-40
29
-14
19
26
-25
-72
-74
35
12
23
-67
47
-119
-118
-24
-38
-61
54
-52
-53
68
-95
48
-36
-34
-46
43
34
-32
75
11
12
47
-19
2
-21
-4
-7
-23
4
-31
-21
-2
80
-42
-69
-35
-52
-3
-4
-24
-55
-71
6
3
-82
-53
30
127
10
-48
48
59
52
9
14
-24
54
-60
-20
-19
-1
34
1
-51
0
7
31
42
17
-21
4
-19
19
58
-31
26
31
49
-117
-70
-65
63
8
-14
-8
73
-5
-44
127
29
5
23
-4
71
17
-53
39
48
-19
56
68
4
-124
47
68
-4
-88
-77
84
-5
-96
-60
-120
-24
-47
44
4
-126
4
-29
61
58
97
58
67
-21
-106
66
25
-35
-82
29
-10
-127
20
69
-87
-13
-101
-64
35
60
-37
-126
-68
-50
-85
-38
-43
-40
-25
-16
-96
22
34
0
-8
6
28
0
46
-38
-8
32
2
-39
6
-77
-18
48
4
-88
12
17
-42
-6
-67
-31
51
-20
-2
-77
-17
-127
-53
5
23
-68
-18
7
-55
12
39
2
-4
-51
-60
-61
127
-82
-12
-28
-47
-97
-30
95
-3
8
-48
40
-20
56
-50
-38
-76
-13
10
26
65
-2
13
-27
-52
-78
-55
24
86
15
42
26
-72
-83
24
-67
-73
47
-56
33
34
-59
-28
3
-31
-26
21
2
-25
-2
10
-55
38
-55
-127
-1
-11
29
14
72
-13
-106
66
-10
13
-34
-34
6
-23
-37
-59
53
-65
26
32
21
58
39
29
71
10
-27
2
-34
49
10
-38
-26
46
-11
47
63
12
49
-32
-98
-127
-92
16
50
-101
-33
-26
-96
-2
-26
9
60
54
48
78
-64
2
60
16
-70
44
-35
-42
14
-32
16
-69
-95
-26
34
22
-52
-8
-57
4
-13
-17
-84
-29
18
-53
15
-12
30
62
-46
-16
-86
13
-76
-25
-55
58
22
41
44
-43
-64
-70
10
-94
90
-83
-101
15
-127
82
-58
-117
94
-43
-76
-75
-107
-47
-52
-8
-14
-51
-106
16
-9
-1
-123
72
69
-117
37
-76
18
-104
-67
-101
-30
-33
-18
-33
-8
-18
-83
12
41
-90
-31
45
-24
-13
-48
-12
-21
-40
-71
-54
-90
52
53
-63
-33
-127
22
16
87
-36
20
36
-26
18
-27
68
-42
17
5
-27
28
-17
-29
37
-80
15
30
-84
32
-40
65
48
-29
64
-4
-19
-25
-39
-34
-46
-127
-81
-51
-23
-14
30
48
-57
24
-22
-47
-59
-3
-9
18
-43
73
-39
0
17
-31
-8
-26
3
6
33
-5
25
-1
-32
-29
16
-59
-13
-15
1
-74
-78
106
-51
16
-44
-61
12
44
-44
32
52
-38
-18
-58
35
93
25
-14
-25
17
-65
-127
84
-49
48
-11
-14
-67
-22
-99
25
-59
-61
3
79
-17
-75
-17
66
-45
94
37
-49
-6
-60
-17
-2
13
-31
15
8
11
-2
-33
38
-52
-69
-55
4
29
-47
-49
-44
-19
4
127
-79
64
-13
28
98
-35
38
56
-19
-36
28
-15
12
-46
-27
82
-43
-49
-81
73
14
-52
4
-69
-19
-42
55
-16
-9
-59
-26
-55
-49
-4
-44
-59
-38
-86
17
-31
8
15
-36
-4
14
-63
-46
-11
127
34
-5
-45
-37
-26
0
-33
-2
32
-15
-40
3
17
-38
1
43
-56
-48
-27
-5
20
-30
-59
38
-24
14
-13
-27
13
-51
22
24
36
-37
0
-42
9
-46
-28
-36
-40
16
6
-10
-49
-46
64
37
-80
-10
61
-90
-22
42
-40
-63
-10
6
17
31
-127
79
-69
-55
-8
89
-76
39
-54
-85
-53
-14
-2
-40
-75
65
-47
-53
-32
-19
-109
11
23
-95
-5
-58
81
1
7
-81
-115
77
37
-20
28
-76
32
-11
38
-5
-56
-76
-10
-78
-100
-28
49
52
-4
47
-4
105
-21
-17
37
15
1
-33
-37
0
69
-47
127
34
22
33
14
13
-17
-12
-17
-8
20
22
-40
-14
-86
42
2
33
-49
59
-18
66
-25
-8
8
69
-41
-47
5
-125
66
-58
-15
91
-1
8
93
-33
-127
10
17
-26
5
-46
100
-22
-115
14
-60
14
-42
-11
40
-10
-11
19
-8
-23
26
-78
42
33
12
-1
4
28
-19
30
1
-1
6
-16
11
20
-5
-58
16
-68
-127
0
2
-16
62
118
21
9
10
-7
8
-16
12
-16
-38
-15
-53
-9
-20
16
-10
-23
-38
-23
-66
8
-25
2
56
111
-51
-14
99
4
-36
-51
-48
31
4
-70
-50
43
-44
-23
-10
-31
-98
58
120
4
-67
-67
-10
14
-127
24
-9
-4
-56
-53
-53
-57
63
63
-53
-54
92
-65
-18
-42
22
127
-21
24
-40
-101
41
-94
1
-19
-49
-15
63
-12
-28
9
49
21
23
32
30
-28
-15
4
4
-5
-15
44
23
56
-8
6
18
56
-40
17
43
-16
45
-51
-45
4
-78
-27
89
-19
26
-27
-65
-18
-31
-51
-23
8
-27
54
46
-14
-12
33
127
-26
-113
22
-83
-84
-69
37
-72
-46
17
37
-74
-15
-7
-6
-8
36
-73
-20
-44
34
-2
-42
-11
-38
-20
25
-12
-25
43
31
-28
4
-31
13
-64
-75
-29
-58
3
-17
94
-85
-22
-10
-11
-62
-7
84
-77
-61
-27
12
20
-66
1
15
-42
7
-47
-36
64
4
-10
54
-54
23
-127
-25
-31
-1
38
3
12
-34
0
47
8
-38
-18
-42
-91
-15
-15
-23
12
-43
-8
-29
-96
-34
-94
36
-103
-50
-7
8
72
-62
-11
-35
-1
-11
-59
-86
-113
62
-108
-33
87
1
-60
17
6
-23
12
-29
-58
-24
26
31
-99
-41
18
-127
-88
-8
-61
27
-58
4
25
-18
-41
-13
51
-84
-127
-41
-24
-9
51
-18
40
-17
-14
-64
-44
-52
-44
63
13
-44
9
-74
9
-37
15
14
-85
43
12
-30
-89
31
-6
-27
14
2
-19
-31
-53
39
-44
-63
122
90
-91
43
-17
-11
36
24
-22
-14
1
38
-61
60
18
-49
-127
68
43
-25
-97
-48
-20
-6
-39
117
-45
-5
-31
-26
-2
-19
-3
-43
-13
-37
-52
64
-58
-59
48
-28
-4
19
-69
-50
-54
-34
-24
-49
-8
-15
71
42
15
54
-42
9
-29
-7
-22
-40
-110
-40
-17
-10
-11
8
32
-36
-47
-8
-18
16
-6
6
1
-48
127
-4
39
4
-51
25
61
-16
-63
14
-12
4
13
-31
65
-37
-10
-1
-43
7
41
-28
38
31
-34
5
-36
-40
18
-17
34
-127
-21
-35
24
-17
-51
-34
-18
-14
-56
31
5
-58
0
34
-39
-8
-27
48
-89
46
-23
13
-3
-39
-12
26
-56
2
82
-22
-71
57
44
-32
58
20
-75
10
33
-97
-19
-37
-52
22
7
-39
23
44
-86
-71
-71
88
32
13
23
-43
-28
-12
-46
-59
18
-70
-45
-31
11
15
11
-20
57
-53
-96
-18
16
-47
52
-39
-7
-39
-61
127
-40
39
-55
-53
12
11
-34
-78
-14
127
-10
24
-8
49
12
14
-32
11
13
-35
-17
-53
-52
6
-1
6
48
-5
-55
-15
-22
-42
41
90
12
-91
-29
78
-30
-25
-7
4
16
-4
-16
-28
45
5
-19
23
-6
-31
-12
-6
10
-24
3
19
-51
-106
0
19
-6
0
38
29
30
9
53
-10
69
-1
30
-14
5
60
-64
74
28
-67
2
38
47
67
20
59
13
30
-49
-44
-19
-32
12
28
-6
-127
-29
-18
-72
-71
-66
5
-43
-34
-7
-32
-6
-64
-83
23
32
112
-63
-18
-17
-4
-24
-47
-36
76
-54
44
-71
49
-83
87
-72
8
-55
-17
56
-59
-63
-28
10
-35
-40
81
3
11
-58
-38
3
-127
58
27
-114
-46
29
38
-14
-127
30
-8
-15
9
3
-2
8
44
-41
15
-49
-2
40
22
-27
55
58
59
97
-25
-4
-19
-36
27
19
-6
55
12
-3
75
-72
-38
-10
25
-42
32
-23
0
-77
-45
56
18
-26
-18
41
-19
67
-3
-9
17
-21
-46
50
-84
14
36
-48
-28
-45
-37
2
-31
42
-42
-29
-36
-1
54
-66
-34
58
-78
-125
39
3
127
-17
67
84
-25
23
36
9
-44
21
16
-2
-16
-13
22
-86
22
2
17
4
22
-2
-9
-14
-31
-29
-14
-9
-13
-30
-1
7
10
0
-34
-9
24
15
-34
-7
25
-19
-11
127
3
-21
3
27
-41
-5
0
-12
4
2
-42
23
3
-10
1
-25
-1
5
41
11
11
-31
25
-53
2
13
-14
0
104
89
82
31
26
20
-31
-50
72
-29
19
-117
-80
-36
-127
-62
5
126
-49
-24
7
-27
-22
31
2
-4
-25
-40
-38
-3
-16
15
14
-27
39
-64
-8
35
-16
5
38
-8
-34
-36
-44
-26
28
-30
-32
-72
9
-83
33
5
34
21
-23
15
-127
58
-15
-1
-46
13
30
-21
87
-104
-65
-123
44
81
118
49
59
-45
1
-20
78
-27
-23
17
22
-33
19
-6
-92
61
-46
-7
-102
16
40
-77
-24
6
-17
-61
24
1
-41
-93
-22
3
15
4
4
-61
-5
53
-27
14
119
-10
-32
-65
-29
92
0
67
64
-67
62
-15
-78
14
-45
-24
-127
-37
32
-85
108
-62
-28
39
26
104
-65
-23
-57
-16
-65
-102
-32
-57
-46
16
-16
-30
44
127
-5
84
-17
26
-21
44
2
78
-48
-74
-82
-34
7
33
8
-24
7
54
-92
-37
-14
-8
-60
-42
-40
-1
-42
-2
88
55
50
-26
18
4
-28
6
-27
22
-86
-35
-34
-45
13
-5
-5
-11
56
-47
16
-16
17
66
-4
3
-30
64
7
-97
-3
-11
-61
-64
-10
-41
107
18
41
39
-81
-51
-35
22
-51
-127
-17
51
-72
-31
112
-56
-13
-95
16
29
-51
-32
-3
-52
-43
-11
-28
-40
55
21
-39
-56
-32
-96
-4
91
45
-25
2
17
43
-26
50
13
-127
-101
101
-11
113
-1
-51
32
-97
-2
-56
-100
-14
20
-30
-4
-20
-87
-13
4
-28
-13
-14
-1
-27
-68
29
-18
8
-60
-26
-43
11
15
-1
-18
-40
-40
-41
122
-84
30
-57
-8
45
79
73
-32
-25
11
-58
-31
-58
-13
-27
127
-87
-12
24
-20
-7
-72
13
-9
-18
-56
33
1
-12
-93
15
102
50
-14
86
-43
-91
-38
-55
14
4
-82
-25
-18
-82
-52
9
4
-28
-21
-51
59
72
-34
-83
-24
-122
-124
0
-18
61
48
77
127
-6
-79
43
63
6
53
12
0
-34
-96
-6
24
-19
127
2
-35
-87
-74
-18
8
22
-36
-48
18
16
-94
-24
-65
-30
-113
57
-47
-74
50
-23
27
-12
49
-71
-79
-9
-13
-72
-28
-35
-18
-65
-53
-27
1
22
-47
-10
-25
-23
-9
54
23
39
-16
-43
-71
-41
4
-50
-15
1
-36
-20
122
19
12
19
-5
-11
-114
55
-9
-91
-1
6
-85
-8
50
-16
-96
-23
-18
-63
-7
41
38
28
-33
-22
-48
54
-66
-3
33
7
29
-27
-103
-45
-4
-8
-9
-127
5
-26
41
-31
4
23
-52
-15
29
-29
-8
8
1
67
-32
-41
7
-42
37
2
-32
37
1
13
-47
37
-37
-127
-79
2
12
-38
-7
-5
45
19
-12
19
28
-5
20
12
-3
-62
-40
-19
-8
-16
-13
-77
-46
22
-9
3
-38
39
-62
-101
28
2
28
52
-127
-7
18
-27
2
73
-21
114
-60
77
-5
-28
-44
13
-11
22
2
3
-12
-53
27
-13
-50
-25
-33
-84
5
-16
77
-5
-97
-96
-70
-13
-10
23
-102
-71
-77
32
28
1
12
45
97
80
-80
-35
11
-95
-46
-46
68
-52
11
14
16
-68
25
39
84
-108
87
-24
-12
122
15
102
43
-117
26
-50
63
-127
-55
12
-9
-35
-2
13
-15
-21
4
-65
8
-24
-46
-127
35
-14
-76
-61
-75
-26
50
-9
74
45
-67
-29
-83
-30
59
13
14
-67
6
20
34
60
-55
5
-35
16
25
-20
-86
91
0
-15
-4
-41
-19
29
-18
-25
52
25
-2
31
-72
-11
-83
-40
-64
2
-1
119
-57
107
-6
56
76
-42
-4
0
-127
10
-90
79
43
-17
42
-114
-101
-60
114
-55
38
-89
-62
-54
-15
-40
18
17
-122
23
-37
28
46
-121
-55
-71
20
-108
120
-74
15
-21
55
7
19
34
-14
-36
32
-32
14
8
8
-18
-127
37
18
5
32
-48
-2
41
57
1
17
-35
-2
32
3
-39
48
-67
12
8
-8
31
53
-23
-10
-11
-3
34
-37
7
13
12
3
-29
-21
50
46
23
33
-10
-27
25
-43
-68
-18
15
-62
22
46
-8
31
24
-33
-1
-41
14
-29
-20
-26
-17
-33
-1
35
-42
33
27
-60
8
49
-59
2
14
-5
-127
-24
-20
26
1
-16
-18
-27
-34
-73
3
30
37
16
-70
-14
-12
87
-85
-68
50
34
-17
31
41
35
127
-31
23
15
-57
17
-63
-39
-71
-73
-21
-60
-34
-13
-36
-40
-41
-101
-12
-3
10
25
0
3
55
-17
63
71
60
-6
-89
-111
-21
-5
58
-72
-47
-114
-110
-57
-20
-26
-51
-10
87
63
1
18
-29
-102
127
10
-71
22
-4
-107
-81
-66
2
-11
-19
-11
67
-32
-49
53
13
-39
-103
-43
-76
4
-97
-20
-16
99
40
2
17
12
-18
18
-127
45
11
55
32
-108
-17
-41
55
27
-62
-52
54
-77
87
42
-35
23
2
-3
-78
-33
-104
-1
-3
-42
-92
-6
7
-68
53
-28
-9
-26
4
2
40
35
-24
-23
-15
-67
40
-56
3
34
-10
-103
-66
20
-8
61
-41
25
-96
-58
21
-17
-49
-36
-21
-41
-68
46
-78
53
-7
-8
-18
28
32
41
-43
-90
-61
121
77
-62
-33
-26
77
34
104
127
54
-34
23
-48
-32
-57
99
14
27
-66
-16
-75
-57
1
-47
-59
25
-93
-17
1
35
29
-108
8
7
60
-94
-36
2
-47
2
-44
50
-111
115
20
-55
-18
-62
20
-31
-76
-19
-127
42
18
42
-23
-10
24
0
-51
81
1
8
42
-53
21
-64
-50
-79
-47
-82
24
6
-127
-26
23
25
-90
-45
49
-17
1
-5
-34
17
-40
13
-55
-7
-124
-46
-42
-59
-4
-93
21
-34
-29
-59
-75
41
12
44
-61
58
72
31
-108
49
-15
56
77
99
-81
-15
0
118
28
70
23
-27
-41
-15
-20
89
-55
-47
-78
-17
-18
-56
-53
69
-19
3
-22
-97
-40
64
22
-127
-10
5
69
20
53
13
-17
-5
-55
-80
29
-90
-32
24
14
10
-124
-47
-60
-47
72
-53
-78
1
-62
19
127
13
-52
-60
-53
99
-7
12
41
34
59
-125
-99
73
-44
96
-45
12
18
-19
34
105
-67
1
-99
-11
-11
-26
71
-6
-43
-109
58
8
-54
-34
84
48
113
13
105
-3
2
7
103
-21
-60
-22
-20
-18
-32
-14
-68
9
53
-68
-12
17
52
41
19
29
-31
-8
88
63
-42
29
-27
66
36
51
43
-19
-36
-14
-51
38
69
22
35
25
-24
-24
-46
-36
127
-9
-44
-19
64
-51
-41
43
-15
-31
127
-22
-76
-51
103
-56
37
21
-74
-116
-98
-15
-20
-4
44
-3
-27
19
14
-47
56
-2
-11
-19
-6
37
-99
-56
-2
127
22
-21
-96
-24
18
-96
-6
-4
9
-42
7
64
-34
29
12
32
5
14
33
55
-2
-75
10
48
-4
-44
-59
35
14
16
34
-45
-7
-23
-14
-16
44
25
18
43
-43
35
-64
23
-69
-37
-127
33
-22
-39
-41
-35
-41
-101
0
46
-7
-4
-6
6
-11
-49
4
-106
23
30
-83
-14
0
-40
-59
-10
-55
-31
-5
-75
-41
-127
14
-1
67
-29
-61
2
-32
-9
69
4
-72
10
-117
8
1
-25
22
-27
-12
2
-29
44
3
53
-49
25
-58
-21
8
-70
-18
-127
-78
-29
34
-13
-126
-70
76
-67
9
-14
-9
-91
18
-2
21
-127
28
-47
-91
-19
30
66
-39
85
-5
-69
82
29
-90
83
-33
29
-64
-1
20
10
46
-95
-43
81
-12
17
0
-36
-5
-80
-32
27
29
-47
-20
-34
-21
-63
35
-28
48
-8
44
-33
6
-14
15
-47
-37
33
36
-22
7
-7
-50
-20
33
-107
-120
13
-57
127
16
87
-2
30
-2
5
7
-39
-30
8
-81
-44
9
-17
-70
26
18
-65
-20
-4
-127
-8
-15
17
-40
48
-39
-80
13
-38
-57
8
-21
0
25
-66
-30
-33
-7
-123
83
-21
32
69
-10
9
-16
20
-20
-67
38
-49
-6
-53
-26
18
-3
-78
47
-25
-52
1
-17
5
-47
-21
61
23
17
-52
-53
-59
-4
-24
20
12
-116
4
17
-6
-44
40
-7
-20
-12
-78
-66
-46
-13
-127
24
-60
22
48
6
81
93
-13
48
-37
7
16
43
-57
-21
-40
79
-14
-123
-10
-68
-11
40
-54
-19
14
-7
-8
36
-15
127
2
-4
-7
1
-41
-20
-44
-68
-22
-1
19
-27
2
-10
-18
-6
2
-10
-1
1
-54
-13
-22
-37
-11
-21
55
13
-36
-9
-33
-28
-4
-9
-7
-26
-26
-12
6
-51
-39
-30
-13
48
-30
-7
-31
-67
-42
0
-10
-4
-24
38
127
6
-4
-11
-26
-1
-11
-23
-23
0
18
8
-16
-3
-24
11
8
-20
-20
10
-1
-28
-16
8
-30
-19
-25
-18
-10
16
-12
-8
18
-8
-112
-127
-62
14
21
-42
22
-1
-25
3
29
-102
11
18
59
55
31
-67
-97
59
-110
-91
-110
21
45
23
-45
0
53
-81
-42
52
54
-33
-28
-44
-25
-16
-23
5
-77
-22
8
-9
-104
-10
-25
-124
-45
5
83
-69
23
-82
-20
-32
62
-19
38
-62
-74
-8
-108
51
54
-93
32
48
127
-32
-67
45
52
33
23
-8
-31
23
-11
-116
-25
87
63
-8
39
36
57
-24
-116
-10
-57
37
-22
-89
-33
-71
-18
-94
-36
-44
67
-36
-25
-68
51
70
-127
-78
-11
18
-39
-13
28
-72
35
0
-1
-39
7
26
36
19
-51
-10
-56
-30
45
-24
-65
80
-41
-24
14
-18
-31
-94
-4
61
-84
-89
2
-29
-85
32
22
2
-41
29
-3
-57
-39
-9
18
-23
-21
-11
3
74
-56
45
-63
-23
-24
-44
9
16
32
34
-40
15
-96
-65
29
-59
52
64
-104
57
48
-5
-127
-15
7
80
-26
41
43
3
21
-80
67
14
-15
58
121
69
127
-1
20
-126
9
-19
-65
93
-18
-8
-8
-75
-10
116
-89
11
9
-54
-32
-34
-9
103
42
-46
-70
65
32
113
11
3
8
-61
17
70
6
4
-14
18
20
-90
-96
-101
-88
-33
-127
9
-7
31
-22
33
-42
18
54
-19
36
-3
-26
25
18
4
0
-39
-18
-17
7
1
11
22
14
-18
-19
-1
29
-56
24
4
-17
-39
56
-33
-40
-4
27
3
-26
26
-36
-16
29
-11
3
71
48
16
110
-14
94
-66
-43
-38
-49
-2
62
-68
78
-111
8
-35
-22
20
-48
10
7
56
-53
36
21
44
-92
15
34
127
39
18
-5
6
-2
-56
73
23
-4
10
-21
105
-8
-21
-8
111
-10
-41
23
13
95
19
77
-76
-3
-58
39
85
8
-73
-9
-17
-44
-25
-97
31
-28
-45
-2
44
8
-39
5
41
-127
-57
-24
-16
-116
107
29
11
30
-27
23
12
48
9
4
63
-23
18
8
12
-74
23
-32
-29
10
1
-5
-47
-1
-10
14
-38
5
-12
127
2
-14
-39
-44
12
14
-38
-1
-25
49
-25
-55
-16
-16
-39
-3
-5
-8
16
31
-9
-5
-4
-27
-10
-23
-18
-24
-26
-22
-3
-9
5
-22
20
-19
-33
-19
-56
14
-79
-13
6
-60
-4
26
1
-87
-1
97
-44
57
-16
-26
-36
-90
-61
-17
-15
-54
-25
-13
127
-93
-21
-2
-4
-44
-76
-11
-93
-35
-52
-67
-100
-18
-55
-120
18
-7
13
8
53
34
-14
-36
-74
53
56
-12
-25
-64
-41
-127
-84
23
-15
6
-1
-9
-61
22
-22
-2
67
-95
-46
-2
-6
-85
26
65
3
81
-34
49
-37
40
27
7
19
-33
-16
-45
-23
7
18
-10
-49
86
-2
-10
-22
-27
28
-20
-42
17
-23
2
-6
-22
-61
23
-34
-7
-8
7
-4
-20
29
51
9
6
-17
-53
58
-127
23
57
25
97
-76
-26
11
74
-64
21
-39
-7
22
34
3
-55
-70
-28
-26
-34
-16
-9
-27
45
-17
-16
30
-36
11
-17
7
-54
0
-32
-67
10
-46
0
63
-50
127
-48
40
-41
-16
-22
-5
-39
3
-52
-6
-66
6
-56
17
-53
25
-59
-16
-46
-12
65
-23
29
-72
3
-32
29
-25
12
-37
18
-35
5
-103
59
-25
32
35
-44
-6
42
61
-74
59
26
-46
-24
-37
0
24
74
7
-44
-41
7
72
71
47
-48
127
32
-56
2
-28
-13
-25
-28
-94
-27
14
-14
-113
24
-103
32
-105
28
93
37
65
117
49
-21
9
-33
34
-17
-127
75
-73
-40
-57
-36
-38
-21
-15
-44
22
89
-26
-106
24
-104
-97
20
5
17
-52
36
20
84
-19
-32
-114
22
-36
40
25
-107
-70
40
-25
-55
-30
-27
-64
98
17
-47
-56
11
80
6
52
22
-78
17
-30
28
-51
-127
17
2
14
50
-31
74
26
8
-86
-21
-65
83
5
1
-33
-119
-14
-13
-58
-1
32
9
-21
-13
11
-46
-27
29
5
-12
44
-15
35
-60
103
-8
21
-10
40
13
12
-15
-55
18
-67
-54
-41
-56
-33
0
-69
-58
-21
-14
26
-32
30
-82
32
-54
11
-36
53
-4
66
70
-51
-127
-6
44
-19
-20
-85
-32
-58
39
79
56
47
-104
11
7
-38
-15
-66
-32
-7
94
-7
-38
-16
-20
-27
8
-48
-15
-22
-63
-4
-2
-17
26
76
4
1
-19
-12
-53
-30
-9
6
-54
-24
4
-43
-90
41
-127
-41
-12
-45
-22
-2
26
-22
-29
-12
26
-15
-26
-10
14
68
-12
26
4
16
32
-100
-40
-70
-30
-33
-44
-46
15
17
-5
15
-49
-39
-18
20
-47
6
-65
-49
-8
-37
0
-40
27
-28
-49
-11
-18
-6
18
-70
-69
24
15
38
-127
-38
-6
60
19
-17
-40
-71
-22
-21
-5
-2
-66
-6
-12
-29
-47
-40
-127
-74
0
-62
-7
39
-67
-64
28
33
-23
-26
-39
31
60
-6
-43
-24
67
33
-37
-40
2
32
-60
-52
-50
-11
16
54
-44
8
58
16
-26
10
3
-6
0
11
-75
9
-23
2
23
-11
9
44
11
-7
17
36
0
-16
-40
9
-14
-26
0
-2
-19
-69
11
-19
-11
-25
-5
-31
-52
-14
127
-16
-32
16
-7
9
-63
-6
-28
56
127
-17
-16
-6
44
23
-11
65
29
-5
-52
-10
-16
-30
-67
45
-12
-11
38
-47
-19
5
89
41
70
22
-93
-24
-2
-34
-38
7
87
84
-70
-50
94
-18
-18
-17
-8
84
-2
-26
64
25
-3
16
9
13
-45
-36
-13
-26
43
25
46
-30
-89
10
-88
-7
81
-64
69
-71
-53
-124
36
-78
-9
20
-127
-1
-4
-38
64
69
-14
15
-29
21
-53
-96
-55
-44
53
25
-49
-73
-42
-57
-22
-8
-19
-15
-127
-14
38
16
-11
29
-6
-15
44
-74
43
-37
36
-40
30
100
-4
10
13
-10
0
-20
61
9
-30
-40
-44
-51
18
37
-10
-10
12
-40
-9
44
-22
-25
1
-17
4
32
-40
10
-39
6
-23
2
-45
-46
18
-69
1
12
53
-40
21
23
45
-54
40
-37
-74
36
-28
-127
-4
-43
-17
-19
15
21
-53
51
-12
-43
-10
-7
25
-8
-54
-28
22
70
-10
23
-7
-56
-17
-24
-14
-65
-13
9
-41
59
-27
-51
-65
5
-13
-6
-52
-71
-60
43
-97
-49
64
-64
50
-88
-34
-30
1
-44
-48
-10
-77
54
31
-19
7
-28
127
-8
-13
12
-12
23
-38
-55
-30
-50
-77
-14
-106
-14
-30
64
-5
-28
17
-53
-18
19
-105
-17
-42
-35
-28
-34
-27
35
-73
-25
-53
51
121
-54
-28
-43
11
23
-91
-9
-49
-45
-89
-23
-77
-42
-41
74
-34
-62
103
6
9
-30
91
-17
-2
2
-35
-61
127
35
-108
22
-42
5
26
22
1
27
-98
2
-50
92
25
15
-9
-93
-10
-44
-10
-4
46
16
-41
-56
49
-13
-10
-3
-17
-26
-127
-10
-57
81
67
32
-24
41
-12
-68
117
-31
-2
24
26
51
-35
-67
83
-23
-89
-51
-36
17
-62
67
-54
11
-50
-24
-58
-8
-115
42
-17
126
89
-117
86
-76
-78
68
56
-26
37
-56
74
-39
-74
-94
-123
-86
-20
52
-43
-26
-53
-63
-89
-46
-80
-74
19
-4
-13
57
16
-52
127
-17
-11
-1
-23
8
-65
-21
-79
-66
-74
66
-41
25
33
52
-91
-31
31
91
30
-2
-58
-61
52
-55
19
-71
-119
-77
-19
-113
-13
16
22
114
-15
-32
-85
29
-52
-6
-44
-66
-54
-27
-44
127
-1
1
10
-23
-23
1
16
-25
-83
-38
-19
3
-38
21
31
16
-33
-6
-15
-46
7
-14
-5
59
40
-53
19
-17
-86
-127
-42
40
24
34
-3
57
-29
-36
22
-26
13
-17
2
-3
13
4
-29
-15
27
-13
30
32
-12
7
43
-9
-3
-57
10
9
6
-11
14
-21
-31
22
5
-7
29
10
-6
21
61
-88
-73
1
-127
28
-52
-9
66
16
15
16
-22
-7
22
27
8
24
-19
10
3
-40
24
-8
-28
30
29
9
-72
-18
-48
-23
-35
-4
-16
23
13
-54
-23
-2
-25
-39
-36
4
-2
47
13
12
70
39
30
-38
8
-25
3
43
-30
-64
13
-25
-75
69
17
-127
5
14
40
0
78
1
21
-6
-14
-18
35
-60
-68
-17
35
53
-7
-43
101
-14
4
-62
-71
31
-4
-26
-13
-44
70
3
-18
-20
-13
-22
2
-43
-48
82
-29
-17
55
-115
-27
-127
13
-16
-65
-36
24
1
-7
-44
18
59
-24
13
-21
-58
42
40
96
1
102
-3
-59
-44
-34
83
-51
-76
18
-44
34
-44
-22
6
-14
-108
-35
-29
-26
-22
57
22
-127
66
2
21
35
115
-54
67
39
-12
-12
9
25
22
-27
2
-33
-87
24
29
-43
-9
-49
-49
-42
-126
-14
-28
29
-86
-9
-56
-51
-39
-31
-58
-47
-17
13
-48
-63
1
-36
-8
-57
-46
-41
-10
-4
35
44
-53
-110
-34
49
-58
16
-74
89
-127
-60
-39
-19
25
89
65
47
-11
-39
-50
9
37
58
-40
-93
11
-7
46
36
-18
-68
-92
-25
5
0
-8
23
-18
-26
-35
-35
-36
45
127
-10
-35
46
42
-51
6
-7
-1
-12
24
-24
-5
-21
-52
16
-9
-15
16
-15
-25
-37
-33
19
-12
32
-65
-5
42
-24
37
127
-106
-24
-1
-55
-8
-35
-90
4
29
7
-112
86
-53
-37
27
-72
63
-62
47
-17
42
-118
-57
45
-5
-33
109
-91
18
-4
44
5
-17
28
121
60
-1
11
38
-42
-100
14
-60
10
-3
-37
45
-12
7
21
-31
-9
-17
127
5
53
57
35
81
53
-44
73
-82
112
47
-60
-14
-86
23
-6
17
17
21
-24
64
-80
-40
-34
-41
-52
-45
-9
2
-39
27
83
-46
19
-59
73
-65
12
6
-4
-73
28
-7
-19
39
9
-60
22
103
12
-127
38
5
-37
55
-20
-44
-16
-4
20
-7
34
-32
-45
-82
-35
27
-24
-38
56
-33
14
-54
37
-14
-45
-22
-49
-19
-2
10
22
-127
22
-91
-15
-25
-26
-59
-117
-86
0
-65
31
64
-76
30
58
95
-69
38
-9
69
-80
3
-29
-57
-28
12
10
-23
-42
-78
-22
26
10
30
-76
-30
5
-34
-29
-1
-65
-1
-13
53
12
-40
-3
-91
-12
-12
-1
3
11
-83
-79
7
-64
-4
33
12
30
-45
-65
-49
18
3
-41
-50
-28
32
35
-57
-118
39
-28
-21
22
-51
28
52
-9
127
-9
0
4
73
-39
6
6
16
-42
-102
-6
8
-43
-40
23
65
90
-39
-84
-69
7
127
32
-28
-6
-36
-23
-69
12
-42
-7
91
-19
39
-28
33
86
-47
-10
-87
42
-47
54
-27
-37
-70
-47
30
-3
-6
21
-50
51
63
15
3
-63
-27
-64
-23
-44
-22
-38
-1
-17
-14
-9
-35
-18
-107
-27
-26
-2
16
17
-26
-5
-59
-77
-5
0
10
-14
-40
61
-88
-63
42
-49
-9
-9
-10
44
-88
9
127
-39
-62
70
65
-15
-94
25
14
-24
-14
38
-47
-7
-66
16
-69
38
37
-15
-89
127
-13
2
-3
15
-62
-1
-46
-37
43
23
-51
-14
108
-24
-42
-20
-11
-76
24
-4
25
-86
-22
-39
-7
-18
-59
-40
-64
-68
-6
2
34
118
-11
-28
-71
-42
-78
31
8
-57
-38
-23
-8
-21
67
5
-127
-89
-26
46
14
-3
-36
-66
-88
9
-40
-4
-92
-32
62
-35
-35
-35
-8
45
61
40
-9
49
62
-74
8
-86
-109
8
-42
-75
-49
-19
-31
-27
-17
9
27
93
22
3
-22
72
71
-127
-35
-19
36
-67
-103
-23
-41
-62
-87
9
-20
14
28
4
38
43
6
-3
23
-37
-5
-56
34
-21
33
46
-16
-17
70
-35
-16
-37
21
-13
-24
40
-16
-36
-18
-5
41
-50
9
-23
-11
-19
40
59
90
-14
106
7
-57
-42
79
-16
19
90
13
5
32
18
-62
26
47
-32
-3
14
19
58
0
-15
-25
-2
0
70
-110
13
-24
-58
29
-76
-127
0
-23
51
-89
-61
39
-90
-32
-30
-20
-23
11
-17
43
56
-35
-69
-7
7
-37
-2
70
44
39
8
-101
-53
78
-17
-105
-127
-71
60
-15
-10
-70
5
-26
-34
-43
-92
-52
17
-79
-30
81
20
-72
66
-38
25
109
-15
-25
57
-19
9
-59
-37
34
-40
41
19
-127
-7
65
-54
-28
-66
-23
12
-23
6
-31
-46
-108
-22
-77
6
19
-38
28
25
88
-97
-57
72
-80
-113
-48
-45
-53
98
-57
-32
-63
-16
35
10
-85
-55
35
53
-44
-43
2
66
-117
-86
-1
-39
-10
-83
-35
-36
-55
-3
-15
-126
-5
-48
-101
-108
127
-23
6
19
62
-28
29
-64
123
-46
-49
101
0
65
90
-40
55
-87
-25
-44
-73
-34
69
-21
-98
94
17
-17
-41
-84
-67
-29
-23
-37
86
-3
98
-83
-17
78
49
-55
-5
0
-72
-12
21
-6
92
-2
-74
53
-22
-127
-96
29
15
-9
15
-37
51
-57
-12
22
-37
-76
-7
-65
14
64
-67
28
-5
9
-53
-23
-10
-6
-36
-44
-26
-4
-61
-45
-48
61
11
17
46
-16
-8
-42
18
-38
127
-9
89
23
15
18
-50
-81
-52
54
80
-15
-55
34
27
-15
103
-35
6
-16
110
-2
-74
82
-35
-18
-76
-84
-96
30
-4
-40
-55
-9
70
-16
4
16
-43
17
-41
127
-6
-65
41
25
48
-10
0
-49
67
-8
-14
-27
-33
15
-74
-32
-38
22
-59
-61
8
-7
-16
68
-89
14
-13
-41
-13
-12
-9
-39
26
13
-64
-44
9
-27
28
-18
22
-19
-127
-57
-23
39
-15
-8
22
29
20
-36
21
-63
7
-14
3
-29
46
81
-54
32
-1
-67
40
20
36
-87
28
-44
-32
-4
-32
28
-21
-46
32
-9
-43
-10
4
-43
7
-32
44
102
-62
-15
-26
-19
42
-40
110
-30
44
-59
26
74
-70
14
-46
-40
-8
-75
23
-55
15
0
11
15
-50
-23
42
41
-46
-32
-73
-122
-72
-71
35
41
-38
-2
31
30
-43
18
-127
-24
30
-23
-34
-12
-25
-24
-13
10
68
6
15
-94
-15
-3
29
-7
14
-24
-26
3
-25
9
10
-39
29
-21
2
1
-2
-28
-77
1
-15
2
49
28
18
41
-26
-17
-127
20
9
-5
-1
66
-44
41
23
-44
-11
52
-89
-25
-105
92
-54
-117
1
-43
16
-68
-69
-47
-82
-110
3
32
-25
-46
63
3
70
-123
127
-97
33
-103
-101
-64
-51
-20
-43
112
39
-45
-7
-10
-33
-17
122
12
76
42
-56
59
-40
-2
-6
-47
-73
-56
-53
69
-22
-71
71
-34
-103
3
-31
20
-22
-47
-9
-31
-32
66
-30
35
95
-18
51
-67
22
22
62
-11
-56
-6
-127
17
-65
6
-27
-30
-8
-50
27
28
25
32
33
-14
-82
-12
-58
91
-39
116
40
-12
-34
27
-53
-34
18
63
15
-73
-39
-11
-48
-35
30
-38
61
5
6
27
-5
-19
-20
-127
-104
-9
28
17
25
-39
46
-89
-54
58
-77
-45
74
-20
41
8
-87
-72
24
-14
-7
-53
-74
-42
-12
60
23
-92
15
48
-71
-37
-6
-16
44
-8
14
30
16
-38
62
-90
-28
-12
-67
13
-33
18
-6
-4
-127
-10
-3
-48
17
-24
-63
23
-76
-8
-30
8
-58
-8
27
-46
-39
5
-46
-11
112
-96
21
-10
-64
-41
38
20
57
-127
-41
-5
-105
-31
-58
-24
-109
-5
-42
-47
53
-58
12
22
25
8
-59
-68
-88
-26
-82
7
-9
-68
64
-14
-58
-43
-13
32
6
-72
-80
-33
63
-15
-23
-127
-42
17
35
34
-44
30
-97
-8
-29
66
-83
-18
-65
-107
56
27
-74
-43
-49
-18
-95
-122
28
-105
-8
-9
-61
-53
-81
-78
-47
67
-9
-31
29
-6
-37
-53
-8
-3
-23
48
19
-54
-14
-66
13
-10
2
4
3
6
-31
1
9
3
13
6
10
-6
0
-2
-23
-7
8
9
-17
-127
8
-1
8
-18
-19
-13
-10
4
7
27
4
-10
-12
-11
6
3
-33
4
-2
-8
-1
-11
3
-12
-9
-4
-14
-67
-51
-1
-6
18
57
-20
-22
-23
-64
17
1
-14
-127
4
-25
23
-91
35
-21
-41
-20
61
-13
-1
-110
-35
25
-10
-17
79
11
-31
92
-32
-41
21
-90
41
-24
-8
26
-36
-68
-7
-61
-86
-99
-106
-40
-13
21
75
29
-35
9
9
-26
55
-73
-112
-47
88
61
-34
-9
16
64
9
15
49
-52
84
-61
-1
-3
-42
-15
8
-73
12
-41
-64
-1
-18
28
-30
53
21
-95
127
24
-76
-5
-2
-13
32
15
-37
-23
-34
-3
-4
87
3
-51
8
19
-29
-86
-9
-19
-42
-22
34
21
-10
39
39
-21
-2
-4
-12
-127
53
27
37
12
-30
22
42
-22
-24
21
18
15
-19
-39
-20
53
9
-44
10
-61
-49
-23
-2
-40
-35
5
-88
-88
-39
-13
-106
-27
-53
-75
-11
-117
-37
6
-12
38
28
-98
-49
43
5
-69
-11
-40
19
53
29
-107
-13
-24
16
-32
-111
45
127
-34
-96
45
41
36
78
0
66
36
6
27
-127
6
-22
31
14
-55
4
-39
7
22
3
1
-74
15
34
-19
8
-14
-62
20
13
-20
-58
25
-73
-30
-29
-4
49
-14
22
-14
-33
-23
13
-27
5
2
-50
40
-18
40
1
-76
0
22
-63
-84
-9
17
-84
-18
-17
20
25
21
32
-69
-3
-60
63
43
-52
-55
-52
-44
21
36
-97
-60
-109
37
87
69
-46
-46
12
31
-67
-14
35
17
-45
-52
-32
-1
64
-37
-20
-21
-1
127
67
33
-47
-25
27
-8
18
8
19
26
45
-83
29
1
-109
17
-42
-21
-27
29
25
20
-24
-71
-7
32
-127
-36
31
10
-26
-99
-50
-6
5
-58
-79
-69
-5
-48
21
55
44
-108
27
10
-4
11
-79
121
-55
-101
-11
25
-14
-8
11
44
0
76
0
6
-54
-15
-7
-42
35
127
-29
60
11
-67
-69
-55
23
-69
-8
4
-3
-90
0
-44
-25
6
40
-47
-74
-61
-24
13
67
-19
-35
-65
-102
-19
-95
84
24
9
-56
-98
-95
-26
-79
34
88
-57
-116
-62
-57
-24
-47
14
83
-57
-76
9
-7
-50
-92
-69
3
40
-106
24
15
6
71
33
-3
-51
-4
-33
6
-17
34
-58
59
-52
-125
-113
-32
-71
-127
29
11
-18
12
-71
10
69
-13
92
-30
-99
11
-25
-69
16
122
41
-38
-13
7
52
-86
24
-44
-49
1
40
55
-12
27
-78
-16
-69
-41
-10
85
-75
-127
45
-30
-53
40
38
56
97
-34
82
-3
-14
23
-20
10
-25
-85
17
-33
-5
-28
-38
33
34
-29
33
-1
-11
3
3
11
12
15
-32
-77
-107
7
22
27
10
-2
-21
27
-66
-12
-28
-14
-56
0
-29
-25
29
25
-32
12
-6
11
-28
127
37
-29
14
-69
-55
77
-71
15
21
-73
29
26
-23
-37
-28
1
19
15
-33
42
26
24
-78
-27
-22
-44
82
-43
-32
-60
-7
106
-33
67
-10
44
-65
-22
28
-64
-34
41
-83
-127
-106
12
-36
-23
49
-46
-1
-49
-17
-127
-6
13
-29
-5
-85
36
-42
-9
56
16
57
26
26
7
15
-8
-13
31
7
-31
-82
-17
-16
-33
18
-1
0
-22
-27
-64
-38
38
-36
-49
32
4
67
18
-45
28
-59
3
-26
36
-22
-59
-48
25
36
-7
48
60
12
-65
-30
-1
-3
32
-48
-48
-81
-61
-8
-35
-109
101
67
127
-37
-49
56
-49
-41
43
33
-62
-3
-107
-24
-9
-60
29
-49
-38
-2
-65
27
2
-8
-12
-29
-101
-83
27
55
9
-29
-33
18
-18
-28
-126
79
-17
-13
0
127
-6
-84
-35
36
-23
30
-22
38
-5
-37
48
-36
105
-51
13
46
-20
-38
4
-97
-83
22
20
2
21
30
-38
-22
-44
74
-75
-6
-65
-31
-45
-71
-67
59
15
86
-42
9
-81
-3
-98
-111
-18
32
-51
-64
-2
-49
-16
-82
-22
12
33
-25
-27
37
-1
29
-31
16
-5
-55
-6
-87
-81
-17
-62
-51
-36
-86
55
11
13
30
127
59
3
73
-50
40
34
59
-25
-80
12
2
-22
1
5
1
-55
9
-11
3
39
17
-23
127
23
-51
-65
-9
-64
69
17
44
43
23
23
51
51
3
21
-31
56
15
38
-39
-76
-32
22
64
-27
0
-104
-8
98
-8
-39
-75
30
74
7
83
-32
39
-70
-56
59
-5
-41
-90
-45
-70
-46
-94
-109
-79
-65
-14
-29
-76
49
35
-11
-11
-26
-28
14
-29
46
27
3
-32
-39
-127
-34
0
-90
23
-11
85
0
-21
-3
-48
127
-45
-28
43
-60
-21
7
-86
-64
-29
-67
103
-32
20
-84
13
6
-41
-22
120
-19
92
49
75
88
-24
0
-82
8
-2
-18
-4
-48
-99
-51
1
-17
-68
-52
-11
9
-2
-21
67
36
6
40
22
84
-37
-21
-49
35
66
57
-15
-79
-20
6
27
-88
20
-72
86
-27
-58
-70
-13
82
-106
99
-27
11
44
-101
86
-93
-21
-4
16
-39
127
-102
-22
35
33
-28
-42
-38
-110
-74
-6
-9
-41
-43
-2
-83
2
-11
52
0
-75
-1
35
8
37
19
50
-15
-31
-20
59
-11
12
6
37
37
-22
-7
-28
12
-46
-2
-15
-11
-127
-44
-55
-41
-12
-7
-103
9
-10
-37
47
22
61
17
40
-13
-6
126
-55
13
-38
-10
-8
-18
-50
-10
-56
-44
-42
-49
-50
-127
-7
-2
-37
-15
-68
-1
-17
13
-23
-7
-55
24
19
-92
11
86
76
-17
-16
-31
-45
-30
13
-40
3
-28
-95
-30
53
-32
-54
-8
63
-39
19
38
-79
45
47
66
88
-115
27
-13
38
-26
-19
7
-8
-22
-27
42
-97
16
-38
-18
93
-60
79
-91
-1
-2
9
-10
31
3
127
-33
43
-54
67
54
-28
-22
-16
-28
42
17
-39
77
14
4
52
38
7
-52
-53
1
-37
-39
16
-89
-95
-27
20
-22
77
95
-1
-18
-94
-4
-68
-50
-127
-15
-4
64
-54
-2
-88
-38
109
-95
47
-5
-62
6
-13
18
-6
-60
-20
-20
-48
-32
-4
-47
-8
46
-60
-3
-49
-2
-44
8
9
-73
-18
5
-17
5
-10
17
-2
-11
14
-6
-38
-86
127
-22
-34
-24
-26
-4
2
-27
-33
-80
36
-45
-21
-46
-28
-13
-9
-2
52
-43
-23
10
-14
-2
16
24
14
-6
-59
11
-55
-35
-95
58
32
21
-1
-64
-115
-54
-41
-54
25
-107
-56
-79
1
11
-57
-104
-53
-17
86
43
95
-18
-32
12
90
36
-52
-22
26
18
-89
-8
23
-127
-113
-60
-51
-49
3
-81
3
-10
-62
-127
24
-18
6
0
-32
89
-26
12
11
41
74
97
55
9
25
-111
-102
83
-89
-46
-57
-46
87
-49
-15
32
10
-35
46
-67
-98
-122
-53
-30
-21
25
47
-16
-1
86
33
-72
30
0
34
49
-13
10
-24
-48
-39
-13
7
-22
-9
-24
-10
1
28
9
21
-54
-26
11
-39
-13
42
4
-114
-69
-30
4
-26
19
44
110
6
-18
-127
-7
30
-54
-118
24
-33
-83
-22
-29
18
-20
11
-20
-3
-11
5
11
-18
-35
-41
-54
-46
-15
-16
-7
-29
33
-66
5
8
-5
-9
19
-4
-91
-2
0
127
-18
-31
-8
-4
-10
-38
-24
-43
15
-34
-29
-4
-24
-98
-31
23
24
0
25
-54
44
-74
18
-60
65
-47
92
-7
1
-21
23
21
-22
-101
-46
-23
-64
-71
2
59
-18
26
14
6
94
49
-78
-5
-81
71
47
7
85
-92
127
24
67
-20
-12
34
-12
122
2
2
-31
-72
29
-28
-74
61
-63
56
32
-83
-127
-55
-47
-39
-42
-30
-14
-99
-61
37
-63
-48
29
-8
-36
-22
33
0
-57
6
33
-19
-37
67
-37
-20
40
65
-98
-29
2
14
-38
-8
-65
-77
2
-87
-4
-9
-38
6
-9
-9
-47
-45
-111
-78
-29
-68
32
-61
-91
-24
-18
58
112
-127
-63
18
-9
-120
-80
-2
-73
37
59
-55
-7
-3
-46
93
59
-76
81
35
42
50
-55
-91
-70
53
-64
-86
-65
2
-65
-11
-49
-49
69
1
-26
-7
-10
46
14
-40
30
-8
-36
28
-16
-16
-42
-66
-29
78
28
-57
-29
3
-19
-31
-51
127
-27
-16
-42
17
102
-11
43
-58
-57
-18
26
-41
-41
-2
-3
-81
-21
53
-46
27
-16
19
-50
7
-4
20
-65
47
1
-50
68
-54
-64
30
-47
-127
3
-1
-55
45
29
-3
-10
-2
-4
-54
-4
35
-32
-12
4
65
3
-23
26
-17
43
-79
30
-37
27
-21
-62
-29
32
-60
24
-22
71
-67
1
-30
33
-46
19
-63
44
4
-21
61
-14
-36
-19
-27
-2
-22
-54
15
43
-64
95
16
-36
-5
4
1
-27
5
-88
-76
-126
19
52
-85
-50
-31
-43
-13
5
-127
19
-74
-10
84
-53
-16
18
-9
-8
-57
-5
21
-50
38
-80
70
-62
-42
9
-27
68
-101
-57
-42
29
34
39
2
1
-25
-44
1
-9
-5
89
19
-21
8
9
-21
38
71
-25
47
12
-127
88
86
-16
-58
16
127
-46
-99
24
34
93
13
-127
-21
-42
-1
21
-66
3
-36
-14
6
32
-57
-21
7
-31
11
-54
37
22
-8
-53
70
103
-41
-10
-42
-44
-75
-30
-20
23
45
-18
-15
-12
-10
32
21
46
-35
-21
-40
-24
-28
14
19
-50
5
-10
-34
-8
8
-44
-34
-37
-45
-75
-46
-74
0
-45
59
94
-1
7
-26
48
-36
2
37
-127
17
13
-20
-49
31
-22
28
-24
-33
-32
63
-4
-21
-14
8
-31
2
-24
-19
16
15
-61
-1
105
-60
4
-28
-39
52
70
-56
-2
52
-127
26
-50
-4
-113
-85
-73
-62
83
-4
-58
109
2
59
-13
-26
30
65
-33
-13
-32
63
17
7
35
127
-12
97
11
76
-11
-72
58
40
-41
54
-18
-43
-8
0
-113
-48
84
-29
-61
-35
-115
42
-51
29
-5
48
-99
92
-54
12
-56
25
-70
-6
4
127
-66
-99
5
-19
-36
18
43
-74
-36
-70
-18
-75
51
8
90
50
-26
28
-20
-11
-74
-1
21
22
-56
-19
38
6
-32
8
36
10
8
50
-58
0
-10
-64
-9
36
16
-53
2
127
-6
54
-2
-47
-43
-37
4
-45
-26
3
-3
-5
16
76
-33
5
-13
5
87
21
-11
14
10
93
-24
-71
-3
-77
-25
17
-74
-23
51
-37
78
-26
-10
-29
-34
-69
86
-62
-26
-81
8
-27
14
127
-47
1
34
64
77
-32
-22
-36
-62
37
36
-26
-14
-80
-44
2
0
-2
-15
-44
1
-29
-52
22
36
-5
42
-65
-77
36
99
67
113
38
85
-13
-19
59
-125
-83
-33
-62
26
-106
7
-63
-9
-91
-37
-126
-64
75
-48
-29
87
31
-17
108
83
8
11
-94
13
19
70
-127
16
31
-2
0
-27
-14
-111
-116
98
-57
-120
-61
18
-28
35
-8
-59
-88
-39
-7
40
-4
27
-39
36
-87
-44
-46
21
108
49
-37
-55
-11
-46
-112
39
34
-88
10
-64
-43
39
-6
-40
-112
-87
-117
-64
-51
34
-127
-12
19
-82
-57
-1
-35
-84
12
9
8
-70
13
-3
2
5
-38
-15
23
-14
-8
3
-3
14
1
-12
33
26
-16
4
-5
16
-34
14
-4
-127
-106
-9
-4
-20
66
-1
38
-5
-62
28
10
-39
16
-7
17
-30
16
13
-4
4
-72
-35
24
22
-19
3
-44
-8
127
-56
-23
41
-8
-20
-80
52
-26
-36
32
-39
-5
-17
20
-42
-64
25
-44
-33
9
102
-3
2
33
-37
46
-41
-64
14
-31
-17
7
44
-57
-20
-55
-39
-20
-41
-33
-2
5
53
82
-14
-119
-37
-100
-37
-98
3
-36
-63
11
-31
-112
-81
-20
10
-95
-29
0
-89
-54
44
-53
-7
-47
-45
9
15
-65
45
-35
-46
-53
46
-4
44
-100
-48
11
-127
-11
-72
-47
42
25
-17
24
-117
-13
17
-72
62
39
-29
-25
7
26
-80
-75
24
-18
-44
15
-80
-50
-127
-10
-103
49
55
59
5
29
-24
12
-21
46
27
-72
-33
-44
-50
15
-4
23
51
109
37
67
-12
93
-14
5
-34
52
-54
-51
-40
-27
27
49
-74
-46
43
-67
-24
-51
-11
-24
3
-32
-34
-3
-18
39
-33
-53
-55
29
-27
28
4
-9
12
-48
30
0
127
-25
-20
-68
-6
79
-10
-3
-84
-5
33
-19
-59
-61
18
57
62
4
-77
-58
-56
7
-15
-7
-20
-45
-37
-25
-13
-42
8
52
-10
18
-14
36
1
-56
9
-10
-67
-58
-10
55
10
-41
13
44
-54
-31
-37
8
-49
27
39
46
-21
-17
-22
-127
-36
-89
-21
-5
-54
8
2
-2
-21
4
-21
23
-21
-5
-34
17
-38
33
-22
-2
39
1
-16
47
17
-46
-24
2
-76
-127
-47
33
1
44
13
-4
41
-24
-40
-22
13
32
3
-14
-3
2
-31
2
-10
44
-45
-10
37
-68
-127
-113
-84
-1
-27
-40
-54
-22
-4
20
-3
4
-8
-11
7
21
-28
35
24
-48
-17
-43
-45
-39
14
9
3
-4
-68
-2
77
-107
14
-19
-22
44
-40
15
-118
-10
16
41
-35
-4
2
30
-9
13
-16
-69
-13
17
-50
14
-89
36
-7
-32
-25
-127
-24
38
-58
12
-43
64
-57
-32
-33
16
70
-23
1
-51
1
-23
-10
9
3
-28
11
-57
2
-20
50
16
-34
-25
-67
32
-57
-52
-75
-29
-49
-58
-32
-113
-3
-26
-16
-55
-127
54
50
-51
-75
-55
10
-102
26
-69
33
46
-55
-96
4
108
-51
-27
5
-39
-57
-65
-99
3
44
-6
119
-105
10
-67
28
-65
-25
7
-32
-13
18
-24
-20
-60
-6
-40
-103
59
-5
-63
-55
-17
11
-127
22
-29
-49
-32
-8
17
55
12
-34
-67
39
-33
-53
12
-112
42
-39
73
8
-75
43
62
12
22
-74
15
-29
-60
-18
-76
-1
46
76
47
-76
4
-39
51
-30
-6
-78
-19
-16
-2
55
-30
-7
40
-53
-26
36
35
3
87
-38
-8
23
-22
-5
1
30
91
18
-37
79
20
-88
-34
-38
17
32
-18
56
127
-41
20
-30
-55
49
7
-22
95
25
-112
-50
-42
-36
11
-7
-9
13
-69
-12
-25
65
-70
-23
39
32
-127
-13
-2
127
-59
-25
-64
-27
2
-8
-2
4
36
53
-111
11
40
-13
0
-62
-52
-7
-88
-37
94
-107
-100
50
58
-54
-91
-8
30
19
-13
34
16
93
43
-31
-90
-72
23
0
-88
36
-45
-20
-8
-2
-24
-34
-16
-57
-99
-26
-60
-39
60
-4
127
-24
28
48
44
9
-62
-12
1
-50
-47
16
46
-25
-46
-5
-27
-4
-33
-24
-98
-17
-4
61
53
16
-89
9
29
-24
-26
-25
-57
-42
-34
-11
-36
-70
-30
4
-4
-26
80
-48
-20
-67
-46
-74
-119
-18
-19
30
27
34
65
31
78
3
-71
66
127
-64
-54
-20
46
-13
50
43
39
-2
65
55
43
35
-50
-46
-41
96
47
43
-38
47
-30
-109
-6
-22
1
5
-45
22
94
20
-31
39
29
-127
-85
-21
-21
117
28
-6
38
-38
-8
87
-39
-4
95
-14
85
-18
6
56
-9
-48
-29
29
32
20
13
82
-16
-21
-31
-7
40
-3
-127
3
-18
-43
-47
-38
-49
-2
-55
-43
36
38
26
0
-21
-117
116
6
34
57
-47
61
-5
19
-38
-17
27
-12
13
-25
-42
-45
-106
-41
1
-31
-32
16
-9
-83
4
7
-31
6
-21
-65
76
-92
-15
-16
127
-35
1
-52
-66
115
-34
8
48
-57
45
-17
-79
-74
-53
-87
0
1
55
-65
-39
-54
-9
-14
-87
-87
-26
-46
-75
42
59
13
-73
-12
50
4
-39
-43
-110
32
109
40
-105
-33
-22
-38
-11
-56
-95
-19
-4
43
-42
-37
-32
8
38
-12
-70
-92
-1
47
29
-97
-48
-51
-41
50
-95
59
-34
-10
-60
5
-21
-127
56
105
-1
-25
-82
-24
-54
-33
64
-20
53
33
-79
-19
-90
50
8
-36
-36
29
66
-25
-23
30
-61
49
-50
16
-47
-87
40
-82
45
-102
29
-1
19
-6
-41
107
109
61
44
-127
59
8
-60
-19
64
-47
-19
-18
16
6
-39
-15
32
25
0
53
-25
-21
13
1
45
-7
-40
-7
-11
-42
-49
-22
14
-16
-39
-27
-3
30
-40
-7
-2
-127
-45
9
27
13
50
1
3
58
-25
11
14
13
-7
-20
-3
-46
-106
4
35
-3
-64
-15
27
-68
19
-41
-119
71
-72
35
10
-51
-90
108
-89
-56
-55
127
8
89
-62
-5
-48
24
27
-51
-46
12
-28
-46
-16
19
20
6
-84
-81
-42
-31
33
16
-77
-47
-34
-77
-33
-36
32
-45
-46
-18
-30
-62
-21
-16
-82
-79
-72
-23
-39
-1
-85
15
-26
93
-21
-77
-62
-111
49
-72
47
-51
-28
100
-52
-14
-62
13
-73
37
77
-45
55
-28
-80
-57
-5
-32
-54
-22
-47
-21
-7
75
-13
127
59
60
34
-127
-75
-8
17
-5
26
118
48
-47
14
-19
-57
7
-20
57
-89
-12
-55
-26
-27
43
-36
53
-3
-121
-37
-115
-60
-24
42
-18
-14
-44
-68
-63
-118
42
-53
-52
123
-45
-35
84
-81
-3
69
105
-46
-44
-55
12
-37
-79
-127
2
22
-30
20
5
-55
14
-72
27
-71
-15
-15
91
-46
-32
-109
-27
-22
-105
30
-19
-29
-34
-71
-43
-46
-72
-6
14
-46
-3
20
-33
-35
-49
-50
24
-26
14
-9
-41
15
-77
-7
-28
-17
-56
-5
-65
127
-30
37
-41
-95
-48
0
-7
-24
-74
0
46
-99
-61
-11
3
16
-48
-7
-56
-6
-27
15
-31
-68
-13
33
-76
-50
1
-69
25
-35
-1
7
-57
84
56
-7
-23
18
-38
2
40
31
-20
-8
-21
-6
-15
14
11
-8
-21
-8
-24
19
39
-65
-43
28
37
-71
12
0
-86
-96
-29
-25
22
45
22
9
0
-27
24
4
-127
-49
40
-42
37
-20
-13
21
-7
-44
23
27
-13
30
34
-43
16
15
-53
-29
-26
0
-42
-68
-50
-68
29
11
-11
-49
36
-46
-76
10
-47
-101
7
16
-3
14
-29
-18
-90
34
-12
-2
-44
-69
-24
127
-26
-17
-76
-28
-3
-16
1
-79
-24
101
-78
-6
17
-30
-22
-33
41
-27
-21
-24
32
-63
35
-127
26
34
26
-41
-23
-63
37
-39
-31
-21
-113
-15
-67
65
-8
-22
-24
-78
-98
76
-39
-68
15
-3
32
6
-65
-4
-4
-39
-17
-31
-2
-74
34
9
4
74
-24
37
-30
-86
96
-36
-38
-17
45
64
-41
-6
-25
-48
-36
-70
53
22
-21
17
-3
-2
-10
15
-54
-7
-21
105
60
31
8
127
85
85
8
-33
68
-59
-23
-28
32
18
41
31
-4
-16
-42
-79
-48
-36
-121
28
-127
-41
3
5
64
-60
-31
45
107
60
31
54
-115
-10
-7
78
19
30
-17
103
-81
2
-80
25
59
-4
-45
-87
-28
39
-36
-70
31
-100
57
24
39
-8
-87
17
29
-38
-11
-119
38
-19
-34
-51
-11
-16
41
-13
-46
-44
18
12
-25
-27
-77
3
0
9
48
-39
-39
73
-20
53
-21
10
7
49
18
-81
-48
-99
-36
20
-24
9
-51
-15
-14
-65
-127
-24
-72
-39
16
10
-6
-61
-2
-45
-99
20
-54
7
-9
-27
-6
-28
-25
127
-54
99
-3
-33
-57
-31
-5
-47
17
-17
-31
-60
31
-26
-28
-10
-40
-32
-23
-50
-4
-9
8
50
-25
-21
-30
-32
-37
-56
-72
-90
76
4
2
-8
70
-63
-14
36
-88
4
13
3
-43
26
-24
-37
-35
-127
-3
-72
-10
-35
-45
-9
-22
-25
-38
-14
5
-71
-37
36
-13
-119
20
-62
27
63
-7
-16
6
-18
87
4
-25
16
-38
-16
27
89
-60
-85
-35
127
12
32
15
-33
-80
-32
-50
-67
16
-72
-30
-35
-11
21
-96
-56
-30
21
31
-82
38
-7
1
-98
-40
-36
-6
6
-10
24
-2
-94
58
-96
-10
64
-1
-86
-78
31
-23
27
112
-27
74
10
-11
31
52
24
-17
22
-122
-51
-40
39
-14
-45
35
70
-107
55
-64
-70
-44
-14
-81
-55
7
40
3
-30
68
29
-54
-99
23
-40
27
127
-9
-10
109
-16
39
31
27
-74
46
9
-66
80
53
-66
5
21
50
25
-40
-91
28
110
-81
-127
17
116
-82
-7
26
-75
60
-43
-56
-67
4
39
-2
-68
20
-54
-3
75
0
92
10
-81
-6
-80
-42
-43
22
44
3
-8
-71
37
81
15
-88
49
58
-19
-18
-112
-89
-48
-9
-106
13
12
4
14
-29
58
-1
-22
28
97
-51
-15
-16
6
-117
-127
100
126
41
-8
-33
96
-45
-64
-25
-36
-126
28
95
-89
8
-35
5
87
6
-84
-33
-36
-1
-39
-28
41
9
0
-10
-33
-59
1
-47
-127
45
-18
7
-6
2
-22
-18
-14
-11
8
-15
78
-11
-24
-31
-58
-19
-11
-33
-32
-44
-34
-3
10
19
55
43
-26
-10
-22
-27
25
68
-34
-13
64
-32
40
39
-22
-19
-28
-27
68
-21
-17
-41
-29
-19
-41
-29
-15
-5
-6
25
-12
-2
-29
-34
-8
-127
-38
-12
10
49
42
36
-11
32
-43
18
-18
21
65
5
-23
-68
-67
-2
-21
-2
-45
-39
-60
-17
7
11
-19
-4
33
-25
60
40
-28
-36
91
104
18
29
-71
-16
-40
19
-72
-48
5
47
127
-18
57
-25
36
-32
-77
1
15
16
-111
31
-26
-92
-38
23
-19
-83
-5
31
-7
118
-100
40
-12
-2
18
-35
81
0
-7
2
71
7
18
-54
127
93
12
22
-63
15
-48
-62
-19
-106
22
-18
-70
48
-51
-68
-90
-65
-31
-37
-62
58
-24
-38
16
-81
-29
-10
-115
15
51
-29
46
19
54
-6
-86
-78
-26
-58
63
53
-70
-35
-77
-50
-22
-101
-19
12
56
74
-87
-51
-84
22
-80
-33
-29
8
49
53
-1
6
59
-61
-32
-90
-118
-76
-109
24
-67
17
-51
-41
-7
127
64
-21
40
47
-12
-28
-68
-45
-23
33
-18
-42
-75
-2
81
-57
60
4
-36
44
-2
43
-75
15
-67
87
-31
-127
-9
-53
35
10
29
-108
-33
-89
-55
14
-40
14
-12
37
-43
-53
65
-44
-39
57
-2
-16
-19
15
22
-127
8
4
-14
-84
79
-31
10
-21
-6
27
-43
-16
-65
-41
40
19
-9
-13
-7
-26
-21
6
-36
7
-20
-38
31
-53
45
45
-28
-25
-24
-46
-2
-12
27
-37
-14
17
59
-15
-18
-31
14
19
-31
8
-17
-127
12
-32
77
20
-79
50
-1
0
-11
-13
33
-67
13
-10
-23
37
-10
-31
-57
-20
-71
-12
-7
-98
-125
4
-23
23
55
18
-32
21
-50
-7
-23
-3
-22
0
32
-22
-6
0
-40
17
4
125
6
-16
-25
21
-5
-4
75
-127
45
-16
3
-31
-60
21
0
-73
-11
-106
-93
10
-17
-70
15
-29
11
-25
-1
26
-7
16
-43
-78
45
55
32
-67
-53
-116
-26
119
-57
-28
-7
-92
52
-36
120
-7
8
-82
18
71
-32
-17
-53
10
-45
15
-4
14
-9
7
17
44
-43
3
-14
44
5
-61
27
-7
12
46
13
-50
-39
30
-74
32
-127
46
-21
26
-37
-44
-75
-17
-21
-31
71
-4
-82
34
23
-46
50
20
13
-47
-67
-52
31
-100
-79
96
-49
-70
-14
-34
-18
-82
-29
1
11
19
-5
98
-59
-82
-4
-74
-3
-2
108
105
4
21
51
-84
-74
-5
8
-52
-100
-88
-9
-101
-84
102
48
-127
-66
-14
31
-74
58
-45
-62
-65
-48
-49
38
26
28
-47
30
10
-34
-25
122
-16
-27
18
13
4
-25
-63
27
-127
-37
-11
-53
-37
4
27
-25
-31
-117
-78
-29
-30
1
43
-70
-11
73
-54
28
14
-33
1
-51
-9
36
-80
23
-32
-41
-107
-25
-70
13
69
-4
16
6
68
60
-20
48
35
13
127
32
21
-93
-64
25
-53
-88
36
-3
27
71
-71
7
-1
13
-3
2
-18
-38
-13
-46
45
-22
-26
45
39
120
37
-32
25
-95
24
-16
-87
-38
23
-48
-9
-55
-15
-111
0
16
-35
-47
9
53
-53
-66
-64
-60
20
-50
-19
-11
45
27
4
57
2
-86
-69
-2
115
27
-127
-15
5
-35
0
23
-100
24
127
8
5
-43
0
-2
17
0
-33
-17
-17
11
8
-9
-14
3
20
20
11
-69
-29
32
-28
-13
-9
-14
-27
-10
16
-57
8
-14
-26
12
-14
9
0
-8
-18
-6
-8
-45
-2
17
-65
-48
1
-3
41
-49
-18
-41
124
31
-6
-86
-60
28
-53
85
-68
25
-16
33
30
-63
36
-23
-8
27
48
-59
-127
-27
-11
-14
-111
-24
11
-103
18
-58
-16
-56
-6
-71
-29
-24
-21
107
29
-67
20
-77
19
19
4
-48
-73
-80
42
29
87
-37
-20
-51
-47
-57
-63
3
44
42
-6
-18
-9
-7
19
-65
-73
16
-37
-14
127
-11
-65
-39
-90
-30
49
-64
1
-64
1
-53
-21
-54
-24
5
42
-22
-109
-47
12
-15
-44
-30
65
-25
-75
4
-67
-127
-27
31
-84
56
-37
70
-123
-78
-38
-10
-80
0
-49
-43
-53
-51
43
32
-106
64
1
97
77
28
16
-34
-42
-40
-22
-10
-47
-42
-63
55
38
-20
-15
-49
62
-2
-12
127
28
43
-13
-26
-69
-33
-41
-57
-51
13
-30
1
-26
-40
7
-42
-28
-18
3
20
-35
-1
-30
-78
19
-10
25
-22
21
-22
-5
-21
-58
-6
-38
37
18
46
34
-6
8
21
-19
33
34
-82
-39
-38
-85
-59
40
26
-59
83
-46
-33
28
22
-55
-67
-9
-5
-2
13
-8
127
-20
16
-70
-92
21
-27
17
1
57
-47
-11
-88
50
-73
-44
-46
-119
10
8
-31
0
-31
41
70
-35
35
-20
-42
-9
-6
10
-18
-10
17
16
-58
18
-51
-64
-18
17
-56
-42
-36
6
70
-24
62
-127
31
13
-3
-53
-18
-17
60
39
-33
6
57
-29
-3
-73
-35
32
4
-40
-16
11
-50
72
58
-46
-3
-11
-31
-2
16
55
-7
78
-39
-40
71
48
-31
-80
-88
-34
-96
-25
-5
30
23
-25
-60
-34
26
25
36
4
-47
-30
-51
51
53
-36
70
4
78
-38
-43
20
27
-18
6
-17
114
-17
-121
70
-24
-127
-85
-23
31
-127
-24
-6
-9
-4
-28
8
20
45
6
-102
14
48
33
-58
-6
-11
-48
-73
-13
-93
-2
-46
7
-127
-7
-26
23
18
105
27
-32
-87
-31
-41
-51
39
-61
20
-22
75
105
-91
63
94
-70
2
83
-10
-26
21
-100
-4
-127
-25
-14
-34
3
-14
-51
-25
26
-28
-20
-60
-5
-41
-15
4
-58
11
-70
-9
-70
-41
-55
-53
18
22
10
-13
-40
22
6
-73
115
-9
-99
99
-45
-35
-18
5
-34
-10
37
-26
-7
-15
-45
-107
-63
-25
-70
22
-56
-79
12
-62
39
-62
79
69
37
-35
49
51
-49
-2
14
-127
-50
-37
10
26
-92
-5
46
17
65
-12
-68
32
86
73
-33
33
41
109
13
-2
-47
21
22
33
49
30
-1
-49
-33
-8
20
5
-34
-44
-104
4
-92
-9
-9
-10
-24
11
13
2
-17
-86
112
-127
-56
-63
33
-16
75
-10
81
29
-42
65
-13
-2
-110
0
55
-30
-81
34
-63
-99
13
12
23
-6
-28
-61
20
-25
0
-10
25
2
21
46
-53
41
-44
14
-12
5
-19
71
-29
36
1
-3
-34
-127
14
-45
120
-50
51
-13
43
-19
-16
41
-78
10
-10
-39
-70
58
-74
-37
2
-110
-37
37
-108
0
-3
11
5
43
-14
18
5
127
24
33
-75
55
-35
-20
-5
13
32
-5
-78
75
-36
-25
-34
-38
10
-25
11
-28
-20
-54
-21
-10
41
-70
-13
-10
-31
-61
-24
-45
-50
15
32
-24
0
14
109
-114
-73
-117
-9
-98
-34
7
-71
32
-33
-36
127
99
59
-30
-85
64
-106
-42
-6
-68
-17
39
-54
-110
-47
36
-15
12
-31
37
-81
-35
83
-8
-1
32
89
-20
-84
-36
57
-90
45
48
-71
-70
0
-48
27
-48
27
58
-2
-9
-1
-116
-26
-11
8
-16
127
-56
-55
-11
-55
-38
-8
18
-16
-101
-43
-116
-8
-39
-68
-52
-26
69
36
36
18
-86
-9
42
-28
-38
-33
67
97
-34
19
55
-45
14
18
31
78
25
-45
45
63
57
-7
-22
-35
-67
-98
4
-38
37
48
-26
127
-86
-23
-39
9
-20
14
-57
9
-6
55
-40
-10
-30
14
-11
-5
-14
35
-47
21
-8
-46
-89
-8
-56
-37
1
13
16
16
-7
25
-2
-26
-33
-9
38
-26
10
1
5
8
2
15
-19
-10
0
-24
-1
2
8
-10
-2
-20
-17
-21
4
6
1
-10
-14
8
-4
7
20
8
-127
21
-87
-31
14
6
47
13
-27
-58
0
-36
-11
-15
-34
-13
-4
-57
-29
-38
7
41
-47
127
-10
65
16
-31
12
-11
-26
-8
-37
-1
2
-42
-14
-11
-11
-34
-18
0
-21
-21
-21
-16
-46
21
-8
-11
49
0
-33
-49
-3
-12
40
-59
2
-83
-38
16
10
9
-31
26
-15
-25
-13
-44
9
73
127
-63
-39
-12
61
-90
15
-44
-74
-40
96
45
-6
-25
-23
-80
75
-48
-9
-10
-24
-4
-74
-87
-38
-50
18
-68
-20
55
-24
-50
87
43
-48
-35
3
-116
-41
36
-47
64
-30
8
55
-44
-37
-11
112
-20
-127
-92
-30
-30
37
123
-50
-48
51
17
-53
-27
55
-20
54
-23
-16
51
42
-12
-48
3
-4
-30
-1
-38
53
2
-16
16
28
-73
-88
7
-117
57
66
-109
-73
-62
20
-70
98
37
57
119
34
-31
108
95
-67
43
-45
-91
81
-56
7
-28
-53
-63
60
-15
70
-88
-64
59
-8
-77
-118
-127
-43
-13
8
70
31
123
-19
-17
-11
-60
6
-2
-59
-56
7
-21
-86
-37
-36
6
6
-33
-75
-4
-39
-50
-21
-127
-10
-17
-11
-38
-48
-111
-45
18
-41
-3
44
62
36
6
-9
-33
-31
50
4
-75
14
-22
41
25
-8
-34
33
-3
-42
-109
-34
35
37
35
17
-102
-127
-88
53
-24
50
-40
26
-54
17
-27
88
-61
8
-30
-64
-21
-31
-50
-56
-63
-55
-47
38
10
84
-55
15
65
-33
-43
-45
-24
-2
0
-14
45
-12
-83
37
86
-30
-49
-51
-54
-16
7
-51
1
-36
-34
-39
-21
-52
-48
-74
127
96
55
-5
-39
-53
-34
-10
4
-33
-33
23
5
19
-35
-27
-6
15
-3
-5
30
-16
-7
-35
-5
-63
66
-18
0
-27
36
-8
0
-12
34
-60
17
-3
-100
45
-25
22
-4
-33
6
36
-35
-65
7
-8
-59
11
-44
-67
-45
50
5
-83
-127
-93
-17
-42
8
-21
17
-1
6
-55
-40
-93
-20
5
-30
-8
-49
-15
-7
-69
-68
22
-69
-33
102
-21
-47
-110
-20
-4
76
83
-10
-21
50
-42
-14
-12
79
-19
83
-34
-116
92
-63
-27
-30
16
83
64
12
9
9
-13
48
3
-93
-41
-127
71
-12
-86
-29
26
-40
-44
-50
20
-20
-2
-7
-37
-54
-5
-22
-7
-45
-7
-35
-8
-9
-26
35
10
-51
-28
6
23
-5
31
-27
-15
-9
-2
-41
10
24
-82
44
-15
21
-40
-26
41
-31
-28
-47
-1
-127
-10
0
-92
-10
5
38
-74
10
31
-16
-30
2
-4
39
-6
-37
29
34
54
0
-16
-62
-94
-6
-55
-47
-3
-11
27
-41
-1
-39
4
15
-58
21
-16
5
-20
-23
-42
127
15
20
-55
6
-1
-16
-26
-18
-55
-20
-70
-28
-22
0
0
7
2
104
84
-28
-127
33
-87
-23
-16
-30
28
-1
-11
106
62
13
-47
55
-69
-66
22
-15
-40
92
-2
-47
-17
57
-66
-8
-105
-24
-26
-5
1
-78
23
-100
16
-1
-19
-51
-44
-22
-51
53
71
107
-28
-30
-37
30
8
2
8
-36
9
-43
-1
-6
-79
6
35
-76
-27
-23
42
-24
-10
5
2
-33
-41
26
-28
-51
-20
-32
18
-13
4
-50
32
-24
-46
15
29
-31
-63
11
127
-20
-17
-31
13
70
3
19
6
-45
-65
24
9
-14
36
25
-22
3
9
-41
30
-29
8
8
6
50
-40
-24
-48
36
-127
9
38
11
-102
-50
-14
-34
94
13
-16
21
4
-81
-46
101
-31
-33
8
40
-23
12
-6
-87
37
-19
1
9
-21
49
-13
-21
-37
-11
-30
17
33
13
35
2
-35
-10
-16
-26
-53
-12
32
24
-12
8
75
6
-21
-27
-6
-49
31
-35
-14
-25
50
-127
16
46
19
-33
22
29
-66
-57
34
32
-20
59
34
-85
-7
-87
-91
67
92
-63
-60
-40
-6
-34
-125
-10
37
20
-127
-63
-92
3
7
83
-20
-15
-83
39
107
-56
-102
36
-64
-26
57
37
-24
-52
-25
-53
-17
27
24
52
81
-14
17
3
109
-40
55
-41
-104
7
110
18
-76
87
-1
-10
15
86
59
-53
13
-60
42
-26
-33
-94
70
-30
-9
43
25
-4
35
-26
-17
3
-52
-127
-5
-25
40
-34
-60
6
-18
-6
11
-2
88
20
-82
14
-43
-22
-10
-1
9
-17
-7
-2
-8
127
1
12
-8
-20
-18
-23
63
7
-32
-1
4
-10
-3
-21
16
1
7
-17
12
1
67
14
-26
-25
-24
2
-29
-16
14
13
-14
-33
-2
-17
-18
20
-24
26
3
-60
-3
-31
-43
-1
119
-7
-75
-5
-2
-53
80
4
-4
27
-11
8
-20
-54
-23
-63
-9
51
18
14
7
-20
-14
127
18
53
-8
-113
61
-76
-34
-102
-18
-103
-84
36
74
-10
57
-32
-32
-64
-72
15
-49
11
37
-11
-26
-14
-22
-7
-54
-23
8
-6
-42
-37
-29
-28
-32
35
-7
-7
-46
27
-6
-40
3
18
-66
-127
6
-33
70
21
42
48
11
9
-47
13
33
47
-13
-19
-46
-45
-39
-30
-37
-93
-32
127
-31
-29
-45
2
0
28
-9
4
39
-52
-16
-43
-17
-52
-35
2
-42
63
-12
14
-61
-42
-72
-15
-30
6
18
-18
-53
-23
-17
-58
115
-31
-83
-20
-55
81
-16
-15
-12
-45
13
16
11
38
-14
-7
-34
-4
9
-24
-11
76
-31
-41
-10
-40
-30
-28
6
-32
-64
-48
-27
21
31
-5
-35
-17
-14
127
-33
-29
2
-14
42
-25
-54
-13
71
-54
-20
-27
-7
25
38
-19
-26
-5
8
-25
2
-47
6
8
-7
69
-6
-16
-8
79
68
-35
-10
-66
-44
-12
127
-69
-23
-53
-6
30
-9
3
-36
-45
26
-27
10
-36
-8
-41
58
-17
-14
-34
13
9
-5
8
-5
-66
-3
12
-64
-11
-11
-5
-92
-57
-29
-11
-34
56
-33
-91
-9
-70
-32
-78
-43
-35
102
9
-91
-98
6
-55
-91
42
-71
-86
-101
-43
-15
-55
-91
-58
3
93
-67
29
-5
40
4
64
81
24
-9
-31
-16
52
-84
-127
37
-82
-33
-93
15
2
78
1
9
-21
-11
-12
-46
68
-40
-12
-31
-63
-31
-34
-107
-31
-56
15
58
7
-92
-75
-49
-80
-115
-48
-39
-56
72
61
69
5
44
127
25
40
10
-105
-90
-103
109
-7
10
-24
14
30
-42
-42
-32
-87
-79
35
27
-57
-45
5
88
61
59
19
40
50
-38
-53
-102
41
-36
-15
-19
-92
-54
34
36
-60
22
-19
-33
-93
-50
-83
28
6
9
21
-41
-39
21
-27
7
127
-10
103
58
-69
-15
-11
-13
11
-23
23
41
-66
-37
37
-47
1
-6
127
-106
34
-1
-56
-47
-28
-5
19
-51
-32
-33
5
8
6
22
-17
5
-6
-58
-4
-45
10
34
-21
12
6
-23
-18
8
-19
34
-36
60
18
-15
8
-76
43
-61
13
-29
18
-1
3
-4
-55
-43
31
-16
9
-23
36
-17
37
6
-3
-7
-49
43
26
-127
-55
-18
24
20
82
-1
-31
10
-80
35
5
16
-15
13
-11
-9
-24
3
-54
-13
-8
-16
50
62
-18
13
16
-56
-34
-9
11
1
-49
32
-37
-5
-24
0
-13
-20
-45
-39
-3
8
-38
-22
54
-27
-29
51
25
-34
-37
-36
36
-9
-127
-17
-48
-30
50
6
43
6
15
24
-48
-60
67
16
-24
8
-9
18
22
-21
24
-3
-16
18
-29
-16
98
3
-26
-127
-5
-7
19
-10
6
-66
-15
12
3
-10
-25
26
-1
10
19
-1
-6
44
0
-15
23
-22
5
-12
-19
20
-40
8
5
47
22
69
14
43
-52
71
-1
-127
20
4
19
-33
-63
-77
-60
15
-37
46
-53
59
-73
-21
31
15
-58
-74
47
-107
-13
-43
-9
29
-2
56
-31
79
-55
-3
19
-31
-14
2
16
-93
-93
64
61
-47
5
-21
40
-20
-55
-27
-8
12
40
7
95
98
-18
59
-89
-19
16
50
-89
-51
-37
-69
21
-29
4
-18
29
-26
-93
15
-9
-96
-10
4
14
-44
-52
-42
-98
-39
19
-61
-32
70
56
119
127
59
-75
28
-38
-31
-35
127
-20
37
-121
-46
50
31
27
38
-81
-25
19
-55
75
18
-96
-52
25
-58
18
-57
14
11
-89
33
-60
-56
30
-17
-4
-80
57
13
8
-75
-34
45
87
-11
-81
13
65
109
-91
-93
-24
-51
2
42
-33
-52
-25
63
33
1
-13
-9
-2
-59
-27
23
127
7
-1
-24
29
27
-5
18
-17
-68
-60
-32
2
-24
13
8
33
-44
-33
4
-101
14
-17
45
-15
-92
-15
-60
-17
-37
-6
10
5
-39
-34
-20
30
-25
-10
52
-10
-31
-29
25
-25
-4
8
17
-43
16
-25
-19
-49
35
-81
47
-14
-17
-64
-81
-38
-18
-44
-65
2
-83
-127
3
11
-8
-46
5
78
-52
-69
14
-22
3
48
-39
-29
-48
41
-31
14
55
-65
-16
-23
17
-38
75
15
-34
37
-47
33
-64
-8
2
-22
-23
-13
-14
10
-54
127
-22
2
53
-111
-16
-11
-15
-53
7
-4
-70
13
-37
-5
-55
0
-29
38
3
-32
-13
-13
-18
1
-16
-34
1
-46
-1
-28
28
-6
-40
7
6
37
-8
6
-3
17
127
106
-36
-11
-16
12
-13
-17
4
-45
32
-40
-29
33
15
3
-31
-2
-14
23
-41
34
-10
-21
30
-19
-47
-17
-38
25
19
-32
39
-89
-49
-50
12
46
4
-23
-63
10
-127
-30
14
-64
39
-73
-32
-43
44
-48
-28
58
33
66
24
-15
-4
-9
-13
-91
-12
32
-50
-61
-35
-92
-25
54
-8
-99
-41
-85
56
45
6
34
64
-39
120
-20
33
-27
9
68
-34
-95
-34
13
-60
-6
-4
-87
-38
41
-60
21
-17
-29
-45
28
-55
82
-127
-14
42
-75
69
-15
-6
17
-112
-103
-21
1
-94
-19
55
-3
66
37
-19
-23
-16
-30
11
34
31
-40
-60
127
7
-3
2
50
-36
-25
-21
-68
-12
2
28
-2
-1
-42
-11
-29
16
-1
29
-2
2
-21
-60
-92
16
-26
-1
-18
-45
-28
-37
-77
-27
0
-26
-12
3
25
-31
-99
-2
33
9
-16
30
-72
68
-126
-80
-60
-70
-56
62
-38
-49
-29
72
127
51
-71
-29
-22
-72
-59
-56
40
44
-2
-28
-42
-13
-37
3
28
-121
-16
62
87
17
95
63
-39
-38
-17
-67
30
-46
-17
-7
4
-84
12
15
12
-14
24
-3
-9
-5
-11
-1
4
-5
-15
-35
31
-9
14
-10
29
-20
-25
-1
5
-72
-127
19
24
36
50
1
47
-21
-30
18
7
-13
18
0
-46
-16
-63
-13
-21
-16
73
-16
48
-20
-46
77
-50
71
48
-48
-52
-119
76
46
48
1
-43
-24
41
-10
-82
-127
-39
66
46
110
-23
-22
-11
47
-62
120
28
37
68
-43
-3
-87
52
-37
-16
12
-8
-96
-44
-34
-43
-1
-76
61
-24
-87
-83
-82
36
34
-10
1
-2
-50
-114
-73
81
31
102
-42
39
-94
-61
-40
-22
-40
-57
14
115
56
-41
51
17
101
-47
2
-88
-113
-29
-127
-46
-9
-126
-68
-23
27
60
-5
-56
93
-5
4
-10
-13
1
29
-3
35
-34
-18
-47
51
-44
-12
-1
-8
-13
-40
-31
-33
4
38
127
22
-26
-35
-14
37
-27
-29
3
29
-18
-20
-25
-25
-29
-18
14
41
7
-4
14
3
-15
-6
27
-38
-18
18
18
-23
-14
-37
-2
57
-67
-29
-31
-31
31
-2
127
-69
-33
4
-41
-35
-13
-6
-25
-11
26
2
-24
1
-29
-49
13
34
2
32
-41
-73
-79
-46
34
-32
-37
-33
16
8
6
51
-26
24
30
31
94
25
-87
-72
-32
-25
-69
-27
-3
-16
-41
-61
-124
-80
7
17
-56
-69
-28
-79
39
-74
8
-49
-20
0
36
-41
-113
56
-79
-25
72
-17
-49
-35
9
20
66
27
20
14
-23
-44
127
-100
-55
-52
-32
23
39
16
82
76
53
-31
-127
110
-62
27
-101
-57
46
48
-19
-33
-121
-21
17
-63
22
-42
-57
30
-51
-1
61
-8
-6
-90
22
-23
-82
9
-15
-80
-17
19
-63
-19
-15
-16
-30
53
-9
-70
-16
77
-7
12
48
33
15
127
-41
-35
-5
-63
16
-26
38
-7
5
-15
-16
28
-14
-14
-12
-59
-25
16
-27
4
106
-11
-33
-57
17
-3
33
-32
17
-2
20
-102
-59
2
4
117
-4
-19
23
-2
-6
-49
-55
-26
6
60
-27
12
-18
-12
-66
-52
16
40
4
7
-17
-22
8
-13
-8
-27
-15
-26
-61
44
127
-23
-22
25
-16
11
-23
15
-67
-21
-23
-10
-1
-16
-3
-13
-13
-5
-24
-3
-70
-68
-24
-44
-14
93
-120
86
-33
105
-62
24
-3
-68
-27
51
36
-53
-47
-50
-64
-59
44
-121
-26
7
-55
44
115
-58
-63
-25
-24
5
-73
45
-127
-25
-81
5
-36
-95
-19
112
90
-23
-95
24
-1
30
-75
-28
22
-17
-90
0
-28
-23
-76
-26
-26
-1
86
-66
-127
-78
-38
60
-95
62
-87
-15
80
56
90
2
50
-4
-29
-29
-56
-8
0
52
-9
33
-19
-49
-66
40
48
16
-93
-30
-29
66
-62
-61
30
19
57
40
-2
61
-9
36
89
5
15
17
-15
-59
-31
-26
45
0
-11
-43
-42
20
2
-22
-64
-44
-22
1
101
-33
-15
-43
1
-57
12
-37
-66
-38
-20
46
-37
-57
-64
-46
-127
-17
20
-48
-3
5
-72
4
125
-60
127
-78
-11
-6
-27
-43
-62
11
-70
-44
-44
-9
-66
28
-5
18
-20
-74
-12
-28
-15
-40
15
-79
-79
-29
-33
14
-41
20
16
0
8
-29
-22
43
17
-6
-29
-39
4
-13
-6
-4
-9
37
-127
5
2
-74
25
-6
-53
12
15
-8
-20
-17
-26
17
-2
12
-44
-57
-30
-27
44
-21
72
43
12
14
-27
26
16
6
-25
8
-19
-17
-34
22
-37
-1
-23
-16
-29
-32
49
23
41
30
-24
-25
58
16
52
-25
-60
1
-106
-57
-43
23
-6
0
13
-7
-97
20
22
7
-26
-27
12
-8
32
17
36
53
-5
14
18
4
26
-67
-9
-31
-4
-34
36
0
-39
-35
-127
-98
2
17
-29
-34
-28
-47
60
-54
-26
15
-21
11
22
-29
127
-5
0
36
-13
29
78
28
-82
-32
-1
0
7
-11
-15
66
-54
-28
14
-21
-30
-55
43
45
-7
21
91
-3
28
-58
-105
-36
82
10
53
4
48
-29
34
70
127
0
8
-113
-21
92
-23
-99
-91
-31
50
-72
1
-48
-49
-29
-21
7
63
111
79
-58
53
83
63
77
-28
-50
-42
75
-54
-24
29
-32
-35
-45
-36
-5
-57
16
15
55
25
0
38
-67
-44
-9
88
-37
-35
-27
2
-20
-22
-1
14
15
51
-39
-9
-38
-7
85
-72
62
-64
-24
-46
-24
30
11
-57
67
4
9
-54
79
35
8
-74
-25
-34
-17
-45
-84
42
58
-127
-4
3
-30
12
-8
-58
8
-98
-45
-73
10
-127
28
-9
-62
-22
27
18
19
-55
-28
-16
-8
-81
-18
22
-35
59
-21
44
36
43
-5
6
26
92
-33
54
-51
-45
-3
-47
45
16
-109
-14
21
-123
-41
-74
-7
-38
-35
-52
63
-21
-60
-125
-48
68
16
25
-59
-9
-117
2
2
57
20
73
-98
-66
-36
-43
-32
127
-13
63
20
-77
79
29
61
40
40
-68
2
-7
-67
-46
-4
46
4
42
-65
-2
-18
19
-7
23
127
-64
53
-3
-35
-61
-28
-10
-7
-78
-29
4
-45
-30
-4
4
-18
4
-22
-10
-35
-1
-39
58
-56
65
-29
4
64
12
98
6
14
-56
-16
-15
-47
12
-26
20
-38
-72
-7
-28
-19
-83
-24
-14
-24
-38
13
40
-11
109
-11
-100
127
22
-42
-60
27
34
8
-9
-55
52
-27
-14
-85
-1
10
-36
18
31
59
-56
-39
33
-51
-66
-44
-64
-80
-32
37
-63
-61
-1
5
-26
-31
-7
-51
35
-35
-48
-121
15
-91
28
100
-53
-39
-26
3
-7
46
-17
18
31
-57
-9
-3
-2
-10
14
-56
-5
67
-58
-15
-12
19
-5
-41
-127
-82
-60
1
-2
-39
-31
43
-51
-19
-61
22
94
6
-16
48
16
-3
18
36
-14
-64
-31
-17
58
42
18
-27
30
27
-17
-25
3
-63
39
-17
-27
-48
62
22
-7
46
-119
33
-26
49
2
-101
-47
-19
-60
-25
31
79
-127
65
-13
-71
-82
-54
1
-58
-50
-2
3
-26
50
-2
37
43
-67
-21
22
-30
-45
61
16
-42
22
23
-38
-21
-58
-118
65
25
40
-2
-62
11
88
57
-76
13
107
36
36
53
87
24
35
-4
43
8
127
19
-8
-15
79
-69
-31
-96
-54
-7
-83
-20
-41
-76
64
-34
33
-39
15
24
-11
-69
93
31
78
-14
-73
0
-32
13
-45
-62
-127
-19
-20
-2
14
18
-76
-17
-50
40
-2
40
1
1
58
-28
26
15
-82
47
92
-38
48
73
-19
-23
-44
56
-90
-4
-30
-23
-28
-43
-20
-13
-16
-13
2
-9
-42
-3
-62
-58
39
-19
-3
-25
127
-35
24
-38
-15
-57
-33
-15
-27
-22
3
-26
23
28
-20
-1
1
38
43
-60
-66
62
-21
-14
-73
-18
-127
-28
-24
11
-19
18
2
15
16
-5
2
-58
-10
-18
-16
9
-14
-16
-5
-60
-77
-39
-41
-20
-60
-11
0
-95
4
-76
-23
-21
-26
-73
9
56
-36
-3
78
-33
-37
-87
-52
-24
-20
-9
25
-39
-42
39
-51
-104
-13
19
-30
11
-23
-56
-9
16
-49
10
-49
3
-15
33
31
31
-40
-25
-55
-32
46
-40
127
-57
-3
117
-53
-41
-63
15
-5
-50
9
-7
10
3
-81
11
-48
16
-13
60
-39
-21
-61
-58
-63
-90
-7
0
-89
-32
-5
-17
-22
7
30
-14
-35
-23
33
-33
-8
9
4
7
-13
4
-127
-42
-27
63
-17
57
-46
-49
-14
-57
-26
17
-54
22
66
-41
-30
85
27
-44
-93
60
-9
-22
18
37
-12
65
10
45
46
-73
-102
89
-21
12
52
-77
28
-39
-26
-7
-4
-81
-14
-61
21
-67
-127
-74
119
-3
97
14
-75
-71
4
-41
-75
-33
20
30
25
56
-33
-46
-38
-66
80
-9
-65
-55
28
-11
-25
36
-50
3
-54
-19
-30
62
15
-5
76
-31
15
30
4
14
-14
-127
58
-43
-2
6
-11
-69
-60
11
62
12
53
19
38
58
-43
15
-89
-15
63
47
42
12
28
-24
24
36
-60
73
-37
17
31
42
97
-32
3
14
-33
-1
-40
102
78
6
-22
-109
44
82
51
45
-27
-17
-55
9
-80
-4
123
-6
-87
-63
66
-12
-53
-44
-18
45
-21
-127
-33
-3
86
-46
-73
25
19
16
-46
-19
26
4
13
49
-28
-58
29
-29
23
-13
-37
44
-29
7
-1
-42
47
30
-6
-56
54
9
-51
22
-38
-127
-50
0
21
34
76
8
57
-9
-9
-11
26
-5
72
-4
-8
-66
-41
-1
40
32
3
-20
10
-19
8
8
-12
-5
-33
16
-44
-48
-23
22
34
-4
-9
13
-34
-20
-16
-48
6
6
-35
28
-10
-37
-54
-11
-11
-52
-42
1
1
19
-16
-10
-43
40
-7
127
-30
22
-26
43
-16
24
-10
-26
-45
-64
-30
-67
-89
-23
-45
-41
53
57
84
11
60
88
77
-80
-38
-30
127
-84
-5
-66
-47
16
-28
-6
-66
-26
-66
-47
-47
-26
-20
25
-34
-17
28
-45
-79
24
-55
-60
40
74
-82
-65
-29
32
62
75
-25
70
-67
-57
-42
9
25
-1
25
2
-27
-52
-42
-2
54
33
28
-62
17
56
-29
1
-53
-127
15
96
1
-16
74
-72
111
32
-27
-95
-39
-18
-25
19
19
-107
-78
24
25
-60
29
90
33
14
-16
99
-87
-18
-36
92
-64
-13
-39
56
-42
45
12
12
77
52
-3
26
79
16
-58
6
11
-78
71
-9
30
-38
3
-46
37
11
-63
7
-57
18
-87
-15
31
0
42
127
-40
-10
-47
38
34
-58
20
13
-6
-98
-108
-52
-24
13
-62
64
-28
-54
-49
-2
10
30
-31
-32
42
42
-67
-23
76
-127
-73
18
-49
124
20
12
17
22
36
29
-77
-54
-73
-4
7
40
12
55
-43
-35
-86
-84
67
8
-20
-33
5
-42
-46
44
-52
35
-100
69
64
-16
26
127
33
59
-8
-37
-5
-65
-2
-47
-32
2
-74
-88
13
-6
-103
13
-99
-70
-2
-33
-83
10
-61
-92
-58
-33
-10
-95
11
-19
-24
-81
51
37
-1
60
-79
20
-57
-46
-10
-48
-1
-54
-14
-62
-71
-63
-49
-10
33
-127
-45
32
-15
-21
1
-108
-65
-41
79
109
58
56
112
74
15
57
-9
25
21
23
48
-65
-40
-12
-99
-54
8
12
29
37
3
30
7
25
-76
14
50
-30
-127
10
15
-55
-9
-2
11
-20
-29
-17
-31
72
6
-25
-12
-78
64
-2
9
78
20
28
6
-42
-20
38
57
-29
7
8
49
-66
-83
36
2
1
71
40
57
21
56
127
-58
28
-3
-14
-59
38
-114
-5
64
29
47
21
22
14
-103
5
71
-20
-20
61
99
-22
3
16
51
-20
71
-60
9
-7
-39
33
-58
23
46
-2
-8
-56
14
24
-16
-72
-48
-77
-99
19
-40
-43
15
70
127
-1
49
-4
-17
-56
-33
-5
-44
-10
13
-19
-7
35
-98
-45
-46
114
-92
-19
19
-1
-35
-57
-29
-74
0
10
45
-83
-25
27
-60
51
-45
-49
-67
-63
-44
-69
-16
-8
50
23
-14
127
-29
-21
29
-4
3
-20
-75
-37
0
23
-5
44
10
-13
-35
3
-7
16
-21
-37
24
-57
76
10
-4
55
22
45
46
35
-75
27
2
-22
-5
31
54
49
-77
-15
-54
-46
-63
-27
27
21
127
45
-81
-46
-70
26
-79
37
-62
-81
-7
-2
-53
24
-17
-36
-8
-50
-2
40
-65
57
-45
-74
23
15
20
60
48
85
3
-79
-43
-88
-15
-49
-54
17
33
-1
-83
-71
21
-35
41
-6
3
32
-26
6
-27
-52
0
-62
-45
-67
-83
46
-8
-27
61
-15
-29
7
-43
-53
-6
16
-42
-30
-18
27
127
-35
-36
19
0
-54
-32
22
-4
12
-46
-15
-78
-33
-19
38
38
-22
-39
-45
-59
16
-44
-6
68
23
41
-18
57
31
23
-24
-52
3
-67
111
-45
25
-107
-44
-61
-30
-41
46
-35
-59
4
-1
26
-57
-68
-25
-68
54
1
127
33
-22
-4
-10
7
-35
-14
0
-1
-36
-16
-9
21
-39
-82
14
0
-9
16
73
-27
66
107
-23
-84
25
-66
30
-79
-127
19
6
34
94
-35
-24
13
-78
-34
-30
-51
96
-31
37
10
24
20
-18
107
-44
-35
43
11
67
53
-120
-31
-42
-46
-32
74
-79
6
-45
-31
15
-20
-66
6
-35
-41
15
3
-1
-115
-23
-12
8
-81
-59
1
50
-75
114
53
-37
18
-31
31
-49
2
52
-59
59
-19
-3
-35
-41
14
-55
-74
35
-42
10
-127
21
-17
-53
-31
-15
-23
-26
-37
-35
-23
-37
-23
-103
-23
-34
-34
-19
92
45
64
12
-56
-1
22
-57
-67
-55
-6
-78
-27
14
55
10
-22
-27
-43
-6
-34
22
1
-29
-27
-1
50
37
15
-63
-40
127
-35
55
-12
-36
37
41
127
73
-108
21
-25
-34
21
-68
-47
31
-40
-36
-72
-40
-84
11
9
-28
-7
-31
1
72
1
-99
-38
-34
-22
-18
26
-25
24
-34
-116
-1
-118
-16
-78
43
81
-26
-110
75
-77
-88
4
-61
42
-3
-61
-111
-79
3
6
-44
30
47
-101
-43
-50
-30
-33
-7
-22
-55
5
-2
10
-13
-4
-77
32
-79
41
-4
18
98
-6
8
127
25
-17
59
-27
-24
-57
11
-28
-74
-46
-28
16
35
-75
-13
-11
-47
26
-127
80
-70
19
37
-48
0
-12
33
-4
-50
-115
69
73
6
-108
-2
-97
18
-60
1
-68
-56
-122
-76
39
1
-38
-36
103
-63
-90
-39
-42
-10
98
7
71
45
-77
-5
-101
-119
37
-33
-24
48
4
23
-31
-22
5
-49
-41
-7
-78
-22
70
6
-92
-46
-8
-59
-17
-28
101
-55
78
-46
58
-127
43
-16
-46
105
-53
39
89
-65
-95
34
17
-31
-21
69
28
-30
-89
27
-90
-51
13
-20
6
42
-55
-127
-34
-26
51
-27
16
3
-59
-9
53
-51
11
-10
-6
-17
-36
19
13
11
28
-34
18
-26
-2
7
-7
49
15
-51
60
-15
1
3
-21
-3
-18
-6
-19
-20
-21
1
21
127
-9
-21
-35
-6
1
-2
-23
1
0
-39
23
35
-4
-13
-6
127
-47
-98
12
31
-19
16
0
-25
-31
-53
16
-23
-16
67
-34
-1
-20
-31
2
-88
34
-19
-12
-6
-13
-56
-39
10
-42
-9
-8
-42
-27
-29
-14
-93
-35
-52
1
67
-65
61
-18
-39
6
34
-11
-17
90
-48
-58
-9
-5
-98
121
-121
26
-56
-50
-67
10
2
-9
-68
-72
9
-82
72
1
58
-74
-10
51
20
-84
59
20
18
127
-13
-74
-18
49
25
16
-21
-20
-77
-98
-47
-32
68
-127
41
-64
83
-11
-32
6
-7
36
16
-72
-76
-29
-44
6
0
-54
29
5
15
-6
-69
-22
36
50
-8
-61
-79
23
-112
-86
-60
7
13
-48
-40
5
-19
-25
-94
-120
-15
-46
-11
63
-34
-37
-42
-25
-2
-16
-2
39
-13
36
-4
84
-6
17
0
53
-55
22
-42
-91
75
54
-13
18
-102
-49
57
8
-27
-63
43
15
22
-101
18
127
-39
-103
-55
7
-45
-27
-94
-44
52
-64
34
-62
-68
44
63
-13
-31
-53
50
11
-34
-40
-62
88
-15
-5
-96
-57
-124
24
93
55
-121
-127
-3
-112
4
-101
7
19
12
31
-31
49
33
-46
38
-56
-49
-114
29
-40
31
-29
-22
-5
-14
-26
63
23
-49
-36
13
-52
-33
-127
25
-10
-1
-24
-28
-8
8
-71
-1
-19
-44
-22
-2
-8
-18
-5
87
-20
15
-5
-28
-30
7
-25
50
-92
29
-102
-44
3
-19
-1
10
27
6
18
-61
42
-8
-11
-2
-38
27
21
-16
-46
-10
10
-35
-46
-54
-16
-30
-13
-29
-29
-15
-39
35
41
-30
11
-50
23
47
-37
23
41
6
23
-24
-57
-7
17
13
22
-52
-38
-21
-127
37
-54
12
35
-77
4
-127
-30
13
8
25
4
-13
-27
4
-23
-16
-25
-8
0
-28
38
22
12
-28
30
-17
-13
-73
28
-17
-11
53
12
-24
35
-12
29
-31
-39
-30
24
18
-29
1
-48
8
-54
-5
22
-19
-44
47
18
-16
-127
21
43
-39
-7
0
-5
7
-84
-67
-40
-62
69
-16
-9
-7
-70
-27
-63
-11
44
-55
5
64
57
-33
14
-28
4
2
-53
-66
6
21
-11
-33
-16
-87
-99
-9
18
-37
31
-127
5
2
-47
31
52
-11
-32
-43
26
-21
-26
-20
13
16
-3
-35
22
-16
-37
-65
-27
-65
-51
-41
37
-16
-50
17
-30
-2
-13
17
39
-44
-8
82
-64
37
1
18
-47
68
72
17
-5
18
-3
-17
-25
-5
1
3
5
-11
10
-3
80
-66
-47
-40
-25
-21
-127
-14
-37
-13
-35
-5
15
-41
18
-55
-35
-16
68
-47
-44
-7
-1
-27
-40
15
-18
18
-1
6
-33
-29
-66
32
-7
-51
8
10
-101
-20
-30
-41
41
-37
-1
-20
-2
-55
127
-29
33
-21
26
-6
49
-20
-37
-41
-95
26
30
-71
-73
-42
33
-23
-10
-26
-34
73
-94
32
-41
10
-19
36
65
-104
43
-37
-5
37
8
-30
-16
42
74
-108
111
106
36
18
1
-47
0
-57
-43
37
45
-40
-82
-53
-46
33
1
-47
-6
-57
61
0
62
31
-60
-20
-15
18
27
51
-22
-14
37
34
87
43
44
-43
127
23
-81
-94
39
-4
11
-15
23
-28
-4
1
47
-30
-25
20
31
-16
9
-6
18
13
-14
0
38
20
23
21
-26
-15
12
-54
3
43
29
-91
-25
44
-4
32
-127
39
16
-17
37
43
23
19
21
-62
-27
-29
83
-38
6
20
-2
-53
11
-25
25
-29
-54
-36
-10
-37
17
35
-39
20
14
-23
-15
-26
-10
4
11
-8
8
2
-37
60
-71
-70
18
22
37
35
-27
38
20
12
63
28
23
-127
-1
-93
65
3
-25
-7
2
11
9
4
-29
-61
16
-17
-59
-127
0
-53
-27
-34
-93
122
13
9
-39
-13
116
-77
72
-39
-12
-91
-39
58
-9
-54
-77
-53
67
-13
-108
-11
-19
-74
-14
-18
46
-68
7
34
90
37
-58
-91
45
-29
-50
-8
1
10
13
-16
-39
-48
-9
-20
-15
0
21
-44
127
67
-47
-38
-22
-32
-11
-49
-22
-32
-32
-16
-26
-30
15
-14
-1
1
-38
11
-9
-33
-17
0
-9
-8
21
-14
-3
-20
-28
18
-40
61
28
-66
80
-38
76
-12
-51
43
-53
41
-27
-40
11
23
-40
-104
-50
65
28
127
-19
22
-85
-15
25
-28
-52
-37
-13
-4
-42
31
-61
-59
49
-18
7
-27
-82
18
-35
-33
46
-71
-34
-91
-37
-104
40
7
43
3
-13
37
-22
-66
-68
-83
-31
-43
2
-5
-16
-30
6
-53
29
7
-35
-1
21
-7
-10
11
-14
-111
-127
9
-22
71
94
23
17
-10
-77
-11
8
-59
14
-21
-14
-17
-23
-61
6
-2
-46
-17
-45
-13
-47
19
51
-14
94
-69
16
-59
31
-10
-79
-16
-10
40
-2
-16
-100
-16
-40
74
2
17
-19
-121
51
-54
-127
2
16
-49
-27
16
14
71
-81
7
-48
-19
-24
-65
20
12
-5
-65
-71
-4
127
18
93
-74
-84
-5
-18
-14
-21
1
21
-34
-54
-10
-5
74
91
-15
8
-22
-26
-3
-2
-2
-11
-10
49
-35
-14
25
-50
-25
23
-22
-2
24
7
-12
-42
-6
-15
-27
-60
-40
-10
24
-12
-22
30
-54
14
-121
13
-29
123
23
-9
-82
74
-11
-86
-11
-22
-30
-29
75
11
-48
9
78
-89
47
-42
-56
-102
-11
-23
-41
80
-11
27
1
-127
2
7
-68
-26
67
6
-61
37
10
3
-104
-26
-41
-8
-34
6
-52
-24
-35
-27
15
-25
-32
41
-22
104
-3
-40
5
-58
54
-36
-26
-26
-24
-23
-14
12
-15
12
-85
-50
-3
-11
13
-11
127
-69
3
-48
-57
28
-27
-61
-7
-14
-30
-58
-31
-21
-103
-65
-46
7
42
-11
7
-49
3
-82
25
-8
-17
54
-37
-49
19
6
24
28
-40
16
15
-64
13
-36
-82
-127
-53
40
55
0
59
4
-24
-15
21
3
-1
-7
13
-1
15
-11
78
1
-10
-91
-4
35
83
61
97
-37
-30
-15
-1
32
40
-70
-19
38
-105
-121
47
60
70
45
58
-8
102
-47
-127
80
-93
21
36
-80
38
-52
-110
54
119
-51
-44
49
-95
59
32
46
-16
-90
13
-125
0
-44
24
-84
-80
9
-59
5
127
-119
-22
-20
-97
-82
-55
-62
59
-51
-20
-60
-47
-75
-23
-78
-68
18
71
-29
-16
-23
-47
-75
-100
36
-23
-16
-25
-29
-25
-80
-43
110
-64
-48
-60
-70
-11
-66
-4
-32
6
39
-100
12
-15
24
25
-8
-27
41
-11
-44
-23
23
-22
-8
-24
-16
-6
1
-21
-5
-37
-39
-34
-7
-80
-127
-24
28
19
59
25
32
12
-9
-1
-29
-6
17
5
-36
-1
-43
-6
28
-24
-24
24
71
9
-1
72
6
-25
-22
-32
-58
-68
-127
-30
-81
-20
-48
-37
33
-2
-16
-1
47
5
-83
-28
-81
-93
23
10
122
19
30
37
-3
55
-66
64
49
44
-71
-28
58
34
-88
93
-2
51
39
0
-34
5
12
-24
-44
-85
13
-8
7
-15
-75
-24
-127
-12
-83
-3
-11
-28
-25
42
45
-44
-49
-102
-60
38
-26
-29
20
-8
-46
-3
-22
-6
-65
7
10
-73
96
-47
-45
-107
40
-1
80
22
26
-89
-75
-58
-14
-127
-91
86
-93
-81
28
79
-14
61
40
-30
-53
20
94
-90
46
-27
4
19
-81
75
-5
-20
53
1
67
1
-16
-97
-75
3
-34
-7
38
-4
-124
-84
-41
-76
-53
29
-53
-3
83
-41
14
12
-37
53
6
5
-93
-51
58
36
-127
-51
1
-22
-7
-88
-41
-57
-58
-41
-25
-28
-24
-59
18
-28
117
-76
27
60
6
-3
-55
57
-24
60
-47
-47
4
41
-47
-56
-88
8
7
-14
-15
-54
-48
-15
-5
-32
-79
-18
-39
-66
-39
72
4
22
39
111
51
-86
-63
-82
-31
14
11
-73
-16
-14
79
-71
-1
0
-27
-87
-60
12
-29
46
127
-52
-27
9
-20
-18
-121
56
4
50
4
48
37
4
37
-42
-66
111
9
-42
-27
-75
-36
42
-17
-48
18
22
-38
9
-18
-120
26
16
-24
-5
55
-31
24
-20
56
-2
6
29
-127
70
18
13
-1
-7
93
-48
-44
-20
-34
-28
-55
-24
17
-11
-34
-13
-26
-127
-31
-22
85
-14
55
63
-35
-13
33
-32
4
-21
-9
-21
-19
-60
25
-29
35
-5
54
59
25
-13
-39
-31
-8
-44
20
46
-77
-42
-27
-66
-55
-26
-64
-2
57
-62
-60
68
-12
-61
-21
34
53
-16
102
-1
47
-79
-33
70
-38
-8
-7
-55
-37
-60
-41
-20
85
25
-15
-24
5
-6
-50
-3
48
-108
-92
52
-30
-30
127
-35
78
5
18
32
-11
3
12
-60
102
-64
-82
-23
14
-82
23
-65
-127
-17
41
57
26
-37
-43
23
19
-28
19
-52
-30
2
16
-27
6
-69
-82
35
-119
-11
19
-46
57
-6
16
-33
-21
49
41
-110
-30
40
-19
-61
-87
-41
-78
-37
-15
-37
-27
-28
-67
-46
-7
19
15
20
-19
108
17
-16
12
-31
-53
-12
5
-37
57
-28
-1
-59
8
-44
-61
-80
46
59
-78
-9
20
-127
48
-25
-11
20
-96
29
48
6
-75
89
-69
-45
35
-9
25
-32
-63
-5
-8
-42
22
2
-33
-2
-15
-80
-15
-3
13
1
-19
-69
42
19
1
0
-73
2
-62
3
-11
-34
-49
-50
-34
3
-27
-25
33
38
-20
-82
-24
-22
-3
-15
-38
25
-2
20
-51
1
-68
-24
-11
-12
23
127
-56
0
43
-40
58
40
21
-32
31
2
24
-64
-41
-57
-46
-14
-66
-32
2
-15
10
8
-5
37
5
23
-6
-127
-63
22
25
41
28
27
42
-11
14
26
-84
4
24
-3
16
25
-113
22
-47
-34
-17
-60
-11
-127
-27
7
-82
-23
-104
-123
33
-7
-16
-70
-11
-120
-12
-28
-74
-26
-27
14
-62
-77
-74
-52
-38
-58
-35
-70
28
81
30
79
1
58
-62
9
-44
8
63
-31
-43
25
-53
-20
69
4
37
-60
11
-58
-22
-73
-78
29
59
7
-63
-4
-78
-92
-67
45
93
13
-25
-70
-123
52
5
-112
-127
-60
12
-96
69
-58
-73
