330598
11723
-467969
34154
51600
-659785
279626
7644
-117113
49966
111613
65836
-217182
692336
-280731
-362884
767004
830374
302155
352453
245834
-148403
-171551
195029
-235486
102460
462290
-139736
-299765
-257187
58248
-339013
273300
-437766
-343206
443269
37758
240862
43544
-160149
-90700
162187
-155655
-164478
-252181
159490
-173300
-414865
-16385
637087
307885
-717521
163396
603099
135377
176624
461571
-305462
465476
-282082
155195
-139687
234510
1394463
-90696
-142475
1042
-55833
62456
393124
1271061
192446
-855732
-507098
-4164
-4025
451546
-666869
184742
-507180
-621386
783164
-273294
-230726
120705
-287274
-64353
-182534
-146215
-265149
-238257
-119502
-18122
-120035
628818
-541130
-572759
-205948
285602
48141
-375622
440884
-62510
388393
-336379
-109491
185515
88421
-88902
90215
601250
-29787
-380421
282585
-867699
-252053
19525
-200767
205403
-8418
138907
708235
-134932
-126287
222966
755149
-1345288
199455
607760
55822
397075
-973610
-451000
5576
266748
-168533
631275
-297954
-71944
-117735
-246234
78156
-236535
263010
-213539
331720
-543319
-450868
224796
128470
-318994
-215220
-74714
-67776
-5907
78927
-735768
8047
-1260584
-632553
-233293
-231326
335001
443501
-71603
-120398
-599463
229520
588466
-359264
73715
234200
571057
-219561
331769
71738
-110881
44998
193008
-1189523
28062
-25019
394961
-179606
-116858
-96947
-288175
-607281
249268
804538
-6542
139288
