33291
39682
18006
-25027
1948
13386
104028
23463
7035
24625
30712
2000
-109808
14797
14042
61077
2299
3900
-746
44455
-59773
29767
24068
47885
73839
55267
15719
17764
6230
35315
41215
937
19197
2501
-39126
34596
32422
90878
11099
4622
35146
-54392
7265
12403
18240
-85354
-31309
36785
28990
17749
65856
12352
1609
19861
-214
63220
37758
-6457
7606
32738
-55946
1288
-1712
10097
26112
235
37772
-1356
-107140
31817
46175
11710
-4460
-40653
-8561
1655
37598
11620
19414
36311
76975
-66677
45929
3503
28113
8357
1053
-2233
48627
-4603
19318
5148
13157
46218
-39
2376
54990
73277
29871
5878
-86990
-95262
6035
21016
87828
28077
13848
47843
2924
86265
2002
1728
36185
34450
17344
-1832
32121
80847
61604
-93505
30733
25134
-3125
78780
2639
-6610
-15333
24172
4571
27420
1863
40565
24761
2378
6539
-84706
34212
43866
-6604
74804
8783
-3504
-17919
16444
74146
7
57026
6806
24751
28268
14593
5559
49968
18301
-989
69728
7933
44478
28187
-98167
11236
-86606
14761
20140
10743
16858
38218
2098
64499
47681
22836
48279
65809
20309
-27342
20996
10946
41650
10132
11019
11479
-90792
42089
-8590
-1172
2577
-18768
23961
9790
-101768
15320
13187
-228
57271
18172
-19959
12536
3256
62914
11373
-90716
16375
-6420
-10086
14910
21359
17778
27027
9128
18876
7196
15843
6751
7622
-489
-1302
20666
31477
2751
-94738
14642
-53907
-28407
16150
18392
18174
-42161
35937
4759
-68814
34821
4428
14607
-2655
-28898
1152
-1020
24509
86684
1346
27929
-68567
1539
28611
-1001
30962
28186
56945
53426
37524
36812
-2280
32509
22072
51043
42090
-97968
-10448
23292
28862
72508
7105
-3180
-15721
9008
44234
39352
114742
2488
86516
31998
-9016
-4123
18658
58752
39965
28298
-1383
4876
24332
34660
43138
-29117
26670
-4720
13407
47965
76817
98494
-3228
76964
-44094
-2778
56997
27960
1814
8619
86386
97341
17762
-46202
10386
102007
23170
62112
64339
24031
-213
1410
24385
28448
25377
11646
11341
19373
81281
-442
83042
23165
26493
-2183
-10050
-22482
26902
37884
35191
44876
68345
8591
18180
-96260
-13340
34086
22966
-7380
14195
12260
21251
-1171
32096
-108480
4933
24077
9306
30289
25791
37900
29325
65842
1437
28130
39232
-19214
-198
-12549
23663
5483
60753
-8841
703
-13989
2903
-42543
-838
363
20067
256
986
-68316
59454
66302
21910
-5424
33117
18782
30680
272
29585
25686
-2811
20652
45314
16518
15638
-2057
15186
475
11044
10236
5447
-3780
17108
-21009
-7636
-4154
14933
85626
23270
332
69570
25454
64722
7931
889
-14555
12329
17119
-71018
-10142
29004
89097
39593
46811
-1715
2641
14745
-12398
91057
11120
20885
19974
-31677
17931
-26104
3776
4338
4024
-3856
1881
25189
60967
67358
-22159
35134
6900
7627
61003
-3990
36793
6594
11668
30165
25026
80703
40199
39738
62415
-18402
-28605
-1612
19981
29542
-58509
5186
37681
33713
-8904
83433
4548
24040
14593
-78063
8515
-6449
2093
19611
-12521
683
44024
-3242
59152
5964
13395
32710
-11277
5923
18336
30095
7347
31220
50092
1533
-9025
60708
34140
-102368
12371
22959
35155
11788
35342
8603
14604
-2530
1675
5948
-64935
81044
-64360
-6477
26262
80560
14805
61517
31591
-34201
35207
848
8716
97209
31949
-21888
11853
-27610
25869
36847
15989
16629
10183
2005
715
22898
27866
31426
35464
16950
27890
6993
84003
-5858
-108434
-1746
1404
379
3211
29799
20081
55763
7410
8513
35434
62224
-42588
33714
6027
19992
2442
32353
22822
25840
10461
27666
41680
52568
6782
1947
41877
18446
5384
43225
32766
-23719
45453
20155
18095
29776
24687
25141
22090
20059
44663
30013
7329
21946
-340
42868
22342
46349
111940
1276
24944
12952
15760
25309
61061
5868
25314
9496
13027
35623
5387
3764
10946
41362
41048
22964
13334
-2808
19400
23168
513
-103839
29538
-75880
20147
-13784
23320
-7941
32502
36151
-80117
-5656
22726
-3697
41997
17212
-32993
-93839
39272
60
7170
29785
-55061
20870
17588
-1314
30624
6214
22517
43512
57289
1193
24829
-20017
-51968
17041
3580
37081
40487
-50233
2783
24976
-79535
17406
-3530
43841
8743
22575
65048
12837
8574
40421
15523
15811
21003
28051
36063
16649
5827
-77946
43781
-36117
70206
-27870
14007
5505
20484
-86774
33434
50769
3018
57014
