71371
4243
-2944
-1993
77118
735
-37648
133
77765
3895
80395
-1208
-1630
-1489
16554
-81711
-10004
-29488
70831
-1114
238
93952
-4807
-68557
-4228
13878
-1850
-75047
-67540
-69406
-407
-67308
83714
-68402
2221
74988
-37000
84310
291
79420
-45767
88669
77446
-20
98490
1179
-658
-567
-2345
-4098
-6211
87176
78980
-1098
85506
78717
-942
-590
35
-2964
-12388
-492
-72262
85543
82860
81694
-66
77369
75883
-489
77604
-637
-3769
-1002
74923
79508
84608
83442
-58802
17616
-5710
69016
-3777
83619
76698
74825
78337
-3764
-9996
137
84309
-1484
-65172
74554
-71600
-778
-1880
97
13877
10035
-860
472
78087
-2340
-6705
86968
-10698
78501
-3704
-71376
-522
79873
71107
-63958
77492
75101
77449
-3064
80884
14095
-1572
-80276
710
78414
-2267
-1382
-61126
-2012
-7012
79350
-67880
83471
-540
78205
-1724
10881
84280
-69631
9923
-66125
-7438
713
-96
79916
-1984
78424
349
-395
83310
71217
-3514
83570
-658
5808
75222
3317
77740
742
-1576
93776
-5292
-1700
81107
-942
-2104
89300
-3520
82351
76721
76655
-975
-78662
87375
72188
-67283
3665
-80135
83653
-1238
-1694
-506
-78471
205
-68192
166
-1617
-6046
-32587
-78882
-71432
83160
-1237
