18
89
42
-61
-1
58
2
32
-1
65
-99
28
-75
-37
-21
-103
26
6
28
-3
-22
-33
-15
116
38
-8
-6
-59
-67
14
55
14
70
31
127
-59
-9
-57
38
-58
26
44
40
-28
-119
24
-61
-50
-66
62
-36
-25
-55
-8
87
-31
-20
-82
77
-119
-41
-46
127
-66
-74
-3
-48
0
-55
-40
6
-29
-3
-18
78
20
25
-5
-35
74
-10
-71
-8
-43
-25
-4
1
-92
87
-42
4
-23
-19
-30
2
5
10
-77
-33
-89
81
50
-10
-33
10
24
-14
10
70
-56
-127
-20
-99
30
36
-47
-29
48
18
-84
-84
65
16
-47
-111
71
59
-92
-81
61
-79
-17
-55
-42
32
-87
-14
17
-69
47
63
-36
28
2
-43
-127
-39
-53
-37
-12
11
4
32
-28
-74
-58
-21
-75
-94
19
1
47
-56
-65
-63
29
76
-54
-26
31
-16
-26
-49
-30
24
-45
-58
-30
-104
-53
28
24
45
-4
12
6
-31
63
23
-24
59
42
1
36
-76
62
-19
-62
61
81
59
46
-1
-3
-30
-28
-6
-21
26
-41
127
-55
-90
-4
-44
27
-20
-23
75
50
27
1
-24
7
-18
74
-67
34
5
5
-70
-9
33
-9
38
48
-2
12
-79
-6
-41
-102
-32
-27
-37
-51
14
7
89
23
81
50
12
-50
-44
-48
-42
-32
-13
6
-44
-36
-104
-29
-4
-49
51
-26
-32
72
7
-16
19
-60
-11
24
38
7
-66
-57
32
-63
-43
10
48
-25
127
-94
69
27
100
36
11
127
-37
-2
-67
-38
-97
-36
-64
17
-47
-108
-23
-82
-16
-95
46
-4
12
8
4
17
-78
2
-55
49
72
91
-12
-45
42
35
16
5
-8
-4
41
38
59
-54
-14
-58
-38
20
-32
-23
-8
-66
-50
11
5
-64
-25
9
-36
-48
-13
33
-11
-27
-33
-12
-38
-4
-40
-6
10
-63
-2
-10
86
-82
28
-33
65
-40
13
-127
-8
10
-32
122
-47
51
-34
-95
-15
8
4
17
-89
-94
-92
13
-73
-28
-22
-28
15
36
-25
-27
-2
32
-24
-28
-27
-13
37
-51
-47
-13
-25
28
-31
-62
-52
-52
2
-28
12
-24
-40
12
3
6
-53
127
-23
13
-6
-40
28
11
-18
21
24
-20
-33
-26
34
-16
25
-28
-72
-53
37
-35
-51
35
-88
-9
-39
36
-51
-24
-79
-83
21
-18
-30
-26
22
-55
-1
1
-20
-14
47
-41
-24
41
42
-28
61
-24
-15
33
-64
-76
-7
-75
-2
-5
12
43
127
55
89
-6
-2
22
30
-5
-27
11
13
-20
-43
47
-72
-80
3
-10
-55
-12
12
7
-1
53
39
-104
-34
-26
-34
-37
30
-17
67
-6
-74
46
32
42
-93
70
-38
-17
46
7
1
-23
-127
-34
53
-114
-35
44
-28
-38
-82
90
9
-27
63
-101
-12
-47
-32
-114
-92
80
-77
-115
-52
-32
0
-8
-48
-61
-19
-72
16
0
127
-58
55
41
-56
28
-60
-12
-72
-54
-21
21
2
19
-43
-73
15
-34
50
-48
17
-46
-8
-51
-65
-5
-19
-2
-37
-8
0
42
1
-28
-5
-19
23
-33
-27
-14
-18
2
-33
-56
-40
-52
-16
-49
-57
-1
-44
-51
-40
62
-25
-37
-47
-9
-1
-18
35
-38
-11
127
63
-5
-11
-6
-16
-33
15
81
38
-69
46
-37
-61
-74
-15
19
-69
43
24
-56
-6
9
-20
49
-66
-13
51
12
-18
-66
-88
-101
58
6
10
73
-98
42
17
31
-37
16
-38
-68
-2
40
22
-40
-39
-15
127
1
-4
10
-25
1
13
-5
-49
-12
5
-30
20
3
25
43
-29
-23
-40
2
28
-19
28
-127
-19
-8
-33
21
-23
-17
8
-16
-8
47
-22
27
4
11
-44
-60
22
-14
3
-25
-2
-37
-7
46
8
-14
-88
7
10
-24
57
12
-45
-76
27
3
-4
21
40
-92
25
-16
-111
-61
52
39
60
-18
22
6
-46
-51
-22
-50
-21
40
-39
19
34
14
50
30
-32
9
-17
15
-34
-127
16
98
18
98
-20
29
32
7
19
54
4
0
-17
-8
19
-97
-27
54
-26
21
-56
-102
-11
-99
36
-63
-16
-72
-127
-49
-21
5
-4
-1
36
16
74
26
41
-30
26
27
15
41
-49
34
-23
43
-17
-96
-14
-28
-88
-14
-15
4
-30
-46
68
61
18
22
31
-18
-18
26
-56
127
12
-52
-24
-29
34
27
-12
34
39
-66
-101
-18
5
-123
107
39
5
23
-95
-15
-60
-49
-110
43
-51
-63
-127
-1
34
5
-74
30
-53
-57
-38
-19
4
63
14
-83
21
-13
-64
46
10
35
-88
0
-1
-33
-54
-14
-11
-22
30
-23
-62
-8
-40
6
26
-90
17
14
35
127
-41
1
88
-6
-53
4
-35
-42
52
22
42
3
-94
-35
-26
1
-29
24
-26
39
1
-58
-51
-41
47
-56
-9
2
20
-22
20
30
33
27
-9
-26
11
-5
74
-24
-21
18
-14
-8
-4
68
-55
-63
-78
-33
-24
26
34
-41
-127
1
-71
-23
-24
-55
36
44
23
29
-25
-55
-32
-58
-53
-127
-103
-73
-48
-73
-10
-42
-26
79
83
-79
63
-33
-9
48
2
15
44
-92
-40
-40
-45
-79
48
-40
-103
-46
15
-22
-50
25
-63
28
-75
-47
100
40
-53
108
48
-14
38
-6
127
-48
22
-38
39
-31
-49
22
-105
-87
23
46
5
-29
100
62
6
11
30
7
22
18
-34
-57
-64
-23
40
74
-16
47
17
38
25
93
17
-58
-67
15
50
-34
-19
53
-33
28
50
10
18
105
-6
1
9
6
-19
5
-13
9
20
76
5
-65
27
-2
-1
2
23
17
-21
-17
-51
-26
18
-29
-28
-35
4
-21
6
-9
-79
54
0
-2
63
-11
-33
30
-23
-116
17
42
-127
-4
12
71
20
-23
-66
1
-56
42
-27
13
-46
-62
-64
-75
-24
43
-124
-81
-48
38
-62
-61
34
-27
27
-78
127
40
-71
-44
77
15
14
-81
11
68
-111
5
-12
-29
-57
1
4
-23
67
-57
-94
6
52
35
-35
8
43
-44
-25
-49
-87
-30
-30
95
-91
53
76
-81
-18
9
-12
53
10
63
-25
-15
-48
47
0
-68
127
-65
-1
-14
-48
66
-83
-41
-48
-69
-34
-37
-108
10
-17
69
9
-53
43
48
12
98
5
28
-53
71
-3
25
-48
54
-44
13
-33
-127
7
76
-48
21
14
-45
-36
24
-21
32
-10
-4
-75
-41
-5
48
-21
-29
6
31
-72
-1
27
-2
18
42
-58
37
30
-76
87
-39
-25
-72
-62
-60
9
3
30
-14
33
-31
-45
19
34
4
-23
-63
-11
9
43
22
18
-39
12
16
71
7
7
-35
-27
-1
-59
-87
-14
-99
-127
24
46
81
-26
30
-15
-17
-20
39
10
-17
4
-38
-34
15
-45
-20
13
-6
-4
34
-92
-60
-90
15
83
13
-2
-15
5
-41
-85
36
41
-34
127
-93
-5
41
-27
-5
21
3
-79
-66
119
-11
22
-42
10
-14
-123
23
-33
27
-43
21
-48
-53
-13
-64
-2
48
-16
33
12
-92
-11
53
46
-66
10
-85
-20
-28
31
-15
-1
-10
-119
-45
14
18
39
40
-105
34
28
-39
20
18
-9
-30
-65
-64
5
0
-42
26
-127
-13
70
5
43
55
-38
14
-27
2
-83
-45
123
-5
-83
18
9
26
94
-9
44
-12
-32
16
94
21
-33
-92
4
-77
1
-45
-10
24
-96
103
6
-86
-37
-42
5
-43
38
15
1
-4
-61
-87
-10
-42
63
-43
-127
-76
-85
25
125
28
-3
-24
17
0
82
-7
-11
-12
13
33
-18
83
19
-47
35
5
-35
0
-49
3
-46
-7
-71
-55
78
-22
63
-17
-8
-44
-109
13
-38
-13
-74
-43
-17
20
-6
69
59
45
-37
34
-52
7
5
-7
-49
-40
-45
8
-127
-88
-24
7
-62
-96
-1
69
-19
-17
19
-3
8
-19
-76
-10
-61
19
-45
-57
60
-38
0
-35
48
-30
-15
-9
-10
-27
29
127
-19
15
-30
-2
41
29
11
-57
-21
2
-24
0
17
-4
-1
1
-57
-46
-65
-12
15
-60
-30
26
-68
-22
1
-37
127
10
-79
-24
-3
-54
-82
-83
-51
-79
24
-46
18
-71
-76
-38
7
10
-19
-85
5
-9
48
-8
18
63
-43
50
24
-9
-58
-32
-28
-26
-6
44
-72
-44
-61
-43
18
-91
-2
43
-32
-58
-58
-49
-66
-42
-48
-57
-19
-39
-29
-69
116
-21
-29
-24
12
55
33
-34
-78
30
-36
-30
-50
-35
6
-23
-74
14
7
127
-31
53
-106
-10
52
-114
-18
-62
-76
-1
-5
41
-9
9
46
-13
-35
-28
-37
-29
-1
-23
-37
56
-56
43
-9
40
65
56
27
-72
82
-85
-114
-7
41
-36
52
47
-32
127
-12
3
39
52
-41
-7
-77
-5
-1
-29
15
-16
-14
-49
-61
-77
-103
3
1
-53
-1
127
0
14
9
-64
39
26
0
-4
20
-68
7
-52
-43
-22
-18
-43
10
31
43
-8
-17
-26
21
-12
20
-53
-62
26
77
79
-28
-7
8
-29
-18
13
-8
18
37
32
-4
94
-16
6
31
-10
30
-10
30
-42
-39
-96
23
-55
1
-86
23
-92
-22
-53
32
-30
-21
-64
18
112
-54
-25
3
-104
-104
46
20
34
127
56
77
-15
-34
-52
31
-26
17
-5
37
-57
-99
60
-13
-25
-58
-4
-17
-37
-33
57
-38
-56
-47
30
35
-14
19
19
-4
-42
-30
-6
32
-16
-11
-19
-10
65
-15
21
-78
-96
-127
-41
-31
28
20
14
36
3
-39
-60
-12
3
17
35
85
-49
-30
28
6
-18
-14
43
19
-53
52
-55
61
-65
-64
6
5
-27
0
-3
-7
-65
-24
-6
39
51
-14
-27
18
-3
6
-17
-2
-113
-127
-25
5
68
94
60
47
1
-47
-3
46
-15
-6
-52
20
-52
-71
33
-66
-70
-7
-26
-6
37
-8
-127
22
-31
68
8
14
-8
-15
9
4
-65
-13
26
14
-35
-28
3
-4
-7
-33
-2
18
-44
25
-4
-10
31
32
-75
8
-16
24
2
-13
-4
8
-3
-10
-5
-48
14
13
11
17
-24
-87
-86
-63
-30
-27
-71
3
-30
-107
47
27
8
30
62
32
-52
-42
-72
38
-30
-76
-53
-27
-15
-91
-24
99
-74
-55
-41
81
-54
4
82
-58
-127
-39
11
-24
-21
1
-15
28
-90
-10
82
85
-69
19
-26
-7
72
-56
-64
60
-46
-8
51
32
-38
-55
4
-48
-102
49
44
27
7
24
-87
-41
13
59
-96
-75
-20
22
127
-50
66
58
47
1
-13
114
-28
-25
-10
-25
-34
-38
-22
-26
-43
43
-49
42
9
-7
25
-59
-72
-106
-57
-30
-9
-119
-16
13
-38
30
-47
-46
-5
-62
-83
-7
25
-57
-91
-22
-66
92
-1
7
110
-55
33
-44
15
-50
-35
-19
-2
27
73
-16
72
-127
5
-47
26
-26
8
43
-21
96
45
-19
13
-43
-25
-22
-49
-61
127
27
-49
-83
41
30
-29
-54
-108
11
15
37
55
-14
-22
-3
-9
9
-39
83
-1
91
-57
-41
-81
57
-35
123
-74
43
-74
26
-33
-93
-38
11
24
48
69
-17
-75
-8
-38
-111
30
17
42
-115
-4
-48
28
81
42
-11
-106
-60
38
1
127
84
-54
55
54
17
23
84
-16
-12
-18
2
49
-112
-18
29
7
-34
11
45
36
75
9
-2
-101
7
4
23
-41
-48
11
-60
54
80
-24
44
34
-78
-15
13
10
-64
48
-72
-92
-63
127
57
-105
-5
-55
86
52
-65
30
17
-65
-6
-70
-94
98
-74
-39
-116
-13
-36
57
21
-19
-29
58
-49
-37
-55
-24
38
-77
7
15
-49
62
-1
0
-21
22
1
40
7
-55
-43
-5
29
29
-38
-26
50
1
-51
24
28
-127
-63
58
68
66
32
12
5
-3
-25
-9
-42
-25
-23
-34
11
43
-15
32
15
-61
-37
-61
28
9
-23
0
-127
18
-69
25
-19
29
-123
24
-27
-28
-48
1
24
-74
52
-49
-44
-31
-74
-57
34
-126
36
-38
21
95
-32
-11
115
-20
-72
66
-43
28
71
-15
70
-53
-61
-23
45
6
-36
53
-71
-58
56
-22
-111
-19
-54
93
-46
-61
29
127
1
-36
-7
31
113
-40
-51
-50
-56
-46
-28
-48
-15
-123
11
-51
-9
-9
1
11
-31
-32
-49
-53
-63
-22
-42
10
-52
1
68
-26
-14
-95
36
14
76
-25
-10
10
-47
-39
-12
-29
-52
-18
-30
-31
127
-87
-31
42
-48
-1
-32
40
56
-108
-40
43
13
-24
29
-3
36
-13
-6
-14
36
-19
-112
-114
6
-39
-13
-26
-14
-9
47
8
-19
-18
4
-17
-8
-19
-17
1
-15
-38
-35
-48
-19
-49
87
26
-51
-21
-27
-34
-11
-8
-8
-79
-5
-32
-68
-62
-43
-14
23
9
24
-15
-33
-9
-25
-40
-5
-12
1
44
-21
-67
-1
-4
-25
76
-44
127
-107
-79
-115
34
-38
21
90
73
-41
-8
-51
41
-15
-11
-57
-5
51
-37
-17
-1
-83
-9
-50
-38
-56
-59
-25
-21
40
-45
-5
-72
20
-6
-20
-51
-9
33
-18
48
83
-79
-7
127
-78
-75
-45
-1
-92
-1
8
-98
30
7
5
18
-26
2
9
-72
-95
26
-6
-38
2
8
-52
-47
-30
-44
50
-76
-29
-46
44
-35
64
54
3
70
-90
35
5
127
-10
26
-31
8
-9
-33
5
-52
-84
-47
-56
-76
14
-91
-94
-111
-37
-61
-117
-88
-10
47
-114
94
43
29
42
-62
-61
-40
84
-17
91
77
-100
127
-37
-78
-83
-85
-38
-60
-10
-9
-31
-33
8
15
55
-111
29
-1
20
-16
-63
18
-5
-79
-70
18
6
-51
-6
41
-26
-4
19
-19
-53
-127
-49
-27
-97
-32
24
-37
-1
-18
69
42
-29
-9
-33
61
12
20
56
-74
48
60
20
126
-106
14
20
-12
19
-38
47
-4
3
38
-42
-50
2
-25
57
-27
-13
16
-45
-1
30
-27
-37
25
-14
3
-17
-1
4
-20
-127
-19
15
-50
-30
25
-14
46
7
-22
37
-18
-1
-25
-23
21
-19
18
-1
-27
-3
-4
-52
27
-54
4
9
-21
-29
-26
1
-79
-19
55
-62
-38
-62
-45
9
-46
-127
15
-23
-42
-19
-36
-39
-86
82
59
69
-49
-78
36
7
-75
-57
-57
-64
-68
-54
-36
-99
-73
-28
54
-17
-27
-26
42
-29
-93
11
-54
-85
125
74
-34
38
66
-37
38
-54
-32
6
-8
-25
17
-54
15
-34
61
55
7
52
-3
-4
38
3
-71
73
-36
-2
-2
26
-127
-80
34
-26
-86
-91
35
-12
106
-37
26
-16
24
41
-14
-7
38
21
40
-56
-44
-18
-29
15
-5
15
-26
39
-61
-126
-45
-22
-27
-80
-19
-15
110
44
-97
-23
-80
-19
19
17
-20
70
47
127
2
-39
-36
9
-46
-60
-10
23
-59
-43
-51
30
-11
-45
40
-25
21
22
-33
-16
23
-22
-22
68
-33
-57
11
-7
-28
-8
13
7
-63
0
31
-45
12
45
-65
37
46
127
-29
-52
-86
-23
-17
-34
-25
-9
-15
-18
40
-13
-52
-14
-85
-23
12
-27
-7
-7
-20
-15
-49
-4
13
9
-23
47
33
-43
6
117
-92
-64
27
-27
-52
67
-42
-26
-55
44
21
-17
-71
-120
50
-59
-10
-77
-71
21
33
-1
-36
29
-35
47
-30
-81
-59
-19
-28
59
-71
-89
60
-68
17
-25
-79
-38
-36
-59
65
24
-115
6
127
-123
45
71
79
-41
8
24
73
7
2
104
-17
-37
-71
-104
46
17
-29
91
-49
37
-23
-91
-23
-127
-1
37
-3
-24
55
-22
-4
47
-22
14
-67
81
57
1
-53
49
60
-34
-18
-97
-80
-113
12
-18
19
-16
-19
0
-2
4
11
8
2
12
4
13
-2
-15
-1
-9
-15
-2
-81
16
-127
19
-4
-22
43
-30
-3
9
7
-20
9
16
-4
4
-11
0
-24
-65
-8
-21
-1
-14
-13
16
18
3
-16
-5
3
-2
4
-1
-6
-8
1
-8
-20
-22
-7
15
-5
-6
5
30
-11
-40
12
-43
5
17
-19
-43
-7
-26
-1
-10
4
22
14
-17
-22
-42
17
-11
24
-127
1
2
14
19
-51
21
23
32
-14
-31
-127
-5
-16
-29
72
-37
-33
-56
78
34
114
-89
65
-54
-40
43
-55
-6
19
-51
9
22
52
17
8
-39
10
-17
-12
-78
-2
0
-72
69
-25
48
-55
-46
-31
-8
14
-69
21
-29
-92
-44
-57
0
12
68
-48
15
19
-67
79
-8
-93
24
-33
-21
-29
-8
-77
-24
-53
127
-14
-11
17
13
-54
-28
59
33
-8
-113
-20
-9
1
-52
101
-13
63
-102
80
-108
15
115
-3
-18
-6
23
26
16
-24
-47
17
-17
-68
-17
-51
-90
-59
-42
-34
-26
68
-34
-26
15
-96
85
-68
9
57
-21
2
-11
-73
-127
-14
-19
-19
-25
8
-40
-13
-11
13
30
28
2
-48
-28
25
16
-3
-17
-35
17
17
-36
-43
-97
-52
-77
-25
-25
68
-14
-18
-38
-15
47
22
-63
-47
53
-26
-26
-34
-25
43
-6
-34
-19
-26
-90
-69
-8
-41
-5
-29
-64
-38
-49
58
-5
20
-79
3
-87
-31
127
-34
-18
67
58
-49
21
90
-46
29
18
27
-80
31
-21
5
-37
35
48
-50
47
42
-19
-33
-57
-5
-12
46
-9
-103
38
89
7
43
49
-12
-34
-12
3
-53
-67
-23
74
-38
-24
-29
2
-61
68
2
72
-65
-73
-22
-97
-127
-60
40
64
-59
88
32
-7
-3
38
20
13
11
-73
-46
47
-31
4
67
25
-35
-32
-20
-34
-43
17
-34
127
-37
-13
-2
-58
-51
-60
-24
-61
-1
-21
-46
5
-46
9
27
-45
-16
-10
-94
-9
-76
-51
27
-25
-14
-61
-109
39
56
-46
-32
7
13
-51
-38
31
20
1
-127
-57
-49
5
-13
20
-103
-109
-48
-75
39
-33
-87
-32
-3
-71
-35
-59
-1
-4
-69
-52
-24
4
-49
-15
85
67
27
-67
27
-63
9
32
-36
20
-2
-15
-19
17
-61
87
-78
-3
-4
25
-21
77
-24
-51
-11
8
-2
18
21
-8
21
-2
23
33
-1
-17
40
10
-7
-23
19
8
-25
-33
-120
-18
-127
52
-46
-24
-24
10
-13
60
34
25
77
-70
-24
-21
31
17
-42
-36
-60
-2
-81
9
-26
-56
-47
13
-19
-61
-19
-19
-91
17
-58
90
92
43
-33
-127
-105
26
12
-26
81
-88
-51
18
-5
14
-8
-54
0
-12
39
33
9
-18
-14
13
-4
-9
51
-20
-43
-41
-53
-49
5
19
-54
-20
27
-60
-1
-16
23
-11
-14
14
38
-30
34
-18
-127
-92
2
36
30
5
-5
81
-4
-63
77
13
-52
-2
-9
69
15
-65
29
-22
9
-30
-55
-112
74
44
55
41
9
-15
21
-16
67
-28
-38
-64
-19
-3
-7
124
66
-35
-29
-127
-90
34
-13
-55
-36
-20
1
6
-31
-80
-20
42
-39
-48
34
-88
1
-63
-73
24
-80
-81
4
4
-26
42
-66
-54
-9
12
23
53
22
-80
29
-38
61
77
14
-10
24
-8
22
-89
43
-25
-10
61
68
29
16
127
-48
23
-82
35
59
93
29
46
-5
39
0
1
40
4
78
108
33
21
26
23
7
-27
103
27
-4
78
-38
-99
-2
28
-42
42
-33
-39
-93
-81
-27
-11
7
115
-31
85
66
-107
-67
-5
-20
-18
-35
-29
19
-8
-5
-80
-24
-50
-52
-23
-114
-12
33
-127
5
-28
-59
-61
-23
-32
-27
27
-19
-54
4
-8
-127
66
-19
-28
0
12
9
-50
35
49
-11
35
16
-40
-28
-34
-27
-26
-24
11
-55
-3
45
22
100
-18
12
14
-12
-4
-18
-32
-59
-65
37
25
17
-43
89
-9
-44
-72
-20
-82
-7
127
-10
66
29
2
-28
28
37
14
-6
-94
60
-39
-13
-43
-22
44
11
20
50
-23
10
7
53
-46
-101
-17
-50
108
121
18
74
-29
-42
49
1
-36
9
-25
10
14
-33
-123
-49
-16
-52
-8
-63
-43
-22
23
-19
-57
33
38
-54
-127
1
-22
0
-2
-26
19
-64
-13
8
28
-1
23
76
-58
-1
-9
3
20
-17
27
-46
-17
-41
-56
-12
-67
-20
30
-17
-123
24
-30
27
-50
51
-74
-28
31
-2
108
64
-29
2
-57
-45
126
121
27
-62
-89
-116
-86
6
-24
9
-33
-40
-49
22
63
-1
-123
10
60
-127
-109
-27
38
-47
-11
-40
31
-13
17
26
-23
-71
-74
34
12
24
-68
48
-120
-116
-23
-38
-61
54
-53
-54
69
-95
48
-36
-33
-46
43
33
-32
75
11
12
46
-20
2
-22
-4
-7
-22
4
-32
-21
-1
79
-43
-69
-34
-51
-3
-4
-24
-56
-71
6
4
-83
-52
30
127
10
-47
48
60
55
8
16
-22
54
-58
-20
-17
0
33
2
-51
0
7
33
43
18
-20
6
-18
20
56
-30
26
32
50
-116
-69
-64
64
8
-15
-8
74
-3
-43
127
31
5
22
-3
69
17
-52
40
47
-17
56
71
5
-123
45
69
-2
-87
-77
84
-4
-96
-60
-119
-24
-46
44
5
-126
4
-30
60
59
96
59
67
-19
-104
67
25
-35
-82
29
-10
-127
20
68
-86
-13
-99
-63
34
61
-37
-125
-69
-51
-84
-38
-44
-41
-26
-15
-96
21
34
1
-8
6
29
0
45
-37
-8
32
3
-39
6
-77
-18
47
4
-88
13
16
-42
-6
-67
-31
51
-21
-2
-78
-17
-127
-52
5
24
-68
-18
6
-55
12
38
2
-4
-48
-57
-59
127
-80
-12
-27
-45
-97
-30
93
-3
8
-46
41
-21
55
-48
-36
-75
-11
12
27
65
0
15
-24
-51
-76
-54
25
85
17
40
27
-72
-81
25
-65
-70
44
-55
35
32
-58
-27
2
-30
-26
21
1
-25
-2
12
-55
39
-55
-127
0
-11
29
12
71
-13
-106
67
-10
13
-33
-34
5
-23
-37
-60
54
-66
26
32
22
58
39
29
71
11
-27
2
-34
48
9
-38
-27
46
-11
47
63
12
51
-29
-98
-127
-90
15
52
-99
-33
-23
-94
0
-25
11
63
56
49
79
-65
3
60
17
-69
46
-34
-39
14
-30
17
-69
-96
-25
37
24
-51
-7
-55
6
-11
-15
-84
-30
20
-52
17
-11
29
63
-46
-16
-85
13
-76
-25
-56
56
20
39
43
-44
-64
-69
10
-93
88
-82
-100
15
-127
80
-56
-116
92
-43
-74
-75
-106
-47
-52
-7
-14
-50
-104
15
-9
-1
-122
70
69
-117
35
-74
17
-103
-65
-100
-30
-32
-18
-33
-9
-18
-81
11
39
-89
-32
44
-24
-13
-49
-14
-22
-40
-71
-54
-89
51
51
-63
-33
-127
21
15
85
-37
20
35
-27
18
-27
67
-42
16
4
-28
27
-17
-29
36
-80
14
31
-84
33
-41
66
49
-28
64
-3
-18
-24
-39
-32
-46
-127
-82
-50
-23
-13
31
49
-57
25
-21
-47
-59
-2
-7
18
-42
76
-38
2
18
-29
-7
-27
5
7
33
-4
27
0
-32
-28
17
-58
-12
-15
2
-75
-77
105
-51
16
-45
-61
11
42
-44
32
51
-38
-17
-56
35
92
26
-15
-25
16
-65
-127
83
-48
47
-11
-14
-67
-22
-100
24
-59
-61
4
79
-17
-75
-17
66
-46
93
38
-48
-6
-58
-18
-2
13
-32
14
7
11
-2
-32
38
-52
-69
-56
4
29
-49
-49
-44
-19
4
127
-79
64
-13
29
98
-34
39
55
-19
-36
28
-15
12
-47
-27
80
-43
-49
-83
72
14
-52
4
-69
-19
-41
55
-16
-9
-59
-26
-55
-48
-3
-43
-59
-39
-85
17
-31
8
15
-35
-4
15
-63
-45
-10
127
34
-5
-45
-36
-26
1
-33
-2
32
-14
-40
4
18
-37
3
43
-55
-48
-27
-4
19
-30
-59
37
-24
14
-13
-27
12
-52
22
24
36
-37
-1
-43
9
-47
-28
-36
-41
16
7
-11
-49
-46
64
37
-80
-10
61
-90
-22
42
-40
-64
-10
5
17
31
-127
78
-69
-56
-9
89
-76
39
-54
-86
-54
-14
-2
-41
-75
66
-45
-53
-32
-18
-108
14
24
-94
-4
-56
81
3
7
-81
-115
75
36
-20
27
-76
30
-11
37
-4
-55
-75
-13
-77
-98
-29
49
51
-5
47
-4
103
-21
-17
36
14
2
-32
-36
0
69
-48
127
33
22
34
14
12
-18
-14
-16
-8
20
22
-40
-15
-87
43
3
33
-50
60
-19
67
-25
-9
9
69
-42
-47
5
-125
67
-58
-16
90
-1
8
94
-33
-127
10
17
-27
6
-47
101
-23
-115
14
-61
15
-42
-11
41
-9
-11
20
-8
-23
26
-78
42
33
12
0
5
28
-19
30
1
0
5
-15
11
20
-5
-57
17
-69
-127
0
2
-15
63
118
22
10
10
-7
8
-16
12
-17
-38
-15
-53
-8
-21
17
-11
-23
-39
-23
-67
9
-24
2
55
112
-52
-14
100
4
-35
-50
-47
32
4
-69
-49
43
-44
-22
-10
-30
-100
58
121
4
-68
-67
-10
14
-127
24
-8
-4
-56
-52
-54
-56
62
61
-52
-54
92
-64
-17
-42
21
127
-21
24
-40
-100
41
-93
2
-18
-48
-15
63
-11
-28
9
49
22
23
32
30
-27
-14
5
4
-5
-14
45
24
56
-7
7
19
57
-39
18
43
-16
43
-51
-44
3
-77
-26
89
-20
26
-27
-66
-19
-31
-52
-22
9
-27
55
47
-13
-12
33
127
-26
-113
22
-83
-83
-68
37
-73
-45
16
37
-74
-14
-7
-6
-9
36
-72
-20
-44
34
-1
-42
-11
-38
-20
25
-12
-26
44
32
-29
4
-29
12
-65
-75
-28
-57
5
-17
96
-84
-20
-8
-10
-62
-9
84
-75
-61
-26
12
21
-67
3
15
-42
8
-47
-35
64
5
-10
55
-53
23
-127
-24
-31
0
38
3
13
-32
0
47
9
-37
-18
-40
-89
-15
-14
-23
13
-40
-8
-29
-95
-34
-93
36
-102
-49
-7
8
72
-61
-10
-35
0
-10
-60
-86
-113
63
-109
-33
87
2
-60
19
6
-22
12
-28
-58
-24
26
31
-99
-41
18
-127
-88
-7
-61
28
-58
3
24
-19
-41
-12
50
-83
-127
-40
-24
-9
51
-18
40
-17
-14
-64
-43
-52
-43
62
12
-44
9
-74
9
-37
15
13
-85
43
11
-30
-87
31
-6
-27
14
1
-20
-31
-54
38
-44
-62
121
89
-92
42
-17
-12
36
24
-23
-14
1
37
-61
59
18
-50
-127
69
42
-25
-97
-48
-20
-7
-39
116
-45
-5
-31
-27
-2
-19
-4
-43
-14
-37
-52
64
-58
-59
47
-29
-5
19
-69
-50
-55
-34
-23
-49
-9
-16
70
42
14
54
-42
8
-29
-7
-23
-40
-111
-40
-18
-10
-12
7
31
-37
-47
-8
-18
15
-6
5
0
-49
127
-4
38
3
-52
25
61
-17
-64
15
-12
4
14
-32
66
-36
-10
-2
-42
8
41
-29
38
30
-34
5
-35
-40
18
-17
34
-127
-21
-35
24
-16
-51
-35
-18
-14
-55
30
5
-57
-1
34
-39
-8
-27
48
-89
46
-22
13
-3
-39
-12
26
-55
2
82
-22
-71
57
44
-33
57
19
-75
10
32
-98
-19
-37
-52
22
6
-39
22
43
-86
-72
-70
88
32
12
22
-44
-28
-11
-47
-59
18
-70
-45
-31
11
15
10
-20
56
-54
-96
-18
15
-47
52
-38
-7
-38
-62
127
-40
38
-54
-53
12
12
-33
-78
-14
127
-10
25
-8
49
11
14
-32
10
13
-35
-17
-54
-53
7
-1
6
48
-5
-55
-15
-21
-42
41
90
12
-91
-29
78
-30
-24
-7
5
16
-4
-16
-29
46
5
-19
23
-6
-31
-12
-7
9
-23
2
19
-52
-107
0
18
-5
0
37
29
30
9
52
-11
69
0
31
-15
5
60
-67
73
29
-67
3
39
47
68
17
59
15
29
-49
-43
-19
-30
14
27
-7
-127
-28
-19
-70
-73
-68
5
-43
-34
-7
-32
-8
-65
-84
23
31
112
-64
-18
-17
-5
-25
-48
-36
75
-55
43
-71
50
-84
86
-73
8
-57
-17
57
-58
-63
-29
11
-36
-40
81
3
10
-58
-38
2
-127
58
26
-114
-46
29
39
-14
-127
31
-7
-16
9
3
-1
9
44
-41
15
-49
-2
40
23
-27
55
59
60
96
-25
-3
-18
-36
27
19
-5
56
11
-4
74
-72
-38
-11
25
-42
32
-23
0
-77
-46
56
19
-26
-17
41
-20
68
-2
-10
18
-20
-47
48
-84
14
36
-49
-27
-47
-37
2
-31
41
-43
-30
-35
-2
55
-67
-35
60
-79
-125
38
4
127
-18
66
86
-27
23
35
9
-46
22
17
-1
-17
-14
22
-85
20
2
17
4
22
-3
-9
-13
-31
-29
-14
-9
-13
-30
-1
7
10
0
-34
-9
24
14
-35
-7
25
-19
-11
127
3
-21
3
27
-41
-5
0
-12
4
1
-42
23
3
-10
1
-25
0
5
41
11
10
-30
26
-53
3
13
-13
0
103
91
83
31
26
20
-31
-51
71
-29
19
-117
-80
-36
-127
-63
6
126
-49
-23
8
-27
-22
31
3
-3
-24
-40
-38
-3
-16
16
14
-28
39
-64
-10
36
-15
6
39
-8
-34
-36
-43
-26
29
-30
-32
-72
8
-82
33
7
36
23
-21
16
-127
59
-13
-1
-47
14
31
-20
89
-106
-65
-124
46
83
119
50
61
-44
2
-19
80
-27
-24
16
24
-33
18
-5
-92
62
-47
-6
-101
16
41
-78
-25
8
-17
-62
25
1
-42
-93
-21
5
15
4
5
-62
-3
54
-27
15
121
-9
-30
-65
-28
93
0
65
64
-67
63
-16
-76
16
-44
-24
-127
-37
31
-85
109
-61
-27
38
26
106
-65
-24
-57
-16
-66
-101
-31
-57
-45
17
-16
-29
45
127
-5
84
-16
26
-21
45
3
77
-48
-74
-82
-34
7
33
8
-25
7
54
-92
-37
-15
-8
-59
-42
-39
-1
-42
-2
89
56
50
-26
18
3
-29
7
-28
23
-87
-34
-34
-47
14
-6
-5
-11
57
-47
15
-16
17
67
-3
2
-31
65
8
-100
-4
-10
-63
-65
-11
-42
109
19
41
39
-83
-52
-35
23
-53
-127
-17
51
-73
-31
113
-56
-15
-94
18
30
-52
-33
-3
-52
-42
-12
-27
-41
55
21
-39
-55
-32
-98
-2
91
45
-26
2
17
43
-24
51
13
-127
-101
102
-12
113
-1
-52
32
-97
-1
-56
-101
-14
20
-29
-4
-20
-87
-12
4
-29
-12
-13
-1
-27
-68
28
-17
8
-59
-25
-42
11
14
-2
-19
-41
-40
-41
122
-85
30
-58
-7
46
78
73
-31
-25
11
-58
-32
-57
-12
-27
127
-88
-12
24
-19
-8
-72
13
-8
-18
-56
33
1
-12
-93
16
102
50
-12
86
-41
-90
-38
-54
14
6
-80
-24
-18
-82
-51
10
6
-27
-20
-50
59
73
-35
-81
-26
-122
-123
1
-16
62
49
78
127
-5
-77
43
64
7
51
13
0
-35
-94
-6
24
-18
127
1
-35
-87
-74
-17
6
21
-37
-49
19
16
-95
-24
-66
-32
-115
58
-47
-74
49
-24
28
-13
48
-72
-80
-10
-14
-73
-28
-36
-19
-66
-54
-27
1
21
-48
-11
-24
-23
-10
55
23
38
-15
-45
-71
-40
4
-49
-15
1
-35
-19
122
21
13
20
-4
-10
-114
55
-9
-89
-2
7
-84
-8
50
-16
-95
-22
-18
-61
-6
42
39
28
-32
-22
-47
56
-65
-2
34
7
30
-26
-102
-46
-3
-7
-9
-127
4
-26
41
-31
4
23
-52
-15
29
-29
-8
8
1
68
-32
-40
7
-42
37
2
-32
37
2
13
-47
37
-37
-127
-79
2
12
-37
-7
-6
46
19
-12
19
28
-5
20
12
-3
-63
-40
-19
-9
-16
-15
-76
-47
21
-10
3
-37
40
-63
-102
29
3
28
52
-127
-7
19
-27
2
74
-20
114
-61
77
-5
-29
-46
13
-11
22
3
3
-13
-54
27
-14
-50
-25
-34
-86
4
-18
77
-5
-99
-98
-71
-14
-9
27
-102
-70
-76
32
30
5
15
48
99
83
-78
-33
12
-95
-45
-43
71
-52
12
17
18
-67
26
43
88
-106
90
-22
-10
125
17
106
46
-116
30
-49
66
-127
-57
15
-8
-38
0
16
-18
-21
4
-66
7
-24
-46
-127
36
-14
-76
-61
-76
-26
49
-9
74
45
-66
-29
-83
-30
58
13
14
-66
6
20
34
59
-55
4
-35
17
25
-19
-86
90
0
-15
-5
-41
-19
29
-18
-25
52
25
-2
31
-73
-11
-82
-41
-66
2
-1
119
-58
108
-6
56
76
-42
-4
-1
-127
10
-91
80
44
-17
43
-114
-103
-61
116
-56
38
-90
-63
-54
-15
-41
17
18
-123
23
-36
27
45
-123
-55
-73
20
-108
120
-73
15
-21
55
8
22
33
-15
-35
32
-31
14
8
9
-16
-127
37
20
7
33
-48
-1
43
57
3
17
-35
-2
33
4
-38
49
-67
14
8
-8
31
55
-22
-10
-10
-5
35
-36
6
15
13
3
-29
-22
49
45
22
32
-10
-28
24
-43
-69
-19
15
-62
22
46
-8
30
24
-33
-1
-41
14
-29
-21
-27
-17
-33
-2
35
-42
32
26
-60
7
49
-60
1
13
-6
-127
-25
-20
26
1
-17
-18
-26
-34
-73
3
31
37
15
-71
-13
-12
88
-85
-70
50
34
-17
31
41
36
127
-32
24
14
-58
17
-64
-40
-72
-75
-21
-60
-34
-12
-36
-41
-41
-103
-11
-3
11
26
1
3
54
-18
62
72
59
-6
-90
-111
-22
-4
58
-72
-46
-115
-111
-57
-21
-25
-52
-10
87
63
1
17
-30
-103
127
9
-71
23
-4
-108
-82
-67
1
-11
-19
-10
68
-32
-49
54
14
-40
-104
-44
-77
4
-97
-21
-16
98
40
3
18
13
-20
18
-127
45
12
57
32
-108
-17
-42
55
27
-63
-54
55
-78
88
43
-35
24
2
-4
-79
-33
-106
1
-4
-43
-92
-6
8
-69
54
-27
-9
-26
5
2
41
36
-24
-24
-15
-68
42
-57
3
33
-11
-103
-66
20
-7
60
-42
24
-96
-57
20
-18
-49
-36
-21
-42
-68
45
-78
52
-7
-9
-19
27
31
41
-43
-91
-61
121
77
-62
-32
-25
77
33
103
127
53
-33
24
-49
-31
-57
99
14
28
-67
-15
-75
-57
1
-48
-59
24
-92
-17
2
35
29
-108
8
7
60
-95
-35
2
-47
2
-45
51
-113
116
20
-55
-18
-62
21
-31
-77
-19
-127
41
19
43
-23
-9
24
1
-52
81
2
8
42
-53
21
-64
-49
-78
-46
-81
25
6
-127
-26
22
25
-89
-44
48
-17
1
-4
-34
17
-41
14
-55
-6
-124
-45
-42
-59
-4
-93
21
-33
-28
-59
-75
42
12
45
-61
57
71
32
-108
48
-15
56
77
99
-80
-13
0
119
28
70
24
-25
-41
-14
-20
89
-55
-46
-78
-17
-17
-56
-53
69
-18
4
-21
-98
-39
64
22
-127
-9
4
69
20
53
12
-17
-4
-53
-80
29
-89
-33
24
16
10
-124
-46
-61
-48
72
-52
-77
1
-61
19
127
13
-51
-57
-52
99
-6
12
40
33
59
-123
-97
73
-43
96
-45
14
16
-18
32
104
-65
1
-99
-10
-9
-26
71
-6
-42
-107
58
8
-56
-33
83
46
113
14
103
-2
3
8
103
-20
-60
-23
-19
-18
-32
-13
-67
10
53
-67
-12
16
53
42
19
29
-31
-8
87
63
-41
29
-26
66
36
51
44
-18
-34
-14
-50
38
69
22
35
25
-24
-24
-45
-37
127
-9
-44
-18
65
-52
-42
42
-15
-32
127
-23
-76
-52
104
-57
37
20
-76
-118
-100
-16
-21
-5
44
-3
-28
19
13
-47
57
-3
-12
-20
-6
36
-99
-57
-3
127
21
-22
-97
-25
19
-97
-6
-5
9
-43
8
63
-34
31
13
33
7
14
32
56
-2
-75
9
49
-4
-44
-58
35
16
17
35
-45
-6
-22
-15
-16
44
26
19
43
-43
37
-63
24
-69
-37
-127
34
-21
-38
-41
-34
-41
-101
1
45
-7
-4
-7
6
-11
-48
5
-106
23
30
-84
-14
0
-40
-59
-10
-55
-31
-5
-76
-42
-127
15
-1
68
-29
-61
2
-31
-9
70
4
-72
10
-118
8
1
-25
23
-27
-12
2
-28
44
3
53
-48
26
-58
-22
7
-72
-17
-127
-78
-27
35
-14
-126
-69
76
-66
10
-14
-9
-91
18
-2
20
-127
28
-47
-91
-19
30
66
-40
85
-4
-69
82
30
-88
83
-33
30
-63
0
20
10
46
-95
-42
82
-13
16
1
-35
-5
-80
-32
26
30
-49
-20
-35
-20
-62
35
-28
48
-9
44
-34
6
-15
15
-47
-38
32
35
-22
7
-8
-50
-20
33
-108
-121
13
-57
127
16
87
-3
31
-2
4
6
-40
-30
8
-82
-44
10
-16
-70
26
19
-65
-19
-4
-127
-8
-16
18
-41
50
-39
-80
14
-38
-57
8
-20
0
26
-66
-29
-33
-7
-123
82
-20
32
70
-11
10
-15
20
-19
-67
38
-48
-6
-54
-26
19
-3
-78
47
-26
-52
0
-17
5
-48
-22
60
22
16
-50
-53
-60
-4
-25
19
11
-116
3
16
-6
-45
39
-7
-20
-12
-78
-66
-46
-14
-127
24
-60
21
47
6
79
92
-14
48
-37
7
15
42
-58
-19
-39
77
-13
-123
-11
-67
-12
40
-54
-19
14
-7
-7
36
-15
127
2
-4
-7
1
-41
-21
-44
-68
-23
-1
19
-27
2
-10
-18
-6
2
-10
-1
1
-54
-13
-22
-37
-11
-21
55
12
-36
-9
-34
-28
-4
-9
-8
-27
-26
-13
6
-50
-39
-30
-12
48
-30
-7
-31
-66
-41
1
-10
-4
-24
38
127
6
-3
-11
-25
-1
-11
-22
-23
0
18
8
-15
-3
-24
11
8
-19
-20
10
0
-28
-16
8
-30
-19
-25
-18
-10
16
-12
-8
17
-7
-113
-127
-61
14
23
-44
22
-1
-25
3
29
-103
13
19
60
54
32
-67
-97
60
-111
-90
-111
21
46
23
-45
0
55
-81
-43
53
54
-33
-27
-44
-25
-17
-23
4
-77
-23
6
-9
-104
-11
-25
-124
-44
4
85
-69
22
-83
-20
-31
62
-19
38
-61
-73
-9
-109
52
55
-92
33
48
127
-32
-67
46
52
35
24
-7
-31
23
-10
-117
-23
89
63
-7
40
37
59
-25
-116
-9
-58
37
-22
-88
-32
-69
-18
-94
-36
-43
68
-37
-24
-68
51
70
-127
-79
-10
18
-40
-13
29
-72
35
0
-3
-40
6
27
37
18
-51
-9
-57
-29
47
-23
-64
81
-40
-23
15
-19
-31
-95
-2
62
-85
-89
3
-30
-85
33
22
-1
-41
29
-3
-58
-37
-9
19
-19
-19
-8
5
76
-54
47
-62
-23
-22
-43
9
16
33
34
-39
14
-95
-64
30
-60
54
65
-104
57
51
-3
-127
-15
9
78
-24
42
43
6
23
-81
69
13
-15
55
118
66
127
0
19
-126
10
-18
-66
91
-20
-9
-9
-76
-12
113
-90
11
7
-54
-32
-33
-10
102
41
-46
-71
63
31
112
9
1
6
-62
16
69
3
3
-17
18
20
-91
-97
-100
-89
-34
-127
9
-7
32
-21
34
-42
18
54
-19
36
-3
-26
25
18
4
0
-39
-18
-17
7
1
11
23
14
-19
-19
-1
29
-56
24
4
-17
-39
57
-33
-41
-4
27
3
-25
27
-36
-16
28
-11
3
68
45
15
110
-13
95
-66
-43
-36
-50
-2
60
-69
76
-110
10
-35
-22
18
-47
8
6
55
-53
33
20
44
-92
16
34
127
39
16
-6
7
-1
-56
71
23
-6
12
-20
100
-6
-21
-9
110
-9
-41
24
13
96
18
76
-78
-4
-57
38
84
8
-73
-10
-17
-44
-26
-97
32
-29
-45
-3
45
8
-39
6
41
-127
-58
-24
-15
-116
107
28
12
30
-27
22
12
48
9
4
63
-24
17
7
12
-75
24
-31
-28
11
2
-5
-46
-1
-10
14
-37
5
-12
127
2
-14
-38
-43
12
14
-38
-1
-25
49
-24
-55
-16
-16
-39
-3
-4
-8
17
31
-9
-5
-4
-27
-10
-23
-18
-24
-25
-22
-2
-8
4
-22
20
-18
-32
-19
-56
13
-78
-12
6
-59
-4
26
2
-86
-2
96
-43
57
-16
-25
-35
-88
-61
-17
-15
-54
-25
-12
127
-93
-21
-2
-4
-44
-76
-11
-91
-35
-52
-66
-100
-17
-54
-119
18
-6
14
8
53
35
-14
-36
-74
53
56
-11
-26
-65
-39
-127
-85
23
-16
6
-1
-9
-60
22
-22
-2
67
-95
-46
-2
-4
-85
26
65
2
79
-35
48
-36
39
27
7
19
-32
-16
-45
-23
8
18
-11
-48
85
-2
-10
-21
-27
28
-19
-41
17
-23
2
-5
-21
-61
23
-34
-7
-8
7
-3
-20
29
52
9
7
-18
-53
58
-127
23
57
25
98
-76
-26
11
74
-64
22
-38
-7
22
33
2
-55
-70
-28
-27
-33
-16
-9
-28
45
-16
-16
30
-36
12
-17
7
-53
0
-33
-67
11
-46
-1
64
-51
127
-48
39
-41
-16
-22
-5
-40
3
-52
-6
-66
6
-55
17
-54
25
-60
-17
-46
-12
66
-24
29
-72
3
-31
28
-25
13
-36
18
-34
6
-103
58
-26
32
35
-43
-5
43
61
-73
59
28
-47
-23
-36
0
23
74
7
-44
-42
7
72
71
47
-48
127
34
-55
2
-28
-13
-25
-28
-95
-27
13
-15
-113
25
-104
33
-105
29
93
38
66
117
50
-20
9
-32
34
-17
-127
77
-72
-40
-57
-34
-39
-21
-14
-44
23
90
-24
-106
24
-103
-96
20
4
16
-51
37
20
85
-18
-31
-113
22
-36
41
26
-108
-70
41
-26
-54
-29
-27
-64
98
18
-47
-55
12
80
7
52
23
-77
17
-31
28
-50
-127
17
2
15
51
-31
75
26
9
-86
-20
-65
83
5
1
-33
-120
-14
-13
-58
0
33
10
-21
-13
11
-45
-27
29
4
-13
42
-16
33
-59
101
-8
21
-11
40
12
12
-14
-55
16
-68
-53
-41
-57
-32
0
-68
-58
-20
-13
26
-32
29
-81
31
-53
12
-34
52
-4
66
68
-51
-127
-6
43
-19
-20
-83
-32
-59
37
78
55
47
-104
10
7
-38
-14
-66
-31
-7
94
-7
-37
-16
-19
-27
8
-47
-15
-21
-64
-3
-2
-17
27
76
4
1
-19
-12
-52
-29
-8
6
-54
-23
4
-43
-90
41
-127
-41
-11
-45
-22
-2
26
-23
-29
-11
27
-15
-27
-10
15
69
-12
27
5
17
33
-100
-40
-70
-29
-33
-44
-46
16
18
-4
16
-50
-39
-17
21
-46
6
-64
-49
-9
-37
0
-39
28
-27
-49
-12
-18
-5
19
-70
-69
25
17
38
-127
-38
-6
59
19
-17
-41
-71
-22
-21
-5
-1
-66
-6
-13
-30
-47
-42
-127
-73
0
-62
-7
39
-67
-64
28
32
-23
-26
-38
30
59
-6
-44
-24
66
32
-36
-39
1
31
-61
-52
-50
-12
15
55
-44
8
58
16
-26
11
2
-6
0
11
-74
9
-23
2
23
-12
8
44
11
-6
17
37
0
-16
-39
9
-13
-27
0
-2
-18
-68
11
-19
-11
-25
-6
-31
-53
-14
127
-16
-32
16
-7
9
-63
-6
-28
56
127
-20
-15
-8
44
25
-10
64
28
-7
-53
-12
-16
-29
-68
44
-13
-13
37
-48
-23
4
88
43
70
23
-94
-25
-4
-35
-39
6
86
84
-72
-50
95
-19
-19
-16
-7
85
-1
-26
63
25
-3
15
9
12
-46
-36
-13
-26
43
23
45
-31
-89
8
-87
-6
79
-64
67
-71
-53
-124
35
-77
-10
19
-127
-1
-6
-39
62
68
-15
14
-29
20
-53
-96
-54
-43
51
25
-49
-73
-42
-58
-24
-8
-19
-15
-127
-14
39
17
-10
29
-6
-14
44
-75
43
-37
36
-40
30
101
-4
11
13
-10
0
-20
61
9
-30
-40
-44
-51
18
37
-10
-10
12
-40
-9
44
-23
-25
1
-17
4
33
-40
11
-39
5
-22
2
-46
-47
18
-70
0
12
53
-40
21
23
45
-54
40
-38
-74
35
-28
-127
-4
-44
-17
-19
15
22
-54
51
-12
-43
-10
-7
24
-7
-55
-29
22
70
-10
23
-8
-57
-18
-24
-14
-65
-13
10
-42
59
-27
-51
-66
6
-13
-5
-51
-71
-60
43
-97
-49
65
-64
50
-88
-34
-29
0
-43
-48
-10
-77
53
31
-19
7
-28
127
-7
-13
13
-12
22
-37
-54
-30
-49
-77
-14
-105
-14
-30
65
-4
-29
18
-53
-18
18
-105
-18
-43
-34
-28
-35
-27
36
-73
-25
-52
53
121
-53
-27
-43
12
23
-91
-8
-50
-44
-88
-23
-78
-42
-41
72
-33
-62
103
7
8
-30
90
-17
-3
2
-35
-61
127
35
-107
23
-40
5
25
22
0
26
-98
3
-51
91
25
14
-9
-94
-10
-44
-10
-5
45
16
-42
-58
48
-13
-11
-3
-17
-26
-127
-10
-57
80
66
31
-24
41
-12
-68
116
-31
-3
24
25
51
-34
-68
81
-22
-90
-51
-36
19
-61
68
-54
10
-51
-23
-57
-7
-113
43
-17
124
88
-116
86
-74
-78
68
56
-26
37
-55
73
-39
-73
-94
-121
-84
-20
53
-42
-25
-53
-63
-88
-45
-79
-74
19
-3
-14
57
16
-54
127
-16
-12
-1
-22
7
-64
-20
-78
-65
-74
67
-40
25
33
50
-90
-31
32
91
30
-2
-58
-61
52
-54
19
-71
-118
-77
-19
-112
-13
16
22
114
-16
-31
-86
29
-51
-7
-43
-65
-54
-28
-44
127
0
0
10
-24
-23
1
17
-25
-82
-38
-19
3
-38
20
30
16
-33
-7
-15
-47
7
-14
-5
59
40
-52
18
-16
-86
-127
-43
39
23
34
-3
57
-29
-37
21
-27
13
-15
1
-2
14
3
-30
-15
27
-13
29
32
-12
6
42
-9
-2
-57
9
9
5
-11
14
-21
-33
22
4
-7
29
10
-5
20
61
-88
-74
2
-127
28
-52
-9
66
16
15
14
-21
-7
22
27
9
24
-19
10
4
-40
24
-7
-30
30
29
9
-72
-18
-48
-22
-35
-4
-15
24
13
-54
-23
-1
-25
-39
-36
4
-2
47
14
12
70
39
30
-37
8
-25
3
43
-30
-63
13
-25
-75
69
17
-127
4
14
40
1
79
1
21
-6
-14
-18
36
-60
-68
-17
35
54
-7
-44
101
-14
3
-63
-71
31
-4
-26
-13
-45
69
3
-18
-20
-13
-21
2
-43
-49
82
-30
-18
55
-115
-27
-127
12
-17
-65
-37
23
1
-7
-44
17
58
-23
13
-21
-59
42
40
95
0
103
-3
-60
-44
-35
82
-52
-76
16
-44
33
-44
-22
6
-15
-108
-36
-30
-27
-22
56
21
-127
65
1
20
34
114
-54
67
38
-13
-13
8
25
22
-27
3
-33
-88
23
30
-44
-9
-49
-49
-42
-126
-15
-29
30
-85
-8
-56
-52
-39
-31
-58
-47
-17
12
-49
-64
0
-35
-8
-57
-45
-41
-10
-4
35
43
-53
-110
-34
50
-59
16
-74
88
-127
-60
-38
-18
26
89
65
47
-11
-39
-49
8
37
58
-39
-93
11
-7
45
36
-17
-68
-91
-24
4
-1
-8
24
-17
-25
-34
-34
-35
45
127
-10
-35
46
42
-50
6
-6
-1
-12
23
-23
-4
-20
-51
16
-9
-15
17
-16
-25
-36
-34
18
-11
32
-64
-4
43
-23
37
127
-105
-23
0
-54
-7
-34
-88
6
29
8
-110
86
-52
-37
26
-70
62
-61
46
-16
43
-116
-57
46
-4
-31
109
-89
18
-3
45
6
-18
28
121
59
-1
11
37
-41
-98
15
-60
9
-3
-37
45
-10
7
21
-31
-9
-17
127
6
53
57
35
81
53
-43
73
-81
111
48
-59
-13
-85
24
-6
17
18
21
-24
64
-79
-39
-34
-41
-51
-45
-7
2
-39
28
83
-46
19
-59
73
-64
13
7
-5
-74
28
-6
-19
40
9
-59
22
102
12
-127
38
5
-37
55
-20
-45
-15
-5
20
-7
34
-32
-44
-81
-35
28
-24
-37
56
-33
15
-54
37
-13
-44
-23
-49
-19
-2
10
21
-127
21
-91
-17
-24
-25
-59
-117
-86
0
-64
32
64
-77
29
58
95
-69
39
-10
69
-80
2
-29
-58
-28
12
9
-23
-41
-77
-21
25
11
30
-77
-30
5
-35
-28
-1
-65
-1
-13
54
12
-40
-2
-91
-12
-12
-1
3
11
-84
-80
7
-65
-4
33
12
30
-45
-66
-49
18
3
-42
-50
-28
32
36
-58
-119
39
-28
-21
22
-52
29
52
-9
127
-9
0
5
74
-39
7
5
15
-43
-103
-6
8
-42
-40
22
65
89
-39
-85
-70
7
127
31
-28
-7
-36
-23
-69
11
-43
-7
90
-19
38
-29
33
86
-47
-10
-88
41
-48
53
-27
-37
-70
-48
29
-2
-7
20
-51
50
63
14
2
-62
-28
-64
-22
-45
-23
-38
-1
-17
-14
-8
-35
-18
-107
-27
-26
-2
16
17
-26
-5
-59
-77
-5
-1
9
-14
-40
60
-89
-63
41
-50
-9
-9
-10
44
-88
9
127
-39
-61
70
65
-16
-94
25
13
-25
-14
38
-46
-8
-64
17
-68
40
38
-16
-88
127
-13
4
-2
16
-60
0
-46
-37
43
24
-49
-14
107
-22
-42
-19
-11
-74
24
-3
27
-84
-20
-39
-6
-17
-57
-38
-62
-66
-5
1
33
118
-10
-29
-70
-41
-78
30
8
-57
-37
-24
-8
-20
66
4
-127
-89
-27
46
13
-4
-37
-66
-88
9
-40
-5
-92
-32
62
-35
-35
-36
-9
44
61
39
-10
49
61
-75
8
-87
-110
7
-42
-75
-49
-19
-31
-26
-17
8
26
92
23
4
-23
73
73
-127
-35
-19
37
-67
-104
-23
-40
-62
-87
10
-20
15
29
6
39
44
6
-2
23
-38
-5
-56
34
-20
34
47
-16
-17
71
-35
-16
-37
22
-14
-25
40
-16
-37
-18
-5
41
-50
8
-24
-10
-20
41
61
91
-15
107
8
-57
-42
79
-17
18
90
13
4
32
17
-62
26
47
-32
-3
14
20
57
0
-15
-25
-3
0
69
-109
13
-24
-59
29
-77
-127
0
-24
50
-90
-61
39
-91
-33
-31
-19
-23
11
-16
43
57
-36
-68
-6
8
-36
-2
72
45
39
9
-101
-52
78
-16
-106
-127
-70
60
-16
-9
-71
6
-27
-33
-42
-92
-52
18
-79
-31
82
20
-72
66
-39
25
110
-15
-25
58
-19
9
-59
-37
34
-39
41
19
-127
-7
64
-54
-29
-65
-23
12
-23
6
-31
-46
-107
-22
-77
6
19
-38
28
25
88
-96
-57
72
-79
-112
-47
-46
-52
97
-57
-32
-64
-15
35
9
-85
-55
35
51
-45
-44
2
65
-115
-87
-1
-39
-9
-81
-32
-35
-54
-2
-16
-125
-5
-47
-99
-107
127
-21
4
21
60
-28
28
-63
122
-46
-49
99
1
65
88
-41
56
-87
-24
-43
-73
-32
68
-22
-97
93
17
-18
-41
-83
-67
-29
-22
-36
84
-3
98
-83
-16
80
49
-55
-6
0
-73
-12
22
-5
93
-2
-75
54
-22
-127
-97
29
14
-8
16
-35
52
-57
-12
21
-37
-74
-6
-65
14
65
-68
27
-5
11
-54
-22
-10
-7
-36
-45
-28
-4
-62
-46
-49
60
11
16
45
-17
-7
-43
16
-40
127
-10
88
23
15
16
-50
-83
-54
53
80
-17
-56
34
26
-15
103
-36
5
-17
110
-3
-74
82
-36
-18
-78
-86
-95
30
-5
-40
-56
-9
70
-15
4
16
-43
16
-41
127
-6
-64
40
26
47
-11
0
-48
66
-9
-14
-27
-34
15
-74
-32
-38
22
-58
-61
9
-7
-15
68
-89
14
-14
-41
-14
-12
-9
-38
26
13
-64
-44
10
-27
27
-18
22
-20
-127
-56
-22
39
-14
-8
22
29
19
-35
21
-62
7
-14
3
-29
45
80
-52
32
0
-67
40
20
35
-87
28
-43
-33
-4
-32
28
-21
-45
31
-8
-42
-10
5
-43
7
-31
44
105
-64
-15
-25
-18
43
-39
112
-29
45
-60
27
75
-70
17
-46
-40
-9
-74
24
-54
13
1
12
16
-49
-23
43
42
-47
-31
-75
-123
-72
-70
36
44
-38
-1
32
30
-44
18
-127
-23
30
-22
-34
-12
-25
-25
-14
9
67
6
14
-93
-17
-5
28
-7
14
-24
-26
2
-25
9
9
-39
28
-21
2
0
-3
-29
-78
0
-15
1
47
28
18
40
-26
-18
-127
18
8
-5
-2
66
-45
41
23
-42
-8
52
-90
-20
-104
94
-55
-117
4
-43
17
-68
-68
-45
-81
-109
4
34
-25
-43
67
2
71
-123
127
-94
36
-101
-98
-61
-51
-16
-42
111
42
-43
-6
-9
-32
-15
121
11
76
41
-55
60
-41
2
-6
-47
-74
-56
-53
70
-23
-72
71
-35
-104
2
-32
21
-21
-47
-9
-31
-32
66
-31
34
96
-18
51
-67
21
22
63
-11
-56
-6
-127
18
-65
6
-26
-30
-9
-48
27
28
25
33
33
-14
-82
-12
-57
91
-39
116
39
-12
-35
27
-54
-34
18
62
14
-71
-39
-13
-48
-35
30
-39
60
5
5
27
-4
-20
-19
-127
-103
-9
27
19
25
-39
45
-90
-53
59
-77
-46
72
-19
42
8
-88
-70
22
-14
-6
-52
-74
-41
-12
59
23
-91
15
48
-71
-36
-5
-15
44
-8
14
30
17
-37
62
-90
-27
-12
-66
14
-33
19
-5
-4
-127
-9
-3
-47
16
-24
-63
24
-75
-7
-31
8
-57
-8
28
-46
-40
6
-45
-10
112
-95
22
-10
-64
-40
38
21
57
-127
-41
-5
-105
-30
-57
-23
-108
-4
-41
-46
53
-57
13
23
26
9
-59
-68
-87
-25
-82
7
-8
-67
65
-13
-58
-42
-13
33
7
-73
-79
-31
61
-15
-23
-127
-43
17
35
35
-43
30
-96
-8
-30
66
-83
-18
-65
-106
56
27
-74
-43
-49
-18
-95
-122
28
-104
-8
-9
-61
-53
-82
-78
-47
67
-9
-30
29
-6
-37
-53
-9
-3
-24
49
19
-53
-15
-65
13
-10
2
4
4
6
-31
1
10
3
12
6
10
-6
0
-2
-22
-6
8
9
-17
-127
9
-1
7
-18
-19
-13
-10
4
7
27
4
-10
-12
-10
6
3
-33
4
-2
-8
-1
-11
3
-12
-9
-3
-13
-69
-49
1
-5
18
55
-19
-21
-23
-64
18
1
-13
-127
4
-25
23
-90
36
-20
-41
-19
62
-13
-1
-110
-35
25
-8
-16
81
11
-31
94
-31
-41
21
-90
41
-25
-8
26
-37
-68
-7
-61
-87
-99
-107
-40
-13
22
76
29
-34
10
10
-25
55
-72
-112
-47
89
62
-34
-9
17
64
9
16
49
-52
85
-62
-1
-2
-42
-14
8
-73
13
-41
-63
0
-18
28
-30
53
23
-96
127
24
-75
-6
0
-13
33
15
-37
-23
-35
-3
-4
87
4
-50
8
20
-28
-85
-9
-19
-42
-22
35
21
-10
40
39
-21
-1
-4
-12
-127
54
28
38
12
-29
22
43
-21
-23
21
18
15
-19
-39
-21
54
8
-44
11
-59
-48
-23
-1
-40
-36
6
-87
-87
-38
-12
-105
-26
-53
-74
-11
-116
-36
6
-12
38
28
-98
-49
44
6
-68
-10
-38
20
54
29
-106
-13
-24
16
-31
-111
46
127
-34
-95
45
40
37
79
0
66
35
6
27
-127
6
-23
32
15
-56
6
-39
7
22
2
0
-74
15
35
-20
7
-14
-62
19
14
-20
-58
24
-72
-30
-30
-4
49
-13
21
-14
-33
-23
11
-27
5
3
-50
39
-18
40
1
-77
-2
21
-62
-85
-11
16
-84
-20
-18
19
24
19
31
-70
-4
-59
62
42
-54
-56
-52
-46
19
36
-97
-61
-108
35
84
67
-46
-45
13
30
-68
-15
35
15
-44
-54
-33
1
62
-40
-18
-21
-2
127
66
32
-47
-25
27
-7
18
8
19
25
46
-83
29
2
-109
18
-42
-20
-26
29
26
20
-23
-71
-7
33
-127
-36
31
10
-27
-100
-50
-6
6
-58
-79
-70
-4
-47
22
55
44
-108
28
11
-3
10
-78
121
-54
-102
-11
25
-14
-7
12
45
0
78
0
7
-53
-14
-6
-41
36
127
-28
60
11
-66
-69
-54
24
-68
-8
4
-3
-91
-1
-43
-24
7
41
-47
-74
-62
-23
12
68
-18
-35
-64
-102
-20
-95
88
27
8
-56
-99
-98
-25
-78
35
91
-57
-117
-60
-57
-22
-46
16
86
-58
-75
11
-5
-51
-92
-69
5
41
-106
26
16
6
72
35
-1
-51
-2
-32
7
-16
36
-60
61
-51
-125
-113
-30
-74
-127
30
12
-17
12
-72
10
71
-13
94
-30
-99
12
-25
-70
16
124
42
-38
-14
6
53
-87
24
-45
-49
1
42
56
-11
28
-80
-13
-70
-40
-10
87
-75
-127
46
-29
-53
42
38
57
100
-35
82
-1
-14
24
-20
11
-25
-85
18
-34
-4
-28
-37
34
34
-30
33
-2
-11
3
3
11
12
15
-33
-77
-107
7
22
27
9
-2
-20
27
-67
-13
-28
-15
-56
0
-29
-26
29
25
-32
13
-6
11
-28
127
36
-29
12
-67
-56
77
-73
14
20
-76
29
25
-25
-37
-28
-1
18
14
-33
43
26
23
-79
-28
-21
-46
84
-44
-32
-62
-9
108
-35
66
-10
43
-66
-22
26
-65
-34
40
-82
-127
-108
11
-36
-24
49
-46
-2
-49
-16
-127
-6
13
-29
-5
-86
36
-42
-8
56
16
57
26
27
7
15
-8
-13
31
6
-31
-83
-17
-16
-33
18
0
0
-21
-27
-65
-38
38
-36
-48
32
5
67
18
-45
28
-60
2
-27
37
-22
-60
-48
26
35
-7
47
60
12
-65
-30
-1
-3
31
-49
-48
-81
-61
-7
-35
-110
101
67
127
-36
-49
55
-49
-41
42
33
-61
-3
-107
-24
-9
-59
29
-48
-38
-2
-64
27
1
-8
-12
-28
-99
-83
27
55
9
-28
-32
18
-17
-27
-125
80
-16
-12
1
127
-6
-84
-33
36
-22
31
-22
38
-4
-38
49
-35
105
-51
13
47
-20
-36
5
-97
-82
22
19
3
22
30
-38
-21
-42
73
-74
-7
-65
-32
-46
-71
-67
60
16
86
-42
10
-81
-3
-98
-112
-19
32
-50
-65
-3
-50
-17
-82
-23
13
32
-25
-28
37
-1
29
-32
15
-5
-55
-7
-88
-82
-17
-63
-51
-37
-86
55
10
13
30
127
59
3
73
-50
40
34
59
-24
-79
12
1
-21
1
5
0
-54
9
-12
3
39
17
-22
127
23
-50
-64
-9
-64
68
17
45
43
23
23
50
51
3
21
-31
55
16
37
-40
-75
-32
22
64
-26
-1
-103
-8
98
-8
-39
-75
29
74
7
83
-32
39
-71
-55
59
-5
-40
-90
-45
-70
-46
-94
-109
-80
-65
-15
-29
-76
50
35
-10
-12
-26
-27
13
-29
46
26
3
-32
-39
-127
-35
1
-90
23
-11
84
0
-21
-4
-48
127
-45
-29
43
-59
-22
6
-86
-64
-28
-66
101
-32
20
-84
12
6
-41
-22
119
-19
90
48
73
86
-24
0
-82
7
-2
-18
-4
-46
-97
-51
1
-17
-67
-52
-11
9
-2
-21
69
36
6
40
22
86
-37
-20
-50
36
67
56
-15
-78
-18
7
28
-88
18
-72
86
-27
-58
-71
-11
82
-106
100
-25
10
44
-101
88
-93
-22
-3
17
-38
127
-101
-22
35
33
-28
-42
-38
-109
-72
-7
-8
-40
-43
-2
-83
1
-12
51
0
-76
-2
35
8
38
19
50
-14
-31
-21
59
-11
12
6
38
37
-22
-7
-28
12
-46
-3
-14
-12
-127
-45
-56
-42
-12
-7
-104
9
-10
-36
47
22
61
16
39
-13
-5
126
-55
14
-38
-10
-9
-18
-50
-10
-56
-44
-42
-49
-50
-127
-7
-3
-38
-15
-67
-1
-17
13
-22
-7
-56
23
19
-93
11
86
75
-17
-16
-31
-44
-31
14
-41
3
-27
-95
-30
53
-33
-52
-8
62
-39
20
37
-77
46
49
67
87
-112
29
-12
36
-24
-17
9
-6
-21
-25
43
-97
17
-38
-16
92
-58
79
-89
0
-1
9
-9
30
4
127
-33
42
-52
66
54
-29
-23
-14
-26
42
18
-39
77
12
5
53
38
8
-52
-53
1
-36
-38
16
-89
-95
-27
21
-22
77
96
0
-19
-94
-4
-69
-50
-127
-15
-4
64
-53
-1
-88
-39
110
-95
47
-6
-62
6
-13
19
-7
-62
-20
-19
-49
-31
-4
-47
-8
46
-61
-2
-50
-3
-44
8
8
-73
-19
6
-16
5
-10
17
-3
-11
13
-6
-38
-86
127
-22
-35
-25
-26
-4
2
-26
-33
-81
36
-45
-21
-46
-27
-14
-8
-2
52
-44
-22
10
-14
-1
17
26
15
-4
-59
11
-55
-34
-94
58
32
20
0
-65
-115
-55
-41
-53
24
-106
-55
-79
3
10
-55
-103
-52
-16
85
43
96
-19
-32
12
89
35
-51
-22
26
18
-87
-9
25
-127
-114
-59
-50
-49
4
-81
5
-10
-62
-127
23
-18
6
-1
-33
89
-26
12
12
42
74
97
53
9
24
-111
-100
83
-87
-45
-56
-46
87
-48
-14
33
10
-36
47
-67
-98
-123
-51
-29
-20
26
48
-18
-1
86
32
-70
31
1
34
50
-13
10
-23
-47
-40
-14
6
-21
-9
-23
-10
0
29
9
20
-54
-26
12
-40
-13
42
4
-114
-68
-29
5
-27
18
43
110
6
-18
-127
-7
29
-54
-119
26
-33
-83
-21
-29
18
-21
11
-20
-3
-10
5
11
-19
-34
-40
-53
-46
-15
-16
-7
-30
32
-66
5
9
-4
-8
19
-4
-90
-2
0
127
-17
-31
-7
-3
-10
-37
-24
-43
15
-33
-28
-3
-23
-99
-31
23
23
0
25
-55
43
-74
20
-62
65
-47
91
-7
1
-21
23
22
-22
-101
-47
-23
-64
-71
1
59
-19
27
13
6
94
51
-78
-6
-80
70
46
6
84
-92
127
23
67
-20
-13
34
-11
122
3
2
-30
-72
26
-28
-75
59
-65
56
32
-84
-127
-55
-47
-41
-42
-31
-15
-100
-61
38
-65
-49
28
-8
-38
-23
33
-1
-57
5
31
-18
-38
66
-39
-20
38
64
-99
-31
1
13
-39
-8
-66
-75
2
-87
-3
-10
-40
6
-11
-9
-45
-44
-110
-77
-28
-69
32
-61
-91
-22
-17
60
114
-127
-64
18
-8
-119
-80
-2
-71
38
60
-55
-6
-3
-45
93
60
-75
81
36
43
51
-54
-90
-69
53
-64
-87
-66
4
-66
-10
-48
-50
69
1
-25
-7
-10
46
13
-41
31
-9
-36
29
-16
-16
-41
-66
-30
78
28
-57
-29
3
-19
-31
-51
127
-26
-17
-42
17
103
-11
44
-58
-57
-19
26
-40
-41
-2
-2
-81
-21
54
-48
28
-16
18
-51
7
-4
20
-64
49
1
-50
69
-55
-64
29
-46
-127
3
-1
-56
46
30
-1
-10
-1
-4
-54
-3
34
-32
-12
5
66
4
-24
26
-16
44
-79
30
-36
28
-21
-60
-29
32
-60
24
-21
72
-69
1
-30
34
-46
19
-62
45
5
-21
61
-14
-36
-19
-26
-1
-21
-53
16
43
-64
96
17
-35
-4
4
0
-26
4
-88
-77
-126
19
53
-85
-48
-31
-42
-12
5
-127
19
-75
-10
84
-54
-14
19
-9
-8
-57
-6
22
-50
39
-80
68
-62
-42
9
-28
69
-101
-57
-42
29
34
39
3
0
-25
-44
0
-9
-4
89
19
-21
8
10
-22
38
70
-24
47
12
-127
88
86
-16
-58
17
127
-46
-99
24
35
92
14
-127
-20
-42
0
22
-66
3
-36
-13
8
32
-57
-21
7
-30
11
-54
38
23
-8
-52
72
103
-40
-8
-42
-43
-75
-29
-19
22
44
-17
-15
-11
-9
32
22
47
-35
-20
-39
-25
-28
14
18
-49
4
-9
-34
-8
9
-44
-35
-39
-45
-76
-47
-74
1
-45
60
96
-1
7
-26
50
-35
3
38
-127
16
14
-20
-49
30
-22
29
-24
-32
-33
65
-4
-20
-14
9
-31
1
-23
-19
14
15
-61
-1
107
-59
4
-27
-38
52
71
-54
-2
51
-126
25
-50
-4
-111
-86
-73
-61
83
-5
-58
108
2
59
-12
-26
29
65
-32
-11
-31
62
20
8
36
127
-12
95
12
76
-11
-72
58
40
-42
54
-16
-43
-7
0
-114
-47
86
-27
-61
-37
-115
42
-51
30
-5
49
-99
94
-55
12
-55
25
-69
-5
4
127
-65
-98
5
-19
-35
18
43
-74
-36
-69
-18
-76
52
9
91
50
-24
29
-20
-11
-74
-1
20
23
-57
-18
38
5
-31
9
35
11
9
50
-56
0
-8
-63
-9
36
16
-52
3
127
-6
54
-2
-48
-43
-36
5
-45
-25
5
-3
-6
16
77
-32
5
-12
6
87
22
-10
15
10
94
-25
-69
-4
-77
-24
18
-75
-24
51
-38
79
-25
-10
-31
-34
-71
86
-64
-27
-81
8
-28
15
127
-49
-1
33
65
78
-33
-23
-37
-64
37
35
-27
-14
-81
-46
0
0
-3
-15
-46
0
-29
-55
23
38
-5
41
-65
-79
36
96
69
112
35
85
-13
-19
58
-125
-82
-35
-64
25
-106
5
-64
-11
-92
-37
-127
-64
74
-49
-29
87
31
-17
110
83
10
9
-95
13
19
70
-127
16
31
-3
-1
-28
-13
-112
-117
97
-56
-120
-60
17
-27
34
-6
-57
-87
-38
-7
40
-3
28
-38
36
-87
-43
-43
21
108
49
-36
-54
-12
-45
-112
39
33
-87
10
-62
-42
40
-6
-38
-112
-86
-115
-63
-51
34
-127
-11
18
-82
-55
0
-35
-82
13
9
9
-70
15
-3
1
5
-38
-15
23
-14
-8
4
-2
15
1
-12
34
27
-14
4
-4
17
-35
15
-5
-127
-106
-8
-4
-19
67
0
38
-5
-62
29
11
-39
16
-7
17
-30
17
14
-5
4
-70
-34
24
22
-18
3
-43
-7
127
-54
-23
42
-7
-18
-79
52
-24
-34
33
-37
-4
-16
20
-39
-64
25
-43
-31
10
102
-1
2
34
-36
45
-40
-62
14
-29
-16
6
44
-56
-21
-53
-37
-21
-40
-34
-3
4
54
83
-14
-119
-38
-100
-37
-99
3
-36
-62
12
-32
-112
-81
-19
11
-95
-30
0
-89
-54
43
-53
-8
-48
-44
9
16
-66
47
-35
-47
-53
47
-4
43
-100
-47
10
-127
-11
-71
-47
42
24
-17
23
-118
-14
17
-72
62
39
-30
-25
7
24
-80
-77
23
-19
-44
15
-79
-49
-127
-11
-103
47
54
58
4
27
-24
12
-22
45
26
-72
-35
-45
-51
15
-4
23
49
108
37
65
-13
93
-14
4
-35
51
-55
-51
-40
-26
27
50
-75
-47
44
-68
-25
-52
-12
-24
3
-32
-36
-4
-18
37
-33
-53
-57
30
-27
28
3
-10
12
-49
29
-1
127
-26
-21
-69
-6
80
-10
-4
-84
-5
33
-19
-60
-61
18
57
62
4
-78
-58
-56
7
-15
-6
-21
-45
-37
-25
-13
-42
8
53
-10
18
-14
36
1
-58
9
-10
-67
-58
-9
55
10
-42
14
45
-55
-31
-38
8
-47
26
40
46
-21
-16
-22
-127
-37
-89
-21
-5
-54
7
2
-2
-21
4
-21
23
-21
-5
-34
17
-38
32
-23
-2
38
1
-16
47
16
-46
-24
2
-76
-127
-47
32
0
43
13
-4
41
-24
-40
-22
13
33
2
-14
-2
2
-31
2
-10
44
-45
-11
37
-68
-127
-112
-83
-2
-27
-40
-54
-22
-4
21
-3
5
-8
-11
8
22
-28
35
25
-48
-17
-43
-44
-38
13
9
2
-4
-68
-2
77
-107
14
-19
-22
44
-40
16
-119
-10
15
40
-36
-4
2
31
-9
13
-15
-69
-13
17
-50
15
-89
36
-7
-32
-25
-127
-24
38
-58
13
-43
65
-57
-32
-34
17
71
-23
1
-52
1
-23
-10
9
3
-28
11
-57
3
-21
50
16
-34
-25
-67
32
-56
-52
-77
-30
-49
-58
-32
-114
-4
-27
-17
-56
-127
55
52
-52
-75
-55
11
-103
26
-68
34
47
-55
-96
4
109
-51
-27
6
-40
-57
-65
-98
4
45
-6
121
-106
12
-67
30
-65
-25
7
-33
-14
18
-23
-19
-61
-6
-41
-104
60
-3
-62
-55
-17
11
-127
23
-29
-49
-33
-8
17
56
13
-33
-68
40
-33
-53
13
-113
42
-39
74
7
-74
43
62
13
23
-75
16
-28
-60
-17
-78
-1
48
78
47
-76
4
-40
52
-30
-6
-79
-19
-15
-1
54
-30
-8
40
-53
-26
36
35
3
87
-39
-8
23
-23
-6
0
30
91
17
-37
79
21
-88
-34
-39
15
32
-18
56
127
-41
20
-31
-56
49
7
-23
95
25
-112
-51
-42
-36
10
-8
-9
13
-68
-12
-24
65
-69
-23
38
33
-127
-14
-1
127
-59
-24
-64
-27
2
-8
-2
4
36
53
-111
11
40
-12
0
-62
-51
-7
-88
-37
94
-107
-100
51
58
-53
-90
-8
32
20
-13
34
16
92
43
-31
-90
-72
24
0
-87
37
-45
-19
-7
-2
-23
-33
-16
-56
-98
-25
-61
-38
60
-4
127
-23
28
48
45
10
-62
-11
1
-48
-48
17
47
-24
-48
-4
-25
-4
-32
-22
-96
-16
-3
61
53
16
-91
9
28
-23
-26
-25
-56
-41
-33
-10
-36
-70
-29
5
-3
-25
81
-46
-21
-65
-44
-73
-118
-17
-19
30
27
34
64
32
77
4
-70
66
127
-63
-54
-21
46
-11
49
42
39
-1
66
55
44
36
-49
-46
-40
94
48
43
-38
46
-29
-108
-7
-22
2
5
-45
21
95
19
-33
39
29
-127
-85
-19
-21
118
28
-7
40
-36
-8
87
-39
-4
95
-16
85
-17
7
55
-8
-44
-28
29
33
21
12
81
-15
-21
-30
-8
40
-4
-127
2
-18
-43
-48
-38
-49
-3
-55
-44
37
37
25
0
-21
-117
115
6
33
56
-47
60
-5
19
-39
-16
28
-12
13
-24
-40
-43
-106
-40
2
-30
-33
15
-9
-83
5
7
-31
5
-21
-65
77
-92
-15
-16
127
-35
0
-53
-65
116
-34
7
49
-57
45
-17
-80
-76
-54
-87
0
1
56
-66
-39
-55
-9
-15
-87
-88
-26
-45
-76
42
59
13
-73
-12
49
3
-40
-44
-108
30
107
40
-104
-32
-21
-37
-11
-57
-94
-18
-4
42
-41
-37
-31
7
37
-11
-70
-91
-2
47
29
-96
-47
-50
-41
50
-94
60
-33
-10
-60
5
-21
-127
56
105
-1
-25
-81
-24
-54
-33
65
-20
54
32
-79
-18
-89
52
8
-35
-35
30
66
-25
-23
31
-61
50
-50
18
-46
-86
40
-81
45
-102
29
1
19
-5
-40
108
110
61
45
-127
61
8
-59
-19
65
-48
-18
-17
15
6
-39
-15
32
25
-1
53
-25
-21
13
0
45
-7
-40
-7
-11
-42
-49
-22
13
-16
-39
-28
-2
30
-40
-7
-2
-127
-46
9
26
13
50
1
3
58
-26
11
14
12
-6
-21
-4
-46
-106
4
35
-3
-63
-14
27
-66
20
-39
-118
72
-70
35
12
-48
-87
108
-88
-54
-52
127
10
89
-58
-4
-48
25
26
-50
-45
13
-26
-44
-15
19
21
7
-81
-79
-40
-30
34
18
-76
-44
-35
-77
-31
-34
31
-44
-45
-18
-31
-63
-21
-16
-80
-78
-73
-22
-38
-2
-84
16
-26
94
-20
-77
-62
-111
49
-71
46
-51
-27
101
-51
-14
-61
12
-74
36
77
-44
55
-27
-80
-57
-5
-31
-55
-22
-47
-22
-6
75
-14
127
61
62
35
-127
-76
-7
16
-4
26
119
49
-49
14
-17
-57
7
-21
58
-90
-11
-56
-25
-26
42
-37
54
-3
-123
-37
-114
-60
-25
42
-18
-12
-44
-67
-63
-119
44
-54
-51
126
-46
-34
85
-81
-2
68
104
-46
-44
-54
10
-36
-79
-127
1
22
-30
20
5
-54
14
-71
26
-72
-14
-14
91
-45
-32
-109
-26
-23
-104
29
-20
-29
-34
-70
-43
-46
-72
-6
14
-46
-3
21
-33
-36
-48
-50
23
-25
14
-10
-40
14
-77
-7
-27
-16
-57
-5
-65
127
-30
38
-42
-96
-49
-1
-6
-24
-74
0
45
-98
-62
-10
3
16
-48
-8
-57
-7
-27
15
-32
-67
-13
32
-76
-50
0
-70
24
-35
-1
6
-56
86
56
-7
-23
18
-39
2
39
31
-20
-8
-21
-4
-15
14
11
-8
-21
-8
-25
20
38
-64
-43
28
36
-71
12
1
-86
-96
-29
-26
22
45
22
8
0
-26
22
4
-127
-49
40
-41
37
-20
-14
22
-7
-44
22
27
-13
30
34
-44
15
15
-54
-29
-26
0
-42
-68
-51
-68
29
11
-10
-49
35
-46
-77
9
-48
-101
6
16
-3
15
-30
-19
-90
33
-12
-3
-44
-69
-24
127
-26
-18
-76
-28
-5
-15
0
-80
-23
100
-78
-7
17
-29
-23
-33
41
-27
-19
-25
31
-62
36
-127
27
33
26
-40
-24
-63
36
-39
-32
-21
-113
-15
-68
65
-8
-23
-24
-78
-98
75
-39
-68
14
-2
30
8
-63
-3
-5
-40
-17
-31
-3
-74
34
8
4
74
-23
37
-30
-87
97
-37
-39
-15
46
64
-42
-6
-24
-47
-38
-70
53
21
-21
18
-3
-3
-10
15
-54
-8
-21
105
60
31
9
127
85
86
7
-33
67
-58
-23
-27
32
19
42
32
-4
-15
-42
-80
-48
-35
-121
30
-127
-40
4
6
64
-60
-30
46
107
61
32
55
-116
-10
-6
79
20
31
-17
105
-81
3
-80
26
61
-3
-45
-87
-26
39
-35
-70
31
-99
57
23
38
-8
-86
18
30
-38
-12
-120
38
-20
-34
-52
-11
-16
42
-12
-48
-44
18
12
-25
-26
-77
4
0
8
48
-38
-39
73
-20
52
-21
10
8
49
19
-81
-48
-98
-36
20
-25
10
-51
-14
-14
-65
-127
-24
-72
-39
17
10
-5
-60
-2
-44
-98
20
-54
7
-9
-27
-7
-28
-24
127
-53
99
-3
-32
-57
-31
-5
-46
18
-17
-30
-60
31
-26
-28
-10
-40
-31
-23
-50
-4
-9
8
50
-25
-21
-30
-33
-38
-56
-71
-90
75
4
1
-9
68
-62
-14
36
-86
5
12
2
-41
26
-24
-37
-35
-127
-2
-73
-9
-34
-45
-10
-22
-25
-38
-13
5
-71
-37
35
-13
-119
19
-62
26
63
-7
-16
6
-19
85
4
-26
17
-37
-16
28
88
-59
-84
-33
127
13
33
16
-31
-79
-31
-48
-65
18
-70
-30
-34
-10
21
-95
-54
-28
20
32
-80
38
-6
0
-96
-39
-35
-5
7
-9
24
-1
-92
58
-93
-9
64
0
-85
-76
34
-20
29
116
-28
74
11
-9
32
57
25
-17
25
-122
-53
-39
40
-12
-44
38
73
-109
55
-63
-71
-43
-14
-82
-56
8
42
3
-30
70
31
-55
-98
23
-41
28
127
-9
-11
109
-14
41
31
28
-76
47
9
-67
80
52
-64
4
20
50
23
-40
-90
28
110
-82
-127
17
114
-81
-9
28
-76
62
-43
-57
-69
4
39
-4
-68
19
-53
-3
74
0
91
10
-83
-6
-80
-43
-43
22
44
3
-9
-72
38
79
14
-86
48
55
-17
-15
-111
-87
-50
-9
-106
13
10
1
15
-28
59
-3
-22
27
97
-50
-12
-16
6
-117
-126
99
127
41
-9
-31
93
-46
-64
-25
-35
-126
27
95
-85
8
-36
3
86
4
-85
-34
-36
-2
-40
-28
42
9
0
-11
-33
-59
0
-48
-127
46
-18
7
-6
2
-22
-19
-14
-12
8
-16
79
-12
-24
-32
-59
-20
-12
-34
-32
-45
-34
-4
10
18
56
43
-27
-9
-22
-27
25
69
-33
-11
63
-31
39
38
-21
-19
-28
-27
68
-22
-17
-41
-29
-19
-41
-29
-15
-5
-7
24
-11
-2
-29
-34
-9
-127
-38
-13
9
49
43
35
-11
32
-43
18
-19
20
66
6
-22
-67
-67
-2
-21
-1
-45
-39
-62
-18
7
11
-18
-4
35
-24
60
40
-27
-36
91
104
18
29
-71
-16
-40
19
-71
-48
5
47
127
-18
58
-25
37
-32
-78
1
15
16
-111
31
-27
-92
-37
23
-19
-81
-5
32
-7
118
-99
40
-14
-2
18
-35
84
0
-8
2
70
8
18
-53
127
93
13
21
-64
15
-48
-61
-19
-105
21
-19
-71
48
-50
-69
-91
-65
-30
-37
-63
58
-25
-38
17
-80
-29
-11
-115
15
51
-29
47
20
54
-6
-86
-78
-26
-58
63
53
-69
-35
-77
-50
-21
-100
-19
12
58
74
-87
-51
-84
23
-81
-32
-30
9
48
53
-1
7
60
-60
-32
-90
-118
-76
-109
25
-67
16
-52
-41
-7
127
65
-21
40
48
-13
-28
-67
-44
-23
34
-17
-41
-74
-2
81
-56
60
3
-37
43
-1
43
-75
15
-65
86
-32
-127
-8
-54
35
10
28
-108
-32
-89
-55
14
-41
14
-11
37
-43
-53
66
-43
-38
58
-3
-16
-19
14
22
-127
7
4
-14
-83
79
-31
10
-20
-5
28
-44
-15
-64
-41
40
19
-9
-12
-7
-26
-21
7
-36
7
-20
-37
32
-53
45
46
-27
-24
-24
-46
-2
-12
27
-37
-14
16
59
-16
-18
-30
14
19
-32
9
-17
-127
13
-31
77
20
-79
50
-1
0
-10
-13
33
-67
13
-10
-22
37
-10
-31
-57
-19
-71
-12
-7
-98
-125
4
-22
23
56
19
-33
21
-49
-7
-22
-3
-22
1
32
-22
-6
1
-41
16
5
124
6
-16
-24
22
-4
-4
75
-127
45
-16
3
-31
-60
21
0
-73
-11
-105
-92
9
-15
-71
15
-28
10
-25
-2
26
-6
16
-44
-78
45
55
31
-67
-53
-116
-25
119
-57
-27
-7
-91
51
-35
120
-7
7
-82
17
71
-33
-18
-53
10
-45
14
-4
14
-9
8
17
43
-44
3
-14
44
5
-62
28
-7
12
46
13
-51
-40
29
-73
32
-127
46
-21
25
-38
-44
-75
-18
-21
-31
71
-4
-82
34
23
-45
49
19
16
-47
-67
-51
32
-101
-79
99
-48
-70
-13
-32
-15
-81
-28
3
14
21
-6
102
-60
-83
-5
-73
-2
-1
111
107
5
23
51
-83
-74
-5
8
-52
-101
-87
-10
-101
-83
105
49
-127
-66
-13
31
-73
59
-46
-62
-64
-49
-48
38
25
29
-47
31
10
-34
-25
121
-16
-27
18
12
4
-24
-63
27
-127
-37
-11
-52
-37
4
27
-24
-31
-116
-77
-30
-30
2
44
-70
-11
73
-53
28
14
-31
1
-52
-9
35
-79
24
-32
-40
-108
-26
-71
13
68
-5
16
6
67
60
-20
48
33
15
127
31
20
-92
-64
25
-53
-87
36
-4
28
70
-72
7
-1
12
-4
2
-18
-39
-13
-46
43
-21
-25
44
40
118
36
-32
23
-94
22
-15
-88
-37
22
-48
-9
-55
-15
-112
-1
16
-35
-46
8
54
-54
-68
-64
-61
18
-50
-21
-11
44
26
3
56
2
-87
-70
-2
114
27
-127
-17
5
-36
0
24
-100
24
127
7
6
-42
0
-2
17
0
-33
-17
-17
11
8
-9
-14
3
21
20
11
-68
-28
31
-28
-13
-8
-14
-27
-10
16
-57
9
-14
-26
12
-14
9
0
-7
-18
-7
-8
-44
-3
17
-65
-49
2
-2
41
-49
-18
-41
124
30
-6
-87
-62
28
-53
86
-68
26
-15
34
31
-61
37
-22
-9
28
47
-60
-127
-27
-11
-15
-109
-24
12
-103
18
-57
-15
-56
-4
-72
-28
-24
-21
106
29
-66
20
-78
20
19
4
-48
-73
-79
43
28
87
-37
-19
-51
-47
-57
-63
2
44
41
-6
-18
-9
-7
20
-66
-72
16
-37
-16
127
-11
-65
-38
-91
-30
50
-64
0
-64
1
-53
-22
-54
-24
6
41
-23
-109
-47
10
-16
-44
-31
64
-25
-76
5
-67
-127
-27
30
-84
57
-36
70
-125
-77
-38
-10
-81
1
-50
-45
-52
-52
42
32
-106
64
0
96
78
29
15
-34
-43
-41
-23
-10
-47
-43
-62
55
39
-20
-15
-50
64
-2
-12
127
28
43
-13
-27
-69
-33
-41
-57
-51
13
-31
1
-27
-40
7
-41
-28
-18
3
19
-35
-1
-30
-78
19
-10
25
-22
21
-22
-5
-21
-58
-6
-39
38
18
46
34
-6
8
21
-19
33
34
-82
-39
-38
-85
-59
40
27
-59
82
-46
-32
28
22
-56
-66
-10
-5
-2
13
-8
127
-20
15
-71
-91
20
-27
17
0
56
-47
-11
-88
49
-74
-44
-46
-121
10
7
-31
-2
-30
41
69
-35
35
-21
-42
-9
-6
10
-18
-9
17
16
-58
18
-51
-65
-18
18
-57
-42
-36
7
72
-24
63
-127
31
14
-3
-53
-19
-17
61
40
-32
7
58
-28
-2
-73
-35
32
5
-39
-17
12
-49
72
59
-46
-3
-11
-30
-2
16
54
-7
77
-37
-40
72
49
-31
-79
-87
-34
-96
-25
-5
30
23
-25
-60
-33
26
25
36
5
-47
-30
-50
50
53
-36
70
4
77
-37
-43
20
28
-17
5
-17
113
-16
-121
70
-24
-127
-85
-22
31
-127
-24
-5
-8
-3
-27
9
20
46
7
-103
15
48
34
-57
-7
-11
-48
-74
-14
-93
0
-46
8
-126
-7
-26
23
18
106
26
-33
-86
-31
-42
-51
38
-61
20
-23
77
107
-91
62
93
-69
1
83
-11
-26
21
-101
-2
-127
-25
-14
-34
3
-13
-52
-23
28
-28
-20
-60
-3
-41
-15
4
-59
12
-70
-9
-70
-40
-54
-52
18
22
11
-12
-39
23
7
-72
115
-8
-100
101
-44
-36
-19
6
-34
-10
38
-26
-7
-14
-45
-107
-63
-25
-70
22
-56
-79
12
-62
38
-62
79
69
37
-35
49
51
-49
-2
15
-127
-50
-37
9
27
-92
-6
46
17
65
-12
-68
32
86
74
-35
33
41
108
13
-3
-46
21
23
33
50
30
-2
-49
-31
-5
21
4
-34
-43
-105
3
-92
-8
-7
-9
-23
13
14
3
-16
-85
114
-127
-56
-62
33
-15
76
-9
81
29
-41
66
-13
-1
-111
-1
55
-31
-81
35
-65
-101
14
14
25
-5
-27
-62
20
-24
1
-9
26
3
23
48
-53
42
-44
16
-11
7
-18
73
-28
38
2
-2
-34
-127
15
-45
122
-50
54
-12
45
-18
-15
42
-79
13
-12
-39
-71
58
-74
-37
-1
-112
-36
38
-107
2
-2
11
5
44
-13
19
5
127
24
34
-74
55
-34
-19
-4
14
33
-5
-78
75
-35
-24
-33
-38
11
-24
11
-26
-19
-52
-20
-9
41
-68
-12
-9
-32
-60
-23
-45
-48
15
31
-23
1
15
110
-114
-72
-118
-7
-96
-34
9
-71
32
-32
-34
127
99
60
-28
-84
66
-105
-40
-7
-67
-17
40
-53
-109
-45
37
-14
12
-30
36
-81
-34
86
-6
0
34
87
-18
-83
-37
58
-90
44
50
-71
-70
0
-48
27
-47
26
57
-2
-11
-2
-117
-26
-11
7
-17
127
-55
-55
-11
-55
-39
-9
17
-15
-101
-42
-117
-8
-39
-68
-53
-28
69
38
36
18
-86
-9
42
-27
-38
-33
68
96
-35
20
56
-45
14
16
30
77
24
-45
46
62
56
-8
-22
-35
-68
-98
5
-37
36
47
-26
127
-86
-23
-40
9
-20
14
-57
8
-6
53
-40
-11
-30
12
-10
-5
-14
34
-47
22
-9
-47
-88
-8
-57
-37
1
13
16
16
-8
25
-2
-26
-33
-9
38
-26
10
1
5
7
2
14
-19
-10
0
-23
-1
2
8
-10
-2
-20
-17
-21
4
7
0
-10
-14
8
-4
7
20
7
-127
20
-87
-31
13
6
46
13
-27
-58
0
-36
-13
-15
-34
-13
-5
-58
-30
-39
6
41
-47
127
-10
65
16
-32
12
-11
-27
-9
-37
-2
2
-42
-15
-11
-12
-34
-18
0
-22
-22
-22
-17
-47
20
-9
-11
48
0
-33
-50
-3
-12
40
-59
2
-83
-38
17
10
9
-29
26
-15
-24
-12
-44
9
73
127
-63
-39
-12
61
-89
16
-43
-74
-40
96
45
-6
-25
-22
-80
76
-48
-9
-9
-23
-3
-74
-86
-37
-50
19
-68
-20
54
-24
-50
87
44
-48
-35
3
-116
-41
36
-47
64
-30
7
55
-44
-37
-11
112
-20
-127
-92
-30
-30
36
122
-50
-48
50
18
-53
-26
54
-20
54
-23
-17
50
43
-12
-47
2
-5
-30
-1
-38
53
2
-15
16
27
-72
-88
8
-116
60
68
-110
-72
-62
23
-68
102
40
60
121
36
-29
112
98
-65
46
-45
-90
83
-56
9
-27
-52
-62
63
-14
73
-88
-63
61
-5
-75
-117
-127
-41
-13
10
73
31
127
-18
-20
-11
-60
7
-3
-59
-56
8
-22
-86
-37
-35
6
7
-33
-74
-3
-39
-49
-20
-127
-9
-16
-10
-39
-46
-112
-45
18
-40
-3
45
62
37
8
-9
-33
-30
51
5
-74
15
-23
42
25
-9
-32
34
-4
-42
-111
-34
36
38
36
20
-104
-127
-89
54
-24
50
-40
25
-54
16
-27
89
-62
8
-29
-65
-22
-30
-50
-57
-63
-55
-47
37
10
84
-55
14
65
-33
-43
-47
-24
-2
1
-14
45
-13
-84
37
87
-32
-48
-50
-54
-16
6
-51
1
-36
-34
-38
-21
-52
-48
-73
127
96
55
-5
-39
-52
-34
-9
4
-33
-33
23
5
19
-35
-27
-5
15
-3
-5
30
-15
-6
-35
-5
-62
66
-19
0
-27
36
-8
0
-12
34
-62
17
-3
-101
46
-25
23
-6
-33
6
36
-34
-65
6
-9
-59
11
-45
-67
-45
50
4
-84
-127
-94
-17
-42
8
-21
18
-1
5
-56
-40
-94
-20
6
-30
-9
-49
-15
-7
-69
-70
22
-69
-33
104
-19
-46
-110
-19
-4
78
85
-9
-20
51
-42
-13
-10
80
-18
85
-33
-117
94
-62
-26
-29
17
84
66
13
10
10
-12
49
3
-92
-41
-127
72
-11
-86
-27
29
-41
-44
-50
19
-19
-2
-9
-37
-54
-5
-21
-7
-45
-7
-35
-7
-9
-25
36
10
-51
-28
7
24
-5
32
-26
-14
-8
-2
-41
9
24
-82
44
-15
21
-39
-26
42
-31
-28
-46
0
-127
-10
0
-91
-12
5
39
-74
10
32
-17
-30
2
-5
38
-7
-38
28
34
54
0
-16
-62
-94
-7
-55
-47
-4
-11
27
-41
-1
-39
3
14
-59
21
-16
5
-20
-22
-42
127
15
19
-55
6
-2
-15
-26
-18
-55
-20
-70
-28
-22
0
0
8
3
103
82
-28
-127
33
-85
-22
-14
-33
30
-2
-11
105
61
12
-48
53
-67
-66
22
-16
-39
90
-1
-46
-17
58
-66
-9
-104
-24
-26
-5
2
-76
23
-97
16
-1
-19
-52
-42
-20
-52
51
70
105
-30
-30
-37
29
8
2
8
-36
9
-43
-1
-6
-79
6
35
-76
-26
-23
42
-24
-9
5
2
-32
-42
26
-28
-52
-21
-32
18
-12
4
-50
33
-23
-47
15
29
-31
-63
11
127
-20
-18
-32
13
70
2
19
6
-44
-66
25
9
-15
37
25
-21
3
10
-41
31
-28
9
9
6
53
-38
-23
-47
37
-127
9
41
11
-102
-49
-12
-33
97
14
-14
22
6
-80
-45
103
-31
-33
8
40
-25
14
-3
-90
39
-19
1
9
-21
49
-14
-21
-38
-11
-30
17
33
13
35
2
-35
-10
-16
-26
-53
-12
32
24
-12
8
75
5
-21
-28
-6
-49
32
-36
-14
-25
50
-127
16
46
19
-33
22
29
-66
-57
34
32
-20
60
33
-86
-6
-87
-92
66
93
-63
-60
-40
-6
-35
-125
-11
37
20
-127
-62
-93
3
7
84
-20
-14
-84
40
108
-55
-102
37
-65
-26
58
37
-24
-52
-26
-52
-16
27
25
52
81
-14
18
3
110
-41
54
-41
-104
7
111
17
-76
87
-1
-9
15
87
59
-52
13
-60
42
-26
-32
-94
70
-30
-9
43
25
-3
36
-26
-17
4
-52
-127
-5
-24
41
-34
-60
5
-17
-6
11
-2
88
19
-82
14
-43
-22
-9
-1
9
-17
-7
-2
-7
127
1
12
-8
-20
-18
-23
62
8
-32
-1
4
-10
-3
-20
16
2
7
-17
12
1
67
14
-25
-25
-24
2
-29
-16
14
13
-14
-32
-2
-17
-18
20
-24
26
2
-59
-3
-30
-42
0
119
-6
-75
-3
-2
-53
79
4
-4
27
-11
8
-20
-53
-23
-62
-9
52
18
14
7
-19
-14
127
19
53
-8
-112
60
-75
-34
-101
-19
-102
-82
36
73
-10
57
-32
-31
-64
-71
16
-48
13
37
-10
-26
-13
-22
-7
-54
-23
9
-5
-41
-37
-28
-27
-32
34
-7
-8
-45
26
-5
-40
4
18
-66
-127
5
-32
71
21
42
47
12
10
-46
13
32
47
-14
-18
-46
-44
-39
-30
-36
-93
-31
127
-32
-30
-46
2
0
27
-9
4
39
-52
-14
-43
-16
-52
-35
2
-40
63
-12
16
-60
-42
-72
-15
-30
8
18
-18
-53
-22
-16
-58
116
-30
-83
-20
-55
80
-17
-14
-13
-45
13
16
11
37
-14
-7
-35
-4
10
-24
-12
76
-31
-41
-10
-40
-30
-28
6
-32
-63
-49
-27
21
31
-5
-35
-16
-15
127
-33
-30
2
-14
42
-25
-54
-13
71
-54
-20
-27
-8
26
38
-19
-26
-4
8
-25
2
-47
6
8
-7
69
-5
-16
-7
79
68
-34
-9
-65
-44
-12
127
-68
-23
-53
-5
31
-8
4
-36
-44
26
-26
10
-36
-8
-40
58
-16
-14
-33
14
9
-5
8
-5
-66
-3
13
-64
-11
-12
-6
-91
-58
-28
-11
-32
56
-33
-92
-9
-71
-32
-78
-43
-35
103
10
-92
-99
6
-54
-89
42
-71
-87
-100
-44
-15
-56
-91
-58
3
93
-66
29
-5
41
4
65
82
25
-8
-30
-16
53
-84
-127
38
-82
-33
-91
15
4
77
2
8
-20
-11
-12
-46
66
-40
-12
-30
-63
-30
-34
-106
-31
-55
15
58
8
-92
-74
-47
-80
-114
-47
-39
-54
71
61
69
5
45
127
24
39
10
-104
-89
-104
108
-6
10
-24
14
31
-42
-41
-32
-86
-79
37
27
-57
-44
5
88
61
59
19
40
51
-37
-52
-102
42
-36
-15
-19
-91
-53
34
36
-60
22
-18
-33
-92
-50
-83
28
6
9
21
-40
-39
22
-27
6
127
-10
102
58
-71
-15
-12
-14
10
-23
23
40
-67
-38
37
-48
0
-7
127
-107
33
-1
-57
-48
-28
-7
18
-52
-32
-34
4
7
6
22
-18
4
-7
-59
-4
-47
10
33
-21
11
6
-24
-19
8
-20
34
-36
60
17
-16
8
-76
41
-60
12
-30
18
-2
1
-3
-55
-43
29
-17
8
-23
36
-18
35
5
-4
-7
-50
42
25
-127
-55
-18
23
19
79
-2
-32
8
-80
34
4
15
-15
13
-12
-8
-24
2
-53
-14
-7
-15
50
63
-18
13
16
-56
-34
-8
11
2
-49
33
-37
-5
-24
1
-13
-19
-45
-39
-2
9
-37
-22
54
-26
-28
52
26
-33
-36
-36
37
-8
-127
-17
-48
-30
50
7
45
5
16
25
-50
-60
67
16
-23
8
-9
19
22
-21
24
-3
-16
18
-29
-16
98
3
-26
-127
-5
-6
19
-10
6
-66
-15
13
4
-10
-25
26
-2
10
20
0
-5
44
0
-15
23
-21
4
-12
-19
19
-40
8
5
46
22
67
15
43
-52
71
-2
-127
21
3
20
-33
-63
-78
-59
16
-38
46
-53
59
-73
-21
32
14
-57
-73
46
-107
-14
-41
-9
29
-2
56
-30
80
-54
-4
17
-32
-13
1
14
-92
-93
62
61
-46
5
-21
38
-20
-55
-28
-7
11
38
7
94
96
-19
59
-89
-19
15
49
-89
-50
-39
-68
19
-28
4
-19
29
-27
-92
14
-9
-94
-10
5
13
-45
-52
-41
-97
-39
18
-60
-31
69
54
116
127
58
-76
30
-39
-30
-35
127
-20
36
-122
-46
49
31
27
38
-80
-26
20
-54
75
19
-97
-52
26
-57
19
-57
14
11
-90
34
-60
-56
31
-17
-4
-80
58
14
8
-76
-34
44
87
-12
-81
13
64
109
-91
-94
-25
-51
1
43
-33
-52
-25
63
33
0
-13
-9
-2
-60
-28
23
127
6
-1
-24
29
26
-4
17
-15
-68
-61
-33
2
-25
13
7
33
-44
-33
3
-102
14
-17
46
-15
-92
-16
-60
-17
-38
-6
10
5
-39
-34
-20
30
-25
-10
53
-10
-30
-28
25
-25
-3
9
18
-43
17
-24
-19
-49
34
-81
47
-14
-17
-64
-80
-37
-19
-44
-65
2
-82
-127
3
12
-8
-46
4
78
-52
-69
15
-22
4
48
-38
-28
-49
42
-32
13
54
-66
-17
-25
18
-38
75
16
-33
38
-47
33
-64
-8
2
-21
-23
-13
-14
9
-55
127
-22
2
53
-111
-15
-11
-14
-53
7
-4
-70
13
-37
-5
-56
1
-29
38
3
-32
-14
-13
-18
0
-17
-33
1
-46
-1
-28
28
-6
-40
6
5
37
-8
6
-3
17
127
106
-36
-11
-17
11
-13
-17
3
-46
32
-40
-30
32
14
2
-32
-3
-14
23
-42
34
-10
-21
30
-19
-49
-17
-37
24
19
-32
39
-89
-49
-49
11
48
4
-23
-63
9
-127
-30
15
-64
39
-72
-32
-44
43
-49
-28
58
34
66
24
-14
-5
-9
-13
-90
-13
32
-50
-61
-35
-92
-25
55
-7
-99
-41
-85
56
42
4
32
62
-38
118
-19
31
-27
9
66
-35
-94
-34
14
-61
-6
-3
-88
-38
41
-62
21
-18
-29
-45
27
-55
81
-127
-15
43
-74
68
-17
-6
16
-111
-105
-22
3
-94
-19
56
-3
65
36
-19
-24
-15
-31
10
34
31
-39
-59
127
6
-3
1
49
-37
-26
-22
-68
-12
2
27
-2
-2
-43
-12
-29
16
-1
28
-2
2
-21
-60
-92
16
-26
-1
-18
-45
-28
-37
-76
-27
0
-26
-13
3
25
-31
-99
-1
32
9
-16
29
-73
68
-126
-80
-60
-70
-56
61
-38
-49
-29
72
127
50
-72
-29
-22
-72
-59
-57
40
44
-2
-29
-42
-13
-37
3
27
-121
-16
61
87
17
95
61
-38
-38
-17
-68
30
-47
-17
-7
4
-84
11
15
13
-14
24
-3
-9
-5
-11
0
4
-5
-15
-35
30
-8
14
-10
30
-21
-24
-1
6
-72
-127
19
24
36
50
2
47
-21
-30
19
6
-13
18
-1
-46
-15
-63
-12
-21
-16
74
-16
48
-18
-45
78
-51
71
51
-47
-51
-118
76
46
48
2
-43
-24
44
-8
-81
-127
-39
67
46
112
-24
-21
-12
49
-60
120
29
37
70
-44
-2
-88
52
-36
-16
12
-7
-97
-44
-34
-44
-2
-76
61
-25
-86
-83
-81
36
34
-9
1
-2
-49
-114
-73
81
33
103
-41
38
-94
-59
-40
-21
-40
-56
15
116
57
-41
51
16
101
-47
3
-87
-113
-30
-126
-46
-8
-127
-68
-22
27
60
-5
-57
93
-5
3
-10
-14
1
29
-4
36
-34
-18
-47
51
-44
-13
-1
-8
-13
-40
-31
-33
4
38
127
23
-27
-35
-14
37
-27
-30
3
29
-19
-20
-25
-25
-29
-18
13
41
7
-4
13
2
-15
-6
28
-37
-18
18
17
-25
-14
-37
-2
57
-69
-29
-33
-33
30
-3
127
-68
-34
4
-42
-35
-14
-7
-25
-12
26
1
-25
1
-29
-50
12
33
1
31
-42
-74
-79
-47
34
-32
-36
-33
15
9
5
51
-26
25
30
31
94
25
-87
-72
-32
-25
-68
-26
-4
-16
-41
-61
-124
-80
7
17
-56
-69
-27
-79
41
-74
8
-49
-18
0
36
-42
-114
55
-79
-25
72
-18
-49
-37
9
21
67
28
21
13
-23
-43
127
-101
-54
-52
-32
23
39
16
81
77
52
-31
-127
110
-62
28
-102
-57
46
48
-19
-33
-121
-20
17
-62
21
-42
-57
30
-51
-1
61
-8
-6
-90
22
-23
-81
10
-15
-79
-17
19
-63
-20
-14
-15
-30
54
-10
-68
-17
77
-7
12
48
33
16
127
-41
-34
-5
-63
16
-25
38
-7
5
-14
-16
28
-16
-13
-13
-58
-25
17
-27
3
105
-11
-33
-57
17
-3
33
-32
17
-3
19
-102
-60
2
5
117
-4
-19
23
-1
-6
-50
-54
-26
6
60
-26
12
-19
-12
-66
-53
17
40
5
7
-16
-23
9
-13
-8
-27
-15
-25
-61
44
127
-23
-21
25
-16
12
-23
16
-67
-22
-24
-10
-2
-16
-3
-13
-13
-4
-24
-2
-68
-70
-25
-43
-12
92
-124
87
-33
106
-62
25
-3
-66
-26
52
37
-54
-45
-49
-63
-57
46
-120
-28
7
-55
44
117
-57
-62
-25
-24
6
-73
46
-127
-24
-81
6
-37
-94
-19
111
91
-22
-98
25
-1
30
-75
-29
22
-17
-88
1
-28
-22
-76
-27
-26
-1
86
-66
-127
-78
-38
61
-96
62
-88
-14
80
56
90
2
50
-4
-29
-30
-55
-8
0
53
-9
33
-18
-48
-65
40
49
16
-93
-29
-29
66
-63
-63
30
18
57
40
-4
60
-9
35
87
4
14
17
-16
-60
-32
-27
45
-1
-12
-44
-42
19
2
-23
-65
-45
-22
1
101
-34
-16
-44
0
-59
12
-38
-67
-39
-22
46
-38
-57
-65
-46
-127
-19
20
-48
-3
6
-71
4
124
-59
127
-78
-10
-5
-26
-42
-61
12
-69
-43
-44
-9
-66
28
-6
19
-18
-74
-12
-27
-14
-39
16
-79
-79
-29
-32
14
-40
21
17
1
8
-28
-21
42
18
-5
-28
-38
3
-13
-5
-5
-9
38
-127
5
1
-74
24
-6
-53
11
15
-8
-20
-17
-26
16
-2
12
-44
-57
-30
-27
43
-22
71
42
12
13
-28
27
16
6
-26
7
-20
-18
-34
23
-37
0
-23
-17
-29
-33
48
22
41
30
-23
-25
58
16
52
-24
-60
1
-105
-55
-44
23
-5
1
13
-7
-95
20
22
7
-26
-26
12
-8
32
17
37
53
-4
13
19
4
27
-67
-9
-30
-5
-33
36
-1
-39
-35
-127
-96
2
17
-29
-33
-28
-46
59
-53
-26
15
-21
11
22
-30
127
-4
0
36
-13
29
77
29
-82
-32
1
0
7
-11
-15
66
-53
-28
15
-20
-28
-54
43
46
-6
21
93
-3
28
-58
-105
-36
82
10
54
5
46
-27
35
71
127
1
9
-111
-20
94
-22
-98
-91
-31
51
-71
4
-46
-47
-28
-20
9
62
112
81
-56
56
85
65
78
-28
-48
-40
76
-53
-23
31
-30
-36
-44
-34
-6
-56
18
13
55
26
0
38
-66
-45
-7
89
-37
-35
-27
1
-21
-22
-1
14
14
52
-39
-10
-38
-8
84
-72
62
-63
-25
-46
-24
30
10
-57
69
5
10
-53
79
35
9
-75
-24
-33
-17
-44
-84
42
58
-127
-3
3
-30
11
-8
-58
7
-98
-45
-74
11
-127
27
-9
-61
-22
27
19
19
-54
-28
-16
-8
-81
-16
22
-35
61
-20
45
36
42
-4
6
27
91
-33
54
-51
-45
-2
-49
46
17
-110
-14
22
-123
-42
-74
-7
-37
-35
-51
62
-21
-58
-124
-46
68
16
26
-57
-8
-114
3
4
57
22
74
-97
-66
-36
-42
-31
127
-11
64
21
-75
79
31
60
41
40
-67
2
-6
-65
-49
-3
46
3
43
-64
-3
-18
19
-6
23
127
-64
53
-3
-35
-61
-28
-9
-7
-78
-29
4
-45
-30
-4
5
-18
4
-22
-10
-35
-1
-39
58
-56
65
-29
4
65
13
100
7
14
-56
-16
-15
-47
12
-26
20
-38
-71
-7
-29
-18
-84
-25
-14
-24
-38
13
40
-11
109
-11
-100
127
22
-42
-59
27
34
8
-10
-55
52
-27
-14
-85
-1
11
-35
18
30
59
-56
-39
33
-51
-67
-44
-64
-80
-32
37
-62
-62
-1
6
-25
-31
-7
-51
34
-34
-49
-121
15
-91
28
99
-54
-39
-26
2
-8
47
-17
18
31
-58
-10
-3
-3
-10
14
-56
-5
67
-58
-15
-13
18
-5
-40
-127
-83
-60
1
-3
-38
-31
44
-51
-19
-61
21
94
6
-15
48
17
-2
18
36
-13
-64
-30
-16
58
41
19
-28
30
27
-16
-25
3
-62
39
-17
-27
-49
61
21
-6
46
-119
33
-26
49
2
-101
-47
-19
-59
-24
32
79
-127
65
-12
-70
-81
-54
1
-58
-50
-2
3
-26
51
-3
38
41
-67
-21
23
-29
-46
61
17
-44
21
26
-37
-21
-58
-118
66
27
39
0
-63
12
89
57
-75
14
107
35
37
54
86
24
36
-6
44
9
127
20
-10
-15
80
-69
-31
-96
-54
-7
-83
-20
-40
-76
65
-35
33
-38
15
24
-11
-69
93
31
78
-14
-73
1
-32
14
-46
-60
-127
-20
-21
-2
15
18
-76
-16
-49
39
-1
40
1
2
58
-28
26
14
-82
46
92
-37
48
73
-19
-23
-45
56
-90
-4
-30
-23
-28
-43
-20
-13
-15
-13
2
-8
-42
-3
-62
-58
39
-19
-3
-24
127
-35
23
-38
-14
-57
-33
-14
-27
-22
4
-26
23
28
-21
0
1
38
43
-59
-65
62
-22
-14
-73
-18
-127
-28
-25
12
-18
19
2
15
16
-5
2
-58
-10
-18
-16
9
-15
-15
-6
-60
-77
-38
-40
-20
-61
-11
0
-95
4
-76
-24
-21
-26
-73
9
57
-36
-2
77
-33
-36
-87
-52
-24
-21
-9
25
-39
-43
39
-51
-105
-13
20
-29
10
-23
-57
-10
14
-50
10
-50
3
-15
32
31
31
-41
-25
-55
-33
47
-41
127
-57
-3
118
-55
-42
-65
15
-6
-52
8
-9
9
3
-82
12
-49
15
-13
60
-39
-21
-61
-58
-63
-90
-7
0
-89
-32
-4
-17
-22
6
29
-14
-36
-24
33
-34
-8
9
4
7
-14
4
-127
-43
-28
63
-16
57
-46
-50
-15
-57
-27
16
-54
23
67
-41
-30
85
27
-45
-93
60
-9
-19
18
38
-11
65
12
47
46
-72
-102
90
-19
12
53
-77
30
-37
-26
-6
-2
-80
-15
-60
22
-67
-127
-73
119
-3
96
15
-74
-69
5
-39
-74
-32
21
31
26
57
-32
-46
-38
-65
79
-10
-64
-55
28
-11
-25
37
-51
3
-53
-19
-28
64
16
-5
75
-31
15
30
6
14
-13
-127
57
-43
-1
6
-10
-69
-59
12
63
10
53
20
38
58
-43
14
-90
-14
64
47
42
12
28
-24
24
37
-59
74
-36
17
31
40
98
-31
3
14
-33
-1
-39
100
76
5
-21
-108
44
82
50
45
-27
-17
-54
9
-80
-4
121
-6
-87
-62
66
-12
-52
-45
-18
45
-20
-127
-33
-3
86
-47
-73
24
18
15
-46
-19
27
4
13
50
-29
-58
30
-30
23
-12
-35
44
-27
7
-2
-41
47
31
-6
-55
55
9
-51
22
-39
-127
-50
1
23
35
77
9
57
-7
-9
-11
26
-4
71
-3
-8
-66
-40
-1
40
33
3
-20
10
-20
8
8
-12
-5
-33
16
-45
-49
-24
21
34
-4
-9
12
-34
-20
-16
-48
6
6
-35
27
-9
-37
-54
-11
-11
-53
-43
1
2
19
-16
-10
-43
40
-6
127
-30
23
-27
42
-16
24
-10
-27
-45
-63
-29
-68
-90
-22
-45
-41
52
57
84
12
61
88
77
-78
-36
-28
127
-82
-5
-66
-46
18
-27
-5
-65
-25
-65
-46
-47
-25
-19
26
-32
-18
30
-43
-79
25
-54
-59
41
74
-83
-64
-30
30
62
73
-25
68
-66
-57
-42
8
23
-1
24
2
-28
-52
-42
-3
53
31
27
-62
16
55
-30
0
-53
-127
14
94
-1
-17
72
-72
108
31
-28
-95
-40
-19
-24
18
19
-104
-78
23
25
-59
29
91
32
15
-16
99
-87
-18
-35
94
-64
-12
-39
55
-41
45
14
12
75
52
-3
26
79
17
-58
7
12
-77
71
-8
31
-36
5
-45
36
13
-61
8
-55
18
-84
-16
32
0
43
127
-41
-10
-47
36
34
-57
21
13
-8
-99
-107
-52
-23
13
-62
62
-29
-52
-49
-3
10
29
-31
-32
44
42
-67
-22
74
-127
-72
18
-48
124
19
13
19
22
36
28
-78
-54
-71
-5
7
38
12
53
-43
-35
-85
-84
69
9
-20
-32
4
-42
-47
45
-52
35
-99
69
63
-15
27
127
33
59
-7
-37
-4
-65
-3
-46
-32
3
-73
-87
13
-6
-102
15
-98
-70
-1
-32
-82
12
-61
-91
-57
-34
-9
-95
10
-18
-25
-81
51
37
-1
59
-80
18
-58
-47
-10
-47
-1
-53
-12
-63
-71
-62
-49
-9
33
-127
-44
32
-16
-22
1
-107
-65
-41
78
108
57
57
112
74
14
55
-9
25
22
24
48
-64
-39
-13
-98
-53
8
11
29
36
2
29
7
24
-75
13
50
-30
-127
9
15
-55
-9
-3
11
-21
-29
-17
-31
71
4
-26
-12
-78
63
-3
9
77
19
28
5
-42
-21
36
56
-30
7
7
48
-66
-83
35
4
0
74
41
62
23
59
127
-62
30
-1
-15
-61
39
-117
-2
66
29
49
23
25
15
-106
7
73
-19
-23
64
107
-22
4
17
54
-21
74
-61
9
-8
-38
34
-58
25
47
0
-9
-61
17
28
-16
-73
-48
-78
-99
19
-40
-43
15
70
127
-1
49
-4
-16
-56
-33
-4
-44
-9
14
-19
-7
36
-97
-44
-47
115
-94
-20
20
-1
-34
-57
-29
-73
0
11
46
-84
-24
28
-61
52
-45
-50
-67
-62
-44
-69
-17
-7
50
24
-15
127
-29
-21
28
-4
3
-20
-76
-37
0
22
-5
44
10
-13
-35
2
-7
16
-21
-37
24
-57
77
10
-5
54
22
44
46
35
-75
27
2
-22
-5
30
54
49
-77
-15
-54
-46
-65
-29
27
21
127
46
-81
-48
-72
25
-79
38
-65
-83
-8
-3
-56
23
-18
-37
-8
-50
-3
39
-66
56
-43
-77
22
14
20
61
47
85
3
-80
-44
-91
-15
-52
-53
16
32
0
-86
-72
22
-36
42
-5
4
32
-25
7
-27
-50
0
-61
-45
-66
-81
46
-7
-27
61
-14
-28
7
-42
-51
-6
16
-41
-28
-17
27
127
-34
-36
19
0
-52
-32
22
-3
13
-45
-14
-78
-33
-18
37
39
-21
-39
-44
-59
15
-44
-6
68
22
40
-19
58
31
24
-23
-53
2
-68
111
-45
24
-106
-44
-60
-31
-40
46
-37
-59
4
-2
25
-57
-68
-26
-68
54
0
127
33
-23
-4
-10
8
-36
-16
-1
-1
-36
-16
-9
24
-39
-84
14
1
-9
17
75
-29
67
110
-22
-85
27
-65
32
-78
-127
20
7
35
96
-36
-24
11
-77
-34
-30
-49
98
-32
40
10
24
20
-17
109
-44
-36
45
9
68
54
-122
-29
-43
-48
-29
74
-79
6
-46
-31
15
-18
-65
7
-35
-40
15
3
-1
-116
-22
-12
8
-79
-59
3
49
-75
112
53
-37
19
-31
32
-49
1
51
-60
57
-18
-3
-35
-41
13
-55
-76
36
-43
10
-127
21
-16
-52
-31
-15
-23
-26
-38
-34
-22
-37
-23
-103
-24
-34
-34
-19
92
45
64
12
-56
-1
22
-58
-67
-54
-6
-78
-27
14
54
10
-22
-27
-43
-6
-33
21
1
-29
-27
-2
50
38
14
-63
-40
127
-35
54
-13
-35
36
41
127
70
-108
22
-24
-33
21
-67
-46
30
-40
-36
-70
-39
-82
11
11
-29
-7
-30
1
72
0
-97
-36
-33
-20
-18
25
-25
24
-34
-114
-2
-116
-16
-78
43
79
-27
-108
74
-76
-86
4
-61
41
-4
-61
-112
-78
3
7
-44
30
47
-102
-42
-49
-28
-33
-7
-23
-55
5
-3
11
-13
-4
-77
32
-79
41
-4
18
99
-6
8
127
25
-18
60
-27
-24
-57
11
-29
-75
-45
-28
16
35
-74
-9
-10
-45
26
-127
81
-69
20
40
-48
1
-11
34
-4
-50
-114
71
75
8
-106
0
-98
19
-60
2
-68
-54
-121
-75
40
3
-37
-34
106
-63
-89
-37
-39
-8
98
7
73
43
-76
-2
-103
-119
35
-32
-24
47
4
23
-32
-21
4
-50
-41
-8
-78
-23
72
8
-92
-46
-9
-60
-18
-30
99
-56
78
-47
57
-127
42
-17
-47
104
-54
39
88
-65
-95
32
14
-29
-22
68
26
-29
-89
26
-89
-51
13
-20
6
42
-54
-127
-34
-26
50
-27
16
2
-60
-9
53
-51
11
-10
-6
-18
-36
18
12
11
27
-34
18
-26
-2
7
-7
48
15
-51
60
-15
1
4
-21
-3
-18
-6
-18
-19
-22
1
21
126
-9
-21
-35
-7
1
-1
-23
1
0
-38
23
35
-4
-13
-6
127
-47
-98
12
31
-19
16
0
-25
-31
-53
15
-23
-16
67
-34
-1
-20
-31
1
-88
34
-19
-12
-6
-14
-56
-39
10
-42
-9
-9
-42
-26
-28
-14
-92
-34
-53
1
68
-66
62
-19
-40
7
35
-9
-17
90
-49
-60
-9
-6
-99
125
-121
27
-56
-51
-67
10
2
-9
-68
-71
7
-83
74
1
59
-74
-10
51
20
-84
59
20
18
127
-15
-74
-19
48
25
16
-21
-21
-77
-97
-47
-32
67
-127
40
-63
83
-12
-32
6
-7
35
16
-71
-75
-29
-44
6
-1
-54
29
4
16
-6
-69
-21
35
48
-7
-60
-79
24
-111
-86
-59
6
12
-46
-41
4
-19
-26
-95
-123
-14
-48
-12
64
-35
-37
-43
-26
-3
-16
-2
38
-14
37
-5
84
-7
18
-1
55
-56
23
-44
-94
76
55
-13
18
-103
-49
57
7
-28
-64
42
16
22
-102
19
127
-40
-104
-57
6
-46
-27
-95
-44
52
-63
32
-62
-69
45
62
-14
-32
-54
50
9
-34
-39
-63
87
-17
-5
-97
-57
-125
24
92
54
-122
-127
-3
-112
4
-101
7
18
10
30
-32
49
31
-47
40
-57
-48
-113
29
-41
30
-29
-22
-5
-14
-26
63
22
-49
-37
13
-52
-33
-127
24
-11
-1
-24
-28
-8
7
-71
-1
-18
-44
-22
-2
-8
-19
-6
87
-21
15
-6
-29
-30
6
-26
50
-91
29
-102
-44
3
-19
-1
10
27
6
19
-62
42
-8
-13
-1
-39
27
22
-17
-46
-10
11
-35
-48
-54
-16
-30
-13
-29
-29
-16
-39
35
43
-30
10
-50
23
46
-38
23
41
7
24
-24
-57
-7
18
13
22
-52
-38
-22
-127
36
-54
13
35
-77
5
-127
-30
14
9
25
5
-13
-27
4
-23
-16
-25
-8
0
-28
39
22
12
-28
31
-17
-12
-73
28
-17
-11
53
13
-25
35
-13
29
-31
-39
-29
23
18
-29
1
-48
8
-54
-6
22
-19
-45
46
18
-17
-127
21
43
-39
-7
1
-5
7
-85
-68
-41
-63
69
-16
-9
-8
-72
-27
-64
-12
43
-55
5
64
57
-33
13
-28
3
2
-54
-66
5
20
-11
-33
-17
-87
-100
-9
18
-38
31
-127
4
2
-46
33
50
-13
-31
-44
26
-21
-26
-20
13
17
-4
-36
21
-16
-37
-66
-27
-65
-51
-41
37
-17
-50
16
-30
-2
-14
18
39
-42
-8
81
-63
36
2
18
-47
68
72
18
-4
19
-3
-17
-24
-6
1
3
5
-11
11
-3
79
-66
-47
-40
-25
-21
-127
-14
-37
-13
-35
-5
15
-41
18
-55
-34
-16
68
-47
-44
-7
-2
-27
-40
15
-19
18
-1
6
-33
-30
-65
33
-7
-52
8
10
-102
-22
-29
-41
41
-38
-1
-21
-2
-55
127
-28
32
-21
26
-8
49
-21
-37
-42
-95
27
29
-69
-73
-43
35
-23
-9
-27
-34
73
-94
32
-43
9
-20
36
66
-105
42
-37
-5
38
7
-29
-16
41
76
-109
113
106
36
19
-1
-47
-2
-59
-45
37
45
-40
-85
-54
-47
32
1
-50
-7
-59
63
-1
62
31
-60
-21
-15
19
26
52
-23
-14
37
34
88
43
43
-44
127
25
-80
-96
39
-5
12
-15
24
-28
-4
2
48
-31
-26
21
32
-16
10
-5
19
13
-14
-1
39
21
24
21
-25
-15
12
-54
4
44
29
-91
-25
45
-3
32
-127
39
16
-17
38
43
24
20
21
-62
-26
-30
83
-38
6
20
-1
-54
11
-25
25
-29
-55
-36
-10
-38
16
35
-39
20
13
-24
-15
-27
-9
4
12
-8
8
2
-38
60
-72
-70
17
22
38
35
-27
39
20
12
64
28
23
-127
-1
-93
65
2
-25
-8
2
11
10
5
-28
-61
18
-18
-59
-127
0
-52
-28
-33
-92
125
15
10
-37
-11
118
-76
74
-39
-12
-90
-41
59
-10
-53
-77
-52
68
-13
-107
-10
-18
-75
-13
-19
48
-67
4
36
92
35
-57
-90
43
-30
-50
-8
1
10
13
-16
-39
-48
-9
-20
-15
0
21
-45
127
67
-46
-38
-22
-32
-11
-49
-21
-32
-32
-16
-26
-30
15
-14
-2
1
-37
11
-9
-33
-18
0
-8
-8
22
-14
-3
-19
-27
19
-41
61
28
-68
81
-39
75
-11
-51
44
-54
41
-27
-41
9
22
-41
-104
-51
64
28
127
-20
22
-86
-16
26
-29
-51
-38
-14
-4
-42
31
-63
-60
49
-19
6
-28
-83
18
-35
-33
47
-72
-35
-92
-37
-105
40
6
43
3
-14
36
-22
-66
-68
-82
-31
-44
1
-5
-16
-30
5
-53
29
6
-34
-1
22
-7
-10
10
-12
-111
-127
9
-21
69
93
22
17
-12
-76
-11
10
-59
14
-20
-14
-16
-24
-61
7
-3
-45
-17
-45
-13
-47
19
52
-14
94
-69
16
-59
30
-11
-81
-18
-10
40
-2
-17
-101
-17
-41
74
2
16
-18
-123
51
-54
-127
1
16
-49
-27
15
14
70
-81
7
-49
-20
-23
-65
20
12
-5
-65
-71
-3
127
19
93
-74
-84
-4
-17
-13
-21
1
22
-34
-54
-10
-5
74
91
-14
9
-21
-25
-2
-1
-1
-10
-9
48
-34
-13
25
-49
-25
22
-21
-1
25
8
-12
-42
-5
-15
-27
-60
-39
-11
24
-12
-22
30
-55
14
-120
13
-29
122
23
-10
-81
74
-11
-86
-11
-21
-29
-28
74
11
-48
9
77
-89
46
-43
-56
-102
-10
-23
-41
80
-11
28
1
-127
2
6
-68
-25
66
5
-61
37
10
3
-103
-26
-39
-8
-33
6
-51
-24
-36
-27
15
-25
-32
42
-21
104
-3
-40
5
-57
55
-36
-26
-26
-24
-23
-14
12
-14
13
-84
-51
-2
-11
14
-10
127
-69
3
-47
-56
28
-26
-60
-8
-14
-30
-58
-30
-21
-104
-64
-46
8
42
-10
8
-49
4
-82
25
-8
-17
55
-37
-49
20
5
24
28
-39
16
16
-64
13
-36
-82
-127
-54
40
56
0
59
3
-24
-15
22
3
-1
-8
14
-1
15
-11
79
1
-11
-91
-5
33
83
61
97
-35
-30
-15
-1
32
40
-70
-19
38
-105
-121
46
60
70
46
57
-7
102
-47
-127
80
-93
21
36
-79
38
-52
-109
54
118
-51
-45
49
-95
57
32
47
-16
-90
13
-124
-2
-45
24
-84
-81
9
-58
5
127
-119
-23
-20
-97
-82
-55
-62
60
-53
-20
-60
-47
-75
-24
-78
-68
18
70
-30
-16
-24
-48
-76
-100
36
-24
-15
-25
-29
-25
-80
-43
109
-64
-49
-60
-71
-12
-65
-4
-32
6
39
-100
12
-15
25
25
-6
-26
42
-10
-44
-23
22
-20
-8
-24
-15
-6
2
-21
-4
-37
-38
-32
-8
-79
-127
-23
29
18
59
25
34
11
-9
-1
-28
-5
15
5
-36
-2
-42
-5
28
-23
-25
23
70
9
-1
71
5
-25
-21
-33
-59
-67
-127
-30
-80
-20
-48
-38
32
-2
-16
-1
47
5
-84
-28
-82
-94
23
10
121
19
30
36
-3
55
-66
63
48
44
-70
-29
57
35
-87
91
-2
51
39
0
-35
5
12
-23
-43
-84
14
-7
8
-14
-75
-24
-127
-12
-82
-3
-11
-28
-24
42
45
-44
-50
-101
-60
38
-26
-29
21
-8
-45
-2
-23
-6
-65
6
10
-73
96
-47
-45
-106
40
-1
80
22
27
-89
-72
-59
-14
-127
-92
87
-94
-82
28
78
-16
61
39
-32
-55
20
94
-91
45
-27
4
19
-80
75
-4
-22
53
0
67
0
-17
-96
-75
2
-34
-7
37
-4
-126
-85
-41
-76
-54
28
-51
-5
84
-39
15
13
-37
53
4
5
-94
-50
57
36
-127
-49
0
-23
-6
-87
-42
-57
-57
-41
-23
-27
-24
-59
19
-27
117
-76
27
61
7
-1
-54
56
-24
61
-47
-47
2
41
-46
-57
-87
8
6
-15
-15
-54
-47
-14
-6
-33
-80
-19
-39
-66
-38
72
3
21
39
111
50
-86
-64
-84
-31
14
12
-74
-16
-14
81
-71
-2
-1
-26
-90
-61
12
-30
47
127
-54
-27
8
-20
-18
-122
57
3
50
4
48
37
3
37
-41
-66
111
8
-43
-29
-76
-36
41
-18
-48
19
22
-38
7
-19
-120
25
16
-23
-6
56
-32
25
-21
56
-2
5
29
-127
69
18
13
-1
-6
93
-49
-43
-22
-34
-28
-55
-24
17
-11
-34
-14
-24
-127
-30
-22
85
-14
54
64
-36
-13
33
-30
6
-21
-10
-21
-18
-60
25
-28
36
-4
54
60
26
-13
-39
-30
-9
-44
22
47
-78
-42
-26
-65
-54
-26
-64
-2
60
-63
-60
69
-13
-61
-21
33
54
-16
103
0
46
-78
-33
70
-38
-9
-7
-55
-37
-60
-41
-20
85
25
-15
-23
4
-6
-50
-3
50
-108
-92
53
-32
-31
127
-36
78
4
19
32
-10
4
12
-59
103
-64
-82
-22
13
-82
24
-64
-127
-16
42
58
26
-36
-43
24
20
-27
20
-52
-30
2
17
-26
7
-68
-82
36
-119
-10
20
-46
57
-5
17
-32
-21
50
42
-111
-31
41
-19
-61
-86
-40
-80
-36
-14
-38
-26
-27
-69
-47
-8
20
15
19
-19
106
17
-16
11
-32
-54
-12
4
-36
57
-27
-1
-59
7
-45
-61
-80
45
58
-78
-9
19
-127
47
-25
-11
18
-96
29
48
5
-75
87
-71
-45
36
-9
24
-31
-63
-5
-7
-42
23
2
-33
-2
-15
-80
-16
-3
12
0
-19
-70
42
20
1
1
-73
2
-62
3
-12
-34
-48
-50
-34
3
-28
-26
33
38
-20
-81
-24
-22
-2
-15
-37
25
-2
21
-50
1
-68
-25
-11
-11
23
127
-56
0
42
-41
58
39
22
-31
33
2
25
-64
-41
-58
-46
-13
-65
-32
1
-14
11
9
-6
37
5
24
-6
-127
-63
22
26
39
28
26
42
-11
14
27
-85
5
25
-2
16
26
-114
23
-47
-33
-17
-60
-10
-127
-26
7
-86
-23
-104
-124
34
-7
-15
-69
-12
-121
-12
-28
-73
-26
-27
14
-62
-77
-75
-51
-39
-58
-36
-68
31
82
31
81
3
59
-62
9
-44
9
64
-30
-42
25
-53
-20
68
4
37
-59
11
-58
-22
-72
-78
30
58
8
-62
-3
-78
-92
-67
45
94
14
-25
-69
-123
53
4
-112
-127
-60
11
-97
70
-57
-73
25
-12
44
-78
-34
-63
-69
-4
42
-41
-70
-75
-4
4
-50
78
-59
-11
-36
-15
10
4
-1
-5
-29
10
-89
-37
61
-23
27
-51
-27
65
-24
49
-5
-20
35
-2
99
8
-104
-15
-25
0
-127
34
-7
-10
-29
-53
41
-25
-6
49
64
-59
-47
53
-31
22
-86
2
36
-34
-91
-59
-54
-16
-27
-44
40
-127
34
23
-93
-82
31
51
-64
16
21
-76
46
-16
-105
-83
24
53
-99
-14
-83
47
-50
-104
1
-64
20
-32
-94
80
-59
-80
-94
-41
33
31
-72
-59
106
-45
-31
-50
-44
-3
16
25
26
-73
-109
-63
-21
6
27
-98
70
52
-91
-58
16
16
0
-102
18
29
-64
7
-53
14
-12
-18
38
-8
4
6
-112
39
-56
-27
-119
-36
-29
-58
42
-127
30
-62
5
-66
-20
3
-38
-127
21
39
-27
12
-57
-51
-10
55
-18
-34
-28
12
66
-21
-28
-117
-36
40
40
2
-73
-121
-100
-49
6
61
-14
69
3
-84
48
-38
85
-21
-81
-12
-68
24
-69
-83
2
-15
-22
46
-55
17
23
1
-43
-25
-22
-127
-71
-61
3
-19
10
11
-32
2
7
11
7
-36
-77
48
38
-57
-95
30
-46
-3
11
-1
-7
17
-2
27
64
-4
-30
-63
21
-82
24
3
-21
-32
28
11
-91
8
-16
25
66
7
-127
0
-10
62
-47
-80
32
31
-30
0
-55
-28
-17
-44
-8
43
-87
25
-18
42
-16
42
59
-81
-80
-68
15
1
-61
-11
-4
93
-61
-90
-14
-59
-5
-19
21
1
-49
-106
-56
-27
-59
-44
40
-56
-69
45
70
-65
-8
-20
-29
74
19
-45
-22
-42
33
45
-78
-20
-67
-48
-12
6
-23
-54
-78
-15
33
-29
-52
-40
-26
-36
-36
-14
-28
-76
-17
-31
-51
-7
-127
-35
-10
33
-8
95
-81
-7
-11
7
-67
32
-18
-14
23
-52
-21
16
7
4
-21
18
20
9
0
25
17
-18
-8
-8
6
-37
17
-7
-127
-112
-8
8
-11
29
17
51
-14
-67
37
2
-32
1
-8
3
-29
33
9
7
-4
-16
40
-35
-9
-31
-58
-47
-23
-48
-33
-62
-14
33
7
124
32
5
-58
-42
15
-2
-13
-29
-23
18
7
-33
0
13
20
-23
6
-7
-27
-33
-19
23
0
-25
6
-61
-6
-33
4
-8
67
-37
127
6
-127
-1
-28
-2
4
-38
12
20
-100
50
-53
19
-16
-29
-7
18
-18
21
2
0
10
18
37
7
-6
-73
1
18
-35
-42
3
2
26
-9
5
3
-24
-9
110
-13
-8
121
-33
-16
-64
-16
-16
-17
127
-29
2
-51
-14
3
-29
34
-15
-46
-74
-26
4
-35
8
6
52
-34
-30
-74
6
-28
-37
-4
-37
14
11
-37
19
-20
-46
-23
8
-66
41
-1
-44
-4
28
-36
-9
-14
-12
55
-16
24
-23
-36
7
-26
96
-99
-103
-53
69
26
-45
-31
-60
-3
-78
-86
111
-27
-87
-127
35
-1
-63
-59
-78
66
-61
23
-58
-10
-42
-13
-65
68
-4
10
-123
-91
5
-32
24
86
-45
5
40
-72
-11
-76
-97
-45
18
4
-58
-10
52
98
-65
40
0
58
11
17
-2
-71
32
-59
-12
-4
14
-50
-54
39
28
-11
38
-42
40
7
-49
-27
-48
-68
77
-44
66
13
-91
0
-20
-3
-45
26
5
-38
0
72
-127
16
-26
-62
37
-17
-43
15
-2
19
-83
20
-12
-10
-33
127
40
24
-60
-24
10
14
-43
-24
-12
9
-16
-16
-4
-12
-44
-28
19
-21
-13
55
26
13
-69
-21
-12
-36
9
-28
95
29
-45
-57
10
-54
30
79
-58
21
35
-60
-7
-110
-44
6
-51
-58
-22
-11
-2
36
-2
-21
-11
-40
50
-2
-70
-30
-70
-30
41
-58
-7
127
11
-37
-97
-18
-62
-29
73
19
-41
57
1
-45
-99
-1
-110
-77
-80
-107
-8
33
-62
-116
10
-40
31
-44
19
18
60
-76
-20
-25
25
-84
-20
75
30
74
-35
15
-19
-67
-26
-53
2
-20
-88
40
-97
-20
39
77
127
-71
-6
-46
-96
33
-88
-50
-25
66
-29
19
-20
-105
-54
-14
-79
-60
99
-76
-82
-111
-121
30
-4
3
27
12
-47
96
-6
-127
25
88
2
-89
-21
66
-58
-73
-22
-57
-60
-109
31
-54
87
-65
-13
-92
-28
-119
-52
-2
-77
-45
-25
29
13
-68
-14
72
-53
-1
-22
-15
-27
-69
-9
-16
-103
-76
2
-114
3
-20
-104
-22
-62
-50
-59
-50
1
40
-88
67
-73
-15
24
97
57
121
84
-107
110
6
4
-127
-29
-29
-12
117
-61
-88
-28
-78
-40
88
119
7
27
-16
-41
-17
15
24
-40
-116
-30
-98
11
20
-11
-57
49
-58
-2
-3
-45
-5
37
127
-12
31
-53
-110
-18
-54
-72
-79
-25
-19
-16
9
36
-77
26
-47
-45
-21
-82
-78
23
-25
-13
90
56
21
-29
0
-15
18
-81
-25
27
-57
-35
69
26
-78
-34
-33
-127
-54
-75
-10
33
9
25
4
-71
-25
-73
15
-64
44
-52
-9
68
-84
45
-22
-50
26
-14
-40
-51
45
23
-44
-41
-27
-15
81
16
4
-14
43
54
-14
90
-43
-48
-19
-17
11
-28
-127
-4
-25
5
-36
9
-4
-8
-40
-8
23
-8
32
-14
-9
-121
70
0
-2
52
28
2
-29
14
-32
46
40
1
19
16
9
-8
-97
3
-25
-61
-127
31
95
22
9
111
-61
-111
5
-19
61
-42
-23
37
48
9
-17
90
119
-98
-79
-74
-22
26
-35
3
16
-80
92
-43
1
11
-111
-68
54
32
-11
84
-7
32
30
-25
-45
3
-4
-29
13
57
-37
-8
-65
-42
32
80
45
-74
-39
44
-87
-24
-108
-117
-17
-49
-17
-1
-109
-22
-46
-23
67
41
-2
5
-24
45
33
-45
-84
-14
-53
-52
85
-30
-32
-22
-11
-19
-127
-35
52
-67
-50
87
24
-103
-19
-30
-13
38
-9
-104
51
-43
3
19
-28
3
-40
-40
-58
-87
-7
-13
-50
-59
-10
-6
-16
-33
13
-41
-42
-91
-101
-11
37
79
127
54
23
71
23
11
-26
-62
-17
-2
77
-47
-5
77
11
-8
-7
-18
-69
19
42
-57
-60
-42
-109
-50
-37
-67
16
-65
87
78
-95
19
-55
-1
-80
15
-43
-51
20
2
-25
-46
-18
-99
-35
16
-76
18
-73
127
46
-8
-7
-31
-10
-85
-3
-34
16
-38
-79
110
27
-77
-55
-69
50
121
32
78
-29
40
-1
-10
-30
-84
-95
-19
13
-108
-66
-78
4
9
-31
-97
-1
-36
79
0
-15
-38
-15
-20
-112
-10
-107
105
5
7
-104
5
-40
-96
-57
30
15
17
-127
37
9
11
-110
-54
-127
39
-24
-19
-46
61
24
-49
-60
-59
-39
48
-34
48
-75
6
-11
9
-33
-83
60
19
77
-46
1
-77
-103
-48
-27
-11
-68
7
-33
-7
-94
-19
-28
-7
63
-38
-21
5
-60
5
-29
0
-73
30
6
-116
-53
-77
36
-24
-15
1
59
11
-27
-25
7
22
-30
33
-72
-14
52
-12
22
-2
11
44
-48
0
-6
-127
-47
-22
-31
-10
21
-37
43
-4
-15
-31
46
-46
27
-10
24
-14
-89
-91
26
-22
8
-114
-21
-5
127
20
-23
19
109
-80
-127
-21
39
-55
2
15
-29
-2
-31
-57
-68
46
12
-50
5
-45
41
33
-127
70
25
-20
-72
8
11
31
0
13
-63
3
-24
-56
-60
-102
23
3
67
35
-25
50
-8
-72
-39
-15
14
-31
-47
-28
-36
-13
-13
-41
2
-12
-53
68
-25
-47
-23
-67
-16
-98
25
-13
19
75
-59
7
81
-42
-80
-43
127
-39
60
-22
28
-60
40
-63
-17
-57
-31
-67
84
82
56
-38
-54
81
-56
75
2
-67
-61
-53
1
-2
-82
10
-33
16
-50
-83
6
-12
-76
-25
118
-99
-9
24
82
68
-36
-64
2
5
-127
-59
-33
12
-51
-30
70
-79
-18
13
-25
-76
-34
30
-6
-9
-48
4
42
-4
-21
37
-39
5
35
-20
-49
-31
127
15
-9
18
35
20
-6
45
-3
-40
-59
29
-85
-22
33
-16
-11
-14
-25
-29
-26
-48
-40
20
78
-56
-20
-7
-29
-35
-18
-44
-12
-1
-57
48
5
30
-28
-41
-92
26
-103
40
-34
122
-2
-36
124
-71
98
-4
34
-12
-32
115
-57
99
-54
-19
-32
-4
9
41
14
28
32
-20
-11
-76
20
-12
-127
12
29
-98
18
11
-86
-74
78
-25
13
-93
0
-127
34
-6
-41
-69
-57
13
-58
20
-52
-1
9
1
-64
4
-39
7
21
-55
-15
-81
65
-78
10
65
-36
15
50
-46
-27
-8
-11
43
-38
51
-73
-58
-14
-27
19
25
51
-2
-19
9
-40
-67
46
39
-16
79
-44
-13
-60
-32
-59
-52
-34
-44
-24
-3
43
-15
-20
18
50
-19
18
-34
-20
-82
60
14
62
85
-20
44
-13
41
-23
-15
-28
-29
-41
29
17
25
-127
38
-42
-56
-18
0
-27
-65
52
18
49
-58
24
-127
-1
90
13
-66
2
-3
-50
-29
-32
-39
-76
-22
68
-105
-28
-25
3
-57
5
-44
-46
-38
33
-58
-71
47
-14
-42
-59
-39
41
-50
-36
77
-48
-8
77
33
-53
-40
13
-5
61
-4
-109
73
-40
-91
-24
-5
28
126
-70
34
-16
53
12
17
-127
-29
-49
0
-58
-17
-105
-48
-35
14
-53
22
-36
-26
-43
7
-15
-10
-87
-24
5
58
-38
-32
-38
84
-16
-43
-64
-7
-7
40
-30
39
-50
30
-76
62
75
-39
-50
-9
-14
-13
-27
6
-69
88
-8
-109
-97
-55
-51
127
-25
-48
12
54
12
23
-53
-20
59
-93
35
8
-85
-58
19
9
44
-9
-47
-94
15
-18
13
42
3
58
7
-32
-47
8
-57
-13
-2
6
-127
-5
-17
-30
5
0
26
22
-12
-17
-12
-9
-30
-60
46
-74
76
-26
22
21
8
2
-21
7
4
35
5
-10
-3
-34
41
33
-55
42
-41
-41
-42
-14
0
1
10
-23
-31
-61
4
-55
-43
-15
-55
-29
87
-89
-53
-63
-15
-9
-65
95
-127
-60
-8
-7
27
18
25
-9
10
-40
-36
-35
0
42
-5
-62
-46
-79
39
4
-96
-58
-28
-11
7
92
14
7
-28
-99
-63
66
-12
-37
67
13
-74
63
-5
-58
127
-38
-11
2
-59
-72
-61
-57
-13
-55
105
-6
-13
-22
-84
-17
-45
-39
-93
26
-57
-5
-100
-61
-23
-26
-16
43
52
-27
-43
-51
-94
5
45
-20
49
31
-71
-127
-45
15
-100
-27
-31
-22
-46
-93
-3
-91
-3
-7
-16
-47
-18
-30
-4
-65
-119
4
57
-44
26
-13
-35
-14
40
-6
-7
-15
-72
36
-44
-17
6
-14
41
-82
-46
19
-34
-82
13
1
0
-32
-48
40
-30
48
5
-29
64
-9
-39
-14
-49
7
-127
-70
1
-83
-24
7
-5
-41
22
-3
2
1
38
-46
-26
-11
-21
-17
-22
-69
-45
81
-63
-25
11
-36
-4
18
-71
33
10
23
-37
-2
58
7
-1
127
-42
18
37
10
10
8
-41
-21
7
-37
-18
-2
25
18
-40
18
3
45
36
-13
-5
-87
-1
-79
-50
37
51
-74
69
-39
-9
-1
38
-5
12
53
97
-24
-85
8
32
-60
-4
-25
8
-16
31
34
-16
26
4
-29
1
12
-85
-65
12
-16
-68
4
-7
-19
-25
-33
-45
-37
-95
-90
31
-127
98
-22
32
80
-37
26
49
-1
-74
19
48
-23
-29
-34
4
14
-31
-22
-18
-98
-19
14
35
1
-52
50
-29
20
12
8
-24
-58
22
34
-64
-127
-61
2
66
-27
4
-29
15
12
11
-121
125
-15
-96
-5
-14
10
30
11
44
-2
9
-17
-82
-4
17
-19
47
12
-45
64
52
-32
-12
-44
22
0
21
-53
-127
-95
-80
-74
-15
29
36
-88
52
-78
-45
-46
68
1
-7
46
1
-23
-50
0
43
12
35
51
-9
-27
-33
-20
34
-40
-50
-23
-55
-7
120
31
-71
-2
-26
-18
30
-42
-85
-33
-23
49
15
17
-111
-13
-18
-75
-52
-62
-119
45
-30
-106
-60
127
-11
42
23
-12
-35
99
-20
-13
-18
24
4
89
-13
36
-5
27
-56
-10
-15
-36
-11
-1
-56
-92
-64
-40
-8
41
-22
-41
-7
-70
-26
-21
8
10
-79
14
8
-127
44
5
-35
-3
38
-19
0
-20
-25
33
-84
-56
13
-88
-33
-36
-48
-72
-46
-42
86
93
-14
100
18
98
-69
22
-32
-91
-62
-61
-31
-32
25
-21
87
10
-59
-41
11
-81
-114
24
-74
-45
-18
-22
-114
-42
-31
100
26
8
-97
46
29
-119
-96
-39
-96
-127
-8
45
-89
25
-71
-100
1
-112
-37
11
42
-67
2
-52
24
-12
-51
4
51
-47
-8
15
-7
-57
-56
14
32
-38
17
25
59
-78
23
-68
33
41
-34
-75
-12
-21
-43
-55
50
-1
24
-28
-6
-14
-74
1
-3
-127
-39
-55
-3
5
6
36
77
67
-40
0
-38
-10
27
-19
-29
35
-75
-27
10
13
-6
-13
7
-23
-39
8
-53
-45
-118
9
-3
-14
-61
89
2
-28
-34
54
127
-30
-53
-77
-53
-43
-96
76
-49
14
-13
-30
-18
-65
-31
-27
21
30
-29
-21
23
27
-19
88
86
-89
24
-33
-18
-30
46
-59
27
-44
32
-17
-26
-30
-26
14
28
-12
-6
-76
-125
-95
-41
-3
33
-42
127
-122
89
-8
-84
99
-36
-39
-5
37
-76
-4
32
-19
-51
5
-99
-101
-67
-73
-31
-27
-99
-6
16
-29
-101
-14
-24
-28
-17
33
13
-12
-14
-23
-19
-34
-21
12
-106
-29
32
-17
-15
-21
-36
-48
-16
20
-17
-26
-31
-14
23
-35
44
-34
-17
127
14
25
3
38
4
-35
-38
-6
-32
-24
-18
-28
-19
-12
1
-7
86
-41
28
-40
-23
-34
-12
-55
2
-61
41
-48
-49
-127
-99
-30
-23
-35
-56
-43
77
-35
-13
-36
-61
18
-47
57
40
-15
-21
9
25
-27
-105
45
-47
-19
-62
-25
51
-3
-5
20
-4
17
68
32
1
-31
-28
61
90
-19
-10
-16
42
-29
-127
-19
-9
-37
-62
-73
2
-94
-36
-63
-29
-56
3
-14
2
3
31
25
-14
-20
8
16
-10
-10
-49
55
-9
-44
-66
-51
-25
18
-60
-11
46
-64
58
-3
-47
16
40
29
58
-38
-94
-53
44
6
-33
-12
-102
-88
15
-112
-4
28
-24
-70
-47
-27
-13
-44
-69
59
4
-87
13
27
-40
113
-80
80
-12
41
-14
92
-76
-40
-52
-2
-127
-122
-14
-5
-16
85
-41
-30
-24
-30
-1
-19
-45
-52
-127
-10
-56
-83
-61
33
18
-21
-20
63
-16
65
4
-7
40
73
-77
-29
-12
-55
68
-28
-21
70
-34
51
51
12
-16
22
37
-68
-7
-28
9
-61
48
28
-8
-50
-1
-9
-9
-43
-19
-34
-20
-26
-27
-15
8
26
-38
15
-21
26
25
6
-100
-30
-11
4
30
-26
-52
-55
8
-17
-2
-19
-29
62
-45
-18
-5
-37
-127
-8
-51
9
-2
-37
6
-25
-7
6
-28
-29
-26
29
8
-64
-103
66
-34
-23
-25
-61
-113
-3
-21
66
-114
-48
-33
21
-2
-37
6
25
9
-35
14
-79
112
-45
-9
-57
-19
127
46
-11
35
-41
-26
-7
-18
-64
-43
15
46
-85
-34
-18
-117
-45
-49
-24
-55
1
-25
-37
-9
65
18
-107
25
-31
14
-5
76
-10
11
56
-96
3
-51
-25
-127
-5
12
-95
-25
15
-62
-18
-69
-55
38
-29
11
8
11
-84
-16
-3
-24
-32
-12
25
-3
61
-43
83
-49
47
74
12
-72
9
-85
-38
-7
9
-55
-95
29
20
-42
-52
15
-12
-37
43
43
-12
-39
14
24
33
-52
-104
-14
-65
17
-37
-95
-17
56
76
-21
1
-42
-25
-18
41
25
-71
-114
127
42
10
-46
-29
-60
34
-3
13
58
67
8
38
0
37
3
16
-29
-41
97
-12
42
36
15
18
-1
52
50
52
-49
-64
-28
-66
20
-37
-21
-65
-127
-98
8
-45
28
-19
29
-36
-7
25
5
-16
-65
-33
-7
-51
12
-25
4
-95
71
-6
22
-76
14
-53
15
-53
-94
92
-26
24
51
-21
-40
8
-87
-127
-29
-55
-30
-32
-88
-56
-37
-12
22
19
-92
39
-8
-20
22
45
-23
-53
-127
87
6
35
-34
99
23
-35
-31
-44
35
-49
-10
48
-127
15
-53
-63
8
24
-14
16
-39
8
-93
24
-35
-18
58
-2
37
-60
-39
-46
80
-69
-55
23
-47
85
-60
-2
7
47
-30
5
16
-14
18
64
31
-67
7
-13
-22
23
-10
-32
7
127
-1
-45
-89
5
-18
46
0
10
-65
-27
-39
32
21
-51
18
7
2
87
12
-30
52
-10
17
19
-32
72
-28
102
9
52
-23
-32
-11
-9
-78
-47
35
-20
-20
1
-106
11
-77
-95
-46
1
-27
5
-24
-20
-41
23
-43
70
61
-109
73
7
121
0
-17
-80
-25
-126
-89
52
14
41
-62
-8
62
-53
-47
-67
51
23
-42
19
-37
-57
-88
-89
-3
-35
77
-6
-107
-127
-56
53
-16
-24
28
-26
12
-28
-17
-17
-30
-47
44
-34
30
-24
-30
-37
-3
-22
57
19
-25
-13
-3
37
-21
12
-11
-66
-127
-42
38
61
2
40
69
17
6
-21
-28
4
62
25
-36
14
-17
58
-41
10
27
-2
-16
-2
-83
7
-35
-7
19
-55
10
4
-17
-65
-81
-17
28
0
-30
-47
-4
29
51
-12
-124
-118
36
-62
-10
-11
47
-86
20
-53
11
56
-127
-29
-8
-29
-34
-32
3
0
-56
-16
-69
-107
-10
15
7
-9
-28
-19
-51
23
-1
-127
36
-61
-48
2
-25
-14
-18
19
-12
26
4
4
21
8
-18
-49
-28
-26
30
-80
-40
12
-10
-7
3
-14
20
-75
4
32
-52
-18
78
60
-23
-95
81
32
7
20
42
-59
93
23
-48
-61
99
-61
-12
8
-124
-62
-53
-33
-65
-3
-4
4
-107
-78
74
-101
-55
-68
-7
-43
53
127
-38
-50
35
-14
-46
27
60
25
-4
56
-78
-44
-16
-113
29
25
-31
27
-40
-25
-76
-26
5
-14
-6
27
-4
-41
31
-6
3
14
-93
-26
6
-6
54
-77
41
18
27
24
-63
-27
-34
-47
44
37
-17
53
-43
41
40
-14
-32
-66
23
16
-20
8
-11
9
-16
7
127
-32
-27
-37
-43
-3
-10
42
38
15
-38
-28
-23
50
8
-17
-21
-5
41
-34
-7
-7
-127
-20
6
-33
1
-47
-58
-29
16
-62
26
-18
-52
51
-29
-2
-75
-68
16
-23
91
-31
-25
73
-44
-15
-16
33
-28
-16
-8
28
-2
-31
-16
-40
48
-23
-24
-4
-51
-54
-34
9
-76
8
25
15
44
-47
24
-33
-19
-30
26
-6
-51
-30
-5
27
-49
-13
34
-52
-23
35
9
0
-15
14
43
-57
-41
36
-127
-52
61
-22
82
-36
-34
4
-109
-37
-42
-55
-27
26
-98
46
66
58
-34
-34
-37
-23
33
-46
15
-106
-127
-88
13
-75
-57
-93
-26
72
-4
12
60
14
11
77
-112
3
-2
51
-117
-25
8
-30
-25
56
-54
-1
-11
-16
-67
-117
1
-37
-30
-58
-36
18
-11
-34
-18
-36
9
-50
-31
-63
-64
3
-79
-43
4
-54
-71
-20
-27
-25
-18
26
30
-24
-26
-39
-44
37
-14
21
71
38
-12
127
-70
58
2
80
-41
40
25
-107
44
-10
8
-31
-43
-4
-30
-16
-26
18
31
-30
-7
-8
71
-7
-49
-16
31
11
1
7
33
-127
-91
-10
25
82
94
28
23
-9
-78
17
-20
-2
-33
0
32
-24
-16
25
-102
-11
66
18
3
-100
83
89
10
-5
-37
-60
-17
-7
-37
-40
-12
-44
-12
-60
13
54
-44
-34
102
-12
-56
-45
36
-127
-98
-9
73
10
34
15
26
17
11
24
7
-15
-23
12
14
28
-29
42
9
-4
69
-70
-22
-63
-95
-10
-46
-22
33
-3
127
-47
-9
-11
-39
-8
-89
-69
67
21
15
18
-53
-32
18
38
-26
20
-8
-74
62
-18
-39
3
0
-36
27
-58
-12
-11
-23
-22
55
-56
21
-5
-61
-38
-76
-104
-31
-63
30
95
40
52
29
-121
46
34
21
23
41
88
8
74
-45
-12
68
53
-101
1
-89
-124
-28
-127
43
78
-4
30
-53
-61
-15
-23
-100
18
-60
-81
36
-2
-16
30
22
-8
-48
37
-40
-1
66
-10
25
-7
62
-40
69
44
15
22
33
-69
-68
22
-28
7
-5
7
18
-11
-30
-29
87
-55
6
47
20
-57
26
63
-80
-127
-55
-92
-36
7
-5
-32
-17
4
97
-56
-65
11
38
-74
-3
23
-36
31
-29
31
17
-4
-79
4
-31
44
33
-4
1
-20
19
-19
-54
-5
-40
-127
-42
45
-17
4
-79
-68
9
7
-84
34
-6
23
25
-73
39
-71
-24
33
-7
-98
90
-18
8
85
-10
9
-9
-13
55
-69
14
28
-56
-16
-75
-26
-29
-15
7
8
43
-43
-31
5
0
41
19
-46
-47
-1
-12
2
8
-127
-96
-12
-4
61
108
30
-2
-11
13
19
10
-4
6
8
24
-10
-60
0
-37
17
-20
-31
-54
-90
19
17
-69
-21
1
-14
-127
-20
-62
-41
-111
-15
-18
-28
68
-2
29
-9
-57
-25
-34
44
63
-59
58
25
-49
-49
-20
5
44
3
52
-23
-25
-9
-5
13
79
-63
-64
26
-32
-45
3
26
-5
52
-35
-127
51
1
6
-2
-29
-24
-37
-33
0
-35
-31
-51
-48
-32
8
-51
-43
-82
51
-34
-23
38
15
-45
-58
37
-30
-40
4
-50
49
-19
-40
-45
-4
-5
-22
-39
-79
90
10
6
-81
2
37
-28
-23
8
-61
26
65
-31
-10
-40
48
-63
-50
-61
-32
-42
-86
-27
0
-38
-21
-32
-15
-60
-96
8
-30
-28
65
14
-17
-49
68
-55
-91
-22
-88
-9
109
-25
-49
-127
-15
13
-4
81
-97
28
81
-88
-75
-104
2
35
18
70
107
-17
-84
-13
-82
0
-74
75
8
-43
-70
-25
-63
-77
31
79
-54
-32
-15
127
-88
14
-26
-45
34
43
2
-24
-47
-29
51
-3
-5
3
-27
-100
-57
-57
-27
3
1
-54
-24
-18
41
49
7
-62
18
-30
-30
-68
51
22
28
-19
3
-12
17
2
-60
-34
-35
-43
49
-127
-101
-4
42
34
-4
-26
-7
47
-63
46
-51
21
-4
7
-64
16
-4
41
-17
8
-34
-4
57
17
28
50
-39
-84
-56
30
13
-12
10
-24
15
-7
-13
-14
51
20
26
0
-48
1
-14
-17
90
-127
-101
-37
9
-11
87
43
57
-7
-42
-9
-16
-28
21
9
45
-33
-63
1
-29
-48
64
-6
-8
-18
43
27
-85
-65
19
-34
59
-58
12
9
79
127
-55
20
-9
-79
-15
1
-3
-47
46
-105
-37
2
-52
78
65
121
-7
50
-14
36
12
3
59
-39
-46
23
10
-39
-7
-29
-45
13
-50
-8
-41
53
64
7
8
-12
-32
-58
-3
-47
-115
23
-26
14
16
-2
40
-47
-24
-12
-48
39
-48
-32
-12
-64
9
32
-45
57
12
4
127
-16
42
16
19
-14
-10
-16
25
-63
-73
-28
-43
-14
-44
52
55
-109
57
-49
24
52
-3
62
-5
1
3
39
16
10
41
69
39
27
11
-92
37
13
-90
-1
18
-79
-29
-28
31
114
-113
-24
-80
-3
-18
-14
-37
7
-8
11
-49
-55
-127
0
-32
3
30
88
-22
19
-56
-30
-60
-17
-33
-64
45
95
-26
14
-28
-1
-24
12
12
-13
-38
-15
-42
-32
-44
-39
-57
-13
54
-16
-119
52
21
-3
5
-42
12
0
-86
-8
79
-6
-127
45
-31
-84
-38
-29
-28
24
-56
-6
-14
-4
-57
21
-11
-1
-38
54
-38
125
-74
-32
-66
-127
-44
-33
23
-63
-29
20
-38
-49
-79
-11
-14
27
-17
34
-51
-8
23
-57
-52
-13
-13
-66
-31
90
-16
-42
-28
71
-23
25
-48
-40
53
61
-74
96
-64
31
-6
0
-32
-38
-127
-84
-47
-73
-103
-17
61
-56
2
-10
-72
-27
33
-39
35
-57
-33
-52
-70
48
66
68
101
56
19
40
0
8
14
-1
35
-44
-43
-17
-71
-123
-13
-27
38
-11
32
27
-3
-42
-49
-41
9
-1
22
59
-9
-6
-27
-30
42
21
-46
22
23
64
-49
-4
-9
-91
-56
-34
7
20
75
0
1
25
-49
32
-22
-127
-17
12
23
24
-17
-7
15
9
-42
36
3
-39
50
45
-30
28
-21
-23
42
-33
-86
38
23
4
-24
19
-9
60
47
-72
-24
-5
-12
-3
25
-127
-61
-27
18
105
91
19
9
42
-5
38
-7
-7
12
21
19
-4
-4
45
-32
-19
-3
-90
-49
-106
-19
-26
-6
-22
-30
-56
8
9
-11
-32
-33
25
10
-19
-5
-26
-3
-6
-5
-50
-69
-40
-31
29
33
56
-69
-1
-5
56
-26
23
-23
1
8
-23
-12
-54
0
30
127
-36
-30
15
-91
-121
94
32
-24
-48
-30
72
-20
16
28
-14
-87
-40
20
-26
-26
127
17
-26
-43
-5
28
-59
-26
7
-8
-43
-18
-2
43
114
-18
19
54
-31
-108
70
1
38
-24
19
-2
-79
-6
-55
-57
-94
-59
19
-63
-75
16
41
2
-22
127
67
-39
-60
22
-38
-98
24
4
13
-27
-30
-107
25
-2
71
16
26
-1
9
57
86
-14
-51
-46
-37
-22
-17
-27
-52
-16
-35
-9
-49
-37
14
-17
-59
-1
-74
10
-12
-31
58
22
35
-127
-12
68
-103
27
67
-42
-21
58
27
-68
-102
22
28
21
-75
-30
21
-42
34
-60
-76
57
1
65
40
-101
-29
92
25
26
-28
-37
-110
6
12
-92
32
-28
71
21
-40
8
-22
3
-45
-30
28
35
-10
-56
-83
-6
81
17
-28
-1
-48
127
32
-118
-26
-33
29
-26
-20
17
3
-76
-38
-51
-75
-62
-43
-30
-6
6
-40
-46
-29
-46
-16
42
-32
-25
9
-47
50
-54
-23
-40
-10
-78
94
-36
2
37
8
-13
-51
62
-12
-8
-47
-77
-50
-7
-28
-9
-6
62
-14
58
-32
1
37
-15
8
-46
-1
-24
-9
-41
-27
-6
41
22
0
1
19
-24
21
-6
-127
-38
-47
84
-34
-23
-49
51
6
44
35
4
3
-7
-18
-3
-57
-15
-76
7
-4
-25
0
-40
7
-56
127
-20
69
9
12
-56
-11
12
-7
-5
-25
38
-8
65
15
15
-18
-14
-17
-16
27
16
-7
-15
19
-38
-11
-87
-95
84
-41
-37
20
-2
117
44
-33
-40
3
-86
-16
-20
-36
-46
-10
10
-73
5
-71
-62
-79
-102
-30
62
-72
-50
-5
75
-19
74
-1
-5
14
-63
74
69
-55
-28
-50
43
-127
-4
-63
-41
-16
-39
-63
-30
-17
-40
13
-8
-60
-79
-2
12
33
-37
25
-64
10
127
-54
-41
-39
12
14
-41
-32
36
-5
18
-12
90
-32
0
-24
28
-47
-33
-22
-43
-40
-52
-43
-19
-15
-45
-12
-41
11
-55
102
6
4
3
-58
43
30
-127
30
-41
-20
20
-16
-42
45
69
26
54
-49
-12
-37
-11
-50
-38
-20
9
-3
-7
-48
22
16
-44
60
-64
-63
-42
-29
-32
-106
-84
-23
-49
-13
13
-86
40
6
-58
-24
18
-89
-73
-68
-81
-58
-77
-112
-68
-10
-23
-14
-21
-9
127
110
114
17
0
-42
74
14
-2
-30
-106
-33
-8
-112
-61
6
-52
-66
-12
-17
29
24
-48
37
22
20
14
-52
-51
-88
-42
-6
22
65
3
7
-14
-52
-64
92
-68
-48
-12
84
-92
-88
30
42
13
76
-127
2
45
23
-24
-25
13
77
19
-83
19
-84
7
-20
-15
-66
-38
47
-18
39
-50
37
-3
68
-3
-24
56
85
-85
-16
-40
-26
41
-24
24
-2
-13
11
-59
25
-17
15
32
-68
-46
-5
-48
38
6
2
-80
-108
7
-34
29
-52
16
4
-56
-4
-90
2
28
37
1
-13
-87
-5
-127
-65
-21
-13
-104
-15
39
3
18
-27
-69
9
-68
-26
20
-65
127
-39
-4
-45
-8
-35
-2
-60
80
-8
5
-2
-26
7
15
17
11
-12
27
28
25
-4
-19
-15
-4
1
-11
-34
-21
1
1
-34
-19
11
10
-7
-40
-20
-18
4
11
-24
-42
-20
-37
-17
15
36
30
49
-35
-33
-32
-9
45
-14
-29
-6
-33
56
-11
-9
21
9
-8
17
36
17
27
12
28
-127
-43
32
-39
55
62
33
10
-30
9
21
46
14
13
-29
15
-32
-21
6
43
-12
81
-28
-9
27
39
34
6
44
7
-34
23
19
19
9
-72
-58
-42
19
127
-85
-8
-55
-77
-53
-106
10
19
-2
-16
-13
24
-5
1
6
9
-28
-40
-18
-28
-21
-86
-1
-33
53
-49
25
-80
-7
-11
-56
31
-43
-19
37
-21
-9
15
-13
81
-43
-60
-87
86
-30
-16
-88
-14
93
70
2
38
-28
-58
-34
24
-127
-6
-99
-13
30
-26
47
-5
-24
-35
4
-10
31
18
65
-80
32
5
-126
12
-14
-13
-58
4
-53
6
16
-55
-81
-8
-12
29
-21
2
-13
2
-12
15
-41
76
50
-9
-35
8
32
6
19
16
-114
-127
6
9
30
40
-11
44
30
-44
-42
5
0
39
-9
-60
-3
-99
10
25
15
45
-106
-80
-83
-13
-84
-59
-38
14
-69
-39
72
85
43
25
-3
51
-54
15
7
-58
-7
-10
-66
23
4
-2
-16
-122
5
-94
-87
-44
1
-24
91
-18
-45
-26
39
-65
1
-67
-32
127
19
-16
103
7
-77
-115
19
83
11
-69
-4
-34
-57
-81
-37
62
65
-82
-46
75
-34
4
-21
-31
-1
-76
44
-32
-50
-52
-73
-16
20
39
13
-8
-11
-74
-26
0
-23
2
9
46
127
-15
-2
0
22
-43
-65
100
19
-16
-6
-5
-53
-13
-4
-3
-38
-14
17
-2
-26
-19
-13
-7
-86
32
0
-37
-53
54
-40
-63
-67
83
-127
-75
15
90
98
27
31
70
66
-14
46
-21
-50
-8
75
17
-19
-11
-31
-96
15
98
-10
-14
38
-3
82
-52
-51
-16
-19
-58
-74
-111
12
-50
-60
-5
-68
-76
-103
14
-3
-60
41
53
-12
25
-88
127
15
37
21
-11
-42
28
-88
2
61
-4
18
17
7
45
-17
-57
82
12
-72
-43
-46
30
-67
-40
4
12
-34
6
-23
33
23
-4
24
13
-46
-28
2
6
12
-10
-13
35
-1
-20
-32
6
40
-29
127
-85
51
8
2
-29
72
27
-117
48
-23
-18
57
-8
-47
3
-60
-6
12
106
46
-19
29
-109
11
-13
-70
66
-124
95
-21
-59
-74
-31
-104
-1
-80
20
76
-64
20
-7
95
-74
-26
82
-94
-69
41
110
40
-41
12
-19
9
-55
10
-58
47
1
-24
-127
-12
-29
0
16
-42
-65
-60
-50
-72
73
-26
-88
-50
13
-17
-32
-57
5
52
-40
5
-39
-92
25
-59
-63
27
-22
-29
-74
13
31
-89
-127
72
75
-72
29
41
18
58
59
-1
-35
30
27
-12
-15
-48
7
1
-78
-25
44
-11
22
-20
-43
90
-38
65
-86
-17
54
-32
1
-27
-36
-68
-26
12
6
42
14
28
46
-58
-65
28
-3
-78
-28
-87
-83
19
-8
57
103
-13
-50
-11
27
-45
29
-38
110
6
-90
127
-35
4
-11
-34
-42
-65
-59
-35
60
17
-16
22
-43
74
20
-34
-21
-96
48
0
-40
16
-22
16
38
-43
-63
9
-25
-54
-47
-68
7
-14
-9
41
39
6
-32
-24
-8
-1
49
-12
-29
127
15
-17
-71
-27
8
29
37
-88
-27
-35
-127
15
-53
-82
2
9
21
-50
-71
-54
14
-7
-71
-76
-67
-43
-88
-30
16
-6
-6
-58
110
17
123
-50
-22
57
63
20
-36
34
-67
-107
54
-70
2
105
-84
-47
-51
45
-21
-105
-60
-48
-55
-4
67
70
44
20
-127
-57
-14
-95
-22
-20
-42
35
-55
15
-67
28
-21
-102
4
-35
-13
66
6
-22
1
-50
41
8
-77
-13
-6
14
-10
-29
-4
31
45
91
-2
-17
77
-36
-24
-127
7
-3
-10
3
-15
-14
-34
53
-14
-5
-5
11
-1
2
-17
-7
3
-7
7
-1
27
2
-27
-12
12
-3
6
9
35
4
7
13
12
15
-5
8
16
-1
0
-20
-34
-9
-12
58
-3
7
-34
-49
-33
-29
20
32
-27
-13
10
-127
-45
55
-8
-7
-2
-68
-17
-33
32
-1
-13
14
29
-22
-36
43
37
-44
-29
1
-60
57
10
14
22
24
-12
-66
-14
5
18
5
15
-34
-11
-26
-51
11
-26
-13
-43
-29
63
46
-8
-67
97
-13
-68
-8
-95
-67
-38
127
-43
40
23
-96
3
22
45
-6
-100
-57
37
32
11
41
-28
43
-91
-17
5
-49
-66
74
-27
31
-6
-24
-30
-28
36
-17
-22
-52
-41
20
-51
-99
-70
-21
-92
73
-127
0
-53
26
-7
93
-35
-8
-52
-24
105
67
24
-27
-47
41
-35
8
-24
-108
-44
12
-33
3
-25
3
11
-37
-7
-85
5
38
3
9
55
-41
16
-43
-113
-70
36
16
-77
-31
-77
-1
106
12
-16
-5
-47
-96
-62
-27
-68
-17
-96
71
-12
-8
68
24
28
-12
29
-45
-33
-4
-29
-51
-48
-31
2
-79
-62
-81
3
-32
-4
-47
-10
16
-14
-35
-74
-36
127
43
-4
0
42
-41
16
-11
-48
11
-39
-7
23
9
9
-17
48
-69
-2
23
15
-55
71
-11
34
32
-55
69
-36
-101
-127
48
-10
35
-15
7
82
-63
-20
-68
22
-7
-35
-22
61
-45
-79
-23
-54
15
-52
62
18
-32
39
18
42
3
-32
9
-122
-65
29
-15
26
39
-25
-17
-36
-30
12
9
6
-3
2
-67
-54
-36
46
-6
-57
9
-127
31
-122
-59
-67
15
-14
-58
-22
47
7
22
-7
-24
14
-4
-7
-60
-18
