2175
-4878
-451
-5206
-1219
6852
2318
-5995
-11499
-81
312
-2590
-8788
2019
-8923
4169
4403
-7290
-4227
4232
6995
25271
4457
2190
-5305
-32
832
-108
-1240
-5062
4746
269
-10021
-12871
-3247
12805
7965
7837
645
17150
-4754
845
1177
-7067
2577
164
-1323
-3808
-8248
-6215
-9812
-10810
513
-7058
92
-10686
-9011
-1235
-6322
-6861
-10647
-11892
4593
4569
212
1486
-1630
-10614
-1732
-3751
-8307
-3383
-233
1876
-2732
-596
-9621
-2865
-3017
-3320
224
-1522
3391
-6000
-7383
-1413
4324
-1191
-9318
-856
-612
-505
-6468
-9090
-186
600
-3515
5113
-11172
5588
-4845
5446
6126
-5350
-10171
31019
7732
1036
13559
-2277
-9751
-1338
-1083
-2999
-3028
-983
137
7156
4079
-2710
-2684
21223
-11776
-6283
-1223
-12005
2378
-2955
-8216
3975
2778
-962
3644
-3130
2919
-926
3899
-3177
5254
-11118
-11534
-6356
-7879
-6684
8635
-6822
5326
-13166
-13405
-8681
-644
-7688
-4529
3814
-1237
504
41820
-12646
-5280
2666
-8290
-12679
-1388
-6314
-3706
6245
-8873
-5286
-2024
-1775
1316
-6060
3296
-974
-6856
-4114
10291
-4584
-5048
10234
3551
3862
1424
16483
-5634
-5946
1582
622
-11423
-9636
2231
-2151
-11996
-8444
-6288
6924
3513
-3516
-6716
-5035
-618
-317
-10243
5167
245
-1729
-1964
3394
2599
-2259
-6435
-6784
-8987
-7548
-2027
10155
6641
-2991
-7018
-1488
-5457
-10409
3634
-5359
1388
6693
-227
-6908
-8003
2128
-11398
4299
-1865
1010
3356
-7956
-4842
-11296
-2270
-1903
-2897
-4916
8742
-2848
-2791
4441
-2142
-11868
-2288
-2409
-3043
-7290
-1679
-7335
-1483
634
-7929
5331
-6318
-3289
4302
-2501
5103
5802
-2961
-9444
-6661
-4296
-3578
-802
-5713
-913
1466
13148
-11714
1465
10341
10547
-9549
-10650
-2984
-8132
-9866
-588
-6323
-9683
5561
-474
-1109
-1986
-1826
-1800
183
-441
-781
-10362
25476
-10508
-5239
-8517
2344
-3012
55
6954
906
411
-5365
-1530
-1948
682
-985
-7025
-3596
738
-2904
856
-3089
-13969
-9246
-931
-1085
-4073
6654
-5761
-5898
-3694
3163
-3099
-8102
6559
9540
-16571
34
-8195
-14924
-1893
-7927
-9316
-6971
-6917
-705
5491
3223
-5443
2664
-2199
2263
-7785
6187
13638
-7591
-2351
-241
-4600
1488
-12774
-1560
-2762
-11166
-6760
-4819
-10084
-2339
-1220
-2341
4060
-6205
10590
3560
-3670
-11019
-3654
-3765
6184
1
-1489
902
-11680
-5099
-1964
-11695
-658
-112
-3792
2388
-2100
2824
-2895
24980
-8590
-796
-479
-5758
-1566
-5745
-9778
3201
-7449
-1621
-1240
-12165
24089
13917
-4978
-2477
-2016
-212
-778
-1856
3765
3682
-7120
27777
-6326
763
-3707
-5698
1281
-5675
-1653
85
-3835
-3437
20026
-9294
-5750
-3820
8698
-6029
905
-8659
-1529
-5622
-1373
-9208
2384
4058
-3811
-324
-8268
-3547
-7545
4255
-3531
-8861
-1212
731
1786
2898
-12126
985
322
-4460
-1540
10114
-2024
-110
293
4593
-8712
-859
-9630
2730
-1801
-4772
-2676
-4054
-13977
5384
-6077
-11655
-8356
4318
-14149
2938
-10539
-2968
18479
-541
-4153
-334
686
-590
-7346
-1903
35777
-808
-12000
8075
-5553
-9865
-10627
10566
8180
5257
-3561
-12776
5133
-3155
-4739
-1391
-7242
-6397
20421
-6651
-7419
-1194
-11837
-1174
-3788
3260
-4225
4183
309
-7514
11029
-9073
-10634
5640
-3691
-11839
-1838
-877
-5224
1283
2043
3151
-8395
1346
-2466
4091
-4924
380
-5920
-665
-1202
-48
-10464
-3351
-92
-1224
-521
2875
-9726
9821
-2417
-1137
9114
613
-4451
-11188
-2744
966
17148
3726
7043
-6344
341
-12877
6492
-1225
-724
-6502
2502
-5615
-51
-12112
4511
-1506
-6019
-13055
-11373
-35
-9126
-10113
-1290
7614
-13528
1122
6035
-668
-3777
191
-439
-575
948
-3960
-373
11850
1396
-1743
4481
-1954
10727
284
-10879
542
7867
-12229
-2316
-6933
-3619
-1178
698
-11376
1580
-771
-3727
-2150
-7366
-38
-4641
-1476
1152
503
-10032
6088
-2102
3076
966
-2257
-944
-4224
-6785
-5535
140
-15580
-4318
-7871
-4668
-5607
-8737
-318
5715
-2790
1858
-10887
-4709
22595
-3414
-8490
5032
-4243
-2879
-6377
9135
-9965
-887
1342
-8475
-790
-14612
-1138
2112
-2100
2018
-4121
3619
-9377
-4144
492
2462
-9184
-4909
-4414
7058
10763
5311
-11555
17716
4709
997
26
4464
6489
-3446
904
-1504
-8162
-8413
11030
-13332
-7941
-1091
5804
-3669
-109
-9661
-3280
290
9258
-2126
-1305
-5549
331
-1518
-1375
-1662
7934
9893
1843
6897
-2717
4671
-257
-7946
-6011
-8177
-3321
6107
-4796
20378
3289
-1317
2937
2088
-1448
-6623
-1412
-3802
2807
-1267
4921
-4004
-8278
-5649
-2324
-2796
4920
-5458
-6388
-4848
-9941
3774
-6668
-10697
-9289
-4297
-1949
-1765
1938
-1567
-1839
-321
-6699
-2093
5182
-556
13585
-3675
717
-4997
-7141
-3810
6750
-5885
3505
-10893
-748
3543
21588
-5430
3152
-10062
3941
-2828
3076
-4635
2784
-6464
-11462
1896
-3546
-2463
-9159
-1813
-1667
-13984
-7085
8993
5416
-4543
536
-3308
4990
-5629
-4887
-2836
45
-36
-6189
-3375
1818
-6558
123
-4479
-6253
8454
-16341
-81
-373
4312
-8129
-6122
329
13887
-8076
-5156
-1348
1692
1541
-1865
-9651
-12995
-2796
-7281
-30
-8554
-3295
-1960
967
-5609
-1261
4728
322
-13323
-415
-165
-3040
15196
3381
-12871
1046
-22993
-11379
227
-311
-12418
-1068
-10954
-9481
2625
1216
-3291
-12064
-5512
-5067
-1145
-4108
-9053
-1543
-1035
5492
-7290
-1752
4954
-448
-1666
-7463
-13389
12412
-3525
-157
285
-8591
27689
-686
-10682
3369
-4574
-491
2149
-1129
14731
-777
7482
-8813
-2994
-5123
-232
-2879
-1263
-15876
-4079
-4149
-5373
2035
-5372
-7367
-1526
-1698
3269
10747
-1419
-3310
-131
3182
746
-11832
-6128
-13493
-2032
17103
-1446
-11172
19786
-12710
-8209
-1789
2629
3038
-9762
1893
3617
-3318
2171
-11976
-6814
618
2651
-3867
-2458
3411
-627
-2907
4999
1294
-3232
-1401
-11345
7930
-671
-9403
-2892
-12715
13420
-6410
-4444
5686
-6391
6212
-2555
-3574
971
3671
278
226
-1766
-3771
-8581
10810
-736
-6235
1542
-1094
-3876
-686
11200
-5787
-115
-3251
3960
4557
-3573
-112
-5463
-15350
-11995
-4498
3577
282
-2896
-13215
-9506
-5007
-6740
-9445
8801
1462
-1417
-2204
11121
-1187
-1065
352
-3185
-4448
-6489
10604
4203
-7310
-848
-2565
8978
5246
2430
56484
386
1867
-6241
-2102
6443
5331
-2480
9489
-8621
-7426
7453
-6754
7557
5913
-11129
16730
-1214
-1831
19207
3844
-2493
-409
-7063
1328
-102
-1075
1858
-4797
15142
-5726
-10233
11492
5063
2100
16213
3906
-10038
-5014
-7917
1446
-4529
-6243
-8932
-1873
-5855
27358
-3352
3976
-9951
1007
348
-12198
-4046
-12258
-8501
-327
-3598
-2037
-8289
-4589
6236
-10822
-9987
-3448
-15656
-7956
-6677
-2077
223
-3433
-6165
-1389
-1762
-4353
1896
-1137
-2653
19255
-4856
17076
-10373
-708
-2986
-894
4312
6104
-8783
290
-1483
-367
454
-5084
-646
-203
-9300
-3510
-1674
-3595
807
2910
-4747
82
821
2287
3862
-8959
1733
-4197
-13969
-1361
3509
7531
-8309
13146
-51
1319
-4106
2188
-3706
1783
492
-1550
-2895
-5537
2894
171
-2800
-1744
1363
120
-6839
6691
-2769
3986
-8888
-8724
-6072
-25
-5896
-2087
-6651
621
2952
-8680
-324
-7224
-6987
-8378
17895
5238
-5751
-1154
-9123
852
-1204
