459
675
-77
-96
-298
989
1768
-26
1784
120
-882
948
124
1504
2199
-7
796
1299
796
511
1452
144
986
-2709
1159
-19
486
5639
168
972
599
1241
11952
-318
1142
-644
-92
903
484
2659
611
2359
-201
-78
-2050
-1279
948
1204
704
1068
1751
1277
805
609
1495
-720
852
1287
344
-867
899
2240
339
2419
-525
567
-736
623
-243
775
1463
2152
658
1543
260
-177
1373
-1562
830
345
67
-935
1913
-39
509
1578
2087
476
776
1398
954
212
170
-584
1025
-316
-792
552
732
-86
-1169
719
1013
-526
1306
1423
715
804
221
1072
1280
1390
677
1204
690
942
-208
-584
1475
298
1703
-1874
121
1116
1644
-32
21
1335
175
592
1187
1183
1260
-2303
218
-732
175
-384
-622
128
514
1811
178
2091
949
694
-299
-230
1262
584
-76
1257
543
307
1564
1557
984
-355
-353
1191
-1304
521
1547
1130
477
-1159
1650
-914
1591
535
1153
1581
1759
-238
551
910
1646
-1383
1175
-507
6407
186
-271
1874
-172
328
-476
-1320
2079
1817
549
1207
638
305
1580
770
-102
492
1007
-1554
830
580
923
821
1036
-58
1217
65
1214
-12
769
-1920
852
614
449
-216
1593
1594
1213
1422
1133
1263
183
1476
1854
543
154
-365
1033
-283
1827
-832
1426
-937
333
1298
108
1374
1760
1154
-550
22
-773
888
-233
1069
-135
1038
623
852
1945
1582
-294
406
1771
1010
911
-221
-472
1354
1937
771
1182
266
-254
1061
1044
735
-64
1565
580
-550
-261
598
-23
659
-1494
1023
312
108
1690
-5359
-720
931
-1000
913
136
-1798
-1118
-366
1743
-294
703
-425
411
678
973
858
-3493
942
546
1587
1812
-680
919
-1244
-523
2354
-49
81
-1046
-16
71
186
1225
-17
112
574
-954
1091
1131
891
-490
6509
-1333
-2429
1
-354
205
1363
519
1011
2238
1110
-260
770
-502
164
-673
59
-3401
644
81
1239
-179
-481
421
1461
726
1582
1931
948
-832
360
-529
1282
475
602
553
1147
587
1258
2026
630
-353
804
2038
2045
639
-202
723
-1293
1116
-1933
1208
235
356
684
981
-604
276
359
-627
458
-1579
1275
-682
1232
-423
-279
-2155
-206
448
1071
164
-2592
5827
1266
-206
-341
-395
825
663
340
1510
42
888
-2706
268
809
264
1513
667
1170
1624
616
-741
994
624
411
397
1265
612
840
203
-223
-1192
1532
3520
1057
-794
-384
330
1246
270
1928
1811
891
210
2000
923
-229
750
881
1830
491
-1615
1295
182
1198
1761
793
377
-178
-737
-366
1115
-1563
579
1726
415
1210
1457
957
-504
-171
2400
920
-161
1036
1693
862
115
530
964
1186
-730
165
1048
-576
1970
368
1290
1600
-246
2121
-1910
-252
-738
430
1910
-139
-890
1741
1257
722
1705
846
1111
3153
605
2296
948
1598
984
160
713
362
2140
-176
886
-337
1516
-766
-276
1512
751
272
-177
1174
-1974
-2843
246
1408
-1397
402
1847
156
410
-56
807
-76
-438
-87
-319
1392
-143
644
334
28
1481
491
978
962
-1406
628
1295
1173
3481
520
876
-64
1218
1125
2062
1176
385
1596
822
555
-686
190
-4719
-10327
440
-71
-561
1305
645
1055
-96
-8179
-795
-518
2106
-391
1082
-377
-1268
1221
663
1432
1057
603
-5786
1167
-679
88
-1907
39
1058
-389
581
254
1454
732
-64
-174
1706
541
1673
118
750
1162
-732
165
65
307
2054
1725
1780
961
-191
-731
1645
60
866
-426
557
1701
1556
1833
617
123
-242
242
612
924
-2923
786
1571
1179
1568
-2465
1610
-887
26
373
809
1295
1799
-652
-300
1094
598
1568
-297
473
1082
966
432
-313
333
-108
1180
3746
1081
513
-174
-852
2444
-487
1785
1104
-507
1267
-702
-831
-130
568
-734
1128
1655
823
1350
1365
4272
750
804
721
1737
1933
293
1332
561
1160
982
-890
1032
1723
-855
912
42
-888
1593
-5
257
514
-280
1732
769
-133
1132
1022
2268
672
-1072
-1052
440
-761
-566
-1185
827
-353
1668
2337
877
-201
1219
1000
1046
5328
1869
1888
2078
1639
180
-861
-226
-1039
1929
-602
-427
-367
834
1563
-1303
-326
1649
458
367
1117
748
1089
-36
-1706
1430
284
1300
-1007
-301
616
115
-275
1339
1177
2082
-520
23
1424
932
1327
1090
1128
1109
-196
-826
-852
1000
16
1376
1788
1524
1496
-361
-14
163
-312
1197
593
1623
983
-1203
1030
1752
1337
-734
-537
-409
2102
345
-631
762
1723
1035
364
803
-287
-506
229
276
-888
1860
426
1892
-358
1444
606
775
-596
863
288
163
477
-553
19
1016
585
-276
-1230
791
-640
882
-4359
44
343
-4036
-553
-714
306
1776
198
6
564
8601
979
2592
8802
-832
96
1224
817
269
-128
-851
1214
302
542
985
1332
457
-723
550
-879
3362
-878
1078
974
-1045
1072
694
-161
1837
2133
-1673
697
-554
-889
-408
1952
1456
-275
-174
-610
1095
1635
1142
1623
-1564
1379
370
1908
-308
-635
535
345
1038
-1093
1282
1253
2090
-169
692
595
845
833
-459
698
1365
-643
764
581
800
-1784
-757
-1500
4734
269
801
1971
678
-420
405
-572
76
1059
534
1035
-3896
801
1298
625
770
90
903
-1774
1048
1159
1063
509
-244
511
962
1034
-767
1589
-827
-525
504
1517
1340
410
807
1301
735
-19
593
1299
-775
-1160
1377
843
-816
2110
-283
296
879
-1075
1603
1620
353
-750
-832
852
-668
18
1322
300
317
6362
704
1428
818
1444
282
-1992
1330
1072
1545
878
1231
1244
1617
1124
1250
500
258
1393
572
-877
-1331
643
1944
1079
-343
518
1106
818
406
31
-294
2342
1306
652
1118
499
-328
732
-187
-154
2640
2182
590
-210
1205
-115
939
1309
-148
-1183
518
1285
507
-403
247
1105
-4737
-1460
83
-198
-109
1069
-317
230
1648
531
221
1100
609
145
1057
2304
-2797
-288
998
-3673
1189
861
1597
877
-264
560
1236
1151
1436
1193
-483
7183
2128
1709
1946
1464
262
-99
-327
1094
224
960
2038
397
974
957
949
1811
398
1238
889
-68
653
-2088
-159
-655
1232
-1048
1222
1093
928
1685
712
1010
156
-67
438
-255
432
-773
1854
75
1646
-847
1136
1598
242
-2273
28
1696
585
1388
723
1035
-2531
-217
174
1453
806
-427
1108
712
1078
-66
894
2504
723
614
-2229
1263
-131
1380
2194
1261
120
1862
1641
1466
-197
-63
1186
1433
1167
-5382
1507
1009
352
801
1513
738
1936
-1769
1171
996
-1206
809
