84
-14
-18
16
12
7
16
-13
-11
-6
1
-1
-45
-8
-40
37
4
1
35
2
28
2
-25
-9
-8
56
-1
-20
-12
-54
38
10
5
-23
-35
6
-7
121
-58
-34
9
36
26
-16
-6
-44
-21
-47
-18
5
-7
-12
3
-6
16
-41
8
0
24
25
7
0
30
-54
-7
10
7
-10
10
4
-39
0
2
-21
-6
0
5
4
31
3
-25
-14
-4
-25
4
20
12
-10
-14
11
11
6
-23
-4
-20
9
-9
-23
21
-2
31
-62
11
-26
1
4
13
15
-9
31
-9
-4
-26
55
-20
0
-19
-5
-34
-94
-5
-18
33
-45
13
-4
23
30
3
-3
1
2
-8
-13
-13
12
-29
84
0
62
-34
5
-4
110
-44
-4
-18
12
25
25
-20
15
-10
-1
10
31
27
9
1
-29
-21
5
16
-38
16
-17
13
-10
30
-25
0
3
49
33
-9
-3
-12
37
2
15
12
-22
122
4
6
25
-20
-14
-16
18
-35
62
-2
-5
-24
1
-11
-9
-63
-5
-20
8
-12
10
-2
-46
15
-14
-2
10
19
-13
-9
-27
12
7
-30
2
5
-9
31
-20
10
-7
-8
-30
2
-1
-6
-12
0
2
37
10
3
5
5
-14
-56
-6
31
21
3
-19
33
-16
-16
-2
-74
11
-37
3
61
3
-7
65
13
-15
-2
5
14
1
-3
4
-20
-6
-26
16
10
22
-14
-8
6
14
-28
20
-12
6
-10
21
-22
78
-26
-8
8
-5
-13
-9
-24
23
-12
13
18
16
17
4
1
-74
-15
66
-13
12
-1
-6
-1
67
-26
-8
0
26
-9
-9
3
2
-32
-6
-2
-47
-10
-22
-10
2
6
-27
-127
-15
-23
-29
23
-11
19
21
27
26
-3
14
-20
-24
8
-56
-4
2
-8
-19
-18
23
-52
16
-49
-8
-35
79
-3
23
13
-20
-1
1
-2
0
16
-8
9
7
10
0
0
-17
6
31
7
-9
2
50
-10
-73
4
-27
-4
8
-19
0
-43
21
-9
-3
14
15
11
-4
-7
6
10
23
0
-6
49
-3
-3
1
-15
-6
-3
2
17
-2
6
18
-8
-2
-42
-15
13
11
0
-17
5
5
1
0
-26
-15
18
74
0
4
-8
-6
-11
9
16
-13
0
-96
5
20
55
1
15
4
4
37
-24
-38
121
34
-4
-7
3
-4
-22
9
-36
-1
20
-13
19
35
4
3
4
0
-25
20
-3
-10
3
3
35
6
3
-2
-4
-28
3
-6
-8
-62
13
-49
-28
4
-13
17
14
-13
2
-2
-57
0
-4
-1
-12
-7
7
28
-1
-2
18
-20
3
-49
-40
-22
-16
10
44
2
-24
-1
25
-19
5
28
-35
-8
0
9
16
-11
7
-5
1
-3
3
-7
12
5
-40
17
39
15
0
-10
5
-13
-40
5
-9
-15
-20
-47
-2
56
-14
3
8
-64
29
6
11
-46
2
0
17
-14
-42
-6
-2
-13
5
-23
-5
103
-24
4
-99
-24
17
-9
41
-2
3
2
-1
-58
-21
1
-13
8
-34
11
12
-15
11
7
29
-13
-31
-22
3
11
-4
21
15
-54
-4
0
-13
-33
7
-36
10
27
-12
5
-3
-8
-1
-23
65
-7
-36
-20
-33
6
-14
42
23
20
9
-36
2
2
-22
0
43
4
-34
-36
16
30
96
10
11
-16
4
-2
-3
9
0
2
17
-19
-2
1
13
5
13
20
3
-10
-17
35
-9
16
32
37
14
-38
10
0
-30
-17
-28
-1
-47
-14
-34
0
-3
13
-17
5
-11
7
-21
3
24
-20
5
21
-4
2
5
13
-19
-25
-1
4
0
-44
12
-15
2
-12
27
-45
10
-21
2
87
14
22
10
1
-3
69
-15
32
7
0
-17
-37
-8
-12
2
10
2
-9
11
-4
-3
-7
-7
-17
-4
-9
11
4
-8
18
0
1
14
16
-13
-1
14
-2
6
-17
38
3
1
1
-2
-7
7
-17
0
-16
-2
10
10
-19
-8
-3
2
-13
31
0
16
-10
-22
5
4
-27
9
-43
-9
-9
-10
0
-1
3
5
16
-18
4
-7
-5
-3
-5
8
4
13
-20
6
-11
-56
86
-28
10
-15
-26
5
5
3
-9
1
2
8
-18
6
-8
-2
20
26
-4
-2
-31
-15
-1
5
21
-8
6
9
1
-3
51
-7
11
-13
2
-9
-9
4
-7
-31
3
-12
9
22
-18
10
-15
25
-2
29
-23
42
-9
19
-1
-2
-1
31
18
12
-7
28
1
15
-2
-5
2
4
0
8
-5
26
-2
-9
0
-18
4
-11
-2
37
-9
0
-21
-12
-6
-1
7
7
23
10
-26
8
13
13
1
-9
-7
-17
-3
2
-11
-2
-22
3
9
-14
-30
18
14
8
26
-6
-6
-2
1
-1
4
2
13
17
5
0
-7
-30
-24
-2
20
-1
-12
19
-19
-16
-1
-84
-20
-22
-3
22
-7
5
3
-23
3
2
3
-9
-8
-6
12
1
15
11
2
-6
-3
4
6
9
5
-6
2
-27
-13
16
8
2
23
0
13
47
-12
-37
17
10
2
0
3
4
-35
-17
18
-7
3
-10
12
13
-25
11
-16
-2
10
-6
-29
10
3
-4
-5
2
4
-11
0
0
2
-27
32
-29
4
0
-30
-12
19
6
1
22
0
-2
35
-5
41
-2
-14
-12
9
1
-4
-2
22
2
-17
127
-18
-45
-10
-11
-10
-1
-18
-4
2
-5
3
-10
6
-9
-1
-5
-11
-2
-1
22
-3
-5
7
-1
-32
9
-43
2
46
0
-8
14
6
-17
5
5
10
-7
-6
-9
4
-20
10
14
-11
-10
-2
-13
20
4
-8
-12
-1
-5
-1
19
4
-3
-4
10
0
-25
16
1
-7
-10
13
7
-3
-11
-22
-14
-18
0
8
0
0
-11
0
-3
-13
-21
2
2
-15
1
-8
42
-10
-20
3
9
-2
2
-1
-22
-15
-3
-21
-11
-14
21
-18
14
14
-4
11
-8
26
-3
33
-18
5
10
-20
0
11
-6
7
55
0
-14
-5
13
0
2
8
1
-36
9
-33
2
-5
-24
-57
-8
1
2
5
66
-4
13
-1
2
-4
-3
-38
-66
21
20
17
5
-27
23
-51
8
11
-10
5
-3
-12
-14
1
17
35
5
-19
-10
32
-7
-22
-4
7
8
36
13
-26
2
-7
36
-11
5
-3
0
-33
2
-13
38
-10
-10
3
15
-14
-10
-19
-7
-5
3
44
-12
-19
-1
-6
-18
14
11
-15
-30
5
0
-1
10
40
24
-25
-4
-39
17
-10
-20
16
13
13
16
-17
9
24
12
47
-23
2
-10
-5
8
12
-16
1
3
-8
23
-2
-2
8
-19
-6
2
7
21
-12
38
-10
1
18
6
22
-34
-4
16
9
8
55
3
3
19
-7
-1
24
-16
23
-13
1
-13
41
8
3
8
-10
-4
4
28
30
-27
-12
-29
2
18
-10
3
5
-4
-17
-9
-13
-1
1
0
12
1
-16
62
-16
1
-23
4
-3
9
3
-5
-14
-12
-8
29
32
-11
10
1
24
-19
12
-22
-31
-16
16
-27
62
26
-25
-4
8
23
-9
3
15
17
1
-41
5
-48
39
-1
4
3
13
-3
-120
-26
10
28
-36
13
-16
-11
10
-31
5
9
-6
-15
18
-6
1
-7
4
-15
9
0
-14
-9
-7
-12
-6
-49
-4
-3
-7
6
10
-9
-19
-26
9
2
-53
13
-1
9
21
-21
-5
-1
21
-15
19
69
1
-1
-2
7
-5
11
-25
-2
13
-28
-1
-5
10
-27
-5
8
4
-27
12
-14
-20
9
4
2
9
-1
31
-23
-13
4
1
8
-17
26
-9
-8
-31
5
18
9
-3
-1
9
5
5
-2
3
-13
-38
1
18
-5
6
-3
-2
20
-2
3
37
2
-1
-12
-7
7
8
9
0
12
41
1
5
11
20
-44
-1
-10
-18
3
4
7
18
0
-21
-3
-20
-26
-2
-5
6
19
-2
13
13
-5
50
27
5
2
-12
10
-37
-18
-3
-2
-4
12
2
12
-16
10
14
-25
0
10
-6
2
7
0
25
-13
-9
11
-9
-16
4
4
-3
25
3
-2
-14
11
14
-10
-18
24
-14
6
-2
17
10
-15
6
-13
18
-8
7
3
-31
-1
-14
-11
9
11
-16
12
-7
-3
-12
15
0
-17
-9
12
1
11
-8
38
4
13
-1
-4
-17
-1
1
-7
2
0
12
6
-2
-28
27
-22
-11
5
6
-36
-11
-15
-5
-2
-2
29
0
-10
-53
6
12
4
-2
6
2
39
-24
-8
4
23
-14
21
-15
-16
39
2
-10
7
-34
-24
-23
17
10
10
4
-6
-1
5
107
44
-3
-19
-15
3
4
13
-9
-1
-4
-1
16
-1
2
0
-3
15
15
-7
-3
5
7
-14
5
-6
-50
19
-4
-12
6
8
4
-7
-12
1
-11
2
1
15
-16
-9
-15
-3
0
9
19
-19
-18
-29
-8
-13
2
21
39
2
12
2
-15
-3
-1
10
4
2
10
-35
-1
-4
-19
6
6
-4
-15
-28
3
-13
2
-14
-32
4
1
-2
9
-15
-6
21
-22
18
-16
8
9
2
9
0
1
-20
-2
-1
27
-6
-10
23
-9
-28
8
0
4
34
-6
-26
8
20
-37
-47
-2
-3
12
9
-4
-7
-16
-3
-5
-1
-4
6
-33
-6
2
-8
5
0
-19
-21
17
-6
-40
0
5
13
-11
-13
-6
-8
9
30
-20
-35
51
-13
-8
-3
5
-21
7
-15
-10
-15
-9
5
20
-2
8
33
4
15
33
3
-5
12
7
-17
2
15
0
-10
-8
2
6
8
-34
5
-42
-30
1
3
32
-2
16
0
-3
-22
9
-1
9
2
3
15
-12
29
13
-20
-16
4
12
3
-4
12
-14
6
15
18
107
-37
-8
2
3
-7
-24
13
-10
1
-3
10
52
-23
13
13
-23
-22
7
-1
23
-2
-2
4
3
19
-10
-4
-1
-12
1
-19
7
21
35
20
-1
3
-17
127
25
1
9
1
-39
21
-7
-24
1
-1
-3
-5
-18
9
-20
12
25
38
13
9
-11
-21
-26
-3
-2
16
40
-2
74
3
-2
-6
5
-4
9
-3
10
4
1
2
23
-13
3
5
-1
-5
4
-12
4
18
30
9
-15
-7
-54
-8
10
-6
12
12
-6
-10
14
27
0
0
2
-7
-27
32
16
4
-28
-10
-3
12
20
-22
7
88
-5
-29
11
33
4
24
2
11
6
-16
14
7
4
14
-31
2
-38
6
20
5
-11
12
17
-6
2
-31
-7
-33
6
7
-44
11
-13
1
5
3
27
2
11
-21
5
-6
10
15
-19
-34
13
17
20
-52
4
-12
-4
-21
-1
-3
18
-20
39
6
8
-9
25
54
-3
9
-44
-6
-17
-1
15
-9
-42
-14
-16
-5
-14
21
27
8
43
44
26
27
-15
-25
10
10
8
-3
9
23
-2
-10
-17
-9
-11
-2
-28
10
0
8
5
-57
0
-2
-2
2
9
-8
-7
18
14
7
-9
8
-28
-14
1
26
-5
22
-5
-39
18
-5
-10
-29
-3
5
11
27
2
-10
17
-7
-28
16
-9
5
-15
-3
-17
5
-24
5
-11
-11
-13
-21
-31
-8
-34
3
-4
49
-16
-26
9
-15
-25
-38
10
0
-4
1
45
6
-10
2
-34
2
7
10
-31
2
-4
28
-14
85
5
-3
62
-23
-10
-11
-52
-3
0
-8
2
28
36
21
-9
-43
6
-20
34
-29
-1
10
-23
12
24
17
3
27
-5
1
-6
-13
-36
26
31
74
-17
6
-23
-8
19
-14
5
7
8
23
1
-9
5
5
-15
18
45
-16
44
9
-10
6
-10
19
-1
49
-16
-21
17
12
17
19
-22
-20
37
-16
-44
46
1
23
-20
15
-8
-24
-2
-1
-7
-22
11
7
21
-24
-1
18
-4
-10
24
11
-27
4
-6
26
3
8
-7
-39
-3
-82
41
-31
-5
7
20
11
3
-7
-1
-6
14
43
-11
20
-28
23
-6
-28
57
20
-5
-1
5
-3
-8
-30
11
7
-1
11
-10
12
3
94
-4
7
1
18
13
19
-43
18
-57
5
13
2
-25
11
8
26
30
13
20
-6
-1
-2
59
21
22
-3
7
6
-14
-20
13
3
40
3
0
10
-4
-5
0
-12
-23
-13
-62
-41
-45
-5
2
-13
-19
-32
-6
-29
-5
13
21
-22
2
-47
7
8
-21
15
-62
15
10
3
10
4
-9
-14
17
3
23
7
21
21
44
-1
-4
4
-30
-7
1
-14
6
5
6
5
3
-11
25
19
-36
-3
-13
-28
42
8
-23
2
68
7
-57
4
18
13
22
-33
23
-10
-5
9
5
10
2
-22
-6
14
-5
-14
-7
-112
-24
-6
12
-17
7
-25
2
-21
-5
13
-8
1
0
-25
-28
-15
4
2
10
6
1
-13
20
-13
7
-48
-22
-1
-1
-30
-10
12
-11
28
-17
16
-40
4
15
-7
-8
-15
-7
-9
-14
-13
3
-11
-55
-14
-1
20
-7
39
-29
9
7
-23
-29
-5
109
1
-14
11
56
-59
-1
-3
31
-20
6
-33
10
57
12
3
-46
-13
-4
-8
21
-4
-55
14
8
9
15
16
-10
1
10
-44
6
-23
-11
-4
-1
-7
-38
16
-19
-25
8
-20
-38
-10
59
-14
-7
-10
0
-4
3
9
-5
-16
-5
-15
-35
-18
-18
24
9
6
-10
5
5
-18
-12
-16
10
6
-20
18
-14
2
12
9
-2
36
20
-6
-8
-26
-42
19
-16
9
-25
2
17
5
6
-5
-37
-25
125
8
10
44
6
-1
-31
-45
-7
-13
-16
-21
-57
49
-35
9
-11
26
-50
-4
7
-10
14
9
-48
-19
6
-20
27
12
8
-22
13
23
-1
-20
-39
-15
-9
15
-40
-22
-60
12
16
-32
30
2
3
-32
39
-49
7
0
-20
5
-11
68
3
7
-10
3
19
8
5
-22
16
18
-24
26
2
-8
6
27
4
-67
30
3
-9
44
0
6
-25
-1
19
-20
-11
10
-30
-8
29
2
127
3
51
-49
-35
2
28
-30
-14
3
-32
-20
9
-20
-31
-36
14
-18
-8
-8
18
-1
-4
-32
-19
-5
8
18
13
28
13
-37
39
-27
14
-3
-31
32
-2
17
-2
31
-18
0
10
3
89
34
43
11
-18
-10
-10
-1
-11
4
-4
-7
-15
1
13
-30
-15
-12
15
2
-10
-32
-29
6
-33
5
-7
-4
-8
9
-7
1
-13
4
12
3
8
33
6
-7
-37
1
2
-13
28
-27
-6
-2
20
-12
-8
10
3
2
7
-6
1
-11
2
-16
-7
-17
24
4
4
2
-9
3
-20
-22
6
-9
-12
-9
-1
-6
4
16
8
-33
-8
18
5
2
30
0
19
17
4
0
-12
6
16
-12
1
-1
-19
7
-4
9
12
-5
5
19
127
3
3
6
42
-2
-37
7
-26
-13
-30
19
28
10
4
4
-36
-25
2
13
13
3
4
-9
0
-16
-15
-8
-15
1
11
1
25
2
-20
-23
-7
-11
3
-7
5
12
-1
-4
-9
10
-12
-2
-7
12
0
-6
13
28
5
10
3
-28
-4
14
-2
19
8
0
11
-28
7
26
81
-4
0
-6
-4
-5
8
7
22
10
-19
-22
-28
9
41
21
-25
1
-29
-15
4
-15
-13
8
13
-9
-2
1
3
-7
37
-16
-6
7
-2
2
-4
10
13
-5
-16
15
-5
7
2
16
8
51
-13
-22
-8
-28
-17
15
-20
-11
-5
-4
-29
29
10
-53
10
34
0
21
0
9
-7
-36
-2
-4
-3
-11
-26
-3
15
2
-7
20
8
-6
1
-17
-17
-8
6
7
17
7
-2
-5
-62
5
0
15
-18
10
-10
25
29
9
5
-10
-1
4
-19
-1
-32
6
-12
10
-20
-22
25
-19
3
2
-20
13
-29
-2
7
-27
-6
10
46
-1
15
-4
-3
-8
-81
-31
13
-3
31
11
-6
5
17
-21
18
2
3
7
58
-4
-18
7
9
-6
-12
-6
-16
3
2
15
-2
-9
22
-12
-11
-4
-17
-2
-1
-16
0
1
-4
4
1
2
12
0
-7
17
-9
-12
28
-2
-23
-8
20
2
37
-13
26
-11
-13
3
-23
-7
43
-3
4
-21
-2
-12
-12
-6
-1
-1
3
-23
-19
-12
31
-4
2
23
-1
5
6
4
10
-2
73
-8
27
11
3
-1
-44
-7
28
7
-18
-40
4
8
-13
-7
-4
12
8
-3
-9
-3
-12
1
44
-2
-29
48
15
-17
-1
-2
13
5
15
-42
61
44
-13
24
2
-2
23
34
-1
35
-18
1
-22
3
10
-22
-21
-2
-1
1
-4
-1
13
11
1
-49
5
15
18
3
-6
7
37
10
-9
16
-2
-18
-15
-32
-15
5
10
92
3
21
0
-1
8
-12
-15
14
20
29
-8
-17
46
-9
-26
-10
30
-9
9
24
1
-17
6
14
-1
-68
-25
20
9
-2
3
6
-20
0
1
-12
-9
12
2
-12
-4
-19
15
1
-8
1
-25
9
22
-28
9
-1
-8
-5
12
9
24
4
12
29
-9
4
7
-4
41
-16
-19
-2
-7
-2
22
7
44
9
-7
10
-57
-3
11
20
-2
0
74
13
2
18
4
41
11
28
5
4
18
-41
14
66
3
13
-8
32
9
9
-3
-2
-1
21
-5
18
-8
-6
-40
7
-3
1
-19
-16
-6
8
-3
-3
61
9
6
19
-4
3
-15
-4
-4
-4
5
-9
-2
10
23
-18
-10
107
2
-19
5
2
9
0
17
-47
2
-1
7
14
11
-4
-20
9
-17
0
2
14
3
5
11
13
22
-14
22
18
-5
-10
24
5
29
82
5
48
3
-11
0
-18
14
-15
-18
1
-10
9
6
-4
-10
2
-11
-15
-9
5
30
-3
2
-12
4
-24
3
1
-6
-5
1
3
19
-17
26
1
-16
11
-11
1
21
26
-1
0
2
13
-4
-5
26
1
7
10
18
-6
3
6
5
-2
9
9
-2
-4
-2
-3
15
-4
7
-8
3
6
47
2
6
7
-8
-19
5
-11
7
-10
10
23
12
4
-4
-5
6
5
-4
-16
5
-25
-9
-6
11
-21
4
-5
8
-10
-2
-1
-8
5
-4
0
27
4
35
-2
4
-13
-13
8
-19
3
13
-21
-8
10
-27
5
3
24
2
12
-14
-8
12
13
-20
13
15
-13
36
1
-1
1
-14
2
-10
0
-2
1
0
-1
-6
23
5
-8
-11
7
0
0
-12
12
5
5
-14
-1
0
7
-9
-15
-4
13
-7
-34
10
7
3
4
-5
4
13
0
-24
-5
3
-18
16
-9
-5
6
24
2
-17
49
-4
-1
-8
-20
2
-35
1
5
-3
-1
10
6
-3
9
10
-2
-7
-3
7
-3
0
-6
-17
-6
-6
12
-11
-6
9
4
-8
3
-12
-4
13
-1
-15
8
1
-17
-6
1
5
3
-11
8
5
10
-14
-7
7
1
5
-6
6
2
-7
5
2
1
6
7
-2
-57
12
-9
0
-7
-20
1
0
-6
4
-32
5
-60
3
-2
13
6
-1
4
10
-18
-4
1
1
-3
11
-12
-17
6
-52
-2
2
5
-2
-2
-24
-3
-2
-11
-11
24
-20
9
6
2
-26
16
-44
-9
9
6
6
1
10
2
2
-3
-15
-5
-2
21
5
4
-13
-8
13
-4
3
5
9
16
12
4
-3
3
27
11
-14
3
7
-4
6
-11
2
10
-5
-16
3
7
-22
1
-12
-15
-9
-1
-1
-3
18
-3
4
8
3
-4
-2
-17
-5
105
0
6
-7
-1
-77
-5
3
3
-8
-6
-8
3
4
-6
6
-1
-2
0
1
-1
-1
7
-22
-32
-14
1
-40
-3
43
0
-14
1
0
-13
7
20
0
4
3
-12
18
-2
-9
0
0
-29
-6
1
-2
16
0
6
-7
-17
-10
-2
-2
-6
-2
-6
-3
7
-42
6
2
-5
0
-6
1
6
-9
-2
-5
-3
7
-14
2
-6
6
11
4
1
2
16
-18
-3
-18
0
3
-5
15
-1
2
3
4
19
5
11
11
2
-6
5
-8
4
-11
29
2
-18
-8
-1
34
-2
2
11
0
2
3
0
-4
3
6
-31
-3
-127
-3
-4
11
3
4
-2
-9
0
17
-25
-6
-11
71
12
-4
4
-5
29
1
-5
2
1
0
4
-6
22
-12
-5
0
4
-49
-12
8
-16
-9
19
-2
2
-51
-13
-9
-20
-6
-4
-15
9
13
5
-18
-1
-7
-4
-22
-11
-10
10
1
-21
10
-18
0
2
2
-1
2
-3
-6
5
7
11
-9
-8
1
5
12
2
3
18
12
-5
11
3
-31
5
2
34
-9
11
8
-13
0
5
-3
-3
17
30
-2
4
3
-12
-30
-1
0
2
92
13
20
26
-2
-24
6
-10
6
-17
-4
2
-2
-17
35
6
-8
-7
-7
-14
-9
-2
3
2
29
10
-1
-12
10
-4
0
-5
9
-2
-8
-6
3
22
0
4
11
-7
17
-9
4
-6
-11
-14
-8
53
11
-6
4
-22
-2
-22
4
3
0
31
-7
3
-19
-6
-10
-3
1
-6
-4
2
-66
3
4
8
10
-2
-5
11
10
-7
9
5
-18
-3
-2
-26
4
-14
-2
1
-4
20
-9
-9
14
5
0
1
19
-2
20
9
-18
63
68
-6
-6
-23
6
-29
-6
-13
-4
7
-3
11
53
11
44
-38
-30
15
-81
-18
5
-6
27
33
-1
-19
-8
3
4
-32
-44
-56
77
-82
-11
0
48
-15
15
1
5
54
13
-8
3
-25
10
-10
-34
31
25
-2
-34
25
18
29
-1
11
1
18
-1
-11
-9
10
-12
14
-17
-30
10
18
-17
21
-11
-45
-2
7
-4
-29
4
11
-7
91
11
8
-82
-47
-17
8
0
-6
-6
20
17
18
36
16
-21
52
12
-4
34
-14
23
-1
-10
-28
18
33
-6
13
6
-25
-33
78
4
5
46
12
-13
13
7
5
7
12
-4
37
-42
-10
17
7
-38
12
24
8
7
20
-33
13
8
15
-1
-70
39
40
17
37
2
-6
22
9
-32
-16
-10
7
9
36
-41
2
-11
20
-22
125
-4
42
-31
7
-13
39
10
-19
40
0
26
63
16
-31
6
14
39
18
22
17
16
16
16
-12
-5
3
11
-36
9
19
26
-7
-22
-5
-12
-11
18
40
-42
-10
-6
45
-5
7
-22
1
0
9
43
4
0
-5
-16
21
7
8
-14
-17
58
5
-9
38
28
7
-13
7
13
-5
-16
57
-9
-20
1
-7
-18
32
-24
-29
26
-31
4
-53
8
-20
17
16
36
7
-15
17
70
13
21
2
6
13
-1
-61
29
-3
15
2
-23
7
-8
17
33
21
5
18
-58
17
35
21
9
5
11
98
5
21
29
-15
9
41
-13
-6
3
-21
13
12
32
-13
16
3
14
-50
-35
-10
55
7
-16
-44
18
25
-1
0
33
-6
-19
-14
-15
-28
-9
-27
74
-27
8
-55
2
18
27
61
-5
61
2
19
114
-33
-29
12
-14
-26
10
-28
13
33
-8
53
15
-41
-14
-12
111
-13
-4
-4
-35
6
28
-15
8
13
-21
-22
13
-2
2
-3
-31
5
-5
63
29
-4
0
35
27
7
-32
24
21
-16
2
80
58
14
74
10
30
38
14
-1
-3
-26
4
-1
-21
-34
14
26
-52
-7
-21
25
5
30
-11
9
-1
-13
-49
-4
-43
12
12
3
27
32
100
5
13
-31
-34
28
19
17
35
18
-1
-7
-8
-58
19
14
-26
-4
-29
11
6
-39
19
10
11
22
-10
-69
52
24
-30
44
-13
-1
-1
4
14
8
-20
24
-25
-9
75
24
2
2
2
5
-53
7
0
124
25
21
16
56
-15
14
13
-18
-18
9
-66
35
-26
-34
-5
43
18
18
-22
6
26
2
21
-13
-14
4
-24
2
35
29
11
22
-41
-73
-127
6
9
50
-1
9
17
-54
23
52
6
-44
27
95
-18
8
42
11
1
7
73
5
-10
35
-13
13
-10
-27
13
-10
6
13
-31
12
23
33
-7
31
46
31
-22
16
-4
3
116
18
-22
16
-20
-10
-70
-20
-26
19
29
-6
16
-44
22
-12
-37
12
-36
45
4
43
15
1
-57
10
1
10
-8
13
39
-17
3
-29
21
2
32
5
7
-7
-3
38
19
-31
5
0
16
7
-56
-4
3
-43
-21
23
-34
61
-23
-36
21
44
3
-8
-2
-5
-7
10
-8
65
-19
36
-18
4
-16
-1
-14
-18
-18
3
-25
-26
5
29
94
29
13
68
0
41
-17
18
-9
9
5
-11
-11
-4
-69
11
10
9
-7
90
-10
12
33
-23
-21
16
-9
11
60
-9
27
-42
19
20
12
18
24
-27
60
-26
-74
-23
18
-35
22
0
30
4
-1
4
7
10
47
-2
3
12
7
18
-1
-1
-4
1
-8
-6
-13
8
27
-8
25
-12
-9
13
-24
-15
-7
0
3
6
10
6
32
-3
23
4
-42
-26
7
-7
12
-12
4
9
1
4
-2
-6
-1
-1
17
-1
3
-8
-25
-33
15
16
14
0
-6
-26
18
-9
-13
-28
4
8
-8
-10
2
12
8
5
-20
28
-17
-10
-2
5
-5
-4
-6
2
-8
5
7
-36
-8
8
0
14
-18
14
-6
-14
-13
12
27
-1
-28
-23
-33
-1
-14
-12
3
-4
27
11
-19
5
16
50
12
35
21
-1
-16
-8
-14
-12
-12
-1
-2
5
-3
3
-3
13
-48
2
1
-1
-10
1
-5
-18
44
12
8
-19
13
-41
-36
27
13
-20
4
-5
20
12
0
23
-8
9
14
-6
-23
6
21
-34
1
-24
41
-21
-25
-42
-44
35
4
-1
-4
-15
12
0
8
-13
2
-19
8
-1
-8
0
-3
16
25
-13
5
1
9
54
10
-24
0
4
5
-9
-11
5
-1
-30
4
1
11
8
5
23
-19
-10
-4
5
3
1
18
-3
39
-20
2
39
20
1
34
5
14
-6
-13
-6
1
2
3
4
-9
16
-13
27
6
8
10
1
-29
7
23
23
39
-37
-10
-49
-23
22
-5
0
-2
15
7
-23
-2
1
4
-11
6
-18
35
4
-18
-10
-3
-5
11
29
4
-16
5
-14
12
-43
-10
-6
-59
2
55
0
-5
-3
0
15
-5
-2
-20
7
0
-11
-27
-49
11
26
-25
-25
-6
14
39
-8
18
2
5
-5
-7
7
4
23
-23
-5
10
11
14
16
-7
3
13
50
-12
-16
-13
-3
-1
-15
18
-11
-46
-2
-14
9
6
8
8
0
8
-6
-13
31
20
23
-6
-15
29
-6
-21
5
6
3
-1
4
-3
-3
2
-9
-9
3
1
0
-16
-17
2
7
-10
-12
-6
-6
-3
-1
-18
3
35
-3
9
1
-16
4
11
18
9
8
9
11
2
12
-16
-3
5
2
-11
-2
7
5
-30
-37
-14
22
4
-13
0
8
21
-1
-21
127
-19
-8
-12
-2
14
-6
-54
4
9
13
2
-7
40
-1
3
32
-4
6
-2
10
5
16
49
-1
29
19
3
-4
4
-6
3
-2
-4
-11
-25
16
-14
4
4
9
-7
-29
5
-1
7
10
12
13
-6
5
11
0
-8
1
6
2
-4
-5
1
-20
6
4
27
-4
0
-7
26
-6
27
-13
3
4
-58
-18
1
5
-25
-15
-1
0
6
-6
4
9
4
12
-4
2
1
-21
10
7
-11
-15
15
-42
-1
14
6
-7
3
34
25
-54
11
8
-11
13
-7
-12
-34
-21
-16
2
-21
1
-4
34
-18
15
7
5
-3
-13
11
26
2
0
-2
-16
50
-9
-45
-17
9
1
3
-5
2
5
12
29
-9
-20
11
-41
-18
-6
3
-6
-11
7
-10
9
7
-29
52
65
-2
-24
-12
5
-5
7
26
13
-30
6
6
-6
6
22
-10
0
-18
-21
-17
12
-1
-4
1
9
-34
-27
-23
-2
1
24
-60
2
14
2
-22
2
4
-12
4
-9
-11
5
-1
-21
15
-20
11
7
-4
-11
1
-1
39
3
-6
-28
-1
-17
6
43
4
40
-10
-99
24
10
23
-3
-1
8
-7
5
-1
-4
25
1
-31
7
-6
-3
-8
-3
11
3
42
-4
2
20
-7
14
12
-34
-9
31
-1
-1
-5
19
22
41
59
0
2
2
-11
-3
-4
10
-15
8
-5
5
-12
12
4
9
5
14
-8
5
11
-4
-23
14
3
-2
8
-7
0
-10
1
3
-20
4
5
-1
-5
5
-10
29
-15
-13
-13
21
16
-3
16
1
0
-20
9
6
7
-7
-4
11
-2
7
14
-14
0
6
33
-14
12
-2
-5
17
11
-23
-9
-1
-5
10
-3
2
-4
6
-4
-4
-1
-2
5
-18
7
-12
-4
8
10
5
-4
-13
3
16
70
32
-4
8
4
14
27
29
-2
-18
16
1
-9
8
9
11
-127
2
1
9
-5
-6
-2
-6
17
-7
26
-5
-23
30
-23
-1
-3
-4
-1
-12
13
8
2
2
3
12
4
-8
-7
-11
6
1
-13
11
0
-5
-30
65
-1
9
7
18
-43
18
-6
-3
1
2
16
6
-4
18
1
19
-15
-12
3
-7
-7
4
1
-60
-14
-15
-24
4
9
-21
-12
8
-10
-5
-11
-9
4
13
5
-7
-10
9
-9
1
19
1
2
6
1
12
3
30
8
-7
17
4
4
-2
5
-14
2
-33
21
8
9
-16
12
-11
4
4
-10
2
-10
5
12
-2
-18
4
5
12
-5
-20
21
0
-8
-18
5
-11
-1
7
4
0
-14
-24
11
17
6
12
31
0
-6
5
15
-12
20
16
5
-13
-19
25
-11
-9
-1
5
-4
-6
1
3
2
-1
7
10
-35
8
3
-3
1
5
7
-10
-12
-6
-3
-17
39
-2
-1
12
4
6
0
-2
1
-35
24
22
-14
-9
-9
6
10
3
26
-31
4
18
5
-6
0
6
-8
16
21
0
-5
-7
17
1
0
-8
14
-3
16
-10
-15
1
2
23
4
-23
-8
3
-3
8
-20
-18
-4
4
3
5
-11
-1
-5
2
-3
-5
0
12
4
29
5
-3
19
-18
-11
52
-33
13
18
2
20
7
38
2
-9
13
-3
8
10
2
4
-6
-2
-17
4
20
-16
1
-5
7
0
1
-8
7
-2
9
-5
-12
16
4
-12
11
-4
5
-10
18
-4
18
11
2
-10
14
13
1
-7
1
-7
-1
1
-31
14
0
-11
-10
6
12
1
17
1
-3
-8
3
47
0
-25
21
-28
1
-5
6
3
-6
-1
8
-12
7
-12
7
-9
10
-12
23
16
19
-5
4
11
-25
9
0
-4
-20
21
-2
3
-9
-13
-9
2
6
30
4
9
-1
2
13
-4
13
10
6
-1
5
2
-24
3
-12
7
-11
7
2
1
2
-3
0
-9
-1
-5
10
-17
-7
3
3
-13
15
-2
-14
-1
-4
-2
2
11
-5
-4
-17
-9
3
-1
17
58
16
-2
-17
1
-14
0
15
-3
-5
-20
13
-8
23
2
4
4
0
11
0
-20
-7
9
-14
5
-21
1
6
-3
7
7
-3
5
10
6
24
-4
-10
62
0
-4
-3
-3
2
-9
-12
9
-5
24
18
27
5
14
-12
6
3
-3
-18
-6
-4
14
5
-5
-2
-5
-35
5
-7
19
0
-18
-10
-18
11
-13
-8
1
-5
-1
-7
-15
23
-9
3
0
-13
22
8
17
6
-7
-22
7
-9
11
-11
4
5
-8
11
2
4
2
3
-1
-3
4
-26
-2
-10
14
27
-10
12
2
9
10
0
-17
-6
1
-4
-6
-10
2
0
10
21
3
-23
1
-6
8
5
-20
18
-10
18
16
-1
-8
1
-14
-5
-6
-27
-19
-16
-14
5
-10
0
-25
-4
-5
7
31
14
-4
-12
7
4
-6
-5
12
-9
-24
4
-12
7
-6
7
-2
5
-5
23
13
-1
27
3
0
24
6
-13
-16
2
6
20
-34
2
3
-9
11
-16
-7
-7
-5
-3
-10
-9
0
-6
0
-20
-20
9
-23
-6
13
7
40
-3
7
3
-4
1
6
-35
1
3
-4
-1
-5
-3
42
10
1
2
24
6
2
0
-14
-5
-4
9
-8
-8
13
-7
3
9
-1
-8
10
-6
16
-20
1
-13
18
-12
-2
-27
9
-1
-10
-2
6
12
-7
4
18
5
22
14
19
-1
5
-3
-13
1
-28
1
21
-4
66
2
-6
4
2
-6
24
11
-2
7
1
4
-20
-24
-2
-6
0
5
-19
-3
1
0
-3
3
16
8
0
-2
-4
20
25
1
1
-1
9
2
-2
49
-4
-11
1
-13
-2
-13
-7
17
13
-11
-19
5
-10
15
13
0
6
18
-9
19
-2
-7
-17
15
-11
-16
-24
-9
-19
-8
-12
15
-4
8
-13
4
-8
-7
6
0
-2
2
-11
5
-18
-3
22
-6
3
7
15
-4
-10
28
3
-7
5
-16
-7
-13
-3
19
-32
-1
14
0
14
9
-7
-12
-1
0
-3
2
3
-4
3
9
-7
8
-12
-22
-18
6
-7
-2
13
16
-1
6
8
1
10
-31
1
13
-6
16
22
-5
-6
1
1
4
10
-4
4
26
19
44
-1
-11
-7
22
-8
-3
-2
3
1
0
1
16
-5
1
0
-3
-6
0
-6
-37
-12
-3
3
4
13
21
17
-10
22
7
11
5
12
4
7
28
30
1
12
-1
3
2
18
-7
14
-8
-9
3
-10
-30
15
-6
-3
8
5
-7
13
8
13
-12
22
-2
-3
-21
19
0
4
8
-13
-2
11
-3
9
19
-6
15
3
-15
12
4
17
-14
-10
-4
4
-11
4
2
5
-4
5
1
18
40
-27
49
-22
-6
-5
15
0
6
8
0
3
20
6
17
5
0
37
12
18
7
13
11
-33
1
20
5
9
4
18
-6
-1
1
-5
4
-6
15
14
-5
-5
6
4
4
-4
-17
17
5
5
0
3
-1
9
0
-1
3
4
-2
-5
22
11
-3
-9
14
10
-4
15
0
2
-8
-18
5
7
-10
-4
18
9
11
9
18
10
0
-3
16
4
-5
-16
0
-26
40
14
1
-1
1
13
8
15
-12
-44
-1
19
0
-2
17
25
24
-4
-8
13
-3
-8
2
3
-6
-16
-13
-4
4
-26
12
-6
45
2
5
3
25
1
11
2
6
55
8
-26
0
-2
-8
11
1
-7
13
4
-4
6
-14
-2
-7
-5
4
51
-7
3
4
-10
14
6
9
77
3
-16
-35
-2
11
-42
-10
2
2
-17
-17
0
-3
5
16
6
12
-6
-4
0
4
13
-14
11
-2
10
6
25
-4
8
11
22
51
4
6
3
-12
27
2
20
15
4
4
-14
34
5
14
9
7
2
-3
3
-13
11
6
14
10
-6
-9
13
11
2
2
57
5
7
0
-34
8
-6
6
18
12
30
-2
3
22
12
-14
7
7
4
-1
-3
10
1
-8
7
0
-11
-20
-1
-1
-8
-27
-2
2
-14
20
-50
-14
3
-11
0
8
-30
-21
-7
-18
-16
-3
-8
7
6
-1
-6
1
-16
-1
1
-25
-18
5
4
-41
-17
22
16
11
-13
5
4
1
20
1
-2
0
0
-6
-22
2
47
18
12
-8
3
-9
27
2
2
5
-5
-8
-17
16
27
-9
7
26
0
-13
-18
-10
4
13
127
9
-5
-31
-40
-42
-31
-20
-6
-32
-2
3
-11
-4
4
42
16
63
-37
9
22
-5
74
-8
34
-16
-26
-44
87
-12
16
9
0
-4
-8
6
-2
-16
-11
31
17
14
18
23
51
-10
42
17
39
-35
-34
-14
3
-16
-8
33
39
-2
29
21
-1
6
-45
-17
17
-2
20
64
9
-25
-47
-9
11
-24
27
16
-16
0
0
-4
31
16
-11
23
34
4
-4
-5
-3
15
-45
0
1
-12
106
36
13
5
-34
-11
14
15
6
8
-1
4
3
-71
-10
-9
-62
13
6
22
5
18
-6
-8
7
4
19
2
-2
45
7
-6
15
15
8
-30
4
12
3
16
53
13
17
-30
24
25
-53
-33
19
-6
7
26
38
85
10
16
-9
91
62
9
4
24
30
-3
10
10
-28
-9
32
28
41
-44
0
21
-1
63
9
-21
-7
-8
16
-21
50
-38
15
-47
12
12
9
-4
38
-42
5
10
-9
9
-1
-16
24
-1
8
23
-8
0
1
54
9
4
9
-5
-9
-48
18
28
-30
-24
-13
4
19
-36
1
22
4
-1
-17
47
-17
5
-2
-26
14
-24
-5
-40
-18
31
-22
17
10
10
4
16
-6
24
18
2
-36
-53
11
-23
-16
1
-53
-22
-25
28
-34
19
-29
-29
22
27
-10
-29
14
76
8
16
-38
-18
3
1
0
-11
21
32
-16
3
-25
21
0
-14
-3
38
-16
-14
-5
-25
-29
17
1
-43
-55
19
32
13
13
-48
62
8
11
-4
-5
10
14
31
126
-8
-9
31
14
-43
-18
-29
-12
15
6
9
-31
16
39
6
11
-11
0
-17
17
-20
-13
-3
11
34
52
35
-2
37
15
8
-18
0
6
2
-15
-11
-40
3
4
7
32
15
14
21
-22
-4
14
-28
23
-70
21
-46
0
-17
-33
15
44
17
25
5
-3
33
-25
36
26
19
48
-16
-2
3
0
7
-1
35
-20
17
42
12
11
-4
-25
-30
0
-20
41
7
86
10
-21
12
-15
5
1
5
-9
10
-23
32
17
-9
8
-9
-6
-2
15
-18
17
34
-34
2
-11
-24
-7
35
32
-16
-29
8
1
-11
-35
7
3
36
51
19
0
26
16
28
-41
35
2
7
35
2
18
-13
88
7
-8
21
-18
-71
-3
32
20
6
21
51
-11
3
-22
47
10
0
29
-17
0
4
13
27
-23
3
-50
11
-26
39
19
119
13
-18
21
-15
1
15
-8
1
17
-2
-1
-15
-20
49
36
37
0
14
-8
-3
4
-11
22
7
-4
-13
60
44
36
-9
39
20
-10
-38
-50
16
-5
64
3
60
23
22
7
29
-4
12
-11
-21
8
25
49
28
-24
-24
-65
-15
15
-33
6
-42
20
16
66
1
-6
-3
30
-20
18
-31
12
-15
-5
7
14
-3
21
10
40
1
-33
19
2
-27
-89
11
-2
12
12
-2
66
10
11
-16
-15
-11
29
20
-15
-47
11
-14
14
-4
-34
-3
-19
-37
60
-2
6
6
8
-27
-8
-11
-6
9
27
-21
-7
34
14
25
-1
19
1
11
-8
13
38
7
-8
-13
-83
-16
7
-7
12
27
1
-30
-7
-33
-18
45
-15
24
-23
-28
44
19
11
6
-11
-2
-16
3
7
-6
6
49
3
50
14
35
-14
15
1
23
-30
24
10
-16
-12
7
-33
13
-15
9
-38
-23
-71
-26
-38
9
4
0
-27
8
59
5
26
51
8
7
-15
-23
30
-27
127
48
27
56
-24
-19
-2
7
2
-2
13
7
28
-11
-4
20
13
48
19
3
-3
21
74
36
-5
17
31
7
-66
17
-49
18
59
2
9
-16
2
-18
-82
9
59
0
-19
34
-90
-63
-33
6
13
26
-40
-13
-2
27
-9
-2
14
-3
31
41
-1
10
-122
8
5
16
32
-13
4
37
-8
-19
15
35
12
8
12
-24
17
39
-17
18
2
30
31
1
-20
21
12
-25
-1
-20
-24
-5
-57
9
126
12
36
-2
-53
-14
0
0
13
6
2
-44
10
-45
-19
1
0
3
-18
23
-22
-2
-1
14
-30
-12
75
-19
10
-22
-57
-1
-11
-8
-33
8
-9
16
15
-2
0
-16
16
8
-47
-7
61
6
8
-5
18
-60
10
1
-3
-39
48
-29
-9
5
-9
-29
44
12
5
48
36
31
27
-1
-34
4
-5
-6
-28
-2
-8
17
21
-43
18
6
-25
-12
-1
46
8
-17
-1
-61
12
21
-7
17
-19
15
5
-4
4
29
22
-40
19
37
10
23
-32
-36
8
0
-1
-11
-29
49
-10
4
-18
-43
-4
22
-12
2
-17
-13
2
9
-3
-45
-17
0
4
-12
-23
29
-32
10
39
-3
-6
-19
3
17
10
-10
-6
-54
3
-54
-29
16
29
-17
20
5
24
36
3
-48
-11
-54
-29
34
45
-4
-9
-20
10
34
2
-2
1
-20
-1
25
-17
4
-5
42
0
4
-3
34
29
53
10
-18
-29
49
27
-10
-2
4
5
6
-18
-2
-23
14
20
-5
-7
-1
3
-4
11
1
34
41
23
-10
19
-82
-39
-7
12
22
-9
-7
-24
35
-21
35
-6
-23
-28
43
6
-7
7
-37
-60
10
-8
-4
23
15
6
33
5
31
1
-13
24
-12
-15
14
-52
14
15
-21
10
-2
-11
35
1
-82
-14
-79
-21
5
-9
10
26
-1
-15
-21
15
-24
-11
15
7
0
-43
2
-7
64
-9
-58
25
-15
3
7
-10
11
-31
1
-24
14
-8
-52
3
4
-10
18
22
-26
-4
-7
12
-19
7
-21
36
7
-16
34
19
-47
22
-11
5
4
-11
-33
11
10
-52
13
7
28
-3
-11
-8
-4
-41
4
38
13
31
-39
27
18
1
-4
2
0
-32
80
25
4
27
32
-15
13
-16
-12
-1
-2
-38
75
-19
25
-18
30
-35
-24
-12
-12
31
-8
19
-31
12
-37
-11
2
63
-27
4
-13
-41
8
-9
-11
3
21
9
21
3
-1
2
11
13
8
-78
16
4
2
-16
-12
-48
13
6
8
16
-22
11
20
-3
2
-12
-14
-30
-51
12
17
18
-17
12
-4
-74
23
24
-127
1
-3
-46
-25
-11
33
36
-25
-21
-1
9
-9
-29
-5
22
-4
-2
25
-38
16
-5
-13
14
11
-14
8
-30
-3
-5
19
-10
-16
16
12
-37
13
99
-2
-9
16
40
-14
5
-4
18
-12
21
14
7
8
-26
26
21
24
22
23
38
9
53
-21
16
63
17
33
-25
19
-8
5
-19
-29
-72
-53
2
-29
19
-9
60
-84
-9
-9
-15
-37
-29
7
46
13
-28
25
-10
30
-26
-58
90
6
-28
79
1
-11
5
14
5
7
8
-17
14
27
10
-13
14
-18
35
-9
1
-8
61
28
-9
-20
0
0
15
82
77
-30
5
-8
-21
39
-39
-4
55
3
-7
12
4
-18
-29
-2
64
-11
-15
68
15
-3
67
10
-14
-26
27
-16
-10
10
0
-12
17
31
13
-3
-4
10
-16
24
-91
-41
-33
-5
11
-20
-2
1
-7
0
-7
1
2
-1
1
-7
5
3
14
1
1
0
-15
2
5
-4
-6
-11
6
11
6
3
6
4
0
6
4
29
-4
-2
-4
-7
2
-15
-4
-8
3
2
1
1
-2
-1
5
7
8
-3
1
4
-3
-12
0
5
-3
-11
1
-3
-14
-6
5
-5
6
2
4
17
3
-2
4
2
0
5
3
1
-6
12
-16
5
-5
4
2
-3
4
-10
-4
-3
3
1
-5
-4
-2
-3
-3
1
1
1
0
2
7
17
7
-6
9
2
-8
6
-1
-2
6
1
8
-7
-4
-5
-4
3
7
2
-11
-1
-4
-1
-15
0
6
-2
-7
0
18
2
-7
2
-20
0
-7
7
0
1
15
-20
0
9
-10
21
-30
11
4
-4
-3
-1
0
6
-2
-4
4
7
-5
-1
5
-1
-1
1
-2
-17
5
-2
-10
-14
-1
-6
-9
12
-11
-5
8
7
1
10
1
-2
-6
0
1
-2
-1
-7
6
4
5
18
-3
2
1
-18
-4
6
1
6
10
-8
8
-5
5
3
5
-3
1
-1
-2
2
-4
2
-1
0
1
7
-9
6
6
8
-4
4
11
0
-2
4
-2
2
0
1
-1
-2
-5
-9
2
6
3
12
5
-1
4
-4
4
11
-9
5
4
0
-7
7
-13
-4
0
7
4
-1
7
1
-2
5
-8
-5
5
-3
-10
2
-1
4
2
8
-5
8
-1
-5
16
-3
1
-1
7
-1
3
-8
-8
-11
6
-15
1
1
-12
-3
0
5
4
0
-2
-6
10
-15
0
6
-3
-4
-3
1
2
-2
-5
2
-4
6
21
2
-1
0
-1
7
0
4
-21
10
-2
-2
-13
3
-1
-1
2
-3
13
1
4
8
10
0
2
1
-2
-1
2
6
3
-3
6
-11
-7
13
-17
1
3
-1
3
0
0
1
1
-3
6
2
1
-1
-4
0
2
-10
-2
3
-1
1
-6
1
-4
1
18
7
-6
-5
-14
11
14
-2
-1
-4
0
-2
0
7
-2
-14
-1
-7
7
-8
-2
-4
-15
-5
-7
-6
-1
3
7
-3
-6
-1
-3
-3
10
-14
-2
2
-3
1
1
0
-16
1
16
2
-14
-1
0
1
2
0
5
-24
-8
0
-17
1
2
-3
1
1
-2
-1
-2
-3
-8
-5
-17
-1
5
-2
1
2
2
-15
-1
5
-3
-2
9
2
-2
10
0
-1
1
0
12
4
-4
-5
0
-3
-1
-12
-7
0
0
-1
-19
-4
-10
1
-3
16
1
-8
1
0
-3
-7
0
-3
0
0
-2
5
7
-4
-12
2
-2
2
6
-1
-11
-6
-12
-2
1
0
9
1
0
1
1
-4
-3
4
9
2
-4
-4
3
-2
-8
-2
3
-1
-1
3
-3
-5
-1
-1
7
-1
6
16
-2
12
2
-5
3
-13
-2
0
-8
1
3
14
0
-1
3
-5
-12
1
2
-10
5
3
-5
6
2
-8
-14
-8
-4
-2
-17
4
8
-15
0
1
9
1
-2
1
6
5
1
0
1
7
-7
0
0
1
1
-3
2
-1
8
-3
1
-2
-6
-1
-2
3
10
-1
6
-3
127
-3
-1
-2
-1
-1
3
-5
-4
-9
2
-4
-8
-1
4
-2
0
1
-24
1
-3
6
3
18
2
15
0
2
0
-28
0
14
8
-1
-10
-1
-10
2
-4
5
2
-2
-8
-1
6
-14
-7
-2
-6
2
-2
1
-10
-1
5
-4
-8
-7
0
-4
-1
-4
4
2
-5
-5
25
-2
11
22
6
0
22
-14
-11
16
54
4
-49
5
1
12
-3
8
1
-3
7
10
-15
-13
9
-14
7
-9
-56
-5
-12
-2
-2
-88
15
-3
2
-9
-53
-6
53
-9
16
-2
-26
-1
3
12
4
-10
11
-50
-6
-9
8
-5
5
-9
8
21
3
-10
0
13
13
10
12
-8
-3
-20
-5
12
5
12
-2
5
-2
0
-3
2
-8
9
-29
-26
-1
1
19
-27
-14
-3
-10
8
8
6
-2
-6
-19
31
8
-9
-8
20
5
-30
-6
1
-44
23
17
-4
-9
10
7
13
-6
106
-112
9
-4
-17
49
22
-9
-9
-1
6
10
1
-3
2
11
2
6
4
-1
4
4
15
-12
26
-16
-1
-44
8
1
16
57
12
7
-17
-2
-10
-17
9
-42
11
-2
6
33
18
-2
-1
6
5
-17
27
-1
7
-20
-5
9
46
-5
23
-20
-28
-8
12
-6
-35
-22
-1
6
-3
-1
14
1
4
-17
11
9
6
26
-20
6
-21
-7
11
-4
6
0
24
0
26
-9
-9
-19
9
1
-19
20
7
-18
6
-1
-8
2
-3
-4
-4
0
1
-12
-7
-25
-3
12
-10
14
3
-16
5
-9
22
1
-8
-1
13
6
16
2
55
-4
-126
-12
-8
-1
2
34
3
-26
-16
-3
-16
0
-4
-3
-20
-83
1
7
21
52
-9
-8
0
-2
0
-21
23
-17
7
-43
-9
-5
6
-1
-23
15
-15
-1
15
18
53
-9
32
28
6
-14
2
-18
-33
-1
29
10
6
-13
-6
0
4
13
12
20
3
6
-6
-3
65
31
-18
0
5
0
-2
-8
-6
3
-6
2
2
8
-44
18
-4
2
-5
-82
50
-13
16
-28
2
-15
8
20
-8
-16
7
13
3
-15
-4
34
-16
6
-10
8
-4
-1
30
-5
-13
-10
8
-17
-4
12
-7
17
-2
6
7
-4
0
-6
-2
2
-5
14
16
-4
11
-19
19
34
-15
-66
6
103
2
13
-16
26
1
59
-15
6
6
26
-9
4
9
-5
10
-8
-26
-2
11
33
-15
16
-3
-21
13
-5
1
2
5
-4
0
0
4
7
-20
-17
0
8
4
7
6
10
0
-6
-8
20
-21
49
-4
7
5
7
6
-5
-6
-76
6
30
1
-9
-16
11
-5
0
-1
-4
-10
53
5
-11
-9
-6
20
6
8
-12
-22
1
-23
35
-14
8
5
-18
27
18
-3
3
7
25
1
4
-106
7
38
2
15
10
5
4
15
3
0
31
3
3
-9
12
52
-7
9
2
7
2
13
2
1
5
23
-18
7
-15
-5
-7
-13
12
-3
1
3
-5
-14
-3
-24
18
-8
10
-11
-17
10
14
5
-5
1
-15
8
-24
-12
-5
13
0
6
3
2
-5
-76
16
1
3
2
16
24
-9
14
0
33
20
-7
-11
2
-23
1
-32
-13
-8
-2
-16
3
-46
-1
11
6
-2
2
22
-23
23
5
-127
21
-28
35
-7
-6
25
-11
-21
8
0
2
-61
-2
23
71
-5
-26
-1
9
-3
-4
7
-20
14
7
-12
-5
-13
-1
-45
11
5
28
5
12
-2
18
21
40
-2
29
0
16
25
-4
25
-22
4
111
0
3
-5
7
44
-5
2
-5
41
10
-6
3
-6
-14
2
-1
-27
-3
-3
-27
-7
-5
2
3
-17
-15
6
-2
-18
11
-9
7
-7
7
-10
15
-3
1
-10
6
16
-8
10
-52
6
-2
1
-33
9
17
6
-6
-3
5
18
-4
24
-2
47
-24
-30
12
-18
3
1
17
-9
8
-15
-4
2
-9
5
1
-3
2
-1
7
-38
13
20
-2
-2
-4
26
9
-2
4
16
-2
-5
3
-9
-4
-6
-16
-3
6
-11
2
-2
-3
-11
0
-7
3
-8
11
-4
-8
-2
-1
-2
4
-8
-12
1
1
-4
18
7
-8
-11
-12
1
21
-8
5
-5
-2
2
5
-3
-9
-1
-12
-8
-4
-8
-14
9
-10
4
-12
-2
6
-1
-26
7
-15
-13
11
9
2
3
-9
10
14
10
-12
-12
1
-8
-10
15
6
4
-3
2
-7
-3
-17
-13
8
-7
-2
-16
-31
11
-4
-9
-17
-41
6
3
13
16
4
20
3
14
0
-2
16
7
51
32
3
-18
0
1
-1
48
-5
1
-8
-8
-19
9
-1
0
-16
-10
8
-2
3
0
7
-3
-14
-10
-11
6
-8
2
-17
3
64
-4
12
7
-5
-24
-19
1
-16
-2
10
-6
2
-5
-23
4
-6
0
1
11
-6
-10
-2
32
-5
-4
-2
9
-7
1
4
1
-4
-1
1
-7
-5
1
18
-1
4
-6
-1
-4
-2
2
2
1
-24
-6
3
2
-14
-12
1
-2
17
4
-4
0
1
-20
5
9
-11
1
6
4
2
8
-1
-1
4
16
5
25
9
13
-1
10
8
-17
-15
-3
-43
-8
4
7
1
-1
5
-15
-5
-5
2
1
0
-16
-22
-7
6
-5
-6
6
6
4
0
-1
2
0
-4
4
-13
5
12
-9
4
3
-12
33
52
-17
-11
3
5
9
7
2
7
36
3
-29
0
0
22
-12
-3
16
-9
2
4
-7
4
-17
3
11
-4
-7
10
-7
-5
-5
-1
2
-17
20
-28
-10
-8
-7
5
16
-11
-2
9
-16
1
-5
-6
10
5
36
-6
3
-11
14
-11
2
-4
10
10
1
-11
-18
3
4
4
-10
-1
1
-6
-1
5
-6
9
3
-6
-15
5
-8
10
4
-3
-25
-6
18
1
4
-1
-22
-8
-5
-12
18
22
-12
-3
7
11
7
-4
-2
2
3
-8
12
-3
1
-5
7
6
2
-12
3
1
-2
11
13
-12
1
-7
78
9
9
-18
4
-2
-7
4
14
1
8
15
4
-4
12
-1
5
-3
2
-6
-22
7
1
9
-11
5
-10
-2
-11
-1
5
-1
13
30
13
-30
-27
-12
-13
-3
-5
-4
8
-6
1
17
-6
1
-1
12
16
20
1
8
-12
4
-23
3
0
3
4
5
0
4
4
2
5
7
-12
0
-15
-1
12
-9
-20
18
-12
5
8
41
5
9
1
-6
-3
2
-11
17
-2
8
-2
-12
-7
-8
-3
0
-2
40
2
29
12
11
1
-3
-5
35
-7
1
-11
2
6
1
-3
-18
11
2
-15
4
-6
49
-2
-5
-10
7
15
3
-5
7
-11
8
-12
22
6
5
-2
13
14
6
6
15
6
-1
-10
7
127
7
9
11
12
6
-5
2
-11
-1
11
-4
-37
31
-22
-4
7
9
8
1
-1
4
-11
12
22
-14
2
-28
8
-6
-16
0
6
-13
-3
-18
-4
-3
5
-14
33
4
18
-7
-2
30
27
7
5
12
-7
-19
7
10
-10
-7
-19
1
0
6
-3
4
-8
-8
-18
-3
3
-12
-11
-22
13
5
-2
59
3
46
8
-14
4
-7
1
12
-1
2
6
-23
-5
0
-6
18
-3
1
-48
5
10
15
-6
2
2
1
11
13
3
-13
7
6
-13
-27
-9
10
8
11
-3
0
-9
4
-8
-8
5
4
-28
4
20
-1
13
37
15
5
-30
26
10
10
-12
10
39
6
6
4
9
-17
-15
-41
14
-6
32
-20
36
2
-24
8
-16
3
-11
-8
-7
29
-4
7
-24
6
74
-8
17
-12
-12
-23
37
-43
3
-8
12
8
30
0
44
-27
-6
-6
8
-30
-7
-28
-36
11
5
-39
-7
-7
17
-5
-1
5
-16
8
7
-7
13
-2
21
59
-9
-15
18
42
-7
16
-8
15
7
-16
41
-11
-7
1
16
10
1
49
31
-5
45
2
-4
-12
15
27
-64
9
9
-7
-10
8
-13
-23
5
-2
-5
87
-62
-46
4
-6
18
-4
-22
5
16
5
-39
-4
-2
-6
9
21
-1
-36
-13
9
-14
-4
-2
12
0
-16
-6
-29
9
11
-50
-3
-4
15
-15
-5
4
7
0
17
-10
-11
-1
4
33
0
-22
-75
9
-93
-22
7
103
22
16
15
51
-1
-10
-18
14
8
-26
42
6
-15
8
-2
-5
-29
13
-6
-32
10
-11
41
1
18
2
-30
30
-15
11
2
-21
0
9
-29
17
-2
6
19
1
13
4
-4
7
41
-38
0
20
-5
24
-5
4
8
26
-24
-29
3
-20
-23
29
19
-6
8
6
9
-20
-11
-1
-22
6
29
65
4
-19
-5
-21
-56
80
88
-17
88
14
-3
1
4
6
-18
-7
15
-16
2
-3
1
-10
36
-17
11
9
-8
-1
9
15
-54
8
-28
-3
34
-8
49
-13
-16
-20
9
2
-35
-9
-70
23
33
-7
2
-6
-21
-1
-5
80
48
-21
4
-20
-10
-13
-27
-18
45
-5
4
2
-5
9
2
9
-21
-15
0
30
-29
-14
2
-6
41
-14
-38
-24
-2
68
6
26
15
17
8
58
15
-36
1
-1
-26
5
15
-3
12
6
8
-16
-1
14
-127
20
11
1
20
8
3
14
14
-30
-3
-4
37
-11
0
7
-4
25
1
-22
-35
7
60
0
-7
3
-10
10
3
-35
-23
30
-4
2
57
8
-15
-33
6
-12
11
-5
11
-28
-12
13
12
-15
49
13
6
17
-24
-6
-1
0
-25
10
-8
-4
-13
5
-13
-30
16
6
3
21
-1
37
-13
6
30
19
0
6
1
2
10
-2
7
44
-42
-6
3
84
7
-2
-17
7
44
5
-9
0
-56
13
-37
42
24
21
-2
5
-25
31
-49
-13
57
-9
18
-1
17
-29
12
29
4
12
1
17
3
-7
38
1
-25
7
8
17
5
-6
-29
49
-3
6
-27
5
12
46
20
-6
-3
-19
0
-2
-1
2
-5
-6
16
-9
47
-20
-9
-29
-2
9
-29
94
-30
-2
-70
-2
-26
-37
16
12
5
-42
-29
11
-11
-18
22
39
4
-12
-14
-21
-46
51
-76
8
-68
-14
2
-16
6
5
-10
23
-20
-6
21
-5
-4
-12
-25
-16
-8
-18
2
-75
-17
15
1
-11
61
-32
-20
15
41
25
3
-4
-13
1
-12
37
20
-17
-10
47
-30
-4
9
-47
-6
-20
-15
-100
-17
-16
35
1
0
4
-19
-16
-27
-5
-15
-8
-45
26
4
3
-4
3
-69
-5
9
23
12
-18
14
-3
-20
14
2
2
-17
-7
-13
20
-2
2
-14
12
-30
-10
15
-3
-19
12
17
-55
-2
12
-12
17
6
4
-35
-79
-14
14
1
14
-9
1
9
-17
-17
-16
9
20
6
-4
8
-44
6
-18
-44
-17
-4
-17
-26
-8
-16
12
-8
2
11
29
-16
-25
20
-13
-16
17
-15
-18
16
-83
-5
-25
26
-1
16
23
-12
-3
-7
57
-6
-42
30
-2
42
4
-28
29
4
18
8
22
-6
-27
-3
-9
-3
-18
5
-18
-3
-30
29
12
0
0
23
16
32
13
-3
3
42
-35
37
41
4
-20
7
6
16
12
13
-5
-10
-3
-27
21
27
11
-13
35
11
4
7
0
44
-1
-16
-1
-1
-11
28
3
2
0
-14
1
28
1
-21
-26
61
-13
35
24
-63
-8
-12
-40
18
18
-11
-20
-58
18
21
-24
11
4
-25
1
-16
-3
24
-13
49
-10
1
17
-13
-12
30
-16
-10
5
0
-32
-4
38
-6
27
27
-38
0
69
6
-8
-5
-37
1
-58
6
28
6
-9
6
-19
-28
16
-2
14
-6
-9
15
-10
2
-1
-1
3
7
56
-29
-7
-19
-6
-5
-29
-6
7
6
-2
-16
5
-25
-21
-16
-7
11
-11
7
-15
-9
49
-22
-7
16
-4
42
13
-13
-17
-15
-4
50
6
18
23
-10
3
25
11
8
-19
-24
7
28
1
13
-15
-39
10
0
-9
-42
-13
2
15
-32
-32
-10
-24
-6
-7
55
17
-4
-7
47
37
0
-6
39
-3
-14
7
7
-21
5
-7
13
3
-36
3
1
-18
0
7
12
-24
-7
-1
25
-1
-15
-41
-17
12
-3
-19
34
-14
-12
19
-30
13
-10
36
7
1
17
52
-30
10
0
6
-9
21
-7
-23
6
-2
13
-13
-12
3
-20
-52
46
4
12
24
-10
40
-4
-3
6
5
7
-15
2
12
19
6
6
54
16
-5
-5
75
66
-38
35
4
12
-11
30
37
-6
-38
9
14
-2
62
9
25
-10
39
-4
33
-26
-37
-9
3
-19
-49
-24
9
-29
-53
-22
-11
9
-13
43
8
1
-20
-11
-60
9
65
-13
5
20
-7
-9
-20
18
-3
-127
-15
-75
41
-16
-11
-5
-9
7
39
-15
1
-4
0
18
10
-13
-16
-6
-4
27
6
27
25
0
50
4
27
2
10
2
10
-11
-11
35
-19
-7
46
-16
8
-29
-6
-13
-4
-10
-9
20
8
-55
-3
-30
28
54
-7
6
-1
-12
-9
-16
9
17
-38
-46
-27
19
3
-5
1
-9
-35
-13
8
9
32
-9
-26
3
10
-4
-1
15
-13
76
31
10
26
-11
-2
-10
27
14
14
7
-3
-90
6
15
-103
2
-22
39
-11
-17
8
-22
6
7
19
-1
22
-11
-25
14
1
-13
-13
11
10
-8
-5
-13
-6
-21
10
-4
-18
1
12
-25
-14
6
-40
-12
-8
-30
-58
22
-19
5
-15
-62
1
-14
9
-8
-3
18
-5
0
32
-1
14
19
-10
-37
-110
-23
-11
40
3
-3
-33
-13
17
-14
11
28
24
-8
10
-12
-20
2
-11
14
17
1
9
68
-7
15
-7
5
4
-11
-59
-2
0
15
-20
-13
26
5
-47
13
-53
-34
-3
5
-32
-45
-20
0
10
44
-52
-7
-13
47
3
10
12
-28
-26
-7
14
-9
28
27
-11
34
-12
72
1
-10
-36
16
-2
-13
-17
-20
3
-29
-3
-12
-15
15
-3
-24
14
32
-5
-4
-12
-5
31
19
-56
4
-32
-14
3
13
11
-9
14
-14
14
11
15
-4
-43
4
0
-38
-3
28
10
-12
-3
-32
-6
-1
56
20
-20
-20
-37
-42
3
0
3
3
8
21
1
15
34
13
-34
-22
-12
-2
-48
-20
7
6
-67
14
3
96
81
-7
-14
-21
-14
6
-13
4
-2
-30
16
-24
25
4
-2
34
-10
-37
65
2
-81
-16
-8
-20
-22
12
4
-16
-24
-22
17
9
0
14
1
2
13
11
-9
0
-5
2
3
18
-12
-19
-10
17
-4
-10
-8
-1
-1
7
7
13
-5
-2
7
-6
-6
10
-1
-17
32
-13
2
-7
-13
-5
2
-29
-3
-3
-8
13
-12
-9
-3
-14
2
-2
12
3
-7
10
5
8
-4
12
12
14
-4
26
10
-2
14
-1
-10
-9
-3
8
-14
-21
17
3
3
11
-4
-8
3
3
-8
14
-23
8
-5
-3
-19
-12
-20
-14
-1
-9
32
-3
-1
6
-31
16
-14
-5
1
-2
-1
-70
37
5
2
-8
9
-7
-18
13
-35
6
-53
-6
-4
5
-9
1
3
2
-30
-8
-7
-14
14
-35
-18
-2
-7
-21
6
-2
-33
22
3
1
-4
-4
0
-4
-4
8
1
5
-11
35
2
8
-15
-13
-5
11
-22
7
0
-10
5
15
-1
-18
54
12
-5
-9
21
-36
-12
18
-32
-19
12
45
-1
-15
-1
-13
-1
4
-10
29
-13
-10
0
-18
4
6
-9
-40
22
20
-4
-1
6
-9
13
-3
-14
5
0
-9
-13
-4
-17
-2
-2
-7
2
2
10
28
-22
8
-5
45
-1
-4
-12
7
-13
-3
0
11
5
-2
3
-4
15
31
5
74
5
-40
-27
5
-20
-8
-10
12
-11
23
-6
17
5
20
11
10
-2
1
4
5
-4
0
5
4
-5
-4
1
0
47
10
0
-15
1
31
-28
-10
0
-2
13
-29
-10
23
-33
1
-21
11
66
-36
-5
28
10
-4
-27
-11
-2
-13
11
19
3
0
-10
-24
1
43
35
-9
-2
-8
-1
3
10
1
-19
4
24
1
-10
7
17
-10
-2
4
38
43
1
-5
-1
-10
-19
23
5
-36
17
-1
-8
5
7
-9
-11
-30
1
-3
-12
1
2
35
-23
22
-1
-47
49
1
-1
9
-12
5
5
-6
1
-3
-5
11
-1
4
3
-21
2
-22
-17
2
-2
-8
43
-6
-83
1
4
-5
-2
3
10
2
2
-15
-15
1
0
7
6
-3
23
0
-6
-4
-14
-5
-1
-37
11
18
-13
22
1
10
3
7
3
-8
19
-4
10
11
4
5
7
-20
-20
1
-14
-2
-1
27
40
4
-1
-5
4
-6
-3
-15
24
2
9
3
-3
-2
-6
9
-9
14
-6
-6
-8
27
-8
-21
10
0
6
23
3
13
-2
-6
19
6
17
2
-1
13
3
11
3
2
3
-7
10
20
-1
127
-2
-9
-6
-6
6
24
2
-1
-9
21
1
-1
-96
-45
6
6
15
-44
-2
17
-6
7
-2
4
6
-15
1
6
-9
-2
42
2
3
-16
8
20
11
-16
33
3
2
4
18
-34
-16
9
-5
3
-8
8
-19
-1
-5
-6
-24
-25
20
-9
-6
18
1
-1
-1
6
-15
18
2
-11
-5
37
19
-21
14
-5
8
4
8
11
-8
1
15
12
-28
0
-5
-83
10
8
1
1
8
-1
77
-8
-56
-85
-13
-23
2
10
-20
-4
4
-8
-50
-6
25
62
5
37
-14
-5
-33
-4
2
-7
6
2
-8
23
20
-11
25
-2
29
-7
2
-59
-14
2
31
7
16
6
9
10
-8
0
-3
4
2
-53
-8
7
-4
-6
0
17
-23
-10
-34
6
-2
-22
-10
3
-1
47
-7
-23
8
-13
2
7
-1
2
2
-5
-10
-2
1
-5
9
1
-8
-17
-11
-45
-5
-3
12
16
4
-4
-24
-9
-11
9
13
8
2
-17
-3
-11
11
-14
-9
-27
-2
-17
34
30
-14
-8
36
12
-21
64
-1
7
1
-19
4
5
-2
30
-16
1
4
9
-22
-42
-4
14
10
38
-22
-13
34
-1
-46
5
57
8
14
14
-67
-13
7
29
17
-13
35
-5
2
0
2
-7
37
-22
-18
-21
-30
-24
47
26
-9
45
13
-10
-65
-33
22
-16
9
23
0
-14
-10
6
-34
-37
2
12
18
-5
-10
-3
8
0
-15
-46
-1
-3
35
23
-21
37
10
-3
-5
57
-68
-47
-47
-4
-1
-10
-11
-23
-1
-23
28
-12
7
27
-4
-23
20
-4
-9
4
17
-33
-22
4
17
-4
-10
12
30
52
-6
9
-33
20
-8
12
-22
5
-16
2
-49
14
14
20
43
-11
-35
14
7
-5
-7
6
-17
-19
10
-20
4
-55
-32
0
13
-7
-20
3
-22
-62
19
-23
7
-16
38
28
-25
15
-44
-33
16
23
49
-23
44
40
-26
-34
-13
127
-39
8
-36
42
-15
83
0
-4
23
-6
31
-23
13
27
29
-12
-14
15
-11
-6
19
16
60
-6
37
9
-10
7
57
-5
16
-17
-31
7
20
-32
21
10
9
12
-8
3
-7
24
-1
-5
18
-4
8
7
-33
7
-40
20
-11
26
13
-9
11
-6
8
-21
11
2
-48
-43
-110
18
23
-22
-10
-64
-5
38
-22
44
0
-3
-10
-3
-16
16
14
91
-1
4
-2
33
13
8
19
-7
-7
17
3
0
27
-13
-28
-35
4
24
7
-38
-85
74
-61
10
-23
16
18
-46
17
39
-7
10
-17
-30
3
-2
-20
43
13
-35
1
-11
-45
10
71
-3
23
-8
43
-11
8
4
14
17
-36
34
10
39
-27
-10
-3
-26
2
-16
0
13
51
27
-6
38
5
9
-20
6
-12
18
12
3
23
-3
1
-7
41
39
-9
-53
-26
-49
21
-28
9
14
18
-1
-21
20
-14
-12
4
17
-9
4
6
2
12
17
-1
-20
-11
0
-14
-27
12
11
39
4
-59
-12
-17
-11
-15
-19
33
-8
20
-3
-32
16
11
9
-32
7
-13
10
32
67
-26
-1
-2
1
-33
9
6
25
-2
-11
-17
7
-28
6
-24
27
-6
0
-30
6
-8
29
3
-43
-5
-15
-125
15
11
21
-9
-7
2
-41
33
17
-8
-5
-10
20
-2
-8
27
-1
-9
-10
46
81
-8
-14
-20
-16
1
28
29
-25
-1
6
-10
2
-9
-13
-1
-2
35
-1
2
7
-30
-5
-19
-31
7
-15
3
-19
7
1
4
33
12
6
18
-17
-3
-19
-31
-35
2
8
-12
-31
12
31
1
-2
-20
34
27
-25
4
43
-6
5
14
9
-54
7
-19
12
-5
-3
31
23
2
-59
15
44
-25
19
51
-13
32
-11
5
-23
9
10
44
-21
-12
5
-30
27
3
1
48
-1
-17
-8
-4
-3
8
9
56
-6
-17
10
50
3
28
-34
5
16
-34
-8
-74
-14
-20
4
2
-11
11
-26
28
-13
-29
18
-26
48
-43
-71
-46
-26
-2
6
48
-7
21
-8
14
36
-7
-1
5
46
-7
-5
9
-17
-28
11
50
-18
2
14
-8
90
9
-8
17
9
-2
16
3
28
-49
5
17
-9
8
-6
-22
24
15
24
25
1
12
13
-9
7
-14
-14
40
-3
-18
18
-2
31
8
74
-8
-80
-19
30
-25
2
-15
3
-17
-21
-11
-18
-14
14
36
8
-36
-16
-6
55
-8
-1
-68
22
-58
7
-7
-17
12
15
8
5
6
7
28
15
-16
-40
-23
25
-10
-13
3
-42
11
0
-25
-15
-10
61
-13
-13
-47
-12
-9
-13
-4
16
-28
0
-4
11
0
-15
63
-19
5
14
-36
3
-25
0
6
-20
2
-13
-11
-26
73
-16
14
28
-20
25
-65
-31
-28
22
7
34
-20
-2
-1
23
-9
-1
-12
-6
4
-6
7
5
-34
5
-3
5
7
-11
-1
9
-18
-3
-3
28
-6
1
0
-21
-2
13
8
-12
-16
7
-18
21
-18
-51
5
2
-27
2
23
-27
-6
-34
30
-9
-13
37
1
-14
-21
20
1
-7
17
15
27
-2
50
-12
5
-9
-6
-23
-2
11
-4
-13
-32
-18
47
-6
4
-2
6
11
16
19
-37
-2
0
2
-12
-7
20
15
-1
-23
4
-4
13
-9
-10
28
-9
-1
1
0
-3
11
101
-26
-11
-28
5
-6
39
-4
12
-12
-4
-5
16
1
8
2
12
46
-16
19
-11
16
-29
-1
-21
-2
-11
4
29
-7
7
3
10
4
-3
-10
-1
1
37
-16
18
-3
4
2
8
-29
-4
-6
4
55
-19
6
-21
-35
-3
-8
-13
14
12
3
-15
44
-2
16
-3
-12
7
15
8
-3
11
-18
-4
12
-24
-19
8
34
-24
-3
15
-5
-26
-4
-3
-2
4
11
-26
-15
-18
-6
-9
-5
-27
1
18
0
44
21
-3
-28
12
-35
-38
62
12
27
-10
4
-12
-36
-5
-10
2
-29
-26
-9
-9
-3
30
-3
-7
-6
-15
-21
-20
45
-5
18
-37
-35
-9
26
69
1
-16
-5
-7
25
-8
28
24
12
67
10
3
21
-71
-16
-12
15
-7
40
4
-28
-4
-33
-30
7
19
11
-30
6
-39
-2
72
-14
12
-20
-17
-3
5
-26
13
-3
14
-14
-41
-9
-1
15
10
1
-29
-6
-40
-5
-5
26
-28
11
5
-14
-16
8
8
-15
4
-100
17
-14
20
-14
-10
-4
2
-2
0
-8
1
-15
-15
4
-5
-1
-37
-7
-32
29
43
-24
2
9
-10
-3
-30
0
14
-11
-6
6
0
69
15
-12
65
11
-12
-2
2
-34
-1
-15
-3
-27
29
-54
-12
-10
10
6
20
4
-9
33
0
2
21
-3
-20
-26
4
-2
-15
-5
12
1
-7
1
1
-12
15
-11
15
-5
-1
-2
-5
-12
17
39
14
1
-45
-7
-1
59
1
-6
-9
-14
15
11
-6
13
12
66
-34
26
-8
-38
-6
2
11
1
60
-12
5
-3
14
19
31
-17
-11
3
-7
-2
-4
-10
1
-10
0
61
-27
4
-5
6
6
4
-36
-19
-1
-9
-48
14
11
4
-2
-5
2
-11
-2
2
-5
-13
-12
18
20
20
30
-9
-57
-26
-83
-28
-23
105
-5
0
1
-14
3
2
8
127
-64
-1
-12
-8
-17
-21
-14
-38
38
-63
-27
36
1
16
-11
17
-1
-6
-25
-17
-6
-6
-9
-9
-9
39
-93
-4
0
-8
-3
4
35
-49
-25
0
69
16
-48
-4
2
2
17
7
-4
3
2
11
-22
7
-11
40
72
-4
-34
40
-18
11
-41
12
8
-11
-20
-29
3
-13
29
4
1
-57
-10
40
9
3
32
1
-4
-18
23
-17
-21
-1
-4
22
-3
2
1
-29
52
-34
-8
-14
-16
-11
-17
20
4
11
-10
-1
14
-18
-7
10
26
-4
32
-26
3
-9
-30
4
3
14
62
-11
-10
4
7
4
-27
8
-6
32
-17
-2
-33
12
11
-2
57
-2
13
26
24
12
3
-25
17
-13
35
12
-29
-14
-25
12
-8
-5
6
23
-1
-34
30
-28
-92
-18
29
-11
11
12
9
2
0
-16
-4
9
18
17
2
-2
1
0
-1
2
3
0
-8
9
-2
3
21
6
24
-8
-1
2
-12
13
0
4
0
5
18
-1
-18
0
-3
4
14
22
-2
-7
-9
-8
8
17
1
2
8
9
7
8
-1
9
0
8
38
-3
-6
-4
-16
6
0
-13
-6
3
2
3
1
1
0
11
-2
-9
6
-4
3
-2
-2
-5
1
101
0
3
-6
-19
1
9
-6
6
-13
3
-1
0
9
-2
2
-1
-5
-1
-8
19
-11
11
24
5
-14
3
-8
4
5
-10
0
-16
-15
8
10
-6
10
12
-9
-3
4
4
-5
2
-17
-3
0
-7
8
-1
-2
-12
13
-2
12
-13
3
5
-31
3
-2
-5
12
15
-1
-13
-3
-15
14
8
21
21
11
5
-1
13
-7
-1
3
6
-11
2
9
1
-2
-8
-9
-4
16
-1
-2
-7
6
-3
-2
1
5
-6
2
8
8
2
-12
15
9
0
10
1
-1
3
-4
-1
0
-24
1
-6
-8
-8
4
14
-8
-2
15
2
1
-2
-3
6
4
6
-3
6
-3
1
4
17
-14
4
6
14
-11
7
-12
6
-14
-4
-1
3
4
1
2
-1
-2
-8
7
8
7
1
9
3
0
-4
8
-16
-21
16
0
5
4
41
12
-5
11
10
-4
49
-8
3
1
0
5
-11
-5
1
28
-2
3
-4
4
13
-2
-13
0
1
-6
5
6
-13
-11
3
1
-16
-11
-18
7
1
14
2
9
-10
-2
-4
-22
-1
-1
-2
-3
7
1
2
-10
13
-5
-1
-2
8
3
-6
0
18
5
-7
-8
-29
12
5
3
6
-12
-8
2
20
-3
-1
-8
-5
-6
13
7
-2
-14
8
-13
-6
6
0
-2
4
-6
-8
4
-1
2
0
16
19
10
2
12
2
-8
-3
-13
-2
1
-2
6
-2
1
9
6
-3
8
-5
6
12
-12
0
2
-7
21
-2
0
-3
4
0
11
38
9
4
-1
-6
-6
-11
2
-1
-5
11
-5
3
-3
8
10
-2
20
15
9
-1
10
-2
2
16
8
2
-15
-5
16
-2
6
1
2
3
-34
19
-8
7
-12
8
11
3
-1
1
7
5
19
-22
-10
-1
5
-5
5
-5
8
1
3
-4
10
3
3
2
12
11
6
10
5
4
-23
-10
-4
3
11
3
10
0
-29
1
-1
4
20
4
9
-1
5
-9
-2
1
-4
-17
-9
4
4
5
-8
4
78
-13
1
11
36
15
-8
-4
5
3
-5
19
1
4
5
0
13
6
-15
2
0
14
3
-13
7
22
11
0
1
-2
11
-12
-5
3
-1
-57
3
-7
0
12
-6
0
2
24
-17
-1
11
2
11
12
0
-6
5
2
-16
-3
1
-3
-4
-5
-7
6
-21
-13
5
-7
-10
2
-27
0
-5
1
11
11
-15
0
-5
5
-5
-3
4
8
-4
-4
21
6
-16
52
10
4
0
-15
70
-3
-24
5
-9
1
-15
-4
6
17
10
-2
-3
5
8
5
6
3
-17
6
0
5
5
127
23
1
8
12
-16
5
-4
-8
-5
39
0
-15
3
3
-10
-6
0
-17
6
-16
-4
-3
-3
16
4
0
-6
14
3
3
8
-13
2
2
-30
-2
3
2
14
11
3
5
-8
6
7
5
15
-3
-12
6
-45
8
1
-22
-1
-4
-1
-2
-19
-3
1
8
-2
7
2
-1
-14
-17
1
-11
-6
2
12
3
-30
12
-9
1
-59
42
20
22
18
-7
6
4
-17
-10
-1
30
-22
4
3
2
-6
-10
-34
-3
1
-53
-37
16
-4
-10
-14
25
43
-5
-17
-4
-18
4
7
-15
3
-3
19
-5
-2
15
-14
3
13
9
-10
-10
10
-7
12
8
1
-10
-31
21
0
-18
-1
8
17
10
-6
-20
5
4
1
-13
6
50
-8
-5
0
-23
0
6
9
-1
-16
-30
-8
12
-38
40
-7
-21
11
17
-2
1
0
-32
3
-4
25
-9
12
31
-5
18
-4
13
4
-11
-6
-10
-103
-1
2
-11
-10
-18
26
18
-2
-6
-22
-25
-99
30
-25
12
-8
-5
9
-3
6
6
-34
6
14
8
-9
-6
-30
4
-11
-4
13
-24
-7
-7
-47
-25
5
0
16
-3
50
-19
-17
-22
2
-11
-1
10
-5
-19
-8
-7
7
15
-26
31
9
26
-32
-127
13
29
-5
12
-17
-30
-2
13
13
14
25
11
37
-6
2
-12
-9
1
-21
-6
-3
8
-26
-17
-10
7
1
49
-3
-17
6
6
-20
0
-16
-20
24
-43
-14
2
-19
-32
10
13
-10
-1
-2
-22
5
9
15
-21
-33
-8
17
17
22
7
19
6
0
-28
-3
7
-7
20
4
13
-8
10
-18
-11
20
25
19
-18
-3
9
7
-14
28
-14
-6
30
-23
-28
9
18
-17
5
34
3
0
2
1
-23
-14
4
-35
17
-27
5
-19
9
-3
-13
8
-8
7
-22
-48
16
-48
-2
18
-2
-19
3
-33
-17
-8
-56
-36
-3
-17
-15
1
-7
-69
44
-9
35
0
1
6
7
21
-10
16
2
-15
-19
-1
2
-13
-3
24
-16
-15
24
-44
8
-12
-31
3
-10
-17
-59
-15
-19
11
21
-4
17
-25
-1
-7
-5
-23
11
17
5
2
-9
-17
-28
23
-13
8
-35
-2
-11
-2
-1
-3
0
-1
6
6
-12
9
-5
-27
0
-2
5
-39
-4
-21
-12
-29
12
22
0
21
0
26
2
-10
9
6
27
20
-46
-3
-6
3
32
27
-4
-27
13
21
-10
-1
-13
10
-96
-3
-14
-22
-2
-11
22
-2
-14
0
0
-7
-6
2
15
8
-18
-14
-9
7
-3
-21
15
-21
7
30
-5
-12
4
0
-29
-15
-6
-26
72
-9
18
-28
15
0
-19
-11
0
3
4
5
-19
17
-29
-27
6
-30
7
-8
47
0
12
20
-27
-16
5
9
6
12
21
-15
-12
9
-5
1
5
-2
27
13
-39
-4
-3
-1
10
4
29
-47
0
-21
11
-21
-39
-25
-3
12
0
-14
15
-2
16
-12
-2
8
5
2
2
20
2
1
-19
-33
-2
-36
4
42
48
7
-1
-8
5
4
26
22
29
-12
9
7
-3
5
-5
-21
3
33
5
-16
23
19
29
-10
-2
-13
19
-4
-7
18
-18
-5
10
14
21
-48
44
-14
-2
24
3
52
15
3
0
-14
-4
-51
13
19
-27
-2
20
-9
-35
-25
27
-24
-37
-17
-27
-32
28
14
-21
26
5
0
-10
-62
12
-6
-12
2
-21
-49
-18
25
-11
-8
-14
28
6
12
22
15
-1
-28
53
-30
2
-3
-6
-10
14
-13
-13
28
-7
-6
7
-11
-17
1
-10
18
3
10
8
-1
13
-24
-21
5
6
19
8
-22
-52
-11
-8
3
-17
34
-31
28
-43
-5
34
-5
-1
-3
-1
-14
9
15
-20
-16
-3
19
-10
-30
62
-11
2
11
-9
84
-13
0
-6
-14
-8
15
-26
-10
19
-10
19
13
5
3
19
8
-23
-1
37
-3
7
10
-14
2
2
-2
-1
-23
19
3
-34
0
-2
8
0
-6
-6
16
11
12
-15
-8
20
43
0
3
-1
-70
51
4
1
-10
-1
-55
24
56
33
-10
-9
-34
-11
-24
-4
-1
-21
-15
-40
8
-5
15
10
12
-7
-29
-7
-16
-2
-46
17
-11
32
-8
-9
-4
6
1
-1
4
-2
-23
11
6
-6
-13
3
10
-17
8
-15
-20
17
11
-20
-13
9
-7
-50
-4
12
6
-21
-17
14
-20
-2
3
27
-4
9
10
-13
30
-4
5
9
15
-4
24
1
-1
-25
116
-24
28
-6
0
-7
27
-5
-2
-3
-10
-5
-8
-1
15
-1
15
-1
7
-9
-28
4
5
-85
-21
-7
-16
-33
-6
-8
6
-3
-1
10
28
-6
-37
15
16
29
-15
-7
-9
42
-1
32
-16
-17
7
-21
5
21
-2
11
-19
11
-4
-7
17
26
-16
1
7
-6
-20
-13
29
0
16
-21
-1
-26
20
3
9
-17
17
-19
-23
5
-2
6
-7
22
-14
-47
-6
31
17
-2
-2
-14
4
-42
33
4
14
-20
0
-8
12
-10
-3
-4
-14
-3
26
32
-25
-32
-10
-17
-7
10
0
-3
3
-12
-8
25
-4
3
2
1
-14
17
10
-33
-2
0
-59
-3
-35
-8
2
-14
-31
24
-5
-45
2
-36
43
17
-12
-28
15
14
-2
0
3
7
15
15
31
-4
47
-4
-9
-20
-4
-33
-18
4
-6
8
-11
-67
76
20
22
4
-14
-13
72
-30
-9
-7
-6
0
7
-8
4
-7
31
52
10
-25
-26
11
52
11
23
15
4
-7
6
-21
5
-3
-1
-1
-35
-3
-3
-19
12
-11
-2
-14
11
-44
-7
29
21
-5
-6
7
4
42
34
4
-13
-10
-9
-1
-8
-19
-1
-8
-13
-6
-8
117
-10
-59
6
35
-2
-4
-9
-6
-21
3
4
9
-5
-4
-11
-12
5
2
9
-5
-11
27
0
-20
-8
-15
31
-5
-16
-2
-17
-7
0
-3
-107
-45
27
11
-14
-3
-14
-9
-1
7
-2
-1
-7
5
-49
-11
-14
-19
-2
15
-1
18
-2
0
2
-16
-22
-15
25
-30
-8
25
3
0
-1
-2
3
-14
-6
20
13
-7
127
10
-3
-36
-9
4
7
-36
1
2
-24
6
1
-34
-21
-19
9
-25
0
-15
18
-16
11
16
-16
10
1
27
12
-25
0
20
-3
5
-11
-13
-11
-7
22
3
11
7
9
-8
4
6
-2
-62
8
-7
-33
-5
-5
2
8
-10
-51
-12
5
-11
82
47
5
9
1
-14
1
-9
12
3
1
-10
14
-21
-10
-10
-20
9
-1
-7
16
13
17
11
0
-4
30
-3
-2
30
-3
21
-9
-6
15
27
-5
-4
-38
1
1
3
-13
-4
-9
-50
-10
18
0
-7
-6
-17
-13
-28
17
3
-16
35
20
17
28
-12
-10
-1
-1
28
-12
12
-38
24
47
-12
-9
-3
-1
-10
-3
-8
15
-8
66
-1
-28
-95
-15
-17
-12
25
-19
15
-18
-13
88
26
-60
35
14
40
-34
19
9
0
-8
-16
3
-13
-27
7
26
-16
-7
18
3
15
-1
-89
-34
1
-4
1
1
-14
-3
9
-28
3
-6
35
-5
-69
6
9
6
-14
-8
13
-6
16
12
-5
0
-20
1
5
-2
9
18
2
-15
16
17
38
9
12
-23
-16
-3
9
7
-34
33
2
104
2
26
17
8
-1
21
-16
-27
-18
6
10
-22
2
-12
-11
-33
7
17
-16
15
-41
27
-41
5
-7
14
16
66
42
26
-9
-12
-16
-15
1
4
-18
4
23
25
35
27
-1
15
12
-21
3
127
29
0
-14
9
-5
-13
4
19
-26
-4
4
-1
2
15
-11
9
5
-9
-11
-45
-28
6
-3
1
-4
-72
35
6
9
4
18
-8
-22
30
25
10
-5
-104
22
-7
10
37
10
-6
-22
38
0
25
-30
-2
-5
-10
-6
27
24
2
-6
-11
-3
0
-11
18
-13
2
-15
6
-8
11
-13
26
5
53
-19
58
4
-57
5
5
12
10
5
-33
46
3
3
-14
-5
32
11
1
-59
22
-3
-8
16
-45
-33
-79
-18
6
-15
52
1
-8
6
24
-1
14
6
7
4
-6
-6
-29
-13
-42
-8
35
20
12
12
39
-34
-9
-13
-6
-12
-18
-22
6
41
-15
0
-11
-9
7
0
-1
-35
17
8
-6
5
-6
-32
-1
-19
-82
10
-39
3
90
17
16
83
46
12
-15
-8
-14
-21
-1
-2
-21
26
-31
53
-9
37
-29
10
9
-8
8
34
10
29
13
-1
1
2
-13
18
12
-4
5
9
9
3
3
24
4
7
20
-11
-2
0
12
-20
-34
22
0
-22
-17
18
-43
5
2
19
4
18
-2
-5
5
8
-22
76
1
44
-9
21
14
-11
-2
9
-2
-18
28
-34
-14
40
16
-36
-26
40
4
-11
-6
21
1
3
1
4
-2
12
4
13
31
12
-13
-4
-3
17
51
16
8
-16
1
-63
-45
-27
20
1
15
-55
-23
1
-8
23
-15
-2
30
-10
5
9
17
-112
-8
1
12
8
32
33
-29
-3
0
14
10
-6
7
6
8
-11
-2
3
-48
-19
21
-15
1
-1
38
2
-7
-4
-37
-9
10
-24
-11
-20
-6
-9
29
-4
9
-7
18
-11
2
1
-21
-12
-6
-66
21
-5
22
55
-21
-9
-14
-4
-4
7
-29
2
11
1
-14
28
3
6
-10
7
-19
20
-9
15
26
-4
40
-2
-43
5
26
-6
11
-7
-11
-5
2
7
23
7
57
3
3
-3
20
-20
16
8
-7
40
-10
7
47
-4
12
18
0
-14
13
-12
2
9
24
8
-17
-20
-2
5
32
-14
-4
-22
2
32
19
-5
-21
5
-6
-20
0
22
3
72
14
7
-23
12
17
-32
-7
23
22
-4
-6
78
-1
-13
82
38
-11
28
12
-25
20
40
3
-22
-15
-12
20
-5
23
-10
32
5
20
4
10
16
11
52
7
-13
14
28
0
0
-10
-25
19
5
-76
35
-2
-13
14
-48
-1
3
5
48
8
-20
1
-1
-2
8
7
-7
30
-22
-26
-20
25
-40
-24
4
-3
-32
13
-22
-40
4
3
-16
17
-7
10
-31
27
0
-16
1
4
-61
21
18
22
13
8
15
17
25
18
0
-14
-2
7
-17
-3
11
12
32
-7
-32
78
5
-17
5
-37
-125
-13
4
-41
-38
91
-6
30
-15
21
31
6
12
-9
-17
5
-6
-48
13
-40
-36
-4
14
-65
10
-31
7
23
45
56
-41
-1
-28
-14
19
-16
-28
-12
-13
25
1
-13
20
5
12
27
-57
19
24
6
-26
27
0
34
-17
-37
-11
-4
1
-1
31
-24
-39
5
3
15
-23
39
17
31
24
37
10
-19
-9
8
-4
12
-4
3
-3
-13
-49
13
-21
1
18
48
10
9
0
-2
10
-3
-5
-7
4
40
11
-10
27
11
17
42
2
30
26
19
3
31
22
3
-23
-6
6
3
30
3
17
14
-13
32
-8
-2
-4
20
1
1
-10
14
-4
-4
-7
3
-9
2
6
8
8
-14
3
1
-4
-5
23
39
-14
-4
10
37
-15
-5
-6
-4
-14
4
-6
1
7
11
8
4
-8
9
-11
4
9
-21
9
5
3
-8
127
2
-1
-8
0
-2
2
-6
18
3
-4
1
4
2
-5
0
3
4
0
3
-2
-2
30
5
6
0
4
-3
7
-1
-10
2
-5
6
-10
-14
27
-1
6
4
16
-3
13
4
4
8
0
-4
2
53
-4
2
1
-30
2
47
8
3
-8
-6
4
12
6
5
-10
16
-7
-3
5
4
-10
7
3
-1
21
30
-1
-2
-1
-4
4
-1
1
3
5
7
5
9
-1
-17
3
23
3
1
6
-6
-11
6
-3
-7
7
-7
1
2
3
3
8
14
1
-5
-22
2
-5
23
-2
-3
-11
-26
-5
4
53
-6
10
10
4
7
14
-2
8
-29
15
56
2
-15
1
4
-1
3
11
6
9
11
-7
-4
-13
-1
-8
-7
5
5
-4
10
9
5
0
-7
-6
13
22
4
-3
13
2
6
-5
-3
7
3
-9
3
4
7
11
19
-4
-1
3
12
-11
-11
4
-7
24
4
2
8
4
3
-2
6
0
5
4
-4
-15
-11
16
-5
-5
15
-5
-8
-5
2
9
-2
-19
10
4
3
19
-10
35
-1
3
0
-3
12
1
41
3
-7
9
5
2
3
41
48
-9
0
-7
-37
-1
-12
6
-15
5
1
-11
-16
7
9
-33
1
5
8
4
4
7
-85
10
-29
-8
10
20
-20
27
-5
-10
4
-1
-3
-5
6
-2
-5
-1
2
-8
-13
-3
15
3
8
10
8
-10
15
16
14
2
-17
5
21
31
11
-5
12
1
30
18
-28
-11
4
-7
-11
-31
12
-8
-15
21
-16
7
17
-9
7
-3
-16
-1
-22
-1
2
10
4
-4
2
7
-7
-3
3
10
-6
2
-9
-6
10
2
-2
6
-14
0
-3
13
19
-5
9
-2
11
-4
2
8
3
3
-5
-4
6
-4
16
41
7
-3
-18
-3
4
15
5
4
0
-2
3
-10
-5
-1
-5
-9
11
2
-45
4
-44
2
-16
-5
-7
-3
-6
-2
5
7
3
0
8
-3
3
-1
-27
-3
5
-29
20
-4
-7
6
-6
22
-9
-6
-19
-11
1
0
-2
12
-2
24
-2
-3
1
3
30
7
-15
11
15
-4
-5
3
-11
0
1
-1
-1
1
4
-11
2
-2
-8
14
9
10
-12
36
-1
-1
-16
-2
5
4
13
-15
6
-22
-1
2
10
12
-8
-12
-1
-13
-15
8
21
-11
-12
-14
-12
-11
4
31
-25
-20
-4
8
-15
-11
-1
20
-6
7
-10
2
-17
-25
-8
-17
3
3
5
-1
-10
9
8
3
16
-2
-26
10
-1
17
2
11
11
-5
11
12
12
7
-12
-7
8
5
0
-11
-7
-3
-9
-15
4
2
10
10
-1
-1
-1
1
6
-34
5
20
-6
-5
-32
3
1
5
-29
-5
-8
-13
-2
0
26
0
2
-32
1
-10
1
-20
-10
-4
5
3
-1
-30
14
1
4
-15
10
9
-31
36
-34
-5
11
-7
-1
3
-7
14
-10
9
-9
-12
0
2
-21
0
16
-2
-15
-1
-8
-22
0
-15
2
-39
-17
-9
19
11
5
-18
-8
4
4
7
-1
3
3
12
-21
6
2
13
22
3
0
2
-9
-3
9
1
6
-2
-8
3
-8
25
13
4
8
-7
-7
10
-8
-4
3
11
-6
-29
85
-9
-37
23
-25
-14
-18
-11
6
-17
-1
-34
12
-1
95
5
0
7
19
28
0
-31
-19
6
13
-37
4
-20
14
39
4
-12
22
74
9
-8
25
-1
38
10
60
13
27
-15
28
15
-31
-5
19
17
-4
-9
-28
-5
19
-3
-1
-20
-33
-21
-10
0
-7
23
2
59
8
41
-18
-1
-13
20
23
7
-6
4
-3
-3
23
13
2
-3
-12
-44
-11
36
38
-29
-21
18
-64
45
-27
-29
-14
24
-11
-9
-23
73
39
-4
24
46
-31
-6
90
10
-31
-6
6
37
2
13
22
23
-127
-3
44
-1
40
19
-22
0
-2
7
24
10
-52
-9
-34
11
24
7
71
-17
-4
12
0
19
8
-39
20
-31
22
7
5
-34
-50
-2
-27
21
-33
29
45
-21
7
-69
26
1
40
-64
-72
11
-6
6
-15
70
19
22
7
54
24
-13
-25
-75
25
47
8
-9
53
-13
9
-32
33
16
-16
-1
31
-46
-61
-26
9
-11
-10
-28
-18
22
-22
12
9
28
5
-27
-37
20
69
30
17
4
-18
-32
9
0
-1
0
11
11
4
2
-17
61
46
-58
-28
4
-11
7
13
52
-13
8
-9
24
5
-14
17
-68
-16
-27
2
-53
28
4
6
-30
15
-85
40
-15
-11
2
-28
9
-25
1
-3
52
0
8
36
4
-5
33
43
8
89
-12
-41
8
12
-9
-14
-45
0
-25
1
-16
9
-30
-32
47
-9
7
6
29
-36
37
-20
-69
18
-13
-20
21
2
42
16
-81
24
-57
-19
0
27
9
-52
-1
1
-11
35
11
-24
-9
20
-34
16
12
6
60
27
-4
-4
-21
-3
-114
26
15
25
2
22
7
-1
-8
-49
-9
-48
0
58
-22
-21
-16
-8
-3
47
11
-22
3
-34
36
8
-23
7
-10
-25
-10
-24
7
-1
-7
11
2
-10
3
5
-10
-30
-15
22
50
12
30
45
-1
-99
7
-6
0
7
34
-6
-7
2
-17
-11
-13
-46
-27
-19
-16
-20
-9
-17
95
-18
-4
-19
24
19
-3
-28
22
5
-7
-3
24
20
-23
-13
-22
8
-11
2
-1
8
-4
-21
27
2
-15
53
-25
-5
-30
22
4
20
-25
-8
2
-49
-89
-52
-13
36
-9
-4
-26
-54
-8
-32
4
-12
70
-20
0
4
9
-16
-47
-3
12
-24
59
-3
-63
6
4
59
-7
2
-21
63
23
-10
3
-58
-15
-14
-43
-19
-23
17
-23
-36
-15
2
-2
63
11
3
4
1
-19
63
0
45
-5
-4
4
17
-24
-20
20
-28
14
-3
61
-32
22
-27
16
12
-9
-19
36
57
-53
3
-11
64
-13
-15
-31
54
-59
72
12
-18
-4
27
12
-18
17
-2
17
-15
-28
3
14
-9
46
-24
13
56
-6
-29
-74
-19
9
-15
40
-81
6
-23
39
-29
13
-11
4
34
10
-4
-49
64
-3
-18
-6
-37
-9
-18
-14
37
-11
-40
-13
4
-51
25
-49
35
2
-39
2
22
-3
-26
-29
-28
-31
1
-7
21
54
-21
-35
3
60
-4
47
11
-19
-19
12
1
-9
-73
-19
21
10
71
1
48
27
27
-46
6
18
-22
2
1
20
-4
-31
-17
2
-4
-15
61
26
-36
1
22
-28
4
10
8
-8
17
22
-36
33
-21
107
-15
-26
2
1
13
6
24
-33
-26
7
54
0
12
-13
-10
-7
-19
7
11
10
10
9
-39
-5
0
-8
-31
25
20
-14
29
5
2
33
4
25
-1
-45
61
-8
12
-15
-7
-11
-5
-1
-11
9
36
-3
1
-21
-2
9
-10
3
7
17
-44
-15
15
-18
9
17
-48
-9
-1
1
14
-11
-2
1
5
-21
-15
-11
0
24
-5
-23
39
-21
1
-13
-10
-8
-17
-4
-4
-6
-6
0
-6
0
-15
-9
-2
5
-38
-1
-7
-2
-2
-14
-2
-6
10
10
5
4
-7
7
-1
-2
4
-4
5
-4
11
18
-3
0
2
-13
-3
6
-13
-17
9
-20
-23
-6
0
4
9
-2
5
-3
-3
4
7
6
13
-5
-7
14
-16
6
-30
0
7
-10
-8
-6
1
1
-2
-29
-27
-13
37
4
-4
3
-2
10
23
5
19
3
-23
-5
-12
8
-2
45
-27
3
-14
11
6
-15
-29
-36
0
-20
-5
-6
-38
-12
5
-8
-6
8
-47
16
11
-5
-3
-5
-15
6
9
3
-10
25
-2
-54
21
-9
-15
0
4
-7
5
-13
-1
-2
17
-4
9
-8
1
-6
0
-2
3
-2
7
-3
7
8
-6
-9
-1
-3
2
-10
-15
5
2
-11
-5
-17
1
-5
18
2
-6
10
5
-10
-4
1
7
-19
5
3
1
6
-3
-3
2
-10
27
9
-19
6
-5
-7
-3
-3
-4
13
5
3
-9
23
-5
-53
-3
10
-44
0
-24
-16
-25
-17
7
-1
-1
-15
8
30
-1
-9
5
2
-9
14
-4
0
-1
7
-11
-19
10
5
-13
7
7
-4
-6
-58
3
-3
3
5
28
-12
11
-11
-30
5
26
-19
25
-28
-15
10
4
2
-28
0
6
7
-7
17
-8
-9
-6
-17
-1
-22
1
-14
-5
3
-12
-3
-17
2
-19
-9
-4
15
4
2
7
10
2
13
105
17
-5
-14
22
-2
-17
-21
15
-9
-21
2
-14
9
-13
-8
-23
-6
3
-12
-13
0
-13
-13
-12
-10
-13
-19
-13
-2
-9
5
-16
11
3
2
4
3
9
4
1
5
20
-3
12
-5
-6
30
-5
10
3
-2
-19
0
110
-14
-12
-11
-3
-35
-13
2
-18
-6
7
-11
-10
4
-20
-13
4
-9
22
16
-12
12
-12
3
1
13
2
20
7
-14
7
-3
47
8
1
-5
3
1
19
-6
-26
-10
6
-14
15
-12
0
0
1
-8
6
4
-10
-54
2
-8
-66
-3
-13
4
-22
-2
3
-15
5
-5
12
-48
30
-11
20
-18
8
18
42
-10
-6
6
-21
12
0
-5
-14
-2
4
12
0
10
-7
7
-6
26
-3
8
4
-16
-3
2
6
-1
-7
5
-83
16
-2
-2
2
-9
-1
-1
-17
-9
-3
-16
-2
5
1
-13
9
6
-16
8
0
4
56
5
-2
-11
-2
2
3
1
-25
-15
-15
3
-13
-3
-16
0
9
3
14
3
10
-36
18
-7
-16
-18
11
-37
-11
-22
-12
6
-7
2
7
29
-17
9
-5
-5
30
-7
3
-10
-1
5
-10
-4
-11
4
1
1
-11
-14
1
16
-4
-4
-18
3
-1
-3
-28
-5
127
11
-5
18
13
4
-33
3
25
3
-54
47
-2
22
5
-9
-5
8
-18
16
0
0
1
6
-8
1
-5
-15
-5
-46
-9
-6
5
-48
-4
6
6
-4
19
-28
-5
-15
1
-4
5
10
2
-1
7
-5
-14
-8
4
-16
-5
-5
-23
-8
14
3
4
13
6
12
-11
2
-15
-13
3
-14
10
2
-20
3
10
-3
7
20
18
4
15
8
10
1
6
0
-21
1
15
-13
-7
-4
-7
8
-11
-36
-18
-13
-1
-25
7
32
-11
3
9
-7
-14
37
-9
-20
21
-21
-6
-75
-15
19
-31
-21
-5
27
12
-52
-15
6
14
34
20
-25
67
-31
-21
21
41
-21
-59
1
-7
2
14
-10
-1
-16
-47
-22
-66
27
-39
47
13
18
60
-17
0
-52
-16
2
24
17
28
-26
12
2
-12
-74
-6
28
96
-2
14
-8
-4
-4
-4
-61
-10
-2
-15
11
-32
2
-17
10
5
35
-6
13
-22
60
1
-46
37
33
32
16
1
-50
3
-16
23
-5
-9
-18
5
-25
44
-21
-14
12
-26
-1
-2
8
18
25
127
-9
40
21
-12
-43
-28
-10
-21
-15
29
-55
22
32
9
33
1
5
-25
-12
-2
9
51
-2
65
20
24
50
-17
35
42
-1
3
34
-3
-9
-51
64
5
28
13
3
-102
40
-12
23
-6
-6
-14
11
1
-8
29
7
-3
-42
3
4
-31
13
16
36
4
-35
-41
-47
-78
30
-13
23
-56
-51
25
-25
35
89
7
14
-9
5
-6
-18
14
-25
-2
-32
14
42
13
-87
-2
-3
-1
48
-1
5
24
-1
-24
-70
2
26
11
-17
1
-8
6
12
0
43
-36
5
-10
16
2
-39
-1
8
33
7
81
5
-20
13
-20
2
-10
1
6
5
-23
19
-12
28
23
30
121
-16
-14
18
2
-35
14
-21
0
67
-35
-81
-31
-11
1
-20
9
-61
-6
-2
1
-31
31
9
9
3
5
-21
-7
-4
-21
11
71
-37
-8
-9
-19
9
-10
33
53
9
27
-29
-39
-53
-2
2
-1
-6
-54
-7
17
9
19
-28
-42
-20
-19
-42
48
-43
103
-25
-13
19
25
26
-46
1
9
-46
-21
0
54
-42
0
1
-10
-10
19
78
-22
-21
-14
13
-12
1
23
26
-17
16
-25
-10
-26
-18
33
23
-3
17
39
-22
15
-53
31
-34
12
27
12
-3
13
6
26
-32
66
13
-7
-13
-7
-13
12
-17
-14
2
13
48
0
12
31
2
48
23
-52
-10
-36
8
-11
10
59
-26
22
19
-39
-17
1
-24
12
-9
-28
20
15
-13
-17
22
-6
32
-15
-36
-29
3
2
10
-13
-10
-32
1
-29
57
-39
27
-16
-10
26
-1
67
-15
-5
7
6
-24
-19
7
1
4
1
2
-13
-18
-41
1
19
19
14
-6
-6
6
-17
-15
8
58
-18
-91
31
-9
-15
-16
-10
19
3
4
3
-22
-63
-7
14
1
36
-29
16
19
27
15
3
6
-28
-44
3
35
-5
-30
35
24
-6
-10
45
3
-71
-61
-6
9
-54
19
8
4
-37
29
0
-18
20
-8
-9
9
-5
5
7
-24
3
-5
-35
21
1
57
-13
-20
-8
-7
37
-11
-15
-18
-21
6
8
-15
7
-2
-34
-17
21
-60
11
9
-9
-17
-1
-11
-1
-25
-20
7
-15
-17
18
40
4
-1
-6
5
-85
7
11
-38
21
5
-13
-27
-24
8
-31
44
-17
-3
2
22
6
13
-2
35
-14
7
13
-36
31
38
-3
-12
44
-30
-57
-2
-91
-14
-12
-47
34
64
10
-4
-17
-1
3
63
-19
-25
8
8
24
-15
-45
-23
-43
-45
-18
-5
-16
21
-39
11
-6
17
-32
-25
-5
6
9
-8
-68
-8
2
30
-37
49
-33
-46
-22
42
-7
7
-19
3
3
-12
-15
-56
17
-24
54
109
-29
-29
14
-17
7
-4
6
19
11
-17
51
-7
91
-11
-28
10
-36
0
-29
-3
-26
13
2
-13
34
-6
-27
22
6
-14
-20
-19
6
-6
0
62
1
-8
-3
17
-24
