-2474
898
776
-40
709
-980
-1102
386
699
-1501
8115
-622
668
3305
1742
689
2760
-591
-1128
-2613
-434
-1164
-129
671
795
86
-6727
826
-314
180
4442
967
416
1483
-1730
634
1376
2624
-1846
-271
477
642
-117
-529
1623
-26
2365
-295
125
1055
-158
409
229
-3116
849
1357
-259
-1717
2379
1335
248
-402
1898
-8482
1397
-4955
-2435
-2367
-453
838
-220
-120
-1507
-814
-295
-1325
103
-192
1108
4455
2322
321
940
531
-2457
129
833
-255
-757
133
413
-1044
-980
-4057
-425
293
-6218
-1557
134
2011
1595
917
1023
-2591
-1583
-756
2836
1282
622
-4144
611
-419
-4786
783
-1419
1414
-2332
118
-81
-238
-219
-494
1057
-468
-3615
243
-1864
727
794
1235
-112
775
-374
273
-269
-2469
3114
1322
1419
-269
1101
-604
2103
-1047
265
809
-1710
1081
-392
-3984
-187
1104
-1374
-565
-827
-1311
-2863
-1336
-550
1926
961
649
-150
2195
273
174
3393
-1296
-200
1157
765
-583
1216
-1332
-318
-302
1581
-260
500
-260
-1988
1014
191
177
1253
-930
-1764
-1122
-3242
-255
-1226
-762
-806
-802
684
-434
1073
-276
-849
-1040
487
-132
-1929
596
-1214
1169
514
698
-2253
1795
663
-610
-1621
2337
-162
1002
281
624
1155
-9724
-62
777
1355
463
-59
-9305
-934
-701
-458
-113
-519
-19425
-671
18
132
1121
-2272
-276
838
-539
-185
4679
-2254
172
-638
1569
-709
1517
-1440
-1447
2386
2309
-771
3529
10631
751
1188
-1578
-985
183
-246
-3894
-1603
212
-357
825
-1346
-697
-222
1837
1374
1928
-626
-1130
1085
-654
-290
19
350
-69
-62
1846
127
1072
1231
1005
-11633
-1544
-1626
-588
-1885
-2477
445
523
-6425
769
592
817
-1116
1571
64
435
792
319
1060
288
-367
1338
91
-1266
-1708
-189
392
523
-842
-1167
11835
-143
552
869
-437
-662
-16023
-902
-314
-3010
-1144
1182
2565
-920
1317
695
-1950
-929
-872
5258
6565
-1168
1563
824
-807
-15047
1686
630
-273
-689
2712
-853
-730
-287
24
-529
2919
-5145
6189
-388
718
-1035
1248
-802
-1102
-123
-331
-1479
-406
-581
-236
-2029
2074
440
-592
-1308
1458
-362
-956
-78
-182
3176
-1628
569
-835
-6
-32
-211
-361
1339
37
-500
575
-778
396
1803
-2649
-955
-122
93
-233
661
-1429
951
1189
-565
-6740
1083
970
-23012
171
594
-487
-1313
2070
1174
663
-814
40
-1481
583
-554
-1178
-3606
-566
-314
-1065
-2115
1120
682
-827
-504
351
-1676
-13204
-955
-264
393
2204
548
-170
1160
-900
-1004
-1158
-248
-6
-402
2607
1049
-122
272
-443
-754
395
-848
-320
-379
-257
-902
3309
-8483
-494
1140
-701
2212
-348
912
-1897
-203
-1226
-1737
308
1948
365
1504
426
-6465
494
2402
707
-521
843
-788
-2139
-705
-203
-1468
260
957
642
1433
420
-70
565
-231
392
-512
1466
388
435
-476
2781
-5458
-832
-1307
1149
-2075
-447
881
387
-325
-1539
-4570
-297
365
-629
1915
-1287
191
-768
828
-90
761
359
131
307
6
762
-244
2647
5234
-889
1104
511
-829
-414
1082
6086
627
-863
-265
400
1828
-1535
598
461
431
3560
-1371
-617
-105
-814
3383
517
-403
2145
-917
-2312
7314
-5439
584
-1222
2449
2122
-1860
-395
-1745
-452
1062
1545
-1092
797
-634
952
1139
-429
923
269
2505
109
-2021
-85
-4150
-195
1314
-2112
520
1065
-16883
215
-277
85
216
-188
-842
134
742
2137
1187
1445
-454
-442
-628
-488
-640
-258
-704
-6776
1944
-619
539
-131
-1073
-9404
-383
5144
1829
2234
-471
-1581
656
801
148
35
-453
554
-668
-628
92
315
1279
-1697
83
862
-237
-182
-1181
847
464
691
872
-5068
368
-68
-135
-3335
1016
621
95
86
518
-1599
-1813
673
-1011
2340
1573
3813
1880
3411
-462
648
1876
-1754
-4482
-1155
-1668
-190
682
-1883
-613
2009
-114
334
-2619
