-2717
8129
34
-1309
-2270
7539
10911
2258
-5306
19192
-3409
-513
-259
447
13188
-236
24788
21624
-4259
1133
2527
-1394
1237
-136
217
12981
924
-3464
-6340
-1737
2440
-2529
-2849
-274
24079
-1521
1053
-4725
12017
2242
4646
-8872
8209
326
-4579
12495
6548
19768
1452
3793
10250
-6420
-7430
5840
-6597
-2878
18066
17913
19459
315
22024
-128
-5340
-5748
3901
-1305
11676
-1842
1494
7730
-4746
1458
13312
2771
-11886
-3367
1450
-2662
-784
-4695
17402
-4796
8493
-3066
-2451
1757
-4066
4024
19160
-436
-3160
9958
4111
6179
5223
6747
3061
1760
12462
2084
10334
808
-4578
8122
6458
-624
12404
2112
-458
-1854
2262
-68
2051
-2192
-3103
1173
7735
2491
6242
16847
10154
4481
396
-1849
12555
2489
-1424
12606
11726
-3134
1458
2062
11235
322
8320
9863
-1804
-9853
14040
-10001
4465
2322
7190
-420
1433
-7227
1363
5219
-4042
-5222
8594
-6187
-11012
23781
-4262
-433
-2104
4660
26761
-5371
37405
14925
-583
74
1054
-8515
1569
-10806
9
-1673
6094
-2594
-2135
-1921
17830
526
-1693
-8266
1583
11050
831
1288
26287
-6696
13795
783
-6051
4676
2506
-7021
1224
-770
