-12497
4554
1960
4959
45448
23479
-6435
-13547
-7475
-15635
-1537
14253
2041
605
-6339
5093
-12140
-2658
9756
-5414
-7832
980
-17373
3065
-7090
2966
-7858
-3582
8294
1233
6343
-15327
-1527
-12731
1003
-764
11968
9343
-3746
-12207
9778
7683
-11011
-5615
20760
4517
7197
-10590
-6319
228
2835
9346
5015
-11138
-10033
2012
22227
-2973
-8628
-4037
-6199
-2565
-5
348
1051
-19869
1084
17584
10802
-3600
-5438
-4662
-5984
41551
-1374
14858
-4342
1567
8055
-582
2792
-11229
-7098
-841
-11871
-2926
-8921
-5190
-4998
13117
-7048
7002
-3478
-3877
-10137
2386
-3940
-11313
-5412
-5897
5750
-3923
-5101
-14071
21729
-2161
-8112
-1343
5368
-1547
55
5733
8319
-1315
4201
-3419
12655
-2095
-18023
-6909
-519
-9657
11607
-10989
-3123
-2733
-9285
88830
2986
-1838
-7443
6209
-3294
3847
-11722
16855
-6256
3608
-7483
-4769
12895
8625
-11065
-2183
-1109
-1913
-9157
15732
-5481
289
15892
775
8178
592
-3686
-1779
21972
761
-3506
-5578
4134
-2764
-12597
-3849
16144
-2613
-2914
-10758
12517
-6056
-2269
10387
-23357
1518
-10834
161
-14094
-3137
-10136
-14107
5593
-7653
-1871
58067
240
-1052
-5121
-596
-6794
9529
5708
-14511
3504
1844
14824
-9332
1199
-7144
3350
9027
-15918
4371
-1413
12293
19660
-4226
4390
-20186
6267
27698
-8754
-11244
5603
-356
608
3402
-3049
-2514
2180
3717
2593
13423
280
9148
-5478
-7539
-3416
-1893
-11294
1694
-6171
-9107
-10793
5659
-1425
10619
-5604
9920
-10772
2095
-6429
-12534
-4699
-2599
14981
-1774
-1963
-11496
14776
-11199
6370
14988
-1157
11575
1453
-31171
1643
7027
26285
-2528
-3594
4812
-2163
2789
14601
-6333
-12604
-1126
4794
-5782
2105
-2730
-41
4866
451
-6111
-12277
-5203
13326
-6665
9512
21999
-9682
24410
-13564
1762
-11371
-3869
-3397
-6473
1495
10080
9969
-1432
-4140
-14418
855
-16490
-19051
-7814
-671
45397
-1406
-1750
-8895
3865
-9306
8574
-15315
-16067
-8801
-487
-6450
13629
-12654
-4382
-4329
-9717
-8249
-16899
11028
28741
-1791
-379
-2423
2363
-3769
5729
-3289
770
-9705
1986
3723
-21249
-18283
-7716
-3690
-1374
-1813
-2800
6423
-9681
3493
2581
-12638
-1273
-18953
3214
6396
15255
-5251
11777
-12336
-7667
6384
-5372
17735
-2333
-1448
5507
-22104
-3267
-7860
1734
7642
10888
-3112
-56
-2761
-8630
-18498
5822
-13978
2587
7609
-11034
-4469
1254
-11062
-1064
-6514
3950
-7243
-162
6790
-948
7992
-17849
-27
2843
-8577
-9953
-3009
-14556
8244
-19229
-9057
-9209
-1154
6577
-4268
4719
-4591
122
1860
-4630
-12548
-2634
7905
-8221
9034
3838
2913
-16120
-3989
1705
2856
-8224
-3845
1043
4839
-10388
20121
11985
-126
-7459
2194
6157
647
-8276
-2079
-9634
-9600
-1937
-7864
-2853
3118
-11324
-1457
-4714
-7416
-11680
-5599
-5182
-9978
769
5702
3085
-3475
1045
-2635
7175
-80
15182
2400
-182
-4849
3724
11084
-13115
-3392
26449
2608
-7132
-5126
-9601
14381
-1575
502
-2030
12205
-3969
-2888
-4914
1434
-12672
5449
1538
5679
-10293
-1438
12480
-6172
-8968
-522
5772
-1372
-6760
-11197
-467
-7968
-746
-2923
6312
13839
-11469
-4804
4265
889
-11079
38272
-2169
-1203
-2906
-4481
7454
-4860
-22
-2425
13165
6102
21627
-11336
-8658
3676
11630
1126
5122
-3965
-649
16905
6333
-2214
661
-4302
4715
-14334
4672
-11113
3579
-610
-7785
-8230
1697
-7936
1934
-12487
13856
-6706
7708
10342
14869
2255
-8000
-12315
-193
-13800
-16750
-10164
-15124
1341
3293
22220
708
4807
-5647
1853
-9415
8504
11406
-18046
-9113
-5398
10581
2036
-2745
-8511
1083
-13399
13245
16540
-9296
-9979
2948
-1922
-6007
13229
8561
6011
2394
2199
-5965
2141
4546
-1461
-11572
-2379
11624
1105
-1168
-11021
-9447
16006
9395
-9743
-7056
-10698
36428
1983
-6933
1537
-3271
-1592
-12555
-16735
4764
698
-2519
-18496
-2336
-13735
-13227
-8580
-7252
-3498
-19607
4609
-15223
-13026
5265
4966
5266
202
11222
1665
12163
-161
10021
-1322
15249
-1307
1273
-20286
6197
-9327
-1816
8536
20294
-3772
6685
1250
8599
-7216
-5968
-4955
2198
-7557
-4932
3508
19677
-621
-8478
-11710
-6880
-275
3907
-12720
-3532
-284
-2778
-2090
9822
-10400
7609
4836
3588
-567
-595
-10342
-5833
-13315
-9966
