28
28
4
12
-16
3
-63
-23
-67
-96
31
-10
20
63
-127
-104
-44
-16
-44
12
40
2
-33
11
4
-10
-2
34
9
-54
55
-20
-17
91
44
27
25
124
27
-9
-61
-10
40
-14
115
-56
18
23
37
43
-70
38
-9
-29
-24
-66
-32
40
-73
12
-17
120
-28
67
-9
46
17
-76
-76
-36
11
-19
49
-31
-86
7
-40
-71
-8
30
-25
78
-9
50
-41
-38
1
3
-31
-91
21
-19
-45
-1
-27
27
54
22
16
-35
10
3
-41
13
-28
-15
-26
-16
-23
70
37
16
-28
62
32
3
-7
-43
-3
-45
12
25
-48
30
36
6
-24
69
-18
-3
73
72
-14
42
46
53
45
92
-28
-37
-111
99
-16
-13
-12
51
32
-40
36
38
-54
5
-1
-49
-50
36
-3
119
33
-16
-16
32
-22
-28
-7
30
-9
-54
2
40
62
-18
80
-30
-5
41
-5
-30
-86
17
70
108
25
-17
-83
-15
1
32
-127
5
-30
10
22
-38
38
26
25
-8
5
9
21
34
0
-1
24
10
-127
-48
12
-45
-18
12
17
10
12
10
9
-13
-1
56
28
-36
-22
39
24
1
40
12
-23
17
-32
-2
-12
19
-5
-34
1
-53
-22
-1
35
39
-10
-44
71
64
9
53
-5
8
54
0
1
-4
5
-24
-59
-68
-14
-54
1
-50
18
-73
1
-10
-28
-2
9
-77
-16
-11
-12
12
-31
-32
19
-68
-11
-2
-21
-69
38
-40
-2
-25
26
-43
-35
-33
-33
16
-77
-4
-19
-52
-33
-45
38
13
13
-3
-13
8
36
-48
25
-45
2
15
24
-12
23
-8
6
-15
-8
34
-6
15
5
-11
20
-7
87
10
27
66
-36
-17
-19
9
69
-12
-15
-11
-8
-2
-3
2
26
-7
-24
-30
33
47
-28
35
-34
37
-40
19
32
-2
34
46
9
-64
31
-8
-2
-38
111
-15
-25
77
7
-53
-7
20
127
-22
22
-11
15
-12
-32
-11
26
5
7
-24
3
21
-20
-11
-15
37
-13
-32
-55
-20
-60
22
-25
-11
10
54
-29
10
35
47
-39
40
15
46
13
-6
-5
-25
23
-16
-19
23
-37
1
15
14
69
-8
-24
13
36
-7
15
37
-13
46
-124
5
-20
-28
7
28
8
-11
6
9
-9
-11
17
-31
-34
-1
-25
26
-3
-69
-31
5
-2
68
-11
113
-13
42
-3
-19
-61
-16
3
-67
-14
90
11
-21
-127
25
20
104
22
23
-32
0
15
-2
-36
-15
-7
34
-21
30
45
38
69
-47
-12
-75
-39
71
17
47
82
90
-20
-40
11
49
-77
-34
-104
-29
-14
29
99
-17
127
-14
4
47
88
20
-3
33
1
39
48
-56
2
10
-60
-26
49
-58
-32
13
-40
-17
-42
-22
6
69
7
-31
36
-26
1
-5
77
114
-8
8
-75
-80
-70
17
-49
-69
-13
-82
-28
-31
-71
66
74
-3
19
-17
47
-42
59
28
-17
44
36
52
27
-87
40
-26
53
-60
13
-28
-100
-56
61
5
-53
45
-79
5
46
-84
-10
-39
64
-36
69
-32
89
-5
-91
-35
-19
-54
-65
54
-85
12
-13
-15
-24
78
-61
-4
-5
-70
42
-38
-28
-37
-54
-38
10
-25
-10
19
2
-12
108
57
-33
23
62
7
-84
-67
-36
-108
-13
57
-3
82
-54
12
-50
63
-59
84
-47
70
-42
61
-66
-48
-53
112
4
16
-74
-18
-127
38
-27
-70
58
-62
126
13
38
-21
-35
-22
81
-62
-11
59
37
35
29
-31
-5
-36
-55
21
76
-39
-7
67
-127
43
19
-30
-39
17
29
2
13
8
4
33
30
-15
-29
65
-8
-40
7
-59
17
-10
39
-70
53
-43
57
31
-24
-19
-14
47
23
111
38
15
-12
50
-25
-16
-8
40
-21
30
73
10
-83
13
-25
6
-22
-66
28
42
18
-18
-49
-3
-30
-10
-19
-5
-12
31
-15
-21
58
-1
-26
20
-2
36
30
38
-55
43
77
-78
-37
15
-58
-15
14
-3
60
-75
26
13
2
-7
-23
-12
-20
-15
1
11
-39
-1
30
-4
-18
12
83
-9
-16
-9
12
-32
15
9
10
10
6
21
-19
-10
-2
1
-19
4
-16
16
8
-13
-4
7
-18
28
-25
12
5
14
-21
-10
-6
15
-18
-1
12
-39
31
-6
10
13
20
-24
-17
24
16
-37
21
40
7
18
-4
38
8
3
-37
-21
-7
-41
-42
-7
9
-6
21
-63
-2
22
127
-7
-14
-115
-2
-11
-5
-1
0
-7
-43
-8
27
-9
45
-9
-18
-38
-66
-49
-74
47
-48
-21
-42
-61
-94
65
99
-76
12
-54
56
-28
72
13
84
42
53
-13
15
-34
-25
-109
-62
-13
1
122
12
86
101
-42
113
-36
-34
-31
8
58
-32
-61
56
16
20
21
-45
25
-87
-35
63
23
-50
0
3
10
-28
40
-52
32
-29
65
69
-67
2
83
24
66
76
14
61
-12
89
-2
69
27
30
20
69
-17
-45
47
-39
87
-9
127
-28
21
18
29
-120
-15
43
23
-32
-79
-96
-26
-69
10
4
-103
1
-71
118
-17
59
5
-54
-53
18
-52
31
42
-30
-20
0
-34
-14
18
-49
2
-32
-48
-11
25
-39
38
-27
-83
87
-21
57
-23
-8
24
30
50
44
29
63
65
-102
-127
18
-47
49
84
-4
-16
-5
27
-29
8
-12
31
-60
14
68
67
-74
52
-38
89
28
2
-6
-21
38
-12
-32
62
-2
-38
-4
13
20
-5
-99
22
-24
-42
-18
-30
-14
73
10
2
11
-39
24
70
35
26
-5
-34
45
39
24
21
8
-10
-21
-89
8
-38
-4
51
-111
-47
25
14
-51
-20
7
30
-9
-17
-30
20
49
9
-26
3
-65
-26
-8
24
-5
2
-78
17
38
19
-47
-36
37
48
-27
-89
68
127
-54
42
7
-28
29
-40
6
-31
-64
-8
-32
-51
-1
-76
-33
3
37
-69
-5
-48
-19
0
16
-51
-15
-38
11
82
27
-69
21
15
-1
29
23
-70
-3
6
4
-51
29
-16
-69
-22
-83
5
-65
-45
12
-56
27
-37
15
-40
-17
4
-73
-4
41
27
66
-70
20
6
17
5
-18
15
-45
24
43
-52
-21
60
50
-26
5
-36
127
-31
1
7
-29
-61
-7
-55
118
1
5
59
20
-80
-35
9
77
21
-26
12
16
33
17
47
10
-62
26
-57
-38
-6
5
-2
-52
41
72
82
-9
-35
14
-23
-9
92
-12
-61
-20
-9
15
26
13
-23
-15
31
30
10
11
10
35
-77
31
17
26
-37
25
-45
-32
-86
32
45
45
-13
-53
61
103
-60
50
8
30
36
56
-26
22
15
65
26
-99
65
-65
88
-64
5
-82
47
17
-39
7
-97
1
1
-14
22
37
-4
-25
18
-75
74
36
21
20
-20
-47
-127
119
-103
66
96
-44
-101
-49
24
2
-14
-41
-38
-70
22
-7
61
-65
9
-43
32
-24
-59
40
-20
0
-21
3
24
-38
58
-123
-12
24
-54
-23
10
-32
-70
-57
-96
-20
30
43
54
5
43
26
35
13
28
41
48
64
-31
-70
-9
55
-49
-93
-25
-9
11
104
-27
-7
-7
41
-69
6
49
-2
0
0
37
34
68
31
13
83
41
110
-13
-7
-51
33
91
20
-4
35
2
51
19
-7
60
-27
30
-52
98
-20
44
-9
-26
22
72
28
-25
-24
-87
-45
8
62
64
-22
48
94
-2
-60
5
127
0
71
44
-100
-9
-97
87
-43
-117
-63
13
-26
38
2
-92
-6
-79
-108
54
29
45
-24
-111
54
49
77
-3
-43
-26
6
-69
14
7
-127
-29
-42
-21
50
-35
23
78
-64
31
57
-29
81
14
2
49
80
10
18
-9
38
36
-60
-24
40
59
-63
22
-10
65
19
63
27
10
-19
62
20
97
17
-7
-46
114
-14
123
-15
66
38
-19
16
-36
83
-16
-59
-23
19
-60
-34
-29
58
-122
-31
-23
74
-14
47
-106
32
26
32
123
-58
13
-82
-46
-17
28
-25
55
-22
36
78
29
3
3
-5
-22
-4
-2
-35
-25
-12
28
-7
25
-26
-36
38
-54
53
53
-9
29
-10
26
10
18
9
18
40
45
18
-12
21
15
16
-9
-16
20
-20
45
30
35
-5
42
4
12
-10
32
-23
39
-32
-15
-13
-25
55
-10
0
51
23
42
-18
-5
26
-52
-24
-39
-21
-21
-3
-17
-27
-4
1
51
4
-2
-127
47
-1
3
-28
43
-27
-45
-60
-46
34
34
-10
47
46
-36
78
0
6
-29
59
4
-17
9
22
18
-36
-38
-13
28
-30
0
-84
86
-30
8
26
1
83
12
-12
18
-9
-87
13
19
-47
-3
-15
24
-24
17
35
29
5
9
-46
29
44
-12
-28
13
-24
2
3
39
8
-45
-2
-2
48
4
10
21
-23
8
48
6
-40
-2
13
-12
-19
89
-16
0
29
44
-7
30
3
-9
9
-56
-1
-127
-6
-17
-45
-17
-5
32
-21
-21
11
-8
79
32
-45
-6
61
-1
13
24
-24
-27
-8
7
2
-36
26
28
0
-58
-53
47
-38
44
-5
82
12
-34
77
7
-12
-44
-28
78
-25
-77
75
39
-25
11
-28
-27
15
7
-23
-35
21
19
-59
22
8
52
-40
-17
25
-26
15
-66
26
-49
-7
-3
33
-57
6
-68
-56
0
44
-77
-3
-25
-21
-8
55
28
15
-25
31
101
37
-33
66
91
72
43
-57
127
70
23
-19
-71
-9
69
-15
3
29
-55
41
-3
39
98
-14
32
-23
-21
9
-43
-42
44
11
23
79
104
-16
-39
-14
-26
32
-56
57
-8
-19
24
67
14
55
-6
-33
-37
29
4
74
38
5
-17
-18
-61
19
22
-57
3
-27
26
4
-36
-54
35
-30
-31
27
-1
32
7
-46
-21
1
-15
-55
96
34
-7
-20
-44
49
-127
3
37
12
50
117
0
-45
17
-28
-12
-83
-44
0
62
35
74
-43
15
49
12
23
-26
13
-19
-10
-8
-61
-19
1
-74
71
-14
-21
-53
79
-42
13
-68
-2
13
-37
18
12
44
21
-127
-68
-40
41
89
-4
-46
-63
-41
9
42
-42
-3
63
77
39
-5
-45
-37
-4
36
22
-54
4
0
66
-32
-5
10
-54
-21
-14
-74
40
-1
30
68
-83
84
-24
-40
65
28
39
-38
-72
39
-27
-86
16
12
16
14
80
88
60
31
16
43
-54
-8
-44
-37
-43
9
-97
-36
50
47
-51
-76
49
18
-19
10
22
-13
-23
-6
17
33
-40
94
77
4
-67
-70
16
16
38
8
-78
23
33
39
9
11
-10
48
7
75
38
-71
38
-12
8
-78
52
13
-31
26
-3
-57
-41
13
-87
24
-21
57
-33
5
-6
-6
70
50
-45
9
69
-45
-59
31
34
12
-78
11
-90
-29
4
35
63
50
-73
8
-5
-21
1
-1
-19
1
-60
83
-16
37
-30
69
-4
-4
0
58
-48
-127
-46
-49
85
-24
10
67
95
11
36
10
-12
40
-25
16
61
-25
3
22
-11
-23
4
-66
1
6
23
-8
-21
86
-10
-43
-46
12
-24
102
-52
48
-47
15
14
20
-26
-29
-1
-75
18
-1
-3
35
-40
2
9
-6
49
-56
-29
-5
-19
36
14
-2
39
-38
-9
40
12
75
26
-13
14
-14
3
18
-29
-10
-63
7
23
-20
3
-38
12
13
6
29
-1
1
19
-31
35
-19
-40
88
45
-54
36
-21
-84
-26
-1
22
-18
5
34
-30
46
62
38
18
19
28
3
-15
34
127
18
-31
50
1
12
31
-12
2
-7
21
21
-43
-36
-23
1
13
82
-53
-67
-20
49
-2
6
40
12
90
27
-32
27
26
27
-39
-48
19
48
-38
-49
4
14
-1
0
-14
-35
39
65
50
9
105
-33
53
6
-19
54
31
40
-3
-27
-20
-16
-22
-36
-37
-2
-39
-12
-11
5
8
-69
6
-97
98
37
-20
-2
-24
43
-9
27
48
1
-28
104
-10
-55
-3
-13
66
-16
-83
51
-127
105
33
-34
104
-42
-3
73
-24
65
17
35
48
-1
53
-54
-49
-14
63
-80
-62
-11
36
-11
4
10
1
24
-21
-19
-14
55
9
-13
-6
9
54
46
22
9
-3
51
6
0
-37
61
-47
-9
1
48
-123
-85
-14
22
-6
39
19
31
-20
43
-99
9
-14
27
12
-32
-16
-17
-16
30
-12
8
19
47
-40
-17
-69
26
-9
15
-42
71
11
-5
4
-23
92
-13
-15
-1
-33
-43
-35
11
-20
9
28
37
-19
22
-23
9
24
42
8
11
-45
127
-87
0
-68
9
-16
-28
7
-20
30
-2
4
32
33
33
13
-43
-37
120
-32
13
36
-34
-16
-16
-10
17
-20
-75
-75
-3
30
42
-5
-27
-7
-61
32
47
64
10
15
-23
24
55
-35
9
58
26
6
-7
-26
36
-28
-81
-29
2
71
-26
-7
32
41
-68
-31
-12
-77
-81
-54
-1
-46
-7
-73
-1
61
-85
36
-21
-101
65
-29
31
-21
-73
-62
23
28
47
-19
50
127
-17
36
18
65
11
53
76
63
60
27
-32
15
-33
-21
82
57
-64
36
43
19
-32
-21
-29
2
63
-76
-86
93
-33
26
-57
105
69
44
19
14
-36
9
4
38
18
9
-4
39
27
-68
-57
-59
-30
23
-12
21
-38
-61
-12
42
-7
-8
-16
-45
13
17
-36
39
-25
33
8
66
-10
8
-27
19
-89
33
21
-19
-82
-12
18
-51
-12
-17
78
-10
-11
6
-5
81
8
44
-85
1
40
-68
-20
-9
47
-20
21
13
20
-73
-16
127
-68
9
-3
-5
22
-127
39
-105
15
-11
5
-17
54
-16
-38
85
13
-4
-22
75
3
-85
-28
25
6
-57
103
-47
-29
21
-36
-10
33
8
31
-13
-65
41
-80
33
-15
17
-85
-73
-8
-30
-9
-11
34
-9
47
40
-42
-34
12
-1
-21
28
24
11
19
-36
-27
47
-45
-26
-30
-70
-100
7
26
0
8
-25
-25
-66
-46
-2
8
41
-23
32
31
21
12
64
60
14
22
6
-35
83
-119
34
-28
-34
-48
-8
103
50
-15
-35
-1
-62
62
-116
41
-38
-8
68
127
8
56
-72
-45
-57
-4
-25
64
-33
7
30
-28
24
-6
-54
46
-5
-32
-18
-8
-44
36
-35
0
-17
67
-54
5
-44
12
11
36
1
17
-53
-1
-31
-21
-53
47
-31
48
44
-70
-34
-44
19
-65
-16
-36
-34
-50
67
-102
31
14
-31
9
5
19
-44
-8
16
-11
-78
-45
27
39
7
8
-47
43
24
56
-51
10
-79
9
-8
-22
-61
58
-27
60
47
33
-56
99
72
38
-8
2
93
-26
-1
17
7
14
33
-23
63
-67
-18
-5
3
-9
-1
-33
77
-6
40
-5
-56
22
0
-2
-2
-45
19
-69
-12
13
-43
63
58
28
-57
-88
34
-14
-10
86
18
2
-12
-57
-12
27
8
-13
-26
29
21
7
-22
14
-75
-39
85
-62
-89
-50
47
11
11
-18
14
-127
-11
16
-51
13
64
-20
35
-98
-23
-80
-14
-42
26
33
39
-16
-4
14
41
11
-24
-11
19
13
-24
-10
75
-27
23
103
6
6
-33
15
27
-61
-64
26
12
31
-19
40
35
-62
47
2
19
-3
-51
-55
-6
-1
14
11
22
-20
-8
33
-47
38
-16
-21
-3
62
63
6
-7
-17
-15
15
5
16
-24
-18
66
-19
15
74
-22
0
19
-18
9
20
127
13
-1
-9
7
-16
78
-12
-49
-23
26
15
-29
36
-11
53
30
4
-14
-6
-49
118
-43
46
-43
41
43
17
-4
59
-13
-27
-6
8
83
15
-25
101
64
-12
-14
21
5
6
-49
16
-109
53
-4
-78
-3
5
-15
-60
42
45
24
3
56
-31
3
22
60
-55
5
-27
31
111
34
-65
-41
46
-47
0
35
-88
-39
58
1
34
28
25
-62
-17
-25
-9
-3
-36
36
68
-49
-7
38
-36
72
2
21
-10
30
-60
-106
-9
-91
72
-38
-19
75
29
60
74
14
56
31
-127
38
23
-1
-62
19
25
-1
-11
-23
0
-38
30
90
25
6
-67
-14
6
29
-1
40
-38
-15
-124
17
26
-33
-2
27
-14
-41
13
72
-42
81
76
-92
-79
14
-41
34
0
40
-1
32
46
-3
6
47
-19
-28
45
85
63
-3
30
-57
-57
-6
44
-34
90
-41
9
13
1
91
-12
28
60
-63
38
18
-8
-52
-23
-111
27
-119
11
15
-20
17
-51
43
-1
-94
-81
46
7
34
-62
107
3
78
-101
-127
121
28
88
96
37
-24
-43
-6
-1
2
-15
37
-27
-20
24
24
84
9
-33
-21
-92
-12
-85
-23
11
-20
-30
-11
0
-108
47
-24
11
17
-47
-40
38
13
103
21
-10
-30
-127
-31
11
-1
16
45
-2
42
20
11
85
-8
-8
-9
-68
-45
35
9
27
-58
-33
-3
18
-49
-28
72
-5
23
27
16
-27
16
21
43
-47
-40
-16
61
51
-7
-88
6
-12
-37
19
-39
3
-8
45
-39
10
-5
19
-19
-15
-40
-11
-40
18
46
63
28
15
-30
41
-56
31
17
-10
-47
61
-8
4
-58
16
-36
34
69
-4
19
75
61
-127
-78
-22
-6
-48
-28
-54
-60
18
23
0
-4
0
45
-36
-9
-21
4
-39
77
62
43
-42
-17
64
61
6
-16
-35
-26
5
-98
-63
-3
-94
-8
-15
3
50
-27
-14
8
-16
-26
-40
-6
-8
27
-3
-24
-86
34
-35
-25
-17
-1
-20
-40
-20
-28
-39
-30
46
-24
-10
-33
30
18
58
-26
30
-39
-13
-11
16
-95
58
-21
-10
-43
32
23
28
-23
11
-7
-16
19
10
1
-2
-19
2
11
25
-21
127
8
-1
24
40
-7
-38
-1
-34
-32
51
0
19
-11
-9
62
22
3
12
-33
-43
-38
23
-55
32
13
49
11
-16
-14
-12
43
35
-24
-34
-3
73
-27
-9
-16
0
-26
14
0
46
-10
14
-7
17
6
-12
-11
-1
2
21
42
26
33
-35
31
-19
-11
-40
21
23
16
-16
-35
-9
-2
-4
43
12
15
18
18
-37
-33
18
-5
8
24
30
19
37
11
7
-8
-2
-49
-17
48
-13
16
27
-18
43
21
-23
-18
-27
78
-23
-27
-47
-2
-23
13
-16
-30
-48
1
44
-23
-26
1
-12
-2
-90
-3
27
-12
-2
5
35
39
-101
-21
5
4
9
99
-7
-78
-114
-37
41
-57
-42
-70
25
-15
45
50
-7
35
19
-9
20
-7
48
-3
-56
-35
-56
7
-43
-5
10
-127
-10
26
11
2
-21
4
-6
54
-3
-3
16
-10
7
70
-44
23
-24
0
2
-15
-31
-127
7
57
12
-1
-9
48
-25
-18
-8
9
5
11
49
-48
-20
15
-10
-22
-7
37
8
-1
-15
52
29
19
17
54
-43
5
-77
60
6
-3
-25
8
-7
20
28
-52
-37
26
-46
-68
23
17
56
-2
-50
15
22
6
18
-62
20
-13
27
-20
-51
31
-65
29
-56
-14
-30
-33
-4
-10
9
-14
-84
30
-12
-60
-10
48
-49
51
-9
-33
-51
-25
-15
-2
16
16
-1
-48
-9
63
33
16
9
19
12
1
5
-26
0
-8
12
31
-2
-4
-54
17
-4
-7
14
34
-53
-15
21
6
-31
2
23
-2
4
-9
-7
-16
36
18
3
29
10
2
-25
-40
5
-26
47
-82
-4
-26
37
27
-44
5
15
45
0
34
15
10
4
8
-12
-40
6
39
-24
8
-2
123
-2
-1
-4
2
-16
-52
31
24
-3
2
9
5
10
35
-8
-2
-22
-6
-127
14
41
78
63
8
35
-18
8
-47
59
47
-32
-23
-38
106
7
-40
48
-81
71
-89
34
34
-38
11
-60
45
37
-12
53
5
-83
-30
17
-33
7
-54
73
-15
90
-81
36
-19
124
43
-17
54
86
25
57
13
88
-43
8
-7
45
-30
29
-83
-68
-81
-63
-93
19
118
-127
21
11
-20
26
116
-34
-19
103
-1
-76
-79
-109
-2
-2
-85
97
12
-24
-20
-27
98
55
15
25
-5
48
42
34
-20
-15
41
4
-45
61
-92
31
57
35
14
34
-55
58
-42
55
-75
-25
-8
51
-34
41
-46
74
-8
-44
52
-21
-11
56
32
-31
90
106
-16
-26
-12
-103
41
-109
127
40
-29
27
-16
52
-26
-27
14
-36
-12
-11
-59
-2
-7
-3
-26
-36
-11
94
-72
-61
-56
115
40
-100
51
23
33
1
2
-14
13
32
-71
-92
28
88
-82
-120
-24
-23
-5
57
-53
60
-72
44
-9
-16
74
34
-122
-60
16
-72
-46
0
-29
-37
10
54
-16
-61
56
-25
-64
105
-20
-4
-7
54
30
54
-44
57
31
12
-3
-8
11
52
-29
-31
-19
102
-24
-68
5
6
-56
32
-11
-49
16
-21
28
-51
40
-15
-17
9
28
-23
-9
-78
69
5
-13
-20
-13
2
35
31
-3
-34
33
2
-14
9
32
21
-21
44
13
13
24
11
-36
-6
-33
18
-26
-3
78
-5
75
-24
-64
-32
-29
-49
-90
10
27
42
-6
39
53
36
-69
47
13
115
-60
-7
-127
-54
17
23
24
29
23
-43
28
21
30
-8
17
-38
29
-26
12
5
5
-12
-47
15
-6
-4
12
-33
6
-20
-12
18
26
-1
-4
-6
-34
14
-14
-29
2
33
4
-24
-34
-14
4
6
42
3
-16
33
-6
-18
26
17
28
8
-20
-12
-25
4
31
-6
2
-33
-6
-4
-17
56
-9
35
-12
10
70
13
-71
-23
12
2
31
-2
87
12
34
-38
-8
-43
-7
19
13
57
2
-2
-16
-24
1
50
127
16
3
-9
-26
16
-8
2
-11
-12
9
88
3
-70
-44
-16
-37
-82
-53
42
-54
-58
8
0
-59
76
2
-25
8
-39
-14
67
-77
27
-42
58
-42
-7
-127
-87
0
41
-1
32
60
-51
-12
-41
-42
-34
-12
-1
11
-38
-27
24
-12
42
-29
34
9
-17
-42
18
53
82
75
16
29
16
3
25
-8
0
-62
-93
78
-8
-10
-4
8
3
25
35
1
11
63
1
-55
-54
41
29
102
-9
-74
-30
-66
57
-13
-25
-45
5
-22
-50
-73
58
42
1
-34
-22
-72
-21
41
7
-19
-15
29
28
25
10
21
82
-4
52
-43
-16
-4
17
5
-43
7
-18
20
30
59
30
-19
13
68
13
10
-72
57
48
-20
-34
5
-3
-44
17
-35
-46
34
-30
10
-11
-7
25
39
29
-4
10
37
10
-5
1
42
39
-23
-13
56
10
32
-19
23
-8
-39
-14
-127
27
-35
-38
18
1
-37
-38
9
-29
-8
83
-2
-15
-30
16
30
-40
16
-11
-70
-39
15
8
16
-101
-43
7
-17
-38
56
73
-51
-47
63
-24
19
34
-19
51
-32
32
12
-14
26
0
-26
-18
-7
3
2
-20
4
44
-36
48
18
1
-5
-36
-47
-22
-72
11
41
-21
4
-27
-31
16
1
-19
5
33
28
17
-17
32
-46
-5
-14
-10
33
5
-24
3
-16
-57
84
30
-7
-33
21
26
-103
-12
-28
12
-46
93
19
-36
38
-18
-41
-10
-24
127
-3
-10
-91
83
20
22
-8
17
-9
44
-62
-7
1
12
15
21
26
15
44
0
-38
-15
-44
8
4
25
20
-111
-17
6
32
60
-20
-41
-7
22
-41
32
61
29
-17
10
7
-29
13
85
-13
-33
-40
-7
-64
-14
-102
-102
-12
-49
-48
24
77
15
42
8
62
-53
-11
0
-57
16
-14
15
-61
16
127
48
89
36
37
-69
-28
-12
-1
11
-49
-10
-32
67
40
31
20
-12
-80
106
67
120
-9
-43
87
16
-111
0
-40
0
6
9
-77
-21
16
-36
-56
16
-21
-45
-63
-37
-49
-2
-93
-43
-23
4
27
-66
-7
2
-24
-19
-27
76
7
37
36
-28
98
15
15
-92
11
-1
78
-54
-50
-66
-1
-77
-14
-17
50
20
47
-85
-43
-32
-38
54
-8
19
-35
-9
-12
48
8
-39
-7
-72
-52
-34
-21
-45
-30
-29
4
-45
106
8
12
-14
-19
28
-63
33
-43
49
0
-6
5
-44
127
18
-29
42
-102
44
26
21
22
-26
-36
21
-8
31
82
18
98
50
-64
89
-11
41
-5
-45
15
-7
-5
28
-39
6
-22
53
-16
16
16
-36
29
28
-26
2
28
-8
3
-23
-41
9
12
-12
-3
-40
44
17
2
-42
-17
-41
-46
14
-28
6
-5
-9
2
21
5
-6
2
9
7
-21
-22
45
-30
15
74
-1
-16
-21
-1
-1
-17
-32
16
-28
19
-20
17
19
20
-44
27
11
-32
14
-24
-9
-42
-12
34
-13
127
-16
-2
7
-12
6
-28
31
-24
25
8
-25
-2
-12
-39
-22
-17
-25
107
46
32
-11
43
-45
43
20
106
-54
52
-76
-26
13
-57
29
79
-18
-39
10
9
20
-19
-41
11
42
-19
15
5
59
62
31
-120
-22
-13
35
-53
-42
-10
-12
-32
41
0
-48
33
12
49
54
29
6
-16
-19
5
27
-7
-21
55
29
127
1
46
71
-23
-88
-4
1
46
15
-8
0
-75
-38
44
41
25
23
-2
-25
23
97
-16
-12
29
-4
-7
-44
36
0
1
-49
-24
5
-50
38
-22
90
42
50
81
21
32
-11
11
-5
-55
-43
13
-14
44
58
-12
-7
-25
52
-51
51
65
63
-70
-17
0
20
-14
-3
98
-48
-38
25
-5
10
-72
-28
-42
-29
-46
-46
-34
40
-69
4
21
-56
42
38
127
-85
71
-35
24
47
17
-21
-34
19
43
-49
-39
-20
72
11
-20
83
-39
-33
-62
-10
6
-18
-67
7
-17
25
-55
-29
5
-1
57
23
4
-9
-3
66
-5
17
-11
-28
-31
-76
-41
35
-42
-23
-9
-32
27
3
7
32
-63
3
16
-34
-5
26
66
-40
27
-10
-34
-51
30
-51
38
9
5
27
-50
-28
-33
39
1
-3
-127
5
-2
19
26
-31
-31
-40
22
31
-77
26
12
3
-19
-26
75
64
-12
-19
-10
-11
127
-46
-89
64
-30
-51
-7
84
30
-24
10
5
80
-4
-8
61
-6
76
22
-18
-7
-90
-22
0
7
-80
30
-47
-29
-23
0
14
19
-14
39
-14
64
-14
11
-28
24
77
5
-28
8
36
48
-31
41
11
-26
-45
47
45
-127
41
-6
34
-53
69
24
-17
37
32
39
-85
31
-23
60
-28
22
-14
11
-24
57
89
24
25
-5
-31
-38
67
29
-43
-1
-46
-7
76
14
3
-45
2
57
16
-11
-10
41
-26
-122
102
-32
-11
5
40
25
-67
-13
4
-10
25
-71
-7
-24
-90
68
21
85
20
-7
-23
35
-59
111
-22
48
0
-100
-55
44
5
16
7
-91
-29
-6
107
47
60
21
-30
-27
-18
4
-1
-9
-78
30
-19
-2
-7
-22
41
-18
-34
-1
11
77
13
11
-54
127
-17
38
-70
47
-2
41
-47
-26
-65
-7
-22
-30
-66
14
21
-9
-40
-47
60
-51
-69
8
0
-7
-20
34
-7
49
-58
-29
18
-19
-39
14
-39
-31
-4
10
29
83
26
-12
8
-27
5
3
-67
-31
37
32
-91
-17
-50
-23
20
-28
64
-89
-45
-30
32
76
12
-25
61
-6
-8
7
-1
22
3
-58
45
-21
48
4
-14
3
-21
-17
27
-99
14
-32
10
63
28
-31
11
-39
-14
-16
-127
-6
26
-7
28
-39
17
33
-18
-15
-24
14
38
34
-9
-13
58
-19
16
-10
3
46
26
39
-6
-22
-17
-31
-19
-2
-27
-16
-17
37
5
-25
-21
45
-29
-9
-17
-83
-10
-28
10
-3
39
-66
13
-67
-5
2
41
-28
10
-38
-28
-16
28
38
-34
-58
-75
-29
-15
-22
-12
18
-32
-18
-4
19
-8
26
40
-31
14
17
-23
-24
5
-12
-10
0
-29
-74
-5
3
12
-45
-73
-5
-12
7
-61
40
-16
-20
28
-9
38
25
29
-29
-11
24
-3
-23
72
-7
-5
7
44
-7
45
-41
-33
-69
-7
-1
14
-1
-95
63
-46
39
37
-17
10
-18
58
-8
5
10
32
-55
43
33
-7
90
3
-20
0
24
-31
73
26
57
-52
8
28
-26
-43
34
-11
84
-25
58
57
47
13
127
-60
64
30
-28
4
3
69
1
27
20
2
2
-14
20
21
4
4
-35
-21
-19
-8
22
-48
-8
24
34
2
-23
0
5
-33
-11
3
1
-24
23
12
-8
-4
-17
34
6
3
-21
-12
-14
29
31
-53
18
-4
-12
-25
1
19
-17
-32
33
28
-11
13
18
5
27
-14
2
-12
9
-5
-20
-17
32
-21
127
3
4
-30
7
-10
75
-53
53
16
2
-4
24
-17
19
-24
-52
23
36
-42
-8
-66
45
19
-7
-7
-30
-2
-9
22
6
-12
24
-10
-12
2
-1
-24
-3
-9
-1
-23
11
-10
-12
-6
9
-29
-15
-20
16
5
-24
9
-14
12
29
8
-26
-19
2
-14
17
-13
29
27
25
-19
12
-2
29
23
-19
20
-10
0
49
-31
-6
10
-29
5
-1
11
10
-8
47
31
-5
-14
16
-4
-16
0
40
-8
91
31
-7
-13
-22
-10
127
-16
-9
-31
3
36
18
7
-13
16
-62
-15
-31
-4
-16
27
-50
-19
6
8
17
11
36
-6
-2
10
4
6
-2
39
15
-2
-3
-26
-22
-81
7
-16
20
52
9
84
-41
-19
-56
-59
35
-16
-30
-32
-12
61
30
-14
-5
51
75
13
-42
-24
30
49
21
18
-13
76
-8
46
-92
4
-49
35
-16
-53
16
42
-39
-52
127
22
10
43
4
-14
31
-24
34
-24
74
110
-1
45
43
-23
-46
29
-118
5
59
-2
6
-61
-44
-25
1
-57
-33
-20
-101
-25
48
27
124
25
-12
25
-12
-31
-27
-20
13
-11
-68
-54
16
25
-21
9
43
-6
-1
-17
-20
-46
-20
-13
-54
0
-38
-63
-14
-8
50
-9
-39
44
-31
-47
76
49
17
-19
25
82
66
84
21
76
19
98
-29
-10
-62
78
-6
57
-21
15
32
-32
7
13
51
-16
17
73
-38
12
46
57
-46
-6
-2
-127
-60
17
-8
3
-3
46
-47
61
26
-64
23
-20
7
-101
-31
-51
42
5
-26
20
-16
-19
12
-48
-93
9
38
-7
12
-5
-9
39
-40
65
2
-4
1
4
-17
-9
2
6
-2
50
-16
6
-17
-10
19
-6
-11
-1
-3
-1
4
-7
15
-2
-3
3
-19
-9
-9
8
-7
5
17
0
2
-6
-18
8
21
13
-5
16
13
23
21
-17
5
-8
0
-12
10
-3
-3
-21
17
6
-7
-22
18
-14
-3
-14
-23
5
-8
-8
6
9
1
3
127
23
3
5
6
2
2
-12
13
7
-25
-23
-17
-93
-15
16
-17
-7
-1
-13
-5
4
10
-18
5
19
-4
6
10
-2
4
-25
23
-3
11
-104
9
32
23
1
15
21
21
22
0
-54
13
8
-17
-1
1
-15
12
32
-18
-3
-8
-17
-29
36
-11
18
10
-15
3
26
25
-13
127
15
-4
57
13
1
-48
-28
5
-9
32
116
27
-51
-10
-7
8
-26
-34
-9
19
34
13
-45
-3
-8
-32
-8
24
34
57
16
56
12
-11
40
44
-6
18
-19
-14
-49
18
56
-42
-19
6
9
98
49
-19
-11
-14
-38
48
20
-20
18
-33
2
14
-36
9
4
75
-43
-38
33
-27
-9
-20
2
3
14
5
61
11
-7
-2
5
10
-18
-26
-58
-31
61
-11
40
-38
-41
-22
-32
-11
-47
6
2
3
-18
-13
23
32
60
-14
2
-44
1
-31
3
34
27
25
-1
-34
-2
-40
-22
-42
28
-111
-13
31
25
2
-18
39
49
-36
-22
-34
23
26
23
-68
-48
80
26
127
127
-39
78
-62
3
2
1
38
22
-28
21
1
35
-19
2
-6
18
20
31
-13
-1
48
3
30
-12
-35
-22
16
64
-10
21
-8
-3
28
9
-13
1
-11
-37
-15
7
-14
-9
-16
32
-19
-41
3
-22
-15
59
25
23
-3
-13
-1
7
-32
-1
-18
41
-14
45
-46
31
-7
69
29
29
32
1
-43
31
-42
31
75
-14
74
-18
-11
-23
6
12
-34
-26
-68
-37
-6
39
-28
-3
-12
-19
34
-28
127
-1
-36
-1
-21
-22
-12
37
-22
-7
-18
-10
10
14
39
2
-38
-13
4
-42
-6
26
-26
16
-12
32
-37
30
-41
5
-21
15
-17
-15
-35
6
-8
66
47
-15
-8
-38
23
-17
-34
31
-38
22
-1
-37
56
43
-4
15
-75
27
-10
21
-6
-22
45
-19
-1
-32
-10
5
35
57
-19
-7
2
40
17
20
-14
20
64
-39
126
43
-36
-6
22
16
26
-15
-127
-23
31
5
26
62
11
5
20
-47
11
6
-40
66
20
83
-1
-61
40
12
30
45
11
-50
-5
13
71
-33
-18
-6
-96
57
-31
-60
61
-39
2
-37
-126
-8
53
-41
-51
31
45
-25
-78
44
-18
-25
46
-14
13
-49
27
-37
-7
68
41
-9
15
48
22
-13
-56
-11
16
105
-51
-5
-49
74
-63
-22
-34
-12
59
-39
-25
-43
-88
2
-107
-49
-3
76
-43
34
58
-17
-37
58
-24
-23
-35
-21
-47
-14
-25
69
-26
36
51
-2
-48
-37
27
77
-127
21
-112
29
18
122
-63
20
-43
28
127
-25
44
39
-36
12
47
-27
1
-38
7
-120
2
18
-28
11
49
17
58
43
-19
19
-90
-10
32
-51
-17
-14
-42
28
22
-32
56
-14
20
12
19
33
39
117
118
38
7
2
-35
34
3
-37
47
24
5
-20
75
51
34
64
19
-10
22
-12
2
-80
68
-18
-15
64
-41
0
33
12
-9
54
82
-18
-127
38
8
-36
21
18
2
-10
-46
17
-68
122
30
70
44
51
-23
-90
20
-43
-28
-74
88
1
32
-26
-68
-54
-43
23
52
10
57
13
69
26
41
-11
11
-29
9
23
73
10
14
-127
-75
-18
3
-28
15
-58
-10
-32
6
34
-55
103
45
49
-74
-20
-26
20
-68
-27
4
-20
12
8
-13
44
-18
55
-8
99
62
11
-62
52
-21
25
-11
11
16
5
-9
-11
49
-41
21
71
2
-16
3
40
3
69
-63
-38
38
31
21
-15
-15
21
23
31
-12
-4
58
-98
13
-113
-25
21
10
-52
-32
-78
-53
-39
64
-14
18
40
-30
-27
13
0
59
-17
21
4
-55
-127
-36
-9
-72
-46
8
27
11
37
-53
-65
-4
-53
30
-22
-37
-33
-16
-6
31
21
30
-46
-86
-70
-51
-11
-38
-79
109
40
2
-73
-101
104
36
-86
-53
12
60
-22
39
14
63
-86
27
10
-26
-17
24
38
16
-28
-36
-35
7
-101
14
14
-114
63
-14
61
-20
-77
-34
47
-2
17
6
6
27
25
-63
-25
0
19
-22
-56
-31
36
-7
-22
-5
25
35
25
53
-42
25
-27
-34
38
52
54
3
61
-41
-46
19
-7
50
-39
127
-28
36
22
31
-43
3
-52
13
46
-1
1
56
41
11
-82
-83
-72
38
5
24
-26
-7
-28
2
-85
-83
-12
-21
7
98
-12
-12
-9
-11
-87
-5
19
28
36
57
-1
80
91
24
15
20
46
26
-41
-14
-24
23
45
-4
-11
11
20
-5
17
-15
-8
-61
-45
65
-25
57
49
48
-16
9
-2
-9
-10
-20
-3
-10
32
51
55
102
11
-12
-18
33
-76
-29
30
44
15
-69
49
28
75
14
13
4
-58
-45
-33
93
4
43
-62
17
35
-88
-127
47
73
-65
115
-53
3
51
-69
-68
8
13
80
38
-16
-64
25
-32
29
1
-18
-39
-102
-35
-2
-50
11
71
26
15
-33
33
54
-45
-76
44
-21
18
62
26
-54
7
-112
-14
52
17
46
26
-84
22
0
9
-2
-4
1
-18
-36
14
1
28
62
-12
-97
-6
-20
-6
-37
-46
-86
98
14
-106
-28
14
-44
1
49
56
1
11
127
12
7
47
16
39
-29
-20
3
-30
-55
27
51
-94
-70
-33
-41
2
-39
-5
12
-53
40
104
-58
15
-4
-76
12
-1
-42
-47
46
-15
25
40
-51
-10
3
-20
-56
-12
52
17
94
5
-12
19
-42
27
-44
-8
-47
-26
1
16
-25
-43
54
13
-7
-52
6
32
-47
-3
-19
1
-35
57
8
20
17
0
1
23
-10
-39
-5
30
-76
0
-1
-24
11
-13
-14
65
-27
2
68
-7
27
57
-7
35
-58
64
-7
-27
3
47
-6
26
62
-16
30
-47
12
7
32
-22
-25
0
-127
-44
-58
-42
-26
26
-5
-4
8
-57
85
12
-46
10
-10
20
-8
-29
18
-11
-20
5
45
71
-50
-55
-49
-2
-3
42
71
20
-50
-18
12
26
-27
-6
116
-49
-74
1
-65
42
28
-30
76
-31
48
-54
13
7
-36
-15
17
58
28
-9
40
-57
-32
-32
29
-14
70
30
-7
34
-33
-1
-33
69
53
2
3
-40
-5
27
14
34
-8
25
-127
-61
-14
21
13
-12
12
45
-7
69
-21
4
-9
-46
-32
-16
-55
-59
0
54
57
1
-57
-54
16
34
-9
-52
-77
-40
102
-51
81
64
-27
-24
15
54
84
-67
-66
18
37
-27
-32
-38
-10
9
27
-12
6
-28
-84
46
-19
-67
-57
-27
23
-22
-28
-88
-35
-23
38
22
2
23
77
-33
3
-31
48
-59
8
28
-126
-96
-32
37
-33
-53
-16
56
-75
-32
-62
25
31
39
-48
-112
-36
26
45
47
-74
61
-22
3
24
127
4
-2
50
40
37
-95
40
-30
-50
58
27
22
56
44
36
-4
19
22
-38
105
3
-106
44
-20
37
-55
11
32
12
14
-70
-70
-59
47
24
79
81
40
33
-102
-43
-11
-51
23
54
-31
-102
11
-6
92
-3
0
24
-39
12
33
-8
21
-69
-41
22
-33
33
-2
-8
36
69
36
49
86
9
23
10
-58
-6
-40
-39
41
-8
6
-42
-104
4
-50
46
0
14
-14
34
-2
70
51
7
-55
-49
65
22
-49
23
-2
47
-34
15
-26
-30
81
-11
-26
-7
25
-47
-16
-72
20
-4
33
48
-52
62
48
11
33
-13
67
20
2
46
41
20
41
34
10
21
-12
-19
-37
127
-60
45
12
-23
20
16
18
5
1
-1
8
37
6
-93
27
6
53
-3
22
-78
36
-3
11
-75
-38
28
-7
-94
-16
-88
-54
-45
49
26
43
-74
-127
-46
34
99
-18
-17
44
-90
36
-93
-29
3
12
30
86
-52
-16
-42
21
-21
-75
-29
58
-18
-46
67
22
-91
42
-1
-48
-19
-72
71
-63
4
-50
21
-45
-38
-6
49
-41
40
-18
15
-15
-34
-16
-65
7
-73
20
-9
4
10
-44
64
95
-48
4
57
78
5
4
46
46
-55
-121
-28
56
-3
-54
22
-96
-21
18
31
75
-75
17
51
32
9
51
13
2
-36
-56
-6
10
36
-18
-36
-33
-45
-7
12
43
-18
-17
48
-16
50
60
16
-5
-30
25
-100
-3
-18
-15
36
12
11
-22
-49
-2
30
-12
1
-47
-33
30
-15
-26
4
4
23
1
-14
20
-16
8
-16
-48
-28
-11
127
-47
18
33
2
-4
-11
69
52
-50
-22
-44
19
-48
-31
-19
53
60
8
16
27
-2
-79
16
-22
-24
-50
2
-28
-60
-82
-56
15
-46
25
38
20
4
50
15
-13
15
5
-35
26
-17
19
11
-28
-13
-20
35
-5
83
-12
2
26
-20
-59
-84
-88
96
-35
-30
-33
1
-49
44
-1
20
7
23
-1
-28
-21
-23
-35
13
1
-124
17
29
-17
-26
-63
-15
-23
16
21
-44
-40
9
-15
-84
34
12
127
-59
3
81
7
76
-34
-14
63
-52
-21
21
122
57
64
-63
15
48
12
-9
40
-19
35
-22
-36
-3
-96
5
-35
-15
-96
-53
12
28
20
-41
20
-44
-21
-20
16
75
-44
-51
4
1
-44
11
-31
-6
18
-15
50
24
33
13
38
30
34
-9
9
-2
-22
75
33
2
-48
2
-12
-52
65
2
3
61
-9
-127
-21
18
18
13
22
-17
-64
-39
63
-21
-33
-52
-41
20
24
24
44
34
-6
54
-8
21
13
24
45
63
23
-66
-9
-62
37
-25
-39
14
-60
-99
-30
23
-10
-20
11
-58
-12
-4
-37
-19
43
30
-28
83
-54
83
-49
5
13
-110
-1
56
15
-16
-90
-57
53
3
-28
60
49
37
18
53
74
25
-1
-43
-62
-17
-35
37
84
-21
-43
51
-11
5
0
77
62
-23
-95
2
12
-1
-38
62
96
49
46
-46
-25
-32
67
-13
40
-10
9
-39
2
-30
-13
30
16
-63
20
21
15
1
26
49
18
-21
-29
-9
20
30
-4
20
-15
-39
-27
-100
66
-27
-76
91
-31
-31
29
-74
11
28
-44
97
-59
63
56
22
-34
-40
96
14
56
127
-36
111
-3
60
-27
42
43
-22
-57
54
34
16
-19
20
53
-10
-85
-31
-127
42
66
65
-27
10
48
-52
-82
-30
-22
40
0
-16
51
-4
10
20
-82
48
-38
94
37
-90
35
3
7
-9
-88
42
36
-4
32
-103
41
-38
-21
-29
-51
-33
12
15
7
11
-54
-37
-20
-36
-19
-23
-19
-26
-50
-6
30
98
32
-5
-22
-18
43
-50
-119
-23
19
95
-121
-51
-30
10
9
7
-18
-31
91
20
48
-3
-27
36
2
12
16
50
7
-8
-19
-61
-14
8
-70
-39
-35
-4
-24
44
-10
-58
-34
28
-113
18
-18
1
-37
-71
26
9
16
-9
87
41
-31
21
12
-32
-35
-50
-40
-14
-9
49
21
9
-46
18
16
-12
-65
-1
89
-20
6
39
-9
127
5
11
-47
-5
3
13
14
56
-72
-82
-44
-36
-10
10
-8
-23
118
94
-24
91
-77
45
-43
16
-44
-34
45
27
-37
-30
-27
6
-58
33
39
-19
-14
-17
12
-21
-1
77
13
36
-4
16
-44
-12
25
19
10
-3
41
8
2
17
9
-38
35
-1
-48
24
-77
11
-46
0
33
-21
-7
-9
7
-43
19
10
8
23
-18
34
6
11
-22
14
23
31
22
43
53
5
-21
13
-1
-17
1
21
17
-21
2
12
35
-3
13
-6
-35
11
24
54
-36
4
-44
82
17
-69
22
39
4
-8
-10
63
25
31
-7
28
65
-16
36
35
-11
1
11
22
-50
21
26
127
-6
0
21
-15
-15
46
-47
39
10
24
52
80
55
-47
54
-30
34
70
3
42
0
62
18
30
54
33
7
25
-5
42
-29
-13
1
-23
-11
-16
-16
14
-37
-36
54
-96
-6
7
-77
41
-127
-12
1
60
28
47
12
5
44
-7
1
-16
44
32
9
-56
-84
-29
-5
-24
-33
-74
8
-11
41
4
-14
73
30
-2
7
23
14
-71
-96
-109
-58
75
116
25
59
-78
31
17
-49
15
25
5
45
17
-3
43
-15
-23
8
-5
-7
69
-2
-38
9
9
-15
36
96
-47
66
-70
-17
106
-20
47
-74
8
-26
7
-17
32
34
-28
-70
42
-76
31
-53
25
-22
-18
42
81
108
44
16
-105
29
-15
40
42
-1
-28
-47
4
32
94
46
-36
-102
-108
57
-14
3
68
-31
-22
14
127
-24
-2
-13
-104
75
5
-54
30
125
-54
-33
-103
-13
5
117
-82
-11
-11
42
-61
-78
-64
49
-45
14
-22
13
0
-7
45
45
-29
-41
24
8
-27
15
-16
-39
-4
-21
-53
-8
-21
-43
-37
-8
-3
41
-49
-20
-18
-12
2
-60
-2
101
-7
38
-94
32
-33
-32
26
16
-14
3
-25
34
-52
-40
49
13
22
22
-32
84
2
-19
32
3
14
-14
-12
55
17
35
47
27
-127
-12
-10
60
19
-31
48
-33
-17
-9
54
-19
-33
37
-38
-57
-38
22
22
-29
36
58
-3
10
-30
95
-6
-21
-8
-20
-34
-29
-5
-13
35
28
17
-2
-8
-8
-2
11
-51
-33
-83
37
22
-1
-13
-19
2
-17
12
-32
51
15
-30
19
-49
-23
2
-18
-45
14
-17
-20
31
2
-33
11
-28
1
-24
1
-8
-21
13
-7
-15
-11
18
-13
5
9
-25
14
-2
-20
-42
23
38
5
24
-57
-16
-14
-3
-27
-18
-16
13
8
21
3
10
20
24
-5
34
-26
127
21
14
-6
-39
14
27
11
2
-3
-8
13
3
9
6
13
-34
-35
-22
-61
-9
66
27
11
-1
30
-10
44
7
37
-3
-6
-29
9
-10
-4
-69
-30
-23
60
99
117
6
-26
62
-88
89
-6
-17
-23
43
5
-15
23
-98
-69
-75
43
-88
74
-8
92
55
84
53
12
11
-63
27
12
76
-36
9
-15
-106
-44
-28
-114
11
-1
11
33
-12
65
2
-39
70
-16
43
-66
-7
-55
73
-111
31
3
-89
-54
-33
-28
56
27
-68
52
-72
25
-127
-59
-65
-16
-76
-63
17
16
-89
9
42
28
60
45
59
9
-5
-95
-62
-17
32
-66
-25
-16
-3
7
-14
-41
22
14
-17
90
-60
-17
-2
35
-9
-7
2
-8
-11
-21
-62
17
18
21
-15
-21
-13
-6
40
28
-16
10
62
-38
-15
6
1
31
20
-18
-8
24
-118
-55
-13
-13
-29
9
43
28
-32
20
13
-127
24
69
10
9
4
20
43
-30
60
28
-19
41
-20
29
-7
17
6
12
-56
-1
-8
-63
50
22
-67
-9
-2
6
27
44
10
1
56
9
37
31
-22
-6
17
-56
36
5
-26
-24
-8
58
-12
-75
18
-2
11
81
-40
-2
39
28
9
17
22
4
2
-31
-28
-38
21
63
-44
-10
14
5
28
9
-3
29
33
-38
-30
-47
-11
30
2
-2
-12
27
-111
-40
-28
7
-60
-23
20
6
-7
43
-24
-127
34
89
-8
18
-7
17
58
-6
49
15
-6
17
-33
36
15
35
32
45
-49
-24
-4
-55
39
42
-65
-20
-41
15
-7
71
11
2
52
22
26
49
16
-13
28
-63
58
-40
18
-49
52
42
22
-7
19
-69
114
34
-36
7
67
8
39
-4
37
-19
28
-66
26
-49
-16
-91
-20
-124
12
72
-19
-71
25
-99
127
-42
-42
-11
-35
33
-33
12
27
-16
-39
29
51
4
84
-31
-23
-16
-2
28
-9
-37
79
-9
5
-50
13
-32
-3
46
14
-23
-89
-57
53
35
-13
-43
124
-4
-30
13
18
-13
62
-18
-26
21
105
83
-16
-50
87
-10
16
28
-45
-79
-7
-70
-5
-42
-7
-24
43
13
3
4
8
-44
-7
-16
73
-55
76
43
9
44
19
39
28
82
-54
-31
60
5
10
-71
21
23
15
-10
7
-28
37
-33
-18
8
-16
0
-32
-78
91
-19
60
1
3
70
7
-86
-24
-34
-8
-2
73
-35
6
-57
-23
19
-44
-52
-8
6
-24
34
-3
-27
2
0
3
49
-6
41
-7
-72
-7
13
-27
-11
-1
-16
-127
7
46
-5
-17
-14
-93
-35
25
5
15
29
20
37
9
-4
-82
-25
30
15
31
-47
-18
-10
56
-23
20
-37
-55
2
-20
7
-10
4
-1
2
-40
-70
9
-14
14
22
5
9
-15
38
-27
2
4
9
-12
1
-9
-35
-21
-23
-5
-12
-17
9
-21
-29
-8
9
10
-18
30
13
28
-22
29
-28
25
19
37
0
85
-11
12
-39
20
7
17
-21
5
-12
-3
3
127
12
-22
-18
33
10
-6
7
17
-17
-40
-8
5
56
4
3
2
12
-11
-20
-17
4
1
-20
-4
-12
-16
-32
5
7
13
33
-15
-43
76
48
-16
-24
-3
-57
8
42
-28
-3
31
-61
-60
22
43
-24
30
32
9
-21
-39
-39
-10
-68
-52
-37
6
-21
20
84
12
25
-38
-22
-14
-3
-13
-26
20
-47
12
9
16
0
-35
127
49
55
11
27
-54
28
35
29
69
-10
80
-32
31
5
-16
-28
26
-23
-86
-12
-78
54
34
21
-68
42
22
49
-13
-86
-41
12
72
-58
42
70
15
11
-35
-97
-44
11
-20
-41
56
-69
-41
-86
-74
81
-14
-37
-80
11
24
-65
7
9
-24
23
39
-29
26
-60
-15
-26
-95
-91
91
45
37
-13
17
64
-82
35
62
-10
15
-17
-19
50
61
-69
94
-50
26
74
-81
-34
-21
-22
11
-7
-14
-50
-21
67
-11
-14
70
26
-20
-31
102
21
38
23
-74
-32
2
8
105
65
-13
-15
43
-77
81
64
35
-43
-127
-54
63
73
4
-44
-71
10
-3
116
110
61
82
-10
63
-4
-1
72
-10
125
6
33
-69
39
-47
23
24
29
3
82
-6
-96
-34
26
10
-45
23
-105
6
6
-36
-1
39
1
32
49
28
63
7
-9
-28
21
-5
-8
24
-106
12
41
44
-29
-7
-44
-1
-1
-127
-64
-71
80
41
69
73
-25
-10
0
-35
-35
36
10
-45
23
21
55
-21
10
-38
13
-124
12
6
-24
-42
-32
-47
-66
-27
43
-59
-58
1
-16
23
38
-9
26
-34
31
-56
-26
-35
-32
-123
115
17
3
16
-9
53
18
-21
-3
-6
48
-49
-8
-1
26
-2
-127
-16
-25
24
41
15
-10
12
6
-20
18
-7
21
-29
4
8
25
-24
-8
3
27
-66
-34
-1
1
-8
-9
3
-47
6
52
-38
30
17
21
-2
-15
-9
-50
-15
0
4
-15
-3
4
-14
-20
-1
5
-88
-3
-23
21
-2
9
82
43
126
-24
-3
19
-6
-27
34
-11
-3
20
-7
-64
44
-6
81
-12
-4
32
-7
-8
53
54
-27
-2
-5
8
0
84
-25
46
20
25
-73
69
116
-17
-32
36
3
63
31
-1
-3
21
-22
-20
42
-61
27
77
7
-24
-4
7
15
-13
63
-27
-50
-20
43
32
-2
36
-20
16
-87
14
-54
70
76
-71
-33
-23
-81
79
11
-49
-71
66
15
15
42
82
48
-21
60
20
-19
54
28
-37
34
-72
-26
-40
32
-47
13
-29
-33
-25
21
-11
4
-22
-127
-14
-19
-40
73
28
-18
18
-53
11
-5
21
54
-23
14
53
20
-30
8
-4
32
25
35
-8
42
-14
23
127
22
-24
-14
6
-3
28
16
-14
-26
28
-12
16
6
-36
-18
-10
5
-7
-47
9
9
47
45
-101
19
-11
13
-39
68
-2
-14
-41
24
42
-21
-42
-32
39
-20
-54
-19
-13
-41
-8
55
-19
-10
0
59
-50
-104
55
-16
1
40
5
20
48
-119
-47
-28
92
-8
9
-36
22
120
-54
22
117
14
19
51
1
50
55
80
10
-9
33
-6
-43
36
-10
58
-23
-14
-10
-13
25
-22
0
-24
20
-7
8
22
30
-127
37
-46
26
-3
-23
4
5
-25
18
-28
-13
-55
-29
-42
40
38
6
34
12
-2
-30
87
55
-9
22
-23
2
-26
5
1
14
-33
-43
-2
47
-16
3
-3
-9
52
19
-13
38
19
20
14
-33
-50
4
-35
34
-54
-16
3
-20
21
70
13
-2
-25
-10
-9
18
18
-10
12
25
-7
1
-5
-54
-5
-3
-16
23
-10
-8
0
-11
-10
-16
26
29
13
-49
-21
15
1
-38
24
-56
-9
5
40
-75
-8
-17
5
-44
39
40
-4
-51
-12
3
-13
101
-48
38
33
-28
-27
-25
-10
-54
-12
97
51
6
-60
49
25
12
-45
-10
17
9
16
-2
-4
-3
1
41
-2
-12
4
16
53
-16
48
-46
-1
45
-24
26
54
26
34
23
116
-12
52
1
-45
-8
-37
-26
-29
31
-36
16
-106
-8
14
18
127
7
-6
-14
-11
22
66
-17
20
-58
-49
21
-9
-57
13
-63
-7
-50
-21
-59
-48
-24
-9
88
15
38
43
-26
-43
7
-102
-45
-4
-69
-14
37
-56
15
61
-32
-11
-37
7
36
15
13
11
-3
35
-31
-38
15
-2
33
-24
38
77
-80
23
3
2
-14
-9
101
-14
-19
71
18
32
-83
26
-62
121
-12
-71
-12
89
-68
23
-11
127
-39
113
33
29
-56
18
-50
-44
-24
4
41
-69
18
-30
70
47
10
6
-21
-7
33
-61
-24
36
-53
-26
42
-63
16
56
53
8
-90
-15
26
-28
31
6
3
-30
26
38
-7
-8
3
12
24
10
33
-11
32
-54
12
63
38
-3
43
49
-12
-2
7
29
-3
9
-83
-24
-71
48
9
-2
27
-36
8
20
56
-9
10
-3
42
39
7
64
-42
8
15
-15
7
-26
-17
-25
-23
-6
28
-22
-23
-30
28
-42
-22
-19
6
-31
-47
-67
29
-11
10
127
-51
-45
-11
-21
36
11
-20
16
30
51
-14
9
-7
2
-9
18
29
7
17
22
20
-7
30
58
27
-21
89
75
-82
-39
66
2
94
-41
-5
21
10
4
-13
-12
20
114
-56
-2
18
-2
-16
-23
6
-28
11
-9
26
-7
20
67
61
1
-46
59
83
-9
-12
-20
-16
18
20
20
-88
-6
-3
31
11
-8
-31
-52
23
-118
42
-72
6
40
13
8
-33
-110
25
4
-2
-14
31
-31
13
78
-46
-6
127
-10
-3
-49
-2
-10
26
69
-9
10
24
66
-40
-25
21
8
-30
-3
-14
15
-28
46
38
-41
-22
2
-47
39
61
-97
-39
19
-9
11
-70
17
0
-24
-11
-35
12
18
-6
-127
50
-14
0
-33
-25
-2
-22
-55
15
5
5
-5
-2
-18
-1
26
-6
-41
-30
25
18
49
47
12
-8
57
44
47
43
-13
-28
-46
13
-9
-16
-47
-49
32
10
18
-21
17
-24
-30
-35
-37
15
-27
32
-53
16
-20
-4
60
-6
17
51
-3
23
-17
-26
-72
8
61
-103
-11
66
-56
3
22
39
-2
-76
21
-16
56
-42
-7
-6
7
-95
8
-62
108
-62
1
18
-16
-44
-79
31
-62
20
-27
33
-4
-4
11
7
19
-6
32
-37
-25
46
0
-44
-49
-43
-109
13
-9
10
-83
-17
-23
47
120
65
-7
37
-127
26
10
-15
8
50
-44
15
31
109
51
15
64
38
4
39
37
-80
12
-18
11
28
72
-33
83
14
19
18
-82
37
35
51
89
-54
-4
39
38
7
-27
110
26
44
-94
56
-10
33
1
38
44
-22
73
13
-43
-65
-3
-83
127
50
100
-15
-40
91
-24
10
10
-100
2
-18
10
62
2
30
73
-17
-5
2
-39
4
76
-55
54
28
17
58
35
-4
-47
34
-91
-2
-113
-29
102
25
79
26
18
-78
-40
5
-113
-56
-101
54
126
11
-35
5
19
116
-4
8
-18
9
-15
32
-34
-20
29
-19
6
-90
-63
11
-15
10
101
52
-40
-27
17
15
51
23
23
35
-98
-14
-25
-72
-49
-20
10
24
0
11
56
-30
-27
10
-22
1
-19
-70
24
-2
127
42
12
-78
-3
18
-18
17
-46
52
24
42
-65
-11
-31
26
38
-98
2
-24
2
10
-82
-46
9
13
27
11
-31
1
-3
-46
35
46
-27
-6
-55
25
23
-1
92
-36
44
54
6
15
-1
-22
-5
11
28
40
-60
16
0
-14
42
2
37
-2
-44
31
-88
10
23
-4
43
21
11
8
15
27
-15
-1
6
-7
-15
1
42
11
-29
49
3
21
-11
7
-37
37
43
20
-11
-46
8
-39
-27
70
-48
-24
-53
-36
7
-30
50
16
39
-60
5
-28
20
7
-10
-62
73
54
-54
23
76
-86
9
47
-55
127
73
54
14
-41
-72
27
-54
13
12
-11
18
-18
54
8
-15
52
-24
6
-4
69
59
31
-86
-19
13
75
-12
-6
-14
92
-50
29
39
-41
79
-60
91
46
73
-35
59
-33
-66
-15
-14
-33
17
-28
2
39
-2
59
81
28
77
-3
28
-15
127
55
3
-15
70
-11
18
15
-21
9
16
-7
60
-66
39
-65
-70
-19
-14
22
24
-71
-40
33
9
-28
32
-32
13
-28
28
-45
-9
19
-9
6
6
-19
63
32
-16
1
8
-48
31
43
-27
-22
-20
-55
55
61
-11
45
23
50
-18
52
52
-44
-9
29
30
-39
-18
-25
60
19
-25
55
-50
-5
11
44
27
-18
-33
21
58
34
-22
22
-17
-51
28
29
-12
-111
-25
13
-20
1
-28
-36
21
-9
30
27
-44
3
24
-34
-42
6
54
-4
1
-7
4
-16
21
6
27
-9
-4
2
-27
-45
7
-10
-12
-18
-43
-4
-13
11
11
32
12
33
16
22
-42
-5
30
22
47
-9
-8
24
-19
6
29
4
127
-10
-21
47
-22
-2
-27
16
-19
11
13
-15
50
4
-23
-9
14
12
-15
-5
3
4
-13
-14
18
-58
101
1
-44
-3
-8
-15
-10
0
33
-30
31
21
-25
14
16
23
41
-27
-31
-33
-8
2
-29
-34
-20
-11
-19
-25
-12
-6
-23
-1
30
-21
8
17
-3
20
-24
36
-2
-7
-20
-62
-22
8
13
-2
127
-13
-8
22
65
-12
6
3
10
-25
-11
9
8
29
-24
-17
2
27
-26
-29
-10
-7
7
17
25
9
-1
20
-2
9
-10
-3
-1
20
10
-22
7
-6
0
40
26
-14
-4
-13
5
-21
33
-26
-9
-1
17
-20
-21
-15
16
-4
8
12
7
3
-31
15
2
-47
59
55
-22
-52
-60
39
28
-74
114
-21
-42
-2
61
0
-66
18
-8
51
35
32
43
-84
15
-40
53
1
93
-7
35
35
12
16
-9
25
5
-55
-51
46
26
46
-1
-43
-63
2
3
-60
36
-38
7
13
-13
56
38
-7
0
-37
-18
49
-50
-24
127
31
2
55
-73
-53
27
-8
36
-7
68
-17
-9
12
10
-1
9
1
-63
-8
10
98
15
32
51
-115
-30
32
30
-69
21
-19
114
-67
-88
0
-22
-26
-89
-90
49
-50
92
-127
-96
-36
-12
-2
5
109
41
16
56
25
-22
6
23
-18
25
71
-10
-5
-45
-31
-4
89
-50
-65
53
-21
45
85
-84
26
-27
101
-43
65
-16
79
-30
102
87
-9
-48
-66
3
-112
-71
-8
14
17
3
44
23
-5
65
-34
42
-115
46
47
-10
51
92
-78
77
-9
5
58
9
59
-12
-39
49
33
-51
-43
25
-26
-7
-50
54
-15
125
-41
-56
60
111
-17
88
-24
61
-5
56
-33
-5
19
19
25
29
8
17
3
51
-21
-32
15
-5
-3
0
-7
0
-2
-12
-7
-8
-15
11
23
-15
6
-2
-46
52
9
-29
21
-34
26
35
-10
67
-9
-65
31
7
-48
-38
41
14
-19
55
-10
-32
14
7
43
-56
-8
-6
-42
20
19
-1
-5
-3
-47
12
2
40
11
-5
-86
0
-30
-65
22
2
-79
64
-27
-7
-52
-44
14
127
10
-25
0
-27
-18
-25
70
9
36
-12
0
-11
16
-40
-1
-5
3
-2
8
-22
23
20
-37
14
-50
-2
-28
2
-62
17
1
10
76
5
-35
45
29
-14
61
8
-8
9
-18
32
0
8
6
14
6
34
5
38
-17
47
0
-48
71
-13
17
23
40
31
0
24
0
46
26
-29
-9
127
41
-19
29
61
-1
-12
-1
-27
21
-64
7
-44
20
-11
-8
68
51
24
-9
56
44
-12
-16
33
1
76
9
38
13
6
21
25
123
-43
-28
2
32
-33
14
13
-13
-6
29
5
-10
-8
4
55
60
-12
-53
-11
-9
0
-1
17
54
-24
31
42
-23
50
-7
8
-4
7
29
47
83
-38
1
76
-53
19
-15
16
-1
-10
-40
-39
34
35
-20
38
-95
-36
-20
12
-127
-17
25
-3
4
38
4
-33
-22
-37
-23
-12
-25
-68
3
40
-2
-81
46
104
-22
6
22
29
13
-20
18
-2
-48
10
17
-42
-4
22
-34
32
-108
32
21
-25
58
-29
-19
2
-23
-12
-43
6
-85
79
-74
-20
-78
-15
-77
37
-60
-56
-46
-14
-32
-104
33
73
-11
21
-85
-9
22
-23
-18
29
44
109
-80
36
-40
57
127
53
46
41
39
-38
31
-35
26
32
-35
26
-32
-62
-34
-35
-15
97
15
-43
82
5
-8
-5
-18
22
-32
58
67
-49
43
21
-26
24
43
93
3
18
63
30
-73
-9
42
88
34
-29
-30
-50
-32
75
92
112
24
118
27
-72
15
32
0
26
15
-9
-97
27
-18
108
-35
34
1
3
6
-14
-30
51
68
-84
29
-18
-125
41
-29
44
21
-3
11
116
-18
84
-47
42
23
-12
70
-62
-82
-22
-45
-71
45
-98
1
46
20
-8
19
-90
70
23
-40
31
-40
17
-9
67
-6
-46
32
-33
-20
38
19
-36
39
-33
-68
-13
84
8
97
-127
-25
32
-31
29
63
64
57
-9
-59
2
10
0
1
-4
-1
-43
-14
-37
-32
-58
73
9
31
-4
5
-73
41
-80
41
-3
-99
13
-13
25
-49
50
14
-18
-46
-29
-6
27
-13
-12
41
7
28
-10
-10
30
21
-35
-19
-7
82
30
25
-12
9
13
101
19
10
66
127
22
-4
-55
53
-79
-30
-64
-25
19
33
31
-1
-5
11
57
71
-2
15
22
16
27
-38
-2
-33
-59
19
-52
-54
34
-53
12
39
68
37
-7
5
-18
-63
-88
-4
-38
-18
-31
23
-14
-66
29
0
-27
-23
-5
11
16
-9
-47
-39
-23
28
14
-41
-7
-5
40
52
127
-69
97
-61
8
7
-32
-58
-38
27
-39
89
99
-21
44
64
-42
8
54
36
18
-11
-38
65
3
30
55
15
19
-8
10
60
24
-82
-68
-17
2
1
45
40
-96
53
58
-5
84
53
64
-76
107
35
54
21
-17
51
-44
44
-76
35
17
8
-8
23
-87
36
-59
48
-80
-43
32
1
-14
0
26
5
38
-106
2
-80
78
-3
50
-1
87
-26
43
-25
15
16
22
-126
-46
31
-45
13
49
-18
-4
10
1
-5
-4
11
-1
30
0
-39
-21
-12
14
35
60
16
14
27
28
-35
14
6
1
-29
-18
15
27
25
-25
-4
46
-13
43
7
55
10
15
3
-17
-5
2
7
4
-6
-52
22
-19
-89
37
36
18
25
-2
38
-35
21
30
-22
24
-6
-44
-12
5
2
-7
33
113
-34
-10
26
-8
15
-2
-19
1
-45
127
-60
-67
24
-13
23
-8
-112
9
6
-15
24
-19
-17
-2
29
-40
127
23
-9
-16
-34
-19
-14
10
-16
-68
25
43
-5
19
12
47
6
-9
30
23
-54
8
18
10
11
-7
36
5
43
60
-28
119
-69
-2
37
9
37
0
49
2
-30
-8
-27
-8
54
-40
-40
-113
-79
41
-12
-68
-23
-69
40
20
-83
44
11
-34
-59
18
-93
-13
0
7
61
-18
-25
69
-10
45
25
-23
65
-35
70
11
83
55
8
25
17
13
25
1
30
82
-4
-61
-2
-13
88
-49
-36
3
2
-24
28
-7
5
-3
-68
6
44
3
44
-15
3
38
16
28
27
-65
11
-9
66
-38
-23
-12
15
25
-4
29
-75
21
47
-18
37
-31
5
41
12
-56
-32
46
-22
-7
-50
-36
-7
42
-3
11
-11
5
-37
-6
12
-6
-73
21
-4
21
66
-14
-2
31
-23
-6
15
25
3
125
-5
-6
26
32
-14
43
30
-1
1
-127
5
29
-3
-49
-20
-105
2
12
18
1
-33
90
-39
-24
61
-61
-39
7
21
-4
-49
-46
-56
-14
-33
-26
1
-27
25
4
63
-86
-26
-12
-16
-9
-18
3
-1
14
64
34
8
-2
-127
-5
-25
-14
12
47
-42
32
23
-24
20
3
19
29
-59
-15
3
19
-3
-17
-36
47
27
-84
-34
-2
-13
34
13
-3
10
60
21
6
50
-69
-46
-4
11
0
-69
4
-28
6
7
4
9
9
-5
-9
55
-9
-22
-21
-3
-31
15
-2
-2
0
55
19
-26
-27
13
-33
15
20
-3
-16
18
-10
-25
-4
-1
8
40
-25
15
-19
-28
-10
39
14
0
8
-40
-13
-6
-6
2
-5
-3
-6
9
-21
25
-1
26
5
33
-13
-15
19
23
-5
1
-23
8
-25
26
8
27
-10
-40
-8
-35
-10
-18
22
13
3
25
-6
5
10
3
6
8
-39
34
127
-14
16
-5
-7
18
-24
-9
-14
6
9
11
-3
-9
18
-19
-17
17
-3
-20
-13
6
-62
-28
-13
-16
-10
-5
12
31
12
13
-2
42
-11
-22
18
-13
26
-61
18
-24
24
-4
-18
-4
38
-32
-82
74
27
38
9
-1
-54
29
-79
-6
-16
10
31
21
39
4
-38
1
-16
2
31
27
10
53
43
9
32
-23
32
-45
-11
1
14
12
-43
25
55
7
34
11
-6
-26
29
23
-17
-4
30
-13
127
99
-6
-8
21
31
49
-40
-16
-22
-45
-6
-9
10
60
-4
43
-49
-6
77
-20
19
99
17
-14
8
21
31
37
48
18
4
-5
2
74
74
18
77
66
39
-106
56
-15
-63
-68
6
-4
3
12
-126
67
20
-7
-23
-41
48
-6
-5
26
-83
-9
23
2
-33
8
-24
1
30
-3
-50
-66
45
13
-70
11
-37
-64
-1
41
8
5
48
-94
11
-60
-115
-10
31
24
65
-1
39
23
-1
57
-4
64
4
35
-49
-86
-82
-62
32
-41
22
29
65
12
57
18
-21
-19
-63
23
48
2
-38
75
-9
-21
11
-16
-49
57
-26
127
35
32
-12
-8
83
17
93
-30
-15
-10
-27
78
-24
-42
59
17
-48
-60
20
-16
-28
-5
23
27
-34
-19
73
-23
8
13
50
-10
52
41
-38
6
14
64
56
-31
0
-17
-23
-34
-1
7
32
-92
-2
-38
-18
-21
-12
7
-17
75
-45
-88
2
60
11
34
9
-21
-31
-2
-127
-30
76
-99
80
-10
-19
-51
-11
33
19
-8
64
-12
23
-30
82
-17
-31
53
-8
4
-13
-6
-29
0
4
-63
30
3
1
29
2
-15
24
14
-28
-43
-20
3
-73
38
-4
36
29
-35
33
0
-1
-101
-28
6
-23
67
-37
-17
-41
31
76
5
-121
72
-38
-13
27
-17
14
-31
-6
33
32
0
-9
-5
60
27
14
-30
0
-11
-44
125
-35
-6
-19
-1
25
-57
-65
9
-1
-63
62
-33
-52
70
36
-14
65
27
76
10
-22
-1
-36
-49
-51
-51
-15
-125
-30
127
18
64
7
8
-55
46
31
-49
-18
-27
-9
31
-15
-6
12
-21
-52
-29
62
8
59
52
5
-46
-27
-50
-69
-63
6
19
21
6
-127
53
3
4
-16
-39
71
-9
-49
28
-11
-32
-38
34
19
12
-37
2
42
-27
-61
-3
37
-37
-4
25
62
-89
5
31
13
-3
-23
59
21
-27
-2
-39
24
-2
-15
74
-22
-20
-56
51
-56
61
65
-32
10
-66
-12
-22
-37
19
1
-16
17
-28
-10
71
-56
-40
36
-2
76
-34
10
-13
34
-12
18
41
-3
-14
22
-10
-25
-14
27
-32
-21
-57
28
61
80
-51
-110
24
5
-5
-33
1
35
-5
-28
54
-33
39
51
70
58
-23
17
119
-43
14
-17
6
77
27
1
-26
82
-69
-33
61
-7
-36
4
-93
12
100
2
56
-20
38
-71
8
-48
6
55
1
-127
-23
-106
61
23
-6
64
-57
48
-62
-23
-7
14
55
-12
-31
94
14
17
-20
-14
86
70
-34
-24
-81
-51
-34
-57
-9
37
39
-52
35
0
-6
-73
-2
-42
43
18
-77
6
-7
26
43
42
16
-2
47
49
53
11
-15
-3
-13
-51
-13
33
-3
-20
-23
-30
11
4
16
4
-13
0
24
-29
-19
1
12
-20
4
-26
-33
9
-32
49
-4
18
-26
53
6
-16
4
6
1
-10
47
-13
-4
21
48
-10
10
-27
33
30
2
3
-30
10
127
-13
-1
-12
-14
-2
61
23
12
-6
-18
17
7
21
-2
-9
-11
-38
-29
22
-12
20
21
10
21
9
39
13
-21
45
28
-19
0
16
35
13
20
15
-36
58
14
-7
70
44
-53
26
52
7
19
51
-13
9
-35
-2
29
48
-13
68
26
13
-14
-28
35
-3
-32
62
22
28
19
-49
-6
6
42
-23
-45
28
-7
78
-16
-31
-20
-6
30
-9
-1
-4
-53
56
-38
3
-4
14
-42
-12
27
-62
54
-14
-18
50
-11
-33
-17
-51
-50
-36
-7
-63
11
-72
17
-70
-31
-18
7
44
-26
-12
-13
26
-24
28
70
-127
-4
34
-80
36
53
-51
-12
64
-6
-51
72
7
44
-67
-46
-56
-48
14
16
50
-56
-33
96
45
-8
59
22
-22
23
32
53
-63
12
-38
18
-9
-11
0
127
65
4
38
4
34
62
-43
-14
-40
52
11
11
-37
-65
4
-18
37
-12
-25
-23
15
-50
-45
-40
-51
-28
79
-29
51
-77
36
12
-14
71
-15
116
-10
-32
-60
35
-78
2
-36
79
13
-19
-98
4
20
20
-16
-83
30
-99
38
-30
52
20
-11
-2
-89
-51
-28
-11
-14
-32
-43
5
27
-41
-36
28
-9
69
-3
-19
11
10
93
-50
-5
0
2
26
-10
10
2
-45
77
13
-14
-11
28
-17
-6
6
-76
21
88
-25
-28
-18
-22
-85
31
40
15
-11
-29
-20
-4
49
16
29
31
-15
20
-12
-8
-11
10
-11
35
-78
-14
8
-13
-2
19
51
2
-19
19
4
-13
-37
-127
29
-28
-7
-18
-25
-20
-5
80
-9
-5
-101
-27
25
-16
13
-7
-48
24
7
14
-41
40
11
-16
-6
-37
73
-17
-25
-65
57
21
47
73
6
47
47
29
-96
-24
54
-32
18
-56
-41
7
42
57
10
29
-73
-27
48
9
45
127
-6
-15
-30
56
14
42
66
-23
55
-38
70
-62
-24
9
-6
-45
83
-45
-24
77
11
89
-80
77
13
24
14
34
23
-63
-12
22
24
-26
-45
-76
-46
-45
-1
-21
30
-43
-110
-3
1
-31
58
20
42
-25
12
10
94
21
-9
18
-12
8
-7
-7
56
-15
-27
10
89
70
72
11
52
-18
45
28
28
-43
27
-35
3
58
16
34
56
-49
-48
8
-6
5
3
-81
-39
70
-58
11
69
75
39
1
-119
32
-8
-15
6
47
28
-42
-5
-37
-44
-31
-86
-50
22
67
-6
-39
-63
0
47
25
45
-35
-100
43
-8
63
32
-53
-52
-55
58
60
-20
33
-53
-44
-50
-39
-24
89
105
-39
-26
14
44
0
36
-30
5
81
-25
11
28
82
50
-41
1
100
-127
10
-20
116
15
38
-63
-18
5
26
117
12
-10
-32
26
19
71
27
52
-61
-33
-127
-10
-72
35
42
2
10
-40
-70
26
1
47
-28
-58
5
26
28
-45
29
15
21
-24
30
-72
-13
4
35
-57
-59
-3
109
-12
11
11
-35
-27
-35
-5
115
15
7
-88
14
-6
-64
-16
67
48
-6
-10
19
29
-20
27
-8
-52
12
13
26
-64
-63
-47
-55
-48
10
25
-8
4
40
8
-15
-14
43
-25
75
43
54
18
9
17
2
-20
35
-47
50
-34
-20
-73
-32
8
-57
60
7
32
51
-13
-73
23
-14
-8
-32
93
26
-93
-26
2
125
43
56
-18
-50
-11
-18
49
-77
2
-58
61
-43
-70
-101
105
-34
-97
-49
-45
18
25
8
-11
-25
8
40
-64
-10
-75
53
1
33
67
80
-28
33
52
-31
-53
47
25
2
43
-38
-35
-127
-14
50
19
-70
54
-13
63
1
-24
24
-6
31
-29
-39
-41
-88
-69
38
-82
22
-5
-5
-95
-66
-4
28
-7
-62
-54
-4
-4
-65
7
-6
36
-41
71
-6
12
-127
11
42
16
62
35
10
-91
-47
-4
19
-33
-51
-14
17
14
-4
-18
14
-43
41
-8
6
-23
3
-26
52
10
-80
30
-25
90
-54
4
5
97
-3
-101
16
-18
-4
-27
15
-30
39
69
-10
105
-65
-9
-10
-13
12
-23
20
-11
-8
0
-49
13
-33
-52
-9
61
9
-17
-22
-34
-6
51
19
17
18
-25
36
12
-9
-14
-16
10
-49
20
-6
2
-4
-27
24
-22
35
-65
-23
-127
38
31
-33
-43
-40
-34
-76
-42
13
-26
-32
-40
-80
15
-27
-17
38
8
-1
-4
-31
34
7
-40
45
-15
-82
-77
18
63
10
-50
5
71
12
-92
-12
41
-14
49
90
-25
-24
21
90
-5
4
-46
-55
-33
81
-77
-4
-21
-40
17
44
-44
-17
-5
3
-34
-9
-10
-33
-13
10
45
44
-7
-27
22
-12
-4
-50
-30
-29
3
79
-26
-3
2
6
7
-81
91
-69
28
-88
127
23
-44
49
0
22
27
17
-48
-58
-65
21
-55
43
-1
65
-101
4
27
34
38
30
-15
-32
17
9
-13
-58
-17
-80
-57
-15
-3
-8
-89
77
40
-24
47
-113
-11
70
44
4
-71
-45
53
-6
-30
-44
-14
-13
24
-17
2
61
3
25
-37
30
99
23
36
-87
20
-55
-91
-87
36
32
-59
14
-57
54
-2
53
68
-32
76
0
-22
-4
68
-42
33
-63
42
-30
-77
-9
28
-20
14
-4
-18
-16
-69
-19
14
17
-3
26
0
15
19
7
-3
52
-24
-15
15
21
-23
18
-58
-38
28
3
9
-40
44
-50
-41
45
35
55
13
40
-2
18
-17
34
14
-2
82
-55
24
-97
-12
-46
-26
2
56
19
-39
-19
15
52
-11
1
-35
-50
84
-72
2
2
-35
-32
-12
-24
31
10
-4
53
-18
19
4
42
127
-16
32
3
-1
56
-4
16
63
-13
12
9
67
23
30
-1
-67
18
-26
-20
-37
89
2
-11
28
126
-34
-62
42
-49
44
-14
17
-46
-65
36
13
-35
-88
114
-8
57
-41
-4
-61
-21
59
-6
17
-44
16
51
82
104
67
0
-113
-31
40
-37
20
-92
42
21
75
-6
11
21
23
0
20
-38
69
-127
49
-54
85
42
105
-5
-45
-25
-28
36
82
3
48
62
-39
-88
-65
-32
104
-28
-60
-16
-111
-49
-45
-8
87
-8
-8
-32
-5
-18
-4
10
50
-49
41
17
-9
38
18
114
-3
-5
97
39
-40
-4
32
-64
-48
4
-62
-102
17
12
-22
-39
-24
29
-28
6
12
37
-15
-27
9
18
-32
5
37
-11
31
34
-21
-53
-63
1
-9
-27
22
43
14
17
7
4
-58
12
8
18
14
-52
46
13
8
-6
17
-32
6
-20
-3
59
-7
-24
-31
20
-3
12
12
23
54
-45
-10
24
127
-2
-35
-2
18
56
-12
46
-68
5
-33
-4
8
-40
-35
10
35
-17
-6
40
15
-44
-11
12
-12
-55
12
-53
-22
-6
-71
-20
6
-58
-10
-24
-4
-33
-19
-30
65
-2
37
-14
47
33
-6
5
24
3
0
36
-25
8
-8
88
61
-11
-34
-4
-55
-26
-2
6
9
-38
43
-49
-28
-23
-48
31
-9
19
-63
37
27
-33
18
-3
-37
24
-30
-21
-12
-20
-5
47
107
-5
19
4
-24
-127
-28
14
20
-15
5
4
6
-63
-51
-11
9
-29
-21
-12
-7
24
4
21
-35
-50
11
20
0
-29
-22
5
32
8
44
-74
57
5
-14
26
15
-64
56
-36
10
-12
3
-11
30
-38
-4
-14
-24
-13
12
8
-7
40
-9
-47
-15
-8
-36
-39
7
-18
-13
35
-5
-10
4
-64
50
47
19
-18
-22
11
28
21
-1
-4
20
64
22
-13
62
20
-83
42
61
26
-3
-28
34
45
-66
7
-6
16
-2
-6
-17
-70
36
-15
-95
46
39
-31
60
-31
127
17
29
-25
33
27
-39
-4
9
3
1
14
13
-6
-44
-50
6
7
14
-41
62
-12
4
57
7
100
47
17
-7
-31
85
-20
47
-48
57
-15
29
-20
4
4
-6
-24
37
-14
14
-36
-47
-62
1
8
-24
43
16
4
-9
-41
-6
-31
22
0
75
5
9
-30
6
9
-2
-50
-53
4
-11
52
-4
-40
28
2
-17
1
-42
-6
-11
-35
-35
-37
8
-40
19
-33
-127
-52
-16
28
1
-33
-3
6
-83
-4
31
-4
11
-7
-19
-2
-9
-8
-42
14
0
-36
-33
-14
21
-8
-41
-39
34
-17
-41
31
-6
40
-17
-35
16
-12
9
-6
26
40
29
34
44
-49
4
25
19
30
-6
40
-9
48
-39
-81
-7
10
-16
11
29
-16
-39
7
-12
6
39
-27
21
-14
-2
-37
-2
32
3
12
35
-6
9
-28
70
-33
127
-9
-42
13
-30
14
-30
-7
-28
14
-35
90
0
-21
15
18
-55
-26
-16
96
-20
-27
-44
23
29
54
15
23
21
33
-2
-2
24
-38
-10
-4
23
51
-3
26
-1
-20
21
-4
25
97
-10
-42
-56
27
-15
4
-2
41
8
-17
-11
17
-10
-13
71
22
22
43
-4
8
61
28
11
-3
-13
-59
-33
8
-10
-11
37
33
-40
-20
8
32
-7
-81
59
4
-19
-9
-44
20
25
-26
51
38
16
-53
5
-117
8
-20
-127
38
9
-62
-25
8
-20
33
6
69
-2
-2
26
115
39
6
32
14
-25
-34
-18
-32
-17
36
-46
-6
43
-7
15
-4
56
105
-20
47
-9
56
122
11
-31
31
-50
11
38
-49
-42
-42
69
-44
-7
-7
32
64
-65
22
10
-9
-64
-60
12
116
-95
42
-11
-17
-39
-103
-34
18
-13
16
8
-78
-92
-83
-41
-24
68
80
63
-41
-66
-45
32
-8
69
-68
61
61
-60
-8
8
-64
-59
-90
-97
-76
-13
-41
103
-91
27
-97
-4
-113
-2
28
-103
41
101
-63
127
-115
44
-34
92
-22
31
-61
1
72
43
-67
-2
-12
-13
19
-49
3
7
4
11
27
-15
0
8
-26
-18
-9
-6
30
-16
25
32
45
-43
14
36
12
-5
17
42
19
53
-2
-2
93
34
7
-18
82
-6
67
11
-9
25
14
42
2
-64
-39
-24
-58
-19
-18
-19
-27
19
126
-41
-127
-5
-65
-21
9
-18
14
-60
66
4
-20
-20
57
29
-7
-25
-72
-125
38
-60
-53
33
47
-1
16
64
-14
-13
40
-19
-46
113
8
-18
-12
26
-80
-10
-113
63
-58
-3
-8
6
22
-48
53
-30
-30
-16
25
-14
112
4
24
57
0
10
-61
20
64
-64
-24
57
58
-87
29
-40
-8
-58
-28
4
15
-68
93
19
-9
-4
16
-6
-12
67
-55
-72
-4
-87
127
-37
11
-14
22
22
-31
-30
15
69
-67
21
-60
29
-15
-36
27
-47
-21
-26
-35
-8
-123
-1
-8
-12
39
10
-27
60
125
-20
39
78
-68
23
-52
2
7
60
37
7
-8
64
-9
12
-20
-35
-35
31
-52
-14
10
36
28
18
-28
-64
24
-23
12
75
0
-41
-62
-84
-55
-16
79
41
88
84
14
19
-25
-127
10
79
-17
10
-20
-27
-41
-13
40
-4
17
3
-81
3
43
-17
-42
-20
107
20
47
-76
80
-50
-60
1
17
-2
6
-51
-40
-35
36
-38
-22
30
-9
-21
-24
21
-22
65
-22
-60
-25
53
-6
7
16
12
-47
-48
-53
40
-42
7
-88
-11
76
-59
-100
80
-24
13
-28
7
36
19
88
24
49
-16
-2
4
-27
8
-12
18
-20
-7
-43
-50
31
27
-5
0
-127
6
30
71
-23
7
18
-32
-21
-6
-75
-20
2
2
11
21
40
-50
0
-67
8
-1
-11
55
-43
-23
-12
-12
9
-25
44
-3
-15
68
30
21
-37
25
-15
-57
-23
-7
20
-3
61
58
6
66
8
47
-12
-14
7
-25
21
-16
-32
-18
11
-22
-6
-5
5
-46
9
37
-54
-11
-35
31
-3
-87
-19
0
-13
-29
-51
-60
-29
55
6
10
4
-28
13
7
-7
6
26
-11
-9
-6
-37
21
-30
-6
0
5
26
-18
16
-22
2
-17
24
-11
-6
-40
33
13
-12
-37
-3
-34
-15
6
-61
43
76
-3
-7
-37
-12
-79
29
21
43
-4
-16
-6
20
-16
32
9
49
-26
-9
-10
10
-14
8
-32
-2
-71
7
42
-18
-37
1
-5
15
-37
-17
12
-6
0
-87
-3
-25
42
14
-41
-18
27
82
32
12
-127
-31
-14
15
19
-27
-5
68
-37
22
-27
-5
-29
67
17
7
32
-23
51
-17
45
5
35
15
-41
-5
-8
8
44
16
16
3
68
-1
40
18
2
-1
-34
20
-39
-43
22
-24
4
-11
16
12
-4
-30
-5
36
13
0
-56
11
-3
-6
7
-13
14
24
-19
-2
26
-20
78
24
-23
30
-15
13
26
23
-10
-65
-39
9
42
36
-12
25
-41
-8
8
1
6
102
2
7
21
19
127
-15
-8
-18
-32
-16
-8
47
-16
-15
-12
43
-55
16
45
20
-18
68
17
3
64
-7
-90
-32
-7
39
3
-2
6
-127
-63
-32
90
8
-18
-18
-53
-93
18
-73
26
15
-7
41
62
-88
6
9
7
0
-44
-41
41
-5
7
34
15
-48
-29
85
41
-56
-11
27
54
34
-19
5
-35
-58
-110
62
84
-18
-3
-19
92
64
32
55
29
22
-53
-33
11
81
2
39
31
-19
-15
-18
-11
1
8
16
-62
-28
30
-16
15
20
97
37
-61
-78
-28
-50
-99
31
-25
30
5
-7
-42
-11
-17
8
11
56
31
21
13
47
-55
-43
22
-28
22
22
-9
5
64
18
-14
2
15
15
56
-14
-4
-82
-28
31
1
10
28
-41
-6
42
13
-13
8
8
9
-57
-1
-6
-13
42
14
67
-37
66
51
59
127
-50
37
45
4
-19
1
56
-11
-37
-34
-4
55
-9
-28
-6
-16
29
19
-8
31
-39
17
-39
14
-36
87
32
-54
32
-10
-20
-72
-12
-69
52
35
10
-37
-21
-3
27
20
-23
10
28
8
30
28
-35
-9
32
45
126
28
-39
-7
19
-59
54
-17
-53
2
-34
-2
-33
29
13
-8
20
13
51
-49
-61
56
13
29
-88
-15
-55
9
7
85
-8
-95
-75
-39
127
-14
17
-33
-10
15
-10
-48
1
0
-6
29
20
33
-17
3
-3
-90
-29
-15
22
57
-16
-41
26
-60
-11
6
-19
-30
31
9
-4
62
10
-28
111
26
-37
8
22
7
8
56
-35
7
-28
27
4
0
-4
41
-66
127
-27
-10
50
94
7
23
-12
34
-33
49
5
-69
-41
-1
4
32
-81
103
-89
-43
-31
13
55
52
-19
-71
11
57
15
68
-27
102
55
-56
-2
-56
-34
22
6
23
-47
19
23
-47
-72
7
77
59
73
14
-2
33
34
-25
2
16
-56
-22
33
-81
98
12
-31
45
37
63
-31
44
-33
-72
-58
-78
56
-39
48
10
91
20
-103
47
-13
20
86
90
32
-59
-53
-33
44
15
-103
37
15
8
34
78
64
-54
-6
127
15
-55
20
29
-11
-40
40
-5
-80
2
11
-59
-17
-31
15
-37
-3
8
71
-11
-24
24
63
7
29
20
21
26
33
35
-33
-81
35
-6
0
39
-5
15
66
59
-38
-24
-18
-15
75
-5
-33
31
45
17
-5
21
-61
8
50
-2
28
-2
44
2
24
18
8
-92
7
35
-21
-19
12
13
-46
-8
10
-10
69
8
44
-34
33
-16
-40
-2
-27
-26
0
-10
-23
-10
66
-11
11
-6
3
9
-52
-20
-64
38
36
-5
-11
-18
10
-84
-27
-35
4
36
-114
31
-10
11
9
6
-18
-27
4
43
22
2
42
-56
-26
44
-20
-9
5
-19
-20
21
-59
-63
18
37
20
-16
-53
-39
15
16
50
71
-37
-23
-16
56
15
13
-62
91
39
-64
32
-4
-37
-8
37
-111
-2
10
-30
-36
-15
-12
-27
-20
-20
-91
87
-127
1
7
-19
-11
4
52
20
-30
26
51
-34
-15
-1
-15
16
33
-36
-17
-13
13
-31
-13
-40
53
32
-3
35
-38
43
29
16
-26
-69
108
-39
55
-75
74
72
44
-43
-24
-21
-31
-46
-42
-14
-23
49
-127
-124
-16
45
49
50
-8
-27
-22
-14
4
-33
-33
-13
28
-79
74
-95
-4
30
-44
-52
34
40
38
63
32
-73
71
-21
-47
5
-38
-39
-30
-81
-56
-6
55
-1
-14
-60
-119
-17
3
-29
11
49
-52
-16
44
48
31
29
21
17
69
-1
-29
-78
10
61
22
31
28
-32
-70
-6
63
127
-26
-33
-4
-55
9
27
-106
44
-8
23
32
-37
75
-29
-39
-76
-32
-5
64
-16
-2
17
-11
46
-74
-27
21
7
-68
20
45
-26
14
-7
-60
-46
66
69
-2
60
-4
-79
-1
17
-46
43
99
-51
35
-52
28
54
-19
-62
56
-17
6
43
24
-8
19
14
69
-51
-19
-26
39
-36
-73
16
20
51
30
-33
-36
-3
-37
-2
2
-2
-39
-22
-121
-104
32
3
55
-7
-53
61
-13
6
-22
-21
-47
-41
51
38
40
39
-27
37
14
9
-26
-59
-41
5
49
10
1
-47
7
14
-11
31
20
11
-59
37
34
-22
-17
3
14
38
-2
-6
-19
43
-47
91
1
-64
25
42
-21
31
23
-16
-66
8
-28
27
46
-74
-29
-41
-33
52
127
51
28
-48
-34
45
-98
-5
53
90
35
-5
-29
-45
0
-5
-46
18
-79
24
-17
52
-43
57
47
65
-27
28
15
91
33
-41
-47
21
11
-76
-3
-94
-30
-43
25
28
-44
52
-48
23
39
-117
13
66
1
43
-58
-12
27
-20
61
53
15
37
-10
-16
6
-60
65
5
-58
30
-57
127
8
-5
89
-22
-52
0
-28
101
10
-26
-13
4
-43
-37
-38
74
25
35
-18
60
69
-4
23
-11
-23
21
-89
-40
38
-39
0
-39
123
63
45
-1
-44
-14
22
16
31
33
7
-38
3
-83
19
-26
104
-42
7
-55
-3
32
-5
-40
-19
-5
45
-45
-27
11
-3
36
-26
-1
-46
-65
40
54
3
110
20
-64
-2
32
8
-11
1
62
-54
-48
-2
39
-9
-30
35
19
38
45
-32
-5
8
-33
34
-7
20
13
-56
-46
-44
-2
-10
79
-46
1
-11
61
-15
-44
62
-1
-52
13
-127
10
49
-42
97
-17
44
-28
50
-5
29
9
-101
-26
-4
-46
-25
-4
26
-24
4
10
11
47
-28
76
-62
-41
42
41
9
-36
-72
29
-11
40
-44
65
53
-22
48
-68
-46
-19
-100
30
9
-99
28
8
-9
10
47
6
7
-49
-15
14
-83
-1
-27
-38
33
2
-45
-15
-66
40
-26
7
7
7
30
46
-13
-33
-17
23
10
-10
-24
13
12
-37
19
34
-64
22
-48
-44
10
-36
-32
32
-21
-71
-21
32
-26
-7
14
6
25
-51
-55
-29
10
-19
95
60
39
57
-3
15
11
80
14
-86
-17
-89
-16
-14
39
-51
6
17
1
6
-64
33
-1
-127
-34
7
-8
-64
17
-61
42
47
46
28
4
-19
43
-30
-22
-36
12
64
-44
27
63
30
-33
-6
-13
-26
41
9
36
-51
33
15
-6
6
-7
69
41
-45
-20
7
-21
7
-35
-65
0
-2
-17
38
-13
80
-24
6
-8
31
-12
13
-23
18
35
9
48
-8
-73
28
-31
9
43
-27
-41
-92
13
-35
-10
-13
-127
47
-16
-35
-3
-28
-39
21
-112
-39
86
-4
48
47
-36
-18
78
-54
-16
-23
45
-22
-40
-22
-21
-53
-23
-9
24
35
-45
-31
6
-17
11
41
-10
-38
-3
-30
28
16
-49
45
38
-2
31
6
30
-22
8
41
-13
-24
-18
-43
31
1
23
32
6
-1
-20
-15
-7
38
-28
-11
-4
42
34
22
-3
-127
2
-24
-24
27
-26
22
50
6
5
30
-32
-42
43
12
59
35
23
27
-31
10
-2
-14
-36
32
34
-20
10
25
-31
34
5
-10
53
1
-15
-33
-48
-6
-17
-29
0
34
-31
-4
26
64
-7
21
-45
26
16
-41
-3
84
-21
-20
22
-24
44
10
-38
-19
-11
18
-29
-17
24
56
-6
18
16
-49
36
-16
7
1
-20
-38
-16
0
-36
8
-23
-5
41
5
-48
32
25
31
-38
45
-21
-27
6
-45
-36
58
1
-6
34
-59
-44
4
35
-34
103
15
15
-34
61
-9
-14
-48
0
-14
29
18
13
-2
-9
1
-35
17
29
-53
-11
1
-60
29
-20
115
58
11
6
-31
-8
2
-127
-96
37
93
-6
-7
-4
-1
37
0
30
-42
-24
33
-35
-6
103
-44
-31
69
54
71
4
36
48
-8
70
-13
85
5
43
-25
-44
-50
4
1
-4
28
51
-34
-21
-9
-31
-71
6
-12
-7
39
62
-3
-11
-69
15
20
11
54
52
3
-5
-39
9
23
-18
-74
-52
23
-39
24
-12
34
52
-42
55
18
-33
-25
-37
-29
-12
-24
10
-39
58
7
-127
-31
22
20
15
-108
-49
-12
-82
-4
3
-19
50
-27
14
-2
-13
-3
-24
-21
60
48
41
92
-5
114
-23
18
-45
43
-32
-10
-30
-32
28
-31
77
4
-116
30
-76
-3
-10
32
16
46
-59
-15
-48
15
-18
-35
29
-3
28
3
-59
12
-23
-41
16
-11
-42
127
6
50
16
13
-94
-2
-91
33
-45
5
52
35
-22
10
4
-30
43
35
49
6
31
63
-78
-87
-24
78
-15
-60
32
114
36
56
93
-23
-47
-47
21
85
38
3
-19
-45
-26
-22
-22
-81
13
6
-53
42
46
-16
-30
-3
-30
-48
-11
8
21
-11
-53
25
-33
9
5
-127
-61
-5
-24
75
98
0
4
-2
22
10
-5
8
-1
24
-9
38
-3
6
14
60
-18
-1
-26
22
45
-38
-16
-52
-27
16
40
-61
-6
4
-28
39
-6
-33
40
28
-24
18
-19
31
-28
-8
-7
11
-60
44
2
5
45
16
47
26
116
-27
-18
-59
-64
-6
56
21
95
-22
-6
81
30
-9
102
-29
1
14
-8
10
2
79
19
-8
-3
35
-72
47
-82
-51
44
45
20
18
8
-11
-17
-84
-34
-18
53
44
83
18
-49
-47
-28
70
59
12
-40
0
-36
2
43
58
-18
16
56
19
6
1
-27
51
15
85
11
7
62
29
-47
10
-46
-34
-63
65
113
-69
56
5
84
19
33
-50
-60
23
8
-18
-7
-92
70
28
-57
49
7
-30
-15
-29
-40
26
4
50
-35
-51
52
87
127
38
24
-13
-17
-53
20
2
36
37
65
4
-57
-111
28
39
46
7
74
32
59
32
-37
-42
35
98
-14
31
34
-81
-68
-34
28
-15
4
-30
35
10
-11
-36
5
-15
16
-10
-29
-23
-11
-40
7
-30
-16
-78
-46
-67
34
-68
-14
-37
-67
74
-74
-18
-49
21
84
-88
-9
20
5
-1
-16
-7
69
13
-28
-1
-6
-25
127
-40
-40
-11
-49
-43
-86
17
-70
31
24
-60
-19
-67
15
6
-55
-19
-12
76
-10
0
11
-17
-6
32
-109
37
41
-9
-34
-20
-12
3
-7
23
4
-47
-5
3
95
-127
-55
53
-27
-40
47
-38
-71
29
15
13
79
-4
-24
-18
55
20
-100
-4
-11
-11
53
-4
23
-27
9
-7
20
-37
44
35
-34
35
-15
17
3
-43
17
-55
3
-17
-23
41
26
18
24
49
5
-4
-6
-29
59
-7
-23
-74
73
44
-83
-29
-10
-33
83
35
31
-49
24
29
-20
40
56
-4
-46
-66
9
36
10
-90
23
-48
-58
64
-45
19
57
-7
-31
-20
-28
13
-58
-24
16
-31
-52
-13
-45
24
19
-24
63
-20
15
39
-5
-8
-45
-14
58
28
3
-20
-1
47
2
-65
-44
7
-36
42
-3
-7
-27
7
27
-36
21
-56
-10
-14
-12
44
31
90
24
3
-20
33
-35
-18
5
0
9
-18
-35
-25
58
-10
-16
-24
127
55
-10
2
-31
-5
-34
-10
-75
33
16
37
3
-20
-97
-19
-31
-56
-5
65
-39
20
25
13
77
4
15
7
-14
9
27
-17
-10
-39
11
5
27
-10
-14
-34
-29
2
11
28
-69
-2
-20
45
-16
-38
-6
53
-19
36
-45
-11
25
38
3
-2
3
-40
-29
5
70
-11
-19
49
25
3
43
40
-51
-25
31
-14
-74
2
-48
5
-72
5
54
19
-54
38
-24
33
45
-35
21
-76
-22
11
-5
49
-39
11
-59
-46
-5
-52
0
-29
50
86
13
-5
-14
28
-1
48
16
-49
10
-61
74
-127
22
-3
-22
-17
5
-32
29
-20
-123
-84
-28
57
-33
-35
46
-29
1
21
-34
5
22
-62
-46
-53
11
35
-77
19
-17
-21
39
20
-5
-22
-15
73
27
-29
20
-79
74
9
-9
26
-6
-30
2
-8
-10
36
-61
27
1
-10
-43
-6
-26
19
-24
36
17
2
30
19
-11
13
-35
4
22
18
-37
30
-61
-6
-48
-51
76
-13
-45
42
-15
-9
-42
-14
17
-17
69
2
26
2
50
-17
-14
-41
47
43
4
2
-127
1
-6
39
0
20
-19
51
-39
83
-12
11
-38
52
48
9
7
29
-40
-17
-14
60
23
-14
79
-41
-39
8
90
-8
-53
35
-51
-15
21
-105
-31
6
-37
111
20
-74
26
14
-27
10
-58
-55
111
-16
65
44
-56
-52
-10
-20
-17
16
52
-42
82
-52
88
40
-77
0
-122
78
-84
-12
25
7
95
1
-15
75
25
-22
7
-69
26
55
19
20
16
-29
22
15
-47
77
24
127
-6
-36
23
64
-47
-64
57
15
-77
-31
-37
1
-32
-23
19
-23
7
-47
-12
-20
16
-41
2
-33
-27
-12
9
-43
5
17
34
26
-5
13
6
-6
-22
51
0
27
-5
20
-42
11
-7
-6
9
-23
31
17
14
72
65
-30
9
18
-14
3
-15
26
-6
-19
6
-14
42
21
15
-27
30
3
-24
39
66
-18
-7
-18
70
70
-44
16
38
-18
-23
34
127
45
-23
38
-1
-21
8
26
-54
-17
-2
16
-33
-17
37
0
54
7
23
-42
7
-5
-26
16
28
-62
5
11
22
-50
-69
69
-26
-123
-36
-42
30
44
12
68
-114
79
13
36
-52
-6
-65
-71
115
27
49
-1
4
-10
57
-35
-42
-51
36
6
-6
100
10
-25
-11
-12
-86
9
-42
-20
-18
91
-31
45
-33
6
4
-82
-31
-36
-1
67
-23
54
-71
-13
-12
-1
-37
12
76
-25
-25
-108
-53
-18
-40
46
-21
-127
60
-51
64
45
43
46
102
-74
31
41
-41
-48
5
-44
-11
49
-38
-33
-44
76
-6
-45
19
-30
-3
32
-22
-57
-44
-56
67
-111
-75
-72
-28
22
49
66
50
10
2
11
-22
-30
10
-36
76
67
7
14
-79
-44
-12
103
-13
-68
18
-36
0
52
-23
109
-14
65
-20
50
-21
12
-5
96
47
-88
-116
-95
14
-31
-74
-15
127
-52
9
18
15
-33
-27
-46
-17
-114
82
8
62
20
9
6
97
-20
52
25
6
30
4
14
37
-25
-67
26
32
-54
28
20
36
-12
100
-56
-39
43
76
-25
43
-15
1
2
59
6
-31
-16
10
-8
-31
23
-3
15
5
-26
-27
-1
37
32
-35
1
14
-22
-8
45
13
4
-50
-30
-13
-37
-15
3
-4
24
-26
-81
-10
-8
-4
-15
62
35
37
12
-15
69
9
-12
-72
-18
-36
-20
13
-7
-1
39
18
-22
-20
-35
14
49
-91
21
20
32
18
-27
127
20
15
10
-4
81
-8
14
-4
33
-2
32
2
0
41
40
3
-19
-19
15
1
0
-25
-56
-30
-18
17
3
22
34
37
-26
12
17
13
31
5
-9
-9
23
2
16
-4
-70
32
33
-21
-17
20
-28
13
20
19
-21
-60
6
21
-28
15
-43
24
7
-35
-18
-21
-3
-13
-27
45
-60
-1
104
-10
35
18
-19
-8
-10
-27
28
13
-24
40
5
15
-15
-4
5
36
-19
34
16
8
-1
-58
-7
-38
74
-24
-15
26
127
50
-35
62
-65
-57
7
-8
33
21
7
-54
-23
-19
-17
-34
-66
-15
15
62
-19
-15
4
18
53
23
-20
74
-33
69
-37
-6
60
-1
-25
21
-35
65
-24
-27
-29
16
71
-6
36
36
23
-43
-59
32
-50
-12
53
88
24
22
4
-40
-39
-12
0
26
-67
9
-20
-7
24
-17
27
-7
-81
-6
39
19
19
-37
-3
43
6
-15
14
33
57
-9
20
54
8
26
-28
-7
9
14
25
-15
-63
15
-18
-127
-86
13
-50
43
11
20
6
20
-22
47
-5
24
-9
-1
5
-45
45
17
-36
2
73
-58
8
46
37
-22
28
-48
28
-60
-51
-1
67
-27
35
38
-9
-7
0
-43
-50
-19
8
8
-15
-21
36
50
21
-30
14
-3
22
-26
-18
-39
-26
11
-4
-32
58
-18
13
-13
-6
-6
37
24
53
31
-1
-11
11
31
10
31
-5
39
-13
13
-7
-68
25
-5
-127
58
-27
-18
31
-29
1
-7
24
-17
28
54
-54
-31
-20
-1
-8
-21
-75
2
-2
-8
19
51
-25
25
1
-25
-4
13
3
-2
-74
-17
41
-32
-55
-112
11
-17
53
-55
-63
44
5
-127
-1
26
-62
-37
33
21
-55
-67
30
29
22
30
-57
43
-39
-1
45
14
-68
51
31
-55
31
-5
-1
-5
-54
-37
67
-99
5
16
52
-44
55
41
-23
54
8
-20
-33
44
11
-14
18
-49
-24
-75
44
21
-27
-93
-28
-41
20
-88
35
72
-44
8
5
-21
22
-52
14
47
24
57
11
73
100
-73
-23
-8
23
-44
-28
-51
43
-68
-29
-49
-20
-22
51
-16
18
1
-12
2
17
16
21
44
3
12
-60
4
21
5
74
36
8
-3
-37
1
24
18
37
-13
-21
22
-5
15
-20
-4
-4
-39
-10
-4
2
-1
-14
-6
-44
-25
-35
0
21
9
-10
21
-4
18
29
1
11
19
55
-12
-48
-10
-2
-99
25
127
11
-26
-3
2
5
61
-46
-28
-19
33
46
-20
9
6
-6
26
-17
16
-13
-51
-24
16
27
2
-26
-4
22
15
40
-25
50
16
-7
6
-15
-3
-28
-8
-13
4
50
-9
6
-16
-7
-9
25
7
-2
-34
4
-2
10
-8
1
-9
5
-17
13
-16
0
-15
-20
-8
-4
19
11
1
28
-10
-25
10
-7
-8
18
5
-42
27
-5
-18
0
23
4
-20
20
8
12
19
3
16
-15
39
-11
75
-7
27
-17
29
-1
-1
1
127
-6
-35
-15
12
-1
-18
13
-25
-8
-30
8
28
-52
-13
3
-16
1
-11
-16
16
1
-14
-40
-9
5
15
11
6
-48
-25
-79
7
-40
-12
-29
28
70
-2
6
-29
-12
-7
52
127
-52
14
-68
-81
-39
-16
-3
24
5
-56
33
9
7
-73
22
-28
30
44
13
72
-52
-48
2
23
-14
-51
-5
36
23
3
3
29
0
11
-19
22
70
47
-13
-76
58
-27
-2
-21
-76
53
-4
-22
9
-50
21
78
-23
18
-48
25
-15
-21
1
-15
3
-38
-26
3
42
48
-3
44
34
-29
1
-32
-59
-118
21
32
7
-46
-29
-43
-6
41
29
-17
0
2
-6
70
-36
47
49
72
-25
118
-25
67
-22
-68
-101
-26
-109
53
10
2
-27
36
60
25
126
19
-52
-9
19
-16
-45
-7
-127
-59
76
-52
7
-82
9
-59
34
-32
56
49
4
-2
53
-35
-60
58
27
4
22
110
-54
9
87
25
-83
-28
-79
98
-64
-108
27
31
42
96
16
19
8
-41
-21
51
24
-90
-120
81
-60
-24
-62
70
-15
-22
-46
-7
5
24
-26
96
42
51
34
-15
-31
-22
-76
-24
11
-21
17
3
21
37
28
-127
-47
-8
-9
4
8
-9
-1
65
50
-13
20
0
-22
-74
18
14
25
7
-5
53
-12
43
66
-24
-13
8
29
25
2
-54
-6
-32
3
21
69
-7
31
-45
-9
27
-43
-8
29
2
-20
26
3
-44
-5
-14
-8
-7
-37
4
39
13
-2
-33
-4
4
-1
16
-55
-2
-34
0
41
-3
-18
-11
72
6
45
-30
65
7
14
-24
2
-1
-20
-19
-8
-13
-14
5
-32
21
-66
-7
-26
7
-105
17
-35
2
21
-1
-40
-11
15
17
11
20
-1
-4
-3
-9
-21
12
12
0
-4
-26
-55
8
25
28
93
-5
-14
-54
-5
-15
21
-32
-77
-9
-39
20
-26
16
34
25
18
1
11
48
63
5
-27
-12
20
24
37
8
-29
-45
23
-127
2
96
-28
5
18
1
-3
0
-4
1
-30
-31
-116
-36
56
64
7
52
-14
-51
-7
25
36
32
4
-39
50
41
90
27
74
-50
-7
106
39
4
-38
-15
3
-117
-62
31
-68
18
-64
-7
51
-84
11
36
26
22
45
-29
-13
17
70
51
3
127
79
89
56
36
-90
-37
48
-6
-42
-15
-127
19
12
41
-11
24
-24
-120
3
3
22
16
0
-63
27
6
-54
27
-1
-77
-56
9
0
-60
-9
71
70
54
-45
-4
-105
36
66
-76
-44
64
-44
22
-96
-39
6
17
-21
13
-56
0
4
-101
0
-8
19
-15
4
-27
16
-23
12
-8
-15
-2
-46
-8
12
-15
15
37
-1
9
15
7
-25
-2
18
-23
-28
30
-14
-10
6
-32
29
29
32
-3
-17
-7
-38
8
4
42
-2
4
1
25
2
-28
-4
1
-10
-21
-6
-20
16
-13
-4
10
-37
-12
17
22
-9
45
-51
13
8
-87
-4
23
-4
20
14
-42
22
11
4
-11
-18
-23
-61
-14
11
-26
42
-49
32
-4
-12
127
6
-41
-26
31
18
11
-38
5
-42
3
-9
-35
-55
7
9
35
32
37
-44
28
-42
-13
8
19
-34
-1
23
52
17
-6
-24
-14
-13
17
-6
33
11
-45
-37
3
49
32
22
-3
-4
8
-10
44
-8
-17
11
-24
-35
22
25
-34
15
-32
0
-27
2
49
-14
4
-20
13
26
-25
57
-5
-20
-7
-67
25
47
21
-5
-76
-32
52
25
-72
-20
-37
-9
2
-34
12
-20
38
-69
-27
10
-7
127
6
-6
27
18
10
37
22
19
14
-20
-37
58
52
51
104
56
-24
-25
69
48
-29
-56
-14
6
-21
-6
6
-127
24
2
0
-29
23
50
-56
20
-10
-5
-20
-57
18
25
-71
-24
9
78
-27
-19
46
4
-26
12
1
-30
9
-6
-6
49
3
11
52
-10
-34
-38
-16
1
-13
-2
-62
17
9
-30
40
7
6
1
-13
-2
-30
71
1
11
-7
-38
40
-7
-28
56
-31
-13
38
26
8
-28
-79
12
82
5
-52
0
-27
-41
41
-8
29
-37
-12
-112
39
-1
-38
-60
-27
-72
127
-102
49
77
-71
-33
-2
-59
33
45
101
25
98
87
-37
6
-45
-78
-75
-70
-70
-53
117
8
20
-41
77
115
43
21
-47
18
59
-42
-84
-102
-40
41
79
-19
-50
-43
-34
11
66
34
9
111
-29
-68
-44
-22
41
109
54
-73
8
81
-34
-22
-26
-45
10
-32
34
-93
84
-79
-80
21
86
37
-57
-101
-36
22
-104
-103
-22
54
-98
-30
-43
-9
26
14
-35
-33
-49
-27
-15
11
2
-69
37
-14
-28
22
2
-27
-20
66
10
-33
31
36
8
26
-48
-16
56
4
31
5
-3
-20
-15
5
-22
-97
19
22
12
-11
-24
33
-10
30
1
-60
0
-27
-53
76
22
29
10
-15
-82
4
67
19
36
-49
10
5
38
8
4
32
-3
20
-20
-40
-14
-32
-41
-54
50
86
-3
39
6
127
28
-6
7
-84
-69
-38
-4
-14
8
-7
-11
9
-29
-6
-12
-62
-52
-47
22
2
15
38
53
-9
45
-9
-40
41
122
92
-61
-36
-72
-20
59
-45
-4
-32
29
70
-127
-39
24
52
49
-21
-7
-17
35
-3
55
73
42
8
52
-25
32
-39
8
-112
11
-75
-10
-45
-12
-8
-20
64
67
-35
-52
40
-100
22
47
-8
2
-4
-12
57
-13
10
34
-46
-66
-44
52
-39
-12
-21
-12
59
-11
-19
-2
97
63
83
83
-15
64
-20
84
6
-16
20
10
-21
-59
-53
31
-75
-58
-24
-37
92
35
-26
22
12
29
-104
52
-22
-15
-4
1
3
27
51
-3
-3
28
66
14
7
-18
-29
62
-56
-10
40
-14
27
-36
-62
40
-77
8
-9
-20
-42
4
-42
61
43
36
-19
2
-36
11
41
-51
4
-31
-15
-16
-7
22
10
19
-2
-18
-44
51
-64
22
31
-18
39
7
36
39
-35
13
-9
123
72
-1
66
-7
127
29
-41
-66
15
-13
24
-51
-54
-11
-3
100
47
18
-57
-17
-28
-27
-30
28
-51
-59
-6
-11
46
-20
1
-35
-41
127
-35
-50
-19
6
14
20
7
-23
6
5
6
-2
-72
27
-47
25
13
12
-11
37
25
-35
1
23
-8
72
6
19
-11
-42
-35
43
-72
15
-31
27
3
37
-37
-35
-3
-91
-1
51
21
39
-28
10
70
-12
30
2
20
36
15
31
89
-26
-83
3
53
81
1
31
15
12
-10
-4
-22
65
70
-35
80
-10
23
19
-13
25
2
8
35
-23
-11
52
43
22
-18
39
-37
-64
-48
-59
-45
16
0
1
-29
59
16
41
-3
17
29
-38
127
-57
-28
94
-22
6
-63
20
15
43
35
51
2
-90
-36
-8
12
13
-100
7
36
-61
-57
21
38
-56
33
3
2
-24
-75
-11
21
-14
-2
67
13
-7
1
33
-33
13
30
14
49
-59
-53
4
78
-19
-6
7
37
-14
-81
35
5
-33
-117
-12
-63
-7
31
-11
33
11
51
44
-2
-95
25
44
8
40
34
-28
45
-86
-15
6
12
33
-18
-8
13
29
-24
4
82
56
-15
1
127
-34
-14
-15
7
22
37
4
-24
-6
55
-8
-20
-26
14
45
41
-7
36
-20
-24
-38
3
0
-18
-41
-3
-66
-40
20
73
14
30
84
18
-2
-40
-13
-7
13
21
-36
-34
18
-24
12
-4
63
10
-27
2
-72
-10
-20
-27
91
10
-10
118
-105
5
-10
-18
-13
56
-69
6
49
-10
-23
78
24
-42
5
-29
-9
1
109
12
4
81
-37
23
-36
16
-77
35
49
24
-39
32
33
-73
-15
-15
-13
-13
25
66
82
49
-71
87
35
-28
-25
-9
51
-47
-14
32
89
28
-9
113
-33
-37
-29
12
51
38
16
24
-4
12
61
-12
-17
-21
-85
25
63
-8
-60
-15
-51
-33
39
46
78
-20
-54
127
14
-26
-19
-24
-106
-28
-43
6
-23
14
-114
53
2
46
-25
8
12
-67
47
22
20
-25
90
-61
-80
63
16
-87
-44
-31
-11
14
14
-85
44
55
-11
-8
14
20
-15
22
-10
38
-41
-90
20
-15
-13
49
-7
-64
18
48
57
20
-37
40
-37
-53
-18
40
-19
-57
55
59
-19
-49
5
14
-4
-12
46
1
21
66
-7
-29
-79
41
-32
72
34
36
33
21
-75
-51
-29
1
-2
-16
5
24
35
-46
40
-19
8
66
-17
15
15
31
-66
-34
37
14
-24
-26
50
70
-36
36
112
-16
-17
-74
-127
118
73
17
58
-14
13
20
-4
4
36
-18
-35
27
-42
61
-27
-25
-30
76
34
24
-63
-14
-34
9
-60
6
61
-63
9
11
8
19
-65
27
0
18
-17
71
5
9
-1
94
-33
59
-25
28
-4
18
47
93
-14
36
20
81
3
-44
16
122
40
-40
27
23
51
-24
28
69
-18
20
-25
35
-35
-45
50
-35
34
44
1
-17
9
2
22
-39
4
0
0
54
26
-19
-31
-59
92
-9
-127
-41
-78
26
-32
-31
51
29
-17
25
-21
-10
20
-14
80
-1
14
5
-2
6
-3
21
33
-51
7
0
58
-44
27
20
-8
-51
18
14
27
21
5
-9
0
-31
-3
-1
-10
18
-7
47
7
-46
39
-45
7
35
20
45
51
-22
24
26
-60
-28
-40
-7
36
4
2
-10
9
17
23
105
27
-12
26
21
12
3
8
-20
61
38
33
42
19
-16
29
40
127
8
56
-2
18
-41
21
41
-31
-16
-1
19
-7
-50
43
34
108
24
35
-41
-25
17
-72
47
24
-38
14
6
28
15
91
-19
-56
-55
80
6
-11
-26
52
3
27
4
10
31
-2
9
-12
-44
-7
-19
-52
-10
-31
42
-73
-25
39
34
-19
-46
14
57
1
13
28
33
-29
21
-1
-43
30
14
-6
4
26
-6
41
-8
-36
17
11
10
14
13
-8
-18
34
-56
79
-9
-35
5
-33
11
42
19
5
39
-3
-60
12
-17
-24
2
-42
-16
50
18
13
-80
39
22
127
2
20
-30
-28
9
-34
16
-1
-62
-19
-73
21
25
4
58
34
-24
-5
45
38
-30
26
-56
9
-71
-83
-20
-33
24
21
-19
17
-6
12
-31
23
78
35
91
26
41
17
-18
-57
28
-20
43
81
12
-16
-73
-14
-24
30
12
-43
-97
36
-4
31
-44
114
-53
50
0
82
-27
-88
34
-37
37
-49
39
70
31
-26
-40
-21
34
-65
65
-84
-21
-7
5
-18
-1
-57
-13
45
52
127
33
7
-63
-34
51
52
-7
95
32
-79
-56
20
-28
-47
68
12
26
31
29
-54
5
78
-38
11
8
-38
-53
-19
-9
-2
-84
5
-30
-4
6
-63
31
-16
-13
49
22
32
36
59
92
-46
46
-55
19
-92
-19
54
26
5
47
-38
7
-31
-76
44
-13
53
8
62
-83
-34
-37
-5
35
-61
29
2
16
-62
-64
-58
50
30
-18
-27
5
-16
-23
19
-55
56
22
-2
-104
-51
17
-17
11
3
-25
-17
44
6
12
-127
19
28
8
-65
89
119
36
-2
-12
7
-84
4
8
28
30
-65
-9
-18
-41
59
-40
-32
90
-6
0
64
50
6
-52
0
15
53
-122
-31
97
0
39
2
10
12
60
9
26
24
-14
41
57
-5
46
5
21
-33
13
75
-5
3
0
-19
-18
-87
117
10
-64
39
-10
-57
41
127
-7
47
72
-16
-44
-24
-80
-42
44
-24
71
9
-35
-26
-26
75
25
40
10
100
34
-43
97
-68
-23
-13
-33
68
21
4
8
95
37
-2
7
16
-25
12
46
8
19
7
69
-22
3
31
-23
43
-15
-8
-10
-17
-19
-11
-17
24
-51
-10
22
-48
-13
42
17
36
29
-8
-25
2
72
-22
9
19
21
5
0
9
-17
-19
26
20
23
32
-61
40
1
13
13
70
3
-10
7
-14
23
18
-27
-90
-18
2
-37
-7
-10
-17
-33
-17
28
-21
11
20
-21
16
-6
25
-127
-30
21
-23
-23
9
-11
0
6
-25
22
-22
-19
-10
0
20
41
7
-2
-21
23
7
-33
-8
-34
27
1
-32
-30
-33
-7
34
51
-23
49
-5
119
29
26
80
8
22
-43
-11
-26
-5
3
31
28
-59
7
10
12
1
2
-21
15
30
25
58
-49
-3
-49
-3
25
32
-21
36
48
-54
-24
-8
34
47
2
4
18
-8
-10
15
2
-63
-27
-71
-66
-22
31
8
22
-32
-19
7
25
-8
-39
47
-40
23
11
34
15
-94
-64
9
-20
-25
3
127
19
29
27
2
-54
-23
2
26
-29
-16
16
35
-4
37
45
-67
-21
23
40
-18
-43
0
-2
-49
12
4
-81
22
-12
-68
-49
13
35
20
31
12
6
-16
9
29
46
21
17
20
31
-62
-43
-8
-15
7
30
17
-40
8
46
15
48
39
-19
-9
-13
18
33
17
-33
10
12
-41
0
28
-38
-2
-4
17
-13
-43
11
-19
15
-25
45
-29
22
14
127
10
-19
46
-41
-47
-23
25
38
-6
22
-52
36
15
-34
-9
-17
-16
0
51
-23
-16
-12
-8
33
-2
23
-18
15
-20
-127
118
-54
-27
23
32
-32
-11
8
-14
-48
43
22
42
-7
28
61
-26
12
17
32
61
25
-39
17
9
14
18
-12
65
15
-38
40
-6
26
26
-7
-19
-8
-44
7
87
17
-18
-37
-7
9
-45
27
-79
-45
-16
-24
26
-39
-12
-39
-43
54
60
31
21
-9
-24
5
-68
-101
-34
-16
3
-43
45
-67
-100
42
-10
26
23
33
-2
2
13
43
32
4
69
-5
-12
-8
-58
-14
28
-20
6
59
-87
-48
1
19
-42
-5
50
-29
-11
-5
47
0
-21
17
-7
-42
-70
19
9
35
-37
-24
-89
13
-54
-10
-34
2
6
-40
-9
33
-127
59
32
-32
29
87
-21
46
69
-3
33
-9
-58
30
-20
55
3
-15
66
-24
-46
-16
61
50
66
115
-22
2
-38
57
-9
-64
-9
-29
-23
-89
-71
-2
68
68
-10
60
-109
78
58
7
49
-4
40
-1
-38
22
94
89
-26
-30
-10
-3
8
72
-8
0
-71
-49
-9
2
29
-7
-16
77
-25
93
78
-8
-26
-20
24
-97
13
-34
17
79
35
11
-15
-83
-14
59
19
3
-41
-34
25
26
-35
22
-23
1
9
19
1
-13
-23
20
-36
-55
-29
127
7
-14
16
-2
1
-23
53
97
1
-41
-56
-10
-17
-70
0
26
33
-31
1
-17
10
-53
41
20
-6
21
61
35
-48
-73
-47
-21
-31
-19
16
38
-34
56
42
-3
-10
19
-37
21
27
0
8
8
-59
5
-3
-1
-15
19
-30
-4
-8
-9
8
-81
-5
23
12
13
-30
3
-7
5
11
-13
18
-20
39
2
-12
16
68
-19
-3
-24
19
24
7
-9
-14
28
-29
25
-13
-30
10
-10
-26
28
13
20
1
-29
17
22
5
7
-8
-15
14
-13
-49
43
-127
-4
37
-14
-8
-17
115
18
65
4
13
-57
13
13
-2
12
-29
24
-13
-48
-16
7
10
9
23
-17
-11
2
-14
-31
-2
19
-6
12
49
-93
-14
-49
-16
28
21
41
-1
-57
-8
-127
59
32
-38
-44
-71
-30
10
8
-25
58
35
-59
-3
-16
-109
-61
-42
-54
-13
-10
67
30
-17
35
23
22
-41
-56
-24
21
-54
8
31
5
51
40
83
-127
-3
-32
-29
14
12
-24
-82
-90
-27
-4
36
1
-10
123
26
-19
85
-104
59
-3
84
70
-20
38
28
15
-22
-18
21
-55
9
85
45
-23
14
22
-10
-14
64
-14
16
6
3
3
8
-55
44
59
42
-9
25
80
80
-81
15
-42
-34
15
-54
41
-23
30
57
-127
88
-6
-61
-19
20
38
-39
44
-14
36
-2
57
76
-66
-7
32
-1
-50
25
85
-15
-22
90
-81
98
-111
49
8
-16
-42
111
-16
-21
31
-32
28
0
85
115
-23
-19
-87
95
25
93
55
33
50
-32
-16
33
9
37
23
-34
-73
30
-88
-116
37
28
17
8
35
-54
-33
42
96
-55
-58
-5
-5
41
76
60
-46
25
7
92
39
73
-8
-12
-9
-74
20
-67
55
48
54
-24
-117
-22
-34
-6
-5
12
17
-21
32
29
4
2
24
95
-22
-32
-50
-35
-25
-22
-9
-34
-69
-17
-61
60
47
24
-20
-4
-36
46
-44
-9
-21
42
-11
-112
79
37
-25
47
-27
-8
39
-19
-16
15
-8
37
-3
33
-116
32
5
-54
41
3
-48
-25
-58
52
-75
-39
-70
33
-61
58
45
-48
71
-37
75
-2
87
-127
-15
-53
-86
-60
53
45
15
0
-39
0
-26
28
12
2
-25
-48
32
-3
21
48
-127
-24
2
-36
24
101
20
54
-7
16
45
-61
9
3
-13
24
22
-55
7
6
4
0
32
-36
-30
-43
18
5
-23
13
-57
8
-7
-6
1
-3
2
13
2
-2
15
9
72
50
-6
3
-25
-30
32
122
50
10
-24
-10
-39
106
-16
-42
-27
5
24
7
8
39
63
76
-6
20
127
-20
51
74
-3
4
38
47
6
39
8
-6
-29
14
11
-51
14
-8
-55
16
-51
33
16
52
-10
-12
-21
22
-38
-127
-33
17
46
6
44
-48
-41
-14
22
-16
47
-47
-74
17
1
29
0
21
-25
-23
-61
-72
30
-54
-10
-75
4
-36
60
6
-28
0
-44
0
40
7
56
-21
-16
11
6
0
-66
-1
15
4
40
67
-25
-52
-17
-14
14
-6
-29
11
-24
12
-6
79
-2
-45
24
-28
-72
-39
-25
-79
-24
73
4
58
-18
-9
21
21
15
-27
17
21
-21
-24
4
9
-14
-7
-20
-25
98
69
-8
22
-1
-2
-9
20
30
22
91
15
45
-11
-9
-23
-22
-8
34
9
-9
0
21
11
47
4
4
11
40
-1
-9
7
46
-59
-22
-34
37
-11
83
-30
-29
28
-28
-3
13
10
2
7
-16
7
-10
-127
-31
107
30
-33
-10
5
8
-5
-15
-63
-52
-4
49
16
-52
45
7
7
16
-19
3
-34
-40
-27
29
-22
-6
-23
3
0
24
-48
3
33
-20
58
32
98
24
-2
27
-29
35
-32
-27
65
2
33
-36
20
-28
-43
33
39
17
20
15
16
25
25
14
38
12
-20
-40
16
83
36
-20
102
28
-15
29
117
105
-14
21
15
-42
1
-1
-35
-23
-63
9
-10
-2
20
-25
14
15
85
19
52
50
1
127
-28
3
-22
77
-41
5
-39
23
-2
59
-63
67
-19
-8
-22
-43
20
0
4
-25
-52
-4
2
11
-20
-25
28
-20
-1
2
-69
15
-80
-3
7
3
-1
-34
0
-23
-10
-28
46
-10
-18
6
28
14
-69
12
-14
-11
47
-9
17
5
-1
5
4
10
13
-32
-53
7
-2
16
33
6
22
3
42
-59
-18
-1
-3
-27
30
33
21
62
-7
-48
-18
2
-32
29
1
17
38
30
-15
-7
-12
38
-12
33
127
-32
1
27
50
-35
33
6
29
18
-10
-12
-25
-34
-46
-8
29
-24
47
46
9
74
22
-40
-22
11
10
0
-1
11
13
3
-5
-29
-12
-3
3
-6
61
-27
-8
-24
2
56
10
-52
13
15
3
-67
10
39
16
10
-75
-18
68
7
7
-8
0
-30
-43
-14
13
2
-40
28
4
3
-58
-23
-21
-21
37
7
-27
-20
-13
63
-62
39
2
24
1
-14
21
30
14
-59
8
-46
-17
42
55
2
-15
-34
-79
-57
-37
7
27
-21
23
78
6
9
-15
127
6
-73
36
-81
-11
5
40
-75
49
-28
14
15
-5
35
21
-39
-4
-18
-19
-8
-30
29
10
27
39
-76
61
-28
-46
-6
39
-18
28
-19
-49
-50
47
59
-95
58
-5
14
37
-44
43
-33
37
-1
-12
-4
83
-43
28
12
29
77
61
98
81
73
6
7
-39
8
-3
-19
25
-67
-6
9
0
51
58
45
-40
-47
-20
18
7
-17
72
-69
41
99
56
1
47
16
-28
26
49
-40
42
25
91
-34
-18
-21
20
-6
-4
-5
-59
-5
44
1
127
-32
35
-11
-41
38
21
28
23
24
5
54
-48
18
-15
-127
-15
65
54
-98
6
21
-15
-46
-1
0
35
-12
56
-63
-10
46
48
-76
72
-2
-54
44
58
-49
-54
-40
-38
-70
25
4
-79
-10
75
48
-17
-74
-27
-8
49
4
45
-20
-55
5
74
-11
2
-1
-47
42
-29
74
111
26
76
-90
82
-76
35
39
-55
-78
-84
-70
42
31
23
-6
64
-47
27
-61
104
79
-56
44
-121
105
57
-11
78
39
24
30
-54
38
82
79
-25
-1
23
12
21
-13
2
57
1
-26
-15
0
-8
30
33
-27
9
-33
-23
-73
19
9
6
-9
28
15
24
35
12
-23
24
16
6
-4
-20
-15
-43
-35
12
37
10
50
58
-2
9
-56
-2
127
39
-35
8
0
25
7
26
27
-18
4
0
-9
25
-47
18
-39
-22
-1
24
35
11
12
-23
59
26
-63
-26
48
76
-12
-15
-10
23
-18
-59
-4
-75
13
50
40
21
12
-37
6
0
-72
119
-9
49
-10
-27
73
-69
-11
33
-44
-30
48
-22
-2
18
-1
-21
-57
8
-37
75
-7
-23
48
-6
-24
-10
70
-15
-59
-61
-38
78
-27
103
-72
-4
63
69
-85
3
-74
-41
-22
-3
-80
2
-57
87
-40
58
-62
20
84
-54
-95
6
56
-91
43
-35
32
27
-22
24
-18
-59
-61
-65
82
127
-51
81
-77
-11
-119
123
-60
-58
118
-50
24
-14
28
2
1
-41
102
-56
28
42
41
-27
29
48
73
-15
-44
12
-44
-57
24
21
10
-1
-12
41
-11
17
3
-56
-2
-24
22
-8
26
-22
-9
-20
15
46
-56
-13
48
-38
45
-54
-15
-7
38
-25
-29
-3
3
42
3
8
3
-19
37
11
-34
-29
-29
8
-21
17
-11
-5
-19
21
-18
0
28
-21
-2
34
7
-8
42
1
37
19
-7
-74
-25
2
0
30
13
112
-16
-3
0
-3
-22
-38
49
2
-41
-2
-21
-39
127
-4
-16
-69
-31
-27
-3
10
48
1
-6
-33
9
-8
-17
22
-15
3
24
-24
16
-39
-21
-36
8
-6
-127
3
9
19
54
-6
-21
27
-27
-14
3
1
15
11
7
-48
37
3
50
6
7
17
29
0
73
21
-31
12
14
51
15
6
33
-35
6
-19
10
74
46
50
-112
90
21
38
19
4
0
-53
7
22
-11
-59
-10
-52
25
-69
7
27
104
-115
-1
39
-2
28
44
-24
4
-6
-21
4
0
31
-38
-37
-25
-11
-8
62
-8
35
61
-44
-18
-23
36
34
-19
25
-20
17
-56
23
15
-27
-35
31
37
35
-25
-36
-127
-40
-1
47
-10
-43
14
-7
25
92
51
27
-13
99
-16
40
-12
-6
12
-54
46
-23
-52
-14
102
9
69
7
79
-8
8
-108
-12
34
-42
32
-2
3
23
28
102
-28
61
-18
10
-3
-48
10
-33
16
95
61
-58
-48
-47
-55
3
12
79
-12
-15
41
-47
-82
-18
56
42
17
-9
-60
-14
22
-1
-20
-34
-22
24
50
-37
-47
-29
-13
41
25
13
-17
-14
8
20
13
-14
0
69
-64
14
20
16
-7
18
-2
28
21
-19
-19
8
-7
8
31
27
0
-7
7
13
0
-45
-26
0
31
14
37
53
10
-15
37
20
3
-20
29
5
-10
21
-16
24
45
3
83
33
76
7
-10
43
-35
13
-27
-90
8
-18
-40
66
-8
-35
-10
-48
-19
1
-1
26
10
-2
11
2
127
-5
-35
-12
-7
27
-6
22
46
-10
5
34
21
27
-9
-49
-86
9
29
13
-17
17
-18
38
-35
-34
21
47
2
43
42
10
30
22
-10
11
-14
-59
14
41
1
0
-24
-3
29
59
-3
29
-25
-39
-40
23
33
38
11
24
-7
36
10
21
-15
-20
40
-43
-2
8
26
-1
