-1252
-9245
9028
-1435
-4380
-12550
-2636
-3502
-12747
-7392
-1597
-2912
-9789
-11591
-1569
-904
-8512
-8576
-947
-7219
-6535
-1081
547
-1204
1628
-1723
-1017
-4286
-2476
-2159
-13784
-2271
-11212
-7767
-1058
-14163
-5413
-3680
3588
-5268
-9504
-9602
-1233
-2600
-1561
1459
-9354
-2815
-1101
2841
-4358
-98
-2923
-12548
-8478
-8462
-2468
2105
-4844
-11733
446
-3168
-677
1398
-12950
-9820
-10213
-10492
-2552
-276
-6657
5229
-6621
-7473
-5746
-8038
-427
-12202
-2460
-6637
4317
-2758
-10472
-2741
-1480
-16470
-10064
-3821
-3395
-10451
-6710
-3088
-623
4636
-6799
946
-12526
1627
-10095
-4692
649
-8855
-6742
11264
-1146
-8752
-6444
-6535
-11925
-2455
-8296
-949
95
-9707
-6374
-7646
-1023
-11044
-516
5280
-4824
-563
-7532
4745
4008
-7638
-5481
-3418
954
-3991
7035
-1665
-1607
-5265
-2981
2564
-12173
-5308
-11903
9604
8857
-11537
3383
-7143
-1429
2666
331
-5121
-14759
-2437
20336
-11940
956
-2209
1050
1917
-6208
-7913
-9380
-8789
-643
2445
-5621
-4628
-7305
-6306
-457
-1211
-779
6901
-298
-6489
-7363
-4489
-10132
-3842
-3557
-1258
-7067
-10744
-5841
-4802
-8452
4340
-6364
-2327
1507
10421
1009
-1762
5100
-9573
-1743
-1312
-11269
2231
-2364
1126
-5662
-15681
-2957
-6569
-1568
-959
1333
-6834
-193
-6606
-9566
-2236
-1874
-5326
-12996
-8565
-5733
-1532
-10710
-3585
-7305
-8102
2095
2345
210
3903
213
-11947
-7327
11100
703
-2067
2575
-9864
7281
694
-12582
-14423
1451
1004
2098
-9529
-8434
-4857
-3090
796
2073
-13452
389
-757
-4201
-3070
2823
-5335
1189
-6174
-13665
-9811
-7120
-7414
-6861
-5532
1471
-4070
-7348
-6980
5765
-2151
-2852
-1337
-3750
-13640
-12534
1837
-7489
-8443
3395
9619
-2571
-1879
2123
4182
-12587
-2822
-586
25774
-1125
2049
-174
-8069
-5159
-5673
-9819
-2637
-2398
-2298
-7640
-9110
-4469
-3581
-7502
500
12556
-10312
1357
-9120
1889
3401
-9007
-982
-9759
-8080
11599
-11211
-9641
-11795
9382
-6021
256
-2519
-6742
-9047
-12100
10352
2833
-16625
-4104
-10860
-10920
2539
3318
2889
909
-2134
-7841
-7091
-10450
2528
1586
-17223
-3979
-6028
-1177
-4946
2977
730
-334
5675
5647
-1862
-2741
-2280
5
-8843
-8858
-5722
1156
2085
735
76
-3531
2356
-262
11224
-5742
2511
-7984
-6171
-10343
-9210
3563
-5082
946
-5141
-4481
-8077
3549
-11202
-2814
-4119
5829
-358
7105
-15047
-5733
1427
-7830
-4040
-1691
-9738
610
1234
-7086
-6938
-8293
-3003
-9021
-13048
-5978
-2972
-8035
18040
-1970
4539
-14173
-8842
-11224
-8003
13713
1080
3697
-25538
-972
-6508
-10008
-6766
1430
-1567
-9745
9122
15287
904
-2329
2112
16059
-12452
-19570
-7885
-4770
-2653
-2057
43
-12042
-2149
-9752
789
-15115
3304
-1959
1491
-4263
-1407
-3603
-4498
-7795
-6629
-9240
-8345
30955
-335
4926
-8289
-1897
-3366
2235
-1343
-1976
-11793
-1762
-1648
-6708
-2543
-2992
-432
3345
-2072
-6988
-7233
-1558
-4911
-5527
-11304
6728
15133
-11078
-7513
-10691
-8922
-5637
-4258
-875
-10701
5569
-8451
-8475
2555
151
3292
-9735
-4565
-10591
-10530
1903
-6238
-2356
-14235
-10830
45718
-3762
847
-12720
-1992
-7523
45
-502
-1222
2601
-3544
-4774
-5832
-2180
-7657
-4952
-7604
-1836
-1379
-10138
3460
-12822
-1218
-8342
-6529
-8384
-8470
-6225
-6981
-7957
-7852
3617
2894
-8077
-9249
2394
-7096
259
17605
-4034
-11060
-1653
-8957
1042
-10002
2651
-9311
-11376
1481
-14621
-13558
-6578
5610
-8173
-8943
-5675
2444
-201
-8794
-6836
-1784
-8817
1148
-8770
-2168
-9725
-10690
2283
-11346
-7007
829
-2198
-2375
14932
-3060
-8647
-5295
-9007
-1016
276
1184
9167
-8357
2473
152
-6284
-13803
-8163
378
-280
-11619
4031
-2891
-6206
-14107
-5969
-3315
2102
-10164
7676
5798
-4051
-4418
-4944
-8731
5675
1714
-9585
-2159
-4965
-9517
-4200
-3694
-6715
-15835
-11283
-890
744
5167
-9231
-2130
-11181
-135
-2006
-11408
4106
-10363
-1066
-9811
-8508
-6993
-2316
-1482
6431
-9927
-3489
1649
-9263
1253
-5830
-5441
342
-2185
2454
-12916
-7860
-5376
2255
-11591
-2649
-4701
-2687
-12862
-8808
-15282
2799
-7957
-4499
-12317
-8368
-8034
4339
-7394
5508
-1789
-6801
-420
5619
-3379
-5632
-13047
-532
562
-7978
-3429
-13035
2
-471
-4109
-8317
-6968
6606
-12169
-1312
2657
8144
-9886
-2925
-1913
-267
-5896
13645
-2732
-5197
-7111
2698
-4452
-9237
-3235
-832
-2375
166
-8407
9959
-38
-4472
-4178
2811
1937
-6032
-11657
-14877
256
8094
-1389
-13927
-4254
-3970
-6960
5084
-7822
-2381
3245
3177
1211
-8586
1445
-370
-4957
-2592
-1967
-5130
-11242
-3944
543
1563
-1674
-6643
13382
-7637
-5055
-4730
-9771
312
-11234
10839
-7623
-565
-10691
-6240
-8933
-11462
5002
2442
-2620
-2394
-118
-11214
-1326
1267
-2135
753
-209
-4543
78
-3215
-4422
-8657
7595
-307
-10671
-10424
-4058
-4356
-2457
18945
-2613
-669
357
-3227
3272
1164
-13348
-4767
-8482
4700
-7766
-6696
-680
-2330
-8217
6686
-2333
2647
-3345
-13636
-267
-14105
-3253
-5580
-3876
-12862
-1916
-4136
-2336
938
7562
-11824
-1270
-5319
-4595
-7406
1224
-4085
-1546
-5517
-10798
176
-6048
-1006
2747
-10225
-7478
-3948
-3403
-6968
-16128
-13311
578
-5771
507
2216
-5461
-10294
-5922
-4095
-848
-338
-891
-2100
-721
-7948
-3206
374
-3070
-3925
-679
-7068
-7897
-7730
-10653
-7856
4239
356
6125
-1244
-1942
-1406
-10338
5920
-11782
9349
-2612
-9701
-4282
-8645
-6499
-4274
-7883
-310
-4382
-4561
834
-9677
711
-16999
-8615
-60
-2281
-2992
-7622
-1195
-2600
-4487
-11707
-10731
-349
-13414
-8583
8389
-2432
-9070
-1718
-1215
-1896
-13515
-8470
-3247
-2347
-12593
-601
4797
-10426
-9874
-7769
6616
-8518
-5404
-1988
420
2175
-1290
-3986
-6837
-6899
3649
-9939
-7599
-3944
-6369
-2138
-9118
6084
438
-5798
6515
1198
-10343
-9632
-11302
-14656
-8724
6618
-12623
1922
-9146
2257
-8225
-1743
-7865
-11985
-4670
-6994
-700
-7163
-3055
653
7855
-4569
-2748
-8516
-4453
-2936
-9502
3041
-8236
-4075
-14938
-7318
-11501
-10096
-6487
-7339
-4885
-551
-13193
-9976
-3330
-4840
-13845
-7388
-3360
-6774
-3692
-3402
20950
-13669
-2241
-3434
9040
2674
-4938
-8505
-4134
-151
-8568
-2279
-7992
-7833
-5244
-9045
96
-7588
4964
-10943
-10809
-11489
-10560
1585
-5451
-10931
3344
-6841
-1226
-2757
-7222
6775
-3840
2679
647
61
-7911
-6413
-6446
-10070
2619
-5366
-1532
1750
-4684
-9295
5511
-10438
3782
-7056
-728
-6447
-7619
-303
-3460
-25613
-9796
5421
2568
-6512
869
-10995
968
-9128
-14135
-1066
-7695
-5579
-2502
-2689
-1619
951
-9961
-8172
-4410
1823
-7089
2594
-655
2159
28093
-10110
-485
-11858
-818
1047
-4872
-9763
21972
-4555
-8157
-9091
-3682
1992
30
-995
1357
-8810
-7154
-12428
-4455
-6774
-7323
-1867
2184
1984
2568
-4629
4649
4417
-7321
-13091
4449
3027
24297
-9200
-6655
-2475
-2750
-1523
280
-14637
39
-1577
-8696
2647
-9176
-5583
-2767
-7411
-4201
-4319
3531
-10609
3625
-4214
-9170
-4752
11394
-8689
-6440
-7571
-810
-3215
-8199
-4935
-5731
-11234
-4500
-1176
-7710
-8302
-5596
12251
-9464
-2325
-2519
-6925
-6726
-5402
-3753
6101
-7842
-6580
-3851
-5182
1350
1629
-10434
4419
3764
-7448
7670
7689
-11490
-9921
-3457
-3948
-2174
-1140
-9005
-3271
