3173
-5581
-590
-6301
-1423
9278
2765
-7032
-14235
-103
353
-3148
-10757
2390
-10972
5188
4650
-8972
-5094
5122
7909
28249
5388
2608
-6518
-28
948
-137
-1652
-6372
5443
314
-11761
-15528
-4493
15239
9864
9212
775
19732
-5965
1084
1389
-9019
3105
205
-1974
-4751
-10033
-7930
-11876
-13444
633
-9304
101
-13223
-10552
-1376
-7537
-8433
-13179
-14521
5625
5616
274
1870
-1921
-12598
-2149
-4088
-10116
-4180
-292
2210
-3691
-609
-11690
-3429
-3641
-4122
287
-1819
4876
-6902
-8612
-1755
5484
-1500
-11423
-1114
-657
-646
-7686
-10859
-219
771
-4204
6344
-13919
7055
-5759
6556
7325
-6488
-12220
42359
9369
1257
16769
-2864
-11957
-1617
-1269
-3599
-3838
-1264
179
8866
4496
-3281
-3364
27151
-14904
-7524
-1567
-15065
2334
-3688
-10029
4726
3426
-1266
4441
-3652
4030
-1080
4503
-3976
6535
-13286
-14020
-7684
-9622
-7970
10556
-9054
6867
-15922
-15324
-10719
-748
-9455
-5445
5028
-1513
666
51231
-15186
-6256
3559
-10005
-15285
-1731
-7767
-4280
8087
-10559
-6468
-2663
-1904
1597
-7506
3996
-1145
-8454
-5228
12390
-5537
-6056
12386
5095
4787
1838
20017
-6754
-7077
1930
763
-13967
-11873
2707
-2680
-14343
-10029
-7695
8360
4058
-4275
-7865
-6064
-767
-406
-12810
6213
303
-1956
-2102
4108
3389
-2804
-7828
-8419
-10708
-9014
-2403
12162
8209
-3568
-8658
-1746
-6636
-12299
4326
-6414
1710
9310
-269
-8310
-9461
2704
-14231
5120
-2264
1251
4317
-9218
-6006
-13453
-2697
-2205
-3537
-5960
11390
-3848
-3251
5269
-2981
-14126
-2782
-2989
-3606
-8814
-2183
-9053
-1881
996
-9833
6471
-7461
-3756
5454
-3144
6009
6993
-3674
-11351
-8156
-5589
-4265
-978
-6506
-1172
1574
16250
-14332
1726
11792
13371
-11283
-12946
-3662
-9852
-11489
-727
-7705
-12040
7087
-572
-1339
-2373
-2259
-2052
233
-486
-1027
-12333
32386
-12622
-6299
-10311
2574
-3563
70
8305
1252
519
-6390
-1895
-2356
842
-1368
-8625
-4346
909
-3662
1107
-4036
-16830
-11370
-1126
-1404
-4706
7730
-6693
-7116
-4731
3870
-3906
-9952
8003
11144
-20622
64
-9901
-18384
-2223
-9701
-11623
-8058
-8391
-827
6871
4137
-5435
3285
-2753
2723
-9365
7028
16413
-9127
-2685
-289
-5607
2090
-15119
-1920
-3681
-13257
-7924
-5774
-11908
-2719
-1593
-2960
5540
-7339
15722
4602
-4668
-13179
-4529
-4616
7675
-3
-1801
1009
-13939
-6238
-2412
-13932
-845
-170
-4482
2824
-2683
3526
-3301
31177
-10475
-1021
-584
-6466
-1896
-7154
-11957
3779
-9762
-1908
-1421
-14626
29735
16314
-5595
-3019
-2695
-202
-915
-2571
5303
5084
-8776
32443
-8028
907
-4487
-6728
1494
-6765
-2057
73
-4736
-4675
24634
-11209
-7171
-4636
10811
-6899
1108
-10706
-1882
-7170
-1922
-11466
2687
4542
-5239
-382
-9881
-4388
-9468
5267
-4260
-11411
-1562
945
2453
4218
-15357
1186
387
-5380
-1846
12737
-2509
-166
347
5318
-10467
-1210
-11701
3351
-2189
-5686
-3228
-5086
-16387
6876
-7319
-13583
-10377
5309
-16575
3544
-13062
-3616
22316
-663
-5166
-411
819
-753
-9112
-2285
39959
-1278
-15011
9927
-6978
-11986
-13402
13992
10545
6786
-4479
-15115
6356
-4119
-5759
-1769
-8898
-7246
28210
-7897
-7984
-1599
-15188
-1484
-5150
3847
-4979
5043
375
-9390
13952
-11097
-13125
6974
-4598
-14351
-2402
-1199
-6069
1536
2433
3942
-10004
1626
-3041
5347
-5657
400
-7045
-832
-1466
-55
-11938
-3977
-93
-1503
-624
3414
-12217
12074
-2904
-1499
12204
791
-5384
-13703
-3337
1293
22480
4743
8670
-7381
491
-16199
7918
-1385
-745
-7707
3192
-6901
-81
-15594
5394
-1703
-7180
-15374
-13994
-55
-11475
-12432
-1616
9984
-16023
1235
7864
-807
-4436
127
-653
-871
1136
-5125
-484
13593
1774
-2194
5323
-2275
12732
342
-12956
681
9898
-15312
-2887
-7786
-4312
-1380
798
-13854
1868
-994
-4493
-3279
-8987
-38
-5660
-1778
1310
596
-12207
7782
-2518
3690
1228
-2827
-1064
-5342
-8120
-6869
199
-19061
-5331
-9332
-5786
-6825
-10703
-379
7450
-2893
2231
-14080
-5942
30751
-4204
-10121
7159
-5436
-3420
-7821
10798
-12002
-1027
1584
-10328
-921
-17831
-1352
2893
-2461
2657
-5104
4507
-11346
-5130
635
3041
-11287
-5985
-5476
8437
12269
6892
-13978
22592
5651
1208
41
5475
7753
-4219
1117
-1772
-9805
-10035
12866
-16413
-10043
-1418
7471
-4589
-147
-11704
-3992
415
11071
-2829
-1505
-6768
428
-1812
-1642
-2164
9522
12185
2179
8487
-3478
5233
-326
-9695
-7483
-9948
-4306
7340
-5872
25115
4040
-1500
3867
2628
-1734
-8099
-1749
-4710
3545
-1547
5949
-4956
-10304
-7737
-2542
-3241
6047
-6647
-8028
-5866
-11907
4204
-8026
-12712
-11359
-5308
-2385
-2119
2374
-1963
-2236
-408
-8109
-2532
7364
-674
16564
-4475
887
-6195
-8734
-4542
8841
-6847
3968
-13388
-971
4681
26234
-6367
3242
-12391
5361
-3425
4018
-5926
3004
-7884
-14462
2499
-4230
-2588
-10961
-2503
-2012
-17361
-8430
11049
6428
-5654
687
-4179
6025
-6688
-5992
-3355
78
-44
-7643
-3830
2307
-7751
111
-5276
-7461
10433
-19953
-133
-443
5611
-10210
-7377
401
16940
-9647
-6303
-1737
2290
1896
-2338
-11752
-15485
-3483
-8757
-51
-10398
-3977
-2345
1169
-7028
-1505
5961
390
-16846
-547
-195
-3464
17890
3727
-15932
1223
-30598
-13828
294
-379
-14814
-1240
-12693
-11738
3210
1342
-3944
-14084
-6801
-6250
-1411
-5260
-10825
-1866
-1243
6937
-9122
-2033
5648
-542
-2156
-9038
-16644
15774
-4342
-177
344
-10409
35562
-896
-12890
4185
-5611
-623
2713
-1346
18902
-939
9152
-10843
-3639
-5569
-299
-3644
-1522
-18350
-4876
-5095
-6703
2414
-7131
-8896
-1833
-2054
4053
12415
-1781
-3839
-52
3717
918
-13743
-7592
-16078
-2420
19840
-1821
-13522
24447
-15703
-9993
-2321
3189
3773
-11869
1990
4441
-4185
2624
-14622
-8505
765
3321
-4866
-2959
4227
-789
-3548
6658
1600
-4037
-1730
-13810
9906
-753
-11730
-3694
-15541
18156
-7785
-5442
6973
-7897
7674
-3080
-4215
1229
4001
304
276
-2088
-4424
-10696
13150
-888
-7088
2028
-1265
-4186
-839
13905
-6991
-150
-3931
5027
6116
-4332
-139
-6413
-17495
-14777
-5745
4305
338
-3547
-15692
-11784
-6081
-8570
-11425
11143
1849
-1759
-2786
14927
-1469
-1426
423
-3844
-5275
-7885
15163
5345
-9078
-1144
-3069
12306
6614
3491
65990
423
2306
-7897
-2713
7632
6278
-2902
11697
-10127
-8795
9310
-7919
9380
7317
-13825
19332
-1477
-2534
22557
4999
-3075
-517
-8787
1662
-142
-1328
2203
-6102
18926
-7292
-12981
15318
6165
3003
21708
4815
-12384
-5924
-9475
1753
-5061
-7492
-11173
-2213
-7274
32895
-4061
5075
-11779
1532
450
-14632
-5041
-15146
-10146
-428
-4169
-2645
-10755
-5437
7519
-13104
-11859
-4319
-18632
-10304
-8250
-2680
276
-3917
-7278
-2024
-2474
-5038
2424
-1427
-3324
24086
-5866
20370
-13154
-866
-3264
-1283
6141
7501
-10646
352
-1779
-442
555
-6318
-752
-244
-10683
-4241
-2031
-4725
986
3414
-5566
104
1021
3180
4531
-11061
2252
-5175
-17193
-1651
4091
9418
-10053
16183
-35
1581
-5224
2736
-4435
2135
660
-1901
-3309
-6856
4045
223
-3542
-2238
1616
135
-8201
8277
-3536
4974
-10975
-10597
-7384
-30
-7054
-2939
-8301
689
4167
-10693
-423
-8656
-8112
-10832
21776
6519
-7008
-1294
-11276
1021
-1485
