996
-6428
1181
-10347
1706
-25
-3304
-3070
-11022
-3176
-662
2088
-16357
-4211
-12015
-146
7128
-7908
-7719
-954
8098
25316
4079
2251
-8863
1694
1347
-9937
-4844
-3649
12324
5767
-6812
-23291
-3632
9597
14190
3710
10862
13110
-4747
-5629
6674
-8221
4316
-922
-2401
-887
-7506
-5984
-17623
-11603
-4435
-13882
-2104
-9072
-9586
-7326
-4401
-13312
-13403
-15263
2419
4118
-979
5181
1089
-13949
-6846
-1169
-7652
-5118
-4597
894
-6421
-1701
-14700
1877
4626
799
-7350
1401
1369
-8050
-8829
-5003
9726
-10656
-7713
-1996
-4591
-3278
-10829
-14982
-2886
4096
-6423
10474
-21892
5550
-8706
10245
7591
-6341
-8314
40490
10615
2923
16349
-4481
-6868
-4634
4471
-6574
-1101
-5310
-2012
7627
2368
-7348
-5296
24288
-16297
-11465
-10044
-13427
9971
-11080
-13970
-216
6079
-118
5806
-7649
7250
-2452
6638
-2919
4064
-11585
-19242
-6711
-7907
-8915
16086
-8543
5705
-13066
-9192
-3887
-258
-9315
-3541
3537
-8268
3487
48711
-13625
-13207
1816
-19602
-17812
1461
-4421
-3258
7331
-12260
-4515
-381
-791
-1525
-4237
2386
-1173
-6018
-7440
12586
-1624
-10123
19995
3373
1091
-3727
17245
-4122
-8568
6599
6804
-15927
-14673
1447
-2582
-10304
-5150
-2256
4867
7614
1129
-14249
-2900
-3560
1512
-20923
9104
1794
2195
-6064
9659
8373
-3959
-9739
-5122
-14684
-9357
1706
13198
3477
-7761
-13747
-1186
-10339
-12460
9415
-7310
1346
9632
3595
-14596
-5023
-7362
-15673
4609
949
-2095
1314
-13880
-4690
-14503
-5077
-4620
-3663
-15158
3732
-2917
-4000
3169
-2946
-11648
-6576
-8239
-5951
-11054
-5368
-14471
-5941
-1958
-12094
2054
-5949
-4330
1744
825
1032
210
-4045
-6381
-3900
-4728
-5217
-2014
-5211
2160
-3060
13499
-15158
2447
9055
17088
-13908
-5841
-2822
-10797
-12567
-1490
-10386
-21308
3895
-3470
-2025
2016
9914
-1100
947
963
-1958
-14832
30587
-13630
1
-6111
439
-3556
-2709
6996
-3214
-3198
-4465
-4877
878
2452
-7367
-10039
-4262
2463
-3060
-3170
-4708
-21674
-8766
-2260
2600
-13064
5700
-5265
-3812
477
3765
-2982
-9175
5910
11564
-27510
-1868
-4567
-17656
-9979
-11773
-6611
-10753
-12073
-2591
7088
2499
3154
5196
-5882
693
-10457
6951
13963
-6033
-3245
4219
-3171
7214
-18850
-5581
-8266
-10919
-7728
-1455
-14617
-9047
-438
-3702
325
-9992
15001
10377
-3499
-8139
-4599
-11728
8158
1096
-5385
7729
-8304
-10424
5141
-18790
-10743
8167
1811
1403
-5042
-3950
-704
25136
-11959
855
-836
-6851
-5144
-8981
-17032
5998
-11729
-4855
504
-14143
26914
11792
-6190
-3810
-9793
-1672
3474
-1514
-1011
5742
-8475
33577
-3940
592
-1778
-3627
997
-10552
-3954
-417
-5079
-3191
23724
-7618
-5568
-4762
6898
-14207
6624
-10839
-5060
-3138
4350
-9065
6187
7804
-6310
2761
-11701
-503
-10609
3468
-4211
-8863
-9500
4830
3027
3308
-9960
-375
4958
-5618
1276
6514
1852
4552
-3391
1650
-8276
4488
-9622
7201
-3477
-8486
-3718
-1523
-18088
4202
-3637
-8844
-14577
-2937
-19032
1633
-9702
-4834
15505
-4674
-3346
11748
4515
-837
-9217
1082
39462
-5212
-12848
5986
-4724
-10131
-13017
12907
11098
12162
-909
-10824
9030
-458
-11730
1535
-11621
-8653
27594
-9619
-10700
-4525
-11030
-10591
-11604
12849
-4944
12169
-1312
-14199
12839
-10824
-13202
1304
1618
-11376
-6294
-835
-14469
5302
-2369
7260
-15247
3649
1208
1350
-4068
1940
-2467
-1042
1131
1730
-11910
4766
-4573
-1125
-7358
8195
-10201
7132
-4122
839
8529
1176
-337
-16125
2837
1748
19918
4547
9384
-3839
2234
-16157
9423
-2708
-269
-15743
-14
-7902
353
-13655
6199
-7450
-3134
-11545
-15254
6084
-7681
-13139
6224
7464
-13363
-1523
9719
-1297
-7173
2045
3421
-1081
-1258
-6091
-9290
15903
2894
2811
549
-7182
10107
1966
-15693
-4121
7812
-12953
-353
-30
-7574
-7295
105
-9570
3079
-10948
-10282
-2313
-5802
1474
-8320
6209
-4710
-2064
-14496
10099
-1972
6476
311
-2134
-3591
-7701
-3794
-3873
3517
-24283
-2902
-10844
-3049
-4242
-6335
-7127
8500
-520
1300
-16411
-3191
29421
-984
-5438
10540
-9097
-2076
-10901
8138
-16832
-4891
198
-9068
1375
-13743
-6084
-1272
-3700
144
-3739
4164
-13250
-6579
2854
9334
-14101
-2352
-2781
6421
12850
7501
-15007
22060
7345
102
-1716
3823
11351
-2287
6990
-3655
-7033
-6836
18200
-14964
-12073
1676
6967
-60
-4515
-10024
-2823
191
9405
-10466
-966
-9932
-1189
2185
-5135
-1170
9305
13263
5063
6366
-4969
5954
-4799
-9184
-10542
-9913
5319
2594
-10254
33004
7925
3939
10398
5078
4272
-9044
568
-3457
4714
-2940
3569
-2352
-3059
-7051
-7561
-12439
9169
-6185
-5242
-8659
-13286
7627
-10497
-10052
-6928
-6939
2641
-2217
-699
-8060
-1844
7061
-11560
534
2716
33
15248
-4846
3183
-8449
-8545
-2393
8799
-7372
-1821
-15768
-9448
3876
29489
-6535
841
-13350
3142
-1192
9828
-5338
5811
-12238
-16919
1190
-737
-1321
-16491
-2363
4869
-20609
-7387
7864
3866
-4870
22
-3654
10414
-12673
-4186
1132
-314
670
-10002
-57
4106
-11790
-4047
-1916
-11990
8942
-25322
-4746
3246
4141
-11617
-2967
-3505
22036
-6595
-8781
-1499
-1490
2260
-4032
-13579
-11642
-7375
-12642
-5182
-11070
-7337
-231
6377
707
1449
2923
4569
-25008
5746
-678
-5788
13228
-39
-11018
7054
-27840
-14031
2079
902
-15381
706
-15094
-6502
9727
2777
-661
-13510
-11813
-8567
-3266
-10678
-10685
-3035
3181
14714
-10067
-479
4255
-4385
-8057
-15401
-19031
8235
-4601
-2466
-1315
-9107
28891
4662
-14269
-505
-9300
294
-3055
-3908
17831
-6896
2978
-3227
-489
-4113
807
6646
1208
-18511
-8985
-3912
-3210
1511
-6256
-7503
-11780
-8053
2611
2783
-5589
-6408
7053
-714
3305
-13351
-9342
-11654
-6697
15822
3877
-11485
27282
-20008
-17679
5218
2510
10962
-13962
2935
2159
-8371
9533
-15000
-3101
-1867
2152
-2122
-1643
6838
-376
715
2409
-318
-10022
-1989
-17996
13644
-7123
-8797
-3302
-13896
12430
-5951
-3783
10172
-8828
18951
-4375
-5223
-2089
4330
3349
-2811
-9690
-2086
-16310
12387
-2743
542
-5637
-3092
-644
1611
15074
-8370
3721
-7263
7967
10981
-4472
-314
545
-20071
-16415
-8195
14063
1878
-6018
-12367
-9180
2
-4118
-12979
6593
3074
-1773
-5684
28766
-1126
660
717
-9143
-5331
-9369
13231
2356
-5641
354
1264
11879
7188
4870
59291
-487
5190
-13336
-4148
5567
4675
-6010
8547
-8678
-7570
13524
-9361
9268
15269
-15883
21859
2968
-2989
18854
-1105
-2718
-5011
-8563
6408
-2277
5091
5290
-3302
26360
-8468
-1151
24509
1797
7308
23633
1252
-14113
-4902
-14053
1459
1316
-3929
-8688
-547
-12405
41484
-4019
11767
-6823
5830
583
-12847
-393
-15608
-14339
7167
1263
-2309
-11910
-1489
14428
-17164
-18292
-8169
-8965
-9835
-9790
2906
-5107
-3294
-7376
342
-7283
-6669
5686
1100
-8854
28741
-2982
21910
-17767
3110
-9543
1265
11391
7326
-12788
5448
-1499
-2801
-3253
-6493
1859
169
-10858
-2155
-12034
-875
-6623
2182
-7617
5172
3261
2991
4237
-14183
-2830
-3810
-19153
-2792
472
11637
-11691
13481
-3535
-127
-1486
-519
-1397
3052
-2112
-1229
-40
-12211
2421
4269
3129
-2805
1721
-2763
-10063
13401
1301
11715
-7027
-10212
-7104
-8080
-12192
-7608
-6929
1970
3936
-10595
-5197
-9055
-9064
-3895
22588
-1888
-9542
-321
-11500
-883
-4908
