329827
13510
-473226
32030
63795
-675857
281648
8777
-125782
52408
117512
63518
-224283
703178
-273805
-359404
778616
828801
319469
353878
261709
-150416
-165268
210528
-229763
94506
472198
-141021
-315171
-262878
56347
-336308
276717
-445815
-347165
438009
38644
242099
39614
-162822
-95772
160015
-163872
-170229
-253041
166063
-177005
-420701
-3765
645092
304168
-718166
171822
610378
134454
173806
472201
-322792
472028
-286688
159009
-134997
243415
1414792
-96995
-136421
-4035
-59963
79807
401200
1285005
192402
-859846
-509674
-11658
-6778
462732
-664222
181663
-510096
-629018
793969
-277000
-236951
122262
-292006
-61635
-184121
-144459
-267072
-244311
-120094
-12405
-122549
633345
-545696
-569597
-206810
307039
47408
-386547
460068
-61939
389164
-342696
-104367
189861
83787
-89377
93539
613078
-43368
-380704
278545
-879998
-262360
21273
-203274
208393
-12056
141814
724658
-128271
-114376
228636
751706
-1358855
212393
611849
64714
394549
-990841
-466202
3254
271363
-173905
641731
-299341
-71126
-117279
-249192
77266
-249392
274744
-214499
339921
-545955
-461501
229829
124196
-320466
-209842
-65432
-68644
-3542
101677
-742050
18089
-1282131
-641174
-228144
-250270
343251
450899
-75637
-124760
-606072
216081
594928
-372597
75767
241149
578296
-231112
337340
70544
-112786
41695
201206
-1196950
32181
-18991
400315
-183620
-117080
-92597
-287806
-621444
257871
815861
3225
144030
