-4
4
-30
6
3
-3
20
63
16
0
11
12
-7
4
17
4
-1
-27
-3
-11
-8
-39
21
-9
9
6
-56
-2
-4
-4
-20
4
14
35
35
-22
-25
7
33
-32
-15
13
15
9
-7
-2
-4
-24
-11
-4
-28
25
-29
0
54
-26
23
-3
18
-14
-20
1
-10
-14
3
-2
11
8
-9
6
-17
11
-14
-14
-2
26
18
-17
22
-17
-2
12
-17
-7
-11
-9
-48
37
-46
2
10
-13
83
-27
-17
-34
24
13
-7
-15
15
49
-36
35
13
21
28
34
59
-1
10
-4
9
2
-32
18
-14
24
7
4
-48
6
-14
-7
-50
34
30
-2
8
5
-24
-44
-11
2
19
-31
-53
-9
50
-2
24
-5
-120
21
-16
-52
-8
4
8
-26
-5
-24
-12
1
14
-25
0
1
46
30
10
42
24
15
2
15
-6
-39
14
4
-4
0
8
-16
25
-1
21
-54
2
5
-18
32
-6
18
-11
-10
40
-5
-17
21
-7
4
31
-11
6
-9
-70
55
13
9
49
11
11
-7
19
39
1
-49
-17
17
-16
37
-22
-31
6
-11
52
-21
12
6
4
-21
-27
9
-26
91
-14
-21
58
31
29
15
-8
10
4
-2
-13
44
37
-2
9
2
3
-38
-2
-16
11
30
15
41
-20
19
36
33
-11
17
9
6
-17
9
42
-58
-27
34
6
39
-35
8
-20
-12
-12
12
-5
-19
-3
21
-54
12
-39
-5
19
-13
-20
-6
28
20
-16
-25
34
-22
-6
-1
26
8
1
-105
20
11
1
55
10
3
40
-1
20
-6
-21
12
-65
14
-4
-18
-14
1
-10
-46
18
-35
-20
28
0
-15
19
-2
34
33
60
-20
12
30
0
-10
-25
5
-13
61
15
16
-10
3
-5
11
7
-3
5
12
-12
-16
-8
11
12
-2
-11
62
42
4
25
15
10
8
26
-21
-10
-24
-3
40
34
-12
22
7
17
9
-14
-27
34
19
-20
-17
-23
-5
-2
-13
8
0
-1
-8
25
-13
39
-9
-13
63
-19
19
-16
-11
23
20
-51
-6
-1
-29
4
17
-26
-4
28
-2
42
-53
-16
-3
-9
-23
-26
7
-11
5
-28
-1
11
-47
5
9
4
-12
0
10
-41
34
1
9
7
20
-1
-4
20
23
2
41
6
2
47
10
23
-10
-3
-8
-75
4
-5
1
10
13
52
-2
6
10
1
13
-37
-10
0
-8
-11
14
-6
47
4
-12
-8
-4
29
96
14
10
29
-33
19
-31
-19
4
27
-20
-47
-13
31
-16
-36
10
-15
2
3
-34
13
-53
-36
-19
-10
23
-14
-25
-2
9
11
-2
-28
24
-27
-4
-37
-5
11
15
9
-10
-1
-35
24
-26
-31
-1
-82
47
4
22
21
-13
-22
11
16
8
-7
-17
-8
8
24
20
1
38
12
55
23
5
18
24
-24
35
26
23
10
-6
-15
23
-5
-18
9
2
17
10
18
3
29
-21
-22
1
7
22
-36
0
-3
-83
91
2
18
3
28
-2
-28
-43
12
-9
14
-8
-12
5
-4
7
-46
7
-35
-23
-9
45
46
69
-11
0
15
103
0
9
54
13
-52
13
14
20
-10
-30
11
-3
31
60
-16
7
5
-127
3
85
25
-3
-5
60
64
3
15
-27
0
-3
-64
-1
11
20
-1
5
-12
-33
4
-3
-24
5
11
29
4
-6
-21
15
0
-28
10
39
-82
34
18
-18
-34
-27
-3
25
29
3
-8
2
28
-13
13
-6
0
13
32
-6
-26
-12
15
45
2
1
16
13
68
4
-4
9
-17
-6
-4
44
3
14
-12
-9
6
43
-14
4
-1
10
38
7
-12
-12
-28
-3
-31
10
4
-25
1
7
1
-18
-7
21
6
4
-14
32
0
0
10
3
-1
10
2
3
45
30
-5
-31
29
11
-36
-7
-15
6
-7
4
-1
-11
-7
23
-55
-6
-4
4
-2
7
-15
-8
-12
-14
-15
-5
21
-8
-14
-3
-65
8
-6
-8
-8
-18
-10
24
-17
1
-17
4
-8
-23
2
41
9
34
-10
-2
-8
20
-5
-7
5
0
-5
1
12
24
-7
23
-6
-15
-30
0
4
6
-19
20
10
0
-27
2
20
-6
5
-15
-1
11
6
20
11
3
0
-3
-14
-30
32
6
14
-22
-16
-20
-19
-4
2
8
8
-3
12
15
-8
86
-3
84
-1
4
1
5
7
62
11
5
20
-16
24
-12
-13
-14
7
19
0
-3
-5
17
83
-25
5
36
10
3
-50
-15
31
12
28
8
-3
-16
1
-36
29
0
7
-23
11
7
10
0
-9
5
-9
-7
8
-6
-10
50
10
-5
-18
-21
-1
-23
-20
-12
-2
-20
11
127
17
-10
-24
-7
33
22
-14
-1
8
4
16
16
-1
-29
-15
-11
1
20
-16
-18
-1
-17
4
-29
-15
12
-12
-5
51
-4
9
6
-9
2
77
32
7
13
6
19
-72
-3
-23
6
-5
-7
-20
30
32
2
-7
1
35
-20
8
2
-7
3
49
-21
6
36
-5
5
-15
18
10
20
-23
-21
1
7
-22
11
-8
-13
-16
3
-9
1
-17
-19
19
-23
18
-9
-4
-5
9
12
3
-24
11
0
11
1
9
-6
-56
18
33
0
-11
-3
-27
-21
-37
-31
0
1
-4
-33
9
-26
-10
-13
-8
7
-8
-15
17
-24
-7
4
7
-8
8
-11
-21
-5
1
-1
11
19
17
-5
16
-23
5
-6
-2
6
-4
-6
5
-18
1
-2
5
0
-33
-25
10
-11
0
-37
8
-3
2
-15
8
31
-20
-14
16
4
20
-7
-5
7
18
-15
-3
-20
9
-9
-9
-1
10
2
6
6
1
16
0
-11
-12
-17
-22
13
-5
3
-22
-6
-16
-7
-19
47
-18
39
11
30
91
2
1
15
-2
-2
5
-9
-24
-9
14
38
-4
-1
20
0
22
-21
-39
8
-58
36
-2
-2
-25
-1
-11
-17
-64
4
1
-19
-13
-7
-6
10
1
4
-31
-18
13
-5
1
-1
-14
5
-25
8
-8
-11
-6
31
5
9
13
-26
6
-13
29
37
-32
21
-78
9
-9
-43
1
18
22
11
6
8
8
35
-14
-8
0
3
-37
22
24
-11
-24
6
18
-11
16
5
-8
28
12
-12
16
0
-11
-10
18
12
-6
-14
-39
-9
-4
6
-1
20
-32
-22
30
-3
11
-1
-11
10
3
47
-15
-2
14
3
54
-18
-29
-5
13
-27
6
-5
1
18
13
-10
2
-33
4
-19
-5
-21
-9
-22
-4
-40
-20
24
-6
6
9
122
9
1
18
-64
-14
-4
9
1
-9
-14
7
-4
9
-33
-14
39
20
-37
34
0
-2
4
-2
-27
-3
-22
32
7
44
-8
-17
-2
-3
-19
-10
-2
-43
38
-3
35
9
4
-2
-30
-12
-2
-11
-2
-56
-5
-23
-23
-1
11
-19
51
-4
-21
-3
-4
17
-8
1
-15
24
-19
-6
0
5
-16
8
24
-9
3
11
-1
-47
1
-43
6
-12
-31
-18
-5
18
-17
10
-37
6
-6
-25
3
-8
-19
37
11
-8
-8
11
3
-9
-9
-19
-3
48
-10
10
4
-82
5
-5
14
7
1
2
-5
14
3
-3
3
3
-3
8
0
-14
-16
-10
-25
20
-12
0
68
-7
-2
80
-29
3
-6
0
-4
-5
-17
4
-4
1
-18
69
-17
7
-9
-24
10
16
-44
20
21
-8
19
-13
4
-13
-10
-4
9
-5
1
-40
4
-27
5
-7
-6
-25
1
8
3
1
0
23
13
-17
-23
-13
-3
-1
-7
17
-3
28
1
-44
4
46
23
8
7
-11
-41
16
-79
-4
-8
-6
17
-6
-14
-21
3
3
-1
16
10
-3
-60
2
-44
91
-3
0
7
-2
-6
12
-2
-21
-2
13
-23
-7
-10
-1
19
50
39
15
-1
-12
2
16
-54
-44
125
79
-14
126
-23
-18
4
-4
-9
-21
-33
1
-12
-5
-5
-11
10
-5
-11
-6
-12
-10
30
0
-4
-9
-8
7
30
7
-5
-6
-24
-14
10
-18
-2
11
3
22
-47
26
-1
-40
3
104
-46
-21
3
-24
-4
-48
-1
0
3
29
3
-25
2
30
5
1
34
-30
-8
12
-1
7
-6
7
10
-8
40
-10
-3
49
0
-5
0
4
48
-4
-23
-31
-7
10
-27
-9
7
0
3
-13
62
45
-38
-13
18
-7
-20
0
-10
-7
41
-12
-127
17
-13
-18
-15
-5
2
-19
10
16
-22
7
-39
-18
-24
5
18
-20
-22
-12
-4
-1
13
1
-14
41
-26
-33
-1
-4
6
-24
-21
-1
10
17
8
21
-18
-12
19
-13
5
-13
39
-30
26
30
12
10
-1
-20
-8
-11
-10
-61
5
-31
-22
7
-11
-46
6
-25
-1
-28
9
-7
23
14
4
-17
10
7
-10
-39
19
10
-4
15
-47
25
-18
-4
1
0
35
3
-23
24
3
-19
-20
-2
-31
9
-4
10
-5
9
0
17
-4
0
-32
-14
25
14
23
-18
-40
4
2
53
7
-5
-10
9
-8
-6
-1
-2
-6
1
6
-28
-4
-18
30
-13
3
2
-10
1
-6
-11
-8
-12
10
45
11
91
-42
28
-14
-21
-12
-6
-47
12
-14
-4
44
-6
-6
-3
-7
-116
-14
-1
-19
8
7
3
-49
32
7
-5
-3
37
-7
23
-3
-5
-15
21
20
-2
36
-7
-8
5
3
0
-46
-5
-2
-28
-12
42
19
-1
1
8
-7
36
-18
27
24
-18
24
-3
-1
-27
-10
2
-16
15
19
2
17
2
-9
0
-16
3
-7
-14
-9
-4
-4
0
3
25
-44
-2
-6
-19
-9
7
-21
15
19
-11
27
-28
3
-53
13
11
29
43
-4
-1
-31
5
-4
-26
27
-16
2
-3
0
13
49
2
7
25
-11
-25
-7
-6
-10
-65
10
23
-6
-2
-27
0
22
-11
-11
-23
-16
-22
-22
-4
-1
92
1
47
0
-43
10
-22
1
-21
20
18
-18
1
2
-6
-53
56
-3
-5
-2
-14
-15
-26
4
-14
-20
9
-38
8
-10
0
-8
-12
-32
-3
-22
8
-1
-14
-8
13
-3
-8
32
26
10
-9
-51
5
-16
19
16
-18
4
3
0
-36
-15
2
-1
-10
-17
64
42
2
9
-39
-45
-36
-1
-2
18
-19
-10
-33
-2
19
-44
-32
-25
-3
24
-46
-2
-23
45
2
25
4
1
3
-40
33
-14
-23
19
-4
9
-9
-5
-10
3
19
11
-13
8
49
-7
-4
-11
-12
5
-6
-8
-10
40
-26
8
16
-13
-8
-22
-10
-2
20
3
-15
10
-49
9
22
47
25
-13
47
-7
-8
-24
29
-22
-7
-2
1
-39
-74
12
1
-49
8
-13
-16
-29
-32
3
-5
6
22
9
1
-3
-2
-51
4
-13
-28
-7
-2
14
-13
2
-2
5
-9
7
8
6
-19
-7
47
-2
7
-20
25
18
-6
-15
10
-27
-7
2
17
-2
14
37
11
0
10
2
-53
-9
3
-6
-10
19
-39
5
-2
9
-17
-5
-14
6
-3
15
8
9
-5
-4
-5
1
-11
-10
-7
-8
-16
-16
-7
5
-5
-5
19
11
-31
3
-3
12
25
95
26
-7
50
7
1
10
-5
-4
-9
-31
-3
21
0
8
73
-5
14
0
15
-1
8
23
-10
30
10
21
43
-36
-15
-5
18
8
16
8
-20
2
-13
11
6
5
5
-13
-38
70
-2
6
-4
-6
41
-3
5
-10
3
20
109
-14
-4
16
5
-9
6
71
-6
-3
-43
15
-10
0
-14
-1
16
-8
-15
21
-16
-27
-36
-20
37
1
8
-10
-29
-10
16
14
0
-5
23
-14
6
11
-26
1
-5
3
-38
0
19
-37
-2
17
79
103
5
-8
-2
-7
11
14
-35
12
10
-12
14
12
23
-17
10
10
1
-23
-5
3
4
-13
21
-11
-4
3
-46
-10
-8
27
-30
-17
5
-23
-9
0
2
-3
14
31
49
16
-2
-2
2
48
-5
-14
10
5
-8
13
3
33
-14
8
23
39
11
-23
1
24
9
28
-5
15
6
33
30
4
5
-37
3
-1
17
-18
3
8
34
-1
-7
0
-3
10
-12
-11
-14
-6
2
45
47
24
-13
12
0
-40
21
30
-7
-7
-31
-19
8
-3
-4
-9
-6
0
-32
-5
-6
-20
-13
-12
31
2
-8
-12
0
-31
-5
11
3
-8
10
13
53
-14
3
-7
23
37
35
18
15
-26
7
-17
2
2
-10
0
11
-11
-10
-21
-15
-10
-16
6
-10
-12
-1
-20
-10
-10
28
-32
8
-29
9
45
-1
22
49
-11
22
-14
16
-15
7
-8
18
-4
6
20
-15
11
9
37
-19
-6
-6
-11
0
10
2
-7
2
-5
48
-5
-13
14
50
-9
15
13
5
27
26
3
3
25
-17
-16
0
4
10
2
-3
12
20
7
-14
78
25
-6
-12
-1
-7
-7
73
2
0
-16
-3
-6
-12
-27
44
-31
2
-9
9
38
-14
-4
25
-4
-35
-23
-22
-4
-12
2
6
-10
-40
-10
-22
17
-27
-3
5
-6
10
-2
-35
17
22
12
-52
-27
4
20
-31
-8
-21
8
-2
9
-8
9
5
25
5
-3
8
-32
50
1
-7
8
-23
-7
48
-15
38
-10
1
-14
-65
-18
-7
-2
-8
-31
17
-28
17
12
7
7
-22
21
9
-1
27
-14
-36
-2
-20
-13
18
-14
4
-9
-17
10
-8
-8
15
-10
9
-6
-12
17
9
-2
28
18
-8
-3
26
-5
5
7
-30
-17
-11
-8
-18
-4
7
-27
47
-10
-19
-12
8
-16
13
-3
-13
-5
-4
-6
3
3
-8
6
-8
-17
9
4
13
-21
11
3
13
13
-8
114
-18
-25
8
52
5
21
-7
-15
-8
14
-1
-1
74
-6
9
-17
-8
-10
-24
12
15
-3
7
17
-6
8
-7
-14
-5
34
-11
4
3
13
-2
13
-1
-9
-24
3
47
-33
6
75
-6
47
-6
-9
25
2
27
26
-29
-11
-11
18
-5
-27
47
-18
-16
-18
127
-9
24
19
-1
-29
23
-7
22
-7
-17
15
15
-4
8
10
7
0
44
11
-7
-6
31
14
-3
31
11
-8
-20
-10
13
25
2
8
-8
2
23
-11
-23
16
6
26
-9
-1
3
14
-10
3
18
3
-7
4
6
19
0
10
7
-4
-1
20
-6
-5
-5
5
-29
3
5
1
-11
-6
-41
-1
3
10
-3
1
-44
2
-11
-2
-1
-3
-18
6
10
-1
22
-5
-25
6
-7
-5
47
-43
3
12
-14
-28
-3
10
-6
-9
-4
6
-5
3
6
7
-4
12
-3
4
9
1
6
7
-6
14
-10
-7
-8
5
-11
-7
-10
-10
-32
4
12
6
-12
11
16
4
-11
-8
-3
0
-7
70
3
-11
1
12
2
4
3
-16
5
5
12
9
11
7
5
-11
1
-73
-30
6
6
-12
2
32
-20
8
16
4
4
8
12
2
8
-9
-31
-1
5
0
-5
-2
11
25
3
-1
-5
5
-34
-20
0
4
22
-8
2
24
-5
6
3
-18
-12
-18
-3
7
3
1
-4
29
-1
5
6
-1
-2
10
2
0
8
-17
6
11
1
8
14
1
24
34
-10
-2
3
4
5
-7
17
-10
6
-6
-72
-127
0
24
0
-8
-4
3
-1
10
19
71
1
9
11
10
-9
-9
8
-11
11
-12
5
-8
17
-16
-17
5
-30
5
5
1
-5
10
-5
11
-2
-1
10
0
15
-40
-35
-5
-1
-1
0
-3
0
-1
3
-6
-1
-1
1
1
10
10
5
30
9
-3
0
4
7
-5
-16
1
2
15
-89
18
-2
-5
-7
-3
-9
-4
18
-16
0
-4
29
-10
3
7
-5
0
9
4
12
0
4
0
9
7
19
-11
-1
16
-9
-19
-3
-15
24
3
3
17
-30
-6
-7
10
-10
11
34
31
-68
3
9
23
0
-32
3
-7
-1
11
26
13
3
14
-3
1
6
19
24
16
-34
19
8
0
3
8
4
-2
-14
-5
-4
-7
11
-5
5
14
-6
1
2
11
-5
6
21
12
10
-12
-9
-22
13
-28
-15
20
-5
-6
14
-3
-9
2
-1
3
2
-11
-10
-5
-9
-4
0
-7
-16
3
12
15
3
-21
-3
6
-5
9
10
72
7
-1
8
-4
10
71
19
-4
4
-9
-1
-3
-26
0
-10
-4
-6
2
15
7
-5
-4
-27
8
-4
1
54
2
-4
7
-25
8
8
-13
6
11
-10
-10
4
-2
4
15
0
-5
34
0
-6
10
-1
3
-14
3
2
6
2
1
10
14
0
8
17
-3
14
6
-27
31
8
11
-12
2
-3
37
-18
-2
-2
3
4
-13
4
7
0
4
10
12
-11
-6
27
0
-18
1
8
11
14
2
-9
16
13
6
-4
-6
-6
19
3
-2
-4
9
19
-5
9
0
-9
2
4
9
-15
12
18
-5
-6
-6
-26
43
18
2
5
4
0
-9
-16
-8
-13
-19
-8
12
15
-8
-33
14
10
-2
5
-6
-1
8
4
-5
-6
-1
13
-5
1
-10
-23
-6
-19
-11
-5
-6
14
4
1
7
-2
-1
4
6
5
14
6
-60
9
-7
-10
13
4
-3
-40
-11
6
5
-9
-5
1
-11
16
14
-14
-12
4
-19
-2
-4
-9
0
6
12
-3
6
10
28
-2
21
-5
9
29
10
-7
18
3
3
-6
-1
-16
12
-1
6
-13
73
14
5
0
-30
4
-6
33
14
4
2
-15
5
-4
17
20
1
-11
0
17
8
-32
-3
-15
4
-51
0
-2
-18
3
0
16
-1
6
1
6
-5
20
13
-9
-5
10
5
17
4
9
12
11
4
0
-27
15
-2
-32
-8
-3
1
-3
17
0
-8
21
24
4
-18
0
-28
13
5
11
0
-15
-5
-4
-6
30
-15
3
-17
2
-1
3
2
-24
-12
2
20
-9
9
23
5
-20
4
0
-27
11
-5
-11
7
-2
-11
9
23
-4
12
-1
-19
2
-27
-12
-6
19
9
-7
29
7
-16
-19
13
7
-8
-28
16
-17
-7
1
-5
-1
11
6
2
-8
-10
-22
3
-1
3
-8
8
-7
-8
-7
-4
2
3
19
-11
30
-4
-79
12
-3
4
-24
26
5
17
-3
5
13
19
-14
3
-17
-25
5
-13
-4
-8
0
9
6
9
5
2
-1
6
0
16
1
-10
0
-61
8
16
-4
2
-9
-7
20
3
7
8
-12
-3
-1
-1
-7
-15
0
4
-4
2
-2
-5
-41
-3
6
5
6
-13
8
-22
-3
-8
8
1
-3
-13
-2
12
-32
7
2
-1
0
-10
7
-8
-1
-1
2
-14
0
-26
20
1
14
-9
-19
51
6
7
-17
-17
-9
-24
5
-15
-5
8
4
-2
-10
21
-10
-3
3
-8
9
40
-14
-17
-32
-19
3
5
12
6
-2
-19
0
3
22
6
-11
-18
8
4
20
-3
-7
-4
18
62
15
-5
11
-18
-23
1
-23
-9
-21
32
7
0
9
-8
5
2
-8
9
-11
5
3
-7
-19
-12
10
-18
-13
-1
-9
1
26
-10
-11
-3
-11
-7
0
-18
-7
0
-12
9
-9
10
-12
-10
-12
6
-1
3
6
33
12
5
24
-8
-25
10
3
5
12
-10
17
-11
19
-20
10
10
9
8
-11
7
45
-30
15
-18
0
6
-10
-13
11
-9
-18
9
-2
-9
-19
-7
-52
127
-13
-6
-26
-11
-12
15
8
-1
-10
4
20
3
3
14
-13
-9
-1
13
10
-7
-5
5
-5
-3
6
-8
-5
-25
16
-11
-3
46
-16
-11
-22
7
-12
4
-5
-10
7
11
15
61
-5
7
-4
-1
3
4
10
-13
-9
-1
6
10
4
0
11
-7
-2
-3
1
-10
8
-3
-27
-1
-1
-10
-11
23
8
-9
-4
0
10
-5
-19
5
12
13
6
-4
7
7
14
3
6
20
5
-8
-1
2
28
-24
0
-31
0
-8
1
17
-2
-8
5
0
-11
3
32
18
-8
5
2
5
-5
-8
-3
14
4
-1
9
7
-22
2
12
-8
-4
12
1
6
-5
10
-5
-1
-1
-8
-29
6
-4
0
3
-10
11
-12
4
-15
-5
9
-17
-7
2
-19
30
-5
-10
-5
-1
-15
-3
12
-11
17
-8
-15
3
2
-2
-3
41
-1
-4
-10
-8
5
-28
-3
-26
9
14
9
3
-35
6
-19
10
-16
6
-19
6
-7
-23
-25
1
4
-57
13
2
-10
-14
-8
10
-18
-5
-1
-1
-1
13
3
-12
-9
-24
18
-2
17
-3
-6
7
-3
9
-3
-4
-1
8
2
21
-26
-27
-8
-9
-13
2
18
4
-5
12
-3
2
-27
-17
8
-3
0
-2
14
-3
-14
-13
-5
0
-17
0
-4
8
5
-9
-10
-12
-18
-7
25
10
-5
-7
-18
-14
12
-10
-11
-5
-1
-4
-1
51
-2
3
1
13
-2
-9
-14
-8
-7
30
10
16
6
7
-2
3
-10
-1
1
3
15
-8
3
-13
-23
6
-8
-14
32
-5
1
15
-23
-4
-5
21
-11
-4
-26
0
-1
1
-12
-18
-2
25
12
2
-32
19
-8
-9
1
-6
-10
8
1
6
-9
34
-6
6
-4
-3
7
3
-5
-17
22
-9
-15
14
-29
-4
19
23
-4
1
-7
14
-1
19
-9
0
-17
5
-35
46
5
1
36
-12
5
-42
-14
-18
17
-2
4
10
3
0
-35
10
-12
-18
20
-7
-32
19
17
13
1
18
6
19
-17
2
-1
6
-14
-3
-57
11
10
-81
-36
3
11
10
4
-34
-50
-12
10
23
-5
39
22
2
-22
109
-25
18
24
-3
47
-30
-6
11
-27
-23
10
-5
-3
-11
18
27
-5
-15
-2
-4
7
-28
-2
15
5
2
-11
-1
9
7
-4
-2
-14
-17
-8
-4
30
103
-7
3
0
11
47
-3
6
-27
-27
-10
-75
-3
-20
-22
9
15
-28
-14
12
-15
0
9
2
-10
2
5
-95
-5
-7
-15
4
16
-36
7
2
13
-1
-17
-15
1
1
8
-1
-18
-50
3
-8
-15
5
-32
2
-29
-28
-5
-10
-67
35
2
4
-42
0
-4
1
-14
-25
-7
-25
2
33
-12
-7
-5
-14
8
31
0
7
-2
24
-42
-6
-10
-15
-3
36
3
-4
36
-12
17
-16
10
-44
-25
0
10
-11
23
-35
41
-12
13
14
70
27
-8
14
72
14
21
1
33
11
16
-59
-15
2
-52
-42
14
-63
1
8
12
6
-18
25
-24
25
31
19
-11
-18
-16
-13
-19
-17
-7
-27
-13
6
8
6
-26
-60
-42
-7
0
-12
11
-46
14
4
15
107
22
-60
7
3
-21
17
-21
4
8
13
-12
-7
-55
10
-39
20
-39
-5
85
-2
8
-3
8
3
-23
-37
-16
13
-33
8
-7
49
4
-34
-9
-8
-53
-15
2
14
-25
-32
7
-20
14
55
3
-44
12
-23
56
-43
-11
4
36
-31
19
-1
26
-21
10
-26
-9
-64
-12
1
-2
32
22
6
3
-3
9
7
-53
-7
-70
35
-32
-14
-1
4
-12
3
16
-17
-3
7
-2
-6
-84
0
-32
6
-4
-25
60
1
-39
13
18
-4
-8
-10
0
-3
-4
-5
6
-7
18
58
22
4
-20
50
15
0
-38
-17
18
-5
5
-2
5
-23
-37
3
7
24
34
27
-4
2
-20
-42
8
12
18
-42
-24
-19
14
-34
9
-12
-22
9
-18
52
15
11
-3
25
-7
4
-40
11
36
-41
-13
-16
-6
-6
5
15
47
6
-25
3
-24
7
-35
-45
1
17
-20
-61
4
-50
18
14
4
-11
-1
6
2
-1
18
11
82
-35
-45
-5
9
-4
13
-13
37
-8
-27
15
-18
2
-41
14
-7
-41
-103
-9
26
-4
-7
-7
10
20
9
2
-3
25
-11
7
-2
-16
25
-44
-24
-13
44
10
81
-12
-52
9
-33
18
-12
5
4
-30
-24
2
78
-6
-1
38
17
-39
-24
-3
0
12
-7
-5
27
53
21
5
90
8
24
-28
2
-3
35
-29
-7
8
-30
-26
2
22
3
14
58
-30
-27
-32
-22
0
19
7
-10
0
14
16
-27
-11
-33
28
13
-2
21
-12
-8
-14
-40
-17
-20
12
-6
19
2
7
0
-17
-2
-15
2
-5
-14
1
-3
23
-10
-8
-22
-18
0
23
21
-4
6
-93
23
9
-20
-12
7
-17
8
-21
28
-46
-18
0
-44
-4
16
8
20
-9
-32
0
-19
-34
1
-27
-1
-5
-11
17
16
55
-15
1
-12
-8
-3
-11
14
-28
2
8
-51
-4
10
-41
14
-105
-9
-3
-18
-19
31
-3
-20
2
49
19
41
-25
107
-6
-1
-34
96
-20
8
-6
1
18
-24
11
-5
35
14
-1
10
-9
-5
-9
16
12
18
3
-21
25
127
15
83
29
13
33
-45
15
-15
0
-34
1
-10
19
-24
6
3
16
14
-19
7
8
-18
-24
8
1
24
-8
-10
6
13
25
6
-5
26
2
5
-22
-3
58
10
5
-28
2
9
-7
10
4
35
-19
23
16
-15
-10
66
4
-2
12
-5
-13
4
-43
15
4
1
-7
49
-3
-7
-11
-33
21
-4
0
-16
-17
0
17
-8
-4
3
4
0
2
-7
40
-19
-6
10
-5
14
-12
-10
29
12
5
10
1
-20
-4
33
-13
1
-5
-17
5
29
25
10
-15
-29
5
-19
-15
-5
25
4
118
12
-34
6
1
34
-1
40
18
-5
5
12
9
-15
-27
4
-3
9
-4
-5
1
2
-4
-18
15
13
-5
-11
0
3
-10
-25
9
1
8
8
40
23
-4
8
4
-40
-35
3
31
1
-1
-50
-10
-10
13
28
-12
14
2
2
12
-7
-6
-4
-44
-3
-8
2
21
-9
-27
-5
-18
-5
-1
-11
-3
-10
9
-4
101
1
5
6
-17
-33
8
-3
-56
-81
2
-32
13
29
22
-14
7
1
-1
-1
-60
-2
20
13
2
-9
1
-3
5
1
12
-16
-5
16
-14
-12
-3
5
9
-3
11
5
15
13
58
0
-9
1
-6
-15
25
-25
3
0
6
-19
13
6
5
-6
-21
-127
-14
1
1
3
-13
-7
-5
-8
-41
-5
-25
-1
-14
17
-5
-18
17
17
2
16
1
37
3
19
-2
25
-12
43
32
-12
12
-5
28
10
-37
62
-13
-6
4
-3
6
1
-7
13
-2
-7
32
30
-14
-8
12
16
-4
-12
3
-1
-42
3
9
-14
13
-12
5
-7
3
-20
-4
16
10
25
-8
-2
-18
11
0
48
1
17
5
-20
-15
9
11
6
4
-49
12
-39
5
-10
-12
-11
-30
-38
0
-1
0
8
-7
20
-45
4
-18
2
36
0
-20
-10
4
-6
1
-14
0
4
-3
-43
-36
1
36
-15
-35
-5
11
28
15
-24
20
-3
22
9
-5
18
-3
10
27
13
-1
14
-6
-13
-5
2
8
-4
-7
-3
-22
16
-7
8
28
22
-32
-5
11
15
0
-10
-5
4
-11
-2
25
10
-7
9
-14
-34
10
15
36
18
-2
-5
10
0
17
3
-3
21
-11
-30
7
-19
-9
-12
20
-3
-5
-3
-16
6
-8
2
-16
-13
7
-25
3
44
-5
8
11
1
11
25
2
5
17
-60
-4
13
-1
-3
-8
50
3
-92
-13
11
-17
-27
2
2
-13
-32
-5
-13
-7
-11
5
-10
4
-8
-29
12
-17
-6
7
11
22
23
1
-26
-9
11
0
4
31
-4
0
-6
13
-5
-59
-2
-8
-12
14
-3
-7
-3
38
4
22
1
-2
-39
6
-23
-7
-10
-6
-16
-42
-14
-5
19
-12
-8
-21
7
-10
-25
-23
12
16
54
-10
16
7
-14
-2
-11
6
11
-7
-29
65
6
14
-11
7
-2
1
24
-14
10
7
-21
10
-8
10
20
-8
5
-50
4
17
1
-8
8
16
5
-5
-7
-5
7
21
-8
-6
-24
-2
7
15
5
-19
-15
1
-69
22
0
0
4
1
3
11
-38
5
3
-1
60
-7
27
-64
-9
-12
-38
5
-17
4
-5
-12
-15
-10
19
-10
-18
-10
-11
4
48
6
-11
-4
-5
29
19
4
9
17
-2
3
0
-5
15
13
13
-16
-5
28
-25
6
-9
29
2
0
9
9
-7
1
-28
-6
0
8
16
-5
-15
0
5
-16
4
17
14
-23
10
-26
-27
-27
2
48
-7
2
-21
13
-13
-4
-8
17
1
29
1
-5
-28
31
48
-27
-10
4
-9
-94
6
-21
-5
-8
8
22
0
22
6
18
13
0
25
-14
1
-53
5
0
27
3
-2
-23
-10
27
13
-8
15
-10
-18
1
9
13
-12
43
5
-23
16
16
-9
-8
-2
-26
32
-37
12
-32
0
-2
-15
-3
46
5
-65
-34
-26
-11
6
-12
-4
-11
3
-4
-18
-2
-8
9
28
-8
-6
-24
-11
-4
0
5
11
10
18
-7
116
7
15
-6
-13
17
45
18
-41
0
-18
25
-30
-14
-31
-7
-9
-13
-10
-13
-3
9
-45
6
-12
7
-13
12
-9
-1
12
23
4
13
37
55
2
3
26
40
-8
-1
32
4
2
-6
43
-9
7
-22
41
-39
-17
-4
11
-7
31
-2
29
69
-21
-6
27
0
28
10
9
15
-16
1
4
5
-21
-33
-3
-16
-6
-11
-20
-4
-1
18
3
3
-13
0
-17
-28
31
7
7
-41
-10
13
-35
-4
18
36
-3
7
-20
9
-1
-24
15
13
28
-3
-21
6
-50
38
-1
8
3
-17
-10
1
52
18
-5
38
-8
-9
15
-69
11
-28
8
-22
-26
7
-12
-2
-42
12
58
-8
16
13
-6
-28
-49
-7
-17
-19
-21
7
1
0
27
8
32
11
4
-16
-5
-28
39
-2
-21
29
16
1
4
27
45
-19
6
0
1
13
-13
-26
127
12
-64
-11
2
20
-56
-12
-5
-4
-4
21
-4
-1
20
-11
-29
-5
25
-25
-28
9
24
-4
-14
-21
-24
-17
-28
9
-10
-9
-1
22
8
44
-2
17
0
20
19
-1
11
-11
-54
9
8
20
12
-12
-5
63
5
-14
-14
26
-8
-31
7
11
-16
2
36
1
-7
18
-19
16
5
7
33
30
7
-20
-7
-25
8
66
3
24
8
41
2
-59
-7
34
4
-2
8
8
-3
-12
7
-31
6
-47
8
54
-19
8
0
-25
10
88
4
-8
-21
5
-8
7
5
-29
-4
-10
-57
2
26
13
-25
2
2
-28
1
11
-21
17
-15
-31
21
-29
25
12
-10
-58
-3
10
-14
11
14
8
-1
40
7
-24
-9
9
-47
-9
-15
-33
-9
16
7
-15
-21
-24
-4
-3
56
16
12
-31
-1
12
33
70
-7
-5
-13
-21
2
-18
0
-15
3
-3
-10
9
-2
14
12
8
-41
13
-48
-35
41
7
-23
-10
1
-10
52
6
-15
-26
-1
-7
5
-3
-42
14
4
103
-81
-2
10
-11
-2
-25
-13
-15
-6
-46
-5
-1
17
-9
-39
11
25
6
11
34
22
7
-13
-32
63
-4
27
-11
18
-39
-6
19
15
-23
8
12
-1
17
6
-56
34
0
22
3
22
-4
-2
1
-1
-15
14
-11
-18
-11
-6
-33
10
-12
-46
-8
3
-18
11
4
-37
35
54
-2
-11
-3
25
57
-34
6
26
-34
-9
21
18
9
-2
-3
-22
-19
13
13
47
6
-19
0
-19
7
-8
2
3
-13
-14
29
-1
-16
-17
6
-13
-3
14
-31
2
57
42
5
-35
-8
32
-16
-22
6
24
-17
-2
10
42
-4
2
5
19
57
-23
27
-15
-10
6
-22
1
-6
33
-10
4
11
-31
-21
8
-9
40
-13
27
-26
-60
8
-7
7
-1
33
-17
6
6
22
-27
-2
7
-13
-85
5
10
-23
4
-20
-30
-9
-3
53
41
1
44
-27
-7
-20
-3
-29
69
18
50
11
82
-35
4
36
11
-21
-12
15
44
14
10
42
-32
0
16
23
8
5
-16
11
-22
-17
5
5
59
85
-17
-16
-3
16
-5
1
6
25
12
0
-1
30
20
-23
3
8
4
-5
1
12
-20
-9
6
11
-20
9
-15
5
-8
-3
-7
1
14
18
10
-4
0
10
-24
5
2
-6
0
25
-10
0
-11
5
15
11
9
2
-18
-14
-17
2
-1
0
-23
-3
-28
-40
2
7
-14
-6
-3
-6
29
13
-37
-10
1
26
-15
1
-7
-7
-14
15
-34
15
-13
-2
59
-7
-42
-9
127
-1
-7
-21
-16
8
36
-5
-22
-15
-27
-12
46
18
9
13
-11
24
-25
10
5
-7
0
-2
-37
2
-2
14
-9
18
0
10
7
4
12
-6
-2
-26
-29
-4
21
8
52
-6
41
-5
-4
9
-3
-2
-4
10
-4
23
-9
-1
4
-12
-4
-15
6
9
-9
-14
11
13
-29
3
5
-2
36
18
10
-14
0
23
-11
9
-1
-14
17
38
-2
-7
25
-1
-14
-25
2
-23
6
-4
2
13
-10
24
0
-31
-9
6
8
-25
-12
-3
19
-12
-10
-1
21
2
-1
0
-18
-26
-18
-3
4
-18
4
25
-3
-2
5
-9
-1
4
7
12
4
11
9
-8
-20
18
15
-7
-23
-16
23
-30
-28
-6
74
-14
28
-1
13
-8
-3
-40
42
-15
-11
15
9
-2
-13
23
-11
54
-2
0
1
-8
-53
-10
-5
-23
-7
8
-32
29
-29
-6
6
1
77
3
0
-11
-1
14
2
2
-16
2
18
4
9
-13
0
-36
-9
8
-14
10
-2
-1
-5
-30
2
-21
-4
15
-3
9
-19
-2
4
7
-29
20
-3
-6
-43
-2
5
5
-11
41
93
19
20
43
-17
-3
-12
-38
0
-19
14
17
-11
1
-3
-1
19
-81
-28
11
-5
5
-19
-26
27
7
-4
-11
0
-11
-7
-19
8
15
-5
1
16
-29
30
-25
34
-8
50
9
10
-11
-7
-4
3
-17
5
20
3
7
19
-3
-7
-25
-19
-12
-17
22
-5
0
-8
-11
-26
-7
-22
7
21
-4
12
-7
-8
6
-4
0
-10
-22
-14
6
-9
10
2
-35
-4
-12
-5
30
-5
-6
8
-18
-19
7
-7
0
25
7
-3
12
-10
-13
9
28
-13
37
-4
10
-2
5
7
1
12
-35
-12
-29
12
83
10
-13
5
-3
4
4
4
-10
11
-23
25
6
26
-2
5
5
19
9
-13
-17
-3
20
-10
1
-24
-21
-10
116
-1
0
-6
-1
23
-3
-10
20
-18
-10
53
-7
23
-3
18
15
-2
21
7
24
-19
-9
16
-11
31
2
24
-13
3
0
23
12
-40
-3
3
4
9
-3
-9
9
1
-21
-6
-25
-13
-11
-11
9
-14
-2
-2
-3
-22
16
26
-4
-19
26
21
17
9
-2
-12
-25
25
11
-15
-6
-3
-15
5
-8
-32
33
9
21
-3
-1
23
0
10
-13
-17
-24
35
3
13
-4
-26
-9
22
-8
12
1
-17
-5
-4
-2
-1
6
5
6
-16
-3
-14
-18
1
-7
-1
8
-10
-56
-19
19
-16
-12
31
0
-5
-6
-39
5
-47
17
-23
-9
18
6
-7
-14
24
0
-5
-9
28
-10
-19
-7
17
20
13
-2
-20
41
-16
-7
-3
-5
14
3
-10
25
27
-4
0
6
13
0
-3
-6
-8
-21
-3
-99
8
-1
-31
36
-2
-22
20
-6
-15
-21
24
2
-1
-37
-14
46
11
3
5
14
7
-14
-31
-4
-75
8
28
7
-8
-3
-18
1
4
5
-16
-12
-39
15
-23
8
0
-21
-1
5
8
-11
-18
-13
-4
-19
14
11
-4
-15
-8
-23
-2
-2
11
13
-10
-3
-7
-4
-31
1
-5
-4
-1
10
-5
-6
6
-5
4
11
2
5
-9
2
1
9
4
-3
30
9
-9
18
4
-5
67
-18
1
-4
5
16
-5
-50
5
3
12
-1
-22
31
2
-4
41
15
-11
-1
-7
-18
29
-2
-5
2
2
8
4
13
0
7
-1
-5
8
-2
-9
-4
-2
-13
6
-6
-17
1
-1
1
-2
9
-42
-1
0
-1
-3
3
7
-5
-28
5
-6
-15
-4
4
-1
11
9
-72
-3
-12
-7
1
15
10
-1
3
-3
2
-1
1
4
1
2
-12
14
10
-2
-8
21
19
-6
-1
0
5
-1
3
13
13
2
17
-4
5
0
3
-1
-8
11
3
5
-1
-4
8
40
-5
-2
1
13
2
-7
-11
-7
-4
-20
-33
-3
14
1
-1
14
0
8
-6
6
2
5
5
-11
-14
1
-2
2
71
2
3
-14
13
21
-12
-7
-17
2
1
15
-9
-6
-19
-3
13
0
-10
-11
-62
-14
-3
-11
1
4
12
-9
3
-2
0
2
-10
19
-11
-11
-18
3
-3
8
7
0
7
-3
8
-12
2
-2
9
2
-1
-1
6
-10
10
-7
-1
2
-3
1
20
92
-4
-10
-4
-5
1
-5
-12
6
-10
-9
-12
1
0
-22
-3
-5
-3
2
4
-8
23
-12
11
-22
-10
-17
0
3
-1
2
20
2
-5
15
-5
8
-2
-9
-5
4
8
-1
8
2
-4
0
-2
19
-12
-9
0
9
0
-3
-4
17
-6
-3
-11
6
-127
16
-10
-4
-6
-12
-1
11
-6
14
6
31
-16
-12
11
34
19
-2
8
8
-1
-1
2
-6
-7
-15
-10
10
6
4
-5
-14
-8
9
-2
-3
-7
3
-3
-16
-22
-11
-9
7
13
-21
-3
-3
-8
-1
7
2
13
0
10
-6
11
-4
7
-11
12
-10
15
-26
4
-11
-1
4
-2
-2
4
-1
-3
3
-10
-6
5
4
-9
-10
3
-13
11
4
3
1
3
-8
17
-5
17
-24
10
-11
12
-7
9
-4
-11
-12
15
6
-11
2
2
-4
10
-37
7
0
1
42
-11
-8
-10
-47
4
-2
-1
20
-2
11
-10
-2
14
-29
9
-1
-10
-16
19
6
-3
2
2
8
0
19
2
13
-4
4
1
-13
0
-1
-7
-26
-4
3
-2
3
-2
-10
0
-38
21
22
-8
-3
-2
11
-2
-5
-26
12
9
6
11
7
11
11
-2
2
-12
15
-2
11
-7
33
-9
-19
5
1
46
-23
1
16
-21
-41
-6
-9
6
-9
-12
3
-2
-8
24
-5
-12
3
-12
-27
-26
5
-2
9
11
27
8
-8
7
-10
1
9
10
18
5
-7
14
-6
4
-11
-6
-7
-11
-6
-1
-6
-13
-15
-4
19
4
-7
-15
11
-12
-5
7
6
-12
-9
33
1
-1
0
-1
4
-3
-10
2
3
6
3
-8
1
-4
-7
12
6
20
-9
-13
3
-6
-7
-5
-35
3
14
-31
-8
-2
1
1
2
9
-2
-12
2
1
-11
-3
0
3
8
3
9
-7
-17
-9
11
20
-33
-18
-9
1
-24
-2
13
5
-7
6
8
-2
-9
-10
8
17
22
-4
11
-16
13
-68
2
5
1
3
9
3
-4
-15
-4
-6
3
10
6
-3
32
-6
-9
2
11
-9
-6
8
0
-4
16
6
-20
-8
2
-2
-13
-2
16
-20
-15
11
82
15
2
-3
-11
7
-7
-4
0
3
5
-7
-1
-10
2
7
-2
10
-9
22
40
22
15
-36
-1
0
17
-68
55
7
-7
6
15
-2
-2
5
-2
4
17
8
5
-14
1
-9
-2
0
11
2
-6
6
23
8
-10
45
6
29
19
5
-30
1
13
-9
14
6
-8
-4
-1
3
2
13
39
-19
12
-3
32
29
2
-5
-12
10
-50
2
18
-3
-4
-5
-9
-10
-7
20
-8
1
-3
2
-1
6
5
19
1
-5
-5
-8
11
7
-21
7
85
-2
40
7
12
-5
-11
9
8
-1
26
2
-1
-3
-28
-46
-1
68
-4
18
-26
2
1
-5
27
2
-22
0
-4
38
8
11
2
-17
-3
0
10
-1
5
1
-6
-4
-40
3
-8
13
17
-5
-7
-2
19
20
-11
12
2
-4
-27
18
31
36
5
8
5
17
-13
-16
25
17
1
-7
14
-14
11
-24
-7
-23
-1
6
8
3
-2
-19
0
-3
13
-1
2
15
-4
-3
-17
-15
-2
5
24
-24
0
16
-4
28
52
-5
-14
-4
4
-14
-9
1
-1
-2
-19
40
2
18
31
-2
1
9
1
-5
-9
-22
19
-7
-4
-33
10
-14
1
-16
-16
-3
6
-2
34
1
6
11
38
24
20
1
-3
0
7
-20
-4
9
7
5
-16
28
-37
3
0
-3
-8
3
-3
-9
-10
-6
-9
-4
36
14
-15
-8
-3
-22
5
-2
13
-41
-40
-39
-5
6
-27
5
15
-15
13
0
5
10
-18
-22
-1
-2
-15
-7
12
37
-11
-9
-23
-2
-17
25
-3
47
33
-17
-9
21
4
3
-9
-22
-1
-6
-16
54
-13
-3
-12
-1
-11
-2
0
-15
5
-30
15
-21
32
-2
-10
20
20
-7
-7
23
-7
-1
-13
9
-44
-35
30
0
1
-9
-6
-27
-33
-30
-7
-7
-2
-15
-81
-6
1
2
-9
-1
-7
-3
5
0
7
-8
4
-1
19
8
-12
16
15
1
9
-36
7
6
33
61
-2
-5
0
-7
11
10
8
-4
-2
-22
7
-1
-6
30
5
0
-12
16
5
5
4
2
6
-29
17
-3
18
-5
-1
-21
-8
-23
-1
-7
-36
15
5
4
-4
-1
0
-4
38
2
-8
-30
14
15
6
-25
16
-3
18
4
0
-2
23
-8
11
95
37
-46
5
-1
-30
0
2
-10
8
3
-8
5
7
19
11
-13
5
-5
-8
-5
18
-7
7
-1
-7
20
5
-6
-44
7
52
-3
25
-13
-3
1
-25
-8
0
36
-5
0
5
-16
-4
-22
1
-3
6
-17
5
-4
2
24
-9
-13
6
6
33
15
-15
9
-40
2
-9
-2
12
0
4
-13
6
-8
-10
11
9
16
3
-21
-9
40
2
0
-9
11
61
-3
-8
-4
-3
-7
-3
4
-11
-21
-18
-1
2
2
10
21
-7
-50
-7
-1
59
14
21
-2
-9
-4
-9
8
-67
11
1
1
-3
3
14
63
44
-5
1
-5
-31
0
4
-12
21
17
19
-27
-3
-8
10
-7
1
-6
29
-9
-4
5
1
-11
30
1
-46
33
3
-2
6
-17
-21
-16
25
-16
-3
9
-13
-7
8
0
10
-1
59
-22
-9
42
1
15
-14
-22
28
-2
-1
7
-1
-1
-2
12
32
1
-17
17
34
32
11
1
-26
-14
2
127
13
-15
1
-40
63
-21
4
-13
24
3
-13
4
-8
6
-30
-19
-3
-14
-4
4
-20
-19
4
-18
-13
-2
-13
-16
9
2
50
-19
11
15
8
-3
40
-2
-8
-25
31
30
-23
-12
1
2
-38
17
-10
25
3
20
-3
6
-3
44
56
1
30
37
-16
7
28
-7
-31
4
-10
10
-16
-34
-8
-14
2
-8
17
-22
-19
30
2
23
-1
-2
0
4
1
3
18
20
5
-27
-5
-5
-18
3
5
9
0
-21
-6
7
-29
-9
5
-9
34
-5
24
15
-7
12
41
2
5
-28
-16
25
0
15
-25
9
-6
-13
-6
-13
-8
-15
21
-4
16
8
9
-16
-25
23
13
30
-13
-8
24
14
5
17
127
12
19
-14
1
10
-16
-6
22
14
44
81
24
18
-30
-22
-11
38
-9
33
15
22
-38
16
10
1
11
10
6
39
-6
17
-17
17
-33
-28
-11
-8
-4
26
42
2
-29
1
10
-5
-17
-15
-7
9
-20
-18
18
15
-20
-8
69
12
-23
60
-26
40
-10
-28
0
-4
9
-17
-29
9
1
-13
6
11
-21
6
11
-2
11
13
2
3
-2
1
-10
-10
-11
18
-21
-13
26
61
7
-1
-12
-4
5
27
0
5
50
0
-36
-25
-35
-16
-40
0
12
-8
9
-1
5
5
23
-5
34
-6
-26
3
33
24
8
-6
-6
7
-18
-2
12
1
-24
1
35
-16
3
13
29
-4
13
-34
-19
-44
-29
-6
-20
-12
16
-9
14
1
10
-24
-3
13
14
27
-5
6
8
0
-7
35
-9
-36
21
-51
-63
36
13
16
-4
-4
-17
-7
-12
14
12
3
-1
26
-27
43
19
-11
10
-24
-19
3
0
-16
-18
-7
15
-9
12
-6
8
-16
-1
16
20
17
34
-9
6
-13
-22
15
24
-7
28
13
7
-22
-9
11
4
31
-7
-9
-25
7
-19
11
-1
28
2
-13
-10
-47
1
-14
-27
11
17
5
14
-4
-26
-31
-16
0
-5
7
13
-14
-12
3
-12
80
8
4
49
-68
-21
-12
-10
63
13
10
7
-8
3
-4
-1
-5
-3
16
45
-17
-9
25
-34
-23
19
23
14
38
3
19
47
16
-3
0
2
17
8
19
36
11
9
0
18
-6
-10
-20
24
23
20
2
-3
26
-17
-5
16
54
-22
-14
-34
8
20
25
81
9
8
38
-7
25
6
-6
-23
2
3
6
-3
21
-10
36
-53
10
4
-3
4
-10
-42
4
22
-3
29
46
-27
5
45
3
-6
6
-3
9
6
3
-9
12
-6
-7
10
-4
18
-4
-7
11
112
1
66
-1
3
14
-17
-17
-27
9
-1
12
-11
-13
6
-16
-4
-27
-2
-30
-29
-1
2
9
-10
2
-12
-12
12
26
-73
-2
-21
14
27
-4
-19
50
4
-10
5
6
56
-13
27
16
-19
-4
-15
16
2
31
-15
4
3
7
10
-9
-34
-1
86
-22
-5
3
-10
7
-12
28
11
-2
27
-7
11
9
-2
-13
54
9
26
-25
10
-6
10
17
-35
1
-2
4
-28
-35
4
32
-29
28
-24
26
-7
4
27
-26
20
-29
-39
16
23
-6
6
1
-11
-3
21
5
-1
-25
2
11
-17
-10
25
-14
24
28
13
10
6
-34
10
-29
21
-5
-30
18
-8
-51
-23
24
7
-8
49
-29
-7
-29
39
4
-26
13
2
17
39
-16
3
-17
8
6
-2
-29
12
26
-32
21
0
-2
-19
2
-31
10
8
54
18
11
-4
-30
-12
14
20
17
-8
-17
-20
-16
8
-31
33
2
-16
-7
22
-29
-43
-9
-17
-31
-6
-3
-17
11
-23
-1
-42
6
43
23
-4
-37
-11
52
-22
-40
-39
8
3
16
46
-15
1
-27
-15
-30
-6
9
7
-9
-16
-40
20
-26
-6
-19
-13
-20
26
-11
-4
18
5
-14
-15
-13
-6
15
-9
-23
-1
5
-6
14
35
-8
8
-78
5
-4
26
1
0
7
9
-6
-4
-7
6
3
10
1
22
17
-9
28
10
-9
-7
-8
0
-4
-9
7
9
11
-7
0
6
1
-7
-12
5
7
26
-41
-11
-2
15
13
15
17
-2
-11
-9
1
6
5
6
2
-5
-1
6
-15
14
17
13
-5
6
9
8
-14
0
0
-31
53
9
-16
-5
1
-20
-2
-23
-3
12
2
-12
32
19
0
3
-11
2
-7
1
3
7
-4
-9
7
-4
10
1
-84
10
27
-8
-14
-9
-3
-34
13
-6
11
-7
9
-19
-13
-6
-29
-4
-24
-16
-5
-2
-3
16
11
2
4
-4
-4
16
-4
9
9
13
4
-6
-10
8
-11
2
-22
6
1
27
-4
12
-10
3
14
-9
11
6
6
9
3
20
0
-5
-8
-14
-9
-10
31
-1
10
-4
-3
18
-7
9
15
6
10
-50
12
-3
15
7
16
-24
-23
15
25
5
7
9
3
1
8
4
28
40
14
0
-4
5
-2
-17
-21
-2
-16
38
-12
-23
6
-3
-20
-1
12
22
-13
-9
6
15
-4
2
-5
-4
-16
29
-3
-11
-3
2
4
2
-20
-1
17
14
32
-16
6
15
10
3
7
-11
-15
15
23
16
-11
4
-21
-14
0
-37
14
7
23
-1
9
0
-11
-13
-5
-19
7
-8
0
7
13
-9
26
1
7
21
-22
-4
-7
-4
11
15
-6
-67
30
-13
-9
25
-10
3
-28
-43
15
7
1
22
-13
66
24
-37
-3
-9
20
3
-84
-38
-41
49
7
13
-1
-5
5
20
65
-11
4
-10
-7
20
-3
-4
47
-6
-31
3
1
5
50
16
-6
17
20
-5
22
7
-24
-9
-4
20
5
5
7
-36
0
-4
-97
10
-3
13
-103
-1
-12
5
-15
-28
16
-18
0
-26
-14
-21
16
36
3
2
5
11
-12
11
-9
8
7
-30
2
8
11
37
-5
-6
28
17
17
21
-5
-11
54
30
18
9
-6
10
-4
5
-4
-13
16
-9
-13
7
-19
-2
-90
15
3
1
-1
15
-4
19
-19
7
10
-41
-5
6
2
-20
18
3
13
2
-14
21
0
1
-10
0
29
12
3
21
14
-19
-11
0
4
28
8
1
-6
12
-18
-7
5
0
-11
-1
-17
-2
28
-20
-20
26
13
17
-25
2
-6
2
0
-2
-14
-4
17
-26
-10
1
2
1
-8
-8
80
-5
-11
19
-12
69
8
5
3
-11
19
5
-2
3
0
6
-13
-2
-11
-3
6
17
-2
24
-12
-2
8
14
3
127
16
-15
-6
19
6
37
-8
-22
-4
9
34
5
17
15
-7
-16
-22
-17
1
-13
-12
9
15
-2
-15
30
-30
-7
-20
-1
3
-5
33
3
5
5
-6
-9
-27
-7
-11
-4
-15
-1
5
28
9
-20
69
10
4
10
-3
12
-50
-9
-10
34
0
-11
-9
-1
-10
28
7
25
18
25
-79
11
-24
-50
33
10
21
22
1
-6
28
5
14
6
18
6
14
3
5
-3
-8
7
8
19
-15
6
19
-6
-24
0
0
-15
-8
14
-13
3
27
12
-39
22
2
-2
7
9
14
12
-1
-10
5
31
-14
-15
-5
2
3
-19
-16
0
-5
11
0
-4
7
25
-10
-18
-30
4
-10
-38
-5
-40
-2
-15
2
20
0
2
8
10
25
6
-28
10
8
11
1
15
-2
14
16
14
-4
-17
-15
10
13
-12
-15
27
-5
7
-31
-3
4
2
14
5
-4
-11
0
12
-44
-9
-21
15
11
15
7
-6
-24
5
0
-7
-50
0
37
-3
7
-37
32
3
-22
5
-13
-8
27
-19
17
-36
-4
-30
18
3
22
-19
13
-2
3
19
18
-16
30
-19
-3
-5
-6
-18
2
-5
37
-12
-20
-22
1
-15
11
-14
-14
0
-29
2
-13
-9
0
15
4
-25
-33
-2
-2
43
-6
30
9
-8
21
-20
18
61
28
-25
30
8
-25
6
-11
8
29
27
7
5
-1
-34
3
-29
42
-8
44
-19
40
-9
-20
6
-6
6
-7
23
-1
10
5
-3
-32
49
3
-5
12
14
-10
44
-4
-12
-3
-3
-15
5
-4
-5
-5
34
45
13
-5
12
6
-32
-17
-8
11
36
21
-18
-22
-8
-22
11
9
-4
-2
-4
2
9
-19
-16
19
-17
-27
-4
-13
13
-1
-6
-30
24
-28
-20
-12
-38
-2
-26
-33
-9
24
-13
8
7
-5
22
44
-3
-15
-13
-12
-8
10
-2
-3
-1
-24
-1
-14
-3
-27
-5
23
10
-1
-10
-25
-4
-14
-8
3
-1
-37
15
-30
-23
-42
39
-3
-11
-14
-15
-8
-7
0
-16
20
1
-25
-4
14
-3
8
7
1
9
-17
-13
44
-21
-19
-59
1
1
-21
-6
-16
-8
-7
59
-11
-13
4
-34
-10
19
-23
-23
5
-5
-10
-3
20
-16
4
32
9
26
11
-13
2
-5
13
4
-14
-27
-51
-1
-65
-39
23
-19
13
-23
-22
-15
-30
2
-2
10
1
2
-8
-15
-1
-7
11
-6
-13
-9
-4
23
16
15
-41
11
45
-4
-19
13
2
30
2
9
-25
-16
2
-8
7
-41
-4
2
14
10
31
7
-2
2
-17
-1
-10
19
10
-5
13
0
-12
-15
-22
-31
-4
21
-45
-1
77
-1
17
-39
-2
-16
-46
65
-21
17
-15
2
-8
-25
-10
6
-24
24
-17
31
5
-41
3
-25
-23
-20
-13
1
-8
-14
-13
-19
-15
17
4
24
3
-23
11
-14
-5
4
5
-9
-24
8
10
-2
-4
23
-13
3
1
8
127
-29
3
-12
-13
-1
8
12
-5
-7
-14
-10
12
-1
18
-19
31
-18
42
-11
13
2
-2
2
-27
-9
-7
0
-4
-35
32
0
0
69
-6
38
-16
-18
31
7
70
-7
-2
-27
-15
9
22
31
14
19
-21
-51
5
-8
28
7
-3
-43
-37
3
-4
7
1
-12
-28
-14
9
7
-2
2
7
5
-9
-8
31
-38
-12
24
25
44
-25
-17
-6
-13
-18
-6
-25
4
-22
3
10
17
27
-15
-15
15
1
-20
20
-7
6
-28
3
62
26
21
6
9
-7
-10
-10
43
-11
-12
13
17
-13
5
-4
13
-1
47
-6
6
-1
19
-15
-53
7
2
-11
-27
37
6
-22
-2
-9
18
-22
24
2
-6
-20
-1
-28
-10
-4
16
11
-10
-1
-15
-2
3
4
-7
4
3
21
-22
-18
10
2
-54
-13
-2
-4
-30
-8
80
46
16
-9
-20
-1
-15
-14
-18
-14
5
-1
13
-40
-6
11
25
-9
21
-5
-24
31
-4
-12
-4
-30
39
-28
26
14
31
30
-18
-11
-13
31
-3
-53
8
-1
8
-16
-5
-8
-2
-2
7
4
17
-26
-5
44
-14
97
-18
45
-20
-12
-4
1
-1
-27
-1
-20
0
-11
-5
2
-4
-18
-4
-7
-3
-7
6
12
-9
-35
-9
22
-34
18
-17
25
-12
-34
2
8
19
51
7
-11
15
-17
1
-34
-7
11
13
-7
-1
31
27
1
-14
-3
12
-15
-1
51
-2
21
-2
-33
-45
-11
-4
-18
-12
7
-12
5
8
-1
20
-34
23
-24
-7
-20
-29
-10
-10
32
-3
-13
-10
-12
18
13
2
-7
38
2
-6
13
-6
-5
-33
27
6
-9
-74
-6
-10
-13
-14
-13
9
-5
4
6
3
4
8
1
0
-5
2
9
-18
-11
-7
-17
4
-15
13
-2
13
2
19
-52
-74
4
-10
-2
-20
41
53
-12
4
-5
-17
-11
21
-2
2
-29
6
-31
34
20
-11
-1
-16
-5
40
12
-1
110
2
19
-5
5
9
-25
-2
-37
-32
-26
18
5
54
0
3
-20
-36
5
-15
-5
14
-5
1
1
50
-1
-9
-22
-21
4
-3
-1
16
-18
6
11
6
5
94
-22
2
8
29
-9
-9
-3
2
-27
-8
-5
-2
15
-3
-6
-25
-3
5
68
4
1
-26
4
1
6
-31
-15
-20
11
-10
-27
-5
5
-45
-10
-1
14
-7
-1
-20
5
14
-7
-29
-10
-1
11
-19
-5
-1
23
-5
39
-20
-9
20
-12
13
1
8
6
15
-8
-1
16
4
10
6
-13
40
27
-11
45
17
15
1
-8
0
7
3
-15
-18
-15
36
-2
2
6
-14
-30
-16
-11
4
-30
-9
-20
-4
8
43
22
-5
43
-1
-1
19
-10
-8
-7
-4
12
62
31
-6
5
-5
-3
-10
-1
5
45
32
-3
16
-18
5
-11
-1
-2
29
-8
29
-23
62
-18
-6
12
10
-4
-20
19
1
2
-21
5
3
-35
-12
6
11
-12
26
-8
-16
54
-71
-17
-10
-16
-31
-11
7
-6
5
4
-40
-1
7
9
-12
2
10
26
29
4
7
2
-6
-1
26
0
-1
13
25
-12
23
-26
-5
-43
7
-2
6
-16
8
6
-8
0
-5
-2
6
64
-3
-7
-10
-17
-22
16
9
14
34
127
23
34
36
6
27
-10
8
-3
29
-12
61
4
12
14
-16
-26
-4
-9
-1
-23
-10
8
-12
8
16
-5
6
0
-4
-26
-2
-2
21
5
-1
1
2
23
14
-16
-5
-9
-35
-10
0
-16
-21
15
-20
-10
26
7
1
-3
11
-14
1
33
-12
-29
23
-6
-14
5
-1
10
6
13
4
-23
-39
7
-41
19
10
-4
25
2
24
12
40
-13
-24
-3
2
13
45
-4
-6
0
10
-12
-1
-8
51
17
66
-3
-2
36
-31
-16
97
-12
4
-25
-16
7
-4
34
-5
2
-6
-18
-5
8
-9
-3
-1
4
-7
1
-6
-6
23
31
3
5
-8
-7
1
-5
9
-22
-5
-32
6
19
-34
5
23
4
-41
0
-31
3
-12
11
-9
-3
-22
-14
14
12
4
-6
-5
-9
-4
-20
-13
37
3
-3
11
-18
98
-1
30
-15
-14
-20
7
-7
-54
13
-11
6
7
5
-4
-16
-9
-5
28
-14
-5
-12
-8
-8
-7
-11
10
5
-12
-8
-9
-10
4
-4
-18
-4
7
33
-4
-14
9
42
15
3
6
-13
7
-20
-36
14
-15
4
-5
-16
13
10
68
4
75
-5
10
-2
6
-27
26
34
5
-2
-26
-37
-4
-2
-10
11
8
-29
4
-28
51
-20
-1
-2
5
22
-7
28
1
-1
-3
118
-19
-7
-8
-28
4
1
54
-8
25
6
115
-5
-24
-21
-61
-19
18
6
-4
-6
6
-8
14
8
-7
-24
54
-20
-3
9
8
18
-25
-12
-21
-11
26
101
5
-28
1
-17
-22
-9
-9
5
-22
-6
-18
-18
-1
4
11
8
34
14
31
-5
-1
-8
1
-1
12
-1
26
-7
4
13
5
-24
0
1
23
10
1
-62
6
0
-1
1
2
4
6
-18
-8
20
-5
6
15
2
-13
-9
6
9
-1
10
8
16
2
-1
-7
-9
22
-21
2
7
-7
9
6
-13
19
5
12
-35
-1
-1
12
-7
5
3
-11
-23
-16
-7
5
5
-20
-6
1
-2
-10
8
14
14
4
-3
-12
6
-4
9
0
-3
-7
24
26
-17
5
7
6
4
-16
-28
16
-13
-3
-51
11
-4
-3
-2
-9
3
3
6
2
-3
-4
-3
0
-7
9
41
-3
18
-7
13
4
25
-13
-2
4
0
8
10
12
-10
-8
-21
-2
-15
8
-2
-5
-7
-17
15
10
5
11
0
-23
8
7
4
2
9
-6
10
2
8
-10
-17
4
-1
12
1
-15
-5
-1
-7
-3
16
11
14
2
-1
7
1
-7
1
-10
-9
-1
1
12
20
8
22
7
7
33
22
12
-7
5
1
-4
9
13
-38
-1
-16
-12
44
6
-3
42
-3
10
0
0
4
24
48
-3
4
2
-1
-9
-4
-5
-1
-7
91
3
18
5
14
5
-9
9
-11
4
-3
4
10
-5
6
-7
-1
-14
11
-4
-11
7
2
15
5
11
-2
2
68
-9
19
9
18
-5
3
-2
0
9
-9
-35
9
4
-21
3
2
45
12
2
30
4
14
0
11
-10
7
-19
20
21
0
-4
0
1
12
17
7
-8
2
2
-1
-1
-6
-1
-12
-19
-5
-7
-6
-10
1
-18
6
-7
16
9
-6
27
5
-2
12
5
-6
94
-3
13
-127
13
5
2
2
-1
2
-8
-8
-20
32
27
-7
-11
-36
16
-29
0
25
-4
-12
-1
8
-9
125
9
6
9
60
-6
26
19
-12
-10
-3
16
-8
7
-15
-22
-1
9
-89
10
-72
5
-3
-5
2
-17
13
-16
1
-6
3
-8
-14
-9
13
-2
8
-2
16
5
-10
14
5
9
5
-16
5
9
14
-20
-10
3
-52
3
-6
4
-2
-11
-39
-6
-6
1
12
15
0
7
-6
-7
-5
-3
-3
6
-7
2
-94
21
2
4
1
23
2
-10
-10
-1
17
-11
-8
3
7
10
-5
3
-12
6
-8
19
8
-1
4
14
-12
13
1
-2
2
-21
0
5
14
-5
1
20
1
21
-6
0
-14
-6
-13
-4
7
8
15
-3
6
-17
0
7
-2
-14
-1
-7
-3
2
-7
2
0
9
3
1
11
-7
8
11
80
12
-5
1
0
30
1
7
-28
-8
-15
10
13
-6
3
-3
-9
-9
23
2
20
15
0
16
-10
1
-8
-5
-5
48
-9
-10
0
-5
-7
7
-1
0
2
-22
42
17
25
-2
-15
8
-6
20
5
16
11
-9
4
-14
42
29
-1
6
-7
-4
-14
3
7
-16
3
2
-4
-12
-19
7
-4
6
7
1
0
9
-11
-20
-10
10
14
8
1
10
4
29
-1
0
13
14
-2
-10
12
15
-8
11
-9
17
-102
10
2
14
7
-9
4
-9
12
21
-16
4
21
13
2
-4
2
12
-11
-8
-12
11
9
20
1
6
19
6
-21
-17
15
16
6
1
22
3
3
4
37
10
-17
-5
-22
-6
7
-1
4
-6
-2
0
-27
-7
-2
15
1
-3
-15
1
4
12
3
27
-7
-4
-9
-3
-4
0
16
8
-3
8
-2
-3
-4
-14
-18
0
-1
6
10
-28
12
-8
-5
11
2
4
-3
12
12
-81
20
-1
-37
23
-1
1
5
-14
15
15
-19
0
9
15
30
2
-10
-11
-5
18
19
3
8
25
-1
-29
8
-4
2
1
7
35
-13
-13
-27
9
-21
-36
1
-14
0
-3
-15
7
-5
-17
-9
-5
4
3
17
3
20
-93
14
3
23
33
-3
-61
21
2
-7
9
22
-20
1
-11
69
-21
29
-11
3
4
25
43
-19
-4
10
15
2
20
17
-18
-30
-67
5
-66
-16
2
-9
-32
7
31
-8
-23
23
33
29
-39
-5
-8
-33
8
14
23
26
7
26
2
-9
9
4
45
6
-12
28
17
0
-46
28
-4
21
-21
-36
47
38
-6
21
10
-9
-18
2
1
-17
12
16
27
-4
-13
9
32
6
-1
-28
-3
15
-5
5
-5
11
-32
-9
-6
-17
26
6
-13
31
4
-13
-1
-1
-3
7
13
-42
-40
-7
-22
-20
8
4
-20
-8
33
-61
19
21
-18
53
6
3
22
-27
30
-3
76
2
-82
4
-12
-18
9
-3
21
-60
-15
15
15
-14
16
-9
-34
8
2
11
-9
23
-2
20
-3
4
11
-1
17
-1
-16
18
7
-28
16
1
24
-65
13
-7
54
6
-10
-9
-1
-11
5
-21
-17
26
39
-4
7
-22
13
13
-25
-4
4
-3
24
27
-18
-14
-22
-1
-7
9
-10
-36
-20
18
17
-28
15
10
43
37
-8
-13
-13
1
-5
-12
8
-6
15
-9
45
12
-48
-2
6
2
-7
-13
16
-10
-15
33
22
-27
5
-14
-3
-3
-18
36
22
-28
-11
-62
-31
-23
20
-12
16
8
7
-14
-27
21
4
-5
-2
2
-6
-70
-33
-11
-11
46
-2
-10
-27
-11
22
21
-2
2
8
21
13
5
2
18
5
28
17
2
41
-23
6
48
-4
7
4
-2
13
13
-20
-17
-2
4
-4
-37
-3
5
-9
-15
-3
18
0
-22
-20
15
38
-7
-2
-7
-10
-1
-11
0
-2
11
-13
7
-38
51
-12
-3
27
-28
2
-33
-8
1
14
-7
-33
-7
6
0
-31
1
8
-4
25
-44
20
-13
17
-18
-12
2
-18
1
67
-5
24
-34
-5
-7
5
10
-53
-15
-23
0
-30
7
20
-5
-33
-7
-14
11
-8
13
-28
-3
5
18
17
-8
32
-19
-4
-18
7
-20
-22
17
15
0
43
-20
-40
20
7
-17
-14
-20
17
26
-12
-3
23
-2
6
3
-9
-13
2
43
-16
-5
-14
-1
2
-10
-14
-12
-24
16
-6
23
-3
-29
-14
6
-12
-21
8
-43
-32
-26
17
-66
10
34
-26
-2
12
-12
-16
10
-2
-42
-18
17
13
-1
11
-9
33
-18
-29
-5
24
4
-8
-9
23
21
2
-10
7
7
16
18
-19
-3
-8
-25
-6
-7
36
3
-30
8
39
1
34
9
-12
6
60
12
13
12
-19
24
6
38
-1
16
-23
15
23
-12
-11
-29
0
7
0
9
13
-4
24
11
4
-3
6
-20
-2
3
5
-3
28
7
-26
44
11
-7
-3
31
-15
16
14
-1
3
11
19
-11
17
-11
8
-13
-20
9
51
-17
-4
19
-12
40
-24
25
-1
20
5
-39
0
31
3
7
1
5
-28
-30
72
13
9
29
-4
22
-7
127
15
3
-7
15
20
18
-7
-15
63
8
-3
-11
-48
36
27
-12
-11
-7
-26
34
0
-19
38
-4
-11
16
4
-13
-11
-10
12
1
23
3
-3
35
30
15
-45
-9
5
15
12
-1
21
-47
38
-12
-11
-10
-11
11
5
28
29
29
-3
13
-10
-1
17
11
8
1
-8
8
16
3
2
7
3
-25
2
2
1
-6
-3
44
6
3
-8
4
-8
20
-4
-11
-12
10
17
-7
6
-2
-25
9
-2
-4
-4
0
8
32
4
6
6
7
3
2
-12
2
3
7
4
-13
14
13
19
-10
-1
10
5
-7
3
-11
5
-55
14
-6
6
2
-8
0
11
2
5
12
3
4
-2
10
11
6
13
10
-3
0
10
-27
30
-9
1
11
19
7
17
-3
9
-18
11
-43
-10
0
-9
7
-17
-4
8
4
-5
0
9
-1
7
-4
0
21
-36
-5
3
15
8
28
3
-9
10
-5
-3
-3
12
-2
2
14
12
4
13
14
-1
-4
18
35
12
3
10
-6
-3
-7
-15
-2
-11
14
-1
12
-9
-9
-19
-1
-3
1
-2
-9
-5
0
1
-17
8
-6
21
3
0
-6
-4
13
-7
-2
-6
2
-9
-16
3
47
6
32
4
6
-8
-2
-6
3
-11
-1
-7
-9
6
-14
1
6
-1
6
-6
12
32
-12
6
-8
-2
-26
-7
-33
-10
-17
2
5
-8
-2
-2
14
4
-37
16
3
12
0
-19
8
-7
6
8
-20
0
10
-4
3
-2
-6
-41
5
13
-27
-5
3
4
24
-7
-13
-14
-27
2
1
13
-14
-4
-8
4
12
23
-12
-7
10
10
3
4
-6
47
18
12
3
1
20
4
-8
-9
-8
-1
2
16
-25
-4
-6
21
-7
-8
1
18
-4
11
17
8
-8
-23
-46
-28
3
-4
10
12
-5
-15
19
4
3
20
-10
-4
1
-6
-14
26
14
82
-10
12
31
22
-13
-17
2
-2
4
-18
4
1
1
7
-1
0
6
-12
-13
9
9
-4
19
-7
-12
-8
-1
-1
-5
-7
-8
-5
12
15
5
-2
0
-9
-6
8
-18
21
-2
0
41
12
17
-5
-11
15
-13
-22
10
1
2
12
8
1
6
4
-1
-5
-2
6
16
-12
-5
4
7
8
0
11
2
-8
30
-14
6
-10
-75
-3
9
-4
1
5
-33
2
6
-8
6
2
-7
12
-6
-3
-4
-5
-1
-2
6
5
23
56
-1
16
-1
-2
1
-21
9
-9
14
31
-29
4
10
-7
-20
2
-6
-4
-1
-5
-1
-27
4
16
-7
6
-3
-5
0
-10
8
-3
3
-10
-1
10
4
8
10
-6
6
2
-6
0
39
34
-3
3
-16
1
-8
2
-6
-6
2
2
-1
0
-7
5
-2
2
4
8
10
21
17
9
-40
-2
11
0
13
-4
4
31
-9
5
-22
3
9
-3
-14
3
7
-3
15
-4
-13
-4
13
-4
-14
8
6
-7
12
-45
-40
-2
1
-6
2
1
-3
14
7
-29
3
4
5
0
13
22
-8
-5
3
21
7
5
-20
-11
78
-9
13
16
23
3
-8
17
-13
-6
1
9
5
-3
8
17
-8
0
22
-2
-4
-6
-11
1
31
-7
7
13
-21
-7
24
36
-1
-3
-24
9
5
-11
-6
-21
-18
18
-6
-3
127
4
3
-17
-10
-36
-9
-24
-3
-15
-5
5
15
11
18
5
-12
-7
-1
-7
-7
5
-10
3
10
0
-3
5
-21
-16
-8
22
27
-8
0
-5
10
4
14
7
-10
-10
-8
-22
3
-4
-1
-2
-1
22
-3
-2
11
34
1
-3
1
-4
11
-7
-2
3
-6
31
6
-4
11
0
-13
7
-4
-1
6
-5
8
-11
-26
12
-27
-5
-2
-48
13
-25
5
9
-3
2
-4
4
-1
-13
8
14
35
-3
-1
15
-2
-55
8
-1
2
36
-12
-1
-3
3
2
-6
-5
2
3
0
-6
7
5
12
4
-3
0
4
0
1
20
-14
-1
-9
-5
31
3
3
-13
5
-4
-11
-13
-6
-3
9
10
18
-8
14
-5
1
34
1
-1
-2
-2
-15
2
9
0
-3
3
-1
7
-1
-8
2
8
-3
9
-3
8
12
2
1
-11
-1
1
-19
-1
-9
-4
6
6
-15
1
-12
8
3
3
7
-15
-24
6
-1
-5
-1
-3
-10
34
0
14
10
5
-2
10
9
3
22
5
16
-22
-8
-28
5
-4
73
2
-2
-4
-11
-6
-4
10
6
6
0
-3
7
-3
6
-9
16
-17
-4
9
-3
2
73
-7
31
-8
1
0
-9
12
1
-8
-8
2
-11
-4
9
-8
1
25
0
-9
-1
6
4
9
3
5
12
9
-5
1
6
-9
-4
-9
2
15
6
-1
9
-15
17
-12
5
-24
7
-1
28
6
13
-12
50
18
-3
6
22
64
10
-1
-6
-3
4
-1
-14
6
7
12
-4
4
1
-39
4
11
4
1
1
-4
8
-10
-9
0
25
5
-7
-24
-3
-5
0
-8
1
6
-5
7
5
6
-2
16
-34
11
4
-14
-3
-9
18
-5
7
-6
-9
3
7
13
-7
9
11
-4
8
9
-4
-16
-14
2
8
9
20
22
-1
-2
6
-1
1
-18
-8
2
-20
2
-15
11
0
7
0
6
-15
0
-13
4
3
12
1
-16
-2
-7
15
-9
15
62
-10
-8
-15
127
-7
0
6
13
15
4
6
0
0
7
10
4
-9
-4
-23
-20
-2
-7
-8
18
10
6
-3
-7
-17
4
8
-4
0
-2
11
7
-8
3
-7
17
8
8
-5
-7
-1
-1
-6
2
-16
0
-1
-8
1
-12
-1
-6
-6
-6
0
7
-3
0
0
-10
-1
0
23
-2
-13
14
4
1
-6
0
10
9
5
-4
-3
6
-7
2
11
2
2
17
9
5
9
6
9
2
18
-3
-13
-19
3
-28
-9
-2
-3
0
17
2
6
-5
-3
3
2
6
30
3
9
-9
12
-6
-2
-17
37
0
-4
1
16
7
-15
1
2
21
4
4
-6
-8
-9
16
1
-8
6
7
4
1
9
0
-12
-6
3
5
-4
2
-13
17
-5
-10
5
1
-4
4
4
1
11
11
-16
3
6
-15
-26
-6
1
5
1
-3
20
8
-2
-8
-1
5
-16
13
2
1
-4
-4
-3
2
-22
0
14
9
-1
-6
-6
11
-15
-17
-2
0
1
-7
-4
2
-3
9
-8
-7
1
4
-9
-3
8
1
-26
6
11
-1
-10
1
17
-9
12
0
3
4
15
6
-3
-3
-11
-8
3
7
-4
-11
18
0
-2
3
-22
-2
-8
3
4
-19
-2
11
1
2
7
16
31
1
-5
4
-5
11
3
-4
-13
15
-8
-7
3
-1
10
4
-2
4
-7
8
-2
9
3
2
7
1
-2
-6
-9
-6
5
2
6
5
2
-10
3
-10
-6
-1
-3
0
10
-4
-10
-1
10
-9
-4
3
-13
-26
-3
2
0
-6
3
5
7
11
-15
17
-4
3
15
-18
4
3
6
4
5
1
28
60
4
17
9
7
-7
-6
10
-2
-15
12
7
7
-33
0
2
-12
18
-5
-10
1
1
1
23
6
0
-7
-15
5
4
6
12
24
-9
7
-5
7
2
11
-17
-14
-6
6
-1
-1
-3
6
2
12
-2
14
1
12
-11
23
-15
27
6
5
17
-11
-7
54
-62
-8
-11
-14
18
-16
6
-17
-2
14
8
-16
-11
9
6
-21
-11
6
-10
4
-10
6
13
-5
37
33
25
-12
5
-11
6
-5
9
-14
4
-6
1
9
-8
3
41
-3
12
-10
7
17
18
20
1
21
-28
-25
89
4
11
9
-1
3
10
8
8
-10
3
22
11
-6
8
-1
32
-10
15
27
3
4
17
-1
-25
-9
6
19
-58
2
2
-2
9
5
43
-1
-27
9
-6
-21
2
19
15
18
-12
-6
12
-15
-12
4
-11
6
15
3
-11
-38
-3
14
-2
46
-33
8
-2
-16
34
-28
-16
6
10
2
-6
30
-29
3
5
-7
5
-4
-19
9
-10
-4
-58
-25
18
-22
5
-4
-2
33
8
-10
-4
0
-5
5
-5
13
-33
-50
4
-7
-1
-4
8
1
-1
32
-6
2
6
23
15
-26
22
3
-21
-31
1
19
0
-26
44
9
3
11
16
1
127
2
-13
-2
22
-12
4
9
9
-15
-11
-36
-30
12
-25
13
14
-3
-6
-63
17
-7
23
50
2
31
2
8
18
10
-4
1
-25
-6
-8
-3
9
-22
-6
-4
-9
-6
-12
-3
10
-15
4
-5
5
7
-10
13
21
-12
-10
9
-15
4
16
-1
1
59
-8
-4
30
-28
-11
13
0
-5
7
22
-6
14
43
-9
0
1
-14
14
5
2
-1
-18
12
16
-1
7
66
5
-3
-3
-3
3
-8
-17
7
-10
19
26
-22
32
-9
-5
-9
-17
-14
-39
-3
-32
30
24
20
1
0
5
14
2
14
15
-3
68
0
11
14
0
-1
1
7
5
-6
-14
5
3
0
-6
34
2
-8
9
-1
-9
20
17
14
82
12
-16
-2
6
-8
1
18
-29
7
-12
22
-12
-8
11
-17
4
-4
-7
-14
11
3
8
-11
2
18
1
-2
-27
-41
17
-19
-11
7
30
-9
-2
5
18
2
2
-13
-10
-14
-31
6
-7
0
2
2
12
-2
-3
16
39
-23
6
-3
0
6
12
6
0
17
-13
29
-13
5
-26
5
4
20
4
-11
10
-2
41
15
-11
-6
31
-9
5
15
2
-29
-5
-24
28
-6
21
-12
11
-3
-16
-28
2
3
18
21
11
-10
5
0
0
-23
-17
1
6
-19
-6
-52
33
0
-24
49
-6
11
-3
19
-3
-16
6
-28
11
5
5
16
7
1
18
-6
1
11
4
-12
10
0
-1
0
-2
-5
-24
-9
-1
-22
8
-22
-3
-19
7
-6
-7
26
-7
35
-42
-21
5
-3
12
-5
-4
13
7
10
-26
11
-15
-5
-21
19
8
-47
-20
32
12
27
10
20
47
1
4
34
18
-2
13
9
-15
-1
-22
-3
63
16
18
-22
-18
-18
-1
1
-37
-6
-12
126
3
-13
-29
2
-21
-19
53
-5
-22
-8
-16
-3
-15
-6
13
-1
4
23
81
-2
2
-13
-6
-3
3
-14
21
5
0
1
10
2
19
20
6
-18
-19
-5
6
20
3
-10
-4
4
8
8
-8
28
2
-4
-2
-7
5
16
-7
0
-15
-20
-28
47
8
-9
5
-3
-2
-24
8
-5
21
-4
-12
-2
28
27
10
-20
6
5
-38
-10
-23
11
19
-48
11
-4
18
-11
-2
-16
30
-3
10
14
-24
22
-12
-44
0
-8
22
3
-3
-17
15
41
-3
-23
-1
-3
-32
3
18
0
0
49
41
4
-6
-18
-5
-8
4
-7
-3
8
-14
-2
7
-10
-1
13
1
-19
-11
-20
-5
-4
-20
1
6
-16
-42
-41
21
-10
8
5
-10
3
32
-2
-1
-12
-3
-16
-5
-4
1
-2
3
-7
10
8
6
-5
-15
-58
-13
-30
-6
4
-10
-9
22
-14
-9
0
10
-14
16
5
4
39
-4
2
22
4
-7
19
7
0
-8
-37
-11
-24
21
6
-1
3
11
10
0
-1
-19
5
8
-24
8
-7
-8
-8
-2
-26
20
2
-1
-19
-5
1
-8
-37
-8
-18
2
-10
13
-74
22
26
-17
10
6
22
11
-8
-37
1
70
5
-9
10
-6
-82
-8
-7
6
4
3
18
-30
3
0
7
-87
-52
-17
8
-21
-8
-21
-11
10
10
4
7
26
-22
3
2
22
15
-13
-13
-1
-19
-5
-18
10
0
1
-16
-7
-19
3
-4
10
-20
-2
-12
-4
4
-7
2
3
-9
-10
-6
3
-2
-2
3
1
-10
0
5
-5
-5
2
2
-4
13
18
4
3
13
-18
4
-15
-1
2
3
12
-11
13
-6
6
7
19
6
25
33
39
13
6
-13
9
12
-8
-10
-1
-5
-18
3
12
-17
-26
-2
-31
9
1
-13
6
5
-1
25
3
9
12
5
-38
-19
-18
2
7
-11
-16
-3
8
9
-6
8
32
7
-3
1
15
0
10
10
3
8
13
-14
-12
0
-5
-4
-15
12
32
1
-1
11
16
11
-1
-3
-16
-3
19
0
0
8
-6
4
-8
0
-7
2
-5
9
-10
21
-13
12
3
-20
0
-15
-5
11
-6
4
14
10
-7
15
14
-39
-11
5
-1
24
28
2
5
-2
-9
34
1
-5
-12
30
14
-10
4
-18
3
-35
-35
5
-64
-2
-3
3
8
3
-8
-3
-7
-7
10
9
7
24
6
-6
16
2
-14
0
-12
-34
23
5
-31
-6
-11
54
-13
-10
8
10
0
4
5
0
-5
24
-30
-3
-28
-6
34
-3
72
4
-17
-5
-2
3
28
-10
-4
3
3
4
6
-4
-4
7
22
26
11
9
3
1
4
3
0
5
7
20
0
-7
26
1
-19
2
6
-7
127
-10
-5
6
-21
2
-6
18
4
-14
0
-14
-6
-4
4
1
29
40
-5
6
5
-21
-7
-3
43
-3
8
13
-18
5
-30
15
16
3
7
3
-10
-3
-5
17
-27
4
14
-5
3
8
0
3
-5
-4
2
-10
-14
-13
5
-6
0
-40
-5
99
-9
3
-1
-16
-4
-3
-16
63
-9
-2
7
-7
-11
-4
0
-26
-27
-13
-16
7
-5
-33
9
-30
-6
-17
-53
2
10
13
2
27
-8
26
-1
2
14
-3
-6
-13
1
9
-21
12
-4
5
35
-7
10
-11
2
3
0
-18
-11
18
70
19
2
-1
4
-1
-12
-16
-6
18
-8
-7
-16
-15
9
28
9
-11
5
10
-8
-3
7
-59
-21
-17
-1
-4
-22
-8
-15
17
3
10
2
2
-22
-14
10
-4
16
-10
0
12
-15
-5
0
15
-77
-16
-11
11
7
-8
2
-21
3
8
2
-5
7
1
-30
-4
-2
4
26
-13
-8
-11
5
-13
2
-3
4
-4
-3
12
7
3
58
-5
-2
6
8
-4
-38
3
-8
-24
-9
-15
2
-17
2
-12
-27
-34
-11
-19
-12
4
-12
-10
14
0
15
-15
2
-8
1
4
-1
15
18
12
-7
38
3
-17
-8
77
-11
-3
-14
4
18
13
11
3
-28
-30
5
-22
0
10
13
-1
-21
-61
-6
29
3
28
-2
30
-38
15
-14
-22
15
3
-1
30
11
-2
-10
-1
-2
16
9
-14
6
-8
30
-23
31
89
8
28
-23
10
32
-4
-7
6
-5
-14
-13
31
-27
5
11
9
0
-57
8
12
-11
-19
35
-25
-7
-35
1
14
2
-19
-9
-7
29
9
3
23
15
-11
0
-49
1
28
-10
-20
3
-47
0
10
15
55
47
0
6
20
3
4
15
18
-12
-18
-32
-3
-8
8
-16
25
12
8
17
-26
-3
-3
10
-10
13
5
-8
127
35
20
-10
30
-1
-17
-24
-23
-5
-11
-28
31
59
-8
98
-4
-50
21
10
7
16
10
18
-9
10
-23
1
7
22
-16
16
3
28
54
24
-22
17
-39
6
21
-7
4
8
-5
-10
3
-11
25
-12
-44
17
53
-4
30
11
-38
7
-15
-10
-14
-31
-39
14
6
-7
-9
13
-16
-6
7
15
58
38
2
-25
9
7
-39
29
7
-22
29
-3
-30
16
-10
33
-6
7
54
-6
5
-9
53
9
-40
20
3
-2
-85
6
-39
-4
-5
-21
13
5
23
43
5
-49
26
43
103
-3
33
4
4
-14
1
-36
-11
12
-51
-35
-16
18
12
0
18
19
2
-11
43
-12
21
-5
24
51
13
52
14
9
16
68
2
19
-9
-7
6
21
-44
2
37
-44
14
-18
-19
-9
-16
-5
8
-35
6
-13
5
14
12
16
38
20
16
22
27
16
69
-28
15
8
-20
25
9
-15
6
12
16
41
6
-1
1
5
22
-14
-7
4
-6
18
41
28
9
-21
-3
13
15
-7
20
-36
70
0
-25
53
1
-2
3
16
-36
-30
54
-5
5
15
-27
-31
-16
63
-9
30
18
69
17
83
9
42
-25
1
40
5
21
-32
62
-1
0
-12
-14
2
-2
-15
3
3
-7
-8
74
8
22
38
-1
-17
-13
-23
-5
-15
-7
-5
5
14
6
2
2
98
4
-34
16
-18
-30
42
13
-7
23
-15
2
-12
23
5
3
-12
-8
-2
-25
4
25
32
11
10
1
-6
-3
30
-3
12
4
-27
-14
10
0
8
24
-44
17
9
-27
7
-75
31
3
14
-22
0
17
9
0
-2
5
-16
4
39
-6
24
-3
6
8
1
-9
10
-11
-24
9
5
13
38
-6
7
28
-7
5
11
-8
-3
10
-11
56
-2
57
30
2
1
41
20
36
-20
19
23
21
22
-20
1
-16
11
8
-9
23
0
0
45
-32
-16
12
-55
4
15
18
7
11
-3
24
26
5
-3
6
11
21
3
17
-10
-20
3
-23
11
42
-12
27
7
2
22
0
17
-7
11
8
37
-32
23
5
62
18
29
35
36
15
8
-10
4
-49
-17
20
25
2
35
-37
9
40
6
-45
-21
18
24
-15
-2
-6
-2
19
-45
-44
6
25
6
16
31
-3
18
-78
16
59
6
6
36
5
1
-31
36
-13
35
9
30
29
-11
5
4
-17
-83
-8
34
27
9
9
39
10
-7
15
31
13
-29
22
31
-13
-46
48
0
8
23
-12
20
-15
16
-7
5
3
21
57
8
76
15
-15
-18
4
15
-4
32
36
37
-20
14
12
-1
1
21
17
-4
-47
-7
-20
8
-30
4
41
6
-1
-48
3
0
24
-43
2
-11
20
0
43
23
42
15
43
6
15
14
10
-2
20
50
-30
-5
1
-8
-6
9
-9
-10
-21
19
-15
1
-51
2
10
-12
12
-26
82
32
11
14
5
-7
5
-11
0
6
-40
33
8
-12
18
28
1
57
34
-10
3
-8
-17
-10
4
6
0
-17
6
-7
-5
9
0
0
8
-8
-1
-11
5
-6
-1
-9
1
-18
-5
-2
3
1
15
-5
-8
-3
-37
-4
-28
-9
0
-4
-42
15
-7
-7
-3
0
1
27
9
1
-8
-3
-6
46
-9
-5
-11
-77
-2
-6
3
6
-26
-1
-9
-9
4
-3
-3
-2
2
6
8
0
0
5
-3
-1
-7
5
5
10
-4
3
-6
-5
1
-3
-5
-16
4
-7
-11
1
-45
10
-2
1
5
-5
2
4
4
19
6
0
4
10
-8
3
12
-17
0
2
17
1
-6
-2
-2
-12
0
15
-2
-2
-5
1
-1
1
-3
5
3
1
-4
-12
-1
7
0
4
-19
3
0
-1
-2
2
1
11
-5
23
-45
8
-30
-19
2
6
12
-8
-4
-20
4
8
-35
-4
-2
-20
11
6
3
3
4
-4
6
-7
-5
9
-1
10
7
7
13
-17
4
0
-11
3
-17
10
-4
53
-16
-4
4
4
16
8
6
7
7
6
-20
6
13
19
-10
2
29
2
-9
14
6
24
-2
16
5
-3
-4
-14
9
-14
-27
-7
2
2
3
6
3
3
-18
-25
-10
0
5
4
-5
9
0
2
7
1
1
-12
9
2
5
-10
8
2
4
3
-3
39
8
32
-6
-7
-12
9
12
40
10
2
11
16
-7
-20
-8
-1
-5
4
27
-1
-2
-11
2
15
4
-5
17
0
-13
-6
15
-18
2
0
3
7
6
11
21
-5
19
-6
10
8
8
25
-27
8
-4
-6
-9
-5
-15
1
18
-4
-5
-3
10
10
-7
-16
-13
3
-17
10
-127
8
2
51
1
-9
-1
-3
-30
10
24
17
-27
3
2
4
-14
0
6
3
3
1
4
-1
-25
8
-7
3
-1
-14
91
-4
14
7
4
-5
7
-1
-1
1
8
-34
-1
17
-7
-5
9
-16
4
-4
10
-2
3
0
-4
3
1
3
0
11
3
1
-8
6
4
2
-10
-1
-1
-18
0
-6
-5
-6
-10
3
18
12
-10
5
7
-10
5
-7
-6
-5
6
-9
-1
-3
-2
0
-46
-19
2
-7
15
-1
1
1
-8
10
0
2
-14
4
6
-1
-5
-3
2
-1
3
-10
14
17
1
23
1
3
8
-11
16
3
12
-6
2
4
-16
4
-4
5
3
6
-2
8
-1
-3
2
6
-14
4
-19
-14
2
4
-9
-3
4
-12
5
0
-7
3
2
-6
5
0
1
-13
-1
5
-3
4
11
-7
3
-10
-10
6
-16
-3
10
11
4
11
33
-3
1
17
4
-5
4
-12
14
2
4
12
22
-4
2
0
26
-13
12
-6
-10
-5
-8
18
-4
6
-5
1
2
-7
-14
-6
-15
2
-5
3
-2
-10
9
10
-1
-1
34
9
9
4
13
44
3
1
10
-8
-4
-27
19
5
0
13
6
-8
-4
5
-1
-1
-7
0
4
8
2
9
2
7
-8
2
-10
2
1
-2
-26
-8
19
-11
8
0
-7
-5
-1
1
-4
3
3
14
-7
-6
0
9
-12
1
5
9
58
32
6
-8
1
3
7
5
-5
15
-1
4
-4
-11
13
19
0
16
-20
43
28
-7
9
-8
1
-14
1
40
6
-9
-4
-3
1
-16
-17
-6
1
5
-11
-4
13
5
-6
1
-13
2
4
8
-1
1
10
-4
-5
-17
-13
-1
-3
10
-9
-3
9
4
1
2
-12
1
11
-18
-5
21
13
2
-86
-2
17
-5
-7
0
3
-8
3
1
-8
18
6
-17
-12
25
3
25
10
3
-22
9
-7
-3
3
-12
-2
-1
17
-24
19
-9
3
9
5
4
23
2
6
10
-10
17
13
-15
1
1
-13
-2
0
26
-12
-23
8
-26
12
-20
0
7
-3
17
4
26
6
7
-38
38
-33
-6
54
-8
33
55
-18
13
7
-3
-16
6
5
-3
-32
8
2
-12
0
-13
21
-9
-20
-13
-10
-6
32
25
30
5
-37
-24
2
6
8
-33
-3
15
23
-17
17
-43
81
34
-10
23
15
64
-7
-9
0
-9
17
4
2
1
18
9
5
-15
4
7
-6
-70
8
21
12
20
26
-28
17
7
-17
6
13
12
4
15
-6
35
35
11
-28
5
-11
2
31
16
-3
39
-3
11
-2
6
3
-10
40
-13
43
6
11
4
-1
0
-10
-30
-10
6
23
7
6
48
10
19
-3
-11
18
24
-7
10
26
-37
11
15
-20
48
10
-35
-10
-26
4
-3
-27
-25
8
14
27
13
19
-11
-12
17
12
49
-41
-17
-42
5
-73
20
-18
32
-5
-7
8
7
-1
29
4
-31
-13
-7
35
2
-43
-11
-17
-24
-14
7
27
10
25
0
16
43
-5
-7
7
-9
24
-20
-8
17
6
45
-5
18
1
2
21
1
-3
-7
-4
-8
-12
-30
-11
-31
-4
-11
-3
11
-11
-5
-37
26
-22
-9
-40
-9
-8
-19
-7
12
8
-18
19
-6
71
-1
-6
-3
-10
2
11
-16
13
-4
28
-17
-12
10
1
7
-4
30
11
4
9
-25
-26
-1
11
-22
59
-10
-15
4
-33
-12
-34
-7
9
27
-127
15
-35
35
-24
-71
-21
-31
-3
4
16
-3
-2
-18
-27
10
7
16
7
20
-15
-11
12
-16
12
-1
-24
-89
-7
19
-2
-63
0
2
46
8
9
14
3
8
4
22
-4
-10
-22
48
-3
29
-2
122
-8
-24
8
-23
60
12
-23
-5
6
-5
16
-26
-9
-14
-25
-29
-16
3
2
-8
6
27
2
-4
-29
39
5
24
-12
16
0
24
-11
2
35
60
-7
-4
11
-17
-5
-12
16
11
11
19
-10
16
3
41
-4
72
-25
-22
-2
-1
-2
9
22
3
-3
-16
10
-1
0
-5
-28
13
5
9
4
4
20
-15
1
-10
6
55
3
13
-28
14
-18
1
-24
25
53
-37
7
1
-14
-17
-1
-8
-5
-15
-9
-4
0
-14
2
-10
13
6
-2
-11
11
-16
14
11
-2
-8
11
34
9
4
3
10
1
-18
-15
-68
0
1
-7
-29
-14
-4
-33
36
3
26
-12
6
36
-4
-5
70
26
-29
-13
-32
-34
-6
-4
13
-5
2
7
9
-73
21
17
6
6
16
5
6
2
-22
-14
-13
-8
-14
3
11
-9
18
3
-11
-37
14
-15
-4
-22
-43
6
-16
-37
-24
-6
22
5
13
53
1
-15
2
-13
7
0
7
7
45
0
-11
22
20
24
-119
-10
4
6
-6
-25
-5
-63
-7
1
37
-14
4
19
24
0
3
2
27
-29
-36
8
-8
13
-13
43
-12
14
5
37
-7
2
-26
-8
-25
12
0
-19
11
16
-7
16
-7
14
14
9
-12
38
-17
3
7
-20
-41
21
-5
3
36
-2
11
8
3
-3
-31
-8
-17
-8
-8
-38
27
-13
-35
8
-8
-3
18
6
9
1
-37
28
-20
-25
-10
-10
16
-18
44
11
-1
21
-27
29
5
32
39
1
-10
-55
-30
-27
-33
72
-7
22
15
-7
10
-12
-11
-4
-1
-26
-10
-15
32
9
-10
-20
-27
-102
-1
19
-30
-7
-20
-10
-11
-3
-30
-3
-17
-24
12
-7
6
-14
15
-23
4
-2
-15
2
4
-6
-30
-12
12
-33
-3
-22
23
-19
42
-4
-7
9
-15
-40
-8
42
-6
-33
34
-8
-4
-92
26
10
-34
-36
29
-56
-26
-1
-10
-12
20
2
14
15
-20
-46
-8
-17
7
4
13
-8
-4
15
-9
-14
4
32
-26
7
16
-25
-11
-52
11
-4
-12
-3
9
27
-33
-5
17
-63
-22
10
30
15
-6
-8
-19
28
16
6
9
-19
11
-21
8
-27
21
16
29
-3
14
-40
38
13
-29
-28
12
-32
2
0
8
26
12
54
21
12
-31
-17
-18
-12
1
0
-8
16
33
-19
16
-5
20
-15
-25
4
15
19
2
-4
1
2
-6
6
35
1
47
4
4
-6
3
0
24
4
-1
-4
-24
6
-2
-4
-16
-20
46
5
27
-39
0
5
-48
-7
-23
97
-13
4
-20
-16
4
76
1
-27
2
26
15
-10
-45
-74
-49
-37
-6
52
0
-9
-10
2
-10
25
-51
2
33
17
-10
27
-2
-24
-25
35
-4
19
-30
-1
-3
-6
54
1
14
10
35
9
-7
-2
-6
10
5
-11
17
-24
-2
-25
-7
1
-25
-13
-23
-26
54
-25
21
30
-5
10
4
33
-12
-4
-12
-45
2
15
2
29
26
-7
-67
-47
10
-14
26
-8
-10
14
20
12
-18
-21
-9
-9
18
-15
11
21
-19
52
-50
-6
49
-35
-9
25
-1
-21
29
3
-16
-65
-28
2
-1
-33
-32
-1
16
-13
34
7
28
-6
-21
-4
-4
-18
20
-3
-27
38
7
-2
26
13
-32
-35
24
27
11
-8
4
-4
26
27
-3
-7
-35
14
-2
1
14
0
-24
-16
-2
-15
-66
2
-22
6
2
-11
-13
8
19
-4
-23
30
10
-18
-16
2
-10
7
15
-59
-45
25
-11
18
9
23
-20
9
-29
28
4
-4
10
-45
-29
-12
-17
-15
-1
-12
4
-29
-12
5
-14
-12
2
-7
47
3
0
-9
-2
-54
-35
8
-8
-2
-20
-43
-6
27
-14
36
16
2
-35
-16
-13
-54
17
-14
-5
6
-8
-6
21
-4
-48
-5
2
0
9
45
15
13
-12
10
7
-63
-5
-10
19
-25
11
31
10
12
8
3
-26
33
-11
85
65
0
-14
-11
-1
-15
10
22
2
24
1
-28
-6
-5
38
-1
1
-32
-32
2
2
-15
13
-21
92
9
18
-14
-4
25
30
-16
14
28
-49
-13
-2
-12
4
-106
40
-16
-13
-8
-14
-7
-37
-3
-15
-35
-47
11
-27
-43
-5
26
6
-18
-19
-53
-5
-3
0
-26
-29
16
-6
27
35
-9
-3
-17
1
-21
38
-15
14
15
14
17
-57
50
1
18
-42
10
3
24
21
-35
-60
15
-23
-6
-28
28
-6
4
-16
-11
2
-10
-3
-15
11
9
22
-9
19
-30
15
-11
29
-16
15
-31
20
-8
8
-24
-42
-1
-11
10
3
-18
24
40
-2
39
-45
-6
-8
-23
-4
-33
5
-5
2
25
-31
13
8
-26
31
-17
37
25
3
21
5
-9
-12
-54
-15
-57
42
-39
21
-30
-29
-25
-1
25
59
12
-54
-11
2
11
-29
-3
-17
-21
-24
-26
12
-18
-14
-113
50
-89
22
10
2
-34
-18
8
51
-14
-15
3
-19
16
-18
16
-4
23
-57
-19
40
-27
16
5
25
94
-38
-44
10
-127
-1
20
-10
-2
21
-12
-43
-44
-14
-1
27
32
-40
5
7
4
15
2
6
-1
-119
27
12
5
3
1
-13
6
12
-4
-11
2
-5
-3
6
-11
14
-5
5
-24
1
8
11
-18
-5
-9
13
13
27
18
1
-4
15
1
7
1
-3
18
-9
7
2
29
-26
2
-5
6
-10
18
-16
5
1
-7
-5
-15
9
8
6
-2
9
2
-6
-4
-19
-2
14
-35
4
-5
-12
-1
-6
4
6
3
-1
27
3
-21
-23
-33
23
-12
11
10
-3
58
0
-3
5
36
-5
5
-1
5
-36
-1
-58
-3
7
2
0
-65
-14
-11
10
10
7
11
-13
8
-21
9
10
-10
-1
2
-1
7
-9
-15
8
5
0
-4
-2
-22
-1
1
8
107
-31
18
0
-14
-9
-10
20
0
11
35
-5
-27
-1
-11
0
-16
-3
2
33
-1
-1
-11
-9
-4
-11
12
7
-7
-1
-4
-5
-2
4
2
13
-7
6
-7
3
14
39
3
2
16
-13
11
3
12
-11
17
9
-9
9
2
2
25
4
13
-3
8
14
22
13
-9
11
12
-4
10
-3
9
-16
-19
-3
4
-57
4
15
5
1
-20
-2
-1
-2
14
0
-11
22
-20
9
8
-7
-11
-5
-5
-12
5
-1
2
16
24
-11
-4
-9
-2
12
2
4
5
-6
7
30
-14
-6
7
-17
21
5
15
19
11
6
17
-13
8
16
1
13
14
2
36
17
1
-23
3
-1
-15
-26
-76
-10
1
-2
48
-12
2
-16
6
3
7
-17
27
2
9
6
12
-17
6
-8
-27
-13
11
-6
-20
-29
5
5
-22
14
-5
3
-3
-3
-3
6
-31
0
-22
-5
-19
9
12
2
6
3
-4
8
24
-15
21
-15
-86
-6
-5
0
-10
-11
-9
27
5
-5
-1
-27
-40
0
-11
8
-11
-6
-7
-10
1
14
-1
-1
9
3
1
12
-7
-60
11
-18
7
-16
5
0
25
-23
-29
-1
5
7
13
0
3
10
1
2
-3
-5
10
1
7
-1
7
-2
14
20
-1
-8
17
16
95
-1
-17
-17
4
11
-14
-2
1
-10
17
-4
-3
0
3
-1
10
-3
-17
-7
-2
13
7
9
-1
5
44
0
6
1
31
-4
-1
6
7
-14
32
-13
3
-4
7
-43
4
-3
5
11
2
3
18
0
15
17
1
4
-17
0
-10
8
-14
2
-8
18
9
10
2
-3
-64
6
-36
6
5
11
1
0
4
17
7
-1
19
3
-11
11
-3
2
5
-23
-26
-3
-11
5
6
14
25
13
5
-15
33
9
-6
24
8
15
31
-17
-8
-18
9
4
8
32
0
-6
6
4
7
35
2
12
25
4
6
-1
5
-9
-9
-42
4
2
-25
-9
0
-18
0
0
-13
9
-5
-2
-7
28
48
-2
-5
3
-11
-4
3
0
-18
-19
-1
4
15
9
-9
-5
16
6
-13
-2
-28
-16
-18
6
12
-16
16
-11
5
-3
-2
-11
9
-2
-15
5
16
-21
5
2
24
1
-4
-7
6
1
-8
15
-12
7
-19
2
-7
2
-10
7
-15
-1
-8
8
-9
-20
78
25
1
36
5
-6
-20
5
7
11
7
9
-11
1
-7
9
-27
0
-13
39
-16
-7
8
-9
-3
16
13
2
0
8
-1
-9
-12
14
-13
13
-45
12
15
-5
-25
15
-15
-3
5
-2
1
-36
5
14
-1
11
-4
-27
-4
-7
-11
0
-10
-13
5
8
-17
3
5
1
-8
-21
16
-127
7
-16
52
-1
-11
-12
29
23
2
1
8
2
2
15
-1
7
-3
-1
11
-10
-16
-6
-14
10
16
-8
5
12
3
-16
-2
12
1
6
0
7
5
6
-4
4
5
8
-3
-5
2
7
1
-10
12
-8
-20
-12
0
-7
-5
-4
3
21
-7
3
0
7
-5
-15
-6
-16
-5
9
3
-6
11
8
-12
10
11
-11
5
7
2
-15
7
-3
-27
1
-5
5
-7
1
17
-8
0
-3
6
-1
-4
7
-32
-10
-37
14
-14
11
8
-13
12
27
-14
10
7
-2
15
27
2
9
8
-12
5
-3
-14
-1
2
-4
-4
2
-3
4
6
13
-1
18
9
20
-2
8
2
13
6
6
-7
7
14
6
-3
15
-21
6
-6
20
15
2
-15
8
-8
4
-2
-11
-24
0
-4
-14
19
-3
-16
-8
13
-9
6
-12
-4
2
21
-31
-5
-7
-6
8
5
-3
0
28
5
-9
0
-6
-3
17
2
9
6
25
10
12
7
-14
26
-5
-1
-4
15
-6
-4
-4
-18
-12
-6
5
5
-13
7
20
2
-11
-29
-8
-12
-3
8
4
3
7
7
1
11
42
9
-5
3
10
7
3
-7
-8
-12
-13
10
-11
11
5
5
31
8
-7
-5
24
0
-5
7
1
-6
26
6
-3
-8
-9
-6
-8
-21
8
-5
6
-8
-16
3
-26
-5
-13
6
6
7
0
1
-26
1
2
-4
5
8
-10
33
-17
6
4
4
-23
5
-5
-26
-16
34
-6
0
11
-2
4
-9
-5
-6
-9
0
-8
-18
2
-1
6
-3
6
-4
9
-20
-6
-19
19
-4
-2
7
6
7
1
-7
-1
-14
1
96
-32
-22
4
-7
18
-1
-6
15
-1
-8
-5
7
3
-31
22
12
-2
-1
1
21
-14
-9
-8
0
-16
-4
-15
-30
-25
-17
14
0
8
1
-11
-6
16
-8
-4
7
8
-9
6
6
-15
1
4
10
-6
14
4
-10
11
-9
-17
-9
-15
-4
4
4
12
-3
-24
-1
-2
-13
-13
-1
-3
-9
11
0
-8
11
-5
-7
9
3
14
17
-3
8
-16
2
-18
-4
-21
127
1
6
-6
-12
1
-15
1
16
-8
9
1
5
-3
5
50
-5
-13
8
0
8
-8
24
-1
1
-2
-9
-11
-2
-9
-15
10
2
-6
5
10
11
-7
4
-6
8
-10
7
0
-7
-6
-7
13
-24
-14
-2
6
-12
-1
-2
4
-6
-13
8
0
-4
0
-1
-4
-8
6
-3
-4
6
-2
6
-6
2
-7
-5
21
-4
10
-22
3
-7
-7
38
2
-3
-31
-12
-2
-5
-20
14
-9
-14
5
-3
-3
-8
-4
14
-4
4
3
0
-19
-4
2
11
5
-9
-12
-28
-3
-11
9
-17
7
-10
5
0
3
-1
-6
-10
2
-3
-10
-24
-14
-11
-5
6
-5
7
2
-11
6
5
0
-24
-5
3
-15
15
-4
-2
-8
14
4
3
11
4
-17
-16
7
7
14
10
-7
-5
-1
-7
4
-1
-6
-18
-1
-18
10
-12
-10
-8
5
15
-4
3
-16
-6
26
-23
9
2
-7
6
28
-3
-3
38
8
13
-5
8
-9
-20
-5
-9
1
-13
-5
-9
2
-3
15
7
8
-7
-12
19
8
-8
-1
11
13
-9
6
5
7
0
-5
6
14
-1
-21
-4
-5
8
-4
-1
-6
-6
-4
-12
0
-18
5
2
-18
-12
-3
-20
15
2
0
7
-7
3
-3
21
6
-13
6
-14
33
2
10
33
5
-40
14
-20
23
-4
6
-5
8
-11
20
-4
-3
-17
11
-4
0
-2
-17
