21
-48
16
42
-127
-39
-1
19
-29
-99
-50
-34
62
-15
29
43
5
8
-27
-15
7
-67
71
-14
25
-9
-44
-42
-7
-21
28
-18
12
-42
-41
-16
63
-51
-77
-26
-54
-35
5
18
3
-22
-44
-47
38
62
-29
89
-66
-50
-22
-46
-6
-18
-39
-22
-46
-2
-50
-19
22
35
-91
-20
-51
-45
32
-51
14
-35
28
-16
10
72
-68
-9
-14
-44
2
-31
0
-26
46
-28
-60
3
67
-61
2
37
-1
-127
48
-68
-32
9
-101
29
-45
-79
70
-63
-4
-15
-10
-33
-105
18
8
-28
42
-59
63
24
-34
26
-30
-52
25
-92
8
-29
-18
-47
-15
-24
66
-74
-93
62
-51
-21
-19
-49
-68
-18
-107
8
-35
127
-43
26
54
19
-108
-17
-61
37
-57
47
79
30
42
-37
-22
-127
-12
-67
-8
26
-23
58
6
7
39
-18
-75
-5
20
-24
-45
-76
-48
-61
-16
1
-36
-15
-16
-53
-48
16
36
10
-8
18
-46
-46
-66
-76
90
-73
58
-15
-74
18
18
18
-22
-107
73
-67
-15
-5
94
71
17
-24
-82
22
28
50
-17
-63
-122
-77
70
-35
33
101
28
48
-85
57
124
79
127
56
-55
-58
27
-58
-4
24
16
-77
-29
28
14
-45
-74
60
-68
-15
46
77
-76
33
-7
-61
-6
-82
-20
-7
94
-2
-35
-10
-21
-22
-41
3
-1
-65
-86
-2
19
46
-2
-53
-56
-34
97
-127
31
-8
-72
-35
31
-22
-1
70
-36
-26
-4
13
22
-51
-56
20
-11
-105
-55
-21
-24
-36
-38
-18
22
-1
10
99
-32
-18
-103
16
-47
9
38
-105
-104
126
-62
-21
-55
-85
-17
-47
8
16
-16
7
-76
8
-60
-22
3
-26
-21
14
-3
127
-7
-51
127
-23
-65
-25
-15
4
-41
4
109
-4
-42
-31
-6
5
-43
-50
-55
-46
-4
-11
-35
-29
21
-24
-47
-74
-51
-12
1
-58
13
-69
29
12
-8
-4
-50
-83
-46
-72
-4
-36
36
-34
14
35
-62
67
-96
6
-20
-31
64
44
-127
-107
-48
-26
8
39
11
46
-4
-71
65
106
-73
-2
-7
-5
-43
-38
5
-18
-113
-50
-78
-3
-49
-80
29
21
-34
-17
-27
90
92
-44
56
-37
-40
-109
8
-54
-29
-49
99
-46
-93
-57
-114
43
14
-47
101
-36
22
-49
67
-15
-84
-74
-79
-46
-104
13
97
-1
-87
-81
11
-37
-19
-91
-16
66
-127
-53
-10
0
-116
96
1
-99
-27
74
22
-117
31
-90
-75
-43
4
-54
7
34
-85
-12
-18
114
-24
-14
-90
-33
19
27
-10
-12
-29
-58
-34
18
-21
6
0
-58
-111
15
-12
-49
-106
54
-67
2
-127
-72
106
-7
-89
0
70
83
39
55
-37
42
29
47
3
43
20
-17
22
-40
-31
-37
-6
3
-86
-29
-82
-38
-51
-58
-58
-9
38
-39
32
-44
-6
-2
-4
-26
-18
-31
-27
-44
-12
23
29
6
94
-37
-21
-60
-29
66
-16
27
-40
95
17
-21
-21
50
-127
-3
-63
-78
0
-59
64
-57
-68
-79
29
42
-43
-64
-42
5
62
-43
19
-8
64
-21
127
7
-81
11
99
5
46
-94
15
-11
20
17
-49
-13
32
29
-85
-42
65
-21
-38
69
-42
-47
22
1
-84
42
30
-127
10
-61
-69
34
-33
-25
-74
49
5
-35
14
-36
-67
-80
9
-75
-1
-29
-26
12
-49
-19
36
-3
-87
55
-51
-9
4
-36
-48
-23
19
24
81
-57
10
56
78
-3
-104
31
20
57
0
102
81
-78
46
-32
-114
-83
8
-48
12
-80
117
-3
-73
-106
-60
-43
-46
-49
11
86
36
98
-58
52
-70
-12
-35
3
-13
-52
3
-30
43
-82
43
43
98
-39
-21
-36
-56
-86
-51
-127
-33
-7
-42
94
-10
29
-30
-14
-21
31
19
3
-47
-10
39
-26
127
-22
23
-25
-42
-31
-8
19
-68
-27
-28
-9
-18
-22
-28
35
13
-4
-14
-17
16
-38
-10
11
-24
1
-47
-42
16
-6
-48
2
-16
-8
-54
-14
-14
-20
41
11
-51
35
-72
-4
-48
-65
123
-35
-109
34
-72
-63
-46
-100
42
-22
-58
-48
-5
64
-37
-55
-57
-30
57
54
-14
7
-1
-91
-65
127
-4
-1
-20
-97
-83
-45
-1
-9
-57
-16
48
-2
-13
36
-34
-6
-40
-31
-1
-19
22
26
-40
5
-9
-82
-85
-15
-49
-86
-40
3
10
-77
-109
66
-127
118
-103
44
-5
4
-25
-26
-41
-70
-7
-79
-71
34
109
-16
-6
-85
-6
-7
-7
-52
-19
36
-22
-27
15
57
-30
-2
-23
10
-47
-9
-14
-44
7
-7
-22
-60
-35
7
-1
-42
-27
-9
-29
-68
3
1
-42
21
4
-74
-7
-29
-13
-29
-24
3
28
-37
-97
-4
24
-72
-8
-6
127
8
-49
16
31
55
-44
41
-49
58
-10
-127
5
20
-68
30
-86
17
-59
-60
-11
-17
-3
55
40
-27
-25
8
-32
-19
-57
25
10
44
-36
-31
46
-45
-45
-118
-50
-64
3
-16
56
-29
-9
84
-19
-43
-63
-2
82
-50
-81
-47
-115
-1
-63
-105
114
24
-14
-127
3
0
-18
-3
-19
-76
-80
-25
66
-71
-31
-12
26
-21
35
55
-17
-13
-68
-30
-44
-85
-88
-18
-41
14
51
31
-2
6
70
0
-33
-9
56
-60
11
-45
-1
26
-73
-19
-16
-42
83
-30
-43
-127
-16
14
-14
19
6
-56
-44
-52
-4
-60
4
16
-4
-9
-7
-23
-36
27
-55
93
37
-54
8
27
-41
-36
48
79
16
-11
-15
0
83
-56
7
-12
32
-57
-50
63
77
-25
-22
28
44
2
16
-37
46
-63
-68
-59
127
-54
-65
-23
71
69
0
4
-22
18
41
-31
14
59
7
-73
59
21
-14
-35
37
-46
38
26
-68
75
14
59
-118
-54
18
3
-6
23
-3
40
-51
60
-72
-79
-61
8
-16
-47
-23
-30
-26
-57
14
102
30
34
-89
-21
-1
32
3
-13
25
-16
-21
-50
29
-48
29
-127
-88
-25
-41
-8
50
78
64
-45
6
-32
-67
30
1
-16
-29
-112
-62
99
-69
-4
-63
-82
-4
-19
-62
46
-65
-5
-126
-13
88
-122
-25
-86
4
-34
-48
-32
-10
-79
-35
59
-42
-87
-17
-40
-24
-75
35
8
16
27
11
-104
96
-68
127
46
5
-42
13
-34
-38
-2
-8
1
-29
-34
1
-4
11
5
-7
24
-23
-18
-18
40
75
-43
-37
-42
-15
-34
8
1
-13
22
-64
-20
-35
-66
-29
-3
-23
-43
-28
-25
-31
8
127
-20
-54
20
-14
-39
-33
-23
-14
2
13
97
10
-29
-44
-55
-36
0
-24
-33
-30
-45
-44
-33
-83
16
-6
39
36
-87
-7
-127
-1
-34
23
35
-55
-25
-9
-7
-16
-66
-56
-78
-22
40
-49
-28
-34
1
-32
-16
-41
-41
61
-41
22
27
-55
-47
-66
11
-58
-50
-8
-58
39
-5
-22
-48
-86
21
16
-34
-68
-36
9
35
-27
18
-29
-36
-19
14
-11
54
19
66
-34
74
-24
-101
-51
35
49
2
-61
-46
-59
32
-13
-1
127
-17
58
-4
-100
-127
-30
18
16
-22
120
30
-83
35
49
-87
29
-64
11
24
68
10
36
-49
-37
-23
-84
-25
-91
40
-29
-18
6
109
-38
56
14
27
60
-72
-59
-61
-53
-52
-47
23
-13
-35
16
107
-86
64
-64
4
17
-6
7
-18
-73
-31
-54
-40
127
13
-65
-35
-6
-19
-15
-30
-21
9
52
-33
3
-47
14
-24
-40
-24
-80
-20
13
-34
-40
-65
0
37
-10
-24
-31
-61
-27
-38
-40
17
-2
-43
3
109
-4
-73
-54
36
2
-3
127
0
-4
-47
-32
-78
-6
70
-21
6
-3
27
-40
-53
25
-13
-26
-7
-52
-79
-40
40
-47
20
-28
9
15
-25
22
59
30
-42
-23
-36
-23
-36
-46
4
-14
34
23
9
-54
-42
-67
88
19
11
-41
-89
-112
-111
-51
-56
-66
47
23
-26
6
-84
13
-38
4
-6
-59
-36
-30
46
67
11
-127
-9
-17
-61
-33
1
30
0
9
14
-31
0
81
-72
-35
30
-52
-29
-21
0
-98
11
3
-33
-104
-58
-84
10
-37
-115
-16
6
-17
70
-48
-8
-84
-22
-23
-57
68
-60
-72
-22
-54
101
96
-61
45
-45
-127
-74
-15
8
49
-122
10
-67
-33
-26
-17
-22
-64
-58
-36
-41
-79
-70
-51
-14
39
-57
-54
-27
-99
-110
67
9
-20
-33
-49
-37
71
23
-20
-127
23
-43
31
-82
-21
-38
24
78
-58
-79
16
43
6
13
-63
-48
14
-48
-78
-21
48
-9
28
-4
-25
-82
-48
-2
-40
48
-43
73
-47
124
-14
-71
-40
-27
4
-58
-6
-127
-43
-41
-43
-32
4
-16
-29
-22
18
-23
86
17
-4
-11
-74
-50
-12
42
40
13
105
-84
-21
-22
-59
-57
1
-63
-17
-12
29
32
-5
-121
-48
1
64
13
-3
8
-100
5
52
65
-37
41
-7
-86
-35
56
71
13
9
51
-81
6
-109
-35
11
12
-34
-50
-20
54
-63
-15
-127
4
-40
-41
56
52
3
-50
-63
-27
-78
38
-7
-81
30
-21
79
-18
-127
-57
78
1
-54
6
-14
-6
-58
76
-73
-115
-35
36
-88
-23
113
-83
30
39
43
-28
30
43
38
46
-76
89
-39
-46
-32
9
-13
32
-43
-4
68
29
92
83
64
9
-15
-59
-57
68
-64
11
-12
-14
-39
90
-14
34
-13
33
5
-12
-13
-18
-56
21
-65
8
62
46
-15
-11
3
24
-127
-26
-25
10
31
51
48
-33
-21
-37
-18
-13
60
-29
3
-48
17
-81
-88
-62
-52
-15
4
-49
-102
-38
8
-39
59
0
-50
15
52
-52
17
-34
-1
-127
27
-56
41
-30
-3
-18
-13
-46
-20
47
-9
11
-35
-49
22
-95
117
20
-5
-65
-76
-51
-45
64
-42
5
49
-49
-51
-69
-32
-57
-51
54
-21
-27
55
-39
17
127
0
-64
-57
52
36
3
-100
3
111
-45
11
-12
-35
-83
-22
65
53
6
-46
-20
-29
29
-11
-106
-81
-12
-52
-8
-84
-65
14
66
-23
-50
56
-91
2
112
-20
-77
-90
-2
29
58
-36
-43
-47
7
-60
29
31
-14
23
74
0
-40
-27
-45
11
17
-68
25
-29
-55
6
28
-32
6
81
-46
8
105
67
-20
13
-84
-1
-127
7
-73
-7
11
-79
28
-43
-24
62
-60
-80
-60
-84
21
-80
-3
10
-25
-90
18
-5
74
-57
17
-10
-98
-21
-24
4
-40
32
21
92
-127
-112
-1
-4
-21
-1
-74
-22
-85
-31
-37
-13
-69
-18
-72
-6
-19
-55
-60
104
-31
114
-27
-80
63
-46
-61
0
-17
-12
-24
-22
-12
-68
-51
-20
47
40
-127
-98
-30
105
-6
-88
74
-61
-42
-30
-84
-22
-36
-19
11
-67
-66
-25
-34
5
-76
12
-19
94
-93
-71
18
-101
36
-39
-5
1
-87
-81
-49
-40
-18
-97
-43
22
-1
20
33
-15
40
-52
-3
-47
9
1
-36
-22
-17
127
7
-10
-12
-44
5
3
-9
23
9
-43
-32
-59
14
-35
24
-22
-7
-27
3
44
1
23
-24
21
-39
29
10
-27
22
-60
10
-29
4
37
-3
-65
24
-78
30
10
15
-15
-39
2
23
-31
-63
50
-18
-31
-29
3
63
62
-28
39
-3
47
-4
-20
-54
-61
23
-127
-32
49
-71
50
-17
-40
6
11
-38
28
-12
22
-41
-5
-29
-53
-8
-38
-75
95
10
-45
-99
-13
-54
-109
-37
76
-19
-31
15
19
0
-1
27
34
-47
-94
60
-16
-55
6
34
-105
-65
41
10
-108
-69
10
-66
16
20
-30
-23
91
28
-30
-19
16
23
-35
-127
-10
-2
11
-92
34
-33
-67
5
-59
-17
53
-35
60
-29
110
-60
-18
-124
-36
-86
-96
-14
13
-27
1
127
-3
-64
14
-64
6
-89
-26
84
44
-60
31
-35
-113
-87
-31
-102
-124
76
55
-52
55
-14
107
-71
-27
96
-80
-40
-16
-7
-3
-67
-63
-47
-11
-127
-26
-41
4
1
-54
-68
-68
-78
-49
-34
-40
20
-53
-33
3
-12
-2
91
-24
-99
-31
-57
-75
-39
11
-33
76
21
-1
-11
-75
10
-14
109
-54
14
-7
-27
18
-15
-45
-9
-46
-12
-19
-53
-49
19
-11
-9
-80
40
-6
3
-50
-14
4
-13
8
-20
-2
4
3
-22
-43
53
-21
-46
-10
-33
-8
-28
30
33
12
31
-29
48
-27
29
4
-17
-127
-18
-29
-70
-48
-84
83
23
36
-25
-44
-31
-35
7
16
-14
-95
-5
-18
9
101
46
-76
-28
-60
-16
-74
2
-90
-22
12
-23
-9
-89
-57
-100
56
9
-71
-64
-80
31
1
-33
-25
-26
-48
4
-1
-127
-82
-18
-1
0
-68
-6
70
114
-82
-127
-18
28
-105
-44
-62
-41
-65
-116
-48
28
112
-100
-86
-7
-20
1
-4
-48
3
59
-80
-10
-80
-116
64
-27
-50
-26
105
10
32
-86
-27
-110
-117
16
-15
3
-59
26
-40
-1
-74
-25
-69
-33
-78
-12
14
35
127
-40
-38
-69
-19
-33
-2
-11
-40
65
-27
27
-29
25
23
5
-94
72
41
53
6
-97
-45
-45
-61
42
-38
35
-69
96
-16
-29
-35
-73
-58
-14
0
31
-33
-30
10
5
-56
-35
19
-25
2
-54
10
45
17
-54
-1
56
127
-47
-6
-30
-35
127
8
-24
48
42
-16
-61
-49
63
19
-15
20
-11
-33
-11
-42
60
13
28
-23
-26
0
1
-1
-9
-19
17
-76
78
-32
34
-121
-3
11
88
55
26
-81
25
-114
-30
-11
20
24
-20
-22
-32
-25
-6
88
-44
18
-22
36
-104
52
12
-87
6
-24
-127
-48
45
-37
-56
95
-38
54
-25
-27
-20
58
80
-12
-5
127
45
24
-82
-5
-16
-36
-5
-34
-48
-66
-37
2
-6
-39
22
-75
-61
-42
80
-72
-50
1
9
-7
-1
55
-29
-45
-71
21
-63
-28
-32
5
-5
-39
78
30
-53
17
-21
-44
-44
-1
-40
44
-81
-85
19
74
-56
-26
31
83
-10
34
-3
9
14
-26
21
58
-17
-18
-26
82
-37
-56
-32
14
127
-16
64
-61
-8
-24
-31
-30
-45
42
-57
36
-21
60
-22
-57
-56
-35
5
3
-83
-19
-35
-72
-67
-54
44
-82
-2
-127
-36
-94
44
-10
-85
-18
-11
-96
-52
-4
-89
60
-9
-11
-51
31
22
29
51
8
-83
26
-56
14
-73
-7
-38
-68
-7
-48
33
21
-47
-8
-40
16
-25
0
-58
15
-18
27
-50
14
-32
34
-67
-58
3
46
8
127
-54
-67
-28
24
7
91
-53
-42
-87
97
45
15
-35
86
56
-47
-41
-29
14
20
-9
10
-19
-14
-31
88
24
-74
-40
-77
0
10
-35
40
-15
-15
41
25
-111
-6
-24
-18
127
-123
-22
-38
-2
17
-25
-99
76
-52
-88
-80
-64
5
-45
-68
-66
-105
-71
53
77
-14
93
31
-29
-67
-16
10
-69
-12
62
-46
-6
2
-69
-14
-12
36
-48
-95
-4
-44
-45
30
12
-25
-31
-14
4
16
34
34
-11
-15
-29
-49
-65
-44
-98
-25
-83
-30
-11
8
-39
63
28
-60
-53
-51
1
0
-31
-86
-59
5
-23
-67
23
-51
-68
65
-31
127
-59
37
31
39
-47
8
-23
-2
-8
-54
10
5
-43
-3
-4
-6
-32
94
-14
72
-25
8
-11
-29
-37
-127
49
-24
-49
-33
93
46
-26
0
26
-18
4
-77
-44
59
-44
-47
-6
-45
-102
11
-35
-14
28
-41
-20
-25
-63
13
-15
2
-12
-21
-93
-109
-59
-41
12
-17
30
-55
-37
18
11
-77
-127
-70
-45
-51
-46
-79
-77
63
-69
101
-94
73
17
-59
-43
-1
-38
-28
-113
-93
92
9
-9
-22
2
-60
-110
-49
-23
-90
-1
22
-63
-23
-50
-125
-89
83
14
21
30
-11
38
80
-43
19
-53
6
-1
95
9
-12
-10
21
9
77
-31
24
-14
64
63
43
-29
8
-41
21
127
59
3
67
-85
31
43
15
13
-26
-31
-24
-118
-31
39
-7
-45
-98
40
40
-62
35
-44
-47
22
94
-35
-98
37
-58
-27
-55
-6
38
-27
-96
-79
19
-91
-48
-62
-50
-50
4
-6
-33
2
-2
-62
56
-37
-44
-30
-6
18
-30
-12
8
-13
-32
-65
47
127
-77
-60
-25
119
-27
-15
-69
-13
-35
-26
-56
15
-6
-41
-60
39
-5
-52
-30
35
45
85
-35
-29
24
-45
-21
-46
14
2
-17
-55
-46
-109
63
0
32
-8
15
-16
-43
6
-22
30
-79
-54
-47
127
-53
18
36
127
-18
-31
-28
-19
13
-31
-30
-47
-38
-49
-14
-44
-52
-9
-45
108
-36
-46
26
-46
-44
-18
12
-41
-63
22
-49
-7
-54
-14
19
-60
-5
-6
-4
10
3
60
-10
-72
20
-1
23
-46
33
-10
-51
72
-20
-33
45
34
39
-34
25
-37
-11
-5
7
22
45
-42
13
-57
-33
103
28
10
-36
57
9
-29
-54
-31
-36
56
24
63
8
-29
-34
20
-25
-10
72
127
-21
-25
-17
-1
44
17
-8
94
-87
-110
95
58
-23
-68
-67
-103
-88
-127
-63
123
-37
-106
60
101
-42
7
-23
-78
2
-5
-17
-21
-111
10
50
37
-59
-64
-4
-93
31
-42
-22
-90
62
18
-67
-55
12
37
-82
22
11
23
-34
-13
-5
12
7
-41
-127
72
69
-61
-59
-92
40
-16
-2
14
-47
-17
-60
-20
15
38
-55
96
-35
-75
-64
64
-6
-74
-49
22
29
-79
-44
-25
-11
4
5
-10
5
16
-77
-6
-44
-33
-20
-21
-11
-5
25
8
-50
0
-31
-40
-16
-71
-33
-17
-28
17
-12
4
-57
-17
-36
13
-23
2
-51
59
-29
-55
-37
-27
-23
-38
127
-16
-17
-44
-17
-47
-32
-4
24
-40
-76
7
-27
-41
49
-38
15
-12
-26
-53
44
52
-24
38
-26
24
-6
42
13
-34
-31
-24
-58
-34
-9
-9
-16
127
-39
-17
24
-20
15
-33
81
-27
-18
-1
-6
8
-35
65
-35
20
77
-58
-28
21
-11
-7
6
-32
-15
27
-9
-39
5
-33
13
-2
-62
3
-18
-9
-20
-17
127
-13
-23
-22
-42
6
-18
-41
-51
-18
16
3
-2
-21
-9
60
-24
-43
-4
-53
85
12
-56
-61
17
-13
-12
-82
-38
-8
-21
-16
29
19
13
16
-1
-37
41
-20
-14
2
71
-82
35
20
-42
52
36
57
53
-126
18
-4
86
11
-21
-104
76
-33
-9
-55
127
-9
113
12
-70
62
69
-99
-70
68
8
-44
-126
-51
-12
-63
63
83
31
2
42
44
-12
6
59
-24
56
42
-107
-4
74
-24
-27
-85
-64
-33
-20
-54
-20
33
34
50
-89
-42
76
-11
-6
-112
27
52
-127
-23
20
23
-10
-4
15
-85
-24
28
20
-39
-65
3
-19
-72
-25
-21
43
1
-3
-30
127
-47
48
51
-30
16
9
-79
-48
1
-65
-61
3
-86
54
-34
73
-88
-50
-39
38
-67
91
-32
-66
-28
20
-71
-47
39
2
-49
-67
-84
-90
-81
-64
-35
74
-82
-37
122
5
7
-90
7
-110
27
17
-113
-74
-17
-49
-30
-34
-65
85
-78
-69
-61
-45
-42
15
-34
14
-57
-72
63
-27
47
63
-23
-32
-80
3
27
26
2
-21
27
-41
-70
-61
-97
-23
15
-49
-35
-48
-12
1
19
127
-68
85
-81
11
-68
8
127
-53
1
-43
-31
-55
-11
-34
-11
-86
39
29
66
28
-35
18
40
-29
9
-6
-35
13
-22
46
-28
-47
23
-57
-86
-20
-51
16
-36
14
-31
-44
5
-91
-31
-24
19
-28
2
-11
7
32
-19
53
2
-55
60
-51
6
33
7
-24
-88
69
-71
20
-60
-23
-63
28
54
-69
66
-8
80
-5
-56
-27
-58
-60
-71
20
23
-20
58
-10
-6
127
-89
-83
19
30
104
32
-94
-119
56
-28
-21
-22
40
-1
-24
-83
3
-24
10
-8
-127
-45
-70
-65
-76
2
-46
-10
0
-50
56
3
34
-60
43
-25
-77
-26
-71
-19
-95
-53
-91
76
-17
-66
23
12
-65
16
-8
-22
-8
-1
11
55
-44
-49
-23
12
-32
-15
-34
-104
-61
1
58
-55
-31
-15
-62
109
-22
-23
-68
-61
60
-31
-97
1
-40
64
41
104
-47
-61
-104
68
-2
-69
-58
-12
-93
-68
-57
-14
66
-23
-127
-22
49
-23
46
106
10
-12
-29
40
27
-43
-43
-29
3
7
86
-72
71
100
-112
120
4
68
121
-60
-81
-32
-33
-27
-12
-4
8
-7
6
-36
-105
8
-90
-120
-81
-33
-127
-62
6
6
-65
-28
-94
-25
-60
8
48
-96
-35
-100
-74
-21
12
-38
34
-12
-49
-37
-56
-65
-32
-2
-15
93
-79
-17
-18
-27
-21
-70
12
67
-72
-82
-42
-17
-52
-10
-101
-21
32
-71
-48
127
-74
17
22
-34
-78
-14
105
-41
-3
-41
23
-76
-22
-69
72
-66
54
0
-12
-55
48
37
36
-52
79
7
-64
7
-45
49
-5
-10
76
-7
44
6
17
-58
-50
34
-8
-3
42
22
22
-18
-127
-23
-96
105
71
-6
-61
-6
-8
7
-33
-42
-43
6
19
54
18
49
-122
116
-126
-11
-55
92
25
-43
-34
59
59
-6
-55
45
-18
-54
-48
-72
44
-2
-52
-69
-97
-36
7
-94
62
-84
33
12
-103
23
-127
11
20
-48
-76
-51
-54
21
-2
-50
-26
-7
-7
-51
-83
69
-19
-65
20
-64
127
-106
-41
-39
-35
44
-36
4
71
-67
-11
-11
39
-25
-18
28
-64
0
-47
-83
-30
-92
17
-104
-11
-87
-84
22
-84
-90
-19
32
-28
-41
67
-48
-32
1
55
-35
-30
-67
-8
-39
33
-21
-19
-50
14
72
10
44
94
-90
-44
-15
97
10
-98
-26
36
125
-95
-34
-94
-87
-12
-127
-1
95
-76
-30
20
1
-35
25
-90
-100
33
-80
-35
-65
61
54
-62
-70
-83
-39
15
-3
-36
-96
31
43
67
-80
127
-10
-68
-43
27
-42
-83
-1
-16
-29
-42
-57
-47
22
109
-97
-73
-5
-110
-80
-73
30
-48
-37
6
-98
60
-50
-111
-61
-79
-53
6
64
24
100
-53
-95
-57
-37
59
-1
38
24
-67
-41
-76
-18
-23
-44
-83
-21
-91
-35
9
-17
-12
-40
-46
-25
101
-46
-44
-127
99
-54
1
65
-23
40
-33
-81
-3
-66
-29
-30
-40
35
-2
6
-48
-17
-5
-7
-20
36
-23
-33
-61
-74
2
-26
29
-10
79
-84
-52
82
3
-50
26
-33
-54
41
4
-94
67
71
57
-76
-66
14
-58
-35
-51
-127
30
-36
51
-15
-12
-43
-97
-71
-81
-100
-48
121
-59
33
-68
-47
-114
1
60
-70
-96
-26
-63
-18
-24
-28
-16
-46
-28
-28
-2
24
-48
44
18
127
-17
6
-56
-32
-58
8
5
27
-20
-14
-24
8
-33
-54
25
27
17
-21
106
-52
-92
-6
-23
-13
-120
-52
-13
-58
-11
8
-15
-62
24
-3
0
35
-6
14
27
-69
-51
42
14
-45
-77
87
2
20
-27
-14
50
7
-21
-20
-69
-63
-6
-50
26
-69
-79
73
-41
67
41
28
-55
48
-76
-60
-75
-65
-28
48
-58
-78
85
23
-127
-24
61
-59
-62
-30
-83
-127
18
-69
107
-52
-36
18
121
-24
21
21
-76
43
-44
9
-76
56
19
-51
-64
-74
-111
-45
59
-62
-94
-34
-30
-28
-124
29
-86
2
-70
-56
-63
86
-7
-6
-51
-15
-68
5
20
84
-15
95
-15
-11
-56
-127
-82
-16
-2
-93
-52
-102
43
-5
60
-70
81
62
-32
-93
-88
20
-66
-25
10
-42
-18
62
-6
98
-7
79
-126
14
-97
-74
-28
-19
-61
62
-66
-80
50
-69
-39
95
-44
-54
-70
-51
-70
-24
117
-9
-54
1
18
-89
-123
-26
9
52
-39
-25
-1
0
-102
-60
-45
-38
-7
75
127
79
-55
-90
118
-24
20
30
-48
-43
-80
-68
18
46
-23
-86
-93
-101
64
-37
27
-80
-62
-104
-51
-127
97
20
45
68
-33
5
6
-46
17
-36
-81
-49
-80
-21
-31
-16
-45
-12
84
-38
-43
37
17
4
44
37
-38
-8
25
-13
41
-28
53
57
-50
2
-36
61
-32
76
105
-79
-26
-106
71
-2
53
119
-10
-29
88
-55
-14
97
-15
-14
-55
-50
-29
-11
85
-70
6
3
-33
-48
-67
41
-34
-45
7
-38
-70
39
-17
-42
-53
-2
-19
32
-68
-24
1
-28
-42
-35
-36
14
-18
-32
-12
12
-18
-127
-72
-22
-26
16
-2
-34
-30
-53
-38
88
-9
-40
-17
-55
-77
-45
-20
7
2
-16
-22
11
0
15
49
-45
-45
-43
-20
-48
-19
-44
-64
-45
-79
-33
-72
127
-74
54
-54
8
-23
20
-17
-74
-28
27
-4
-41
-12
-62
-69
-60
-22
-54
-62
127
28
-55
-33
10
38
-105
-13
0
2
-91
-6
-27
26
23
-17
18
-38
-1
55
-6
3
2
70
66
-36
-57
9
-68
-74
40
-47
-21
-19
29
-5
57
-3
79
-38
-63
-42
-53
-23
-16
-27
-12
-62
13
-56
-31
-52
-26
-14
-53
80
119
-68
-18
-127
28
-67
11
-51
22
116
13
-83
-56
-108
-71
76
-37
-78
67
102
9
-39
-27
-38
-43
-79
-1
-12
60
-30
-29
-30
45
-99
-114
111
-31
-46
33
21
-96
-83
-90
-38
-30
120
62
6
60
-14
-76
1
-86
-28
-54
-19
40
-19
6
0
-11
127
-47
-42
35
-38
95
11
-28
-37
-50
-50
-10
-99
-90
82
83
-4
11
-67
-49
-36
-31
-65
28
-39
-3
59
-27
-3
34
-16
54
-32
-27
-30
94
-127
-64
12
25
20
-7
24
31
-79
10
-26
34
9
20
87
61
26
89
2
61
-40
11
6
2
-27
47
1
46
-34
-81
13
6
21
-20
125
-58
-20
-24
-28
-70
17
-82
-114
-78
78
-105
6
-84
-17
-56
-24
-74
-3
26
-54
-34
-66
-19
-26
-31
-39
-20
-68
127
-67
-81
10
56
-43
11
-41
91
5
-34
-41
-3
75
64
47
-48
-53
-39
-43
40
-3
87
-9
-52
58
-27
-56
14
91
-15
-73
-32
-84
-78
8
-45
-12
-104
-12
-53
-80
-11
-42
-65
26
-33
-63
59
-103
-28
-2
-69
-67
-6
107
105
40
33
-43
-57
45
-127
64
-58
34
127
-13
-1
28
91
-37
11
-11
-5
-16
3
70
48
27
5
-14
-14
-9
-26
37
-29
72
-20
-35
97
32
28
-54
-1
-73
7
10
0
32
-80
-9
-110
-46
-12
14
18
-59
-4
-1
-8
-44
-29
4
-96
116
20
-1
17
-53
-15
-18
-21
-52
-53
127
-44
-33
13
-1
28
2
51
-19
-29
-13
-78
-43
-13
-51
28
37
-29
14
-4
-8
48
-80
-39
-87
25
-26
-3
-14
-34
14
46
-75
-60
-13
-31
-116
-119
106
-40
-30
-18
-70
-60
-68
-59
-104
-10
25
-51
31
-25
-2
63
-59
76
83
21
-72
-78
-33
36
84
-86
-66
-122
-102
-74
-110
20
-3
-20
72
-3
-127
15
-86
-99
75
68
-82
-4
-51
35
-18
21
-18
-36
4
16
-10
22
2
3
9
-3
-41
-27
-53
-12
-15
127
-39
-41
3
-58
-23
-41
2
48
-38
-12
-29
-20
-18
-1
-16
-41
-46
15
-19
-41
-11
-1
-31
-22
-38
11
-22
0
32
-71
-95
-55
101
1
10
-17
-100
16
-26
13
-74
-83
-35
-100
4
-9
-4
-21
-77
-46
-13
-127
119
-1
0
-96
-31
71
94
-29
28
-21
36
7
-38
-77
-30
41
-49
-90
-76
6
-6
-10
-92
-38
35
-53
-96
-98
-56
3
47
-40
12
-54
-14
-3
2
118
-57
14
-9
-15
-25
113
83
-14
-20
-51
-24
-85
12
-83
-68
26
19
5
127
-75
-105
-56
32
-10
-57
-25
-113
-50
-8
9
-14
-109
-17
3
-18
-16
39
74
-64
-13
-42
-95
28
48
-2
-16
-97
-59
-71
-71
-23
40
-50
-10
60
62
47
82
-93
35
-5
-23
-7
60
60
35
-80
-24
16
3
-12
127
1
74
-37
-31
-61
-52
-38
-44
-54
50
-34
-15
46
-12
-33
29
-17
39
-47
-3
-29
75
-61
21
-67
32
40
-81
2
-40
-9
-86
-108
29
-23
-127
-4
-23
-66
-12
-31
47
-51
110
-23
-75
-31
-19
-69
-89
-5
-40
-4
66
-22
-34
-15
-43
-3
21
-75
-86
-38
-110
-40
-9
30
-19
-54
-73
-24
71
-15
-37
50
-127
-49
-52
-39
88
47
-11
-21
-29
18
50
3
-73
-5
-20
-44
-27
-59
-61
-24
35
30
-124
-14
-101
30
24
-90
-98
-12
13
-23
-41
-1
38
4
1
-70
4
-32
42
-34
-74
41
-27
-58
35
-27
13
-67
127
-17
-37
-73
4
33
-28
-26
1
-15
48
-37
-52
30
-81
-56
13
31
-15
-38
-63
15
7
-27
-38
-30
-51
-22
-29
-7
-29
-56
5
-58
19
31
-34
-78
-25
-16
27
-37
-33
27
42
-41
-38
127
-44
-59
1
25
73
-23
8
-33
39
27
-71
-5
-69
-89
-46
-42
76
-30
-27
-124
36
-96
5
-15
-58
-5
-51
-61
-4
-31
80
-43
-35
48
-107
-24
-91
-56
44
-62
-65
-94
-65
61
7
-90
74
15
-70
-28
-60
14
-64
4
-42
-8
-65
-15
11
-23
20
27
-75
-54
28
-27
1
41
127
-71
-18
72
-5
-31
90
55
51
-75
-12
-1
-2
30
-50
50
75
-16
-33
-73
-110
-59
-56
-38
38
-29
106
73
23
-79
12
-58
39
5
-55
-46
-106
33
41
-20
-55
46
-54
-62
-12
59
-18
-69
70
-91
-103
-2
45
-22
-30
-25
-36
127
-43
32
53
-80
-39
-40
15
-11
-1
-16
2
-45
28
127
-25
-40
-31
-47
-33
54
-39
-48
-12
31
-47
-65
79
-56
-54
29
-102
-22
-36
-14
-114
19
-61
-12
64
47
-81
-10
8
-96
65
9
55
-48
-18
-68
12
-42
-127
-20
35
-51
-8
-21
-32
-76
-72
-85
-33
-3
-42
1
53
22
-79
-77
11
28
-93
3
-16
-115
48
-23
21
-73
-68
-75
44
48
-66
-1
14
42
-7
-34
0
-17
-8
95
-43
15
-55
-106
-51
-45
7
-40
-12
-46
33
-49
-5
30
-53
-1
19
23
70
2
24
-35
-47
-32
-69
-53
-34
-87
-40
-53
-66
-94
-76
-8
-31
-127
0
18
11
-85
30
6
93
-31
3
-32
-57
-49
-25
-28
-17
27
90
-51
-67
-46
73
-1
-19
-57
84
-13
-61
-31
20
127
-43
-31
28
29
-28
-21
-61
-30
-30
-7
-8
-18
-98
-103
-35
-16
-17
-66
-31
-22
-34
-58
-44
-24
-30
-16
3
-60
-23
23
29
-23
11
-29
-110
28
-30
-22
71
20
3
-25
-35
-49
-28
2
7
-39
82
-27
-52
-51
22
17
7
-65
16
58
-19
67
-30
18
1
-91
61
-48
-24
-45
27
-22
-59
-127
-13
-77
15
16
12
-48
-22
-11
8
-75
-41
89
-21
13
11
-42
-47
-25
-39
-3
-94
16
14
8
84
-16
-26
20
59
-1
83
-29
122
41
-18
113
-52
-50
17
-41
31
-3
44
-53
10
26
-83
-51
-30
-127
22
-45
27
-26
-42
41
-2
14
-45
-20
4
-51
-70
37
-34
-46
43
-35
14
-70
-16
14
90
-16
-16
-13
-36
26
-61
-103
-86
-26
-45
69
-42
-49
-88
-41
127
-78
-42
58
-34
-67
41
-44
5
-6
-22
-36
-14
-95
7
-23
11
-69
108
9
-75
-9
-28
-40
-72
55
15
-4
-42
15
5
6
-119
-62
34
63
-50
1
-7
-68
-69
1
-95
-22
-82
-17
-34
88
29
-127
22
-26
9
-50
72
-2
59
-15
19
-6
-105
20
-6
32
15
-25
34
-2
-26
12
13
-5
-47
36
-4
-3
-61
-23
-56
-6
-23
89
2
72
-9
-25
30
11
-4
-13
41
-12
9
-47
-30
18
-23
46
5
-3
-12
-127
27
-7
54
0
4
29
-44
-5
27
9
-127
-18
-26
-38
-56
56
-40
-90
14
-71
-8
-73
-5
58
45
-10
106
3
52
-6
-14
-29
80
-34
-31
-37
-96
-92
-106
-31
-67
-4
34
-80
3
11
-52
-22
-45
-31
-24
-34
-65
-84
19
-37
2
-94
0
-89
11
110
-90
32
-39
-50
-56
-33
-62
32
-56
44
-67
34
30
-43
-55
-17
1
6
-43
-90
127
-13
-8
-46
-50
32
-27
-96
59
-73
-19
-12
-45
-15
13
3
-52
-120
-48
54
-100
-77
-31
94
54
-7
-43
-3
-85
-41
8
-10
-57
51
-24
-52
9
-43
-50
-68
-6
-21
-54
21
-13
-96
-34
5
-74
-12
19
-42
65
-46
-36
55
-39
-127
-46
77
-16
-2
-37
97
-51
-88
-40
-24
-45
-12
26
3
-97
-1
-60
2
-74
127
-68
-27
-81
-125
-42
-78
-35
14
-24
9
30
-5
-96
-109
-74
-69
24
28
-45
126
-48
-49
-2
-57
6
36
53
-18
-72
21
-51
10
48
-57
10
-16
7
-24
-50
-77
36
-1
-32
-19
-11
31
-99
-3
9
-3
-37
-26
-27
-127
38
44
23
89
-27
38
-38
-32
-55
8
49
-50
-31
-8
-35
-9
2
-79
4
-6
-21
-109
-2
-26
-12
46
-76
-5
-40
0
20
45
23
50
69
25
-46
18
-18
31
8
-7
38
7
-18
8
-37
-47
-10
37
-50
-29
37
-68
127
-15
-33
-21
-59
-21
-5
-26
-5
-18
-8
-65
-4
-74
-36
-20
6
19
-3
-46
-9
58
28
-41
9
-24
-22
-28
8
-49
2
-21
-62
7
27
16
-32
-51
-17
-52
-70
48
-87
-6
-53
84
-19
17
-19
-57
-10
74
-68
75
-15
-99
13
82
-41
-40
-69
-26
-3
-127
18
-68
34
-82
-113
-39
-18
-43
43
-51
-18
-15
-14
48
-90
-42
-85
-12
-5
-32
-101
5
-36
29
-15
-27
-3
82
33
-43
8
-5
24
-77
127
-1
-40
-56
-14
-10
-13
-57
-85
67
46
-62
-66
-54
29
-61
47
-52
-36
-54
-13
-10
3
-62
81
18
-56
-75
-21
-70
-2
-4
13
-95
-44
-3
41
-13
-10
-127
-19
-5
29
-17
5
36
-8
-89
-38
47
-42
37
-57
58
54
-95
28
27
-13
40
-45
34
-6
-55
35
50
118
104
-4
-2
-50
-41
-84
-25
80
30
-33
-12
89
-32
-33
62
-82
-1
-41
-6
74
-26
-24
0
-103
-36
-50
-44
7
28
-21
-109
-27
67
-62
-32
127
-48
-4
-27
77
71
-79
-83
40
-14
-102
-31
-4
4
-8
-32
2
-9
-12
-2
-13
-29
-67
-53
67
33
-77
-19
-75
-13
-21
-103
-73
-22
-59
-66
5
-67
1
-31
-47
26
-108
-27
-25
38
-18
-92
-83
-4
38
-127
-28
-89
-29
-36
-87
-47
-77
15
6
-20
-61
56
-22
-37
-7
-106
1
-74
8
-84
-102
40
-60
47
-10
-86
-34
-75
3
8
-74
1
-37
41
11
-27
-20
2
47
-67
-23
-16
127
-31
80
-84
-12
-124
-22
-52
-6
-72
6
10
-33
20
-44
-22
5
-78
-75
6
-3
11
33
-48
21
-11
25
-20
16
-37
-10
-28
-66
-86
82
-8
-70
19
-71
-60
-26
-127
5
17
-10
19
-81
-47
-9
-41
-42
-58
-7
-62
-7
-84
0
-74
-41
34
-35
94
-17
27
10
-22
-13
14
-4
5
-53
11
88
-33
-23
-48
1
-33
8
-29
-65
-80
-53
-127
2
-5
29
12
41
-15
-89
-73
92
10
-4
51
-15
38
-84
56
-56
22
-48
-26
29
-35
-54
-40
69
25
-38
14
-69
-6
-29
-47
12
11
-65
5
-78
-13
-40
-34
-106
-95
-33
28
-76
-19
-10
76
127
66
-55
-51
-11
17
-47
-31
36
24
-31
68
24
-37
-40
-31
-78
-48
-33
-15
24
-49
22
15
85
-53
-11
44
-11
82
-51
-59
-35
50
-3
-80
20
-108
-26
-51
-34
-38
-11
43
-43
-106
-61
-13
-57
48
5
39
58
-60
-47
-79
-42
17
-83
-105
-53
-26
-73
-49
88
92
17
89
-26
-64
-58
-89
-49
-89
25
-18
73
-31
-7
0
-87
127
52
-31
-38
-5
-28
-57
-65
22
63
45
-51
-57
127
-29
-83
9
-46
-19
-54
-14
-48
38
-44
-46
-76
-86
25
-47
-69
-33
30
-37
-34
-31
20
-75
10
-67
-47
-92
-25
30
-33
-55
-38
59
20
46
24
-7
-29
-127
-48
24
-10
33
11
-34
-28
-20
-40
22
-23
16
-72
67
94
-57
-19
1
19
-26
9
-49
-34
-61
-68
-26
-61
-43
-29
-3
-11
-20
-27
39
-45
3
41
-46
-63
-2
-12
-34
-34
-43
32
-15
-51
-89
32
-35
-42
35
-19
79
-32
-15
-87
1
-67
-34
1
13
-42
73
-81
-11
-59
-11
-71
28
-27
-127
-22
120
-62
-79
33
-18
-27
-29
5
-32
-2
76
-58
-78
-87
105
-16
-59
-58
19
-91
-23
23
12
-6
-12
-19
-20
-29
43
-15
-34
23
-72
37
-51
-9
-69
7
-72
-72
-48
-6
37
-10
-26
117
127
-46
12
-35
-13
-12
36
-12
-30
-31
-5
51
21
8
-8
-1
3
0
-38
-8
-49
18
14
11
-58
2
43
-24
-46
4
8
7
-63
-20
-88
28
12
44
-127
-20
-60
-46
27
-6
47
-115
-6
-19
-18
-21
-16
46
-1
-4
-26
-24
34
-30
-43
-15
18
26
-28
-21
15
29
21
2
14
19
-7
-68
7
-16
-23
-56
13
109
56
-67
-87
10
24
-23
-6
-50
-26
-105
-39
-30
-52
3
-17
-25
-109
-29
27
-79
-41
62
-47
-2
12
-7
-60
-34
-5
-127
-44
83
-9
-97
58
-21
17
-66
-11
51
64
-61
-10
-3
-9
-42
70
-30
-88
-31
-74
-28
-56
-45
-7
29
-75
-3
-10
-16
116
-53
-24
17
-56
-47
-90
-55
-36
-1
-41
-66
-18
-41
-56
-34
63
-78
-37
-9
38
-25
-19
-8
-14
-65
31
127
-75
-16
-14
-46
44
-61
6
-52
127
89
-116
-80
-38
19
-39
-5
65
-20
-39
-8
-21
10
-36
12
-25
7
-57
-49
-67
49
25
-49
3
43
-118
-79
26
-50
-9
55
-48
53
24
67
-32
-87
50
-72
-52
-90
27
-42
51
-83
-9
108
-113
-127
-87
-72
-58
-77
-79
4
-34
-1
81
-68
53
-16
22
-23
-69
-86
-78
-65
-85
-60
3
-32
-10
16
-42
53
-11
-101
3
103
-40
-119
-3
11
-95
34
38
-29
-30
-36
17
21
-43
-106
7
11
17
-57
-45
-28
-38
-33
-25
-5
-44
-29
-38
-35
30
97
-97
-10
57
-93
112
38
-41
-87
-59
2
-47
88
-27
-32
-127
-5
-15
-52
26
-72
-24
-5
-39
-29
-52
52
-99
-59
-51
-11
78
-23
-27
-103
-8
-21
5
-95
-13
46
81
-122
32
19
-20
115
-23
-9
16
82
-79
-67
-6
-37
-78
-62
-87
38
-27
-49
-61
13
-102
-68
12
-127
-81
17
61
63
33
-24
-34
15
-8
-53
-15
-7
-18
79
6
-50
-32
-28
70
-73
-69
21
-8
-23
-83
54
-8
113
-58
-9
104
-44
-30
-67
9
-10
-38
6
-19
25
-78
-26
-127
-56
3
-67
29
-29
55
0
-65
-3
-48
-4
50
-32
19
29
8
27
29
-47
-46
-7
-3
6
-68
-14
-27
-23
-26
34
28
-24
27
-42
16
-127
-62
-10
-34
65
6
-3
83
-39
18
-6
-70
-5
-27
33
-90
13
27
-66
14
-46
2
69
-8
-62
-33
6
-68
-7
55
37
24
-19
43
32
-2
76
58
127
-17
13
18
-27
-49
-75
19
-60
65
2
-55
44
-102
-37
-80
19
-104
82
-88
-11
-39
-53
-97
31
-55
-48
-65
13
29
70
-42
-17
-64
-11
76
-108
-3
-2
-45
4
-35
-25
-34
-17
-59
-65
-118
-27
49
-4
33
-62
-41
83
85
20
-75
-32
-75
-62
-117
-1
-22
-22
-95
-25
53
33
-42
-2
-72
-15
-90
-30
-89
36
-127
22
-31
49
7
62
-5
49
-43
13
14
-33
-5
3
121
107
-89
-9
-81
-86
-25
34
-10
-76
42
23
-92
21
-127
-37
-56
53
-74
-27
77
-60
-106
-97
-9
-36
-12
-27
-86
-74
-91
-62
42
-96
-53
-24
-45
-38
48
-49
99
-55
-89
-21
-52
-3
-2
-6
-50
-31
-28
-2
-27
-73
-4
-28
-64
-39
-50
6
11
68
-5
-79
-12
-19
-107
-28
25
-18
-51
-37
-36
-13
-10
127
-62
-92
40
44
8
-65
0
77
-29
-10
-78
-27
-9
-6
45
6
11
2
-77
-66
91
-79
-93
-32
-18
127
-90
-48
-96
45
-25
-50
-79
32
-25
-106
2
-38
-15
-68
21
-55
-7
-3
-97
29
-23
-4
-16
56
0
56
58
22
-29
6
-65
21
-13
-19
-26
-21
10
-11
-22
-65
-20
-65
-18
-20
48
120
-85
-59
3
32
-56
4
48
116
-17
-31
-26
33
-42
-97
-45
29
4
-60
19
-32
-54
30
-5
-82
-7
-51
-62
-64
-32
-127
-42
29
17
-87
39
-67
-69
-37
-24
67
29
-41
74
92
58
8
2
51
19
-127
9
103
-6
-7
-22
29
-1
54
35
24
36
26
57
13
1
44
34
-23
41
-13
-9
-23
23
66
-18
31
-79
56
-5
51
50
-36
61
31
-30
-14
11
19
-107
-53
1
-58
61
-10
38
-11
7
-27
-22
-40
-56
-34
28
0
17
-31
127
2
-13
-6
-15
10
-2
3
-35
-38
-3
-57
67
13
-90
-36
-37
-33
-54
54
-50
1
-24
-47
-6
48
-42
6
19
-6
-57
14
1
-23
127
29
-59
-53
-59
-30
-16
1
-22
46
-84
-33
-16
-19
-29
-61
33
21
-2
-5
9
-62
65
-24
-72
-4
-80
44
-21
43
2
3
-63
-61
-83
2
-13
-55
18
-32
-13
59
-31
-30
-50
-42
-19
-32
13
32
-99
-51
41
127
-12
-25
-51
-3
-53
-38
-15
41
-28
-81
-68
-59
16
-27
-32
-21
-31
-51
-56
-32
-32
77
-43
-5
-36
-25
3
17
11
79
0
24
-31
-67
9
-5
24
9
12
-52
-24
-70
47
0
-7
-61
72
-14
-104
-41
-86
-85
-69
-40
40
127
-44
-76
-59
-6
-68
-26
-27
-22
-116
-2
-124
-63
-37
28
-124
4
-38
55
-22
8
103
80
-56
35
71
-11
-42
-87
0
-40
28
-28
26
-40
127
-61
-42
-23
-1
-5
-27
7
-38
7
-43
14
4
-3
12
-52
-50
-34
4
-58
-37
3
-35
12
-41
-95
41
-27
-24
-23
46
-5
29
-66
10
-22
-19
7
-26
38
0
-48
-29
-90
13
-33
21
-3
-18
-29
-57
-18
-23
9
-4
-45
127
-31
-26
-39
-81
-44
12
14
-35
-19
-7
51
-60
28
-69
26
-11
-14
-17
10
-22
29
10
-1
-31
-111
3
-11
-34
-17
-21
13
-35
-6
39
1
-53
37
54
-114
16
9
42
-81
-67
16
-94
68
-5
-20
-28
-39
-3
15
-11
-9
75
59
38
-94
-69
-55
-33
83
0
-36
-39
-32
-119
-109
-81
-67
-79
-15
9
-37
-7
-127
72
-67
42
-92
-107
-32
-1
-41
28
-48
25
9
-14
38
-50
-12
10
10
44
-4
-14
-21
-48
-23
22
-60
-50
127
-50
-52
-38
-8
-2
-66
-87
-34
9
25
-47
20
-13
0
-24
5
-20
52
5
-37
17
-6
-1
-77
-44
25
-56
-20
20
-57
-1
-94
-50
-79
-64
-8
-40
-66
-4
11
9
-20
-64
-93
-40
56
19
9
46
-33
127
-85
44
-62
-28
-40
-36
-44
-64
-52
-38
14
-12
-63
-11
35
68
-79
-52
14
-43
-92
126
70
-6
-76
28
33
-104
57
-37
36
-45
-27
-52
9
44
-51
-99
-21
93
-7
72
-127
34
-11
-49
-7
126
-26
70
7
89
-57
16
108
-97
-17
-11
-10
-62
-35
-37
18
-24
65
-31
-6
-13
-14
-40
127
-57
-57
26
43
-39
3
-19
-10
-28
44
-26
25
97
-19
-32
85
-18
4
-6
19
24
-46
18
-76
58
-55
-119
-50
16
-51
0
-5
54
2
-22
-105
43
-5
-84
34
2
-70
79
-4
-68
-35
-12
-55
6
-46
84
1
-57
10
-30
-63
-56
0
-63
-22
-52
-86
-8
-2
-83
112
77
-39
-16
1
-28
-80
4
-55
-34
2
25
-26
-54
-40
2
127
6
-24
-29
87
12
23
-21
8
-61
-50
-19
-22
-13
-37
-112
-80
-3
-84
-47
-24
35
-19
-16
-75
21
16
-22
-30
18
106
29
-71
9
108
19
-90
-77
-30
-103
-21
-5
-17
-16
-37
60
-113
-41
-39
-40
-36
54
53
-114
-36
127
-16
35
-33
-58
-35
4
-73
-65
-72
15
-56
-39
100
1
-86
19
-24
-53
0
100
12
17
-15
-127
-16
-49
-61
-36
-16
61
-26
-30
-59
29
-18
95
-43
-41
98
-79
-20
-81
6
-65
-45
-15
16
-60
-8
48
-22
32
-63
15
-2
38
-94
79
-15
-36
-30
-16
21
6
-38
-29
-57
12
-64
-30
-74
-70
-84
-49
33
92
-79
47
127
57
-43
3
18
-76
-44
-29
-13
-46
-29
-1
67
-18
-9
-80
-24
6
-61
-36
30
-101
21
-9
19
-87
-25
-84
11
-78
0
12
18
-87
-27
-48
71
5
-59
26
-16
-67
-27
-111
11
9
-43
-100
-19
5
-14
3
-11
-3
30
-38
-127
-80
-93
-35
1
104
-18
9
5
19
33
-19
-72
-86
60
11
54
-5
53
-53
-68
-25
-23
-65
-53
-107
-19
46
0
-4
-69
-4
9
-21
-36
60
-48
-18
81
-23
-41
-3
127
-11
-79
-10
2
-94
-22
1
-25
-61
-59
-49
73
-27
-27
49
-108
-7
-11
-49
-35
-38
67
-24
-102
64
53
-91
-69
-4
-29
-35
-47
-97
-21
51
-68
62
2
-60
-88
-50
37
41
122
-47
-102
40
3
-6
31
44
-71
-46
61
-47
16
-23
-20
-49
-32
82
17
99
20
-49
-70
-127
112
-103
38
22
4
-18
0
-3
-10
-17
-24
-58
-10
71
15
-8
-127
-49
9
0
-74
70
22
-13
45
-8
-67
14
-44
-88
-36
16
-15
-33
-23
106
12
-15
14
85
1
26
-7
-52
17
-84
-22
8
27
31
-52
-60
-97
5
-91
-15
-74
-35
-26
-23
-12
-60
35
-53
-15
19
-28
-20
-64
-54
104
44
77
-28
-45
-2
-49
-105
59
-110
-52
-55
-31
-94
-52
-28
-65
-63
-54
33
6
-6
52
-101
127
4
-3
-4
-16
-1
-17
45
-45
-53
-31
-4
-35
60
-11
-22
-43
-38
-30
2
-44
-46
-35
-48
22
-94
-54
70
49
-107
-28
70
-21
-48
12
-19
-14
-49
4
-32
-43
-45
-75
56
-25
45
-63
19
48
-36
-48
127
-63
-12
-53
24
-29
19
8
-43
-50
-63
-26
-29
-29
-41
-8
-56
-98
41
19
-22
-39
5
-2
-16
-13
-2
10
-47
20
-47
40
-25
-4
-22
-106
-50
-34
25
127
-49
25
-71
-5
-38
-25
18
-33
10
-19
-9
-33
-8
-48
-95
-28
49
2
-24
113
32
61
-79
-67
-76
-18
-30
-52
63
-7
-14
-46
-1
-64
-22
-87
2
-28
-17
-90
31
127
-85
-52
34
-70
-65
-93
11
-2
27
-70
-18
-7
-40
15
-75
-9
-33
36
-5
14
-3
-4
-36
-11
-7
-11
-68
-15
-2
-32
-15
-22
-13
-40
-19
-25
13
-11
10
-28
-16
-16
-17
-27
-35
-24
-46
-6
-25
-19
6
54
11
-36
-43
-15
-15
127
11
-26
-2
-20
-6
14
-61
-25
-32
-56
-63
-85
8
-20
-38
10
-28
-25
-30
-65
36
-37
-38
83
5
-9
-12
-25
93
55
-37
-60
127
-4
-47
14
-92
-19
-83
-24
-51
2
36
-16
8
-11
33
11
-65
16
-41
-48
0
20
-36
-23
2
-73
-18
-37
1
-127
-27
-22
-2
2
-14
-31
-20
29
-24
4
63
-14
-4
-6
-9
21
-44
-23
54
-12
-12
69
-10
-3
-4
-22
41
-37
8
9
9
-67
103
-98
3
-74
-18
-98
-10
17
-16
-74
-47
11
127
-16
-25
-29
-28
-4
-69
-52
-6
32
-41
-9
-6
9
-50
-19
1
73
-39
-4
-29
-65
-7
-12
-21
7
-31
-36
-38
-12
13
-13
-13
-33
-44
-8
-15
-25
-62
-65
-2
-18
-17
43
-91
-42
8
-127
6
-39
-72
9
-14
36
-26
19
31
-56
-25
-7
23
110
-11
49
19
-2
-103
17
38
-59
39
-77
50
95
-49
-22
-12
-9
5
46
-57
-4
-19
21
5
-50
39
-43
-63
-43
54
37
-36
34
-22
-12
-76
-10
-7
-40
98
85
-103
-72
-6
-52
6
21
-30
-92
-37
61
-63
-34
62
-16
37
6
-58
-30
21
14
-66
17
-127
3
120
-57
-99
-19
13
-48
-38
-26
-46
-27
-50
-51
-66
-74
11
-46
-35
1
48
14
53
15
-31
-41
-52
-17
-4
11
-18
14
39
-21
4
84
-29
8
-47
-43
25
21
-48
-83
-59
2
7
-1
-10
-39
-31
127
-36
-53
-27
-77
-12
8
-21
-43
-14
-31
23
-9
5
18
5
-2
65
121
47
-34
-62
7
-27
-56
14
-127
-36
-120
-47
-75
-7
-119
-20
-29
-11
-16
-12
-71
-59
-54
43
-66
-43
26
-77
-41
0
-26
-86
13
0
-20
-24
6
105
-17
24
-25
-23
-13
6
64
-14
95
-19
-48
42
-44
-42
117
-11
4
-98
-37
-39
-50
-6
45
-92
-62
0
-22
16
-127
-44
63
-10
-38
-11
-43
-62
-13
-102
-37
37
-18
36
-48
8
-22
-119
-57
-63
-5
17
-56
-47
5
-89
-55
77
-28
3
-37
-7
-45
-21
-45
16
-66
19
-7
5
-2
-56
-71
90
-8
46
64
-37
54
12
-15
-23
16
-66
-94
-118
71
-79
-26
24
-48
-127
-10
-56
-86
-28
69
-18
30
69
21
-47
2
-62
-127
34
11
-83
-50
-8
-11
78
35
-7
-8
101
-33
29
18
-41
9
28
-62
-25
-76
78
29
14
13
-113
-50
99
-29
2
-23
76
-85
18
112
-34
16
77
30
108
6
10
-11
23
5
93
26
-15
-18
13
12
20
-67
98
127
-27
-43
-44
-25
-18
-78
-54
34
8
-52
-6
-5
-10
-78
-45
-7
-44
18
-21
-43
-5
-74
-22
-10
7
68
-72
68
-86
-14
57
-17
58
79
-26
7
-13
-65
97
-29
18
-18
-15
5
-19
-127
-65
-51
-29
-37
-62
-22
-59
36
44
15
-6
3
31
-48
69
-56
10
-31
-56
2
-27
-21
-50
-51
-111
-22
-15
77
-14
0
-91
5
14
18
-42
37
11
-40
-1
-77
-30
-19
48
106
-67
-73
59
91
-91
-45
-54
-6
-42
-89
-13
-113
-42
-21
-75
-9
41
-93
-82
-94
-62
6
-11
12
-27
53
-31
65
63
-95
-125
116
70
-64
-107
-127
12
0
-50
34
21
16
109
-9
-29
-7
17
-7
-21
-38
32
1
-49
5
-71
-4
-69
25
60
-55
54
93
32
66
10
-32
-83
-20
-100
7
76
9
-4
49
-10
67
-54
-16
-52
16
-16
-22
-6
-127
-48
-61
-13
-48
31
-61
-60
-58
-42
-58
24
-38
0
-22
-22
-116
-56
-10
73
-22
-95
-75
83
-9
-23
73
35
13
-127
15
-57
5
-10
39
44
-45
-9
17
1
-59
-40
-42
-99
-3
-43
-6
23
82
-54
55
32
-33
-32
-7
-46
40
4
17
-36
41
-6
-28
115
-36
-2
-22
-48
-29
-16
14
-82
-35
-84
67
6
-20
-37
-24
-52
-34
-25
-51
50
-48
-98
17
-17
31
49
-72
-67
-52
127
38
-4
-25
-82
-19
28
-15
3
-17
-48
-40
9
-14
62
78
-50
-46
5
-33
-81
-72
-28
75
-47
-13
-26
-97
-51
-127
19
-39
-62
-54
26
26
-41
-5
-19
20
-58
-83
-90
5
-69
2
-11
-18
10
-38
-96
-21
-17
96
-52
19
13
-29
-8
-28
-17
10
-53
-38
3
-46
-55
-16
-127
-62
-5
-40
-39
-52
-83
-47
-35
16
-21
43
-65
66
-74
-62
-95
-58
102
80
29
-89
-23
-40
33
70
-47
-3
3
-51
-43
-40
79
28
-70
9
-8
9
-32
-39
-29
1
-37
-64
-52
-32
53
-15
-37
-24
54
-36
-78
-50
-60
-50
-21
65
-37
32
-41
38
-62
-23
-71
-28
47
-81
52
-48
-43
64
-73
13
-127
-97
47
-10
64
-68
-84
-54
-61
-68
-45
-30
-69
-16
72
-12
-32
58
-4
34
-39
3
-23
4
11
-20
-25
-2
-20
-9
-39
-32
-8
-29
-39
-1
127
-35
20
-30
-19
-5
24
11
-37
-105
14
37
-44
-51
-32
-57
-62
-31
27
48
-29
-53
18
-49
-55
-29
-30
47
-15
20
39
-24
35
91
-42
-17
22
-127
-9
-34
29
-49
-5
-57
-5
-26
-75
-66
-36
10
-43
-111
-58
20
-6
-8
67
-27
-48
63
-92
99
60
-42
-50
-11
18
-85
-67
-28
64
22
98
-60
55
-54
-8
31
-20
16
-5
-10
-36
-20
-15
7
-19
-4
13
5
10
6
-4
2
-12
10
-20
-63
-4
-22
-18
-11
-28
11
-19
-40
55
23
-7
-45
-13
-35
-5
127
8
23
21
-2
-35
-20
-8
-13
-14
-4
-117
23
110
-53
-68
-77
-51
-31
-34
13
-66
20
88
22
-71
-32
9
13
127
-28
2
83
-69
-11
14
3
-58
-66
-58
-56
-44
-29
-47
23
-63
-31
-51
64
65
18
26
33
-71
-20
-43
-21
-9
-42
-43
101
-28
-81
-30
16
-4
-13
-94
-27
-26
21
-33
-57
27
55
-48
31
30
11
-69
-54
-7
-66
1
24
13
-63
63
-79
-87
-84
23
-47
22
-59
23
46
83
-64
-29
35
-66
29
33
-127
-53
58
-43
38
-37
32
127
81
10
-27
-8
90
-44
-16
-21
-54
105
48
-16
41
25
74
-45
71
-37
-40
-29
-45
19
-37
28
27
32
30
52
82
49
19
-21
-75
85
34
-24
27
-48
-16
-25
2
65
-16
10
-58
-52
-88
3
-70
38
-80
24
-23
18
-5
20
-44
-52
-57
-30
-12
-98
-28
-63
-40
9
30
0
2
-37
-109
-41
-90
-23
-65
-78
127
22
33
-59
-65
15
-39
-52
43
-32
-16
-28
-112
77
20
-20
-2
-9
-17
-13
-51
98
-29
23
-31
11
-5
14
-15
-3
-22
-44
-45
-31
-30
-39
3
-79
5
-25
-27
20
-26
-29
15
-65
-25
-65
-32
16
-11
22
17
-7
-1
86
20
-41
3
-16
-127
-9
4
-59
5
125
-43
-114
-46
110
73
19
34
-43
-63
59
127
18
64
-1
14
-99
-125
70
-119
4
43
-42
-73
35
-37
0
45
77
-66
13
122
2
80
-12
-14
46
-41
-21
-65
91
-105
64
25
-27
-40
-20
-16
5
-21
-5
2
-16
-28
-14
-22
12
0
-37
5
9
-33
8
-21
-6
37
-15
-6
-37
6
-7
-15
-10
-31
10
25
-18
-9
-28
-5
-25
127
-21
-21
10
-5
-19
4
-19
-5
-6
0
2
27
11
-13
-2
-113
-61
-1
7
30
108
-52
-64
24
6
-59
5
-73
-52
-31
69
1
-3
-18
-64
-38
-33
-105
27
14
-10
59
-127
109
-110
-71
-69
-48
41
-34
-42
22
-122
-4
29
-41
-69
-34
-47
-13
-26
-22
26
-26
-31
-3
-19
-45
-20
-50
-13
-18
-55
-64
4
55
-85
-39
-30
-21
3
-43
-60
-18
99
-22
21
-40
34
-30
2
-47
-50
31
-37
-11
-94
-66
29
-19
-60
11
-36
127
-25
-23
-113
-20
-97
-74
-61
-101
-69
3
24
63
-33
-18
-100
-64
-5
35
88
-25
-16
-34
-76
25
5
-127
-70
22
-27
-100
96
-13
27
16
-44
-22
-16
-37
-8
81
67
-39
1
1
9
-106
-28
20
-71
-3
31
-86
42
-85
-15
32
113
0
4
27
-74
-14
-35
-22
-13
2
-12
39
-63
35
127
40
-58
-14
-20
-84
-41
-91
-56
-47
5
9
5
30
-100
96
38
30
-45
-72
-21
-63
-66
-16
-72
-53
-1
-48
-58
-3
-108
-49
-38
-105
42
-89
-53
18
-16
-57
38
-45
7
-118
-48
-94
-46
-68
-33
-1
98
-69
-127
48
-35
112
17
-40
-76
-81
26
116
-115
3
43
26
-98
-65
-20
-72
30
-83
76
-110
-73
37
-70
46
-31
-51
-75
-67
-19
-1
-70
-18
-30
-39
-101
-55
24
-7
-4
23
-50
0
-43
27
34
-5
-45
-48
59
-60
5
-14
73
14
-67
2
31
-18
-49
-33
-51
-57
2
-52
120
31
19
-127
-55
-21
-54
14
14
-48
8
-64
13
-72
7
30
-103
-11
27
-61
-23
-34
-55
16
-37
-20
-71
8
21
-18
-127
78
7
11
53
-45
32
-51
-18
-11
-50
-105
-13
49
-7
50
-41
-56
55
-38
-17
-10
-54
-36
-67
14
-28
-27
60
11
20
-15
-27
93
-27
-1
-127
-8
70
-17
-86
-25
64
78
-37
-13
-123
37
28
-68
-28
-126
-107
-95
-50
-71
-62
23
-52
6
-33
-24
-25
9
27
-111
25
-16
20
5
-15
-14
4
30
-75
-10
-58
22
83
-93
-100
-43
31
-89
-46
-21
-43
-46
-64
-22
9
-29
-8
82
-103
-56
-37
-86
-38
-127
-23
-96
51
-50
16
10
-24
16
-37
85
40
24
61
28
-49
-87
10
-27
-65
88
-47
-11
-6
20
4
-73
20
36
-9
-2
-45
44
-22
35
1
-17
-5
44
-2
35
-7
3
-43
-14
21
-6
25
3
31
-42
-36
-44
-17
11
-127
-8
-16
-41
-51
-54
-16
16
-27
-17
1
-12
-15
-28
-9
12
104
79
38
-32
60
12
-35
-17
-26
-29
-103
-68
-76
37
-127
29
16
50
55
-76
74
-82
2
-99
-5
91
23
-57
-116
-45
74
36
-62
9
19
-31
9
-2
-7
68
-66
-14
-26
-58
-75
-36
-48
-50
103
23
77
-42
61
-72
-41
-44
-27
-1
-36
35
47
-73
-109
-40
23
-127
-47
-44
-46
-22
-35
-19
22
33
-16
-49
-60
91
-103
27
-65
23
-21
18
-34
9
-64
71
-26
-5
-35
-39
55
-70
-36
-55
-38
-57
-50
-28
120
-17
-37
-36
-63
-8
-68
-5
-13
-20
5
-106
2
-40
37
52
-38
-15
-64
-29
73
127
13
-47
-74
-74
-69
19
-91
-42
73
-59
-14
2
-35
-24
-45
24
-48
-48
-16
-42
-31
20
-28
-24
-44
-69
127
-19
-20
-10
-21
-13
-36
1
13
-23
-36
-10
27
16
9
49
-61
-47
-2
-34
31
13
-26
25
4
37
22
-38
-53
-9
-26
-35
-39
-32
3
2
-28
-21
-43
-50
-38
-9
-26
-6
39
-88
-1
-102
42
-3
-15
77
-5
-46
-1
-46
8
-110
-60
-21
38
-59
28
-29
29
-74
14
-30
-3
-23
85
-1
-50
7
-20
54
2
22
-16
4
-91
-66
15
76
-127
-22
-2
-35
5
-14
51
-26
-40
127
-26
-18
-30
115
-2
27
-27
58
-29
-28
84
-4
-42
-114
-54
26
69
-37
-52
11
30
-50
-80
-9
-44
-12
-63
-23
-13
11
0
29
-62
-54
-76
4
-27
118
-27
100
-72
17
35
2
26
35
-9
-39
-26
-57
14
9
8
-127
1
-44
-33
-87
56
-64
-67
-5
-26
-39
4
-30
12
100
29
17
-4
-7
48
-44
-46
46
-41
20
-87
-76
-91
-37
-60
-59
-4
-56
-89
-31
-2
-8
-61
-69
-48
-68
-39
18
-61
-4
-16
-49
-72
31
-43
-27
-52
-17
-19
-5
14
54
-35
-34
-10
-12
-21
-4
24
-36
-15
-21
-8
-34
-30
-37
-59
-19
-67
-41
16
-23
-44
18
14
127
-44
-14
-20
-37
-40
10
-40
-70
-20
-70
2
-65
3
-92
-29
-18
-20
-65
-55
-89
-67
-105
-55
-21
-37
25
67
-83
-75
-50
65
-24
93
48
28
0
-43
-45
-66
127
-45
37
11
112
90
-49
1
-18
-28
79
29
-13
-71
-37
-120
32
-51
-22
54
42
-82
-18
-16
-75
-20
-8
19
-53
29
-65
-125
-46
-5
-16
-19
-91
101
2
123
-8
-73
-16
-91
2
-36
-90
-107
-10
-127
-9
12
25
63
-74
9
33
-59
60
-7
-63
-39
-80
-23
-33
32
-23
42
-102
16
28
120
-43
-18
6
-43
18
-33
-12
-63
-29
54
-47
-24
-5
-62
-62
7
-15
8
-66
-26
39
127
23
-94
-76
-62
12
9
-30
-35
-70
-35
-39
-26
-3
-37
-46
58
-59
-46
-60
16
-2
7
-17
39
19
-54
46
21
-65
-110
-59
26
-79
-117
-18
-21
52
-38
-9
-33
-42
-67
-15
-52
127
-73
-30
32
-83
-9
8
-55
66
47
-109
-84
49
-20
-5
-43
-61
-42
11
38
-100
23
-3
-12
-15
6
-73
-45
1
20
-37
-97
-58
-27
-16
0
-52
-6
-51
22
-35
-21
19
0
127
29
26
-12
-62
19
-69
37
41
-25
-9
-20
-32
42
-36
-77
-61
2
-23
-37
32
57
-17
-43
-49
-20
-11
-4
12
-45
-35
-22
6
55
-95
-20
74
-43
-33
-34
-2
-1
-49
42
-28
-8
-11
-9
14
-21
-2
-26
-56
-35
80
22
-52
-127
-6
-90
-46
-2
-36
4
21
-19
-41
-27
34
-17
-20
9
-20
-19
12
-42
59
-67
-3
-3
-56
91
86
-43
-25
-127
69
-31
-83
38
-71
-82
2
-90
-3
-122
-85
-18
-34
-89
-34
-38
-33
-82
13
73
-64
-118
-33
-80
-39
18
26
-24
-8
-79
108
65
-86
50
-43
-62
28
-30
-45
127
21
-40
-67
-24
-24
-8
3
-53
-42
12
-74
-16
47
-42
-28
6
20
-102
-8
-16
-11
-52
-15
-19
16
63
-38
-16
-5
-58
-46
-21
-43
-34
-47
-8
23
-41
-35
-88
-49
-67
-27
-2
73
-82
-26
-91
-32
-5
6
69
38
7
-46
-19
38
-51
42
39
-10
-13
-35
-9
-127
-1
-34
-15
-25
-45
-8
12
-19
-34
-39
-15
-99
-37
-22
-86
37
6
-56
-42
-8
12
-82
-87
-38
-47
-79
-16
-35
30
12
-78
-19
-16
43
-101
8
-67
3
-18
16
127
-59
-26
-39
78
5
-2
-42
-18
-14
-12
-31
-33
-45
-58
33
9
8
46
-3
-10
-4
-76
-16
-29
-28
17
-14
-37
-13
34
-102
28
36
-13
1
28
109
43
-113
65
23
-10
-24
-39
-51
2
-7
127
-91
-111
-9
-27
44
-9
-92
-30
-32
-1
-53
-79
54
-83
8
61
-47
-119
3
-61
45
-57
-80
-37
29
102
110
-9
-35
-27
-41
61
-43
-41
47
-72
112
127
10
63
-20
-93
-55
-84
66
-9
-36
-46
0
1
-51
-30
8
-28
35
-54
-3
92
-14
5
67
-62
-61
-72
-3
-88
-11
-69
-94
54
-10
60
-8
-50
-71
-96
16
10
-20
-11
-55
46
-125
25
-36
-106
4
-30
16
-57
10
-12
127
-44
81
10
-67
36
-80
-25
121
-100
-1
12
-8
18
-34
-57
24
-20
-39
27
18
64
72
-82
59
-29
-4
-87
-51
-48
25
24
-23
34
-24
48
87
-65
54
29
33
-30
-59
-28
-22
-2
-36
-6
-11
-42
1
27
-15
-21
35
-49
-10
13
7
25
20
-14
-14
-3
62
-34
-43
21
21
-37
-15
-29
-43
-30
-19
9
1
-67
11
127
11
-18
-23
-1
-43
53
34
9
-4
-3
-60
-23
31
32
8
11
-8
-55
-28
-32
-4
-13
-36
-24
3
-36
-57
127
24
50
-14
-14
-5
-33
-21
2
-28
-34
-29
-38
-16
-7
-19
-78
-64
-36
-22
63
-23
-49
-65
2
3
19
6
38
-127
-3
-43
-14
-11
-88
-7
-44
10
-99
-51
10
23
-12
-35
-12
-88
-78
-54
9
-5
37
-21
-43
44
-12
-45
28
-118
-46
-56
-14
-11
-27
86
-89
-58
-79
13
-26
24
-70
-13
8
-110
-19
-19
-38
-38
-18
-62
-40
15
37
-61
-90
73
-59
48
-43
-11
33
-39
-22
-52
-7
-8
45
54
-107
-27
-90
-20
89
68
80
-89
-127
-26
-87
15
-11
3
33
-28
6
-63
17
-33
-34
-53
54
-4
-25
-67
56
-87
-79
-127
-2
-21
-46
-67
-81
-30
52
-28
-12
-125
-31
120
-48
-82
118
-8
-13
64
-85
-76
-26
-84
18
58
-55
-83
-10
8
-104
-56
77
-35
-106
-34
-21
-4
-4
0
-23
-63
-86
21
-10
11
74
-36
-1
-70
-13
43
34
-63
58
-6
-47
-9
-36
-43
-64
-54
-86
63
43
-19
2
16
7
-46
27
11
-82
66
9
10
-39
11
-23
-1
-41
-33
-127
1
-15
-45
-111
-18
71
-31
-84
-63
0
3
-29
-34
30
-8
-74
-64
29
9
-127
-64
-22
51
0
-21
-42
-28
-65
-14
-44
-27
-8
-15
-17
-19
24
-29
-27
-17
-10
-7
-11
37
-21
-21
-35
-14
16
-4
-35
-47
89
-37
-43
-25
20
13
16
-11
-107
-16
-24
-13
70
16
-59
-67
-51
-69
6
-52
47
-44
5
16
16
-19
6
20
-76
-86
82
23
98
-2
-74
-64
-35
-13
5
121
-116
-58
0
-12
-21
9
-17
11
-79
-30
-36
-49
-52
-127
21
-70
-57
-2
31
-4
-46
17
-53
-67
-86
-5
-2
-14
-6
-25
22
30
50
2
6
-44
-107
-11
-16
-25
-43
-62
-51
127
-46
-66
9
-10
-11
22
29
-8
-72
11
-30
-11
-48
10
-73
18
-41
5
56
-4
-22
-59
-30
-63
-7
-27
-1
10
-4
-26
-24
-60
28
-3
13
27
-18
-3
-64
8
-3
-31
37
-2
-5
32
-40
13
76
-48
8
-4
-53
-11
-35
-17
-39
-57
-76
-15
127
-30
-4
87
-21
-90
-36
16
-87
-41
-107
-76
-6
-52
-35
-54
-54
-26
20
-127
-16
-59
-52
-104
-12
0
70
-76
10
-15
-86
52
-101
-102
83
-5
-41
8
43
23
-4
-77
-52
57
-101
-44
-18
22
36
-18
15
35
-15
-70
-112
30
14
-58
-16
-71
-12
-87
-48
14
-80
-50
16
-51
7
-113
5
-72
-35
-43
-47
-45
-57
84
-62
-54
-51
-9
-45
-37
103
2
-119
-52
-127
-44
-16
-52
64
16
63
-43
52
-6
-27
-22
-43
75
-37
-3
-29
-81
0
-121
-59
-53
-31
49
31
-51
-103
-41
-118
-24
-60
-1
12
104
77
-52
81
-79
16
-50
22
-15
-85
-72
-20
-114
-123
-5
-18
67
-6
127
-39
39
68
-28
-5
27
-37
-66
41
-47
-51
-16
-61
29
-66
-92
-74
-7
-38
-78
-81
92
-3
-127
73
10
-4
-88
-65
46
68
-31
-76
-10
-24
-90
-95
4
-45
-45
55
-89
48
53
-31
4
7
19
-34
25
-8
-27
-18
-4
-41
-54
-29
-31
-39
-47
4
-16
9
35
-19
-11
-33
-14
14
-45
-56
-35
38
-11
-46
13
-7
-13
-30
10
-96
30
-24
-15
-58
-72
5
19
6
-31
-50
-41
-17
-61
-13
-35
-16
127
-29
-23
67
-57
-26
21
-8
41
-2
68
-12
-44
-85
-92
-68
-14
-77
9
-31
-25
-72
-28
-71
-8
-35
-63
22
-71
-43
-60
-95
13
-13
-14
-28
112
9
0
5
-70
-9
-21
-68
-58
7
4
-1
-64
-30
-56
45
-50
-62
127
-33
15
-34
66
4
-43
8
21
-2
3
-6
-15
-25
-21
-66
-22
-1
-16
-57
-89
-56
-10
70
-23
-127
-23
-22
90
-20
-39
-25
10
31
-67
-39
77
-24
-7
21
-51
-38
28
45
-50
-39
-30
-21
-1
-35
46
-43
21
-37
-8
1
-91
-46
-48
-8
-61
-11
-14
-52
-3
-46
-25
127
-64
-50
-69
-31
-8
6
-3
-30
-47
27
-29
-2
-20
-77
28
-15
-8
-80
83
-77
43
-47
-30
23
-19
20
-3
8
-32
-23
46
-48
-26
-3
34
-32
40
-43
-28
-40
-53
-15
15
-91
31
49
23
-28
-32
-32
-7
-2
-9
10
8
21
-8
-1
55
-30
-32
-10
16
-87
-42
-20
-36
-53
85
-16
127
6
6
-48
-31
-39
-20
16
-77
17
15
82
-119
-32
-42
-20
-6
-39
-30
-71
-52
-87
-59
-127
20
-12
34
40
96
-28
-31
39
-74
2
-32
-7
79
-25
58
-21
-122
-43
2
-27
18
-79
-70
17
13
15
-90
-39
18
-50
61
-77
-77
-46
29
-21
-26
35
50
-43
-26
-37
-103
-1
-40
-11
-93
37
-10
-27
-8
-21
90
-42
-29
21
10
-40
19
-55
-95
80
-38
33
76
-15
-10
-103
-8
-73
-10
9
56
-94
43
127
-32
37
-27
-9
-23
-49
-24
-48
20
-56
-91
-97
2
112
127
-113
-126
29
73
-44
-88
-13
-70
-36
-90
49
4
-31
68
37
3
-59
-105
-2
-10
-74
-4
-47
-74
-96
-102
-18
-49
-94
-10
-87
107
-16
-70
-23
-75
-74
51
-51
21
-56
4
9
-5
-20
6
29
-25
-39
-19
-107
55
-55
-6
-35
-10
-22
-47
12
-84
-103
49
-27
4
-46
-69
-79
16
-73
-18
-69
-127
-92
-96
72
25
69
12
-49
-36
-46
-61
-8
-44
-38
-100
-48
-61
-32
48
-15
-127
-81
-94
-78
66
-94
25
-58
-99
23
-84
-11
-63
-55
-56
119
-7
-66
-70
47
39
-60
39
49
-5
-101
56
-8
49
-52
-57
-96
21
-58
-65
-39
-59
16
2
-27
-79
-2
21
-6
28
17
-8
-37
-84
-39
34
-5
-50
-60
127
-39
-80
5
-35
-76
-33
-24
-33
-13
-29
-77
-8
-22
-23
-42
-44
-55
-28
12
-5
-13
-37
29
-21
-59
-34
33
-46
24
-22
-31
-3
-12
-79
42
-49
9
117
-29
29
16
-11
-24
-68
100
-27
-24
-4
-15
-9
-33
-32
-15
-23
-20
-17
-17
-19
-59
-46
-25
-23
12
-24
-44
-24
-5
-45
-80
-24
-27
-37
57
-13
-50
-22
-28
29
-23
-16
26
-40
127
-59
-39
36
-30
58
1
-106
-25
11
-52
-1
-49
16
31
-71
-36
-39
-73
-44
127
-39
-39
-10
-33
-37
58
28
-29
-25
50
-46
-39
-63
-108
20
-24
-6
-92
2
29
-33
6
3
-43
30
-11
-55
-61
9
-8
17
-18
-19
-6
-63
-28
-61
-27
2
14
-15
-84
-91
19
-41
-33
22
97
-67
-55
71
49
30
1
23
11
-1
-91
-33
-51
-51
-84
52
-127
-80
-60
-35
-4
26
-10
19
-45
7
-108
-7
4
34
44
36
-62
-56
40
-54
-14
-99
-51
-33
-46
-53
22
-42
-16
-15
-45
-18
-79
-17
-67
-23
86
1
-73
-50
56
-33
-61
-56
-17
-12
-52
3
-40
-47
-95
-52
-75
-30
-89
-6
-50
15
-7
-45
94
37
127
18
44
72
36
-38
5
42
-69
-90
-15
-73
-36
55
-22
0
-66
-57
27
127
-7
-70
17
-31
48
-41
-56
45
-2
-101
-5
-50
-17
-26
-88
-12
-16
-27
11
-8
-105
-10
-33
1
-37
-71
-6
21
-47
4
-53
-22
-6
1
-16
-38
7
22
-27
-80
32
-4
108
16
-8
49
-34
-4
-59
-7
-28
12
35
36
-75
48
-36
-87
16
46
-24
-59
-127
32
-2
27
-22
43
-63
-3
97
-45
5
-29
-26
69
-77
4
-16
-9
-10
-92
-27
-14
13
-74
0
-36
-58
-40
-7
-81
-21
16
-32
36
-93
-18
-86
49
10
12
-25
43
-50
-73
38
-61
17
-46
-39
-20
83
-72
46
-63
-15
-25
-85
3
-30
-34
127
-20
-65
75
38
-59
-46
-17
-3
40
-72
-47
-80
-9
-41
-11
16
31
29
-104
37
-50
-57
-15
4
-55
-10
-7
66
48
127
-3
-29
-12
-50
-44
-30
49
-17
-28
49
-67
32
-72
-21
-54
-127
-66
-23
-26
-34
-64
-1
-23
-87
-56
10
121
62
-84
40
27
-38
25
-60
0
36
6
-63
-10
-31
-28
-73
54
-47
-4
-51
-119
-69
95
-48
-23
20
56
-29
-65
127
-63
-49
-62
-5
-7
5
-65
-6
-31
-17
79
-84
57
-6
8
-21
55
105
49
-23
22
-31
127
88
47
100
-21
-82
-91
50
19
-12
-39
-54
18
36
-11
-76
-94
3
-13
-82
-58
50
1
-26
66
-54
-51
-60
-57
-37
-37
-61
-28
15
-39
22
-49
3
-8
101
16
65
-108
83
98
10
8
-96
-39
116
17
-81
-90
-85
-63
7
-3
87
-60
-78
1
49
23
32
13
-43
29
-63
-42
-96
51
-72
-59
-26
-73
-127
-70
-29
-49
-40
14
-64
-48
-77
-22
31
-43
0
-75
42
-22
-53
-44
80
-76
-60
57
7
-42
-41
-19
-3
-39
-42
-57
13
38
-33
-30
75
-19
-38
-32
-2
-17
-58
-106
52
65
-66
-17
-2
104
-22
-36
-36
-7
6
-127
-44
-25
-26
-38
-42
56
-80
10
45
6
-77
48
-53
-72
-122
103
-114
-18
-28
4
4
-6
14
-1
-22
-50
-6
-53
40
-35
-7
11
35
-41
-26
35
-9
-50
-85
9
29
-127
-10
13
-21
-3
57
5
13
-12
-47
-45
-40
2
-16
-22
-25
-9
-14
49
-30
31
-9
13
-21
-37
-6
39
-23
-13
-2
-33
-20
-23
-53
-28
-21
-79
-1
-53
-17
-71
-25
22
-44
127
-46
19
-53
28
-49
25
67
-18
16
3
-69
-14
-29
-25
5
-64
-54
-19
106
-1
51
-62
48
2
127
31
-86
-91
42
-26
49
-110
-93
27
-46
122
-113
6
-66
23
26
79
1
42
-66
-54
93
-59
38
64
42
-88
-72
-55
57
-60
-12
-126
-58
26
-28
111
69
90
-43
-2
57
-74
-51
-30
-22
-75
6
-20
-53
-11
8
45
0
72
-32
58
-35
-12
-6
6
7
-99
-39
-42
-17
-127
38
-53
-21
59
-44
-75
28
-15
-66
-34
14
65
-4
-51
28
-37
25
-52
-61
-23
-25
-10
0
-23
-1
-7
-1
5
-2
-11
-28
-22
0
-13
12
-10
-18
-26
-1
-19
6
-3
-6
-21
-13
-12
-9
2
-39
-23
20
8
-13
-2
-27
-8
-6
-51
6
6
-25
-28
0
127
-25
-23
-12
16
17
9
11
-26
-37
-53
64
-46
-77
-12
-80
22
-42
-127
-31
-5
-20
-32
-55
-48
-31
-21
-4
17
-34
-31
-48
-24
-23
-46
-46
35
-14
-47
-50
-11
-52
-28
-31
-31
-64
-13
23
10
-34
-12
-43
-10
52
-38
-41
-62
-32
-18
-38
-28
0
-49
-1
-22
-2
-75
10
31
1
-66
-36
30
-66
15
-19
-41
127
-14
-25
-64
-76
-31
5
-28
0
-35
-1
-10
-7
60
-52
-43
9
39
48
-20
-68
-55
-34
-1
22
11
-8
-21
28
-21
-23
12
83
-50
-48
-44
-28
16
-31
23
-35
127
-35
-44
-4
-100
103
21
38
-93
-64
-21
-60
28
-59
4
-124
69
-47
25
-63
1
79
-108
1
-20
-41
-43
-70
-33
-56
-9
-42
55
-48
-17
-6
-80
23
-40
-37
127
3
-41
-57
-43
-76
-6
-57
-63
-43
-48
-28
-32
-3
-35
-11
-39
-50
-31
-10
57
-38
36
-54
21
45
-41
12
-30
-47
-30
-71
-29
-22
-32
-94
-2
-11
-66
-41
-86
49
-39
47
-123
-31
-79
74
12
-127
25
-7
3
-17
-28
-32
-102
-59
-50
8
79
-59
40
-98
-6
-19
7
-102
-2
-93
-54
-92
38
56
1
-13
-14
48
-91
22
-45
-56
-31
64
19
15
100
-9
19
-6
17
-24
-68
36
-107
-16
-8
-57
-86
10
35
51
25
17
-118
-3
104
-69
29
-27
21
29
-90
63
-32
-31
44
-51
-18
-127
20
-18
-30
-36
69
-8
-49
-1
-23
-11
-18
-46
-52
110
-24
-30
23
50
30
-52
12
-47
15
-127
-6
-85
13
-33
-18
-9
-35
-11
-34
-1
21
7
-69
102
-68
-59
-44
57
12
12
69
-24
29
-34
-29
65
-30
63
-4
46
-42
52
0
-24
-20
-12
-6
-13
-27
-36
-47
-69
-104
7
14
-53
-86
21
-28
-62
-13
-11
-20
-54
42
110
-58
125
-6
-49
-23
-113
-127
46
35
-79
21
-5
-6
-66
-36
-24
77
-18
65
-112
-9
69
-84
22
-39
-48
3
14
-59
-65
-88
-10
-44
-35
-68
-71
38
-50
-44
0
14
-2
-73
-4
-88
56
-56
-84
127
-53
-75
-34
0
-14
9
21
-39
21
116
-26
6
27
-54
-30
53
-19
-40
-23
-35
-63
-19
19
-16
-1
-61
-29
-68
39
35
-41
-23
-17
-18
-62
-27
-24
20
-77
-42
59
-23
-28
-102
-3
-28
25
-57
-15
21
22
27
19
-94
19
-23
-8
-33
45
-99
-74
9
-50
-8
-7
90
-40
-14
-25
-5
60
-45
30
18
-51
127
1
12
-26
43
-79
-83
-22
4
-3
-34
-50
16
-12
-33
46
-52
28
31
-56
39
-45
-43
-37
32
-31
-37
-39
-72
-68
4
70
-67
127
-32
-94
13
34
-39
17
64
-11
75
-44
15
-13
-49
104
6
5
96
2
79
-32
-101
-104
49
2
7
-19
-4
61
-36
-127
-41
-55
-60
-10
-29
8
-32
-82
73
-44
20
-68
-69
11
85
-21
-48
-67
43
-44
-40
-31
-13
-24
1
-54
-23
9
3
-33
-25
71
-91
30
7
40
-57
-8
-55
119
-27
-83
-87
-78
-49
-55
-20
-19
-14
31
9
34
-4
-35
-44
-39
23
76
-127
-68
-2
-48
-72
-79
-85
-63
22
-106
24
-25
-11
14
-36
23
72
-20
-56
-29
51
30
44
-56
14
5
-35
34
-126
-84
-35
-11
-59
-44
-67
-78
-3
4
-19
-78
-22
-101
-21
1
64
-70
55
-39
-7
3
-14
-55
12
-90
-82
-68
-52
-56
-1
127
-62
59
-39
81
-9
-61
-53
-45
-51
-100
-48
-2
-61
49
107
3
-26
-14
-67
36
-72
-22
50
9
30
-105
-15
-73
-28
-29
7
95
-54
10
75
-2
-26
-127
-16
-8
56
-40
-19
37
-18
-25
16
20
-41
-67
21
-60
2
3
-21
-64
-43
1
28
24
-88
-9
-9
37
-35
-12
-17
-40
-24
-36
-3
-67
-22
113
-37
-72
-19
-19
-18
-127
4
-73
-50
5
-46
16
-30
30
10
47
5
80
-43
-72
-60
2
1
21
25
-36
55
48
-40
-70
54
-18
-31
-9
8
43
-21
-13
-1
-11
-10
74
2
-1
39
-24
127
-5
15
-23
-52
-29
-47
3
0
9
1
28
-19
-21
-40
30
-50
-2
-61
-7
6
-69
-37
-13
-14
-45
-43
-14
-42
3
-85
-15
-30
-64
-53
-29
-27
-20
31
-21
18
-42
-33
4
-63
33
21
-12
-77
-21
-69
-72
17
99
1
-1
-18
-38
-37
59
-56
23
-17
-47
6
30
-57
41
-3
-11
-15
-127
-17
-20
-18
-37
-26
-65
19
33
-17
40
-81
-46
59
61
66
-61
-117
84
-19
-31
-36
-33
62
-15
6
103
-47
23
-101
-54
-18
-30
-42
-43
-26
31
-72
9
-41
17
-36
-127
-68
42
63
-41
-1
-43
-5
-23
-68
65
-30
5
12
-25
-52
102
-62
-4
-12
-47
39
-34
-9
-2
-25
-21
11
37
-44
-11
-28
27
3
-33
-41
25
127
-39
-46
9
-45
-29
-10
14
-24
-29
-56
-9
-69
12
9
-21
-39
-63
-20
-4
34
-33
-29
-38
24
-32
9
30
4
8
-9
-18
37
-106
-62
13
6
27
-44
-38
11
-127
-23
13
16
37
-46
-8
61
48
-62
-19
-25
-9
-87
-26
-27
-2
-54
-57
-62
16
-76
0
-32
52
0
16
-18
36
-83
-47
-14
2
-16
-5
-45
-76
-28
60
-14
-43
25
-10
12
-16
-9
-63
-13
8
-23
-75
-77
-28
-19
29
9
127
-72
-9
-21
-6
25
12
4
-21
-18
-74
36
-12
1
-6
-32
-9
-29
-47
1
-53
31
-39
16
14
47
-9
-23
-7
-69
26
-94
-14
-34
-52
-50
-101
-13
-72
-42
-59
57
-96
-49
-11
-75
-38
8
-25
7
-16
-63
-39
7
-27
-50
1
-83
61
-46
60
47
-13
-71
39
-49
-27
83
127
-36
-26
-57
-48
5
10
44
-2
14
38
-50
-20
-76
-52
5
-46
-20
80
-52
-16
-71
-27
-28
-49
-51
-23
-55
-36
-47
-21
-4
-74
0
79
11
41
37
-57
16
7
9
-127
-62
70
119
-59
-55
45
-53
-46
-11
-44
-12
-13
50
-15
70
34
18
39
28
42
8
-64
24
-41
6
-62
1
16
49
-25
6
72
47
127
-50
-50
-44
-37
-97
-10
-33
-22
15
-17
-30
-4
7
-57
25
27
6
-70
-40
16
-87
-40
2
-43
-15
7
1
-4
21
-127
-86
62
10
-6
30
-24
-70
-52
-74
-82
0
-42
23
11
120
42
-6
-79
84
64
-22
-5
98
30
-77
70
-13
-39
-27
-100
-39
-62
26
-28
-51
-66
-83
-16
-86
-94
53
-29
16
-84
-42
-27
-76
14
20
0
-91
-22
31
36
78
-127
-88
-31
40
2
-42
28
-85
-51
-89
53
-70
-98
42
10
71
-52
-46
107
-67
-81
-122
15
7
-127
-105
-121
14
61
-127
-28
-75
81
-23
-38
-52
-111
-63
-72
50
-25
-32
108
-18
-37
25
-24
-81
-61
-12
6
-25
-26
-20
11
23
-36
-13
-35
-43
-127
20
6
80
-23
-11
-50
31
20
-95
8
-50
-39
-34
-19
5
-17
47
52
5
15
-33
23
15
-30
0
-2
71
-87
11
-84
-34
125
14
-24
6
-105
-12
-38
2
-87
-35
-7
-58
-14
-26
10
96
-54
-22
-81
-42
-4
-5
49
24
-14
-94
-52
84
-47
-127
-8
99
-28
-14
-78
43
-52
-63
-20
-69
-28
-42
-39
-30
-5
12
-8
-32
-33
-21
-19
-13
22
9
-15
-28
-56
5
-14
65
-16
-18
-45
-36
-7
-24
-24
127
-50
-22
-40
-5
-36
-23
7
30
-47
34
-31
-61
-22
-21
-58
-16
-4
-46
-72
-1
27
21
-47
-7
-31
-21
-30
2
-31
-9
-57
82
-26
-58
-20
25
-10
-26
-48
-51
-21
127
-38
-71
-100
-20
66
-87
-31
23
-31
-118
-83
71
-64
61
-75
-42
-9
32
20
-15
-39
50
-31
6
-86
-14
44
-107
25
-55
11
108
-14
43
-69
75
-1
15
-82
-55
-127
-106
-84
34
22
-34
3
-57
4
-36
-42
-64
-59
-52
-85
-1
3
88
13
-19
-53
-61
-4
-34
-64
-62
-80
-51
-15
-57
-34
15
19
-82
6
18
85
68
-29
33
-19
-33
-41
16
-67
36
8
-37
4
7
-33
-58
-26
-11
0
-9
-74
37
95
18
30
-33
13
-12
69
21
-9
-23
-33
-50
-21
-33
-21
-94
-44
-89
-12
-66
14
-127
-33
-20
24
-10
-41
0
-123
7
14
-91
79
-30
-45
3
-126
-30
-77
-1
-81
6
17
-84
-50
-57
58
-34
-84
64
-67
-14
-127
-66
-47
-41
-95
-49
-69
-45
-58
-51
85
-76
-2
41
-22
59
-57
13
-20
-34
-67
-7
-7
-64
37
-52
27
27
41
0
-4
59
-39
-62
-63
39
37
16
16
-114
-2
83
32
-34
-55
-7
-53
-95
-127
-27
-59
76
51
-73
15
41
-3
-18
14
-92
12
48
40
80
-91
19
-10
30
-8
-34
-78
77
-53
-82
64
-44
-43
24
127
-62
-76
-50
-113
-47
-68
4
-49
-32
-33
13
-1
-45
2
4
-40
-39
-40
-95
5
82
-11
-8
-21
52
-46
8
-22
-43
-8
26
41
50
-30
-46
-4
-83
3
-62
2
78
-17
-10
40
-64
18
27
-80
-43
-47
-44
-127
-32
121
8
-39
73
-34
-42
2
39
-88
-43
57
-18
-9
43
-5
43
46
-101
-82
-22
-91
-88
-9
13
-61
-3
24
-107
-14
-43
-36
-48
-55
-56
-5
-48
63
-6
127
-7
27
-40
-31
-33
-47
9
-24
-37
-92
-39
-41
-41
55
30
98
-30
-10
-11
-41
-104
21
-72
-38
-33
-106
13
-19
-31
-50
4
4
0
-12
-35
10
-45
-48
10
-18
10
24
-38
-14
-37
12
65
-42
-37
-18
42
-68
-9
-87
-127
-14
18
-12
-58
-47
-65
2
48
34
-34
-65
52
-9
46
-43
-64
9
-36
20
11
51
33
-21
9
-25
-35
-46
-54
-20
-81
-56
14
11
-64
73
-38
-14
71
-57
-48
10
88
-25
21
-20
27
-34
-61
4
-14
-13
17
-28
-20
-63
-6
34
117
-24
27
-32
26
18
-18
27
29
5
12
127
31
51
-3
-45
38
-67
37
-8
-75
27
66
28
-49
-68
-10
39
-28
23
16
-52
-37
-32
-22
-33
-91
-27
7
0
-46
-3
-31
-17
46
-17
-2
33
35
-61
52
-54
50
2
-22
27
-17
38
54
-17
-39
-27
-36
-14
25
21
-33
-66
-57
66
52
-7
86
-44
-127
-19
-83
-31
49
14
4
21
-32
22
-82
-37
94
-43
-24
36
-35
-17
-61
-27
52
65
16
-38
7
35
-1
-127
-108
15
-63
-1
-54
12
15
-27
-6
22
1
-12
23
31
9
-42
-60
23
-40
7
-3
36
26
-14
-35
97
10
-42
11
-16
21
-35
15
6
-24
-32
-17
-35
-127
-75
-29
-20
72
16
-61
-39
55
52
-36
-42
-34
72
11
-22
-18
-72
-28
-50
28
-24
4
-19
-58
-14
-3
-14
14
-30
-60
6
11
-23
20
-10
-71
-90
4
-12
42
-11
5
-16
-9
-36
10
4
-56
-33
-19
-3
-23
-23
-14
-38
24
-29
-30
-42
-84
22
40
-37
127
-35
-28
0
16
17
-40
-23
-34
7
-41
-54
-58
-16
-15
1
-30
-13
-2
27
-15
-20
42
95
-55
-29
127
-76
49
-32
-46
-29
-35
-71
-67
62
-28
-67
48
2
-4
-29
-56
-22
49
27
-50
-106
-71
-40
-25
5
-2
-40
-40
-77
-53
19
-23
-9
-10
35
-49
-40
124
-22
-32
-47
-57
7
87
81
66
12
-7
-10
-39
-45
-19
-33
-63
10
-56
16
-98
-18
-112
10
-10
17
-42
36
-71
-33
-56
-10
-27
0
-23
-45
9
16
-54
-65
-36
3
-30
-127
-68
15
-84
24
-9
-5
-52
50
-98
-24
-50
-29
-103
-104
-96
-92
-3
-44
-50
50
14
-45
9
-2
-5
-83
-61
2
47
-9
-3
-60
-78
-83
16
-51
71
-127
53
82
8
33
3
47
40
25
43
28
-34
40
-19
-81
6
61
-85
-2
-93
-33
21
-11
-39
-15
-71
-67
6
-30
-85
-50
3
21
-84
-45
1
-40
11
77
-41
20
9
-65
-127
52
-7
-111
65
-22
76
-81
-64
5
4
-86
57
-69
-44
-14
21
-9
-14
54
-4
-54
-18
52
28
-39
-60
-30
-78
-80
-57
-50
-6
-44
-42
-19
56
47
66
-9
-88
20
12
-50
-107
-23
16
-69
125
-52
-94
-38
26
-49
-51
-54
-23
-127
54
1
104
0
-11
46
-109
127
-24
-5
54
1
4
2
-37
-14
-2
-11
-58
-26
-33
-55
-40
9
-36
3
-36
-48
-8
-22
-65
-47
-43
64
73
-8
-123
24
-13
-76
-37
18
-13
-37
-44
-45
-60
-41
-29
31
-23
127
77
34
-50
-2
-54
-58
-78
-60
-3
8
-32
15
3
-12
-23
-4
-47
-45
-32
-16
-14
-2
6
23
-42
-3
-127
-42
-44
6
-2
0
19
54
-44
-28
-43
-27
-72
-75
-8
-37
-63
-75
-61
-36
-15
0
64
-28
13
-33
50
-36
55
-8
-15
42
-18
32
-10
47
1
-27
-26
4
-23
-21
-63
-13
19
-81
-27
-3
-27
-32
45
-15
-23
15
-52
-16
-24
-40
-13
-72
-24
-7
-12
-34
9
-29
-100
-33
-39
-32
15
-39
127
-29
60
-77
54
95
-60
-39
-5
-127
-8
-42
-13
18
-25
-71
7
-15
25
-73
-20
-23
-40
-44
112
-68
-27
2
-17
114
-11
51
-3
4
-22
-17
-38
-72
-83
8
29
-14
-52
-73
3
-29
-53
-42
32
-98
-9
-18
-33
39
51
-59
-31
-13
35
-19
-22
9
-48
40
24
-57
-57
-10
-11
42
-90
34
-97
-34
-3
9
-35
-51
32
-43
-6
-17
-13
8
-46
-41
-14
72
-31
-47
-12
11
-14
26
2
-127
9
-72
-62
54
-17
-54
-68
-21
2
-7
60
-34
53
3
-77
35
-2
127
-16
-7
42
38
-35
-30
16
-52
-27
24
-10
-21
5
16
-9
15
6
-8
-24
-24
10
-64
-18
-41
-5
-23
-8
24
-41
-58
-14
-64
-13
-12
-20
-54
-33
29
-87
-24
-48
-31
-12
-15
71
2
55
-50
-61
1
-29
-34
4
-78
1
53
-67
54
1
-71
-15
-41
-61
-102
47
-53
-65
-83
-39
49
-127
19
-63
22
-35
40
-35
-43
-77
34
-95
-9
-75
-13
1
-89
-78
47
-3
-60
-63
32
-31
-92
35
-49
-87
-18
85
-32
-37
-42
-30
-37
23
-44
-85
18
-38
-56
47
34
-56
-56
76
-33
-20
38
-76
40
-127
-71
72
-44
-84
43
24
-13
-82
-93
-13
52
-37
5
39
-21
-57
-60
-10
15
-28
-54
-16
7
-15
-44
-58
-54
-43
-37
127
-3
-16
-49
-74
85
-44
-12
-20
-46
5
-5
-63
-80
-8
46
10
-12
-67
-27
-31
-11
-64
-42
16
14
58
-34
127
-60
-28
-14
22
-29
4
-4
14
1
-3
12
-3
-48
17
-7
-24
-4
-28
-9
47
-75
-20
-10
-17
-8
-44
47
-19
-7
-1
7
-25
-14
-34
-57
15
-9
-69
25
-32
-3
-32
-6
10
-45
-6
-14
13
-88
90
-6
-11
-11
87
83
-62
13
66
-20
-51
-6
-65
4
-98
9
12
-20
-127
101
-8
68
-43
-81
-48
-26
108
-32
6
-47
-49
-117
-22
-58
5
-16
-29
24
21
-53
-77
-21
-39
6
-67
-43
49
-34
-74
19
-35
-49
-69
-93
73
-56
-12
-37
-8
-39
-43
-4
127
-13
9
-28
124
-70
-38
-60
-8
-77
-96
-88
-59
-65
-95
-81
52
-16
1
-101
-49
-14
51
14
-62
-95
-64
-9
-40
-44
5
11
3
31
27
75
-27
25
-52
-83
-14
-33
-38
-56
-81
40
-42
55
2
-34
18
32
-35
-18
-13
-81
36
-53
15
20
-110
-23
44
2
-40
-73
-93
-43
-12
36
44
-127
11
-39
-8
2
5
75
-41
126
4
-16
-28
127
-16
-28
-19
-9
-17
-21
-53
-24
24
-65
-15
-53
-27
-87
-17
-10
-34
-37
19
-9
9
19
-5
-64
-34
-26
-43
-69
91
-23
60
-71
-17
-59
-69
12
1
-1
-20
0
-3
-19
-63
52
18
-44
79
-23
-35
103
21
-28
-40
-26
-63
-127
-10
-37
-71
-49
-32
-41
-33
36
27
-68
-6
-74
61
-54
9
-29
-84
-14
-12
17
-4
-47
42
5
-8
-17
-33
-47
-43
-14
-46
-43
19
-3
-3
-49
-57
-33
45
-118
-14
-106
-59
68
-30
-35
50
-48
-11
-41
-73
-40
5
-50
68
-71
-78
26
-50
-43
-41
-22
-12
-79
-3
-87
-5
-94
20
-94
-91
27
-19
9
103
-34
71
-42
-19
78
-44
38
-127
-12
57
12
-71
42
-75
37
0
-99
21
-22
92
-50
-30
-120
-54
-31
-26
74
82
38
-60
73
76
45
-73
81
-87
32
-59
-35
17
-58
-65
-97
-29
-89
-127
-35
-20
-76
76
58
67
-17
-7
117
-26
-6
-29
-37
-2
26
-6
20
-4
-7
-37
-1
-10
-7
8
-14
-38
-23
-16
-40
-13
-1
-31
-7
-25
-14
-9
20
-6
0
7
-15
-21
-35
17
-44
127
-71
-12
-52
-43
-27
-6
6
-7
-12
-11
-35
69
-32
-97
-77
-15
-3
-55
-47
-37
89
11
-53
10
-58
4
-11
-27
-8
39
-127
110
-45
20
47
20
-83
-56
-28
-38
-115
79
65
-52
-10
-5
-57
25
35
-89
-73
72
-48
-43
-2
-94
-47
71
13
-113
2
-64
-71
-34
-10
-63
5
-66
-38
-69
-65
-25
-16
-16
7
-82
-63
-31
43
-47
-26
-11
-46
9
-8
-37
-58
-28
8
0
-30
-35
-23
47
-31
127
-25
-28
-54
-31
33
-24
4
-3
-29
-38
-38
27
86
-11
23
-73
56
-62
-71
-119
-15
-19
-27
-10
-110
15
-62
127
-101
54
43
-84
-47
-12
-89
-81
-38
-121
75
-30
-62
66
-63
-117
-37
-18
-105
-41
-39
18
-104
2
-31
-26
-19
13
97
-23
-19
13
90
28
-27
14
-1
4
-38
2
77
39
-127
-28
-52
15
-75
-16
20
-31
-39
-9
-62
-28
-99
-38
40
-4
-25
-98
-18
38
-72
4
-6
8
-73
-23
-10
-19
-24
-26
-17
8
-18
18
14
-47
-75
-97
-33
-36
-111
-46
27
-35
-25
-52
-7
-7
-83
-1
-73
-76
-15
2
-106
56
25
-90
53
-12
-26
117
-41
-27
127
-25
-112
9
-118
-82
-73
-13
-53
-114
-89
-42
-91
-21
-86
-24
-35
-15
-38
109
-24
-102
47
-44
0
-30
-36
-61
-14
-15
6
-19
-38
-20
-4
-20
20
-22
-3
5
-15
-60
-32
-5
-6
-14
-18
-29
-40
-1
-21
11
24
22
-31
22
-53
43
-28
127
12
-39
-1
4
-9
-15
-38
3
-37
11
8
25
-54
-1
18
-11
-3
0
-47
-11
-71
4
-28
-26
-28
-26
-38
17
-40
-3
48
13
-3
68
-127
59
70
-44
-20
-23
-31
-38
-45
-27
-14
-48
4
-48
-6
-10
-32
-6
-21
-37
-10
91
-14
-88
-84
57
-31
-86
16
-98
-2
-60
19
113
-127
-92
-32
-68
-69
35
-5
-72
-30
-44
-12
-5
-4
-41
-11
-50
-10
8
-29
-66
-62
109
21
-61
-15
-60
-34
-35
2
29
6
-17
102
-50
-65
46
-29
100
-33
45
26
66
-1
-35
0
127
-47
-28
-45
-13
-3
30
106
-17
-24
-20
-35
-14
11
-47
-16
-24
1
-19
-16
-12
-26
0
28
21
-51
-23
-35
17
-9
-16
-34
-41
-17
-1
-31
11
-24
16
-21
-15
7
-21
-64
40
-118
-35
7
94
32
31
-69
-37
-120
-87
-24
10
-21
-4
-127
-14
80
-54
9
-74
-10
-17
39
-61
-44
29
72
-30
-39
-31
-32
-10
60
-41
-42
-13
-53
60
-31
14
24
-99
11
4
-1
41
-17
-56
7
-38
-65
-32
-17
55
4
-32
-10
-50
27
-24
-79
-39
27
-15
-35
-10
4
15
1
5
27
-11
-88
-11
28
-20
-36
-30
-36
-19
-2
127
0
-34
58
-24
-20
17
37
12
-27
-13
27
-17
-56
-61
-5
45
-41
-34
63
-86
-65
29
-55
45
-58
-8
-122
-18
22
-18
-47
-1
-56
-41
49
-42
-48
-53
127
-36
-8
-99
-111
68
-78
-83
-57
-58
-83
-28
36
-12
-23
-34
34
-46
-85
-37
-27
-13
-12
11
21
-42
13
-5
24
-61
-12
-59
3
11
54
-120
-55
-37
-39
98
-5
27
7
-27
-103
-7
-43
-14
15
-11
55
-35
-3
-57
-127
-65
-28
-20
49
30
30
-21
-19
-22
-26
-40
-33
-32
-19
30
-23
-13
-43
-9
-24
-52
21
70
-19
27
3
31
-32
-28
7
-19
-70
-5
31
20
-7
-23
-6
-18
-39
-87
16
34
35
-19
-127
0
-23
-29
31
-32
-10
28
-52
-19
8
0
-69
-32
-79
-61
-49
-18
-56
56
12
27
8
-32
-27
-18
35
1
11
27
-17
16
-12
16
-60
67
28
-25
-50
-24
-34
-45
5
-4
-63
-9
44
18
27
-50
-127
-68
-64
-93
-95
6
76
-46
-24
-25
-4
26
-16
22
-16
32
-29
-57
-54
-54
-52
-67
-53
0
-66
-60
-24
-25
-15
-127
-62
-74
8
-53
-41
4
14
-85
-18
-33
-7
26
-12
20
-43
-89
-10
80
33
37
-31
-85
13
-39
-91
-32
58
-2
6
-68
81
35
116
-65
-21
-103
-96
-19
-94
127
-32
-14
0
18
-114
-109
-85
32
44
97
27
-86
15
-77
-20
-28
-27
-5
74
-116
-7
-61
-20
25
-77
3
-51
88
-69
-39
5
46
-28
-9
-77
74
-5
26
76
-77
26
22
-35
-55
-127
17
-61
40
-40
-40
-55
-35
56
-7
9
-27
-95
-13
-35
2
45
-41
-71
-92
5
-50
-34
-44
-85
-68
-106
-10
-51
-6
-68
98
-97
-28
21
-35
4
-3
21
-61
24
-56
-33
-84
-50
-33
-49
-19
-63
-81
-36
-37
-28
-26
-33
-11
-12
-59
-38
-28
-10
58
-31
-4
70
-15
11
-127
53
9
46
-5
-22
21
42
3
-68
-48
-61
-24
-45
-15
-80
9
-26
-12
-65
-33
-41
9
-22
-46
-29
-36
-73
-47
-14
-33
-87
83
8
-109
-20
-92
-40
11
35
60
-38
-12
64
11
-13
-48
-51
-49
35
-56
-71
58
9
59
45
-32
-16
-26
-125
65
49
20
-49
46
-45
-7
-25
-3
4
-60
1
127
-26
-50
79
66
-110
-89
-75
84
-34
-104
-88
14
-65
-53
-11
49
-127
-28
4
28
-35
-71
48
-13
-44
27
-49
119
41
-63
0
68
-53
-51
-44
5
-86
-37
-18
-40
-33
68
-82
53
-59
-92
-60
-22
-113
117
61
-8
34
-54
26
21
-48
35
-105
-69
-11
3
-19
-32
-27
-51
-17
-45
-13
82
-49
-105
62
-6
79
-34
-19
35
-100
42
-59
-78
-93
24
21
-80
-106
-65
-127
-112
-5
78
6
-62
-34
42
-32
-37
-32
15
51
73
72
-52
-20
-60
-68
-42
-37
56
-70
-64
-8
42
35
-33
44
-43
12
-39
-88
-90
45
47
-79
17
-2
-91
-26
-28
-82
-24
-53
-25
-64
2
-30
-33
-105
-3
30
127
1
-79
-70
8
-24
17
22
-14
-65
-46
-55
-38
-47
-38
-36
-50
59
-32
-56
49
-58
-34
34
-56
-51
-13
58
4
12
39
-80
-28
-47
-9
-31
-78
-24
-127
-21
53
-48
-36
24
-5
9
77
-41
14
-18
-59
2
69
-111
-71
26
-32
-40
-58
-69
84
-26
-64
0
-44
-24
-26
-53
46
-56
-33
-19
-21
-13
-33
-20
37
-56
3
31
-2
4
-20
35
23
-127
-73
-12
16
28
37
-37
-66
-33
56
-18
51
50
25
-25
53
-10
-42
-26
-91
-14
-43
-7
52
44
15
-62
-11
-10
-49
-24
25
40
5
-9
26
-60
-24
55
7
-58
-47
-20
-53
-2
-12
-55
25
-44
-64
19
-46
-59
-42
-32
27
-25
127
14
65
-37
1
-33
-2
-22
24
-70
-15
-2
-34
127
-10
43
-11
-34
42
10
-46
-23
-14
4
-34
-51
-17
-84
-50
-32
13
-12
-48
29
-10
-20
-35
56
9
56
-16
-31
62
3
9
-12
113
-14
-15
31
88
64
-5
45
51
-91
-62
-15
-127
-16
41
-39
106
-82
-95
-73
-16
-87
-86
76
92
-12
-44
-82
-27
-31
-44
50
36
-6
-57
-50
-15
49
-51
35
-31
0
-59
-50
19
-40
1
1
10
-2
3
16
78
-86
-28
-53
14
-90
-26
-24
-118
122
-15
-126
71
-65
-41
-79
-7
-64
-14
-22
50
-55
11
-19
-63
-127
-8
-68
-118
53
27
-30
-101
-107
106
-113
-78
8
-79
119
-57
-36
13
13
-19
-78
35
14
-64
-94
-8
-27
-31
-34
73
32
-70
-23
50
-6
-82
-8
14
9
96
-71
-31
-108
3
8
-101
-85
-64
20
89
9
-42
-47
-61
-13
120
-1
-64
-127
-19
-46
-50
-20
-47
65
-43
-112
-44
18
42
56
-104
13
-59
-71
17
-43
-57
-70
-94
-127
-8
-29
-39
-15
-48
-50
39
18
22
-20
-62
41
-77
-58
13
1
2
26
32
87
-46
3
-77
30
-26
-5
22
-84
25
64
78
5
-28
-24
-77
-37
-6
-5
-16
-99
14
28
-67
-68
-4
-43
-24
-28
61
-11
-19
9
-25
-25
1
-59
45
-94
45
33
29
-60
-18
-5
-39
-32
-18
-32
96
-14
45
-93
8
-56
5
-49
2
-48
-67
6
-19
-51
74
-1
-41
-127
61
-4
-65
-39
-7
-80
-82
56
-10
-26
-5
-31
-28
9
-8
-10
41
75
34
29
54
-66
16
-39
42
-57
-23
83
-42
36
29
-23
-49
-18
13
-4
24
-87
-16
-127
17
78
8
14
1
-91
-43
7
33
-33
-51
-19
-17
-27
-27
-31
-69
127
70
12
-39
-54
38
-26
-14
3
6
35
6
10
-39
-81
82
-52
112
-10
-55
2
-11
-30
-11
-65
-56
-37
-31
-41
-18
-7
-9
-32
-10
-60
-80
-12
-19
-44
-53
-26
23
-43
115
-80
47
20
102
-50
-58
-87
60
-3
-17
-122
-49
-26
-82
7
-106
-8
-106
-73
-101
-41
-29
19
-23
-92
47
89
-12
-104
59
-62
83
-77
35
28
97
44
-127
-93
63
23
-19
-54
-25
-109
-79
-26
-50
48
22
32
-12
-50
21
-36
-56
-63
-28
15
-43
-45
-43
-69
-22
54
55
90
-75
-51
127
-1
-46
-4
-48
-46
6
-52
30
-73
4
-39
-13
-35
-84
-101
-117
51
-32
73
-57
42
-62
50
-26
-42
-13
-17
23
-72
89
24
-52
-16
-22
-15
-88
-76
11
22
-19
-6
10
-67
74
114
45
7
-75
-99
-85
-32
-109
-63
11
-6
-51
29
-18
-127
-32
2
93
66
0
-60
-70
-80
-22
-15
-65
-29
-42
62
-28
16
-47
-3
47
7
16
-15
-14
34
-51
-17
11
12
-84
-18
-58
27
13
-13
-64
8
-15
-34
-43
-40
-7
1
-30
-23
58
-127
17
-99
37
-31
-45
-25
-3
-21
-64
-7
-2
32
-5
57
30
-16
-28
-15
0
4
-59
-27
-59
-48
-37
-56
-32
17
-13
-29
-127
16
-5
-46
-38
47
-35
-11
48
-30
12
-66
7
-29
29
19
-15
-31
-29
-68
-48
-70
-44
25
18
38
-35
109
6
-19
-2
13
11
-19
-20
-89
-30
-25
1
-15
-52
-7
-16
-50
-2
-10
-58
-19
-42
-24
-91
-15
-47
-27
-3
7
11
-5
-14
-49
-70
-127
-65
-40
-26
-29
83
-68
63
-110
10
-23
-4
12
-49
-1
-15
-127
-56
-20
97
-65
22
-37
-24
127
-67
14
-54
38
-10
-32
-51
-35
-31
-31
-7
-31
52
-13
-14
-14
-10
19
-35
-36
-14
16
-2
3
22
-76
-55
0
-28
-44
-27
-27
10
-47
-47
-3
-50
-16
7
-20
-70
-7
0
-37
8
-28
-15
-12
34
-16
4
-19
49
-90
34
-7
-2
-6
-41
-127
2
-9
-4
-79
-52
-6
-46
15
-1
-59
-5
21
-54
7
3
-37
8
-36
7
-26
6
39
-16
42
-25
-11
0
13
26
13
-20
-1
-39
-53
-63
35
-2
13
-60
69
3
-41
77
-25
-91
-27
-83
-4
11
-6
70
-24
-58
1
-127
43
2
-103
-36
-6
-21
14
37
-50
-34
-77
32
-45
-50
-24
-37
-28
32
-85
-45
33
-47
-35
12
53
49
-35
127
-36
-61
21
-38
11
-37
26
29
-30
-36
-22
-65
-29
2
-26
3
10
-59
-41
-33
37
-54
0
41
-16
-34
-20
-9
2
-94
-42
35
-20
-25
5
-83
-22
-14
-5
-15
-32
-45
-23
-23
-74
95
9
2
25
-61
-63
-6
83
-4
29
-20
23
-58
29
15
6
6
-78
-31
40
10
12
-28
59
-57
-39
-19
38
27
19
-3
-28
-90
-42
-33
-70
-17
36
75
-127
-6
99
-58
-51
35
-58
14
50
-13
46
-2
-44
-22
84
-49
-24
-114
-40
-56
-49
-21
-64
-2
-49
51
51
-86
55
-69
-87
-49
91
99
-48
89
-89
-28
-94
-47
-37
3
-80
-32
-40
19
32
-31
35
4
-64
4
-5
67
1
-1
-127
-127
84
16
-6
-38
-27
13
-87
-83
-50
-58
-41
28
9
14
26
-53
38
94
-24
-50
38
-104
34
-95
14
33
41
-57
-100
57
-72
-12
-86
-21
-126
-20
-39
-48
11
38
-48
-29
-39
-71
50
-25
-28
67
18
-97
-10
-63
-48
57
-45
-69
-37
127
-58
-90
-45
-36
9
-60
-21
15
27
-27
-32
13
10
-12
-4
-55
-100
-15
-75
-18
-59
14
-62
-25
-44
-112
17
-81
31
-24
-91
-28
26
-81
36
-114
36
-76
-26
28
20
-68
-59
4
30
-5
-34
-55
4
-40
-17
27
15
-57
41
-67
-42
-127
34
-30
38
4
92
-48
32
27
-34
-21
31
-40
-42
15
-52
-12
-33
-45
-79
-48
51
31
-97
-33
-2
-22
4
21
32
-70
3
-61
-61
-43
21
-42
-55
-75
-19
2
-33
18
62
20
-27
-29
-12
105
-29
-57
19
-30
-62
-7
70
20
-33
-8
-126
-8
-37
-78
40
-32
44
-24
-32
19
25
-94
20
-29
-81
-127
17
-55
-46
-48
108
-111
-9
-51
-39
-4
-62
-64
-57
39
73
-127
-2
-57
14
-50
-16
-98
-15
-39
-77
-90
-67
-44
-51
34
12
49
61
-49
-34
-24
-99
-60
32
12
-20
65
-29
-8
-48
34
-102
-30
-24
-112
-68
-35
-118
-56
-8
2
-31
59
-127
-50
-86
-54
27
36
-60
-39
-26
65
24
-29
-18
37
-63
-54
-29
-54
-60
-50
-70
-74
-70
1
-49
-42
57
-36
-90
7
100
-10
-8
12
-9
79
46
29
-91
-23
-11
-14
-26
-34
-43
127
-38
-63
-56
-55
-42
1
-43
-13
-37
18
7
-61
-15
53
3
7
-7
12
47
-14
31
-45
10
12
34
-8
-47
16
-11
44
1
1
-36
-55
9
12
-34
-42
-46
-10
0
-7
-6
-15
-10
-13
-2
-6
16
-7
-1
-12
-21
1
-6
-3
3
-17
-15
-20
-7
7
-47
-14
-21
-16
-8
15
0
-23
7
-1
1
-16
-14
-7
-25
12
6
-17
-31
-11
7
127
-8
-3
-12
2
-21
39
-1
-21
97
-19
-33
-33
-17
-26
-40
-20
-30
-26
-48
0
-19
127
-25
-44
-10
-37
2
-44
11
-26
-31
-11
43
-14
41
-19
-24
9
-12
48
-65
-18
-36
4
-42
-10
-27
-17
-19
-29
-9
4
0
-5
12
-25
-68
-106
-3
68
22
5
-52
-67
-40
42
-39
-12
-71
0
-14
-81
25
66
5
40
12
-70
-40
10
31
-75
-28
39
-14
127
-76
6
8
-78
29
-48
-92
-127
-88
-77
-35
23
-59
56
-17
-5
-43
-47
15
-105
-36
-19
-8
48
-116
-51
-8
-31
-46
-22
23
-21
-12
-45
-47
-9
29
-69
-67
19
-63
-18
8
-30
41
-8
-36
-60
-120
-69
0
-27
46
-42
-33
-56
127
-27
-9
79
-54
67
-31
19
-77
-53
49
-41
-14
-38
-23
-19
-50
36
-36
-18
14
-31
17
7
-2
-8
44
14
127
8
-60
-28
44
-23
-6
10
11
-39
-24
-13
-9
-6
-18
11
-17
-10
-67
-17
-34
-70
-42
-33
11
-54
58
-17
30
19
-40
-67
28
17
-78
104
-38
-26
61
-1
4
-31
13
-7
-30
82
27
-37
-34
-5
-8
-43
47
31
-63
-8
8
-11
-49
-9
-58
19
-103
-11
-127
-13
-3
116
-20
-38
-56
-32
-24
-48
16
19
-79
-79
98
3
-33
6
-73
20
-67
-30
-39
-86
1
-9
-110
10
6
14
127
52
-47
72
-60
-54
51
-53
-20
67
-90
-112
-76
-86
-47
-45
-43
48
-23
-9
-94
28
-65
45
-126
5
47
-58
-40
45
27
-60
-16
-10
113
97
-44
-124
-66
-11
-91
13
-37
58
-2
-89
22
-38
-72
17
-53
-14
-67
35
-45
28
-66
-10
40
-7
-127
51
-74
-17
-59
-3
-69
-107
-37
-35
-23
-33
-7
-47
-90
29
-101
-123
-57
54
71
-84
-47
-51
-22
103
-53
24
11
78
-12
71
-29
28
-77
-51
2
-30
-57
10
-29
-36
-42
4
63
-37
-17
-1
127
-92
-33
-67
-11
-31
-57
96
-90
57
52
-97
-90
-105
9
7
1
-21
-54
64
31
-14
-47
29
-9
-10
-127
-45
-47
21
-72
-46
18
-35
9
-33
-7
-85
81
19
-1
-56
-47
-39
-73
-66
12
-66
-40
-29
-51
-38
-2
-14
53
-25
-92
28
-41
-119
56
0
-57
-37
-33
3
24
26
-38
-32
33
37
65
1
34
-53
-72
-34
-23
-108
-37
-78
-18
41
127
69
38
28
-107
27
-10
-34
-45
74
-54
45
82
3
43
33
6
57
-9
-38
-47
-41
23
7
-85
-16
-16
60
42
-46
-20
-19
9
-89
10
-68
61
-32
-48
-26
27
-82
-64
-22
-86
-19
-47
-37
17
-47
-48
127
93
32
-58
-26
69
-24
-68
-1
-59
15
-41
-52
-11
30
18
-58
-39
-68
32
-30
-5
-48
-49
-81
-45
-20
-98
-50
-77
-41
62
55
-47
-7
-127
78
-77
-64
-49
-48
44
-23
37
-8
22
89
-92
28
-30
-63
-64
-65
-44
-54
21
-46
-80
109
-53
53
100
-32
27
-77
22
-51
-34
-7
43
-22
-12
14
-78
57
-14
-127
-2
81
-61
62
20
-15
-31
76
-38
77
-52
-30
-25
-84
-73
-72
-68
-9
61
-43
53
20
62
-37
-39
2
-68
-87
-25
59
-95
-22
57
-43
-59
-59
-13
-17
-24
-85
3
-36
11
-87
-107
-24
-50
35
14
-20
-3
-18
43
10
-110
-63
-35
13
-47
-127
45
1
-12
-54
-86
-32
-85
-12
-76
-80
-32
-28
-30
-72
2
-59
-22
7
-26
-35
-49
-76
29
39
37
-24
104
-6
24
87
-72
111
15
-53
-19
-46
25
-26
40
-42
-64
-17
-2
-41
1
-38
27
-127
-7
-57
72
118
-9
80
7
-90
-67
-59
40
5
-66
-40
100
-3
-20
-64
-69
-77
-48
-33
-43
-33
-71
43
-14
-5
82
-66
-52
36
22
24
38
-3
46
-33
-12
-31
-59
74
-1
-22
-2
-85
-11
-43
-66
0
-30
-9
17
-24
-29
-3
-43
-18
-38
-72
-1
-34
23
-7
3
-17
-24
-11
-48
15
-17
-31
2
-34
33
21
-12
11
-57
127
-18
-43
-30
-49
-39
-15
4
5
29
-66
-33
-1
-30
-37
-71
-85
-68
-2
37
-11
14
-36
-47
39
-77
13
-36
83
-23
-17
-60
32
-53
-50
-58
47
-12
39
-33
14
-20
127
14
23
-17
-41
1
-43
-20
-20
-16
60
-26
-39
-17
-54
18
-56
47
-9
-26
5
-18
11
-14
-72
35
27
-12
-69
-6
-42
-28
-58
25
-34
-39
-28
12
-31
-56
-55
-75
-1
-21
-24
10
24
-10
127
-7
-22
-22
62
60
-22
9
94
-30
-43
-47
-52
-5
5
-90
-46
-101
-82
-112
5
-38
-24
24
-127
-84
17
-26
-19
84
24
27
48
63
-14
-25
-28
37
-23
-66
-101
-53
70
-111
-33
-82
48
46
-72
16
-44
1
16
-12
-55
15
23
-26
-14
-63
-48
-15
-2
-34
-17
-32
23
12
-24
0
-37
-24
-29
12
33
-53
21
-32
-9
-63
-13
-75
-2
-29
-36
-12
22
-28
6
-55
19
1
127
-55
22
4
25
-16
2
-25
-33
9
-9
6
-9
-7
75
104
53
5
-29
82
40
0
101
-8
10
-52
-14
-3
-100
64
-22
20
-55
-54
58
71
62
-86
25
-45
30
4
-30
65
-62
70
-78
-36
-90
-16
52
25
-1
70
-3
-84
98
127
-20
-19
-97
-69
-52
-17
-72
25
-49
-73
-82
-16
-1
-68
-37
61
-28
-26
-113
-77
-60
105
59
-43
76
40
78
31
-94
-56
42
-1
-96
-87
29
-44
-37
62
-72
-109
-72
-73
-127
-88
-32
-94
-14
-34
-50
-74
48
-20
-33
-57
-51
-33
-27
-90
13
-9
-40
40
2
-19
-25
24
-48
-55
-37
-63
6
12
-100
-55
106
-83
-31
-23
-23
-51
-25
-12
60
-31
26
-112
-53
-33
-78
-15
-24
-54
-84
-23
127
-23
-24
107
-57
-5
-11
29
-75
-100
-8
-66
35
-41
-34
-46
-60
26
16
-56
-43
-19
-75
78
-24
-36
-39
29
-8
-61
36
11
-21
-11
35
-42
-16
-94
-95
19
-35
28
10
-21
-17
127
-30
-30
32
-56
13
-15
-127
34
-57
18
-44
13
40
-89
-20
-2
-36
-25
3
24
44
-26
7
-8
-5
18
26
-28
-5
-50
49
22
31
-25
-23
-9
26
-55
-24
-9
19
4
50
1
-46
-44
-18
-65
-6
-68
-9
10
-29
-15
34
32
-55
-53
4
-7
-5
118
-10
2
58
-119
118
-56
7
26
77
-38
-74
-28
-5
-72
-82
-64
127
10
-20
-18
-37
-48
-28
1
1
-94
14
-70
-33
-24
-14
11
-47
-28
43
-18
-22
-75
-79
-48
35
-70
-26
-27
-56
17
-65
-39
-33
43
-11
-21
10
2
-9
-17
-58
-20
-55
3
-34
-58
38
55
-12
-30
-58
-21
127
-26
-72
-73
16
-57
-15
-30
-30
39
-32
-10
-49
-43
11
-23
6
-12
-39
-40
20
-31
-24
2
-37
24
-6
-18
-14
2
-29
-23
-39
-16
8
-26
-47
-23
-28
-18
10
38
-13
-53
49
13
-19
-31
-21
-14
4
-26
3
-4
17
-39
-39
26
9
-37
-20
-25
-42
-72
-13
15
-48
127
-1
-9
-81
66
-29
-51
127
21
-33
-6
41
-22
-42
-71
-30
4
-25
-2
-64
70
-40
-13
-44
-59
-23
-44
-8
-66
5
-72
-41
38
-18
36
-25
-41
-44
36
-48
-8
-68
5
5
-82
-56
-63
-14
-66
-35
-28
6
-8
-127
-13
-29
62
-21
-117
9
1
26
-12
-91
-42
-34
11
-73
-17
-32
-2
-29
-7
-68
-4
-9
-59
-11
-29
-92
-8
-7
-66
-54
-90
15
-57
-54
64
-69
-85
-1
-8
-10
-42
-48
-7
92
-17
-5
-49
36
47
63
-53
-35
38
20
11
-127
40
-20
-16
52
40
45
-31
-20
39
-54
-13
-47
51
67
-120
-6
24
16
0
-72
7
73
-7
48
-32
68
32
-27
77
-8
-33
55
41
73
39
111
6
61
-24
-91
-13
-23
-24
17
14
-40
-68
-110
-30
31
-42
-67
-63
83
-23
0
-51
-20
-4
44
-70
-47
5
-43
35
-42
87
-44
44
-25
-39
7
-40
-92
55
-1
49
11
86
-127
-20
-34
-81
-9
75
-45
-41
-74
73
-32
-55
-99
-58
-5
-32
-23
-14
-80
-72
40
-9
78
127
-86
-52
-6
-39
-4
65
9
-19
9
-21
-51
-14
18
-75
36
-36
-1
-87
71
27
-45
-63
11
-98
54
-24
-63
2
50
39
-10
22
-24
-23
-7
40
-49
-69
69
-77
-14
-39
-24
7
1
-18
-56
17
-22
10
-31
-15
18
-12
-89
28
24
2
-37
-23
-86
-54
-127
-21
11
-32
-10
-40
-59
-50
-82
-20
-49
23
-106
-55
-39
23
1
-54
-84
-8
-60
11
-94
-55
-27
-16
2
4
-127
-31
81
97
-2
13
36
-31
34
-23
0
38
34
-45
-34
-6
29
-87
53
-71
2
-23
-92
29
-8
-32
-35
35
5
-34
39
-94
-58
-44
9
-20
-27
-41
-122
-48
-16
-88
-68
-42
-29
-38
-53
-22
-24
-11
38
-48
11
26
63
-23
-71
93
-4
69
-127
-37
-39
-45
-10
-59
8
-46
49
-10
124
-48
-31
19
-12
30
-87
-64
-21
-52
-7
-32
44
46
-38
73
-112
-36
41
-28
-32
15
11
-5
-65
8
-59
-12
-105
0
36
-40
-50
55
9
-17
-40
-38
-53
-68
-50
-121
-127
9
-61
-38
36
9
-44
33
-55
3
-47
-13
-31
0
9
-37
66
56
-58
-26
16
-18
-41
-57
43
-8
-30
0
-84
-85
-37
1
52
55
-27
-3
127
54
-24
-11
-10
-37
16
-81
-36
-21
-6
-18
-30
55
-71
-77
-91
68
-22
4
14
-8
-24
-72
-53
-72
16
-31
-23
-85
-127
27
19
-16
-1
-23
7
-110
70
-74
7
-80
14
10
-37
-11
-56
29
-31
54
-22
-9
5
73
-28
-39
0
-16
-87
28
-3
-10
-50
-108
38
-38
-41
14
-73
-12
21
-73
23
18
5
-68
-110
-50
2
-28
-57
55
19
-14
13
-2
-34
-12
-50
-28
-5
-45
-15
-34
-11
-3
-26
30
-24
-62
11
6
36
-8
21
-26
23
10
3
-127
32
-18
0
26
-12
-11
53
-49
-6
-26
-40
-41
19
3
28
-3
50
15
-17
75
-96
29
-19
-37
-24
-107
-49
9
-18
-6
-15
94
-54
58
-59
-44
-76
-127
-40
-59
-11
41
52
-47
-16
-21
-47
-23
-9
-8
-38
-52
43
25
-27
-46
-18
47
-100
6
-15
-95
5
-33
36
58
-15
-78
-113
-48
-60
-43
-39
-125
-44
-54
-8
-29
56
2
-61
12
38
-70
16
-15
1
68
62
20
-102
-21
12
38
-127
-45
-16
-22
38
-103
-35
10
-66
-74
9
-1
8
-58
-25
-44
11
76
6
-56
-19
52
-54
-8
-51
-31
-19
4
-24
-23
-22
24
-86
-16
-6
-12
8
13
-29
127
1
-56
-20
29
-15
-28
-11
-63
-10
-49
25
-57
-43
1
-3
0
-38
-50
-16
-27
8
17
-50
45
14
63
-43
-57
78
59
5
-68
87
-73
-72
-43
-63
-65
-17
7
-8
-35
-21
-19
-75
-24
-73
48
-60
-49
30
33
-56
-73
43
23
-61
-32
127
-85
-44
13
13
18
-31
-1
-43
-30
-9
75
-9
-43
15
-67
-14
36
-41
-31
-6
26
15
19
-38
-21
-25
-20
16
28
-28
-24
-41
-16
-51
127
42
-45
-47
-34
-14
-9
-48
-17
-36
3
10
0
-24
-82
-10
39
-32
-1
-11
-9
-33
-3
-4
-13
-8
-36
-59
0
-25
127
42
-7
-30
26
-28
-38
-57
-102
12
21
-52
-43
-37
-66
-71
-9
1
98
-83
-68
-32
42
-30
4
71
-51
-11
-113
40
18
-36
5
22
66
-37
-20
19
-39
35
-48
8
-86
57
1
-41
-30
-31
15
96
-127
-32
106
60
-51
-30
84
82
-98
12
-59
-17
-52
72
13
-50
49
-57
-22
20
-14
-112
-5
42
-55
88
-10
-97
-32
22
-42
18
59
-44
-26
60
21
-113
56
-51
-107
-63
3
54
-44
-7
-60
-63
-106
39
-32
-46
62
56
-10
13
-115
12
-107
-127
40
-8
100
4
60
-24
9
75
-110
-37
41
-2
-109
-93
-50
91
-30
-13
-6
-43
-30
-99
119
12
37
-44
-28
-5
-7
3
54
-20
-23
-30
31
11
7
48
-42
-86
-84
2
-67
-60
-45
-95
-118
-89
-54
-88
70
127
-12
-45
-50
-10
-35
-39
77
35
-36
66
42
34
41
30
-49
-11
-20
108
-29
-16
72
-68
-60
-20
-82
-83
-44
-47
-67
-61
-50
30
55
-9
0
-64
20
-36
56
127
-61
-15
8
11
-86
-50
-95
-74
100
45
-7
58
-21
47
81
35
-89
7
-21
-121
-35
79
2
119
-70
67
78
74
-75
-46
24
-20
2
-23
-83
63
-36
-66
-28
-19
15
117
15
25
52
-38
46
32
-1
59
-1
-19
-12
3
38
73
-6
24
2
-12
15
51
73
-48
26
-14
-33
5
9
33
58
98
47
39
21
-111
-2
35
-127
-14
-25
-109
86
-20
35
17
-33
-45
127
-42
-41
11
-38
-61
-48
-15
-38
-28
-71
-49
-47
14
30
42
-21
-70
-80
18
33
-77
-66
-36
-27
-45
75
-30
-42
-2
-55
20
-31
-12
-19
-29
28
-50
-58
23
-51
-32
-14
7
-36
-12
-102
-48
-63
11
-38
-39
-68
16
44
-25
36
-28
73
-114
-30
-37
-6
37
-75
0
-107
14
-35
-22
38
18
44
-33
-124
97
44
1
-107
-27
-122
111
-22
-87
-98
-110
-30
-36
-87
-77
-28
-30
127
0
-5
-27
-8
-24
-41
6
-45
1
-30
-11
9
-26
127
-51
-19
-20
-63
-29
5
35
-40
8
16
0
-6
-11
-13
6
-16
-48
-16
-12
-8
21
-35
-3
-17
-54
4
6
7
-37
-13
73
-35
90
42
39
-8
33
13
-44
-54
89
39
97
25
32
-96
-14
-74
-50
-66
59
17
-60
72
45
-30
-39
-10
-56
-24
39
-42
55
66
-39
-127
-75
-65
-61
-4
-37
-61
104
65
-57
93
31
43
-80
-109
-15
-1
-37
-14
-45
-5
-64
-33
31
-24
-54
-98
-60
48
-43
-15
-43
-39
-42
39
-39
-12
127
-70
-20
19
13
87
37
-18
-83
-18
-20
-39
41
4
16
-48
-40
-42
-3
-58
54
-34
23
-31
-7
-57
-88
-34
-63
29
41
-13
31
20
-9
-107
-58
27
-21
13
-7
48
-104
-11
-90
-2
127
25
-107
-53
-26
95
-101
-88
103
14
-6
-42
62
-89
47
-114
-30
-104
49
113
-50
-59
-36
-67
-27
-36
-11
106
8
-6
-2
45
30
-20
-43
-34
14
-49
-37
-127
-26
-70
-30
-35
-17
20
14
-20
-38
-44
-16
-69
-4
33
52
-21
30
8
-20
-7
3
-77
28
-24
1
5
-1
-2
7
-5
-49
-17
8
-33
16
-62
7
15
-21
-16
46
-29
62
-43
20
9
-48
-30
27
-38
35
10
72
16
-18
-29
4
31
-21
1
11
22
-63
-30
19
-31
19
-45
-50
71
39
-127
30
-82
-17
-58
9
-18
-58
16
37
-37
-2
-24
14
14
-116
-18
-13
20
-44
57
10
-43
-84
-11
75
55
-49
27
21
51
-78
-48
1
-37
-63
7
-86
23
8
-60
-32
-51
-63
-127
2
14
-2
6
89
6
-38
-27
55
21
0
-17
18
-31
-3
77
-49
58
-17
-23
3
6
-127
23
33
-5
-56
30
-46
-33
-53
33
-39
7
-20
-20
-61
-20
39
-100
-75
-40
18
-25
-81
109
-25
67
-50
-4
-21
-24
102
-50
-1
-47
-29
68
-12
-16
-8
21
-52
51
-9
24
-75
27
35
17
-11
13
4
-2
-25
-41
-15
0
-22
-58
-34
-37
-84
-5
-8
50
-53
-51
-50
-30
-62
-13
65
-72
17
-62
17
21
-33
-37
-48
0
4
-30
25
-2
-19
127
-74
-13
29
-62
94
6
16
-107
86
-29
-44
-32
26
-8
25
-89
-24
-94
14
-68
-40
50
-127
-28
-63
-47
-46
-41
-20
-33
40
-17
-2
-39
-17
114
-21
-71
-78
-49
-19
-32
-56
-70
84
-37
-16
-8
-48
-14
-34
-4
-34
-8
70
-16
35
52
19
-106
-39
-78
-29
-117
-4
-16
-45
23
-23
-112
47
12
81
65
-127
9
-50
51
-43
-7
-27
-46
18
8
-20
-63
-83
-38
36
41
22
-5
71
118
-10
6
13
-52
35
90
-61
-8
-115
42
-47
10
-110
-31
-2
-39
-87
-39
-23
99
-50
-25
38
-29
-76
-23
12
-82
-15
-118
-41
-64
-109
-8
2
-59
-46
-22
-127
-87
-76
-73
-81
-8
91
-90
-56
-48
-99
-103
-43
-1
-63
-66
-94
-36
15
-41
-69
123
-17
36
-52
-68
-38
-105
-7
-25
-46
-4
41
64
53
-11
38
41
7
-27
-87
-70
87
59
-60
-3
38
3
-67
-63
-92
-49
-127
16
-23
-20
42
-71
-5
72
-12
1
-57
-103
18
77
-6
-31
-29
-45
-18
41
8
-39
26
-8
-26
3
30
127
-32
32
21
-21
-33
-86
-26
-53
-14
-24
-8
23
42
-8
-50
-3
-63
-28
12
-9
-55
-62
-60
-14
55
-17
41
-38
-12
30
-41
-26
2
18
-27
16
33
-47
-29
1
27
-47
-59
24
-24
39
-12
-52
-26
-50
-1
-39
127
-17
-32
64
-40
6
-26
-11
-14
11
-50
20
27
-45
-48
-56
-14
-43
-4
-12
25
-35
24
-10
-31
-76
-15
25
-40
-34
0
2
57
-57
-36
-11
36
-15
-13
36
90
-16
-42
-72
-30
10
-6
43
-14
20
-88
13
3
-35
-11
-33
-29
-67
-43
-127
-41
2
-9
-36
-57
39
-5
-1
-5
-82
-9
-25
-25
-36
25
69
-10
16
29
42
11
20
-74
79
37
-73
-49
-26
-37
28
2
-48
-13
-84
52
-36
-16
-103
46
-12
10
-52
-39
13
4
50
-59
52
42
-31
52
-77
-6
-1
127
-81
-13
-4
42
-70
-70
-33
-15
15
-44
-3
-76
38
-65
-10
35
-56
-27
41
-38
44
-74
51
-43
8
-66
127
-15
-5
-9
17
-10
106
-25
31
-57
37
-29
65
68
37
-21
5
31
48
-3
20
-39
-35
22
22
6
-13
-90
-95
42
19
-5
-19
56
-125
34
13
-41
-33
-16
-34
41
-37
-24
-43
-12
-43
-70
41
-11
-22
-33
-13
41
-71
37
-21
-24
6
-4
-5
106
-49
-7
95
-56
-24
-29
-56
-50
-43
127
-52
-33
-11
-97
-29
76
-102
20
-14
-69
-4
31
-62
-50
-48
37
25
-48
-91
-9
-75
-48
-46
-42
-26
-5
67
-127
47
54
-54
-22
-99
-11
-31
-79
-59
-47
-7
-108
92
-3
-124
-35
9
-80
-17
-69
53
-17
-61
-76
32
-116
104
-81
-60
61
15
-30
-109
-10
-98
-7
-28
8
-24
-96
-83
-29
-24
-8
-37
-32
-59
11
-127
97
-16
38
33
-20
121
-10
-61
-24
49
53
-74
57
-92
10
-92
-20
12
-96
-41
-72
52
-39
-55
-2
-33
18
103
127
-24
-79
17
-85
-29
-96
82
-22
-43
-59
-26
-55
-63
-18
-81
-61
-122
-47
99
27
-43
-25
-9
-73
55
-22
-24
-63
-70
16
64
-59
-58
17
-37
-49
-19
-36
42
36
-46
-53
-94
-68
-61
-91
-20
-127
-1
-29
-59
-113
120
-22
6
-111
-60
-12
-61
-42
38
68
3
-70
-47
-77
-19
-40
-85
2
-85
-44
114
-61
-47
-57
-92
-14
-33
-76
-34
87
-50
-53
40
-59
-10
33
-31
-56
-7
-13
3
32
6
-46
52
-101
-5
-71
-75
-40
-27
12
-79
-36
-6
-73
36
-21
-4
72
3
39
-66
-26
-31
-19
-82
-51
-18
-24
-54
-1
69
3
-127
-66
-40
-2
-31
-79
-114
32
-58
45
-49
8
-35
48
41
-28
-43
-21
-67
-7
-23
-11
-41
-31
-45
-2
-61
-66
-30
-24
-1
2
-37
77
25
127
11
63
-13
-49
-32
-39
-14
23
-76
92
8
-38
22
-51
-47
48
-41
-38
-64
-29
-41
76
-19
-11
-8
-32
-34
-42
30
-50
-29
4
82
-85
63
-9
-60
-127
-3
-33
-50
-19
21
110
5
58
-27
-47
62
-37
8
5
-26
44
12
-107
-59
-19
-8
-77
-90
32
0
59
-31
13
-40
8
0
47
48
-26
-87
-18
-40
4
-5
-83
12
7
-3
-19
-11
-22
-50
46
-68
-51
4
14
-50
-3
11
-48
4
-24
73
28
-127
-74
-83
-22
-64
-50
-63
-71
-37
-34
-9
27
-62
-38
-2
-99
-32
10
62
42
115
-30
-57
-54
-101
-83
-19
-33
-77
-51
12
-49
-25
-7
2
127
-100
-51
-69
-60
-38
-76
-57
-32
-51
-32
42
8
-48
32
-77
17
-46
-37
-60
35
-94
-39
17
-72
-59
-44
-76
-29
-83
-19
82
104
-15
-76
-9
-17
-67
-30
-34
-74
-59
-87
-16
42
-30
26
-74
-2
35
-13
-84
-23
127
-88
-58
-69
-23
-99
-57
-19
-39
-17
0
73
43
29
-36
8
52
8
-66
41
-62
-48
25
32
-91
-21
-37
-62
-1
-23
-15
-5
-61
-6
-56
85
-125
-60
-14
13
-86
86
-37
-53
-67
15
-50
-18
2
-8
-9
-51
12
-30
-53
35
25
-54
-71
78
7
-76
48
-93
121
35
-127
57
-36
82
-89
39
-67
-28
6
-74
8
-47
76
88
34
-5
0
26
-65
71
-25
2
6
56
-127
14
52
23
-30
70
-65
83
-17
-55
-76
-30
37
10
-54
54
-16
-93
-67
16
-9
22
-16
-19
-82
-118
-75
-82
-57
-16
-3
87
-7
-64
61
-100
-87
81
15
66
-46
24
-4
51
-3
-3
-20
-14
-20
5
13
-95
-45
-1
-12
-23
20
-37
41
6
-42
43
11
-16
-79
-7
7
11
-54
-45
-77
38
-58
-19
-42
-40
-3
13
-8
-127
-34
-39
80
-30
-13
115
-19
-31
-35
95
-77
-4
32
-27
2
-45
-32
-9
11
-46
-53
-17
1
-70
-30
66
127
-52
-19
11
-3
14
-38
11
-54
-105
86
20
-7
-43
-67
43
-20
45
90
-58
59
-1
-37
-54
-46
-30
-76
-80
-3
37
20
-51
-28
19
127
-3
-8
-59
32
77
14
12
-39
-25
13
10
-61
-32
-70
83
83
30
28
50
-20
-27
-32
82
37
-21
59
92
32
-17
85
-21
-52
-64
-13
13
-44
90
-25
-12
-46
-49
1
-89
64
-117
9
-21
-11
-44
40
-16
-36
9
10
-3
-49
25
17
-48
-5
42
-127
-55
-58
4
-13
-59
-2
23
-25
45
-74
-19
13
-43
20
0
-64
-40
-7
-31
-59
1
-105
-48
23
56
-55
20
-12
-75
43
-36
-70
3
-23
-36
-19
35
57
-6
44
127
-12
-82
-7
-31
4
15
-6
-40
-19
30
26
-19
-64
-46
43
-69
-12
-51
65
-40
-16
-10
-75
16
-53
76
-85
-17
6
-16
-40
-36
77
62
-7
-9
-45
-19
5
127
2
-24
-10
-19
-47
-71
-3
-50
-33
-30
-33
13
-4
-60
-3
-56
-8
-28
25
-31
-35
12
-14
-1
-4
52
-10
-42
-27
-8
-49
-8
-37
-8
-11
-60
-42
67
-11
5
-55
-1
-16
-25
-24
26
63
-4
-8
-28
-9
-62
-19
25
-66
10
36
-127
-7
61
-64
7
30
49
-17
-21
-25
-24
-98
1
-72
20
18
-26
-86
30
4
-94
-64
-56
-15
-7
-119
-37
-55
7
15
-37
122
-69
-53
-40
-30
-35
3
-40
-60
-14
-20
-17
-22
53
-46
5
-93
-9
25
-42
-24
19
-42
-23
16
11
-91
44
16
-3
-53
-127
-37
-47
-80
-48
-59
-11
-50
-24
45
38
13
-11
14
-12
-70
-15
-43
65
-37
27
89
-65
38
123
-54
-70
-105
-42
125
127
-9
-119
-15
-51
-119
-70
-10
35
-21
-84
-44
-59
-24
122
-1
66
-33
-68
56
-74
22
20
16
-57
-90
-64
-55
15
-11
29
-4
49
-70
28
-6
-123
-23
-82
-57
71
-29
49
41
41
-28
57
-94
-38
-6
-50
9
52
-21
-59
-101
7
48
2
-78
-58
2
-70
96
-68
-27
-29
-37
69
-31
-46
-127
4
-56
-83
-30
-25
10
63
13
-1
-28
-20
-21
-44
59
-26
-75
73
-84
46
-58
-77
-25
2
-99
52
29
54
9
2
-27
-11
-48
-35
-77
56
-28
17
-24
36
-93
-54
-31
-31
-72
127
-17
-46
70
10
-11
32
-29
-59
-17
-42
-45
-22
-40
-7
-74
75
-17
72
92
-4
11
-46
58
-45
59
50
-39
45
-40
-103
-24
-8
5
-78
-25
24
-40
-24
-49
-20
-90
-46
-3
0
46
-7
-60
-48
-116
19
-64
-30
-101
-41
127
-44
-21
14
-32
32
-50
-13
55
-35
-48
-55
7
-62
-59
-104
41
-24
-32
-25
-46
81
-23
-49
-69
-34
-74
-94
-2
62
-47
114
-30
-21
-73
12
-3
-56
11
-66
-31
-42
-17
-43
4
-70
-16
-20
-96
-43
-29
-36
24
83
-54
-62
-65
-57
-68
-127
-35
-9
-127
-34
27
-84
29
20
-71
-53
-68
-30
86
-76
-2
83
-14
19
15
14
0
-6
-31
-26
-109
39
-95
-10
-11
-101
-32
-38
-36
21
-9
9
42
30
13
31
-2
21
-1
-71
31
-57
-41
-74
35
-23
-38
-18
55
-59
-15
-23
-48
-62
-5
-25
-17
-31
11
-47
-30
-21
-21
-17
-3
107
50
-24
-7
24
53
-28
-23
-19
-54
31
-127
37
-32
-3
49
-51
-31
-18
-54
-40
-33
42
-24
-15
-36
-34
-47
-26
32
39
18
-40
-61
-7
-53
56
-55
-24
-60
-16
2
-75
2
-26
-43
61
-54
-39
-12
-17
-2
-62
-8
9
-34
20
-89
34
-127
-3
-7
-11
57
7
-62
45
-10
64
-10
14
-24
2
3
-3
25
63
-6
14
85
51
-18
43
21
64
-18
-105
-54
-25
3
-96
60
28
40
-73
-40
-16
-104
13
-84
20
-63
52
4
-16
26
6
-47
81
-127
-15
-18
13
-25
1
-18
-77
-4
-123
-11
-3
16
23
13
-65
-10
127
-51
28
-36
37
25
-56
-66
92
-24
-48
-5
-31
-75
32
-65
25
-65
-9
-18
-97
-83
-66
-28
30
-29
-72
-92
51
-28
-9
-18
10
13
-80
-91
30
-47
17
-71
18
-41
-52
23
-50
-25
110
26
-26
-22
-29
-71
1
25
-69
11
-98
-83
-9
32
-12
28
-86
30
22
-13
-45
5
42
-127
22
37
-42
123
-58
-18
-4
3
-55
-68
-20
-76
-54
11
52
-58
53
46
-27
25
27
-19
-60
38
-1
-58
-38
-51
47
-20
88
-58
-20
-17
-4
-86
-13
-10
-50
-75
-26
-99
-43
-28
12
-127
18
32
-27
25
55
99
61
-38
-67
-66
-11
-4
-4
30
95
-3
-28
0
-26
19
-25
12
-41
-38
26
68
9
-73
37
-114
-40
-38
41
-31
-41
-111
21
-72
-23
-99
-48
-72
-32
44
25
-70
-68
-39
-44
54
-46
58
87
-53
-14
27
24
-43
69
-22
5
-8
-61
-31
-59
-102
36
-94
11
-29
-82
-8
-127
2
-49
45
-43
31
39
-127
-47
-24
6
-7
-82
-45
-25
-3
-43
-13
-37
-8
-28
-40
-78
-50
-13
80
-21
49
36
-57
13
12
-61
-82
113
-93
-79
-14
3
-51
18
11
-83
-66
3
-29
-31
0
-45
122
5
-31
3
-22
-42
-22
-48
-6
22
-76
-48
-32
-15
-41
15
-1
-18
-33
-7
-14
-46
-8
-21
35
-42
-31
-40
-70
6
-69
-4
-36
-6
-27
-21
-38
5
-83
-32
-45
22
127
-33
0
-28
-20
97
8
-44
-56
-28
127
23
-36
-61
-60
-91
-95
-49
-21
-29
27
56
-49
6
-81
-2
67
13
-38
-32
-123
-56
63
-20
-61
-43
-59
1
-94
-10
-19
-43
-49
13
-46
-16
-55
-30
-53
83
-40
116
19
-28
-82
-24
29
-14
-22
-8
-46
-45
39
-56
-47
28
-21
127
-41
-30
19
-22
-32
-15
-35
-41
-17
-26
-2
-22
-12
-59
7
-26
-60
-62
-60
99
-49
-56
-35
-37
-26
-17
-30
-17
-34
16
3
0
-51
-22
-13
-55
76
-5
-23
9
41
-24
-90
-21
-21
-97
-60
-58
-41
-38
-7
-18
83
-61
-74
-17
-45
-127
8
-50
-75
68
-20
-52
-19
-49
-68
-15
-93
-27
68
-17
52
44
-15
42
-57
-62
-60
-27
75
-77
-13
-72
-35
67
-15
-15
66
-59
127
11
47
15
-27
-2
12
-71
-37
-53
-40
60
-34
-68
45
-58
26
-80
-68
-73
-43
-63
-39
45
-15
13
-25
55
-19
-7
-24
24
-68
127
-99
-36
44
43
47
-40
-12
-35
2
27
-35
-127
23
41
9
-41
126
2
-76
19
-25
-60
11
-34
-18
11
-43
-31
-95
-74
2
18
11
6
32
25
-55
-89
-94
-9
11
-17
-32
64
12
-24
-17
-121
-40
-15
-50
-45
-4
-11
-10
71
43
11
33
-116
5
3
-63
66
-25
-15
16
-29
5
22
-71
52
-77
-51
17
-30
88
33
-92
-47
-44
-46
-27
76
-127
-34
26
-63
-96
-61
-56
27
14
12
55
-44
20
104
6
66
-5
-36
-48
2
-27
127
-10
-16
-24
-46
50
-68
37
66
-51
110
-104
-6
41
-8
-10
-54
-55
-55
47
44
-87
-16
-50
36
87
-32
-2
51
51
-45
-124
-17
-40
7
52
16
-82
27
-5
-36
-28
9
-24
-19
-65
-69
-41
21
37
38
-63
-112
127
71
-89
112
-27
-33
-26
-69
-75
-45
107
-56
-50
-34
-21
-4
-49
-79
-11
68
-12
10
-35
-42
16
9
-35
18
-29
-8
-117
66
-25
-58
-98
-73
-21
98
-24
-7
-51
18
-57
-116
-55
-73
-18
-6
-71
-1
-107
76
-28
-53
-30
-85
-3
-74
-81
63
-51
-63
-50
7
-37
-58
-75
-30
-52
-115
27
-127
88
-28
-58
-100
120
-29
-74
-4
16
12
-48
3
-36
107
-75
0
-26
-2
-56
10
17
-30
31
101
-30
42
-44
106
-76
-32
-15
-35
-51
1
54
2
10
-43
-87
31
-97
-119
45
10
26
12
-42
47
-1
-55
-75
-53
-68
40
22
-64
32
-127
-19
11
21
-33
-9
-17
-38
-32
-33
-30
6
-114
0
-45
-59
-74
17
-71
-30
24
21
-75
14
30
15
-103
101
18
-23
-118
45
-37
-64
-78
-50
115
-127
-77
-77
11
-84
103
28
-21
-3
42
34
46
-28
12
-8
-70
34
-64
-25
-10
-57
23
14
-54
-11
-39
2
30
-60
-57
-14
-15
-43
-21
-6
-23
-45
-12
6
-44
22
29
21
-19
-11
-57
-61
67
57
-85
-68
127
-26
-16
12
-9
-17
-29
-71
-51
-12
-60
-17
-49
-11
-3
-25
-22
12
-34
-8
-19
-14
-52
-37
-79
-27
103
-4
127
-34
0
-19
-29
-55
-12
57
-18
-38
-47
-22
-6
2
-45
-11
-41
18
-70
77
-13
-45
-22
-3
-19
-81
-51
-13
-29
12
-3
-6
-67
-39
13
9
35
-20
25
35
-90
114
-31
32
5
16
-39
-119
70
-65
38
62
45
-34
-43
-28
74
110
3
-1
-8
13
-35
19
-18
-45
-43
-1
-8
57
35
-4
53
127
88
109
-35
57
-56
-54
0
60
-79
-12
33
-84
-42
-34
-40
44
-10
-90
9
-14
-25
-99
-44
-19
42
-37
-106
-35
1
17
52
93
49
36
35
-7
-59
38
-47
-69
-2
51
-39
-62
35
-28
-10
-66
-82
-34
-84
2
127
0
-93
-42
-47
44
5
21
90
4
-110
-49
6
39
-40
-77
66
-42
-69
24
-2
-46
-3
-37
-15
31
-24
-45
-49
-127
-47
-10
-70
-29
19
18
-51
94
-27
-74
45
100
-36
9
-62
-28
-29
-30
-96
-51
-47
103
-20
-54
-87
1
-14
27
-78
-20
-41
-31
127
-40
44
-34
46
-13
15
-70
-50
-6
-22
-6
-107
-22
-8
3
-96
74
62
-123
13
-43
-40
5
5
-10
-40
-43
-90
-77
-4
57
-40
33
-86
-39
58
-5
34
-44
-14
93
20
127
-65
-22
-39
-16
41
-34
-70
-12
-34
-86
-86
-57
74
-37
20
114
-19
-10
-18
19
-63
91
-80
-61
3
-36
-14
-7
53
-86
88
-65
-69
-81
46
-112
39
-80
37
39
-24
42
-106
-20
-82
-27
121
-57
-1
-39
27
47
-88
70
-25
-108
-73
-57
48
-38
-40
67
30
-89
-15
-96
-59
79
-75
-20
-49
24
-10
10
-64
-60
-43
-127
-37
-25
-27
10
-43
-40
-3
-40
-28
54
-15
-21
-5
-14
-26
127
-16
-5
-47
-76
4
-1
-42
-19
14
-85
0
-4
8
20
28
29
55
-1
-76
-70
18
-89
-65
-44
-57
-46
31
-28
-95
-9
-17
-65
75
-8
-31
-16
5
13
-67
-42
-16
-3
-25
-5
-7
-5
79
-85
-44
-2
-54
58
-5
-43
-43
-51
-2
-49
22
-32
-6
-16
-46
77
-67
-3
70
-65
-52
-69
-59
-19
-61
116
-127
32
-33
-39
-40
-89
6
-61
14
4
-53
-21
39
-13
-23
-11
-115
-8
7
-29
-26
7
-1
-47
-7
41
-67
-21
49
-108
-44
-61
19
-4
-65
5
-49
-6
-57
-29
-16
-30
-54
-9
-19
-14
-38
33
-78
-100
-127
11
-11
-74
93
8
24
8
-26
39
28
-22
36
-30
-10
-46
92
109
-127
27
17
-63
-4
-70
-100
-104
-5
0
13
-92
-38
10
-19
-37
105
-7
68
99
50
-101
-26
10
-53
10
-52
-103
-4
88
-35
-29
-91
-32
-35
-1
-69
29
-10
-4
-8
4
-84
-60
-1
-17
24
-3
11
-3
-32
-6
3
9
80
-34
-15
-72
-1
-39
82
-61
-46
-17
7
-87
-32
-7
-44
-41
76
-2
-25
-42
-65
8
49
82
-68
-103
-54
-125
-111
35
-57
-25
3
-127
9
-78
-39
-4
-92
-56
-41
-38
-21
39
-72
-35
-50
-8
3
-27
-127
-45
-78
-73
-43
-4
21
59
-116
66
45
21
26
11
-53
29
-74
30
59
-51
-64
-67
-57
-11
0
-103
-28
29
-36
35
22
62
54
-33
-35
-104
58
-3
-40
-35
21
-68
-5
45
-14
-41
-45
4
-56
-85
11
72
127
-21
-22
-66
-20
-62
26
-52
-56
-58
29
34
27
-18
69
2
110
-38
-34
-118
-36
-68
-16
-20
32
-33
-43
-88
-29
79
30
21
0
-123
103
14
-74
-50
-66
56
19
-27
-63
-51
31
-17
-41
-73
-33
44
-57
-112
64
4
-9
-79
-14
-16
-40
-59
-13
-36
66
-16
-22
66
22
-127
-27
-97
-14
-22
-9
15
16
-55
-10
-27
-22
-9
-17
-96
21
4
49
15
-28
43
55
-50
6
34
-28
-14
-40
-76
52
-87
6
30
14
-16
-65
75
2
32
93
-96
-53
-30
55
-94
-25
-46
-74
28
16
-127
-76
-17
-49
29
81
-15
-3
54
-17
48
-11
-78
17
16
33
-2
-26
27
-38
-35
-41
-33
17
-90
-26
-124
-52
4
-123
-37
45
-1
-66
-119
14
-8
-15
3
68
68
-21
0
59
-127
-9
9
-8
-89
-55
-15
-72
78
1
-31
-90
-19
-84
-20
27
-127
-63
23
-31
76
126
-60
-100
-2
121
57
-44
10
99
26
-36
-48
-23
-73
-24
-49
-123
4
-79
-8
22
3
-41
-127
-82
-45
-28
-90
-47
-24
-33
-36
-19
53
-103
-64
-71
-6
29
-35
11
-122
-106
-28
-8
-98
-33
-5
-63
-52
-68
127
-5
11
-25
-60
-52
-35
-5
-29
48
-17
-12
51
-11
-56
59
-29
6
-67
-15
-9
8
-27
-45
0
2
-52
43
-45
18
8
-7
-26
-9
-55
-14
-39
-19
-23
20
-25
-18
21
-127
2
23
34
-91
50
-7
-71
5
-82
-8
-50
-25
77
-17
35
76
-35
-6
-51
-32
-79
-26
-66
27
82
66
-47
-63
-121
-104
6
46
-23
30
-44
-13
80
-7
17
1
13
-39
10
-46
-13
-40
-70
-37
116
-53
-70
-75
-69
16
-53
-97
120
-30
19
-60
-33
-58
-34
62
-98
-43
-69
82
-26
-98
-41
39
43
-6
-23
-96
-52
-88
-31
-22
-127
-72
117
114
-3
-11
-20
-51
-24
-70
-32
5
-25
-1
-107
-12
14
48
18
-68
-54
-23
90
24
-34
53
-6
12
-46
-74
-18
2
-127
-41
-40
16
-81
21
-39
37
-67
-46
-18
-42
-85
-3
26
-48
-48
-25
-4
27
32
17
-48
8
77
41
57
35
-25
21
-24
22
-6
1
46
-127
-18
44
1
-26
20
13
-66
16
-27
3
28
11
27
-17
-29
1
-22
-8
24
-2
-14
-37
11
-5
-39
-38
3
19
-29
-3
-12
-24
-17
21
19
27
-39
18
-45
-51
59
22
-17
14
-25
-13
19
-86
-29
78
-32
-50
-15
-15
-42
-17
-57
-64
-34
30
-55
-42
-13
-93
-34
-61
56
4
-44
-22
-25
-19
75
-65
-42
-59
-104
-45
8
-26
0
1
-87
29
-57
-32
127
-6
-24
-35
-30
-9
-57
12
-41
-54
-114
21
-66
-50
-46
-26
-23
-17
24
11
-6
10
-53
31
-70
-35
-27
42
61
-10
-32
19
-81
127
28
-15
58
-34
-42
15
9
-30
-8
-46
-11
76
-19
-50
-42
-9
-29
-30
-4
33
21
8
-65
-25
-37
7
-17
-48
-66
-51
-14
-89
-47
18
-97
-13
127
-4
-8
-6
-84
-42
-2
114
-36
1
12
-86
-40
-63
-73
-57
-19
-8
-13
8
-28
25
-5
-2
-47
16
-31
-10
-42
-65
4
66
18
44
-6
52
-9
-127
-11
35
-9
6
61
-51
15
74
-40
-55
25
11
-47
-31
5
-26
44
-49
-33
33
-35
-14
36
-12
46
-31
-50
-36
-35
9
15
11
-71
-71
47
-51
29
-31
-43
-48
-53
64
-58
-6
-21
67
70
32
-25
11
52
58
-37
44
68
-40
-10
69
26
29
-42
41
71
-31
-49
12
116
58
-99
55
-41
-50
127
19
44
19
-7
-3
-75
1
51
-27
56
-82
-30
30
-54
26
39
-48
62
-95
-77
-73
-9
-11
-123
-70
-38
-16
-96
4
-48
81
16
-1
107
-11
-1
10
-48
-73
58
-61
-65
17
-67
-51
-87
-48
-16
-2
-125
-127
45
-43
-100
-12
76
-7
-22
28
29
33
12
69
-44
-18
-26
-37
-88
-36
34
72
-28
-49
9
-53
-66
-45
-66
-75
-12
-79
127
-85
-42
-58
34
65
-64
-60
-18
110
47
-59
26
-56
40
91
-112
-62
37
-47
1
-53
-64
-70
-76
2
-116
-91
-37
-99
-29
13
34
-8
-15
-127
-80
-45
-27
73
-73
-64
-66
-54
-19
-26
38
-43
-76
-27
-90
-8
25
-57
50
-50
-59
14
0
45
-4
30
-76
-27
-57
-38
-59
-93
-70
19
25
-94
67
-18
-14
39
-58
117
20
50
10
24
23
-84
21
-24
-27
-49
66
-127
-25
-31
-40
61
11
-21
18
-70
-63
-33
72
-47
42
55
27
12
-30
-40
-7
-38
-61
-20
-26
-2
-54
98
-46
-20
-15
-61
13
61
-65
-19
27
11
-2
-127
14
-1
-50
-58
-3
-25
-54
-74
-98
8
-16
-5
14
-1
-84
-78
-30
-5
-27
78
-42
-72
-6
27
-115
-26
-26
62
-57
43
-70
-24
1
-13
26
-40
-77
10
-23
-8
-17
121
-81
86
-34
-113
92
-70
18
1
-10
-70
-41
-32
-15
127
-116
-35
-19
-43
6
-58
-43
-95
-16
-29
-81
-8
68
-14
-69
-8
-90
96
27
-126
-57
-111
3
5
-60
13
-19
-10
-52
-70
61
-36
-73
-9
-21
-101
-58
-9
-9
-29
44
-4
8
-59
28
-35
-67
125
28
-38
-57
-91
75
-121
-84
1
75
-27
27
59
2
54
-42
16
-48
-73
-60
-9
-52
-7
-127
-31
-43
14
-104
8
-72
-34
-87
-23
48
33
-93
-50
-25
3
-19
48
17
-20
-4
-26
-57
1
-33
9
-34
5
-2
-20
-40
2
-22
-22
-40
-70
-15
-34
7
-17
7
5
-3
-19
18
52
-14
-31
3
40
-56
-40
-67
-3
18
91
-4
-19
-24
28
-58
13
-7
-23
127
-73
22
88
47
-67
78
-61
6
8
-111
88
-127
34
-29
-119
-96
-64
-57
77
-31
-55
70
-58
-19
11
65
-22
-52
23
-116
-19
-31
-9
-56
-63
-51
-92
3
-67
13
-9
118
-49
-40
-110
-34
-119
-17
85
-90
-45
127
-34
67
-13
-9
22
-36
48
-28
-42
73
-1
4
-3
-68
-15
56
4
-79
70
22
-85
29
-54
-50
19
-73
-97
-5
28
44
-42
44
-13
-43
56
-36
-41
25
60
-91
2
5
0
1
-67
-41
-80
-13
-81
-1
-48
-74
51
-7
-63
-98
-26
40
-21
-41
103
96
56
-72
-59
-31
-85
66
19
120
14
-45
-40
-1
5
-127
-87
-31
-21
-69
-13
75
-30
46
7
44
-31
31
-104
39
-3
55
-19
-26
-75
-113
-101
0
70
-59
-41
-37
-47
-40
11
18
-37
-31
70
84
-20
89
-25
37
-22
-87
-117
55
50
-20
-17
1
-42
-15
-35
-64
-127
-28
10
-14
39
-26
-21
-67
-105
7
30
24
-62
37
24
-103
-88
67
115
-65
-48
9
91
115
-58
17
28
34
-62
-42
52
-127
17
-112
93
-39
76
-39
16
103
62
45
107
-61
97
109
16
36
0
-18
80
26
50
-26
-103
127
-55
87
107
20
44
104
-4
-45
-35
127
-23
2
26
-64
-28
16
-37
-52
-51
-8
16
-65
-23
-23
-2
-20
52
-47
22
-27
-26
20
-46
12
-59
-24
-53
-69
-55
-29
-28
-6
-28
-2
-41
-34
2
-27
41
-1
30
-21
-31
10
-30
38
-32
-39
-31
14
-70
-57
-82
11
-25
-25
-37
-43
35
-37
10
-87
-39
-48
67
-35
-30
-24
127
35
-9
-12
-38
21
-79
-51
4
-51
42
-24
-87
-43
14
-11
4
-51
23
-91
68
-40
44
22
82
-99
-75
-25
-66
-64
-16
37
-48
-35
-81
-65
-11
79
-100
102
22
73
-125
-78
-54
-127
-42
-37
48
77
31
-32
-18
45
-101
-110
30
-89
-120
-26
42
-50
-75
-30
48
-19
35
76
-14
8
-37
44
-2
-2
-115
54
-55
31
-40
-34
-60
-79
-48
-105
-18
2
65
-7
26
-104
-31
-93
62
0
37
-80
94
73
59
-9
-32
-28
-127
-59
22
-21
-45
-40
-74
-20
-28
-69
55
-76
-47
-20
-26
-77
23
66
-54
-98
4
-27
-65
-1
-33
93
62
-53
-46
-97
-10
-90
4
-20
-18
-70
3
-24
15
-57
85
-46
-12
-12
-64
62
-69
-27
-14
29
-37
-78
-31
-26
-55
-4
-86
-47
-72
-50
35
-33
2
127
-68
-33
55
-56
-63
-1
37
37
127
-41
-4
49
-70
-98
-61
49
91
-61
36
22
18
-36
74
7
-4
-36
-15
-36
12
-15
-3
-56
-16
-105
106
-107
20
-20
-13
-13
-20
-101
-22
-73
-57
-56
-13
-47
35
69
-43
41
-16
-29
-32
-44
-3
8
77
31
-39
33
-39
-32
-26
-10
-46
44
-55
6
30
-44
46
-127
-6
-67
4
-60
-78
16
-37
56
23
-99
53
-31
124
-20
35
73
10
-5
7
-46
-7
-62
-32
-20
-57
-39
-53
-54
-75
-18
-6
47
-8
-110
28
-70
65
-57
2
-14
-67
1
-24
-8
-121
-55
-25
-91
-58
-43
-1
-7
64
-17
-34
-127
81
19
-47
-42
49
-108
5
25
-39
-31
-2
56
-46
-114
-73
29
32
-30
-74
-16
48
11
-30
-14
47
6
-28
-28
9
4
-19
-44
8
-16
18
15
-10
-51
65
6
-55
6
-84
-30
-98
6
-22
23
-43
-42
-73
-12
34
-34
-44
-36
-6
127
-5
12
15
12
19
0
-19
-58
-36
-5
-60
43
-26
58
-69
-40
6
-17
127
-54
-38
-27
-55
-57
-36
-8
37
67
-52
-45
9
8
-29
8
-44
-1
-47
42
15
-77
-35
20
-8
-40
-41
-8
-91
-10
-46
-11
20
-32
-87
-54
40
-19
-47
-47
-54
-66
-4
-81
-20
36
-33
-60
1
12
20
40
88
-29
-91
7
71
-12
-30
-36
127
64
-7
-14
-7
13
-53
14
3
-5
-37
3
-25
-2
8
25
-12
0
-38
-24
-33
-38
81
-26
32
-58
-92
35
31
-47
49
88
-79
-36
24
-50
-41
-112
-9
7
-51
83
-43
-18
3
-93
-30
-100
-39
59
-23
-3
53
44
-89
51
-47
-127
-31
-109
50
74
-36
11
-107
-105
-11
-17
-63
34
-30
-122
-17
20
59
-127
-102
-1
29
-84
-8
-41
23
-53
7
110
27
23
-61
0
22
-13
-31
-24
-26
2
-60
-42
51
-64
-44
-27
14
76
29
-28
-41
-48
-70
90
-5
3
-36
25
31
0
40
86
-69
-25
-127
-9
-34
-61
-47
-16
41
-22
19
-74
34
-112
47
-60
27
18
-42
100
-18
-52
-103
-19
12
-42
38
-48
-2
61
-58
-49
-80
-25
3
-34
24
-53
-13
-14
32
45
1
-41
13
-29
-45
-69
74
26
-76
-25
-2
67
36
-95
72
41
110
-20
9
1
46
34
60
-47
62
-94
46
-114
-82
-110
16
45
29
27
-29
-65
-57
23
29
26
47
-46
-56
-72
-107
97
2
-57
127
68
-12
7
59
-33
-121
-15
-14
-48
-94
-81
-10
127
-10
-96
-85
-68
13
-123
-55
-73
-14
-39
-87
-64
-54
-22
123
-46
111
-66
-2
28
-18
-53
-11
15
-13
31
-65
-1
101
-31
20
-66
-59
-37
