-5520
13297
17671
20032
61371
81
-32512
8480
84024
25373
14292
122448
41435
60166
21654
56553
171053
144103
65462
-53879
37685
-17669
-14383
-22626
36182
-61603
7592
28225
157523
-38047
-18912
22067
51651
106618
16948
-31626
36435
13787
-7565
29341
85320
-4669
15106
10376
56043
81688
78990
-15031
-40874
147118
95203
115332
19462
5414
158670
34901
-19790
34178
48316
-52241
26530
165220
48916
75051
35254
113569
53148
18184
70462
37070
-8174
50214
58207
49615
86091
106247
43918
-15788
-10128
63594
-4366
59913
48185
50129
-5272
48694
46001
57903
-17719
43085
-14488
26589
20010
-7727
16868
5236
23418
-12331
8967
55067
20243
3622
115576
22589
39433
2977
27285
-34660
47970
23649
57054
32809
-41740
-56381
8474
-636
68453
27387
-50317
-30375
-18740
32623
42651
-9904
149548
103473
36171
15724
207913
38910
131318
26167
42563
5165
56354
25699
-1533
-3023
45422
-27980
8713
75074
44740
-5926
8604
106506
59343
27330
3273
-22686
14657
-9274
6915
4003
48179
-6542
8049
45753
23801
76171
40829
24491
-4014
7851
6627
-65
1260
60450
-27983
3159
-5321
-31837
-2777
-582
10032
20620
-386
18780
92193
7394
25022
96137
-12705
149031
64636
38629
23082
4425
30579
28803
7347
-3352
38916
157272
24305
58609
14584
50020
-9958
65742
30583
-8768
83589
31060
80309
-33421
11978
51638
37058
-25999
29026
80863
9506
21004
114781
66134
-20040
106008
205623
82479
18309
27109
27275
92269
-2975
-655
73754
4256
108683
18776
25574
37889
26761
167440
16417
105517
36373
29199
8190
94502
-23765
36090
14604
-19327
43766
-1927
69112
14678
-8691
47892
-39098
108726
-24990
-7021
-3100
-17871
153591
69257
26191
-3237
-3104
93107
107601
77638
15012
33534
75247
12383
65076
-13509
54106
142955
48237
49386
-35891
-18618
49368
168390
4669
10944
-48087
-19983
4394
-29907
93294
2923
-31518
-22231
-24069
17608
-15064
11424
86327
-6783
12031
205532
55273
-46618
-42361
10772
17488
37445
18705
58133
-18767
-8651
37498
31275
99601
29835
45711
46707
97904
-2135
14970
5833
63145
-24988
-7504
41995
57179
75649
6385
-19598
-50158
62108
-12308
-11705
39080
29643
18204
22449
12785
25912
128527
-2746
64273
-9925
66374
-3038
72508
120701
128517
33971
11651
29909
-25126
47938
-82264
-29464
-68426
-45065
52423
23652
36894
46868
85007
78999
55772
171521
36770
56580
112445
148810
98962
-20030
35862
26276
5747
14810
23011
27061
38583
-19877
71380
-40374
137814
-5431
32706
32218
74001
-12059
-992
18282
42569
21303
32427
41466
4061
36585
49216
50337
70797
44771
60771
8614
-647
64307
36266
-8800
19405
101820
53227
80492
12846
114124
-18205
21309
114840
3510
-5084
41287
58051
92016
86256
-6831
19566
-46449
-2486
969
12144
30098
-4725
-8282
95603
121354
29292
127100
113584
-2325
6598
-8983
84550
-57034
21293
169
-387
26833
62980
26894
44033
65193
-12973
35236
-40959
-35995
27623
4374
114233
84807
-38138
-11749
-127
69668
-20978
11928
21100
24150
52803
2990
6482
9997
86989
16135
11995
2759
17847
100041
-31609
103958
-23601
147174
12075
88512
117919
147621
19449
-4901
64786
-67970
41495
37094
17435
-50438
3224
27165
111908
31398
-15926
160322
-3817
68569
69515
72861
37901
-56228
-32064
8354
17650
84685
29865
-30142
9745
-58370
12843
46522
-39839
81863
25076
11398
19909
4020
-14880
1576
-37024
-4918
-1780
-23621
20815
-7577
97805
3394
-12973
20404
6109
30675
7018
15377
-32399
25773
-4655
44930
116214
9298
32134
-11870
-39352
14556
63819
108876
28579
-18781
29757
-11147
45224
99530
151133
4853
3777
34006
19628
16014
12491
-16799
54723
30238
-48416
20067
24869
99759
-605
22650
36217
-25791
8579
-34834
-24622
-9869
-44867
63110
-33750
-9033
45763
-2181
40747
-7523
-5057
-49672
14904
170901
-20651
31684
32815
-13025
-22242
31717
27972
63183
10548
-28682
22317
33795
39107
37766
-63951
-17555
58923
44344
-58268
-10397
56250
26565
-8806
-50830
-20047
50808
15608
29364
53973
-7496
7254
31917
-16738
24003
59858
12893
33627
36804
33075
-10513
-15211
46023
30556
44263
5138
60422
-5951
143858
-26784
9605
-18991
9304
8168
-1971
8138
6129
54921
45608
36470
81195
79405
49731
5847
7436
105555
-8183
95274
-27256
-38008
-576
95490
-15030
58644
10630
45742
6128
16558
14918
51087
39479
-21567
22208
-644
19945
15823
4370
-4912
24744
18959
-80323
49746
26243
