-19
-93
-26
-1
-20
-81
89
24
22
-70
63
0
-17
-13
-4
-26
4
-16
0
18
-115
12
-32
3
-1
34
18
-31
-8
-8
17
-26
-16
25
73
-72
-2
23
-13
18
-69
13
-37
-14
56
127
-67
-5
-3
48
15
15
-3
-106
6
17
-73
-8
-75
-6
-34
-5
-50
-9
0
-95
10
-33
-12
-1
-4
26
-28
-59
0
-31
-16
1
20
12
32
25
23
82
12
-11
-30
15
-127
42
-12
44
-27
-73
-68
-20
-34
-76
4
21
26
-99
28
-6
83
-95
29
8
-7
-7
12
23
19
35
1
-6
-127
-4
-16
-13
30
-35
-7
2
-8
-5
-22
4
-7
15
-37
-13
14
-16
-9
-20
-67
0
-57
-6
-98
102
-17
-20
-42
0
48
-27
24
0
35
-63
-39
43
20
-19
-35
24
6
8
17
26
24
24
-35
31
29
21
119
41
-11
19
54
-12
26
-54
-31
17
69
114
57
92
76
-13
11
127
33
-4
-19
38
7
-1
31
25
-49
-3
-2
10
-97
-10
-22
74
58
4
44
-10
22
-18
4
-55
12
-16
-42
-7
-38
40
-103
-11
6
-30
-39
-22
0
21
-28
48
23
-14
1
44
4
-28
-1
50
46
-19
-6
127
40
20
-7
14
12
-46
-98
19
-5
127
23
27
-20
18
61
-19
-10
-5
88
-8
5
-79
-21
0
55
-66
30
-14
22
-9
6
-23
-2
12
-44
-6
-57
-9
-5
66
73
10
12
44
10
73
3
1
-19
-8
-74
-80
10
38
3
36
54
-32
-89
25
37
7
4
-35
17
127
93
8
8
21
28
-19
-70
-17
-48
-35
-10
20
-111
26
-92
54
11
-20
-40
28
-16
-18
-59
8
10
61
-41
9
62
35
-71
3
-38
-99
3
-5
26
73
-19
23
-30
-95
6
-10
2
6
25
-21
29
30
-7
22
-22
-7
-25
9
-41
-5
7
13
36
-14
17
-9
-18
-29
-40
21
-14
40
-26
2
5
-18
127
-18
-15
-5
40
2
92
45
-49
19
41
46
-102
-4
69
-13
1
9
-51
-52
19
62
51
-79
0
24
1
27
-74
10
65
-14
19
-18
43
-39
-20
54
-21
53
7
11
22
66
-55
-32
-56
30
37
-56
26
-21
103
-127
-22
32
24
61
-35
-40
0
33
-31
6
-54
52
-51
-36
-47
-48
-24
-103
-11
-49
21
74
9
79
0
-127
6
-57
-19
42
33
96
56
8
33
25
54
-57
-47
70
-91
127
41
16
23
-7
-100
-30
-81
104
-55
-39
73
33
-52
-55
24
53
-58
1
41
-1
-60
-83
-35
48
-15
73
28
-34
-115
-3
-17
-57
30
-23
81
-2
-23
55
20
7
2
-127
60
-75
-13
-5
-39
-58
52
29
8
35
-22
-26
-15
-31
-2
-7
19
-65
-43
-5
-2
15
-16
-2
3
15
2
27
13
68
16
-6
-15
-17
0
30
-5
-27
10
8
6
-8
4
23
-8
1
-36
1
-5
-14
11
-1
-15
16
-73
-16
127
14
17
18
-10
27
5
64
120
-12
-15
-122
-47
8
-11
-33
-56
22
0
34
-127
10
-39
89
45
2
-68
64
6
12
-44
23
-13
28
14
-36
48
-8
25
27
-14
-83
-97
8
-13
-20
24
-100
21
-81
24
38
-5
20
0
18
16
96
-127
13
0
-5
2
4
-15
-3
10
10
13
17
2
-3
20
-9
-12
-7
48
-22
-7
4
47
-4
-24
2
2
2
23
-18
-2
1
-13
-12
-96
2
-55
-4
-38
-8
3
-13
104
4
1
68
-62
-7
14
-34
-13
78
-29
6
-65
-29
-101
-33
53
-27
-39
-62
-13
89
1
96
53
-40
14
-33
12
55
-25
75
-63
-71
-34
-28
69
-52
-20
-7
-34
40
28
-97
19
25
-127
19
-98
91
-23
5
26
120
-42
-37
-45
11
-89
11
44
23
-76
-34
63
113
-48
99
67
-64
-127
-8
-28
-16
68
-8
62
-10
-26
22
9
-28
60
-86
38
-58
-47
-32
-70
28
-16
61
16
90
-102
-7
80
-7
17
13
-34
-50
-15
-48
-68
-5
2
-115
-13
-127
-67
-34
-49
59
40
-75
-35
-44
-21
-33
-13
31
22
49
-3
-26
-29
21
8
51
-71
-5
-3
-15
67
-97
-42
22
1
-44
-22
-56
-66
27
2
-127
0
-13
78
40
-40
18
-69
-71
-16
-29
-7
61
14
-33
-1
10
-3
12
-32
47
21
-23
-19
-64
36
12
6
-25
-11
-5
-10
-24
-35
5
-5
24
2
6
28
-40
60
-4
2
-34
-18
15
1
-127
-1
-7
-6
-70
74
-10
48
70
100
-6
18
-5
0
4
-8
-68
4
10
-8
1
-31
0
28
-15
3
-2
-24
2
-7
11
-10
10
-9
-30
4
-11
-8
-4
-63
22
29
-3
0
-71
88
-8
-8
-38
-2
-14
2
-46
97
15
23
-77
54
-11
-7
-5
-16
-17
-11
-2
9
26
-99
16
14
12
-17
22
-1
-3
19
5
8
-3
0
2
63
-58
10
29
4
8
-49
-9
-31
-7
4
127
-79
-2
23
-1
9
13
109
-5
-4
-127
-34
37
25
-2
-59
-34
0
-28
10
14
16
83
-19
20
5
96
76
39
9
5
33
1
6
-13
6
-2
91
103
-5
4
7
-2
32
21
38
11
11
-7
7
33
68
-19
22
37
30
6
12
23
49
-58
16
-5
14
1
4
61
66
3
-14
45
-24
-24
-15
-46
58
-127
-23
61
27
9
-90
24
29
-31
33
76
-5
-18
-67
-33
34
18
38
17
-88
-66
-59
-4
-19
-21
1
25
92
-5
18
-127
-22
15
9
6
-61
-29
11
-31
14
30
8
55
-19
21
12
84
37
28
3
5
16
5
8
-8
2
4
66
84
-22
-13
12
-11
3
14
-9
13
-15
10
16
29
-58
-20
-37
-2
-16
13
-65
-21
125
59
-13
-16
47
24
91
71
21
81
-8
-12
-112
-2
-45
16
-82
43
12
-18
-67
-17
3
9
-53
-7
120
31
-4
11
46
-4
-27
-59
61
-58
-14
-127
-71
-18
-64
-17
29
-29
56
-15
16
-72
-43
53
16
12
-50
10
-10
-3
30
39
19
24
-43
6
-16
18
127
20
-12
9
61
-6
-22
-9
-19
10
60
125
66
96
72
15
14
93
26
17
-11
18
-16
10
76
4
1
-9
-25
58
11
-15
35
78
20
17
-43
-14
2
-56
64
-30
-23
-41
-7
12
-20
38
32
48
-27
11
24
-1
65
36
-72
1
-34
-72
87
-13
-127
-17
47
17
-10
-43
-15
20
-67
46
-10
-22
0
-16
14
-31
-16
8
-18
17
-14
-3
18
15
5
13
11
39
4
-3
-15
-3
-1
22
-13
-15
7
-6
-1
-9
-5
19
-9
-4
-27
1
-1
3
9
-3
-17
6
-57
-10
127
6
1
8
-33
-11
-106
-30
20
-11
-68
14
-81
16
-65
-46
82
17
5
-1
7
-7
121
-30
-100
-66
-56
82
50
-24
-47
-76
-14
50
9
6
-67
127
-56
-17
-89
-28
85
-51
7
-26
-40
-68
0
-4
24
37
-4
3
78
-19
-8
12
9
29
19
40
-41
-28
40
3
20
23
15
27
43
32
4
74
32
-21
10
-16
-25
-7
4
-15
31
-107
-74
14
-9
1
-4
2
6
-40
-19
127
16
-17
-6
21
-3
-35
-127
-62
-58
-29
-2
-23
52
-57
-108
-2
-13
2
46
-7
46
11
-8
66
-11
-23
98
28
-22
31
5
3
25
-17
-98
-35
29
75
-57
39
-44
-41
-5
-25
6
-34
34
23
-51
-40
-106
6
-21
-44
-91
-46
-3
-11
-19
85
20
7
-127
55
53
-4
0
10
-8
-22
-15
33
0
-3
91
13
1
-4
-2
21
9
-4
-26
-2
24
-9
0
0
61
-81
0
-3
-3
17
-62
0
-51
-22
6
-34
-41
3
-9
-22
-35
-7
-13
-52
-56
-2
-21
14
-32
-3
9
-18
14
2
9
29
-11
9
-29
10
-23
13
18
-17
11
-7
-5
-19
17
17
-29
18
-12
-10
-9
-4
2
18
-21
10
-38
-28
127
14
43
-9
-18
-21
57
41
57
5
-32
11
19
34
-5
116
15
29
-126
-22
-38
-7
12
58
-25
27
-127
-31
15
-11
-27
35
-1
-38
69
113
-108
40
-29
5
-8
41
83
-21
17
-73
-20
81
-21
-5
-26
-10
50
63
-8
-20
-14
60
34
-26
127
126
61
-1
-12
-22
-3
17
18
8
-2
24
27
42
-37
-4
33
-14
28
-19
-29
-20
23
10
8
-22
6
-46
7
-10
-2
83
90
36
-122
-25
3
69
-14
8
-12
-74
19
-9
5
125
-6
8
28
-68
32
42
41
50
94
-28
49
10
-61
58
3
42
-17
22
-23
-4
-5
-7
24
44
-7
0
-58
-88
13
-3
19
38
36
52
24
-71
127
-69
81
21
8
-7
-20
70
-26
-1
5
-101
10
6
-45
3
-56
-13
-25
-15
-21
-16
3
-85
7
-37
20
17
-33
35
-55
-49
13
-17
-1
-5
32
12
-8
10
-2
61
-4
4
-1
24
-127
35
-21
0
-30
-49
-65
-25
0
-52
6
-20
27
-66
30
39
82
-95
85
-12
-13
15
-26
9
-8
32
15
44
-127
-6
-4
8
15
-15
-16
39
15
4
-17
-1
32
9
15
-5
2
38
-20
-15
-89
-10
-76
-48
-81
125
-73
-50
41
36
-32
-5
8
-4
46
40
-127
-61
56
5
-17
-16
-49
-32
-21
-86
0
-2
86
4
-18
30
67
-58
15
-24
74
9
21
2
-4
31
-121
33
3
-61
-32
-7
23
73
-77
13
10
89
47
3
-22
-31
-23
12
-4
-91
-60
18
-13
16
-34
-6
-29
-17
-12
-13
-13
39
-8
-14
33
-20
-7
-12
21
21
-18
20
-18
-15
31
-43
12
-3
-20
9
4
-42
12
-14
10
-7
1
6
-127
38
26
-7
87
2
-43
7
-127
-2
-14
-85
-25
38
29
-9
-51
-7
-53
25
8
59
1
-37
-25
60
-36
94
51
-48
21
-20
-7
9
9
-27
-21
-12
-87
-45
3
36
1
-55
-37
-21
63
6
10
-15
-106
-12
23
57
-26
-8
-31
86
-57
-30
-40
54
-63
-12
-9
-30
15
5
8
-94
1
7
110
5
-30
-8
-15
11
-8
-1
27
-9
14
9
-9
15
13
26
-9
-11
2
-7
77
10
72
-10
127
-101
14
-30
39
-120
-77
-41
-17
-52
-15
69
-10
51
-127
-116
-11
-60
-13
73
-44
67
30
100
28
-38
-14
29
-12
34
8
-7
59
-11
12
19
-34
26
-37
29
-18
38
37
-12
-9
-14
-79
21
-36
-16
30
15
58
87
58
-99
127
30
21
28
27
-73
-49
-5
0
4
48
116
-22
30
16
-104
75
66
-108
97
69
-5
69
-5
-48
-38
15
19
-46
99
6
-112
29
-50
-31
65
-73
-38
94
-62
62
48
49
91
-7
-27
-2
-15
-14
-95
127
-14
-6
11
-6
-5
17
3
-7
-6
-6
-8
-4
1
-20
9
9
3
-39
15
10
-9
-49
2
19
1
-3
2
-22
13
2
-7
5
8
81
4
51
3
28
12
0
7
-79
67
-15
-10
-5
75
-21
-15
-81
-9
-65
11
24
22
-47
-43
14
127
-45
46
47
-28
-64
-16
-34
17
50
-13
-1
13
-9
-4
-1
-14
42
-35
-13
-23
-36
2
-2
18
-43
36
20
84
-107
31
-39
25
-27
90
-16
14
-1
-83
-10
17
42
-62
-61
41
34
-6
-66
-7
-71
26
-29
-3
36
-36
81
33
-11
-22
33
25
22
-27
-72
25
19
127
-7
86
49
15
25
110
22
30
19
-4
17
124
-57
-29
35
-28
-60
1
28
93
-28
61
-37
8
53
33
-55
12
34
12
-10
-69
-38
5
3
-67
109
6
-7
28
46
-31
-6
-48
-80
33
-21
40
60
127
94
21
26
112
47
32
-20
26
-36
-24
8
39
-8
35
32
-112
30
7
-92
17
-85
19
-5
51
-18
-35
-21
-71
-43
-49
-38
20
3
37
-27
-36
3
-49
13
14
-11
11
-41
-51
-7
79
23
27
-68
1
-127
22
-32
29
19
-59
-65
-67
-2
30
3
7
18
20
-101
-12
-42
95
-58
14
5
-3
9
21
31
13
3
-20
106
-12
-34
-16
34
-16
5
0
-34
-8
-17
4
5
-2
-59
48
-6
-30
-13
-4
59
11
45
-1
35
-127
67
8
-123
-54
-15
79
83
-16
-48
-94
-5
85
-1
51
-8
4
-88
-27
5
46
-36
30
-36
-49
-89
27
127
27
-4
19
82
-13
-63
14
-61
55
36
99
29
100
113
71
8
8
37
88
4
-5
-49
55
1
-110
41
41
23
71
-29
-29
-10
26
18
-58
68
18
127
17
-61
116
45
37
-26
-114
-37
-22
35
55
28
-36
-1
-79
15
-49
-48
-62
-36
-60
14
58
6
5
103
-108
-15
-5
-15
0
37
-16
-17
56
2
55
52
-55
8
24
24
-3
99
-30
31
-22
-7
-11
41
29
-81
36
16
-21
63
-6
-6
-16
71
-37
-15
-7
127
34
-2
29
-34
-21
-27
84
31
-70
-6
17
7
-3
37
-17
-44
5
-20
-105
-52
11
-2
-41
47
-52
90
-64
49
1
22
-40
49
6
35
-31
-6
-27
-127
29
-33
-15
22
-54
-18
1
21
-32
-18
54
-41
31
-5
-26
-19
24
-10
-20
-105
22
-78
-4
-57
125
-1
-13
-27
-62
10
-6
20
59
8
10
-22
-77
6
-9
15
13
14
-30
17
43
-18
1
2
-1
-1
9
-34
4
2
7
31
-10
1
14
-22
-33
-32
20
-32
24
11
9
-27
-21
127
-34
12
1
33
-26
39
-57
-44
-42
70
98
2
22
-24
-87
16
15
4
-34
-69
-26
-15
6
24
19
81
-38
4
28
60
-67
3
2
-8
4
20
-2
-2
25
-127
-56
-32
18
35
-8
71
71
-20
-53
5
101
99
58
43
120
-17
-14
-18
-7
13
-8
-25
-78
-83
10
-15
-19
2
13
15
56
-1
15
0
12
-48
-1
-55
15
8
-8
-34
-17
13
10
-4
8
14
70
-2
24
-32
-2
127
21
17
-32
70
78
-53
-45
39
127
-29
19
-23
66
-60
47
-20
68
-12
-35
29
50
10
85
-67
-41
-22
-14
94
-2
-66
-62
10
-1
-19
2
14
17
-5
6
3
-16
-35
7
54
29
-20
21
56
22
110
-57
45
-114
70
9
-17
-33
-46
85
15
69
-31
-45
-32
-22
14
-15
-41
-16
12
-85
54
19
-44
9
-35
-20
107
21
73
27
24
-11
76
-20
27
-25
-79
-4
106
56
-72
75
74
-7
-57
72
-62
126
-50
28
-33
127
-63
-98
45
-35
51
1
12
-50
-39
127
56
11
3
15
-24
3
-21
-47
25
35
70
33
-81
19
31
6
-11
16
-4
6
-23
-42
24
33
21
-76
50
-44
-26
2
-74
12
41
-61
6
-98
75
-61
-10
-36
-6
-8
-15
-97
127
-19
-8
12
-2
-4
21
7
-5
-3
-12
-8
-8
5
-20
9
8
2
-41
18
8
-15
-59
3
20
3
-3
-5
-29
17
4
-2
6
14
86
-1
45
6
40
21
-7
14
-105
-30
-25
-60
77
7
-18
27
-11
-72
21
-2
66
28
96
54
-52
45
53
54
3
-103
-1
-75
-52
16
-8
9
-45
-54
32
-76
41
67
27
22
-75
92
21
1
47
-44
-42
93
-35
-19
127
-21
50
-32
-1
3
10
-58
-71
39
58
16
-4
-1
-4
23
-5
33
3
-19
7
22
29
-14
11
39
-1
-6
7
6
61
8
-15
18
-8
-13
5
4
0
10
2
-3
-33
-1
5
-11
127
25
9
-3
6
34
-85
-73
6
-47
-2
-32
-14
-40
13
-87
-85
-16
127
-15
19
40
15
-35
11
-38
75
-36
-15
-50
45
-108
-9
50
-27
-4
95
-105
42
-63
-24
-68
-95
-53
-9
25
11
-45
-12
-13
55
31
-14
20
-36
8
17
32
32
-38
23
-101
61
-38
38
-74
50
-48
16
-7
49
-56
44
24
-48
-55
50
-127
-67
-25
7
-9
0
-3
-26
89
47
0
1
9
21
12
66
-28
21
-3
-118
-104
-78
-4
-16
-7
-37
-18
4
-3
-23
-3
16
14
2
25
-22
1
30
-20
47
-13
63
-20
-21
-24
2
-26
3
29
43
95
28
53
90
7
-75
4
-13
-11
71
14
-127
2
26
-2
-1
-4
-20
-8
-16
57
-17
6
-23
-26
9
-11
-11
-10
25
21
-31
-91
28
-19
85
24
50
3
6
-36
-6
14
108
24
20
-19
23
-41
29
7
-26
-127
41
8
-23
-24
17
-7
-54
11
0
99
16
-67
-24
1
11
-28
-3
-1
3
21
88
4
14
-127
-26
16
14
3
-65
-20
15
-38
6
16
11
63
-25
20
10
85
41
35
4
0
18
11
7
-7
7
3
76
85
-10
4
12
-6
5
18
3
17
-2
-2
15
35
-74
15
-12
4
127
-2
26
79
32
-10
-48
-7
51
11
21
-16
11
-72
-4
12
26
-38
19
-48
-29
32
-6
-32
-4
24
22
58
-32
43
107
47
-16
-41
-20
67
21
44
-71
-14
-8
21
87
-43
8
66
-21
-12
-28
105
73
-26
-40
-43
-6
0
15
-15
3
-1
14
-32
-12
18
-127
18
-22
13
-7
11
19
-20
3
-7
20
19
-23
12
-1
-24
3
18
1
20
-11
23
-26
-21
-13
-70
57
-6
-18
19
-14
-56
100
-53
-62
-8
-29
23
41
17
-50
-101
-34
49
19
31
35
20
-61
114
74
-109
-48
-63
-15
-127
66
102
-119
-8
-52
54
-44
-69
-90
76
-39
22
41
-5
-30
-6
9
-53
-7
26
-22
50
-30
19
-6
127
-122
6
-26
-52
-4
-10
-2
-22
24
4
13
48
1
-10
20
13
-11
3
20
-8
-6
-2
42
-20
3
22
-17
16
42
-7
-21
29
-8
-1
-76
7
-98
-6
-18
67
-63
-12
-60
-30
-23
21
-1
97
-64
12
-38
-29
23
-3
-13
-5
5
-8
27
60
-11
-7
-16
-14
6
-9
40
-4
12
-11
27
-3
-10
-5
-16
-10
64
-58
-18
0
2
-14
-127
7
-104
24
-54
69
-55
21
-70
20
-48
-12
0
-86
-17
27
-28
-3
-42
-13
-36
-53
-5
24
-52
-58
34
-13
17
-36
-21
-2
13
-37
-38
3
-46
-11
17
-50
57
90
0
20
-21
2
-51
-50
-21
22
-62
127
-17
-20
9
-20
-81
-21
-7
-22
-14
82
33
1
-127
19
24
1
4
2
-5
-18
-8
51
0
-2
74
21
6
4
-18
29
4
-8
-37
3
20
-6
-5
-6
55
-62
0
1
-1
19
-21
-1
-47
-13
31
-4
-63
2
-47
8
-27
33
47
-27
-39
-41
-7
25
49
60
-6
-31
-127
31
12
-13
-26
-2
-16
-6
-7
-18
-52
-3
3
12
82
4
-57
65
-23
59
-39
-22
-24
99
10
119
47
-97
-20
16
-31
-27
-20
20
-56
-48
-27
-8
-19
98
-25
9
-123
100
108
9
-10
-30
-9
5
16
-18
3
4
127
17
-58
9
7
27
10
-6
-18
-20
20
1
5
18
74
-78
-8
14
-26
22
-97
20
-32
-55
54
-76
22
-49
27
70
-1
52
112
-10
-16
90
55
-4
50
-19
-45
-21
2
42
31
64
-40
127
14
-31
-45
-28
113
-49
17
49
-42
4
-97
31
24
48
-36
30
-32
55
-116
-67
-29
19
94
-33
-77
-85
-46
-43
46
19
-34
-62
23
-49
-27
-52
79
66
-85
-26
53
-1
-12
13
-16
28
12
-6
21
-62
2
27
4
-23
11
-51
-127
36
4
-4
-87
29
45
20
-1
92
16
15
-102
-36
-57
-26
-35
-32
-26
-10
24
-56
-36
0
-11
95
-23
-14
51
-7
84
-5
58
13
29
43
23
79
-11
37
-9
-8
-21
-4
32
58
13
-26
21
-1
5
-12
-39
5
-1
-47
-6
-6
20
-24
127
-37
-2
-39
38
52
74
-5
-84
22
-32
-8
49
35
17
41
60
20
-23
127
4
125
52
46
55
-97
-25
63
38
18
24
56
19
-60
-57
-85
-6
10
38
3
-2
-21
91
-1
-6
15
-48
80
55
8
-22
11
23
55
40
-31
-44
25
-10
13
22
-115
47
32
-32
40
-49
-81
-68
-44
-127
12
-97
-1
58
-78
21
-71
34
-20
25
18
-36
6
8
-78
20
-2
78
84
-42
5
-82
-19
-47
-66
-34
69
-64
76
-53
-7
-10
-32
-26
-68
-6
3
2
-78
43
-13
66
-97
25
8
0
-24
19
21
17
28
-9
-15
-123
10
-27
-7
13
-20
5
-1
18
-9
-11
11
-12
17
-1
-2
-10
10
-13
-4
-62
10
-68
-8
-76
127
-34
-13
53
84
-36
-14
-33
-59
24
0
37
80
-7
-18
-14
-11
-58
31
-8
-62
52
2
44
1
1
3
20
19
-15
-29
-36
-23
-6
0
44
66
33
17
32
-36
8
-16
-25
21
-127
38
-14
7
-24
33
-57
19
-34
-50
-69
-1
-9
127
7
27
-14
-1
21
23
-6
33
3
-12
-10
-87
-8
-32
-39
-99
56
-26
8
-14
11
-18
-10
16
-22
8
-69
-17
42
54
54
1
7
56
21
-4
8
9
-28
-12
18
-48
-29
-13
-7
-111
127
-33
40
51
28
-7
30
-21
3
5
14
-67
-5
13
-14
10
-39
12
-22
-6
13
-14
-44
-14
11
14
-12
20
-39
5
9
-11
-12
8
53
27
88
-16
44
-47
70
-20
-5
109
-37
8
57
-68
-14
127
-56
10
120
-20
1
-27
-16
-17
14
38
-2
121
-36
11
-34
31
58
30
11
-22
-76
14
14
3
5
28
-3
-29
3
36
-36
16
20
6
71
-56
23
-62
-59
-21
23
13
-3
-23
-39
48
-7
-23
-34
42
-50
5
-10
-2
-11
-7
-4
-70
-10
-10
82
3
-5
-4
-34
34
16
-10
14
6
16
-8
-8
6
31
-6
-13
1
6
6
53
2
49
1
127
-39
12
-8
78
57
2
-16
-2
100
31
-25
22
15
5
1
31
24
-6
18
18
-83
-1
22
-28
30
2
26
-20
-11
19
-12
37
10
3
59
-3
5
28
12
-2
48
-25
5
13
24
42
-32
127
-32
-7
6
26
40
45
-9
16
-75
-33
59
-49
30
-30
24
-10
-120
59
-15
-63
-40
-63
-33
-38
-46
-35
76
-2
-28
2
60
-63
127
28
-25
32
24
20
-57
35
-38
69
-62
40
77
-114
86
-29
-30
-46
-8
26
-37
-6
3
9
-62
-88
33
46
16
-13
2
-3
16
-8
25
5
6
2
12
33
-6
8
38
-9
-14
3
-3
47
2
1
18
-1
-13
-7
3
1
4
9
6
-25
14
-2
-4
127
38
9
3
-31
-80
-39
4
47
-22
-57
38
-127
-97
-33
-3
28
26
24
-15
-5
-7
1
-32
-46
15
-18
34
-101
-23
28
-45
38
14
0
-4
-46
63
-18
72
4
11
3
-57
-71
-8
109
-5
-52
-49
20
5
43
29
16
-33
-9
-102
62
-14
12
-6
-29
-7
15
-15
19
11
4
-10
21
6
-13
20
14
7
-47
11
1
-8
-56
-1
18
4
13
-12
-46
61
7
-3
1
-10
127
15
58
-18
30
-18
27
-7
-57
-13
43
-107
-6
49
-17
-33
76
63
13
80
-81
40
15
-127
-35
-14
-59
-4
-14
31
2
27
-44
-15
22
18
31
12
-23
25
-49
-7
-76
25
16
-4
-66
-3
27
19
-40
-80
45
-4
-44
-85
-26
-66
-18
-8
-29
-65
127
34
9
-96
66
-6
-7
-2
-33
-31
-12
-9
3
14
-75
-16
-5
14
-3
43
19
-24
12
-4
33
-47
-11
12
120
-81
-14
3
7
26
-53
-5
-16
-4
78
124
-121
13
38
33
-29
-44
20
-19
-4
-71
92
38
-66
2
39
2
-32
19
-25
16
6
-5
17
-53
23
2
11
-9
16
-67
-127
20
9
-10
-72
16
29
27
22
80
-9
20
-106
-23
-62
-17
21
-43
-32
-7
-68
-70
8
-14
20
108
-27
3
-55
124
43
7
15
10
-17
-3
2
-15
13
6
92
6
-56
-20
41
-24
-3
6
18
2
-25
-28
3
9
23
-102
26
-46
-19
-11
-127
0
-1
-23
-48
-114
70
-37
-7
-48
4
-3
-4
-29
5
14
43
-5
13
0
1
3
-10
22
6
-23
-1
12
127
8
15
4
-16
8
12
-7
32
10
-5
14
0
-5
24
9
-13
4
-9
-3
9
-3
18
-6
98
38
-89
-2
-37
-76
4
8
32
-102
44
11
80
-80
30
17
-12
-1
11
17
32
50
8
-12
-127
-10
-13
-11
44
-45
2
4
-7
-4
-20
-2
-2
9
-46
5
10
-18
-10
-24
-69
-7
-63
-4
-125
102
-32
-34
-25
19
-32
35
-8
0
7
-86
20
7
23
-13
-16
110
-125
19
39
47
63
-12
1
19
57
-91
-5
20
18
-67
54
-127
-3
22
-21
-4
26
12
-57
47
-97
57
-17
-36
79
-81
-11
11
53
20
-78
2
-29
4
43
42
12
59
82
1
-14
113
19
127
50
36
48
-66
-20
65
47
45
32
46
16
-46
-24
-40
11
41
38
-2
-13
-45
82
-3
14
22
-64
90
46
-20
0
12
9
58
57
-36
-45
7
17
-37
-95
0
0
127
11
36
-20
5
58
27
-26
32
23
1
-12
-84
-10
-9
7
-99
41
-16
4
-1
31
-17
-5
-2
-42
6
-52
-12
41
77
63
26
9
63
29
20
-8
24
-31
-20
6
127
-4
7
-8
88
-69
11
-50
-108
-96
-2
-19
3
8
-1
0
96
-5
-1
-9
-5
3
-3
-25
7
5
0
19
-6
1
8
-10
-5
41
40
-16
34
-14
-2
45
-6
-60
0
9
126
-120
3
29
73
-7
4
-23
-39
50
13
-24
-123
-57
4
-19
-5
13
27
12
85
-2
8
-40
-1
-21
-8
-48
13
6
-10
-77
1
12
3
-8
-4
5
97
-26
24
-26
-1
126
20
-18
-12
35
127
-104
3
62
61
10
-18
-29
114
88
-16
50
-28
2
11
5
10
-5
-8
3
-127
8
22
-70
30
14
11
-20
-8
16
14
31
12
-10
49
5
-5
45
-20
12
56
-19
13
-6
32
47
-16
77
-56
-19
-3
33
58
14
-30
-10
117
127
-9
6
-7
26
-6
12
-1
-10
8
-10
-59
-15
-11
9
31
7
46
-41
-15
35
-18
15
-24
5
88
13
45
7
-5
-20
43
-41
-26
-33
46
21
-21
89
2
-45
1
-3
-16
56
-36
23
27
-16
19
5
0
-3
-29
6
16
-21
15
-5
-18
-117
19
-15
-10
1
49
29
-3
-85
-127
-28
-103
-47
17
31
-14
24
3
-61
-14
37
14
35
3
-8
12
-15
14
15
-32
-15
82
-44
52
-36
-94
46
-35
0
61
-19
14
-25
-24
-44
-9
-26
-7
118
-26
68
34
17
-7
34
-62
90
42
-14
89
38
1
11
33
-6
24
24
-23
-33
54
-34
44
-127
59
-24
15
-27
-12
48
-14
-22
-42
-31
-87
-29
24
-15
-94
54
26
74
31
-38
13
20
72
14
0
16
-46
-77
127
-61
-24
48
-73
99
24
22
20
-82
21
59
-22
6
30
-5
-1
68
100
-78
-82
8
-120
33
1
0
126
0
6
-12
110
-81
9
-59
-103
-96
-1
-13
5
12
-1
10
109
-5
-3
1
-2
8
1
-27
9
6
-3
15
-2
1
0
-1
-12
40
37
-9
32
-13
-5
35
-4
-81
1
11
127
-117
1
26
88
-25
-22
50
3
82
-10
-99
66
115
-26
60
20
94
-8
42
-9
14
-10
21
-40
-70
8
-3
-67
40
-62
42
-15
-17
-41
-127
12
-81
109
-9
-2
10
0
-57
-99
-79
-44
73
79
20
-47
-35
-30
-8
7
12
87
-75
10
-21
16
33
-4
-13
-5
2
-7
12
21
-1
2
36
-6
-1
-5
47
-16
3
-3
43
-1
-11
-9
-3
-7
49
-59
-8
-12
-5
-15
-127
6
-56
9
-38
-7
-11
4
-44
-89
-21
18
8
39
-31
0
23
61
93
-17
25
-10
17
-4
9
-35
4
10
30
6
-16
-1
56
-24
-5
-8
19
-10
-5
18
-14
10
3
-50
-7
-12
-4
-10
-127
24
-28
16
-30
-61
28
13
8
8
-31
-4
9
19
18
-2
54
-27
23
-15
37
0
15
2
-2
-33
10
3
31
4
-17
24
5
-19
-2
3
31
-8
-14
35
-15
12
4
11
-19
9
-6
-16
-10
19
0
-5
127
-11
-56
-7
-8
20
-40
-3
20
-18
-55
-1
53
-4
11
11
39
-26
24
9
17
43
-17
9
-50
3
-51
7
51
-47
13
-6
6
-20
4
22
-15
15
-52
52
-26
-23
-30
-2
-10
24
-14
-24
-127
-18
25
-16
-127
31
-38
-5
-33
14
-11
20
51
-16
2
5
-7
9
0
43
11
-43
1
24
16
32
-29
66
7
-70
11
-2
-11
-5
30
-56
-5
-28
26
-7
-22
73
-26
-31
56
-53
-17
14
0
21
73
6
-12
-11
-22
29
-59
22
3
-4
71
-42
-10
-78
-127
23
75
-82
82
4
-5
21
56
-34
-44
30
11
-79
76
-27
-86
-33
18
36
-56
124
-13
-28
-26
18
90
60
-11
36
-19
-2
25
12
26
38
61
-53
-47
21
51
36
127
40
10
121
-92
81
6
-51
59
-61
-12
69
-32
-42
8
20
-29
-2
57
-80
-35
-21
9
-8
-10
28
-5
3
63
-30
-35
107
-68
-20
-2
13
-3
-71
27
24
-16
-3
-18
-50
8
-5
-10
-16
13
9
33
-9
20
3
-1
5
-5
19
7
-17
3
17
127
9
14
8
-15
17
7
-6
26
13
-2
8
2
-12
8
8
-11
-4
-3
2
18
-11
15
-4
84
31
-76
0
-23
-12
-16
-17
-126
64
53
41
47
-25
50
127
-23
-114
30
47
-1
-30
-70
122
74
12
24
6
-13
-57
37
-76
52
-60
56
23
-51
47
55
82
109
-94
-41
68
-32
3
92
-111
37
28
-55
56
-69
16
-63
-19
-127
-10
-4
-29
-26
-7
16
14
-54
1
-14
60
-24
17
20
-6
-14
38
-38
116
7
-113
0
46
7
-21
19
-83
16
-32
-67
-63
-25
122
-42
-104
3
-57
68
61
33
-13
-28
5
22
32
16
-23
-12
104
86
-25
22
-19
28
-4
36
34
12
20
14
-38
-6
25
14
29
-1
23
-49
6
34
-3
12
10
-11
53
-2
4
19
2
-4
45
1
4
-16
15
8
-32
127
-13
-20
3
20
2
-49
-36
55
-9
-36
29
-19
-25
1
127
13
80
40
30
5
-82
-12
72
17
21
27
-33
-23
-21
-32
-61
-21
7
58
-11
50
50
48
15
21
-22
-65
115
15
89
-43
88
-45
0
9
-10
-67
0
9
-44
-33
-7
25
65
-15
52
-8
2
20
38
-17
32
15
20
-5
-55
-32
-10
-18
-76
125
4
1
1
58
-14
-21
-4
-32
5
-8
51
68
127
85
11
19
102
50
28
15
30
-25
0
46
19
-34
66
-45
2
-8
-28
1
15
-3
47
29
-25
25
-8
-94
26
39
27
5
51
2
-8
31
-41
127
-19
-21
33
-65
-1
0
-4
8
-9
-46
1
86
35
-24
38
25
-19
-6
28
7
-64
-22
20
27
14
23
-4
2
-26
-5
-8
-3
-34
-1
67
-14
66
-127
-6
-16
29
29
18
-87
-4
-12
4
-36
26
19
26
-2
-37
20
35
5
-4
74
1
-43
21
-18
14
11
-95
9
12
-1
-39
-42
-75
-9
-8
23
84
1
8
-26
-106
-1
-13
10
0
27
-21
22
18
-8
15
-7
0
-23
11
-45
1
-3
11
35
-20
15
-9
-30
-31
-28
19
-26
51
-7
1
-5
-20
127
-29
-15
-16
36
-2
11
26
-17
-1
3
61
58
11
23
5
31
-3
-2
8
1
-7
-10
-29
4
-6
40
-2
-5
9
-5
12
2
2
0
0
-7
1
-3
1
17
16
-20
7
-7
-15
10
10
48
0
-127
11
-35
-8
-35
39
30
2
-27
2
4
34
-17
2
4
-24
29
72
-16
77
-127
-10
-20
-6
22
17
-93
-49
-9
0
-39
32
2
11
7
-41
6
30
-33
-33
76
3
-36
41
2
29
34
-107
24
-1
-11
-44
-94
4
-6
-51
-50
-31
21
62
-23
42
18
-4
-2
39
-14
34
6
29
-17
-74
-14
2
-17
-95
124
2
6
-9
52
3
-17
12
-38
-1
-7
19
76
127
101
18
11
93
56
23
17
39
-41
-5
2
11
-31
-13
-39
14
3
8
31
-4
65
72
15
69
-32
-24
47
25
-45
-17
38
127
-14
27
-8
-96
-6
-26
-11
27
27
43
52
-36
45
75
60
-79
0
97
-19
37
-3
-53
12
16
11
-46
26
35
-90
-76
72
33
7
-20
-33
69
59
81
-40
68
77
127
-18
59
6
24
-98
-77
15
13
-45
-113
-8
7
28
-16
100
-18
-18
79
-32
-45
-64
-33
33
46
4
57
17
34
54
-13
-47
-67
-9
-98
-24
46
-66
-16
39
21
-29
1
38
37
45
14
8
54
65
27
-58
-24
-4
-46
-48
-8
13
17
70
-50
-58
35
0
-36
-37
-10
23
78
-102
-51
-58
20
2
74
-24
45
23
23
-56
127
43
24
-83
127
-108
55
-49
29
48
-84
48
-79
-20
69
71
-4
-110
-42
-106
-20
3
-73
43
-83
-66
-37
3
-41
-29
35
32
22
-33
-23
-49
-29
-81
-51
-59
13
-29
-30
-43
13
-24
-13
20
118
127
-34
5
6
49
19
1
-32
-17
13
13
-18
13
-9
2
-37
28
47
-2
-28
-13
-33
-13
-50
-18
73
10
-22
22
-1
8
65
-21
16
-38
-10
-13
-78
67
62
-39
63
31
-75
-4
-11
-73
-26
-13
32
21
-4
-4
-105
-1
28
-85
-30
-75
-17
-9
-11
-16
-29
11
-89
-4
-42
-65
-1
-11
13
-27
-66
24
-32
-19
-1
10
11
6
48
48
104
15
-13
-56
7
-127
17
7
66
-50
-83
-65
-36
-86
49
-5
-17
14
61
9
56
122
17
18
29
17
41
40
59
16
-98
-9
76
27
24
-6
38
23
-21
-31
-61
-25
-8
19
-33
27
20
109
2
23
30
-49
33
127
-49
-122
64
-13
68
117
-4
-22
50
-44
17
56
-15
33
3
25
8
46
27
14
-31
30
15
-30
37
-109
-90
13
75
71
29
34
-4
42
28
-13
-21
37
43
-106
-127
-6
-23
-49
-18
-31
78
-37
33
36
38
30
38
-13
32
-27
-24
-58
54
22
13
-20
-5
4
30
-8
52
69
8
-77
-24
2
-40
-85
-59
-25
-84
-8
94
34
41
30
77
57
-28
-38
8
53
94
-45
27
57
67
36
127
43
-107
-18
15
-27
-6
-44
-18
-127
8
-32
-10
70
11
24
67
8
-36
-32
13
26
24
39
4
-26
-50
18
20
12
-24
9
-6
-44
-18
-5
32
14
0
27
-6
1
11
51
19
-33
44
-40
-5
27
2
-19
20
18
2
89
-8
-45
-11
-20
21
-1
8
-9
-6
12
45
-23
-35
93
-19
-1
22
50
-25
-45
-63
-20
-24
89
78
31
31
15
44
68
-18
-59
-127
43
94
-56
15
53
68
0
114
28
40
4
-48
-30
4
-41
-35
74
50
21
-47
67
-60
46
-118
-23
-30
-9
-74
-127
-30
88
-6
-6
48
63
93
18
69
83
85
-32
-4
1
-63
-56
24
58
-52
60
-75
72
74
-47
-97
-102
-100
17
51
52
-63
31
-38
35
2
-30
-44
-3
17
78
-97
-80
17
-9
18
0
5
30
17
7
55
16
127
19
-13
-44
-26
-14
10
17
-63
11
1
-49
-14
-10
5
0
4
-44
11
-1
-5
-5
-14
-43
4
-93
-12
51
33
21
14
-59
-41
-43
-62
0
-109
40
8
-6
-5
-19
-105
4
-15
116
-2
-1
-34
-17
-69
17
-30
127
36
-11
-9
28
-30
6
21
-27
-127
125
-17
2
13
30
-11
-67
-5
30
42
52
-63
-62
-37
91
-7
69
-7
-31
42
-40
34
-12
92
44
-31
-36
1
59
-16
16
-3
-15
-18
8
-21
23
-9
-17
-18
-114
-54
-1
-19
-66
-24
0
-12
-31
27
-85
-127
-69
-91
-101
9
-12
-103
-38
-31
1
-28
-5
-61
20
49
-11
3
13
32
-12
-10
-32
2
-10
-4
6
-6
15
-11
-1
16
-1
-9
-127
4
-11
-9
13
-16
-7
2
-18
-9
-4
-6
-8
5
-11
-15
9
13
7
-1
-10
-1
-16
-5
-73
-26
80
0
56
78
-45
22
0
-89
49
-35
109
-127
-72
-16
34
-29
47
11
15
1
-1
-14
-121
27
-1
5
-34
-28
-16
-15
-17
-26
9
47
-38
11
-67
87
-6
24
3
-4
115
23
20
17
8
125
-40
8
-39
-66
-9
10
6
42
-24
9
7
25
57
2
5
-8
-10
-10
24
-15
-1
-6
-6
-16
1
-3
46
-14
9
-3
34
-3
-11
11
-8
2
31
-64
-9
-8
7
-5
-127
1
-42
28
-41
0
12
10
-21
-23
-24
15
-8
82
-64
24
-7
-4
37
-7
-7
-5
1
-18
27
14
-9
-11
-6
-16
25
-15
42
-20
16
-17
48
-2
-1
7
-19
-17
54
-64
-25
1
8
-10
-127
5
-67
37
-35
17
-14
29
-17
-41
-31
1
-9
-105
127
-30
38
15
8
-10
48
-4
10
-16
8
-11
-9
8
-43
5
-17
-2
-33
-12
3
-12
-49
-5
5
5
-11
1
-48
-1
0
-26
1
9
49
18
47
16
3
22
11
31
9
73
-32
3
17
63
-84
-28
-46
96
-52
6
29
-25
27
3
17
11
-5
-15
93
10
-43
-9
17
-29
3
-6
-13
-24
-10
27
-19
12
-52
51
-21
1
-24
-2
68
26
44
-9
25
-127
67
-2
35
-2
-36
37
71
-12
-28
-127
-1
-33
31
17
-68
-54
31
-58
28
12
1
49
-18
-13
24
89
-41
9
24
-4
-29
11
4
44
47
-20
52
36
-69
-54
-27
-13
-15
-51
-47
40
-16
-36
40
58
41
47
-19
4
10
21
22
-13
105
127
33
-14
-25
8
9
35
2
17
4
-1
19
46
-13
11
49
32
31
-20
17
-16
14
35
-12
-6
8
-74
-9
-31
11
41
121
22
-125
-6
-49
50
-6
-23
-10
-33
-18
-50
12
33
-23
-24
45
12
61
-32
24
6
14
40
23
127
0
47
-5
-14
-1
-54
9
80
5
39
1
-14
-30
-62
-22
21
-21
-19
-52
18
55
-39
81
-75
5
-34
-30
21
91
30
-26
56
-39
-7
75
-77
63
18
-103
42
-127
15
-10
17
-3
-31
-38
-55
-3
-81
-50
-60
24
35
-6
-26
-3
4
17
-36
10
28
-41
39
16
26
-38
90
-124
-113
-109
28
-30
51
24
-53
-19
-32
-9
-55
-27
-6
15
-85
-108
5
40
38
36
2
-7
-10
3
4
1
4
3
-15
127
-3
-21
12
-11
-28
16
-18
-1
-10
12
-1
-26
22
3
21
-13
-19
-5
4
25
2
35
-18
-7
106
-35
-21
-73
6
-8
-50
-33
-13
25
53
-31
40
-8
-1
-19
36
0
47
13
1
-8
-52
-32
-18
-37
-75
127
12
4
-8
54
-8
-10
4
-21
-3
11
47
69
112
78
7
46
103
62
14
-3
36
-15
1
18
-18
-26
37
116
10
-2
-116
-6
3
0
-1
-45
-79
10
-42
14
11
37
72
4
26
11
127
-15
9
4
2
-14
-23
14
-10
-4
29
34
49
-69
-90
-23
-25
-11
-29
-38
-8
-4
-11
6
37
4
43
-3
-18
19
73
59
-14
-6
-12
27
2
32
10
21
19
10
-11
-2
-19
-15
16
-27
39
-22
-40
28
-15
9
2
-2
59
-8
29
-15
2
-14
22
-13
-7
-19
39
-28
-18
127
-19
-36
-4
-7
43
18
-3
-30
-88
7
29
-58
-37
-59
15
-13
-21
-12
-20
9
-95
7
-26
-5
6
-6
37
-18
-67
8
-29
-31
48
6
11
18
48
16
100
61
-23
-29
12
-127
21
-13
71
-14
-69
-60
-21
10
-3
30
-29
11
66
-73
15
11
55
2
26
-23
41
-67
-13
9
5
-103
55
40
-64
-11
32
0
13
127
14
102
7
20
18
-8
-34
58
-83
-19
34
-48
-20
-120
44
-23
1
47
-1
16
-32
-2
-110
127
125
3
55
-21
17
-38
49
-66
-8
33
-54
117
-17
-115
-22
104
0
-61
-119
-23
63
86
-101
49
-100
-24
-80
51
52
38
-61
10
-75
73
22
-44
85
91
31
10
43
31
1
-94
-42
91
9
-71
89
-74
44
-32
50
42
-79
20
-35
16
14
39
-25
-51
-32
-60
-14
-2
-37
50
-32
-127
-47
8
-41
-63
16
21
34
1
-27
-72
-93
-92
-84
-81
-6
-30
-96
-78
9
-19
-38
17
65
-79
-9
-20
-25
38
-7
5
-78
-35
43
25
-18
-42
-7
37
-4
-6
28
12
3
-31
-7
-32
6
127
21
8
-16
38
-11
1
18
-17
18
48
111
36
63
57
-3
13
62
39
9
36
27
-12
20
-41
-46
52
48
59
-62
-25
40
-18
-13
-25
98
18
40
-127
3
-54
-52
-5
45
2
0
-90
-22
-4
5
-26
70
2
-37
56
39
-80
35
10
40
-24
43
55
-31
48
-83
32
81
-119
-28
42
-11
23
42
-7
3
9
24
-33
-11
-28
15
-21
1
3
-1
10
-26
-6
23
-4
-17
-127
-14
-15
-2
21
-25
-4
8
-12
-15
9
-10
-5
3
-12
-5
13
4
8
1
-6
3
-21
-2
-94
-24
93
3
69
-27
40
-71
-2
-2
41
38
71
50
21
-18
-53
18
-6
48
-72
66
-124
54
50
-38
24
78
-87
6
107
74
21
-22
33
74
-43
-97
-44
63
-29
97
-107
25
1
127
-34
-13
110
20
23
-90
-28
11
-18
49
37
1
-11
17
-30
22
-18
90
36
18
-127
-35
-7
2
-41
-14
8
-32
-73
17
32
-6
8
54
23
-42
11
36
-36
42
-14
-13
-2
32
50
33
-11
-50
-47
51
-5
5
-51
20
35
8
27
-34
22
-20
66
7
-24
69
22
-25
98
25
-1
34
4
120
8
-21
39
-18
-16
32
-81
-120
69
-34
59
32
71
45
54
127
-5
65
-45
75
40
-70
-63
-22
-44
-60
53
40
58
51
-48
-6
-13
12
-7
111
-66
35
-59
-18
53
3
-19
-4
-2
13
18
44
0
18
80
-19
-34
7
22
10
19
-3
25
-16
5
8
5
5
89
-62
-18
6
-21
-8
-127
8
-84
-21
34
37
-81
-6
28
-108
-22
-46
-93
89
49
-124
50
-10
-92
29
-4
-35
2
17
-12
-54
-24
-127
-8
-15
-25
-30
-61
-53
15
-13
127
-11
16
-20
-63
-5
68
36
-59
-44
23
21
-10
13
-69
25
-69
64
74
8
70
-3
5
1
3
-33
-80
32
68
-4
2
-11
6
17
-21
28
10
-39
3
15
8
-5
14
41
7
-14
7
7
76
6
-9
30
0
-18
13
7
6
21
-2
-14
-21
12
14
-6
127
22
11
-1
28
54
-63
53
-19
-66
50
2
84
-91
-39
-43
41
-24
39
35
14
-1
-11
-5
-89
22
69
28
-38
6
-12
-37
-15
-18
54
58
-83
-1
-69
72
-30
33
43
2
76
18
10
40
13
127
-56
61
-22
-16
84
-107
38
69
-26
-103
27
9
-39
31
50
-29
-52
100
-33
-90
-69
-46
-15
4
-52
-43
18
16
127
-28
48
45
122
-16
78
46
-33
50
-58
-13
-54
-58
-4
-37
8
-81
55
17
-41
-83
-52
-49
-6
-8
-3
74
-13
7
13
-75
17
-14
20
-27
11
-18
27
57
9
-3
15
-24
-41
36
-25
-7
-14
-4
14
22
39
12
-14
-17
-32
17
-40
23
9
40
-18
-2
127
-31
25
27
58
-40
72
18
24
-39
-37
-6
-78
-18
-72
52
39
-61
51
27
-26
23
20
-94
-26
21
-35
-5
2
31
53
-127
39
25
-12
22
30
57
-57
-5
116
-12
-18
-37
17
48
77
-26
32
-79
-116
65
-17
-31
-14
-29
7
16
107
-16
25
-127
-25
17
18
0
-61
-32
6
-33
10
36
8
67
-20
16
6
92
48
27
2
7
20
13
2
-17
9
3
77
102
-16
-17
17
-14
12
20
-8
11
-3
6
-7
32
31
-36
-48
-36
80
127
24
1
34
-96
18
32
2
-33
-83
-11
-9
13
34
17
69
-42
-11
30
32
-59
6
-11
-27
-11
33
-12
16
-6
-121
-54
-20
46
46
15
49
82
-37
-81
52
68
93
65
46
66
1
-31
25
-80
5
-9
36
-25
-38
-5
-3
-21
40
30
-31
-29
60
5
-29
39
-13
14
-11
-7
-39
2
-56
-15
-3
41
31
23
-94
79
35
10
-11
5
127
-29
69
-71
21
-1
27
-56
-17
-127
0
-1
9
-77
68
-15
19
99
88
3
14
2
-9
1
-5
-75
2
4
1
-1
-6
-5
33
-12
-4
2
-28
-6
-4
0
2
2
-26
-41
6
-27
3
-3
-48
7
45
-1
-4
-100
94
-1
-4
-41
-1
-19
-11
-40
101
29
24
-84
68
-8
-3
-3
-17
-21
-10
-12
10
27
-110
14
20
16
-24
24
-4
-6
13
1
10
1
2
1
71
-74
7
35
2
13
-49
-7
-26
-11
2
127
-88
-8
67
79
4
-10
11
-62
13
-10
52
-38
-80
4
6
-4
4
-2
2
0
8
4
-44
2
0
4
-27
-9
-4
0
-3
1
-6
12
3
2
-44
76
7
6
-7
-2
127
-2
65
3
23
15
8
-8
-15
16
48
38
37
-9
-4
-24
-5
-16
63
122
88
105
-48
72
53
-13
-25
-32
-29
-32
52
39
-33
-31
106
-127
71
33
86
9
16
6
3
37
2
-8
17
-98
16
7
-28
-115
38
-65
-51
24
127
-7
14
30
-61
13
-7
-76
-56
22
26
-36
-5
-53
-35
-21
-21
86
-1
-31
-33
9
-13
-14
37
15
41
-16
-3
-8
-74
16
-23
-8
-74
-26
-16
-3
63
-46
-52
-5
51
-59
-1
-8
-81
-10
-22
-24
7
-32
-33
-39
127
-18
-52
-61
16
2
2
4
-18
-29
-46
18
-11
-26
-18
0
25
10
-48
33
10
13
-10
-2
31
-36
-22
15
91
-58
-14
18
23
26
33
-18
-26
-15
13
112
-73
15
64
-18
-6
32
93
10
-15
-127
10
-28
22
20
-25
-59
23
-54
43
7
36
77
-20
31
34
120
-26
18
15
8
-24
-3
15
-1
22
9
48
39
-60
-73
-34
-21
-4
-53
-34
18
-21
-14
35
22
41
86
2
-2
0
-23
2
-5
-6
-57
-87
10
-3
-1
7
8
-2
41
4
-6
-26
-3
-3
3
-32
2
-6
2
-24
-4
-4
5
5
2
-25
73
0
15
-11
4
127
-4
20
-12
24
45
-43
-13
-77
38
-56
-2
26
-54
-10
7
-33
13
-65
-69
-50
-86
-70
10
-103
45
79
-69
23
-58
14
-33
29
-4
-43
34
2
-69
27
4
77
85
-122
16
-78
-9
-18
-77
-33
83
-84
87
-127
-33
42
-2
-11
-76
2
-4
-8
-49
57
-9
55
-90
35
-6
-22
-5
7
21
-2
-34
8
3
-102
13
-14
3
-10
1
-7
3
18
4
0
13
9
10
31
-45
26
-2
-4
-12
-72
-9
-46
-15
-20
127
-39
-42
25
-37
33
60
-22
19
-19
1
4
13
-6
-29
35
-51
-58
-34
32
5
-31
-15
-14
36
-11
-13
14
25
40
-38
-15
14
-53
20
-45
-64
29
37
50
-20
24
-40
9
-31
1
-127
-14
9
1
32
-26
2
-110
-10
16
-23
-14
-37
0
6
6
-38
11
-21
38
-13
24
-16
-58
-80
-8
-83
73
67
2
9
55
-11
56
20
-71
-17
127
20
-26
-22
31
10
-53
95
28
-65
-6
-41
-23
-13
1
2
-69
12
-41
-8
58
99
29
55
15
86
50
-68
-28
-49
-77
4
-32
62
28
-110
-127
-23
-14
57
-32
-101
49
-21
-38
-22
4
31
-65
59
5
62
-27
-61
12
-54
27
19
-26
-62
106
-1
8
-18
-64
-97
-1
23
12
-104
56
-16
90
-92
27
16
-13
4
23
21
18
71
-12
-22
-119
-3
-18
-10
20
-37
-11
5
-24
-7
-10
0
-3
11
-48
9
8
-24
-5
-27
-70
-1
-94
-12
-125
127
-43
-31
