-3
10
-7
-4
14
-7
1
4
-16
34
-1
-16
2
-4
3
-1
-4
11
0
-2
1
-17
-1
0
-14
-2
-2
9
1
28
3
3
2
14
3
-8
0
9
8
1
0
1
-1
0
8
-10
3
3
5
-5
2
4
6
1
-22
-7
-6
-6
-8
-17
0
-11
5
5
1
-2
2
3
-3
-6
9
-2
-2
1
0
1
0
2
-1
-2
-4
2
-1
-3
4
-2
0
7
1
9
1
-4
0
-3
3
-1
-6
-27
-19
2
79
-6
8
0
-91
31
-2
-18
-9
3
0
-3
-6
-9
0
-4
-26
-27
-17
-2
-11
-3
32
41
-16
127
-3
4
-1
11
1
-5
25
27
6
-3
30
-4
0
-1
3
22
-20
4
8
0
0
10
5
-31
-19
-21
-7
-24
-6
-2
1
-22
-23
2
0
-1
1
-2
4
-12
4
-2
1
4
1
0
7
-6
6
-4
-4
-4
0
-3
5
2
8
6
-1
7
-5
-7
-2
1
8
2
-1
-6
6
3
-1
-5
0
3
2
1
-1
-1
-2
-6
8
1
-3
1
-1
1
-5
5
2
3
-4
3
12
-7
-6
-4
5
1
1
-6
4
-1
-7
1
2
0
-7
-6
1
4
0
4
-7
-1
4
-2
1
-1
1
7
-7
3
-2
3
-7
-8
-3
-9
-9
1
1
1
-2
0
-6
0
4
0
0
-4
0
1
0
-6
6
2
-1
4
-2
0
4
4
8
2
1
4
-6
1
-1
-1
6
-3
-5
-9
21
-4
-3
35
1
3
36
-9
6
-6
-28
8
-1
0
5
-21
2
8
8
-21
16
-21
-1
-34
-9
-36
-1
-43
-2
-4
-1
-4
-32
-28
17
-11
19
2
-4
-15
-10
0
8
-1
5
-3
-9
25
13
-2
-16
-39
-13
12
1
14
4
40
2
16
-3
5
5
-2
5
8
-10
-13
-43
-3
-4
-1
2
2
6
-11
-2
-1
2
2
-3
3
2
3
-13
4
3
12
5
-2
2
2
-3
2
-6
18
-39
-20
-7
37
-1
7
102
15
6
-6
10
45
-36
0
11
11
-13
2
45
-40
43
-24
-11
-38
-66
-38
-18
-127
-47
2
-10
13
26
31
80
-9
19
-1
18
-15
-7
0
-37
9
29
-2
-21
-33
5
-7
-56
-94
14
9
-6
21
65
53
3
21
26
2
2
-12
10
5
-12
-23
-43
-11
-4
-2
6
-1
4
-37
18
-4
1
0
3
1
3
6
34
7
1
14
7
-7
-2
5
26
1
3
1
9
7
-2
4
-1
7
-17
-7
2
0
-1
6
-3
6
5
-3
-6
0
6
3
1
4
1
-3
-11
2
-1
5
-5
2
2
-12
6
1
-12
-1
1
0
-12
-5
-1
0
3
5
4
-2
5
-4
-1
-5
-3
6
-2
1
-1
4
21
1
1
12
5
3
3
-7
-1
1
-12
0
-46
-1
-6
0
-5
1
1
-11
-3
2
3
7
1
1
4
8
-14
-1
2
1
1
-3
0
7
6
2
3
-11
2
0
-2
-1
7
1
0
0
-1
-10
7
1
-2
-2
-1
-2
2
0
3
4
-6
3
2
3
-2
-3
-12
-2
-2
-2
1
10
60
-127
-1
44
10
3
-5
-2
-2
-19
100
7
0
-4
14
-82
-3
-4
5
-8
4
-21
-6
-23
11
-29
-6
6
3
-9
-3
5
-6
3
4
17
3
4
3
-1
1
-2
-3
1
-2
-1
1
4
0
2
1
-1
-11
-11
-1
-10
-3
7
-2
-3
-3
-3
5
-22
2
4
1
-14
-2
-2
-8
-4
1
-3
-9
5
-6
0
-5
0
5
1
-6
1
19
4
-1
4
5
8
-5
5
-10
1
3
2
28
16
-10
-13
2
-2
3
-11
-7
-6
-21
-13
21
2
-11
-10
-6
-2
-20
-7
9
6
-1
8
29
7
4
-4
26
-10
-1
-3
-5
-2
-3
-18
-4
1
-1
2
0
0
-4
-5
3
1
-4
7
-2
-3
0
0
8
5
-2
7
-7
0
-2
1
5
-1
-1
4
-2
0
2
0
-13
-1
3
1
4
0
0
-3
2
1
0
1
1
0
3
2
5
1
-1
0
-9
3
-1
2
1
1
1
16
-3
2
1
-6
-7
-3
3
0
3
1
1
5
-7
-1
2
2
1
2
9
4
-3
2
0
0
-12
2
-4
4
-9
3
-1
6
-1
-2
1
-6
-4
-2
0
0
2
1
0
2
-7
0
2
-1
2
1
1
3
-4
5
-2
3
-2
2
-1
-1
-7
2
-2
12
-3
40
33
-16
13
-1
2
1
-6
-1
-92
-5
9
-5
-6
-11
8
-6
-32
-38
-2
5
-4
13
46
43
-5
-14
10
-8
-5
20
4
104
-34
-63
3
-6
-32
0
-11
-3
-127
-36
35
-8
-10
-20
5
-10
-24
36
9
38
8
64
39
42
-4
26
50
-21
0
15
1
-23
9
-8
-3
12
8
2
8
4
2
-6
2
1
6
4
-4
0
-5
-1
-12
2
-2
10
4
1
1
-5
10
0
4
-14
24
-1
-30
13
-12
2
-31
-4
2
-9
-10
5
-2
7
7
-52
-1
7
21
23
10
-13
-8
-14
-4
-34
-16
-7
-7
-2
4
-6
74
6
13
81
-7
2
22
-2
1
-4
-26
42
-7
1
11
-99
-6
0
26
-54
21
-37
-16
-48
3
-33
-1
-20
-4
-3
3
-16
-12
-5
-3
13
-5
2
0
3
2
1
10
1
5
3
-1
5
-5
0
-3
5
-3
-5
0
-8
-3
-6
1
2
0
3
4
-5
-9
-6
3
2
30
-2
20
4
0
-1
8
-2
-5
0
1
8
2
2
8
1
-33
3
1
-4
-24
-4
-1
5
-11
6
3
8
-11
-3
6
11
38
4
9
2
3
1
1
25
-19
-2
-5
5
2
6
15
2
-34
-1
-1
-11
-23
-6
-3
2
-35
4
6
-4
-6
-8
3
-2
30
-6
1
4
-2
2
8
0
-1
0
3
7
0
2
-7
0
-22
2
1
-1
-3
0
-2
-4
-4
6
22
16
-17
13
14
1
7
10
6
4
-108
17
11
-3
18
71
-59
21
-44
118
-5
-10
2
52
-2
-15
-22
-26
7
7
-31
19
34
-13
-10
-4
-16
0
10
-37
0
8
-95
6
16
3
32
46
-54
7
2
127
14
8
-4
67
8
-5
-9
-18
0
-10
-31
36
1
4
-4
-4
0
1
7
-21
-2
-4
25
-7
-17
-4
-3
-51
58
-3
19
-83
2
2
-7
13
-2
-19
1
-2
3
5
-6
5
44
-18
54
5
-11
13
16
2
0
-13
-53
-2
1
6
33
43
-48
-25
-20
85
0
14
27
17
15
-5
9
-24
22
-5
-14
20
37
31
8
9
11
29
3
-23
15
1
-53
8
23
15
66
50
-55
33
7
113
21
-15
-12
25
28
1
15
8
9
-7
14
17
0
-20
-4
-4
6
2
4
-3
5
-5
30
-7
-10
5
-3
-16
22
-14
9
-45
1
-4
9
-1
-9
2
2
3
-2
-2
12
18
12
-1
-13
5
-1
-13
9
11
-7
-1
79
-7
-10
-5
-17
-53
65
5
23
-95
3
-3
3
-21
-8
3
-6
8
-11
-3
0
13
17
4
-4
-5
-7
-5
-4
9
2
-2
55
-1
8
8
-17
-20
31
-3
15
-44
8
0
-20
-21
-8
8
9
6
2
3
10
2
2
-13
-6
-2
1
-11
-8
1
-1
0
31
-2
1
-9
-37
-5
10
-4
-6
-50
-4
2
-17
-35
-4
13
8
12
-2
-1
26
10
0
10
-20
-72
-25
16
-10
-1
-25
-9
-2
-5
39
4
0
-1
7
-9
-2
12
16
24
22
-4
3
-10
-39
-36
-4
-5
-7
-5
0
20
-23
-127
13
74
4
5
17
-11
11
5
98
42
-31
-3
10
-15
-10
6
20
-53
23
-36
-7
-53
-31
-35
-4
-15
-47
-3
3
-2
1
8
-5
10
2
4
-2
5
1
2
-19
0
5
4
2
-5
-2
3
-5
10
1
6
2
-4
-4
4
3
3
-2
4
1
10
-52
-2
28
-6
20
1
10
9
-8
11
-2
-1
7
-3
-9
29
11
-6
-12
-41
-27
2
-3
5
19
44
10
-23
4
-3
0
-4
-104
-20
-39
-49
14
0
-40
5
-8
7
23
12
11
-1
-21
78
9
-9
-7
42
12
36
3
54
16
42
-8
27
17
-15
3
7
13
10
1
-3
1
1
1
2
2
1
-21
0
3
-4
4
-18
3
-2
-6
5
-15
-2
-4
4
4
-5
0
-3
8
1
2
-15
14
3
4
-3
-30
-3
0
2
2
-2
-7
-5
-6
3
3
-15
0
-1
-6
4
0
-2
-2
1
30
-2
4
12
-7
3
0
-20
7
2
3
-7
-35
-5
8
2
-1
-3
-7
-24
29
3
3
-10
-4
-5
-5
11
35
1
2
10
33
3
3
5
40
0
3
-21
13
9
5
-4
-41
1
-1
-2
1
-2
-9
-6
-5
0
4
-10
-6
2
1
-3
1
-3
-1
-1
-2
-7
0
2
-1
3
-10
12
1
-2
-4
-3
-10
-52
-2
-5
-50
3
-3
-4
19
-24
12
0
37
30
1
-2
9
16
4
-20
-4
-7
-2
-1
-5
-7
-4
-11
-1
-3
3
0
-7
25
-6
3
23
-1
-5
1
-22
9
-15
-3
-35
-48
-9
4
8
-5
-8
11
4
2
-8
-1
6
-11
-3
16
3
1
-1
12
-4
61
2
-1
65
-1
2
-8
-37
17
-3
-1
-58
-50
-6
0
5
-49
0
43
1
3
3
3
39
-7
8
-1
-4
0
2
-14
8
-119
-6
5
-106
4
5
6
29
-37
-15
-2
106
127
6
3
5
32
-1
-25
-2
8
9
-1
-44
15
19
15
-4
-2
4
4
-5
19
8
7
11
6
5
-9
10
12
5
2
-37
-49
-3
-2
-14
0
12
-3
3
1
11
5
11
24
2
-22
-3
7
-5
18
10
108
-1
-1
86
-1
-4
15
-60
45
15
1
-100
-86
-10
4
-6
-30
-1
39
0
1
-4
0
34
-1
8
2
4
2
1
-7
2
-57
-2
-4
-27
-4
-2
-2
65
-30
-14
3
84
72
21
3
8
31
0
-35
-6
-4
-4
-1
-37
0
2
-10
1
-1
1
-14
-1
-5
1
-2
2
-3
-3
3
13
-6
2
-2
30
11
2
-1
1
14
-5
-18
1
-7
-3
2
-29
2
5
-1
2
-3
0
0
4
22
2
1
3
1
3
-2
-18
17
14
0
-27
-5
-1
-6
-10
-12
2
13
2
-1
1
-2
28
-1
38
43
-35
19
11
5
19
41
12
-1
105
24
19
-11
-48
-4
25
35
-81
-127
-2
-22
10
-45
-1
24
-7
51
5
8
1
30
43
-30
-12
-26
-12
28
18
50
3
19
79
25
36
3
-57
-6
59
7
-78
-123
5
25
-20
-45
12
55
6
9
11
-21
11
52
11
-12
-9
4
-5
10
12
-13
-7
-3
-43
-12
-33
-4
15
13
-47
-3
15
78
-8
2
-21
-19
0
4
-2
-12
2
12
-12
17
50
-40
98
9
-35
24
20
14
-3
-29
77
10
1
2
-25
-18
71
-43
-44
-114
20
37
38
-21
30
14
57
-10
37
-18
43
16
57
53
-5
21
50
65
0
31
27
12
50
10
26
44
-2
13
85
59
-20
-50
26
-31
-38
-21
49
30
56
60
19
7
87
43
14
-37
-4
-10
0
-7
-1
-10
10
-14
-23
-11
-11
5
19
7
-4
-26
39
54
1
-13
13
15
-11
4
-6
-22
-10
-8
-6
18
5
8
-29
3
2
-27
-14
-42
-8
4
-64
-10
-10
-9
15
11
-61
14
51
103
10
-10
-8
25
-9
-25
-18
-13
-18
-10
-18
-5
13
0
1
-3
-12
-27
-11
-27
-1
-12
-27
-10
1
7
12
-8
-23
-10
43
69
-1
-1
-9
20
-17
-18
19
-14
-6
3
-17
4
3
-6
-7
-8
0
-19
-15
-27
-4
5
-49
2
3
-6
52
-21
-39
-3
44
37
2
11
-17
42
-7
-32
-12
-9
1
3
-29
10
9
-17
-3
-1
3
-27
-2
-35
8
-3
4
-6
1
5
18
-68
40
3
119
-14
32
0
-21
9
-8
-36
-4
17
-8
-1
-4
16
5
-4
6
-4
-2
-31
1
-46
3
2
4
9
8
1
18
-55
44
0
112
14
19
2
5
10
0
-51
-2
6
2
0
-19
2
-5
4
-5
-4
0
-2
0
6
-2
2
-16
3
-4
4
-2
27
-66
2
-91
14
-9
-4
-5
11
5
-7
9
5
1
-4
4
-8
12
5
6
-1
0
-5
1
-46
8
-2
-12
15
8
1
19
-50
43
1
126
4
33
2
-1
5
10
-17
-11
5
4
0
-17
11
15
11
1
6
4
0
3
-34
-1
2
-4
1
2
1
18
-31
47
6
115
11
23
0
21
9
5
-22
-3
5
0
-1
-31
20
-17
-3
0
0
-2
7
5
19
-3
-4
-6
-2
0
2
-2
16
-13
-2
-45
-2
-2
-4
5
1
-2
9
9
-1
-4
-1
6
-8
-7
-8
-2
-3
2
4
1
42
-8
-1
7
0
-6
0
-13
61
-73
-3
-127
0
-14
-3
-1
-11
-1
26
5
1
-4
-1
9
-7
2
7
-5
-2
-2
13
2
33
3
-1
9
1
-1
4
-4
36
-12
2
-67
-11
-12
1
0
-6
4
25
4
-1
-3
3
11
-12
-11
-2
1
1
2
11
5
20
0
2
5
2
1
-2
-20
-10
6
2
-61
-10
-30
4
3
-17
-3
28
1
-15
-1
0
15
-4
-8
23
8
-41
-42
-13
-66
-9
5
24
-14
25
16
-8
32
1
-2
-14
19
18
-14
32
-22
28
34
30
42
19
-5
-26
17
-2
-12
-4
-55
14
54
-16
-40
-18
-33
-45
-24
-2
-10
-2
28
11
-19
31
14
23
-26
-25
-72
35
-11
31
31
55
9
42
4
5
9
16
23
-22
-20
-3
-16
6
2
18
26
3
24
5
-26
-6
17
2
8
-10
17
31
-51
-15
1
-10
-22
-37
4
5
-24
3
9
21
-28
49
16
-22
-66
-12
-19
-11
-18
19
-30
-9
45
0
-10
18
-2
7
-15
-12
-74
33
6
35
66
53
22
14
37
3
2
50
55
28
-10
-15
-46
-23
-8
0
-23
13
-42
-10
72
-6
-11
-27
-14
-6
-28
14
-127
44
36
37
73
52
-12
18
61
-3
-2
-33
-39
-14
-21
-4
-21
5
-17
12
14
-3
4
1
-6
-3
-1
4
-9
-7
5
28
-65
1
-11
1
-12
-7
-4
-1
-3
5
-2
-10
24
-1
9
10
-36
14
13
5
21
-7
2
4
-21
-7
14
-10
5
-13
5
-15
-44
-27
1
-15
11
-28
-4
-29
-9
0
4
-12
16
13
3
8
-29
5
2
-4
7
-1
-13
15
-7
-3
5
-15
-5
-7
10
-12
-72
-14
-1
-6
9
-1
9
-2
3
3
2
-16
4
-22
-8
29
-20
16
13
-2
-1
-1
22
13
-38
11
0
-1
-11
-1
26
2
-47
-36
-11
-26
-32
-33
-1
-6
-22
-1
-9
1
0
-2
1
7
-14
127
5
-1
0
-6
3
13
-20
96
-102
3
-99
53
-9
0
-14
-23
3
36
-7
-12
-5
-2
39
-4
0
4
4
-4
5
-4
-5
121
0
8
-1
10
6
10
-24
97
-76
-2
-106
-3
-3
2
0
-27
-2
27
1
-11
0
3
34
1
-4
1
-2
-2
-3
4
-7
-68
-5
0
10
5
-4
-3
-2
-115
54
2
39
-16
0
-2
-10
-22
3
29
5
9
-1
-3
4
3
-12
-11
1
4
-1
10
-4
104
4
1
-20
9
1
13
-18
106
-67
3
-106
20
-24
3
-6
-6
-4
13
-21
-10
-8
-3
21
1
-12
-12
6
4
3
1
6
101
2
4
-30
2
-3
0
-20
111
-42
-2
-93
-6
-12
7
-4
-4
-1
5
-11
-11
4
-2
15
-13
5
-6
-6
-1
-1
4
2
-35
-2
0
4
2
4
6
3
-51
36
3
32
8
7
-6
-5
-4
5
11
7
1
-3
0
-5
3
-8
5
-4
-8
1
7
-10
-97
-3
-2
-6
7
0
-5
10
-125
61
-3
39
-7
-6
-6
-16
-3
6
-1
-1
15
0
-2
-6
-10
1
-2
-2
1
1
11
0
-52
-2
-3
-4
0
-5
2
11
-59
29
0
33
-3
-3
0
12
7
3
4
6
9
-9
4
-15
-3
-7
15
4
0
2
-7
3
-50
1
0
24
2
1
-8
25
-56
-14
5
17
15
-3
3
12
11
-2
-13
3
-11
0
1
-27
-6
-1
13
-31
-27
-8
-33
21
6
-88
-42
6
0
10
-5
-1
-6
-6
29
4
-3
-6
12
-7
14
6
24
8
28
-6
28
5
-4
-2
-7
29
6
-34
16
-36
-3
-9
-5
-3
-2
-32
-3
1
-6
6
-27
0
5
0
30
15
-8
-4
-10
-7
-27
-4
-13
-2
2
5
-15
1
2
6
20
19
-4
7
-2
1
-2
10
-3
1
8
-1
3
3
7
-2
-9
-27
-10
-1
-21
-5
-4
0
-3
-5
5
-9
5
15
28
-7
-33
28
-2
-127
-28
3
0
-35
-35
29
-1
-13
-25
-3
-10
-41
34
8
17
4
25
56
39
1
93
38
-7
-3
5
-30
-39
-99
17
-20
-5
-27
7
-6
-4
27
24
1
-9
8
10
0
1
38
79
26
-8
-7
-9
-51
-32
-5
-10
0
8
3
4
1
7
5
28
38
3
5
-1
1
0
9
30
-21
2
0
7
4
4
0
-11
-45
-10
-1
-20
-10
-3
-1
-3
-36
4
4
5
3
-1
0
-1
8
5
-4
-7
0
3
6
0
-1
6
8
-1
-7
1
4
-6
-14
1
3
6
16
5
7
-16
10
0
4
-15
-6
2
0
1
-7
6
7
0
2
-1
1
0
3
2
3
9
1
-2
0
-14
-3
1
1
0
-7
-1
-1
-9
2
2
3
0
4
-1
12
0
27
-5
12
0
-4
1
3
5
-1
1
0
2
-2
0
2
-12
-21
-1
1
-1
-1
2
3
-8
-6
3
4
-6
5
13
23
9
-11
3
-2
17
-6
-34
-2
0
2
11
10
19
-3
6
-4
-11
-28
-1
-4
1
14
8
-13
8
3
8
1
-11
20
-30
-7
16
0
-6
7
-14
-5
-33
4
0
10
-4
-2
-18
-3
-4
3
14
15
-3
-22
-2
11
-6
-8
11
10
4
8
-2
4
8
6
16
-9
4
-5
7
1
2
11
1
1
5
4
5
0
3
-6
-4
-31
-6
4
-6
2
2
7
1
3
5
6
3
-10
13
6
5
12
8
2
4
5
-30
-7
7
3
4
1
4
3
0
7
4
-8
3
-16
4
9
8
-51
-8
5
5
-11
12
-74
-30
-12
0
23
2
0
-10
12
-39
8
12
-4
-16
-7
-1
0
-12
11
-5
33
7
-127
4
-4
2
-60
9
-9
-11
4
19
21
4
4
-1
9
4
5
9
3
3
3
9
2
0
5
-9
3
11
4
2
-15
4
-18
5
10
1
1
-1
1
3
7
-7
6
3
1
-5
-3
4
3
6
-2
-5
2
1
-3
4
3
12
-7
-2
1
0
-25
-5
0
0
9
0
-7
-2
1
5
-1
-16
11
3
3
3
10
-3
4
4
-1
-6
-5
1
8
-2
-1
-9
6
0
-1
0
14
2
-22
1
15
-1
-2
0
6
10
4
-11
3
-2
2
-1
-6
-11
3
1
-11
1
5
0
-1
-2
-3
2
1
1
-1
-6
-15
-4
1
-2
4
-7
3
-3
0
4
-2
8
2
2
9
6
-1
3
14
30
4
-8
-5
1
-3
-2
-1
1
3
4
-2
-15
0
-5
-6
-7
5
3
-7
0
-3
0
-1
-35
9
3
-6
-18
-10
-4
-11
12
-3
0
-10
-2
-2
2
-2
-10
3
-2
-4
25
22
12
-3
12
1
-14
-6
-3
-3
7
-1
0
-2
-3
5
10
4
-1
-2
2
1
0
7
5
-3
1
-1
4
4
2
-2
-8
-3
-7
0
-9
-2
9
1
1
-4
1
-8
9
-13
-5
15
13
5
0
33
37
0
-6
3
13
-9
-5
2
-2
-2
-6
0
-25
-12
-6
-8
-8
6
9
4
-40
-10
6
-3
24
-4
-10
-127
-27
-10
-4
-6
24
-6
-5
3
-29
32
1
5
-12
-4
-4
22
74
-4
14
-14
22
-17
-24
5
-12
42
10
-2
0
1
6
8
11
10
-1
-3
8
3
-4
-1
15
-9
-3
-5
-1
4
4
-10
-7
-2
-3
-6
-7
6
10
-1
5
-13
1
-1
0
-2
1
1
2
10
4
-1
-1
-1
-2
2
3
-5
3
-3
6
-2
2
-5
-4
-6
2
-1
2
10
2
-10
2
-9
0
0
-8
0
-1
6
-4
-7
2
-5
1
-2
-1
1
-11
7
-1
3
3
-4
-5
3
-12
2
-3
-3
-1
-10
-1
-7
-4
9
2
0
3
6
2
4
6
0
2
1
-3
1
1
-2
7
-8
0
2
-3
-1
0
-6
-5
2
-3
0
-2
1
4
-1
-1
-10
-2
-1
-39
25
-6
-17
10
-18
17
-3
18
-2
54
-9
-2
12
6
-1
-18
11
12
7
22
-3
8
13
14
33
7
19
-7
3
6
-6
55
-9
1
23
92
-15
2
19
29
-34
41
-13
21
26
8
12
17
7
6
12
-11
-45
-6
23
-3
25
38
9
-9
29
5
-5
-16
2
3
-8
10
8
0
-1
0
14
-3
-5
-8
2
-13
-8
-1
17
8
-13
-8
19
9
-1
7
2
-12
-4
-3
-11
-8
-11
34
-12
-19
-16
10
5
12
6
10
-5
23
12
16
23
16
12
-9
-1
7
43
18
-32
-1
23
17
23
17
50
11
26
3
-10
-36
-37
-15
85
86
22
-2
9
29
-21
24
8
127
-33
0
7
17
2
-6
42
-7
16
0
72
20
64
36
27
7
-5
14
-6
16
-6
2
-23
24
19
-2
-3
-6
10
-2
-6
8
31
-4
-5
2
1
4
-2
-2
28
5
6
6
3
-16
-5
1
26
-10
-7
-32
2
4
-6
-19
9
-1
-13
-7
9
-13
-10
-13
-1
-3
-11
0
-4
-8
-18
-1
13
-3
-8
-7
18
-10
-15
-12
-11
-5
-8
11
2
-3
-17
-16
11
-1
-12
-4
-2
-6
-7
-12
11
-5
-5
-3
-15
-10
-6
-5
18
-14
-19
-12
15
-15
-6
6
14
-13
-3
-19
-6
2
-4
-14
22
1
-5
0
8
0
2
-8
-9
-3
0
8
-14
-11
-18
-4
16
-7
2
-8
-7
-8
0
-1
-15
-3
1
-10
6
17
7
4
-6
0
3
-1
-2
-3
-16
-5
3
-1
-3
-2
1
3
-4
-4
3
-2
-5
-4
5
-4
-3
-7
1
-2
-1
-21
14
44
-5
5
-12
-3
-3
-4
2
-6
-49
-9
9
-1
-8
-1
1
3
-10
4
18
1
-4
-2
11
1
2
6
10
-9
-1
-16
0
3
-2
5
-7
0
-2
0
3
-2
-2
-11
6
-2
-1
-4
0
-2
0
7
16
-2
0
-7
2
-5
0
3
7
-1
4
34
-16
-2
4
1
8
3
1
-3
-8
0
4
0
-5
3
4
23
-6
-3
6
-6
-30
-5
-5
-3
-16
8
-6
-11
-3
0
4
-9
-127
3
-13
-17
0
0
-2
-13
0
-3
19
44
-31
3
1
96
-2
-7
23
-10
-5
13
-10
19
-36
29
-11
0
-35
-5
2
3
9
-2
-1
-12
10
1
-4
1
-1
-1
-4
14
-17
1
-1
-8
-5
-1
-2
0
-9
3
-7
7
-3
-6
-1
-1
-21
-2
3
1
3
2
0
0
-13
-1
-6
0
1
-2
-4
-8
3
-3
1
-7
6
4
-8
8
9
2
-2
2
14
-7
-2
6
4
0
1
4
13
0
-5
13
-15
-3
5
0
0
0
1
-9
17
-1
2
-14
1
2
-2
2
9
-6
-4
-5
14
-10
0
-2
21
-2
-1
-5
1
3
5
3
-5
0
3
-1
2
-1
-4
-12
10
1
0
-7
1
2
-5
-2
4
-3
0
-1
7
-2
2
-1
12
1
