-12
-39
-16
-35
-13
-41
28
-21
-12
-36
13
-35
-23
40
-17
-11
-34
-13
-3
-14
-48
38
40
34
-55
14
-16
-17
42
-6
-21
3
-20
57
-25
-38
-17
30
-26
16
-53
70
26
35
25
-60
-63
-56
43
21
37
39
-1
38
24
35
9
-9
4
1
-12
32
7
-27
-70
50
26
19
48
-32
-4
-40
-9
1
-14
14
-5
33
2
52
-37
-24
-25
27
72
-46
50
23
9
-49
-8
37
25
-7
27
-14
-27
-8
21
1
54
25
18
-33
22
36
-22
8
-14
42
17
-24
56
-10
9
15
-24
27
60
-44
-66
-43
-30
9
57
-6
-46
53
-5
-5
-59
20
-9
29
-25
-8
-31
-16
30
18
-19
20
90
43
-2
37
21
-32
31
63
-3
-52
-2
-29
-57
60
24
14
58
19
37
-9
-84
5
3
77
-75
40
27
25
-15
67
-50
37
-8
62
7
-49
-38
66
-1
-25
-9
34
23
26
-30
23
4
25
-4
-24
44
18
15
74
31
12
33
-36
-40
-6
40
39
38
-34
-5
1
-15
20
-9
43
0
11
7
55
-21
21
34
0
-4
51
22
6
-33
-11
13
-13
-42
37
-95
105
-68
39
30
-9
-15
29
-4
-22
-19
21
-14
32
-23
-6
0
-41
51
44
101
33
-80
55
57
-1
49
35
-22
38
19
-21
-18
1
51
-9
25
-26
25
-20
53
34
12
-40
-31
86
-30
9
51
-24
-20
-8
15
35
-62
-35
20
31
-43
26
-53
72
-18
46
-14
1
-18
-13
39
8
-8
-100
22
-60
31
-19
20
-15
-14
-51
40
-67
-1
75
-5
-21
-62
-21
21
-34
-6
24
36
-58
-5
49
0
63
-8
-3
-25
20
17
35
-57
-50
21
33
5
-8
-60
16
17
-16
-74
24
-46
-10
-7
42
-11
8
-82
-23
90
19
31
97
-55
18
-11
11
-9
24
74
4
-36
0
6
6
24
-32
13
47
16
-127
-86
8
8
-27
-15
14
-3
26
26
-1
11
13
-45
-47
-4
-8
-4
-28
-33
-21
18
6
31
0
-2
-12
-3
8
-11
18
-30
44
6
19
-21
-21
-30
10
-2
-8
9
-28
33
-34
10
27
96
0
-22
-48
-29
-13
32
-30
27
-30
-5
-21
-18
-13
22
27
-40
-30
-16
-77
-60
-57
-25
24
15
-61
8
35
66
-40
56
30
34
24
-40
9
-46
8
-4
49
-38
10
-1
8
-33
60
-2
-11
27
-12
8
23
12
-6
-51
-108
-22
-1
-10
15
68
-5
-14
-1
8
-16
-24
-2
15
9
10
-6
38
4
-10
-13
-31
25
-55
-70
-23
24
1
13
-2
12
-6
25
9
6
-42
-55
-40
5
28
-103
-17
-19
0
127
-18
-16
2
44
-88
63
-21
-40
-17
12
-3
-63
-18
54
19
24
27
-70
-33
-2
13
-124
-3
-15
2
-25
1
-54
-11
-49
21
-44
-45
17
-9
33
-16
21
21
2
-59
-7
-10
23
-24
-7
-9
5
39
-11
-19
54
-70
6
15
-9
-1
7
9
4
27
-24
3
-18
78
-27
40
-44
-1
-17
-31
-10
13
33
-38
6
5
26
11
-8
-14
14
96
5
5
4
30
32
55
-4
-23
-19
-44
-6
6
-12
-28
-46
-34
-49
-12
21
1
35
6
25
4
-24
37
12
-9
-14
-20
44
-8
-44
-28
16
24
-5
-58
-32
-17
-24
12
-34
-43
-45
22
-39
6
0
10
-39
-15
-30
20
12
-24
35
-13
-35
-16
-7
15
37
40
5
-24
-64
40
-3
-9
-3
46
-24
16
-31
43
3
-27
-1
-12
-26
68
-24
-47
-44
-8
-18
-18
19
-7
-18
-25
-54
-13
4
-67
18
22
-7
5
15
25
1
3
-9
-17
-38
-24
14
55
-18
-33
18
1
35
14
12
21
-9
35
8
-26
-2
-41
20
25
-39
30
3
22
24
70
31
-3
23
-63
33
2
47
41
20
54
16
22
21
-9
-9
-13
-25
-11
-21
4
-3
-21
-23
-25
11
-33
-20
19
-16
41
-2
-27
-11
18
-72
16
35
25
-21
-9
-22
-17
14
13
-8
-21
-10
8
-7
9
20
38
-7
3
37
19
17
24
6
-18
19
-65
-12
10
39
-5
-3
13
31
-127
24
-11
53
-18
-7
-53
-42
-30
-27
5
11
1
-21
14
8
10
15
8
-10
3
-19
-17
-39
-9
-17
3
-42
18
-44
33
8
10
-37
16
-12
22
-18
11
-36
-5
-35
20
-50
37
6
-21
-6
-9
4
28
5
-9
14
-14
37
-44
12
22
-3
-7
17
35
-5
-1
-14
-10
-2
-10
42
-14
12
15
0
7
19
42
-43
-12
6
-3
44
34
6
24
47
-19
7
-38
25
-35
-2
42
19
12
-61
-50
12
33
-17
0
15
5
42
-18
-59
-32
20
-18
8
5
73
0
-39
-22
-15
-20
28
16
-2
-13
-26
-25
9
-4
46
40
3
-27
37
24
0
25
5
22
35
4
48
15
-7
32
-19
6
31
-28
-34
-16
-37
24
-13
-17
-13
29
-4
-9
2
-20
-15
22
36
-10
24
-15
38
-30
12
18
10
17
12
33
30
-4
12
41
-14
-7
27
3
-20
24
-8
-71
6
20
4
-19
21
-13
-7
30
-17
-32
6
8
2
20
9
23
-3
2
20
41
24
-94
36
-2
21
75
27
-45
8
-23
-8
-10
-18
11
16
36
6
-12
-30
15
5
26
-1
6
19
-3
11
16
-32
-13
-34
-36
51
3
30
-5
21
2
45
33
-6
1
6
-113
25
-9
13
-18
12
29
8
33
4
-33
-14
11
19
7
-8
13
-41
27
0
-14
-52
-11
40
-31
-4
4
-33
-7
-24
10
0
7
3
18
29
-38
-1
-1
-23
-21
-24
21
-5
-22
13
61
-21
-2
-53
-2
5
5
-8
-9
-1
11
-33
2
12
63
-1
2
-18
18
9
0
-28
-32
7
-28
16
32
-19
-8
58
40
-8
-31
71
0
7
-36
-21
3
-32
-14
-11
-2
13
55
-5
-15
-1
-11
-1
8
-11
-42
-6
60
-16
-23
-43
21
5
-40
44
3
-12
33
-76
-48
-8
-25
34
-58
-15
11
7
-24
84
-44
-35
58
-48
-79
-9
-11
-30
-27
-101
-13
52
22
-25
-26
26
36
-21
68
-80
-71
3
40
35
8
-46
85
-6
-17
20
48
15
-24
-11
-38
44
20
-43
-35
27
6
-13
42
-63
-10
-26
1
-54
-59
7
-30
22
-43
-1
73
-90
23
37
-18
-32
17
-71
52
-37
-80
1
6
-15
-84
15
-95
52
48
1
-30
-14
-46
36
78
-42
-69
26
6
18
-15
1
55
9
-1
1
1
-47
-48
-36
62
-46
16
-24
87
35
-30
69
-47
42
-6
-6
-26
3
-1
3
46
85
53
13
-45
-44
-19
6
-24
53
-18
-47
35
39
46
20
-48
35
29
25
31
17
-5
-39
-25
-4
-59
18
30
49
61
115
42
-35
36
70
9
55
12
76
-39
71
40
4
-8
71
75
-56
-9
127
6
52
5
-30
8
-1
-11
-33
-46
22
26
-67
19
-95
68
-49
30
6
27
82
-25
6
-28
-62
-15
-40
75
57
25
56
-30
-50
-72
86
9
-2
57
-3
-23
15
18
-70
-37
-75
1
-28
-81
46
-41
-42
-29
12
-29
20
-4
-15
28
-14
41
-44
-31
-26
-22
27
62
106
-121
-7
-50
-86
41
-3
-5
-118
-61
24
101
-3
63
3
-7
-11
19
-22
-18
-62
78
-54
-3
-18
-32
41
-9
-38
-74
69
46
123
-25
49
-13
-22
-24
-70
73
-28
-71
-64
-5
-68
-57
-22
31
-88
-76
45
1
4
-27
-34
57
12
-82
-15
-21
22
-118
55
12
-21
-76
4
95
83
36
8
44
-36
6
8
-89
42
18
7
-9
36
-22
20
13
-7
-1
38
38
7
-8
66
-12
99
91
-15
-77
-16
119
96
-13
-36
-55
88
52
17
37
47
-51
-32
38
-102
-18
-12
42
37
28
-12
-3
-29
3
24
-17
-28
-16
-40
29
52
-32
31
8
20
-41
34
18
-28
-88
20
18
-33
-106
-93
29
23
44
-34
73
-100
24
-45
6
30
21
-36
6
-4
1
-28
-21
57
-3
-46
34
22
25
-45
-45
-1
34
-90
11
38
-26
8
127
36
29
-44
-47
-70
-30
0
27
-10
2
-112
43
3
-33
12
15
59
14
-25
-17
27
14
1
-3
-28
-33
-7
19
-48
-11
5
-64
30
-40
-26
-32
37
-2
48
11
-44
56
7
10
-4
-40
-48
6
-5
-15
35
27
38
48
31
109
-28
23
-1
18
46
-2
-57
-8
8
40
-28
84
-6
7
33
4
-6
66
-1
-24
-67
-49
15
13
34
-37
-10
-53
8
16
39
-15
63
20
9
4
-32
4
42
-55
30
62
11
-27
-10
-18
9
68
123
-32
-17
7
26
61
14
8
53
37
55
0
-6
-7
-24
18
15
43
20
-44
2
8
31
-5
-64
-9
53
-18
5
28
27
29
3
42
51
-21
17
15
28
5
34
13
-14
25
-48
-8
30
0
-50
-5
21
-23
-46
-51
-78
-30
56
26
-6
30
74
19
-10
-7
-31
-38
-49
6
43
46
-16
42
-16
-74
85
-17
-16
-18
-22
30
-18
-10
3
33
34
49
4
19
34
-56
-26
31
-43
-26
32
-5
-27
23
55
-18
-18
24
-41
32
4
1
-35
-57
-5
-46
-31
12
-73
-18
-7
-28
-9
62
-6
31
-35
-67
-35
44
5
89
-43
43
-17
-7
5
-33
21
-4
28
-8
73
-48
60
43
-16
21
21
-16
65
25
6
-11
-13
-5
34
-5
4
53
-3
-64
44
-14
-58
-24
13
8
-53
95
14
22
4
-52
14
-15
-64
-82
-13
-23
8
62
20
31
-38
-57
-5
53
27
11
42
30
-26
-35
18
60
34
-11
-16
-25
10
10
28
1
24
25
-44
-49
-10
57
17
-27
-31
68
20
49
9
-16
1
-51
-18
-42
45
86
-5
-33
-23
35
-16
-45
21
-30
-38
3
-26
-58
19
35
-31
-34
-16
0
30
84
6
24
10
59
20
15
-7
3
37
-23
20
-14
14
-77
-33
-3
-105
38
-7
-7
-60
45
33
-1
-30
-45
4
18
-11
36
-41
107
-42
29
9
-62
61
54
12
-31
-5
-16
9
36
-47
-27
-43
6
30
-84
35
-6
-2
23
33
5
-16
-18
-48
23
91
-20
-70
44
-69
-48
-16
-9
28
67
41
-31
-27
-18
43
-4
1
-7
90
-9
-68
-20
-24
4
-57
60
20
41
-78
87
-69
-16
7
36
45
30
-11
3
123
-16
-25
-14
11
-28
-40
-8
34
21
-11
5
18
45
5
-24
-70
-48
25
2
23
-7
-48
20
-15
40
-23
38
14
5
-13
49
-32
25
-14
22
32
70
3
-56
106
-6
-26
8
-51
7
37
-17
-20
17
-75
-15
-17
7
21
3
-46
-27
15
44
-35
-8
1
-1
30
-6
86
-76
27
8
32
-53
-48
67
-6
39
14
-38
-17
-41
93
-11
-30
-46
-19
108
-58
-1
4
-37
-20
34
12
-19
-34
42
-56
77
-57
5
-38
27
-35
-24
4
-28
-32
-21
-3
-41
27
12
44
66
52
-76
5
18
-81
0
-72
1
4
0
0
-21
-35
-64
30
-10
-19
2
-40
15
-17
49
24
-64
-41
79
-9
32
-17
-13
12
-31
19
-38
30
-47
-14
-18
-36
25
98
25
-1
48
56
10
33
35
-17
-2
-27
127
62
-3
34
-37
-22
47
49
-84
42
0
-26
-8
11
31
52
-28
-40
-12
-41
-10
-81
17
21
8
18
2
43
89
5
11
-2
-34
-6
-105
24
18
-13
-41
32
9
-27
52
35
-6
-34
-1
-59
18
57
21
-24
21
-47
56
67
4
-31
52
23
16
28
126
26
-23
-35
-22
6
-47
14
64
9
-82
-15
90
17
85
4
-24
24
-62
0
-37
58
34
69
-6
-46
15
27
51
-49
-6
-8
21
28
-22
-24
-23
-66
-67
-46
19
-35
13
-85
61
35
-12
56
52
-11
28
-5
-26
-19
-10
50
11
7
10
-27
-36
-15
-26
-22
1
-34
24
45
8
-17
6
-68
43
39
72
-19
-29
31
74
10
-19
53
-14
5
-1
-55
10
-29
-50
-10
23
-41
-53
-4
-16
-31
49
18
74
-82
55
-69
-32
-48
66
36
50
-23
-9
33
-76
-8
78
10
-3
-15
46
9
25
2
-44
9
-21
-9
4
94
-54
-46
66
-54
26
18
12
28
-17
31
-13
-33
-7
73
24
-6
-4
-53
-24
40
-21
36
95
-22
28
18
41
2
-14
-32
53
-8
-21
22
14
37
-3
6
-31
38
-3
-54
-26
-10
14
44
13
36
51
38
-24
8
-76
58
127
-27
-9
-4
120
35
-19
-13
81
-92
9
33
7
-57
12
24
-6
-65
49
37
32
29
13
6
-9
29
-85
64
-3
4
-20
1
-31
-33
-46
-27
-45
80
-37
-1
15
30
-39
-46
12
10
80
-3
-27
61
5
36
1
83
-25
-51
13
57
-41
-75
41
26
-125
-24
-15
46
-5
-20
-32
63
6
37
20
-1
-41
14
10
-23
5
-39
4
39
59
-19
33
-1
13
-7
33
-20
-60
-33
18
117
-34
-29
19
61
-39
16
-22
62
41
7
42
-24
33
69
10
66
88
-5
-21
89
-59
-52
6
-7
100
8
-27
21
16
-17
19
41
74
23
37
12
7
60
-55
53
9
-25
-2
-34
28
32
-28
41
19
4
18
-8
-57
41
69
-15
38
-14
13
9
-2
111
32
12
-5
78
-36
37
76
-16
50
63
8
6
46
74
123
-41
-32
-46
103
-62
67
-5
36
30
-61
43
50
-27
108
66
38
37
24
22
86
-55
27
-5
65
-38
3
86
-32
-15
-78
-28
-29
31
-75
33
-43
53
0
102
81
17
-19
41
-29
25
20
48
29
-25
-17
2
-39
-4
80
-50
25
19
-80
86
40
10
2
-22
27
25
22
-30
48
41
-5
-27
34
-50
11
10
56
40
35
54
-25
25
-68
13
27
-42
66
-8
3
32
-55
-21
55
8
-59
23
16
35
29
-19
-35
26
37
2
-53
14
1
-64
-14
-12
-15
-20
-4
-10
4
-6
-45
-26
33
-52
-1
-31
-36
-39
-9
10
36
0
22
47
6
53
26
71
15
-29
-26
0
-56
16
10
-27
-14
23
-19
-61
-41
11
-22
-5
14
-62
9
61
-59
-52
7
-28
49
5
16
54
97
9
-12
23
-72
-23
-27
-17
38
-12
42
11
15
11
16
1
-9
-20
0
18
33
-34
17
-19
-32
-15
-23
15
84
86
-33
12
-2
-6
-40
-56
-13
-43
8
-30
-7
-22
-8
-13
29
-12
-42
-1
-3
4
-26
10
57
-81
1
22
-29
-11
-18
-36
25
-30
57
-8
39
42
-34
-37
-18
-10
1
-25
-10
-98
0
14
-8
-27
38
-47
9
-35
-23
-52
17
-44
12
-4
-12
27
-5
19
-56
-118
-16
81
-4
31
-39
59
25
46
3
-29
-26
17
-20
56
-7
13
-73
-9
-9
-9
55
-38
1
-1
56
93
-13
39
-9
11
90
-55
20
4
-3
-10
18
-4
18
-1
-51
10
-30
-25
-43
-4
4
-45
-31
13
-23
25
-45
51
-47
-39
70
40
8
22
21
-1
-25
-32
38
-31
47
-3
-36
21
5
17
-127
38
-9
-22
30
90
19
-42
-9
41
-5
-60
16
-8
-55
10
-35
15
27
5
-38
28
-50
-3
-17
-12
-42
20
3
34
-39
3
4
0
-9
-9
-24
-71
48
-44
-26
-31
-16
65
-17
19
35
5
-16
-66
8
-38
-15
28
22
-20
7
-12
8
10
-13
4
-36
-74
38
17
-6
-9
28
0
-8
46
-10
-43
112
10
43
43
68
-18
-36
-5
11
-2
-49
27
43
-19
55
20
11
-40
-68
-5
19
-3
11
-58
13
-24
-81
-27
47
-1
21
-5
-70
39
-29
9
-20
-35
6
-99
12
-15
-30
-4
-38
-61
16
14
11
2
-10
-23
-13
-41
-37
0
25
-25
-33
-69
-51
-38
-35
-4
-3
-2
10
2
-7
12
42
-22
-13
-1
-37
-25
-7
-13
-8
-18
-22
-36
-16
30
2
-22
96
4
10
-22
-74
3
-31
3
27
-19
-19
19
15
-8
-15
23
-7
34
58
14
2
-62
69
13
-21
-46
-14
-14
-24
1
-67
17
47
-14
3
-1
23
-4
-8
-15
20
-63
-1
-5
-3
0
-22
24
7
20
13
-48
-60
-9
-23
-37
21
10
-57
14
-7
29
-10
24
7
-16
5
12
-30
4
18
74
12
-21
-7
-44
-8
46
10
26
31
65
-19
-12
-22
-4
-19
0
7
14
-23
-33
31
-13
-33
-10
-23
-66
-21
-7
-30
-64
26
60
52
9
14
0
5
-31
-49
-29
12
-30
-5
5
-51
8
0
-18
20
5
-9
5
6
-10
61
33
-24
11
-36
-19
-12
18
-3
-2
23
37
-80
-35
-24
-17
-2
-39
31
16
29
-15
-21
47
-2
-39
-1
33
-61
71
-4
46
24
30
-17
-10
27
-32
36
2
11
9
25
-23
-26
-41
-12
2
10
-35
-37
-85
-49
10
-12
-5
-7
23
15
-12
-33
3
-18
-18
-18
33
-2
13
8
6
4
-6
-20
-100
31
0
-21
-16
56
-6
14
-11
-9
17
-20
-8
21
-15
34
9
4
-27
-12
46
4
-16
-23
-13
-22
17
3
-20
-11
73
1
-16
6
24
32
-29
16
44
-49
17
-9
-34
33
-17
3
34
-50
49
-14
-10
-5
-63
1
-2
11
40
-25
9
23
-21
-60
-3
-7
1
17
-9
6
42
-21
-6
3
-6
-59
-19
-18
17
10
0
-17
21
-10
1
-5
17
13
-19
24
-12
-12
20
11
-12
-40
-20
45
18
-43
-43
4
-39
4
-14
-27
-31
-22
-27
-12
-19
30
-23
35
46
12
-48
11
22
-14
-39
46
7
22
4
11
-11
25
-36
50
-14
-47
-63
-17
1
-7
-31
-127
27
-22
-8
-52
-13
4
-33
-32
-4
2
33
13
-24
-4
5
5
-2
41
51
52
37
29
78
-69
-10
-11
-14
28
52
6
22
0
-7
0
2
-30
-21
-27
-19
24
-11
11
16
10
-8
-18
-34
10
-13
50
16
8
35
-24
3
-15
-1
16
33
-8
2
-10
-2
-6
10
5
59
-7
16
-21
2
-15
9
-33
-21
-1
16
-13
62
-20
10
-66
-5
-16
2
-2
-21
1
-57
25
2
-8
29
-19
10
39
-58
-33
-3
2
32
19
-9
-4
-26
-25
-6
36
-15
1
-4
14
13
-10
-68
-24
-6
2
-5
36
-19
5
27
11
-20
10
-1
18
9
-9
40
-15
0
-17
12
-3
76
12
5
-4
-13
14
-9
-13
23
35
-21
12
6
17
18
14
-32
-38
10
-8
-16
0
26
-29
17
-7
19
-9
-19
18
30
-2
127
-18
-6
-10
-16
-29
25
25
-86
22
24
-8
14
-29
-4
14
-3
-9
-56
-7
10
92
-23
9
63
57
-4
38
2
-48
-56
55
2
32
-31
-10
-14
-17
-54
5
-26
-36
26
13
15
-13
4
0
-3
-19
-25
-5
33
50
19
20
14
-20
-6
-2
-30
2
-2
0
12
-17
10
3
0
-15
-36
1
-2
-20
8
-1
20
-13
-2
20
-11
-9
-16
10
-7
-2
0
-13
2
-17
-7
17
-28
-7
-13
-50
-19
-14
27
3
-15
45
-10
6
40
-28
24
-3
-22
-10
4
6
-21
-6
34
7
-4
19
-51
-2
-3
50
5
-39
-22
-17
-11
-3
-15
-10
-26
29
-15
-37
-9
-11
5
15
-25
8
7
71
5
17
-4
-25
34
0
97
0
53
9
15
-35
48
-18
39
-24
-4
-78
10
2
-6
2
28
25
16
14
-2
35
22
-2
8
-40
-18
-21
39
1
22
-5
-22
11
13
-45
-29
3
1
-13
-14
-35
14
-26
20
-49
10
-5
-32
-5
23
-7
32
22
-36
16
20
70
-25
20
-27
21
-25
50
6
-14
17
-4
11
-28
-5
21
-13
6
11
-20
0
9
-12
2
-9
-5
-2
-36
19
3
18
4
-12
-26
35
6
3
-23
13
12
-36
28
4
20
-15
48
-26
-9
-5
-43
-31
17
10
9
16
-24
-37
20
16
-7
-12
21
50
16
0
-7
-63
22
11
-12
12
-8
-22
11
2
17
-4
-14
1
18
-20
39
-16
-1
-5
-25
-18
-9
-27
-3
3
-23
9
8
-17
-18
-13
-51
-26
15
-2
-13
-24
27
20
57
23
3
37
31
-27
2
-9
14
12
-66
7
27
9
-35
13
2
-4
27
0
-2
-9
-14
9
20
-18
-23
-16
-17
35
-16
33
-18
-25
37
33
-2
-1
-21
-9
19
21
116
-1
44
-25
31
-19
-5
-16
37
11
2
1
-5
11
19
-1
13
-3
-12
23
16
30
-5
8
2
-8
-5
13
-36
9
-6
18
-7
-5
-15
-38
-24
4
-38
-22
23
17
-32
-11
35
4
-11
-9
39
-5
-27
-11
5
-19
2
39
-44
28
-22
17
-45
-9
-13
-30
29
39
12
18
67
-21
-51
37
-12
-13
-10
3
-39
1
-2
-13
-8
32
61
-3
-5
-40
21
43
-11
-8
-20
-55
16
12
0
-43
-10
-11
14
-12
19
-11
-12
-17
-26
-5
25
-29
10
16
10
-5
7
-15
9
32
-20
-43
15
-3
31
-24
-14
-21
-47
4
-37
42
-25
79
13
-32
1
29
-1
-24
-21
-13
-33
1
-3
50
-29
15
3
29
1
9
15
12
0
19
14
-11
32
-55
-42
19
50
-3
12
-11
-1
1
2
-12
9
-45
49
11
-13
-30
-5
7
-23
10
-13
29
1
-45
23
-27
24
-10
-49
-7
8
-17
-14
-30
-32
15
-10
-23
33
2
7
-13
-19
49
-32
68
-9
-43
5
0
12
16
39
2
-26
8
127
-28
-4
7
-72
-8
18
-59
27
-4
-5
-4
32
-5
-6
-11
70
13
-32
11
-9
-5
7
17
-11
34
11
5
-29
27
18
-13
37
-11
-12
26
-4
43
-44
10
5
-5
16
31
-32
-2
13
13
-13
3
16
15
-18
62
-6
14
-29
-29
-35
-21
3
-60
6
-28
-18
-9
20
-7
-5
16
0
-61
-27
-6
40
0
-3
-28
-33
26
1
-6
51
14
-7
5
36
-63
-39
-3
-64
-27
13
-38
-32
38
-15
14
30
-18
-43
10
-56
-46
6
-11
-67
-56
33
14
13
-67
28
-33
4
1
10
-87
86
27
35
-33
-11
-26
-81
-23
2
-9
15
-28
-30
-32
-16
-4
-67
-63
43
21
13
-2
-5
-52
-10
-59
58
-21
-19
-18
27
-7
-10
-31
-25
-110
81
29
-15
-46
23
53
-13
-28
9
69
27
37
47
-8
0
38
-55
-1
4
-70
9
33
18
-38
15
-53
-3
14
14
-39
-69
64
17
81
-26
-6
12
23
-42
-98
-20
-11
-29
25
-17
-5
42
-44
25
13
-37
24
110
-19
12
-33
-62
-3
-74
29
10
14
-64
8
-4
-21
-33
6
-19
49
7
-9
-31
-55
93
-56
18
11
22
-5
12
33
10
-8
4
16
-7
29
-42
-12
46
2
30
-44
-116
79
10
-74
-25
127
31
-26
-40
5
-2
-75
-14
-7
-30
-11
6
11
-40
-66
37
-7
41
-47
-31
1
-25
-44
3
17
-65
-19
8
47
6
-7
-5
7
9
12
-15
14
36
44
61
-1
2
-45
-52
-69
-86
-11
5
-12
-61
99
20
-51
29
59
9
-12
-58
4
-48
-15
28
-54
8
-6
25
77
-41
-34
64
50
82
23
3
-8
-51
-18
25
2
-28
17
9
-8
-7
-56
8
5
-13
59
-15
-56
12
-49
-51
115
-1
-44
8
-58
-78
4
-29
-20
-95
-55
-73
45
-52
74
20
-56
-12
29
105
-1
8
38
-56
-32
-7
-24
92
-11
-46
-25
-37
16
-109
-63
-110
-31
-3
45
62
73
-34
-29
54
-47
63
-19
-17
-11
-24
44
-22
-38
-50
-20
-37
72
-35
-37
-56
25
34
22
2
2
9
-50
-85
-2
27
-73
-9
1
-28
-16
-61
0
22
20
-17
-20
36
0
24
23
-18
59
-13
-34
74
4
92
11
18
-18
59
-49
79
71
-29
-24
25
-21
-14
-4
28
41
-36
-46
40
10
1
-9
41
-28
-55
-8
10
9
7
62
9
18
34
4
4
16
-6
22
0
-65
3
-27
1
18
1
-16
-66
-9
9
-1
35
12
-35
-10
7
18
-127
-108
-8
2
8
20
-31
-8
1
9
36
38
1
34
23
-5
-25
-1
-40
-20
11
3
2
48
-5
5
-21
7
9
25
-27
5
-9
8
-62
-61
-1
16
-24
0
2
40
4
27
3
4
14
-19
-18
-6
6
10
13
14
-9
66
-28
39
8
12
0
46
2
-20
12
10
7
9
-13
-24
15
19
-28
-25
2
25
-29
-30
-44
-19
32
23
5
-5
34
44
-41
-10
-4
25
38
-15
25
34
-37
19
15
26
9
-16
0
8
-17
-32
28
19
-2
-13
-48
3
-11
11
46
36
17
17
21
-25
-26
-3
18
-23
-49
8
-1
12
37
23
-9
-17
-19
44
13
-15
-15
82
-9
47
-2
28
19
-3
-22
7
-55
-47
13
-27
-38
-33
17
2
-17
4
-11
-51
-23
43
22
11
-30
13
-1
17
-10
-67
-8
0
24
9
-2
41
-18
-9
0
0
29
-14
71
-7
-7
-12
-3
35
-17
-14
15
-4
1
37
-35
-22
11
-7
-21
-14
11
12
9
19
-5
-27
-7
35
-22
5
-9
-1
0
38
-15
-89
-60
-10
-31
-40
25
10
-84
17
-54
14
30
-9
-7
5
-19
14
-32
-3
50
28
22
0
5
43
-102
-7
18
8
-12
29
-5
31
12
17
5
-19
-20
101
-20
-40
-26
21
-15
-4
-11
-25
7
19
13
4
33
15
-10
6
47
0
2
-29
26
-4
9
-2
12
-17
3
22
-35
-14
-38
-4
10
-24
-7
13
-85
33
1
13
28
-70
-26
2
25
38
0
9
-7
31
91
24
-8
-50
8
-46
10
1
21
11
26
-19
-68
11
35
15
2
-4
3
11
5
-5
15
-52
3
4
114
-25
10
43
-15
16
2
8
-11
12
6
5
7
-13
37
-29
42
-10
97
16
2
-11
-30
-2
6
6
-17
10
39
21
34
-51
18
0
-48
44
41
3
6
25
12
31
-9
35
4
-45
-7
15
57
17
-13
-86
-42
46
66
-11
-34
1
-20
10
-14
-7
-47
-51
-27
62
-9
-70
-20
-40
-15
46
-10
-24
2
-2
-1
-16
13
-4
21
56
-79
-41
-75
6
-19
27
37
7
-40
-12
-67
-31
-1
0
-16
8
9
41
-40
55
-17
-36
21
-36
-27
-55
-46
-40
-12
-14
-88
-1
-33
-16
26
-30
-50
-23
-36
-36
1
-14
-55
9
20
31
-33
-2
-12
93
24
-29
32
-25
-7
7
19
-48
-10
28
-23
-38
17
29
14
36
-41
15
11
-47
-23
-37
-38
-67
-68
-18
78
31
23
-81
27
-2
-37
11
62
-15
45
-52
2
5
18
34
8
49
-1
43
-94
-19
-25
29
0
-10
-1
3
22
11
94
-66
-15
-22
1
32
72
-64
-39
24
-74
18
47
-11
72
11
48
-16
18
24
17
60
50
51
4
-36
-1
12
5
3
-51
-1
21
-5
-17
10
-51
-21
3
-14
-14
10
-23
-15
5
-35
14
-48
-38
52
45
-34
29
63
43
-6
-9
54
80
5
40
-58
50
47
-50
42
4
28
-7
28
25
-25
1
-13
15
-29
-6
-43
14
-6
-52
32
-28
-42
127
20
-19
1
64
-11
-49
-46
-14
-48
-34
71
-11
-8
-87
75
-38
-41
54
38
-38
-69
1
6
36
-52
-10
-2
34
-31
61
-50
-2
-80
-21
-79
-40
-29
-56
-11
-4
23
-5
60
-8
-37
-30
7
-12
-24
48
-8
-68
41
-14
-36
75
36
19
-41
-53
35
7
22
32
34
40
7
42
-21
-36
-19
-51
6
6
-54
23
18
2
47
26
-61
-8
11
-73
4
-31
-1
-11
62
13
27
-11
-2
-45
-12
28
21
1
-71
30
65
-57
51
-67
12
24
-44
27
48
14
4
-24
-1
27
-36
18
-14
-74
1
-24
28
38
45
-45
-53
57
-13
51
-9
24
-1
77
-14
-14
20
21
-13
14
-3
32
-5
19
-12
-3
13
1
-8
23
3
-2
65
-10
-62
34
-19
-30
45
-4
15
-12
8
15
15
-15
-22
14
44
41
17
-74
112
13
42
0
10
-9
-27
66
10
12
49
73
-7
10
-16
3
8
-59
-38
-50
16
8
46
-11
46
-11
-18
-20
9
61
-19
8
23
-25
-21
16
-8
9
-10
0
22
-18
-19
-1
-1
3
26
17
-18
4
3
5
28
-65
34
8
127
37
-10
15
12
-14
7
14
-6
21
-7
12
-8
-8
-13
-26
-13
30
8
-34
7
6
21
37
-8
-10
-13
8
36
-1
5
19
-14
-9
-31
25
-42
-4
-31
48
36
64
-14
1
-8
11
22
-27
34
-8
20
26
-15
38
-6
45
57
5
33
-31
3
-8
-111
10
4
-16
-9
63
-29
-4
-2
-11
13
-31
14
-36
-3
8
34
-17
-37
46
31
3
-1
-25
52
-33
-19
-26
0
-28
5
-18
83
-45
8
-16
-69
-3
50
-10
16
-40
-16
19
-49
-7
92
9
-19
21
-1
-8
-86
4
18
-10
-5
63
-8
25
42
-15
-10
90
1
6
24
-49
-26
6
14
44
-27
11
-11
-7
14
35
16
48
80
2
-37
11
-25
49
48
2
-8
2
-23
-6
40
6
-17
-120
-6
38
20
22
-2
16
-16
26
-67
-11
-11
-25
31
12
-16
-68
9
-1
47
-19
-18
-76
-19
6
5
-17
-5
-4
6
-12
0
42
11
-4
-26
-19
-40
-17
-29
25
-21
47
-26
-32
10
-10
27
13
-19
-5
7
102
-27
-38
1
-18
-28
-30
25
-14
-26
28
-35
50
14
-34
35
-27
27
-23
22
23
10
-36
23
-8
-7
3
-5
-79
-77
-8
-3
60
4
-73
31
19
-26
-21
27
-28
-5
-35
-21
-50
36
33
-6
0
-54
-22
-9
-1
16
21
6
19
-15
-9
-38
59
-25
-46
-60
-20
8
-19
1
-28
-17
-33
-11
18
14
26
-19
-55
-33
-24
-28
13
-15
2
38
28
-23
3
21
-14
-26
17
16
-9
43
42
0
-2
-18
-15
28
-34
-50
7
10
-2
7
14
10
3
-11
11
5
-6
-41
-31
-13
-30
11
-48
41
-33
-1
26
41
-34
-112
-60
4
-12
42
9
10
6
12
-9
-6
-19
17
-18
-8
-12
5
27
56
-22
14
-6
6
25
-4
17
7
14
-7
2
6
-69
0
-16
-36
43
-17
54
5
-9
41
20
2
-1
11
9
-28
42
-38
8
18
2
-6
-4
5
14
62
9
-7
22
5
-9
3
48
-12
-13
-26
15
-8
3
-7
15
17
18
-27
-9
-5
-60
-46
66
16
-36
-28
0
-9
24
-13
24
47
-6
35
23
25
-3
-6
0
51
30
55
-26
4
-13
2
1
-17
27
-7
-11
51
-2
0
-19
8
-8
60
-35
23
-11
-61
-29
-19
-5
42
6
1
-10
-18
-23
40
-44
24
18
18
35
-1
62
13
-127
-4
-36
39
-19
-33
22
9
-9
1
-8
-24
-27
10
-31
8
-4
-19
-9
7
2
47
-11
-35
-34
-22
33
-31
-2
-26
2
-20
-5
3
4
17
14
-4
4
-25
6
2
4
12
13
12
-23
-66
46
-12
-6
7
-8
2
19
35
-16
-74
-24
0
7
12
7
-13
17
-3
4
8
-2
-7
-117
18
-6
-2
30
-2
-23
-11
11
-7
51
-3
8
11
67
-33
-5
29
-2
47
-28
-5
23
-6
6
13
31
2
16
49
-33
19
8
-17
18
1
-17
-8
-15
13
7
-12
-15
-31
-2
47
-23
-2
74
11
42
7
-26
-8
-7
3
10
17
20
-34
22
-1
18
0
77
18
-108
10
-17
25
-18
-11
42
9
-26
16
-81
8
-20
0
-35
43
34
-1
-2
-24
-9
4
21
-47
-19
-21
-7
-9
15
-13
-20
-30
30
2
-46
7
10
8
-6
-8
-5
53
-17
9
-41
9
-23
5
99
-27
-17
14
44
42
9
-13
-11
-9
10
45
22
3
24
11
-18
24
-6
8
5
-27
9
1
-42
19
9
35
-10
-55
11
-13
-11
22
3
50
8
12
2
-14
-3
-24
2
-31
-11
-15
-13
-78
19
48
19
-38
-23
-12
-23
12
32
6
-16
3
44
15
-70
-36
-5
-32
-32
-10
37
9
-53
-14
-4
68
0
7
51
-6
-5
4
-17
-9
1
19
38
11
23
-22
7
16
45
-2
-7
-18
12
-12
-24
-2
13
-3
-69
55
-77
-69
6
35
7
-31
20
38
-9
30
58
8
-48
-6
8
-11
-32
20
14
28
-11
-5
-9
-27
32
-2
51
2
16
0
-15
-22
9
41
-42
-1
-2
5
-9
35
-3
7
-2
9
-33
-14
29
-18
10
20
-2
-63
12
16
-5
-4
2
27
12
17
-29
33
25
-18
-3
-73
-2
-33
26
21
26
0
16
-28
45
34
20
-31
-23
-16
11
-10
-10
-23
15
38
-24
-40
-4
-46
13
-6
13
-11
-38
-13
-11
-11
24
23
-7
25
42
33
-7
-32
0
4
-12
-15
-11
-43
1
10
13
-17
-10
-1
-5
3
8
33
-3
-23
-6
-5
-18
0
10
-52
-10
8
29
-34
-3
-40
-3
-70
-41
-79
35
-24
18
8
-24
-2
-13
33
-8
-9
-8
-3
-38
-11
17
32
-16
-10
-42
-31
11
11
-12
-10
22
-29
7
43
-50
-29
42
-33
-22
-16
-23
-25
-2
-7
33
-25
7
16
25
-2
0
21
-31
2
26
0
27
58
-5
4
-26
29
-27
13
25
-1
-15
-127
-4
63
-52
-4
-68
-30
-41
-32
5
3
12
-34
-11
18
25
-6
-26
22
-12
5
-16
-21
42
-28
-26
18
-9
-15
17
7
-1
0
-16
-15
104
53
-3
6
57
7
-56
35
8
13
-105
-3
-16
5
19
1
-3
-3
2
11
9
-1
7
21
-10
-41
-20
-17
36
-27
13
-11
53
17
2
66
-11
-6
6
23
-14
-10
-12
-33
-67
25
-5
-39
-5
27
6
6
16
15
28
42
-9
-27
49
-13
18
-58
-52
-2
11
17
4
1
-9
-14
7
-2
14
-20
7
-9
-38
-3
-9
9
46
-3
-31
-23
-18
-1
-55
-29
6
2
-71
35
43
30
21
-95
-2
8
-32
13
-40
16
-34
4
-36
-67
12
49
38
-26
-101
-73
59
58
37
6
35
-26
0
-18
-21
0
103
44
8
-71
23
-14
-41
-13
-29
-42
-5
-44
-14
51
25
23
12
89
-57
-23
-17
-92
-12
11
-38
-46
-4
-61
-49
-12
-73
-52
-46
15
-50
70
4
34
-81
-35
-14
-10
-65
97
-51
-26
-20
49
41
-1
55
34
56
77
26
-32
-15
21
-60
-3
-94
9
-25
0
127
-17
11
-34
7
15
71
42
-12
18
40
1
-3
-68
25
49
-19
-27
19
5
-41
30
-55
59
20
-9
-14
46
1
-14
-10
-30
-28
-24
21
5
-60
-17
5
53
-21
7
62
-16
-4
-2
-91
16
33
-32
-34
35
-21
-65
-60
-21
-29
7
56
-63
69
2
19
-22
71
-38
10
-67
-13
18
18
-15
-4
-61
32
-64
23
-2
26
62
9
24
-71
-8
5
21
-15
-5
-14
13
-17
11
-41
64
-25
-87
-43
3
-32
-10
-17
33
50
-22
18
22
-66
94
39
17
-9
0
-63
57
-8
-56
-10
-33
-34
86
-38
4
-33
77
-24
52
-64
-30
-44
-12
18
15
-39
12
0
-19
73
-83
64
13
17
30
23
35
33
-47
56
11
27
-24
24
-14
-12
-14
37
-17
40
-7
-18
26
54
-54
-38
63
-6
-19
0
-15
8
-6
-18
-58
-1
-27
42
35
-71
-52
-33
1
-86
-19
-32
-16
2
15
37
32
-127
-11
-85
58
29
3
6
-72
42
4
-60
-21
6
-53
23
-25
37
-34
4
-26
-19
-59
13
-42
28
-14
-2
2
11
-34
-11
-40
-65
20
-16
43
-6
-55
-85
-36
-33
-32
-7
-30
-61
-15
-18
14
-36
-53
-52
6
41
-6
-6
-35
51
-56
-30
17
14
3
-9
32
-4
-12
20
27
-13
17
-28
-50
4
-3
-10
11
-26
-7
-17
29
29
-20
-41
-6
-38
34
-3
40
42
-29
-4
-38
41
9
-12
22
5
100
6
17
-4
-26
-40
11
18
-34
-20
6
-39
45
-42
-7
-34
105
17
62
8
13
-13
1
72
-4
-20
27
11
-17
-9
35
-14
-39
31
0
-22
-11
14
68
5
34
51
36
22
-20
44
-42
-29
2
-4
-26
11
14
-18
14
-15
58
18
-42
16
30
7
-57
-13
-18
21
-3
17
41
-37
-12
34
17
-13
30
6
59
-49
-40
27
-10
-77
-27
7
-11
15
-63
6
19
100
35
-16
-54
-19
-33
27
-60
-29
86
-15
-19
-6
-7
1
34
-19
45
27
-9
-7
-80
5
-41
-2
15
-1
27
-1
9
2
6
-39
52
51
7
-12
1
11
67
-26
17
-37
-8
74
-36
-13
2
12
-17
28
-28
11
-30
-22
1
-40
30
55
29
14
49
-16
-15
41
-7
16
-28
-26
-26
9
-23
6
32
-35
-51
-8
56
-17
47
-7
-10
-6
40
44
-6
2
-9
-35
-43
-3
35
-27
76
31
-21
-9
-43
-27
30
1
27
39
-5
20
21
54
-34
-48
6
-64
11
27
-6
27
15
-23
-8
-27
0
-4
-13
6
-11
-29
33
20
-33
22
-2
15
-16
1
9
10
35
-39
-77
-9
0
-5
-18
21
30
13
17
-20
-6
-23
-46
19
-13
-7
-8
-6
25
-57
11
20
53
17
22
-58
27
5
-26
28
26
-23
-12
1
34
42
-44
3
-40
-6
15
15
-66
64
8
23
14
-16
-19
-15
11
-18
-46
-12
1
-10
33
-1
7
45
-19
41
-19
-49
69
37
-5
56
10
-2
-11
23
68
4
23
-34
-7
63
-32
41
16
-17
10
29
26
23
-122
15
-26
-25
12
0
-9
7
-9
16
20
0
-4
58
-63
44
-11
-10
-52
-26
-5
-15
-40
-3
11
-24
33
-8
36
24
-22
-3
-71
4
-8
-22
3
127
-27
59
-2
3
-39
-1
-29
-33
-11
64
30
0
0
-93
-6
-16
-3
36
-4
12
35
-3
-32
13
-11
12
26
36
20
0
-23
1
3
5
-5
18
-9
-30
8
-21
-26
-5
-5
19
-1
127
31
-33
-15
50
-21
2
36
8
-9
9
-12
47
37
26
-5
-31
-7
25
-16
-5
29
15
-54
12
9
1
8
-15
48
-9
7
-24
-2
-4
-36
13
10
28
-27
7
-2
-15
7
16
-1
6
23
2
-17
2
-22
11
1
12
18
55
50
-1
-16
8
25
-35
-13
-2
10
13
-28
-12
6
24
7
18
9
27
9
38
-23
37
-3
-15
33
-25
4
0
-12
-12
10
33
-20
-22
19
7
51
59
-60
14
13
-19
18
38
-18
12
12
0
10
27
-13
4
-9
10
12
-6
13
-12
-20
-23
-2
36
4
-22
17
-26
14
-3
26
43
-17
-20
-3
-7
0
21
-7
40
-1
17
54
22
-26
-14
6
-3
14
14
-16
-1
-15
-1
48
-24
-12
26
-48
6
-31
8
17
-24
-28
-6
10
51
-18
2
20
6
11
-1
-4
-13
22
-1
-11
-24
4
25
8
-2
77
-13
-11
-4
-6
19
-3
27
-14
-5
17
-10
-19
-27
3
33
8
-7
-12
-17
-13
-16
-1
5
22
-41
-2
16
-10
-19
14
-14
17
-1
9
-7
18
19
-42
-27
28
2
22
0
-11
9
-24
-28
-18
10
6
2
1
4
-18
20
-4
3
-7
15
8
31
-36
44
9
38
-12
11
1
30
-2
22
-29
-12
17
-6
-5
-38
-5
-27
-12
0
4
23
-6
29
-50
-33
-41
27
9
-11
-6
-7
0
-7
1
-51
34
17
39
-2
-18
-5
15
-16
18
-1
23
-19
4
26
-11
-64
27
39
7
-10
-16
29
17
-11
56
22
-5
17
27
-25
16
-7
13
0
-7
30
-3
-11
-2
-15
2
11
-89
-18
27
13
-58
14
-21
-14
-12
-9
-11
-40
-8
23
31
-2
-12
-5
-28
-17
-23
-29
3
17
13
41
21
20
-11
5
24
-35
1
10
-22
-5
-12
11
-7
-29
17
31
127
-40
2
-27
42
-10
-7
-16
-30
3
19
17
-40
-5
9
15
-16
-45
-3
-7
24
-36
39
24
40
-9
-20
71
-3
14
55
-4
50
-17
51
81
-23
45
-34
18
-29
-46
69
1
14
26
-17
-40
10
-49
1
-5
2
-14
10
59
5
-16
-9
42
21
41
30
58
48
-22
0
42
-48
-26
18
14
58
-10
-20
5
-16
-5
7
5
-60
-21
37
-18
-25
-4
-8
-54
8
2
-21
18
24
9
-5
4
-15
40
-38
24
96
39
3
4
21
31
-10
-59
-23
-3
-3
13
54
-45
21
-4
-2
49
-2
19
77
30
66
-45
54
68
39
13
6
-31
99
62
25
13
47
53
24
-22
-25
31
-54
11
-103
55
15
2
-114
72
109
47
6
-24
49
61
35
1
-28
-70
4
24
42
-3
41
-23
6
-18
11
-7
-22
13
-23
-18
-8
32
-45
19
7
-35
57
88
-106
54
-27
17
62
-3
49
8
-30
7
28
30
-15
-14
-22
1
-11
51
51
18
-21
25
21
-13
8
65
40
25
-11
-1
-53
30
5
2
-26
6
14
48
-20
3
26
-16
1
8
30
-6
-2
10
9
-29
56
10
16
-5
26
-24
11
-33
-28
4
13
-21
34
11
11
-48
11
49
19
-11
90
34
-1
-6
-18
-12
-32
16
-12
19
-46
15
27
46
26
5
13
28
32
6
12
-40
-17
41
-26
20
27
15
-13
9
-10
112
-19
23
56
25
45
-43
-43
29
50
-2
9
22
-3
0
-2
-2
31
17
3
12
-40
30
-29
52
23
-6
-7
64
-9
-32
-6
-48
-20
41
-18
16
-18
-6
2
-13
19
-6
-9
-20
-9
8
33
11
3
18
-12
56
-22
57
-8
36
66
-83
9
7
-39
-46
24
-11
-25
0
30
-62
48
51
3
-114
-13
7
-67
-14
-28
-46
22
3
-11
-2
14
17
13
4
-5
51
-14
-39
16
31
7
17
7
-5
10
-23
-17
4
-39
-19
-16
42
-1
-28
-23
0
73
12
8
-7
11
31
17
-7
51
-31
-11
2
3
-3
-18
-11
3
-8
-30
-32
20
45
-10
-31
51
-54
-18
-22
-35
-48
-2
-64
2
-7
-43
3
-20
-19
45
-6
34
-64
6
5
-4
11
46
47
-47
-116
-8
15
27
7
-19
64
-20
17
22
-48
5
-20
-35
22
-3
24
50
120
7
74
-18
21
-61
74
15
7
-58
-5
23
29
10
-8
39
-67
-2
-55
56
53
3
-6
3
0
-35
-3
-63
-12
32
-12
-30
15
15
37
-36
-13
-8
63
29
50
-3
-19
11
-57
-16
1
5
7
-2
-22
127
59
19
-11
-31
-54
-96
11
-24
30
-53
-38
12
-25
-71
-49
4
4
-2
-19
-54
-33
8
9
31
-7
11
53
21
-63
30
12
44
-122
32
-42
-71
29
13
-27
41
30
17
47
78
-1
27
-119
-8
-37
-21
-29
91
-8
38
29
111
41
44
-20
63
-17
-66
17
48
-29
12
-3
3
55
-26
4
52
-37
39
44
-12
-4
-32
-40
-2
28
52
52
-7
-68
24
-23
-36
-13
18
12
-13
19
-43
2
-14
-16
-7
-8
5
-26
-16
-26
-3
-24
-10
34
-1
40
-23
1
-55
30
2
-7
8
-34
34
-38
-55
-24
3
-17
48
3
-29
-41
-12
6
9
-39
-41
11
-26
35
-27
57
79
-24
17
14
14
26
19
-67
39
-81
-9
40
2
-30
-28
14
3
-29
21
-4
-23
-12
-63
-46
-8
4
10
-71
26
29
22
-21
-20
29
21
12
15
-7
60
-106
26
-25
-12
29
25
-95
64
-33
-9
-56
-15
-20
36
-105
37
-28
-31
-74
-12
-27
44
11
6
71
-9
32
-19
1
-47
-2
-9
-31
50
46
38
19
49
2
-9
2
-23
31
8
24
-19
8
1
-73
-22
-22
35
62
39
13
25
61
-41
27
-82
26
-20
-23
115
-1
18
-2
-4
24
10
38
-20
-48
17
-58
-15
1
7
-12
3
-15
13
12
9
20
19
0
37
-8
-12
-29
-72
12
22
-11
4
6
-44
0
-22
66
8
-9
29
-61
28
-15
55
34
-11
127
39
-18
14
-58
-84
36
24
-40
-7
10
-83
-40
-23
3
13
29
-4
81
-2
35
-22
14
-13
-23
-7
2
35
27
0
0
40
-38
-8
16
24
25
-39
34
-11
16
60
4
-2
-4
-13
46
59
-7
-52
33
11
63
39
16
-35
24
-12
11
-1
-86
-16
-77
-31
-41
-1
2
31
-11
-10
-11
-27
-18
-3
-17
28
-28
-31
59
2
33
-14
-7
14
-46
-24
-27
36
12
-114
30
11
-12
-51
8
13
40
-5
-60
13
24
23
37
101
48
8
-16
55
63
-9
-42
47
-14
28
19
21
55
2
31
-61
-38
-10
35
14
67
-29
-10
-10
-28
27
54
-5
16
-4
10
-28
127
-28
1
5
4
31
3
8
53
52
-45
-3
2
-9
26
-10
63
115
3
31
-20
-20
-38
61
-6
-11
-12
-13
-33
47
22
-16
-51
-14
-46
-8
7
-12
18
12
49
-38
-27
-5
28
-3
-22
-54
34
47
70
23
-5
-20
-32
5
-7
47
7
24
-13
11
36
60
19
83
-7
-19
4
-22
11
-39
45
31
41
7
17
18
58
-33
-6
-8
27
-49
9
37
105
-18
9
-83
-31
35
22
-13
-2
9
-10
85
-18
-9
24
-14
55
51
-6
22
3
-106
17
53
-32
30
-22
-53
32
3
30
22
12
13
15
31
-18
-75
32
-25
11
-35
31
19
-50
-12
-18
-15
-2
-51
29
21
-97
-89
-19
8
7
-26
17
47
-16
46
-17
9
-59
31
55
37
-20
7
17
13
31
24
51
42
33
-17
-89
-9
58
18
-16
-51
-15
-35
-35
-1
-24
12
4
51
-31
-1
26
-22
45
15
6
22
51
46
28
-5
-48
-22
-58
4
-84
2
87
-30
7
21
12
-36
17
6
-47
15
30
11
-16
41
-39
-22
-18
14
-4
8
-20
-51
-24
30
-116
-28
-11
-50
-40
-99
69
124
-30
-19
-55
-24
-5
65
-11
10
42
23
-55
-5
-23
-50
-37
7
65
-109
-38
29
-57
71
-15
61
54
-2
-2
54
-2
-54
2
49
31
1
44
-40
-99
116
-17
-33
-32
-41
49
-25
-64
34
-61
-8
54
65
4
-14
-85
-4
66
18
25
0
64
-15
-6
23
-48
-7
58
-103
59
-111
-85
16
8
-30
92
73
-46
-8
-62
-13
30
10
7
111
66
56
-51
-2
-4
9
46
12
3
65
-29
86
115
-40
-9
-2
31
-21
-81
26
1
-79
-44
-123
-5
36
47
4
-8
-20
-24
72
0
-19
38
-33
-17
33
-70
22
33
-1
49
20
68
-65
-35
34
25
-35
-8
-16
1
8
-99
-77
-31
59
-76
47
-23
34
-7
26
30
23
30
26
-19
127
8
-81
-17
10
67
-79
25
39
-83
6
54
40
72
-14
10
35
93
25
71
75
-1
-125
-72
-43
17
-52
1
-5
23
-20
-34
29
-48
4
-25
19
-19
-8
7
-35
44
22
50
25
28
-20
-20
19
-47
-19
-3
-111
61
-57
-6
30
-54
9
-33
-42
40
43
-25
-72
4
-23
7
11
12
-8
6
24
67
-24
-49
-11
5
-74
2
-18
-38
53
-16
17
23
-34
89
58
44
-41
-67
61
24
-87
0
25
-39
-62
-103
99
75
11
-117
-76
72
53
14
62
4
-35
-1
11
-26
17
11
90
-60
-93
51
9
51
0
-53
53
13
-9
-41
-73
48
-9
69
-14
-35
-28
84
11
20
-113
-7
-29
1
38
86
31
-12
-18
48
-29
-9
109
-39
-33
46
-11
22
-24
-115
69
52
56
53
-14
33
-79
15
29
-3
-61
-26
10
12
51
50
-35
2
-37
35
17
24
-17
6
-6
-28
28
-28
-9
-4
2
-16
27
-18
29
20
-30
-56
60
-16
11
55
-13
26
27
-18
44
8
35
-34
4
-29
31
40
80
26
-70
0
-51
33
-13
-8
-5
1
-65
27
4
-45
-12
-13
-84
8
-61
40
50
-37
105
29
-92
77
-31
-22
54
39
-11
20
-36
-3
89
8
-47
-48
-39
75
3
79
22
1
-12
46
12
-71
-75
-80
-23
-1
20
48
-29
-6
20
21
11
-78
-26
-37
-7
-4
15
29
29
15
11
16
66
12
18
1
-31
-50
-59
10
-49
42
4
39
-34
13
-5
-17
-30
27
-10
26
-27
-50
-16
-3
15
-54
42
-15
9
61
19
-22
-25
-9
-22
24
-25
34
36
-76
37
71
9
33
-11
30
17
-16
37
-19
-39
-40
-6
23
-31
-3
59
-24
-6
3
-70
-1
-39
65
33
22
61
-10
-2
17
3
-57
2
-64
80
-13
-44
-25
9
-59
16
-46
15
-21
-70
8
-35
-25
9
-18
31
87
-77
-60
33
13
87
-22
17
48
-21
-4
11
-7
-54
-46
-81
-29
61
-1
76
-10
-28
-120
45
-82
20
-44
-59
36
4
-41
111
-70
-5
2
-123
9
127
-15
-27
15
18
-10
-8
14
34
-24
-26
-24
-29
-21
-49
-48
41
25
69
8
-1
71
110
31
-20
-13
1
-32
-10
14
-72
-14
-49
-60
-81
-42
8
48
64
-53
0
-32
17
-4
11
-3
-11
40
10
12
-15
-18
73
-47
37
-27
-40
-67
-33
-2
-71
-57
-28
-70
71
-5
110
-11
21
26
2
-11
22
-1
33
-26
3
-74
59
-42
34
68
11
-37
2
-5
-2
24
2
77
21
87
97
31
3
-9
33
-3
-41
-3
-8
14
50
-56
-4
48
56
-39
-34
63
-12
-12
25
-63
-28
45
12
7
-36
-56
3
15
41
-112
39
-7
39
23
-37
117
41
-21
-36
-17
-6
-18
-16
19
-8
18
-2
54
28
-35
12
-59
-123
24
23
74
-40
46
21
40
-90
28
-38
102
28
9
-42
-7
-16
-23
26
-19
0
-45
-41
39
56
-88
107
7
2
-60
12
12
26
-1
2
35
-38
-41
57
-89
-36
-103
9
89
-32
4
43
11
-24
-7
0
52
-6
10
-16
5
-1
-34
42
-12
39
42
33
14
6
12
-6
-5
1
-30
18
73
53
-44
-74
-17
-9
-57
-28
-83
12
31
17
5
-52
-22
40
13
-39
-126
2
53
-16
-44
-31
55
1
-26
-6
-17
-1
-4
-23
34
-46
-34
3
-2
66
-11
-21
81
-50
6
5
83
-19
19
-14
66
14
11
49
-12
20
-37
-1
-80
43
8
14
27
-82
-30
-27
-15
-9
-71
1
-49
64
74
26
99
-119
8
-1
-50
-23
-19
-25
-23
58
-13
-8
-29
7
-10
41
-24
6
-35
30
-60
30
82
-50
39
-75
-45
44
77
3
0
39
-11
-55
8
-83
-12
50
11
16
-127
-88
-28
96
-15
31
-38
-46
10
30
-14
76
48
0
-53
30
34
-61
-12
47
-15
-10
-10
-17
-13
5
-24
-36
-96
17
56
-115
-54
40
-36
16
-29
-21
-4
64
5
-68
-44
43
45
79
-89
-14
32
-25
17
-13
68
-11
79
-8
26
18
3
-74
43
5
-44
24
-1
-11
24
-19
7
-23
8
10
-39
-23
-53
25
6
-2
23
-92
-52
-23
7
-3
-21
39
16
37
24
13
-48
-100
-7
-78
-67
10
-54
-53
43
-69
36
-41
-33
86
-7
4
44
12
13
-28
31
125
-21
28
8
82
13
-27
-32
-79
-1
-58
-16
-24
-6
-25
-68
66
-1
-15
16
-60
-57
-27
59
-7
13
35
36
-3
-62
-30
55
60
51
72
-23
-40
57
15
48
-37
58
8
-39
-29
12
3
15
-28
6
23
-18
39
0
41
12
0
19
8
12
0
106
33
-16
5
26
6
-17
23
-93
-53
-88
-32
-53
-55
-62
-50
-49
35
104
34
43
2
31
-5
12
-47
28
41
-82
45
-32
7
-25
79
28
0
63
-16
78
-29
-9
-45
-20
-4
-16
20
-22
-40
11
20
3
24
-11
-4
-18
80
56
5
20
-8
-35
-102
31
-10
-23
-2
46
5
-66
-11
12
14
-7
16
-46
-3
52
-7
62
-61
-2
-29
64
-37
31
-17
44
-69
1
-20
-34
-39
-10
9
11
-44
-70
-31
19
35
-2
50
20
-104
25
65
-40
-42
-2
43
-42
-3
-35
-12
35
46
0
37
21
6
-66
19
22
13
28
-72
-26
-65
6
34
-25
-28
95
79
-5
-7
-41
-16
-28
24
4
20
-60
-42
-41
-5
-9
30
6
-47
-3
-53
-11
-26
0
-26
77
75
-4
11
-43
-33
86
-6
-35
19
117
-11
-1
-29
-104
-66
43
-28
-35
2
-2
-51
23
-24
-27
17
23
38
18
115
127
21
-29
28
1
-46
-49
-81
-82
-50
-7
4
-25
6
-56
15
-73
-23
11
-43
15
7
-46
-12
-65
0
-34
-38
-51
38
27
30
-16
5
-42
-42
-25
39
-70
6
-28
-12
29
54
-49
-17
-24
49
-23
-23
-5
-7
-4
9
49
40
-80
24
50
46
-67
31
52
-24
-7
58
51
-12
-64
60
96
4
-23
5
4
95
-23
-24
-17
-91
24
-27
-71
-65
-26
43
61
55
-47
32
42
22
-2
-36
11
-4
4
0
-101
115
-14
21
40
39
-32
65
-87
21
25
-30
31
-5
30
-12
12
29
45
36
-51
21
-13
35
-21
-8
-27
-1
-5
22
41
-50
-3
-35
-15
-11
-14
82
-27
-48
-22
-33
-22
-56
38
40
0
-34
-39
46
-44
-45
29
85
-29
15
29
36
-74
10
-42
-6
-4
-10
83
-82
-15
29
-24
-7
65
-17
12
-51
-29
-46
-25
-18
-34
17
49
-40
-19
-62
-2
74
17
-48
30
35
-43
-39
-5
-32
-14
25
-38
-26
21
20
53
12
8
-26
34
-1
22
31
5
-48
-49
55
26
-3
26
16
23
30
17
48
29
32
-12
-5
-49
42
100
-18
0
-21
-38
5
26
28
18
10
-27
12
-14
-12
-16
-51
86
51
-94
58
-10
35
8
24
-50
-59
25
59
-22
-20
45
46
-96
-58
-37
22
-25
-58
-30
36
-68
92
-65
19
-30
-51
-23
-24
51
16
51
41
-116
1
8
27
42
93
-28
-11
-21
-19
-27
-8
4
-65
34
26
-46
-27
-23
-26
-1
17
13
-3
7
-53
8
32
18
-28
21
-10
6
-83
24
70
1
-40
15
4
-20
-1
18
2
-62
-2
3
63
5
23
29
23
-12
1
-1
-4
-9
20
7
0
29
8
-25
-6
16
21
18
-8
-32
1
22
15
9
29
-12
2
-29
-58
-44
-5
-2
6
-11
31
-81
-49
75
55
12
-18
57
13
15
-17
-3
96
-17
-20
-20
-4
-40
33
-4
-1
-53
-37
-16
-6
-4
-4
46
-14
13
43
-4
3
-13
-20
9
52
-18
-21
-5
-62
24
63
-33
-23
-19
22
-47
-27
3
35
2
77
-26
14
-22
17
-35
-8
-26
-33
-35
-37
-14
-5
36
29
2
-8
-14
21
-16
-20
45
-28
18
-30
-4
-32
-5
-37
12
-26
-45
20
60
61
-6
-5
48
-3
0
46
-44
-64
8
7
58
30
-2
57
18
90
-5
22
-9
-6
-28
28
-6
-5
32
10
20
-63
-3
-24
26
30
-41
103
-91
6
15
10
51
10
37
12
-28
-17
15
87
28
1
30
-8
0
-12
-75
38
-20
12
-2
-12
27
31
-23
46
-6
-18
7
14
47
-32
8
-13
54
21
-33
-31
-51
14
8
2
80
-25
-104
-9
-9
-25
12
11
18
57
-34
10
66
51
92
10
-42
70
25
-22
-14
-24
-17
41
-2
10
-2
25
-3
57
-11
5
26
82
-27
25
22
-5
-30
20
54
-37
-3
-89
2
-29
-34
26
18
-31
-8
50
-22
27
9
14
31
-14
3
-33
-33
-34
-110
-15
-24
47
22
-44
-57
14
7
16
7
-38
-43
-47
34
14
-20
55
54
-50
27
70
12
2
85
-45
67
-27
-31
8
-24
14
12
-44
-127
9
13
40
4
-15
-2
22
28
-9
-7
13
-15
2
41
9
-24
38
-59
29
-58
-59
-45
21
6
-16
8
-7
46
13
49
33
12
64
-7
17
41
12
81
-1
81
4
6
-11
-8
-101
-65
-88
74
24
19
-7
44
-82
8
-24
1
19
16
9
1
-52
8
-64
2
-35
68
1
8
8
21
10
-91
-22
-12
-32
-18
5
21
127
-92
-57
38
-72
-54
-28
38
8
-21
3
64
-4
49
-4
-8
-113
-22
30
-53
57
-20
84
-90
100
-10
-28
-7
26
-53
-19
-63
-1
-40
-45
12
-6
-2
43
10
18
-7
-45
-36
12
-43
-59
60
-39
-17
23
17
5
-5
-29
-24
-26
99
-45
-8
7
21
30
23
-51
15
-5
-18
-17
6
-57
22
0
82
40
7
40
-26
0
98
-4
13
-17
-11
-21
57
46
-4
-7
30
18
31
6
-58
21
3
24
-22
40
-65
-107
15
35
-37
-20
14
48
-20
61
13
4
-9
-60
47
-107
13
59
-14
-8
37
11
8
110
36
-3
13
-57
-39
5
-31
100
67
-32
79
-32
34
95
-44
9
44
63
-45
9
32
29
-34
-6
-32
-24
-39
-25
27
-64
-37
-57
-29
-25
-5
-45
-57
45
-36
46
28
76
-69
-7
-17
-9
-23
7
31
-6
-44
-21
-29
-23
-60
-31
-28
22
-23
-11
59
11
0
30
62
-2
28
44
-12
59
48
-90
-15
36
-23
-6
-25
-22
-44
-20
-71
13
-22
34
-61
8
44
35
-75
35
-23
22
-58
-34
48
5
-70
-2
74
30
11
-20
8
-29
50
10
44
-21
-7
-22
-17
-51
-31
67
-1
-51
-23
-24
4
26
1
0
-39
18
8
-13
9
-5
-43
61
-78
-41
25
-3
29
2
-64
40
1
9
-8
58
32
-8
-43
13
-71
-14
-50
39
-7
20
17
8
-16
-79
16
15
20
-29
-81
16
17
13
-36
42
-29
30
15
62
31
-10
7
-1
-67
24
10
-57
29
-41
60
-37
-19
-56
32
-10
-50
27
-37
0
32
-20
-2
16
-56
0
-72
-22
50
-10
-57
0
33
12
36
-8
14
4
9
-48
-8
4
61
-83
-31
11
-12
-14
38
2
-33
-22
-15
2
6
31
1
19
11
-11
-34
7
-2
-14
-14
-10
19
5
-16
11
-9
19
-38
-15
-42
25
-1
-32
23
-21
47
-18
28
18
-34
0
14
-10
-29
49
15
-40
-127
41
-15
40
22
38
40
-3
-5
-16
14
-46
28
-11
31
-35
-7
-30
33
15
0
-23
14
-37
-53
-1
23
29
-9
1
23
-10
-24
-87
-8
40
-4
29
74
-6
-6
-64
17
-40
51
8
3
11
11
54
16
42
13
-16
0
82
21
10
15
-52
-42
15
9
24
-27
-13
-9
-28
-12
-11
-17
-16
-56
0
0
-13
-16
19
-38
-41
29
11
26
-13
23
-96
30
104
-6
-39
-23
-13
72
20
23
95
16
9
34
-15
42
24
8
-1
-3
11
0
42
62
44
-6
-54
83
80
-35
-18
-37
40
17
18
4
-25
27
-26
27
-14
49
48
-53
15
24
1
-6
6
18
-13
22
-7
-32
37
17
13
26
-20
-20
-79
1
-38
-4
-43
7
0
-7
29
-1
-16
-19
40
25
27
-63
-23
0
-1
-57
1
-7
-16
0
-30
29
-30
32
51
-31
-12
-50
27
-34
-41
16
-62
-85
-6
-60
-39
7
0
17
-45
53
0
-19
26
46
-6
19
-91
18
-8
-12
-43
14
29
31
-31
-18
-12
38
23
-44
1
-51
-40
-49
5
8
-78
37
1
17
-24
-14
10
23
43
13
-41
16
-1
5
3
-3
47
38
13
-2
11
-53
-5
-55
47
45
-53
3
8
-3
35
33
2
-2
49
40
-25
26
-12
-8
8
-52
-39
-28
-11
-97
-4
-18
-9
7
-5
28
28
-20
-55
-34
3
9
94
33
28
18
3
18
64
72
-3
81
-11
-1
40
-48
13
-11
17
-16
-28
31
-85
-11
13
36
-13
-25
-15
-35
4
31
43
-32
14
29
-35
-13
12
10
5
-68
11
-36
-31
11
-47
25
-48
23
-72
16
49
4
-28
-15
4
-23
-26
-55
14
20
-6
-18
19
-1
6
-11
-41
14
30
25
14
-17
-22
-10
-40
15
-17
-3
8
-20
10
5
53
-5
-6
19
13
-11
5
-14
-17
-60
54
-21
-11
-1
-7
18
9
-57
8
-26
-17
-24
-3
-59
28
50
-25
-40
-9
37
-4
55
-26
-17
-17
-9
1
-24
-67
11
-27
11
127
-25
-16
-15
-18
27
-16
16
8
-6
-34
-35
-17
30
-11
-35
-31
10
3
1
3
-38
15
12
-43
0
-6
-17
-19
-1
-3
-24
15
15
-19
1
-18
16
-20
14
-25
23
13
-12
22
22
-17
-7
-7
41
5
-3
-20
8
9
-31
16
33
-2
-24
6
-40
1
-29
-6
8
13
6
-29
23
-31
21
24
-7
-15
-14
3
15
6
-36
17
-4
31
3
59
8
14
2
-4
91
2
15
13
-37
-50
19
20
-11
-47
-2
18
21
20
13
-27
-24
-46
19
37
12
-4
20
-9
-5
-9
4
-9
-29
14
17
-2
-32
28
-8
-5
0
31
11
-2
-10
70
-18
-41
7
-3
42
-5
-35
17
25
0
-25
-8
-4
26
16
4
-24
-7
9
-29
-14
9
-28
15
18
-12
-12
-12
9
-17
-11
46
-17
-11
8
-1
25
-58
0
4
20
-13
20
-13
-10
-1
-11
-32
-38
-5
-6
16
-13
9
-8
10
2
-12
-42
-17
-46
5
9
4
1
-46
-35
-77
25
-35
-16
-13
4
36
53
-10
-9
-30
-23
-12
-7
-26
24
-27
1
12
-38
11
-32
29
-23
-24
6
13
-13
17
-1
12
5
24
13
-24
-30
-18
1
9
1
-19
-1
1
-11
-11
-9
-9
1
-1
12
14
-1
0
25
-4
-2
1
37
17
-43
8
-21
-20
11
12
67
16
-27
14
32
-27
66
18
-10
5
-16
9
-10
8
43
9
-16
-16
-13
16
-12
-4
29
-5
-3
54
44
-4
34
-5
-3
-11
-9
10
-20
-7
-3
5
-26
-7
-16
-28
56
6
4
-2
-62
9
21
20
-15
-39
-15
-17
34
6
39
-25
-42
17
26
-23
27
47
-10
1
8
6
-12
-34
-6
-72
-59
50
-24
46
-14
-6
-39
-23
13
17
18
-50
31
7
5
-7
-41
-54
33
50
-13
-53
43
-19
-31
-17
-15
-9
43
20
37
-52
-32
11
8
44
-37
-32
-87
42
88
-29
6
-23
35
-27
-79
21
9
60
28
-3
63
-106
-31
-36
14
-1
-19
-35
0
-15
89
11
-26
44
-2
-8
-36
-18
-15
29
-29
-109
-9
-1
18
-38
-42
-33
16
-31
43
-16
15
29
111
41
30
41
-45
39
-4
-75
33
-67
-8
-8
1
-27
-11
-65
84
22
17
12
21
-24
-17
12
-28
38
-17
-29
35
-60
-5
59
-9
52
-5
35
0
-12
-22
0
12
-2
-48
-9
25
-17
14
50
-28
28
12
21
17
-39
-4
-23
64
-33
8
32
4
107
21
38
-46
-36
-66
-6
-5
-32
14
66
-15
-59
-6
25
-17
-5
4
84
-28
7
-7
28
9
0
-11
-71
-25
-49
-48
58
37
0
-46
-18
9
43
6
1
-1
-22
18
-69
-2
-52
-67
-71
-29
-29
5
3
10
4
110
52
-24
-70
40
52
2
47
-7
-24
-36
1
3
-50
-12
-72
-61
-21
3
-123
31
-28
5
-23
20
81
52
2
83
-25
-18
7
-10
-39
-21
-22
27
-67
-69
-32
82
113
-15
-21
-38
15
-63
2
1
-11
-66
68
8
-91
-20
-57
-32
-16
57
-17
4
-12
12
53
-41
-59
2
-2
-7
33
32
38
2
35
1
24
15
-21
21
-11
-56
47
25
-54
32
-32
-29
-5
-56
-115
75
-12
-22
60
3
10
106
19
83
-56
22
-46
50
-2
-49
-29
-31
35
-87
11
-72
-27
-47
2
-37
30
-40
15
17
-53
-50
26
-51
28
-7
-2
24
42
-36
-19
-51
-10
-24
-9
-85
8
-16
79
8
-52
26
-120
-37
-8
-7
22
13
-36
13
22
-31
-80
-53
-16
5
5
32
-39
21
12
-37
-127
1
-44
10
-33
48
6
25
-30
17
24
11
27
-61
5
1
-4
2
63
-33
4
74
26
37
4
-29
-44
-12
17
-21
1
-16
-30
9
-22
-7
-7
-24
-3
-9
27
5
-23
53
-26
-3
-9
31
10
10
-11
-1
-14
-32
0
-6
-1
11
-36
-5
-46
-21
-33
-18
21
37
22
23
-18
28
17
-8
-5
-19
23
-63
8
35
-14
-24
-44
-28
-13
4
-41
-2
-38
45
-26
-10
36
21
16
-17
19
-8
12
50
-4
11
-52
4
12
54
-2
-5
42
-67
6
11
10
69
-41
-62
19
1
-20
21
60
8
18
-30
10
85
-31
-50
-38
-15
12
-29
-14
13
-49
1
-31
-26
-28
-29
18
-16
-1
-31
47
2
-48
-45
-43
3
-32
-29
-3
-45
30
-1
11
40
-31
11
37
-95
8
-9
84
-11
15
-32
21
72
-127
44
65
56
-1
32
65
19
-14
24
2
-44
11
-43
-17
28
3
47
81
-32
-15
49
75
-28
-25
42
-17
10
25
-30
34
6
20
-30
-13
-8
3
-10
9
-48
-7
-6
-9
-8
-26
36
-5
-5
-3
25
-59
0
18
-40
14
-21
-17
-1
-14
-31
18
-58
3
-60
13
-69
23
12
-15
-37
31
19
16
-25
49
24
-17
-13
19
-18
-27
20
25
-24
-18
-71
5
8
-14
-12
41
15
-42
8
9
-51
-59
36
-20
-28
19
-21
7
32
-31
51
3
-15
-12
-9
36
17
20
8
26
3
-45
9
-31
-1
17
13
-18
7
-33
18
10
19
-10
22
28
-18
-38
10
-21
13
-11
13
24
-12
-15
19
41
18
-35
-7
1
-58
28
6
-15
-8
-24
2
-32
59
50
-21
11
-39
8
17
25
-28
-26
-11
-1
-3
11
-52
-28
-71
46
32
5
-44
-16
-11
50
10
-4
-21
-1
-7
-13
-20
2
-8
44
4
42
-19
-6
-13
1
13
30
66
9
-7
19
-15
0
-52
-50
-29
9
31
19
-7
32
79
-44
-13
-22
-53
42
16
12
14
-28
-37
8
-15
-13
-4
-23
1
22
-7
86
23
-17
-23
8
-39
-15
17
54
29
20
-27
-14
-32
-29
-53
-21
25
9
-57
-18
2
-17
-39
-16
8
-10
0
30
-6
6
16
-15
11
5
127
-6
25
56
-15
-44
4
10
-60
18
55
3
-23
-1
-13
-18
-35
-38
27
-29
-32
27
-57
-29
60
27
-12
-29
-43
32
-13
-33
71
4
-1
-25
39
10
59
-5
24
-1
24
-1
14
-59
12
33
7
-21
-6
-25
6
60
-60
27
8
-40
-94
8
5
-25
24
-4
1
7
13
-16
0
-11
64
-38
8
-16
2
-9
-15
-36
-6
1
-6
-7
-9
-6
79
30
-44
-24
-18
-37
6
-22
41
46
-27
-2
10
3
-21
-2
11
-14
-42
59
-56
-12
14
122
45
-30
8
-7
-21
21
-9
-70
10
-27
-8
-58
-20
23
-2
-15
-4
-38
42
10
5
-87
-34
40
-7
27
4
-11
49
2
54
-6
15
-6
-16
-31
21
20
-3
-17
-17
-1
-108
14
34
-14
-24
49
-18
27
-7
36
-31
-4
-18
2
70
-10
4
5
-6
41
-32
35
-19
21
13
-34
33
41
-22
36
-50
-8
-15
-4
-8
9
-11
-5
22
-6
17
-18
23
-12
-28
-24
5
41
-52
55
-18
85
-25
-9
28
27
7
31
22
30
15
-14
11
20
-12
-6
-18
-5
-8
3
53
14
-44
-32
-21
25
-15
13
-103
1
27
-33
-12
9
21
-35
-27
-33
-23
-15
16
-13
-57
-92
-2
-48
11
-8
34
27
-27
-20
-30
-6
35
-3
-16
-29
46
-50
12
-2
7
6
37
-28
1
2
-1
35
11
-25
-23
4
29
18
-39
-31
-15
34
6
7
-2
0
-25
-3
-46
-39
-14
13
27
-31
-13
-27
-34
-21
-32
-32
43
22
-58
-9
26
14
-55
-17
-17
-28
-6
8
-23
-15
-65
0
39
-16
-14
-14
-7
-19
-25
-12
-10
14
4
-8
-31
-35
-86
-62
11
-3
-62
-15
-57
-7
-32
-16
27
10
-8
14
-1
-12
-40
32
31
21
-11
6
-13
-21
2
14
-24
-21
-18
-5
-4
37
18
33
-31
-65
12
-5
-8
8
23
-6
-17
-32
-8
-13
6
-5
-17
-8
-56
-27
10
40
3
-12
12
-45
-22
-46
-30
9
-4
10
-71
41
21
-28
-14
3
-12
11
-29
-9
-2
5
28
-3
5
19
-6
-52
41
-16
6
56
-22
13
-60
-36
1
41
29
27
28
-26
-2
-35
-20
-16
8
18
19
-33
-18
-10
50
1
36
-25
1
-15
34
-17
47
9
58
12
-3
-29
-1
0
71
-27
16
-11
-15
-16
36
4
39
-62
22
14
4
-3
23
21
-6
22
-2
27
25
-9
-28
12
7
1
9
-4
27
-22
24
-74
-30
3
35
-33
-15
25
-27
15
22
4
-10
-22
-56
58
-29
-17
14
-7
-8
8
-9
-13
-4
-3
-38
-32
-29
-22
-6
-20
10
-5
7
-25
-7
56
26
-35
47
-27
-41
2
-47
25
39
3
31
20
30
-18
8
18
7
-44
16
-8
-3
29
6
-26
7
-18
-31
19
-12
-7
-11
-30
63
13
-4
-15
8
34
-23
-11
-16
13
-28
27
-43
-29
15
-18
-10
10
38
19
-26
21
33
-48
18
22
-8
-127
21
-73
26
18
30
14
14
-26
-8
8
12
7
0
-21
-22
29
16
6
-29
35
55
-34
-20
-32
19
3
-5
3
4
15
1
-39
-2
17
42
-24
0
-26
47
-32
-36
-56
43
-34
-22
-66
-40
-7
25
-5
18
28
-27
-21
28
-33
12
-18
2
8
17
-27
9
-8
25
-3
3
-6
24
16
8
-3
0
-43
-4
23
-18
-14
-1
-35
-20
-11
-10
-15
-16
-4
31
52
-59
-68
34
27
25
-12
33
31
22
-31
16
11
14
16
-44
-48
-12
34
-18
-9
22
23
23
20
-6
0
-18
17
20
-57
-23
8
-28
-40
-41
-6
20
33
6
11
38
-2
32
-18
-49
-25
1
34
8
29
19
23
11
-64
-30
-28
-25
-19
-43
-1
38
-28
-26
48
-10
-27
52
1
10
-8
2
18
47
-37
-27
-14
-86
-4
-33
6
-37
-102
-18
-3
40
-17
6
-24
12
-11
-77
-1
-45
-49
-11
3
-30
-18
4
-47
-27
0
24
-16
-18
-35
-13
48
40
39
-39
-50
40
21
-27
-36
-58
-39
59
-58
-44
-47
36
4
-12
-28
-43
42
-4
21
-49
22
-32
31
14
30
-42
-13
-9
43
-5
28
32
-57
-12
-61
-53
-75
-32
33
-39
-32
-30
-29
-107
52
-54
39
-21
-41
-20
43
-7
-18
-9
-1
93
-20
-84
-56
21
23
59
-26
-11
16
37
26
-24
12
31
11
-20
40
40
-5
38
17
-29
-27
49
29
20
-18
2
-5
-22
17
25
-18
8
48
48
-12
63
-53
10
-18
-24
-71
-62
28
-97
23
-9
-35
27
-20
-43
-21
11
38
-6
-30
-55
-36
-7
-23
-67
25
-33
50
54
-34
55
-13
21
-5
-32
28
13
2
-127
27
-41
-70
-40
65
4
-41
33
0
31
14
46
15
49
-16
24
-30
80
-29
-18
-85
31
75
-43
13
-52
22
25
23
-2
33
43
-34
31
-11
-49
-54
41
-50
27
7
-12
-32
66
7
19
43
12
19
4
28
-42
51
10
-25
-54
18
-62
-21
-67
27
55
25
30
0
-20
-14
-53
26
-25
-31
17
-8
-41
23
-57
37
9
-25
-32
28
30
94
-53
-4
17
-53
-26
48
10
16
11
-59
-45
-35
-15
5
23
-8
-17
27
21
-8
6
11
69
-32
-7
-20
-20
9
8
-38
-57
25
-112
15
4
8
-65
-36
29
-46
-33
22
67
42
0
-11
-1
-32
-17
-30
-15
55
-59
16
6
-4
-20
-9
107
-83
-16
-33
32
-12
66
11
16
-44
41
-39
-29
53
-13
25
-39
14
54
49
20
5
-26
8
46
35
72
-44
-3
-47
-53
30
9
72
3
-9
-2
13
-23
30
-19
-42
20
-32
-22
-57
-35
42
47
-10
-34
39
-46
21
-41
-38
3
18
16
-5
-7
-41
7
76
-31
-5
-12
36
8
29
35
-16
30
37
-24
-79
-6
-10
-14
9
-49
1
-4
38
14
-23
27
-62
7
-2
-32
7
-13
-23
-14
-22
-36
-5
54
-35
37
-13
106
44
-23
10
-21
-1
1
-16
-38
-3
19
6
57
-44
3
2
10
-69
-53
-13
-4
32
24
20
-24
-19
44
-16
-9
1
31
16
-12
3
19
3
7
12
-11
-29
-10
2
-34
-74
17
-7
-23
-30
5
65
-38
-68
5
-4
-63
25
15
49
33
15
-35
-28
6
17
15
-6
-57
-5
4
47
-4
20
45
11
19
-50
42
-50
-7
15
19
-12
7
32
15
49
-10
-26
-7
-70
-3
63
1
-3
15
-4
19
-20
24
-22
-34
1
13
16
-6
7
-37
12
33
-19
26
11
7
-13
-31
-12
-33
-23
16
13
-6
-2
-11
6
-31
8
8
21
-35
7
-21
0
17
68
51
-24
24
-25
-13
28
-15
21
29
-9
-28
7
2
-11
-1
-13
-4
6
10
-54
61
-59
-3
41
-38
-23
9
27
-5
-17
-14
53
-17
-44
-6
-18
-7
-41
10
5
8
-15
-13
12
2
20
20
-19
-78
26
18
-7
38
-20
-50
-24
17
-12
-21
4
88
-7
14
11
-25
32
35
28
-11
-7
2
30
8
21
14
62
-5
14
13
22
-50
2
4
27
18
16
11
28
12
-4
-8
35
29
-10
26
0
-28
-15
-16
-7
-41
-28
96
41
6
-3
-37
-6
-15
-22
27
-15
10
-19
-7
1
-59
-26
-10
5
17
6
39
-1
2
-25
-35
-67
29
12
21
7
40
-4
5
-11
6
-25
-35
-31
16
-37
19
2
47
-1
-19
22
74
-15
70
12
55
2
48
-15
-12
-19
22
-6
-37
-74
33
50
-11
34
-70
-8
-37
8
-28
41
-20
50
-8
-7
-3
-16
13
38
32
127
-1
42
25
-47
13
1
6
-12
37
7
-28
-48
-26
-36
36
-41
-8
31
-46
-34
46
37
-21
-20
-31
74
-28
19
-81
68
23
-13
-22
-3
24
-2
15
8
-8
-1
25
7
-2
17
20
-13
-9
-27
-27
3
-25
21
33
15
-14
28
10
9
-6
-17
-6
37
-4
19
-14
-3
-16
1
-5
-49
-15
-21
4
-4
-18
30
12
20
-29
-33
15
21
-14
-7
4
8
4
-21
32
-22
9
-28
-16
-51
19
48
1
-4
-1
5
-1
-41
-4
-8
37
-7
40
-25
30
-1
-9
41
19
7
21
-72
-5
9
9
-8
12
-11
-22
19
10
-21
-10
-22
-17
8
27
-40
25
4
-18
-25
20
42
-23
44
27
49
8
14
22
8
10
-12
-28
9
-24
7
31
12
-14
16
14
0
-43
-12
14
46
25
36
-4
-28
10
15
11
-2
14
6
-5
52
3
127
-8
-2
18
-16
11
47
-7
-14
-1
33
-10
-14
25
-17
34
-10
-10
29
37
30
7
-110
56
-6
-32
23
16
-41
12
4
6
-16
27
37
-22
-32
18
-40
3
-10
-13
24
-9
-20
-8
-74
-2
-49
25
-25
-48
3
-21
18
-3
8
6
-17
2
-10
-3
10
13
21
1
-14
-24
8
4
53
10
-28
-4
27
32
25
-16
5
28
-40
12
-9
18
10
-15
-4
-6
5
22
-4
15
-20
-49
-74
2
21
-43
-13
-24
43
-7
4
0
46
-22
-19
36
12
-13
-17
17
-19
22
-79
-32
13
-24
-1
-23
1
32
-6
28
14
14
-29
9
-2
16
-3
5
-18
3
-3
21
45
20
-52
12
-10
9
-3
7
-5
4
-3
7
-34
-24
25
11
-14
-6
45
12
8
-21
-7
-34
-4
-23
22
-12
-31
-39
-21
35
5
-12
26
-12
24
36
13
29
-24
32
-11
-42
-5
15
25
-31
-15
-1
11
26
6
-20
34
-7
5
17
10
-48
-18
17
27
25
16
13
-8
46
-31
26
-2
0
22
11
-4
-16
1
-1
-3
0
-7
18
-30
-22
21
12
-3
-16
1
18
26
15
-17
-14
3
11
-37
22
-11
19
-20
-27
-12
2
-14
22
20
-16
-5
26
2
17
2
-18
48
20
-8
-39
30
16
-7
9
60
6
14
35
26
4
-15
-28
-11
29
5
-25
75
-20
9
5
7
20
7
16
36
18
33
6
81
-21
10
-33
-13
8
41
66
10
11
-15
15
7
-20
-12
-16
-15
7
-30
-27
-14
-21
-11
4
-25
15
9
-56
-18
19
4
36
-20
127
21
33
-82
-13
19
-13
-3
13
-6
-2
10
24
8
-28
-55
-27
3
-3
-6
50
-1
17
19
-9
-33
-10
8
-2
1
0
6
-39
0
32
27
-15
0
14
3
-9
-13
-38
0
17
-2
-25
8
-43
22
23
61
4
8
19
-15
38
59
27
-7
-17
6
-1
32
17
-55
4
-36
19
0
13
41
8
-6
-33
18
16
-19
-6
40
-29
-38
123
-15
-28
-16
-2
96
6
1
-11
-94
18
-30
13
5
-5
45
-80
-18
36
-4
7
-10
-72
5
5
19
4
-1
10
-11
33
8
-63
43
17
-46
17
6
-8
25
0
15
-1
-3
-31
9
21
-8
2
-15
-17
-13
-13
-4
23
9
-1
-3
14
-7
7
-9
11
-11
-13
-1
-16
-4
-40
9
10
-58
-15
-14
-4
33
35
-31
16
0
3
83
10
-15
-9
-51
-17
4
-21
-6
3
36
40
30
17
0
38
14
20
16
-41
55
38
83
-22
-10
41
5
-109
5
-97
11
-4
-90
-36
7
29
0
-1
-16
-25
-14
18
110
-13
-12
20
-10
-36
-3
7
-1
-2
-11
-3
26
6
-26
-11
80
14
-5
9
-19
14
0
8
-1
1
-32
15
-106
5
-16
-12
0
41
7
53
-21
-31
-8
-14
16
-10
1
3
-36
-7
-3
14
18
-9
-10
2
-1
0
-8
-7
4
7
19
-8
-70
9
-34
33
12
18
-2
52
-10
65
2
-29
7
-3
-5
7
11
9
18
-46
-17
-46
14
0
-30
-110
16
-4
8
-10
40
16
-14
3
18
-11
-65
22
7
22
2
40
26
82
-22
3
-4
5
19
3
-5
-4
6
10
27
22
-62
-44
6
-23
51
5
-57
32
74
-55
-74
45
34
-15
-3
22
-25
8
-6
44
56
-11
-10
-1
-13
65
-27
26
27
-31
3
-87
3
-8
-39
12
-27
-5
8
-49
-25
-27
1
75
16
-36
-1
14
-25
-19
19
-47
22
-8
-56
22
-34
11
10
15
24
-25
-12
2
8
16
-9
29
20
-10
-17
-5
27
-3
25
-52
10
7
41
33
-42
37
7
-29
32
-29
18
-26
2
0
20
9
22
-23
1
-2
-20
-7
-38
-19
30
49
-36
31
10
30
0
-1
8
-11
-33
-32
14
-4
37
9
-22
-20
-47
14
44
-7
96
-25
12
-36
3
10
-5
4
11
13
36
-20
19
32
-59
-33
6
-6
-13
27
36
39
35
-14
-16
1
1
-34
1
17
32
15
28
-9
11
-52
-24
-31
-16
-25
15
92
-4
24
-57
33
8
-16
9
-24
-26
9
-7
-5
32
-3
12
-7
22
16
-49
-20
-19
29
10
-44
4
-14
7
18
23
14
37
-14
3
18
-5
-9
53
-3
-30
31
46
-9
-65
54
44
-57
-36
11
3
-4
34
8
20
30
-1
19
-29
9
-22
41
0
84
-27
0
7
16
43
0
-24
22
127
-35
51
52
-61
-35
-6
4
20
-27
-30
10
-9
20
-8
-19
48
-50
-22
19
6
-2
7
-2
22
18
60
15
46
14
23
37
64
33
25
-69
-17
-16
-21
-12
-9
13
10
-51
21
23
37
-26
25
-11
-13
10
28
24
15
-8
-2
-22
40
9
2
14
7
-6
-6
-12
14
4
21
16
4
6
-7
31
67
26
-9
32
-15
-44
-11
-10
91
9
40
14
76
-27
104
9
-4
-18
13
41
12
-2
-12
36
-58
39
31
9
31
41
-75
-51
-28
-26
6
-45
42
5
2
-37
7
-71
-8
9
-8
23
-25
5
-10
-18
23
-99
-12
16
57
-7
3
28
-16
-35
6
25
-15
-53
26
30
7
13
30
-43
3
18
37
-16
-3
-11
-7
-26
-46
83
-39
127
31
-22
20
-102
21
-40
39
55
2
3
22
32
26
5
15
-2
27
44
12
-31
59
-22
41
23
-2
-47
-61
-46
16
-52
115
32
-55
67
-56
34
-8
-18
85
-26
29
-21
-18
8
-82
30
-2
48
89
-28
36
9
19
47
52
-29
-11
59
-37
19
37
78
-23
10
-11
-54
2
-42
33
-46
-2
-85
-8
-41
89
-81
-1
125
-58
-50
28
49
12
71
44
49
-23
-82
31
-53
49
25
-23
45
3
-31
18
-16
7
-59
-23
9
-60
20
17
22
66
21
26
-30
-53
30
-78
20
-90
106
112
-33
12
-30
-2
-84
-59
-34
-7
-21
51
32
2
-43
35
-8
4
30
-23
-54
-77
5
65
-23
-5
35
17
39
-16
73
-1
4
11
11
-52
5
15
-11
48
-82
-119
29
-4
5
23
-82
72
-51
-39
-6
1
-24
0
-10
-38
-1
44
-33
58
0
-109
10
11
1
-47
9
-33
-28
53
-25
-30
8
48
-55
-106
34
49
3
-57
19
14
48
-47
33
18
27
-10
-47
39
-33
41
-86
35
-10
27
10
-40
9
-6
-6
-53
31
-19
-25
23
2
42
52
-82
6
44
6
34
-3
-53
15
20
-10
45
52
-4
-14
-13
48
1
-2
27
-3
-34
44
-32
-116
65
-49
-22
-47
-54
-18
45
-15
-68
57
3
-24
-47
-52
68
-97
-37
-105
-65
16
54
-73
-8
-31
86
8
-7
35
53
-16
-25
-72
-47
-16
-8
-71
27
125
-44
63
-16
-19
14
-44
-4
92
3
48
28
62
-32
3
4
-2
95
-33
-26
3
-29
-48
-46
-89
52
69
15
-21
-35
-16
-37
41
-59
-41
-15
85
4
23
33
19
3
-30
-61
102
26
38
32
-3
59
55
1
2
21
-17
-27
15
85
-27
-38
3
28
-33
-96
50
-19
-41
-41
-20
11
-32
-103
-70
-2
23
-44
-39
-5
3
66
33
-14
-43
-11
-80
-5
5
-5
-11
-16
8
-20
27
20
-44
40
-16
-35
-12
-34
20
29
-10
-20
13
26
19
9
-38
-3
10
-80
16
63
-127
27
26
-1
93
-28
-7
15
15
-45
11
-33
8
10
-2
-81
-8
17
30
69
-75
12
40
-37
8
6
-1
95
-16
16
-25
-5
17
25
35
-34
-15
1
-77
29
1
-16
-7
7
44
31
5
75
56
-21
107
-25
-10
-10
29
46
-84
-21
43
13
1
52
53
47
13
-44
-48
20
-16
-10
-68
-63
3
30
-23
0
-24
-54
-60
107
21
55
32
18
-7
29
9
78
-25
-29
-17
-46
39
-122
14
83
-33
38
-6
-20
4
28
-27
4
-80
14
-56
86
3
-17
52
3
-46
-4
24
-20
71
-9
4
-11
-81
57
-42
-12
-11
14
-67
8
-22
22
21
23
54
-16
43
-39
27
-100
-33
-65
12
21
32
3
-8
-47
-12
45
-65
28
-60
-31
56
-37
24
33
-27
-1
-29
-64
-29
22
-9
-10
-5
6
-17
13
24
42
-38
-5
0
35
-58
-19
46
13
67
-58
17
-5
-52
17
5
-28
51
-24
14
38
-12
-17
31
-5
49
24
1
-29
-58
-3
-42
-16
23
5
-56
-38
15
16
18
-20
-27
6
3
95
-19
-83
18
13
-102
-21
5
124
18
-7
71
34
-13
37
8
15
-19
48
75
1
0
-13
39
-15
0
5
80
4
31
-20
41
-12
32
-58
-11
-9
27
21
-17
-63
91
-56
54
-33
33
-8
6
5
23
-126
34
-4
-41
-31
8
-2
54
7
11
31
91
28
-1
23
-39
-58
-70
83
-27
-13
-62
-51
-68
23
-86
-17
105
18
-57
2
-3
42
-31
-38
-19
3
-22
26
-1
-13
-81
40
11
-21
20
-2
-12
-12
50
-16
-29
2
-15
23
-87
-6
-2
-2
-85
-38
-20
56
28
-15
32
-30
-56
-2
35
35
-33
34
10
-5
-62
-50
-5
11
-41
15
60
77
-22
36
-118
-16
-77
1
-123
60
24
-1
14
-27
-22
74
-44
-30
3
106
30
-66
-16
18
9
42
39
-9
2
-23
-2
27
5
-61
-65
20
-27
-47
13
-34
-40
19
26
13
12
35
45
10
-11
27
-9
-53
43
32
67
-1
56
-24
-25
6
0
20
-45
20
-78
-3
-53
-3
16
22
5
-41
-60
-32
72
15
-16
-7
-24
19
-85
62
-84
21
-54
-53
3
14
31
15
-88
-61
-10
-56
1
-10
-8
2
-55
-44
46
-16
21
-13
-54
-13
-29
27
-44
11
9
-23
-33
-23
8
-16
7
-19
50
46
-30
-11
3
11
-18
8
13
-29
4
62
55
9
32
29
67
-45
46
-19
39
-9
-27
-10
47
-19
72
13
45
-11
-55
-17
78
-127
-92
-19
20
9
19
-2
19
-4
-64
-47
29
-43
15
-66
-15
13
28
79
-60
20
22
116
59
16
63
-62
9
32
-30
0
75
36
81
-28
-73
50
-84
-16
33
-35
-1
-49
-48
11
6
-54
-19
-6
-13
25
-28
-59
-11
0
11
38
4
80
5
17
2
-8
23
-29
0
-30
6
-34
-17
34
4
45
-44
-3
3
56
79
11
13
-6
35
38
9
-90
-12
-7
-38
-22
44
31
-30
41
4
-49
-16
2
29
17
64
28
5
17
31
20
-1
-3
-78
-12
-74
43
35
7
16
29
92
20
-9
57
-79
-16
45
-17
-102
23
8
-12
6
14
-84
-11
-61
40
9
6
12
44
23
-106
53
-46
20
-55
-33
-7
17
-52
13
6
-39
-24
18
42
71
-72
4
17
27
-26
-31
-6
27
48
-41
3
-21
-34
-9
4
-10
-76
111
46
-96
23
51
40
-8
-4
57
-6
-19
30
81
19
48
-13
25
1
57
26
45
7
-31
9
-43
-17
13
16
23
-31
55
-22
35
39
43
73
-8
11
24
8
-28
-30
-14
16
-23
-6
-41
7
52
-93
-13
-34
-11
-23
43
10
-26
-36
-14
-44
-25
14
-17
-54
2
-13
-3
86
89
31
-33
-5
0
-24
-35
2
11
6
-4
72
49
-6
-21
22
-10
0
18
61
-35
-20
-19
-19
-51
11
-71
2
19
46
16
-95
36
4
-2
19
22
-31
94
-5
-43
-24
8
-40
-37
42
-34
-15
-69
-16
-81
0
-37
85
-4
-15
-3
-32
-27
11
64
28
-19
-33
23
2
-2
16
13
-19
-78
10
2
-10
17
45
-6
-17
-8
9
2
-39
3
-27
19
56
-31
85
-10
62
80
-47
-31
94
6
-1
53
-51
-13
-32
-2
-69
40
2
11
4
-30
5
-42
-2
-38
16
20
-18
15
60
33
-29
5
66
-2
-39
38
-9
17
-2
18
-15
-12
36
57
45
-52
-20
41
-12
-27
20
-31
-1
26
85
31
44
4
33
4
49
50
18
13
123
17
24
0
50
42
-127
14
-12
21
-12
17
15
66
22
26
-3
7
-13
19
54
42
37
50
6
36
-49
25
33
-28
-82
19
-20
3
31
-61
8
48
-22
66
-20
20
17
7
-24
11
31
-2
65
57
-9
-23
-7
8
3
28
52
-15
12
-23
14
-44
42
18
-11
73
-70
-14
30
26
44
-62
1
-4
29
-3
-5
40
-6
-15
23
42
-9
34
-19
-24
-33
-7
13
-8
22
-28
21
-41
30
33
31
-6
13
40
25
-10
3
56
15
-65
26
-75
7
-8
43
16
-29
-76
41
39
62
22
-23
-15
22
-57
-28
12
68
31
-43
13
-7
55
-60
-42
31
3
-20
-29
65
10
27
-15
-27
96
-30
-37
22
12
-60
26
59
-9
-65
-2
42
44
-10
-8
-21
-53
11
-3
44
21
6
5
26
18
-62
-32
-53
43
-15
68
42
5
-49
18
39
33
1
19
2
-6
36
-30
-12
-37
-13
-18
-16
35
2
-3
-54
-12
-10
32
36
-7
24
-40
0
-3
-56
3
-18
18
-14
23
18
-40
1
-56
-8
-61
50
-9
5
-15
-19
32
-61
-15
34
6
-22
-30
-17
-57
11
25
-34
-17
1
29
5
40
-25
35
27
-3
-22
-9
-28
56
-57
-5
-31
-23
-71
2
25
-10
12
-10
-27
-21
18
-19
11
24
17
-53
12
3
26
-1
-26
12
-51
-25
9
4
4
20
-16
27
-52
-19
44
-16
-63
-51
-47
-44
-96
8
2
-35
-36
-32
0
0
8
-7
28
31
-31
-70
-34
21
53
-37
-19
-23
-24
-8
11
-7
-25
-10
4
13
-5
-11
-38
-10
-22
-1
-58
-6
-3
-6
23
-28
-15
-12
17
-38
-36
-38
-20
-33
-45
-22
23
-21
3
-30
22
13
17
4
-7
-23
8
-35
-16
52
-127
-17
-2
11
6
8
44
24
16
-31
39
-4
21
-46
51
59
-1
-39
29
-70
18
25
0
-24
-21
3
40
3
-15
29
-39
39
7
-29
42
9
-54
28
19
-1
-50
23
-3
-19
-9
19
5
15
-29
8
-5
-55
1
-52
42
-18
58
5
-52
16
-2
-17
17
18
-26
13
15
35
0
1
-20
33
42
14
-39
-6
-28
-26
20
10
-24
-19
-17
9
-13
-66
38
11
-33
-1
-52
-10
-1
-8
31
4
-8
23
45
-9
12
35
-34
-62
-56
1
20
37
-39
-27
-36
-21
7
-30
-19
3
49
15
-21
10
22
12
8
78
-15
34
8
2
37
14
27
3
-26
24
13
-51
-44
56
21
-6
1
-37
-1
-20
-11
-16
-34
-9
-1
37
-40
8
-30
1
-6
-34
3
-7
8
27
17
33
66
-40
-29
-35
-24
1
-35
-22
-9
13
74
-7
-24
34
18
-8
10
-3
-54
9
-13
12
-14
-42
19
36
-15
10
-15
4
9
32
9
-31
-37
-2
-19
-12
-67
-10
6
52
54
14
-48
61
-13
-13
-2
23
-74
9
-38
-15
-10
66
-25
-2
7
-6
24
16
8
-16
-18
-9
-2
-4
9
-19
17
-68
81
-3
27
79
-52
-9
-53
14
14
-16
-47
19
0
-6
22
-3
40
-22
-8
-52
-36
11
33
14
45
84
19
19
-11
-44
12
29
13
-19
-12
59
9
-58
14
-8
-14
-2
23
5
-9
-100
98
9
-8
-16
51
-16
-23
38
5
85
29
5
85
39
24
14
33
68
15
0
38
14
-34
22
-53
-63
-15
-48
103
51
-19
-67
30
14
-82
-40
-75
19
30
-1
-33
23
87
-24
-77
45
-18
43
-25
8
-48
28
15
-45
11
37
103
81
18
34
-61
59
28
-53
-30
26
73
-15
69
19
4
-10
78
24
49
55
18
5
13
-51
0
98
-55
63
34
-61
36
-6
110
-77
-43
-30
-15
-26
-49
-19
10
18
4
-77
-33
23
-14
-5
22
-47
1
11
5
-8
53
1
-33
-29
13
-36
57
2
39
-43
-35
18
-42
-46
-13
15
7
-12
7
107
9
-26
15
0
-1
22
15
19
68
-9
-7
-23
20
23
-2
-43
-70
33
-24
-9
2
34
22
-52
-20
30
-29
-10
9
-56
-66
1
64
-11
29
78
10
69
28
-29
-9
-55
-50
8
91
-10
-22
12
-28
-52
-2
30
70
59
-18
-22
48
31
6
34
-3
25
56
-19
12
28
-44
29
-29
-67
45
47
1
10
103
17
-10
-52
35
-3
50
3
54
27
-5
-47
42
-3
54
-14
2
-11
-9
-43
6
-112
-37
-26
4
-32
-8
-40
43
15
69
15
31
-52
-36
17
-23
-76
-24
50
-35
28
-12
61
-6
82
-8
35
104
1
-28
-15
5
24
-3
69
58
92
88
-110
17
14
-62
40
6
28
-17
27
26
-34
37
33
-42
-51
-5
20
55
32
-19
31
-2
0
78
-2
-31
-32
14
-49
-39
-40
15
19
51
75
41
54
-4
-95
19
24
-6
-12
70
30
-9
-67
91
-51
-8
-17
13
3
-69
34
71
69
1
-47
20
-35
-3
65
11
-31
28
18
31
80
-25
9
70
-23
-40
70
-26
125
0
-22
67
27
-38
19
25
-8
-21
18
3
29
33
127
9
-36
-9
13
-49
31
-22
7
-5
-40
-18
2
24
32
-60
-67
45
32
-31
-22
-35
9
66
8
-28
-28
-25
6
-27
-27
-52
20
2
30
-2
-6
-8
52
27
3
0
-9
-57
-26
-16
13
20
-26
19
-2
-32
-40
-26
-26
-24
-45
-5
-49
78
6
0
22
32
15
-8
7
12
5
6
27
27
2
-15
-15
-20
-8
18
1
2
-14
27
-4
-3
3
13
32
14
19
-2
20
-2
-17
17
-18
1
-13
-14
-2
0
-10
-1
-1
0
45
17
11
1
-12
7
34
-37
-25
-37
-34
-1
24
4
11
31
2
-28
-6
-15
-24
10
-12
-15
3
30
38
4
-36
14
12
-2
-31
-30
-11
-3
-24
-21
-3
27
-47
1
-16
2
-5
2
38
-12
9
-1
-25
-24
16
2
-3
-13
3
-21
-35
-7
21
-15
22
-9
17
10
3
-1
21
4
-7
-2
9
21
-3
-9
-15
-13
-18
-7
-27
-11
-11
3
26
16
14
1
-1
8
-18
-7
21
-12
13
6
0
-17
-1
25
9
20
-28
-8
-39
-32
-16
6
-20
-17
-7
7
13
-2
12
19
-20
-11
-2
19
-2
6
9
-17
17
-36
-1
9
-26
17
9
35
-28
1
-17
16
-14
2
34
12
7
19
21
37
7
-12
-9
-3
-11
-10
14
3
12
19
-20
-36
1
-7
-10
-5
2
16
-9
-31
29
-41
-5
-64
11
-25
11
-7
17
13
5
-22
-12
-12
5
43
44
-6
3
-9
-35
-23
-5
-30
-2
3
7
-4
-18
-5
-15
-25
-3
11
18
2
12
24
27
-57
25
5
7
-16
-4
-13
-1
-18
15
39
6
7
5
-9
4
-13
-13
-13
13
34
4
8
22
-11
5
-8
12
-5
17
20
-23
-2
-21
4
7
16
3
-7
9
-1
0
-2
-20
-30
-16
-36
-17
16
5
3
-15
8
-16
16
20
18
-4
10
5
8
37
-6
33
6
7
11
23
-37
0
-45
-24
-41
10
7
19
11
-10
12
-15
-16
-11
37
16
17
-127
13
10
-14
18
-1
-9
0
-29
-11
8
9
17
6
-25
18
-1
-22
-20
10
17
-18
4
31
11
-10
18
4
6
-5
-22
-18
5
-15
-7
-17
6
-8
67
13
12
0
0
36
5
14
-22
6
11
8
-2
15
18
12
2
-23
-1
22
127
-23
-2
-12
35
-8
4
41
3
-9
6
7
-14
-16
-7
-18
13
14
-21
-14
3
16
14
15
41
7
32
-36
-23
-20
1
14
-6
27
5
-11
-10
-13
-13
-2
-8
14
-3
-2
-5
3
-23
11
20
-17
41
-6
15
-10
20
46
-1
-7
-11
4
-18
-6
-14
36
1
19
4
-5
8
7
16
-16
-9
-7
-4
-5
-68
-15
19
-2
-7
-35
-1
20
37
-20
-11
15
9
0
6
-10
-8
-2
-25
49
-22
-10
-26
3
-2
-11
-4
10
-18
-47
1
-9
39
3
0
-13
-3
12
4
12
-20
-7
-12
0
-29
10
9
-8
6
-11
21
-20
7
-16
4
-15
18
10
-6
-4
3
-39
-15
-11
3
-1
-24
-15
5
-43
16
-11
-7
18
-20
6
11
3
6
25
11
1
9
13
12
-33
24
12
-2
-13
13
8
41
4
-4
19
19
-10
-11
8
47
-9
15
-16
1
7
-15
-18
1
-5
15
13
-6
-1
-11
6
10
-41
2
-13
26
-8
10
4
9
-23
-2
-6
12
-30
8
19
-23
6
7
3
1
-3
14
1
-6
17
-7
11
29
18
-8
33
15
25
10
29
-5
-3
8
5
10
7
-2
6
19
-34
6
12
4
1
-4
8
-7
9
-12
13
-15
0
16
-34
-1
9
-5
13
14
11
-17
-8
-4
13
8
32
-30
1
17
-22
-19
28
29
25
3
-14
-31
0
4
-9
15
16
-4
-8
-17
2
1
-30
1
-14
32
-2
20
1
10
-13
-10
-15
30
6
19
20
2
-21
17
1
-12
2
0
-8
4
-2
-19
-5
-12
6
12
-2
-5
-6
-10
-3
47
-34
4
5
8
-3
1
-8
4
-11
16
21
3
14
-6
0
-20
-9
18
4
-10
-9
-3
-7
-12
9
53
40
-24
47
6
47
-30
0
-50
-6
13
-34
39
-29
18
55
37
16
-32
44
-53
-17
-4
-127
-77
-69
-40
4
-31
22
13
-15
40
73
-15
-41
-14
82
104
40
32
-66
-72
-8
-27
45
44
-14
43
-16
-5
11
37
14
-29
82
0
27
-17
34
-31
8
19
-39
48
-48
-26
10
20
21
-5
30
-40
51
-43
-7
-43
91
33
7
-8
-11
-57
50
61
-36
-17
-24
-56
41
-30
54
-54
-75
-7
-23
-6
-7
24
36
7
8
-88
-44
7
19
-61
-45
36
13
5
39
-13
-26
-67
-8
-17
-15
19
1
55
-8
24
29
-30
21
-14
-28
51
-29
21
-4
-41
37
1
17
-13
-22
5
30
36
15
-28
105
-15
32
39
-24
10
-53
-24
22
62
-2
2
-12
-1
6
-26
-4
25
40
10
-40
-17
-17
-23
121
-3
16
6
10
-30
-24
8
-10
53
9
-61
-20
28
84
27
26
-92
44
13
60
14
20
-66
4
-12
3
0
-99
-26
-18
42
-52
19
89
47
-17
-3
70
-4
-1
55
13
39
-26
-36
12
79
-12
32
-1
-66
-56
78
-18
12
-22
-1
-24
3
-13
-1
32
-31
-27
43
-17
54
3
-25
-7
-35
26
-20
-6
68
13
-38
44
2
4
-36
8
-44
-46
-9
7
7
32
-39
-31
51
3
22
0
-53
34
30
-26
34
-71
-8
-52
30
-54
-25
-67
-3
51
43
-30
-41
34
4
26
-29
10
73
25
10
18
-29
0
-15
24
15
-5
37
-6
-92
40
-5
38
86
51
-3
0
-33
112
-63
87
-55
2
12
-13
31
-69
-21
4
-16
14
39
-8
-24
-68
-15
-9
46
63
-49
11
21
50
66
1
49
62
-47
-62
21
-7
44
32
4
18
-107
-18
10
19
-28
32
47
-58
0
3
-45
-44
16
-45
2
-5
-23
9
-39
-11
64
-4
3
-18
-5
-7
13
29
26
-9
90
18
-5
57
-48
6
-18
6
39
5
9
-23
1
50
3
-14
12
3
27
22
14
41
-8
-84
-46
-5
18
6
-92
-5
83
18
46
97
-3
32
-29
-8
7
14
35
-19
45
-20
-43
-7
-14
-75
-16
60
118
10
32
-70
-23
5
-27
14
15
6
33
55
37
-1
4
-75
31
-49
-67
20
-18
-14
-36
38
-30
15
-7
-1
-20
-45
35
-33
-13
48
16
-4
0
-9
-8
42
31
-6
10
15
28
7
28
-50
46
-12
10
-34
11
-3
-56
-6
0
-5
4
30
-21
16
-17
33
-33
30
3
12
10
28
50
6
-29
-32
11
-37
-74
-38
47
7
-10
-46
99
-54
-46
-9
-22
6
12
40
25
-12
106
-39
4
47
15
-36
-11
-56
48
-5
8
-46
-92
-3
-5
0
29
2
-28
18
1
4
25
22
37
-17
-29
-8
2
69
-33
-9
127
-40
31
-45
25
0
-66
-17
11
11
13
-9
90
8
-28
-67
10
-76
-17
27
-3
36
-6
5
-24
2
-72
-27
27
15
47
-18
-2
-34
27
-11
-47
-6
37
0
63
14
-28
-15
78
-22
-27
-5
-2
37
22
-61
-4
24
6
32
-9
22
26
53
-10
28
-9
28
-41
7
-12
-10
-82
27
-56
20
-39
-48
16
-38
12
-57
3
24
36
-9
92
-1
-53
37
8
18
3
18
70
14
-10
-67
-13
80
-6
-39
41
24
-20
82
-60
70
3
-8
47
18
0
-14
-40
-26
-8
-22
-10
-103
-8
-51
-15
14
-30
5
10
-44
19
-2
-36
-39
-27
-70
54
55
-8
-3
-6
-51
-18
-8
-55
24
-30
27
-12
-27
-36
-9
-74
-13
71
-25
52
-76
6
4
7
3
-70
103
-71
3
100
19
27
-55
9
-1
11
-27
-13
-22
-40
12
-4
11
-38
-2
-11
23
-24
-33
-34
21
0
12
-1
-28
-2
63
12
8
13
-22
18
-12
-7
-95
-8
-4
3
-64
-13
4
-13
13
-41
-28
-4
40
28
41
-3
46
-15
51
-41
2
-2
-25
15
-19
33
-14
-3
10
34
-17
16
9
19
-3
-23
-13
-20
32
19
-6
8
-21
-18
30
38
-4
25
7
5
71
37
2
17
-8
17
0
45
-25
19
-30
-29
126
12
-94
-56
-10
33
60
-41
-6
-11
-10
0
-16
-78
21
-50
-4
-24
-46
17
-67
-44
-13
-7
20
-12
-7
0
3
-20
9
24
17
35
12
-3
-95
7
-16
15
17
8
-109
-13
-23
-42
-13
-15
-1
54
25
-35
20
13
-1
-32
-10
-9
23
-3
-42
-18
28
-3
3
-32
-20
84
-68
9
9
24
-32
-16
-30
-80
19
-21
16
1
59
-10
4
-3
15
38
9
-1
68
32
95
31
-18
4
35
14
-16
-7
-18
-23
36
-42
5
-127
-13
7
-38
15
-49
7
-51
11
-12
-8
-56
119
-47
-30
20
-41
115
15
-14
-20
-4
16
4
13
-16
-9
-39
-41
4
-34
-11
13
16
-38
3
-90
-17
23
13
-33
-26
-34
-30
-21
-15
-31
-20
6
-20
28
10
-6
-4
9
3
20
19
-11
-4
27
-28
30
-36
-40
16
5
-6
-35
40
-28
-19
7
-18
-6
-4
-51
2
-1
-77
46
-15
-43
59
36
4
-12
-4
-11
9
10
-51
2
-13
-16
-20
-25
32
1
3
-28
3
-27
2
-10
-58
-70
16
89
43
-66
-30
5
-16
-22
-41
-5
16
7
13
-81
-6
-14
-4
4
-87
-40
-27
61
-2
3
-48
12
-25
-1
85
-12
78
-27
0
23
35
12
-19
-5
3
-8
-9
5
3
34
77
-32
-37
-18
-14
-38
6
76
-11
-24
23
20
9
0
-12
-10
-44
5
-4
-51
16
-84
18
25
-4
-25
-5
86
-25
10
23
1
53
8
2
-1
109
-1
-27
6
-7
3
12
-42
-123
16
-14
104
-9
-10
9
48
-18
14
-55
-35
-16
-62
24
-21
-1
-3
10
1
6
-37
-17
1
-55
-28
100
15
-23
14
32
-16
11
-20
-1
0
-19
-10
20
-76
47
-8
41
-44
-11
-8
39
54
-21
-15
12
5
54
8
-85
-3
-31
40
7
-17
7
2
33
26
-13
13
16
-7
2
-16
-17
24
-30
5
-18
-35
6
21
26
-60
2
-54
6
-11
-41
-4
20
-51
50
-127
26
58
-60
-5
7
-24
-10
-13
-19
5
35
60
-9
-5
-36
15
-39
39
10
-21
-8
0
-15
-65
-30
3
-40
-14
8
-74
18
-44
-81
1
18
-42
41
22
-62
-20
-3
40
36
12
-13
-77
4
-20
42
2
27
-4
-1
-24
-9
18
-3
20
-36
12
-5
-10
-17
63
80
26
-30
24
-44
26
8
11
-26
-20
15
8
-27
52
17
-21
39
41
-28
28
-18
15
61
-45
-11
-17
2
5
10
-2
-7
13
54
29
-14
52
30
12
-10
-47
-27
1
67
3
17
5
-14
-7
0
-16
-59
13
-31
22
29
5
32
17
12
-2
21
-1
-40
-11
-30
-32
-11
-29
-24
62
-20
41
32
26
37
21
-22
17
-32
0
36
22
-67
-8
5
-59
-55
-21
-15
1
2
-11
7
19
-13
-41
14
-20
22
-49
-21
14
-23
-48
-13
0
8
-29
2
-1
-47
-12
9
12
-8
-52
-34
-15
-46
-49
12
-15
-12
-2
19
-43
-26
-13
-77
-9
-6
-9
-2
-15
-4
-43
13
25
-16
-34
-52
64
-4
-11
-12
22
-21
-29
-102
16
-77
3
-51
26
-13
57
42
16
-39
-47
-18
7
-13
66
7
-14
16
-43
-3
-24
33
-8
-32
-22
-42
8
-33
-20
35
-30
-23
-18
33
-54
-2
-14
21
18
-6
-83
11
0
14
-33
-22
-9
-32
-7
78
-41
15
-5
-17
-34
-22
57
-12
36
6
46
-24
-5
-7
-1
-5
19
-1
-20
-4
-56
22
19
-39
0
21
-28
-15
41
11
-21
-36
4
17
26
-17
-26
-35
-4
17
-1
50
50
31
23
-10
30
14
-4
7
-23
-15
0
0
-60
-33
104
-12
27
2
-48
-54
48
6
2
49
-13
-9
6
23
20
-57
-39
-11
11
12
42
18
-28
1
31
16
64
-10
11
54
24
2
30
-5
-32
-7
-24
-56
-4
33
-10
13
-2
8
4
-18
-3
-24
6
30
46
2
-6
0
-19
-9
-116
-62
8
-5
31
21
14
22
46
-42
-5
16
-49
-8
-29
-33
12
-27
42
-1
-5
9
-18
-13
2
9
-78
10
8
-28
-33
-23
14
7
-9
10
-43
-1
-14
1
-8
1
10
-59
-34
9
-24
-3
-4
-27
-1
-27
-42
38
47
-23
-8
6
-24
11
-5
60
42
-22
-3
-9
-29
16
-10
-30
28
-5
-58
-59
-44
-64
-26
0
-11
-21
20
3
8
25
10
-4
-25
-2
-3
53
3
19
14
14
-31
29
-6
-6
-35
0
14
-1
-15
-31
8
-10
13
-7
-56
-1
46
-19
1
35
-7
28
77
-39
-1
14
30
23
34
11
14
7
4
2
-58
3
-18
44
5
36
55
72
-43
16
24
-6
48
21
-13
-7
27
-44
9
-5
-1
-26
-27
-21
-6
-8
67
27
-11
-12
7
12
-22
-21
-2
3
-6
-69
-5
0
-1
4
-12
40
-40
-14
18
-30
6
-33
26
-11
34
-23
10
43
-28
1
54
-28
-18
58
-58
48
-13
16
67
-6
3
-15
-1
31
9
-17
13
-20
-21
8
1
-39
9
-14
-14
9
-22
-20
32
14
-3
-5
-39
-9
-12
4
-1
-20
16
-4
14
6
-58
18
40
40
4
8
42
24
-101
27
35
7
47
13
-7
36
-16
36
-15
5
-27
16
-23
-3
-8
14
-50
-5
-17
6
21
29
13
-38
-14
-9
2
0
-41
24
-19
12
29
13
4
-12
60
33
-15
-24
-69
-8
-8
68
4
26
46
-18
-82
9
14
9
-22
5
-18
-18
-39
82
-40
11
20
-11
68
-23
15
-16
-13
-73
33
-6
0
7
-8
-14
-39
-8
-22
25
14
7
3
-80
-5
-49
-30
-7
-30
11
67
-6
15
42
41
24
-5
-11
13
14
30
-14
45
-10
-22
-39
28
0
127
57
-23
13
-2
17
14
-12
-42
14
21
13
22
-45
20
-13
-32
14
22
12
89
-22
-7
-16
61
5
10
-17
-3
3
-18
-8
-12
28
31
-37
19
34
17
-18
39
-46
-5
46
-3
26
-43
-5
-89
6
5
-9
-31
11
13
-2
-4
-30
-8
9
0
-19
29
25
4
56
-14
1
35
12
35
-14
-47
-4
30
15
14
0
89
-11
13
7
-4
-1
-6
0
2
55
12
-10
-15
-4
17
-42
64
16
-4
13
14
-10
-2
-30
-8
-10
-37
1
5
6
-32
-33
17
-10
12
-62
-2
-44
38
-17
-47
16
9
76
32
10
3
39
55
-14
22
-12
1
25
1
27
26
-64
59
11
18
40
-6
29
-7
61
23
-11
-26
-41
-49
12
13
-2
1
-5
-8
16
-56
29
12
52
50
-13
33
6
-16
2
-22
-7
31
34
30
10
3
-8
2
-64
-34
60
61
41
-11
-2
-39
55
-52
79
13
69
58
-66
26
11
-14
66
40
-23
-12
-5
-2
-22
57
-8
13
24
-32
-39
-23
-17
-28
47
-27
25
13
15
-16
2
-47
18
39
-28
0
11
-1
-36
-10
11
64
19
9
-15
43
55
11
-11
19
12
-8
-8
-6
53
23
66
8
17
32
22
15
-2
-26
43
-7
-15
-23
35
-20
-5
3
-3
-22
53
11
10
59
58
34
-10
-53
-2
47
81
39
-31
33
-32
-15
24
48
20
5
-35
-28
17
-10
19
-22
86
21
-2
-3
27
-3
-9
-23
-23
-16
-2
34
31
-36
16
43
-10
-43
-41
-41
-34
109
38
34
-22
-5
-76
20
7
-4
25
7
9
-63
-6
-21
-7
2
-12
6
10
88
-39
12
27
11
-18
2
38
8
60
34
-33
26
24
-12
11
43
30
4
7
-39
-3
17
19
71
-9
14
-11
-1
-15
15
6
11
-23
-5
6
2
-23
14
-18
-27
-24
-127
87
-9
10
-46
-36
-10
-18
25
0
-30
-7
-35
36
-31
49
-81
-10
-88
-23
-8
11
39
-1
-21
-21
24
44
-4
39
18
17
-5
-65
45
73
-4
1
59
-48
48
92
15
-7
-40
0
-70
63
-37
28
4
-75
71
37
29
10
-15
8
-5
-23
18
72
-7
-33
-19
-57
-69
47
3
-27
15
16
-38
28
31
-40
59
37
11
-30
-2
74
-27
31
-32
-45
57
-54
-7
19
-73
-33
-12
55
31
-24
35
27
-5
-7
10
38
-50
97
27
50
32
24
-12
51
-44
53
43
59
-60
-17
-10
-5
-22
-39
4
15
-5
14
-11
-56
76
-47
-36
54
-92
-16
-48
48
-15
-8
24
-62
8
-11
12
85
38
-31
-27
44
-58
12
15
-22
1
-7
-19
-77
30
22
68
-11
65
6
-2
28
-21
-11
28
11
19
38
-12
116
65
4
26
14
-2
-127
53
30
27
5
-13
11
-40
0
77
44
56
-12
-8
-30
4
69
-16
27
-13
8
-10
36
-15
-39
5
-33
-51
-23
-92
67
-13
31
-23
83
-7
-29
13
60
-63
23
-6
49
113
-11
8
26
33
47
3
-4
12
-12
18
-31
-38
45
-38
-11
25
-1
-47
9
-3
6
-42
11
63
0
64
-27
0
9
22
59
-64
-62
-12
-14
-7
64
28
53
38
-8
-41
8
45
-28
-38
5
53
-10
80
53
38
30
-46
0
23
4
-11
-26
68
-105
20
-33
-13
88
14
-33
-17
12
-10
-11
4
-14
46
-14
3
74
20
10
-44
-47
67
-11
28
55
-27
-69
-95
50
1
61
39
4
-4
-36
-10
18
-34
25
-16
-37
21
7
-31
0
8
-12
-32
26
-5
63
8
25
-4
21
27
-47
-46
4
58
-2
80
40
0
-38
13
-11
-4
-25
87
-4
64
2
28
-45
17
17
-3
16
-68
38
-33
-39
27
36
3
21
-53
40
-3
63
-7
34
72
19
-59
-64
-1
25
-15
-38
27
8
-38
39
8
25
-1
-62
-27
1
1
42
25
-89
-12
62
-25
0
-27
-27
-16
-28
51
8
0
-13
-7
3
63
-23
20
-8
-10
-39
-30
-8
24
-18
-5
-6
0
22
1
6
26
12
3
34
66
2
-7
-18
16
17
13
21
-11
-4
45
-5
27
-14
-25
2
1
-99
14
-34
36
-2
15
59
19
4
1
-20
17
-24
-9
-24
-11
-6
39
40
7
-65
6
-20
26
1
12
-14
-127
-41
-28
40
35
34
60
13
-14
88
2
-4
-11
48
5
-4
11
-15
-3
12
-6
27
33
-1
-6
0
14
10
11
19
23
-24
-25
18
-14
-17
14
3
-62
45
4
1
14
15
-27
-2
-20
-24
53
-31
13
-5
17
-16
-14
6
13
-75
27
-2
-17
31
22
-76
10
-3
11
25
3
14
-18
81
37
25
-6
-26
-30
16
0
8
57
109
-27
72
-23
-52
6
51
26
-43
29
-17
29
-22
26
-19
-15
9
-24
-7
23
6
-10
-22
56
-23
16
-20
9
-21
-12
20
-39
-75
-60
-27
-59
-6
66
-10
-28
29
-3
-25
10
-62
-5
-38
-19
0
-14
0
-39
28
-9
11
18
31
-22
-55
37
27
9
-5
-7
34
10
-44
18
-19
-5
-4
-58
-7
22
15
3
-13
6
-6
-11
1
8
-2
47
-1
-35
-19
-7
56
38
20
-31
27
-9
16
15
11
-4
-6
-24
-9
6
20
-28
10
53
6
8
15
-9
-11
-24
-15
-19
1
55
0
-55
17
6
49
-3
57
38
-3
5
-29
-42
2
-51
17
-5
-33
-5
4
-74
-15
-6
16
-13
-23
-1
6
-21
19
-13
-66
-2
-9
4
-7
-16
3
46
-4
19
-53
8
-26
-18
9
20
-25
12
-12
43
-62
-28
2
-13
6
-12
-3
38
24
4
-23
-8
5
-21
11
-2
-13
6
-27
-12
-40
-26
2
-16
20
35
-18
-37
19
16
-26
-24
-18
67
-7
-31
-8
-5
2
-6
-19
2
2
-19
-10
5
-23
-26
-9
0
35
14
4
-18
-14
-18
-3
-7
1
-6
-17
-1
18
-8
-5
-26
0
1
-19
-18
-6
-13
34
-3
-22
36
-9
4
-24
-6
-46
-2
-19
-51
-109
-8
7
-3
-48
-20
-33
-29
3
-9
26
-58
35
4
30
66
-28
-8
-30
4
-1
14
-12
23
43
6
36
11
-15
44
2
34
-9
53
-63
35
-11
51
-59
-18
-5
17
-18
-3
-73
6
22
47
-42
-55
16
17
-90
-14
-44
37
-76
3
-10
47
40
23
-46
44
-14
8
17
34
50
-17
11
-12
32
47
52
-15
35
33
6
58
18
-55
-11
-16
13
45
-21
-23
-58
-4
-90
0
-24
47
-22
7
68
31
-86
-16
6
-10
47
-18
-24
-47
-5
-12
38
-8
23
1
23
2
-23
-4
16
3
56
64
-12
-99
-22
41
-42
-45
-46
-64
29
21
32
29
37
-91
-32
15
-26
-11
-5
10
-1
-5
-29
1
-1
28
9
41
26
-50
-48
-15
-20
-4
-5
-8
-49
-59
-72
-13
-16
-90
28
28
-43
36
78
4
-11
43
87
-33
-12
-5
93
-18
30
26
-21
45
-35
24
-51
-10
11
10
-69
-9
-36
-43
17
14
6
43
31
3
33
47
-31
21
1
-29
-58
11
-44
-45
14
39
10
-14
9
21
-6
-28
41
20
71
20
-33
-76
-71
79
5
24
-47
39
49
-37
38
-80
88
-21
23
49
-57
7
58
62
-32
-27
22
-6
-23
13
-47
-18
-31
77
56
19
28
0
-3
3
-52
96
47
14
-61
-40
-44
-4
-17
-16
20
-77
-49
-36
5
0
90
19
-29
11
-70
-27
9
8
-41
-19
2
-6
-7
64
39
-82
16
18
9
10
23
-12
-17
-29
25
-22
-51
-18
-111
5
-19
51
127
-17
-14
-39
-17
-46
-11
63
-46
93
36
38
-33
45
-48
-16
-87
-58
-27
112
-20
49
-51
20
40
14
-26
14
-34
-52
-22
-29
1
78
9
-1
-67
-8
-35
-11
57
12
-16
-29
21
-18
47
53
-73
25
29
40
19
-45
-64
50
-28
-16
44
-78
-6
2
-42
27
104
-1
-48
-37
-80
4
-1
-25
-20
5
42
-24
14
-14
7
-2
-11
23
-16
-11
56
24
-53
4
49
44
-2
-30
42
-62
-17
-9
39
67
-5
29
-9
22
-22
53
-46
13
24
33
4
-3
-20
-19
-23
-16
0
-31
49
-23
-60
-26
-4
-41
70
-62
-23
-23
29
-22
16
-22
-6
-41
-54
0
29
27
-4
-64
-60
14
-20
71
46
34
-55
6
23
18
-19
4
68
-1
-46
34
-36
-49
14
-19
68
56
-49
-47
10
15
12
64
-46
-14
-8
7
10
31
4
3
25
45
-49
19
10
6
-14
49
40
-16
-27
-5
-4
8
49
28
2
-17
17
14
44
57
-7
-97
56
48
16
-5
14
32
9
47
-51
-9
-2
5
83
-68
-14
9
-24
-20
18
-21
-45
22
23
21
-15
-36
24
7
-12
85
-52
-18
14
-72
-22
76
-104
1
53
-44
-31
-36
-1
-21
-40
37
-76
0
-47
-66
31
-3
-19
-28
-67
-75
0
34
118
32
32
17
14
-44
29
-16
-5
4
1
-7
-91
-3
-37
-37
36
-31
32
39
-21
38
11
50
-70
73
-31
6
-9
15
-33
-78
3
-6
21
-27
21
70
-66
-1
-11
3
13
7
-13
27
28
-9
26
32
-9
11
-127
-24
-46
-12
-98
16
85
61
-2
-10
-90
66
44
-118
-21
-113
-44
95
-68
-48
25
21
-1
-79
-23
74
-2
-30
3
-27
-76
35
4
-51
23
-7
-3
23
35
-61
-2
-46
-10
7
120
-13
10
-1
-24
13
11
-3
34
28
12
-6
-35
-92
48
20
-16
-3
29
-37
20
31
-25
-27
-89
60
16
-15
65
-84
-3
-115
-27
-30
-46
37
-4
35
-29
-13
-22
35
28
-69
-2
-5
68
61
40
49
26
70
-1
40
-38
-39
-37
27
5
-14
3
-48
63
-98
52
76
22
45
24
-7
64
9
37
-26
-2
-97
20
-30
-84
10
-15
26
-33
-25
-85
35
-4
42
19
-18
7
17
48
23
15
-59
20
30
17
45
-30
108
12
30
3
-13
9
4
24
-11
13
4
-10
-6
14
10
-19
11
11
-2
-3
12
1
27
-5
22
-17
2
10
9
21
-4
-4
-8
0
-22
7
-5
-20
-10
24
5
-39
127
15
-12
35
11
-2
0
-10
-25
-1
-18
-14
7
19
-3
24
5
-25
18
6
23
23
-4
27
36
7
5
-8
19
10
-16
5
-9
11
1
6
4
-14
-8
-16
5
-17
23
5
11
-2
23
16
-7
-15
17
24
-3
-23
-20
15
-24
16
13
-8
-3
-14
6
-8
44
2
5
14
16
1
-22
-18
-22
-12
-3
-7
-72
9
5
-9
19
-14
5
-8
-8
28
11
-10
37
-7
15
8
10
8
-4
-4
6
-5
44
33
-39
-4
5
10
16
-30
-2
-44
-13
3
17
61
-1
-7
-29
3
-16
15
39
-13
17
-2
-16
31
-11
-4
0
4
-36
-5
-16
-9
3
-1
-21
-5
-26
-16
-5
-15
19
3
-12
-10
-16
7
-3
-15
-17
-9
22
-6
1
5
-8
-3
-7
15
16
-9
18
-32
-17
-33
35
12
20
-1
-12
1
-11
-10
-20
10
-11
2
-25
23
-15
-5
17
-10
7
14
3
-6
2
-7
-2
-16
-12
-16
-5
-7
-4
26
-22
10
7
7
-3
22
25
-15
13
-10
-14
4
-1
-9
-5
-1
25
0
-11
7
-6
11
2
4
-17
-10
-12
5
-15
-35
-13
21
10
-6
-21
20
10
2
-6
22
3
14
-1
-3
-1
-2
-17
0
-10
13
-6
13
-15
4
4
-2
28
5
2
6
-15
-8
22
-1
7
-4
1
-3
-15
10
-16
27
21
-20
-23
-12
-33
-24
9
7
-5
15
48
-8
2
-9
-26
9
-9
12
-8
23
-4
2
-22
-14
7
8
-34
-10
-4
4
17
-10
28
0
23
-4
-14
21
-8
5
28
-3
8
-3
5
-4
-37
-14
-8
-2
5
12
30
2
-16
-4
-6
-1
-2
4
-4
6
-4
-10
2
15
-18
3
1
8
-26
4
7
6
6
6
-15
4
-5
-25
20
45
7
-6
8
21
-27
-47
51
18
-8
-79
17
-13
-9
-31
6
3
12
-2
-21
-88
-51
-37
-45
-30
-11
7
-114
1
0
-7
22
8
-33
-10
22
-38
31
0
1
-12
-21
-14
15
-22
-9
-25
37
-13
-22
35
-30
-39
16
14
-11
10
-20
35
49
16
3
-109
6
5
-3
15
14
16
-7
11
16
5
2
96
25
-7
-45
-5
18
-38
-54
62
48
-47
20
-17
10
54
-3
-67
26
-7
33
-40
-13
-16
34
-24
-24
56
0
-3
-56
-11
-51
-18
65
18
-20
33
-42
31
-2
-65
24
87
-7
32
48
20
-45
-15
-39
-55
14
-5
-35
-1
65
-48
-32
4
-55
-11
56
-3
18
-13
27
55
-11
0
9
7
15
6
5
39
-70
16
4
-1
35
19
28
-5
13
-8
28
-37
7
26
2
69
-95
14
-7
1
28
-25
80
11
34
4
-9
8
-10
52
23
13
-44
-18
1
59
22
15
-87
-28
-22
6
-18
-57
23
34
37
-24
8
31
-49
12
-57
-39
8
33
9
36
33
-20
12
11
-1
3
-27
64
-42
22
16
-44
21
-13
31
55
12
24
-50
-15
25
9
-16
-14
50
-1
-3
-9
-1
17
6
21
15
-68
87
12
-14
16
-40
33
-26
20
-58
1
-4
-18
-47
-9
-48
32
15
-23
-22
21
5
58
-115
50
-33
-52
-9
11
-24
-1
19
-11
7
-48
-37
57
-22
-21
-10
17
19
-11
48
53
5
82
-12
-7
27
5
7
-8
-33
-4
-17
18
-12
-34
-3
-13
-8
42
14
-25
-13
42
0
-21
12
-44
-18
7
-47
31
-3
-26
29
-92
-13
3
-47
-27
-55
81
-64
36
68
-18
-30
-25
57
22
-29
-12
14
-10
82
1
-41
-2
74
25
-22
-16
-30
2
-4
-17
4
15
-6
1
82
-1
15
-18
41
0
31
-36
-127
-29
-4
10
-33
-2
-24
-40
77
-40
82
-16
49
18
16
5
16
-7
4
-7
42
17
-43
-3
13
9
-18
-34
78
70
-53
-10
33
-8
-9
-28
24
-1
0
31
75
-43
-53
-49
-4
6
9
42
32
9
17
-21
36
32
36
-32
-37
16
-49
28
-38
-35
50
7
18
-7
17
42
3
-88
-6
-36
73
19
-8
-63
-23
-53
0
-23
46
-44
-110
-63
28
-42
95
6
57
43
13
-39
-40
-47
40
30
-41
32
11
42
-7
-5
-31
-9
-14
21
-26
-38
56
46
-10
-23
-13
-34
-104
11
-1
35
6
-22
-52
36
-6
-9
-8
-20
-27
12
-29
-42
-20
14
-22
28
22
7
-46
-81
36
-43
-66
-4
1
1
18
12
46
-54
-35
-24
-36
63
14
78
-19
-44
17
72
36
33
-22
-39
-20
34
-11
-50
-1
-8
1
-52
34
47
-20
-5
12
1
4
-53
50
-127
-36
22
-16
-41
34
-62
15
-26
-9
-22
25
23
-45
-5
47
43
-45
-29
3
14
26
16
11
-5
21
-1
59
-30
21
-44
-43
7
8
-41
-36
-29
11
-4
16
11
-9
16
-13
16
47
16
8
28
-4
-18
14
25
-13
-41
-30
-57
-2
-12
70
-15
6
-27
41
-8
-7
11
41
-5
54
7
10
53
17
-19
0
20
-49
6
-20
9
-15
13
-30
-44
28
-2
2
0
-24
-16
-61
-5
-18
-25
-89
12
-4
-51
17
28
-17
-25
56
-48
11
-29
25
23
14
51
-68
-43
-4
4
22
-54
-10
4
-46
3
13
50
-4
42
18
36
19
-17
7
18
73
32
-26
-82
-28
-45
-4
24
2
-30
15
-61
15
73
-15
-70
19
15
-14
-37
28
-13
29
-48
6
53
31
3
-14
9
1
-57
-44
-29
21
-28
32
-73
-35
17
1
-4
47
-52
10
10
-7
-6
-8
-7
-39
-36
-23
-21
35
-22
8
44
5
-8
5
-25
7
38
-39
-10
17
75
-33
-31
22
86
49
13
-48
-23
50
7
-10
-47
3
11
12
-23
-14
-40
19
-50
-67
-17
24
36
10
-60
37
-12
36
2
13
-10
-71
78
-12
-69
-73
-32
20
33
-39
-40
3
-10
0
-8
35
16
-39
-47
-19
-7
-9
-23
-34
-17
36
30
12
9
19
-40
6
3
-26
-16
-7
-32
-22
33
28
-36
-10
-23
34
3
22
-4
4
-31
-42
-21
8
-39
-26
-25
4
22
-8
-28
9
-7
-6
7
-35
6
-15
-16
6
49
10
3
25
25
2
-32
9
28
-51
67
5
1
-30
-108
-127
-30
42
38
-21
-37
92
18
32
-38
66
13
4
-27
12
81
44
106
18
56
-8
47
35
-25
10
13
71
-22
-39
-16
-8
43
15
-8
12
29
-10
11
-24
6
-1
8
-7
3
-11
-13
12
0
-14
-35
62
11
84
-1
-18
-20
-25
-13
-48
27
-44
-46
-53
-36
17
-14
-15
-59
-5
14
24
26
55
39
-28
8
0
-31
-12
11
-70
40
-26
-39
21
-9
39
-11
-10
-3
1
18
25
21
43
39
69
73
15
-3
21
-40
-16
0
26
11
15
-2
15
1
9
-25
10
1
-22
-15
19
-42
-44
2
24
56
22
5
66
-2
-1
35
35
-33
43
34
-30
11
35
-52
-12
18
-40
-3
17
-25
-13
-3
21
15
15
16
-6
23
9
37
2
72
-35
-37
88
-7
-30
32
20
17
-5
-19
-1
-49
-7
-29
26
52
-21
-18
12
49
30
17
0
-29
17
39
-32
-43
-12
-10
3
-37
26
-46
-1
-5
42
16
32
7
-2
25
-25
-8
-22
38
6
-4
-24
22
-17
-40
12
12
-14
21
-18
-6
26
-26
6
6
-15
67
-12
30
30
21
36
-74
-35
-23
10
-18
-23
26
28
10
12
13
3
23
-13
22
1
49
-1
-25
1
2
-33
-17
-34
39
57
-38
25
41
-38
19
21
-8
43
-56
-12
0
-24
-12
17
16
-45
16
24
23
25
-1
17
-15
4
38
-5
47
19
2
22
-51
55
-14
-6
-58
-19
26
17
10
-4
32
19
-55
-8
-1
-6
19
5
-11
33
62
14
-5
-11
-12
-9
-69
-11
-94
44
13
28
41
44
63
43
-6
-23
-80
-26
-60
-38
-7
19
48
-30
8
21
-14
62
74
34
19
30
-97
-60
50
22
-32
1
-6
4
-6
14
-11
-1
-6
-63
-20
-49
-20
-45
41
36
31
2
-28
-27
8
35
37
-72
-11
-49
-29
-2
43
36
-27
15
-15
-120
-21
-36
-36
42
-1
18
20
-14
11
102
-100
-8
-24
-77
35
30
-38
-23
39
23
2
-37
-30
-16
84
-9
44
-8
-74
15
19
14
32
-22
1
-73
-14
-13
63
-30
-30
46
-4
-13
33
-57
9
-83
-27
38
-4
-47
87
83
22
-13
29
-8
-8
39
-3
-9
-17
-67
9
17
61
31
-90
-9
-62
-30
-42
11
32
-37
-40
-32
-96
14
123
-33
62
-55
69
-95
-25
2
77
-19
-5
-36
32
-77
54
43
8
36
56
-76
-16
17
-110
17
2
-12
97
-1
-31
-1
-9
21
84
-23
-26
60
-40
27
-29
12
-9
-14
46
-68
-12
35
-1
10
-12
15
25
18
-21
-21
53
-24
11
-28
-58
43
14
56
-14
-25
-2
12
-32
-18
23
-25
-18
-74
-34
-16
-32
-40
8
41
0
67
-71
7
-20
7
-31
-43
48
3
-13
-26
8
-12
-38
-59
-38
25
-34
4
-33
-5
-1
-1
-29
-81
8
-5
30
21
61
-56
59
18
-5
9
-11
41
54
-38
63
-56
26
47
-12
0
-49
-30
-6
23
-31
52
39
77
-35
18
48
18
0
-38
94
-25
2
-36
45
-7
-24
20
127
1
-65
-33
3
33
-29
-21
30
-62
62
-14
-62
51
-20
62
4
66
-51
3
-7
-43
11
31
64
-31
80
76
-4
-31
40
-19
-53
-24
-39
-15
14
30
7
-35
89
3
41
-81
-19
29
-40
29
11
-35
-24
-51
-10
-20
-9
12
19
0
31
27
108
-63
2
49
22
1
-29
27
44
42
75
0
105
0
-30
-99
5
51
13
24
-18
-26
-102
48
-10
17
-37
45
25
1
-12
22
37
-7
-23
19
26
-3
-30
-7
-21
-19
-7
4
26
7
-4
-29
5
-8
-22
95
-14
43
-49
10
-5
-5
58
-40
11
-32
33
14
2
-36
35
22
-30
90
40
31
71
16
-43
-2
-68
19
11
-19
-14
-9
27
-10
-52
45
28
102
40
-10
12
0
-10
-17
-20
14
-30
-18
-17
72
43
-11
-8
-9
21
49
-6
2
-20
58
-112
-46
30
-2
9
-16
33
-15
-20
-16
3
-58
26
-2
14
36
57
-54
127
13
-29
63
53
30
6
-4
-42
81
14
43
45
1
17
-6
-25
-31
29
24
37
48
-72
-13
11
-6
-9
32
-66
-15
-19
43
-27
29
-31
-12
30
-57
20
-106
-16
-2
1
-19
19
83
2
79
-5
-82
6
-31
5
-4
7
-14
-11
-24
-37
16
41
-85
-30
-10
-20
47
-37
-58
-47
13
-24
-16
49
-29
10
-8
-45
64
2
-100
12
-9
39
-3
2
-5
33
30
13
-45
-16
-32
126
-53
-16
-12
-49
-26
2
-31
21
-44
12
-24
6
-3
1
97
-2
-38
19
-51
-39
-26
29
-70
26
-3
14
-37
3
-29
-23
34
5
-12
44
31
50
-25
7
18
18
9
-59
23
-15
56
107
21
94
32
76
11
-21
38
29
39
73
-8
37
9
56
1
-40
21
-29
-7
-29
9
33
-56
-28
-6
12
27
33
18
84
36
19
28
20
20
-54
-1
51
21
-32
-31
-12
-44
-47
44
68
21
99
-29
64
-27
-10
-15
16
-15
36
-6
-51
-5
16
-18
-30
-44
-6
7
12
71
-1
-33
20
16
40
-59
-43
-73
-1
29
10
-2
-31
-19
57
28
1
-65
-2
31
-84
4
-14
6
-25
99
7
-8
10
87
-32
14
42
11
10
96
-17
-4
44
28
90
-19
40
24
3
-8
-21
-21
22
-26
-24
-92
20
9
25
-10
14
-40
26
32
11
24
1
85
-75
-33
-32
-57
-56
-17
-33
8
16
6
10
26
25
-10
14
-22
-28
5
-8
3
-54
-7
72
27
9
-2
6
-68
-39
-31
20
-13
-6
-75
10
-8
-27
-9
-20
-12
24
-5
13
15
76
12
43
-68
-13
21
-54
-13
8
3
0
-11
-9
32
-24
20
1
10
-82
-57
-6
9
53
-8
25
-1
-24
-12
-15
66
77
8
-25
-14
1
-20
-97
-32
-25
11
37
-6
-30
-6
-3
0
18
-10
-9
50
-92
-4
26
-14
-2
17
0
35
6
31
12
-3
4
-16
1
15
-34
-12
2
6
-4
7
11
37
-19
-30
10
-8
-20
37
3
-17
36
14
53
3
4
-22
-19
64
127
-32
22
-12
-43
4
33
-8
-6
38
-12
-12
42
24
29
18
14
-81
-11
-8
33
83
50
-1
-99
98
73
-16
10
-3
-6
-19
46
-53
-79
24
-26
6
26
-7
-12
-46
16
18
8
-10
-23
-32
20
30
59
4
73
63
-3
35
0
9
-35
-25
-3
-18
-10
-32
6
-25
18
11
-20
26
72
-1
1
-14
-8
-50
9
-40
-32
-2
27
-22
2
-28
1
2
-19
17
20
5
9
-32
-21
4
-11
-15
27
0
-4
2
3
7
3
21
9
14
14
4
-12
-24
-45
-21
-15
-14
-5
-23
10
44
-41
5
-38
9
20
61
-7
43
1
6
23
13
15
7
18
-30
56
-15
-32
-12
-47
-8
-21
20
1
2
6
30
5
35
-6
-22
35
12
-4
-5
-98
-23
14
-2
-4
12
-2
-5
24
-17
63
-9
-4
-57
-7
28
-4
-14
13
-33
-30
30
-17
3
-70
42
31
3
15
11
-14
26
23
-31
38
-6
0
-66
-30
-29
-21
32
4
9
23
-22
15
-2
1
-12
-25
-69
-27
0
-16
13
9
53
-20
10
-5
53
-12
49
-2
-89
1
0
-10
-24
18
25
15
-57
-13
23
-15
-33
-50
-15
-4
17
15
1
-65
11
8
6
-41
-11
-80
31
-24
34
3
38
33
-66
-4
18
5
-26
23
19
8
63
-9
-36
54
23
-33
61
48
-37
-53
35
89
31
-46
18
27
60
0
67
28
0
1
5
87
12
3
8
-56
-10
-23
-28
55
43
-4
45
-17
-4
-23
52
-35
-73
12
61
-43
29
71
25
-24
-22
69
1
-44
-26
-1
25
38
-48
22
-7
18
72
-20
0
-18
39
-58
30
-40
35
56
21
75
47
20
-43
-49
-26
74
-23
-14
-5
0
-6
14
-118
11
-16
-17
39
55
26
35
-23
-35
-14
3
-38
-26
-42
-63
14
19
5
74
36
-8
-21
-7
-19
-36
34
-6
10
60
21
-57
15
8
-22
-67
-27
22
63
-42
4
6
-16
11
6
8
-30
59
82
103
-19
47
41
32
19
1
54
3
0
70
-29
66
-28
18
-12
-53
-5
32
20
11
26
-28
5
58
-16
-42
-71
12
-12
-24
16
-12
34
-56
21
-18
0
25
7
-31
34
-7
-24
70
-4
-47
-1
-122
-34
-68
-8
-56
11
46
-87
67
72
-14
56
17
2
33
-35
-27
39
-5
32
-39
-26
2
61
-13
19
-39
-25
17
33
61
2
-21
35
11
-32
-4
-18
-16
-52
-88
16
-33
23
-45
-15
-28
81
-12
-101
-101
77
-35
-3
-6
-12
25
3
0
12
12
-19
41
24
-73
-44
20
75
4
0
-11
-49
17
48
17
42
-64
96
-18
-21
24
36
10
-21
-12
-52
4
60
-36
13
-27
-8
-72
1
-19
17
13
53
26
-20
-7
27
51
8
104
-61
63
-32
-10
33
-40
-24
40
-45
22
27
17
3
-12
62
-69
12
-86
-38
-34
-3
42
127
1
15
-11
55
7
-7
-35
-47
-38
59
5
-14
-15
20
-35
-29
-93
-1
-7
12
-51
-23
30
-47
8
19
-10
-16
6
43
-37
3
-63
71
-58
19
15
-5
19
-4
40
-21
29
-8
-35
-3
21
30
12
15
-8
-1
-12
36
-32
53
17
-11
-13
47
-9
21
14
-28
-9
-1
-22
75
28
-13
47
-18
-2
-4
-5
2
21
-37
-67
99
22
54
1
48
19
-62
21
-14
-19
22
-34
-41
-7
-18
22
44
-1
48
69
-10
-10
-100
26
-13
6
31
47
-26
8
29
-26
41
12
13
-13
67
9
3
-19
42
-51
-39
34
-49
2
21
-42
32
-20
36
86
-42
29
-3
-30
42
-28
18
2
-26
-54
43
-65
18
-7
60
17
25
-2
-5
-23
-22
-22
25
28
-39
42
101
13
3
-9
-18
-25
-51
-35
-12
34
75
-7
-57
11
9
0
75
41
20
63
59
-23
-62
-29
6
58
13
52
-31
15
34
8
-28
-5
-49
45
2
-10
124
26
3
20
50
-29
-52
-9
29
27
8
-29
-40
-81
-28
-24
2
19
-6
23
18
-3
22
-7
29
-31
-29
-11
7
67
-17
5
-20
46
-33
1
26
8
-7
-45
31
-43
50
3
29
-109
32
97
72
-81
-1
-50
-63
-57
36
4
-19
-68
22
-37
9
1
16
-18
2
-17
12
16
27
-40
73
77
-25
-2
6
-10
37
4
43
-40
25
-14
2
-3
19
-19
42
27
-50
-9
51
-43
21
-22
10
-9
-53
-28
-3
-13
-16
-6
-34
29
-9
-39
-2
-38
26
-15
16
11
-4
-30
-11
-1
-4
30
-69
22
40
37
-40
24
-70
-54
-22
80
49
-38
-6
-2
-2
-25
-12
3
36
21
-21
-16
-1
30
58
-10
43
-3
-39
3
88
47
-24
45
20
-2
34
-32
114
-44
28
-9
-18
65
-4
-25
-127
5
-98
-26
6
21
20
-68
104
53
-24
19
-22
-3
-20
-2
-39
-19
21
16
77
30
19
-49
5
59
-7
-14
-8
11
39
29
29
36
-50
-15
-48
-37
-32
-40
2
39
38
16
-41
18
79
0
50
-18
-27
-21
-16
-23
10
58
-82
15
29
21
78
72
-21
1
-59
25
-20
16
-60
-64
-24
32
-18
-28
-77
-21
-61
11
-55
78
43
-12
46
-13
40
-18
-33
-14
-18
-43
25
11
-36
1
5
50
37
-4
-27
2
33
49
-27
53
16
-33
29
44
4
31
-16
-41
0
43
28
8
-44
-1
8
9
-66
13
-35
49
-35
18
11
52
-81
-15
-108
49
-22
64
-21
43
-15
-88
-50
11
-11
121
53
-11
-20
-37
18
13
-18
-2
-62
8
23
-40
55
50
15
-12
-16
-5
23
28
53
12
-2
25
13
9
33
-19
44
-41
-19
-1
-36
-49
10
8
18
49
-53
-5
-17
18
47
-67
-30
23
-56
-11
-17
16
-3
36
19
-18
12
5
33
-22
-10
-31
49
0
12
12
-20
-31
-2
14
72
-42
-15
-36
99
-46
6
-24
-33
21
-3
12
-12
24
46
44
30
38
20
19
5
-43
-20
-73
-10
18
-40
27
-36
0
-16
-67
13
-33
5
49
31
-8
42
22
-34
-5
-7
-19
-11
-22
-31
45
27
-81
-60
-19
16
24
16
75
-67
-38
24
9
15
7
26
37
-58
-25
-13
41
-19
36
15
4
-50
60
14
-2
33
43
86
36
15
26
-8
17
17
42
7
34
-4
-9
-6
-46
-2
-2
-50
3
-24
33
-73
3
-7
14
30
19
56
-44
28
-24
-14
25
-54
40
-37
29
27
-9
-4
-22
-20
38
96
-31
-23
-14
25
2
-18
30
12
62
-11
-30
6
21
-2
-12
-18
-9
106
-16
90
-28
-16
-92
9
-50
37
6
1
-9
-42
6
-11
-34
15
3
-10
22
-2
10
65
-47
-2
86
35
40
35
-43
22
-127
8
3
-53
-43
-28
-22
-23
15
25
91
-24
1
-21
16
5
-8
9
-51
9
15
-74
36
2
89
10
12
37
16
60
9
-36
-10
89
7
15
-6
-36
-13
20
42
12
23
23
-11
7
-3
4
-28
59
-27
-9
-7
-36
-39
-24
11
29
-35
-10
-9
34
-9
70
17
-74
-4
5
10
-6
20
0
-18
28
-20
33
11
52
38
7
18
9
-6
8
-1
-28
-2
29
19
36
3
-54
-30
-51
39
55
6
10
-11
56
23
13
-25
50
-39
65
6
16
-14
37
-2
17
-13
-52
20
59
2
-39
-21
-5
-20
-35
-1
1
27
57
44
44
-56
46
52
-45
-7
-6
-22
-16
21
44
24
-3
-9
9
-84
52
17
-14
52
29
-12
-34
-17
44
9
-19
23
-15
-6
59
-78
-12
52
2
-54
-8
7
27
-4
-61
21
26
-3
11
80
-25
-10
-5
-14
-21
13
-7
4
13
23
-34
55
49
11
74
-33
30
17
-72
-23
1
-20
51
2
-19
13
-50
27
-44
-24
70
-1
-9
3
88
-3
29
13
16
18
-76
-1
-26
-7
12
-10
25
21
56
45
34
8
-19
-4
12
67
27
-127
14
3
62
29
45
18
33
-51
21
-37
39
-27
-76
23
19
-8
35
-32
-16
-79
-97
-28
26
30
-62
-22
-11
-48
-13
-3
47
2
-31
51
3
-27
22
-13
46
-9
-65
-28
-19
22
-6
28
-26
53
-93
-20
80
-35
9
29
15
1
-7
-32
10
6
33
2
-30
-44
17
38
-17
27
-13
-16
55
-14
-26
18
-3
-10
13
40
12
48
-53
-5
21
1
81
-13
25
14
-22
-19
42
36
-37
-29
46
-6
-61
0
26
-8
19
-28
15
3
-1
14
43
36
44
-17
33
24
-32
-14
39
5
-13
-20
-31
-12
58
-22
-99
64
23
68
-3
-12
28
-18
14
15
-26
44
-45
37
53
-23
77
3
20
-4
57
-10
-7
-4
11
64
19
0
-14
-9
6
60
-18
33
-8
-31
-29
26
71
42
29
73
50
37
-66
-22
-61
-29
46
27
44
-39
-26
32
16
-9
-13
11
115
58
-1
-29
-18
38
-5
11
39
25
-11
-7
-32
1
24
45
70
-10
27
31
14
-17
-11
23
11
-24
42
20
-6
16
8
39
25
47
-9
-8
-57
-34
7
-35
-9
-7
-8
3
18
3
-40
19
-20
-26
-2
32
-4
-56
4
11
6
-48
37
12
-3
-27
6
16
13
25
-26
15
-5
-16
2
-2
-8
33
31
26
0
-77
19
10
10
-19
9
42
50
11
-6
-33
-69
13
13
27
-28
28
68
22
-91
10
-21
-50
5
57
-49
-31
18
18
59
6
62
35
-12
-19
63
58
-6
-4
-8
-24
-42
37
4
50
-1
-67
8
-18
-9
23
5
-13
18
-127
2
24
-23
17
-78
-66
28
-18
-1
1
79
-8
-7
-10
60
-25
17
-60
-16
19
13
-6
-21
3
15
4
51
-71
25
88
-32
37
64
-4
-111
55
41
6
4
34
36
-4
2
-7
-8
-113
-6
-8
1
57
15
-52
0
78
71
68
-6
-35
12
54
78
29
-8
-6
17
61
-28
0
10
-19
-8
99
23
-20
49
5
0
-5
-97
-76
-17
2
31
-22
75
16
37
-23
-31
17
0
13
-35
-47
-28
-72
38
-31
97
6
-18
-36
2
41
36
18
-45
-66
29
48
-24
2
-87
-26
-30
20
6
76
-104
-35
-17
-21
-9
2
46
-44
17
7
19
-8
83
-7
-21
-15
-83
13
6
10
7
-19
-12
65
25
-11
9
-7
-24
-22
4
-19
-11
-19
45
12
35
21
30
22
-87
15
9
-20
101
-56
-38
21
-31
10
35
-21
-44
-8
-19
32
-20
8
10
17
16
17
13
1
14
22
-40
-22
27
66
93
-2
-2
-89
14
-49
-19
-28
7
-6
3
25
13
16
1
-53
-26
-33
-7
21
7
32
-3
-17
-66
25
19
26
26
5
-33
47
15
8
-1
-21
-5
10
39
83
-30
9
-92
-2
26
-33
-19
55
10
-22
23
41
41
-3
6
14
-54
-16
6
-73
-73
-14
5
-5
7
44
13
-37
88
8
13
40
12
16
-7
-15
47
14
104
5
-11
-5
-9
-21
6
2
10
35
-35
-25
-22
-54
-44
15
85
49
-66
-15
-52
9
31
-12
41
37
66
18
-10
-96
31
55
12
38
15
15
-4
10
-21
-40
60
25
-85
-13
-20
-8
-7
37
5
0
-27
-7
-9
0
35
51
32
-16
45
-58
-3
3
-19
32
-16
-73
70
-115
19
-31
47
6
-52
-32
63
-87
25
105
-19
108
4
22
17
-10
-50
-5
-19
-71
7
52
-29
-64
-25
38
59
17
10
49
27
13
-30
32
-4
13
18
-82
-16
12
-16
-20
-7
-48
96
-35
-4
3
-5
95
-6
19
40
32
16
18
24
-20
-50
-1
-11
60
-3
-9
-65
21
19
-2
2
30
29
-6
36
-65
13
29
35
-51
20
-23
46
-83
-3
39
50
15
6
-38
33
-3
37
34
30
-16
-14
-18
0
46
-12
-1
-25
-7
8
-95
8
-60
8
-24
-12
18
-28
-67
7
-22
4
-10
10
44
-55
3
50
15
-25
40
-46
-25
-24
21
47
41
9
-47
10
14
-35
5
-19
12
0
-25
7
2
-23
-31
20
67
-23
21
-53
-28
-18
-46
1
4
-28
25
-58
15
9
-14
-25
-73
25
28
67
-45
0
1
-26
56
39
79
-25
-52
73
-12
14
90
-24
-40
11
-56
-13
-13
-37
-76
-23
-7
-53
-51
-14
27
-1
-44
16
-12
18
-55
71
31
-19
-43
-17
-19
-70
70
24
6
-34
-32
-30
-5
45
-44
39
-32
39
40
17
-19
11
27
4
-18
-10
65
0
-66
-5
-24
9
20
1
-32
13
0
-15
-29
3
-71
-36
-18
0
-56
76
-57
50
-31
7
-38
-33
-21
6
-52
49
-38
-40
-42
2
-21
-15
6
104
45
-38
18
17
-8
-17
3
-15
-57
38
28
-52
-127
16
2
29
-5
17
45
30
-30
-24
-35
0
-21
48
-5
17
17
15
-7
14
-1
7
31
33
-4
22
53
-41
24
-38
8
-43
16
6
71
32
12
116
10
24
19
-1
104
-52
34
7
27
24
-68
19
-39
-87
-7
15
29
-13
-2
7
23
18
16
-53
7
34
30
-63
49
-27
-45
17
32
44
13
-33
70
-29
-24
-97
14
-27
42
-8
45
-4
-7
65
-11
16
51
-24
-28
-56
3
-22
-6
-55
36
-78
9
-30
43
-3
15
4
-14
-68
29
34
60
8
-4
-20
-18
-23
23
-25
34
16
-26
1
-29
40
-10
-4
-11
28
5
-1
13
-32
-14
20
-8
15
0
-127
62
11
22
-24
4
36
-14
5
18
7
65
43
-26
-9
-21
-36
3
-38
3
-23
18
-28
-14
1
-10
-24
-12
-7
14
32
3
33
21
-41
0
-15
10
4
10
-25
6
-19
31
-12
5
-20
62
-14
-2
12
-25
-10
29
-62
1
18
14
20
2
10
37
45
13
-22
-20
-1
30
-24
10
27
11
-17
12
2
-51
-41
-22
17
-8
7
-9
16
-9
8
35
0
-19
-15
27
17
-10
12
-18
-5
19
2
-14
11
-32
-4
2
-9
-55
-32
17
26
-9
32
-23
-46
11
-6
28
-27
18
31
6
19
-60
13
17
17
-2
-2
-17
-10
-12
-16
-5
20
-9
24
21
-38
79
-38
-43
11
2
17
9
6
-20
-4
-58
16
7
-25
-15
-34
2
1
12
34
18
3
26
-29
31
-45
-4
5
-21
13
41
15
11
26
11
-14
-44
-49
5
8
23
31
24
-4
2
-6
-24
-77
42
21
6
29
5
4
41
-43
-17
-10
3
43
5
18
4
-37
9
-38
16
1
-4
0
22
6
2
23
8
-10
69
-25
-13
-29
33
4
-25
17
-12
4
-1
3
-37
10
24
4
-1
-38
-3
-31
9
-35
31
-14
-5
-121
-44
-7
6
-4
1
9
22
14
-12
7
8
10
-21
4
5
-14
-8
-37
-9
-31
-9
1
48
20
-43
48
11
-40
-1
30
-4
-35
17
-11
-16
29
-14
46
-30
15
26
34
8
0
7
14
1
-12
11
-79
7
-1
14
-38
-37
-30
-22
97
-52
-8
-11
3
-15
11
-18
12
-10
8
4
14
-3
-10
-15
14
18
5
-1
9
-30
5
10
25
46
-3
3
2
-13
14
32
100
-25
-13
-63
-14
-6
-3
21
-23
9
7
-2
34
3
-11
-39
-29
-19
89
45
27
8
22
19
-17
-18
5
20
-15
7
38
-10
-4
-45
40
-2
-1
-6
24
0
-20
-1
20
4
11
-31
36
34
-73
9
-11
-43
-57
-2
19
-35
-34
-21
-22
30
17
50
-41
-76
-18
13
100
-49
17
-24
7
1
-18
-32
33
-8
9
19
-6
20
-8
127
-24
-16
-32
5
28
71
-7
-19
16
0
-35
8
50
14
21
10
8
73
5
32
24
18
31
-19
29
-15
-10
17
13
-14
-11
-22
20
-27
-14
-7
-48
-8
33
-76
58
-2
17
9
39
19
-18
9
1
-12
23
46
9
-33
-46
11
0
-38
1
1
28
35
17
53
-4
12
18
-3
-33
7
31
-117
-4
17
42
-32
-31
5
-7
-64
7
-42
-25
80
31
0
22
-20
6
6
-13
-39
-47
-3
-38
102
-74
56
-11
32
-21
-53
0
78
-12
-54
14
-30
1
2
-4
-36
-11
8
-45
2
10
-6
-42
-36
105
31
1
-68
-21
-38
-14
10
16
-120
25
14
21
56
-63
15
-5
13
-14
-11
-8
-10
-26
-23
-9
-3
-12
-22
85
32
38
16
-15
9
-38
19
15
-8
48
-5
39
-29
29
33
-20
30
63
-1
28
4
2
-3
25
-24
-5
4
0
31
-7
20
43
11
1
36
8
2
-12
9
11
28
91
16
-53
46
61
34
71
20
28
-5
0
-8
39
-20
-26
14
22
-17
-26
-1
31
34
-6
27
14
-5
12
8
29
-59
3
34
60
22
5
-54
33
-4
6
31
0
18
25
22
17
-56
-12
-42
-45
55
8
31
12
-12
40
-5
-35
-39
-14
-23
54
30
63
41
-8
-1
47
-13
1
1
40
-23
-74
-9
-6
-6
-51
-33
-11
4
-2
-44
22
34
0
-14
0
11
-11
64
-7
-11
-37
-10
26
-24
9
1
-26
-19
-44
-15
2
16
-22
11
-17
-19
-34
-2
74
-3
-1
-49
7
-29
-22
-40
27
-30
53
-6
15
-10
-21
23
-26
-6
19
13
37
46
-75
-3
40
2
-15
-1
-43
2
-6
18
68
-28
-42
35
-8
29
24
-73
-39
33
-25
19
58
-27
16
4
32
-2
2
3
3
71
73
49
-28
-30
-10
10
-46
43
-36
-53
31
68
1
-56
-12
11
-24
34
55
-32
-7
-44
28
-36
-14
34
5
-6
-20
-44
50
11
-7
-41
-80
43
33
14
26
-34
-11
16
-24
32
-55
25
19
-14
-37
1
97
20
-8
-4
22
7
-29
10
9
-7
-41
20
-80
55
12
-15
6
-82
2
49
8
5
8
47
53
-43
-35
-14
78
89
-98
-47
75
50
-57
-22
22
-79
-19
42
35
46
-8
5
-23
-42
-2
31
6
44
24
-6
48
-49
-1
2
-9
-6
13
-55
-3
8
30
39
-17
-40
4
101
13
-33
-2
-8
9
-15
-30
58
-26
13
2
16
20
-10
-13
36
9
21
16
-2
21
75
39
-18
-3
33
53
1
-2
30
70
-41
-85
-34
14
37
-29
-35
-36
-18
-55
42
-66
-23
-25
97
-18
4
-15
9
6
15
8
12
17
-81
51
-2
46
-68
11
18
12
29
-50
-45
5
28
4
61
93
10
-61
-8
-60
-36
-31
44
-48
10
33
-32
-16
-61
35
7
77
50
-76
-54
1
-17
-38
-41
17
-15
9
3
-23
-9
-56
22
30
19
-18
15
24
4
4
11
9
-96
-33
24
-10
-46
-45
-37
-31
16
-21
-29
62
-10
77
-17
52
-24
23
88
11
40
127
-45
58
18
-36
-53
21
-17
52
62
-26
-29
-11
8
20
27
54
9
-7
-9
26
7
-24
-43
-23
46
40
39
15
-80
2
33
-21
77
-7
15
-69
-21
-25
69
-2
-10
31
20
73
-6
22
77
11
46
-29
-1
17
-37
34
-8
71
7
-80
-2
-9
58
34
-47
-35
-55
-38
-27
68
1
-5
-40
-11
-23
31
-25
-5
-47
43
-16
-21
-6
-5
-9
33
-17
29
12
-4
-1
-23
26
36
-69
-4
50
6
64
-67
-74
-12
-19
14
-8
31
-89
0
-4
54
17
22
-51
-36
5
-24
28
9
18
-9
23
-5
21
12
-35
9
28
36
-13
-30
-12
35
-72
1
24
-22
-18
-21
-127
32
2
27
36
6
8
-3
-6
-20
4
6
8
30
41
26
42
23
-5
50
-1
-34
23
-3
23
26
-38
-4
-16
21
18
-20
-18
9
-8
5
9
3
-26
-19
10
2
-1
-22
-14
-21
73
-29
1
22
17
7
-25
33
39
-26
24
-44
36
19
15
9
17
20
-21
11
8
-33
-13
8
-4
-22
-7
-1
14
9
26
29
47
-4
-34
24
8
-6
-22
12
62
-20
31
24
6
-5
-3
32
22
17
-11
-7
15
25
-24
23
-11
-16
20
-10
2
-3
15
-3
-10
29
-1
14
23
-10
14
-29
16
26
54
-52
-23
12
8
30
14
-8
42
9
-10
-17
25
39
-31
-7
-8
40
24
6
-6
-33
14
-14
-21
0
-22
-10
11
20
12
-14
-1
-5
5
25
10
-55
29
1
-9
16
0
-5
-7
-64
8
-22
39
-11
60
-22
3
0
-13
2
-9
21
-8
16
-6
26
-20
-8
-3
107
18
10
-29
1
12
7
5
-3
-4
52
-24
-50
10
13
0
22
-14
15
68
-2
-11
0
-17
1
2
11
33
-17
15
46
23
20
46
-15
57
7
-8
-1
10
8
-8
-4
37
-17
-95
-15
-22
0
0
15
4
-4
-13
21
50
-24
16
-9
-2
8
0
16
11
-1
13
-10
20
76
24
41
59
-16
17
0
-22
-8
-13
-2
3
0
-12
-18
-1
-3
16
-15
-6
113
11
-20
1
6
-7
11
16
25
-18
5
2
-56
-25
62
3
6
-3
-33
-29
-5
-34
-83
-8
3
-41
16
-36
-22
9
1
-1
-13
5
-8
24
5
-22
-20
-10
13
-9
4
-1
28
-25
12
-33
-14
7
4
22
7
-14
-2
-14
-13
-6
-3
-46
10
101
17
22
12
7
76
29
-13
25
46
16
-9
-4
-18
-7
36
8
25
21
-9
12
-6
1
-30
-26
-48
-10
-50
33
-32
33
-1
-7
113
4
14
-39
11
-35
15
26
5
20
18
-40
-14
-127
4
-11
31
-4
3
-9
3
11
21
22
10
40
-14
-11
66
26
-83
10
15
-2
-9
-31
-5
-22
-4
5
-25
30
-35
-2
8
5
5
36
-6
-15
8
81
19
-1
25
-4
-14
29
24
14
7
13
-5
-99
12
0
45
115
12
-15
10
44
-46
-31
-13
-10
-8
1
-22
11
-5
-6
27
-99
9
-27
24
-3
26
84
-3
88
27
26
-34
-44
-12
-4
-50
12
-47
-18
-13
30
-17
-22
32
-57
-9
68
28
-18
-23
-26
2
-93
72
-7
4
12
0
7
-45
-77
-84
1
-48
-46
-20
-16
-66
1
2
98
6
17
-86
-14
-24
0
-16
-12
53
-8
41
3
-15
-56
-8
2
-5
-65
-46
12
20
11
-29
-4
2
-23
35
-32
-20
-22
-19
60
75
44
-51
1
-34
19
15
-45
-15
-54
-9
28
-15
-18
-77
-46
-27
18
-4
-7
16
-14
15
-9
8
0
66
4
-64
-62
-30
8
-22
13
-52
-23
-24
-41
39
-8
19
67
10
11
118
-19
-34
31
39
-33
0
16
20
48
-41
11
16
-12
41
1
31
-5
-23
72
-39
-6
71
-85
-38
-62
-28
-60
26
10
-18
-40
-43
31
11
-13
3
-4
-58
16
17
-45
68
-39
-27
-68
-3
23
-27
35
33
-49
-12
38
32
-17
12
24
-2
-3
13
-16
-18
32
85
8
9
20
25
87
-48
-4
-8
19
-20
-4
-11
-30
45
9
36
2
-22
42
28
81
-57
18
35
9
-4
-2
17
-46
-9
-5
19
-44
7
47
-6
18
-81
19
-16
-16
-16
62
45
-8
9
-42
-16
79
-24
37
-15
-41
52
-18
84
22
-25
8
-3
55
-7
-12
32
81
-15
-22
22
52
-17
-39
14
41
-60
-20
-18
-8
-41
6
-97
1
-28
32
-22
45
22
-15
-18
-14
-7
-4
2
13
-95
-43
15
-2
-26
-35
-17
-35
22
-85
-8
6
10
11
0
-7
30
49
31
-70
-49
-5
8
-16
-37
-33
31
-32
15
26
-7
-16
-21
29
-15
2
37
16
-26
9
-7
-52
30
5
31
47
-6
38
26
-4
34
-67
5
-2
-25
14
8
38
-5
-45
35
-15
8
9
26
9
-17
34
-2
26
23
-74
-9
3
-9
34
-14
-37
22
19
9
27
-17
29
9
-18
-32
-25
23
59
-102
66
29
35
-80
17
2
8
-32
-48
-35
29
-11
-5
24
-21
24
-10
73
78
-44
34
23
35
23
25
66
-27
30
29
45
4
6
24
-8
63
-16
11
50
28
-42
38
41
5
30
11
-13
-2
-15
-99
28
-34
13
-93
47
-14
-1
34
-58
-27
-26
56
34
22
20
38
-4
25
9
0
-53
-35
73
26
13
16
-75
-13
-14
5
-39
-45
-5
-30
9
-10
11
59
9
-22
52
42
-7
10
40
-8
-21
-32
17
-14
30
3
-41
8
32
-36
36
2
26
11
-7
-22
-6
15
-45
38
-32
-6
44
4
18
-3
-20
0
35
-37
36
22
20
-27
-48
49
60
15
41
3
40
-38
39
-33
-19
5
0
-6
-4
-8
-21
90
-5
-25
-50
-2
7
36
-13
2
-2
-22
74
-26
9
-55
-23
-37
31
17
-43
53
-14
-31
22
-7
19
-13
-15
-76
-6
-8
32
-43
-4
104
-13
1
38
22
-42
-47
-19
35
-6
-57
4
65
-50
58
19
8
43
27
-32
32
-70
-46
25
5
-17
-17
60
10
-4
26
66
-29
21
-22
6
11
-83
-20
-58
53
22
-7
44
-31
1
21
-28
-4
-18
-5
6
-10
52
-10
-1
-12
48
37
-45
-61
-7
44
-10
-45
22
5
4
17
-24
39
12
13
24
-29
47
-6
-45
30
127
-19
43
-15
-23
-35
31
26
-37
-27
-20
-8
-23
73
-14
-77
-32
56
2
22
10
-24
-22
-40
-5
3
12
-18
35
-75
-1
-7
64
24
-7
21
-41
3
-6
-19
-13
-32
-14
40
-6
-15
21
-20
-27
-21
-17
13
-4
-16
15
-30
10
11
-24
-2
0
34
-11
32
9
13
15
-31
-5
-17
-43
-13
1
50
-37
84
75
-52
-2
-22
-6
78
35
-19
-5
-31
1
-50
-39
17
-26
-25
17
-84
-46
62
39
28
-4
2
21
-30
-7
33
71
-62
42
-5
29
1
11
-52
3
-42
-4
-23
-32
-30
24
-14
-10
3
-12
-1
13
28
-8
48
-28
-10
-8
-1
-25
59
-21
16
-3
0
-5
5
-15
-31
74
12
2
0
-20
-27
22
17
-78
10
-29
45
57
14
3
38
10
58
10
46
3
53
26
75
59
4
11
2
40
23
-3
-102
21
34
20
33
-41
10
-28
52
-36
-3
27
-15
21
-11
35
-38
75
8
24
10
-10
-30
23
7
-24
-89
29
-37
10
17
1
4
-76
20
26
27
-4
-35
-57
22
-68
-20
-13
48
16
29
15
50
-31
41
39
-54
0
31
48
32
-11
-24
-14
-19
21
0
-23
16
-3
8
-17
-11
-11
10
0
51
-16
7
-13
29
-17
-18
-34
-15
-34
-9
18
-31
18
16
-11
-51
22
20
-4
-27
18
7
7
27
83
-3
17
-14
-4
-22
15
-7
-31
-85
-18
5
37
31
-55
-11
67
-19
2
0
-6
-43
10
10
22
-11
-4
7
-39
57
-22
4
-26
-51
-1
-12
-3
39
-39
17
6
1
18
127
11
48
56
17
16
-8
33
30
71
33
-38
-7
6
31
1
74
8
10
-21
-11
4
20
39
11
-26
-33
43
-5
-19
-3
-39
-1
40
-41
20
-4
-49
-30
-15
3
44
0
-23
-43
70
-16
-7
-22
72
31
-16
17
-10
31
8
5
35
-18
11
-39
30
-5
31
-5
24
-9
49
-27
-16
17
3
-20
4
-20
21
-17
19
6
-29
-23
-18
-8
13
21
-15
3
-44
-32
-53
-43
-3
5
50
-18
-13
-15
-77
-15
16
-35
59
-21
2
-26
51
-22
22
15
11
-18
2
-3
6
-50
-13
-9
-4
-68
-56
-60
0
27
-12
20
-1
8
-30
-52
-22
-43
-33
25
-40
-2
28
45
41
23
47
-17
20
18
-11
-64
57
-33
-9
21
-61
-5
13
4
5
-39
-15
2
-17
-16
7
2
57
9
-4
-9
1
-63
-17
22
-14
5
33
-16
-17
7
2
-59
8
-5
12
15
-32
-13
-8
-60
-40
73
-90
-50
9
59
28
69
-39
-61
-74
31
-8
21
83
8
-25
10
-46
29
-6
10
-7
-15
-27
-7
-14
-36
36
100
24
43
-3
-36
37
30
26
-85
-6
-41
1
4
35
1
7
-26
-23
-32
-44
-8
-28
-5
20
-100
-27
18
-86
16
-16
3
14
-15
-14
-34
69
-6
-53
-43
30
-17
39
57
35
-7
48
15
45
74
-46
-4
-15
9
-34
13
-55
43
53
-43
-24
49
-66
11
30
-7
-34
-59
-6
-37
12
-114
127
35
-47
-12
-25
9
16
-35
39
46
-20
-22
-23
32
42
-34
-4
-60
36
-28
-37
17
-11
-11
-37
-10
28
-47
-14
9
15
33
-19
-17
-16
-1
-18
-31
-20
-4
-57
-22
21
70
-29
-39
-36
33
16
-9
39
12
-7
-10
51
-37
44
30
-34
-26
-69
-31
12
20
32
22
-5
1
-33
76
110
21
-25
-11
32
23
-71
1
-29
-46
-76
-30
-6
72
-26
22
-2
-8
-19
-3
28
-12
14
-32
-33
22
-35
44
20
-18
80
-47
28
-31
-56
-30
-43
-5
-5
-6
-38
3
-24
7
-19
-28
14
4
-14
-22
15
-10
-37
-40
-12
-30
-8
-27
23
-17
-32
-22
-30
-33
4
18
-4
54
72
44
10
-10
17
12
63
26
62
17
100
-23
31
-43
18
-38
-64
-10
48
-3
-80
11
21
39
-36
-24
-13
-66
12
35
42
27
42
-47
-22
-15
14
24
12
-21
16
16
-17
-3
5
27
33
3
-37
51
51
-52
6
-12
-62
-76
-72
-13
-6
36
-29
-48
27
40
38
-5
-2
-21
-13
8
-27
61
47
-19
-53
62
5
-23
89
-45
-19
-14
3
-11
23
-7
-41
-31
10
-33
23
22
-53
30
6
-44
-20
-24
73
-17
-9
5
-98
82
-2
31
-65
-69
-12
41
28
73
13
11
-31
18
-59
23
-25
-19
42
49
-34
-23
-6
42
3
-82
-13
34
11
-16
-14
-40
-27
2
-53
-2
-7
-39
-75
-28
28
65
7
85
35
17
-33
-19
22
11
35
-74
41
9
-15
14
3
-83
-17
-42
-38
-45
-75
-53
-41
-13
24
-41
-41
-11
-19
-9
-36
73
-39
50
4
50
25
24
-53
-37
-2
-58
-1
27
-27
-56
-57
-20
-37
-21
12
38
28
-69
-17
-1
-2
-20
16
2
73
28
-8
6
24
38
127
18
-5
-28
-14
63
9
-23
-46
63
-28
-75
5
42
32
-13
17
8
3
-46
38
-31
44
-7
-68
7
52
61
16
29
-63
-20
22
14
51
3
62
6
8
-37
-49
26
11
34
10
-63
-3
93
-4
-10
62
-20
1
43
-1
-50
-8
-19
-38
25
6
-27
23
-61
-14
11
-24
-79
-10
40
7
22
-38
-46
67
35
-43
18
29
-70
44
-6
-56
21
-11
-38
-58
-30
26
-6
4
-30
-21
-14
-42
-22
0
4
-13
-17
-41
54
-13
-113
-34
83
97
63
-38
-68
40
-10
-11
-61
-13
-37
21
41
48
-19
-30
20
-48
-1
25
13
-47
-13
-4
-1
-7
63
3
-37
21
-33
21
-17
8
21
41
-29
-48
9
-26
-38
50
-9
53
-8
3
-12
-22
-1
29
55
16
20
-30
6
-2
-13
-42
-11
91
1
-77
-11
32
44
2
9
20
-8
-35
-25
-23
4
-76
-30
-71
74
-1
-6
10
19
43
-41
-38
42
-47
-18
-21
6
-9
-25
-18
18
-68
17
-30
-8
2
-10
89
16
17
83
13
15
-19
-112
-75
0
31
20
-23
-2
37
-30
-39
-76
4
10
62
38
-5
-14
-119
14
-17
48
3
-13
-48
-26
2
1
35
14
-73
28
-25
-5
0
-10
-17
3
16
-56
-24
57
-10
65
-11
-23
51
22
-64
-71
1
45
-32
9
59
-27
-71
42
-51
