5
-5
14
11
23
0
43
-15
43
4
-2
15
-7
13
1
14
21
20
9
16
-35
11
-28
43
1
1
18
9
-27
18
-6
12
13
19
2
11
-17
-7
-42
4
-12
-11
5
-4
-10
2
-8
0
8
4
9
5
-66
11
35
17
-6
-1
19
17
-14
17
13
21
12
12
8
0
-127
20
-20
86
-20
-31
36
2
-26
19
-15
15
14
17
-4
-4
-51
5
-36
25
-2
-29
13
0
-5
11
-4
-4
5
-3
14
-3
-61
5
-9
14
-26
-10
11
13
-1
7
16
5
2
6
12
-12
-65
8
9
37
5
-36
6
-1
-7
-1
-8
6
1
11
-1
-18
-22
1
11
0
20
-29
-14
-13
0
3
4
-5
-4
18
13
4
5
7
-5
10
-1
11
0
7
-2
-14
8
12
-40
10
5
3
0
0
1
5
-7
-4
-3
3
-14
-42
15
7
-38
7
9
7
7
-3
12
-1
-4
-15
-14
10
-21
-14
15
7
-22
7
4
5
6
12
-3
-3
8
22
-2
6
41
-55
-13
4
-127
-21
-5
6
-15
-7
3
-7
-10
-5
6
-7
54
-119
-19
-19
-122
-12
-1
3
-17
-1
-6
-13
0
9
-4
1
35
-72
-24
0
-2
8
4
-5
1
11
3
-1
6
-12
-5
7
-2
-20
-2
3
-54
-6
-4
3
-2
7
17
2
-2
-15
7
5
-2
-51
-4
1
-52
-10
5
2
-5
2
-1
-10
-3
9
-3
7
-3
-27
-6
5
3
-1
12
2
6
-5
15
18
3
9
3
3
-27
-9
1
-1
-20
-41
-23
-31
-24
36
-5
-43
-8
-47
1
48
51
17
17
33
-1
13
0
31
6
-33
-9
16
8
33
-2
-18
-10
-23
-10
-28
-12
-8
-20
-38
-4
53
-11
0
-3
-40
-4
7
37
20
-25
27
19
73
-4
100
1
-127
5
-7
-1
70
-6
-91
-57
-56
43
-50
-13
-32
2
-76
12
76
4
17
-1
-25
3
39
25
20
-40
1
3
13
-1
26
-4
-24
-5
-30
-1
18
3
-12
-3
-18
30
-16
-13
-48
18
-58
18
52
2
49
3
-19
3
43
27
23
-57
6
-1
21
-15
39
-23
-36
6
-36
-6
-2
-6
-23
-8
-2
33
7
16
17
22
11
3
15
1
12
17
12
12
6
-22
17
32
43
0
19
17
6
22
12
22
46
0
28
0
8
-7
17
49
26
2
11
5
11
2
3
-6
-4
10
-7
-6
7
-34
17
21
8
3
25
8
1
-17
8
-11
-10
6
21
-6
-6
31
7
42
-44
-62
-10
-23
-72
-61
-29
-16
-94
-38
-45
17
-18
127
-68
-112
-104
5
6
12
-15
-9
0
16
-6
-14
5
-5
25
-39
21
56
5
8
12
-24
-7
13
6
10
12
-2
18
-9
2
-10
12
33
-11
-23
-12
-63
-27
7
-10
10
9
5
13
-5
-5
13
-22
-104
-23
10
2
7
-4
14
9
-7
16
-1
-19
-11
11
-46
1
5
4
-6
-42
-18
-72
-50
67
41
-19
-1
-45
20
23
50
-2
35
37
-3
-84
-25
-70
-71
75
28
-76
3
-30
6
32
78
-7
33
43
-8
-52
-18
-10
-44
11
17
-47
8
-10
-3
21
44
-16
32
-6
-7
-8
37
-44
49
17
-40
43
-24
9
-22
30
-56
3
-27
-36
27
54
38
-81
63
54
-42
90
1
16
-5
2
-78
33
-45
-15
27
34
-9
-48
43
21
-26
44
-1
0
-1
-22
-36
14
-48
-23
-8
31
-39
71
-18
-75
15
-41
0
28
2
-26
17
-14
20
15
-25
33
-21
106
-21
-127
15
-30
13
8
1
-35
19
-16
13
13
-8
28
-18
47
-7
-64
12
-16
1
20
4
-26
-11
0
11
-2
9
105
-8
-107
-5
90
-31
21
9
-19
3
-116
59
-23
30
-4
-22
95
-7
-94
-24
49
-20
10
-20
-12
-5
-127
26
-9
11
-20
-6
28
-5
-35
-24
15
3
-4
-15
-36
8
-33
3
-1
15
-2
-8
43
-8
-112
-4
83
-20
11
12
4
-6
-88
36
-29
-17
-18
-8
71
-12
-87
10
67
-7
14
-1
36
0
-83
-13
-5
-42
-8
2
21
-5
-5
6
17
8
1
-6
-5
8
-10
-23
15
14
0
-12
3
-5
-31
3
23
1
-22
26
-18
-15
-10
-1
-4
-13
-7
4
8
3
-16
30
3
7
-3
3
5
1
0
-31
-9
-6
2
-1
-6
11
27
12
-8
3
3
-3
2
1
31
-32
8
9
9
6
-37
9
2
2
6
-1
-5
-3
19
-6
40
12
15
3
13
-1
-86
0
-20
-6
9
-5
7
-13
-10
-12
73
29
-2
24
0
-1
-54
-4
-18
2
7
7
14
6
-11
-4
46
-3
-15
7
-1
2
-56
8
-10
15
18
0
-8
-8
28
3
50
3
9
-10
12
-4
-127
6
-31
-5
11
-1
-7
-6
-5
0
92
24
-8
15
3
-2
-74
8
-13
-15
1
8
0
-1
-7
-4
60
-1
-15
10
-1
3
-14
10
-6
15
9
0
-2
-4
10
-1
9
2
2
-9
0
-3
-40
10
-12
3
6
4
-4
3
-10
4
17
2
-7
2
3
-4
-26
-1
4
-16
-10
0
-6
2
-3
0
17
-4
-3
-6
0
-10
47
-5
-54
-17
41
4
-17
4
-28
-4
-48
45
1
40
33
5
64
20
-89
-8
62
-13
-25
-1
-8
17
-51
-14
-12
4
-3
-4
9
-4
-3
12
-18
5
19
-5
43
20
3
-54
8
-38
-47
-1
-93
-16
86
23
-97
-5
7
-13
36
13
86
-63
4
-58
-18
-9
-106
-58
118
17
-127
2
33
10
-3
-5
98
5
-2
-5
45
-6
-34
-4
25
-39
8
1
-28
-1
-34
-23
30
42
-13
37
36
-5
42
15
-20
-21
35
-3
-13
3
-45
-13
-44
36
-15
52
-4
-9
54
7
-81
-6
77
0
-5
-1
20
-11
-49
9
6
-7
-55
-6
13
-20
-16
29
2
-1
21
-3
11
4
-8
-6
-12
-26
-23
19
72
3
30
1
-37
26
30
-12
44
7
-73
-5
-87
6
-13
-38
-127
-16
-77
-38
74
-18
-88
9
22
-9
99
-4
42
53
9
-7
43
5
50
33
-51
-12
53
5
-46
2
-39
25
24
-64
1
12
-27
-22
3
-43
-19
-20
-50
1
52
-1
16
-62
-32
63
-5
-37
41
1
-60
54
70
19
61
0
-97
10
-21
69
80
-119
13
-12
-9
-12
42
-19
-40
7
-32
0
45
-9
-1
-25
-63
58
-17
-1
-23
-1
-7
7
6
-2
13
13
-9
-3
26
-2
29
-36
8
-21
55
3
40
7
-34
-3
9
-17
-4
-4
-59
23
-12
10
-13
6
-63
-11
-38
-20
35
9
-19
-4
-2
1
51
-13
-26
25
-4
0
6
13
21
20
7
-27
8
5
20
-1
-8
-13
18
3
39
-4
-83
-32
-37
-42
-5
43
-21
-16
-22
8
62
45
-23
1
-57
7
74
4
-8
22
12
-7
5
13
11
-12
-53
-30
20
-11
12
8
4
35
27
29
41
-2
30
9
32
-3
-10
-25
37
6
55
-15
-127
-58
-32
-73
-40
21
-44
-23
-16
22
107
54
-41
6
-63
16
100
17
-1
41
-2
3
3
10
-26
-19
-72
-15
34
-37
12
1
-1
28
-3
11
30
3
16
6
-8
0
-3
-9
8
18
8
-24
-46
-36
0
-43
-46
-5
-14
-15
19
14
44
7
-15
-8
-12
4
53
11
10
18
-10
-5
-4
1
-8
-11
-42
3
5
-15
3
-16
-13
-8
-8
-30
-28
-17
-38
-16
-22
-8
-18
46
-34
-25
-45
25
21
41
34
43
17
63
70
-15
46
-20
12
-80
42
71
51
27
27
28
18
35
35
4
27
7
22
-35
19
-69
29
34
56
-43
-21
-88
-58
-63
-51
-37
-111
4
-44
32
-15
92
-60
-127
-111
23
-4
32
-15
-28
-15
14
37
-6
-5
23
-13
-16
22
47
-22
-2
11
41
27
3
27
3
-11
-22
6
-50
23
-29
1
41
27
-24
-19
-79
-44
-13
-5
14
-39
21
5
32
-3
22
-24
-73
-32
17
5
-18
-27
12
-7
-4
29
15
13
26
-7
-9
16
-1
-12
0
0
8
1
1
7
-7
3
8
-1
-1
3
-18
0
3
2
18
27
-10
16
-3
9
28
10
10
-12
28
11
4
25
39
-15
3
15
0
8
16
20
17
19
34
11
28
33
16
2
64
14
0
15
8
11
12
26
0
18
21
11
13
22
-10
-2
39
29
-2
-5
38
7
-2
17
11
36
-5
-11
-8
-24
-3
-33
5
65
-88
-56
80
15
13
10
-18
19
-22
-5
-20
-40
19
-127
-68
124
-104
-61
50
40
9
4
-9
17
-23
-1
-7
-36
10
-81
-35
56
10
0
42
25
6
-3
-23
-4
0
4
-24
-25
16
-16
3
16
-53
-72
84
34
-19
-18
-19
-58
-4
-16
-10
-67
45
-95
-69
35
-69
-73
46
35
-6
-6
2
-12
11
-16
27
-47
16
-63
-46
21
17
35
12
-5
-38
69
-55
33
9
6
13
-32
-41
9
2
34
29
47
5
38
67
56
57
-34
41
45
-21
12
-26
40
24
16
0
-4
2
20
66
7
29
-64
43
8
-25
-7
-1
-2
-1
-15
9
22
24
50
81
15
0
-72
39
31
-53
9
17
7
20
29
-3
-11
6
105
96
-28
19
-108
19
78
-33
52
28
-9
47
-23
-17
-47
-11
49
-30
-21
-23
7
-18
22
11
33
46
-23
-8
-20
-2
-18
1
7
15
-7
36
-52
32
-3
-15
7
-4
-4
5
-10
-8
-47
-35
41
-87
-45
-28
17
-19
10
24
24
13
-12
-3
0
10
-24
-13
1
-127
-13
-44
85
-31
7
63
-15
19
-5
14
0
21
11
13
7
30
18
-7
32
24
30
5
21
-40
31
32
27
-27
-32
-39
-29
-59
-26
-47
-77
-10
-43
2
-32
99
-68
-80
-77
-35
-8
-7
-10
-30
-26
16
-14
-25
-16
6
-2
33
-23
-22
-27
40
36
44
37
63
47
41
92
-11
58
-20
31
-100
65
127
76
-19
-27
-70
-36
-2
-24
-23
-58
28
-12
-4
-32
44
-38
-74
-35
-20
-14
-31
-21
-24
-14
-3
-14
1
-12
24
-10
36
-21
-55
-32
10
11
53
31
-4
14
-4
16
3
-7
3
10
-22
7
50
22
-8
0
-5
6
-7
-1
13
-18
-17
-12
-21
5
-4
-2
3
-3
-2
-9
-13
-20
3
-7
6
1
10
5
14
0
-16
-3
-15
1
-2
53
3
-36
0
19
-2
12
8
24
-3
-81
-8
-51
27
-1
-16
14
3
42
3
-29
3
-26
-14
-10
5
-7
-1
46
-39
19
11
-78
-3
12
-2
-14
2
5
3
3
-8
65
14
-19
18
-14
0
62
5
-44
-15
28
6
5
4
44
-13
-125
-2
-42
35
5
-24
-12
-3
34
11
7
-13
2
-8
-23
9
10
-3
57
-50
11
14
-127
-8
19
-11
-34
6
-2
1
4
0
83
-3
-43
13
-8
7
31
-4
-36
-3
34
-2
17
-6
8
-6
-65
2
-25
31
-1
-21
-19
3
8
22
6
0
-9
4
-49
7
17
11
26
-31
-8
-5
-42
-6
8
-19
-19
3
-14
5
10
-1
33
-14
-26
16
-3
-3
27
-2
-6
11
-1
-10
11
14
12
3
-36
26
-15
5
0
-10
80
2
-5
-11
-8
8
-3
-10
-1
-10
-83
15
-13
6
-4
-23
46
9
11
-1
-19
6
-8
-11
-13
-6
-46
-9
4
-13
7
-5
31
8
10
5
-5
-8
-6
16
4
9
-50
6
-19
19
8
-13
99
2
-9
0
-7
-8
5
-3
10
-11
-127
5
-21
19
6
-22
66
5
6
10
1
8
9
-16
-16
0
-81
-5
5
-22
9
0
-10
8
8
-7
-7
9
-6
2
3
6
-7
-6
0
4
4
1
8
7
3
-4
-1
-2
-3
-1
6
-3
-35
-2
-5
5
2
0
9
7
-8
6
11
3
9
0
-10
0
-27
2
-3
-8
3
-94
-18
-30
-18
-22
4
-10
-27
-10
1
-7
-27
98
-116
-8
-31
-127
-21
-18
-11
-1
-9
-13
6
-5
10
-12
7
58
-65
29
-22
-19
2
3
5
-1
1
5
1
4
-9
7
4
10
-4
-1
6
-45
-12
-5
-2
-3
5
-1
-6
-2
-8
-14
-8
21
-64
15
-2
-82
-21
-8
-7
-5
-6
-16
-15
-9
8
-7
1
3
-31
38
3
-12
8
8
4
-17
1
4
-5
-4
9
13
7
-2
4
-7
17
-7
5
12
12
11
0
4
-4
9
-7
-4
5
7
-4
-8
10
-7
7
13
11
1
-7
2
-12
4
-5
3
17
-3
7
-2
10
4
8
12
6
-16
-2
8
-6
-6
-3
5
9
0
4
-10
8
-8
-3
4
2
15
12
65
50
-9
7
18
10
-77
16
36
39
37
16
-17
-18
-2
26
16
-38
13
8
-18
21
-32
35
13
16
-40
-22
-25
-4
-22
-22
-5
-54
28
-13
15
-14
105
-69
-69
-44
-35
-18
40
10
-51
-31
-49
-22
-3
-67
31
-24
60
-48
-34
-22
33
40
44
28
15
27
18
29
-45
60
-39
31
-92
68
127
44
-5
-20
-28
-1
4
-2
-17
-15
15
6
-3
-4
52
-26
-60
-8
-11
-7
-35
-17
-2
-11
5
-15
13
-32
12
-6
46
-23
-63
-25
-1
8
13
-3
-19
-6
-12
5
-10
2
5
4
-20
0
29
-7
5
1
-2
-6
27
9
7
12
-5
29
-12
8
-3
11
5
7
6
28
1
43
4
-38
-9
9
-9
42
-9
-28
4
6
14
-6
19
68
7
60
23
-42
-10
41
-9
54
6
-40
-28
22
24
2
9
42
-2
8
19
10
-1
24
3
5
10
-15
-16
22
1
-4
-3
20
-16
68
-19
-109
-8
-37
-2
-10
-19
-60
33
-27
-11
-35
-13
28
-10
98
-8
-127
-8
5
-1
-18
-3
-76
14
-20
-2
-20
-15
12
0
21
-10
-37
8
-3
-12
-43
5
-18
-11
-7
23
-5
3
12
-36
39
-11
-57
11
-17
4
3
0
-30
-8
-1
-2
4
-6
11
-25
57
-2
-74
9
-12
8
11
-7
-38
-11
-4
-13
2
-2
1
-7
26
-6
-29
9
-6
-4
-3
2
-3
-12
-7
-2
-3
2
-20
9
-41
20
23
7
20
0
26
10
36
-11
7
-4
-1
12
-8
2
-66
-14
51
5
-1
3
19
17
30
6
14
1
21
7
6
-5
-38
-16
30
4
-24
10
2
9
-7
12
0
18
3
-10
26
-24
69
-39
-55
15
-39
-14
6
-10
-46
6
-11
6
18
-23
30
-7
126
7
-127
-6
-7
0
-18
-13
-50
-15
-15
-2
16
-8
28
-14
55
28
-60
-8
27
-1
-2
4
-29
-18
0
-29
-18
7
0
-7
-51
5
30
-13
14
-7
-13
1
7
8
-4
-8
-35
-5
-22
3
-58
16
52
-1
13
3
-17
-9
30
11
-2
-6
-25
-9
-35
-6
-35
-18
44
6
-13
-5
-3
-15
36
10
-7
17
-5
-13
96
4
-97
-20
87
-14
-31
-1
16
-8
-114
-16
-20
-10
-8
-13
-118
-11
125
27
-127
35
7
-5
-42
32
123
-5
23
-10
1
17
-4
3
-24
3
31
-6
17
1
5
-14
17
13
-12
29
-11
-1
-27
-10
23
11
-15
16
-19
0
34
27
23
-19
26
-65
-5
27
-68
8
64
-7
-76
-6
39
-18
-33
-12
72
-2
-23
76
5
-34
92
-11
-78
-19
81
-13
-21
14
4
-16
-103
24
17
-24
1
-5
-68
2
62
3
-69
0
16
-16
5
6
70
1
29
-27
19
-2
68
11
-54
-39
51
-16
-12
-2
33
-32
-74
24
-58
60
-7
-11
-3
-17
-14
25
20
15
-24
11
-23
12
-7
7
11
-52
-16
3
-7
11
25
26
-26
12
14
6
29
-11
13
-10
6
14
-7
-12
-5
9
3
-12
-11
-43
-16
-28
-39
4
0
0
-15
-47
-30
-3
9
-9
-21
-15
6
-12
26
-4
-32
12
-23
-2
-4
-23
-27
-10
16
-94
-1
-27
21
-34
-27
-24
-29
24
-27
66
-27
-52
-12
9
85
-52
-106
-25
122
19
12
39
-35
-1
-96
34
-24
80
70
20
63
10
-57
17
64
45
-24
23
48
-6
-23
-37
54
37
21
5
-1
57
-36
10
27
12
-3
27
26
-4
8
-39
-8
13
-16
0
-39
39
45
28
-79
9
2
-6
85
-28
71
-47
36
-19
-33
-21
-108
-45
78
-21
-127
-24
-4
-35
-43
3
72
75
-65
-2
12
2
4
-1
-1
-21
3
21
-1
-5
1
-19
-2
0
-1
4
3
-3
1
-1
-1
-62
2
-23
37
-40
10
-3
0
3
-4
4
3
-4
-1
-1
-3
-42
5
-47
16
-17
-1
-9
3
4
3
14
1
3
3
3
3
-80
1
25
33
-26
-6
-1
0
5
3
7
4
1
2
6
2
-127
1
-12
82
-53
-4
16
1
6
0
8
2
-1
-2
3
2
-83
1
-32
36
-35
-11
0
0
3
2
19
3
1
4
5
5
-57
-1
-5
29
-19
-5
15
-3
-1
1
6
0
-1
-1
3
1
-77
-4
2
44
-30
-11
6
0
-3
-1
10
-2
-1
-3
5
3
-44
-3
7
10
-20
-14
-2
0
-4
0
8
2
-26
-10
-19
12
-2
-25
-30
-22
14
27
-2
-30
45
-39
-64
-34
-50
-29
-28
-3
-45
-44
-23
-54
-39
2
4
-60
51
-77
-127
-63
-29
-12
-4
-2
2
-9
2
-16
-19
3
-12
-22
9
-14
-31
-19
37
23
-6
52
25
-28
22
26
16
3
-8
10
-58
68
92
58
44
43
-52
57
34
-85
29
47
14
22
4
16
-56
58
49
23
20
9
-14
16
6
-16
1
15
4
9
2
-6
-18
6
-3
2
-3
-10
41
-28
-8
31
-8
-4
2
-47
4
12
22
-3
42
1
-6
-6
21
-25
-10
12
0
0
2
-22
11
25
28
7
36
0
2
-2
3
-10
-9
8
3
1
3
3
5
15
-11
4
18
-1
5
12
-55
-57
-64
-49
-24
-72
-21
-24
-34
-2
98
0
-6
-127
-31
-4
-27
-57
-55
-54
-37
-56
-34
-44
0
-18
56
-25
-40
-88
-3
-7
15
-13
-24
-9
25
-1
-18
-30
21
0
-56
19
18
8
-4
9
-96
-67
-38
-53
-1
-83
-8
37
-51
5
58
4
-14
-90
-19
-4
-70
-73
-10
-47
-29
-28
6
9
19
-7
16
-19
-74
-58
18
6
3
-3
3
17
5
31
-4
7
9
-8
-62
12
13
9
0
4
-32
-20
-10
-13
11
-22
-4
40
-15
20
-26
16
-6
-1
10
11
-15
-26
28
5
19
13
20
-4
20
10
-35
12
-43
5
21
25
10
-3
3
13
12
6
-12
-18
-8
3
-42
22
6
0
-15
-24
2
-20
-8
-3
2
-32
-12
-8
8
30
26
8
-36
-15
22
-40
6
-7
19
36
-12
49
22
43
-9
38
-49
10
65
38
-11
32
-15
14
-20
-8
2
-19
-9
-12
4
-58
44
-6
-31
-20
-27
-14
-32
-48
-22
-13
0
-50
-19
-21
-3
1
54
-22
-113
-47
18
-98
67
18
32
36
-1
45
22
1
-6
81
-79
22
127
61
5
37
-24
29
-4
-21
-3
-6
6
-9
13
-90
41
-5
-25
-18
-7
15
-38
-28
5
-1
12
-15
-23
7
0
-19
21
-14
-49
-26
-5
-38
45
2
-6
1
-1
5
7
-26
-7
46
-44
2
46
20
1
19
-10
25
-5
-13
3
-2
12
12
7
-34
12
-1
-2
0
-13
-42
-10
28
5
-26
-2
-32
8
-16
7
44
15
51
-44
1
27
59
-2
-82
-12
66
9
33
2
12
2
-54
-4
-62
38
-5
-22
5
-3
45
-1
-31
4
-8
-10
19
0
10
-10
28
-24
-1
5
-96
-1
59
7
-62
12
3
4
-45
10
91
19
29
-25
-8
-3
110
-7
-100
-13
84
-2
-1
-6
32
-18
-127
-2
6
22
0
-14
-32
6
41
0
-36
4
-15
3
8
-2
26
21
-14
-6
12
-3
-35
3
39
-8
-46
-1
23
-6
-28
-1
36
3
-17
18
10
-8
45
9
-46
0
41
-1
-12
-6
16
-9
-44
7
16
-23
-11
-8
-24
-6
13
-2
-5
-1
-18
1
8
5
13
-4
-18
23
-3
1
4
2
5
-9
2
-18
15
-33
15
5
6
8
3
2
5
2
15
0
4
65
9
45
-36
27
13
-10
5
1
2
3
4
2
3
-2
1
36
1
30
-46
19
2
-13
0
-2
4
1
-2
1
2
1
1
37
7
-34
-36
0
6
-7
4
8
3
11
5
1
10
1
0
127
12
0
-104
75
20
-6
2
0
2
4
4
2
3
-1
-4
43
0
10
-76
29
6
-8
-4
-11
6
10
0
-3
-1
7
-1
22
-6
-25
-37
9
-1
-14
2
4
2
16
-3
0
2
9
-9
60
-7
-34
-61
31
22
-17
-1
-6
-1
15
0
-1
1
0
-6
19
-5
-22
-42
2
15
-3
-5
-13
-2
13
1
5
4
-1
-1
-25
3
37
12
-15
9
9
0
-7
1
7
7
1
-5
-1
-4
-22
3
47
-12
-29
-8
18
-7
-17
-5
1
7
-2
-6
0
0
42
7
-29
-35
32
27
-29
3
13
-1
11
2
-1
5
5
4
6
4
64
-34
57
7
-57
0
-13
-1
3
4
-1
-9
-2
-7
-45
4
127
-33
-25
-19
4
-26
-16
2
-5
4
3
-10
1
-1
-8
5
-6
-19
-33
13
44
-9
10
1
8
1
-5
7
13
10
17
-6
1
-53
83
5
-61
4
-10
-2
4
0
-2
-9
5
-9
-57
-6
42
-18
-17
-11
-19
-12
-9
-6
12
-2
-4
-11
1
-4
-50
0
21
16
-56
-4
83
-8
7
-6
7
0
16
10
36
17
31
0
25
68
-9
-29
6
-5
15
32
57
37
19
-14
29
18
71
-11
18
56
21
-59
-2
-14
7
25
15
37
25
-8
6
2
42
-5
3
12
45
-41
3
-7
-16
-4
-9
10
18
0
30
-13
34
-1
1
64
-1
-68
8
-1
35
34
57
17
27
-22
33
-10
66
-13
3
59
17
-127
1
-9
42
19
9
13
24
2
3
-5
29
4
-1
15
30
-65
4
1
15
8
-8
-5
5
-13
-5
-7
15
-3
-14
9
9
-38
5
12
6
3
-4
6
9
-13
-4
-7
24
15
-16
22
21
-66
26
5
26
2
-20
7
1
13
-5
8
4
7
-7
19
-3
-35
8
4
18
12
-2
-5
6
6
-1
5
-30
9
-23
1
-4
13
-60
3
-4
3
13
6
-8
6
-2
3
-49
11
1
4
47
24
-66
5
5
-1
15
2
-8
-1
-1
0
-38
2
13
-2
34
4
-41
0
0
1
8
2
0
3
6
8
-51
6
-9
-9
30
14
-60
5
8
3
17
5
-6
1
6
6
-97
5
-5
1
127
24
-83
3
8
1
14
4
0
0
0
-1
-70
-2
10
-2
50
2
-44
-4
-4
3
10
0
-2
0
10
1
-35
-4
-1
-7
28
1
-42
-1
0
0
10
2
-3
0
7
-1
-58
-8
-10
2
58
5
-49
-3
-4
-1
9
3
1
1
3
-3
-46
-3
-1
1
29
3
-26
-4
-11
0
6
0
22
-3
11
31
16
-26
-21
24
-5
8
-16
11
12
6
62
-17
-41
-24
-13
28
12
-15
-41
-6
-4
-33
-19
9
49
-47
7
-28
-41
-38
-13
8
-29
-7
-15
-17
-28
-41
14
4
2
-27
-21
-37
-18
-23
-76
3
-29
-39
-8
-87
5
-32
-6
-2
81
-56
-64
-65
-60
-66
-86
-64
-40
4
1
-96
37
-57
38
-36
55
-79
-103
-37
-13
-14
-42
-34
-28
32
31
-11
26
6
25
-30
3
-2
6
10
-5
13
-21
-33
10
38
-2
-19
7
-2
-1
-13
-39
11
-40
10
57
93
80
-86
59
106
31
127
4
93
-5
-9
-114
80
54
60
61
91
51
-6
31
41
-4
70
-57
59
-50
-10
-70
78
47
45
-2
-40
-3
50
18
-57
-28
7
-15
49
-11
49
1
18
3
-17
1
-64
-11
43
-8
-81
-29
24
-33
21
8
51
6
-11
6
-30
-1
-22
0
2
-13
-25
0
6
-20
-16
9
23
-6
0
-1
-3
-7
-70
-24
97
-8
-111
-18
-16
-8
0
7
65
12
4
4
-12
-10
-106
-20
97
-10
-127
-12
7
15
-20
8
83
-4
-8
5
-10
9
-31
-2
11
-1
-32
9
11
12
11
-1
49
-32
-2
3
0
-1
-21
-11
57
-2
-60
9
-19
6
6
-3
22
-9
4
-8
13
0
-40
-6
67
11
-60
20
-14
18
10
3
45
-11
3
-8
18
8
-1
3
8
13
7
12
-6
-6
5
-15
24
-12
4
0
6
0
-4
2
18
21
13
-19
14
5
8
5
6
-4
-3
13
-12
4
-10
-22
19
-4
4
-4
1
0
-20
-1
-1
13
8
11
-60
8
6
-4
5
-4
6
8
-9
-7
-20
-1
-2
-8
0
1
-26
-3
-2
-45
27
26
30
-6
19
5
27
0
1
14
6
-13
-46
32
9
-112
-9
-23
-12
9
-3
-15
21
-4
-8
24
44
5
-127
43
15
-48
-22
-25
-9
12
-24
-2
-7
-10
7
20
30
-9
-68
-1
0
-46
6
17
35
5
11
0
1
-13
9
-8
0
-9
-13
11
13
-107
-24
5
13
3
14
0
16
12
6
-5
34
-4
-57
22
29
-58
-32
0
-9
-7
-4
16
4
2
-3
4
14
-23
-28
4
14
-1
2
4
19
-2
9
-7
14
-11
-1
-4
5
9
10
1
11
2
8
-16
20
1
24
30
22
-52
10
4
-12
5
10
-6
-17
0
-2
-17
13
2
1
20
13
-30
3
-3
2
-3
4
8
15
10
8
-26
5
-6
24
16
23
-53
-7
4
5
22
6
1
23
2
26
-78
13
-6
49
95
33
-127
27
12
0
7
-2
-9
-18
5
7
-36
2
-3
11
45
23
-45
2
-4
0
2
0
-3
10
-1
-7
-18
-11
-6
8
13
21
-29
-5
-3
-1
-1
-5
-1
5
-2
-9
-29
-19
1
8
48
28
-35
1
-3
2
2
-8
1
-9
-4
-1
-10
-12
-1
0
19
23
1
5
-19
-2
6
3
-12
-127
-11
86
1
-111
20
-37
-8
17
25
121
-18
8
-36
-3
33
-49
8
10
8
1
18
15
29
7
-2
67
-4
26
40
22
-2
14
9
-49
6
45
-2
4
1
8
-15
-28
10
-17
7
-9
0
-1
39
51
-5
-53
1
31
9
-23
9
14
-33
-7
77
21
-1
81
11
-55
-42
54
-29
-17
-17
-7
-22
-80
14
-14
20
-6
-31
28
-23
-31
4
24
-2
-20
-9
3
6
-44
6
-4
-42
-26
-2
49
-12
-36
-12
34
-7
11
-8
10
-18
-63
11
-13
10
-6
-16
27
-28
-42
9
37
0
-27
-1
5
8
-50
3
-23
-47
-29
-9
-10
-5
9
19
-4
3
11
2
-3
9
22
-3
3
-20
-5
2
11
1
3
12
18
18
-22
-9
-2
-30
3
-4
3
15
11
0
14
-1
5
7
18
-16
-7
-60
1
44
9
3
-1
17
6
-2
-5
-1
-2
-1
6
-20
-10
-43
2
24
-2
1
1
5
3
1
7
14
6
1
11
18
-21
-47
-6
13
3
1
2
27
9
1
12
8
14
32
11
-1
-16
-99
-13
127
13
9
1
29
4
0
-5
3
0
11
0
-6
-20
-54
-5
49
-4
0
3
11
1
-2
3
7
-4
-5
-8
-2
-11
-34
1
6
-3
-4
-3
9
0
-1
-2
6
-6
15
-14
13
-16
-52
-4
45
-1
-2
-2
12
0
0
-5
1
-1
-1
-8
5
-14
-21
-1
25
1
-8
-2
7
0
8
5
17
-6
37
13
27
40
25
48
28
-15
-26
13
38
22
32
15
11
-9
24
-4
34
62
15
51
-11
15
-69
51
104
20
-5
-26
-13
-22
-12
-10
-34
-31
-7
45
-9
-18
14
-15
-10
-16
0
-22
41
10
9
-1
1
54
8
9
12
-13
-14
-11
36
20
6
-19
9
1
-30
-19
8
35
-31
36
-69
-14
-44
0
127
-13
-31
-43
-24
-37
-13
-30
9
-47
-6
24
-38
-29
16
-47
-5
-36
-5
-9
3
-17
-5
-19
-14
-8
-10
11
1
-18
18
-20
5
-15
-8
-23
-11
-21
-32
-46
-9
-11
-22
9
-21
-13
16
-23
50
-33
-27
-40
-31
-27
0
-17
-12
-14
6
20
-5
-15
39
-37
-10
-28
4
109
-20
92
-16
-127
-33
-10
-1
35
-10
-126
-40
-34
-11
-51
-2
53
6
14
72
11
11
38
-17
3
2
-20
-7
22
-37
-40
-1
-87
13
-85
-21
89
19
-13
-11
33
5
97
25
16
32
16
-10
-91
-20
-52
-78
67
42
-37
8
4
-10
81
-4
3
38
20
-42
100
-31
89
-24
-120
-36
-6
10
4
9
-92
-19
-42
3
-27
4
84
-10
49
41
-52
0
-15
-8
-6
14
-87
-2
-14
-31
-12
-10
-45
35
-91
72
102
1
77
-19
-40
5
58
59
7
-24
-1
14
-101
-29
5
-58
45
12
-63
22
1
-17
81
-20
-9
45
24
-7
5
-22
34
-17
-37
-18
-7
1
-16
-8
-13
-15
-2
-17
-11
4
-127
-17
-104
-29
126
3
-21
-3
-23
1
94
40
22
-43
-18
-39
50
-7
49
-65
-76
15
-46
-22
58
1
-17
-35
-47
70
-35
11
95
31
83
75
-66
7
35
18
-42
-7
-83
6
51
-15
31
1
-3
-16
-20
65
85
6
45
1
14
-9
22
11
66
-65
29
-19
-97
-25
-69
-78
48
15
-34
0
-35
19
79
6
-65
-4
-51
-15
24
-10
75
0
-76
-9
-21
-1
37
-12
-44
-41
-42
14
-13
-12
83
27
61
16
-49
-25
14
-10
21
-6
-96
5
-20
11
8
19
-65
-38
-67
-1
96
-1
-12
-10
-10
14
65
3
-14
23
-7
-17
-23
-21
-6
-20
-4
-5
4
10
-13
-8
23
-1
-10
-19
-13
9
0
0
-6
6
-1
30
28
-2
38
8
-8
-9
1
-12
-18
-6
-5
5
6
29
3
7
42
10
71
22
-3
-13
-21
-14
-8
-13
-5
2
8
16
-1
-5
-3
15
34
10
6
-16
2
0
-3
10
6
-27
-4
11
2
7
43
-14
74
21
-10
-2
-3
-23
-28
-12
0
-23
7
27
9
-2
46
-1
127
27
6
-11
-17
-34
-23
-14
-3
-6
15
15
-1
-6
5
17
57
15
8
-11
-8
10
-4
0
1
-25
-10
11
10
-12
21
-8
38
18
-4
-2
-2
-18
-14
-9
5
-23
-3
18
11
-9
14
15
59
21
-2
-5
-10
-21
-16
-2
-1
-5
-5
5
8
3
11
11
35
10
2
-12
-5
1
0
-1
-2
0
-1
0
0
-60
-1
-1
1
-3
-2
0
-3
-3
-2
0
-3
0
0
9
1
-40
-18
22
-4
-19
0
-3
-1
3
1
1
-1
1
2
-11
1
2
7
-1
2
15
1
2
2
1
1
-1
-2
0
-2
-25
1
-76
21
-41
-10
25
-2
-5
-3
-1
-1
0
-6
-1
-3
7
1
-127
-10
-4
0
-16
-6
-4
0
9
1
2
-2
2
2
16
1
-29
-17
39
8
-23
0
-2
2
2
1
1
2
0
1
-26
2
-14
25
-39
-9
36
1
-3
-1
-3
0
1
-3
0
-3
-14
-3
-65
7
-19
-5
6
-3
-3
0
5
-2
1
0
0
-1
26
0
-30
-17
40
12
-17
-2
1
0
2
2
-5
0
-4
-6
-9
5
-13
-12
2
-12
8
-2
10
-6
18
-20
-9
-2
-3
-8
-7
2
-10
10
-6
9
6
10
15
-9
16
-26
-6
-4
2
-4
-1
8
-7
13
2
15
4
3
-10
1
26
3
-24
-10
-30
-4
3
-2
-1
-19
6
23
-11
-21
34
-30
-75
-25
-40
-32
-44
-15
-18
-22
-5
-46
-20
11
8
-41
30
-53
-127
-36
-16
-8
-6
-10
0
-4
8
-17
-3
-6
10
-10
13
-11
-37
-10
25
0
12
23
13
-19
4
19
-2
-21
-9
20
-40
42
65
42
45
32
-17
48
19
-57
14
41
5
-8
-16
27
-55
63
78
30
18
15
-3
22
-2
-7
0
-2
-2
-15
-9
-4
-2
11
12
2
2
-32
-16
47
20
-85
-15
7
5
4
11
23
-36
2
-37
-35
8
-58
-18
89
36
-127
3
38
26
-6
20
73
-40
7
-51
-2
-5
-53
-2
68
14
-81
3
28
17
4
4
57
-17
5
-13
6
9
36
15
-4
-47
51
20
-20
3
-30
1
-69
32
3
45
50
-23
32
28
-57
-30
92
15
-40
-13
-4
-18
-46
53
-1
64
24
-6
8
-1
-48
-22
37
10
-19
-18
29
-16
-12
26
-11
13
2
-3
4
-3
-58
-1
46
-9
-1
-17
12
-9
-8
0
-7
-12
-28
-11
12
-17
-73
14
42
-10
13
-15
20
-5
-3
-9
1
-18
-34
3
27
-12
-16
6
2
-10
-9
3
-3
10
-20
-13
-2
-5
-12
8
-27
-35
49
14
-62
8
14
1
23
3
14
32
9
-25
2
1
50
-12
-39
-24
47
-9
1
18
-82
-5
-66
59
-19
70
52
-7
59
2
-52
-41
53
18
-58
-6
-14
10
-54
-6
12
10
11
-10
88
42
-127
-37
116
-30
-34
12
-1
-1
-84
-23
-25
32
-26
-5
-32
11
16
47
-35
7
44
-18
81
7
53
-87
6
-94
-89
-6
-79
-21
53
45
-78
-28
55
-9
-42
-6
77
5
-17
-14
-11
-3
-58
-22
56
12
-56
20
6
-6
-3
0
59
-7
13
-19
23
-11
-15
-6
24
-26
-18
-8
-52
-2
-29
-13
12
36
-4
51
17
4
15
-2
-16
-14
15
19
-2
4
51
-1
-15
2
-4
-13
-1
-1
-14
-14
-23
-20
20
-27
-35
-4
-28
-21
1
-71
-8
53
-41
-37
-6
-4
-2
0
20
-46
2
9
-63
-6
11
-82
-57
88
-23
-26
5
-3
13
-15
-1
23
14
-16
-15
7
12
-54
-4
40
-8
12
-5
-11
7
7
20
-6
-39
21
-96
-22
-8
-81
-20
95
-38
-48
-13
-21
25
20
12
-11
7
9
-127
-19
20
-110
-43
99
-30
-37
1
-24
43
-3
-24
2
35
-25
-86
-5
4
-53
-36
55
-16
5
4
-8
-12
11
20
23
1
11
-46
-23
-13
-29
-12
31
-8
-24
10
-20
5
11
6
14
9
7
-72
-18
-11
-47
-38
37
-27
-15
-9
-21
-11
9
10
15
20
-9
-58
8
1
-21
-12
-14
-20
-9
-36
-23
-49
-32
59
13
-31
-14
-54
7
32
53
12
33
46
-3
7
-16
54
-7
-42
-1
-15
9
43
-7
-2
-8
-4
28
-38
10
29
11
11
24
-23
-10
48
4
10
7
-20
-22
-4
-61
-16
2
54
9
93
-3
-127
-37
-39
4
41
-11
-64
-91
-34
23
-81
-20
-2
31
-102
82
99
19
122
-10
-50
5
9
56
-14
-103
-1
-19
-86
-29
-45
-46
58
9
-72
4
1
-5
77
15
-2
69
14
4
-25
12
-49
30
59
28
65
12
-13
2
25
64
13
-61
8
-5
-6
-42
64
-75
-69
-24
-121
-1
18
-1
-11
-38
-15
92
33
-5
55
-7
22
14
-18
7
33
-12
-6
-2
-55
6
4
-42
-16
-23
-14
-4
-9
1
11
1
-3
1
-42
0
20
24
23
-14
5
34
64
4
15
1
-28
16
36
-7
29
0
-58
-27
-69
-4
-17
-21
-41
-8
-13
-21
20
-12
-54
7
4
2
40
19
7
28
6
19
49
3
45
8
-58
3
16
-2
34
1
-53
19
-62
29
-8
-20
-127
-32
-75
-39
74
-22
-76
-4
8
-7
107
-28
32
47
11
-18
77
10
26
37
-37
10
71
4
-37
3
-78
22
38
-86
-15
6
-24
-9
-6
-13
3
-8
-26
2
6
-2
19
-28
9
8
2
-13
31
21
-23
29
18
13
46
6
-36
9
-20
52
24
-65
-5
-10
-18
-19
29
-17
-20
0
-28
-12
26
-12
21
-15
-30
46
3
-13
-60
-14
-66
-24
47
8
-12
-4
18
-3
64
2
-9
25
-20
10
90
0
50
13
-50
-2
12
3
-1
6
-96
5
15
-37
10
-12
-37
1
-6
-5
19
4
-18
3
-7
-2
28
5
-8
24
3
-9
-122
0
-71
1
71
4
-12
10
-58
7
109
11
40
-13
2
17
121
-5
83
3
-89
3
29
-3
40
-11
-127
2
-24
11
-6
-24
-20
5
-20
-3
32
3
-20
-7
10
6
17
-1
3
-3
-4
-2
-46
3
-19
12
26
-5
-6
4
-60
7
46
8
30
-32
5
3
37
-16
42
-27
-69
9
7
-12
47
-19
-22
-19
-40
26
-9
-18
14
4
-15
5
27
-5
-3
0
22
7
-6
2
7
-18
2
-21
28
16
-46
-33
43
-18
-71
-8
5
4
-26
-40
5
23
-15
5
-56
-17
39
42
-57
10
73
15
25
3
55
25
-29
-33
-16
11
17
-3
-5
0
14
6
-3
-1
-20
-12
-12
6
15
4
15
9
-53
-18
61
33
-57
32
46
20
-24
-7
46
70
4
-21
43
-26
119
25
-118
-64
114
-11
-93
-7
51
-3
-127
-46
18
22
-29
-7
-50
-7
52
20
-62
-19
49
-22
-36
5
37
7
-35
-15
-30
4
33
-9
-37
1
38
-13
18
-13
30
2
-35
-18
-18
8
-30
-17
-74
-34
70
21
-69
-7
16
-11
-90
2
71
38
5
-18
30
-3
31
6
-28
-31
33
17
-48
12
46
-6
-20
4
11
8
1
19
1
10
2
-6
-6
-32
-14
-5
31
-16
-8
-18
6
15
30
8
-10
18
-6
-8
0
-17
15
-16
67
-15
-7
-29
12
22
35
-3
-3
4
-4
-8
5
19
13
-11
16
-2
9
-6
1
18
8
19
14
40
-2
4
-2
-10
-14
5
68
-20
-10
-15
23
53
33
23
4
43
-19
-3
-1
-5
-9
-7
127
-11
-19
-13
29
31
33
13
5
6
-12
-32
5
7
-11
-19
38
-4
1
3
7
6
1
1
6
34
14
2
-2
13
-7
6
24
-14
6
-2
12
25
15
11
16
24
-1
-1
-1
7
-17
-3
47
-16
-9
7
12
7
7
9
16
1
-5
-12
-4
3
-19
-9
4
-10
-4
6
8
-10
-2
14
-51
-4
19
0
-22
32
1
-3
59
5
48
44
8
-67
-3
-49
123
1
-90
-9
96
-26
-32
21
5
-12
-123
-51
24
53
-6
-2
-83
-3
78
14
-83
12
43
-22
-33
1
77
22
-46
-7
-20
21
39
0
-70
-16
60
-41
28
7
-90
0
-62
16
-92
116
1
-18
-112
-25
103
14
-113
51
-17
-16
32
17
111
-9
102
-127
-16
-24
49
-4
-50
-35
51
-18
-36
8
29
-17
-46
15
-29
58
2
-13
28
-16
-37
8
19
17
-15
-3
58
3
-24
-41
-1
-20
-15
9
-32
6
64
1
-51
-29
38
-13
-71
-4
31
53
-40
32
17
-8
20
-10
-24
-1
27
12
-32
10
3
-4
-14
-11
34
-51
-9
-1
4
-7
40
0
-46
-2
-4
-10
-23
-11
-3
0
0
-13
-29
-18
-62
11
-79
5
80
24
-2
4
-51
-2
77
11
27
-25
-14
21
-55
-3
-34
-12
39
-2
-6
4
22
-9
53
-17
-22
66
5
1
97
-29
116
9
-101
-7
35
-6
29
1
-127
-4
-15
-17
-9
-22
24
-14
-24
19
42
-11
-21
-3
-26
13
-4
5
-29
-29
-11
-12
-81
13
-60
-16
67
19
-2
8
-5
-5
73
-9
-12
-3
-3
2
14
9
58
-33
-71
-2
-21
-4
26
-14
-31
-11
-7
53
18
4
43
-10
20
4
-19
-9
13
-11
18
4
-44
-6
-11
-7
-14
-18
2
4
-37
-2
39
-17
-9
10
-2
12
10
11
-5
-21
-2
-85
-48
3
4
-8
15
-36
-19
-12
12
-15
-49
67
-121
-97
28
-102
-36
12
17
3
17
-15
23
-1
10
7
-23
19
-39
-25
27
8
10
8
2
5
12
-1
20
-1
6
6
2
-9
11
21
6
-63
-52
20
21
-9
7
6
-45
-1
-15
-19
-36
35
-90
-127
22
-75
-42
25
17
-12
4
22
-11
4
-15
13
-18
22
-33
-41
13
14
9
12
13
-4
13
14
1
-7
6
-4
8
-6
16
24
5
-2
-9
8
4
4
8
3
2
-13
-9
-13
-14
-24
-12
-14
3
-9
-21
1
4
2
14
2
-3
4
-3
-3
3
-17
-5
7
3
3
5
1
1
3
12
-9
-8
-2
-8
-8
0
-16
2
7
0
7
-5
-3
-44
-7
35
-21
-10
14
-18
4
-9
36
8
9
4
8
-7
-7
-53
-4
43
-3
-6
10
-21
-1
11
33
11
30
-9
3
-2
-5
-11
-8
7
8
-1
-4
-13
7
2
9
1
11
-8
-2
-16
-7
-84
-6
86
-4
-13
-6
7
-20
4
17
0
14
6
9
-28
-16
-127
-2
106
-7
0
-1
40
-9
1
17
4
7
-6
2
-17
-10
-47
-15
24
-4
4
-11
15
-2
8
7
-1
0
-7
-4
-16
9
-58
11
54
12
5
-5
-10
-5
16
-6
3
-3
-18
11
-8
-1
-96
15
79
4
9
-10
-8
-2
5
-16
6
-25
-16
7
4
-3
-35
7
29
1
4
2
-7
2
-10
-3
6
-8
-2
-25
17
17
-12
10
-9
6
6
-9
16
1
7
31
-53
-17
20
-110
8
22
9
19
1
2
11
-8
23
-10
8
24
-120
-35
40
-95
-3
-6
26
15
-12
6
17
-13
24
-21
23
1
-27
12
5
-2
39
13
-16
10
-13
23
24
-1
7
11
38
14
-41
27
11
-119
-8
38
5
3
1
-6
-21
8
-20
-18
27
-1
-127
-34
21
-117
13
17
10
7
-6
11
23
10
-3
-3
21
-6
-45
12
-3
4
13
-2
-11
-6
0
0
9
-13
8
4
33
14
-2
35
-6
-49
25
11
1
9
5
0
9
10
-6
-8
28
10
-52
5
-4
-43
-8
2
1
-11
9
-6
-8
15
-6
3
26
-13
-19
29
4
14
-2
-3
-7
18
3
-26
49
6
-91
0
-9
61
-55
43
14
-5
-3
7
-9
-42
7
41
-83
-10
80
16
5
-56
34
-59
-40
-14
-14
-13
7
25
-12
-16
34
11
8
-23
10
9
-6
25
13
-24
14
-21
-17
7
8
40
-46
12
111
-6
-4
-61
45
-44
-11
-2
-6
7
15
11
-17
-59
66
-1
-127
-10
-3
83
-75
84
25
12
4
2
-9
-17
9
27
-26
-13
18
16
-8
-26
16
-64
-27
7
-4
8
2
-24
5
-17
-4
-10
-20
1
3
14
-7
18
-5
-10
1
-31
-1
25
-6
21
6
2
49
0
-3
-30
25
-52
0
-7
4
9
7
-12
-2
-12
-8
-1
-35
1
3
23
-14
35
7
-32
0
-6
38
-10
-8
23
-13
-27
-31
-8
47
98
5
34
4
-3
127
21
41
45
5
61
72
18
-37
19
88
33
50
53
22
27
75
-1
31
-5
-35
3
-19
11
-45
-5
-5
-39
29
12
14
-9
-36
41
83
6
72
-8
-4
-25
-54
17
32
40
19
93
60
-7
105
2
90
70
68
13
80
47
-108
32
88
79
38
73
-21
-11
83
-14
11
-47
18
-14
-10
36
-77
9
-33
-26
6
17
13
-3
-47
26
-15
-11
37
-23
-50
-4
-58
17
2
-11
-18
58
13
5
31
-17
-3
21
-4
17
32
45
-48
3
4
43
6
31
-3
-11
19
0
-3
-28
-16
-15
-24
-17
-69
-23
-25
-48
-7
-9
-11
5
2
-23
9
4
16
-14
-7
3
-15
-5
4
6
9
9
-52
-5
2
-49
7
-4
0
-15
-4
-1
-8
3
8
43
-6
8
-95
-6
-2
-10
9
-8
7
2
7
-10
-18
11
5
11
3
9
-41
3
-4
-82
2
4
12
0
-11
7
8
-4
-6
10
-7
12
-72
-13
-3
-127
-4
-3
-21
-2
5
-9
23
-12
-1
42
-16
12
-114
-11
-3
-61
1
-12
3
6
5
-14
9
-3
-7
11
-5
15
-50
4
4
-65
-3
-2
13
13
-6
6
-3
-3
2
-12
2
-2
-19
7
5
-107
-1
7
4
5
1
-3
4
-2
3
-4
9
-23
-33
14
3
-46
-2
6
10
7
1
3
8
-2
-2
1
7
-2
-9
8
41
-22
49
-27
-61
6
-16
-3
19
-5
-52
-14
1
35
-4
1
96
1
68
54
-105
-17
68
15
-1
7
-93
-39
-7
-77
-54
-9
38
4
-7
31
7
-15
10
0
-32
12
-46
-4
-11
-39
-16
-9
-68
21
-81
18
82
15
30
-4
-33
3
58
52
-5
-38
21
-7
-127
-14
-33
-67
76
32
-74
2
12
-16
104
36
9
97
68
5
-38
-40
29
-48
-12
24
-31
1
30
-1
29
-8
-1
39
2
-3
28
-14
14
-20
-26
-15
-40
-13
-2
-4
-17
-27
-2
17
-2
-1
30
18
0
33
-5
-18
31
-12
7
8
-18
-2
-3
-47
-21
-6
-16
10
-51
16
48
-5
22
0
19
-15
25
9
-1
-13
-17
-53
-38
-44
-18
-55
-32
-46
-99
-20
-55
-19
-18
108
-87
-115
-80
-81
-47
-25
-27
-46
-23
-20
-54
-3
-52
33
-37
55
-63
-87
-32
-7
-5
-3
-13
-8
-4
10
-4
5
3
12
-11
-9
-1
-7
4
16
13
-14
-14
21
27
44
17
3
13
11
5
-80
35
-2
27
58
43
37
-9
80
60
49
115
25
49
1
26
-127
70
67
71
17
12
8
19
35
11
-4
30
-12
7
-33
5
-26
23
25
19
-7
5
23
-3
-15
-7
-14
-2
1
7
1
0
11
-3
23
-7
10
21
35
14
4
-8
-12
12
-12
23
-22
7
16
11
60
3
-13
2
-6
5
-18
-4
-2
-33
0
5
-5
0
47
-12
12
-20
-50
-19
45
5
52
13
-64
3
45
24
21
0
-69
-87
-67
49
-34
9
2
-6
-1
-28
25
50
-1
21
57
29
-40
6
56
-5
16
20
0
-13
-3
-16
9
-6
14
-10
10
39
2
21
19
2
-56
-39
78
2
104
52
-51
45
70
15
14
-21
-84
-127
-102
90
-64
-28
12
-32
-4
-16
27
90
0
6
52
18
-51
-23
26
8
-1
25
-1
-31
-1
-35
3
8
2
-1
-5
14
-6
2
-6
-6
-16
-5
48
31
41
22
8
0
37
-11
-9
2
-24
-26
-34
25
-4
1
14
8
-32
-19
14
1
-26
-18
12
-2
-7
-1
34
0
5
-2
3
-7
-16
-22
14
-9
-24
-15
4
20
10
10
-3
-1
36
12
21
14
38
15
-31
3
26
28
-39
-4
-46
33
66
28
10
-4
4
12
-10
5
-70
33
-53
33
-43
-7
-18
-4
44
9
-2
-4
18
-3
-19
9
22
26
-49
21
10
5
-21
8
26
10
12
-18
2
-5
-2
-5
-69
-54
18
0
-24
-44
12
-13
14
-12
-58
-67
-36
-25
-76
-28
-127
-85
-28
-31
26
-59
23
-78
-74
-41
-30
-44
-4
-20
-59
4
8
-14
-6
-4
52
-29
-16
-12
-7
-11
3
-16
7
-2
2
1
35
-38
4
-8
-8
-18
-34
-2
-18
1
-24
-50
-11
-18
-16
6
-12
-58
44
-11
27
-33
-43
-43
-57
-1
-9
-23
-9
-6
-17
11
13
-7
37
-15
29
-25
-35
-4
-12
5
22
7
-70
-36
-39
-49
-9
-31
-29
-12
8
10
37
52
32
-127
70
40
-51
-41
-31
-47
26
-47
-12
-31
3
19
20
80
33
-104
30
18
-8
-5
-10
-3
12
-24
-3
-32
-16
19
3
16
15
-17
9
3
-80
-32
13
-7
8
23
8
48
18
-1
-33
14
11
-21
28
16
-76
-23
37
-6
10
64
32
71
4
-11
-37
28
13
-18
-3
12
-16
5
27
4
-26
32
23
9
2
8
-16
-4
-9
6
-4
-4
8
5
5
19
-6
18
-3
25
7
-4
0
-9
16
0
-5
-7
11
20
9
25
2
18
-10
20
-18
-10
6
-17
22
6
-15
-1
8
13
6
9
-7
6
5
0
-11
1
4
-10
-5
6
