-5436
47259
5077
46575
29796
-83528
-109144
-87944
74481
42511
-10731
48636
49752
-9273
86136
-87016
-65276
17217
3191
10896
-5119
-7549
3654
-76966
33756
-4618
145
7817
6046
35578
-4778
16470
14592
40893
-5758
-26200
26
-3547
-3936
-24010
40563
-7175
-5665
30308
49694
-102467
-7697
6943
47441
45877
49954
47813
-12607
89233
-9708
42381
60193
-4312
-77663
32625
39856
40680
9458
11339
16105
-2799
49377
21727
16148
17853
25060
41554
53389
-4501
55441
-12662
70016
25448
4182
19031
-3099
17734
-9283
44189
-4850
-997
-85654
7682
31429
-2530
-3469
8739
54803
35799
-100049
-5003
11051
3716
34463
-69367
40482
-3572
3558
34872
31259
1945
11462
-91395
-3511
-2214
81417
7586
409
-85424
41251
-13706
680
19694
-1519
85764
64794
-3168
61828
46701
30660
100725
-107881
54905
77358
-76969
-4731
4439
-98104
42126
-79738
84883
-44458
-7720
38391
-4367
43403
44437
27961
61281
-3133
45282
-3023
49388
57313
53573
43644
43229
-5007
25638
13688
-4800
-829
54176
51912
-7306
43917
60976
48439
72095
48912
-100642
38658
54395
2811
-2480
-5046
54430
12878
-98037
77214
9167
-3129
42632
20995
3070
-5077
8407
9338
-148
29339
44449
30547
31882
64280
56241
18942
50300
90864
45576
82540
-6634
35260
22845
38517
6782
49086
40113
27873
56512
-507
-6911
-13632
903
-1144
54407
55027
37162
60297
93953
12212
21735
-85113
-4861
43066
52652
56298
60332
36684
20777
12833
-25289
-98147
39813
47109
-94581
78502
-10700
58300
13285
-48444
40104
60500
34208
7832
9473
12323
51126
-3338
30247
84695
4239
-10280
97868
-16277
1415
63820
39766
19045
-105046
81128
-17154
35617
-23906
46829
7992
50203
12573
-2524
10190
24948
40524
104574
9133
38500
-107762
42312
-8780
-333
-117
56545
10447
-67883
4481
47856
71873
13346
67260
35346
-9610
55115
76480
42267
-88073
69748
21680
52569
2877
-7468
63256
-5852
44285
-2698
33156
30252
28230
30276
9717
17920
-83923
1276
-9318
30917
4600
1596
-9684
22015
27544
71976
-108491
37380
55820
-1208
46594
81117
-90083
-8769
94816
-74280
26810
77627
90674
8637
59859
58049
1788
-77509
54335
-2695
33202
72298
27032
33119
30243
-1730
48862
-5851
9604
-34306
-4444
-41770
8879
-8264
34437
-67464
9717
42930
-13125
20300
27245
-6786
74202
52992
15824
52439
41029
56170
26842
-10376
44066
10861
-9157
24540
-52293
-9714
66005
53766
39443
36997
-7783
-84616
29845
-25561
35358
29756
35206
53715
-9587
371
53471
-102914
65698
45894
42841
1950
64625
10973
-79823
50496
21644
23211
72965
2491
46007
-937
2760
-86062
-6454
-45359
12695
27056
-7386
-14574
90595
-3586
-891
-3989
24653
-175
2125
36052
-98334
77520
-3032
48086
19149
-1947
27679
-10834
-4618
28536
13276
28466
-35382
13681
162
10094
52509
39551
-2998
76791
-1643
-95338
-2631
-20713
67217
-5708
54842
-12905
-88443
2253
26404
11123
-5217
-72112
69067
-6025
7350
67851
804
-11716
74754
4524
6479
-14066
58809
1519
36177
-12237
-6282
19712
-94541
54341
42826
6242
77929
40832
38971
-24835
36280
12802
28106
2232
-20911
52591
44826
67115
-1881
-8159
48720
26819
3959
-6626
65442
-6990
23412
36225
32753
34768
-6328
-68097
3286
69839
-14423
18376
19374
-17955
72742
59984
4653
49810
-2705
22196
42398
20628
4038
-107695
20528
2553
-5778
85288
-7021
74328
96084
-3408
37478
34364
-7994
-4491
46351
36546
-10307
50601
78868
-21421
14829
763
35061
-12925
32008
8002
-104031
-7833
39226
33783
-6127
13732
-5959
-3899
37254
41261
43349
17775
-5437
2021
9679
61708
48114
-7775
-3347
-89854
-3729
19760
3448
64412
-5462
-7356
-31138
25844
-107026
30018
-3068
47588
-84623
64334
109702
37896
58017
-7183
7028
98739
44181
478
58022
-5257
-10153
19145
41957
-7238
4725
3301
-11942
73362
-11087
-5673
-6544
31917
12471
-8376
4178
17191
46194
-12348
-6420
48672
-10409
7492
65535
40177
-2852
46981
61131
38929
88151
-7849
95574
22626
59952
43763
-13586
-2346
62828
-47456
39500
-36019
15092
23983
-3837
44864
86269
18759
-3214
98863
64611
65247
34271
-63041
34588
-125428
-2620
-5496
-84759
-60399
92126
4286
26210
83036
-2951
4821
30823
40070
7137
62270
32682
-4447
43484
11246
47530
12889
-5730
37464
-1860
-6228
12458
59578
-97810
-1849
5456
87411
34971
63432
5831
-9869
-72196
45600
-4423
-10135
28300
-104139
-5447
-4452
41242
40033
-7362
35801
68120
-497
110391
25092
17499
-72640
49538
52376
60283
32378
1356
9677
-6878
81366
40758
51626
42143
-5100
-433
-75465
-2809
5679
6508
56435
-67213
13569
80580
4015
84111
-11762
-98988
54137
-151
18655
39392
53658
-93467
25230
43619
29967
31978
-86280
-90850
-2625
71290
35050
13098
7058
27461
-80573
57917
43565
31426
60511
-93829
75423
36438
31512
27663
-96527
19603
-78524
-40
34125
-64276
33667
32701
-34353
30784
2253
59122
503
32315
46777
65922
10275
60863
-9940
42689
44280
-64214
-776
73107
-86542
38212
-12321
-105537
-3960
22896
-60825
46472
36018
20650
70423
-2839
43584
-2470
29157
45793
48988
4191
2933
47365
-113884
64072
22319
70278
91283
-116919
-12833
-20455
27403
-9245
-95339
92361
41853
25578
18415
1163
74995
-7366
68592
-75945
79611
37120
38130
-1742
44758
72851
-1732
-8006
-7668
15374
42358
35188
41137
100359
18263
83407
41815
55327
-121906
64743
40938
-430
34532
57693
2662
35726
19120
-6930
2861
58534
-8736
-5170
29920
-58
52308
31978
51265
44373
47534
-95606
-6993
38721
68377
38919
63137
9940
74175
35899
55207
34832
-55099
57246
23407
-101056
15447
-7942
-99136
55307
-3583
12544
-3726
12241
73135
605
43682
57866
-1093
45170
-3447
234
55423
-5787
46291
-48246
27707
43312
-110595
26423
13438
-517
78039
26653
46221
24564
-80748
-2501
22085
-101588
47106
4102
-7223
2643
-5314
-4512
50490
-104085
88477
61131
89911
52466
2772
-587
65521
-396
70818
48709
6545
36456
-2530
62296
-4279
-6378
74709
-4124
47650
35543
-8702
25815
14491
29822
-279
-102048
100991
-65071
17586
-105355
26160
33824
8070
4375
83381
34182
41472
1185
82657
71265
5065
38170
-4899
32527
50053
-39994
-3933
-2545
-101945
-56804
18228
75059
-52481
-36818
38066
-6579
-1766
-4105
-8031
-10071
-68631
7306
48101
380
-100073
37371
533
61338
50523
45414
43008
6459
17143
44230
46185
66406
52154
65093
35019
41319
-2759
-7129
-5975
-76129
-101628
36132
21587
9975
37774
46409
-4731
7015
37617
-1209
-73631
11731
3382
-5592
-1013
-4708
-8031
65449
45647
-137
17534
11559
-48439
44701
96165
3943
-75529
34836
17270
42284
-2976
2409
-8237
-12733
-6560
17891
-4385
41712
-97146
10393
43053
23484
46164
14074
61186
49819
-3625
-10429
-2202
455
14432
25823
47578
66606
26008
9513
52691
81911
35307
42158
-164
31663
-86810
49979
-5652
-7218
105867
15750
73755
57454
-7900
59429
22156
4886
18886
4064
48148
37182
39715
91620
36668
99430
-12494
1157
-584
20129
-14240
-6474
56764
-3914
448
3169
-923
34501
-6990
65982
-10015
-3833
9537
1400
4361
68110
-80309
46524
3455
15914
27217
10918
-98137
49183
16901
51223
38235
86329
-5105
56983
-97268
2045
-8247
23596
55321
-6839
65773
60640
29421
7497
-2607
55007
-3344
22523
9589
70694
-3303
104506
29163
-9530
22480
-1911
50186
-7587
14316
75054
-6345
-42261
20850
57049
-18720
20993
10955
51343
51874
54703
-90030
38756
13194
63507
-7576
-81386
81777
35846
84791
51696
68965
-8131
-1155
30128
1143
37975
32608
23491
