303
525
-352
-64
385
-1378
466
-544
83
194
27
-820
-1278
483
-256
-38
941
679
1225
711
610
-590
-26
935
631
228
1028
-1466
-239
-667
-307
12
-91
-924
-869
793
389
-667
-144
-915
1319
1171
-240
-864
-936
683
355
-1280
157
765
232
-1261
-486
760
-680
170
34
-501
481
-607
580
-131
724
2017
-161
-380
-439
-469
-941
-669
1738
1839
-2124
-684
-1474
-317
-166
-1287
-391
-220
-1155
1014
-77
213
722
646
89
658
-778
-940
-194
121
-407
-1275
1003
-1153
-591
-183
774
343
-395
774
-126
864
-527
-154
572
550
-461
553
514
-332
-8
447
-1305
-647
-130
-117
-15
-338
350
616
-574
128
23
2506
-1792
250
1091
3
207
-997
-31
393
1378
-1003
867
-303
-160
-389
-226
254
-887
129
-277
946
-381
-453
1466
287
603
-311
-87
0
-1405
-924
-940
-534
-1551
-989
-732
-560
597
484
187
45
-1374
0
429
102
905
-19
869
-419
657
44
-122
-428
-556
-1637
251
56
827
-1326
-851
-1
-973
-1285
904
1432
435
281
