2303
-20454
-21303
197869
-16664
-14743
52621
59418
21363
77340
46626
-57579
31142
27199
114349
86004
-15891
23683
18521
23173
29947
42236
-8537
10604
23551
70742
68959
92847
-15294
-6806
178415
106509
42067
-25671
-7856
14609
60864
36185
127700
128068
7075
136591
-9002
86239
-34026
817
98074
104590
1927
-33102
22494
34026
25341
74872
112341
-8565
125799
-13065
-27639
85907
-6366
115605
-35146
-15816
54742
44945
14842
-13637
23332
27320
-37869
-124
83078
47198
88102
59775
-6231
-47098
-13927
43211
-34649
3634
96724
-39340
9513
67401
3528
-32798
-7609
-14614
-32220
-13162
-30901
17235
88985
56056
58730
63885
-25130
-12381
85763
19403
30098
-25997
128940
64461
-30166
45627
-6677
157977
154029
-28052
50627
125392
97447
30657
-26641
23608
-22994
70175
9779
65181
-7484
50160
10502
42745
6216
86963
42844
-35227
67294
69398
42872
14534
-3058
52653
34684
156517
-184
129794
93528
30995
-1139
-41788
19067
41852
27452
63719
-31184
52559
16158
79016
11086
75597
-14418
83395
67541
48018
-30159
-20297
85983
-1975
17736
17740
-31860
61498
-59606
-1861
7503
1478
21753
80954
46591
58901
80117
36720
138970
-17901
35991
100659
32792
42022
55058
-36157
65497
6951
-5593
5395
75954
42389
39713
3086
-5444
-57177
25295
-4974
-22058
26818
23034
-28299
43323
-14124
83228
74155
-4261
39935
36971
91770
-21283
66029
40188
21244
17883
-21751
-16346
32043
101246
-15425
120446
-1284
23594
-30826
-30221
44590
-13862
43204
-8782
15658
10394
40118
85070
-4877
172223
54191
-7612
-6508
-5641
-23998
98667
-17670
16906
36972
-17575
11203
40873
121518
36293
-1853
23594
100415
119715
137474
22531
23732
6358
42375
3949
36587
-1738
66447
92908
61093
1709
11518
47113
16614
-62477
-33955
-5201
51006
47315
60720
9915
8156
-14291
-38763
7063
-20040
41909
23780
51651
10637
16296
41096
44509
-10469
17593
-22989
37938
29062
25186
76822
75749
126526
35291
91572
16331
36584
-61045
79227
45550
17871
26035
-21825
29531
-16369
41709
-8732
50927
45767
35661
76494
2148
117415
10260
8543
46125
32046
74737
132872
108845
216
34728
35717
49462
79249
95964
-20407
38288
98166
43329
-26983
1526
-26100
-14842
-3901
87050
10198
6936
18203
-14125
17599
-59930
44179
45031
14954
-14989
39668
30198
-6082
-37539
119460
88933
-37031
12886
34846
-32253
94522
-16536
75745
-34435
45187
-25692
62579
-13434
37135
33702
-2574
54086
56072
39768
23815
200781
-20021
38372
19604
47607
62189
-36201
-9674
84420
36481
26514
-21210
44673
46699
10393
56361
41911
65590
20025
-24032
21359
2248
55393
-6050
-53230
145654
-27246
-21949
11099
53445
28639
4544
63303
59128
23522
-11934
55110
-19493
-34729
66862
-5348
3825
40019
33748
-31806
21462
41952
-11483
22035
20258
-53790
47216
31447
38640
32729
57671
48555
-23126
-8932
12377
-6263
30781
-3173
61807
-945
-15713
2489
-23652
87505
71350
-6198
-16714
-6914
-32234
103075
113346
24918
28431
71316
18413
60661
33996
403
94992
7025
33150
608
-21529
24810
-13584
24141
-14841
20809
35227
37734
73747
30065
9026
22148
60604
26940
10239
-12280
-11388
45713
99992
-50390
43191
87442
81649
17005
-38962
73158
23193
-4030
-6770
73094
91130
30824
-12857
5069
21886
98520
34857
5205
23012
-35826
-6494
37781
37369
25782
69149
-13170
29570
-43493
185958
66163
-16934
122976
126451
66139
9532
27977
86399
55073
67972
44540
17625
44474
71474
59703
-17887
-34765
-18814
21514
21995
75638
-10603
97
52265
33599
-1460
5283
-28550
81852
35767
-47133
8767
47122
60352
63544
86045
40871
4916
35078
54607
-835
-27985
24767
87160
22965
8115
94087
65787
49195
-11370
-7032
18169
-32337
48766
3091
12021
65371
77164
-29454
-29614
-27353
135795
2506
28851
-8262
-6213
-16650
-24484
