10102
-1065
44355
9739
-2955
2194
23754
38613
542
-1874
16162
-20309
-3157
8249
27078
-86807
-3348
-76308
17866
1402
-8142
-73327
2743
13824
17436
1596
-98943
31434
16890
6884
-9507
-12913
960
1895
9731
-9718
-6801
-8761
-24408
2094
-3642
6906
12840
-846
5712
25752
15564
25448
12872
-46644
-15381
17836
-376
44730
-16488
15457
-46337
39086
-6320
-3894
697
29620
47482
16641
-28390
-52927
-3266
3543
-14489
-2433
31275
-16894
5256
-52199
4862
40337
261
12081
804
9333
-878
58055
4213
-66388
12520
-3504
-5328
-24380
26150
-1832
8870
-4773
20429
-18330
20194
169
15362
-3931
19055
24542
37138
-69276
5534
-18830
41535
31936
-4058
25681
20027
30266
13979
-22172
-2073
11678
22217
15042
20216
23321
12769
-18342
-1221
-1725
19353
4583
16429
-11825
-64937
-21824
24003
2238
7614
490
32069
15574
35041
13107
-495
-831
-14624
9721
32090
-231
-7105
-11346
2374
22791
14739
31007
-25807
-11822
14118
9021
-44390
3594
-28139
-62708
7172
40993
-1909
-9049
38242
3166
8674
-92075
-3864
-47561
-15226
25295
22412
18788
2633
4677
18454
23722
-20894
-38487
-49813
21275
22091
-2952
67117
29859
25735
-54919
20280
13434
1672
20044
-16131
32536
-1462
2008
-745
7898
14970
-72705
-4908
2146
7611
-38570
-115095
16325
-41599
19811
-3105
17020
21444
623
20045
-37355
-2835
7555
-34730
15186
16227
-129
-643
26838
-607
-5881
14730
-12244
-6625
-3911
3896
-3396
18402
5114
30046
18629
35588
-21400
4796
-171
26633
-11485
-7723
-1267
25083
-669
-823
39389
12718
21096
-80712
-64951
17533
-1089
-7012
1488
7171
9855
-464
20120
25472
4189
17175
17642
-17684
40800
-22210
13280
9222
-16292
9802
5026
-12316
30348
-6176
3999
34084
-105778
30253
-8326
4124
16643
31836
-122
32744
17068
23908
-2432
29090
11851
22017
-2349
31039
44110
3126
-15819
-213
-1814
17970
33162
30049
12503
-14730
-733
4973
61986
-20806
-28247
18164
6375
18265
25693
1387
-1131
22559
46859
-11660
556
37098
18696
45574
-1724
-1675
18581
38279
-4793
-306
22180
31956
42377
-481
12065
-1596
34830
12879
13597
-9935
-2881
40799
15088
17943
-45910
19873
-306
37488
-3360
18124
2929
-14442
7567
-11659
34199
-1890
-3318
-10931
36479
10736
18848
-56476
3756
10642
-728
-22787
2280
5088
-17856
-17652
1207
17502
42449
35067
-11312
-2819
-1711
2354
-67280
-1581
-35061
8834
1030
-13129
2646
-10881
-763
37007
-1566
1355
5366
-20521
33891
