-150
-1318
-423
-990
-5587
708
2547
112
436
-632
-190
-322
271
-194
967
1424
285
206
-81
-935
-383
494
-1065
-84
-1190
-179
-175
200
-42
-231
-498
-386
-38
18
-212
1471
21
-6
168
791
-436
-175
-525
-635
-8653
10
-299
-8
-14
-189
430
-104
-419
523
-152
520
229
-226
-442
-57
646
429
-1299
-873
-96
-285
-702
591
-350
-64
136
-231
-4382
-279
-633
-366
1053
-425
27
-194
-329
-352
-201
-270
23
-306
-105
-196
252
-167
-139
-518
-270
-152
2989
-290
-40
720
626
1585
-18
-124
-80
-209
22
-295
-872
3179
698
-208
1096
884
-256
8672
-1050
-323
-137
-1118
-140
-1355
-860
99
558
270
-259
1604
-316
-1922
104
-86
-847
-59
3358
-1035
-154
-2149
830
-509
-5537
20
267
-556
405
-261
128
-563
-171
561
558
-182
-2246
33
-293
-1336
-851
-227
696
585
-434
-278
384
946
-3471
671
-1360
489
-110
-496
-286
-32
-325
304
-42
2262
570
-179
-63
-439
-281
-80
-59
281
-334
463
-147
-550
-6717
-2765
953
193
-650
-1226
1043
-234
-138
-715
-770
-554
-125
154
-1899
-1850
45
-8571
-208
-256
-361
-154
-422
-1355
583
252
604
-473
-183
-2695
324
-275
-482
-2166
-246
631
-1576
-1034
-465
165
3335
-644
206
-314
913
-68
-2807
-686
4728
-413
-1072
-445
-271
-227
-482
199
-35
-103
-1332
-218
-26
1370
2663
-329
-1052
-777
-376
-970
-1061
-155
187
-869
-15
-337
-3909
-188
-356
-1202
-47
-82
-275
-13
-1489
5096
-1079
-287
-264
-91
530
-228
1890
-122
315
-278
-157
513
166
-267
73
666
-1985
1360
-4177
-706
-1168
-40
-310
-1788
-190
-194
86
-22
-485
232
-950
-227
-494
1939
45
-133
-249
-125
-378
61
-342
-118
-1546
3167
-251
-5169
10
765
183
-328
-278
-1819
2811
-604
-842
-940
-1561
-616
464
-323
2956
518
-201
111
831
-717
335
570
-211
-337
-286
-1279
271
-138
2281
-118
-264
123
484
-1387
182
-732
-1703
-935
-253
1087
-1510
-124
-209
-261
-443
387
-197
-1813
99
-102
14
2743
-253
-1738
938
-453
-361
-173
3225
-1679
-147
273
-395
-1102
703
-345
-285
-3940
-344
-1205
-3651
-468
-98
551
-5
2770
-878
-733
-72
200
-152
205
-162
-327
-425
396
986
-91
-21
-246
-334
-2067
-231
-29
-260
103
-42
-153
-2754
290
-347
-179
-759
-487
-189
-13
-270
-276
280
-17
-162
1158
14
-354
71
-444
212
-345
1104
-141
-44
-55
-654
-392
-76
533
-461
586
-148
-633
-177
-170
88
785
-231
24
-84
-136
-678
-1571
-185
-183
-221
-190
-246
438
-222
-338
-138
974
39
486
-177
-409
646
43
-730
520
-1069
519
-164
928
-3661
-56
-2305
-329
-181
-256
-210
-245
66
1102
262
-9
187
-148
-3570
-466
273
-200
429
1716
-36
-116
-113
506
-709
-373
-70
-113
-392
726
-281
-87
-168
-168
-297
-228
684
-343
604
1600
-90
-561
258
-147
-175
-1264
-1395
337
-1183
430
619
-140
-169
-156
-188
-255
-232
2440
-213
-48
-395
-214
-236
-178
-286
517
-10798
-2867
-126
139
-235
-62
561
-1994
-263
-42
-339
42
-197
-72
962
-750
-221
-215
80
-26
-92
-110
393
2645
-1612
-657
157
826
-278
252
1384
-1434
-8
1024
-202
-215
-683
-879
-322
71
6
-279
-837
-278
339
-736
-1777
-364
-449
216
-395
-35
-213
132
671
-417
39
-853
-2288
-230
491
-862
-762
-1881
-225
1491
-438
-733
-995
-228
-312
675
967
-991
73
-125
-234
-140
-991
205
-216
-33
1484
-1102
271
-7
1572
241
89
-142
-5
-265
-683
-661
-373
-305
1026
-18
-47
-518
-536
-47
619
-1653
-140
-56
17
830
-130
-190
-862
-313
-198
-376
806
-457
-305
-607
-1014
-227
-1841
-502
-279
2821
75
-22
-779
-969
2745
131
-144
-284
-1532
-322
236
131
-489
1047
65
-247
638
-92
-1514
495
-58
-85
-741
-326
-974
-474
-564
-4883
-271
-53
3420
-99
-816
-160
-2067
7
-268
1495
-202
430
-329
5938
554
654
-1546
-205
-1948
1244
-502
-818
-614
-85
-20
2346
-243
-1125
319
-351
-401
-763
3242
649
-571
-233
96
-106
-943
355
-68
-507
2785
-899
-62
-224
-994
-276
-486
-286
-56
-4122
-49
-1485
-181
-109
-636
-1223
-461
-590
-336
764
-2608
-130
62
409
-228
503
-289
383
-237
-32
-152
-202
600
-71
-1235
-220
-362
-120
-484
516
245
-1609
777
-750
2756
-1622
-4543
-188
-1909
836
-115
-257
-37
-268
-334
-1054
-1055
-323
381
-141
1035
-230
-1523
145
1307
-843
-7680
-219
-109
-759
-116
-253
-275
-191
405
427
-464
61
-222
1223
-1186
-3140
2974
-417
-2844
1012
-2116
569
-210
-595
-124
20
-150
753
-348
-133
218
-143
-2918
590
-656
165
60
-160
-224
-930
335
-769
-143
1506
-773
313
-1301
-1399
519
-266
-207
259
-37
-203
-348
33
-325
-403
-245
-161
914
-4
-671
802
196
-1910
-218
-201
-1325
-41
-1504
342
9
-1543
-435
-905
-179
-216
1126
-148
-497
-255
3300
-48
-94
3211
-1438
-133
-1853
64
-247
-192
-1461
4632
1083
202
1158
-865
-413
-271
875
-119
529
25
-227
-3012
-361
60
-200
-317
-929
-79
731
-64
-225
-3704
-20
-343
-800
-238
-2046
447
-372
2071
-924
507
-853
-303
1395
-368
-7
-1187
-723
-2018
-433
181
-15
-519
-1617
2531
-216
-179
3028
3237
-348
-1040
2879
-173
-675
7
-143
-352
-273
45
-728
-107
-2294
-182
-27
-1319
-254
-893
880
506
-528
-198
147
-623
537
-260
-434
150
389
-2733
-59
-235
-287
1158
287
-755
-1068
-23
-810
-1506
-74
-145
129
-377
1108
-369
-26
-273
645
-154
-274
-823
-1530
-592
-1859
-24
4532
-251
-267
-1129
-202
-7266
-716
443
-38
-24
-243
3247
-73
-515
-284
-9
1710
-271
-687
-1205
-155
-2279
-624
229
-2478
534
-101
-26
-549
64
-581
381
-2875
94
-203
-539
-347
-1201
-322
-529
140
740
-225
-209
1619
-184
729
-200
-265
-664
-134
102
77
-934
449
171
-1009
1639
247
-288
-329
144
-269
0
-166
-199
-456
-200
-225
-2
-151
-310
-125
950
-202
-330
-80
-51
-24
897
360
-740
-163
-923
-184
-339
2764
206
-45
-1172
-1218
-1874
-275
-186
3060
-216
-155
-929
333
-295
-760
101
-950
-150
-36
568
1408
-521
157
-1499
-200
-1969
-2311
-204
-650
-160
36
-308
-63
-850
-291
3639
-587
348
1312
-187
-889
-401
-850
-156
1067
-129
-179
247
-106
-106
706
-981
-193
70
318
-63
52
-198
-61
123
-1807
-1008
