65
288
13
252
1060
403
1017
1223
1007
1171
176
2759
540
1040
607
4320
1209
1119
984
-234
1378
393
-436
1668
-81
326
1289
567
174
49
1050
730
823
1140
927
923
181
1179
971
-1240
1070
423
150
926
483
703
242
1098
1474
680
657
1131
1272
1376
72
1739
-351
582
567
1289
1807
861
660
1018
-364
550
273
-619
1033
1168
1399
565
-859
1002
63
832
862
306
616
85
-1577
807
-211
901
1013
-699
-1125
851
412
701
378
1037
-122
1355
1101
1492
986
194
380
829
1686
142
-1183
628
500
-330
941
1277
-155
736
-784
638
453
282
301
-452
820
1671
896
654
-293
-1214
-460
1383
-183
-13
759
-1480
1766
899
724
665
693
1196
820
1098
951
675
161
78
7592
985
790
725
217
1281
998
-144
3456
789
488
1010
1585
678
-40
828
1296
686
116
1208
704
10048
463
49
2401
937
1284
752
598
1035
-207
836
711
642
1198
271
1084
776
-211
997
-822
-2435
1193
-150
941
-436
17
514
612
107
1148
1161
-469
393
791
883
562
1309
141
292
-704
1315
-795
183
1202
-497
1693
1092
1318
338
6350
1257
982
560
560
777
853
3783
1391
317
339
1449
554
319
1043
-1502
963
463
1044
62
-145
1439
199
1195
437
-580
909
-503
-93
28
1088
283
-122
-280
595
393
421
-272
448
1142
797
-549
711
1367
1411
-363
712
725
167
1006
988
430
-600
1447
1406
914
110
956
952
461
-645
531
496
1040
878
-310
-61
1259
885
512
-178
736
-109
535
407
601
815
7529
-247
-159
264
363
-847
896
2864
261
-840
1009
709
1126
35
637
1255
575
876
-454
950
1386
408
-491
1082
762
823
1692
-348
463
273
967
1005
1565
893
611
-932
-326
-148
497
3287
1217
997
-7
705
1903
1672
-101
590
442
1328
404
758
27
1261
1428
635
-513
-282
1553
1363
354
1127
-57
1546
-537
646
213
802
309
1337
-1522
-294
229
623
813
1333
1048
138
1405
895
589
731
403
1243
-591
882
469
1529
5682
-2719
529
547
680
282
1407
-862
417
-564
534
1406
1967
-109
-3792
153
435
329
-358
-3131
657
826
827
980
-204
484
762
406
636
1232
507
-395
1133
-1671
-190
912
813
562
1610
819
297
1272
602
1225
87
-5281
772
885
1168
589
937
802
-204
1368
209
1018
887
206
-553
906
967
363
124
746
979
6557
664
-1022
767
-281
1276
2894
1260
489
396
991
1116
417
496
897
1086
183
-149
956
154
459
53
-273
1180
1075
-2317
837
174
1419
1118
605
-3
1311
529
975
1567
1210
1033
1314
-106
335
625
385
1003
-79
-2852
1145
1483
488
1649
798
1243
144
1269
1460
449
412
1335
91
-1372
1174
1206
551
511
635
-42
943
-986
565
950
567
576
-127
506
1223
633
512
564
940
-5952
1153
975
449
371
1350
984
349
629
1245
1145
-2388
914
1113
442
-4562
769
820
1378
1275
956
1693
491
586
-825
-1471
1439
305
3354
48
206
-108
1406
865
1952
774
13
1224
935
716
85
183
959
565
654
1214
4244
411
-756
783
506
1051
1050
1343
796
1485
461
567
1833
-2374
1739
1506
809
1053
138
-991
393
367
-277
1241
211
329
-35
775
732
797
-174
789
-594
3730
729
-560
-292
177
-163
1748
-272
758
-459
1151
723
306
526
543
82
831
665
101
-2231
1000
325
1905
566
225
-547
137
281
-274
-278
950
1211
648
1526
775
1086
631
-855
1224
517
1863
249
720
706
-104
-2
446
1262
546
1182
1212
610
256
-1562
748
-405
93
-4278
1514
476
6518
-491
1050
1100
-523
528
1302
823
-606
1278
-1637
1566
-762
826
-3121
-2258
182
737
677
1316
1642
279
634
999
-2757
1107
-264
491
-333
-465
758
752
2
-978
708
284
260
1336
-147
91
1052
558
1288
719
-510
892
658
667
1371
-430
-1316
1091
-494
562
937
1153
-296
1435
118
410
853
779
1570
1310
1102
165
1091
860
847
789
1272
744
-550
-1119
1150
369
968
632
1182
688
200
841
8175
42
1226
1086
575
674
997
391
1602
-692
-475
2219
1016
408
68
252
763
1011
254
80
-119
-2367
1054
-2748
973
556
197
1328
1107
-54
1039
1089
840
-319
301
1405
185
1210
1497
-6
-1870
97
330
1065
1137
1126
524
803
764
-124
-110
2719
424
178
1466
656
-618
1661
734
708
556
-613
1397
1198
250
-284
618
920
1291
754
-420
1336
1113
-2263
-787
525
1283
272
1023
-434
565
1474
1411
1071
961
-2267
1173
24
95
66
387
548
-960
148
154
600
498
409
800
1241
315
1412
-1844
-5148
1458
1291
1048
319
1572
384
4329
388
753
864
-1989
706
1124
344
1024
-46
1303
306
1110
375
586
1019
430
647
458
773
464
124
1040
-1994
841
805
996
912
-54
735
722
-720
525
364
462
763
592
214
1030
1150
989
753
1638
479
583
1054
1070
1550
-1031
1054
1149
230
378
391
520
-615
-115
226
-1959
1275
917
382
-925
305
583
-193
159
290
830
982
78
334
144
1359
1119
620
-569
679
625
1808
-45
1447
-1100
4
486
1808
-2679
1148
43
-461
893
1703
7658
9220
423
-1139
1566
1562
116
989
-861
916
722
883
-234
671
780
-2464
807
-2
1495
65
324
316
785
171
1440
278
832
1208
909
637
1047
365
744
386
975
762
383
662
863
493
-91
1078
-1080
779
-743
1327
411
-175
345
918
357
353
1476
692
450
-906
1435
-7
-35
1046
-2784
-781
469
-88
-1710
828
1105
1058
1147
-276
410
1088
713
3225
1363
876
-366
231
-558
44
245
-25
5879
1171
734
-176
767
-2341
38
428
-1230
349
1096
133
-240
662
251
241
226
1037
441
372
852
848
1156
-844
661
611
593
1388
247
409
347
419
159
1124
-186
597
151
1394
1269
894
-366
885
576
354
1966
1319
1006
477
663
1544
114
-537
-3557
750
1322
979
-736
-487
260
934
44
1045
473
2077
992
346
925
474
282
-176
229
1250
1327
448
965
785
632
1312
102
-129
1114
710
787
1127
1539
1241
969
-1254
65
691
109
-322
517
-1274
533
1016
1171
-33
909
-95
813
1042
-311
-580
937
-296
-1337
854
1332
1070
284
1128
905
1476
606
-6
1436
67
-514
1780
164
1168
-371
312
-169
-114
-955
985
