12275
7845
13722
4410
-498
-2663
-1728
-5015
2737
-1790
-4550
10817
-5648
10212
15995
-9393
6660
-18586
8143
1321
-8970
-24226
6033
-1227
4613
7697
-2636
1242
616
4946
5315
-18814
5190
-15071
-6919
491
-6752
3744
-6137
-2875
-13716
-2780
1841
17022
11944
-733
-2915
11198
14409
-6983
886
-11591
-22447
6803
-5370
7906
548
-553
-5298
-3243
3166
-3074
-8732
-2184
11716
11114
6659
-4507
-6062
21566
-5830
7419
15589
3900
-3831
8
-6190
-2180
-2642
1558
-5671
16886
3959
13450
-3535
-22570
-12660
-3788
11173
6404
5020
-3026
7618
7408
-11414
-7594
-3201
1991
-5841
1649
-338
12997
-8434
-10717
-19881
12495
13521
-5703
-7535
7852
-10918
-2061
8654
5685
1792
9380
-4031
-208
-10451
-4007
-389
14135
12274
12025
-4812
11027
-16459
7155
12610
-14829
-7287
11126
2827
4634
-5095
-16043
-2839
2306
-22529
-15715
12802
8106
-13314
7915
-2200
-4022
3264
23341
-6597
3718
794
21897
1365
19447
10407
-8405
-5818
8971
19515
11467
-4894
-9235
-11
197
-11128
2903
10603
4986
-776
11681
-18561
-10452
-746
4426
14377
6634
25864
544
-88
-2296
-8557
-798
-7841
-654
-1672
5085
3818
1436
-6235
-5519
10535
-12636
