84883
241844
236158
5702
29370
142143
55761
234546
207203
144563
5443
11002
208680
-2879
12456
119535
148336
176223
-31301
-78013
74672
47061
-36712
-14109
-10287
-4033
82329
168555
-1660
-21682
337
-12897
-17752
40022
161266
5657
190979
6991
37179
220078
72572
16831
33157
208292
203836
11474
143778
91276
4846
61005
7531
-64921
40720
12358
77405
19418
166005
41217
73676
116646
93201
-5222
-13321
596
4083
17373
-9335
-11310
-5115
65752
-28521
-33150
-61304
155876
141556
-20940
155572
8865
-33307
62090
211818
-20882
38320
51560
7421
20562
165938
-24827
24936
227725
210179
69114
226684
22857
70404
-64124
307951
212113
-23625
73588
-19987
40180
11342
17513
202996
170855
85404
101142
-46421
1483
4566
-21360
-1808
80863
-34596
-11588
15040
36160
-46712
24968
184365
190690
-14721
27370
-21901
-52678
17391
59275
2014
-27107
87048
-15944
155293
17508
65763
2233
59208
14997
11698
-12679
71360
115642
16093
5082
124042
-23526
-17004
-16839
103746
-30054
-10510
40793
51972
210872
101523
-2950
4811
67938
143438
-4612
37539
146617
261123
91079
213948
48446
-13001
50915
24796
17923
127248
91621
17717
68587
-8368
13751
-35926
-4162
39737
65595
311
92328
-17731
132442
106813
5759
-29758
24744
24865
-28735
36062
69147
245020
-4282
-37492
29052
222092
192512
86250
-5537
-31971
13835
-29653
-62399
11349
88137
-37280
-2589
10233
146984
117679
163683
289931
58814
11931
175162
167389
-29283
196108
59887
-16463
13389
182418
106758
226164
130767
-13742
-17111
106294
13278
141783
725
58553
253
129094
163187
-27046
-1086
490
135060
62494
87793
-27181
13549
9945
90126
-698
172020
-3140
-42450
-2429
-3776
114659
39989
-40804
41932
63585
22833
-7666
12464
37100
-17966
207335
5797
-2476
-9225
-13154
167276
82776
268904
8305
39929
-12156
7655
41058
-4863
-31453
81009
32116
10851
212234
102618
116514
233646
-17758
28808
35195
-33210
-41291
-1372
47620
202014
-34130
56099
-15052
-55266
-18665
54865
-64934
106819
128479
-11820
8244
125632
265986
23865
21276
168311
13462
11346
665
58533
112060
1159
95919
6331
53153
-11433
120717
72706
149676
1189
140738
-7943
117189
-2585
130113
62964
68769
12691
-35293
88985
4308
-22706
-9803
59952
-23938
29929
-57781
110563
-4902
68306
8641
289466
5424
101472
196473
158992
356012
179117
-19147
-15104
29677
-34443
-3267
48522
-7780
126283
-18508
2963
57298
234325
-14373
56911
27362
247541
188052
63777
7337
-1248
80435
57841
45992
67785
-1335
209367
7773
-31390
132513
118567
64177
-18181
171037
-1003
