21386
74890
-41352
-14357
10827
-13370
-14442
34564
3267
76149
87967
7583
-944
49474
115726
-104160
-30715
17647
42130
869
53623
128885
-53951
94369
5661
-9840
52699
-37069
15809
98199
-57647
17089
32045
-27836
103377
-1740
57300
-10200
7924
42300
-33502
-38563
14997
18266
26656
10139
124
10791
32095
66610
-16958
-11871
3727
-57869
27273
-51805
28378
11566
642
-38932
11595
47763
14280
-18738
-35105
46136
47320
4635
187590
45815
5576
39475
-17948
9706
-24475
-50448
11294
-16389
112586
13272
1607
19785
17533
2464
55523
9428
85121
68223
-12675
54869
-7578
-83366
46933
80676
3492
23985
4939
8828
12298
102258
18557
21444
-5671
14060
5827
37505
-35639
-31963
-109
8689
29159
31172
5511
85796
-17131
-4182
72125
78722
-7242
33541
91628
-48101
-9767
8408
-14184
-6045
-71551
106881
47057
-42576
26871
97425
42380
110937
-28438
51072
-3206
30452
15943
-22231
-8830
-4949
-23485
-8848
-76862
189311
25821
60240
128917
-20215
-58059
12266
47399
-12203
5138
12094
77561
14706
-82325
-35555
27815
47203
25929
63986
37349
3575
6489
8460
-18940
29425
16164
-30877
-16647
41379
442
2367
27301
-26622
13332
17772
37289
-21775
-39993
-12487
107115
-10252
18169
553
79861
8127
5510
733
-29364
50234
119735
-7529
104621
49724
-7359
82984
5080
23946
-59568
3352
-8581
56390
62489
45313
30561
-154
17778
-10474
-4022
5133
69318
18769
91057
-215
-450
42547
43109
-17628
-33127
-20675
11952
-27466
51501
-44723
2284
672
2676
-22100
-30312
-9743
-13238
6919
19935
-4265
55295
4252
-49872
83674
-5619
-29834
69345
109939
42399
-27115
33675
76134
12465
-12154
66866
50337
-68922
17641
-10169
-13266
79036
55471
52111
20391
186052
59274
2041
69500
58073
-29395
-3760
29353
6929
4597
6098
30295
91866
23697
1678
10951
-13857
-52483
3485
70996
102999
-52806
-32895
13917
5757
20817
19866
86870
7963
26564
-3064
38172
28261
41178
59287
61328
11810
-6142
457
26881
16769
10185
-45643
-12622
46844
1184
31706
-8779
-13668
-67310
-59189
-4144
-4241
-78795
-4657
20807
1536
-60826
14392
-24989
28454
14009
70793
25617
18868
-9641
14556
-20424
27211
50075
39552
23339
43663
-16112
-1693
-37386
43275
123601
9721
12346
-5416
-23220
13654
49280
69645
-9901
19446
111839
-29892
36950
4867
-15981
109821
-63905
-3374
6194
64258
62642
-22425
32264
2621
8808
12794
8835
49482
-67226
44900
80627
42568
-73278
-20627
-662
65911
31092
164277
66896
16897
63334
-30869
44006
-33081
10598
-44541
-91732
-10386
12986
46101
37494
35728
-4790
-33123
21945
9746
-43554
145429
35696
29220
43172
5771
-2964
26671
-40277
-26958
-17659
-53637
-28521
30936
36088
5997
29338
75462
-62794
47011
24566
17592
37007
35982
113583
100175
-25319
112917
133497
27067
11257
29182
58969
49599
21032
78312
56557
6652
-78258
81759
-58812
63327
5146
204529
87894
-32476
-28542
-3971
79886
110404
-6497
86915
10740
7660
-17934
-4979
21762
8886
85573
35637
48656
-75123
21335
219931
112146
66154
46093
41450
25611
-27877
-30616
57998
68666
-13674
75782
-26884
79832
35413
34417
-21487
42425
93676
38567
18754
23075
17299
26940
26581
44982
-23681
-23858
73214
-24384
30941
43560
-7694
28105
52281
-97869
22533
2853
59393
2921
65762
59448
-16967
182478
-22603
152522
-55890
28412
124664
84144
236
111818
-19050
39163
34492
27049
5538
-28720
-1150
1542
-36359
116925
37639
15224
2181
32611
173527
21736
44905
66657
142261
108703
5388
10143
-7868
10128
-487
-23201
-2976
6593
44995
119695
-2353
94667
11428
-29818
159589
37191
-3553
30853
21068
-529
40031
41861
-7648
37885
2732
-56473
-8669
36393
-34260
58838
135287
72340
57090
77984
-6368
-47064
-8422
-56462
29363
10406
2236
35861
52914
-22894
91396
-41455
69310
37677
14164
1321
70003
13873
27693
3442
57883
117437
91621
56583
49901
-33776
-92182
-26072
37487
-39921
-47450
-2693
-45796
11331
41231
98431
-4878
-87
7978
-44565
-36925
-23294
88570
39053
-14445
-55567
42863
-17047
61794
20070
-17096
-13905
18780
52785
51858
-5342
-34755
1683
109171
52339
43737
-5866
-23927
19812
-48541
9799
-11474
156202
-2285
-6005
45457
126156
5486
-6735
23790
-12424
-62136
-25484
-18923
-4702
101125
-814
18909
-41602
20042
41485
30623
118855
126684
-3559
45483
-52062
-73494
19817
-43867
21380
20034
29017
46077
44816
26254
3306
22820
-35656
-5872
-3702
39
-40511
