-12156
-1848
-1044
-4477
4713
-5036
-9341
1126
-4987
-5079
-2079
-10029
-6195
-2420
-494
5711
2183
-5419
4476
-4546
-3604
-1149
-5913
-703
-16440
-666
-3565
2247
-4745
-15934
-1446
-2501
-2239
1760
-1636
-2245
-2479
1348
3511
-622
-10762
-4180
-2421
-6479
-7245
464
1346
555
-14640
-9902
-6211
-12157
-1970
-12105
-8046
-4120
-9005
2991
3295
-10318
-7990
-9760
-419
-2516
-5884
-1131
-2476
-4128
-3396
-1956
-308
-648
-6229
-2628
-1239
4060
-7910
-1557
4283
-3586
2008
-11738
13058
-14236
5404
5903
17632
-1860
-4833
145
1634
-2278
-10256
-8335
-2451
-8545
-6292
4390
-7163
-4811
-6939
-57
-6001
-11251
-10643
1305
-2402
-3874
-4853
3776
-7904
5982
-5336
-1923
-15493
5064
-3957
-7518
2284
-1992
-7996
4141
-4928
-7927
-3353
-5850
6884
-11895
-18448
10243
-3701
733
-1760
-12
1861
-11057
4561
-133
-6022
-7213
-16540
3980
-6292
-9331
-4161
3916
-2844
-6377
-6557
-3234
-7587
-7285
5907
-7071
-7642
2803
664
-5186
-4462
-5041
-3922
-6515
-1078
-5754
-2888
-2403
-8607
-9679
-3481
-1856
1637
-10959
-5731
-1594
-7729
-3753
2510
-9491
-2971
1694
1304
-1294
-4743
915
-6726
-7374
-8563
-10816
-6383
-9794
-6657
-5175
-10700
-5402
-12627
-3165
-9004
-12647
-12694
1535
-10236
-11437
-11129
-5594
2087
1696
5303
-1886
-2432
-2537
-11151
-7851
834
-11418
-8036
-5273
-6368
5818
-10322
5796
-6177
3983
-11489
-6484
-2744
1752
-8043
-10836
-6503
-584
-14021
-871
-17734
-2625
1498
-4570
-8783
-3856
-1376
-7455
-2417
-3912
1385
-11490
4722
-6270
2887
286
8810
-3545
-10040
-6135
-2261
-6304
-9587
-6175
1276
1249
-5600
-3719
2677
-1864
-1484
-742
1736
-3141
-7357
5997
-10468
-338
-6120
-3945
1939
2020
-13245
-4853
-3733
1074
-5845
-8684
-1941
-2917
-5000
23
-10829
-4865
-11830
1792
-4583
-10486
8719
135
1639
2655
1634
-5811
1353
-14752
-14373
-9484
106
-1853
747
-4544
-2111
3382
-3533
-4630
-2495
-2600
-8398
-12459
-7522
-6379
-5786
3920
-7506
-4670
-1090
-4091
3761
-6234
-7807
-7847
4077
-4034
-2057
-7647
-5930
-3409
-2737
-2111
-4579
-9374
-374
-12443
7990
-5074
16995
-7425
-2231
-6435
-9420
-6938
-6257
113
58
-7628
-6254
-3848
-14686
-1506
-10477
-7696
6919
-607
-1542
-7967
5163
-3224
-9466
-3578
-6121
-9068
1722
1660
-4422
-5452
-2035
-11540
-11952
-9414
-9557
-6026
-3094
-12997
-353
-9856
-8095
-7025
-5798
-1054
-2312
-6099
4602
8253
-3654
-5745
856
-12164
-2690
2243
-12636
-12367
-3468
-2803
-7943
-7703
-908
-4370
-3221
1608
-2963
-4079
-6276
7581
2250
-1354
3807
-3292
-110
-16164
-5824
2088
-10186
-3829
-14540
-1878
-9165
-2243
-4926
-2052
2395
-3676
-6120
-8471
-1115
-4640
-4354
-1736
5861
5125
-7803
-1387
-1697
3398
11910
-9057
-1134
-4318
-3576
-9852
-369
5111
-6761
-13971
-3800
-4121
-9625
-8088
1084
870
-11418
2503
-183
-14764
-3452
-2772
-5839
-5256
-3054
-13063
5323
759
1637
-6579
-4613
-6791
-3063
1782
-7837
-8522
1371
-11439
-7545
-4340
4286
801
-10672
-10495
2120
-9502
-7924
-6590
-2724
-16
354
-7392
4404
-6945
-9644
-2414
-3874
324
-5903
-1549
-5923
-3585
2284
-5273
-1188
-11051
-1874
-4433
-4106
-226
3109
-3565
-12658
3354
-1912
-3742
-8506
-2407
-5870
4215
-13599
1298
-3922
-4359
-2721
-976
-3717
4739
1359
-3949
9310
-8082
2111
-704
-9961
-14861
1035
-1032
-3033
-38
-1327
-9272
-2063
5253
-8345
2558
3965
-8129
-7410
-2198
-9604
2596
2377
1281
-11049
-10720
4229
-313
2859
-4678
-5139
133
-8931
-4583
-1938
-237
-3350
1513
-13242
-5813
-2470
-4520
-9578
-1879
-13161
-484
-1065
983
1891
-7959
-2349
2152
7270
2180
-8100
-16425
-1145
-3516
-4307
6752
-7512
20
-1688
1139
-11656
-4283
-1446
-11746
-4747
-9932
-704
6287
-5467
-2440
4073
-1774
-3683
-3582
-4020
2740
-15268
1427
4603
1705
-1960
2525
-9770
4744
-1144
-3246
-2695
-12117
-7593
-4375
-6627
-1194
6005
-2031
576
-2937
210
-5034
-12461
-13708
-3475
-15813
8462
-2025
-3035
3499
3423
-8500
-3470
-2365
-6842
-4146
-5770
-10118
3125
2038
-1866
-5457
-3044
-4170
857
-2300
-1277
1790
-7696
5725
-1118
5295
-4893
-5361
3245
-2493
-8987
-2873
1352
-5950
-13578
-7578
-5324
-3522
-1889
-4572
-7834
5595
-376
-8479
-1462
-5115
-8864
-160
477
-5858
381
-2909
5065
-10246
-683
-6316
-11827
-4423
-2878
2376
-6376
-3961
-3979
-7416
199
-3238
2097
4888
-8943
-2593
5348
4180
-6029
3994
-4537
-14024
-1372
-9532
-1268
-1783
-13285
-4436
11962
1464
-7186
-11192
-4667
-7316
-2517
-1725
-1673
-5400
-9057
-1061
3613
-8415
-2251
-2029
-3175
67
-6367
9692
-8448
-13061
-8728
-9467
-5181
-5934
-4776
834
-6473
1642
-132
-7088
9955
-8480
-2930
-4605
-1059
745
492
-278
-3878
-1170
341
-13254
-67
8413
-405
-8684
-838
-20841
6716
-5089
1477
-2131
-4644
-9921
-8373
-3335
-9212
-3041
-16465
-4121
-12872
-10049
-11900
-4884
7401
6127
-1673
10216
-14904
-9593
-7162
293
-2558
-732
-4034
3873
9893
-7665
-7075
-4827
12054
2685
-5337
-1278
-6836
288
-1915
364
-16109
72
-9601
-8814
-7484
189
11466
-5923
-4259
-3145
-4917
-11631
-13236
-4366
-7649
-3318
-2505
-5087
-11407
1209
-18760
-13316
44
-5145
-4453
1513
-3112
-6986
-3058
2992
-1121
-247
-6796
-6668
-6409
1593
-8080
-2092
-1668
-1683
-9148
-4461
-6183
2184
-7028
-4521
2870
-17098
-154
-6887
1470
7545
-10725
2757
-1449
-6569
-3845
-5403
3186
1783
-5696
-3866
-5978
-5398
9053
-8634
-2053
-4654
5591
-4420
-12088
-7912
-11636
-7691
-143
-11023
-3430
-3925
979
-2884
-8788
-5529
-6861
4021
-9425
-1316
282
-4153
6717
8122
12022
6407
-7812
-8861
-10339
-9266
-5039
-10946
-1466
1720
900
1069
-2741
-5110
347
-4541
-2002
950
32
-3589
-2461
1783
-7639
-5695
6613
-9791
1344
-10237
-1987
3170
-1978
-4321
-10820
-3311
-5691
4722
-5922
-104
-4612
-6126
646
-2592
-7297
-2763
-4277
-9697
-3228
-7179
-15427
-4598
-1876
-336
-691
916
-2110
-14753
-18085
-109
-6738
-661
-4338
-3598
-29
-422
2910
-5671
-4077
-1789
7777
-15639
-1301
-15659
-3653
-7736
-6641
-6966
-835
-5075
-7785
-8235
-222
-7669
-1415
5387
-6254
3435
3834
-6433
-7633
-3890
-2990
-5267
-13289
-8266
5247
-5692
-4814
3747
344
4285
890
2666
1744
-2413
2246
6797
-19676
-3924
-652
-6924
-20572
2357
-4684
-4475
-2362
-2945
-4016
-9673
2776
-1524
2035
-822
-3117
-17481
5367
-4259
-6773
-9167
-14107
-11798
-15289
-5868
-8307
-2919
-6018
5412
-2340
1486
-2652
-4147
-11294
-5881
-10824
-352
-7038
-10992
-10339
-2764
-6219
-6586
11831
-6979
2026
2545
-12752
-3578
-2175
-11674
-1705
-9808
-7676
-12823
-4799
-6092
-13861
-12171
-10197
-5027
-1986
-5562
4206
-3465
6549
-6441
-705
-1698
-6196
-1642
2405
-3274
-4879
-7613
-2954
-1157
-3395
1376
-7896
8770
619
-5475
-4766
-8973
-2065
-6128
-5974
895
-6298
-9211
-14490
-427
-5794
-182
1540
-11056
-6322
-8121
-10636
-3188
-2161
6083
-3863
2608
-4872
708
2848
-7479
-5753
-5810
-2486
-9182
-1666
7059
-16386
-2746
-11775
-2844
-5567
-6783
-5246
-6078
749
-5257
1614
-7992
1610
-1119
-8226
1885
-3593
-9969
-9334
-10945
-7638
-6205
-1318
4064
-11670
-2628
-5259
-7203
-6322
-3739
7259
-5725
-2329
-17215
-13729
-11442
