51759
95187
-32434
2018
25910
11646
4036
51432
42600
106038
144647
9964
5530
75879
146258
-87187
-17904
44894
63429
37118
88797
174230
-43009
146137
35514
20550
73387
-15878
49623
129082
-40102
26055
49688
-8616
135482
17011
85401
12606
34514
99502
-26351
-13815
31494
45148
53638
49549
13470
35620
57081
104482
-4512
15171
39977
-44646
48983
-30759
60040
31405
7457
-21960
30909
82466
19557
-6726
-12842
79805
73451
26543
238414
66719
26183
60246
1425
25195
-6169
-34125
39256
-5342
151021
24566
3572
34325
38332
7539
69104
46247
115462
94861
7738
80470
28372
-62347
61484
117480
16561
39831
23363
14670
50268
166517
42166
40069
1178
18423
19969
68332
-29640
-9065
8656
23814
58726
69851
9737
117743
-5294
12592
95111
122048
-1500
57247
115891
-34837
6947
13351
4944
1993
-36686
145048
79652
-33148
51827
132194
69404
140974
-16558
71026
5055
54706
38060
-10733
2947
16219
-3631
9909
-57993
234476
64748
88641
157700
-11276
-46054
25360
78263
16664
8645
39610
106554
44039
-66319
-14650
45729
56704
47645
93156
73517
16187
16450
25532
11901
49233
34097
-16246
-11863
55145
17198
11919
53089
-16344
13524
55278
49705
-4501
-16242
-7909
135067
20144
40883
18712
112765
11972
12951
15920
6297
77224
172716
25074
131285
71445
12014
107047
21688
46099
-43162
23726
5546
74533
94593
77511
37521
21219
39433
5765
33413
20022
81379
43568
122708
19636
15034
70296
64435
1981
-24837
20721
31496
-11496
71036
-35483
5485
8271
11238
3917
-22027
11084
9949
44695
33627
18100
88104
32481
-38692
121151
-1756
-22876
109022
136710
55839
2245
56285
97457
41135
18187
98697
78664
-54757
41664
-1058
8557
102064
81112
79300
36308
217316
85487
30860
90194
86622
-6344
36342
60194
22344
28181
20765
54680
121474
41886
19833
35875
5582
-37585
5570
96735
133385
-42064
6604
32024
29021
33372
48049
116896
12828
45423
28904
66967
54364
70325
77998
83704
34788
22819
5433
47410
18058
24238
-31000
-7684
70801
22168
48178
16999
-783
-48533
-33992
-413
11936
-67486
6454
41709
10234
-41105
37596
-17368
51968
26325
97071
57379
32029
6593
22743
10347
53197
79492
65720
31577
67997
1289
1202
-1938
68761
147277
18170
29333
9870
-295
15940
86648
95133
-4280
34091
140918
-5818
57631
21214
9465
139593
-41764
3167
27645
90171
85195
-14724
40195
11377
19686
45673
28962
70882
-55432
80579
111847
62474
-56305
-5948
3965
114182
48524
225533
91174
47725
99259
-16487
63333
-10364
32002
-29761
-72758
13741
19609
70012
69679
62479
-2168
-23755
48479
26413
-24061
200764
61015
38823
64951
10611
34048
56236
-34789
-10245
-14140
-42995
-12313
44650
49376
17474
53265
99452
-38836
68405
53967
48741
64666
51870
149488
141059
-9801
153925
173962
44776
18725
46178
82389
94012
41835
120744
82198
38479
-61289
126709
-26765
89720
23426
247701
117292
1148
-5548
6057
108047
144557
-411
112913
25168
29068
-815
-943
54805
22937
105730
69086
65656
-49999
60243
297286
178079
93259
72980
64550
30828
1925
-13611
71017
99075
607
101475
-8492
121174
49436
55712
-6098
68734
118562
65484
35281
41393
49766
59501
39342
83593
-758
-11051
103234
-6621
59477
66344
429
74411
77550
-85092
40920
13700
103281
5626
105097
74020
-10567
220624
-15647
195925
-39694
57237
158203
117699
34575
158616
-10004
54847
49098
51788
32587
-27234
33908
39276
-23379
150031
50884
36272
28892
46780
215347
39319
80987
94984
191862
139751
15469
23869
6520
19735
4191
-12589
12560
24945
70053
160504
4476
131808
28879
-13522
210046
59708
432
55702
45911
4892
59630
76578
-4516
72793
24977
-44840
14641
47445
-28293
110430
183003
106275
87353
105578
1676
-37113
18907
-39097
50678
23809
33753
71460
75494
-6157
138356
-32727
107788
57392
39947
27548
106422
63447
57647
20072
81350
141651
123653
99136
80573
-12419
-75157
-14490
69427
-14887
-29026
2835
-35675
17284
81223
144859
16515
15146
39071
-19752
-25458
-9472
117304
65820
9912
-40151
58400
3431
86799
40674
-400
3467
48496
81994
62942
-510
-27083
28374
132647
81352
88224
7143
6451
42034
-36373
30311
-7959
208775
6406
16808
64563
164462
21982
-246
47611
19275
-43751
-10472
-3588
6653
133994
28669
48281
-19697
44315
78424
58835
156987
179235
1091
70974
-39643
-60389
41831
-34003
32316
26298
43643
73925
73672
64257
6262
37721
-25721
12485
8077
14537
-28582
