295
-6423
-3025
-3041
-6143
1800
1341
562
-3612
-4388
484
6882
512
-2812
-4355
-7519
-5004
3256
-2152
1865
-3954
5577
-4976
614
-2823
-3699
17788
-586
468
-7066
-5173
1096
-2508
-2689
-2351
-6550
1245
-5067
-4908
7699
-4836
-5210
1883
-4294
-1478
-6520
-1232
-4679
-559
650
-5378
-4267
2836
-6505
-1476
-4255
8607
-7208
-3526
-6525
-2355
43
371
-703
-6305
1819
-1075
874
-1635
-4859
1380
2332
-116
-3580
2876
-6396
498
3189
-6674
1538
2743
6897
-3450
2280
1368
-471
1144
-586
-3466
5736
-512
-5159
2063
-3475
7623
4666
2948
2286
2087
-956
-4892
-4061
3152
1997
-2255
-297
-6163
-6191
-1532
5011
3202
3153
1332
-2497
-3415
4454
-5097
-2588
869
-1694
-5709
-4943
-7055
131
-2686
-4290
-3093
8786
2946
-3615
-724
-2700
-2792
-2706
-3197
-2045
-133
-8447
-4632
-4001
-7150
-2224
-4360
-2769
-5441
-6559
-3917
819
742
-330
-6730
-11462
-860
-1614
4774
-6846
-3714
5248
-5005
5800
-3622
-972
-3501
2462
-6473
-5173
-3138
-1609
3937
-5817
601
-3089
-2028
7829
1026
-873
1992
-5062
3854
-5405
1383
-6143
-3824
-3383
2499
-6949
-3974
843
-7369
-3382
-296
-8931
-3987
-1319
-474
1752
-2615
-561
-5942
-2345
-575
-11394
-3987
3997
4577
-847
-1864
-880
-4988
-4274
-2346
9601
1182
-5403
-5644
-9506
-135
-5710
2386
-7177
-74
-1465
-5966
3483
-2258
9648
5016
-5182
2799
4294
7897
-8174
-3202
3990
-6080
1081
-4272
-2433
-382
-1826
-4186
-7597
2896
-1512
-4219
-3122
2407
-5168
618
-999
-3497
1096
369
-3006
-3461
356
-5560
-932
-1119
5009
-6237
13825
-1049
-1152
-2089
-7693
4192
-3181
812
-6420
-2808
130
-4826
3161
-8838
2488
-3527
6032
-3210
-7991
4923
-4004
2954
-3421
-3439
-3791
1221
-1689
-4265
3525
1962
2820
-3758
-234
-3321
5062
-2252
-6153
-3103
-2145
2483
10975
1638
4362
904
-8162
1393
4025
438
-2431
1283
-6602
-2845
-2657
-4216
-5685
-5945
1372
31331
-9803
4551
-3025
-4429
17420
-3501
256
9482
-4057
56
-2154
5131
-5314
-1002
-315
4373
-564
8142
-4571
2093
1865
-7769
443
-3408
-4996
36
733
1238
90
459
-2071
-2186
-867
-2094
-2398
-2745
-5609
1305
9140
-1288
6299
-3679
-1661
-7632
-190
2448
1702
1315
-5004
8120
-1075
13249
-4056
-4312
-632
4999
400
-1168
-1027
2656
-1508
-7231
-1591
-4609
1403
-4496
-5759
-4578
-11906
-1023
-1855
56
-1228
-3738
144
-523
-2816
-3489
-4948
-1356
5886
1158
-1302
16231
-3531
-3107
-3180
-4024
-4998
4233
6310
3889
5217
-3988
-1613
3971
-2223
2850
-33
-908
-6844
6485
-7962
-4070
-255
2040
3241
-616
5316
2059
699
-2680
-1183
-1408
-3866
9443
-3335
-595
-4140
-603
-5074
910
-2263
1444
-2239
-2978
19492
-3169
-907
-4128
-277
1196
16142
3426
1775
-5489
-1200
-6797
149
6306
9184
-5810
-1090
5052
-1095
-1552
-484
-2227
-382
1466
-7162
-2092
1313
767
2441
-763
-3096
10419
-3544
-377
1911
1135
-4317
4431
-4241
-5219
-904
-102
-3733
4749
-6451
12648
-1205
4618
-4966
-6902
2893
-5338
635
1784
1445
-7031
-4801
6143
-5718
-4652
-4600
-1210
-2672
-5835
-6875
-5275
-3250
3223
-5672
-5609
-3008
-4079
-6917
-5157
-2015
-602
-1635
38
4120
-5798
1480
-4788
2393
-5608
-2354
-472
3253
-3901
-584
-1470
-5860
46
1303
-5595
-1742
4333
-1083
-5175
-4324
-6721
3764
566
-3641
-3711
5503
-1786
-4348
-2279
2972
5272
-3137
-3951
-1145
-4565
7903
-2338
4804
-243
-2686
3018
-5294
-32
-1982
6167
-7528
-1007
31
-1308
-6157
2562
-5561
2231
6274
7349
-3999
-3001
128
-221
-3855
7147
-5854
236
5320
-7461
330
-5761
12688
5295
1250
-3621
-1716
-4120
154
10501
8169
-4772
-2375
-5265
-10145
-7823
-3601
-797
334
-6333
-5038
-2810
1331
1983
-2341
3428
2210
4094
-5504
-288
4907
-5224
-6527
-7021
-1517
-7151
-2210
-729
12890
-4177
-8689
1905
-3870
3938
-4496
-677
-1215
-6011
-4185
-265
-3198
-3150
258
-4880
1828
-1866
-4428
3190
-4291
5406
-7396
-2625
-5696
-7146
-95
-3196
-2684
-2409
-1314
-3847
28423
2231
3885
-1515
1854
-6348
-2439
953
-4821
-3114
29
3037
-4758
