71563
4501
-2942
-1997
77551
590
-33323
135
78163
4033
81025
-1204
-1635
-1491
16464
-80683
-9099
-23021
71122
-1238
237
94113
-4808
-66796
-4235
13958
-1851
-74282
-67707
-68996
-414
-67002
84498
-65999
2179
75626
-32823
84904
382
80408
-41405
89309
77502
-23
99190
1192
-665
-723
-2347
-4105
-6201
87791
79477
-1159
86235
79190
-769
-626
-21
-2966
-11159
-615
-72335
86029
83415
83085
6
78153
76399
-509
78100
-641
-3700
-1005
75298
79951
84710
84152
-56410
17704
-5347
68563
-3894
83883
77142
75227
78971
-3777
-9669
139
84733
-1507
-63418
75319
-70171
-784
-1886
93
13583
10149
-777
469
78417
-2341
-6508
87692
-9848
78901
-3706
-70241
-527
80979
71358
-63874
78443
75361
77732
-3063
81534
15290
-1485
-78000
705
78735
-2235
-1366
-60026
-2061
-6765
80017
-66510
83920
-548
79231
-1725
11408
84987
-69819
12224
-66447
-7448
708
-423
80512
-1987
78933
346
-399
83936
71730
-3298
84265
-665
6934
75752
3317
77843
743
-1531
94284
-5066
-1613
81531
-976
-2106
89757
-3615
82814
76988
77510
-1015
-77348
87963
72767
-65939
3661
-78859
84170
-1239
-1710
-508
-77913
2210
-67726
71
-1620
-6049
-27873
-76463
-71592
83536
-1239
