-16
9
1
-8
-74
-17
-14
-16
13
-26
-1
32
-34
3
-2
11
8
35
2
8
-6
6
25
-9
18
-83
-24
26
-15
20
-13
-4
-5
-11
-4
-30
10
1
10
25
-6
-8
13
10
53
-3
6
1
-11
-8
-6
3
-5
34
-2
-7
-22
-39
4
-13
-16
0
4
12
-22
18
-14
-2
-23
-20
-10
1
5
23
-24
5
18
-18
48
-2
-32
9
3
-19
37
1
-22
-11
-6
15
8
-42
-23
-24
0
21
15
-16
-5
-15
0
0
7
-13
30
-5
-19
-29
-7
5
8
-21
3
18
5
14
3
11
-8
17
-1
2
10
-7
-17
-13
17
3
-12
-13
-4
22
-15
16
-19
27
3
0
-16
23
-21
5
-3
-21
-38
-10
9
-7
-17
9
-10
26
-21
32
-17
2
-20
-15
-7
-11
10
-30
-13
-16
2
-24
29
-10
-21
3
10
22
21
-1
-8
-11
5
38
14
5
-7
-33
11
-17
-18
-15
1
12
-40
-3
-29
5
-9
-9
16
13
-19
-2
15
3
-7
-22
-2
-13
-5
-9
-31
10
18
30
1
4
-1
-13
10
-13
-5
29
-43
-16
25
0
13
-1
4
21
0
-3
-14
2
-8
16
-22
-8
-9
-9
-29
7
-18
17
62
1
0
3
-19
-1
16
21
-16
-3
-17
-7
-14
-28
8
7
19
31
-4
-20
-6
41
12
-7
-9
3
-35
-11
10
49
61
-22
-14
5
-20
3
-31
-26
-49
-11
20
9
-23
-27
-28
-12
9
-7
-17
-22
-1
-27
-21
5
19
8
15
-4
19
13
-5
-2
-24
-38
14
-3
-13
3
-8
-15
13
-19
-16
-10
-9
8
-32
20
-19
40
20
22
-47
-8
-12
-2
-8
7
-3
-39
12
5
10
-7
-14
1
-44
108
11
-12
15
-22
37
-43
-22
33
43
7
-23
4
17
11
7
-31
-28
-24
5
7
1
-17
-14
10
-10
4
3
-30
5
17
21
31
-2
28
-23
-5
-21
64
-14
-18
8
32
7
22
13
-1
21
-10
-7
-16
12
0
1
22
27
-1
22
-16
-16
17
9
-42
8
28
-2
5
-14
15
-28
25
-11
24
8
28
-12
-22
10
3
-41
-12
-32
10
-13
3
-4
22
-22
0
2
-6
11
-20
-6
-9
127
13
-5
-8
47
-23
-4
15
18
22
-7
-9
15
0
41
19
26
27
15
-5
10
-20
-2
13
15
-15
19
4
10
-30
-20
-12
-20
-23
-11
57
-25
-23
3
-6
17
-5
-8
-23
-19
9
10
8
-2
4
68
10
-31
-2
-51
-32
-14
-11
0
15
32
29
-49
-12
-27
-7
3
-1
28
-9
41
4
4
14
0
1
21
23
24
-41
-21
33
-8
21
-11
-9
-5
-16
-5
-31
-2
10
4
-23
-7
15
-3
-3
-5
18
3
-17
9
27
-16
-45
18
-20
-17
-8
-8
42
-64
0
-10
-24
-3
-1
-9
-14
-34
18
-2
12
17
12
-30
-12
-32
6
-18
-21
-5
8
19
-8
-3
15
1
0
-35
-10
19
37
12
-18
-10
-6
26
-7
-26
-6
0
35
13
-4
17
30
2
-10
5
-40
-19
-26
-3
-10
10
33
12
27
2
-4
-13
21
11
-5
-3
7
-7
32
-14
-9
6
-19
-18
-2
-9
-22
-20
-13
-11
-17
-2
-23
1
6
-15
47
-15
10
0
-13
9
-10
-23
3
-9
16
-26
-24
0
6
30
-67
-16
-13
-23
3
15
-17
-38
-40
-22
1
7
7
0
-10
38
28
-2
-35
15
16
-12
-1
18
-20
-18
1
-11
-18
18
30
13
27
-6
24
-20
11
34
-4
10
27
8
-14
-6
-19
18
-26
10
-22
10
33
34
-16
-13
-26
-20
20
0
-21
33
16
32
-7
0
-13
-5
-5
3
3
9
-22
1
3
-39
26
14
11
12
17
38
1
3
3
24
-9
-7
1
11
-15
-4
-2
-2
-41
-27
-31
6
19
-8
-2
2
-10
14
-1
12
19
13
-8
12
-13
-42
31
2
-6
17
-23
-16
-18
0
2
0
-20
4
36
-10
6
-12
-5
-13
25
-8
2
-17
10
9
44
5
39
4
-33
1
19
-11
0
0
-9
30
17
6
-4
-3
29
4
-12
6
12
-32
-13
-1
38
-20
-4
1
14
14
-6
-34
18
-15
-3
-3
24
-6
-18
-19
-50
17
35
14
14
81
-5
9
-11
14
14
25
-21
-24
5
-17
24
9
-3
6
29
0
2
2
-16
6
23
-24
-1
5
-9
18
-5
-15
-27
-6
-1
-25
-7
-13
-7
-3
-11
4
6
-9
-13
12
-36
10
-23
28
5
-10
3
6
15
-6
22
17
-7
-31
-3
7
3
0
-4
-16
-12
12
-9
-25
20
-5
-2
14
42
7
-16
18
22
0
-3
0
-9
0
10
-23
48
17
3
-1
27
17
26
87
-11
14
21
-27
12
-1
11
-22
23
23
-12
-2
18
-28
0
-1
-39
-35
-4
-4
2
26
-8
4
16
21
-7
33
-10
-26
1
13
-24
23
5
5
31
2
6
-17
1
9
-7
-2
-30
4
-23
19
29
-14
-9
-13
8
23
18
15
12
-42
13
-13
-35
-12
12
-1
-12
-4
30
14
3
-26
-15
14
21
-9
22
-5
-32
30
-15
12
-11
-26
-4
12
1
0
-7
-9
-3
-6
21
18
-8
-1
61
-17
8
-2
-9
8
-1
-37
-2
9
-2
-18
16
-28
10
-3
16
-10
9
0
21
-13
26
3
0
-8
-4
19
-3
16
-12
9
29
-3
12
-31
1
0
-5
4
27
14
-10
-32
15
1
12
3
-15
-17
-25
-1
-16
53
16
78
8
6
-35
-40
22
-24
-18
-18
12
-1
23
-12
-24
-4
-50
-13
-10
14
20
11
-16
-2
28
12
1
4
-11
61
9
-12
-37
12
5
-24
17
20
15
-10
-7
2
9
24
17
27
6
-33
10
-6
12
-4
-32
15
0
17
3
-6
6
-12
-18
-19
18
21
7
-16
4
-7
-13
-3
-21
10
-28
3
8
15
-17
-31
-15
7
-9
-8
-14
12
34
-17
-6
14
-4
122
13
0
3
-25
12
22
-37
18
37
26
-22
-65
-15
7
64
11
66
-25
-8
-28
77
6
25
36
2
44
-27
-25
40
-11
37
26
-10
28
41
36
16
-56
-60
19
11
2
13
-29
0
7
77
56
5
20
-7
-38
23
27
24
33
63
0
33
51
3
24
3
-16
11
12
22
33
24
-91
3
9
-29
1
-5
-44
37
42
-50
-14
30
-14
-36
7
-8
-44
-6
64
-23
30
20
6
-35
9
-21
25
35
37
-64
26
14
-4
17
-5
-73
14
-15
-38
-16
10
-75
46
-25
7
15
44
-48
-56
19
-31
13
31
-14
-14
22
-23
-26
21
18
57
29
-16
-48
2
17
-52
40
66
-41
-37
-6
-55
-4
94
-45
-80
21
21
-4
38
-20
24
-35
30
-10
-34
3
64
-45
55
8
49
-31
74
-3
-11
3
-35
35
-2
18
6
-39
-64
81
24
11
-12
8
-27
4
34
26
-5
9
61
27
-79
-17
16
-8
5
-15
-34
13
39
65
-32
12
17
1
-32
42
-37
-31
-19
-41
35
39
50
79
-20
46
90
-58
-39
-5
-44
-38
16
-94
43
-37
27
-25
-14
36
-7
-26
40
-45
-16
-29
-26
55
13
-12
-34
56
23
46
18
28
-34
15
-79
14
-27
48
123
-3
-61
-10
-42
26
-16
-44
5
96
-20
40
9
30
4
-30
-27
46
56
6
-22
-9
-28
-40
45
22
33
7
41
25
6
46
-1
18
42
-35
48
1
-13
67
-35
-14
-29
-35
-23
-24
6
27
49
17
40
-21
4
-50
-20
51
-41
35
23
-24
10
54
37
-11
32
-56
48
-40
-1
-28
-61
-2
-4
105
8
-6
0
40
21
40
42
-14
33
-22
53
-43
50
-44
20
-74
-43
-32
44
34
22
-18
46
22
-53
14
21
14
-13
75
-27
-47
1
-21
-22
-7
-5
14
75
-95
-77
-20
-29
3
7
-49
5
-45
-14
-48
55
1
19
-4
1
-80
34
107
-11
-27
7
24
-40
-43
8
-41
-6
34
-18
-28
-39
-100
38
-2
-4
15
16
-44
50
-20
-17
8
-5
7
-3
33
-35
26
30
20
50
23
-23
45
4
-17
-16
1
-7
40
23
-21
56
-30
-12
-7
18
9
-9
14
14
-48
-9
-20
18
-41
30
44
30
-40
1
19
-10
-30
84
-27
-6
-5
28
40
-1
-42
38
-15
30
105
-13
-36
16
31
-61
17
8
-41
-24
12
-74
-24
24
14
53
18
-32
36
-8
22
43
-47
105
8
43
109
19
3
-52
-25
-102
10
58
-8
41
26
-14
-61
-14
-13
-44
-40
9
17
-102
-11
33
15
-57
13
69
18
-15
-2
-30
-18
-6
97
-62
-50
18
-2
-117
-35
11
-39
-39
14
29
-23
-15
-2
-30
-32
50
15
14
87
-21
5
4
-14
34
68
-59
-33
-21
69
45
53
-65
-7
21
-14
-27
2
14
-29
-54
35
39
12
-10
32
-33
25
-4
50
19
27
-44
57
-17
-31
-35
-33
1
-49
20
-28
53
20
-25
41
24
-24
-57
-30
-18
-18
34
12
71
22
57
-62
-57
-3
2
-64
-42
3
-54
0
46
-28
-11
-8
8
-3
19
31
-22
49
-97
4
0
2
21
-75
4
-3
24
0
69
-64
-12
5
9
65
2
30
-20
-25
40
-11
-31
-15
-18
23
-45
-56
-47
77
-27
-14
-1
4
72
63
31
-3
-10
50
-71
50
16
30
51
-12
-18
32
14
-19
71
30
2
-25
-39
6
-9
3
-27
21
-20
1
-38
35
-43
-38
-16
21
-12
-28
-23
-1
32
8
-41
33
30
9
41
44
-21
-26
24
-1
-35
-23
-4
-35
2
1
78
-7
20
-37
-62
4
-71
23
-44
15
2
26
-12
25
49
36
24
-3
-33
-1
-33
17
2
13
-20
45
64
-23
-32
11
70
20
-15
-19
93
-5
73
52
21
6
-57
2
-11
22
-46
-28
2
36
-2
-25
119
0
43
-3
25
-11
21
36
-19
16
90
-31
31
60
17
7
13
-4
4
-21
21
-70
-10
31
38
-102
-17
43
-39
10
-34
21
42
-12
-9
-6
-9
47
29
31
30
10
2
11
34
56
12
16
-21
-20
-26
-38
50
-30
26
-1
-16
14
6
-7
-65
3
1
-31
9
2
5
46
13
14
-65
-72
47
-23
22
7
7
13
-23
-3
-57
13
15
5
-35
5
-3
-17
40
42
4
-47
20
-29
-13
-59
-26
-1
-31
38
-24
-17
13
34
4
-11
-38
91
15
0
11
70
22
-9
31
49
-6
9
15
-66
5
46
6
5
-58
-10
118
27
4
-89
6
-72
-32
17
37
41
-49
-25
20
-3
4
2
-13
-46
33
54
-30
-15
-41
-4
17
32
12
-32
80
-50
14
-11
30
7
13
-100
-20
9
-25
51
15
34
93
-1
10
33
-21
0
14
39
18
-70
-38
-98
1
-15
1
-9
-3
-40
-34
32
32
-74
-26
10
9
33
66
52
4
-26
-51
-9
22
54
14
58
37
5
-23
18
7
-30
-47
-26
-55
18
6
43
4
-42
-18
-53
-4
-28
24
-54
-30
-44
35
-46
3
10
-2
-10
-39
23
-48
34
17
-49
-86
33
-56
-1
23
-40
46
-61
16
25
-5
32
-47
6
35
-3
-8
-11
-1
-25
5
15
-1
-81
-32
32
-16
-40
-1
37
15
-27
3
-42
-41
-19
54
19
-50
47
71
5
-2
-6
-23
32
-69
28
83
-33
-21
2
30
36
29
-58
29
19
39
-5
-43
-55
-18
-13
21
-58
43
0
53
40
0
10
19
-19
-28
-57
22
-9
41
-8
60
41
8
19
11
-22
12
-22
40
-17
57
-4
-14
-15
-27
34
-10
-127
-24
-19
27
-6
-7
51
-46
-14
-1
-17
28
11
40
2
-49
-27
15
17
-46
-49
-40
17
2
11
-44
-7
51
3
-14
9
35
119
-9
-4
-19
-50
-18
57
-17
61
26
-4
28
-27
96
-15
13
57
-69
2
-3
23
54
46
-2
34
-42
-19
62
70
39
23
-19
-47
-9
7
7
37
17
7
-21
30
11
-17
-6
15
1
-20
9
-24
-9
-55
-1
-38
33
-9
-14
-22
-5
-9
41
-11
-38
7
6
-28
-1
-13
0
19
27
48
-2
-11
9
-11
-13
-25
32
-10
31
-29
-23
-3
-18
-9
76
-3
-21
51
-15
8
24
22
-20
-15
11
-8
-12
-13
40
17
-28
38
46
-22
-1
10
-3
7
-6
-25
-7
-1
-5
21
-20
-2
-28
-20
-19
-5
-17
4
7
-2
-62
-9
6
-32
48
-17
-30
-4
8
68
6
-8
25
32
-10
0
-17
6
4
0
4
-2
-5
-4
-16
7
59
-7
-18
25
-21
26
21
9
-42
41
-2
-19
-7
-29
10
72
-24
31
26
-20
-36
9
4
19
-24
-16
-15
5
11
4
-9
-25
-4
-41
6
12
-1
-4
-10
0
-17
-7
-21
-19
-6
-19
18
20
-9
0
14
12
-44
-11
-29
-9
-16
-31
11
1
12
-18
-8
-65
-16
-4
20
-15
-45
10
13
-5
-16
-5
-26
-26
34
55
-20
4
38
39
24
9
3
-9
20
2
-5
10
-4
-33
5
-4
27
-27
-21
-30
-13
0
-21
-17
16
-16
6
27
-15
24
-32
-1
30
-24
0
-10
-19
24
17
-9
-2
-16
14
-19
22
29
-1
-15
-11
-29
19
-16
28
-25
-18
-2
-34
-20
-1
-3
-6
-11
-32
-20
34
-12
14
-17
14
20
18
-17
18
-1
-27
-14
35
-16
7
4
14
-16
3
-6
-10
12
-11
55
-23
6
12
15
35
-6
-2
22
-2
2
12
30
36
20
-11
23
9
-13
39
37
20
38
-35
2
-3
8
-17
12
-2
2
-11
0
13
6
-33
30
-5
15
2
8
22
-54
-8
-43
-8
-11
-40
-30
-20
-19
14
-24
5
6
-18
21
-16
14
-20
30
5
-34
2
-35
-4
10
-1
-16
47
-10
7
11
-43
-20
-12
-7
33
-47
-3
-39
-23
12
58
4
-22
1
-34
-5
37
21
12
-20
5
-42
11
3
8
2
-8
-13
-27
-4
-22
-14
-14
-9
-6
-17
-41
-23
-26
-18
10
-9
22
-45
-1
-8
-11
5
-19
0
17
-9
-16
-21
-24
-27
21
21
38
48
14
-14
13
10
-26
12
-44
36
15
13
-22
-5
-12
-29
-5
-20
4
-9
-70
9
18
17
-20
-6
11
-15
48
2
-12
8
-3
-31
-22
-2
-6
5
0
-25
21
-4
12
-21
-13
16
19
-11
7
-4
15
-9
-21
11
14
-7
15
-17
-48
31
23
-5
32
5
6
5
-7
-23
-31
17
37
0
-24
15
-13
9
3
-30
-41
28
-14
72
15
19
-21
-8
5
-19
-26
-1
0
16
-5
14
-9
-17
32
-12
1
-32
-6
-1
-24
127
21
-6
38
-26
33
15
37
-33
-7
3
3
22
28
63
-1
10
-2
-21
7
11
-13
-20
40
-3
-36
11
1
-19
9
-26
-2
10
-60
-19
-36
21
21
-42
26
-16
6
-9
-3
62
-5
6
-4
10
-14
-13
-3
43
1
-29
-1
-23
-22
-17
10
2
-4
17
26
-6
-2
-26
-11
0
-14
-28
-6
-34
-66
32
-23
-35
-9
19
25
5
5
-25
-7
-1
37
-8
-3
16
6
-28
-8
8
27
1
8
-16
68
-11
35
-14
-26
-12
5
16
1
-14
-18
14
-17
35
7
-33
5
-11
-1
-8
6
4
10
12
0
-11
7
29
-3
-18
-7
-9
15
23
-8
-20
-38
-29
21
13
-9
-30
43
-23
-17
3
9
-5
-23
-54
-2
19
-8
-62
17
-14
20
-11
12
-12
-9
-30
-6
-25
-19
-7
11
-28
-10
-24
19
-1
5
14
-16
0
25
-33
-26
-26
-14
-3
-42
-17
-7
11
1
35
-28
-9
4
1
-15
-15
-6
-51
24
-20
-24
-19
2
-26
36
-12
11
-17
32
-11
-40
-46
-24
-12
11
0
-9
4
-7
-22
23
23
-15
-47
-4
35
-9
-13
-2
4
6
18
13
-4
-29
-7
20
-40
31
-18
53
26
23
-46
-31
-15
7
7
-3
-37
-10
3
-14
31
20
-6
-4
-20
25
-3
21
-3
4
0
23
34
1
66
-11
10
-13
-31
3
14
-32
18
6
43
-30
-3
11
-12
-4
-13
-22
-30
-47
-1
14
-5
47
14
2
7
26
1
19
46
35
-5
44
-5
2
-11
-9
-16
0
21
-14
60
-8
-15
69
-13
28
9
23
-4
10
22
39
-27
-10
-60
-28
17
14
-4
24
-7
-20
-7
-52
5
4
8
10
-11
15
4
7
-40
-2
-23
-6
10
-30
-2
5
12
-2
-31
7
-10
43
2
16
0
-4
8
17
-29
22
-28
-35
5
-43
-26
25
25
17
-22
0
-22
-3
-16
-17
11
11
-33
-12
9
4
-4
-12
-19
-33
-8
-21
-12
24
-22
18
-33
-4
-19
15
12
8
32
0
-44
15
-17
18
-45
14
-7
21
-17
-7
-15
-26
-5
79
32
-16
-18
-7
33
9
3
21
-56
-1
-15
13
33
-21
-41
-20
-24
-20
-18
-30
-2
-23
-20
-17
3
14
2
13
33
-12
-24
4
17
8
-23
-10
-35
15
2
-19
-12
-4
21
7
-16
-11
7
12
13
-37
0
18
-3
-49
-37
-24
28
38
-29
-8
6
-9
5
56
7
-2
4
8
-3
18
-11
34
-10
28
-15
-11
-12
-23
15
-15
-28
-20
66
4
-1
-5
0
36
43
-5
-7
-7
19
12
-19
23
-17
-12
8
8
-40
-5
25
-12
-12
16
6
-33
-29
-20
-3
-19
-21
17
-18
13
-31
-56
11
-16
-55
34
24
-30
-5
-21
12
10
-33
26
34
-11
10
-36
20
28
10
41
111
58
-18
4
-10
-14
13
13
3
-34
32
30
18
10
-32
-17
-27
-42
-17
-18
-14
-13
2
-12
-37
-41
-16
-11
-3
-7
16
31
-8
4
-15
17
-1
-6
-5
37
15
14
-4
-25
2
13
-4
-12
8
-19
52
6
4
-14
-20
7
40
-11
10
-6
11
-14
-56
5
-27
-1
-2
-12
2
22
5
7
-14
-8
-37
-44
2
-10
-6
33
-2
-3
0
-22
10
-17
8
-12
3
-4
-8
-13
-20
2
-11
-9
9
-1
-19
-13
20
-12
41
-20
3
-7
20
-9
-4
11
-6
-8
2
4
-10
6
-4
4
-30
32
-23
1
-27
14
20
-12
8
5
11
-7
9
20
4
-3
-6
-23
7
5
-25
5
2
-24
2
-13
-4
4
6
-11
7
4
14
-16
-5
-13
9
10
16
12
3
4
-4
86
30
-13
4
-6
2
-13
-33
-1
-24
-13
-4
-8
-22
-1
-14
4
13
16
-9
-1
-3
7
-5
-20
-4
8
-17
15
-28
12
-21
-23
4
-22
-16
-11
-18
6
-5
8
-7
13
-16
26
16
19
7
-5
-12
46
4
-5
-6
-10
-11
1
1
6
-15
17
7
-16
-15
15
-2
0
-1
2
27
26
-14
-13
-11
-15
0
-10
-10
-1
-8
-11
23
7
-10
1
-12
2
1
-19
6
4
-1
-13
7
8
3
-7
-22
1
28
-16
-4
-14
5
8
-14
-2
-18
-7
21
15
-5
12
-7
-7
-9
-10
31
14
-44
30
-4
1
-9
-4
9
-7
-1
6
-4
-25
-9
-10
-4
-24
-5
-9
-2
-10
7
2
-4
21
-22
13
37
-20
10
3
-15
-1
-17
33
12
-21
-17
-16
-9
-14
7
0
-12
-20
68
13
-3
10
7
-11
24
1
-21
-16
-18
-3
-3
6
24
6
0
-20
3
-20
-5
2
37
27
-4
-3
3
-14
-11
4
9
-1
-5
-56
36
-9
9
3
-24
-11
2
-3
16
-7
5
11
2
4
-4
-12
-8
-7
13
3
-8
1
1
-8
2
-18
-16
18
-3
5
-2
-2
-10
-14
-9
-2
30
2
-11
-18
-17
1
-13
4
-26
-7
-14
2
35
-10
-3
11
-2
-8
16
37
-5
-15
12
-31
11
-27
-5
-11
2
0
-12
25
-23
13
-2
-4
18
-2
-7
-4
9
-13
-14
6
19
3
-7
2
22
11
-4
-14
0
-23
-35
3
-18
-13
-24
-20
9
4
-4
-28
-14
-3
-12
2
14
22
-21
-18
14
8
3
-9
15
9
-17
-3
11
-10
-5
17
-19
-35
-19
14
-3
32
-4
-8
0
0
2
27
-8
9
12
-6
7
-6
9
-17
38
-3
-16
5
-13
-7
-27
9
-5
8
3
-2
-19
-32
-14
-19
62
-13
-12
16
-7
-9
-5
5
11
2
11
8
-4
0
1
-10
-11
2
0
-1
24
-11
13
-13
-10
-3
3
8
-24
3
111
14
15
-2
8
12
7
-13
-14
-6
-5
-7
5
6
-12
-23
-17
5
-10
-3
9
-5
17
-9
-10
0
12
21
-7
28
3
-22
-18
4
24
-3
0
-1
11
6
-6
2
-2
-1
7
12
-4
5
15
8
-5
16
-12
-17
5
13
8
-6
2
13
-24
-22
-1
-1
-18
-8
21
-1
-9
-12
-2
-16
-30
3
-22
16
-17
0
-11
-5
1
-8
13
-15
-8
24
-24
-12
1
8
-22
1
4
-9
31
3
-15
-11
1
-2
-10
-12
-18
14
2
-20
18
22
-15
4
-9
6
-18
12
-5
-11
-15
-12
3
-8
18
-4
-7
21
-18
-1
14
11
9
19
4
-17
-10
2
9
-20
-8
-10
-3
17
-13
18
27
-16
46
-26
-4
14
0
-3
-4
-9
6
-6
-14
14
-3
-18
-10
-1
-27
-16
-24
-6
-20
2
-10
1
-7
7
-11
1
0
2
10
1
-1
-12
9
13
-1
6
-6
-18
14
8
35
4
45
19
-17
16
0
0
-10
-18
24
18
-13
-12
23
-13
-24
-1
22
3
22
24
-27
-8
9
7
-12
-4
-9
58
-23
12
1
15
-17
-9
9
-39
-8
-2
0
34
3
-3
-1
-15
3
-7
-24
-3
23
2
-24
-11
44
19
-22
-13
-8
-3
13
20
12
-12
7
-6
4
-13
-6
-7
29
4
2
-12
21
11
-4
-11
-9
-22
5
11
12
-3
-3
3
-11
-20
5
-5
-14
6
-14
10
-3
-6
-14
-4
-11
17
6
-11
-4
2
-15
2
4
-2
24
-44
-31
12
-4
-4
9
5
9
-1
-23
-24
-17
10
-7
-8
0
8
35
4
-9
-18
13
-17
10
11
17
-15
-15
6
-8
7
-3
-28
12
5
32
-21
17
-2
1
15
0
-8
7
-16
5
18
-9
6
9
5
-11
29
10
-14
-19
33
-15
-16
13
-7
7
9
26
0
-11
3
-16
7
-28
-3
1
5
-19
-26
-11
-31
5
7
5
-25
-21
13
35
-3
-9
0
7
-7
-13
-17
-22
2
11
-9
127
3
-5
6
4
27
-5
-3
-3
-16
-20
7
13
-17
12
-15
-3
-7
10
-22
7
-19
-2
7
-12
1
1
5
-2
14
16
-10
4
74
12
-21
-29
-12
-3
4
-4
-20
-1
-15
18
-25
4
-11
20
3
7
-15
-2
-13
30
-36
10
10
27
3
-17
1
13
-3
0
-10
-5
2
30
12
-5
17
-1
-21
-5
-24
-10
-6
-15
-14
-12
-7
-8
11
73
-10
-2
-45
10
-1
0
-30
-8
31
-8
7
-2
4
-12
-11
-3
3
15
-15
6
18
-15
5
-1
-15
-13
-20
10
30
-4
30
8
14
-14
-17
47
-6
7
-8
7
15
-1
15
-15
0
1
-10
-9
21
11
-1
21
-5
29
-46
2
-17
4
-8
-16
-17
-3
-35
-8
-7
-16
-18
-11
-13
3
46
-9
11
12
9
-21
18
-1
-19
-6
-17
3
23
7
-8
-4
-8
9
11
14
-10
4
35
-8
-17
17
22
3
12
-1
17
-8
24
-13
15
-3
-34
-15
1
-14
11
-10
-2
-8
-8
32
3
9
11
10
0
-29
38
-25
-7
9
15
-10
-25
-5
-1
-11
-8
20
8
-13
-20
39
25
4
21
-8
6
20
6
-18
-15
-5
11
32
22
28
-14
-20
7
34
1
-24
15
-13
-2
9
11
-14
-6
1
-2
-13
-7
-2
-18
8
-10
-19
21
-9
-10
1
-9
10
1
-1
-12
-21
16
-16
-12
-4
23
-1
-17
-16
5
31
-12
-29
14
7
-32
21
-22
6
-2
3
-17
24
-4
-9
3
-11
19
-1
-14
16
-10
-4
-33
0
-71
22
0
-13
15
11
45
-16
-10
-9
-31
-22
10
-8
10
21
21
7
-43
61
2
-32
11
6
8
-16
-20
21
4
2
21
-18
-6
-2
35
26
-13
-11
10
-8
-21
3
-3
20
-5
-18
0
3
8
37
38
-15
11
2
-12
30
22
-37
26
-1
7
-20
22
25
-3
-4
-3
2
23
-26
0
-5
-7
-53
-17
-18
7
25
-57
-16
3
19
9
4
10
11
-39
5
-6
25
-29
12
-17
12
-12
46
-12
3
19
6
13
10
21
3
7
44
-25
93
14
-28
14
-32
6
57
-21
-5
-18
4
14
-19
-11
-2
9
-3
-6
-2
-20
2
-21
-53
20
-6
26
-21
-23
2
12
-2
10
26
7
39
-19
-4
12
-7
16
8
16
-8
6
-11
47
-32
28
14
7
10
2
24
-16
26
22
12
7
13
6
43
2
1
22
-8
38
24
13
-11
-19
8
-6
-2
-26
-14
11
-5
-47
-14
-3
3
-13
-10
-1
29
-6
34
-10
11
5
25
30
-6
19
29
22
2
-25
26
11
9
13
8
20
-16
14
-18
-24
72
-25
14
-9
-29
-7
16
-8
24
2
11
25
17
-9
-15
7
-19
18
26
-6
-3
-34
-4
10
-4
16
-32
6
-4
-1
-5
17
57
-24
-24
-32
-7
-5
18
-11
-12
-25
3
-14
-16
-35
15
-2
18
27
35
-9
39
4
3
-10
82
22
-38
-5
9
-22
22
-3
24
2
15
36
38
17
29
-11
36
22
8
-18
4
13
2
24
-10
-13
1
17
46
-22
-6
-8
5
5
2
18
-1
15
8
-27
21
-33
-10
-18
0
-26
-4
14
-18
-4
-17
13
40
-4
9
23
-7
-12
-3
-2
1
7
-8
17
28
-51
-18
2
8
41
-13
25
-5
-19
-14
-29
2
35
49
14
13
0
18
2
-2
23
26
6
-9
15
-20
-2
8
-10
-14
-22
7
-10
-11
-19
18
-19
-49
-6
-7
7
-9
-23
-2
-12
-15
-6
-29
2
-14
-15
-12
19
-4
16
29
10
-7
-19
3
-8
27
1
-1
-3
-28
-27
-3
-9
-15
9
-3
2
45
-8
11
-8
13
-1
9
38
14
8
-14
-3
-12
-2
-37
-33
-9
-3
5
39
52
-27
-2
-4
19
3
-31
17
-23
-7
-71
14
-5
22
-52
-14
-13
1
-4
8
19
-25
22
24
-17
0
-1
7
6
-15
20
32
-3
-11
6
11
-42
9
-6
34
-10
-21
-6
14
1
4
10
21
8
-9
-8
-3
23
10
19
2
4
11
-32
27
23
5
-16
-18
-11
-35
18
1
-15
7
-20
-21
-6
3
3
6
19
8
3
20
-6
-3
0
-14
-2
-12
17
28
-2
27
100
-34
7
-13
3
-20
-9
-6
-35
25
-10
-31
-12
4
47
21
20
21
-9
32
-8
-10
23
-11
-39
11
-21
43
-16
-3
109
2
-8
61
-13
40
-18
-20
-17
20
-3
-53
2
12
5
-14
8
9
-40
4
24
16
-7
20
-38
-19
34
56
-5
20
14
30
17
29
10
-18
-18
-21
5
12
11
8
-5
22
-6
10
-23
29
-9
4
-64
15
3
20
14
-19
12
28
6
20
19
7
-33
28
-21
-4
6
30
12
1
-13
11
-35
-23
1
-8
-2
0
-6
37
-25
19
11
-9
11
7
-7
11
19
-1
-39
19
2
17
0
-22
55
-18
12
33
6
11
5
-8
16
-4
3
25
7
-12
-2
41
5
1
-5
9
2
-4
-8
-3
18
-19
25
12
-3
22
6
-21
-21
-18
-13
-9
22
-39
127
-12
-8
13
30
15
28
1
0
-11
-10
-4
11
4
-33
26
-20
25
24
13
8
46
-4
4
23
8
-11
57
124
59
2
-24
-5
-4
52
15
11
-20
5
-1
-1
2
-19
-2
5
8
-5
-1
32
-6
-24
15
-7
-1
8
-24
8
-3
13
-15
8
5
-16
6
-25
-17
4
-4
0
4
-18
9
-31
2
39
12
-16
10
5
-27
33
9
24
12
-10
8
8
7
4
22
-19
8
1
8
11
-27
20
35
13
-12
-28
13
17
-3
26
31
-30
15
21
-20
8
1
-16
8
24
13
-18
10
24
22
-11
8
28
-7
12
5
12
15
9
-20
25
-24
25
-8
-47
-21
0
9
9
8
2
8
46
-28
20
17
-12
-9
31
14
-26
21
-32
3
-11
34
35
19
-32
9
-13
-28
14
36
9
42
7
18
13
21
0
-10
14
10
11
4
12
-11
-5
11
0
-1
29
41
-14
-3
19
-12
-9
-11
-9
-8
0
-18
36
-3
38
31
-4
5
-4
-15
7
-3
-19
23
-7
3
32
-10
18
11
13
11
6
-10
-28
19
25
-7
3
-1
-25
20
10
14
35
4
-17
-11
12
3
-3
-12
8
35
-3
37
4
-4
-11
28
20
11
-19
38
16
18
12
7
9
-11
-28
46
10
-8
-15
44
-11
15
24
-3
-24
-20
-2
18
-33
20
7
10
6
17
9
-22
0
28
-10
21
34
22
31
-7
5
15
30
8
2
32
15
1
3
-15
6
12
1
19
11
-12
-44
-13
33
40
-9
15
-13
0
5
1
36
-15
-24
2
-10
19
-30
15
-17
9
-7
-18
39
31
-29
-33
40
-12
3
27
18
12
-21
11
-5
-5
3
7
26
10
-3
-33
11
2
9
27
3
18
12
1
1
20
-9
16
41
21
11
20
-25
15
3
-6
26
27
-1
-6
-3
-10
17
20
18
-9
-12
33
47
-4
-41
-6
28
1
-5
-25
13
-35
28
-6
61
11
37
4
23
10
24
-10
12
-12
4
7
42
10
-34
10
66
-4
7
38
6
4
14
18
14
8
18
-6
12
-44
22
26
2
-11
21
21
12
34
-23
-14
-18
-24
13
17
-24
-47
-14
19
24
-29
28
12
0
-3
-10
22
-3
-24
3
29
-16
-43
-4
6
21
14
1
11
-11
25
17
25
-14
25
-6
18
-6
17
-9
-18
-3
25
16
7
11
-12
-24
15
13
-42
7
20
-1
-34
-36
-24
-44
9
-17
102
13
34
25
7
-14
1
0
-46
42
-46
-4
-31
-18
-55
-65
-3
20
-22
-8
-17
-49
-4
-10
-4
20
15
-3
-24
-6
15
3
-38
18
-17
9
9
-15
-12
23
-26
-27
16
-4
34
7
-43
4
-19
-32
25
7
-6
-20
-22
4
-5
-18
20
-19
-6
-5
3
16
-2
-21
-44
14
16
-1
57
28
-13
-13
15
11
11
16
-7
-40
3
-40
-3
-4
-20
-31
19
23
23
-10
-7
-12
19
-72
10
-13
-44
-34
-28
-10
-7
22
-24
31
-9
-24
-17
-1
17
44
-45
32
11
3
103
-13
3
0
-39
-28
-1
-25
21
-36
10
21
15
-13
7
5
-14
10
-7
19
17
9
-3
-4
-24
60
-25
8
44
-18
-31
16
25
-14
26
16
30
44
7
21
11
29
44
32
-27
7
9
13
-26
-4
-1
21
-44
20
-20
31
-30
11
-6
71
23
-14
-22
-14
-37
27
52
-39
-83
18
-6
2
99
9
8
-39
-60
17
-24
25
-28
-37
5
6
-35
-23
-41
-33
-40
-3
-25
21
14
-4
48
-17
-6
11
43
58
21
-17
13
4
21
-37
76
-1
-34
-29
27
-33
-32
-23
-4
5
3
18
-16
-15
-8
1
-3
-9
11
-32
-4
25
-23
-33
-21
-4
-15
-16
-17
11
6
-10
-1
-13
-9
-57
-40
6
-63
18
35
-19
-8
23
17
8
10
-2
-6
12
37
-16
0
-15
12
13
39
-22
8
-1
-5
-25
5
-10
-36
1
30
39
5
71
49
31
-3
-2
-9
-18
-20
13
-13
-7
15
9
-40
8
-27
-11
-12
24
-51
44
-24
-41
-22
-28
3
32
-60
19
-19
14
55
-1
-67
-32
-6
-30
-2
-27
-30
-8
29
-2
14
-31
-3
3
62
19
-9
80
12
-21
-17
66
9
-27
26
-1
-22
-34
18
-9
32
27
-29
-11
-13
-42
-29
-48
-25
30
9
-75
-8
-42
-6
-16
6
12
-30
-33
40
89
-10
23
6
-28
-22
10
-16
-36
-41
7
55
74
15
1
-56
-8
0
32
-3
32
-18
3
-18
2
-20
-21
21
-16
8
4
-19
-30
-16
-6
0
-8
-23
27
5
-32
7
55
-11
-29
-20
19
-15
62
-4
3
0
48
-7
35
16
-21
47
26
-19
4
-28
-86
-34
-37
29
-30
34
3
31
-1
24
-45
-2
15
-17
-31
39
-59
-41
-66
50
7
-10
-21
16
-14
47
72
23
8
6
13
-22
17
-20
65
2
-24
7
-23
-45
30
-34
0
-7
41
-20
13
-3
27
60
42
-8
22
-41
12
-28
3
15
-26
34
8
-42
8
23
37
9
-4
-28
25
-38
-39
-5
-17
-8
-6
13
21
2
-7
4
-34
-55
-30
5
-17
-23
28
6
-4
-5
-14
20
2
-8
-15
-81
82
43
-10
20
-35
-25
-54
11
19
8
-35
-15
5
-38
1
5
21
35
-2
24
14
-6
17
-30
25
4
34
0
13
-27
18
0
-19
0
7
-16
10
26
38
14
-15
4
3
5
26
35
31
26
-50
-12
17
-32
-23
-29
-24
57
-17
29
49
36
-26
-23
-23
24
24
15
-4
-6
-28
-8
31
-40
-9
14
-4
-3
-22
-4
-15
-16
24
71
-19
-28
2
-35
-64
-3
-7
23
4
31
33
30
-14
9
-6
6
22
-21
-9
-10
14
-7
7
20
52
10
2
2
0
-8
10
5
6
24
-31
-2
5
-26
3
-26
-26
-17
4
-12
-28
-28
53
-19
49
-21
66
46
-20
-44
17
20
-13
-17
41
22
-6
18
27
10
8
-8
-27
21
-44
23
-6
-25
30
1
-54
3
-46
127
25
-21
0
30
-66
-34
7
-3
26
-14
22
43
16
16
5
26
-19
-22
40
-49
-40
5
11
-18
1
8
11
-2
-17
22
1
29
-12
-1
60
-41
-10
-34
-8
-11
82
-3
-12
-12
-3
2
-27
-2
-14
-13
-26
-17
-5
22
3
-2
-50
-19
41
-9
5
8
35
30
25
-33
14
-12
5
34
21
24
2
-1
-27
-22
17
10
-27
2
3
-16
7
6
-12
0
-9
-18
12
17
-41
4
2
3
-15
-28
-6
-27
11
0
-58
3
33
-53
-14
9
-46
-26
-48
48
0
-41
6
6
-3
8
13
-13
24
39
-23
-18
-8
-4
-1
-8
27
-5
-17
3
-35
11
-41
56
38
-40
4
14
0
-32
-2
-32
-54
29
-12
-6
-32
-9
24
-10
-75
-20
-12
1
-5
25
-2
22
4
23
-33
45
-7
-12
37
-5
9
7
-14
34
6
-29
9
-5
-15
-26
10
3
1
-25
40
-31
4
50
-18
-16
33
-34
-30
-15
16
-7
9
6
-35
0
-9
-12
4
17
-8
-25
-17
10
-34
-9
-25
-12
53
24
-34
4
-6
-11
-32
-36
-23
69
-38
-12
-19
55
20
-8
0
-18
-37
11
31
38
-32
-89
-35
17
-23
5
-26
51
10
-16
18
-27
-27
13
-16
9
-19
46
20
21
24
-38
23
23
-33
22
-16
10
-31
19
-5
-15
-5
9
1
-14
59
9
-6
-19
-4
-6
27
-1
4
11
-28
-27
-26
1
35
42
-22
-61
-23
-12
8
40
-7
1
33
5
-12
2
0
39
6
-9
-44
27
-3
-20
-11
11
20
-51
6
3
-20
-1
7
-1
0
-12
-23
-12
-1
2
1
-20
3
-48
-11
-16
-2
12
0
2
1
-36
-20
37
16
-26
-10
-36
-29
-13
-16
1
-49
-27
10
1
109
0
35
-29
-4
33
3
75
-13
27
-3
-24
-20
17
-27
25
55
28
-32
4
67
3
-10
-31
-21
14
74
7
36
-25
15
8
12
-40
-31
1
10
-22
-61
1
3
26
-38
-1
46
0
-24
15
2
37
21
-8
39
68
36
21
50
-39
-22
-20
3
-6
-18
24
-20
-5
-15
-17
5
13
-21
24
-13
7
-27
1
-42
-21
-13
-36
-39
-13
18
22
-17
-12
-4
37
-16
-29
20
18
12
-47
-43
-13
22
47
-3
-25
48
39
-24
-27
-19
9
-15
25
-36
25
-27
86
-5
13
-14
-25
12
-5
-14
-40
-35
-17
111
-11
-44
49
-52
-51
20
13
-51
20
-30
52
31
-24
-5
-55
-65
-68
-6
-42
-15
42
4
-6
-12
36
-44
-10
-21
-40
-27
40
0
-30
0
18
-29
65
-42
-42
45
-34
-12
-24
-13
21
-5
-3
-9
9
-12
-27
-22
-20
-1
-23
-29
-48
-8
-45
-41
-30
1
17
-8
-57
-14
-14
2
-71
20
6
6
2
-15
-11
8
8
2
16
49
5
-7
26
59
8
-6
-7
0
-1
-30
-12
68
29
-7
-47
63
-29
1
-10
42
80
-9
86
27
6
-19
-31
-6
-8
-18
6
17
-41
24
3
-49
1
-7
-36
-75
-41
-37
-18
20
-23
8
-53
-20
1
-33
36
10
8
-25
-18
68
40
-31
55
-25
15
5
-3
17
17
33
87
0
-19
-9
16
55
54
17
60
18
-27
57
29
15
-3
-15
-29
46
8
-13
24
-3
-25
-50
6
26
-18
-3
-12
-62
33
18
28
-31
28
-70
-16
-20
-63
21
7
-11
36
-73
-35
7
34
-50
-9
-31
-92
-3
-18
-8
-47
33
-16
-34
-19
-37
-21
55
-19
3
-24
0
20
-1
-52
65
-39
1
-12
-5
8
34
21
-1
2
-46
-8
-24
-58
38
-39
-33
46
48
-21
-45
-25
-15
11
-27
41
-47
23
28
20
12
-19
18
-24
34
-68
6
-26
-12
-16
-1
27
46
19
22
-42
-7
18
65
38
-37
17
-42
-11
-37
15
-57
43
-13
-7
60
-17
8
57
24
34
-40
6
-58
-20
0
-4
18
-4
0
-18
-16
-19
5
19
0
11
33
-18
-32
-76
15
54
7
-8
-19
8
-63
-48
-49
81
25
23
1
-53
12
-65
18
4
39
64
85
-13
11
-49
-40
13
-60
-43
43
47
-28
-1
-22
14
-42
21
-19
-26
33
-35
-35
93
69
3
-4
-25
-13
-15
-59
-24
127
-44
-24
22
-13
-9
-33
9
-71
-49
-4
50
-40
-28
19
-14
28
-5
-23
2
-1
-28
-8
-43
9
-29
-7
-2
-67
-70
-11
35
-22
-34
9
59
-25
-50
2
-12
-37
-40
8
18
15
11
7
-9
57
65
4
-33
-53
45
-39
8
12
-18
-40
-23
5
-40
-30
-26
-11
58
-55
15
45
-42
6
-8
-20
8
-8
12
-40
16
1
-29
10
3
38
18
0
-31
-15
54
44
-1
10
-15
-10
-25
30
13
23
38
1
-9
-42
24
21
-23
-38
7
-7
40
-45
80
2
-64
10
-28
-17
-13
-20
-13
76
-56
14
3
-56
-43
-11
30
-30
-28
-46
-21
-4
-5
11
5
2
-11
25
-36
-29
8
79
-31
-22
8
-4
-28
12
-38
-49
1
-36
-22
64
16
43
-35
3
38
38
-35
-57
9
-12
-25
8
-13
33
-22
15
-7
-39
-9
-4
-37
10
-18
34
38
-13
46
42
-8
69
-87
-33
5
19
-66
-8
-33
-29
12
-5
-20
-24
-2
-9
-16
-26
-32
12
-13
-30
-5
-38
10
9
-18
9
2
37
6
-23
1
-25
77
-6
-1
-2
5
24
-33
-20
-66
-10
-33
-30
-42
-18
76
4
-52
-30
-6
-30
-8
15
-35
-24
29
39
-20
-13
7
-33
59
-7
-3
-48
-32
-14
-42
-17
1
58
-19
17
1
31
3
-43
67
-6
61
1
66
-29
-22
-69
3
-17
53
-8
25
-56
33
-49
-39
13
-50
-41
31
-7
-6
-47
-29
-45
39
-16
32
23
-14
-66
-12
-9
3
45
-15
-14
1
-33
61
20
-22
9
-24
59
2
-36
23
-43
-41
-81
22
-31
22
18
-30
-24
12
56
0
37
-44
-34
-32
15
-4
-12
39
12
6
-3
66
30
6
49
-20
74
60
-16
-16
-16
20
-6
34
-1
-24
94
-56
71
59
-24
-30
35
2
4
-62
-23
1
-39
26
-33
-30
6
-2
16
-41
24
28
-11
-28
-46
-35
114
-61
-25
6
-6
0
93
20
1
-46
-22
-20
27
26
6
12
6
44
75
-15
30
4
27
-35
-17
9
-50
10
48
33
-12
0
26
-7
48
-12
67
41
-42
16
12
3
7
39
37
52
-14
-54
1
-42
39
8
-1
10
22
-42
-51
-1
87
47
58
12
22
-42
-1
-20
57
-16
-6
17
-21
-2
-28
-22
-24
8
7
-30
0
13
-28
1
-43
-16
0
25
-32
-19
-70
39
50
10
-10
-52
3
-3
-20
16
12
38
14
-28
-17
-5
-63
-35
-5
19
-50
14
9
-15
33
46
-32
-33
-24
-62
17
-1
-46
-31
3
-21
1
-30
39
-7
-22
16
14
-52
-36
-2
-38
-102
-42
-82
-36
-2
16
-27
-20
27
-20
32
-28
-19
36
-7
-1
-41
-9
-9
6
-12
-40
-31
-18
-37
39
38
34
-8
47
-59
-9
-1
-72
-14
105
16
77
3
-75
18
-24
15
-9
77
-56
-4
-68
43
10
43
5
40
-68
3
-26
-70
-39
-39
-28
32
-53
-21
32
-20
33
-15
-32
16
-6
25
-12
23
13
-36
-17
38
-43
-18
-24
-3
-36
-17
-16
-15
-18
43
-13
7
25
-34
-17
-3
-14
-28
-48
-40
26
-24
48
14
-68
1
-49
-18
48
-33
-46
39
46
-24
22
-13
13
-7
-16
40
-7
28
-28
14
6
-20
-46
-13
-20
9
55
-9
23
61
-21
7
-26
38
-11
-49
-31
-13
-46
49
-38
5
-17
7
-23
-26
27
35
60
-39
8
-14
25
-32
-15
-36
43
-22
15
35
0
31
60
-31
14
2
4
-8
-54
36
20
70
4
55
-7
4
-42
-9
28
21
5
14
-20
-8
-10
9
-114
15
-12
-46
-13
-18
79
2
13
42
-14
-3
53
16
20
5
-16
-8
38
78
-13
-31
-17
24
-12
31
44
-24
19
-32
4
-13
-26
-14
25
8
1
13
32
85
-44
37
13
6
28
6
59
1
-42
8
45
82
1
-6
9
4
-45
-44
11
-43
-8
45
12
-22
-24
35
46
-8
-33
-126
1
-29
11
1
2
-33
-2
18
36
25
-8
-35
-24
-24
-13
-25
-59
-58
46
-20
11
7
21
-16
14
30
-80
14
-52
39
-18
37
-27
-22
38
36
-40
25
20
-3
13
41
-13
23
-25
0
-22
46
-18
37
49
19
-3
47
-41
-39
51
5
5
-26
-50
-7
23
-15
35
18
-9
-8
39
-24
9
-18
-89
0
-14
-37
-20
-17
-30
17
-29
5
12
75
-8
-18
21
22
1
-4
-21
-24
13
9
11
-26
-5
9
35
-34
0
-20
29
35
-34
-24
-21
7
16
20
-40
10
-10
-32
8
-38
9
46
31
-31
-4
-17
-38
-18
27
-24
-5
6
-4
-27
17
-43
19
-43
-13
5
6
-30
-3
69
-29
-28
19
-54
30
-15
-29
17
-33
-9
19
-22
14
53
-26
-15
9
-46
8
-20
4
26
30
23
-63
-29
4
35
-28
52
-28
13
-44
-3
4
17
46
-4
-26
2
21
6
-27
-10
-20
33
27
-5
38
-38
12
27
-18
-12
10
5
8
-19
-18
-58
18
14
-21
-10
22
37
23
33
-6
5
-6
6
25
-40
10
11
26
21
6
67
-10
-24
-13
-43
-1
-4
-24
6
-33
-10
14
32
-6
-1
19
5
-38
-14
17
16
8
-1
54
22
-50
62
-28
-7
-17
30
18
-5
4
47
-31
-2
-9
3
7
6
-38
-18
-50
13
0
52
39
-28
-25
28
-16
2
10
20
-17
17
-20
-32
35
-18
-20
127
-2
-39
-12
91
-49
8
35
-23
-41
-42
-21
-60
-6
-6
37
58
0
19
70
-26
-17
33
-42
7
-29
30
9
-12
37
16
-29
-3
14
39
-26
-46
29
-47
-1
3
0
-32
-34
-10
36
-1
32
-18
2
-32
-25
-12
-55
-18
-1
32
15
1
-43
-1
0
-30
-21
-19
-4
38
26
-6
-28
-1
-58
46
4
-2
-19
26
-18
-7
-74
-50
-46
46
-29
72
44
-16
14
23
-10
1
-9
1
4
1
49
11
30
-19
-23
6
28
72
-42
-8
16
-35
-61
29
-26
27
-20
7
26
5
10
26
-10
2
98
0
4
-40
33
-22
20
-28
15
-27
2
13
-12
-5
60
15
-12
-23
23
-18
-5
-34
3
-33
-20
-18
-24
5
-16
87
45
-16
-55
12
-47
-7
39
-3
36
53
-11
-16
17
-33
-13
22
-40
-77
19
-24
-2
93
35
61
9
-10
24
-26
-16
5
15
101
35
56
-38
-12
14
20
52
-24
-19
25
4
-29
-34
3
24
13
-36
9
-24
-58
61
68
-7
-22
-14
8
-14
-68
4
-1
-1
20
-15
37
-6
58
-34
-6
-47
-32
58
22
-84
-24
-10
-18
3
3
86
12
-19
-21
10
-48
1
-42
-60
-33
17
-22
-7
-39
30
23
32
8
-9
-25
9
36
-19
-10
-16
3
19
2
-39
16
-15
5
-8
-21
-42
27
-43
13
19
7
40
16
-49
-9
-16
23
-7
-48
3
-16
9
-3
-45
18
-17
9
-32
9
25
-45
8
69
-38
-2
-31
13
-31
8
29
-30
-2
-4
-9
26
12
9
-78
4
2
41
-8
-14
-3
113
1
-8
-4
-12
-28
-1
-32
-56
25
-5
1
45
38
10
11
15
-1
-41
-19
18
-67
-25
55
-9
7
27
62
58
-11
22
-15
-21
14
-7
-60
-47
-31
-38
-12
33
48
-7
25
41
-24
-6
-36
-31
26
34
-24
2
6
24
-9
-34
3
8
-7
-3
-34
8
-7
10
-6
-2
-15
-37
-19
35
24
8
-2
-14
25
98
10
8
-59
-21
-52
14
-29
-23
-45
16
-15
22
20
-26
78
-45
24
45
-43
-21
-38
-11
-19
-62
-15
-1
-32
8
4
16
27
10
23
-3
32
28
67
-6
-43
15
-13
-71
-6
-35
46
-12
-24
29
78
-33
-47
2
35
-13
-13
-2
11
2
-32
-42
48
-22
66
-3
42
-6
58
-8
-2
115
20
-22
14
20
32
93
35
10
-31
10
12
-39
-19
26
-3
3
4
35
46
-1
-64
-20
-42
-3
-50
-23
30
3
10
-4
14
-13
24
-13
5
33
6
22
25
-17
30
-23
-46
7
-30
26
41
-53
-29
-16
-5
-13
-48
17
-28
-2
-12
-19
61
15
-17
-26
-26
25
-60
11
-18
16
-38
-59
26
58
15
3
-4
-12
-4
-19
11
11
31
-36
1
-23
-14
9
36
-37
-32
12
10
30
11
-42
1
8
-33
19
5
-15
6
-13
0
-40
2
-19
-9
-24
72
-33
52
34
-97
-15
-45
37
0
49
9
-1
-3
-26
-29
-7
-13
-13
-32
4
16
-50
-22
-2
-36
-4
38
-4
-22
70
10
58
36
-19
3
-39
83
-26
-9
10
10
31
48
-35
-16
-38
32
-5
18
-27
-31
-15
14
45
19
6
-32
19
16
-17
37
-38
34
-17
-20
-14
-33
-31
-17
7
-14
49
29
2
8
-11
-14
35
26
-33
-19
44
-59
6
7
103
15
-2
-13
30
18
-4
-18
0
-26
-53
29
-5
55
-35
-39
-9
-16
-2
-42
0
-55
-24
-34
3
39
37
-28
66
26
31
45
1
14
25
9
0
-20
-18
-7
-13
13
-36
34
-17
-33
-52
-10
-22
-15
37
27
-17
37
98
12
6
24
-11
-73
5
-4
-4
-89
-31
-5
72
4
-60
-38
-18
-29
-40
30
-5
-37
-23
50
11
14
-43
-7
-47
-3
11
-33
5
30
-36
-15
-27
72
29
10
-24
-45
-38
-55
70
-25
-12
0
24
29
2
31
9
-16
-66
29
33
-11
5
55
-16
-1
-3
-8
-11
-22
40
11
-40
-31
-25
-16
10
-8
-31
44
18
-47
1
-54
-86
-9
34
-13
-19
28
23
-26
17
-15
44
15
7
12
-19
-31
5
-55
-5
-1
-15
-12
11
9
20
12
20
-6
-3
-59
-11
-38
-23
-25
-6
35
-43
27
26
-26
-13
20
31
3
37
-46
3
62
-21
9
-29
-32
2
-24
15
-35
-33
12
65
26
-9
-19
-8
-21
-10
-12
0
50
-11
58
-27
25
50
-14
-35
-12
25
-27
74
-24
-37
12
-18
-35
-20
16
-17
-95
-26
-26
-15
49
34
-1
7
-23
14
63
13
-30
19
25
19
-3
4
14
-35
-28
-20
-12
20
27
-9
-28
-50
11
7
18
60
-22
12
11
17
-30
-47
-28
24
-34
-48
6
-10
-11
17
21
21
13
35
31
-23
15
49
37
5
21
-13
-48
-5
-34
-40
-22
-32
-1
-27
12
30
51
58
-36
-40
4
1
-39
3
21
14
-27
-8
-28
-5
-14
-30
-24
5
-4
-41
-35
3
-9
17
-33
-47
-16
-1
-55
-32
7
20
4
-13
-1
-15
20
21
10
9
-31
11
8
38
1
26
-21
-12
-17
-7
31
15
19
-21
-26
28
26
25
15
-16
-27
-13
5
-5
30
-11
-3
-10
-35
2
20
10
-6
6
7
6
-1
20
11
16
-28
-15
-11
-3
-31
-30
-36
7
-5
-22
-20
21
-9
61
-47
-32
-7
-29
-39
-22
-3
22
8
3
27
6
21
-4
-24
6
-45
36
-29
9
-62
13
0
2
-33
-29
5
41
-5
-25
3
-11
-19
2
-13
15
-12
19
-25
26
-4
6
-14
-27
9
-7
-3
-25
-40
40
14
-12
-20
19
8
-2
-16
39
-30
-33
-17
-42
9
35
-20
-31
-58
-58
-25
-44
23
-17
9
-12
2
-7
3
-2
-34
30
-11
-45
-69
1
10
-32
38
-42
-14
-3
29
41
-17
-29
0
0
-43
113
18
2
20
127
-43
22
2
-1
5
10
3
-12
98
14
-17
-49
-68
8
-36
-7
-37
11
-19
-46
-56
38
18
19
59
-17
-47
1
4
27
-14
25
56
7
-30
-9
-56
72
-15
-6
1
3
-11
-7
-14
52
12
8
-29
-17
-4
-19
4
-23
6
15
-31
-10
-44
-8
-9
45
5
-3
7
-23
-8
21
-10
-17
-5
-36
-18
-10
-10
40
52
-18
92
20
-19
24
-50
-44
-21
-19
-15
-14
-6
16
4
-15
-1
-30
-4
-4
66
1
8
-17
-17
-2
-42
63
-1
-9
-20
-43
16
18
-26
8
57
8
-21
-3
-31
-26
3
3
8
19
-3
-22
-1
8
13
23
-37
-9
17
32
1
5
13
-9
-61
-40
46
-11
22
-49
-27
44
42
-37
-40
-8
-16
5
-20
-6
4
-21
12
26
-4
-5
30
4
-5
45
14
-44
-19
24
2
8
-15
-6
13
-26
-5
44
17
42
17
-28
16
3
53
-1
4
-19
-13
2
-44
3
-3
-20
6
45
-1
-20
0
-4
-24
-10
78
2
-34
-22
14
-24
11
-46
-5
12
17
20
-33
-3
-31
-30
-21
-28
41
-18
-5
-18
51
26
9
20
20
19
-28
20
16
9
-29
-6
-42
50
28
-19
-41
5
-11
0
35
-1
-11
-24
33
11
-9
2
-3
9
-2
-33
52
4
33
-29
35
13
46
29
11
37
31
22
-38
-43
-6
5
0
-6
-8
0
-19
1
-12
-2
68
-6
8
-19
-34
-4
-30
-15
-25
33
5
-39
22
-7
42
-2
11
15
-36
45
-4
22
69
-19
-29
-27
9
-47
-28
73
1
-2
-27
74
37
-28
-3
2
21
25
15
-9
-7
-30
16
2
24
-21
-4
-48
-2
18
1
-11
27
-24
30
-44
-11
18
13
6
-5
-4
4
-36
-12
-20
-22
-17
13
28
22
-21
-1
68
-2
-24
21
-34
-48
-20
16
-19
-35
-5
-14
3
15
-1
8
-40
26
13
27
9
16
-18
-1
6
-33
-64
-3
-15
40
13
-17
5
-12
-20
-3
3
-11
70
-65
53
32
15
-37
-12
-28
3
7
10
-9
-49
7
51
5
2
22
22
-32
-15
-19
31
-21
-63
56
-19
4
-37
7
11
-4
3
29
-13
-28
-23
-1
-5
-24
1
3
5
-46
55
33
37
12
13
40
19
-25
-17
47
30
2
-22
43
20
17
-56
-12
6
19
-10
13
3
-23
-5
-15
35
-71
40
-19
-15
-30
-11
-3
4
-28
-5
8
7
-11
-34
-39
-17
-3
-11
10
18
-23
28
-10
-43
21
24
-20
-3
5
19
17
-42
-19
24
-41
-70
-26
-27
-9
7
-10
14
8
-35
24
-23
3
-5
-15
29
-24
28
3
5
11
9
12
-10
36
-19
7
43
-8
-13
38
-2
7
21
0
11
3
-30
69
-8
-12
-39
-26
-19
26
-17
30
5
9
24
-19
-7
2
2
16
-56
-17
-16
6
1
-40
-24
26
13
12
-33
-22
-44
22
14
-19
-31
-18
34
16
24
49
0
36
-10
6
11
-50
-18
-32
-18
-41
23
11
-17
2
-20
40
-29
-22
-11
76
-1
-3
-12
37
-39
-42
-32
2
-9
-13
-39
18
-51
-6
22
9
-9
1
13
-4
-28
18
21
-28
-1
3
20
49
20
-15
-41
28
20
-40
-10
37
-1
1
16
49
-1
-31
34
1
-32
-6
7
8
-27
-1
7
-25
-17
1
2
19
-11
-6
39
-13
-34
-26
-49
-29
-21
-11
-14
6
-17
67
40
17
1
2
1
-6
-34
-7
30
26
-5
-14
-15
-4
-1
7
4
-35
-17
-12
9
-3
-20
1
45
46
-37
-13
11
-19
0
-7
-7
23
-34
12
-63
-69
-8
56
-27
6
52
-48
-24
35
-43
41
-46
15
-10
-27
-3
1
-6
10
8
35
1
-40
25
-7
35
-18
-7
-23
-42
52
11
3
9
-3
37
1
-28
27
-9
58
26
16
6
-18
3
9
-22
49
-20
-13
-17
16
40
-40
3
52
54
-42
15
-7
-6
-13
-2
-13
-17
-27
9
-9
28
10
-36
-27
21
68
-13
25
-5
6
47
-9
7
-18
-42
52
10
-27
-7
4
45
42
14
0
-39
-6
-6
7
-27
27
-6
45
-5
5
-12
5
-21
34
-18
-76
-24
23
-22
-6
-7
-10
-33
35
-25
-34
-17
-11
18
2
-3
-50
9
0
-5
14
-40
12
-23
14
-53
13
34
14
-31
51
-1
50
26
-32
52
-5
-9
-13
9
13
15
16
83
19
-18
-3
-15
-11
-24
-13
9
3
26
1
-23
30
28
4
-7
-34
-35
23
-32
27
69
-1
26
-23
32
-4
-9
-5
3
48
-21
-13
10
59
7
0
43
42
-21
13
-1
-19
19
-27
-14
36
-6
17
-14
6
56
-33
-4
42
-18
12
19
-7
-14
0
11
-11
-8
29
-3
7
8
19
6
15
-19
-10
-9
-8
4
-3
-10
-18
14
4
14
1
-9
20
-16
-17
26
-38
12
6
-1
20
5
1
26
2
1
7
-8
-25
-5
-6
5
16
3
7
2
-4
25
7
2
13
18
11
8
-2
1
0
-2
2
9
-12
-9
28
34
4
1
16
39
-7
44
17
11
23
13
0
-12
-4
6
-27
-8
17
-7
-1
8
61
21
3
-1
10
4
9
-2
-20
19
14
19
5
17
7
-1
-5
2
-11
33
-1
-5
22
-13
4
9
-2
8
20
5
-7
-22
20
-8
-12
-5
6
-4
8
17
45
3
32
3
-5
-15
12
-16
6
-10
-4
29
12
29
0
-4
-5
13
-17
-4
-15
-20
3
-14
14
2
1
12
1
15
-11
15
3
3
2
13
8
-2
12
24
-12
3
8
-16
-4
-2
-1
0
5
33
23
16
-15
15
34
-1
-1
2
1
-5
26
-17
-4
-11
0
0
0
0
9
20
12
6
8
-15
-36
8
12
7
-9
1
23
20
11
-9
10
9
9
16
5
4
-6
11
0
9
-2
1
-22
-15
12
18
19
14
12
6
12
-9
-13
-18
16
13
16
-14
6
3
-23
14
5
3
0
19
34
10
-2
17
10
-13
-6
-10
7
-2
7
21
20
-22
-10
-14
-12
19
-2
8
-18
-15
-8
-7
-10
28
4
1
12
-7
-15
-18
12
19
44
21
19
17
12
3
14
12
-25
0
-3
-1
-3
0
-2
-12
4
12
-30
16
-26
32
-14
0
27
-16
15
39
18
3
-1
-6
-5
11
-23
2
5
-3
31
56
10
-11
8
1
-5
-14
-18
40
-2
-20
13
-1
-21
0
20
5
-3
11
15
-11
15
-13
-11
1
-6
14
-19
12
3
-7
14
-22
15
-5
10
19
14
31
-4
-5
-7
-3
6
-46
10
-13
-38
-3
17
13
2
7
-17
22
-6
-29
9
4
8
5
39
7
3
-1
-12
18
18
24
21
8
2
6
6
1
-4
-3
-11
11
3
7
-5
-12
-8
37
-3
-3
5
-15
-1
1
-10
12
15
12
14
49
3
-16
6
-21
-1
12
-15
-9
4
4
-7
4
28
-12
-47
14
5
-10
11
1
-1
-11
-13
-14
-2
-12
8
-2
-6
7
-3
22
11
-11
5
0
-13
2
-2
-26
127
10
-13
18
7
7
49
8
27
-8
16
4
12
-18
-4
16
7
-3
-14
-3
13
-6
7
-13
14
4
-5
-22
-14
-16
12
-3
12
8
11
7
14
16
-4
-30
10
11
-11
-8
8
9
-26
-23
-4
16
-3
0
-15
41
3
10
4
-4
-7
8
26
-21
-9
-17
2
-15
-14
-2
29
-10
-5
1
-9
24
-1
2
6
-11
7
9
-33
-39
10
9
-6
29
11
-1
1
20
-14
7
-7
8
-8
24
14
-19
20
7
-12
-5
-33
5
0
12
4
46
-16
2
-1
-16
-12
-4
5
-1
-11
11
-11
-15
-22
-24
-1
3
-1
-13
21
-10
-14
6
6
15
4
-10
-1
35
8
22
7
6
-17
11
13
-3
7
13
1
11
2
35
-33
-2
19
-15
14
37
-8
19
-20
16
-1
8
2
5
15
15
-1
-10
-15
3
-8
-6
1
6
-21
8
8
29
11
7
14
-10
-20
23
-9
1
7
7
-4
-16
-5
29
11
-11
-13
9
0
16
-8
1
8
-8
8
0
-6
23
-3
38
0
-6
3
-21
-7
10
-10
-8
-2
-26
35
31
19
-35
-1
-15
6
-1
4
-5
8
-3
6
-4
-6
28
-2
-2
-41
18
-1
27
10
50
17
-27
9
17
20
-8
15
26
3
-5
-6
9
-6
-8
-9
-10
-22
-6
-6
52
-5
-3
-2
3
20
13
-4
8
6
17
2
4
20
-7
3
14
-4
-12
8
83
6
17
7
15
-23
-18
24
-3
6
6
26
7
28
20
5
14
11
-16
27
13
18
20
-10
-1
14
2
7
-1
-10
-13
-10
5
12
16
3
12
-4
0
8
20
5
21
-15
69
4
-15
-5
-2
12
-5
8
5
25
4
30
3
-5
-7
22
9
-3
-1
-8
-20
8
8
1
-6
11
-1
9
-2
16
4
11
17
0
5
5
12
5
6
25
-10
-28
-20
10
6
9
7
-4
2
-5
0
16
15
-7
-10
15
65
1
10
29
4
-5
-6
-12
-11
-28
14
-12
6
-11
-2
-23
27
1
-6
17
-17
17
18
-10
-21
3
5
20
-32
15
-1
-19
2
25
18
-11
-23
-25
19
-24
-4
1
0
-12
-9
-3
37
-11
-9
-12
24
6
6
0
7
24
-3
-2
69
17
-4
-11
-13
-14
23
-4
7
-10
14
18
-7
-8
4
7
-19
7
-3
26
-17
-2
-11
38
17
-11
2
8
18
16
19
8
-19
29
-9
-8
1
9
4
7
15
-3
7
-15
-9
-32
7
11
5
-4
-18
12
-19
4
24
10
11
0
-3
19
28
-12
-15
-15
11
14
1
51
-11
-13
14
-3
-21
8
8
4
-4
1
2
31
-11
-27
10
-10
15
21
18
-4
-12
-2
17
17
-7
-4
5
-3
4
1
3
18
4
-15
-10
-15
-6
18
-2
-14
7
6
9
-1
-6
7
6
4
7
16
-18
7
0
-16
15
-7
4
12
2
-7
27
41
13
29
-7
-17
4
10
-18
15
1
-13
7
-5
28
1
-1
-4
18
-5
0
28
1
-1
-31
-14
16
-19
10
26
-3
3
43
13
-3
-30
-22
12
-15
-10
-2
16
8
14
13
-11
2
-12
-6
25
2
-25
10
-19
30
24
85
11
-9
-7
-12
0
8
3
30
28
-9
13
-13
-8
6
-6
12
11
4
-13
28
16
4
-16
-15
0
-14
-2
33
-18
-16
16
13
13
0
5
31
2
16
13
30
6
5
10
-2
4
-17
-22
-16
8
2
-22
16
-15
17
-16
2
15
12
38
-1
-9
13
23
-9
-27
-27
1
-19
6
25
29
-46
39
-28
-26
-37
-18
57
4
4
6
-22
8
24
-41
24
9
-13
-38
-14
-25
13
13
-23
-14
-6
40
-24
11
-41
8
39
-16
-12
9
-25
6
-5
69
-27
5
-14
-24
-18
22
-20
1
16
20
-21
-32
38
-5
38
-13
11
22
-11
-11
-2
-6
11
-7
6
66
-35
13
-28
-32
-27
-21
-56
-15
35
2
-7
-2
19
-4
-57
7
-27
-35
-22
5
-9
17
-3
-46
-43
-14
-5
-28
-22
-4
12
4
-31
-36
-1
-96
25
11
33
-2
-6
25
-4
18
-14
-15
-3
48
-24
-3
73
-7
-13
-1
-17
-9
-14
51
-16
-21
-30
-19
14
-14
5
18
-1
-14
-23
32
-24
-39
3
21
10
-14
-21
15
3
-21
-9
-41
33
-17
-24
9
-18
-25
24
-23
-24
52
-30
-28
25
8
3
-16
-33
21
-22
1
5
20
14
-19
2
13
-24
19
15
36
0
-32
-24
-2
-11
11
-3
-20
-27
-16
9
-22
37
15
-5
12
-22
6
5
-7
2
49
15
13
1
-10
-10
-24
-5
-16
-16
-10
-17
-31
-2
-23
-1
-43
-34
4
-8
17
-23
-18
-27
20
-17
9
-6
46
-19
-10
-2
0
29
-28
-16
-17
-4
-22
8
-41
52
-21
35
-8
-6
-28
-32
1
6
14
-1
-4
20
-55
-7
-44
-36
53
42
-3
-23
24
-34
69
38
-1
-13
-15
-17
-10
-60
8
-11
-4
43
-10
-7
7
-3
50
-28
75
-20
-29
39
-21
-19
-26
-13
-35
-6
16
-2
-29
-14
28
8
24
35
-21
40
-7
19
-58
2
-1
62
-24
5
-23
9
-7
-3
-4
-17
12
20
-61
20
-23
-1
-14
18
-11
-8
30
36
-34
-6
1
-20
-36
10
-19
45
18
55
-17
30
34
30
-27
25
-10
-14
39
-9
12
-11
-10
17
35
-29
22
18
-35
0
-49
-7
11
-32
37
-39
-20
6
-15
-20
-45
-1
-31
-28
-24
-14
39
20
-4
-35
26
-11
-22
16
28
21
14
-3
-21
-20
17
37
37
0
71
37
-23
9
49
-25
-27
13
-24
-19
-17
-1
-13
-25
20
24
-4
-9
83
-5
32
-8
20
16
-36
-36
-34
4
-7
27
6
-36
-18
-64
-8
-41
15
-5
-11
35
54
32
74
-14
47
-3
6
-55
12
-57
46
-34
-32
4
-42
13
-22
-14
-35
15
5
-12
-27
-10
-31
5
1
10
-22
-19
-58
31
-9
-14
-30
7
20
30
-8
-26
-29
13
20
13
-9
0
-41
-7
-2
40
-7
-41
1
5
12
-21
-40
56
-36
21
-42
16
1
-13
-47
38
6
-40
0
-13
-9
12
-4
-36
-14
63
3
-3
-40
16
-3
-7
-29
-7
31
-8
-13
-2
2
-43
29
-35
-25
3
31
10
-18
-1
8
-18
-33
16
-9
24
-22
-1
4
-29
-59
-15
-12
19
-18
37
-10
66
8
-16
-42
-9
-29
54
15
-21
-1
12
-5
16
-43
-3
-30
15
-16
14
15
-35
-31
-38
5
1
19
0
27
2
-17
4
20
-17
5
-13
-10
2
9
4
47
8
6
-34
-3
-23
37
2
-16
10
-54
-5
-13
-41
-17
-54
-24
-37
-5
26
48
-7
28
-34
-6
-47
-6
-40
-29
0
-26
-26
-21
-6
32
-13
-36
10
53
-9
-48
-29
-32
-2
-34
-29
-4
-38
-35
1
-19
-9
-3
-1
-35
15
-54
-9
31
-12
7
-39
21
-14
10
27
9
57
-6
41
-56
-35
-16
1
-50
0
35
52
68
-26
14
-39
-43
-4
-21
-21
34
26
-1
-25
-9
-33
1
-11
19
36
-26
33
0
4
-1
-18
-44
-6
-39
-44
-28
-35
-26
21
-18
-7
92
-39
26
-22
3
-19
15
-25
0
-19
20
11
-35
-43
53
-48
-52
6
1
5
11
-37
6
-37
-21
4
2
-6
-32
-3
-36
13
31
-12
-25
-19
-15
-21
5
-18
-3
16
8
61
4
-24
-32
-16
-16
40
7
-27
-14
-23
-11
-2
13
-21
24
-18
-15
-24
19
3
-35
-15
2
-17
23
-13
25
-12
-12
8
-18
-6
-2
-23
48
3
-38
-33
-14
-15
-10
74
-13
-32
-60
26
-11
-18
-8
-5
6
7
-22
36
-13
3
-4
4
-3
10
27
-34
-33
6
86
-4
-26
-36
0
2
11
-11
-31
8
-7
-27
12
-2
-28
17
-1
38
-25
-10
14
42
13
-10
-8
-1
-31
-6
-2
-13
-20
13
-3
4
-28
7
13
-2
-12
3
-10
5
-8
-34
1
-22
4
-8
-19
1
-36
15
25
-11
-12
5
8
4
-14
-5
3
-26
64
16
0
-12
-38
7
17
25
-22
4
-16
-9
-9
9
-6
-20
95
17
-7
-3
36
-18
9
-18
-7
-3
-1
-14
-10
-8
27
-55
4
33
-16
-24
24
-21
-23
18
-5
-6
-5
-11
17
127
-5
-12
-38
-30
-19
-23
-12
-25
-10
24
36
-12
3
-2
-35
21
-21
-43
42
3
-45
53
37
-25
32
-8
16
-3
3
16
-35
37
4
-49
-15
-28
-36
11
-11
-12
-7
66
-26
-35
24
-2
-17
9
-3
-15
12
-22
-12
-12
10
17
3
8
8
0
-20
-19
-34
-20
1
-41
-40
-77
-33
13
-11
6
-23
3
40
15
11
-27
-14
-1
2
-18
-20
-7
72
-33
-31
-28
-13
-35
-24
27
7
-4
11
-27
39
-57
-3
-1
-6
16
16
-11
-20
-43
-10
-27
-59
27
68
-3
3
26
26
6
-34
3
11
-7
11
-11
30
-18
-28
31
-33
80
-48
-9
-48
-13
28
44
-6
-19
4
22
-40
19
2
-8
-2
-14
82
-31
-36
-18
63
-2
-9
-31
-27
17
-26
26
-23
-19
-19
-10
-23
-17
7
18
22
-21
-61
31
-41
7
7
-1
20
-45
3
4
-31
-18
4
18
6
-10
-8
18
-10
29
1
22
-40
-34
-22
-11
-6
9
22
-7
-34
-23
-14
-9
-29
-23
-14
3
41
13
-8
-3
5
21
-12
-26
-25
6
-19
-12
1
-53
-3
-20
-4
-16
16
-10
-13
-4
-24
-39
33
19
16
-34
-23
18
4
-8
16
31
17
5
-41
34
18
4
38
-2
12
5
5
35
-15
7
-24
18
49
-6
4
-2
19
-20
13
54
-24
14
4
1
7
-19
71
71
16
13
8
14
-1
-18
-17
7
34
13
8
7
17
37
-26
24
27
11
35
-12
28
16
-3
-13
-3
11
-4
7
-21
41
16
-4
1
38
-5
-1
29
-1
-34
-3
-15
39
22
3
-8
-29
5
21
17
-5
37
17
46
-9
6
-13
-2
25
24
11
30
-9
8
13
-2
38
21
14
-6
52
11
7
56
-12
14
12
-4
-6
25
6
4
2
5
-34
4
4
-1
-2
22
43
-7
7
-57
11
8
8
-5
-6
28
6
-21
33
61
4
-10
51
9
-15
-10
-49
-3
2
-1
-12
-10
26
7
-2
24
-1
-8
32
-11
-9
-35
-23
2
-44
-12
15
23
23
-5
-26
42
-36
-2
2
4
9
24
-25
-8
-5
12
66
-8
19
2
52
-1
35
-4
-10
-10
14
14
6
74
94
-44
-9
-20
8
13
81
-23
32
-23
42
3
34
22
13
3
21
31
-14
41
-18
12
-18
-8
-26
2
15
-2
3
-5
-1
26
42
28
8
15
12
37
6
-19
12
3
-12
27
-31
-36
54
4
-36
13
-6
15
-2
46
-4
13
-7
1
-10
14
8
28
18
16
-35
4
-6
-6
10
14
7
-20
-29
8
0
-48
33
14
7
32
3
2
-16
33
-69
8
-6
42
-8
-1
-6
-6
-38
-6
-27
-22
-14
1
-11
-4
18
-21
21
-11
13
-61
-25
33
-52
37
-10
-28
-9
-9
-13
30
-4
-1
-10
10
-17
25
-8
-42
24
-18
0
23
-13
19
-19
17
29
9
-10
-4
-12
15
-31
18
-5
-7
10
8
22
1
-3
-4
-39
-5
5
33
-4
-11
23
-10
-1
-24
5
12
-16
-2
16
-46
4
23
6
-18
22
-15
-13
-43
6
-8
5
20
13
-25
-33
53
-13
16
-20
36
13
-12
38
10
-17
-14
-14
11
5
-4
-9
20
-14
23
-30
-10
-29
-21
-21
-13
0
2
-7
24
-5
-8
-11
14
5
11
-3
-21
-21
-7
-16
-74
-17
28
-7
-10
-8
-12
-5
-1
4
8
9
0
9
-53
5
-7
-22
3
-22
3
2
70
0
-86
-21
0
-7
27
14
6
17
-40
-15
-21
25
-16
-31
81
-8
-3
6
4
7
-11
35
17
11
-3
19
-9
-34
-58
-10
7
29
4
34
-13
5
31
-9
-19
-36
41
-17
-26
-12
-31
15
-8
-1
4
19
22
-1
-20
-21
1
-9
-27
40
-1
-41
-10
-9
-30
6
-2
30
-10
18
25
64
-12
-16
20
-30
9
-2
-3
-15
15
1
2
-13
3
24
19
19
6
3
13
9
-25
-6
-36
-30
-21
-38
-33
-27
6
-18
-4
-21
-8
64
-45
-50
2
4
1
1
31
23
-11
-9
-13
40
-2
5
-14
-4
14
-13
2
-15
9
10
-2
-1
8
-53
-5
-42
-4
-29
24
-14
-4
39
11
21
10
24
-30
11
36
27
32
52
-8
-21
-9
-26
-6
127
28
-8
-18
-30
-14
-11
14
4
-14
-31
-1
-3
-8
-10
-8
-27
-24
15
-33
-13
36
56
20
-6
9
-3
37
29
8
31
14
-11
-17
-26
12
-4
35
-13
22
-36
-26
-4
5
-15
-41
7
25
8
2
12
-24
20
-15
1
-3
-10
16
-23
10
30
16
-36
-23
-18
5
-9
-29
2
-3
14
-3
-19
15
21
38
33
28
13
5
30
23
10
31
-20
28
69
26
8
-1
-21
81
-10
-19
-48
14
-6
-14
40
-4
-4
-25
2
5
12
8
-42
26
-28
-6
-7
7
-15
24
9
-18
3
12
3
24
-24
7
1
13
-5
4
-7
-12
4
0
-4
20
19
-29
38
10
2
9
19
-42
36
-11
-8
31
-12
-17
36
38
-18
59
5
33
-74
-37
26
-34
22
21
-1
-7
-13
2
-24
-15
27
2
35
10
6
49
19
27
-1
-7
-30
-13
-6
-2
-30
-25
-7
-31
-53
6
9
-9
-15
-21
9
17
8
1
13
40
0
45
-18
35
9
-16
-31
-31
4
-15
28
22
16
-15
-22
-12
-6
35
-40
26
8
20
-18
4
13
22
42
35
0
-5
-10
11
-23
-4
16
18
11
-24
-9
26
30
-40
8
6
-4
-11
-7
5
9
-8
30
-43
-5
-15
39
-15
49
17
-15
13
43
1
-2
-5
-1
6
-9
85
12
0
-13
-15
12
35
-30
13
12
10
-9
-13
-39
-3
-28
-5
8
-9
31
25
-8
8
-3
-5
8
26
59
-13
-1
40
-4
34
-8
-16
5
0
12
27
55
-6
30
3
1
6
-9
18
-6
9
9
-11
53
8
-25
33
-3
12
-24
-10
-30
11
-5
-11
-24
45
6
-21
-31
15
96
-26
3
8
-6
-13
5
11
2
-25
27
53
15
-3
55
6
10
51
-1
-9
1
10
63
-1
-13
-18
-15
3
16
58
15
-22
-20
2
-19
20
1
-14
-24
2
-33
17
-20
3
-5
33
25
-10
33
20
18
16
8
-42
-4
37
26
10
11
34
31
22
11
12
29
0
-3
-1
-24
44
-3
-6
9
-16
7
28
22
18
-22
13
10
-17
-17
3
-13
19
-25
22
47
16
-27
28
-20
-3
59
-2
1
31
18
21
102
31
-21
15
-24
-11
25
7
-17
-8
8
23
18
-9
0
0
-6
-13
2
-5
-9
3
15
7
11
6
37
-38
44
16
28
33
4
22
-70
-4
14
-2
11
-5
23
9
-97
47
-13
49
19
-4
4
10
-13
10
-5
-7
-6
-5
18
-30
-23
-10
-40
38
-6
-4
-4
-27
57
42
-9
26
-20
-1
-7
-9
51
-12
12
5
-4
15
-16
-28
-21
11
1
24
-6
-15
-17
16
-1
1
-32
20
-13
-22
6
12
10
-1
26
10
21
19
33
-6
-12
57
-19
-2
10
6
22
22
-8
37
16
-8
8
-33
-14
-2
10
6
3
-19
37
-37
-21
-1
37
-15
-4
-19
-12
-35
-30
-12
-4
-27
-16
-22
30
-6
3
33
-22
3
-12
-19
-1
-50
-16
-20
-22
20
-16
-37
18
-1
8
-21
-8
-22
31
70
-12
-9
-5
-5
-8
42
56
14
8
-33
3
37
-17
-18
-11
-12
-14
-19
-10
20
-19
-6
-19
-3
5
-18
-25
-14
1
-11
-17
6
19
-15
13
-32
3
28
-2
-10
8
-21
-20
17
8
0
-17
-17
8
-6
12
-22
-43
46
-22
26
-20
29
5
-7
-18
39
-1
-21
-6
26
-5
-8
-16
-1
-4
64
-10
-2
52
27
4
-6
-21
5
-13
14
-13
-18
15
2
-13
-7
10
8
-27
-2
-8
75
-27
-4
-29
-19
-38
-28
-24
-6
1
16
-28
-45
3
-32
-11
4
5
-8
-4
18
1
7
-7
-17
3
-14
10
-33
25
34
17
-38
21
1
8
5
22
40
-10
7
19
1
19
-28
24
-6
10
-23
-18
18
10
3
-24
11
-9
-19
-15
-18
4
-30
20
2
8
-6
25
-7
-29
-25
10
-16
11
-17
-45
-9
-15
-13
18
-9
20
-2
0
-37
-17
-21
15
-1
-11
4
-9
8
8
-19
-24
-2
12
-4
5
23
-13
-23
6
-54
17
-5
20
7
33
-1
-15
-1
-7
-28
-11
-37
1
10
5
-40
-30
-2
11
28
14
-4
7
-20
-29
-42
14
-41
3
-43
-1
-34
-11
25
-21
29
-7
-21
-17
13
-18
0
19
17
-25
42
27
-5
23
0
20
-69
-13
-25
-30
108
28
-6
-7
-10
-25
2
-26
-30
-9
2
-24
5
-24
-1
-10
49
36
-22
-17
-10
17
14
0
1
-29
-10
12
1
-19
-20
3
7
-31
17
14
-15
-2
22
4
-4
-9
-34
33
-10
25
-16
-10
-4
-39
-26
-18
5
-2
-32
42
61
-2
-24
-30
2
-12
8
-18
-9
-9
-49
0
-4
-39
10
-6
-26
-15
-7
9
-10
1
28
-17
-17
40
-8
-17
-18
-20
14
-23
30
19
-32
-29
29
23
-39
7
22
-3
-5
-13
-4
-40
15
26
-3
9
-44
-4
-29
-20
64
8
16
-8
-36
-17
-2
38
-14
13
36
-40
26
-35
-18
-1
7
30
-27
-2
-40
-9
-39
-25
-5
34
-15
-8
5
-8
-24
-8
-9
-19
0
13
1
13
-20
-36
93
81
38
11
-15
11
30
-10
-16
18
-28
-20
39
3
10
-24
-6
-4
-39
-15
-3
6
-9
-32
-21
-30
-32
30
-25
29
29
-12
-22
25
-1
12
-31
58
16
-36
-29
19
1
-45
-8
-8
-38
-17
22
15
-3
-35
20
-6
-4
-6
-42
-16
23
-13
-14
15
-33
0
-14
-35
-17
-10
7
-14
-10
-14
-15
19
7
31
-17
-11
-24
11
-21
-10
14
-11
-5
-1
-28
-14
-5
-18
42
0
-41
-9
-58
-13
-13
-16
17
12
13
71
-4
19
-29
-16
-32
-17
-45
10
-8
2
11
16
-4
11
21
73
-21
22
7
-17
12
-3
-17
-7
-17
-7
-13
16
-12
22
0
9
2
-30
-21
-21
76
-8
28
25
-1
28
26
12
-17
-4
16
1
14
-6
9
-4
33
16
23
-21
1
0
-4
-5
0
-23
-20
9
-8
-10
15
57
6
12
-17
31
-40
3
45
-17
33
25
-23
-25
7
-16
-19
-19
-25
-16
61
38
-40
-5
7
-3
-26
-20
8
-13
10
10
12
49
-34
-4
10
-24
-24
16
-27
-15
-4
-10
15
12
-8
-1
4
38
23
16
63
-8
-24
25
-31
-21
18
-15
2
-17
8
-1
26
-30
-14
-30
-17
-9
2
-57
-3
20
28
-1
-16
3
-19
12
11
84
9
12
-6
-22
53
10
-22
1
-48
-39
-9
-33
17
13
-25
-22
-73
28
37
-37
0
-15
-23
-19
116
2
-6
-48
-3
-1
37
-31
-10
17
37
3
-6
-16
6
-28
-20
-21
28
-26
-39
-26
2
-40
24
6
32
33
-18
-78
-1
-32
19
15
17
73
-12
15
-9
13
21
-17
-8
-27
-51
2
7
-10
38
27
-20
-15
46
-5
52
-4
-13
-26
-13
30
-9
-40
-16
-8
2
-17
43
-12
16
35
-71
-17
-16
-3
-21
-21
-26
-27
-10
-3
-33
-32
-5
17
13
24
6
-18
12
127
-17
38
-10
-6
-1
13
18
-17
-26
-9
5
23
7
4
14
-4
23
-11
-8
19
-1
-2
7
-48
5
10
-4
11
11
-39
-16
6
-10
-14
-31
0
0
-10
5
-20
-13
2
12
9
-5
-11
-23
33
-3
-3
-20
11
6
-14
12
16
48
0
13
12
15
58
2
6
-18
-11
-26
16
-17
3
4
7
-21
6
-28
-28
12
7
-9
25
52
7
-27
-9
-5
12
20
20
-15
15
47
-48
0
-7
2
13
57
-23
-9
-14
-12
40
34
-2
81
-16
9
11
37
21
-47
-51
-45
8
-21
14
-4
-14
94
-44
2
26
-64
5
-2
2
10
4
1
22
-30
40
-18
-1
13
-19
-48
-9
-12
26
-2
10
0
34
-33
19
3
-21
-18
-17
32
-17
7
11
-12
-21
5
19
-32
-21
-7
-1
-11
-2
-7
23
-25
16
-15
-21
25
20
5
-13
-6
-13
12
-6
-10
-14
10
53
-1
-2
-13
-15
-9
-1
-1
27
11
-18
5
17
6
-1
8
-19
48
-44
72
13
-13
5
-5
-27
-3
-21
-13
-38
-7
-12
-22
-33
-21
12
-48
-7
-24
17
-24
-13
18
-16
-32
8
9
-15
-33
-6
-1
8
7
-24
3
-17
-16
-2
-24
-20
-19
-12
-8
-8
-28
3
34
12
19
-3
-4
79
-2
-19
17
-3
-45
-11
2
-1
-18
21
6
-24
-36
4
-66
-14
-24
-7
6
-12
6
16
28
41
4
-23
4
1
-18
38
-40
-71
-22
-16
-20
-22
-13
-22
-12
4
-1
-1
-43
4
-33
8
-2
-12
-1
-6
10
-21
-16
-13
-10
21
-2
5
20
-27
1
12
2
-11
-22
35
-1
7
-8
15
-26
-18
-33
9
2
-22
65
25
-4
6
-46
-34
-18
20
5
-17
-48
-27
-7
15
-19
4
-30
16
9
-19
4
6
-29
30
21
3
-14
32
46
-11
-25
13
-27
-24
-38
-7
-26
-5
41
-32
-27
-12
-8
22
1
25
-4
-50
6
-24
-32
-22
0
45
-50
4
-17
-15
19
-19
-35
-17
-37
-40
-24
7
13
1
51
32
-47
-5
10
-15
-12
8
-18
-22
8
-40
-16
31
37
25
-16
9
21
-22
8
17
11
10
-2
-18
-22
7
-9
-12
-7
-34
-32
35
7
52
-23
-2
-29
60
-7
29
-9
22
-7
-29
31
-27
-7
53
-26
-10
7
16
14
-45
11
5
3
40
-6
-25
-60
-10
2
-31
56
-22
-17
20
-16
17
8
-26
-11
-61
4
-13
-5
51
7
17
-34
-14
5
8
-13
-15
-12
-6
-23
-12
-12
-2
-35
36
-6
-26
-4
-18
79
8
16
-9
27
85
-6
-24
-6
-5
5
-39
8
102
-25
32
-7
-27
-8
42
-45
-32
-11
25
19
16
-7
-5
5
18
23
22
6
29
31
-10
-5
4
-50
2
-46
42
-4
-22
-15
-25
-3
9
-29
-20
2
-37
-23
-3
-26
4
35
-2
-6
-12
-10
55
13
-30
-40
18
3
32
-11
21
-26
4
-34
48
-25
-2
22
4
-14
-10
-30
-10
2
-11
38
4
98
-25
35
-9
5
15
11
-9
28
30
55
-14
-32
49
5
8
6
-22
-8
-59
-17
55
-11
-6
17
4
9
-10
4
-32
51
-14
25
-31
8
17
11
17
-7
-37
-25
-47
3
-13
20
-5
34
-8
41
2
-55
5
-32
25
-37
-27
14
30
-30
5
6
-8
10
-7
-36
-7
-2
-2
-3
13
7
35
5
-32
54
25
-8
-9
-31
5
-33
11
-33
10
28
-28
9
-14
8
29
-8
-4
18
-1
-11
9
-7
37
-48
-33
-6
-6
-38
18
7
-44
-21
-1
0
-5
125
-27
50
21
-10
-16
-64
-6
4
-27
1
9
-28
5
11
-21
10
-34
-20
-16
3
78
6
22
1
16
36
-33
-24
25
6
-8
68
-8
-4
-30
10
20
-17
8
-9
-8
-4
-46
-6
-11
-11
25
-6
-39
11
39
-3
-22
-11
-33
-22
-30
-1
-12
23
-12
-9
56
24
-28
-15
9
-5
9
32
0
-10
-12
-30
-14
-38
-28
-24
15
7
-18
14
-53
20
-43
-37
-23
11
-24
52
-46
0
-7
-39
-4
-12
-10
30
-40
-35
-30
-12
25
9
-89
38
15
0
26
20
33
-8
12
12
31
18
11
-22
55
74
-19
-24
8
50
-20
-18
-11
-4
44
-11
15
18
78
0
-7
-31
10
57
-11
-39
-3
37
40
-19
22
63
-4
73
17
19
-43
26
27
-22
-17
-9
-25
-10
16
-43
8
-6
-11
-7
-24
17
22
-19
25
19
-40
2
-11
-12
-11
-34
-15
-26
14
11
48
52
41
-8
-20
-51
-17
-36
13
-3
-45
-14
-4
-59
2
-4
-9
-1
6
31
99
-26
27
-38
-11
-32
-4
12
-43
-14
-11
70
-58
-59
6
22
-34
-21
34
26
27
-5
23
12
-3
-6
2
-22
8
-41
-9
13
5
15
17
24
-33
-17
-17
5
28
8
-51
-17
-75
15
1
-2
-17
-10
-17
50
-39
-19
6
34
-21
5
-13
-38
34
-11
-6
9
-10
-17
-16
-20
-23
29
6
-12
45
-22
-28
-55
-23
-8
28
22
-12
27
-27
-31
-16
-2
-10
-38
28
0
47
13
-22
13
-51
-6
1
-3
-10
-4
111
-18
29
127
4
6
31
66
3
30
-9
6
-31
2
26
-15
-7
16
59
-14
21
-61
33
31
-17
-9
14
-52
-25
28
35
-24
-43
-27
-51
-27
46
-15
22
-2
69
-16
-30
-20
-19
-1
-26
-12
3
25
-17
-1
30
-25
-4
18
69
-21
-14
-33
-13
47
-9
-22
7
32
6
33
4
-14
37
-39
11
-69
1
-7
-28
7
40
-14
34
1
-64
28
2
-17
7
-14
24
-2
36
10
-23
-10
3
8
3
21
11
-55
36
-22
-7
25
-1
0
21
1
-3
-31
17
4
-16
-20
17
-12
12
-36
0
4
-22
47
27
6
23
0
-8
29
32
-35
34
-20
26
-6
3
71
-18
-42
-9
-20
-24
-38
25
-60
12
-16
-26
23
-16
44
5
-29
20
-5
-15
21
3
-15
-19
-29
-29
-5
-47
-10
-5
-13
-8
23
36
-52
21
-34
-5
-37
-5
-9
-22
-6
14
-14
7
-41
-12
-33
-31
33
6
-1
-22
-7
58
21
0
-20
-25
-54
-4
13
-28
-9
-15
11
43
22
-32
-20
-9
-22
-31
-19
10
14
-33
120
-24
5
-7
-36
24
-24
34
-8
-21
-54
24
30
-12
-15
35
-4
-44
-48
22
-42
15
-14
-2
-41
-32
-9
-13
-17
-5
20
34
39
-11
-21
-42
6
8
-58
-2
33
13
-25
-21
-42
-32
19
-43
0
27
29
10
-1
4
96
-1
25
64
45
3
14
-14
16
-55
13
-32
-25
6
-7
53
-42
-42
-21
-31
-20
-12
-16
-16
-24
22
-17
-71
-10
8
2
1
-34
1
-6
-7
-4
-90
0
-43
15
-23
11
-15
-14
-45
-35
-13
24
1
15
-15
-25
3
42
-50
1
38
5
96
6
12
-18
-20
17
-5
-8
-30
-4
18
16
10
-4
-46
-45
-11
-32
9
7
52
-30
27
-19
-32
-52
30
-16
15
-39
36
-20
-15
-4
-2
0
40
8
32
-8
9
-48
-3
8
-27
14
5
-36
-11
-24
4
-24
-10
-10
-47
-5
9
-25
10
27
-24
-18
-17
-10
20
-4
-23
15
2
4
-7
2
-51
26
11
-17
1
8
27
26
-8
50
6
-5
-27
3
31
-23
-8
7
-5
-13
34
44
4
-18
36
-18
-16
-9
20
17
23
66
2
6
-11
-2
-29
29
25
44
13
34
10
7
13
-23
48
28
-36
34
-18
-13
-13
4
26
-4
-25
10
-17
-8
20
24
36
-11
-11
30
4
-3
-57
15
-12
-11
-6
-18
0
-21
-35
42
-23
-6
-32
6
-18
10
-13
-9
4
-34
-15
-5
2
65
-12
-3
19
-1
32
17
-25
-1
-1
-6
1
27
-5
-1
-19
-54
-12
-37
-24
5
13
-38
-5
1
32
23
-17
55
1
-20
-3
-56
63
-12
-10
-4
-32
-1
-54
-35
41
33
9
10
38
6
32
-26
55
1
29
-53
28
36
47
-29
103
14
-17
-14
29
18
29
-33
-10
12
4
6
-11
32
24
5
28
4
59
54
-7
-20
-16
25
-36
29
14
11
-23
18
58
10
46
-13
76
15
-12
-24
33
37
51
43
-14
-35
-17
2
-1
8
-23
24
-22
11
-32
6
3
-27
18
-11
57
-17
-4
-11
-19
-8
77
-39
-10
33
-19
-33
-28
12
-15
59
5
-8
-9
-7
2
4
-6
-52
31
35
14
-1
-24
-4
50
-3
-77
4
10
5
-30
-8
18
-4
-10
8
-9
-56
-47
-35
2
5
12
9
64
-92
-32
25
-13
-23
-37
-15
6
-41
4
-9
19
21
-53
32
20
20
-35
13
6
-5
54
-7
-16
4
-27
14
-8
-15
-29
-6
-25
-30
4
-7
14
-14
9
9
-11
-33
8
34
2
-32
-22
-36
19
2
5
-19
37
-8
-5
-50
-24
-11
-18
13
12
21
19
13
-25
59
1
36
-1
28
31
34
-26
0
4
21
1
13
58
14
-25
-13
-19
-14
-2
-14
8
88
-19
13
-17
28
-46
37
-28
54
27
30
10
-31
-33
23
2
-4
-28
-25
-53
28
24
-36
12
1
-28
33
-31
22
25
-8
-20
25
14
-4
7
27
-23
22
-27
55
59
-12
9
-7
1
1
10
0
-33
0
-9
73
57
-41
23
16
29
-15
20
8
-26
-8
-10
-1
15
-25
-14
-6
19
-14
8
5
76
7
7
40
14
9
18
2
-47
-12
-29
-19
12
-43
19
-14
-8
-47
-3
-26
5
-1
6
-2
-17
-26
21
-2
-19
32
58
-6
51
17
-19
-14
39
-3
-4
-36
12
-4
-35
-25
-32
-19
-20
-12
19
16
6
-3
-16
13
-23
18
-20
-45
-5
36
-26
4
72
46
-24
-39
-5
-5
-3
19
8
7
-17
-30
11
15
14
-26
-7
-9
-17
-1
24
33
-14
19
-35
7
36
85
33
-26
43
19
28
17
18
-11
-2
7
-12
48
-9
-23
69
36
-13
9
33
25
-26
-77
2
29
37
29
-31
19
37
36
-19
4
-20
-1
43
23
-28
-27
15
-33
14
20
5
24
-13
-108
26
-6
-46
39
16
2
1
17
26
-3
10
7
-22
19
56
33
64
-23
1
51
-24
40
-2
-21
29
38
-12
8
5
19
7
-20
24
-38
-30
-5
-28
12
22
14
-18
-6
6
3
2
32
-29
-6
15
-4
15
18
-47
20
-5
-27
-36
15
-40
19
20
55
50
-22
76
-23
-26
-17
6
19
-2
50
-49
-15
-27
-1
33
-13
15
3
-28
2
26
-2
-20
4
15
3
7
4
-1
24
13
6
30
23
-5
63
14
-23
8
18
-50
21
55
-2
-8
-9
-6
-10
-20
21
-6
-23
81
-20
-2
28
-15
7
30
-13
-18
-38
43
35
1
67
4
23
-36
-58
-8
3
9
-16
-13
-13
-44
-24
21
3
10
6
47
-6
36
16
-11
24
-6
31
-68
14
3
43
10
-3
4
39
26
-25
-24
-4
10
2
28
1
43
-33
-25
37
-23
-18
-29
22
-88
12
20
-2
-19
2
-29
-36
-7
-33
-23
-24
-28
-43
31
30
4
-9
-12
1
3
-52
52
-21
-5
14
5
-12
-35
-19
-6
-19
29
31
-18
25
20
2
-3
17
13
-3
-15
16
18
68
-4
-58
10
2
-8
10
3
18
-23
-30
-15
-20
5
-13
-8
-12
-37
33
35
-18
127
43
-3
-38
11
-7
6
-27
46
-15
19
2
5
-11
-16
10
-10
-14
17
63
10
21
39
-21
-19
5
-43
-18
-9
56
44
-26
38
-9
-38
29
-31
16
43
-9
3
-54
-44
-31
2
-6
-14
24
-14
-3
31
-22
-15
31
-12
-40
27
-21
36
42
43
19
-79
-6
67
-16
-14
0
15
-5
-18
41
-18
40
-29
-15
27
-24
-8
11
-8
29
29
-2
2
37
-7
-16
-20
-38
4
37
27
6
-14
4
13
12
-31
-36
51
-8
-10
2
3
64
-17
3
-10
7
21
32
11
14
-13
33
43
11
36
-4
43
50
39
-5
-27
17
-19
-1
-19
21
-5
-3
-5
-48
-1
-25
18
0
14
-14
-27
12
-14
29
-10
-23
25
5
21
-1
-8
-3
9
1
-29
-8
8
26
-23
12
5
-32
-13
0
41
-10
6
1
-1
-38
-22
2
-1
-6
7
11
3
-4
-60
0
7
-8
-34
38
-5
-20
-18
-4
-1
6
-2
-21
-27
-5
24
-7
-12
28
-20
23
-32
32
-12
-24
-10
26
-6
10
10
29
14
-27
68
20
29
27
-52
-24
-9
-2
-37
26
-35
-6
8
-3
-3
9
15
3
34
18
36
53
1
60
36
3
-2
-18
-45
21
48
-29
-20
57
11
-19
-14
32
-10
34
-46
-33
-37
-29
23
-11
-12
-4
3
-6
5
-4
-27
24
-5
-30
21
-25
-16
1
-31
28
58
-6
-13
-8
44
5
-59
-14
-10
2
11
7
5
-24
-7
3
-25
-24
2
-32
-11
22
13
-12
17
74
-25
-9
10
35
7
1
18
-5
-1
-35
25
-6
-2
12
16
-11
-3
15
-8
19
-44
17
-33
-2
8
-15
-21
4
-26
3
2
-18
-7
-24
10
-3
-9
70
-1
19
-71
-12
13
23
21
-20
0
-3
-38
10
-14
-9
-18
-25
11
13
8
22
24
42
-1
34
-15
11
-22
11
24
-30
28
-27
-29
-19
-3
-13
-53
23
-10
-17
-18
-7
-26
4
114
-1
24
26
-5
26
38
-5
-24
26
-56
17
4
5
-16
13
29
14
0
11
-36
33
-55
15
-30
-9
-19
-28
8
19
-25
-15
13
61
43
-11
-2
-24
30
8
-16
-10
15
20
29
17
4
14
14
22
-7
-19
-36
27
14
27
29
3
-24
-3
2
30
42
13
38
18
0
-39
-39
52
21
73
32
29
9
20
-13
-8
13
-45
-60
-6
16
-20
2
-25
-15
-30
0
8
-19
-10
-39
-21
-1
-7
0
24
13
10
-8
-3
-15
-4
1
2
27
25
3
12
5
-31
-6
21
-10
12
5
-2
-20
-11
-15
14
27
-9
29
-38
-18
5
27
-10
26
5
-17
31
15
0
16
25
-1
-2
11
-35
40
16
-37
-21
-33
-25
5
-12
-3
-5
-8
4
-12
-25
-22
11
-17
-27
7
2
6
14
2
4
34
-24
8
-8
9
-2
4
-14
-21
-12
-43
-2
-16
-15
-29
-4
-16
34
41
13
-2
-11
3
-11
-6
6
1
34
-22
-14
15
-3
-25
-5
-12
-9
16
-8
-15
9
16
15
42
1
10
1
8
15
25
-19
-15
62
3
6
-16
-24
3
-38
3
8
21
-9
-4
10
27
6
-18
39
-9
44
-10
-5
10
18
-3
18
-9
-3
36
-14
2
43
-19
30
-8
-11
-30
-19
17
-21
-2
-18
-1
12
-1
5
33
2
6
2
-2
6
22
10
5
0
33
-32
-7
-23
5
-8
-3
5
3
-8
-8
41
-15
20
-11
-7
-4
-9
-43
-25
-29
3
4
20
32
-30
-9
-3
-2
22
2
14
-4
-7
31
-7
16
34
-1
21
-9
-20
14
-33
-3
24
4
27
11
13
-21
16
3
1
6
-13
38
4
-2
-32
3
-13
1
0
-3
-2
-14
-6
-19
-10
-21
11
-14
2
18
16
9
-6
37
-3
-14
-41
-6
-7
41
-5
16
-1
-35
-8
-22
-4
5
3
2
-13
-10
9
13
12
4
-21
-12
-10
5
-3
29
-2
21
3
30
15
-6
14
-13
12
-3
-16
-20
8
-3
9
-7
12
-33
-27
-19
-4
-2
9
-3
-12
22
6
5
20
10
-7
21
-38
-3
-31
-2
6
-31
4
33
-14
-5
4
21
19
-24
33
-2
-14
8
20
31
3
-20
11
7
-40
-18
-19
-14
-7
20
-2
-39
-6
-8
10
-17
17
17
14
1
9
9
42
25
11
-8
33
12
-10
-19
-13
-2
-3
-3
-9
-4
17
18
-16
22
-3
-5
-7
27
11
15
-3
1
-18
-28
-4
78
127
-25
11
5
-18
-9
-8
11
18
-8
12
-23
7
11
-11
-19
13
-30
-8
13
2
-9
23
-9
28
-19
6
17
14
-10
32
1
0
-21
-11
-10
7
16
-3
6
0
0
-40
-10
-19
5
37
-5
-11
4
0
-9
56
13
-1
12
9
-13
13
-30
-4
2
-6
5
-23
-15
-20
-18
-24
-14
30
6
-15
-16
5
3
-1
8
16
23
-5
2
11
-7
-7
19
-24
-4
30
-2
-2
0
39
10
2
28
-8
-30
-15
30
9
15
-8
6
-18
-4
66
6
-5
0
4
-8
6
1
0
-27
6
-24
6
32
-26
3
-4
-5
5
25
-8
24
28
-1
-14
-7
3
-15
4
12
33
-3
8
14
26
5
-19
-7
10
30
-8
-8
33
-18
1
-1
5
-10
-13
-4
5
-4
8
4
-13
22
-2
-15
-6
-18
-2
-11
-17
-17
7
-13
-20
7
-2
40
-28
14
24
-8
26
-18
-14
-10
16
2
6
-36
-34
-9
18
55
3
-15
14
16
-18
99
-24
-3
-14
-16
-5
2
-36
-20
4
-11
-1
-2
21
-15
29
6
-1
-14
-2
3
-24
-20
-16
-3
-4
-10
-7
-6
-15
-12
-2
-28
13
-8
2
29
-20
1
11
-28
28
30
1
-11
-1
-20
-29
3
8
9
-7
-19
-14
8
7
-28
-27
19
-6
-24
11
41
0
1
51
-10
-3
9
-33
-18
12
-13
-51
25
36
30
6
42
16
-35
-25
-15
18
19
-6
6
-29
9
-11
5
0
-3
-1
-11
3
10
7
21
0
-7
1
9
-14
-14
12
-7
-5
34
3
-12
21
17
7
4
0
25
-1
11
2
17
-12
-3
4
-3
-2
23
5
45
13
9
1
7
9
11
-22
0
28
11
5
-9
-4
19
21
-5
1
29
6
-13
0
23
-4
-14
-3
-1
8
2
-33
5
21
10
38
-2
-20
17
4
20
2
4
-3
5
15
34
19
-24
-9
-17
4
2
-14
23
24
6
-23
8
32
15
28
21
0
16
-9
-14
5
-13
4
17
1
-16
9
11
9
30
-6
-9
-12
-1
-1
13
-6
-1
-25
5
12
-18
18
3
8
6
24
-29
-3
-3
4
8
6
3
11
3
-18
27
39
9
32
1
-9
3
11
16
-18
22
21
-18
-14
-11
4
1
-39
19
27
-16
-18
-16
22
22
0
22
-20
-17
37
13
-39
-3
-5
1
18
9
-14
-4
34
-8
19
-17
16
18
-30
-15
-18
16
12
-21
-40
-27
8
-28
-1
-11
9
51
2
-4
0
-3
-6
4
-14
8
-4
-2
-26
33
22
24
-26
-1
2
14
4
-30
19
-10
-5
19
17
14
-14
15
15
-12
7
-23
-28
-3
-5
5
3
4
4
7
17
8
31
7
6
1
-5
11
21
15
19
-12
23
-11
32
-20
35
5
-2
-2
-6
-27
-11
-7
-4
-9
27
6
-15
-17
16
-19
-4
7
2
48
0
19
10
-13
-9
28
-15
-2
-3
-17
-15
-4
23
12
-20
-2
1
45
18
-2
27
5
43
-6
9
-8
23
20
-2
27
-3
-9
18
9
-12
-17
32
35
13
-3
-14
-3
4
20
-15
-54
-17
4
-31
-2
-27
8
11
8
-28
-4
0
2
-2
-9
8
15
-6
5
-14
-2
3
26
-4
18
31
3
-6
13
35
-26
-8
6
-36
0
-6
5
-8
-12
-10
-7
-5
-18
4
12
19
4
27
-7
-20
-20
-10
-1
22
25
-18
-11
35
-19
-3
-2
-36
-28
3
8
18
13
-11
25
-43
2
23
-9
-4
22
-25
-10
5
-13
30
-9
-23
-7
-50
-16
-29
22
-1
-20
18
-3
-10
-10
-11
-14
-10
-14
3
-9
24
-9
16
13
-2
-2
-7
-3
-16
-13
4
-4
0
18
7
-10
14
0
20
-7
-21
-9
41
-37
-3
-5
-12
-22
2
1
-14
17
13
12
1
37
2
-10
-13
-19
40
38
7
-18
-46
-6
-46
11
29
7
-27
10
14
-4
-18
14
3
3
11
-20
19
-20
-1
-7
-15
-5
-5
2
-41
-36
-15
-11
-18
16
-30
8
29
-1
-5
-10
-7
-4
-23
10
-19
19
-9
-17
-32
-28
-11
1
-17
-23
8
-10
-29
10
-44
20
30
-5
3
3
-17
-20
-5
4
-1
-6
5
7
-8
-5
8
-3
12
-2
4
-1
-22
-12
-12
-32
-16
18
3
35
-27
35
2
-12
-17
7
1
-14
-8
-25
11
-24
3
-37
13
24
-5
-3
21
-13
4
-4
8
-2
-39
-14
-3
43
-32
-15
-17
4
-16
10
-25
12
-7
7
-3
-3
8
23
4
-6
-3
15
-23
-4
33
-13
-4
-7
-23
-5
-1
-15
-20
-11
31
4
-24
-4
-46
20
-13
48
-12
-5
20
13
7
-21
-26
-18
-18
6
30
2
-13
-19
10
19
23
1
-22
6
-20
3
24
23
-7
-52
-4
-40
-20
-17
8
8
-24
-17
16
-3
20
-28
-8
-35
0
-7
-24
-8
8
-3
-9
6
-10
-12
-13
-12
3
50
-3
7
-2
34
-18
5
5
-27
6
10
-6
20
-5
-1
-20
-11
11
-10
-9
11
-14
21
-5
28
-18
-30
-2
10
18
-13
-2
7
-19
-3
19
5
9
-33
6
-23
-6
12
32
-4
-6
-11
4
0
-3
-13
-7
-27
39
-8
3
1
14
-20
-1
35
7
3
12
-7
-23
-12
-21
17
-6
-10
5
-3
-21
-22
-20
42
21
-8
-29
19
-16
10
20
26
7
-16
-9
-13
18
4
9
3
12
-14
-5
-25
5
0
-20
4
2
-19
8
-21
-14
-15
20
-15
-47
-13
-21
-2
13
10
-3
13
4
31
-14
61
-5
-8
-27
11
0
-9
15
7
-30
6
-5
-13
116
-46
1
-9
2
-8
49
2
-5
5
4
-12
19
-11
26
-46
-24
-14
15
8
-23
3
2
-6
3
-2
-15
-4
-14
0
20
-6
-2
-18
0
-5
-9
17
-31
6
-30
-6
2
3
3
13
1
18
14
-9
-7
1
10
43
8
5
-9
26
-17
-3
-27
15
-4
-20
-43
-3
-15
-6
-25
22
7
3
9
-10
-7
-8
-28
-2
-14
19
-8
-3
18
-30
-3
5
-49
-23
-11
0
-10
1
-3
3
-19
-9
4
-16
0
35
-1
-25
-3
-12
-6
-8
-8
0
-19
-20
21
-7
6
6
3
-9
-4
6
35
-44
6
0
-6
-1
-5
23
27
-2
-9
3
-32
-16
-11
15
-29
7
-12
5
-11
-7
-17
4
1
7
-24
-7
-17
7
2
12
10
-13
15
-16
20
19
22
31
-20
-6
-14
28
-8
3
-2
74
14
0
-26
22
-1
5
-28
-20
16
5
13
3
-1
-13
-6
-22
-11
-24
-2
3
-7
-9
3
-6
-24
-16
-3
2
-42
0
-3
-5
5
9
-38
36
4
-7
-14
39
-9
-32
-7
-4
-2
0
15
-4
54
47
-11
-6
26
-28
13
-12
12
-15
26
-8
-6
-29
-30
26
-3
10
2
16
-25
1
25
12
-2
-3
11
3
28
19
-9
14
-16
-11
16
-30
-19
-25
-16
9
-4
-3
24
66
5
11
-20
-4
-5
18
-6
-13
38
20
-1
-9
26
19
-11
-4
-4
23
23
-36
18
-7
1
-16
-5
-17
2
17
-26
-4
-13
-24
8
-8
28
-2
0
8
-22
-9
-10
-20
4
22
22
-3
-11
-6
0
17
29
-8
-1
19
6
-36
-6
14
26
-10
-8
-29
-12
18
-21
-47
-5
6
-14
1
-9
-3
-14
-14
22
9
16
15
2
2
-2
3
-10
-8
6
-13
-6
3
-25
-4
0
-4
-9
20
7
20
-30
-19
35
-14
23
-4
-11
-21
1
26
2
1
25
29
1
-10
-6
-4
9
27
12
-15
-3
14
17
-31
3
-10
-20
-9
9
17
4
27
-20
28
-21
-5
-1
-2
17
-29
24
-1
-21
2
33
-20
-8
7
-10
-6
-3
-15
2
-15
-14
-28
4
11
-7
9
-1
-16
-16
19
1
-4
2
21
28
17
-14
-7
-4
8
-13
18
-7
20
-13
10
-7
19
-5
7
6
-15
-1
-19
8
15
-4
-8
20
2
-13
-20
-33
-41
16
-15
-16
-11
15
-9
-1
-1
3
32
-9
-3
-6
-20
-9
10
27
0
-11
5
-16
20
-29
7
4
0
-7
-5
-19
-7
3
-27
11
-10
-14
24
-7
12
15
-19
-2
-49
-24
-19
-5
2
-18
10
-23
-6
-5
-19
-13
-20
-11
24
-1
6
6
17
3
1
0
-31
18
-6
3
-13
4
30
-18
5
0
-11
-12
-4
-8
-11
-18
-3
-4
1
-18
-2
-2
8
-6
-2
4
17
-6
14
-28
-21
28
18
10
-3
8
14
-9
-28
-26
5
16
-23
-9
-13
-12
-4
0
5
-16
-13
7
9
4
-18
1
-27
-22
29
-31
16
-8
35
3
-9
-4
13
5
-19
47
-1
-11
-35
1
6
-20
-9
-14
-3
31
-7
13
-17
2
26
-12
127
-6
-18
4
22
-1
46
47
-10
-7
31
-1
-17
-18
-7
22
26
-9
-7
-14
6
6
-16
-4
-13
-13
5
22
2
-19
17
-16
8
14
37
-2
-3
31
-5
-18
-5
-18
-6
-4
9
-14
4
-16
-1
4
16
-3
-7
13
14
19
18
-10
-19
-2
-23
-18
0
20
20
-7
20
8
3
4
12
18
-5
-1
5
-8
-29
-31
-6
10
-15
-1
10
-5
-15
10
16
-4
-10
13
12
-15
14
-14
9
-5
-12
-1
18
-12
-31
-17
1
14
20
10
14
13
-8
2
1
9
25
-9
-15
-18
-6
37
12
11
-29
-30
-3
-8
17
-19
-25
-2
2
-30
-20
-12
25
5
6
13
-8
1
-38
5
16
-5
-7
-25
15
10
-5
1
20
0
-17
-41
10
4
13
-7
16
-24
3
1
4
2
7
1
5
7
4
0
5
-7
32
0
1
7
0
-4
-28
-16
9
2
-6
4
22
-20
-16
-20
-12
33
-10
-13
4
0
-7
10
-5
5
9
-10
-12
-5
7
1
41
37
10
-10
45
10
-24
-8
35
4
26
24
-7
28
3
-1
7
6
-40
2
-26
10
27
10
-22
30
-16
-34
-7
-30
-5
28
-6
-17
4
-51
-23
-19
2
32
37
10
-49
3
-37
73
7
-44
82
-16
-38
-34
-19
-32
2
57
66
0
71
7
-21
18
31
-22
-21
-85
-14
13
-75
14
-3
8
22
52
-23
-62
-39
-30
15
14
14
-39
-4
-22
4
47
-37
-73
-35
26
32
37
-22
-8
-12
-28
-63
21
-56
17
25
-40
51
-1
-68
47
-4
1
23
-32
-16
14
-21
-39
-47
-18
28
7
-6
-44
-22
-14
8
-4
-31
-21
35
-18
-20
17
-9
54
44
42
-41
4
6
37
-19
-10
-38
14
-55
-3
-65
9
-24
64
46
6
46
-26
-14
22
1
59
52
34
58
15
-26
45
-70
-48
-12
-27
-27
26
-30
-19
12
89
-35
30
-19
50
-21
-46
2
66
16
-25
49
-34
18
22
-57
-57
24
7
-53
-1
-38
-26
-28
30
4
-5
2
-64
34
16
-45
-36
-41
-13
47
7
-49
43
12
-29
-75
-18
-33
-51
34
15
5
43
-2
-15
-16
23
-4
-46
52
-18
-5
-11
20
-28
-19
-46
37
65
27
38
-26
-15
11
3
40
-13
12
-25
3
-45
-19
-18
-12
23
-21
25
6
76
-22
5
-35
-23
59
-65
-7
-14
-15
-13
-6
-10
-9
-11
-57
21
-21
-93
-56
37
-7
7
-11
-52
-41
-76
45
16
-20
43
1
-25
8
-6
14
-18
56
10
27
-25
106
12
-37
-20
29
26
-1
-5
1
18
21
10
8
53
37
-21
39
-40
-37
-28
-39
6
43
18
-32
33
-20
46
19
33
21
-7
2
41
29
-7
14
23
-49
5
17
29
-9
-20
-38
38
19
-3
20
-35
-39
-68
-45
-9
-52
-9
34
-15
-3
37
43
-21
-12
-10
-11
28
-80
-9
31
-39
15
18
28
-26
9
-66
-17
17
31
-11
49
4
3
-55
-35
-46
18
-29
7
40
53
-46
14
-90
61
-14
13
9
-5
66
68
-5
-30
-21
-13
46
21
9
-18
18
64
20
-3
-16
2
-11
-36
43
-44
-46
68
49
-18
-11
-28
-21
81
36
13
13
-25
-34
-11
-93
56
13
19
43
8
48
15
-10
-58
7
-9
-63
20
26
-4
-24
-22
3
14
-44
-19
14
75
-18
-9
-30
20
65
-13
10
1
-34
-36
-2
-55
3
-8
24
17
16
36
-22
37
18
-45
-14
9
39
2
-25
-55
-53
52
-10
-1
69
-36
-13
-12
41
5
-20
-39
14
4
55
32
34
-14
85
-58
-42
-66
7
-9
-33
2
31
-11
-42
67
-37
10
-59
89
-3
-25
-61
-14
-39
-3
15
-88
1
3
31
-23
19
15
64
7
-40
-30
8
-25
57
-33
-17
3
-58
26
-52
-39
9
18
-35
23
-127
45
-20
43
70
-3
40
11
59
-4
13
3
-48
-27
-43
127
-7
-1
-31
-7
66
-14
-67
57
-51
-4
60
69
-22
-114
-23
-8
12
-50
-10
-31
27
11
42
-7
-27
22
31
-32
-16
-12
15
-2
-36
50
14
44
10
-34
12
-5
22
7
0
12
-12
7
-15
5
-7
25
-44
74
-19
-35
-33
71
-15
14
18
16
24
-16
-19
-29
25
-53
11
24
-44
4
-21
44
-20
88
-1
43
-15
-14
-26
-28
-103
-3
50
-55
-17
87
-17
-4
-15
-46
-28
24
-17
-7
-47
17
-52
-25
18
-7
19
5
9
1
66
26
-35
-27
28
-3
11
-41
-22
15
-64
5
-15
4
-23
27
-9
15
50
34
-77
16
-37
-41
-1
91
35
-35
0
28
101
7
13
-1
-40
26
-86
47
-5
30
9
-13
-50
25
11
7
-21
16
8
-39
-24
-17
-41
-1
21
49
-13
22
56
32
-2
-37
-43
2
28
17
-15
7
-42
4
-23
10
-17
-21
21
-90
13
-17
28
29
-106
-19
-11
-11
-40
9
4
-13
-17
-29
-18
21
93
-2
-10
-16
56
1
3
23
-32
-5
1
-2
-26
21
-37
38
-29
-1
-33
-19
22
45
-4
-61
-23
-12
-17
-12
3
-52
-30
-40
20
6
-20
0
-68
26
-5
-47
-22
43
15
7
43
1
-21
-34
-14
20
-3
-19
21
22
5
-20
11
4
9
1
24
-24
68
-62
-47
-9
63
-23
-19
-17
-37
-8
8
34
15
22
37
-19
1
5
30
24
53
25
-17
-42
-31
18
-2
14
15
-33
57
30
-1
32
-8
45
3
-17
-13
-12
-7
19
-9
-25
-86
44
-61
24
41
-18
-19
54
38
-59
-18
-15
40
-19
-2
34
11
-6
18
-8
-37
-72
7
-13
35
0
-1
18
15
19
79
33
-4
0
1
-73
-64
7
3
19
33
16
-6
-12
-37
-16
11
38
-44
16
-13
-16
77
26
6
-58
-31
-26
16
-15
-38
-29
-71
-2
-23
-7
-100
17
38
-17
6
6
-60
-23
-13
68
69
-13
39
23
-20
21
9
-23
37
-32
-41
-46
-19
50
51
-5
10
-14
-8
-38
39
-19
0
-25
-65
-51
8
-55
29
-18
3
-23
17
-17
-13
-10
1
7
-27
-34
-8
-21
-4
-31
-28
45
-4
5
3
5
8
46
-26
-29
38
-22
-10
42
-27
-24
-3
-1
-59
19
17
91
26
28
18
23
-14
-8
19
54
28
-6
33
0
-5
-38
28
-9
-6
-3
24
-7
15
-12
14
-41
-28
45
23
-35
-8
2
-25
-46
8
-26
-60
65
48
-29
-52
-22
21
7
-53
32
23
-24
-36
-8
76
-36
38
-23
36
36
-14
26
71
-35
-34
25
12
30
-28
-17
-60
12
-53
-12
-28
22
-51
38
-11
3
21
-16
-32
90
-15
36
-20
-28
-16
3
7
-46
-41
2
-25
-11
0
15
5
-7
107
-60
-19
-7
49
-51
-61
33
6
4
-15
-10
-21
-27
-25
-7
26
-74
65
-38
-17
46
4
50
-56
11
-40
9
-8
5
-26
-7
13
-38
-63
-23
8
-23
-59
-21
2
62
28
-20
45
24
9
-64
29
16
-65
19
33
-13
6
-26
-14
-6
-14
-33
8
-25
-80
-21
3
17
64
33
-30
5
-16
-20
-9
-8
9
-6
20
91
-38
-20
-42
25
-17
-7
20
-2
-36
-5
-61
14
9
9
6
-41
-2
-47
14
-9
10
-33
-48
-17
78
32
-26
-30
-46
-21
30
5
1
-21
11
-9
21
18
-30
-11
29
44
11
18
-25
-40
-26
9
95
3
22
10
-37
27
-7
19
-16
-1
-22
-21
41
-28
-40
36
8
-32
8
5
14
-37
-57
24
-35
-19
-7
10
53
-53
-17
-19
24
9
-2
5
-12
-14
-89
47
24
1
-20
-14
-59
-57
-7
17
-11
3
-30
59
-44
-30
-5
8
-38
-28
-62
1
54
-23
25
24
11
11
-6
-69
-1
-49
-38
42
-37
7
-27
-22
35
31
-16
-32
-1
11
-56
32
8
-20
19
-51
3
30
-51
-6
44
-13
27
16
-35
-84
23
13
30
-13
-5
-19
48
7
-12
15
-6
-10
-23
17
-10
-65
12
82
-1
-16
-35
15
-7
9
7
-3
33
13
36
111
21
38
-9
-3
-43
-4
-4
-5
-10
9
-103
90
20
27
20
-25
-5
47
46
-51
31
-4
15
27
0
1
12
20
-13
6
-68
-89
-34
-22
10
-7
15
-63
-8
12
2
-22
55
-48
-63
1
1
9
-16
-46
40
-27
12
15
-41
4
-27
76
-55
-28
31
-51
-59
22
-27
-18
-22
-70
-48
17
-55
-42
28
-1
127
-1
-13
-53
-32
53
-6
25
-45
-30
-1
-28
-49
-14
11
108
-7
-8
-39
25
-28
-7
-29
-5
-58
-22
0
7
-6
40
-34
-1
-39
-27
-17
-10
68
-39
-11
-2
-26
7
11
-22
-18
69
77
32
32
-1
27
-32
5
22
-8
-4
-51
40
50
-16
-4
40
-30
63
-22
11
78
19
-35
-22
-22
25
6
-55
1
-18
-9
-28
-25
7
42
39
-87
11
-50
-46
-17
-14
44
-68
13
-35
-1
26
-45
-25
-26
-45
-13
-45
-66
37
-11
-3
-6
37
-9
35
23
14
14
-21
32
-57
-7
9
-24
3
-49
-51
0
-40
-24
-27
7
25
0
17
-28
-37
-14
37
20
4
-28
-42
0
0
-10
-36
-43
-14
-18
19
-12
11
50
-37
4
-16
-13
-3
-13
86
6
-10
63
22
41
5
10
0
-4
-32
-34
-25
61
-32
13
2
-31
8
-21
-27
-18
-46
33
-47
-37
-26
17
47
-27
34
24
87
42
11
67
-40
-41
15
-70
55
-45
4
-7
-23
-6
-23
38
-24
43
-22
-6
-2
-79
-43
-53
-32
4
-10
59
4
3
14
87
-103
11
15
-21
-26
-37
-36
-1
-22
83
38
1
45
-30
-25
-26
-40
-65
-31
-17
-9
16
-4
-21
-8
67
5
21
73
16
-24
10
19
15
36
-17
-17
-7
-23
-5
19
-39
7
-76
-34
-28
9
-35
23
-30
34
-68
33
-6
33
-43
10
35
50
22
-28
35
-13
6
26
27
-16
-61
93
-26
-47
-11
-29
-10
-26
-22
4
9
-7
34
39
-19
63
-2
-34
12
-55
11
-2
39
-3
-16
3
34
4
56
-52
38
-24
10
55
-44
42
32
-6
-20
25
-29
0
-2
-38
34
36
-17
10
1
-8
48
25
7
78
-15
-49
-24
-64
-42
17
-4
14
35
28
64
74
23
-45
-12
-22
15
20
-11
-53
13
11
-51
31
-34
-16
48
-6
75
9
58
56
-41
-40
-10
23
2
-43
29
-21
1
-12
-29
-27
32
32
-3
-6
-52
-34
-13
8
0
22
14
-73
-48
-18
-43
-29
-1
-12
45
-9
-27
-1
-5
-15
-35
30
-19
19
-9
-37
50
-1
59
-4
-37
-30
29
40
-46
52
26
6
-91
-5
32
-44
2
18
-10
36
46
-46
-49
-34
42
13
-18
-62
-22
-30
3
5
-53
28
-28
-49
21
11
-20
-28
-11
108
-35
-40
13
7
-70
-76
32
18
-26
8
0
-38
-9
-51
-6
18
20
-5
6
42
-31
-17
-14
26
65
-13
-11
-70
-7
-28
32
13
46
-17
-24
-33
-48
13
21
-18
-4
102
-29
-18
-4
-13
-3
13
9
29
-102
-79
6
-49
2
-27
-7
-33
26
-15
49
10
-9
0
-9
-24
19
-2
5
15
9
69
104
26
10
-11
49
19
-21
-61
13
17
-11
-27
15
26
-23
-12
-45
31
26
24
-6
-24
4
4
-53
-34
7
-33
55
15
2
-17
32
-20
-18
15
18
-41
-6
-82
-1
-38
-5
-18
34
-20
32
17
-27
-6
-22
-32
-22
-26
-50
-47
-39
-1
-41
44
-21
-51
-2
-11
20
32
41
-14
30
22
94
6
-1
11
49
22
-11
-22
10
25
2
-22
-23
-39
-49
-17
-9
4
49
13
-11
58
-7
-2
41
-46
4
68
1
-27
29
-25
61
-39
-32
-12
-11
-40
-29
-23
-2
-28
16
2
41
16
19
-19
-17
11
-30
-27
2
-22
6
-19
15
-16
-37
-42
-9
9
-44
-37
-53
-55
-46
14
15
-65
-4
29
-13
-13
-45
1
-25
12
-1
-18
19
19
8
-17
-24
-5
-30
-31
40
-30
10
10
-8
24
-15
-37
-50
-5
4
-2
18
-16
-1
-38
-12
67
28
-18
-35
-39
9
68
14
-5
-29
-27
-39
2
-18
1
-9
33
3
3
-16
26
-13
-66
1
9
24
88
-18
-10
-21
25
54
13
-56
5
52
-36
16
29
-7
-80
1
-7
-60
-27
-4
2
13
-7
5
52
18
76
-20
25
-7
-35
-13
-39
-27
11
-34
-25
-12
-68
-8
-36
-63
25
-11
-33
9
2
-25
-10
19
-49
-32
-4
29
8
3
-2
-22
1
23
-24
-7
-39
47
-32
6
-19
-14
15
-20
-8
-19
18
-35
-22
21
-30
-2
-7
47
-50
-67
-45
-74
-31
-27
-33
4
64
33
-1
-9
3
-45
39
21
-15
-2
-51
-15
74
100
-6
6
-42
-15
-76
-21
21
-20
-36
-25
-2
-35
0
-40
-1
-29
3
45
56
-26
49
-39
-24
-22
4
18
20
19
-27
-12
-1
-57
-3
-36
15
-35
-52
42
-42
25
-38
6
-2
-3
35
41
-25
74
39
19
-2
1
-17
-26
-57
-11
6
-12
-13
-16
-8
-84
-25
25
82
39
-30
11
-24
23
20
8
-31
-15
-1
-9
28
1
-11
-5
-31
-42
3
11
9
22
7
43
-64
-44
-13
9
9
16
-34
35
-6
-47
-19
-6
17
-13
-20
2
-12
-56
-9
7
27
-9
18
-20
-10
-1
7
10
-36
-55
-24
3
3
47
-1
-14
19
4
-24
-19
9
37
1
18
-29
10
-14
-24
19
-34
-15
8
-29
21
-13
-20
-4
-8
19
14
-25
-1
37
-38
-54
-14
-17
6
11
1
-33
-71
15
-53
-19
-7
-49
20
14
18
-29
-15
2
-53
17
11
-4
16
-4
1
3
0
12
-4
-24
-18
2
11
4
23
-18
-26
-21
1
-56
-8
-3
-42
-56
8
-5
48
11
-12
-6
11
-16
-4
11
-17
-20
-11
13
44
-20
24
-22
7
-7
8
30
-22
-56
-37
33
-4
3
39
-14
-7
30
7
-12
16
-34
-4
39
2
10
-46
23
-21
-18
27
3
7
-8
6
-3
13
14
-14
29
-57
2
-29
-20
2
-10
-26
7
-8
-64
9
34
-22
-22
-65
-34
20
17
-24
24
38
48
-40
-49
-11
-9
-17
8
-10
26
8
-15
11
-19
6
-21
-16
18
28
23
-37
24
31
12
-5
-41
-17
-27
-14
35
-41
-26
-35
-32
4
-5
-23
-2
7
-5
-15
-26
23
54
-14
37
-40
13
12
29
40
46
-47
33
60
-12
-10
18
0
37
-11
34
-13
-2
-55
-55
-26
9
-3
-16
-7
25
5
-26
6
6
-16
-34
56
-10
-4
-43
49
-19
-31
-5
-40
42
6
22
-1
-5
-17
29
31
-4
19
-27
-35
-21
12
3
2
-13
28
-3
13
19
18
-24
17
-21
-43
48
33
-6
89
11
5
-19
40
24
26
7
20
34
-18
28
-28
-46
33
8
-37
-25
16
-21
25
9
9
32
-37
-34
1
62
1
13
19
33
-38
-3
8
3
-23
18
-16
2
28
-42
17
-13
-1
-17
27
-37
83
94
-14
-15
-18
63
1
-9
8
-11
-11
-25
14
-12
-42
23
-20
-38
-12
21
23
-40
3
-56
-45
19
19
-9
-6
-48
16
-40
-19
-21
28
-12
-28
-4
13
1
8
-21
26
-44
-43
13
-13
28
13
-15
13
-38
-15
16
-4
-12
-39
-49
-7
3
29
-14
-9
-2
1
-31
27
41
27
13
35
19
16
-50
36
4
-11
-32
-41
7
8
49
49
-24
-30
0
-16
24
6
-6
38
18
45
-7
-31
-8
-74
1
15
-69
-16
12
-24
-50
-16
30
21
13
-34
24
17
53
10
-29
33
69
-6
24
-12
21
22
41
22
-59
-17
25
-9
16
-3
26
14
-22
-6
6
-5
6
-23
-3
0
34
-60
30
-13
-54
19
5
-17
-26
-80
-15
-14
35
-30
4
24
38
38
2
-8
6
-32
-34
-27
3
-39
-10
-13
22
-2
68
-3
-30
-51
9
-31
-26
-6
-18
26
-16
14
-23
24
13
14
-15
-17
20
19
-26
-3
-26
-4
-26
21
25
-5
-5
-19
-13
40
7
6
15
-6
-5
22
14
12
21
-11
-7
30
30
-9
29
-17
-2
-5
7
8
-22
-33
23
47
-11
-35
-17
-19
-30
60
27
39
-5
-36
18
23
75
8
-17
-11
17
-45
-1
-11
-18
15
60
19
13
4
2
-17
-18
0
26
28
2
48
25
-53
-7
-6
32
3
26
29
1
8
16
16
-20
-18
-1
27
15
6
15
-18
-29
-39
74
-1
17
13
9
-26
22
-6
-26
-8
-22
-16
29
31
17
21
18
31
12
21
20
-22
44
-27
-21
17
-14
-22
-6
12
8
0
3
0
17
-46
-24
4
-6
2
-3
-21
-3
6
-8
9
30
22
-20
-25
-32
-12
-25
9
-2
-1
-13
25
34
-52
38
2
-29
-22
5
-62
-36
21
48
-14
34
22
12
-11
-21
50
-15
10
-4
-22
-2
46
15
22
4
25
-35
33
-21
-4
0
21
10
-27
8
33
-31
0
-35
29
-27
1
-26
98
-22
-67
-4
40
28
-13
8
-34
-33
-1
-65
-12
-3
14
-30
-5
-39
-33
-12
-32
-12
14
19
10
61
-20
1
0
-2
36
-13
-5
-2
-17
-20
-18
-32
-4
19
30
-12
19
30
-17
11
8
24
3
-12
-14
1
8
-18
11
-33
9
-7
-30
23
2
40
54
27
3
8
-15
-1
16
-34
-32
127
-8
-13
-25
-23
8
-45
-16
-7
-22
-10
32
1
20
9
-66
9
26
15
-5
-53
0
6
53
11
49
14
62
-46
32
-39
11
-4
1
-14
16
18
1
21
13
24
-16
-5
-32
18
13
-9
-22
-14
13
37
-10
-54
9
-7
-38
47
-25
32
22
-21
9
-18
3
38
-17
7
-4
-36
-23
11
9
-6
21
-16
9
31
-8
-13
-23
-5
2
3
12
26
-9
-11
-7
5
25
-21
6
-17
32
-1
8
34
-18
-53
-40
24
-23
-29
14
-24
-20
21
51
36
-26
43
12
-10
-4
2
27
-7
-56
-40
36
-31
27
108
30
-19
-15
65
-2
6
-14
-9
-20
32
-25
33
-36
-4
-73
39
2
0
36
12
-11
-19
-37
-22
4
18
69
14
2
22
16
-15
31
-37
7
37
-12
24
-26
24
-21
-4
43
-12
-12
-15
0
2
-17
9
-26
27
-24
18
-12
-39
0
-10
51
23
-5
-21
6
-5
15
-7
-41
-20
27
-13
-30
14
0
20
-58
3
-11
1
-41
16
26
-1
20
-11
6
-6
2
23
20
-30
10
-47
13
43
-9
33
27
-4
-10
-7
-12
15
-9
-8
-10
3
37
53
26
3
-6
18
4
-78
52
3
5
-32
-45
-50
5
-24
-40
-17
-24
-37
-38
-41
2
-10
30
-30
-12
27
44
3
-10
-32
-46
-21
-31
-13
-23
-19
-9
-17
25
20
-10
-35
-47
0
22
0
34
-10
44
-14
-33
-15
16
8
-12
50
-18
-2
-6
10
42
14
-9
-20
-17
-3
-6
8
-33
-28
-36
-4
-23
49
30
-1
4
22
-26
-26
-5
-33
14
28
-11
1
20
-25
16
-28
-39
-20
-24
-9
-29
4
-17
50
20
3
-37
-4
40
10
33
6
-14
9
24
16
-9
29
29
32
-55
4
-31
13
14
5
-26
60
-19
-31
-14
0
54
30
-1
-9
84
9
-23
-19
8
-51
7
12
28
26
15
3
-23
-12
-19
37
-18
5
7
-25
7
-44
-2
-9
0
29
-25
5
-10
13
19
-43
0
8
5
27
10
-14
-1
-24
-42
-4
-5
18
9
41
15
12
-6
-4
17
13
-41
-23
7
-6
-9
-3
-13
4
-22
-10
-11
-37
-19
-5
31
-10
1
-16
30
-20
68
-14
11
-1
34
20
-5
12
-13
13
-24
-4
-43
23
-1
20
30
44
-27
13
-9
-30
-30
-12
-36
31
5
-10
13
-11
-27
-23
35
-10
-23
-20
-13
16
-31
-14
-22
21
5
62
24
-22
67
11
10
-41
-29
12
31
13
-33
19
-10
-56
-24
-22
33
-68
16
17
16
10
33
-1
-12
-2
38
12
13
65
6
4
14
13
0
-7
-38
-36
0
-58
-25
-9
21
55
31
-23
27
45
-31
40
-11
-26
15
28
7
50
-25
6
-10
-18
-5
-5
44
1
10
-10
21
42
-9
33
30
34
-10
-10
-18
18
55
12
-2
-19
-52
27
-5
-22
-27
24
25
5
-30
-17
5
-28
15
26
24
-19
-58
-43
-23
34
-32
10
-14
-19
48
-17
10
-30
-16
-39
-5
-34
-9
-5
-19
22
-30
-6
-24
-1
1
28
24
-3
-47
17
22
13
22
-13
41
22
-32
1
-40
-4
9
-19
-10
-20
-23
-17
-27
-46
-22
12
9
-1
-12
41
-10
22
-24
10
-11
4
-20
-20
-3
-9
-26
2
4
-14
-4
-35
-19
-10
54
-6
7
-16
-16
14
-8
-16
-12
33
-2
2
13
-23
-33
-26
-10
-50
41
-33
-6
29
-22
22
27
127
50
-15
8
-28
-23
-21
4
-16
21
0
-1
8
-38
18
10
5
24
-24
-29
-27
8
55
-24
-7
-44
29
-19
-34
-13
-37
60
-24
2
-14
-2
12
15
-30
8
-20
13
-4
44
-21
9
-17
-18
-19
28
35
-20
-35
-50
-13
-11
-12
30
-42
56
-31
-18
48
-14
-47
21
-34
24
-32
19
15
-53
-1
-50
-4
85
0
15
-31
96
-49
-4
34
-18
33
-8
50
13
26
12
1
10
-61
1
4
-15
3
26
-15
19
-72
-11
-3
17
27
-4
3
37
-30
25
-24
-7
0
13
11
-34
-29
26
26
37
-14
102
-6
48
-44
0
30
7
21
1
-64
-37
79
-12
1
-4
4
18
-23
-13
3
11
-23
4
19
32
-9
7
-12
8
59
-26
-24
-25
13
-16
27
-21
30
-8
-64
11
-3
9
-15
-16
-19
1
-44
-28
-1
24
22
-5
-7
18
8
6
0
-7
-29
-11
0
-5
10
10
8
-9
-7
18
-20
54
18
-25
3
-2
14
-25
-4
-27
-21
-13
-19
4
-34
5
6
-13
-60
45
10
1
-19
-7
-19
29
40
45
-13
-12
12
0
13
-15
0
-8
2
-59
-2
-24
8
23
-29
-20
-7
25
-12
13
-2
-3
1
-31
32
9
12
59
38
0
18
7
2
-2
-11
4
8
-2
-3
7
6
-15
-1
27
15
-32
-2
2
20
-12
-18
32
5
-16
26
-8
-56
8
-4
32
-26
-14
-28
71
-11
31
37
-8
17
-21
48
35
-13
14
6
13
38
-13
-50
-2
-28
-28
5
70
0
-14
-34
-1
5
-7
82
-1
40
26
-31
10
-69
-19
7
-25
4
12
-18
7
-6
12
-15
6
-7
11
7
62
-54
21
43
34
2
13
8
-5
-36
-8
-24
46
6
-29
28
12
14
-11
-25
-5
-23
15
71
59
-19
3
-3
-52
11
-11
71
-5
3
-21
-42
21
11
58
-7
15
23
6
0
20
16
-6
-15
5
33
6
-23
-25
29
-11
0
21
-1
37
26
23
-14
-1
3
-9
60
5
34
-3
20
3
2
-9
-4
4
-3
14
-26
-17
-2
-29
-18
67
10
-32
-34
-23
33
-36
28
-11
-20
-26
24
6
11
8
45
42
20
10
49
-18
0
16
-1
-27
-2
-52
-5
25
25
-44
-33
-3
-2
20
34
-4
-8
-3
20
1
-6
-5
-3
-5
10
79
-23
36
-16
-43
19
-2
27
-18
-5
-25
36
-6
21
15
27
-11
-13
-20
13
-1
-7
5
-64
8
-56
-27
-16
-16
-38
48
6
-21
12
7
12
31
-1
84
-2
-12
-7
-4
-12
-9
-16
10
-20
-8
15
6
6
-62
-22
3
30
20
-11
-15
-7
5
-7
10
11
-29
-30
29
-19
8
-38
9
8
-17
9
15
-21
0
-14
-5
26
16
-36
27
-36
-4
2
-56
43
5
37
17
-5
-48
-40
16
-35
8
7
8
32
22
0
-9
36
-17
1
-7
1
-33
-3
-33
-18
14
-20
94
16
23
-33
-39
-31
11
-26
-31
30
-25
-26
37
7
17
0
23
29
-21
-4
-24
-4
-9
-18
16
28
41
12
-37
32
-5
0
8
-22
24
-16
-6
-15
11
8
-1
32
-34
-10
69
38
-9
-13
-9
20
-6
-57
-10
-15
8
-2
-2
-5
-48
-11
-6
-6
42
-29
-5
6
-3
17
26
-7
-4
24
7
1
31
-23
9
-37
-30
-23
-7
6
-7
-2
28
12
36
28
33
-54
0
33
-24
-3
-42
5
-38
15
-64
-35
21
-56
-35
-4
24
-42
13
-25
1
14
-41
17
11
40
-10
33
-16
0
-2
1
21
-19
-14
24
-3
25
-10
-19
-2
-4
13
-9
-11
-2
13
9
11
-17
7
30
-9
14
-15
9
16
43
-7
-8
21
29
0
54
-27
26
-5
-27
-11
-22
21
16
0
57
-12
-9
36
-32
-3
2
5
-30
-25
33
-11
-5
37
-35
-22
70
13
-28
0
-31
4
-14
-22
21
-10
-17
37
21
-11
-36
-23
-9
-13
15
-7
1
-15
39
23
32
-3
-31
17
3
-26
-5
3
-20
29
6
8
40
15
26
-7
-29
-4
-17
14
-33
10
-24
-38
38
-18
10
12
13
-34
-10
-12
-5
-7
29
37
7
-22
47
-3
-3
5
-1
3
-4
-3
-5
4
-20
21
12
-2
-4
-49
-1
-11
-7
-2
-10
-24
20
21
-3
-13
8
5
-3
-10
-12
15
7
3
-2
-8
-6
21
-3
18
-17
15
-5
16
23
0
13
-20
-1
33
-1
-9
13
3
-7
1
-2
1
20
-9
6
4
1
1
3
14
-3
14
17
1
6
-14
5
2
-8
17
-6
-14
6
-4
-20
-9
-9
-23
-19
28
13
-19
9
-25
12
-3
1
2
-16
20
-24
18
8
-17
31
-18
-12
3
10
-39
19
-10
14
23
18
15
-24
-6
15
-22
17
-4
4
0
-11
21
4
-4
-1
-15
-2
24
6
-8
24
6
19
3
-1
6
13
34
-4
-33
27
2
13
3
10
4
-23
26
-7
18
12
18
26
-25
-4
29
1
-17
7
-20
-13
-4
2
2
29
-1
-26
-1
16
3
-21
-14
21
-11
32
-8
15
16
56
-2
20
-22
-21
3
-21
13
3
-7
8
-4
-8
-4
-12
10
-11
4
15
38
-12
16
-2
3
18
-2
-5
5
-14
-15
28
-10
6
10
33
-24
-13
-13
12
22
6
14
-19
-9
-12
-14
-2
-10
16
-10
12
11
-1
28
-10
7
33
-2
-12
-11
-21
8
-17
-6
13
14
73
39
27
8
-25
-3
13
-23
-13
-10
-2
23
14
5
17
-31
3
-23
15
1
7
-17
-20
-14
-11
10
9
3
-16
25
-19
-3
-17
-18
31
-8
-24
-18
-11
-5
5
4
-15
17
-6
-4
-28
0
2
-29
-2
0
-7
-31
-1
17
11
11
1
-12
17
29
-16
-31
-7
1
-18
-6
0
-6
-9
16
-7
-13
-12
11
0
15
7
-16
6
-3
6
-27
-1
-22
-6
-21
36
8
9
-38
-40
16
-2
-7
11
-28
-6
-17
-1
-25
-25
0
-16
13
3
8
20
2
1
-7
-1
3
10
-5
-7
-11
-17
26
-1
-4
-3
36
5
2
20
-10
21
-6
5
9
9
4
-17
0
-13
4
45
15
-9
-9
10
-17
-9
0
-5
2
-5
7
0
-22
-2
-30
25
-4
49
-1
-2
13
-14
6
5
-23
-6
30
-6
9
-9
-4
31
-4
-5
-2
4
8
-1
3
5
10
-6
-8
11
-3
10
-6
-26
-13
11
32
13
39
-16
-17
13
-15
21
6
49
-8
-5
-13
77
-30
51
17
-3
13
-7
-3
-13
-15
-17
-8
-23
9
17
11
4
21
4
6
17
-4
-18
-11
16
1
-19
8
-12
20
-5
-4
-6
-30
5
-29
16
-11
-4
4
-18
-14
10
6
-5
-26
-11
45
18
6
-4
8
33
19
1
5
7
12
6
-8
-2
5
-11
127
-20
-12
20
-9
-4
-12
12
78
-17
11
2
-23
2
14
-8
-13
1
49
1
28
8
-16
11
-10
12
-15
-23
17
2
4
-18
8
-14
-23
-35
-15
-10
-2
0
-11
-5
3
12
-15
-27
-11
6
-2
24
6
22
-3
0
-25
6
-17
-4
-17
-4
-23
-2
7
-7
-34
38
29
12
3
-3
-4
-19
1
-11
99
-20
11
7
-7
1
-8
-5
-9
-6
2
4
9
-19
-11
15
-14
-29
-13
-30
30
32
15
4
2
8
37
3
20
-1
-7
42
-21
-29
-6
-2
0
-17
22
-12
16
-19
3
-25
23
-12
-8
-9
8
1
-6
11
-1
-14
-29
-15
28
-18
-3
-21
-10
-5
10
14
-20
-8
-8
-7
14
-18
21
-3
-8
-2
29
-11
17
-20
30
21
48
-13
22
3
-4
-25
-12
-33
-17
-18
5
-5
12
-5
-21
12
11
-6
7
-30
-2
3
11
-7
2
18
13
1
-7
-8
-7
-13
9
-27
-3
-31
35
-21
-3
-18
21
-9
6
-3
6
-3
-26
5
24
-4
4
-20
-20
-18
-8
-17
-30
11
24
-13
-6
-4
21
-10
-1
-25
21
7
2
-2
-5
13
-1
-10
-8
15
13
-1
18
13
0
-15
4
-18
0
-11
-10
-4
3
3
5
4
15
7
12
-8
12
-7
4
9
-16
-3
-13
8
9
0
2
-8
-7
-1
7
-18
-20
-5
-10
-9
-11
-14
-7
21
38
-26
3
-26
-4
14
-21
-16
1
0
-1
-15
-5
-3
9
17
-6
20
10
10
-16
0
5
2
-13
4
4
11
-19
26
17
24
16
3
7
10
5
6
16
15
-4
11
27
0
-8
23
12
0
-12
32
-12
14
9
5
6
26
4
19
-19
-36
-5
0
6
-2
1
-7
-18
-14
-24
12
-17
-10
-4
-1
-8
-4
32
-17
2
17
-26
-13
9
-13
14
32
4
-25
-16
-11
1
12
-33
20
-13
27
18
-20
-8
-6
24
-5
-3
10
1
-6
-7
10
-1
-4
-4
26
19
8
3
3
2
-4
4
19
7
1
-12
2
-9
32
-31
0
11
-7
-27
-3
-3
30
-30
-11
-3
7
-42
-15
9
0
5
4
3
0
2
1
4
4
23
37
36
-3
8
11
13
-36
21
21
-3
-22
-18
7
9
2
13
-7
12
35
-30
-6
-29
-29
-8
-8
8
18
-4
-11
-5
26
-21
19
-10
1
5
-5
-8
-5
-1
-8
-15
19
12
-1
3
14
4
-2
-4
-23
-14
24
17
-22
7
-5
-5
-17
7
3
-8
-15
1
15
13
-15
8
-15
0
8
-26
0
-21
-9
4
19
4
28
4
16
-8
4
11
1
15
23
-19
-31
-16
0
-10
-16
6
-14
10
-4
7
7
30
-15
6
16
-3
-20
20
29
-24
-11
2
-3
-17
12
0
4
7
69
-19
-2
3
13
-12
3
-25
-25
9
-9
9
25
28
-8
-15
5
-14
15
-9
-27
-8
-3
6
-26
11
9
7
-18
1
-6
-5
13
2
-5
6
-10
-19
-11
-5
-3
5
5
-10
-13
-15
2
-28
11
23
18
-15
-2
14
-8
28
3
-23
-10
-8
-13
8
9
-13
-6
7
18
-15
2
-21
-23
-9
-29
-1
39
29
1
15
1
1
-7
12
-7
-3
9
2
1
-5
8
-10
-3
0
-2
13
2
-9
14
-16
14
7
-61
1
41
23
-45
65
-35
-27
-8
21
-13
-9
15
-29
35
-32
26
-70
-32
11
13
-60
-18
-4
-28
47
21
-11
-53
16
16
-54
9
11
0
-10
-50
40
-6
7
-17
61
-18
22
11
-27
-37
8
-3
-4
2
10
15
-41
4
-2
9
-5
-27
24
-47
51
13
4
2
18
1
25
-22
6
-1
-10
-6
3
61
26
26
2
127
43
-12
-26
22
3
24
-7
25
-20
6
-38
58
40
-3
10
20
16
-22
8
-55
-9
-18
-15
-53
-9
36
-1
-18
58
24
5
20
11
-25
-4
-18
-8
-8
8
-17
-12
-2
4
-70
-18
19
-10
-2
-22
-6
32
-30
44
-39
-42
-2
81
-4
-29
-19
-16
-41
-7
-6
5
8
75
9
-10
-9
-28
64
-14
-9
21
-37
13
20
-23
19
-20
7
-52
-12
-29
-1
0
-13
12
47
18
19
2
-34
-14
-6
10
20
8
-7
0
16
1
-11
-44
-30
34
39
73
4
-10
-21
-8
47
21
88
7
47
-27
-36
-36
9
-18
-9
-30
26
12
53
27
36
30
-3
-12
36
-18
0
-14
5
9
48
-24
24
-20
-2
32
-7
-4
-36
37
-54
3
61
67
31
21
-39
-28
39
8
-54
-40
3
59
2
-32
30
47
-3
-23
37
22
17
-16
-21
3
-11
-21
17
-26
6
-33
67
23
-16
-8
-27
-3
34
69
31
46
20
-39
-37
31
0
22
28
4
17
-13
15
-27
19
-29
-36
35
30
-10
-38
-9
-53
9
-22
-45
14
-31
-15
-3
29
-16
6
21
-40
-29
52
-45
11
-15
-41
-15
18
45
29
-8
23
-46
-67
4
-33
-25
74
0
-50
-22
-2
-21
-41
0
-23
8
-12
-31
-47
2
-63
-23
25
-37
-24
-23
9
-26
-27
18
-18
-1
17
28
-53
37
11
-9
18
87
35
-9
-29
-20
-1
-27
45
46
-2
-2
-12
-30
-27
35
43
-11
35
-43
-43
-18
39
-39
-6
-4
-2
-89
1
-8
-13
30
-4
-37
11
113
-48
-37
11
13
-7
-16
-14
-24
28
-57
36
1
46
0
-1
-36
-15
-24
13
-28
43
22
-33
0
-21
5
-40
-61
11
-59
55
-2
-24
-10
25
102
41
-1
-31
-23
-15
7
6
-28
-29
-23
27
1
7
-23
77
8
13
7
14
-2
14
-5
105
-18
20
-22
7
-68
8
21
14
30
-2
-24
20
-10
27
-24
17
-32
-15
-14
-25
-3
36
29
-36
-1
7
0
-6
-37
-34
-24
6
-24
-18
3
-6
14
-28
-32
24
21
-13
47
19
-26
39
20
0
-67
-55
-9
31
57
54
-4
8
-40
-32
-2
-12
-48
8
-18
-19
66
2
-1
-44
2
-2
0
-59
1
26
-26
-49
19
-18
-26
30
-11
2
47
-31
-48
-22
-20
23
6
-27
-4
48
9
41
11
-48
11
30
17
-50
24
-29
-44
0
8
-7
30
-49
48
-8
21
-18
-30
-9
20
-21
44
21
65
31
-21
39
0
0
-18
1
9
3
-32
-16
-5
1
26
-4
2
1
21
-12
0
-48
6
7
6
-5
-38
23
50
24
-45
-29
32
0
15
-26
-11
24
3
-21
17
-5
-9
25
1
17
19
-12
-9
-3
-67
13
-3
13
-20
28
-14
28
-31
-30
18
-5
-38
-27
-1
-42
-13
-2
-11
-10
-3
3
33
14
34
-1
19
13
0
21
-42
2
17
-7
-15
23
1
-30
-38
-44
33
38
16
47
23
-34
-3
23
-27
25
-24
28
51
0
-18
-2
4
8
103
18
-3
2
-59
-3
-6
-31
9
32
-14
6
-12
40
15
82
4
26
-50
-7
-39
-34
36
27
-22
11
-4
-72
-2
0
-23
-25
-14
-17
-29
7
-4
-40
-57
-9
16
1
19
18
7
-19
47
77
-30
-21
-18
28
28
-12
43
-22
46
16
3
-62
-38
17
-10
19
-29
-83
-6
-25
46
1
6
21
12
86
-29
27
2
43
17
-11
7
-1
0
5
24
37
-28
31
-46
-41
-18
-24
14
25
9
4
24
29
-26
-7
3
-1
52
-38
-19
8
48
-77
21
13
16
4
0
-11
-2
0
25
-54
-7
54
7
-8
-22
-41
-23
49
-38
-26
8
-26
4
-12
37
-7
-27
-12
77
-3
-21
33
40
7
-18
-8
-15
1
-29
13
-15
37
-5
-44
-43
79
36
28
-87
24
3
-9
11
-48
3
22
33
9
14
-34
-1
14
-2
24
-6
17
14
-45
-7
54
28
17
-6
14
68
-7
19
17
10
27
-10
2
15
37
-41
3
9
-1
-26
-1
17
-22
-24
4
7
2
2
-31
63
15
0
21
37
-44
5
10
17
15
0
-2
-44
-48
4
-10
-16
10
13
-36
1
-40
47
-42
10
66
-17
-28
-10
-63
26
30
15
85
-49
-8
18
-3
-49
-69
5
5
-17
-5
10
10
-16
28
1
-38
-22
-36
25
38
-52
-17
10
35
5
0
-11
8
-7
0
-29
27
-32
6
20
-16
-21
-41
6
-13
-13
-25
4
-11
-19
-40
-21
-4
42
-22
15
2
-15
0
53
-24
22
18
-49
27
43
-3
45
30
-7
20
-38
-45
3
-34
35
-3
1
22
-26
-11
7
1
4
13
-8
11
19
-4
44
-16
23
23
20
-13
-19
29
-35
-40
-25
64
-51
-31
-1
-27
17
-41
-9
8
56
12
-31
-3
27
4
-77
-42
-1
-19
-6
-33
-10
12
19
51
-30
-31
47
-45
-2
-50
-30
-4
8
-26
26
22
26
-80
-48
4
44
11
-16
23
-27
-7
-25
10
40
-17
-11
-51
-18
-5
-27
-42
-5
-17
18
-30
47
-16
25
-5
-20
42
26
7
-35
4
-48
-56
-27
-10
56
3
15
53
-33
5
28
-20
-5
-16
-1
9
-14
28
-59
-2
-16
10
11
38
0
37
-22
3
-17
3
-50
62
9
-6
20
-7
25
0
-28
-34
-33
-21
21
-54
10
19
-25
36
35
23
-7
-27
-34
-34
12
-37
3
-24
8
-17
-34
1
13
27
7
4
-54
-40
15
29
0
-7
12
-6
4
-26
-10
33
2
18
13
20
-4
-33
60
-8
-8
6
3
21
35
18
18
-29
-25
-29
42
-25
17
-21
-2
10
-32
-6
42
-21
-28
-13
15
16
-61
-33
21
-93
-31
50
9
33
10
7
4
20
-27
30
-11
7
-1
-22
9
-34
27
-21
25
-23
23
9
-44
17
7
-43
1
-8
20
-34
42
15
13
-54
-42
-15
-24
-25
-43
63
-40
-21
23
-15
-4
-12
8
-11
-30
8
-24
-14
-14
-22
11
14
39
2
28
-17
-5
-37
-19
17
31
25
-13
-17
-2
-5
-25
-30
-43
14
6
37
-38
-34
-40
-13
3
-77
24
7
-57
-4
-15
35
3
1
18
-23
16
6
25
-5
5
41
13
-23
-38
-58
22
61
-5
52
10
30
-48
-7
6
4
-38
16
-15
-71
-83
4
-4
19
31
-5
35
24
-18
-26
-32
39
20
-21
-8
-1
61
-24
17
-22
-37
5
1
-29
60
-19
-1
19
24
-15
-27
-20
41
-43
12
48
-28
-38
-13
-29
0
-29
-26
-27
80
22
33
-42
-10
1
-6
-64
19
16
18
48
-24
-45
-12
-26
-36
-18
-2
-6
1
15
-14
14
-18
-23
-21
-28
12
12
-2
29
-3
23
-28
23
-26
5
-29
-23
-3
9
-30
20
-9
-19
61
-15
-4
-18
-14
24
-21
-41
-22
4
-31
-10
18
4
26
-14
0
-18
8
-1
-21
-41
25
-13
25
36
-8
47
-32
-35
26
-29
22
38
-10
49
-10
-21
-7
7
10
-12
37
4
-38
6
14
28
47
-20
-16
-35
9
-28
38
44
-6
38
39
-9
-15
-17
52
-31
34
32
9
18
0
4
-28
-26
-18
-61
32
-13
82
7
8
-11
12
-37
25
-23
-15
49
46
33
29
-73
-25
-13
-27
-63
-40
-10
-8
-9
-8
94
-47
24
22
21
8
69
-49
-59
-4
19
-37
-11
-7
-69
16
3
-8
40
30
44
11
124
10
37
49
86
35
-19
-1
-24
10
-11
0
-2
13
2
9
1
-22
-25
18
8
26
-3
11
30
32
-9
-47
49
53
-5
34
30
-14
43
-26
-16
-26
36
34
-55
79
8
-34
-14
14
-63
1
-6
9
43
-15
-21
34
-21
-71
-33
-25
-38
-29
-1
-1
-28
11
62
23
12
-32
-63
29
29
-1
0
-38
-45
4
-59
-1
2
-22
-5
-23
-74
-40
-43
22
14
-10
-5
2
7
-35
13
41
2
17
56
31
15
51
25
35
41
-7
18
3
-31
0
-42
-18
16
53
-27
-34
-15
-53
-35
-7
7
-15
10
42
-50
-10
6
-49
-26
-8
1
-47
19
-47
-8
28
-18
7
-8
-2
10
-2
25
-12
23
24
19
45
-48
4
-25
3
-31
-25
9
20
-27
25
29
-28
3
-2
-17
35
-21
-18
13
65
-65
-61
11
43
-34
10
-34
-3
16
9
29
-11
34
-36
1
54
18
-5
53
-37
28
29
-53
-3
-3
-16
-46
-1
-6
64
-13
7
29
-22
12
-24
63
75
-10
-22
-13
-30
27
12
14
-25
-45
-17
-4
-44
-22
-46
-21
1
-2
14
13
-7
36
7
-21
43
25
-24
63
-2
21
-15
50
3
66
13
29
-20
-19
46
-44
9
10
-8
-2
58
-14
1
12
54
-19
-22
-31
74
37
9
-56
-17
-3
-62
15
-43
5
-2
20
8
-4
3
4
55
-15
5
16
-15
-3
-4
-19
29
19
5
7
-9
-41
-3
13
5
2
36
-2
75
-26
70
45
-17
30
60
-27
-18
7
5
-18
-10
25
34
87
-4
-16
-16
4
90
44
-9
56
-7
-11
30
33
72
-19
2
-5
21
18
-37
30
33
-21
-44
9
13
8
-44
4
-75
12
49
-35
-15
36
30
31
-51
-31
-22
50
56
-13
3
29
-29
35
18
-16
-3
112
-3
47
28
16
-24
-37
4
28
-86
-15
9
6
-36
-58
-1
-19
-12
8
-23
-1
-14
-34
17
-12
8
-8
20
0
-53
-34
70
57
-30
9
18
-19
6
79
-9
3
5
-30
9
51
-21
-22
-25
-23
75
1
-19
-58
6
39
-8
-2
-8
-24
-18
-3
-41
-23
24
-21
46
-14
23
21
1
25
-15
-26
-5
-40
-41
24
-13
-67
-67
44
22
4
-31
-30
-7
30
16
28
-33
-19
12
60
0
11
82
7
-20
-28
4
-46
10
-8
-1
0
3
67
74
-42
-56
-45
42
1
-37
-5
6
9
43
17
-13
73
50
-26
58
-19
-39
-14
-33
-14
2
45
-27
28
-20
-6
3
6
17
11
16
-30
-8
21
15
-47
7
19
-1
24
-11
-5
-22
4
-39
-23
-6
20
-22
-31
-14
48
-14
29
-31
17
-4
13
-20
17
16
-22
24
13
-45
-13
-11
5
-29
-4
-7
-10
9
3
-22
-51
3
-42
8
17
-3
-46
-14
-1
10
33
27
20
31
-22
39
38
19
-19
61
-14
-7
-38
-18
3
47
9
-36
-93
-5
6
4
29
-38
15
-10
31
-38
11
-24
-20
-3
25
16
-46
9
93
-15
-44
-1
-35
-14
36
-17
-5
-11
-10
46
6
-32
50
10
2
35
-29
12
-38
-48
-31
7
-10
10
-15
-3
42
17
31
4
127
3
4
-39
50
-2
-60
-23
-36
43
19
49
-16
51
89
-5
-3
11
46
11
-18
25
29
-74
-6
-19
-37
0
27
18
63
18
10
-18
-21
-10
-26
-43
-19
102
2
37
24
-34
-5
-23
13
0
-34
30
23
-26
-16
8
47
-16
-7
50
20
43
-17
-21
23
-27
53
-70
22
-10
11
-23
8
-26
3
30
6
-29
-20
30
-3
-9
-5
99
-13
12
-51
28
34
-14
50
-30
-14
-3
35
-22
-22
-31
-52
3
92
4
-20
-14
-35
-38
-33
44
39
13
-3
11
19
1
-35
-15
34
19
4
-13
0
16
-49
8
-20
-34
39
12
18
-12
0
-12
40
-26
13
18
-1
-28
12
6
17
6
23
-23
50
46
22
-5
-22
-16
-9
-27
-69
9
58
47
-19
11
10
-17
7
32
3
-22
-14
0
-27
16
-14
-5
-11
23
-17
-20
-8
32
-29
1
-27
-18
7
12
-38
1
8
-29
-9
-20
-33
-5
5
2
23
-5
20
-11
6
-2
10
1
-10
-8
-26
-7
17
50
-11
-24
28
-7
-28
35
14
7
-20
-17
-13
52
-13
15
21
10
13
-27
17
-37
13
-11
-3
59
-28
-42
24
-13
17
-5
15
-25
23
-15
-23
14
-10
-22
-7
30
-6
9
11
-17
4
43
-30
-10
-31
31
40
35
-2
-9
18
12
13
-58
-8
8
-9
-14
-30
-5
10
9
0
-38
-10
30
-26
-12
-7
-25
-12
0
8
7
10
-14
-18
-7
9
11
-43
-3
-6
-38
85
-38
-8
1
-16
3
17
3
-12
-19
25
17
-19
31
-9
4
1
23
30
35
5
14
-24
-16
-20
-12
-16
-7
40
-11
0
39
-3
-12
6
10
7
-20
-30
-26
-44
32
14
6
-26
11
17
24
-4
30
-28
-6
3
5
-3
30
9
-3
16
-2
24
3
12
-19
15
-19
-7
18
24
-10
-16
-25
-23
24
-17
30
-4
11
13
-9
6
1
-2
34
15
21
-30
-6
-13
1
41
-4
29
42
15
-16
13
-4
21
-7
-1
6
4
0
21
-28
22
-2
14
26
5
1
0
29
12
2
-32
6
1
-15
-13
25
16
-10
-32
-13
-24
-19
-7
127
-14
-27
-22
-35
0
35
-15
43
-11
-17
4
28
20
1
-7
-18
66
-27
-12
32
1
-17
-21
12
-4
1
-17
-34
-13
-8
-3
-7
-18
4
-15
-4
9
31
-26
16
-34
-19
5
-17
10
29
15
5
-38
-16
10
-13
-8
6
2
-11
12
26
11
3
100
-14
5
-15
-39
11
-21
28
-16
35
4
10
-14
7
20
1
-24
-9
-7
10
-11
-40
2
-13
-8
-25
-18
-10
-2
14
6
14
3
4
14
15
2
26
-40
-15
-17
-2
17
5
17
8
-32
-10
-29
8
33
-5
16
13
-16
-20
7
12
42
-20
5
-31
-13
-15
8
2
-28
2
-4
3
-3
-3
-16
-29
16
-26
-11
-28
2
22
15
0
11
15
-36
0
27
40
-15
-1
-23
-17
7
12
17
-1
10
5
35
-11
-18
-15
-3
-8
-19
-25
12
-34
11
-18
-44
6
22
61
43
-9
19
25
21
-6
-26
9
61
12
14
9
-11
0
-11
-1
-26
-6
-25
-3
-20
-15
-6
-16
-8
-9
10
-44
9
-40
-15
5
2
18
-1
15
13
17
-1
-21
-6
-19
14
11
3
-13
-3
17
19
17
-26
-12
-29
13
-18
-7
8
-30
16
13
11
-8
21
31
0
-19
3
25
-23
8
-1
-13
5
27
-22
9
11
4
-30
3
4
48
-14
14
-6
-12
28
-9
-38
-1
-20
22
-22
10
-5
5
2
-2
9
-7
1
4
-25
15
3
-14
-5
-29
-22
-1
11
-11
-16
-25
4
20
-6
6
-5
27
13
-11
22
26
23
-6
5
-24
-20
21
31
-6
12
27
-9
-7
-5
-10
2
23
22
-21
24
-3
-19
-23
-12
-3
-2
-2
-8
9
7
-12
-24
20
-20
8
9
-29
-26
-21
-7
14
-14
3
48
12
-3
-33
2
-27
15
-9
0
30
19
3
-19
-11
-27
-17
0
29
23
-31
9
4
3
15
-23
-14
16
-13
2
0
19
-20
-9
12
-14
-12
5
-14
-8
18
-21
-19
29
-23
2
-6
-12
0
15
-40
8
6
-48
-9
-10
19
53
45
15
18
-10
-1
35
8
16
-8
-25
12
-41
15
-10
-2
0
-20
-3
-16
26
31
16
6
-34
-33
7
-38
-22
0
-19
-6
14
-2
-5
-3
-8
-1
-3
9
1
29
-10
7
2
-9
31
7
15
-18
-5
-19
-23
22
12
-27
9
-22
7
-33
-10
-18
-12
-21
3
11
-18
-3
18
22
-8
-28
-14
9
-10
17
0
16
-13
-23
7
-16
4
26
-1
-18
17
11
16
12
-26
-12
11
-16
28
24
23
0
-15
-7
4
17
-2
5
13
-24
-16
9
-16
-14
-8
-11
-34
-2
41
45
-8
32
14
21
-26
4
-15
-10
23
40
11
25
-12
-54
-10
26
-7
-10
-33
-12
-18
-8
-37
-2
3
-6
-14
2
13
20
-5
-2
-15
-12
22
-40
-1
8
-20
-27
5
10
-13
-1
4
-12
0
4
15
-25
24
12
8
-21
3
-3
23
-34
-13
31
-16
-4
1
-15
4
29
5
13
21
7
0
-31
5
-23
8
6
2
9
-20
56
-14
-18
-1
34
7
-7
-21
-29
-5
-13
-18
-11
8
1
-27
-5
-4
-14
2
-3
-2
20
-3
-10
-15
-19
14
-18
-10
0
-20
4
9
-16
21
7
3
13
-20
-9
40
-18
3
29
25
-12
19
-13
-28
6
-20
-12
15
9
21
-18
-7
-17
15
5
76
-2
3
-9
-27
-14
-30
32
-2
-7
-33
34
-9
14
13
-10
3
19
-21
-8
-15
-37
46
-48
-13
-41
-26
-30
-22
-24
23
-33
-23
6
41
-37
14
19
12
21
-10
-2
-13
-1
-12
7
-5
59
-32
11
19
-33
7
-12
-13
-23
58
-9
-19
15
14
1
22
-25
26
1
-8
24
-3
8
-12
-28
10
-13
15
-12
14
8
-1
-35
-23
-2
0
8
19
24
42
-5
8
19
-3
-7
-3
14
41
29
2
9
-23
-12
2
-4
1
-12
-12
20
-5
1
16
11
28
-31
9
7
-3
1
47
40
31
17
-26
-13
-2
12
-23
-1
1
35
20
-10
3
32
32
4
12
31
4
-9
-9
-17
-8
-16
1
-12
-41
-42
-9
-48
35
28
-4
-10
22
-45
-24
6
-32
9
-14
-25
1
4
67
34
21
41
8
2
-22
-13
-8
22
-11
8
0
29
20
1
-3
-4
21
-18
-21
19
-19
-20
11
8
-40
-12
-27
-4
2
-4
19
-11
-6
20
37
-10
1
-10
22
3
-20
-12
11
-10
-8
36
-11
2
2
21
30
20
-5
29
-15
-24
-1
-10
37
26
7
-31
-8
1
-20
6
-27
-1
17
-5
-3
-19
-19
-19
-15
36
-5
28
7
-5
-8
42
-34
-8
-34
-10
-36
-34
-36
-30
-11
-17
-67
5
14
27
-20
62
-58
-6
1
47
-10
-28
50
7
10
-2
-10
-7
-31
-32
49
17
-35
-70
-14
-13
-33
9
-10
-23
-29
18
0
27
-23
-29
3
-5
3
21
-19
-8
-10
36
40
15
35
32
-38
-25
-5
-38
-16
25
37
-11
-36
-1
-12
3
-19
-6
-20
-3
-43
-22
-55
9
12
-14
11
-20
-15
9
-3
9
-30
6
-19
-11
-22
-15
7
-28
12
-17
52
10
4
-33
-46
-23
47
-6
0
0
-10
-69
-27
37
27
-4
-21
-76
60
13
-77
21
-9
17
-44
9
3
-27
-17
26
76
41
21
-30
26
-56
-2
9
-25
-24
11
-57
30
38
10
-25
40
10
3
-20
-2
-40
44
-37
-29
-13
-3
-1
48
50
39
34
32
55
14
-8
17
-11
33
9
-33
-18
12
13
20
4
-36
20
-39
-1
13
9
39
-38
29
-44
32
-69
48
-17
4
71
-20
-19
-33
-9
-19
-54
-44
-20
17
5
52
-69
8
8
-41
17
18
21
34
1
-7
-31
-6
-3
-21
30
-5
-38
-3
36
63
-24
-11
-2
22
44
34
53
-1
-31
-17
-20
68
-8
41
-43
12
-13
3
24
18
-4
-15
-28
2
4
-49
-39
3
-2
-55
-39
36
28
-8
50
21
-22
-13
-15
-6
18
21
24
17
-35
4
0
-7
-30
13
-35
-6
15
-21
-28
-42
30
-92
-29
-43
-41
-2
-57
20
64
22
-31
41
30
-17
-42
9
-33
14
62
19
-14
-6
-36
-27
-1
-5
8
-4
-5
-26
3
3
1
39
-20
-2
-3
20
-18
-50
-8
-30
23
127
15
-20
8
19
-8
-32
-4
-11
-3
-8
35
16
6
-6
14
-28
-21
9
25
18
-18
-34
-44
57
-39
-8
-3
-18
-54
-57
9
-36
-6
-40
6
22
-5
39
-33
29
-30
5
41
7
-28
-19
15
-21
92
-6
-17
8
17
-18
30
16
-25
-37
-44
-19
-44
11
8
24
6
12
-35
24
-1
24
-25
-44
-12
-1
-64
-35
-12
10
-47
5
-15
74
-14
-22
-8
50
25
-38
-62
-24
14
-46
-29
0
-38
-10
0
-17
14
9
-18
4
-34
1
22
-14
7
33
-37
-29
4
-23
-12
-35
32
-4
-19
-22
44
-13
16
66
3
-35
1
21
20
-33
112
6
92
37
-30
-15
75
-6
69
-19
-105
15
21
-20
45
2
30
-16
1
19
-4
-29
31
13
-53
9
-38
-46
-9
13
25
22
10
12
-9
-1
18
-46
-17
5
19
-11
-11
-9
14
66
-45
-13
-38
-9
22
-11
-20
13
7
-3
25
14
-3
24
-25
-3
6
21
-3
-2
12
0
-27
-13
-18
-13
-13
19
-37
0
13
9
-18
-40
-45
-3
84
-41
-28
-24
-5
-3
1
-41
23
-12
22
-28
107
48
23
-10
9
-28
-25
-33
-27
-73
4
-13
22
-4
-30
-42
-44
3
37
-22
-17
-34
35
12
11
24
27
3
49
-48
49
-11
-19
31
-18
-12
30
-13
-39
-21
11
16
88
-5
-11
6
-15
13
-26
-9
-11
-4
-28
-46
-28
0
-34
-39
37
0
-5
19
-49
-31
-12
25
22
14
40
-42
-20
-6
14
10
-13
-1
17
-60
38
-12
28
13
-23
-60
4
18
5
-26
41
-11
-14
-20
-8
14
-1
-16
9
-12
57
-2
-1
-10
-3
15
30
-72
-73
-4
7
41
1
-8
-16
-30
28
5
52
57
30
30
15
-12
1
-1
-10
42
-29
3
19
9
-10
35
-11
-33
2
6
80
-14
35
-35
-68
17
-17
-28
-20
-8
17
-11
-38
7
-12
-49
9
-24
-28
63
-5
-17
-3
14
-19
-32
-18
-11
-20
8
15
9
-59
-67
18
41
-5
25
4
64
29
-31
7
39
-8
-67
-15
3
-3
9
8
12
-44
-8
-22
7
-15
50
56
-71
10
64
-19
-21
-29
18
26
-61
-7
4
13
8
-21
-34
-7
-59
-10
-4
-25
19
0
-3
4
-12
18
-19
-9
43
-14
-15
7
10
-3
28
19
78
-4
36
7
12
32
-2
-56
-11
-28
-27
-18
54
-28
4
-7
18
-8
-60
-3
50
-35
3
-34
30
-44
-8
2
-27
42
32
1
-14
16
18
42
15
-16
-40
2
-6
20
4
5
-2
-38
10
16
25
-4
42
-9
-17
-45
-1
-32
30
4
-13
21
9
16
30
10
-4
-3
14
-21
9
3
-57
39
-15
13
-10
-67
49
-14
-6
26
-25
-32
80
4
-7
-8
8
56
-8
12
-9
-6
-22
-12
-8
4
2
12
6
74
-7
-39
-39
40
-25
-59
-1
-46
5
87
51
-46
20
61
-2
-32
-15
39
-10
-42
-38
-32
-36
13
-3
43
-8
-22
-53
58
20
0
15
-2
-18
-52
-49
-69
-21
-1
41
30
30
-17
-1
-18
27
-2
8
-43
-75
0
3
0
29
12
24
-59
-58
-18
14
-18
73
-55
27
4
-8
-30
-26
5
-70
-42
40
99
-39
-17
-6
48
-40
-7
-27
23
21
-12
26
0
-8
-7
-17
1
38
3
21
54
-42
-1
-22
48
-14
0
0
-15
-17
24
-9
21
7
-15
-65
-25
-2
-6
-58
-4
36
-9
-43
2
-31
59
-30
-2
2
-24
5
-6
51
27
-24
54
-4
-1
15
22
3
-28
10
9
-29
58
-36
0
-11
-12
38
-20
-14
-17
-41
-33
33
21
51
-46
0
-6
58
-19
-2
-13
2
-5
-34
-4
-37
-17
-5
-24
2
56
23
-79
33
-5
15
92
-10
21
-48
43
-16
-44
47
-48
-33
-14
-30
-34
41
-18
-14
24
9
-26
13
-8
-3
-29
-19
-46
-12
-7
47
8
20
-13
40
-1
-39
78
-58
-21
-27
-27
19
-35
20
-8
87
-14
-17
29
-1
-3
14
-2
-21
-3
5
-5
-16
43
-46
-14
-16
-24
7
-42
-47
-1
12
-4
63
-48
-27
0
-47
-24
-17
-5
26
24
-6
-33
-23
24
14
4
7
40
-5
9
-28
52
-25
-13
19
-15
12
-15
-17
-17
11
-28
-27
-61
-52
-6
-16
0
4
-16
11
-4
-37
-11
-11
22
6
7
3
-8
-4
5
-33
-19
-4
-31
-5
-38
3
44
-12
15
-49
16
-20
-28
-6
12
42
9
-3
5
-64
45
-37
18
28
10
-23
11
-6
-41
11
-9
11
-14
-4
23
6
-11
-22
-23
20
37
6
-33
-31
16
26
-14
26
6
-4
-9
-12
-10
-12
-35
9
-14
13
13
32
-11
21
-23
-22
-10
-8
-18
-56
21
43
-5
43
17
12
-15
-1
-50
-6
6
-12
-34
20
-6
7
2
-16
13
-27
4
-31
-35
-11
-11
11
5
42
-14
20
-31
-18
5
-18
0
-14
1
9
-19
-20
-7
14
31
-46
-6
6
40
-34
68
-10
42
-9
-32
6
20
-9
-26
-10
24
-17
-15
26
-10
-38
15
2
4
-1
67
-8
42
-23
-10
25
-31
-13
-15
-21
-3
-19
19
-1
-28
-18
12
-21
-2
30
6
-15
-22
-11
52
-3
11
-15
10
-1
-8
23
-18
6
-48
3
0
34
-28
-11
10
-3
35
-18
23
21
4
11
-12
19
-27
1
17
2
12
-37
-3
13
-39
-42
-31
-6
-10
-44
-32
-19
7
-28
22
-6
-9
-5
-4
17
-23
8
9
-9
-25
-17
-19
-28
22
-15
-26
-28
20
10
29
-26
30
-2
-7
-2
16
-2
-29
-2
29
7
-17
-22
9
96
16
-17
-38
50
-16
-1
57
38
11
-19
-22
-14
1
-24
18
20
-1
14
-15
-4
-22
14
0
8
-30
10
-16
14
-6
9
-21
-28
-25
-30
-19
-10
-9
-7
-32
-10
-14
-9
13
7
-6
1
-35
4
35
-18
-29
17
4
-5
-4
-27
3
-8
-10
30
25
3
40
-30
15
-4
-19
1
16
26
-22
36
-41
-28
20
-3
52
84
-24
47
-6
-23
29
-9
4
-20
-11
-45
7
-34
-27
-6
21
-7
1
31
-25
-16
-5
8
-24
4
20
-12
19
10
11
-4
12
-33
-17
-10
-21
35
-24
27
19
21
11
14
-27
-6
31
-3
-5
-5
8
55
27
-8
38
-42
-13
1
13
-17
-38
11
-45
-27
-23
-19
28
-6
-13
-36
-16
-6
-29
-2
35
-2
-8
7
4
-3
8
24
-27
-19
41
-6
12
13
46
-8
73
28
-7
-14
-13
-3
42
-18
11
-30
17
-11
14
42
-9
-46
-5
-9
-18
19
-23
65
-8
-43
0
38
102
26
-17
0
16
31
-30
35
-30
26
-16
33
62
-23
32
-4
1
-4
-10
24
-15
32
-5
15
16
39
9
-24
9
19
-29
-15
-7
5
-9
0
13
-3
-4
-14
20
11
3
-21
-9
13
15
-7
11
-3
-3
-16
12
-3
7
-21
19
-8
-2
-30
-32
53
17
12
4
-16
29
-1
22
-45
-7
25
13
55
-6
8
-8
18
11
7
-6
-8
5
-3
-19
-10
-11
-8
-5
-12
16
-3
-17
29
-42
-19
10
-3
4
-19
34
-24
29
-3
-9
7
0
59
0
-12
-5
6
-9
49
-14
-16
12
10
0
0
18
19
30
-22
-11
12
-33
60
-22
11
18
30
40
-2
-25
-30
-2
6
22
14
-10
-3
-8
27
-5
-22
51
-15
-5
5
39
66
-25
37
33
-2
-27
-44
53
-25
-11
4
-6
33
-8
6
7
23
-23
-51
-18
-24
-16
-16
16
48
-23
-5
14
-28
-26
1
35
26
-21
22
17
-1
3
-31
-33
12
-1
-46
51
-7
12
-23
2
-29
36
-12
8
-60
20
-32
-23
-31
-4
-32
-41
-32
-23
-18
-32
42
19
9
-56
-28
-31
115
29
13
-20
14
-23
35
2
-2
-24
17
10
-34
-28
12
79
-45
7
-54
-12
-12
18
21
-13
-66
12
-9
23
24
-14
3
-46
21
-20
-7
-12
15
-30
-33
-7
-18
-47
20
-6
-49
2
-34
-28
-7
73
-52
0
27
9
3
17
-32
19
22
11
25
16
11
66
-3
2
2
-51
10
-20
-2
-2
-19
19
14
-29
-75
13
-18
-22
14
4
7
1
-3
24
45
7
18
-12
-2
-6
-38
-13
25
-2
-3
-3
-24
20
73
-3
30
44
8
-9
-1
-18
13
-25
-5
-33
2
-28
-1
-49
-52
25
-36
8
-29
3
3
3
15
-28
-8
-24
-11
2
-7
-67
11
12
12
34
-11
19
34
-36
-18
-19
10
-4
9
-11
0
11
-15
33
11
19
-3
11
10
-2
127
-5
-20
-10
20
-16
-20
0
-12
-23
-8
0
3
5
16
38
7
-10
63
31
-35
-5
13
10
28
-5
-23
13
-8
-21
-12
-22
-11
-4
3
57
-11
8
-25
-14
4
4
-1
17
44
-2
4
11
3
12
31
-12
19
-13
12
-19
49
-12
9
-16
-51
-39
7
9
3
10
9
-2
-13
-12
-4
-29
1
-17
-6
-27
19
-7
79
-14
-27
-7
16
-14
-23
-15
-12
13
-35
-7
-7
-23
-15
-3
28
1
2
2
-19
-2
2
-14
8
-24
0
0
-8
8
33
33
-31
-26
-2
21
-29
-19
-8
-24
-43
17
-17
-21
-22
9
12
8
15
1
-25
30
-39
10
-37
33
-40
7
-2
-31
24
8
14
-13
23
5
9
-36
-27
39
-18
-16
-25
16
-14
-5
-10
14
4
-21
-16
17
28
18
-25
5
5
-14
23
-3
5
5
4
13
-17
-38
-20
-39
-20
-47
-7
-32
29
27
-22
8
-37
-13
27
19
29
-4
23
56
5
42
-18
15
-48
-6
36
-12
-14
9
-8
45
-22
-24
32
8
-18
7
17
-8
16
-19
15
-17
-7
26
13
66
2
-1
-17
7
-7
-16
-27
12
9
-44
-32
-8
-5
-22
4
-6
-7
-11
49
5
0
-47
5
20
39
-9
6
29
9
32
27
25
-13
-22
-27
-19
-22
-3
12
-3
14
5
46
23
37
-31
-14
-20
-12
-1
-7
56
-15
11
-36
14
-24
2
-1
2
11
43
-12
19
-19
30
-7
-24
4
47
-34
-18
25
0
1
53
-1
-6
61
16
3
21
101
-4
-46
-14
-12
-13
-23
-13
-33
-5
6
65
6
-34
-9
1
-41
20
-16
15
27
-23
-11
21
14
-15
-59
0
-46
0
18
35
-20
-14
-24
92
-13
32
8
-2
-16
83
2
8
44
4
-3
27
-6
36
-37
38
70
-2
-12
-12
-3
55
-86
-21
64
-26
-46
-32
90
-33
16
6
-7
-22
-20
10
11
-82
3
-30
-21
46
-9
7
-4
-78
82
15
-9
-20
-3
-12
28
2
5
-4
-60
-23
-52
-16
-1
-27
3
-20
-20
25
-72
-24
26
-17
40
50
34
14
16
-38
99
-6
24
-48
-6
26
-22
-45
-3
26
-9
-29
17
-5
50
43
10
-16
-8
-49
-26
31
16
64
-17
-49
-21
22
-21
0
-49
-4
-38
5
-14
-23
-33
-25
-41
-9
-20
37
-30
49
-22
-35
-18
-50
-5
16
12
20
44
-22
-55
36
53
12
1
36
-3
-5
43
-6
-12
7
13
60
27
-5
-12
-57
2
16
5
-26
48
-20
10
24
41
17
7
107
32
13
44
27
-21
-9
16
22
-49
65
-34
-8
-5
90
-10
1
13
11
-67
-2
-20
-10
64
42
-26
-4
-39
-54
-31
-12
-31
-25
-5
-5
6
9
-44
-11
