-3584
1743
-7435
-8814
4766
-1190
-7269
-3585
-2940
984
-537
-2365
-4408
20
-415
2803
-3166
-1893
14930
-6577
-4050
-1598
-450
-4143
-6733
-6065
-2104
-1391
-779
-5889
-3877
-239
137
-1851
2197
-2260
-5470
-2356
-2836
1851
-1268
421
-2145
-5149
-4176
-1811
10367
-5614
-3881
-3492
973
-1377
-595
-2245
6525
72
-3462
4415
4102
-1871
2499
-470
1495
-2551
-6935
6661
-711
64
-3907
1087
-3666
442
-2511
57
3138
-1498
-4388
-6880
-6093
-6996
-5484
1800
-3519
-2023
-2691
3546
17470
-1208
-4300
20620
-5126
11633
3948
-4779
1236
1641
1618
-5488
-4720
-1659
2584
-1939
-2266
2970
-6242
-484
214
-11071
-3012
-3597
-3258
1209
-4063
-5863
-2167
3725
2851
-2495
-5300
191
-5156
2639
-2625
-6407
6528
-1722
10037
-4215
-2945
591
-346
-4410
-3238
5199
2480
-1580
-5164
-7174
10274
-7760
-366
-2179
1897
-4816
8641
-1519
2335
-3292
-1232
-2053
-6493
421
-4735
-5896
3500
-3372
2807
-5360
-6600
-1498
-1225
-6036
3005
-6256
-2128
-807
-6639
2108
-2156
-5455
-10068
-3667
-2715
1018
3289
-7591
2304
-3023
-6073
3717
2832
2896
-2101
-1685
7069
-1250
1422
-724
-919
-3642
5
2841
-2810
2436
1474
-1137
-2291
5416
-4553
1084
-3830
-3272
2000
4829
-6928
-2832
-2145
-9161
-724
-9346
1284
-4405
2487
1461
558
3732
-3527
603
-2978
1232
-222
5297
10930
-2117
-2538
806
2881
-3888
-791
3509
-4444
1675
1722
1689
-4348
-2201
-874
5353
-4878
-664
839
3189
-2001
-1462
1968
-3343
8199
-3331
-3626
-1124
-4100
-3044
-4731
-3677
-4398
-2839
-781
1568
-1568
-6907
-5757
1034
-600
575
2734
-7055
1266
-1795
1095
-6324
-6242
5531
11648
-4139
-732
-6386
1669
-2676
-1392
-3639
-2824
-3895
2117
-3605
-3546
1036
-5660
-6617
-6391
7293
-3333
-2444
4943
-5233
-2206
-1744
952
-4400
-4690
3718
5051
5809
-8473
-3670
-4340
-2564
-4936
2701
-1792
1542
-1660
-3392
-333
-2085
-4443
-6012
7
-4310
-2551
-1078
16830
-720
1592
-4794
-4904
1704
-4589
-5661
-750
-7356
-452
-4428
11
1277
-918
762
2674
-6467
436
-5330
-2992
-1953
-3747
839
-8205
-8056
-3916
-2677
-3471
-3775
-4448
-4186
3587
8874
-1572
-1471
141
-1684
537
-2302
-7696
-925
-12223
-1100
2332
-7496
291
1071
-4197
-4275
-7821
-1176
7138
-5393
-3493
-5919
-2824
-4137
-3698
-2677
-1226
-2774
2917
2778
-1167
-2689
11170
-3249
-352
3039
-1163
1796
14501
2145
11614
3218
-2628
-4564
255
-1117
-4607
-5432
88
-1436
6679
1936
-5534
3152
4852
-7184
-8171
-5223
-2218
-4458
2338
-616
8391
-3905
-4060
-874
-1174
-6339
-7906
4559
-952
-824
3961
-3846
127
-3679
-8071
-3906
-1949
-4029
1049
399
-969
-11509
-6842
13500
3078
-4720
-1420
-1296
-4307
-5892
-917
-2773
6906
2800
-4750
-5234
1988
74
-6308
-437
7869
-4777
-3307
-926
4832
-3385
-2604
-2750
-4527
-1468
-6616
4139
-7471
-1137
-3027
-1503
-327
3215
-3340
-7351
-4964
-3160
694
-4299
-4370
1278
4567
-5121
-2255
-1180
-2848
4436
-6798
-5388
-11610
-3722
-4741
2953
2813
-5606
-4176
-2894
777
16
2946
-4180
2891
-4122
-8730
6122
-3601
-2437
-2146
-1682
-4174
-1506
-1905
1784
-3997
-614
567
1704
-8135
-4866
-3887
-3439
447
-6212
-6215
3733
-2922
-4101
-7418
1851
-1322
-4846
-2615
1724
-1925
-8866
-3392
-4685
6723
398
-4932
-3618
4517
-4067
-4037
-3929
-440
-4109
637
1016
-6053
-2257
-5788
-4167
5298
-7494
-4462
-6778
-397
-1436
-5306
7098
39
-6223
-1140
-2687
-5918
-2559
-4909
-1001
-2376
-7568
-502
4074
-592
-2417
-546
-8530
-760
-3082
202
1703
163
386
-4708
-2460
473
-3186
-4126
-5828
-300
-549
-9417
-1373
-4962
-380
-2985
1037
-9940
-5845
1567
-1025
-603
-6970
-9434
1347
-3428
4445
-3533
-3835
-4158
-1842
-5981
8845
-2144
-2703
1926
-3396
-5454
31030
-7581
-364
-3780
-1887
1598
1389
-433
-722
591
-3196
-5510
3006
-4685
7773
-7225
1018
-4394
142
-3209
38040
-1515
-685
-5077
4471
-4738
-3971
-4860
-4175
-1530
-2403
4158
-5329
-607
674
-1938
-3313
-3751
-1621
-4274
1487
-1761
7009
-7418
1201
-7373
-4694
-413
-18
-2552
-7413
-2295
-5609
