-18323
6163
-11277
2440
-300
-3213
-2033
-5523
-3246
8991
-8935
6254
-2674
-1408
1914
8430
-10034
-5004
15865
-3347
4246
-7803
-7199
-8767
-7736
1959
2605
1856
-16725
-2421
-783
-12224
8892
4218
2350
-10726
-19580
-6232
5188
-1396
3186
-4849
7409
9250
7265
-5891
1714
-2503
-6244
-5175
361
-4658
3570
11423
-3097
7348
-1575
-549
-5775
-3061
7888
-10483
4555
-3180
-2158
-3641
-2275
-514
2689
1257
-827
-6290
-16808
1145
11298
236
-1022
-1440
-6569
-5823
-12811
-1209
-9571
-10965
-5853
-4087
12608
8533
6546
14789
-10362
18144
1687
11881
-4510
9359
11291
-7834
2573
5651
6987
-11374
-5377
2307
5930
-2065
-3934
-9711
-5154
-7966
-7372
14486
-9469
-2055
-5805
5187
-2640
-11386
5818
3591
-9865
11037
1353
-1919
9707
-11888
-1914
-10947
1339
1322
-14524
5042
-1045
9721
-784
-339
-1798
-18445
-12183
-7352
-6265
4808
13083
-3473
9780
-2250
4681
550
-1759
1721
-10284
2121
4122
-3227
4350
10942
-3007
-2997
-3557
3806
900
-7430
-8742
12257
-1057
-7403
-16278
12274
-3414
-3925
12695
-3565
-8750
-308
9375
9018
1148
-10146
-14930
2493
22858
-1728
-15548
-3266
4757
12214
2289
6994
-6104
-12261
2623
12327
3718
10715
13034
-7852
-5283
13270
-6202
8564
5146
4310
-2063
3095
144
-2526
-3743
-18392
-3563
-4926
8577
-376
-1797
-2279
-2808
5177
10549
-1930
4621
-6129
3807
1387
9485
-3613
-5377
6569
5023
14863
-2015
-14171
928
7421
3677
7639
2265
7115
-12026
25974
1004
6187
1774
-1503
4255
-4352
-3574
-8460
4833
-2787
-5496
-546
3856
5235
4398
-12313
9015
-8483
3979
5971
-2639
-430
-5213
12577
12116
5403
10248
-731
2082
-5484
2200
-8823
-4984
18859
7109
-14254
1614
-470
10730
6487
2025
-5832
-2348
-11324
-3782
-10609
-9921
5983
2381
-7875
-2447
9163
1325
-7663
6099
-4128
7620
3475
-9299
-9551
-11456
-13163
-457
10756
-23756
5340
-13605
-3703
-11277
20942
10618
-7434
-12676
-4735
-4056
-4227
-6160
-2731
9493
-12759
-17035
911
10931
-3287
-771
-4114
-12843
1058
1854
7276
11915
-4228
16650
-5227
-9067
3538
20723
-8775
7451
12454
5825
246
-6052
7907
2237
9356
-6063
-12102
-17873
-11330
-15966
-2619
-7678
-5172
-5032
-3808
-4020
6366
3320
17390
3240
13559
3796
1081
-14246
-2562
-507
-5881
-2174
-11645
-2055
8220
-8042
6287
-1294
3515
-5108
1510
-3538
-10189
-3171
-76
-1583
-5868
17469
16514
5633
-1550
17630
-5357
4000
2614
-4291
12591
33609
-1136
17479
3915
-6232
-8389
3145
-16621
-13583
7488
3913
-2167
17474
11694
4802
7062
3730
-1404
-9276
251
-9256
-15763
-263
6626
12675
-369
-1646
7745
-4914
-9161
8754
9880
-5270
21123
8483
-10221
-791
-4767
-3566
-3957
-1745
4097
-2657
3629
2584
6256
-4581
21184
17817
-4176
-315
4348
-10733
-12845
-594
-6309
7586
14853
333
9641
-171
22497
4589
4493
2565
-2771
13217
13235
11241
-8553
-972
-12831
-10936
4652
5046
-1267
-3663
7941
-3231
-4172
7289
3691
8407
-13760
8483
-6526
-5154
-7886
-5356
-2054
4159
2359
1706
44
-4140
16
-1375
-4810
1293
-611
-12714
845
-6605
-574
-10381
-2078
-906
2311
12109
5238
-118
-7012
4326
10950
1771
9429
608
-2039
1640
1350
-3163
1155
-3895
-1515
4868
3081
-13762
-191
13266
-4391
-4364
-6450
3713
-5464
3079
4331
-3848
5931
-2954
-3928
-7783
7351
-2316
11262
-6401
4665
-7353
13862
-7669
-9381
5520
914
-535
2497
-10130
-15448
5703
-446
-18123
13230
-620
-6564
-91
-3805
-2014
18977
5944
-722
-2110
4191
18093
-6716
7105
-14264
-1413
2541
-3039
-7971
-9703
-5239
-7183
8001
-8956
-836
4350
-3005
651
658
11779
23905
5263
12932
-5609
-2885
-3658
-3288
2096
-8072
-742
3905
-9315
531
-8141
-10376
6552
9945
-5469
-3856
496
-175
4633
-19856
-1682
-863
17346
-4157
-6117
-13576
-5229
-6313
-4825
13129
-7890
1462
-1950
2860
-1527
24791
5305
350
14257
2533
-1173
2154
7863
10957
-4696
11781
6611
2547
-3002
-6524
-10897
-5816
-7097
6109
6396
37819
-10304
250
-2085
3332
6125
-5331
-10810
4155
-7140
-8234
8204
1862
3796
7593
-18071
4439
-6471
-3797
4175
22635
-1489
21833
-14286
1201
-10739
8226
3310
-3537
-3623
-12972
13855
-4368
