95153
-163166
-352509
295205
33602
-428016
137247
-53171
-8378
-30492
-7196
360195
37053
686315
-102129
-235702
342741
387407
318934
350427
384259
-185497
-90823
380787
-297774
261440
362696
-60954
-240666
-71274
-47515
78964
251721
-306145
57593
148942
-79105
44197
-103904
33103
-48824
228007
-273829
-97279
-115171
328104
142061
-152016
60912
481822
211748
-144950
180255
226309
27634
141421
347872
-247537
-13093
-316203
18790
-124077
320036
1166523
87079
25299
425
10939
156479
332927
1164183
-49952
-348913
-896777
-198153
22260
679830
-269484
41710
-829593
-208469
491177
-185579
-201388
136097
-268206
239411
94035
-281003
-152999
-202413
-123369
-97709
-35198
284673
-333226
-305208
-200074
174726
56637
-421761
891889
87317
-22500
-268075
88874
346286
-94106
102745
24609
768316
102260
-295853
295204
-626237
-269145
-34474
-16051
304846
-454914
-7571
755424
-148385
-32886
342690
-59018
-802182
172713
292560
154845
172745
-1087398
-305085
-133156
251263
106700
379972
-467289
-156868
-206284
168193
-186075
75268
246497
-340540
-69299
-740765
-494231
156762
142747
-178174
-384217
-138026
28398
325091
234823
-491401
-97302
-943920
-338042
148506
161074
273266
553837
69451
-20185
-295323
254715
358691
-299023
-141907
63821
355291
-94227
-4618
-37277
-381512
343037
151507
-917763
76565
-274142
462066
-70740
68696
-29898
-185960
-346326
224798
1065999
-324
188114
