102105
-19509
-400510
140488
63370
-653295
116078
-116064
12895
-8140
175140
169141
-146689
655327
-103201
-162974
441336
693656
308777
403725
148911
-47860
66988
229474
-76117
22426
348839
-20363
-316431
-125248
180250
-151841
202459
-351572
-338994
238327
-50728
98549
21866
-225585
-343684
361894
-225446
-94333
-173863
284957
-15422
-66555
100581
409332
288210
-243879
254332
345006
168063
104890
401503
-181571
33119
-342664
-51570
-157347
278834
1432989
-163210
-139026
-45397
23975
61694
374802
1755997
-225922
-761019
-628394
22989
284662
681439
-388654
154445
-651384
-559740
614776
-189270
-232341
23880
-134125
86517
-172055
-306220
20650
-106974
3033
-17242
-58721
331276
-481011
-422820
-464697
403599
41386
-294756
724140
132580
39642
-177201
45516
172601
3169
77865
73692
517324
74330
-494770
319127
-701872
-193544
79724
-131664
207351
-243267
34312
622088
-172333
-193756
397211
228675
-1444307
180433
132036
233334
291757
-1134604
-459283
-20552
286318
45848
602875
-184198
-135718
-258472
-85574
-128614
-112656
148426
-254833
221561
-1214136
-455770
15601
91866
-374797
-297150
69551
-129683
356221
-50180
-548924
67596
-701821
-570788
-84970
-85107
256060
607089
34702
-175807
-318035
405966
555770
-189034
-2891
115876
440442
-51702
142091
55327
-248794
320673
198634
-1195251
-107561
-102259
266976
-79772
-6150
-183503
-178112
-284099
154211
880473
38628
151697
