-1062
-1359
-855
-1029
-1097
-1109
-1549
-249
-2144
-418
-1101
-2412
-1873
-940
-1958
-1585
-3065
-2299
516
655
-1314
-2998
-2146
-2521
-2920
-2110
-2863
-1550
-1643
-2718
-3816
-3694
-3513
40
-288
-4093
-38
-2988
-1911
-2674
-1441
-1660
-3799
-2401
-380
-1637
-87
-2958
-2314
-2039
-1064
-1375
751
-1164
-208
-829
-1496
-2609
-2647
760
2052
439
-2063
-2143
-78
-931
-1044
-1410
-1259
-1367
-1990
-876
-1538
857
-2321
-381
-458
-813
704
69
-1201
-2130
-1084
-5154
-2474
-1305
-703
173
-866
54
-1927
-2529
-2794
-2460
-3797
-2649
201
-2693
-3783
-1862
-2150
71
796
192
-2326
-1787
1010
-3702
-2206
-3626
-3646
-2752
1177
-1664
-1099
-4840
-3155
-2974
1811
-1817
-1735
678
-813
-2648
-741
-1597
-969
-2187
-3117
-3185
-1605
-2199
-60
-3948
-1465
-3803
-3190
-1655
-2997
-2505
-3133
-1371
-1600
-2213
-2169
-1195
-1885
-2542
-1314
-714
-1684
4742
-2581
2011
113
2570
1829
1355
-1663
1408
-1052
1294
1831
2928
-331
-3003
-1504
-3447
1285
1122
1536
4492
1768
2185
3487
-4568
-291
603
3777
1190
1361
293
1978
1291
4290
1893
2546
1617
-900
3651
-2533
2874
1456
-318
-1891
4077
696
2815
-234
3021
376
1023
286
2773
1241
716
279
505
2836
1316
-604
1553
1398
-529
814
2437
506
2606
1512
1075
1870
-1511
1103
2841
586
1299
-540
1970
167
480
1242
1514
3224
-134
1223
1855
4023
2977
4211
2182
2275
2311
1986
1536
-1520
2247
987
417
3458
3293
3716
3787
-1559
3194
2765
-1275
405
1351
3409
2791
-480
1379
-3167
2752
2360
3520
1900
2099
-6681
-1488
1580
-1516
-490
1410
-1359
-1485
-1788
-1601
-1053
-898
-425
2206
1540
222
2489
2197
-1835
-2077
-298
-851
-1334
-4441
-1311
-1261
-1907
-1530
-314
-216
-1686
-471
-3728
724
-880
-1682
-3553
-1648
-446
-2576
-1785
-2195
-13
-3496
-2392
618
673
-876
-2533
-3372
-1561
-2290
-4256
-3246
-3116
-1231
-2252
-2575
-2965
-1342
-1875
-2588
403
-1700
679
-747
1112
-2601
-1340
-601
-1375
-3078
383
-1689
-414
-1273
-2141
-82
-1686
22
-1710
-1560
-1934
-2140
-1209
-87
-1050
-41
3940
555
3200
3475
-1922
3149
1321
307
-1319
48
-1538
217
815
817
1004
1914
-1747
-70
-1562
717
-2899
-1080
-105
-1617
1019
1081
1412
-497
-2632
-90
-547
-990
-1033
-1946
-1875
-1349
-5426
-3104
-611
-1837
-2832
-3555
655
1440
1126
2936
2686
-2316
-2901
-271
-2680
-2400
-1894
2485
-709
-2393
4039
1412
904
-496
-58
58
2368
4552
1257
1532
691
302
95
-431
-1009
2696
2594
1145
-1672
289
1994
-283
-185
1969
-1097
-104
353
-300
2289
1522
-1046
-691
-874
2321
253
3137
1868
-2619
-596
61
3
1316
1008
2598
2188
2984
99
1793
-811
1361
2871
6333
411
-575
-2972
-1560
-833
2959
850
220
-2258
1433
-431
1372
-3071
-291
1545
594
1670
1471
1256
161
-2105
-2400
1120
3347
3339
2114
1070
333
429
754
2745
-1942
-407
-1474
-908
2371
-1484
3029
1130
-1514
1533
-80
1547
982
3488
-3102
-1603
-1898
660
1935
2792
4892
396
-1965
307
2306
-1130
-219
1287
5410
-2027
-1707
144
160
42
1642
3430
-3788
534
-1658
271
-1404
-480
-10
-732
2672
-1065
602
3139
2281
-1181
1725
1288
-3719
-1604
-1522
-3106
-402
3232
2230
-2308
-3367
169
1984
3858
4320
-823
-1830
-2489
-584
-1284
-2918
1740
748
1611
-3042
2558
-1467
2178
-1726
1909
-561
-2861
3509
2052
533
-812
-1604
2431
2263
-1295
763
-2910
5639
-426
947
-3040
-529
-1801
3263
459
-2203
610
-1422
293
490
7688
1430
-513
-744
3076
2156
2215
-472
2189
-1819
2471
-245
-2031
2490
-745
542
1497
2756
3193
1679
4726
-402
5479
-923
-192
-1453
2216
-2234
-1677
2508
24
1711
2173
1493
-2343
-3455
2674
1666
2565
1415
-3633
2233
1279
2323
1895
131
1109
-191
-698
1477
3203
680
1110
718
-2387
2790
-557
559
-568
2330
445
-2313
122
-1833
2731
-1806
2332
1053
-3403
-1012
-761
-480
754
2682
2274
-2445
2546
3177
3749
-1712
1746
3632
231
4048
-1081
-1266
-3581
-1937
-418
-2352
-1396
958
1409
53
-1982
1825
3691
-961
266
1087
4632
928
1769
1296
1572
-1930
-2211
941
743
-651
76
482
-3311
-203
1424
-2257
1703
-3732
-217
1509
2541
-1820
1915
456
-3594
637
-816
-1134
2864
-4178
-866
4825
-88
6153
-3159
365
137
2542
942
-1202
-15
-1408
633
189
1615
-156
-1489
1971
-909
3370
-346
-2824
-324
2521
1076
-2072
-67
-3068
-1319
458
1307
4607
466
1243
3337
1500
-2541
1060
-346
6523
437
-2897
2988
-74
1463
-179
2284
-653
31
-465
-2015
-2030
3863
2479
4548
1110
165
-2223
429
796
391
1168
3282
3694
-380
-34
4673
2283
-1668
3345
-630
-1690
-2237
-1456
1067
4046
1366
-853
2981
-2377
-1626
-1550
-3458
6733
-1445
-768
-2314
-1754
2231
-1316
-2792
-2150
684
2050
658
404
-409
-241
2674
-2631
1345
4
-1204
-2180
3325
-2933
6074
5786
1945
-1854
830
-1193
-7
-299
1367
5664
1631
-1224
1694
-1547
2621
4537
5621
494
-488
2042
-2157
-4157
874
2117
157
985
1519
788
-2457
-1631
-777
-1060
734
-325
-248
-2374
3841
-84
-3174
1869
3319
-88
143
1706
3391
473
1759
-477
665
1060
-2648
-2879
571
1823
-2557
-3061
1958
-1740
-1014
-2986
1105
2018
4301
5463
266
-2880
2328
3659
1792
1857
-693
3656
-745
507
4554
1368
1557
-1729
-2202
-194
915
-807
1726
2944
589
334
451
113
-760
-1010
-2970
-1246
-1218
2908
718
-846
1454
-2693
-610
-1536
-716
164
-1346
124
-2411
-1298
-659
-1210
-2409
-2438
-1671
-592
1696
951
2133
-229
-553
-942
-580
-909
-1669
-2179
263
-1289
-1303
1272
-625
-1136
-3724
-2477
3221
392
2659
99
593
2396
-859
-195
1174
2075
1293
2975
2195
1364
104
306
-1049
-335
1638
1182
-1422
2066
-2531
20
-920
-2458
-1591
-4759
-3046
-490
93
-4096
596
2037
