-4394
17191
5973
17673
3154
2965
-3958
-18329
2677
283
-2
6418
1109
2567
-7944
-763
3882
-12389
-11069
-5324
7198
1033
-10179
-3252
791
1264
1434
-11378
-4916
-15578
-4233
11360
-2396
1169
-2428
10061
2420
-3864
4326
6555
13231
26975
-6256
8915
-1033
-7871
8327
-4007
1718
4728
-8028
-20038
2888
-7478
-803
-3695
12631
-735
-1751
9546
12271
-5274
-1230
-6058
5466
19581
5914
-9221
10764
1790
-6282
7858
-1924
4949
-6415
-11709
-4559
-5754
-5065
-3024
13549
-9804
356
2933
7149
-6039
24655
8233
-8809
926
3401
16393
-6583
4528
-1111
2136
6610
21448
-14774
-2631
-16050
9943
12437
-2770
3857
6367
14717
-3991
-4057
-6343
1250
18839
2944
986
6882
-7623
-4446
-7812
-4893
8695
-11192
8338
7010
505
-1910
3785
8198
15979
-4103
2509
-4879
526
-18215
7585
-11019
-16890
9650
-8109
-8601
-15980
1018
-7312
-2382
-649
-2832
-4634
-2359
-10549
1393
31343
4333
-10752
12991
-725
21000
1284
6696
-99
-5176
-3361
-9095
-8933
-4670
1890
4899
-663
8878
80
-22096
2083
2713
-6869
-11275
-16486
-3200
-7243
3344
-2295
-2103
11538
-8407
-14548
-4246
90794
-11543
-18203
-1257
-7716
4494
3079
3577
-2213
8540
-4062
-13874
-7337
9053
585
4400
2493
-4017
7036
2549
-14740
-4622
-11587
-7018
3172
-3395
2887
1359
256
10360
2616
-11724
-17273
11998
-15653
32293
12355
-2214
-762
-1544
14239
-6417
13810
-8330
-4112
-2544
-8682
1067
-9144
-2040
5343
8535
-2133
375
7160
-15382
-5392
14639
-2339
-3558
-9042
1591
-2766
-2321
17213
-8112
-6043
3321
-5424
15348
-6750
-4878
3971
-13172
-12073
-14697
-13676
-626
-18355
7972
9156
863
6121
13661
-871
3061
-1869
-12359
1412
-10562
-2927
-5677
-8709
-11911
-6061
-7348
-1150
-10680
8056
754
5185
-2446
1435
-13075
-13422
4031
12732
9852
16336
-779
-8686
-3483
-1194
14030
3769
-2925
-7941
5339
1707
-14393
8406
7497
-14003
464
4712
4651
-9250
-190
-2906
7578
-3918
5446
4061
-2860
-14700
-16692
17950
-2050
-2731
4636
-14097
7133
15372
12064
-5642
22003
2353
13390
-62
-15128
-2360
-4440
23227
-3924
2191
-13877
12486
-16433
-6851
8306
-1749
5457
-11296
7288
9208
18406
501
-9821
-15385
2359
-7621
5615
8470
10543
-2718
3800
13854
-8818
7509
-4582
-12718
2872
-4714
12222
-3301
-4551
-1020
-6247
20262
-4675
-2674
-3876
7715
6528
-2872
-13446
4129
9782
-10184
8121
-10842
